#include "spk_conv_model_params.h"

const int8_t spk_conv_weights[55296] = {-78,-7,46,62,-3,53,-35,64,-74,7,57,70,-23,-27,95,33,58,10,-14,21,-56,37,24,41,15,-37,79,-17,79,-14,8,69,-43,35,4,16,-1,-21,51,-17,116,30,27,114,-49,51,17,6,-67,30,25,-18,127,32,60,108,-18,34,23,6,-68,11,20,-3,122,2,-31,88,-32,72,-40,83,-14,2,-8,41,55,41,-75,19,-57,35,-16,99,5,-27,-23,80,-18,85,-33,29,-58,13,-9,94,-38,-7,5,114,-5,52,-68,26,-30,73,25,102,-13,-39,4,48,-7,0,38,-50,-73,57,-30,-2,-6,-9,15,42,13,-22,50,-42,-78,76,-59,-14,-4,8,5,25,19,-12,34,-44,-63,62,-70,-17,-4,6,1,5,15,28,53,-24,-58,75,-64,5,-9,6,-9,-3,31,48,45,11,-66,39,-40,9,-7,10,12,-8,43,67,6,16,-88,28,-40,1,-1,5,-3,-16,40,126,-37,29,-56,17,-61,11,-2,10,-16,-15,52,127,-104,60,-1,12,-70,10,-10,14,1,-16,52,120,-54,44,57,-6,-78,10,-21,-65,-28,29,-3,33,55,19,-65,-3,23,117,-17,-82,-27,4,-26,40,68,-1,-66,4,54,116,-21,-65,-28,21,12,80,75,17,-41,-24,24,96,-31,-41,-20,11,1,71,96,38,-18,-56,8,84,-31,3,-12,-11,-2,67,111,46,-46,-77,6,79,-20,18,-9,-8,-36,111,127,54,-78,-73,12,92,-2,24,-8,-8,-60,110,113,42,-34,-60,8,96,-22,38,-20,0,-40,89,82,9,-20,-65,-6,99,-26,53,-4,20,7,64,36,-14,-7,-46,-29,118,-51,-2,15,-18,37,-25,24,85,21,-25,-87,-1,-56,-18,50,5,9,-36,45,79,38,-54,-87,27,-8,-24,125,13,-14,-7,11,23,8,-82,-52,0,32,-35,67,4,45,9,40,92,-31,21,-37,0,0,11,3,8,27,50,-66,-6,-76,72,2,66,-10,47,-66,52,42,116,-10,-9,-70,93,-26,67,-26,5,-82,41,93,127,-66,6,-93,58,-7,60,-26,-9,-92,79,16,125,-5,-6,-29,1,-24,38,-28,-43,-35,117,13,66,4,1,-108,22,-27,-5,13,22,17,12,15,45,16,24,-75,61,-38,127,-4,55,48,-12,20,17,23,38,-2,-10,-4,60,-64,-12,80,16,-9,43,-28,-2,-21,-25,-5,18,-70,-90,32,83,7,4,-63,-15,-73,51,106,-81,-16,-46,-47,33,59,15,-82,8,-60,20,104,-75,-1,0,0,-34,47,68,-16,4,1,-50,-17,-98,13,30,50,-15,-1,33,15,-10,10,-71,2,4,24,6,45,13,-45,-26,-23,0,-43,-53,-19,-5,2,-12,6,43,44,54,-26,-37,-39,12,22,-40,33,-36,65,-30,46,17,61,4,-80,-15,1,4,28,-16,72,9,17,57,50,45,-47,5,-13,20,-7,14,32,0,-16,27,-49,-4,-78,59,1,39,-21,76,-13,-28,-17,7,-88,5,-8,113,24,-4,-41,56,-14,-15,-23,28,-43,-39,-5,84,-59,-24,-7,36,17,10,-29,37,-21,-57,35,37,-36,2,-76,-4,13,18,17,22,20,-25,-31,-38,-11,27,-93,-21,5,-5,94,21,31,7,-40,-53,-39,33,-127,-26,5,-49,75,5,67,61,-77,2,-54,54,-24,-30,59,22,15,75,-11,24,86,20,-41,79,8,-5,31,35,45,74,29,14,97,19,-90,33,21,-21,-6,24,20,25,13,15,55,-1,-90,-27,12,-16,-17,58,15,54,4,-5,-3,-13,-29,11,-5,-31,1,55,-1,57,5,6,-14,-15,-31,12,-7,-24,20,64,6,37,-18,21,-36,-15,-38,2,-15,-18,24,48,15,24,-22,6,-45,3,-93,-46,-6,-39,20,42,9,91,-37,-7,-80,-35,-66,-48,-16,-57,-6,61,31,127,2,-17,-80,-54,-60,-57,3,-37,4,57,68,62,-5,15,-49,29,8,13,-21,-12,-6,69,85,21,11,100,-45,35,22,22,-32,-5,-14,43,71,-30,-16,120,-47,40,11,55,-35,6,-14,39,77,11,-8,119,-63,35,-12,48,-34,2,1,35,25,21,-27,109,-90,29,-33,73,-15,-3,11,-3,-5,-2,-37,79,-121,-9,-28,77,4,-2,8,12,-12,-16,-62,90,-127,-80,-20,84,-18,1,31,-2,27,-5,-50,87,-84,-66,-3,65,-55,25,60,-17,14,33,12,47,-11,-70,11,53,5,37,13,46,-67,32,-25,-60,-85,-127,51,23,-35,23,46,62,-57,33,8,-23,-85,-86,34,5,-26,6,39,46,-42,16,26,-2,-53,-58,-4,-12,-35,-6,15,22,-4,11,19,-3,-24,-17,33,11,2,18,6,9,29,-9,12,-31,-23,-52,3,15,-8,27,-6,22,39,-26,2,-23,-37,-48,-64,44,-15,0,-10,0,24,-38,19,-38,-49,-3,-49,60,5,-33,-20,-39,13,-10,55,-74,-39,22,-36,76,23,-60,-24,-40,-25,12,65,-91,-12,34,-11,115,-38,18,-9,61,36,57,-38,62,-57,68,36,87,0,14,0,66,12,71,8,38,-102,21,35,85,13,9,35,101,0,42,-2,12,-108,22,49,55,-23,-6,3,101,-9,18,32,19,-95,84,54,64,-30,-26,-10,115,11,34,3,25,-93,76,36,33,-23,-26,-13,92,33,38,-12,13,-64,86,-1,27,-36,-31,-7,82,34,63,-61,-8,-91,48,34,56,-26,-19,2,76,18,28,-36,-7,-62,56,27,48,-66,-32,21,127,47,31,-61,9,-89,22,24,74,20,34,16,-37,5,-46,-38,3,-30,98,60,93,-18,23,9,-37,-2,-11,-58,-37,-42,54,-22,91,-16,45,53,-28,1,13,-99,-49,-27,-14,-38,12,-3,37,47,-5,-6,10,-23,-44,-11,61,-9,-40,-6,-23,17,67,28,11,20,11,-18,10,-12,-64,-43,-74,-42,59,30,15,63,32,25,-45,2,14,-52,-45,12,-18,40,17,84,76,10,-83,-28,12,-17,-14,48,-29,76,12,-12,30,17,-36,-102,18,15,16,0,-23,71,-9,-22,-26,64,-12,-127,-14,-61,-67,79,36,-31,70,33,67,-50,127,-3,42,-54,-25,-24,42,17,57,-7,14,-12,84,9,49,-22,-11,-100,-9,14,4,9,-17,-23,103,-28,49,-51,18,-54,-54,27,-6,-23,2,-6,50,-51,33,7,44,37,-22,39,-47,-65,33,-39,46,-41,75,40,50,47,49,64,-63,-74,16,14,100,-2,94,2,37,122,21,0,40,-19,39,-57,-46,89,52,13,-12,102,48,-81,3,23,39,-55,11,91,-19,17,-10,4,77,7,-19,-19,114,-87,9,60,-7,22,35,89,77,-21,30,-9,20,-16,-8,55,-9,15,37,-3,48,-95,6,-26,-3,18,-8,0,-84,20,54,-58,49,-35,-8,65,63,5,-13,-52,-72,0,68,2,77,15,-41,26,61,17,-51,19,-74,-5,72,28,10,56,-22,-19,93,-4,-53,33,-42,-32,-17,97,-3,-7,76,-53,77,-6,-71,108,24,-47,-127,107,11,-100,120,-46,-14,-31,-64,77,82,-18,-126,61,15,-48,72,-20,23,-47,-74,-26,0,-6,-31,120,7,55,91,-33,-4,11,-84,-121,12,-47,-80,8,52,-25,110,-82,-41,-28,-33,49,61,-47,-48,34,12,22,127,-26,-24,-37,1,-78,63,-26,12,54,-5,18,93,-67,31,-49,-5,-69,42,-25,20,40,-22,86,61,-102,35,-64,19,-49,-20,-23,3,37,-25,61,33,-67,23,-101,25,-50,-25,13,1,13,-33,83,26,3,19,-50,-10,-64,8,19,7,43,-23,47,-13,9,2,-79,6,-78,-17,36,-11,29,-47,39,-7,45,-22,-77,50,-75,21,29,-69,0,-68,-27,-13,40,-83,-62,28,-112,52,-20,4,46,38,-41,10,-32,6,-7,43,18,-22,1,-3,53,28,-43,7,-32,10,-17,31,-2,-38,4,1,52,29,-37,2,-27,31,8,42,-28,-27,-4,1,42,19,-37,-4,-31,25,-17,28,-55,-4,-2,-5,27,4,-24,0,-10,19,-58,26,-35,22,-21,0,13,28,-8,13,-18,32,-85,2,-32,14,-47,-2,13,48,8,17,-10,74,-99,-14,-2,-12,-46,9,30,42,27,-4,-34,88,-127,-12,16,3,-49,16,25,19,16,-12,-88,51,-109,19,9,-9,-23,-49,5,46,12,116,47,-7,-15,58,-24,75,0,-23,3,48,13,62,34,-8,-5,26,-46,29,9,-23,-9,41,40,35,36,3,13,-6,-11,26,10,-18,-8,50,27,42,39,-7,1,-16,0,26,-5,-17,25,52,6,48,-2,-11,-39,-21,-18,25,-5,-18,45,52,29,56,-41,-10,-48,-13,-14,0,-11,-30,24,49,30,32,-26,-2,-29,-40,-44,-24,-16,-29,14,57,-8,51,-33,-16,-39,-94,-78,-45,-5,-36,16,74,4,59,-17,-31,-57,-127,-70,-63,-64,6,84,-30,54,-33,-38,-46,-116,-62,-127,-72,-58,15,65,-21,106,-20,-57,-29,-81,-54,-121,-56,-59,21,56,4,80,21,2,-6,-97,-40,-19,-28,-45,16,26,51,7,25,23,34,-31,-39,-21,5,-21,19,22,82,16,48,-6,19,23,-47,-62,22,9,9,-3,70,41,66,8,-37,64,-54,-32,32,35,2,-11,82,105,58,2,-64,121,-77,-66,-38,8,16,-14,116,90,69,13,-60,82,-90,25,9,-43,2,-61,94,80,97,-45,-50,-82,-86,41,8,-98,-13,34,94,17,35,-75,20,-13,39,26,54,-6,3,41,38,30,19,-54,-36,-34,52,26,25,20,-15,14,-14,28,-28,-51,75,-17,30,8,-31,29,-19,45,4,18,-12,-38,72,37,0,2,21,-16,-1,69,-17,2,-65,-9,57,55,-17,48,-16,-53,15,97,29,57,-27,34,41,15,28,32,-21,-46,3,55,29,26,-4,-31,79,-38,57,42,8,14,-26,-11,34,-4,22,-88,44,-50,89,-16,15,7,-11,17,127,53,43,-39,74,-48,60,-34,85,-41,-11,-27,19,-21,42,-30,52,-127,50,12,8,1,-16,-18,52,-13,44,-20,4,-88,36,-16,-25,-15,7,5,73,17,45,-19,41,-88,43,-14,13,-2,15,-18,44,25,27,36,14,-70,14,-15,-6,-8,-12,-13,85,14,4,4,-9,-97,42,5,17,-4,-10,0,75,4,3,15,12,-83,73,15,-18,-23,-17,4,53,5,31,-47,-15,-38,96,36,11,-21,-23,-15,34,27,38,-48,67,-17,23,33,26,-31,-35,27,88,58,47,-80,13,-61,35,-2,60,5,-53,35,68,-72,56,40,62,64,0,0,54,9,-58,-19,45,-3,72,28,59,64,-10,19,3,-25,-16,-51,20,17,112,-25,13,33,13,-9,-16,2,-21,-56,14,-43,55,-48,7,1,-4,3,13,-4,-5,-37,42,18,28,-37,44,-27,-6,22,11,-72,39,15,50,69,14,2,2,-28,-22,30,-1,-73,53,51,34,69,34,33,-16,-35,32,27,69,-24,-2,25,12,38,45,62,-28,-127,-4,-5,95,24,-17,-14,-9,-22,46,5,-6,-86,-53,-28,96,-91,-20,-14,22,18,63,-50,107,-101,72,-18,43,-44,-5,-14,4,17,50,-40,74,-119,53,-25,28,-31,9,-3,5,52,59,-9,82,-110,38,-19,56,-15,10,-13,1,49,32,14,57,-117,51,-16,45,-16,5,-21,24,50,43,-2,66,-94,64,-38,44,-23,9,-1,-4,28,73,23,95,-8,86,-13,30,-35,-1,-5,22,39,74,-28,95,-54,65,13,43,-17,-6,13,36,13,90,-24,86,-61,84,49,16,-23,-8,14,96,24,98,-25,127,-69,108,14,50,-67,-24,-44,33,10,87,50,80,-103,127,-11,5,-32,12,2,42,-31,47,11,45,-72,62,-19,36,-31,21,24,38,14,67,48,33,-107,54,-20,44,-44,17,42,46,22,33,21,21,-77,62,-30,79,-49,20,36,68,26,28,4,80,-79,62,-68,31,-43,-14,29,38,53,43,47,86,-39,52,-11,35,-42,-2,26,10,25,14,-7,64,-87,-3,-36,35,-24,-33,32,20,24,43,-44,41,-46,30,-65,44,-44,-64,50,112,63,27,-64,72,-82,27,-98,45,-60,8,-10,-29,33,5,-127,-18,77,105,-64,-17,-45,9,-22,-19,62,1,-96,-13,37,106,-86,-31,-35,12,-34,-2,77,-9,-69,-2,19,104,-69,-20,-18,25,-52,4,76,2,-66,-37,11,67,-91,-27,-16,27,-40,-2,86,6,-65,-12,26,53,-82,-16,-20,8,-34,-6,86,37,-88,32,38,62,-68,-2,-14,-2,-17,1,79,55,-79,34,41,73,-100,2,-20,-18,-8,12,72,52,-76,10,-41,102,-75,8,-49,-25,-31,9,67,27,-118,-4,-74,104,-66,3,-68,32,53,30,-36,-28,-52,121,38,67,96,-30,-23,12,76,34,-8,-3,20,61,10,-8,14,-8,3,24,60,44,19,-17,39,89,27,-2,-38,27,33,8,31,90,17,-35,51,43,21,-61,-64,7,-3,16,10,77,46,-42,32,39,-6,-31,-65,12,-23,-13,-15,37,56,-12,18,67,-35,16,-67,55,-45,-32,-23,28,42,9,-5,38,-54,-52,-61,104,-40,-18,-4,2,43,24,33,7,-78,-13,-14,106,-68,-23,-5,30,72,20,0,44,-56,50,10,127,-13,-11,-5,-23,72,10,-66,9,-15,10,41,71,7,-2,14,19,23,-8,-27,7,-25,44,30,67,0,2,-16,38,-2,43,-62,22,5,56,50,49,-6,2,-5,36,-23,73,-73,-19,5,88,-6,26,-2,-24,10,21,-20,52,-49,-22,-13,102,-64,-21,-2,-21,31,2,9,10,-39,18,-26,100,-37,-41,2,-3,33,-22,29,15,12,50,-51,65,-23,-55,-13,13,61,-25,-11,25,12,24,-50,25,-1,-38,-15,41,38,-43,-9,24,33,127,-32,15,14,-19,-56,-23,10,127,-58,20,-32,84,53,-44,37,57,-54,13,-11,55,-48,30,-44,56,-44,3,36,74,-41,19,-21,7,-21,4,-67,63,-46,-20,55,60,10,12,-34,-16,1,15,-31,45,-77,-75,7,32,38,-5,-4,33,11,34,-17,52,-53,-57,-26,3,17,-3,12,39,31,42,-5,6,-8,-31,0,6,-25,17,14,22,23,24,3,26,25,-7,-56,46,-60,6,18,9,43,60,-57,94,48,38,-40,36,-41,-28,27,20,38,104,-24,126,93,98,-16,58,-67,-42,21,13,28,110,-23,-7,-61,32,-39,93,-48,-30,-5,33,21,102,6,13,-60,-17,-62,75,-19,-17,-15,77,37,58,27,12,-90,-49,-52,65,-28,-3,1,47,72,25,14,5,-67,-30,-2,67,-42,-2,15,48,79,42,-31,-3,-97,-7,17,43,-45,0,16,37,71,47,-47,-4,-91,8,2,7,-25,-9,-34,15,40,32,-26,-1,-81,-11,6,7,-26,-33,-55,20,47,34,-9,-18,-79,-44,-19,6,-11,-46,-51,11,45,44,-26,-33,-127,-72,20,32,-11,-67,59,92,-24,99,22,68,-76,62,-59,118,-28,-28,74,54,38,58,17,49,-44,39,-43,108,-16,-11,66,11,60,18,2,32,-6,-10,-74,34,-13,40,13,-28,35,52,-34,15,-10,1,-76,27,-13,79,8,-29,42,73,-12,13,-36,-38,-114,37,-1,83,-24,-28,49,63,54,53,-46,-30,-87,66,-11,63,-1,-4,68,19,73,74,-71,-2,-127,66,0,31,18,20,44,23,24,48,-87,12,-121,101,-11,-15,13,21,66,69,-5,46,-71,-25,-121,113,-34,-12,-24,56,22,67,-24,47,45,127,25,-15,-8,-6,-14,30,15,10,-6,2,20,46,12,9,-6,12,-8,-17,16,36,-14,-30,18,10,5,23,-4,23,-12,-41,25,36,5,6,-1,1,-8,22,-15,15,-9,-29,8,54,-18,41,8,48,-23,33,-10,10,-12,-2,-2,93,33,66,6,48,-17,24,-20,-7,-34,9,13,76,13,51,16,70,-20,-11,-30,-30,-18,21,17,68,38,17,14,55,-12,-48,0,-59,-39,49,-9,76,74,19,19,55,3,-29,-73,25,64,67,14,52,102,-7,5,-14,41,70,4,-20,-17,10,-42,11,67,60,-16,-37,48,47,31,-24,-31,-7,-27,69,11,30,-28,-12,16,59,21,-10,21,0,-65,55,-74,1,-64,-6,-37,78,55,-28,11,33,-62,-3,-79,20,-114,-22,-1,97,-9,8,4,48,29,9,-42,18,-127,-59,38,48,-97,89,70,5,71,-9,2,-63,-22,-60,87,31,-67,48,50,-36,10,5,29,-34,-18,-79,98,27,-10,-41,29,-12,17,-3,12,56,-45,-99,66,59,-51,6,70,-50,86,23,24,-35,-47,-11,-48,-83,-34,5,55,11,81,15,11,-2,-18,-42,-19,-62,-52,13,55,47,42,50,8,28,-11,-47,-2,-28,-36,22,32,52,12,38,15,14,-19,-51,-16,-52,-2,-6,-2,62,14,13,-3,-17,-8,-87,-9,-38,23,-19,-46,90,41,18,23,-50,50,-113,10,-16,29,-11,-41,110,55,39,17,-42,55,-96,11,-36,-3,12,-28,75,30,51,4,-24,-8,-96,69,-40,-27,-25,-52,45,28,58,36,-5,-127,-75,45,-18,-73,24,-69,71,-90,19,-59,106,15,-26,23,7,-49,17,-42,16,-78,54,-23,-21,35,-15,-34,5,-16,3,-46,-9,-15,5,57,-13,-10,9,-61,-28,-11,6,46,24,8,7,101,41,0,81,13,-56,-15,11,47,20,66,0,100,127,28,21,-4,5,6,28,1,62,107,22,-53,120,-21,70,20,1,18,22,-30,51,37,16,-77,45,-70,47,-17,-17,22,-7,-34,21,23,44,-110,-12,-68,40,-29,0,-2,12,6,3,84,43,-111,-29,-60,62,-3,30,-65,11,122,-42,-12,30,-29,-1,38,-43,9,-85,-19,-3,87,-48,-5,40,20,0,8,-45,6,-49,5,-5,69,-20,35,46,6,55,-25,-47,-19,-42,-14,5,51,24,-9,48,17,19,-36,-46,-30,-61,-84,16,8,51,-41,57,51,26,-15,-51,39,-43,-46,-4,-5,49,-28,45,44,35,-31,-9,5,46,12,-7,-6,28,-8,44,38,1,-68,26,-13,91,19,-35,39,22,-13,51,34,29,-65,44,63,100,3,-57,19,16,-57,69,34,72,-52,-22,74,127,-16,9,7,24,59,25,10,45,50,-62,-102,-26,0,5,-19,9,3,20,26,22,48,-70,-49,1,8,-7,-27,1,-22,29,34,41,91,-71,-41,24,0,-10,-8,16,-34,55,17,15,120,-81,9,52,-2,-15,-3,23,-19,55,27,34,127,-63,4,52,-6,0,14,29,-7,92,32,46,113,-32,-1,29,-20,24,3,28,-18,74,6,52,123,-56,-11,14,-29,17,33,19,-6,56,-7,52,96,-45,-37,19,-30,20,46,-5,-15,62,-31,48,101,-34,-37,14,-72,-4,-4,43,44,59,-31,54,-99,127,-37,-32,-36,9,-1,20,17,10,-27,34,-95,93,-58,11,-31,28,13,32,26,12,18,14,-82,75,-50,46,-31,35,11,3,24,8,15,35,-95,64,-34,63,-23,10,7,21,36,46,1,30,-91,58,-25,57,-28,8,-4,30,21,45,-5,33,-67,69,-25,12,-33,0,-1,35,20,66,-11,32,-59,52,-8,39,-13,-2,19,52,23,48,-12,56,-28,43,-24,42,-9,-44,16,85,69,43,-56,100,-37,18,0,86,17,14,-39,26,31,53,91,-8,-36,4,-89,22,3,18,40,-16,49,41,117,-47,-83,-38,-95,16,1,-11,52,-20,54,23,112,-39,-60,3,-83,2,-1,-27,56,-17,53,32,96,-32,-75,23,0,-20,-9,-14,75,-17,61,27,78,-44,-29,84,-7,-32,-13,9,84,14,35,39,65,-50,-50,107,-46,-24,-29,14,56,76,19,45,39,-49,-78,127,-31,-37,-47,24,18,98,26,18,-10,-30,-60,76,-28,-10,-45,18,-17,22,39,-16,-52,-19,-48,38,-50,16,-21,12,25,72,9,-16,-1,-24,15,127,-28,26,-11,8,13,29,56,-14,-10,-10,27,104,-6,5,4,0,33,11,40,-17,-56,-6,15,68,-27,29,2,13,54,-1,21,-2,-76,-3,2,41,-28,-6,-6,19,46,-10,4,20,-51,8,24,44,-74,-24,0,8,12,-4,8,32,-16,-10,31,67,-60,-2,-1,3,36,4,11,23,-6,-15,27,79,-45,7,-11,-3,32,13,-2,1,-28,-7,6,77,-7,15,-9,1,30,25,-39,-28,-98,-19,-12,50,-16,-16,-4,-10,30,58,33,45,-55,46,-2,62,-18,-4,9,33,18,9,-1,3,-127,71,-63,31,-10,-9,19,48,31,-18,-64,-7,-56,48,-32,66,-3,-46,1,2,41,63,38,-8,46,67,-36,46,-32,-49,-57,-11,-27,70,32,30,104,52,0,-5,5,-10,-21,21,-44,37,38,16,47,-53,-26,-24,4,-20,12,-36,24,25,-11,7,-18,25,-37,62,-57,-34,46,-14,24,-4,-44,14,-82,-28,-63,18,-44,-44,14,14,41,-5,-40,58,-73,9,-3,39,-31,-33,15,-19,-14,-3,-29,-34,-46,26,-37,41,40,0,1,16,-33,-44,-58,18,-55,96,-75,33,-2,55,6,17,-9,-29,-40,65,-69,39,-12,21,-11,52,1,19,30,14,-2,19,-11,-23,-24,-19,-55,18,-44,12,31,127,87,53,18,21,7,25,4,16,0,5,-23,35,48,29,48,1,18,-32,48,-20,-11,-4,-13,3,9,44,18,4,-31,28,-36,-5,6,-14,1,15,-29,73,-16,9,-25,94,-88,-34,27,11,46,-12,-16,47,-35,12,2,31,-78,16,-29,20,-1,47,97,30,58,36,-60,10,-16,-17,-21,42,-2,53,51,38,-29,54,-64,38,-31,-5,-41,53,-22,40,28,33,-76,51,-28,17,-44,12,-39,38,-17,23,-18,35,-127,-15,-14,-23,-53,-28,-14,11,-16,14,-10,30,-63,-37,-45,19,-62,-28,-15,-4,14,25,-18,35,-13,-14,-55,56,-68,-48,-19,6,22,42,-23,71,23,-7,-76,45,-91,-52,-35,16,24,53,-45,79,21,28,-73,24,-61,-67,-30,23,31,61,-42,66,-12,-13,-87,6,-74,-80,-28,-19,44,57,-34,30,42,28,-22,-8,-41,68,-9,-20,11,29,-4,2,19,82,-30,-7,-48,76,4,-14,11,15,14,5,-34,43,-33,-45,-67,38,-12,24,12,21,32,20,-25,35,-1,-15,-80,9,-20,42,10,-2,52,29,-34,-29,46,36,-103,30,-12,24,-28,-28,94,38,-54,-63,105,62,-127,43,0,5,-12,-21,104,28,-106,-62,113,61,-121,58,5,11,26,5,74,37,-110,-42,113,26,-58,61,18,24,45,30,37,4,-107,-93,72,-10,-21,33,-31,24,-10,9,4,85,22,24,-60,57,23,-15,5,5,38,65,49,102,30,78,-29,27,10,-56,16,8,59,45,26,79,51,42,46,32,8,-120,-24,-1,22,3,5,46,48,21,31,7,-26,-65,-29,-2,26,1,-35,22,-24,-46,14,-26,12,37,-21,13,22,31,-20,-2,-58,-13,16,-57,33,77,-1,32,-7,34,-24,-24,-52,-24,-23,-4,37,98,10,29,-35,-2,-8,-2,-42,-38,-32,14,32,103,-2,-4,-30,-32,-32,28,-88,-2,-72,-4,55,127,-35,11,115,127,56,47,-76,75,-51,87,-11,34,32,18,91,35,5,-30,-57,51,-43,69,13,42,32,34,73,65,10,20,28,76,6,102,42,-9,0,25,70,104,13,30,-2,37,8,25,27,77,-31,45,5,67,38,-63,-33,13,-3,32,-35,118,-14,-18,-67,2,45,3,-19,42,-22,-12,-77,67,-35,-70,-69,-27,66,62,-22,14,-57,-97,-10,26,-57,-62,45,-86,59,94,-33,-13,-18,-103,-14,-22,-94,-39,111,-67,0,77,-57,-11,-26,-61,4,-81,34,2,53,16,-19,-10,-91,89,-119,52,25,62,23,26,11,0,-11,-18,-108,119,-127,77,-38,49,9,17,14,-5,13,26,-36,96,-25,54,-59,9,-10,22,-1,18,31,3,-17,-45,8,32,-50,5,-20,36,22,10,33,57,-12,-46,38,-3,3,-4,-38,11,-15,3,38,52,14,-7,23,52,-28,52,1,-10,5,7,12,1,-22,58,-28,31,-32,44,56,-30,20,-15,-29,56,-43,63,-98,2,-16,22,57,-57,44,19,-17,104,-61,85,-95,9,7,33,-29,3,-37,45,-62,-17,72,-14,-7,43,3,1,0,18,-44,29,-48,12,59,16,-58,44,1,-18,7,-7,-31,22,-14,20,27,-2,-67,46,-10,-35,-9,-8,-3,29,3,34,-14,27,-30,-18,12,16,-32,7,20,3,27,61,-19,16,27,3,37,12,-23,5,19,24,43,61,-42,21,16,33,37,11,-14,-8,33,58,39,36,-43,15,-1,42,60,26,10,-15,37,33,38,64,-24,33,-1,57,-11,-21,1,-38,49,30,52,127,36,40,-33,60,-31,-6,-4,8,-18,18,66,4,23,75,-26,60,-38,-30,4,25,-8,52,11,48,-77,70,-35,69,-15,45,-24,29,-12,68,-19,46,-127,39,45,-5,-17,71,-28,11,2,7,-22,41,-53,-63,41,-29,-40,-3,-7,-22,8,-14,30,38,11,-47,-24,19,-37,-37,-16,-15,9,-13,26,21,36,-18,-51,41,-49,-43,-4,8,6,5,8,7,49,5,-35,-1,-61,-53,-10,-3,10,19,-18,46,42,4,4,28,-16,-4,-33,-7,-27,12,-13,46,-9,-14,-17,59,-12,-31,-4,-2,44,-57,40,12,-30,-117,-48,-36,33,21,5,-17,120,-33,28,12,13,-99,-36,9,42,-4,6,-14,127,-12,46,39,22,-72,-48,46,24,-8,2,-15,107,46,3,77,-34,-20,-46,49,1,3,-2,-9,39,67,-32,113,-9,43,-35,31,-18,-3,-3,11,-11,61,-49,87,-23,36,-24,59,-15,-33,17,11,-21,26,-45,83,-15,41,-29,31,17,-42,29,-11,16,24,-52,55,-26,65,-18,60,8,-36,46,7,22,3,-47,38,22,68,-32,37,-95,-22,-52,-22,-36,40,-4,23,-20,67,-49,127,-45,50,-23,-2,5,34,-2,9,-43,74,-58,59,-22,67,-17,1,25,21,-33,13,-34,54,-35,-4,-19,33,-15,-7,52,54,-32,8,-20,24,-29,25,-2,29,-10,-3,31,43,44,30,-9,50,-47,38,-26,-2,-15,11,-10,47,67,40,-20,43,-70,30,-26,11,-18,8,-5,23,65,53,-18,28,-68,9,-12,41,-24,-19,19,9,37,41,-3,101,-58,-33,20,55,-41,-14,34,39,20,73,21,121,-56,3,19,86,-9,26,32,25,24,47,-82,-8,40,-43,-76,34,-15,37,18,33,37,27,-68,13,52,-45,-61,33,-4,30,17,20,16,16,-70,44,45,-23,-44,32,2,30,-10,10,38,15,-106,40,14,-19,-27,51,-6,26,-14,14,34,3,-127,-20,-1,-11,-42,73,-23,24,-16,20,23,30,-66,-3,7,-3,-65,49,-17,13,10,31,20,15,-49,37,12,14,-52,23,6,-7,-8,38,29,35,-37,63,29,-13,2,-6,18,-26,-21,33,39,14,-60,43,29,-10,12,16,37,-6,-2,-7,-42,6,-23,38,-126,-61,99,-57,5,36,47,36,-24,10,1,37,-34,-21,60,-48,3,2,26,84,27,27,-8,13,15,14,18,-4,-24,-2,42,43,60,67,-22,-11,7,40,-28,51,-20,15,31,-9,59,35,-74,-34,-40,-35,-25,72,-3,28,26,-21,10,-46,-74,28,-41,-61,19,46,-4,14,30,26,-31,-78,-19,69,-70,-36,78,-12,9,-14,-13,40,-36,-32,68,24,-64,-45,110,8,2,-43,26,-23,-2,12,60,1,-67,-37,127,-1,23,87,-38,8,-54,82,-79,-7,-42,120,-55,76,29,47,-11,-32,-39,87,-101,10,-43,81,-45,19,34,17,8,-31,-48,78,-114,16,-36,74,-44,13,29,-2,3,4,-41,94,-98,29,-79,66,-61,-19,19,3,25,26,-43,105,-83,24,-91,88,-60,18,6,13,-1,18,-26,108,-19,13,-74,104,-56,13,15,27,14,37,-16,127,-30,20,-60,98,-66,34,33,51,-7,70,-29,115,-34,38,-60,54,-101,45,31,67,-13,79,-65,97,-73,68,-34,40,-94,54,-28,39,38,71,-22,-36,-12,125,-12,108,-30,-33,-26,31,7,76,4,-32,-12,124,-2,127,31,-45,3,22,-9,72,10,-48,-10,58,-30,105,15,-45,21,24,-39,62,20,-39,-8,31,-59,111,24,-40,6,7,-33,78,28,-20,18,-1,-59,67,3,-48,2,9,-14,63,24,-24,37,-56,-75,61,-19,-48,-14,-3,3,49,24,-11,28,-61,-51,104,-11,-30,-16,-2,1,29,12,2,-1,-64,-83,78,-26,-26,-6,-2,6,11,4,7,13,-19,-84,84,-17,-43,35,34,52,4,-51,37,20,54,-39,127,-98,78,16,6,19,-13,-31,41,41,66,0,89,-95,73,10,5,10,1,4,27,21,34,24,16,-89,73,12,9,-16,-5,9,19,3,36,18,-3,-92,35,2,27,-22,8,6,17,-17,32,15,17,-109,42,-7,22,-17,4,1,3,12,56,5,30,-112,26,-2,7,10,11,16,21,-7,68,-55,38,-105,44,10,-1,26,31,13,21,-44,62,-74,12,-69,36,-3,-17,34,50,37,32,-59,65,-55,-12,-97,61,-5,-15,30,52,56,15,-37,-57,-39,57,65,63,0,-5,51,58,45,28,-14,-29,-52,51,47,15,12,-57,36,63,19,30,19,9,-57,69,49,11,22,-66,56,107,27,-3,38,67,-46,63,37,17,33,-34,75,100,24,-16,49,91,-28,49,-5,-29,37,-32,93,60,-10,-11,64,99,-52,47,-38,-33,43,-6,87,79,-44,-10,50,109,-72,27,-45,-12,29,23,40,98,17,4,24,120,-110,-21,-78,-12,25,47,-17,58,98,15,11,127,-62,-21,-105,54,22,35,82,65,-29,45,-44,17,-45,-47,52,23,12,24,78,76,-20,53,9,32,-44,-22,44,2,5,-11,43,15,-23,27,26,14,-47,5,49,-12,-4,-17,19,-7,-11,-12,17,1,-35,4,6,-6,11,-7,1,28,-3,14,9,-6,-6,-32,-32,24,7,15,-15,34,-9,5,-39,-25,-6,-47,-15,73,8,3,-33,33,31,4,-43,-28,-3,-28,28,31,21,5,-23,0,-2,-5,-25,-42,-27,-10,79,31,29,14,31,-12,-35,14,-53,-68,-72,25,127,22,37,-33,56,80,-34,27,-65,0,-2,-106,-87,-30,16,-40,37,48,-26,38,-34,1,50,-127,-76,-52,-16,-35,57,42,-18,29,-38,0,108,-112,-53,-44,-26,-22,66,51,-23,6,-36,-1,84,-103,-77,-23,-15,-18,54,49,-33,-7,-70,17,-8,-68,-76,13,-14,-25,79,47,-17,-2,-103,56,-30,-44,-93,29,-22,-2,95,41,-8,-5,-77,56,-27,-18,-53,75,-48,-2,123,31,18,-14,-86,51,-28,-27,-51,84,-30,-22,83,17,22,-34,-122,70,-18,-11,-94,90,-71,-9,-4,23,13,77,-33,55,-94,62,78,77,-6,21,23,74,13,67,8,23,-98,88,10,-4,-13,33,35,76,10,71,0,46,-127,47,30,77,-12,29,15,53,32,82,54,66,-47,94,14,30,-12,21,11,64,32,70,-15,10,-73,59,-88,-12,-38,12,9,73,61,116,-27,-34,-60,70,-38,-12,-10,-8,-14,31,83,61,-29,19,-73,55,9,-33,-34,9,3,3,36,55,-34,17,-66,23,-47,2,-51,1,40,97,42,54,-77,91,-68,29,-71,20,-37,17,7,16,-23,-1,-94,31,-115,-3,12,-94,-34,11,13,-17,-23,-9,-53,54,-123,23,5,-83,-42,8,9,-17,5,3,-52,56,-127,17,-58,-90,-48,4,-7,-9,42,16,-27,43,-97,4,-45,-86,-30,6,23,-5,37,11,-16,43,-87,-7,-26,-42,-13,10,15,14,40,25,0,32,-4,-38,-29,-41,-12,16,67,60,72,38,-3,24,35,-17,18,-55,7,6,52,58,59,46,16,-6,37,3,42,-43,-20,-2,51,68,47,60,23,-18,-6,22,48,-74,-68,-10,12,80,19,4,-51,67,-127,73,-1,30,-15,-22,-5,68,31,8,-13,33,-97,38,-18,16,-38,13,7,26,10,-7,0,60,-66,35,-18,62,-40,26,24,27,20,12,22,61,-71,26,-16,11,-44,5,10,46,58,51,24,60,-97,37,-2,14,-34,5,2,64,68,56,21,80,-71,47,25,0,-19,-3,20,19,41,56,-21,61,-70,44,-5,16,-17,-13,26,23,29,59,-20,42,-92,75,9,9,-50,-17,18,91,57,54,-22,40,-121,101,-33,31,-91,3,-59,42,20,65,-1,85,-84,127,52,30,-28,19,-26,50,24,46,35,43,-72,80,26,-11,-29,30,-9,61,19,20,52,28,-59,50,-1,63,-8,40,15,36,-35,-7,41,41,-87,42,-50,49,-1,17,38,55,15,42,43,40,-91,102,-32,20,-28,8,-7,41,1,35,15,30,-80,75,15,-1,-30,-14,4,43,62,20,-50,5,-78,85,62,-9,-26,-5,24,42,33,43,-45,17,-95,37,51,-3,-45,-9,20,108,65,64,-86,68,-111,17,35,-11,75,-19,43,-35,-3,-28,-25,-4,-37,-91,-35,-29,51,-39,-5,-3,-44,7,10,45,4,4,-78,-19,31,-30,-7,23,-45,12,-24,15,-40,19,-35,3,-16,-2,6,11,-6,13,-45,0,-25,42,20,25,-26,10,2,-20,47,7,-71,7,0,42,-31,-9,-33,50,-11,16,-6,15,-66,-25,-48,31,5,-26,-14,28,21,17,-23,41,-95,-32,-127,78,-5,-19,-14,-23,7,41,65,68,-11,9,-83,4,-28,28,-96,-33,-25,17,80,108,48,95,-41,34,22,63,9,57,27,-31,10,54,7,47,-14,90,-46,35,-39,58,-11,17,13,32,59,16,12,82,-37,23,-39,46,-18,75,28,32,-6,-11,-5,112,-26,17,5,13,-31,55,14,68,-1,-16,-34,12,4,-21,54,-28,-21,56,-7,53,-14,-6,-63,-113,1,2,65,-42,-28,34,-46,87,-88,55,-121,-104,31,7,23,-9,36,73,-18,127,-56,48,-123,20,24,18,-8,43,103,28,12,117,15,65,-106,71,35,48,-6,36,22,11,37,44,-14,39,-44,29,-1,54,-19,-15,-4,41,23,52,17,35,13,127,25,13,4,-7,-7,19,11,27,21,9,15,51,-5,5,12,9,-15,-11,6,19,33,-1,22,10,-11,3,-4,12,-9,-15,8,22,36,-7,-6,17,-7,14,-25,6,-21,-8,21,53,34,5,-20,22,-24,1,-18,1,-39,0,6,52,19,29,-1,18,-10,5,-17,1,-40,-6,11,49,24,25,-3,34,-5,0,-14,-9,-34,-2,19,60,47,5,-18,49,-9,8,-16,-31,-45,12,34,67,53,4,-12,40,-13,14,-44,35,0,42,25,42,15,47,-34,24,-100,13,-25,39,10,83,17,-19,51,17,-37,69,-35,-50,-22,21,36,65,-35,1,13,7,-59,18,-61,-77,4,-1,49,38,-33,23,47,35,9,84,-24,-45,-8,-53,38,29,-9,44,-8,74,-11,17,-30,32,-8,-32,24,10,4,107,15,64,-25,28,11,33,-29,-12,-5,1,63,127,11,4,-42,9,19,39,-17,10,-32,29,47,108,7,-17,-77,-20,-23,16,-19,12,-39,51,-1,97,50,-10,-93,-28,-22,33,-40,-20,-22,76,13,71,2,57,62,95,-21,16,-21,-11,7,57,9,30,-3,71,41,91,-6,2,-30,-5,19,27,4,34,8,64,30,86,27,10,-18,3,26,-1,20,53,31,61,-8,76,28,8,4,3,-5,-11,-1,63,-44,71,-38,56,32,11,3,0,-18,-26,-13,110,-52,55,-64,37,6,-5,-9,-1,-7,-11,-5,105,-62,89,-30,57,-17,20,-17,4,-2,-4,15,89,-10,75,-14,71,-16,37,-24,2,-34,15,30,102,22,127,-13,15,-2,43,-5,49,70,49,-22,1,-26,53,-127,89,-19,-44,-14,40,58,26,-14,8,-20,59,-76,79,-6,-63,-7,16,41,46,20,0,-33,36,-61,85,-12,-45,5,20,4,46,24,16,-24,11,-38,57,-14,-47,3,18,-4,62,21,36,-14,-3,-14,18,-23,-45,15,23,-15,48,24,32,-5,-4,-27,25,-29,-51,23,9,-13,52,-4,34,14,8,-45,37,-22,-50,9,18,1,63,-17,20,48,7,-38,55,-16,-52,-19,21,-8,94,-8,22,61,27,-27,92,-10,-87,30,42,-2,43,-33,69,55,-40,-21,127,-35,23,27,13,-29,42,-22,37,18,-35,-6,22,-53,18,21,10,-32,58,-1,32,-22,-6,12,2,-50,33,-4,1,-36,100,16,27,-14,14,-12,13,-30,16,-17,1,-15,81,22,45,-10,23,-16,54,-37,-11,-14,-7,-12,83,46,47,10,-7,13,73,-54,-24,-7,14,12,57,26,71,1,-8,15,91,-44,-11,17,40,16,3,-33,53,-9,-14,-12,45,-66,7,5,58,26,43,-62,23,-32,1,-51,63,-71,-24,-11,11,-7,3,12,49,37,8,-39,-33,17,-57,-6,26,47,37,10,75,16,75,24,-10,17,-6,5,23,68,51,-20,67,-20,24,-10,-28,61,11,14,43,31,32,-16,27,-5,15,36,10,36,-14,-11,2,-24,1,34,49,15,-12,48,-3,-7,-7,-20,-22,-43,-48,65,80,30,-18,20,-45,-73,66,-52,-37,-20,-55,85,75,-1,7,7,21,-71,37,-63,-26,-1,-22,39,27,12,43,-18,17,-127,-13,-3,5,27,3,-13,-45,-20,29,-59,0,-120,-87,25,-9,29,-9,2,68,-50,-46,42,49,-6,-26,-30,1,4,9,18,47,14,32,78,82,-17,-16,-21,0,-19,-1,-50,30,7,65,12,108,-38,-19,-4,-27,-9,-29,-43,48,-16,45,-1,127,-56,28,3,-16,9,-23,7,35,-36,14,12,64,-59,12,-3,4,20,-5,24,34,-3,-1,48,-34,-15,3,15,-23,31,32,32,-3,-24,44,-2,-93,-6,-32,31,-37,35,13,34,30,-76,71,-80,-56,37,-65,30,-20,41,-32,-3,81,-97,46,-124,-21,12,-24,-26,16,-21,54,-26,62,-73,103,24,83,5,91,-13,24,-32,74,-49,93,-65,62,-58,42,-17,74,-18,-1,-22,73,-32,122,9,52,-47,50,-65,44,-33,-2,14,30,-17,52,10,19,-46,49,-22,35,-10,36,22,-2,-24,-27,36,7,-85,33,-56,32,-4,53,31,52,-35,33,-49,-1,-43,36,-91,74,3,42,-8,49,-55,107,-69,9,-36,-13,-87,70,22,44,-3,61,-48,113,-127,17,2,86,-86,37,29,53,23,56,-24,79,-121,8,-9,80,-63,37,-27,21,-49,-11,-11,96,-9,47,13,-56,-35,26,3,20,-37,-23,-37,105,11,23,0,-45,-16,23,5,6,-36,-25,-36,92,-5,13,13,-32,-2,33,7,-2,-26,-14,-26,94,-28,1,18,-6,-12,41,7,-4,-34,-24,-14,82,-40,6,4,-3,-7,47,8,-9,-12,-8,25,84,-60,1,-25,13,2,43,16,-6,-22,4,42,60,-70,-10,-33,19,-22,20,3,-8,-2,2,82,44,-55,-30,-43,7,-37,32,-14,-9,46,0,127,62,-50,-38,-41,17,-41,15,26,-37,41,2,-4,123,63,73,-127,8,31,32,35,-28,34,7,28,112,47,63,-77,-15,-6,9,24,-18,11,5,46,76,17,18,-14,16,51,9,1,-6,3,2,70,42,10,10,26,57,28,28,7,12,59,17,84,38,0,51,48,39,45,38,10,-16,92,43,62,63,36,91,120,45,46,51,4,-32,119,62,47,87,66,68,101,14,65,44,12,-12,102,6,51,94,91,42,64,-17,87,53,22,-22,60,-47,39,33,108,13,-8,-78,62,27,-28,-5,-39,-39,118,116,15,-11,127,26,70,79,-49,-25,-16,19,117,50,-45,-41,74,11,38,25,-19,-30,67,122,41,-35,-32,-33,51,15,32,-59,-10,14,56,101,-61,29,-59,-70,-50,-31,14,-46,14,47,62,15,-126,50,-26,-75,-97,-24,12,-18,9,69,31,-32,-104,13,15,-16,-113,-90,3,35,-11,34,17,7,-29,46,36,32,-121,-95,-3,30,-10,-7,42,39,15,76,17,74,-69,-112,48,85,-32,-3,43,75,13,121,19,56,17,-83,112,92,0,-25,0,99,9,24,16,107,-20,44,-11,-33,7,-25,11,53,38,9,59,127,13,38,5,-3,-15,-1,32,40,56,-41,-3,108,32,58,36,-39,-16,-8,0,-1,114,-30,-9,59,-15,58,45,-18,-22,-18,-3,-23,33,40,-2,9,-9,89,22,28,-29,4,-17,-41,-21,94,-37,12,9,104,23,30,-35,25,-26,-42,-3,65,-64,1,-47,-28,-24,44,-13,36,-11,-15,13,55,-25,94,-42,-31,-44,28,-5,31,-10,39,0,61,3,126,-56,-59,-91,57,-20,-6,10,17,-8,0,-38,67,-80,-1,4,-35,-23,21,-16,11,16,34,-79,55,-104,-20,7,-24,-25,8,-16,33,24,15,-25,-1,-127,20,5,-46,-21,2,-19,42,31,29,-23,-24,-122,73,19,-19,-12,1,-18,41,4,19,-15,-13,-84,44,22,-16,-12,-3,-17,49,0,18,-4,-11,-37,38,-6,-23,-9,-19,-16,45,6,26,-13,38,-48,31,-35,-15,-2,-23,3,9,21,58,-14,26,-32,42,1,26,-28,-13,28,29,71,63,-19,77,-9,86,32,76,-46,21,-31,21,75,11,-16,-13,0,10,80,86,-14,10,13,-5,73,20,-32,11,-22,-34,35,46,-3,-36,44,2,65,89,-50,-9,-54,2,8,10,-19,-62,103,20,29,91,-46,-13,7,16,12,-36,-18,-46,87,25,22,59,-25,34,59,44,-33,-48,6,-37,127,10,32,48,-48,34,39,87,-41,7,21,-14,29,18,-28,56,-62,37,34,100,27,36,13,9,-38,65,-32,51,0,55,-13,74,45,-54,-14,25,-81,21,29,-11,54,69,-30,-5,-19,-77,15,7,37,41,15,27,6,76,10,-36,43,18,12,12,51,29,22,15,-19,69,-40,-18,23,45,18,0,57,20,1,23,-34,34,-64,-12,34,24,18,2,42,17,-9,30,-22,23,-66,-8,23,19,8,-4,16,21,-15,29,-9,21,-72,-14,43,27,-3,8,7,6,-22,14,-30,29,-90,-30,42,47,4,-8,21,9,-11,8,-55,40,-105,-31,75,40,22,-5,47,16,-4,3,-46,26,-80,-32,107,19,28,-4,71,14,8,6,-50,-11,-48,-25,127,-14,15,26,53,1,-127,14,19,-33,-21,-86,85,43,-11,12,71,12,-95,41,30,-22,24,-50,68,57,-34,-7,41,2,-78,57,29,-31,20,-41,74,51,-32,-2,27,-5,-39,67,11,-18,25,-23,59,19,-1,6,22,-12,-23,28,-2,-29,-1,-14,65,43,0,17,18,-20,13,13,-29,-50,-24,-28,36,55,-13,3,7,-20,42,14,1,-52,-16,7,21,56,-16,-11,8,-21,18,23,32,-72,-21,30,28,93,-38,-32,-8,-23,-26,31,29,-97,-66,30,22,115,-122,3,62,86,-26,61,-64,127,-31,104,60,25,0,-12,-10,70,-2,14,-28,37,-5,98,9,46,29,-39,-93,50,28,26,-45,26,-20,36,-13,-1,9,-42,-42,49,23,30,-82,68,-21,42,-48,21,13,-9,37,35,18,8,-94,82,-37,32,-21,53,-20,-3,105,46,0,52,-13,28,-60,-5,-65,70,-32,-26,50,45,-20,34,43,62,-87,90,24,60,7,-39,-31,79,46,-4,-17,114,-117,73,5,31,2,-11,-23,119,46,-22,-95,81,-79,111,-41,76,-12,52,11,30,-49,34,-89,-25,-25,14,7,51,-12,58,14,60,7,19,-44,85,-23,7,17,74,13,20,-28,22,14,26,-53,127,-46,24,-30,42,-30,-28,-44,2,17,52,4,74,-48,30,-30,103,-65,-8,9,41,29,51,19,52,-65,73,-1,34,-64,21,23,17,26,20,39,31,10,52,-2,6,4,-22,54,31,-3,-9,22,17,28,87,-66,-16,63,-72,35,2,-36,2,-8,-32,-16,-9,-59,-11,30,-56,69,-60,-20,44,-4,-32,-36,15,-70,36,-6,22,30,45,28,78,-61,83,-57,28,-13,116,8,26,18,52,41,30,-53,47,-79,-3,7,126,7,26,28,30,68,-9,-39,12,-69,-4,-12,127,6,37,53,48,39,-24,-37,-49,-56,-47,-12,108,10,20,25,62,7,-46,-42,-50,-76,-68,-29,56,-3,22,24,97,-6,-22,-74,-73,-74,-74,-30,43,-7,45,23,87,4,9,-76,-57,-85,-89,-49,33,-23,53,35,54,-35,22,-36,-56,-38,-77,-37,32,-18,57,64,33,-54,33,18,-58,1,-65,-92,8,8,-14,-10,61,8,70,-41,116,-12,38,-82,41,10,5,6,45,8,93,-13,92,-54,39,-83,22,5,5,-13,21,12,75,1,94,-95,19,-78,5,-10,4,-2,7,20,65,-11,92,-74,74,-53,-5,-5,13,19,-12,19,29,2,83,-85,21,-59,-13,-2,11,14,-15,30,41,34,63,-94,38,-73,9,2,-6,-6,-1,16,64,10,49,-68,108,-30,12,7,3,-21,6,6,63,-2,60,-50,127,-25,33,-4,-5,-6,16,6,57,-38,77,-23,111,5,24,-9,68,86,38,16,-13,-43,75,-110,110,-16,-73,-34,43,103,15,-15,-7,-17,8,-27,114,11,-111,-63,14,127,34,-8,-1,17,-29,-10,107,18,-82,-46,-25,95,27,5,68,36,-68,-14,2,90,-90,-36,-31,54,60,-33,43,-6,-54,-82,-87,61,-72,-23,-16,15,42,-9,-4,-20,40,-120,8,70,-62,17,36,41,20,-20,17,-51,125,-120,95,61,-92,-4,65,4,19,-46,19,18,122,-120,120,26,-82,19,20,-29,86,-37,8,49,112,-78,55,-50,-74,-73,-6,-9,-40,23,12,-84,15,-79,43,56,-26,-40,-5,-14,20,61,77,-38,61,-44,39,4,58,-14,16,18,29,16,34,25,68,-45,13,-41,127,16,12,24,7,-9,-12,70,43,-48,3,-50,59,-24,29,40,79,36,11,68,15,-69,-16,-75,-14,-22,21,-1,92,56,22,19,-6,-43,4,-7,1,-20,1,-5,15,0,27,-6,17,-26,46,15,2,-33,7,66,26,15,1,-16,41,-81,72,-31,73,-25,-37,51,10,-8,89,-39,-57,-88,110,-55,101,-31,-34,47,127,2,48,8,-50,-45,45,-7,21,-10,-5,81,71,0,60,-20,-19,19,33,-38,7,-32,-28,51,59,13,31,-21,10,18,-36,-32,-14,-27,-22,15,11,20,23,-17,10,32,-1,-22,5,14,-25,-27,-26,24,59,-30,33,-3,23,32,3,-2,-22,-22,32,30,49,-69,64,-41,18,1,30,-72,24,21,61,56,15,-49,90,-32,27,-27,45,-78,10,58,89,99,3,-15,26,-73,63,3,51,-21,1,-5,10,-9,8,-19,-4,-65,27,-26,97,-63,-11,17,37,32,84,-68,120,-124,110,-10,31,-33,6,-3,61,1,75,-25,39,-127,49,-58,3,-27,17,-6,74,13,65,23,63,-76,67,-62,12,-37,1,11,47,-10,39,21,31,-115,40,-64,31,-36,-18,44,63,14,62,43,49,-47,58,-56,33,-33,-37,21,56,29,49,50,94,-39,55,-10,18,-25,-16,22,49,41,33,-30,34,-40,60,-20,35,-15,-10,33,30,16,50,-16,65,-78,38,2,9,-59,-27,74,43,51,79,-73,80,-89,118,-8,73,6,40,30,39,35,45,12,39,-20,-9,-127,33,20,47,23,3,29,64,18,43,-50,-84,-120,4,16,30,6,-16,38,62,42,41,-12,-95,-107,-25,3,-11,50,13,86,27,30,58,1,-63,-71,-16,-12,-31,57,14,91,19,10,66,15,-42,-25,-23,-6,-44,42,36,59,8,-47,40,19,-9,-23,-4,3,-38,31,73,4,-13,-36,14,-7,-22,-33,-11,-17,-44,42,88,-9,-32,-7,7,-28,5,-55,-32,-15,-32,42,50,16,-7,-31,17,-2,16,-88,-9,-37,27,39,4,42,-4,30,60,52,-54,10,-6,-31,46,64,-32,52,-21,46,70,76,-127,82,1,-21,34,64,-37,64,29,68,63,72,-118,34,-29,-15,-29,79,37,56,33,9,30,44,-24,13,-16,7,-30,16,42,71,10,-34,54,27,36,-25,-34,9,-1,-11,35,85,41,-105,32,19,59,-36,-30,10,6,1,12,14,28,-39,1,17,25,-31,20,5,-29,8,8,-40,21,-20,0,-20,7,-51,33,-3,-23,-23,23,-84,9,-34,40,-38,42,6,17,-86,-33,-9,12,-12,-12,-61,125,-127,121,-3,50,-30,-18,-12,32,11,-1,-19,41,-88,96,-5,20,-18,18,26,2,53,-13,-7,48,-75,68,-20,25,-1,22,6,-5,68,13,11,-34,-71,48,-44,45,-10,0,10,-12,54,32,5,-12,-66,96,11,21,2,-6,22,-8,12,27,6,24,-96,57,61,10,-48,-7,79,-20,30,65,-8,43,-98,49,35,-12,-42,-22,77,-3,18,87,-11,92,-70,50,30,-20,-47,-49,56,25,36,105,-40,34,-114,97,-18,9,-39,17,-49,-6,-25,97,-70,56,34,-65,-42,-7,-3,23,-17,2,-57,92,-10,21,30,-63,-112,-45,1,25,-12,3,-31,51,16,3,-4,1,-127,-41,-12,-4,8,26,1,58,11,10,9,56,-93,-58,-18,-11,-12,33,49,40,-7,15,34,65,-75,-59,-21,-4,-18,33,73,50,-10,8,-22,81,-48,-11,-1,21,-41,13,41,22,-1,7,-66,60,-46,-12,-4,18,-47,32,76,31,5,-5,-63,22,-60,3,-16,-5,-5,49,110,55,-40,-43,-50,44,-23,-18,-9,-20,-45,48,-30,73,-80,-17,-120,-21,13,62,-31,-10,-35,16,-38,86,-80,12,-110,-61,-22,26,-38,8,-25,-2,-39,94,-77,40,-127,-36,-30,-32,-50,-4,-36,-6,-26,115,-50,39,-108,-40,-40,-40,-32,-14,-32,-1,-8,92,-29,-3,-74,-40,-21,-42,22,-3,7,3,-7,64,3,-1,21,3,22,-33,23,10,51,28,16,68,37,50,105,57,29,15,20,14,34,21,28,73,56,103,102,86,76,65,-12,-11,-12,1,3,44,73,66,110,73,66,70,-109,-40,-22,76,46,112,-31,127,-107,61,-38,81,-9,10,4,56,-5,69,12,49,-95,22,-30,92,-16,36,32,34,14,14,87,68,-69,4,0,73,-22,-7,28,43,26,-1,77,88,-78,43,-22,92,-39,1,25,33,66,13,36,65,-98,46,4,25,-45,-4,37,29,75,50,13,68,-39,64,4,47,-30,-5,21,7,50,35,-9,69,-82,27,-7,28,-29,-28,41,24,12,43,-23,59,-52,44,-3,87,-55,-48,84,81,33,35,-9,106,-79,97,-75,46,-14,12,77,39,-21,19,-79,-25,4,-58,-42,46,-9,-3,60,90,26,52,-50,74,58,-36,10,54,5,0,77,125,22,3,-38,105,12,-47,39,26,-1,-2,24,72,2,36,-16,71,-31,-82,-52,9,-18,4,18,35,-16,53,-12,92,-18,-73,-127,27,-42,-2,2,43,2,103,1,40,9,-6,-84,63,-15,-18,-14,41,48,83,-7,61,25,-51,4,13,-13,-6,15,48,41,56,-3,90,-3,-95,6,-60,-11,30,26,91,50,55,23,36,-48,-117,-16,-63,-45,11,25,52,26,60,-83,46,-127,101,50,-12,-34,-1,-6,39,47,71,-50,70,-123,82,8,-11,-30,23,-14,62,17,46,-17,29,-85,44,-4,27,-18,23,9,65,-3,31,-19,9,-62,40,-48,19,-4,0,14,54,32,46,19,50,-46,37,-45,24,-33,-10,12,66,50,49,17,59,-83,58,-11,33,-15,-2,-4,21,47,48,-37,9,-52,81,14,-8,-26,-7,25,1,-1,35,-51,34,-50,105,-8,21,-35,-10,26,45,29,89,-62,61,-100,126,-35,-13,28,-1,48,40,35,69,-14,118,-121,79,44,94,28,-19,25,-1,-31,61,-15,49,-124,91,-15,59,15,-9,38,23,-12,85,1,34,-82,51,27,88,-8,23,61,17,7,95,12,27,-93,64,-5,63,-4,32,81,17,32,67,8,33,-48,3,-16,127,6,16,53,-6,14,-8,44,24,-14,-32,-20,98,11,-43,65,9,25,-21,18,30,-63,10,-7,68,25,-38,96,22,33,45,8,-10,-105,35,40,111,13,-47,120,7,45,111,32,-8,-87,48,45,95,-55,6,5,71,34,105,-6,75,-79,68,32,19,-3,7,8,42,24,47,-3,46,-60,-3,6,-14,-10,15,24,76,-6,54,32,36,-76,9,2,2,-24,4,8,47,-14,33,13,3,-74,19,-28,11,-23,-7,-19,55,-9,30,-12,40,-57,50,-52,1,-26,-22,-5,22,24,27,-12,36,-23,42,-26,34,-24,-20,-4,58,41,19,-49,17,-69,32,-19,13,-22,-20,13,59,25,44,-51,8,-76,77,-5,31,-61,-11,2,59,59,22,-30,83,-127,76,-33,17,-8,-13,2,69,23,70,13,59,53,68,-27,-18,-14,-8,0,35,34,54,8,49,34,43,-33,-14,-31,7,-12,25,13,45,15,65,32,83,17,-9,-22,4,2,4,36,38,2,61,-15,60,10,-3,-16,-11,-9,-19,13,63,-62,71,-31,58,41,22,3,0,-11,-18,-7,84,-76,67,-42,22,31,-2,12,-2,-7,-12,-8,92,-98,69,-12,28,-15,11,-16,7,-10,9,21,86,-22,106,2,17,-6,26,-18,10,-24,8,43,72,1,127,11,20,-5,46,0,-10,-6,-7,27,94,57,31,-72,59,43,71,-8,22,-5,1,39,51,37,37,-76,-6,27,64,-15,-14,-20,-4,27,53,-42,1,-66,-35,7,-6,-23,-45,7,75,24,101,-78,21,-17,-4,56,-32,-21,-60,26,127,11,96,-35,5,26,42,57,-63,0,-20,52,107,6,77,-67,-8,17,63,45,-62,30,13,59,101,-45,55,-81,-24,-16,60,39,-62,29,31,33,93,2,30,-96,-19,-37,112,69,-58,23,44,12,45,45,12,-29,11,6,111,65,-7,-8,-4,73,-11,-8,12,-70,56,4,15,52,-50,-9,18,66,-28,-4,0,-63,57,8,-14,70,-46,-2,11,53,-17,27,-4,-3,50,-9,4,41,-57,-20,14,28,18,54,-6,1,73,-6,-8,13,-24,-16,1,6,32,20,37,17,52,-22,38,-25,-28,-23,-13,-5,36,-4,21,-2,11,-12,123,-9,-23,-2,-6,0,5,-29,50,-1,-14,-8,98,-12,-15,-3,-14,-7,6,-25,84,10,-23,-29,99,0,-9,-10,-10,11,18,-24,81,37,18,-37,127,33,22,-23,-11,-19,25,54,39,54,72,-81,25,-3,52,-36,-26,16,38,72,85,-20,87,-59,19,25,27,-41,-27,30,12,56,113,-25,84,-52,0,5,-44,-49,-47,55,12,58,127,-70,13,-44,14,18,-43,-34,-42,21,-14,55,99,-64,13,-50,3,-19,-68,-13,-29,42,-27,82,99,-32,78,-60,4,-51,-65,-7,-42,18,-49,60,109,24,65,-79,-19,-55,-12,6,-51,2,-35,47,88,43,93,-57,-3,-2,13,-3,-35,19,26,27,110,46,110,-27,14,38,44,15,-13,57,-30,96,79,-90,14,14,-59,-6,29,7,-15,68,-1,73,88,-52,-13,4,-39,37,19,-3,-22,87,4,41,125,-22,-36,2,-44,15,8,3,-23,66,52,-5,127,-7,-53,36,-44,5,42,6,-17,43,66,19,121,-24,-32,64,-37,-15,29,-5,3,33,46,0,87,5,18,46,-48,-10,-9,-15,14,-30,0,-71,103,35,33,53,-35,62,-11,-4,4,-36,20,-100,83,30,27,24,10,43,-35,19,11,-74,28,-90,22,32,70,38,11,-12,-46,21,25,91,48,37,42,18,-28,60,19,17,28,29,13,68,55,38,40,31,-42,65,25,18,35,34,-2,54,47,45,45,33,-57,82,15,-10,23,32,10,44,59,36,16,46,-55,87,1,-34,14,22,11,45,91,29,18,34,-60,91,-5,-17,26,11,9,37,89,50,32,35,-36,127,-10,-11,37,19,-12,43,77,47,23,-7,-32,91,-13,16,14,33,2,43,48,31,18,-30,-31,48,-19,27,-3,44,4,47,41,12,-11,-28,-54,-4,-18,25,-33,-63,2,4,82,10,100,-73,83,-100,45,63,98,-9,41,-7,81,-31,57,15,23,-114,8,-44,59,-24,29,-8,95,4,20,52,8,-127,54,-40,28,-30,23,43,106,-24,11,71,-26,-118,76,-30,21,-18,18,23,88,0,-10,21,-5,-115,114,-20,7,-11,3,16,99,21,12,-10,64,-85,113,75,13,-38,-8,8,84,5,37,-45,27,-85,71,59,37,-30,-14,8,81,20,34,-19,38,-69,63,25,42,-77,-22,13,98,53,35,-91,28,-94,26,-14,56,12,1,10,6,4,-6,-5,72,-14,-54,96,-46,-7,15,34,38,15,-11,-7,78,-8,-42,46,-22,-12,9,22,48,8,-2,-27,43,-34,-44,55,-9,-5,5,20,21,5,3,-40,25,-55,-38,23,-5,-3,0,29,7,2,4,-22,22,-39,-48,34,3,-7,7,33,-2,9,-5,-6,17,-20,-61,41,18,2,-2,22,-3,-2,-15,0,40,-17,-67,64,2,16,-3,28,3,-8,-11,23,32,-9,-50,92,-3,5,-2,57,6,-1,-3,44,9,3,-44,127,-7,-12,3,-29,38,50,100,-42,-1,48,110,-8,-35,-24,-13,-2,12,65,55,-33,-15,32,79,4,-26,-34,0,-6,8,75,55,-28,34,10,59,-13,-75,-25,-16,-6,7,56,52,6,44,-17,37,-43,-36,-3,-29,-7,4,19,57,-26,51,-27,110,-22,-20,3,4,14,5,11,61,-70,70,-39,93,-10,-12,5,6,10,-4,8,63,-101,31,-25,76,-30,-30,-6,19,2,26,22,81,-21,5,-8,80,-32,-14,-48,14,-34,57,48,127,23,49,-28,88,-14,-10,-1,17,21,49,-49,3,-83,-67,-32,-127,64,0,-7,13,36,50,-52,15,-10,-31,8,-116,-9,4,-13,-20,56,36,-61,13,-8,-9,-44,-78,29,-56,-32,-48,48,20,-5,44,26,4,19,-21,1,-44,0,-23,19,-4,50,6,42,8,-22,-13,-38,2,28,48,6,2,37,-15,-24,15,-4,-4,-25,12,6,46,-10,-11,44,-17,27,29,-50,37,-15,15,-29,9,-33,-29,33,15,23,-2,-39,62,-5,78,-55,-49,-23,-23,-17,64,61,-45,-40,56,6,83,6,-4,35,-11,57,73,68,-36,-75,2,5,-25,14,-24,58,-21,85,51,103,-40,-127,17,68,-36,4,-35,43,-25,74,56,103,-17,-102,54,36,-33,7,-10,24,15,45,73,73,15,6,75,7,-38,-30,23,-18,37,39,105,39,27,5,43,-38,-28,-77,55,-42,25,52,124,-14,53,2,21,-43,31,-33,40,-21,37,54,81,-24,56,-27,-6,-49,47,-23,10,-5,34,73,51,-42,74,-46,-26,-24,15,-22,-17,-5,55,71,61,-52,96,-58,1,-58,14,-13,22,14,-16,-22,94,-5,51,-12,-69,-36,41,-4,2,-5,-31,-42,88,56,-8,-82,-82,-6,57,10,-22,-26,-25,25,105,56,-35,-86,-27,-15,38,16,-23,23,-33,44,106,9,-32,-48,4,-31,2,18,5,50,-31,47,61,19,-16,3,-2,-40,15,-6,10,35,10,41,90,-14,-21,-24,-8,-18,19,-24,4,15,68,-47,126,-18,-6,-7,-21,-22,-4,-27,-23,-19,73,-14,90,-90,-19,-54,32,31,16,-8,-38,13,66,61,73,-127,-39,-91,73,8,18,-29,-43,-2,11,-16,60,31,109,-1,71,31,54,-6,-33,5,-1,-11,24,51,97,51,21,51,63,1,-2,27,7,-6,-25,47,78,56,34,57,36,11,-5,30,3,7,-20,43,70,22,49,37,17,10,-20,22,-6,2,-6,-17,68,12,84,8,-6,-18,-10,-19,-10,-35,24,-46,53,-29,66,7,-3,-24,4,-22,19,-20,38,-52,57,-1,25,-41,-8,-17,24,-6,19,-5,64,-31,72,-1,30,-37,18,-16,2,11,7,-12,88,56,127,1,31,-14,-9,-80,-14,19,22,8,18,4,35,-80,13,5,45,-39,0,4,4,14,42,8,43,-89,4,26,53,-7,11,-1,-5,-14,20,-10,77,-50,-22,15,78,13,4,-4,3,5,16,12,36,-63,-25,-30,59,0,16,15,54,48,53,15,17,-54,-16,-81,21,-7,25,30,42,32,50,17,39,20,-2,-48,58,-23,8,-12,-5,-7,22,-25,41,14,21,-26,28,-42,16,32,9,8,45,-44,47,-46,48,-45,49,6,-37,21,6,-12,80,-44,-35,-55,80,-19,127,-12,6,-60,9,36,105,-10,118,-20,-21,-30,-13,0,34,-48,10,-36,97,-16,48,2,-24,-61,-48,-3,43,10,-5,-28,79,-26,11,21,-10,-80,-51,-10,42,65,-1,-23,127,-23,1,5,-28,-83,-31,-29,21,43,9,-17,54,22,-5,0,15,-85,-51,-31,-10,28,48,48,9,32,-26,-48,32,-4,-21,-13,0,-2,35,39,-32,17,-14,-69,14,21,-34,0,12,34,36,53,-30,32,-24,-49,12,-9,-38,-5,15,67,48,79,-23,36,-40,-13,4,-1,-13,6,22,-11,16,3,1,-48,27,-4,-9,-3,-43,-61,1,-43,31,-4,-5,32,48,9,89,-38,-23,-25,21,-38,12,-27,0,-1,0,-32,108,-44,-32,-3,6,6,-18,2,11,-6,8,-12,127,-30,-21,8,-13,20,4,5,-4,-20,13,-7,31,-5,-11,28,-30,28,14,20,11,-49,2,-7,-77,22,0,35,-39,42,7,18,17,-67,12,-51,-72,28,-27,15,-26,38,12,29,33,-49,5,-67,-1,20,-24,-14,17,21,14,-6,55,-19,-22,-17,0,-9,10,13,-2,-33,-59,-32,58,-41,-51,-29,14,-44,42,32,27,11,-58,-25,25,-43,-29,68,20,-28,0,18,0,63,49,33,-26,11,25,-19,50,52,-9,-68,-12,-43,127,46,10,54,33,-22,68,34,5,9,11,-6,35,-3,-3,35,-43,-41,5,6,24,9,12,3,-7,-6,0,-24,-19,-16,-23,-12,2,-3,12,15,29,-6,29,-70,-14,-3,-34,-47,-25,-25,1,-13,15,-6,60,37,5,25,-1,1,-17,-6,-13,-4,-41,-5,-12,-10,29,-61,-49,21,16,-7,38,-4,-32,25,63,-32,62,20,-31,41,-14,16,69,2,-67,52,61,25,127,-22,-61,25,-14,-21,-13,14,-31,92,27,7,80,-30,-80,-54,21,-50,-103,87,124,83,-25,-4,63,-43,-65,-22,0,4,-75,-10,92,77,-55,-4,31,-81,-38,-45,-46,20,-22,1,10,76,6,31,14,-66,-30,-28,-15,-9,21,8,14,8,-23,51,55,-57,-96,-38,18,-40,20,7,49,-17,-79,25,-1,-52,-10,32,47,-24,11,-20,66,63,-54,-39,-3,14,-6,90,19,-33,-9,15,91,30,62,-10,10,-63,76,-4,31,-7,1,4,68,5,46,-49,-31,-55,37,-3,3,-20,25,23,49,-3,30,-30,-7,-32,86,-24,19,-23,20,13,55,15,22,-20,4,-57,83,-31,5,-25,10,16,45,47,23,-10,0,-87,50,-78,18,-25,-1,-5,31,52,43,-22,32,-63,93,-73,52,-20,4,31,19,25,18,-40,20,-86,73,-60,57,-5,5,30,38,18,13,-34,59,-71,88,-21,50,-40,-13,1,52,47,14,-59,55,-127,95,21,118,11,28,9,29,-23,14,64,113,-51,-5,-18,73,-4,15,21,29,-13,-3,65,127,-36,-28,11,87,-2,15,3,12,4,-9,48,107,-51,-48,19,63,-1,17,-17,-3,5,-5,42,81,-51,-44,5,38,-2,29,-14,2,11,20,37,73,-24,-33,-29,30,-9,29,-12,9,13,42,39,51,-18,-34,-45,20,-6,12,15,3,12,49,57,63,-37,-18,-25,39,14,-2,29,-4,19,31,57,70,-53,-43,-14,38,15,-8,47,23,22,36,69,78,-62,-44,-35,15,-29,0,-10,71,39,87,-11,44,40,127,3,-42,-14,-7,-12,37,51,22,-10,-3,43,117,32,-1,-14,7,-20,-16,35,9,-11,-11,19,50,19,8,-7,15,-2,-22,60,7,25,-6,-28,35,-13,18,0,5,6,-3,40,69,-8,28,-31,96,6,1,-2,8,9,2,-3,96,-20,48,-24,67,-22,16,-14,-3,-13,7,5,83,-24,52,7,103,-19,-18,-25,-8,-24,30,44,72,13,30,10,94,0,8,-38,-41,-54,50,65,94,44,14,23,96,3,2,-64,12,41,65,-49,-5,-95,122,-38,49,26,38,-28,4,44,67,10,-15,-73,106,-9,45,-14,60,19,-3,17,20,63,-16,-21,103,-27,-25,-64,11,19,-15,15,11,86,7,9,77,-6,-9,-101,24,7,-4,6,10,97,-4,38,115,-20,25,-90,18,-33,-4,9,16,89,27,29,90,-12,-18,-93,39,-24,-10,-15,-3,61,37,33,6,-17,-5,-31,87,2,-16,-3,20,46,9,33,-30,-56,11,4,118,-9,-25,19,70,44,18,-41,-48,-28,46,31,127,-28,21,-19,1,23,27,-28,-29,-7,58,14,84,15,10,31,-1,29,33,-22,-14,-14,76,-15,74,26,-20,-1,50,32,45,16,56,-11,68,10,25,5,-19,-2,46,-17,38,8,40,-10,33,12,16,-34,-37,-4,33,-19,21,-34,9,-1,57,0,6,-44,-33,19,18,3,18,-79,34,-13,-23,1,-21,-20,-20,36,-46,5,37,-28,51,-59,-42,24,-50,8,-29,62,-66,-12,23,-8,45,-18,31,-15,-40,9,-28,56,-27,44,49,48,127,-37,19,-39,-24,-41,-34,9,-4,13,116,2,16,-54,51,-6,76,-47,-24,-11,-8,42,105,26,22,-55,37,-30,36,-27,-16,-2,20,41,33,10,13,-61,31,1,29,-19,-7,-8,59,48,9,32,20,-55,-11,0,38,-22,-4,-1,79,47,26,26,-1,-53,-47,10,82,-23,-6,12,49,43,24,9,-5,-58,-60,34,24,-30,-4,6,10,36,9,7,-3,-74,-72,-8,0,-21,-1,-14,-8,21,48,-11,-19,-124,-67,-34,3,16,-31,-1,24,20,91,-16,0,-127,-78,-6,26,-28,12,58,71,10,35,-73,-40,41,59,-37,19,-16,14,45,36,49,31,-90,-54,55,79,-50,24,-6,19,66,19,12,12,-110,-39,38,34,-78,51,-10,28,58,8,16,0,-114,19,49,29,-60,10,0,34,40,7,-13,5,-112,-18,60,34,-76,-4,-10,21,24,18,-11,15,-60,-64,39,61,-64,-3,-11,11,39,34,34,29,-36,-53,36,78,-22,-8,-23,19,59,35,12,27,-50,-28,15,57,20,-12,-21,15,43,38,-33,24,-127,-48,8,36,17,-32,-61,4,-61,79,13,34,-26,89,-112,83,12,8,-30,9,-46,69,44,58,-20,34,-90,55,-30,13,-20,0,21,52,17,32,-47,35,-59,7,-35,22,-29,2,53,17,-19,36,-23,31,-24,-13,-7,-3,-33,-5,31,24,29,23,-19,17,-22,55,4,-50,-23,9,31,47,67,17,-21,29,-53,124,-12,-42,-39,12,-4,26,35,24,-14,35,-78,41,-7,13,-14,-18,-5,31,24,56,-45,50,-103,90,-42,44,-21,-27,31,78,11,83,-15,86,-127,112,-33,43,-33,-22,-11,85,-72,127,-5,87,45,-14,20,48,14,4,-67,66,-41,68,-26,60,9,12,-12,31,13,-6,-51,52,-39,58,22,81,-4,19,-50,40,-4,2,-18,52,-36,108,17,127,-19,5,25,2,-87,49,44,34,48,90,22,35,8,68,27,27,-66,15,26,78,34,44,18,17,-27,63,10,76,13,-51,-11,74,36,86,-10,-9,-99,49,-1,116,-12,-36,-29,21,83,96,-33,-12,-86,38,-52,92,-46,-34,-25,0,26,78,-67,-2,-122,87,-64,81,-39,-32,-34,48,-20,28,-32,118,-48,1,37,-6,-19,-1,-9,47,-39,33,-61,38,-23,-7,9,-35,-22,8,-8,40,-20,40,-37,56,-31,-25,-14,-24,-16,13,10,19,4,11,-35,66,-52,-23,-15,-10,-20,20,5,21,32,-19,-8,49,-3,-34,14,18,-13,18,24,32,25,18,-6,55,-43,-1,-19,50,-13,0,-5,37,57,24,17,42,-78,24,-33,49,-19,-14,-27,46,105,8,19,5,-98,35,-46,80,-49,-34,21,41,127,34,31,33,-94,58,-6,63,7,9,-29,12,1,32,-50,-12,-127,57,-16,73,4,35,-26,-30,-14,7,-49,102,-109,56,-53,46,-6,42,-27,-33,-1,-5,-47,125,-81,81,-87,-20,-17,35,-12,-4,35,-28,-33,34,-58,81,-80,-56,-38,20,32,13,60,-7,-24,-18,-35,38,-77,-27,-31,3,61,19,73,19,-25,-18,11,5,-52,-9,-3,-9,70,5,65,33,-28,0,22,58,-38,11,31,-25,22,-9,20,47,-48,34,-2,27,-11,27,18,-28,44,24,22,32,-22,69,20,10,-27,32,-40,-44,24,50,46,115,81,-7,-48,-53,-108,86,-14,13,7,77,16,63,106,25,7,-24,-48,67,-38,29,36,118,25,23,75,64,28,-59,-9,-11,11,37,36,29,14,12,52,12,7,-72,7,-15,4,-24,24,3,34,30,12,33,-5,-64,-55,-28,-8,-41,-19,43,52,78,-14,55,-16,-75,-70,-2,-21,-29,-31,17,42,89,-48,-6,-72,-16,5,-17,-24,-54,-48,20,-3,127,-6,14,-116,-14,49,-17,-21,-71,-36,78,-6,112,27,32,-112,-14,2,-65,1,6,29,54,35,22,10,56,24,42,-60,46,-5,-4,33,45,50,24,3,48,46,69,-2,-5,-7,-10,22,45,57,4,-15,15,-35,25,-50,-36,-14,-4,-22,54,32,30,-33,10,-72,79,11,-65,-22,10,-45,81,7,41,-32,-9,-99,85,68,17,-22,3,-59,75,5,67,11,-3,-110,1,77,-2,-13,12,-21,17,13,25,25,-6,-118,-30,-4,31,-15,1,20,37,29,76,16,-13,-127,-18,-25,41,-23,-19,18,14,38,106,58,28,-85,34,-39,85,-82,-9,-17,21,33,87,-7,115,-93,62,15,74,-10,28,22,47,34,74,33,71,-111,13,-32,83,-19,53,26,40,13,43,76,32,-79,23,-14,69,-53,20,31,50,6,16,68,33,-115,82,-39,88,-37,5,28,61,16,39,28,56,-82,83,-12,44,-35,-9,37,62,20,51,-8,75,-91,57,-12,23,-45,-19,24,32,43,38,-9,47,-42,8,12,32,-41,-22,35,42,16,48,-16,29,-62,9,-30,55,-46,-33,31,75,57,54,-59,81,-127,17,-115,62,23,11,40,16,-27,9,-20,71,-18,-54,59,3,15,9,56,39,-31,26,6,47,-5,-31,47,16,11,0,45,43,-9,33,13,41,12,-18,53,10,0,-7,34,22,12,16,21,22,15,-14,14,7,4,-6,31,13,-8,-7,5,10,35,-27,26,20,15,5,12,13,-6,-1,-24,15,49,-49,18,36,4,-8,5,33,17,6,-20,19,48,-45,36,16,4,0,5,13,31,4,-7,-5,32,-42,87,12,15,-11,21,-15,10,-15,-24,-34,-7,-52,127,-22,-31,-14,12,-17,17,83,1,34,66,-47,95,-62,-18,-22,3,22,17,39,7,127,17,-39,64,-84,-9,-54,-8,-10,31,68,43,93,-11,-37,24,-42,-11,-43,-9,-37,45,57,58,81,-15,-4,-3,-2,-16,-15,-18,-35,44,47,8,-1,-8,0,-71,-40,-28,6,-10,-7,6,26,-8,-18,29,2,-38,-41,-32,16,18,30,4,8,-39,-2,6,-5,2,-31,-8,27,75,29,-21,-10,-80,15,-61,-3,18,-22,2,11,78,15,-44,23,-96,-23,-84,-19,-11,-21,-25,-51,84,65,37,15,16,-21,-36,74,25,-24,-46,-34,88,44,37,18,12,-17,8,59,-21,-42,-41,-28,49,41,54,-4,11,-12,33,73,-21,-39,-23,-11,16,50,62,-5,-4,1,35,96,-26,11,-29,1,-3,34,67,6,-10,1,-9,89,-54,66,-26,-5,-15,3,53,6,-15,5,-12,58,-46,94,-33,-20,26,17,19,31,-2,4,-23,74,-12,116,-28,-31,53,-2,-23,45,3,47,-54,66,4,127,-21,-2,45,13,-31,23,-18,85,-55,14,11,109,29,-13,32,44,-8,-32,21,-33,12,-13,12,0,24,-5,34,12,-14,-24,34,-8,-1,-8,22,13,-18,-4,73,-13,24,-27,51,4,16,-2,34,43,-93,7,127,-4,4,-22,88,11,9,4,53,72,-99,-14,99,14,29,-26,112,8,18,2,22,89,-40,-30,73,21,44,-35,58,1,5,-9,25,44,-30,-12,38,20,39,-32,29,-6,10,-47,32,-19,-38,-6,73,23,25,-35,42,17,35,-83,-10,-30,-29,-12,68,21,5,-38,35,8,52,-96,-15,5,-12,40,-27,52,22,27,-70,-29,-2,87,-57,34,18,24,14,46,-30,23,-70,-26,5,63,-35,6,27,6,10,64,-42,9,-53,7,1,60,-15,1,24,21,13,55,-23,17,-3,29,21,52,-22,21,11,13,10,51,18,7,7,39,17,101,6,20,7,-12,39,16,-4,2,3,17,-37,35,23,46,-12,-21,18,-47,-11,21,41,-2,-45,-53,22,-5,-33,-35,27,-61,30,29,111,-21,-67,-45,1,-39,-29,-48,34,-5,94,73,127,38,-62,-38,-5,-7,-10,-3,31,53,49,94,-94,-73,-42,-57,-23,69,0,-25,72,70,46,113,-106,-48,0,-11,-15,43,-25,-39,72,86,18,104,-84,-36,5,-61,-11,-39,-17,-13,108,117,56,113,-50,-11,39,-70,81,19,-19,-13,80,85,57,52,-63,12,68,-39,10,1,-7,-24,48,14,43,-3,-66,24,32,43,-9,-31,6,-13,-8,-28,13,-3,-67,44,-10,8,12,-48,3,-3,-13,-26,-1,-10,-73,44,-44,-27,-57,-122,-5,38,-8,-35,5,-9,-54,65,25,-38,-127,-116,-95,14,21,127,71,39,-54,78,-39,46,-74,6,-41,5,13,84,1,24,-41,59,-70,37,-38,34,-17,-1,-16,72,18,10,-20,74,-66,1,-54,37,-9,-1,12,56,9,37,2,36,-63,12,-77,29,-26,-2,12,73,19,24,27,104,-88,23,-80,14,-33,-3,-2,72,27,51,35,104,-57,48,-69,24,-22,-15,-23,50,6,67,-10,92,-41,64,-68,15,-26,-21,-2,42,58,50,-27,63,-82,81,-53,16,-27,-17,41,58,113,74,-30,87,-93,114,-56,16,31,41,20,50,-77,72,-101,-8,-11,-31,79,61,26,23,39,51,-35,60,-66,2,-31,-34,51,43,23,4,22,45,-22,56,-51,-7,-13,-44,45,17,23,1,19,49,-12,40,-59,5,-3,-22,-7,-6,35,0,2,38,-17,53,-27,2,5,-37,-18,20,14,8,-5,25,-28,40,-13,8,-6,-26,15,56,6,1,-19,29,-24,28,-4,-11,-52,-28,49,56,27,24,8,32,-34,22,-27,-3,-86,-44,97,57,20,38,61,28,-62,25,-65,-11,-93,-39,127,42,-37,35,89,-32,-1,-13,5,20,10,-6,96,-37,-12,30,87,-5,4,13,31,15,40,8,74,-53,-1,21,76,-1,1,48,24,-25,21,-25,125,-76,-8,3,48,-18,56,27,72,-44,12,-31,125,-73,-35,-33,2,-7,46,19,86,-20,-33,-29,67,-67,-58,-13,-46,27,61,-2,93,50,8,-16,-8,-35,-47,-2,-52,25,85,-12,87,90,-10,-40,10,-40,-33,-30,-65,28,119,13,68,58,19,-8,20,-20,-3,-43,-45,22,127,37,21,20,-12,-24,-2,-57,-62,33,-46,85,-30,49,-36,51,-59,67,-5,98,14,49,-17,47,14,16,-49,-20,-10,112,-22,94,28,32,3,52,10,12,-36,-2,21,127,-17,-10,-12,15,14,17,-2,82,-51,67,47,34,8,7,-32,-1,13,-29,56,96,-102,42,13,51,21,23,-35,1,-2,10,73,54,-120,102,-4,117,16,41,-62,-45,-9,60,53,68,-107,76,-47,78,-10,49,-72,-72,24,32,19,89,-62,96,-80,111,-45,-21,-48,-64,51,43,4,125,8,99,-125,116,-90,-108,-27,-7,125,74,37,-39,-59,78,-6,81,35,50,-30,17,37,35,44,3,12,91,25,33,9,55,-28,34,36,42,-12,-2,61,71,49,49,-24,76,-8,27,53,24,-84,18,39,34,48,19,-26,37,9,-3,15,-6,-71,28,11,22,-18,-12,-7,51,-40,-25,-4,21,12,40,51,31,-82,17,-29,93,-80,-19,-30,21,59,45,16,31,-91,-25,-15,107,-51,-46,-55,-1,82,99,-60,26,-116,-11,-22,110,-51,-42,2,-37,57,79,-127,77,-122,0,-25,81,-40,-16,0,105,-26,42,86,-5,11,-19,9,39,-28,1,7,127,-8,21,41,-19,29,-58,-9,22,-15,12,19,99,-9,11,-9,13,27,-79,-48,-3,-11,30,33,62,-14,9,-31,39,6,-31,-51,27,-22,31,23,46,-15,28,-42,7,-23,-63,-57,56,-15,36,5,60,-9,28,-18,-25,-35,-64,-38,38,-1,17,-11,55,37,5,-28,-6,-6,-77,-59,25,-7,11,-13,69,27,28,-45,-6,-6,-96,-38,-24,-19,-11,31,80,19,43,-14,28,-32,-118,-17,2,-28,4,-57,111,-57,107,-21,98,-61,32,59,111,7,1,1,59,-51,79,-77,64,-42,67,7,106,-9,12,26,8,0,70,-28,76,-11,110,18,80,-20,0,54,-16,19,26,-16,50,-6,57,-24,6,-7,25,56,-43,44,-4,-33,29,-27,92,-35,36,2,24,17,-18,35,2,-31,81,-78,83,-46,23,-7,3,8,29,16,38,12,123,-110,102,-21,-34,-88,-17,56,48,7,17,19,106,-119,45,-24,-9,-79,-97,78,84,70,22,-21,91,-100,127,24,-20,-1,10,-24,-37,-39,-41,-1,-51,-23,66,42,63,-3,19,-20,-22,-5,-44,27,-8,-74,12,33,13,-5,17,-44,-31,-5,-3,40,-6,-68,-19,11,9,-1,6,-59,-46,-43,8,27,-36,-48,2,-49,-10,11,8,6,4,-53,70,6,28,-17,2,-5,-32,-21,9,53,105,74,127,13,81,49,-3,60,-7,-6,9,60,61,86,53,-19,13,40,-24,87,53,7,4,20,17,61,40,-30,-66,-40,-23,-15,40,-15,6,36,14,9,-26,-14,-17,-9,-16,-55,17,-64,30,3,85,14,50,-30,51,-81,96,-51,17,-33,41,0,72,16,18,-14,6,-127,71,-85,0,-37,43,16,69,-6,40,2,-22,-112,110,-52,4,-25,5,4,58,-18,0,35,-8,-88,80,-39,-21,-26,-7,41,45,-12,28,35,13,-64,31,-69,18,-27,2,36,62,3,39,44,-8,-30,8,-49,56,-7,-7,24,48,2,21,12,-1,16,40,-12,118,6,-17,27,36,4,25,45,63,-20,14,-60,117,-5,-15,20,45,67,55,18,74,-46,9,-74,116,-32,7,-23,-27,50,10,31,66,67,127,-44,1,-2,6,-55,-16,-8,18,4,44,18,91,-21,0,-14,11,-91,4,-31,11,-31,64,22,48,4,12,-40,10,-58,11,-44,53,-76,2,70,30,-14,40,-33,-4,-14,4,-21,60,11,19,42,73,-30,41,-18,-5,56,15,4,67,22,21,-2,112,-44,40,-15,19,91,6,-25,73,64,2,18,120,-63,48,-13,52,48,-8,-29,43,10,16,49,69,-49,23,-24,70,32,4,-8,61,-9,29,45,-38,-28,47,2,25,-58,62,-6,-9,59,66,-44,45,-23,51,-7,34,-44,12,27,-23,25,11,-68,23,-25,40,-16,-7,-24,-30,82,42,92,-35,-104,-10,-41,-6,-15,-26,16,-55,70,69,114,-12,-69,29,-12,-64,-9,-5,36,-32,89,34,110,42,3,79,-27,-58,-10,29,34,32,55,66,0,83,-37,45,-29,-6,-47,34,-14,67,14,122,-72,36,14,16,-65,73,-55,36,-30,33,-52,79,-102,37,40,-26,-102,97,-32,-5,32,5,-22,59,-37,11,-33,-54,-127,65,0,-6,7,61,19,19,36,68,-37,70,69,51,12,-11,32,35,33,9,9,91,-45,14,10,46,4,9,48,24,-6,29,15,94,-33,0,-4,63,-16,6,6,29,-8,85,-33,106,-19,-7,-21,75,-24,29,25,59,-4,111,-61,127,29,-25,1,123,-31,15,35,72,-40,25,-30,55,28,-17,13,102,-7,-14,35,30,-59,-31,-11,27,7,-68,6,26,18,-23,51,42,-45,4,-27,-15,-31,-110,14,34,46,-41,61,69,-32,31,-42,16,-7,-76,27,48,5,-24,24,-1,83,61,60,65,-27,23,-18,-23,18,13,52,-7,65,17,39,127,19,19,-22,0,5,23,10,-7,20,32,36,121,2,19,-1,90,-13,15,-45,51,-53,55,-40,49,19,29,6,95,-15,-5,-57,45,-62,68,-41,-3,19,61,-48,0,-6,-36,10,20,1,38,-19,-30,-50,80,-28,-55,8,-4,58,4,30,-15,3,-54,-64,7,-37,-23,13,21,42,5,15,-52,5,-35,-31,-4,-18,6,8,40,-2,22,2,-34,-7,-74,48,28,25,-7,-54,-6,-55,1,-21,84,-21,32,-38,104,28,96,-23,7,-33,-2,-5,76,-12,57,-53,22,-17,56,-6,29,-17,3,-1,67,-33,59,-66,-14,-16,26,-8,31,-30,2,-29,63,-17,64,-63,16,-27,-8,-19,17,-33,27,-35,83,-8,37,-53,39,-18,-24,3,19,-31,30,-9,80,10,13,-48,3,-4,-11,-4,13,-21,9,8,90,30,1,-14,36,8,-4,2,-14,-25,18,8,108,55,14,-26,1,13,-13,-13,-30,-46,65,2,127,82,32,-43,-16,39,13,-22,17,-15,45,28,10,-12,6,-22,34,48,73,-39,26,-21,21,15,11,-20,-16,-32,16,62,42,-39,1,4,40,22,-29,-13,-13,-55,12,78,25,-25,10,19,80,32,-23,7,16,-49,31,58,-5,-37,15,-11,87,10,-19,1,36,-42,31,3,26,-27,9,-25,67,-12,4,-8,36,-51,-5,18,20,-23,2,5,57,28,32,-16,73,-9,12,3,13,-12,5,24,32,40,44,-19,95,11,2,-25,21,-12,-8,28,3,36,30,-44,127,-53,-37,-31,12,-52,-10,19,78,18,80,32,58,-127,96,-55,55,-16,15,12,39,1,41,16,2,-95,85,-18,31,-10,14,23,22,-19,28,4,-4,-41,76,-26,-4,-28,-3,39,30,-10,77,-21,-2,-53,65,-1,23,-37,-1,18,18,10,49,-27,32,-47,75,1,38,-27,0,7,14,34,29,-15,41,-51,63,-21,50,-41,-15,-13,38,15,1,-20,38,-42,20,-11,33,-24,-16,-10,55,5,5,-7,57,-93,58,-42,11,-35,-9,-6,75,55,33,-19,113,-114,95,-44,22,-35,65,-17,14,48,7,66,-12,12,-37,-64,104,-30,14,-19,48,61,12,48,-13,-10,-8,-31,77,-21,22,17,44,12,20,55,-6,32,-28,-37,53,-23,25,52,36,-28,26,55,-7,8,8,-19,43,0,-15,61,13,-76,22,6,-24,-65,6,-61,72,-6,-50,52,3,-67,20,2,-59,-41,25,-75,110,-22,-52,65,24,-45,20,0,-54,-59,71,-88,124,-22,-32,73,45,-14,47,25,-71,-79,117,-96,127,-12,-22,53,34,-7,39,69,-57,-56,103,-79,125,10,-10,-27,55,42,32,-48,23,-58,28,-29,-2,-6,-8,-18,4,-55,20,11,-47,3,46,-1,3,-1,22,-31,-7,-28,11,33,-36,10,66,-33,-41,-20,41,-70,18,42,4,41,21,-36,34,-48,-54,-7,43,-86,-3,54,-4,29,63,-10,18,-12,-35,-26,-13,-20,31,66,-3,-37,76,48,-17,61,-2,-10,-48,43,67,20,85,-88,52,28,-19,56,51,-13,-59,59,53,36,105,-51,32,2,-14,20,33,-6,-39,54,43,46,127,-99,-20,45,27,0,28,-13,-37,20,11,-36,33,-117,112,23,6,21,-28,-24,-19,36,1,-3,28,-72,82,20,5,58,-21,-1,-4,53,-3,47,-16,-2,74,10,17,67,-43,-2,11,56,16,62,23,18,122,6,9,22,-29,17,27,18,6,4,35,19,114,-17,14,-36,-23,1,17,10,-3,2,1,-38,43,-4,22,-5,-9,-3,-20,-15,-13,-33,35,-47,-19,-16,18,-23,-20,2,-41,-19,-14,-7,95,-15,-23,-47,85,-10,-11,1,-22,35,5,-15,83,9,-5,-39,127,5,23,5,39,11,30,8,127,50,-37,-43,52,-12,42,0,28,39,15,-1,116,57,-6,-20,61,20,47,-22,-3,38,29,20,83,6,31,16,31,39,-13,-21,-8,71,78,16,17,-44,-15,-31,16,0,-35,-6,5,75,83,-51,0,-38,-22,-47,17,23,23,-15,28,36,48,-54,-25,-17,-17,-62,-20,52,36,3,30,-12,6,-34,-14,-10,-42,-102,-21,49,33,6,26,-40,-16,-32,18,24,-17,-96,-21,53,57,-17,22,-28,-4,-45,38,23,42,-85,13,62,61,-35,-5,20,127,-58,70,-76,36,-9,29,-13,45,-1,21,-8,76,-33,48,-43,27,21,35,-8,14,13,1,-23,48,17,43,-2,-23,11,82,-70,-30,8,-5,-33,12,-11,32,0,12,32,72,-35,10,-29,6,-6,-17,25,57,-17,42,-1,31,-15,-8,-45,19,10,5,46,75,-23,69,-10,24,0,0,-70,-28,15,36,58,77,-39,77,-35,25,0,61,-50,-59,28,40,54,69,-56,33,-93,34,32,1,-15,-52,37,74,81,75,-48,31,-107,27,-53,-1,-22,25,-11,29,35,55,-15,96,40,43,-9,-17,-3,9,-19,29,37,52,-14,118,33,69,0,-11,8,4,-30,32,30,77,-7,127,6,38,-20,-20,7,6,-19,57,25,40,-17,101,8,61,-64,-16,8,8,-27,67,6,17,21,94,2,23,-87,-1,13,2,-26,69,18,22,12,101,-5,-3,-81,17,16,-19,-25,49,1,50,26,63,0,-20,-61,44,17,-29,-21,28,-4,50,2,65,7,26,-40,61,14,-27,-14,32,-6,33,-32,92,17,62,-18,75,19,35,33,17,16,26,1,73,-83,-82,30,-60,-16,14,81,-38,13,55,38,-35,-127,-57,53,-32,-52,-31,87,-55,-10,47,99,-13,-87,-19,34,-44,-40,-38,59,-11,-16,72,96,-8,-70,-29,24,6,-17,-4,3,35,-10,69,92,32,-29,9,14,13,-18,30,-15,54,-19,97,25,87,-7,21,-38,12,-28,37,-16,92,-23,110,-21,70,-37,-5,-49,51,-17,-1,-54,79,-45,78,-44,65,-48,-11,-35,41,2,-3,-48,40,-57,60,-18,19,-26,8,-95,-4,-8,1,5,24,-22,2,-55,34,31,114,-26,47,27,-35,-3,42,-55,-1,-48,32,-49,59,-17,-40,14,-29,-29,24,-58,-3,-18,54,-9,14,3,-41,-13,18,-26,11,-37,4,-31,50,-19,29,24,-28,-12,16,-10,-21,6,13,4,78,-25,34,44,-41,4,-3,50,-55,47,37,-39,79,-45,17,75,-12,5,23,102,-62,51,53,-4,17,-58,37,88,21,-8,40,114,-53,29,81,67,23,-72,70,70,67,-31,53,60,-22,70,108,127,106,-35,126,26,95,-52,-9,30,13,18,67,-65,127,-55,21,10,39,0,0,20,34,26,56,-11,63,-92,-7,-9,-5,1,10,11,25,11,42,5,99,-81,7,-17,12,-11,-3,11,17,9,-4,29,64,-70,-11,-13,27,-11,14,21,19,23,-10,31,79,-84,18,-22,34,-18,4,11,25,29,35,6,57,-41,7,-16,21,-32,-4,13,3,22,65,1,64,-77,28,17,-20,-33,-8,33,-14,7,83,-5,40,-63,58,-10,-17,-55,-23,49,63,-16,80,-35,50,-89,69,-34,-19,-38,32,-22,94,67,127,75,51,51,65,-41,104,8,12,50,92,54,102,-10,-2,81,68,-37,65,18,35,124,89,17,123,1,-31,56,8,-20,-14,-27,28,71,69,-15,125,-36,-44,50,43,-16,-6,-42,26,68,102,-68,78,-68,-27,5,-5,55,30,-23,14,66,51,-91,-14,-75,-75,-22,-15,82,86,3,35,55,33,-49,-20,-100,-47,-39,-30,106,66,-10,43,21,16,-15,-7,-96,-63,-20,-17,98,92,-18,30,-25,-15,-15,37,-122,-50,-56,-11,98,98,-48,-24,-3,42,-20,84,-53,30,-63,63,55,14,-28,5,8,88,28,91,-1,-34,-99,17,26,32,-29,12,15,103,8,57,10,-53,-91,92,14,39,-18,9,1,92,14,-16,35,-32,-94,91,-22,4,0,-23,-13,78,-17,49,-16,-35,-125,100,38,-22,-8,-36,-9,127,36,127,-22,-13,-66,70,37,18,-16,-60,-14,89,29,109,-58,-23,-48,24,53,50,-15,-28,-2,37,-2,40,-93,26,-53,59,7,111,-47,-39,23,79,92,50,-103,111,-79,75,28,68,-1,4,51,-27,-43,127,-44,-13,-24,33,19,11,-10,5,46,-34,-48,90,20,-24,-74,77,16,37,-13,19,34,-26,-9,91,51,5,-78,80,-41,27,-10,8,26,-2,8,85,26,38,-56,56,-48,18,-4,-6,8,14,43,92,26,77,-54,-7,-70,32,-8,4,10,40,18,92,-28,74,-10,3,-91,69,12,-4,-20,67,-2,89,-47,66,-38,2,-104,66,18,-25,-43,57,-46,75,-81,63,-11,65,-59,53,9,-4,-31,69,-50,27,-94,37,35,92,-19,43,7,54,-5,105,21,27,-48,5,5,-58,-2,-39,-23,32,13,127,61,31,-41,36,12,-49,14,-33,12,6,12,17,25,19,-55,-27,-3,-5,59,-12,3,1,6,-49,40,-20,-1,-14,-103,32,-37,-21,-24,4,5,-16,18,-8,-30,23,-72,28,-64,-15,-25,1,11,3,-34,1,2,18,-21,-9,32,57,13,-19,18,10,-41,-25,-44,40,-27,-30,74,21,54,-16,1,4,10,-17,-71,45,19,-47,83,-16,33,-8,-6,24,15,1,-42,-34,55,-35,97,8,-74,-14,55,72,7,81,-24,51,-77,86,13,10,-24,-33,39,57,-5,53,-11,53,-68,31,-23,0,-18,0,10,59,-10,63,12,38,-23,-4,-75,22,-53,8,25,52,-11,32,26,37,-22,47,-48,-2,-54,-2,-18,35,3,32,-2,14,-46,61,-65,23,-38,-9,0,10,30,49,-9,37,-104,64,-51,70,-30,6,35,22,39,27,3,57,-127,39,-28,76,-24,6,32,39,68,45,-20,44,-123,21,-12,25,-55,-4,-5,89,98,41,-64,64,-114,80,-47,71,-67,61,68,10,18,85,46,44,26,-16,-43,14,-99,55,35,-42,-38,22,86,23,8,-75,-65,-44,-45,-57,-43,7,-3,34,88,-23,-54,-74,44,-13,-4,-93,-58,20,50,89,-25,-75,-127,10,100,-47,9,8,6,-23,16,61,4,-45,-120,-25,8,-64,42,15,53,-26,53,86,-3,-11,-50,-15,-36,20,29,7,48,9,9,54,-4,-11,-40,-45,-43,35,-23,13,71,-19,29,92,-60,-58,-49,-16,-58,5,-39,-26,50,-15,77,123,-18,-24,-63,79,36,-36,22,70,64,35,-69,0,10,111,-63,126,-121,80,-9,32,30,46,-15,8,77,93,-19,115,-111,104,-2,-3,4,47,15,8,59,39,18,7,-100,75,10,-8,-25,29,27,3,31,39,12,-39,-76,64,4,22,-32,27,11,19,-9,41,10,-26,-111,51,7,46,-26,21,-1,25,26,49,-19,6,-107,52,-5,52,14,24,1,32,38,59,-28,34,-127,45,-6,7,34,32,-1,32,18,73,-51,48,-102,83,-14,-45,24,71,1,46,19,70,-67,46,-113,85,-4,30,-24,33,45,4,11,34,-27,-2,0,19,-11,26,-18,45,17,-3,-27,46,-18,32,36,16,-42,7,3,37,31,-16,-63,4,-76,77,31,-5,-39,-7,15,8,56,-11,-50,-23,-94,81,46,5,-28,1,47,16,57,-13,-36,-15,-127,36,45,23,-23,13,46,14,40,-32,-8,-12,-127,9,39,34,-25,11,33,12,36,-34,0,-3,-69,22,38,50,-12,-11,40,15,51,5,0,-14,-17,16,-8,44,-25,-46,37,20,74,49,-17,-45,-16,1,-14,13,-60,10,127,75,92,14,80,9,-18,119,-23,23,-63,2,34,22,90,-25,17,-35,2,26,-69,14,16,14,-83,-9,13,-12,76,35,17,-34,-38,32,-27,-9,-50,-3,-8,36,29,-5,-14,-36,-24,0,-6,10,43,-16,-39,-3,-10,29,-52,-44,-79,-33,9,2,50,-10,2,6,-60,64,-47,-3,-20,1,-4,-13,25,0,-21,6,-15,7,-72,-66,18,55,-11,-26,12,10,-16,25,-38,-34,-23,-25,68,31,6,-44,-21,38,49,36,-84,39,-14,-5,112,26,-18,-67,71,11,56,-7,5,-18,-27,-11,16,-65,-25,-37,93,-16,21,7,4,-11,-7,35,-5,-86,-63,-38,102,-9,32,18,44,17,1,57,-28,-72,-52,-26,101,43,58,38,61,33,-13,48,-7,-36,-20,-5,45,28,55,25,45,-11,-17,59,4,17,-13,-2,-10,42,55,16,-11,-26,-12,38,-18,12,-14,-3,-13,33,9,32,8,-8,-54,58,3,67,-23,-11,-12,27,-45,56,22,55,-47,45,-10,95,-22,-25,22,-6,-60,50,-16,89,-40,22,9,127,-78,-17,15,53,72,118,4,16,-106,51,-36,1,-16,21,2,41,19,57,2,4,-110,-55,-42,36,-9,39,44,72,-10,55,18,11,-78,55,-24,23,-35,53,12,96,12,56,68,-2,-78,98,-66,-1,-57,50,10,87,-3,62,0,-22,-116,41,-96,-1,-44,23,-2,30,20,21,6,45,-54,101,-48,-13,-34,-5,2,43,-6,18,-40,-13,-93,53,-16,14,2,-1,11,62,25,43,-68,98,-80,40,-26,45,-51,-30,15,123,62,19,-85,113,-108,71,23,127,59,56,22,96,-97,127,-64,-61,31,43,71,70,56,3,10,77,-38,71,-35,-35,-3,-8,59,43,46,-42,2,75,1,66,-15,-22,8,-9,57,42,30,-58,17,117,-1,40,-32,18,-19,23,22,20,19,-34,7,86,11,85,-62,15,-57,59,-16,92,11,7,-17,-20,1,98,-45,-6,-89,92,-36,105,12,60,19,-46,-13,119,-58,-28,-111,71,-49,68,23,93,9,-13,-46,105,-10,-55,-90,60,-19,46,35,111,7,13,-107,91,-60,-50,-123,23,12,8,-32,-8,-21,-5,27,-6,-41,23,-31,17,-26,72,-25,22,-3,-1,19,24,-1,10,-33,29,23,9,-12,7,14,14,28,41,47,27,-28,40,1,5,-20,6,13,12,1,15,-1,23,-47,42,-7,51,0,24,45,20,12,51,15,57,-65,43,-3,-23,17,14,-1,5,19,6,13,65,-32,9,-16,-10,9,-19,17,-12,15,10,27,34,-50,4,-26,-14,-1,-26,8,0,-2,33,-3,0,-32,28,-20,53,-41,-20,38,30,-2,61,-37,16,-36,127,-8,51,-34,-31,3,76,13,58,-42,-41,-31,39,43,91,-24,-30,9,43,3,66,-67,7,4,37,8,32,-30,-10,-11,1,29,49,-69,13,19,-31,-29,-45,-11,30,-3,-21,18,47,-43,4,46,-20,-67,24,46,23,9,25,10,-6,-67,7,50,23,-59,51,21,19,47,17,42,-9,-124,-14,-53,22,14,-22,-102,58,97,57,30,57,-18,27,-92,58,-3,-23,-84,2,100,-18,-43,2,17,47,-127,91,25,-23,11,-2,-17,-6,-54,11,-5,95,-36,18,-86,-50,12,-51,0,74,-4,10,85,37,-24,89,38,42,22,-26,5,63,14,0,54,43,2,88,-8,30,16,0,32,44,37,-14,49,-18,47,119,17,8,-4,-2,36,52,65,-31,18,-8,51,91,17,3,-30,-6,34,36,35,-30,7,48,38,60,36,20,-52,-4,32,82,0,-11,-11,94,27,25,47,25,-56,-20,6,68,-10,-18,-19,97,34,-31,44,28,-55,-24,-5,30,-13,-15,-47,82,41,-83,38,38,0,-22,-42,-1,-6,-22,-26,38,13,-127,-17,-2,21,-22,-19,-20,8,0,64,-44,21,-109,91,10,-10,4,23,4,21,19,79,-19,-7,-90,83,24,-41,8,90,13,5,38,50,-15,-41,-54,59,13,-70,16,127,-23,-10,49,-3,-19,-35,-37,37,6,-37,23,121,-32,-40,18,-32,-32,-56,-54,22,-17,-6,47,89,-4,-58,-6,-64,-26,-43,-78,25,-46,-12,25,55,10,-40,1,6,-15,-47,-64,21,-49,-13,9,20,-15,-32,18,62,-14,-36,-53,0,-34,-11,3,9,-28,-38,39,62,-34,-67,-65,21,-10,55,77,-17,-31,-71,21,-55,-36,54,-82,-19,44,-38,65,9,44,-47,45,-33,27,52,-40,-29,30,-27,-12,23,49,-24,43,-33,-19,-25,14,-91,92,-53,-63,-7,27,1,59,-24,-39,-45,55,-25,127,-51,-18,-20,5,-4,49,-75,10,-85,48,-54,100,-64,1,15,20,4,23,-54,27,-53,79,-95,4,-20,-7,24,6,-25,9,-42,30,-39,66,-78,-8,36,-55,25,-25,-41,11,43,2,9,27,-61,-40,38,-66,71,-32,-40,12,77,-1,-10,32,-31,-43,-57,39,5,-16,0,2,-9,32,-127,39,31,3,-32,24,7,0,-24,8,-10,82,-78,45,38,11,-43,36,19,53,-16,48,20,60,-102,28,25,-18,-51,37,32,51,6,32,-2,80,-111,40,-7,-14,-19,29,44,67,7,50,-3,0,-108,39,21,-12,1,10,39,42,-3,37,42,20,-97,10,9,-23,7,-2,36,29,2,37,3,-17,-99,14,22,40,-12,-10,33,29,-6,87,-34,-16,-39,67,18,88,-37,2,6,33,8,123,-25,5,16,115,15,107,-25,43,-16,39,-18,-2,9,69,-127,116,-74,52,-10,34,37,58,9,9,20,51,-83,85,-39,-44,-16,0,39,61,29,19,39,59,-53,92,40,-70,-15,-20,43,29,69,19,36,29,11,23,2,-84,-33,-37,56,26,23,83,14,1,13,18,-9,-72,-41,-31,61,-7,18,100,20,14,0,41,51,-16,-34,-10,-4,-13,46,48,19,37,-29,28,39,-10,-24,24,-39,-13,32,20,-25,0,-110,24,-32,1,-27,54,-2,29,11,6,-44,0,-124,17,-53,31,-64,-29,40,71,-9,78,-46,29,-127,108,-49,98,-34,26,15,40,12,40,-11,6,-112,51,-41,65,-27,24,7,14,40,22,24,23,-89,-2,-26,22,-29,22,29,36,41,22,38,86,-82,2,-9,22,-46,-6,2,31,35,44,10,36,-98,26,-45,49,-23,3,19,38,54,28,-30,9,-40,63,-35,33,-14,17,21,54,38,27,-17,50,-64,8,-5,24,4,-26,-3,45,17,51,-1,50,-69,44,2,40,-53,-45,54,106,48,32,-15,57,-66,104,-10,32,-39,-6,-38,61,22,101,-113,52,-39,-25,-69,105,-22,-15,-8,79,47,89,-106,34,-30,30,-12,51,5,-31,-5,76,10,82,-127,34,11,28,-20,46,18,-7,17,86,6,56,-121,21,-32,18,-74,67,6,4,10,81,29,32,-99,26,-3,5,-72,53,-14,-9,29,65,50,13,-44,23,-32,-16,-64,11,-16,-8,-2,30,48,33,-56,5,-25,-18,-75,-11,-9,-25,-26,14,90,34,-34,44,-88,-9,-80,-49,-18,21,-21,18,114,30,-47,122,-39,-30,-108,-49,-3,5,-1,12,53,29,-65,30,-27,127,-42,-32,-4,19,-32,29,-33,21,-42,39,-10,48,-28,-12,-9,18,-58,62,-24,35,-51,21,36,52,-8,15,-8,14,-3,57,-37,31,-33,-14,72,61,-14,21,12,12,45,25,-38,14,-3,-6,70,55,-56,51,18,7,54,19,-4,9,-48,-25,4,61,-50,68,10,15,44,-27,14,35,-1,-6,-25,16,-11,22,-10,-5,44,-57,8,63,54,-9,-53,-19,26,-15,-24,-9,23,-26,59,57,73,53,-83,4,48,-15,-6,-21,-7,58,41,84,-5,26,21,127,21,-41,-1,-20,-4,50,49,40,3,-8,34,72,25,-17,-13,-1,-23,4,15,22,11,-24,22,16,25,0,-8,12,-13,-25,23,15,33,-33,3,14,-2,16,-17,11,7,-18,26,52,12,-25,-13,68,-8,13,-26,15,-4,-28,22,79,7,18,19,80,10,19,-28,14,-29,-18,16,65,3,22,-1,69,11,1,-17,4,-35,-9,37,75,26,24,1,88,-2,-1,-32,-7,-47,-10,37,72,47,6,-4,119,-18,11,-40,20,-21,90,69,22,21,74,-54,58,-1,23,-42,19,11,33,58,-19,-8,65,-84,110,26,-32,-44,9,36,12,67,-31,4,54,-58,127,91,-10,-37,-22,35,25,53,-31,-5,53,-49,81,111,-15,-39,-29,43,57,31,11,-2,55,-41,13,102,22,-19,-7,65,56,-16,-2,-6,45,-27,-21,110,51,-46,2,47,27,-3,0,-1,10,-57,16,63,40,-46,-9,28,2,-1,34,6,-7,-125,-11,4,21,9,0,59,44,-10,61,28,-31,-106,31,-10,-5,-76,0,-6,80,7,76,-60,68,-96,101,-57,111,-17,33,-3,52,-26,83,11,22,-81,-1,-11,96,-26,12,3,60,16,43,41,55,-60,10,19,76,-43,4,24,68,26,43,61,100,-50,42,11,31,-32,0,23,35,42,90,12,123,-47,4,23,-4,-10,-8,6,30,53,111,45,92,-76,-4,66,25,-29,-20,29,16,12,127,15,64,-91,-5,-32,-24,-14,-57,46,66,5,116,5,-5,-70,30,-44,10,-53,-66,-5,101,49,106,6,66,-91,77,-99,-20,-2,13,19,-13,45,127,-2,46,-79,-47,12,-42,4,0,16,-27,38,84,30,36,-113,-38,43,-14,-13,-31,38,3,49,91,67,64,-123,-17,31,-8,2,-45,31,29,17,72,41,30,-84,-16,58,-5,-22,-31,4,43,1,45,49,46,-60,-34,57,-28,-56,13,-32,55,23,67,19,96,-51,-39,27,-12,-37,48,-43,49,20,67,-15,91,-23,-44,0,24,-8,36,-40,19,39,53,-63,91,-42,-53,-26,14,0,28,20,21,46,68,-54,28,-44,6,-19,-33,-56,-2,-9,13,-22,61,-11,107,-60,29,-1,23,-7,9,10,27,22,41,-10,57,-72,62,-6,32,-4,14,-6,50,24,-12,-20,41,-115,61,-41,8,-19,25,19,56,8,-4,33,4,-82,57,-15,2,-30,11,13,73,-11,52,-2,0,-98,81,-29,0,-10,5,14,58,44,61,14,28,-46,127,14,12,-17,-3,5,38,22,17,-31,16,-19,81,25,3,-26,-21,5,32,18,4,-75,48,-31,59,-13,9,-23,-21,36,91,41,37,-35,96,-17,90,9,62,-46,24,8,22,8,31,13,66,-127,19,25,65,-24,17,-4,62,13,52,21,73,-93,8,-15,55,-33,26,-1,63,18,51,6,61,-80,47,-28,70,-23,32,-4,17,-8,25,19,53,-77,16,-61,7,-26,19,37,62,4,18,34,37,-57,49,-60,2,-7,5,33,69,37,41,9,90,-71,17,-24,4,-14,18,38,61,32,48,-47,39,-58,51,50,32,-25,0,44,11,19,56,-41,59,-60,-5,-23,2,-60,-6,68,46,42,49,-96,50,-111,6,-90,23,-46,-25,10,111,1,103,31,-53,33,97,-23,53,-8,-15,63,92,-22,73,19,-15,29,50,-25,41,8,26,112,27,-48,78,26,0,24,7,16,-9,-17,36,102,35,-6,59,-11,24,3,-35,6,-30,-34,16,89,49,-18,53,3,-33,-38,-44,-7,15,-18,19,45,35,-32,29,40,-11,-51,-35,40,69,0,42,-3,29,5,28,15,-13,-60,-50,50,77,28,49,-25,-16,-6,39,-55,-53,-17,-37,73,86,-4,44,-65,-41,-22,71,-127,-56,-12,26,99,81,-26,17,-4,42,21,40,-46,58,-71,51,23,30,-20,34,3,35,18,18,-25,24,-97,34,-11,-5,-39,40,19,82,12,20,6,-5,-94,94,-16,-1,-33,25,6,69,30,1,27,-22,-127,42,-19,-31,-25,16,25,65,15,23,-24,-15,-95,58,-2,-5,-20,6,31,41,9,19,3,8,-77,30,-4,28,-8,1,19,29,16,23,-33,31,-36,25,-10,48,4,-6,7,7,4,64,-3,61,-10,15,-22,62,-15,-21,13,25,52,74,-13,62,-10,55,-64,76,-41,12,14,62,60,35,-52,-9,-104,104,-11,25,-12,18,-3,46,25,-4,-11,-5,-86,84,-8,28,-31,35,7,66,-7,-13,19,-12,-92,94,-74,30,-35,36,-2,88,14,17,46,-9,-84,72,-79,2,-29,16,-12,45,36,8,15,16,-85,69,-54,23,-32,2,19,36,20,16,-1,0,-63,21,-91,43,-15,-2,35,45,0,23,-2,-8,-21,24,-23,90,6,-3,43,41,2,45,15,44,17,28,-26,120,-17,-18,10,47,54,41,8,95,2,-1,-43,127,-46,24,-12,21,-26,8,-51,88,58,96,-14,50,-17,13,-11,8,-6,15,-33,74,17,34,-38,54,-3,-14,-26,3,11,27,4,71,-34,19,-22,46,-13,-24,-34,9,12,37,-28,50,-27,22,-64,28,-9,-20,-22,8,24,45,-37,59,-42,26,-66,45,-32,-35,10,27,55,87,-36,75,-43,65,-71,97,-10,-29,25,34,59,88,-4,59,-77,94,-34,120,9,-14,33,42,62,65,-28,12,-58,125,-45,86,-13,-25,53,59,51,37,-53,-14,-32,127,-47,39,11,75,10,-21,-50,-7,-39,60,-97,-41,-75,-41,-32,67,18,-16,-52,4,-33,114,14,52,5,-37,-72,21,11,37,-34,30,4,63,-32,127,30,-6,-29,-16,-20,70,-19,117,50,20,-42,112,97,-42,-42,3,-9,108,-40,84,60,34,-48,49,102,-56,-25,10,11,81,-41,27,8,1,-96,12,46,-26,12,-1,60,-10,-47,-15,-7,73,-70,50,-33,18,14,-6,43,2,3,29,1,53,-25,51,-15,0,-35,-8,40,41,33,58,37,68,-19,47,-40,23,-8,20,-36,7,28,47,-21,-21,-125,88,-34,69,-28,34,13,20,21,48,7,-9,-98,54,-16,7,-34,35,42,14,-5,58,28,32,-38,75,29,-1,-21,25,64,47,-7,70,54,-26,-38,2,7,-83,-38,-6,83,26,-19,90,29,-7,-11,43,35,-94,-18,-12,44,41,6,39,10,-20,-2,39,2,-50,-5,-10,14,27,16,16,-37,58,-54,97,33,-14,11,36,-2,12,-38,7,-35,60,-115,90,27,1,0,52,19,22,3,15,-57,61,-127,90,-7,7,-45,14,18,25,27,31,-65,50,-127,117,-22,60,-21,47,41,52,35,51,-40,-22,-124,75,-47,20,-15,38,42,69,27,43,15,33,-105,91,-54,55,-14,17,25,47,-16,34,-3,87,-68,85,-45,42,-25,7,-26,42,10,22,-39,20,-86,71,-53,16,-40,9,13,36,42,24,-20,39,-90,74,-77,9,-17,-10,8,41,47,34,-52,27,-101,81,-32,51,-15,-13,22,61,27,14,-53,16,-99,107,-22,48,-55,-12,22,99,83,67,-68,47,-87,93,5,80,12,3,-14,11,32,49,21,127,10,-16,-29,9,7,8,-15,4,2,54,6,85,3,-53,-33,37,-3,4,-11,3,-7,26,22,22,-11,-31,-33,21,-7,-10,9,10,-15,6,-5,8,-2,-29,-29,-2,-4,-6,27,3,-1,1,6,-8,-4,-11,-24,-7,0,-4,25,12,33,8,-6,-9,-19,7,-14,21,1,-1,9,25,7,-1,-13,-33,-13,12,-3,13,-12,-8,24,46,-16,7,-21,-40,-14,17,-11,2,-14,0,20,56,-7,-4,-39,-44,1,32,-18,-22,-9,-42,-4,31,-13,76,-42,127,-4,69,-49,55,-7,-20,-41,24,-25,83,-16,61,18,80,-71,65,-5,-18,-60,23,-20,78,-12,26,26,87,-92,58,2,-12,-22,-1,-11,44,-16,5,10,122,-89,66,5,1,-5,-18,-11,5,6,-5,-25,111,-78,72,-2,17,20,5,-12,5,-21,-10,5,100,-85,90,2,19,9,22,-34,30,-14,2,12,23,-82,109,-1,14,-9,27,-48,24,-29,1,-8,38,-68,92,-7,13,-29,37,-43,-4,-19,6,-31,29,-42,53,-20,19,-2,34,-9,40,-58,39,-94,97,23,13,-7,22,-7,43,-16,41,-27,69,-102,58,41,5,-13,14,-1,50,-16,42,-7,83,-107,10,26,3,-14,-3,27,52,-39,54,18,121,-98,-10,-8,15,-13,-15,15,73,-53,60,15,118,-66,-30,6,4,-13,-11,17,67,-27,58,4,127,-39,-13,-13,4,-16,-28,5,53,-10,50,-19,121,-25,-14,-1,-5,-17,-32,11,29,4,39,-45,94,-17,5,6,16,-28,6,23,1,17,44,-89,30,-23,33,26,26,-21,4,96,-43,28,-57,-59,19,-127,-80,27,-60,-32,-5,75,-16,49,-47,-35,11,-102,-75,6,-55,-43,-29,64,-3,45,-36,-5,7,-65,-74,-25,-47,-45,-38,40,8,69,-47,30,2,4,-72,19,-25,-26,-63,17,10,79,-64,58,9,1,-110,18,-6,-16,-55,4,7,96,-63,57,14,49,-105,23,5,-1,-73,0,-6,106,-59,63,18,39,-73,-1,-2,22,-96,-17,-18,81,-49,79,7,35,-42,-50,-7,4,-103,-5,-21,67,-43,95,-26,17,-7,-63,7,-42,8,29,46,22,79,-25,-3,-43,11,-24,84,-36,28,3,47,16,45,-67,22,-58,-7,1,34,-35,36,-14,50,26,11,-68,5,-115,35,-47,34,-36,38,10,83,94,4,-74,-11,-122,47,-41,14,-36,30,41,104,73,-3,-105,-45,-127,33,2,-15,-22,-12,39,79,3,-8,-53,-52,-116,25,11,-15,-26,-7,48,35,8,21,-40,-2,-66,17,-46,8,-9,-19,13,-14,14,75,-56,-37,-21,21,-59,68,-8,-36,15,-33,36,99,-61,-56,-27,-4,-60,123,-57,-6,-54,80,-27,75,67,99,-35,62,10,115,-23,24,-27,73,3,79,45,101,-39,31,10,69,-14,35,-31,60,-23,72,64,50,-41,89,86,75,-3,19,-26,85,13,65,46,-6,-15,94,28,84,-21,-14,-53,48,-14,47,-3,31,-34,88,-7,-14,-32,-29,-14,55,7,127,-22,26,-49,50,11,-9,-21,-19,-31,69,-5,91,-11,13,-78,90,-48,-44,-49,-35,-31,76,-7,83,-35,42,-76,89,-83,13,-39,-36,-20,83,61,90,-13,94,-93,28,-58,-24,-16,18,2,27,13,79,-8,75,33,23,-31,45,-4,19,-1,3,-5,79,0,55,3,19,-36,31,-2,1,-4,6,-1,66,15,67,-16,29,-65,35,-7,0,26,16,-6,35,-13,41,-12,31,-58,40,-7,7,18,7,-14,15,1,13,-18,24,-50,27,-10,7,-4,19,-22,28,-23,6,1,35,-71,60,-6,11,-22,34,-28,46,-31,-16,0,23,-50,71,5,15,-13,22,-21,57,-37,10,-5,82,-52,63,10,6,18,15,8,52,-41,20,6,127,-12,54,-16,21,57,35,-66,25,36,72,-67,6,-12,-59,1,28,13,37,-71,41,31,58,-66,-14,36,-41,-5,2,-26,39,-55,77,55,70,-34,1,43,-18,-25,-8,-19,44,-40,98,29,61,15,-44,51,-13,-30,-23,-12,91,-43,101,46,32,34,-57,93,-41,-39,-28,-11,107,-48,127,27,41,53,-63,93,-24,-40,-21,-17,108,-46,122,33,44,53,-72,76,1,-16,9,5,68,-44,104,12,30,48,-36,27,-3,-17,39,33,37,-55,54,57,4,70,-6,-35,1,-28,-18,-17,48,61,68,-56,-95,81,-3,19,54,-14,-3,0,84,73,41,-38,-21,74,-62,-33,-10,-14,36,6,65,42,15,-17,23,32,-90,-17,-7,-20,33,20,47,54,32,11,8,8,-46,-59,-19,0,0,13,49,38,66,59,8,1,-29,-6,-46,4,-21,20,37,47,61,28,1,25,-62,10,-46,-1,-16,19,23,55,66,1,62,13,-65,17,-62,-9,-10,19,17,29,95,-7,64,-59,-61,66,-26,-18,-36,27,9,-2,127,22,26,-117,-23,50,-18,-22,-24,8,10,-5,41,4,28,1,-36,8,127,-10,-11,14,36,21,47,7,52,-10,-66,12,77,-9,12,37,49,38,59,22,47,-53,-78,26,23,-17,34,24,48,38,31,19,11,-104,-41,-43,-11,-18,30,31,34,12,45,32,-18,-103,-4,-64,1,-13,19,43,33,4,46,17,19,-59,26,-49,-56,-5,-11,57,30,52,22,20,39,-28,28,-45,-54,5,-6,62,0,70,52,16,36,-30,-6,-5,36,-14,-4,35,-23,69,67,17,37,-40,-27,-29,48,8,-5,-15,-71,22,13,40,-1,34,-43,-127,-16,-7,-13,19,-38,12,16,21,41,58,-46,-75,45,-29,-5,70,-27,54,-5,-26,94,-19,-46,-34,64,-1,35,20,-3,25,-67,-36,121,-46,13,-63,1,16,41,8,37,-52,5,-56,9,-49,51,-55,-24,-12,-1,-5,71,-56,50,-43,19,-48,51,6,1,-34,-30,-11,48,-18,97,-42,51,-71,73,51,49,-28,-25,1,53,13,127,-30,34,-86,47,36,36,-57,-12,35,68,35,108,4,76,-89,66,1,52,-48,-23,14,76,34,26,-30,6,-63,127,22,-21,-15,2,-6,81,24,5,-33,-20,-65,97,-35,-28,-27,26,12,68,31,2,12,-13,-46,61,-41,1,-27,9,-2,30,38,18,16,-24,-51,51,-36,41,-32,19,5,5,43,10,-13,-3,-47,65,-46,34,-25,13,16,6,33,32,1,5,-51,24,-61,60,-16,17,10,27,22,26,-2,-1,-29,17,-26,101,-10,18,25,19,31,28,-4,57,-30,41,-25,91,-25,-10,19,57,50,43,14,53,-65,60,-32,80,13,-40,-1,21,66,30,-57,4,-100,40,18,-50,14,-15,10,25,63,12,-38,37,-93,24,41,-38,22,-12,-11,16,62,3,-21,32,-58,-29,13,-15,8,-10,19,17,56,21,-21,-7,-17,-47,35,22,-9,-5,14,13,65,37,-43,-23,-15,-47,80,56,-20,11,-14,1,36,40,6,-26,29,-34,90,32,-13,28,-44,-16,-17,74,36,8,65,-47,62,31,-22,59,-59,-40,-27,81,20,53,89,-37,62,28,-18,82,-51,-54,-18,71,-15,42,127,-3,21,31,-127,6,119,20,77,-14,101,-19,16,25,-30,-104,-85,-6,76,-14,38,-20,96,11,-11,-2,-33,-12,14,-11,-6,-23,27,-27,19,36,-25,-16,-2,52,-8,13,19,-8,-7,4,2,51,14,-49,-37,23,3,27,81,-3,-19,17,14,49,-2,-45,11,38,16,-2,60,-4,-25,13,26,81,-24,-53,36,51,-5,-10,26,13,-33,23,48,39,-23,-89,47,71,-27,-24,15,32,-48,6,96,4,-37,-86,53,43,-19,-21,-15,8,-75,9,86,40,-16,-80,50,102,3,-75,-17,13,33,28,74,92,-21,86,73,62,18,-47,-4,-14,39,-4,48,127,17,53,75,51,0,-17,21,5,40,-37,28,108,51,63,58,17,1,-13,29,15,47,-38,0,125,33,118,47,27,-9,-11,27,47,21,-17,-36,85,42,81,15,16,-2,0,2,35,-21,-3,-41,40,-3,38,0,5,-23,20,-18,1,-29,14,-56,-23,-17,-5,-5,7,-31,52,-28,-19,-27,24,-46,20,-43,-14,-13,-5,-35,44,-23,-24,-41,32,80,71,-59,-4,-51,-67,-63,4,-2,82,0,65,18,35,-7,16,33,43,-52,-17,15,64,16,41,-46,15,22,30,27,60,-36,-24,17,26,37,26,-95,14,35,-2,1,10,-14,-10,30,21,29,12,-91,0,20,-9,-7,-31,1,28,19,-8,44,17,-57,24,-20,-20,-38,-60,2,-4,56,-19,49,24,5,58,-60,-24,-64,9,-14,-34,22,-1,9,36,36,110,-92,7,-50,-4,-30,-26,-27,56,-6,28,72,127,-126,52,14,6,-71,-36,-17,81,-14,20,68,93,-95,46,26,34,-25,-31,-23,75,16,74,-34,35,-13,127,44,-18,-6,-25,-19,41,3,58,-17,5,-20,8,-14,2,-5,-1,-17,-14,-8,74,-22,-21,6,-26,-29,22,-18,15,-21,-37,11,69,1,8,-15,-25,-19,27,-32,8,-25,-11,26,64,29,19,-17,29,-22,13,-24,14,-28,-11,16,40,47,59,5,39,0,25,-24,19,-28,-14,33,37,56,41,25,93,4,-1,-11,2,-14,-3,48,38,77,8,39,114,5,-11,-8,-38,-33,0,44,73,73,-8,29,115,6,-9,36,-11,26,5,-36,-28,-90,68,-16,52,56,23,14,11,75,-43,-24,-2,-27,72,-61,53,39,13,-40,-5,127,-35,-13,34,9,92,-74,73,47,16,-71,-43,68,-12,-19,18,38,46,-58,30,39,7,-48,-35,-14,31,15,-13,64,54,-32,29,28,0,-4,9,-57,73,27,55,-13,35,8,15,2,3,-9,17,-60,59,23,71,16,35,-2,17,46,-8,-30,27,-61,73,17,81,8,3,21,13,55,15,-35,17,-55,62,-11,83,-64,-17,37,11,86,41,-23,-2,-34,30,64,26,-42,-25,-68,51,28,91,2,-17,-8,-7,1,28,-52,4,-57,37,25,69,3,-16,-6,-4,15,45,-54,27,6,0,21,-17,-26,2,-21,1,-2,23,-11,5,31,-55,-9,-13,-11,22,-23,-1,21,-11,-6,-36,60,-7,-4,25,18,5,-16,12,18,-9,-19,-35,24,10,-9,32,20,-4,16,18,-3,-10,-7,27,-43,58,-15,-7,-60,26,103,18,-20,21,22,47,-33,70,-28,-59,-39,-16,127,6,-10,11,17,35,-57,44,-30,29,-7,-41,-14,19,-16,89,33,30,-50,2,-33,-9,0,8,31,9,23,46,44,13,-62,-41,-49,16,12,40,36,3,19,5,62,36,1,-32,-24,47,5,39,-9,3,-20,-2,38,36,9,-9,-8,36,-9,-13,-39,-21,-24,52,-54,14,2,11,26,5,-3,-50,-46,-1,-6,75,-127,16,-16,61,78,-46,15,-32,-38,-3,29,18,-116,10,-42,24,31,-43,10,-1,8,-1,63,-4,-80,-10,-28,1,-26,-9,-11,54,53,18,86,-25,-50,-9,17,64,-13,-1,-1,-19,-13,90,16,25,27,77,18,67,67,76,1,4,24,67,39,-5,63,47,33,51,36,59,-14,12,63,48,61,-32,-38,28,-7,15,26,13,-40,6,34,-5,108,-36,-51,36,19,-13,3,51,-66,-12,24,62,25,-29,11,59,37,-15,23,70,-69,-7,22,93,-20,-18,48,75,27,48,34,45,-40,-23,12,29,-26,-14,15,44,-5,-58,20,50,-13,-24,-30,-4,17,-25,-14,98,14,-68,-20,-2,7,9,-54,6,45,33,55,127,-6,-49,-88,-37,18,51,-6,-8,47,53,-1,-42,-14,53,-90,-27,9,22,-2,-14,34,78,-10,36,-21,15,-43,16,35,-43,-3,-2,20,42,-62,49,-81,-17,-62,13,19,-52,2,11,32,1,-86,61,-113,-2,-19,34,4,-41,-5,-9,47,-21,-83,51,-127,61,-14,13,-25,20,12,-21,25,-22,-75,45,-99,58,4,-23,-38,39,49,-10,11,-8,-102,23,-60,39,36,16,-27,13,52,27,7,23,-62,-1,8,64,3,39,-23,14,43,55,12,38,-18,-34,80,84,38,76,-20,-5,-40,-65,-57,62,8,2,-24,30,-43,-19,-3,35,-20,-84,-20,19,-73,-10,-30,-1,-37,1,15,28,93,7,-24,-6,-22,9,-37,12,21,-17,-28,-11,4,127,48,11,39,41,-34,28,73,-19,-57,7,-36,91,16,39,94,71,-18,-7,41,30,-12,-2,19,-33,32,55,-18,4,-46,-40,-27,-3,5,15,44,-22,17,31,-78,-9,-43,-3,-92,-101,33,-16,23,57,44,30,-29,-8,101,-27,-4,-30,18,-54,-58,53,33,23,9,-13,106,1,-9,46,11,-77,57,55,45,81,-1,79,30,-24,56,-6,-8,-44,-36,48,-54,63,-1,48,33,-59,74,-22,-9,-21,-31,28,-63,59,-23,25,38,-20,-14,-16,-7,-7,-30,83,-65,78,-85,42,-64,-28,15,6,-63,66,-12,54,-2,-7,4,25,-9,-9,67,-8,-77,98,-16,0,36,16,89,63,-6,33,104,48,-21,-9,19,44,55,79,40,19,-103,-73,113,102,-14,-53,-29,33,99,95,-49,35,-110,-63,13,37,-10,-16,-10,45,82,70,-75,2,-127,-86,-29,23,13,-27,-19,60,15,43,-62,-27,-21,-61,-20,8,-3,7,-10,72,16,34,-62,27,-21,-33,-15,-12,-24,14,-13,38,12,0,-47,-11,-44,-23,20,4,-32,0,-17,-5,41,13,-43,-7,-1,10,14,26,-26,-7,16,1,34,-21,-36,25,-1,-12,3,36,-25,14,41,26,13,-20,-20,22,12,-19,12,47,-29,2,34,35,0,-18,0,84,22,-3,15,61,-24,-7,-3,11,33,-19,-24,127,17,30,49,62,-6,-8,-26,12,55,-17,-1,122,-16,-28,71,57,11,9,-38,3,49,10,-48,-32,-66,-117,-114,40,-20,-7,-55,13,16,26,-57,-16,-35,-108,-106,8,-23,-5,-7,45,17,5,-41,0,-72,-87,-71,-30,-24,13,3,57,3,-18,28,27,-69,-4,-52,-47,-13,31,7,37,4,-15,-17,33,-103,49,-69,-41,-7,38,18,39,22,40,-20,75,-21,102,-16,19,-8,18,33,71,42,54,-37,90,44,84,50,48,5,-15,-3,41,70,28,-45,127,66,38,94,85,-10,-33,21,-8,47,-16,-37,107,81,86,121,116,-40,1,8,-14,11,65,106,14,-51,105,-17,26,-42,34,-29,15,4,34,76,18,-55,88,6,43,-2,31,-95,-47,20,11,52,-36,-54,37,-33,32,-25,-23,0,-14,10,78,-49,15,-37,20,-35,-31,-3,-28,42,51,3,26,-54,30,-25,50,3,-29,4,17,81,68,54,67,-56,63,-37,-23,5,6,-49,-14,127,93,-26,87,8,73,-80,-56,22,-5,-21,-51,44,111,-61,10,20,95,-80,15,61,-31,39,-66,-25,126,13,69,-60,81,-74,46,53,-4,-66,-3,11,48,26,127,-22,11,-33,111,-14,54,-6,49,16,10,-4,81,5,37,-88,-19,-20,56,-8,26,4,-3,-10,75,15,68,-95,-5,-43,61,-27,-24,38,72,14,40,-35,81,-69,-25,-29,36,-42,-23,1,101,26,11,19,95,-79,-16,-59,12,-24,-22,0,48,25,2,-9,79,-56,-17,-56,34,-15,3,10,50,41,20,24,16,-66,8,-81,0,-36,8,9,59,46,-14,47,-33,-70,54,-44,3,-55,4,19,77,52,7,73,5,-43,91,35,46,-28,13,-10,69,4,111,-39,105,28,30,-14,35,-2,17,-3,39,-3,122,-5,82,0,38,-39,32,11,3,-12,19,-1,95,44,69,-52,42,-70,9,-5,6,19,20,-4,66,20,64,-74,40,-61,-6,-4,8,-4,10,-7,23,10,73,-70,31,-54,17,0,12,-10,28,-18,40,5,57,-43,27,-70,53,9,14,-26,51,-28,56,-16,22,-34,14,-35,42,12,4,-39,40,-7,49,-49,35,-38,74,-17,46,15,-28,5,7,3,45,-55,11,-37,127,15,43,36,-32,69,60,-47,14,42,55,-127,30,18,113,36,-15,29,32,-27,30,-17,52,-81,15,31,85,21,8,-26,24,20,51,-23,76,-14,-22,5,127,5,46,-59,-7,-4,46,-25,47,-1,-27,-60,45,-15,50,36,25,12,32,6,69,12,-7,-63,79,-40,33,31,55,40,5,13,111,44,10,-45,82,-16,18,0,35,19,25,-21,45,-20,23,-50,31,29,3,38,45,4,51,-48,62,-56,0,19,7,44,-7,55,92,25,87,-69,39,-9,-49,16,80,29,27,60,38,-6,36,-87,29,-94,-41,-41,15,-7,41,-15,56,22,16,-47,63,-47,-8,-47,-6,-22,12,-5,34,-9,-25,-14,79,3,24,-64,15,-25,18,19,27,-2,16,24,73,-1,76,-64,-27,-23,21,12,28,13,42,-36,74,27,97,-11,34,-20,16,28,17,4,38,-25,40,-12,57,-15,52,19,-27,35,-6,2,15,-38,53,3,33,-8,25,55,-58,23,6,22,38,-89,64,-17,-18,19,52,47,-65,34,21,45,57,-127,30,30,-3,27,17,6,1,15,46,-19,90,5,77,-44,42,-81,59,2,-13,-8,46,29,66,30,63,-23,9,-71,69,17,-22,-9,20,46,34,-19,42,-8,-22,-68,35,13,5,-23,2,47,28,-58,85,10,-10,-99,23,-2,26,-19,3,29,35,-95,45,30,17,-127,31,-11,24,-3,-9,43,13,-34,7,65,16,-100,42,-6,26,4,-7,57,-8,-40,22,51,20,-85,69,16,27,1,-17,56,-13,-47,22,40,-1,-59,61,14,31,4,-1,33,-5,-76,28,33,-13,-78,42,-18,38,-35,-24,-31,45,-10,-7,17,70,33,-4,-25,5,-33,-42,-20,64,-7,-29,11,42,10,17,-38,6,-13,-31,7,95,-19,-25,-22,-5,4,-5,-27,-7,-21,-20,0,58,15,-4,-50,-12,16,-11,2,-7,-18,6,3,27,-1,-3,-30,14,12,-16,20,9,-12,25,-11,-11,3,9,-6,44,-2,-7,8,-11,5,38,13,7,-9,17,18,127,24,14,-5,-14,2,59,15,16,-4,28,35,110,28,20,-2,-18,-14,59,-16,56,-3,10,34,93,50,40,-7,-8,3,22,87,22,25,4,-41,87,11,-6,12,18,-19,31,-7,31,-18,18,-61,127,-14,36,-42,48,-28,36,10,44,-68,30,-24,80,-31,40,-63,43,-15,5,0,-8,-59,-16,-7,-52,10,-14,-38,23,-10,2,-7,-9,4,-29,-26,-65,-3,-41,-23,-6,13,12,18,16,22,7,-53,-13,-6,-52,2,-3,21,33,-10,25,39,34,-45,-30,-34,-65,5,-24,13,60,-30,31,37,23,-27,-5,-25,-59,-2,-6,1,62,-21,41,20,-17,-7,33,15,-65,-57,22,3,127,7,50,-8,17,-122,60,12,107,-15,21,13,24,-41,11,25,2,-122,-95,-18,24,-14,12,33,69,-15,14,15,-7,-96,17,29,16,-13,-5,14,95,4,-26,-20,52,-116,20,45,17,-7,8,3,95,15,18,26,28,-52,41,18,8,5,-9,-13,50,50,23,4,64,-45,-17,8,21,-6,-19,14,67,5,28,-13,29,-47,-12,-18,19,-18,-15,11,42,41,54,-13,33,-46,96,-29,6,-40,-12,-10,74,79,6,-66,49,-51,93,36,6,-32,38,18,35,64,66,29,38,-67,-102,-123,40,-27,29,33,44,2,27,51,110,-9,-72,-56,36,-15,30,102,82,-9,9,69,65,-12,-82,-42,-14,22,4,95,19,-4,-32,42,115,21,-32,-47,-29,3,-17,45,-1,22,48,3,117,-18,-58,-37,1,-19,-11,-37,27,1,70,-21,35,-46,-35,-79,10,-49,-18,-22,35,57,95,-48,19,-74,54,18,50,-44,-56,-82,23,4,127,8,9,-78,16,-30,56,-46,-56,-59,73,-39,104,21,-36,-107,12,-51,-19,-81,5,33,14,48,-9,-84,24,-98,-8,11,71,-65,1,51,8,31,-16,-83,0,-101,-25,11,89,-50,9,55,9,18,-30,-59,-6,-81,-30,14,111,-42,4,44,-1,34,-22,-39,-4,-77,-20,7,100,-20,-21,21,3,30,-4,-29,-11,-73,-2,-8,90,-17,-28,29,9,24,3,-12,-12,10,-14,-38,103,-16,-20,25,15,42,20,-33,-3,7,6,-43,71,-25,-20,18,12,36,19,-61,8,-2,12,-44,110,-62,-15,13,15,10,29,-76,-25,-17,1,-20,127,23,17,54,72,-68,85,-44,-60,-116,-120,48,46,-56,10,72,106,-70,101,-17,-9,-114,-73,-6,16,-32,-27,25,37,-59,30,-3,16,-74,-54,6,41,-36,-18,12,12,1,15,-94,-8,-21,-7,58,23,17,20,8,4,81,-24,-83,-1,-30,-47,13,-16,-8,48,-17,4,90,-32,-14,4,-56,-55,-63,10,-20,28,-22,-32,36,-23,39,-12,-123,7,-51,6,25,-24,-40,-60,5,19,111,-56,-77,23,-60,31,73,-61,-52,-65,-45,23,126,-127,-45,34,4,96,-19,-12,-46,-34,55,53,-29,65,26,-58,61,-35,-71,-17,-56,-14,117,54,22,100,16,4,-44,-61,-35,-49,-42,0,91,13,50,48,-12,93,-26,-45,-51,1,-7,35,-12,-8,-22,26,-55,127,-48,-31,-4,41,30,8,-53,48,-90,13,-55,95,-2,-10,-3,43,44,30,-83,113,-58,15,16,-22,71,-26,36,36,75,67,-84,81,-38,-23,-45,-94,25,-72,13,-4,30,54,-64,50,7,-27,-8,-113,24,-22,8,-64,31,-11,-31,50,0,-23,17,-104,14,89,-49,30,11,17,34,4,30,40,-40,-29,-55,18,-37,45,-14,83,-6,-4,-7,37,-73,-29,-2,65,-50,58,-41,91,-32,-17,-44,29,-61,-36,24,71,-30,59,-42,86,-8,-8,-86,7,-67,-17,31,114,-17,48,-3,127,-15,1,-107,-21,-125,40,-31,116,-3,-5,16,84,32,-4,-69,-32,-93,71,-47,59,-29,-22,16,53,64,10,-71,-27,-97,62,-67,26,-54,-22,41,34,61,35,-87,-52,-49,16,-66,50,-67,-6,62,6,51,42,-90,-37,43,25,-59,113,26,-2,47,32,-16,61,-46,76,-44,64,-32,42,2,10,18,78,1,48,-16,66,-20,11,-30,26,-9,1,18,88,-8,14,-1,76,-22,31,-24,34,2,-3,-6,31,6,36,11,46,-10,17,-33,-6,-28,10,-16,10,11,21,34,68,8,-20,-86,17,-36,16,-1,21,11,61,-4,13,-4,14,-37,-3,-18,1,0,26,40,40,-41,19,63,23,-64,-20,20,-16,-6,1,26,13,-69,-12,22,-22,-41,4,36,-13,39,-15,-14,-10,-127,-24,-39,-51,-39,-15,-32,-6,-18,34,-11,59,9,48,6,2,-15,38,-34,30,-1,26,-26,23,-20,35,16,2,-13,84,-31,3,17,30,-16,29,-5,14,17,2,17,57,-37,-21,41,40,35,26,-56,-41,3,23,-6,-17,-1,0,-35,3,63,24,-22,-8,-47,-4,-30,-33,-3,-2,0,-40,54,20,-6,10,-51,40,-38,-20,2,-10,32,-16,23,43,6,37,-45,-21,-47,9,2,-12,8,12,20,66,14,62,-49,-2,-34,-55,-4,-19,-2,49,16,59,21,49,-59,127,-10,-43,11,-11,27,90,-58,1,9,18,-15,59,50,77,17,-10,0,47,-77,-4,3,13,-57,-7,4,6,15,-4,0,23,-42,-10,8,31,-49,13,-4,-3,-6,11,17,46,-57,-15,43,0,-93,-32,27,31,-61,17,35,53,-22,-38,36,-3,-53,30,0,58,-55,36,79,-4,5,-41,67,-15,-21,-4,39,72,-34,30,127,-17,28,-13,79,7,1,-84,87,39,-18,1,111,-29,42,-8,53,28,-2,-116,57,31,-1,-30,118,-2,73,6,33,53,8,-100,-63,52,-8,-16,20,6,41,61,-92,127,30,43,60,11,-3,15,-31,48,-59,34,-49,33,-6,-10,31,-34,-35,20,-37,70,-32,16,8,6,35,-2,33,-82,-35,46,69,56,49,-16,12,21,60,-87,38,-57,-21,80,67,-30,20,-43,59,88,60,-80,-5,-42,-9,42,70,-23,-4,-31,-37,109,29,-30,63,38,-3,-54,-32,29,1,-8,-25,71,-68,4,31,11,8,-45,-79,55,74,47,-84,24,-110,113,-11,-31,27,-13,-37,27,57,81,-37,44,-80,74,-38,20,-6,-24,4,-11,16,33,18,45,68,72,68,19,-13,-16,12,-18,5,15,-2,28,93,88,62,33,-20,5,3,-27,-5,-7,-55,0,102,90,86,30,-10,-3,-5,-37,2,-3,-53,12,94,99,90,25,4,-1,-7,-35,-21,-9,-67,12,52,62,86,47,18,-7,4,-19,-30,-6,-65,33,50,16,57,43,6,-19,13,-2,-27,2,-58,46,60,67,63,29,-25,-4,15,18,-18,7,-47,25,107,97,75,20,-38,3,16,45,-23,19,2,25,127,87,43,-8,-26,0,26,127,65,23,14,40,-10,64,82,46,7,-15,14,35,36,6,4,34,-48,23,11,17,9,-39,7,-33,27,3,-12,-13,-59,29,56,34,-5,-21,-3,-18,40,59,-19,-18,-104,12,6,0,-5,18,15,21,10,93,38,16,-52,-20,19,17,-24,44,8,31,-55,13,30,59,-45,-30,45,94,-36,24,21,1,-49,27,16,63,-34,-27,-28,-10,-1,1,65,6,-41,34,-4,3,-61,6,-40,44,14,-23,105,43,-55,21,17,-17,-31,47,58,52,-65,5,29,-8,-28,-13,43,-12,23,76,1,-17,4,37,-38,-4,-70,-21,18,-38,17,85,-34,-4,12,11,-62,43,-55,27,-41,-29,18,87,-27,-23,26,-20,-26,14,-32,24,-118,19,45,79,-52,1,-9,-4,6,5,39,21,-66,89,-34,55,-11,8,-46,19,65,-11,75,13,12,125,-21,72,47,27,-35,17,93,23,10,16,-25,42,-27,30,61,30,-6,-26,4,44,-25,82,-30,15,-62,-42,59,21,-14,2,-31,92,4,127,-61,100,-20,-57,8,32,-60,6,-14,33,-2,31,-6,52,-19,26,51,75,-29,-21,15,41,6,40,-28,-1,12,37,72,56,-21,-31,8,18,6,52,-48,17,10,19,48,16,-27,-9,15,2,-19,28,-70,5,14,20,10,5,-14,16,6,-18,-1,22,-77,32,-43,16,-8,-3,2,-16,32,-17,12,15,-49,38,-58,47,-46,18,7,-11,39,9,-12,-9,6,78,-78,47,-30,31,-6,-16,2,29,-38,10,46,86,-127,61,-8,-3,-37,-34,-9,86,-29,26,24,79,-118,52,0,5,20,-44,64,35,48,40,-33,35,-89,51,0,-54,14,-15,44,47,39,22,-21,57,-86,56,46,-17,19,-28,3,31,48,51,-8,58,-40,11,19,10,17,-33,-1,18,32,62,-17,39,-13,-18,41,68,4,-20,-13,-4,24,59,-20,28,-22,-45,95,72,-2,15,-12,-15,23,65,35,17,13,-42,107,39,-6,47,-41,-36,2,84,85,70,63,-58,58,25,-8,75,-81,-66,-19,112,53,102,93,-47,66,17,1,102,-86,-58,-8,114,1,66,127,-15,30,30,-64,-12,94,80,-23,67,-59,110,-48,-18,65,30,-42,2,85,37,11,43,-3,99,-25,-10,50,61,2,-40,40,-8,36,-27,29,58,-18,-62,13,-4,1,-19,24,16,93,19,-4,93,-12,-3,8,-29,-71,44,2,40,119,22,47,78,-1,45,-12,19,-75,47,-11,34,103,3,-14,14,26,56,-68,71,-5,-10,-49,32,67,106,-38,-27,-40,32,-59,116,3,-34,-22,57,38,103,-45,-23,-84,20,-69,90,-32,-22,13,89,-15,59,-26,-33,-76,127,-25,74,8,-13,-37,42,54,79,-23,96,10,88,-72,66,17,-5,-22,17,37,90,-10,75,-3,121,-87,24,16,6,-24,12,42,70,0,77,-50,107,-64,8,5,16,-11,36,39,24,-24,81,-22,63,-79,-4,0,18,10,0,18,45,-14,80,-11,15,-75,-22,1,6,9,-26,19,67,27,43,-21,6,-55,23,9,-9,15,-28,5,49,12,24,-12,44,-21,36,7,-19,15,-20,-4,58,-22,70,12,86,-1,79,-9,-23,21,-8,-7,63,-27,127,9,85,14,78,-37,53,66,-9,5,23,-25,109,-9,20,68,-10,-35,41,102,-32,-30,16,1,51,-33,21,17,32,-26,42,47,-3,-15,-5,-4,89,-4,21,-40,28,-73,17,17,60,-23,-5,-27,110,38,-4,-47,-8,-52,5,-23,82,30,-22,-38,84,3,6,-58,-30,-1,8,-15,91,127,-17,-62,23,-54,-24,-6,23,7,25,24,47,121,-15,22,-17,-59,-70,-4,53,-7,26,59,16,121,-31,18,-17,-55,-50,31,55,-9,28,62,29,104,-49,34,69,2,-50,69,101,-49,-12,-1,79,59,82,53,36,-81,83,-52,80,-15,-6,-27,33,100,23,57,28,-88,100,-66,83,-22,11,-24,16,126,40,110,34,-74,12,-109,46,-17,8,2,-3,127,55,63,14,-66,-32,-77,-3,-14,11,24,-6,110,57,52,71,-62,-30,-23,5,-37,29,23,41,86,92,15,64,-107,-29,-24,-15,-62,43,-13,66,47,119,-1,63,-92,2,-34,4,-61,28,-22,37,37,63,-22,11,-99,35,-7,13,-70,23,28,79,20,52,-16,-6,-61,1,-7,-1,-22,-42,42,-9,-38,53,-90,19,-5,127,32,-12,-8,-68,-9,31,-27,81,-26,21,3,55,4,-60,-32,-25,-56,5,-9,83,-35,-14,13,62,-36,-12,-30,-9,-39,5,-34,25,-16,-7,42,71,-54,32,-14,10,-6,2,6,-17,-26,28,-60,67,-9,29,-14,61,65,0,51,-26,-48,16,-75,49,50,41,-16,63,117,-17,52,-16,0,9,-76,54,111,21,11,20,65,-32,-2,8,12,33,-110,34,80,16,14,12,-28,-9,-22,20,-16,122,-48,45,8,49,-12,-18,-31,66,61,107,2,37,35,-2,-48,21,-9,-16,-39,50,119,115,-4,36,20,-19,-33,55,-15,-4,-38,-9,62,112,-25,-3,-15,0,-6,37,-53,16,-39,-37,9,127,-38,37,-62,30,-4,41,-56,19,-27,-11,-14,101,-65,43,-89,46,-6,26,-33,2,-5,2,-8,69,-76,34,-34,40,-12,28,3,2,12,8,-14,62,-81,48,-17,28,-17,-27,23,0,0,16,-12,19,-60,78,-24,-12,14,-32,42,3,-18,-1,-35,7,10,51,-25,-27,30,-24,13,30,-21,19,33,56,-4,62,-62,67,-83,127,-10,14,2,-9,68,65,-12,46,-31,35,-79,125,-30,3,36,-27,101,12,-58,33,-38,-35,-83,64,-26,-9,25,-10,77,-5,-50,7,-25,-22,-91,13,-12,0,27,17,81,24,-52,-4,-4,-36,-99,43,-7,6,13,-1,42,36,-10,7,19,-23,-69,15,8,41,24,10,8,16,28,62,4,24,-79,2,10,48,-18,12,38,-2,32,64,-20,65,-67,44,0,15,-55,24,54,25,48,50,-42,34,-101,90,-42,-7,67,2,76,22,-1,-47,-21,-15,-1,-79,-32,20,37,27,61,42,-47,2,33,-42,44,-63,-22,40,14,47,49,45,-61,8,13,-49,76,-38,-5,21,-5,38,52,51,7,-10,33,-12,29,-62,2,6,-3,71,52,44,56,-56,15,-34,-4,-40,2,8,-23,62,70,41,77,-59,48,-47,-1,-25,-9,-1,-33,29,84,63,58,-12,38,-54,-12,-40,-37,-7,-16,25,88,53,98,0,-19,-20,1,-32,-33,-36,-7,4,95,62,90,-11,-127,-7,-4,-64,-35,9,-31,63,24,-2,-59,50,-31,46,-11,32,-10,33,27,47,40,4,-84,22,-56,57,1,0,-4,6,21,19,24,-11,-105,42,-20,8,-25,-4,10,-9,45,42,29,2,-127,62,44,-37,21,2,-3,-2,38,28,48,-2,-101,83,59,-1,15,-6,-46,-6,69,35,75,20,-61,81,41,31,8,-22,-53,-10,78,44,36,16,-14,62,2,68,-11,19,-10,-23,86,-1,29,32,-28,-24,-15,119,-15,38,7,-51,72,31,85,66,12,57,-11,102,-21,55,31,-80,-14,-7,73,25,52,17,25,-86,19,-35,-4,-24,-20,3,49,23,37,-8,31,-59,8,-5,-19,14,45,13,-9,24,-39,-19,31,9,64,-2,-36,6,34,32,10,52,-49,-15,55,26,34,21,-12,25,46,48,-32,-8,-70,-10,-13,5,122,23,28,35,41,50,-47,-5,-83,-16,-54,-21,109,-14,-5,11,21,13,-44,19,5,45,-127,-44,-13,-38,-31,-19,-13,-50,-29,48,50,43,-101,-37,-68,-49,-46,-24,-4,-53,17,64,73,120,-36,-39,-54,-48,-12,10,-13,16,20,11,-8,-27,-8,95,18,127,19,-2,-6,5,-3,27,-8,63,-30,69,-18,45,11,-21,-24,50,-22,40,34,89,-35,15,-10,20,-18,-32,-27,39,-25,37,10,44,-14,52,3,15,-29,-32,-3,26,6,18,9,42,7,76,-32,-9,-13,-23,28,-3,59,32,-25,90,-32,29,51,-38,-4,-4,32,-65,45,41,-17,87,-64,-7,69,-29,-8,34,98,-68,57,46,22,25,-10,-25,60,-32,-4,55,94,-65,89,53,82,114,41,-51,35,-39,12,-14,-32,51,-19,84,-43,-19,-12,127,54,44,2,0,-26,17,-1,55,-50,-40,3,85,23,49,-23,19,-27,-14,33,32,-44,-28,-6,24,7,25,-28,-2,-25,-19,42,38,-5,4,-23,16,12,6,-20,-12,-32,-5,30,49,30,-3,3,48,22,9,-6,-9,-31,-5,4,50,22,21,17,71,25,42,-8,0,-8,7,0,64,11,23,23,99,16,50,-2,-11,7,23,7,80,29,28,50,97,17,48,-23,-19,-21,40,-2,102,37,36,50,76,30,54,-7,-5,56,-5,96,56,-40,0,-47,-24,121,-75,-13,21,40,26,92,40,-12,53,11,10,85,-60,-15,29,32,34,62,34,-16,69,6,19,106,-54,-20,6,37,0,36,7,23,39,17,21,77,-57,-1,-10,25,-3,32,-1,63,3,7,-17,105,-49,7,-18,34,-8,39,19,60,2,22,-47,78,-41,-2,-27,45,-12,53,13,78,37,18,-33,96,-34,-11,-18,18,-18,66,32,127,47,4,-31,104,-32,-11,-53,71,-25,83,53,110,-6,-14,-13,86,-70,-22,18,-35,57,-29,44,-70,-12,-19,-3,-10,-5,-5,28,-16,30,-48,40,-33,-41,12,-7,-45,-20,-8,15,9,30,-38,26,3,-55,-28,15,-40,-13,-8,2,52,18,-25,31,32,-19,-39,42,-38,-6,-12,10,35,37,9,36,28,-11,-1,55,-60,-3,-5,15,7,54,12,30,13,-5,3,33,-64,18,-12,12,-38,39,2,12,-12,13,-46,21,-17,3,-10,9,-43,35,58,26,7,13,-83,7,-12,-21,-6,-2,-11,14,127,40,-12,-4,-88,-1,14,-20,-70,11,-33,77,42,0,-35,22,-127,-4,7,8,-25,5,-33,76,6,-5,-43,17,-90,-17,14,-7,-13,5,-16,36,-29,-6,-33,8,-96,-16,25,39,-3,16,5,27,-15,14,-18,23,-108,15,12,48,-18,-15,-2,37,5,48,-1,-1,-109,31,-16,15,-14,-6,-7,40,53,40,28,8,-54,37,-25,-5,-14,-20,-21,40,54,35,-2,23,-64,51,-11,2,1,-15,-16,52,36,27,-42,71,-32,62,15,28,-28,-12,5,48,42,38,-47,41,-39,111,55,119,-31,16,31,54,47,67,-54,0,11,72,-127,-66,-5,-5,-8,68,51,49,-18,1,34,71,-68,-37,-3,3,8,65,43,49,-18,52,26,-2,-34,-19,-1,3,9,42,45,48,18,86,10,46,-4,46,-10,-20,-9,14,55,43,-29,76,16,97,17,49,-7,-2,-16,-17,28,63,-29,67,-43,78,-2,49,-13,9,-21,-16,42,67,-53,60,-17,114,-22,19,-21,12,-42,-9,50,78,8,75,0,109,-3,45,-34,10,-57,12,59,99,-1,92,-39,96,-5,43,-23,1,47,-19,-7,-25,-1,20,9,-24,-113,9,-17,-22,36,-18,2,8,3,26,38,-13,-81,39,-8,-24,43,-12,18,18,-30,35,-27,19,-19,21,-1,-2,-1,-6,23,10,-51,61,-33,46,-9,11,-8,42,-37,31,3,79,-67,7,-46,127,-15,3,-6,48,-45,50,22,91,-35,23,-59,77,-19,8,0,3,-31,34,28,75,-17,-3,-91,29,-9,3,-18,-21,-21,29,14,72,-30,0,-64,12,0,54,-42,-7,4,25,29,45,-7,-3,-96,18,-5,58,-13,10,6,32,29,46,6,28,-15,127,38,84,-30,11,4,39,45,11,12,-16,-11,82,34,-15,-26,12,15,59,15,-29,-24,2,-14,66,28,-52,-22,-2,40,50,22,-5,21,64,-6,7,9,-45,-17,-21,60,33,21,42,4,45,-3,6,25,8,-5,-20,35,1,-28,29,7,-10,-43,4,65,63,-16,0,1,-2,-16,24,31,-41,-100,-41,25,37,-24,23,-16,7,-11,46,44,-22,-98,-63,10,35,-32,36,8,51,-36,69,54,16,-78,-81,19,76,-15,-35,47,20,38,40,-32,71,-23,-40,34,104,-2,-37,3,-4,18,98,-35,27,-53,-39,49,66,3,4,-40,20,0,52,16,-29,-65,-31,-6,28,0,45,-39,38,-10,4,36,-33,-75,15,-20,48,16,57,-49,24,40,-37,19,19,-93,38,-39,56,4,19,-30,-15,73,21,-7,45,-40,5,2,41,-21,-24,40,-33,55,68,-65,7,-20,-53,47,63,-10,-65,77,-14,30,114,-77,7,-12,-44,58,50,-12,-34,44,-10,9,84,-127,-6,-28,10,13,14,-91,-8,-36,47,41,61,-20,55,-20,-23,36,9,-46,-49,-32,45,24,35,19,40,-8,9,-23,7,-14,-67,16,25,20,17,39,-28,-50,27,-28,46,0,-19,35,16,1,74,-14,-70,-56,33,-37,5,2,40,16,-19,-32,127,-70,-80,-59,-8,-45,-12,-30,71,3,-19,-60,101,-85,-6,19,-60,-52,-1,8,66,30,-8,-63,87,-84,11,15,-33,-29,-16,-4,3,58,18,-78,43,-83,43,41,-55,-36,44,24,-102,17,5,-67,79,-65,43,57,-70,-23,23,-20,3,34,-8,14,9,26,127,-55,64,2,28,4,3,18,8,-2,13,11,77,-47,84,15,73,-9,1,-6,31,-10,32,-10,47,-21,69,-19,74,-25,14,1,18,-3,46,-12,6,-10,32,-28,64,-12,11,4,-16,-7,30,26,-9,-18,58,-33,51,-1,23,39,-3,-6,52,-20,-20,2,53,-40,53,7,26,15,19,-31,43,-31,-37,0,-22,-42,18,-9,24,4,36,-23,20,-37,-14,26,-22,15,-6,-33,27,4,28,-27,13,-13,-15,12,-27,18,-11,-53,6,-5,24,31,42,-34,78,-96,107,-4,26,-15,21,20,49,15,33,-9,49,-85,73,-25,24,-20,30,11,56,19,23,9,69,-75,73,-44,15,-23,29,9,59,-1,20,-18,49,-68,75,-27,15,-17,6,10,47,13,20,-11,46,-78,61,-7,-7,-29,-10,3,48,17,34,-9,59,-43,50,7,-8,-22,-3,6,43,25,34,-29,45,-48,-17,-37,-10,-22,-2,17,43,8,34,-17,77,-71,4,-8,-1,-46,-1,31,72,52,70,-53,77,-127,62,-30,19,-25,-12,-48,45,29,-34,3,127,58,-38,-78,-62,-11,-18,-29,49,10,-29,-27,119,37,-32,-88,-47,-31,-23,-8,44,14,-20,-42,105,29,-49,-83,-22,-26,-15,1,35,16,-12,-35,67,2,-33,-88,-22,-7,-13,-8,17,30,13,11,61,-24,-9,-87,-8,1,-4,-11,20,54,25,2,87,-37,29,-99,9,5,13,14,29,51,27,-10,52,-41,44,-85,28,-9,12,27,16,37,48,-53,57,-43,71,-96,41,-17,-1,35,-20,43,56,-67,61,-24,110,-100,31,-1,31,26,72,-9,5,-46,-3,10,127,-27,4,-1,25,0,20,9,-6,-33,6,22,113,-30,-9,0,4,-1,3,28,-20,-43,7,-7,81,-53,-16,6,2,9,17,26,-12,-48,1,-24,52,-25,-8,1,-2,14,30,20,-2,-32,2,-24,63,-37,-19,-1,-9,-1,14,25,-9,5,-9,-25,84,-40,-20,-8,-11,15,11,36,-4,7,-17,-22,88,-33,-10,-5,-3,14,14,17,11,-13,-22,-30,86,-14,-4,-3,26,9,19,-9,-11,-69,-28,-33,91,-10,-15,40,65,36,71,-92,103,-119,-27,-12,8,83,85,33,26,35,62,-29,79,-83,2,-13,-11,53,53,33,-2,19,30,-13,58,-32,-15,10,-10,62,22,26,11,-3,49,-12,22,-55,3,15,-14,4,5,34,12,-14,50,-26,31,-47,-12,30,-44,8,25,17,14,-16,25,-28,46,-9,-16,-4,-27,29,55,5,4,-22,32,-26,61,-3,-31,-42,-24,42,44,28,33,13,31,-56,53,-28,-26,-65,-28,87,63,35,58,30,29,-102,43,-82,-43,-88,-19,127,73,1,-6,-25,39,27,80,6,-24,24,127,67,54,-5,-2,-23,2,40,55,-18,-33,41,88,30,57,-22,2,-22,-15,62,43,-28,-21,57,56,25,34,-29,-13,-36,-21,52,37,-11,4,41,82,28,29,-27,-7,-25,-9,16,40,-15,5,37,104,29,25,-8,-7,-16,-10,-6,33,-23,23,17,95,31,34,2,-1,-4,-10,-5,49,-36,44,6,99,25,4,-3,-5,-3,-2,-9,68,-28,43,9,92,15,-4,-1,5,-22,11,-12,100,17,23,0,69,22,15,-2,16,-19,7,-11,-21,2,-16,-30,75,51,-40,-3,15,-42,-10,-26,17,17,-48,-51,88,-6,-12,-9,-14,-25,1,0,46,-16,-37,-85,21,-41,6,-21,-42,-23,-2,2,44,-12,-51,-68,-8,-58,10,-27,-45,-17,-18,34,23,1,-18,-41,-14,-93,-3,0,54,18,-26,-17,-33,-45,57,-11,-29,11,-10,-17,50,46,43,17,-10,-45,127,-6,-17,56,-1,3,-3,-2,67,60,24,-3,66,2,-38,51,-4,7,-2,-6,35,69,37,21,-19,58,-14,42,-4,-26,2,-11,13,-13,48,-69,12,-4,-43,44,31,-6,9,-21,12,-47,13,-5,-27,-22,12,1,-61,-6,14,25,17,11,38,-23,8,-37,-15,-72,-10,9,60,36,-1,-17,30,-24,72,8,-57,-34,36,-28,57,-6,-7,-63,52,17,84,63,-38,-58,14,-40,-78,3,80,-19,52,-56,58,-30,-26,27,17,-2,-70,-64,70,44,20,-127,-22,-99,32,4,-23,12,-7,-19,4,96,67,-74,-47,-100,31,-6,1,15,18,49,-9,60,25,2,-33,-71,-84,-32,44,-11,-11,-4,4,45,27,-63,77,-114,71,-47,-24,-2,22,-44,80,-9,20,-89,52,-127,19,-21,9,-26,42,-62,100,-30,31,-111,26,-28,33,-19,43,-24,43,-38,57,-38,57,-65,-63,48,-23,-22,98,13,28,22,34,-26,44,3,-69,49,-55,-25,107,28,5,61,24,6,38,38,-69,-19,9,-53,85,10,19,78,17,5,23,78,-36,-51,31,-19,56,8,14,84,-4,14,17,59,-12,-14,16,-40,34,-9,11,45,15,26,31,25,2,-35,-1,-25,31,-13,-14,75,3,-15,9,-52,81,-28,47,41,-25,-4,-14,44,23,-7,25,-46,37,-52,85,83,-47,-3,-10,34,42,57,51,-59,24,-23,34,65,-69,2,17,24,66,71,47,-70,78,3,41,48,-43,4,23,16,15,43,43,-97,90,14,94,29,0,-13,25,31,-10,-25,63,-82,29,6,119,33,-8,-10,10,-33,-40,-70,41,-52,44,-1,89,24,-57,-7,-27,-75,-42,-45,66,-89,6,-45,111,0,-64,-15,-13,-86,-26,-8,53,-127,14,-33,104,-13,-42,-88,-48,58,-45,59,35,-37,-29,54,1,-12,-35,-59,-46,20,3,3,43,-51,-62,47,71,56,3,-39,-46,11,34,12,83,-40,-44,45,127,100,21,-40,-13,-6,56,15,103,-3,-37,-13,104,56,58,-59,11,-33,57,21,40,10,-19,-7,93,7,95,-72,23,-37,7,-2,3,56,-34,-4,101,-32,83,-30,1,-34,-9,-36,2,109,-14,-77,58,-49,58,-20,-11,-29,9,-32,23,96,18,-100,13,-33,44,14,-54,-21,10,-38,28,45,51,-70,-46,-49,40,-50,49,46,19,-47,56,8,55,-45,-13,-88,127,-52,25,41,37,33,69,23,55,-43,23,-27,77,-31,17,37,18,12,48,21,57,-85,-8,-48,36,-7,-11,5,-11,0,38,55,-28,-35,-11,-78,6,-30,-51,12,10,-20,74,59,-41,11,50,-86,23,-34,-67,37,50,-48,59,71,15,92,106,-6,30,-36,-45,44,50,4,14,48,83,106,108,125,0,-29,-6,23,38,-3,-9,36,68,3,-8,39,-43,-38,45,15,22,-16,40,29,73,-36,-25,-34,-83,6,-16,0,26,18,38,-16,81,-25,10,-8,90,-1,-6,-17,-7,-34,38,-29,25,-32,-15,-32,42,4,4,-7,7,-26,41,-2,-6,-39,37,-25,0,-1,20,3,13,-33,16,-2,-31,-50,28,-65,16,2,53,-36,15,0,-9,10,-17,-71,5,-54,19,-4,28,-39,15,30,5,-5,32,-13,-17,-7,28,-25,-21,3,15,3,26,-50,7,16,-60,29,38,-21,-66,34,34,1,29,-95,-1,27,-50,57,61,-22,-61,39,30,-10,47,-127,-18,-2,-18,16,59,-17,-38,46,113,61,34,68,-32,-33,22,22,45,-33,-24,87,87,51,14,51,-7,24,10,-43,-4,-50,-31,80,70,54,18,50,-29,40,-11,-51,-11,-51,-21,37,49,65,14,8,0,43,11,-36,28,-45,9,4,8,75,60,0,15,-4,-3,15,52,-54,-2,15,35,74,91,-30,30,-38,36,-14,70,-39,-6,-4,55,41,86,-55,37,-54,62,-2,127,-53,-14,13,70,18,69,-81,32,-73,61,25,117,-67,0,28,62,0,68,-80,23,-69,43,25,112,-64,1,-30,56,50,-11,-17,28,-120,43,49,10,-31,24,-33,41,11,-29,-36,-28,-122,31,29,-12,-46,42,-28,49,-4,-3,-20,-39,-102,22,0,-27,-46,28,-19,51,-29,45,-49,-47,-109,-21,-39,-42,-22,19,-15,61,-24,72,-53,-20,-127,-24,-70,-44,-30,21,1,81,-14,115,-36,32,-90,-22,-72,-41,-28,24,7,77,-43,125,5,17,-84,3,-60,-10,2,39,-6,69,-66,70,-23,20,-86,0,-36,-31,1,58,1,59,-58,49,-19,-37,-79,6,-49,-42,29,-2,-30,97,31,23,-65,-8,14,2,29,32,11,8,-39,110,32,28,-63,8,17,-7,30,-22,-12,-4,-20,123,47,25,-61,1,22,-14,38,-40,-29,3,-4,127,37,21,-66,-10,41,20,-17,-75,-36,22,23,108,4,36,-60,3,23,13,-51,-61,-22,17,43,73,-15,44,-40,29,23,-21,-28,-60,-36,3,25,69,-15,12,-24,52,37,-66,0,-23,-53,5,12,84,9,-27,6,60,19,-96,13,3,-38,23,-14,65,-10,-48,18,30,-7,-79,41,39,-49,-48,80,80,-19,102,40,85,-25,-54,-26,-67,-7,-48,39,53,-91,104,98,125,-30,-6,32,-59,13,-42,-9,58,-74,97,110,111,15,3,17,-39,26,-7,-27,88,-99,101,92,78,61,-12,44,-67,2,4,-29,95,-59,66,20,49,3,-44,105,-70,-29,17,-16,100,-4,73,-69,63,0,3,66,-34,-43,16,6,94,22,127,-108,34,3,-18,9,25,-42,22,37,47,30,109,-64,35,-38,-39,-41,18,-19,34,42,-19,-21,73,95,11,-14,28,-64,43,-22,20,34,112,-11,35,-38,6,-32,42,-26,11,-32,23,-13,46,17,26,12,-7,-34,38,9,-1,4,21,-5,3,29,4,-45,0,-41,8,-43,11,8,19,8,-22,57,4,-106,51,10,75,-23,20,5,20,12,-23,47,4,-127,19,41,67,-93,14,0,5,21,-23,40,-8,-47,12,44,69,-102,18,6,-14,35,-13,49,13,-36,19,48,45,-109,29,19,-16,37,3,14,32,-32,-3,43,26,-76,-2,20,11,12,33,-27,30,-115,-59,23,-9,-66,-10,-25,0,-10,10,10,32,-17,31,11,127,44,35,-10,5,-16,-4,26,-3,5,25,3,51,11,13,0,27,-12,-16,17,7,13,19,3,30,-8,-6,4,34,-5,-9,25,27,33,35,8,55,2,-16,1,12,-14,-7,34,67,21,1,-21,23,-12,-21,-2,-7,-28,-2,18,71,18,0,-13,6,-13,-22,-9,-5,-25,-1,29,82,31,15,-13,36,4,-5,-23,-11,-24,9,18,80,52,-9,-23,19,-12,19,-22,-29,-45,19,28,82,68,-6,-31,22,-31,12,-56,11,-14,120,-39,-10,-62,127,-120,126,20,-36,-39,18,16,86,-25,43,-43,74,-95,81,7,18,-28,22,