#include "spk_conv_model_params.h"

const int8_t spk_conv_weights[55296] = {56,-26,37,25,-11,-1,-53,101,-85,-58,-81,20,34,12,37,23,-6,31,-73,101,-28,-36,-84,9,15,30,50,42,-6,32,-32,11,39,60,-73,-13,-11,15,6,40,47,25,18,-36,16,127,-11,22,-37,-4,-23,-12,64,69,54,20,51,102,17,90,-47,5,-40,15,11,75,6,73,15,43,-4,118,-30,21,10,10,10,27,-69,70,-14,32,-11,31,14,-14,14,39,-7,41,-96,87,31,-19,11,-13,30,-39,19,55,-4,60,-76,111,26,-6,42,-10,-34,16,-35,26,-12,42,-57,106,7,52,-18,26,4,12,-32,48,-38,69,-40,45,-28,32,-38,33,0,-7,-15,67,-41,96,-33,32,-13,25,-44,25,-17,-16,19,74,-19,127,-15,75,-17,30,-70,-2,-6,-3,37,74,20,109,5,68,0,78,-27,-5,-25,2,34,97,30,109,-29,27,-10,43,-11,30,7,1,-28,69,-3,78,-64,11,-51,30,11,33,17,-3,-57,60,30,38,-90,25,-78,96,6,45,13,-17,-34,31,37,32,-101,41,-93,105,-23,42,12,23,39,86,-7,92,-60,-30,-72,83,-52,118,-3,14,23,98,32,79,25,26,-38,28,17,99,-1,22,6,13,-6,12,13,74,-59,-22,17,47,1,21,-36,-30,-15,-36,-28,77,-11,18,4,-29,-22,21,-19,-16,63,-25,-24,32,6,33,-112,-43,-68,3,-1,-23,86,9,40,40,45,50,-127,-5,-42,6,42,-11,51,-9,9,31,59,84,-120,10,26,-24,40,-5,6,-18,-80,3,-51,11,-104,0,48,-18,23,-6,-10,-14,-101,-14,-89,-20,-99,50,8,-1,-69,28,-3,31,-33,61,7,-11,7,-13,-5,46,-27,-9,1,33,-48,62,-65,-80,-39,-18,-39,64,63,-26,2,52,-54,54,-2,-58,-8,-11,-81,22,79,24,-62,54,-41,67,-11,-49,6,26,-52,-94,5,127,32,38,-44,54,-67,53,0,-13,3,-36,-40,78,93,44,-61,-3,-108,87,4,1,13,25,-12,21,96,53,32,-21,-98,-1,12,17,8,31,31,25,73,50,27,-34,-58,-55,-6,67,7,9,56,40,56,3,-3,-26,-93,-46,4,60,-31,22,35,25,35,43,-22,78,-69,19,24,54,1,27,60,22,8,8,-22,76,-97,30,-31,60,14,29,57,16,-6,-15,-26,56,-127,76,-40,46,-21,-3,43,-1,37,6,-33,62,-95,77,-43,73,-46,-14,17,13,52,2,-42,82,-121,86,-70,97,-37,-15,7,10,62,4,-53,100,-123,74,-57,78,-28,6,24,28,69,9,-11,110,-77,64,-41,56,-52,0,18,53,68,9,31,82,-50,66,-53,68,-54,-9,33,80,52,13,-10,40,-6,33,-24,63,18,44,19,7,-12,111,29,108,68,13,-94,56,26,80,-6,-14,-36,127,42,70,12,-61,-88,38,13,77,-13,-8,0,92,55,50,-51,-56,-59,27,0,-16,22,-4,8,43,12,-2,-86,-21,-14,-14,-2,-43,19,-3,13,-2,-4,14,-41,26,2,-44,-2,-52,-4,15,50,-6,-17,5,-78,38,59,-28,3,-23,-34,4,28,-31,-47,-28,-50,48,10,-48,-6,-47,-5,49,29,-56,-41,-53,-50,83,-21,-52,-33,-56,44,73,54,-36,-63,-55,-39,84,17,-57,-32,-15,62,18,22,56,9,68,0,38,-7,66,-1,-18,-1,7,-14,50,31,33,16,52,-33,32,-4,11,21,2,33,62,54,-20,-3,81,-39,30,6,36,67,-8,8,15,38,32,28,-5,-79,34,10,127,50,-49,-42,-7,50,67,51,-16,-70,9,-9,53,-13,-51,-28,15,28,91,2,-29,4,25,-14,-91,-69,4,13,-8,-51,-7,-65,25,35,8,-7,-95,-16,35,82,-33,-79,-15,-82,42,26,-66,4,-51,33,32,94,-73,-55,-2,-39,27,26,7,-7,-28,48,53,96,9,-89,27,-60,51,-13,28,-1,-16,24,39,22,17,-92,34,-59,30,21,48,2,31,-26,44,-11,20,-127,15,-48,10,-2,65,-6,51,-43,70,-34,7,-117,-23,-27,-41,-47,84,1,49,-24,78,-27,-17,-93,-67,-31,-45,-75,65,6,25,45,58,13,0,-51,-76,-54,-45,-74,63,4,27,60,47,8,10,41,-67,-62,-25,-99,38,0,18,82,45,-23,1,63,-40,-48,-11,-78,36,-1,21,45,64,-45,24,87,20,-24,-20,-92,12,46,27,69,-18,-83,37,26,-69,-18,-81,127,40,-3,15,92,0,-59,81,34,-39,-7,-60,96,49,-33,-2,66,-4,-62,97,16,-58,-9,-46,88,40,-36,0,60,-16,-49,87,-5,-61,14,-36,73,26,-4,14,58,-9,-41,43,-14,-68,-1,-38,79,31,-30,8,27,0,-7,19,-33,-77,13,-33,27,43,-22,5,14,-18,-5,11,7,-70,-30,-8,-3,50,-27,-3,1,-35,-13,21,34,-78,-38,27,-7,82,-44,-1,-3,-23,-30,22,29,-95,-91,21,25,120,-48,-4,52,-41,98,19,-9,-67,-46,-15,41,-89,-39,36,53,8,76,30,-42,-5,1,-32,91,-82,-33,51,38,48,56,46,-44,22,-2,-68,112,-51,-18,30,11,49,51,49,23,7,17,-33,61,-55,-10,4,-13,53,65,46,52,-55,31,-55,12,-31,-3,6,-29,61,91,53,70,-62,61,-63,-27,-26,-8,9,-37,54,117,59,57,-6,60,-56,-15,-54,-41,-5,-38,38,112,58,89,1,-7,-25,19,-48,-49,-15,-29,27,113,60,82,-19,-127,-2,7,-72,-4,-10,-5,108,51,-10,-40,75,-8,-2,-95,-43,-1,-12,-8,87,60,-22,-72,61,-4,14,-120,-3,-8,-6,-31,38,69,-7,-63,99,9,27,-124,-3,-14,7,-30,-2,67,9,-35,84,-7,21,-127,0,-8,0,-20,-19,44,20,9,70,-40,-6,-114,3,-3,-7,-12,0,26,40,42,109,-58,-17,-126,10,-11,-20,-9,44,29,63,24,109,-51,-20,-122,46,-5,-16,13,44,8,57,-4,99,-62,-11,-104,67,-18,12,50,34,-3,49,-54,48,-70,9,-96,33,-58,-31,21,-1,-1,113,-21,57,-2,-48,-38,23,-55,-10,25,-11,-10,120,-40,49,19,-3,-60,-1,-44,-18,18,-13,-16,127,-80,34,-37,11,-101,-13,-31,-24,-7,4,-26,104,-62,48,-47,3,-63,-65,-13,-36,-13,15,-18,70,-79,32,-73,-6,-17,-83,13,-25,-1,10,-22,60,-83,17,-10,-10,-19,-88,-9,-19,22,-10,-32,85,-44,44,29,-7,-27,-76,-17,-13,48,-29,-47,105,-47,42,76,-18,-9,-62,10,-28,80,-33,-49,96,-43,31,82,-49,26,-60,-14,-7,-14,4,-7,127,-67,-9,-47,-52,1,86,10,-8,-2,1,4,115,-53,-38,-65,-32,12,63,23,4,23,0,41,87,-58,-44,-71,-32,-36,50,26,17,51,2,29,97,-58,-41,-54,-28,-38,45,10,10,40,2,24,88,-56,-37,-28,-46,-45,47,-16,-5,63,31,10,82,-71,-49,-41,-36,-6,35,-29,-18,29,33,-23,107,-92,-38,-21,-45,25,41,-6,-35,-4,39,21,123,-94,-28,-51,-31,23,54,7,-25,-8,30,59,88,-93,-25,-62,-20,4,35,-7,73,45,39,-75,-16,56,118,-51,34,-119,80,-37,45,91,83,-21,11,92,127,21,53,-74,68,-17,14,41,60,0,-5,68,88,-1,21,-55,50,3,4,-7,55,6,2,33,83,-60,19,-49,25,10,25,-40,43,-7,32,17,79,-74,-14,-66,42,20,34,-19,37,-5,40,46,62,-49,18,-58,33,3,41,24,31,-5,51,62,51,-52,50,-56,25,-2,23,28,32,-11,58,54,42,-65,39,-51,49,-4,-18,10,83,-40,61,53,80,-84,4,-67,43,22,6,27,21,40,34,-37,29,-88,38,27,127,-25,-3,117,24,5,75,-4,-15,-36,47,25,79,-70,-37,126,64,-31,73,5,-17,26,76,-1,-3,-41,-67,36,108,14,31,-39,-7,6,59,34,-12,-6,-21,-62,74,74,45,-92,31,-32,66,-15,-10,-21,3,-65,38,64,62,-70,68,-37,35,-71,33,-2,8,-10,4,-20,30,-18,38,16,4,-72,53,-9,-17,55,10,-82,-1,-13,26,31,21,-38,37,-34,16,30,41,-40,47,-7,65,4,30,3,25,6,-58,6,14,21,127,-104,32,27,16,34,35,14,-57,5,49,3,106,-106,42,-19,47,26,15,21,-42,0,30,15,76,-73,34,-51,40,2,-8,31,-28,17,25,27,29,-55,28,-49,11,-36,22,23,-6,26,13,29,5,-31,9,-25,7,3,-9,8,-15,5,19,25,-4,-5,6,-51,-35,53,-42,0,15,-33,36,-1,5,17,46,-9,-64,30,-54,-11,52,-43,23,29,24,81,87,-6,-71,1,-51,-9,83,-17,8,39,45,77,105,13,-40,-36,-5,-46,16,-21,-20,-8,39,-7,42,-84,57,-1,113,-14,31,-30,-56,-7,-14,-67,94,-116,30,-24,86,-18,41,8,-50,16,-7,-44,114,-127,57,-67,71,-18,35,36,-14,18,8,-3,73,-95,50,-76,27,-11,3,45,26,32,37,3,14,-51,-14,-79,17,9,-13,53,39,31,52,29,-15,13,-51,-70,-14,-3,-12,50,17,67,78,53,-5,41,-23,-44,-7,-8,-8,31,8,59,79,30,5,3,-19,-52,-19,-12,-3,13,11,32,60,52,29,-19,-12,-67,10,-52,14,-29,82,42,74,5,36,-102,50,-46,127,-73,26,-8,56,54,63,-31,24,-36,67,-50,100,-20,-8,31,20,45,82,-7,-9,-28,54,-54,49,1,-27,13,8,77,99,-17,-12,-67,24,-19,-6,20,-9,-19,-23,69,41,14,47,-86,6,-49,-7,-6,6,8,-1,66,46,19,62,-85,27,-69,-7,-15,2,-3,19,34,53,-8,60,-41,-14,-51,-16,-28,-1,-14,54,20,105,6,65,-41,-14,-11,-6,-38,-7,10,88,40,89,-22,50,-69,-11,4,2,-8,23,-20,24,43,-39,-23,-123,-112,75,-14,0,10,23,25,16,70,-40,-37,-107,-84,81,-8,-11,7,17,26,25,29,-16,5,-21,-70,54,-15,-21,5,18,2,49,-6,-5,51,46,-5,50,-32,38,-9,20,-53,45,-20,15,68,99,14,12,-27,16,-11,-13,-48,32,-22,82,12,89,-23,-21,-20,-4,-3,-14,-25,1,-8,112,-48,110,-7,-49,-18,-11,-17,-10,55,-49,5,98,-59,120,20,-17,0,-31,-41,-2,127,-40,-7,107,-4,73,14,18,-26,21,-7,38,17,8,31,36,-76,-20,-3,15,14,3,-9,37,-4,0,24,29,-62,-4,-4,6,31,3,-2,16,-26,0,18,30,-11,69,-2,9,32,-25,0,-6,-38,26,30,34,13,83,-16,-1,7,-25,6,-18,-29,39,24,45,40,101,-26,-6,-6,-23,4,-29,-23,97,10,45,54,127,-34,-8,24,-15,3,-37,-28,117,-34,49,43,122,-34,-26,30,-28,3,-33,-29,67,-42,45,24,98,-9,-3,3,-29,5,-27,-17,2,-21,52,-27,68,-3,11,-10,1,-71,1,84,18,-21,20,19,29,44,-53,23,-19,-6,-6,37,-6,-19,15,-9,26,17,-107,-25,-37,42,-5,42,-19,13,8,1,35,-37,-57,-42,-37,20,8,98,1,-9,55,52,68,-26,-51,-60,-24,-63,37,127,20,-5,65,54,64,-1,-35,-27,-20,-79,-3,90,51,-7,37,48,92,-40,-39,-21,-29,-52,-26,29,59,-4,15,14,36,-43,-7,-35,18,16,-27,-8,43,-4,12,3,29,-62,-10,-59,42,13,-24,-3,31,-26,-5,15,13,-46,11,-9,73,-29,15,16,-17,-60,83,15,76,-64,-74,-59,74,-26,8,-1,-1,41,89,-4,103,-58,-75,-60,43,-20,-14,-6,31,83,39,19,77,-99,-66,-53,-14,-28,3,-21,61,89,-15,16,-14,-127,-12,-120,-60,-44,-12,11,78,39,-3,19,-38,-102,-10,-86,-74,-16,1,29,47,-59,31,30,-11,-62,0,-54,-96,-4,8,90,31,-14,10,9,63,0,46,-53,-54,-14,17,100,11,63,71,16,104,40,26,-34,12,-21,25,53,16,64,117,37,105,8,3,-81,27,-5,6,-13,67,77,107,36,73,-84,124,80,56,-34,-5,-17,61,83,62,15,72,-112,120,115,21,-28,-7,-10,53,45,7,4,45,-104,28,114,11,-15,-5,18,66,21,22,71,16,-100,5,50,0,-21,-25,42,64,-15,43,87,24,-90,-42,-2,66,-17,-23,48,24,-23,7,60,23,-86,-60,42,117,-23,-11,62,-5,-17,16,41,31,-89,-42,57,120,-18,-8,84,38,21,74,16,23,-88,-62,-11,60,0,-8,106,75,19,127,50,58,-81,-63,-24,74,-42,-40,67,55,79,17,-64,69,-124,64,12,22,-28,-15,39,53,42,35,-66,113,-87,43,17,46,-13,-32,-31,46,45,62,-34,127,-32,23,-9,56,-18,-32,-7,50,2,51,-40,91,-1,3,12,64,-33,-31,-9,27,-4,23,-23,63,-14,-4,24,52,-29,-12,10,15,11,31,33,55,2,-23,-19,29,-12,7,-12,-8,11,50,37,65,10,-65,-34,-3,-7,21,-18,-9,-15,73,0,41,22,-66,-49,-20,-11,20,8,5,19,75,-48,-3,32,-8,-27,-14,-61,3,64,56,17,72,-20,121,-77,31,4,53,-16,-20,59,55,9,65,-25,62,-58,30,16,53,-5,-10,33,81,10,62,-26,55,-80,27,-7,32,-1,13,12,49,-8,46,1,49,-102,34,-17,21,4,26,11,69,8,45,-8,20,-104,54,-38,39,4,12,20,64,14,33,9,40,-117,48,-29,33,-2,12,50,40,4,60,-5,26,-109,42,-29,30,-26,11,51,39,0,70,-47,16,-95,45,-69,28,-46,-2,55,61,27,93,-77,35,-127,36,-59,27,-18,33,-2,-13,-22,21,44,-61,8,-83,-60,85,-40,7,3,42,10,18,22,-18,51,-66,-62,53,-40,16,12,64,-3,14,-4,5,47,-50,-31,34,-7,20,25,61,-4,7,-5,3,21,-4,-5,25,27,-11,14,24,-19,-13,-3,3,-46,-4,-44,44,20,-35,22,2,-25,-7,13,-31,-49,7,-80,46,-12,-46,45,-4,-21,10,16,-32,-57,88,-75,54,-23,-47,33,-2,-15,25,17,-47,-64,127,-50,72,-12,-32,47,17,-14,11,33,-43,-43,84,-46,38,-1,28,49,10,-28,63,-59,62,31,-48,-63,127,-14,20,52,67,11,83,0,87,25,-40,-14,116,-20,-7,50,48,11,52,23,96,5,-61,-1,85,-21,-21,-19,5,48,24,33,36,-15,-61,-44,42,-35,-40,-2,-21,3,48,36,-31,-10,7,-81,-10,-44,-25,12,15,-11,82,60,-39,37,68,-67,0,-46,-22,28,69,14,68,46,56,41,94,20,-17,-14,-15,49,65,21,45,61,62,15,36,19,-62,-34,47,56,49,49,86,54,42,-52,-30,-54,-95,-3,42,9,61,67,31,-114,-24,32,94,-47,28,23,25,8,67,-7,7,-96,-16,15,92,-33,-2,30,10,-13,66,-21,18,-38,42,29,69,-11,7,23,25,-7,44,-28,30,-47,27,43,54,-23,29,12,9,-2,10,-12,33,-48,32,23,89,-11,-10,-2,-28,12,-20,11,37,-30,-1,-24,51,6,12,-21,-28,-3,-61,5,26,63,-29,-73,-20,7,-26,-32,-32,34,-52,29,2,103,-17,-107,0,44,1,-35,-39,31,-17,57,31,127,56,-76,-17,18,5,4,-1,8,45,21,127,61,-51,-4,46,8,114,-12,9,23,53,56,107,34,-19,-4,48,9,64,-29,16,60,37,31,50,-2,7,-4,18,7,-2,-28,0,89,53,-3,42,-31,7,-32,-14,-9,-31,-14,0,97,58,-55,74,-33,-29,-46,-1,20,8,-16,26,56,41,-82,40,12,-26,-60,-36,44,16,4,45,-5,16,-59,3,31,-17,-89,-41,53,40,15,51,-40,-10,-36,5,39,-20,-90,-28,72,82,-15,44,-54,5,-11,49,36,-1,-52,5,95,96,5,-71,-62,19,127,68,-72,20,-13,-27,82,53,0,-54,-37,28,75,40,-107,17,-28,5,85,43,0,-27,-30,33,78,25,-97,14,-39,-9,44,66,0,2,-26,26,68,17,-66,-6,-35,-19,14,88,-12,4,-38,16,87,29,-24,-4,-18,-13,25,91,-19,-12,-34,14,78,25,-3,-20,0,-11,49,45,-6,-9,-51,-10,34,30,-23,-38,24,-18,32,30,-4,18,-50,-23,50,22,-43,-20,30,-30,31,19,-13,67,-41,-27,65,15,-84,-25,73,-42,3,-3,-15,-28,10,48,45,40,10,74,-28,64,31,52,-16,-16,12,54,57,10,30,51,16,73,19,1,-21,-12,12,21,44,-24,4,45,13,76,20,-29,-12,-15,23,13,67,-26,-27,49,-17,68,1,-30,-25,-28,26,20,28,15,12,92,-45,77,8,26,-8,-5,12,-4,-21,20,-38,32,-91,-6,-8,27,-1,10,-15,-4,-28,14,-65,-7,-127,-66,-27,51,-17,35,-10,-12,16,22,-1,52,-117,-42,-45,64,-28,29,16,-10,62,30,21,58,-114,-39,-39,80,-35,-30,22,-29,-9,-33,-53,35,-58,56,70,25,-16,-11,31,4,19,-22,-27,40,-45,122,81,18,0,-21,22,17,44,40,-24,36,-32,74,57,-17,-6,6,10,39,60,67,-65,31,-6,59,52,-14,-6,20,23,39,60,37,-99,6,17,57,68,19,-27,32,11,29,12,59,-105,12,-1,78,44,-22,-16,16,-43,11,-39,60,-60,60,-26,90,-2,-61,-10,10,-67,-13,-23,68,-127,62,-23,89,-64,-90,8,20,-66,-38,-4,17,-108,44,-1,50,-94,-80,15,14,3,-4,31,39,23,127,-21,-17,-38,3,-3,46,15,-30,3,30,-6,99,19,-49,-17,11,-31,23,7,-5,-43,38,-17,63,2,-75,-30,6,-34,-70,0,79,-6,21,-53,1,-21,13,4,-25,-3,-43,-28,63,34,-5,-64,-20,-60,63,7,-60,-1,11,11,-16,67,15,16,-34,-47,8,-23,-18,3,40,52,-15,44,-8,52,-6,6,-26,8,15,11,7,30,7,5,-32,-16,-23,-25,-23,14,58,6,-4,-4,16,11,67,-49,-6,-43,26,26,-5,8,-33,-10,-30,94,53,-78,47,-16,11,4,-26,5,-26,-13,-22,67,33,-35,61,-23,22,29,-13,2,-34,-15,1,55,36,-23,56,-14,30,51,-13,7,-26,-13,31,35,34,-48,35,16,31,45,20,12,-29,11,47,-11,18,-64,13,34,40,19,-9,20,-17,18,76,-4,4,-42,31,-12,49,8,-28,14,1,2,44,1,3,-25,52,-23,11,0,-22,9,22,0,33,20,22,-26,97,-2,28,4,-6,4,46,-22,10,34,24,-13,127,-1,14,-36,20,26,18,56,54,-10,26,8,97,-112,41,11,57,15,-6,38,23,-6,22,7,70,-77,43,12,73,11,-18,46,25,-35,28,12,51,-60,20,11,75,-6,7,36,7,-24,48,11,52,-35,59,-8,79,-21,25,49,17,8,46,10,66,-12,21,-5,127,-10,7,51,19,23,20,4,51,3,-21,-15,90,10,-24,65,35,17,-15,-5,39,-33,-8,1,70,22,-36,69,50,-1,24,-15,29,-75,-21,47,85,29,-47,68,53,15,72,-31,22,-78,-12,55,104,-23,39,28,-7,-27,50,-13,19,-39,-31,-69,26,2,31,43,52,20,25,8,44,-48,6,-25,3,-9,10,47,68,31,42,2,71,-24,45,4,-13,2,-8,3,42,33,18,18,64,7,25,-19,-12,-11,-29,2,2,32,63,17,28,33,-1,-33,-59,-21,-25,2,-10,19,76,30,30,24,-30,-30,-13,-31,-1,4,-2,39,56,16,46,-11,10,-5,-7,-42,16,1,-12,24,20,24,41,-71,39,-31,37,-8,33,20,0,23,25,-13,6,-127,13,-92,-5,19,10,-69,80,3,90,-97,-71,-28,16,75,57,30,-42,-54,66,9,11,-71,-7,-60,-45,107,-12,7,-32,-50,118,27,-12,-43,49,-80,-62,71,-31,-31,-15,-30,79,35,-19,-31,17,-109,48,0,-23,-38,27,27,-22,39,73,39,32,-71,91,-72,-3,-26,77,65,-28,39,123,37,114,-68,16,-44,45,-36,13,55,10,36,117,25,122,4,-29,-17,53,-45,-12,50,71,-7,27,49,73,23,33,108,56,11,-29,55,11,-79,-77,24,25,-74,52,127,59,-48,-8,22,94,47,87,-36,121,-63,119,30,68,-1,23,21,74,9,61,26,68,-73,70,-24,29,16,27,22,51,36,31,-5,82,-82,3,-11,7,6,14,4,34,13,11,10,57,-60,3,21,7,-14,6,8,43,12,44,12,32,-39,-35,-8,-1,-29,-23,12,61,-11,65,9,42,-49,-2,-30,32,-27,-15,26,24,-22,50,-18,29,-57,-1,-21,42,-35,-4,33,12,2,40,-39,25,-80,-19,-63,71,-80,4,25,39,56,76,-30,55,-127,-3,-60,51,7,54,35,16,-48,106,51,42,-9,6,6,-16,-10,44,88,127,31,60,64,49,1,42,62,-22,5,1,33,39,8,67,29,-26,17,63,51,-30,9,-18,4,-38,28,23,-9,-38,11,-4,-17,-28,-20,-23,-3,19,47,55,-57,-33,16,-37,-50,4,-26,8,-9,52,14,72,-23,-11,12,-55,-16,57,-9,-3,-24,20,-29,0,-49,13,-58,-33,37,50,16,14,-31,3,-29,-22,-36,46,-99,-46,101,74,42,15,-12,-13,-48,-19,-28,16,-54,-38,118,96,-30,45,6,92,32,61,-57,80,-66,94,-1,-2,0,35,4,75,43,65,-33,2,-71,61,-19,-44,-5,20,-16,78,26,72,-47,16,-46,121,15,0,-6,10,-21,49,1,27,-39,-1,-82,51,19,-33,-11,7,-8,69,38,49,-32,-3,-63,64,-4,-10,-6,-13,-29,45,11,48,23,29,-70,41,-6,-23,-25,-15,-43,37,22,54,-6,6,-86,36,-39,4,-15,-23,-26,16,44,50,-42,21,-91,48,-38,-17,-29,-47,-23,47,83,56,-68,20,-127,70,-110,2,-20,-53,41,8,75,93,-15,95,-43,0,-83,114,-27,-25,60,5,100,55,-43,59,-12,1,-77,76,-20,-4,71,20,76,43,-38,-37,-32,-15,-68,24,-10,17,51,32,31,40,-4,-60,-46,13,-72,-25,0,54,62,36,-35,53,37,-6,-16,-36,-31,15,10,58,-2,6,-12,18,50,53,-51,-41,-26,33,-9,51,-27,-24,50,-24,70,103,-34,-41,-71,102,-35,38,-58,-40,93,24,77,116,-48,45,-92,116,-54,15,-68,-7,91,59,83,41,-95,92,-127,100,-25,-24,20,48,14,8,-94,1,14,30,-14,86,-8,-24,13,78,3,17,-99,-36,-24,37,-9,45,-1,-19,-6,81,-2,45,-95,-14,-11,55,-21,19,-17,-11,14,48,-3,41,-48,-2,-14,76,-38,28,-12,-11,30,-1,-19,17,-29,28,-19,97,-60,14,-12,-9,51,-29,4,21,-20,72,-46,75,-39,17,1,4,35,-46,20,47,12,76,-63,37,-27,-35,14,4,29,-44,18,45,7,104,-44,23,-32,-49,1,15,11,-27,12,60,8,127,-4,14,-29,7,-91,54,-12,109,-36,48,-4,23,-87,89,-35,55,-69,37,0,87,-16,42,12,31,-96,87,21,13,-55,48,54,68,-42,38,18,60,-72,38,43,-69,-30,6,39,59,-31,66,47,20,-21,27,76,-107,-41,-42,53,22,-53,84,62,-1,-7,32,44,-47,-48,-33,60,41,-48,69,53,8,6,40,97,34,-45,-17,37,59,-2,52,53,127,52,88,119,19,-45,14,-8,61,4,51,72,123,-31,53,42,9,-30,47,23,75,13,42,54,112,-86,3,-26,-21,-31,17,-39,53,-7,-17,-15,100,14,109,-4,56,-6,4,-27,30,8,-1,-25,69,27,75,9,52,-11,-28,-37,13,10,13,-25,49,9,60,-29,22,-27,-42,-38,16,8,57,-51,36,32,36,-34,16,-32,-14,-26,8,38,56,-65,27,16,65,-14,9,-44,-10,-14,43,55,66,-86,26,-24,85,-18,46,-23,-3,-2,75,67,79,-71,19,-52,87,-30,46,0,2,6,50,48,66,-46,22,-55,101,-41,32,12,-11,23,38,19,40,-41,-6,-52,127,-51,-2,-11,-3,-10,42,22,15,27,53,-62,127,-21,1,-53,43,-28,27,23,12,-43,45,-66,78,-27,10,-31,36,-27,-10,22,6,-71,2,-27,23,-34,1,-4,4,-6,-25,31,34,-61,-41,3,20,-46,-27,3,-8,5,-29,32,49,-17,-17,-24,62,-25,-36,3,-1,55,15,8,69,8,8,-50,46,-35,-4,-25,4,73,60,-29,75,10,17,-85,-37,-44,-9,-33,-17,41,79,-45,47,24,33,-72,-40,-40,-12,-20,-34,-15,81,-22,15,-12,36,-71,-22,-72,-19,14,29,12,-37,-27,29,-77,-5,-100,26,-25,19,-9,43,41,-53,-57,25,-106,-7,-95,63,-6,-3,-13,6,66,-12,-14,30,-52,26,-72,127,-10,-23,-70,-45,-6,85,51,-5,69,46,-29,72,39,2,-59,-39,-43,63,7,-29,90,14,-61,17,40,1,-33,-13,-24,40,21,-34,71,4,-12,-45,-78,-8,23,-28,4,29,8,3,-9,-24,39,-55,-110,-5,39,-19,-27,-1,7,65,-31,-32,96,-36,-83,-7,47,-20,-55,-33,26,44,-14,-56,125,6,-48,45,-31,14,-20,72,-26,11,-2,8,-23,87,-31,32,3,17,-19,49,-21,-17,4,15,-30,85,-15,33,0,15,-22,31,-4,6,13,33,-16,73,-29,7,-21,8,-27,36,14,35,-6,63,-8,20,-10,28,-21,9,0,34,54,52,-67,31,-10,11,-6,46,-47,-6,22,50,74,68,-106,22,-6,2,-3,44,-46,-27,43,49,63,88,-94,10,-17,-18,-36,26,-15,-25,45,7,30,86,-54,53,-15,-2,-60,1,-26,-20,63,2,9,127,10,39,-31,2,-77,-26,-33,24,53,55,12,58,-72,-20,55,23,-80,43,-35,25,33,14,7,35,-115,-17,55,27,-72,74,-28,27,39,3,2,12,-127,-20,45,-9,-87,87,-11,27,46,8,29,8,-110,14,62,2,-85,53,-16,29,17,34,52,19,-72,-30,48,26,-116,44,-11,17,-8,47,70,16,-51,-63,55,57,-117,64,-9,7,8,78,88,21,-64,-43,40,66,-84,29,-25,14,19,78,62,20,-88,-8,57,27,-34,39,-20,17,26,79,0,15,-123,-45,61,18,4,59,-25,-1,17,-34,15,58,-55,45,52,-22,107,-57,-33,-8,36,33,40,3,-47,90,25,-34,68,-54,-27,-12,0,36,46,19,3,68,-16,-53,55,-44,-17,-14,-31,-4,20,22,25,57,-18,-56,-8,-42,-20,-18,-32,-11,31,18,14,43,-21,-73,-11,-50,-21,-8,1,-1,10,23,-7,33,-13,-92,-9,-42,-9,-34,56,33,12,34,-7,33,-24,-44,64,-48,-13,0,90,24,3,19,-11,31,-52,-16,89,-43,-20,48,127,25,4,17,-68,-20,-66,11,62,-42,9,-1,-1,66,-3,47,-56,41,-19,-29,-110,42,-7,3,-9,51,44,28,-54,78,37,-42,-84,63,4,4,-8,34,66,7,-77,72,41,-37,-73,57,13,25,-16,16,65,-6,-111,84,26,-27,-104,36,2,28,-15,26,65,14,-127,52,21,0,-103,54,-6,27,-1,9,48,20,-69,22,55,12,-87,74,-2,24,7,5,52,27,-67,25,51,31,-51,90,12,20,-4,4,55,14,-81,28,56,1,-18,73,14,18,-3,19,42,17,-96,24,51,-30,-23,50,-24,-17,9,117,14,91,-12,-2,14,124,1,-63,3,-13,9,104,28,68,-29,8,32,62,8,-48,-3,3,1,29,-6,41,-16,-4,36,-1,9,-7,-10,23,-4,-23,22,30,26,-8,0,5,-9,15,-32,4,-6,-32,41,81,26,-7,-6,47,-7,41,-36,15,-23,-56,43,108,25,24,8,83,4,36,-49,19,-43,-39,62,87,39,41,5,119,15,15,-29,20,-61,-22,64,77,64,37,-17,127,17,2,-28,23,-69,-9,73,85,50,51,-51,115,6,-9,39,-7,-44,-103,-44,37,-8,-72,-68,-32,-21,-20,50,67,35,-36,-42,1,-42,-5,42,-33,8,-45,-48,-12,56,127,30,9,46,99,5,96,82,12,-54,-40,-32,68,10,48,94,-26,-13,122,21,-13,8,-15,-12,-29,-20,6,25,-54,-32,42,-22,57,-13,46,64,-17,3,15,-61,8,-26,-10,-37,-13,-7,14,47,26,15,-5,-70,6,-17,-68,2,-29,-22,-40,-46,18,26,22,0,28,7,-56,53,-3,14,-38,-2,-41,4,-23,-42,43,-44,-60,50,37,-71,-12,-29,36,-2,32,12,98,-79,44,25,91,-30,32,21,18,-8,38,20,58,-86,-22,29,33,-33,43,3,31,-54,12,54,35,-107,-15,7,58,-51,29,18,28,-9,28,117,42,-114,11,-49,39,-41,16,32,51,-16,64,43,55,-85,-11,-88,33,-12,7,38,34,-6,69,33,62,-66,-1,-38,60,-8,1,26,48,6,80,6,108,-31,-56,-12,-2,-10,-4,32,30,10,67,-48,116,-72,5,-27,25,-42,-36,55,86,62,121,-21,127,-103,67,-55,24,-5,49,-15,34,2,11,5,28,-89,82,-55,15,-29,32,31,28,12,43,17,33,-53,71,4,-20,-37,-2,64,36,-7,69,33,30,4,49,42,-34,-43,-22,70,26,6,85,43,-30,11,27,45,-79,-51,-23,57,31,8,61,-5,-24,-1,36,21,-71,-41,1,23,43,12,55,-10,-11,-36,75,14,-59,-12,23,18,18,-7,22,-11,78,-68,100,16,-44,10,42,-1,2,-2,2,-18,54,-127,103,-11,-20,6,44,21,31,10,10,-5,49,-117,89,-69,8,4,-9,-13,-25,-6,30,-39,17,-13,104,18,59,5,-3,23,-22,10,30,-10,1,-3,111,46,46,9,12,33,-25,59,29,20,6,-1,88,68,31,9,19,63,-11,88,47,1,24,-2,118,75,48,11,25,45,-9,45,44,-33,40,13,118,52,55,-1,30,7,-2,-8,70,-52,41,10,127,31,20,-7,16,-53,7,-19,100,-68,54,25,117,9,5,-4,-5,-74,2,1,104,-64,61,-12,81,-24,-4,1,7,-56,-24,30,50,-55,59,6,113,-6,-2,-51,-13,59,-24,-4,-33,25,62,52,-51,-107,51,-6,-19,53,-20,5,-14,20,53,42,-72,-64,41,-2,-23,31,-7,19,15,4,44,-12,-13,-24,33,-11,11,-12,14,31,22,-28,24,-30,52,-29,24,-26,37,-49,31,16,69,-56,-6,-47,103,-5,18,-18,27,-63,38,34,91,-26,8,-70,52,-2,19,-17,-1,-55,60,19,92,-30,0,-79,26,12,1,-20,-17,-29,52,14,82,-11,-12,-99,-15,-10,8,-27,-14,2,32,33,49,-15,2,-127,-11,-3,24,-37,35,22,88,54,51,-18,43,-70,79,42,14,-12,50,30,65,46,71,-35,11,-52,46,6,18,-4,33,-3,99,37,65,-20,9,-41,39,-18,9,-8,24,-25,92,29,26,-42,14,-63,57,-11,17,-15,4,-21,61,26,32,-26,28,-76,73,-40,68,-21,-3,0,55,26,34,-1,35,-85,97,-31,38,-15,-13,-9,37,27,69,-33,-17,-67,104,-23,11,-19,-23,16,43,40,93,-74,10,-42,77,-43,0,-50,-15,32,72,48,127,-89,16,-68,105,-80,-9,-49,46,127,-1,29,39,22,24,-23,63,14,51,-51,30,88,-18,-16,45,-10,-18,-26,8,5,34,-9,-35,-14,14,12,34,-46,-17,-53,14,7,-5,5,-19,-32,23,26,56,-51,-17,-31,37,-30,-39,-5,-1,9,-9,46,36,-62,1,-33,-26,-38,-25,2,15,54,-10,34,12,-37,23,-5,-65,-28,16,4,9,46,-3,13,51,-4,-1,-2,-28,-8,23,12,-34,-9,6,-13,59,33,26,-8,33,34,-9,8,-36,-6,64,19,62,27,29,-69,48,39,13,-31,-23,22,98,-7,39,-81,30,-63,101,-86,70,-16,-16,-5,77,7,22,-78,41,-71,30,-80,37,-20,11,9,55,-6,24,-63,63,-8,18,-48,1,-6,-14,11,53,-7,10,-68,80,-13,15,-21,-25,3,-11,8,40,12,6,-105,60,-15,23,-48,-21,3,-12,10,33,37,9,-92,78,-27,59,-47,-30,2,5,30,21,17,-1,-77,81,-40,45,-94,6,-8,25,38,11,11,0,-92,82,-29,70,-99,19,-8,11,26,16,13,7,-68,127,-25,95,-108,39,-50,10,4,49,29,4,-32,27,-65,34,30,36,-31,10,8,51,3,-7,-22,46,-86,15,39,10,-27,25,-1,56,9,-13,24,49,-106,18,58,36,-21,25,-12,30,20,12,46,44,-127,7,35,14,-18,26,-5,40,-2,19,18,-1,-97,-7,4,11,-6,23,15,44,8,34,25,-1,-45,7,-7,-7,0,2,25,30,10,30,10,2,-33,12,19,3,-3,-11,41,15,44,52,-14,48,-37,9,21,18,-36,-24,36,24,26,76,-49,41,-27,47,15,54,-3,-20,1,4,13,23,-15,25,60,24,45,4,-14,-17,17,-6,15,16,-31,37,96,63,37,25,-21,-2,10,-13,6,3,-67,4,102,78,65,28,-22,1,-12,-36,0,8,-84,23,88,92,84,39,-15,-5,-3,-34,-18,0,-85,29,75,89,90,58,2,-9,9,-13,-42,-8,-93,41,71,41,77,53,4,-12,16,-3,-42,-3,-91,51,87,65,80,37,-7,2,11,20,-29,1,-74,46,103,80,76,29,-19,13,19,45,-26,15,-44,30,127,90,63,30,-42,0,21,71,-11,50,-6,68,-29,20,12,97,0,-5,-46,34,-90,33,-30,79,-15,-7,59,98,24,-18,-51,11,-85,67,-69,38,1,-14,-16,93,29,-4,15,11,-88,50,-45,-27,-12,9,-69,82,52,7,46,38,-52,-41,-47,-7,-43,0,-91,97,17,20,37,49,-5,-49,-66,-16,-57,-28,-78,84,-38,74,77,8,55,-41,-39,-43,-26,-73,25,94,-70,43,98,-63,33,-25,-14,-51,-44,-104,59,51,-47,-54,66,-21,33,20,-26,44,-127,-107,85,87,10,87,101,40,-23,52,11,34,-67,99,-110,21,-70,0,90,127,83,80,97,95,14,84,10,-34,-40,-20,54,52,-5,28,93,60,-11,-17,40,-29,-13,-29,-8,14,-21,34,72,72,-62,11,-1,-104,4,-13,16,15,21,47,-15,74,-44,107,-99,-62,3,25,22,-9,60,86,-63,22,-19,107,-54,-12,9,56,16,-2,56,60,-48,87,-4,99,-54,5,23,48,-13,-15,17,32,-10,70,-87,85,-48,50,10,31,0,28,-26,40,-56,35,-92,91,-110,26,-50,11,71,-39,105,41,-10,-26,-30,-20,-5,-95,-44,20,55,12,97,23,-8,19,27,-40,27,-91,-40,31,26,37,68,31,-3,18,0,-52,67,-76,-33,32,3,58,65,54,40,18,9,-68,23,-75,-2,3,-22,95,70,52,49,-2,27,-103,15,-64,6,-8,-48,98,73,53,58,-11,53,-127,4,-44,3,-6,-49,69,99,67,52,-3,51,-106,32,-65,-10,-8,-8,45,87,71,67,-5,-29,-69,54,-68,-36,-33,-4,14,91,71,90,1,-120,-57,68,-70,-37,-51,0,12,9,40,-54,-34,10,43,-7,28,-34,-56,-6,2,9,42,-64,-17,50,33,-22,-3,-14,-36,-17,-1,20,28,-42,-5,48,73,-16,-15,1,-11,-25,2,34,19,-37,-23,44,55,-60,21,3,-4,-43,26,29,-9,7,-13,28,94,-37,51,-34,12,-23,38,17,-16,50,-18,0,63,-14,34,-52,12,27,27,-8,7,120,-13,-34,56,13,22,-41,4,52,15,-29,18,127,-7,-96,26,6,32,-1,22,30,15,-27,28,87,43,-82,8,-32,72,-75,14,-12,82,13,19,-19,17,-30,-35,-25,-43,-53,-53,-32,91,25,16,44,60,-56,-81,18,-62,-6,-65,-1,78,7,-31,51,43,-51,-79,28,-73,24,-34,20,8,-7,5,23,-15,-1,-17,-22,-45,10,33,19,-21,-7,40,-10,-59,45,21,-70,-16,-13,77,-4,-32,48,55,-27,-48,53,3,-51,46,4,65,-17,-45,51,28,-37,13,12,16,-23,80,23,49,-26,-48,19,9,-51,8,-37,55,-56,127,27,22,-45,-43,-27,-2,-50,-39,-97,45,-56,125,51,-6,23,50,-36,61,2,84,-127,-15,72,117,31,8,39,52,-18,39,10,75,-76,6,48,95,23,12,33,41,17,27,-27,47,-28,14,32,105,-1,9,17,7,31,41,-50,53,-26,36,6,94,0,29,34,14,28,40,-61,45,-11,17,-11,101,-1,32,41,31,31,17,-50,15,15,3,-7,85,8,-1,52,87,35,-7,-10,41,-4,-5,-2,68,5,-4,52,74,15,17,39,60,-31,-26,20,60,2,-24,29,65,-4,76,48,48,-65,-32,46,101,-75,15,9,93,11,36,-18,117,-26,42,21,78,-35,16,1,46,14,36,-8,95,-24,-10,-21,17,-9,13,-5,53,33,-2,4,69,-36,-16,0,-3,-21,10,18,43,19,6,-23,47,-43,-45,-7,8,-14,20,15,44,10,4,-18,67,-36,-42,-18,2,-18,25,33,53,28,16,-10,73,-37,-31,10,7,-15,16,47,22,18,21,-10,65,-27,11,8,13,-14,4,59,54,20,42,1,76,-23,-7,26,-15,-35,-17,46,78,40,41,27,127,-76,-16,30,-4,44,79,-31,49,-98,118,-104,-95,-7,51,86,99,40,51,-36,27,-51,84,-69,-54,-34,59,54,48,40,27,-42,34,-22,56,-33,-44,-11,44,51,20,19,37,-37,67,-32,36,-6,8,-16,42,12,4,22,47,-28,71,-43,61,-18,-21,16,32,16,25,8,39,-28,35,-55,87,4,-33,-9,21,5,14,1,26,-5,32,-48,98,40,-76,-20,43,20,65,24,58,8,31,-69,79,43,-100,-43,16,12,106,24,68,0,58,-127,75,-9,-94,-118,15,18,100,-33,15,-60,-14,27,127,9,19,46,84,99,-17,-44,8,-41,-31,31,109,-27,31,57,65,64,11,-47,16,-27,-54,4,92,-40,7,54,45,54,10,-52,1,-19,-50,22,54,-36,6,23,24,51,20,-12,-4,3,-18,15,33,-64,0,24,5,55,9,15,1,17,1,-5,14,-63,-9,9,-1,37,27,15,-27,16,28,5,28,-49,19,39,75,53,47,-14,-39,3,57,13,56,-41,39,70,107,91,76,-7,-36,-10,81,-4,83,-6,21,83,57,91,95,-12,1,-38,104,6,98,-52,67,-58,-8,-15,-30,-26,-1,-37,61,15,81,-65,93,-7,51,-29,-11,-31,13,-17,36,-3,68,-24,71,-10,86,-1,10,-16,9,6,6,-8,55,9,78,-45,63,-10,0,12,-3,22,-35,-46,40,-13,45,-27,40,-27,-21,10,10,40,-17,-46,27,-27,18,-2,23,-31,0,-14,-6,54,0,-18,18,-42,51,50,106,-41,7,-45,-20,75,29,18,18,-36,90,73,120,-13,15,-50,8,46,40,21,50,25,127,59,82,-4,27,-96,-65,84,11,34,-8,-28,18,35,-21,1,-93,-30,-20,19,-1,10,-5,-14,-23,37,17,22,-11,9,6,23,12,2,21,28,-4,27,60,10,27,15,15,23,50,-30,37,47,-1,-9,39,18,57,-10,30,42,53,-16,26,55,2,-39,40,59,79,-26,16,48,44,-11,26,62,-6,-37,57,72,112,-30,-9,16,15,-17,28,84,27,-107,21,32,106,-27,-26,-16,-1,-22,46,79,65,-127,-2,22,73,-19,-56,-26,-30,-55,47,24,104,-98,-26,2,72,-30,14,-31,51,45,48,-28,88,-12,52,-63,36,-35,27,-18,71,13,65,-104,47,19,27,-65,46,-38,28,-1,45,5,52,-127,8,29,15,-58,31,-37,2,-1,16,29,57,-80,-45,27,24,-80,1,2,2,-38,3,69,35,-35,-33,-4,39,-81,-22,-3,1,-19,-13,70,44,27,-9,-40,41,-76,-31,-11,-6,6,-10,56,42,57,8,-47,56,-73,-45,-17,-8,22,-3,35,62,72,21,-47,67,-68,-46,-21,-24,29,18,24,42,43,21,-61,119,-53,-16,35,-27,4,-21,-20,-6,-41,-9,-24,-29,-20,-5,32,-48,-23,17,-22,4,-43,39,-45,-50,-44,23,19,-54,-39,64,-7,1,-39,31,-82,5,-33,35,-7,-43,-45,54,6,19,-12,18,-94,69,-43,12,-7,3,5,10,14,71,-2,-4,-17,127,-34,3,-18,74,56,2,16,71,-6,8,35,72,-8,-25,-33,33,50,20,-2,48,-47,10,16,44,-20,-27,-24,-2,27,40,2,11,-46,12,-16,35,16,-1,-52,-3,22,35,32,10,-32,50,-5,11,54,28,-73,-18,28,87,36,-20,-93,65,-127,69,1,77,-43,-15,63,50,31,-1,-68,75,-52,70,-1,84,-38,-37,63,19,75,11,-47,14,-1,31,17,4,-16,-42,45,14,90,12,-53,9,41,73,14,-3,-23,-20,11,-27,99,41,-36,76,-22,20,18,8,-45,-12,17,13,110,23,-81,114,-56,23,-62,53,-32,30,42,68,78,22,-69,125,-79,88,-36,122,-28,0,57,75,15,30,-65,64,-87,81,-30,95,-38,-8,61,113,-13,43,-56,61,-80,112,10,126,-30,2,19,-25,16,126,-73,10,-54,-46,19,109,-18,-34,31,-10,7,123,-107,-21,-62,-24,26,70,4,-40,52,12,40,124,-94,-25,-74,-28,-6,21,18,-15,79,34,36,110,-80,-10,-22,-42,-49,0,14,-10,119,40,46,93,-70,-10,14,-43,-46,15,11,-4,127,58,31,67,-99,-9,19,-7,-8,-16,8,-15,60,27,-11,80,-99,4,2,12,36,2,7,-12,15,26,-23,62,-44,50,-31,12,11,-50,-3,7,-36,21,2,49,-22,54,-43,12,-43,-100,-22,-15,57,43,-5,85,-6,61,-26,-5,-3,-97,-26,-26,39,42,-13,85,47,67,-32,-4,19,-71,-12,-34,26,56,-21,68,80,94,-20,41,38,-59,3,-22,5,83,-53,64,77,77,32,-1,24,-36,-14,-4,-12,95,-59,70,72,63,4,-41,66,-68,-15,6,-32,119,-51,109,35,61,-1,-32,71,-41,-18,6,-13,116,-41,127,-5,18,7,1,69,3,-12,5,26,63,-16,115,-74,11,-8,28,42,33,-16,42,57,16,7,71,-27,-8,-11,64,0,58,29,1,-25,-16,3,-14,-92,-1,-95,-32,-58,39,17,2,-25,-12,-23,-7,-81,40,-86,-36,-57,31,-26,-6,-7,-5,2,15,-82,49,-91,-35,-33,30,-36,1,-33,-26,-20,-13,-46,40,-122,7,-60,-1,-3,36,-5,-44,-42,-4,-34,32,-58,64,-28,-43,7,24,46,39,31,11,-26,25,-26,75,-12,-59,-53,-7,25,127,94,47,-27,8,35,64,53,36,-7,15,2,72,25,71,45,40,37,37,80,49,-21,7,-14,79,37,38,27,87,10,104,64,30,-49,-56,4,41,-4,-6,-127,32,21,16,-1,12,-58,-23,14,32,45,10,-85,-6,45,20,3,-29,-30,3,-26,15,52,9,-85,18,75,22,-13,-9,11,22,-18,21,51,5,-34,32,96,55,-50,35,54,21,-3,32,1,5,-15,41,79,88,-16,87,-6,-4,39,27,-5,39,17,37,-70,92,27,7,-94,22,127,47,-7,18,45,40,-79,95,-11,-2,-48,-21,81,15,0,7,-24,21,-105,71,-20,42,24,-23,-27,-8,9,6,-59,68,-35,39,-58,38,-43,-6,-12,20,5,63,8,66,-53,-5,-7,33,-29,-6,10,12,6,50,-7,68,-63,-8,-35,19,-11,15,9,7,-10,25,14,69,-32,20,-3,14,-17,9,4,21,1,12,20,93,-53,30,0,-7,-3,-7,-4,28,1,35,15,127,-8,26,6,14,-2,-3,19,45,-12,33,31,77,-18,36,-6,29,-16,-15,24,2,-7,30,-1,75,-9,26,-14,12,-32,-5,32,4,7,36,-19,41,-66,-9,-39,-1,-6,-10,55,16,32,80,-54,55,-53,-7,-55,-4,62,-43,86,-18,23,-12,85,-74,-37,-40,-6,-4,40,19,96,3,-5,28,43,-27,14,-42,13,40,5,50,64,12,-27,29,-42,-31,-30,-19,41,18,-30,60,29,-1,2,23,-66,-24,0,20,62,20,5,20,5,-13,1,39,-67,-62,-53,7,-8,-23,-18,-6,4,-9,26,36,-62,-52,-22,-20,-74,-4,-83,-23,-8,-24,37,22,-28,6,-64,20,-63,35,-92,-47,-45,-52,35,39,-8,21,-55,11,-111,13,-127,-44,-48,-60,14,19,23,33,-60,14,-125,20,-37,26,21,90,60,77,-64,59,-84,115,53,10,-2,15,-1,82,46,63,-48,40,-77,37,4,-3,-12,22,-20,98,33,48,-23,25,-92,53,-15,-5,-22,16,-14,71,18,29,-2,3,-127,67,-32,-40,-26,13,-8,68,28,52,2,-21,-122,68,-36,13,-19,-7,-11,44,37,54,21,-11,-87,51,-20,-4,-11,-3,12,34,16,62,1,3,-44,40,-26,15,-2,-11,14,24,39,74,-3,33,-14,33,-24,26,-31,-51,-5,27,87,85,-35,52,-42,38,-44,50,-9,-7,-13,34,23,68,44,-23,28,127,47,39,-7,-4,-7,18,25,51,13,-27,34,85,20,37,-17,2,-13,6,20,43,8,-12,32,56,18,30,-16,4,-19,-11,16,20,10,-4,8,66,11,19,-12,-8,-15,-5,-5,34,-7,-4,6,79,16,12,-7,3,-12,-7,-15,50,-22,15,-2,54,11,23,-7,2,-5,-5,-5,75,-31,16,-5,64,13,14,-10,1,-8,11,-2,90,-4,1,3,79,14,8,-19,-7,-29,18,-13,100,37,8,3,42,18,1,-59,31,127,-37,6,-26,-36,56,12,9,68,-9,-29,34,102,-64,9,-23,24,23,-24,-12,77,31,-8,28,86,-35,7,-11,25,52,-35,-13,64,34,-10,16,27,4,-21,-13,-12,55,-49,-59,20,31,-31,15,-10,44,-28,16,-14,39,-55,-60,0,36,-16,-1,6,48,-4,25,-3,33,-58,-7,3,45,3,-33,-19,21,-29,34,40,27,-86,-14,-3,30,2,-46,-11,31,-40,74,78,30,-63,6,31,50,-8,-60,-34,30,-54,97,-13,75,-42,-3,54,87,50,-73,79,9,-27,50,-55,89,-6,-15,29,-54,41,-23,62,12,-9,76,-65,37,-11,-12,0,-36,7,-6,37,-3,0,127,-84,-13,4,42,4,-9,-13,-22,-9,-19,29,125,-66,-15,-16,34,-12,2,-22,-20,-11,-36,72,87,-43,38,26,36,-13,19,-15,-9,-2,-33,45,31,-38,93,-2,24,-65,-6,-20,-43,10,-23,28,36,-22,105,-47,13,-90,-20,-1,-58,14,-42,4,95,2,66,-80,-4,-90,-18,27,-70,55,-57,12,89,-21,82,-78,-34,-69,-21,-34,8,-16,71,38,59,33,59,-91,32,7,67,-20,10,-10,64,-25,8,-2,42,-93,-3,-16,46,-24,18,3,43,-40,-17,19,29,-118,-1,-68,1,-24,26,29,66,-25,-17,2,35,-126,-5,-68,-28,-37,14,17,54,-28,20,-14,27,-111,2,-68,48,-36,10,13,60,0,45,21,81,-90,16,-45,47,-50,1,10,25,19,76,3,117,-68,11,-42,29,-28,2,56,45,16,79,-28,127,-65,-32,-54,48,-41,-18,95,87,31,110,-65,108,-43,-44,-36,97,-28,-13,5,80,17,80,25,75,57,77,-42,-20,-11,-8,8,48,26,40,13,71,35,31,-36,-12,-20,3,2,14,21,21,-18,67,38,40,5,-2,-16,6,5,-17,36,31,1,68,6,42,30,30,-10,4,-13,-17,12,53,-36,72,-19,64,43,17,-1,4,-15,-24,-20,77,-55,59,-34,43,11,9,-9,-6,-18,-14,7,91,-45,92,-11,33,-24,4,-17,0,-17,-3,42,89,-1,126,-7,25,-16,22,-8,12,-35,27,54,68,21,127,2,22,-26,24,9,64,2,9,42,34,28,-29,-4,72,-108,48,19,64,21,-12,50,47,23,-11,-54,-5,-61,39,17,31,14,-33,69,30,39,32,-34,-19,-47,14,1,-28,34,1,93,10,19,53,-35,-6,12,6,-10,-81,49,43,88,6,9,72,-27,2,51,4,-2,-95,45,83,36,-7,-16,59,-15,25,39,-19,5,-78,40,120,7,-16,-19,50,-20,44,11,-38,-1,-47,70,127,36,-22,0,22,-49,59,11,-41,-3,-5,70,64,34,-23,-13,32,-39,43,-16,-16,-8,-25,-9,-17,34,20,19,18,-78,81,77,72,-8,-20,2,27,54,1,29,1,-65,93,108,59,-8,9,5,22,46,-19,32,-25,-50,101,99,30,6,32,37,32,69,-21,18,-58,8,108,60,41,17,35,51,47,57,-49,-7,-49,15,81,65,22,28,35,54,94,19,-35,-72,-21,22,117,41,-4,25,39,6,96,-34,9,-92,21,3,108,-1,-34,13,38,-26,76,-8,50,-127,76,4,81,-34,-23,5,48,13,31,19,57,-108,119,22,90,-96,-9,-5,-20,-6,80,29,88,2,23,27,119,22,-52,-6,-13,1,72,39,51,-11,7,28,87,29,-18,-16,5,-17,7,14,47,4,-15,5,16,17,4,-9,16,-15,-27,29,40,28,-24,-9,20,-9,15,-24,16,-1,-23,31,74,9,-9,-21,51,-10,22,-30,22,-6,-40,23,95,11,47,18,69,11,26,-36,18,-32,-30,36,82,31,33,22,100,13,6,-30,6,-49,-20,45,72,65,35,10,116,3,-1,-37,-7,-53,-6,52,55,72,9,-1,127,-7,-8,6,-4,36,-5,-32,10,44,56,-35,-38,23,-80,4,-3,23,-11,-7,14,36,23,-52,-39,61,-61,-10,-16,16,0,10,38,41,23,-56,-29,68,-45,-22,-31,-3,21,-20,44,20,16,-31,-12,64,-23,-27,-6,1,59,-19,28,42,29,-37,-37,73,-38,-37,10,-4,78,-5,82,38,40,-19,-42,45,-23,-41,13,-23,77,7,127,-2,27,-13,-36,62,14,-30,23,-38,56,-18,98,-41,36,10,-19,57,29,-14,15,-27,37,-23,56,-17,4,30,-14,5,45,-33,39,24,28,14,10,45,112,-22,-30,-87,46,-23,15,19,78,21,7,51,72,-11,54,-54,25,-4,1,19,71,24,-14,19,50,-40,44,-84,-81,10,5,3,67,40,-1,-9,49,-14,58,-28,-82,-10,-16,2,88,3,38,-17,0,-49,2,44,12,-17,-26,-9,75,3,99,16,-29,-92,-13,41,15,-17,-9,-18,32,7,101,33,-22,-115,10,49,47,-33,3,6,49,13,109,59,-18,-121,-43,-3,61,-33,-2,5,33,6,98,109,2,-127,-35,-36,47,-34,-26,26,10,97,41,-54,-59,-7,-65,101,-61,-32,23,27,50,73,61,-88,20,49,-56,91,-71,-25,69,46,50,51,54,-91,44,17,-48,119,-73,-16,28,33,22,40,41,-23,6,-1,-29,60,-91,-8,-3,6,30,50,27,56,-52,9,-36,60,-55,7,8,-17,28,68,25,87,-55,40,-57,43,-25,-8,9,-31,22,85,24,76,14,47,-30,26,-51,-39,-9,-21,14,93,52,85,27,-20,1,44,-40,-61,-57,11,6,84,63,127,22,-106,19,47,-66,-107,-54,27,87,-3,14,-105,27,-30,33,-19,35,-78,-28,46,76,25,23,-104,-3,7,28,-5,7,-33,-20,18,33,61,-22,-101,30,30,40,-9,-25,11,-9,35,15,57,-20,-93,58,55,69,-30,13,34,7,65,5,59,-50,-41,54,31,56,-14,22,-59,28,77,58,100,-49,-12,113,14,78,-28,32,-70,34,122,70,71,34,26,99,-13,112,-32,66,-9,-32,77,39,-12,36,-39,1,-42,127,7,95,12,-48,44,102,-38,51,-24,73,-53,100,-9,110,-30,-25,25,-17,0,127,-18,-36,95,55,5,100,-30,-28,-19,17,71,112,-10,-15,71,-14,-27,90,-28,-23,-34,21,79,95,17,-7,36,-70,-25,74,-36,-10,-30,61,48,51,9,-23,-13,-92,-105,12,-30,9,-4,95,26,61,24,9,-1,-75,-119,-15,0,21,33,67,10,73,1,35,12,-51,-22,-25,1,3,41,51,64,35,-22,63,17,-82,-52,-37,-1,-22,40,42,70,38,-28,52,-22,-91,-45,-23,-19,-35,20,39,80,94,-8,14,-55,-99,-58,-40,39,-35,-26,13,-28,10,-26,-11,-53,34,47,41,54,-14,-61,-47,-21,27,-30,2,-45,-4,33,44,32,49,-40,-39,-23,53,-39,-14,51,45,8,29,-11,36,2,54,24,29,22,-6,52,58,36,25,-43,26,5,127,62,36,48,12,19,-19,44,-27,-13,-3,-23,73,39,23,32,-65,-20,13,41,-7,-23,-8,-36,31,6,31,-17,-86,-27,55,-45,-12,-18,15,-9,33,-45,70,-63,-29,-50,87,-122,-29,-8,16,33,12,-79,55,-50,25,-83,59,-65,-44,-18,-50,-11,-24,-37,55,-71,31,-40,127,4,3,-16,-45,2,-40,-39,52,-87,12,-40,106,38,-1,-13,-21,37,-40,-16,29,-54,27,-30,89,14,6,-5,4,83,-29,1,19,-34,13,-33,83,-2,54,-8,26,82,-26,2,18,5,19,-35,91,-8,73,-3,42,74,-17,-2,42,-1,20,-20,102,-20,67,3,35,24,-13,-10,55,-19,-7,-34,70,-27,38,12,10,-24,1,-13,52,-31,-5,-32,41,-26,46,5,20,-16,7,-8,28,-61,-19,-7,82,8,40,-69,-69,-25,18,61,26,91,66,-49,3,25,-21,-48,-55,8,7,21,43,55,-6,-17,31,-6,-13,-32,-9,59,4,-28,47,-48,-59,-1,42,-28,-15,-45,25,41,-17,-47,87,-101,-38,32,4,-46,-26,-18,46,31,-20,-71,93,-125,-32,51,-14,-1,-37,29,40,23,1,-79,59,-120,6,61,-50,-13,-51,27,10,31,7,-67,55,-59,36,1,-22,-19,-54,4,-33,27,-19,-43,92,-40,47,0,-14,-43,-22,-15,-67,23,-19,-24,127,-54,83,6,-44,-32,-13,-41,39,119,36,-16,29,-35,46,9,68,52,85,-20,49,110,1,-51,41,56,67,-24,89,14,103,-47,34,122,36,-53,53,119,29,-32,121,-10,127,-33,6,37,89,-25,55,117,-20,-5,76,-56,103,-37,-10,-64,100,46,40,83,-40,-53,37,-85,110,-34,-27,-66,57,70,49,46,-6,-108,72,-69,111,-40,-29,-33,21,51,63,41,21,-122,69,-52,123,-77,-28,-18,-13,38,86,29,45,-66,58,7,119,-70,-24,1,-35,-15,81,-15,65,-51,64,36,100,0,-14,-23,71,-38,117,-54,-14,54,93,83,90,-8,-6,-7,35,1,92,-88,10,84,101,37,91,-32,-2,-8,18,44,98,-101,14,90,63,27,86,-31,-43,-2,0,58,74,-87,15,66,91,32,88,-15,-24,-13,-10,37,103,-75,35,79,62,38,79,-2,-12,-21,-10,3,112,-58,46,70,38,48,75,1,-20,-6,12,9,107,-38,90,91,66,66,75,-27,-38,15,39,47,120,-47,112,77,103,71,72,-25,-23,-11,54,27,127,-6,91,52,70,97,86,-14,-43,67,124,-33,81,-67,35,3,14,19,49,6,-32,22,107,-32,61,17,53,49,-22,-8,32,13,-26,-37,53,-4,84,77,24,3,-28,-12,14,8,1,-41,22,-5,56,35,-4,10,13,-37,26,44,-2,-45,28,-7,-17,-27,7,-18,31,-45,73,0,-6,-19,21,22,-32,-44,19,-62,-14,-5,71,-100,33,41,-6,59,28,-15,-9,-53,10,13,71,-61,12,58,-23,33,47,-12,-36,-119,-6,16,70,8,-38,-16,-3,83,85,-18,21,-127,7,-17,65,-11,-4,16,11,40,127,40,57,6,49,-56,24,5,35,13,17,-4,94,54,45,15,26,-71,22,-3,57,-2,2,7,67,75,45,9,-19,-57,12,-22,47,22,-23,-12,32,35,23,6,-41,-37,-29,-30,7,48,-16,-28,-5,22,17,-21,-24,-21,-50,-6,-45,11,19,39,-2,6,7,-71,43,41,-45,5,-28,-21,19,25,-32,-17,-13,-74,38,16,-59,1,-9,1,36,15,-53,-24,-21,-6,72,31,-24,-12,2,25,57,21,-43,-25,-7,7,101,57,0,-8,3,-20,73,42,9,-4,82,-85,39,-54,24,-19,5,-13,42,23,-5,-23,85,-59,59,-69,39,-28,8,0,23,30,19,-52,102,-20,44,-100,37,-37,5,-14,7,67,46,-55,77,5,33,-103,42,-5,-5,-33,-24,85,42,-27,75,-20,16,-103,44,-3,-18,-20,-18,87,45,-15,99,-65,-17,-127,14,-22,-23,-9,8,91,65,8,93,-76,3,-88,-1,-55,-34,15,21,75,71,28,86,-75,-6,-102,15,-83,-27,52,45,85,62,15,66,-69,0,-54,25,-80,-11,-17,52,65,2,0,58,-16,-52,5,-45,-34,-82,-28,50,87,-18,109,39,-85,-23,48,-23,13,-119,31,44,11,-19,91,-44,-91,-6,52,-7,23,-25,65,16,-33,48,20,-68,-22,71,-71,-40,-8,82,34,-21,-19,121,-47,-56,46,85,-84,0,5,112,12,-19,2,69,-96,45,48,-31,-57,51,-1,71,17,-18,14,11,-107,70,44,-39,-67,74,-4,27,17,-5,-33,7,-113,40,-1,-47,-127,120,-9,-26,-37,-13,-51,37,-38,35,-1,-57,-100,49,-81,-13,25,80,9,73,-19,71,-31,53,11,23,-4,-35,2,72,-21,48,-24,43,-62,28,-31,21,20,4,-17,36,2,-6,-17,52,-37,21,-56,26,9,24,-11,-7,19,-13,-7,49,4,22,-47,53,-24,25,0,-43,22,-14,7,38,12,56,-26,55,-22,23,11,-27,9,-5,-16,35,-37,11,-33,40,-19,8,32,27,21,12,-11,63,-57,56,5,56,-26,-24,3,77,55,40,-16,112,-65,70,-13,32,-49,-22,31,127,117,69,-31,97,-69,106,-9,26,-11,-26,-41,24,-7,104,-41,12,6,-33,-9,-32,-33,-33,-29,24,8,82,-24,53,-4,-25,-22,-4,-30,-23,-14,13,5,76,-18,51,-7,-20,-8,19,-21,-23,-11,-6,32,78,-17,64,-20,17,-20,36,0,-18,-9,-19,17,88,-40,99,13,42,-15,26,4,-10,3,0,14,74,-38,97,31,41,-11,35,-8,-27,6,5,10,29,-43,127,75,78,9,37,-24,-27,14,17,22,-25,-49,113,92,74,31,53,-23,-17,17,10,4,2,-28,62,98,30,48,38,-26,-16,8,-1,16,43,-56,110,-22,39,-6,27,-20,-1,2,-7,13,32,-25,81,-25,69,14,24,-5,7,4,-6,36,-3,-22,68,-26,32,-17,15,-15,7,14,1,43,18,-37,58,-8,30,-49,6,-6,1,18,-7,28,62,-11,51,-12,62,-57,13,0,-7,37,-4,24,72,-4,38,-17,108,-55,16,2,-6,39,-5,10,76,-2,23,-15,127,-48,-3,3,-12,40,1,-13,51,14,24,-26,120,-51,-25,-2,-10,27,24,-36,42,0,71,-14,100,-34,-18,-41,36,-10,27,-42,26,23,127,38,13,27,2,-32,41,-10,24,-86,33,13,6,25,-40,-3,-32,-6,35,10,7,-42,-10,13,-31,10,-52,-30,-17,-5,26,90,16,-22,-28,56,2,-10,-20,-41,-14,-11,27,72,18,38,-45,41,68,-6,-7,-25,19,-2,26,4,44,71,-29,-20,84,-21,46,11,67,4,17,-34,55,55,4,-76,58,-32,69,10,65,4,-11,-38,32,70,52,-66,36,-63,62,-9,32,-3,-32,-21,8,97,65,-49,32,-70,82,21,45,-37,-38,-17,49,-6,127,-40,13,-69,18,-43,82,-26,-15,-29,43,29,121,-43,48,-73,-46,-59,40,-32,3,-41,13,20,101,-57,33,-107,-38,-27,16,-54,13,-63,-10,7,76,-63,75,-120,6,-26,22,-39,6,-61,6,10,83,-68,57,-118,44,18,15,-9,11,-31,36,6,82,-58,39,-57,48,42,15,0,17,1,17,-10,78,-24,57,-21,60,48,7,-3,20,1,7,0,88,21,77,-5,59,45,23,-17,6,-26,-15,-24,94,58,51,-24,21,67,56,-8,-7,52,-14,-8,9,-69,64,2,22,37,-15,-20,6,47,-32,14,9,-34,61,6,-6,41,-33,-3,1,22,-26,35,-5,18,63,5,-18,35,-48,-12,-3,19,-4,45,10,5,68,5,-25,14,-29,-10,-3,6,11,28,25,3,39,-12,-15,-5,-23,-7,-5,0,22,11,14,-14,20,-3,47,10,-4,-2,-12,-1,19,-21,34,-14,7,0,63,-8,4,10,-16,-4,18,-26,56,-7,5,-10,86,-28,2,11,-14,8,26,-18,58,-3,17,-31,127,-16,32,25,-35,-1,33,-77,45,8,-14,-75,48,78,127,23,-19,-16,26,-40,39,0,-6,-72,14,27,82,22,-14,-34,30,10,32,-28,24,-14,-49,9,67,3,2,-33,64,44,56,-8,22,2,-12,-24,24,-3,25,13,58,54,53,-3,26,-1,5,-20,22,-6,17,25,24,48,41,-2,54,16,2,-20,15,-17,16,56,44,43,51,18,50,-4,-15,-34,17,-15,30,36,55,24,64,40,65,-35,-11,-41,27,7,35,24,44,-7,47,32,36,-60,-25,-28,61,42,0,34,41,-51,76,63,34,-77,61,55,121,16,3,36,31,-23,53,54,10,-50,50,58,110,20,-1,4,32,26,23,11,10,-23,23,26,121,13,18,-9,27,35,11,-19,62,-13,13,-14,98,20,33,-17,32,43,32,-48,48,-10,6,-38,96,28,51,-9,11,36,66,-14,35,-14,-8,-25,60,17,36,8,43,40,71,17,47,-24,5,-32,46,3,25,24,60,27,81,55,61,-53,-17,2,31,7,11,23,89,22,127,79,78,-77,-26,3,43,-57,-25,-14,1,53,37,-27,-70,-39,-14,-37,-32,-35,11,10,-2,55,20,-67,-12,-42,-27,-19,-15,-36,35,16,19,22,-11,-72,49,-117,3,57,14,-31,27,22,29,3,-3,-5,48,-127,28,76,23,-11,1,35,38,2,19,-14,-18,-92,11,23,22,-9,-12,-5,19,14,23,58,-36,-8,-36,-11,8,-6,-1,-9,9,30,31,17,-20,5,-24,-24,-32,-6,-26,10,5,21,46,-22,-8,-9,19,28,-8,-24,-47,41,24,27,48,-29,-20,-85,22,12,-11,-35,24,-17,8,32,34,-18,127,-96,-14,18,62,-23,-2,17,40,24,37,-19,74,-56,-14,-18,41,-17,-9,25,50,33,49,-31,36,-24,4,-22,9,-3,-13,-5,52,9,37,-37,32,12,21,-7,0,-14,-9,4,28,9,53,-43,57,13,40,-30,-27,-14,-5,11,8,-1,45,-12,45,-25,42,-51,-18,-12,-9,-17,-15,9,10,2,23,-44,41,-31,11,-14,-21,-19,32,16,36,8,62,-36,56,-29,-5,-30,2,2,41,31,72,-10,87,5,71,-41,-10,-6,-21,-6,-25,-19,20,-37,9,-7,60,9,34,1,-14,2,-34,-7,23,-29,-8,-1,56,32,37,10,7,20,-29,16,17,2,-5,-10,54,34,51,3,16,43,-14,36,17,9,6,-7,71,36,62,1,21,51,-6,22,12,27,42,3,90,31,59,5,32,46,2,14,33,18,32,13,118,17,46,1,27,4,-2,9,38,-1,33,18,122,4,26,3,11,-24,5,10,51,6,43,-2,103,-6,33,4,11,-25,7,25,36,-22,46,19,127,0,28,-30,37,-6,2,105,17,29,-39,-22,38,81,-9,-21,31,-3,22,101,28,37,-1,-6,2,86,-24,-18,41,1,21,97,56,3,-4,-17,-41,50,-29,-19,34,-12,8,103,54,51,-7,16,-37,24,-42,-13,3,-4,32,86,47,59,-40,33,-29,-15,-35,-20,-12,-25,38,101,31,69,-55,57,-37,-4,-28,-10,-20,-45,28,116,20,71,-5,56,-47,-6,-30,-35,-12,-49,24,122,19,94,21,-18,-26,-11,-22,-52,9,-35,22,127,45,84,10,-64,14,4,-46,-9,-9,22,-7,-15,56,11,61,-105,77,-22,105,17,20,-10,-2,-20,41,-38,86,-112,43,-40,127,22,15,-23,4,-33,25,-68,103,-76,34,-65,80,-2,33,-38,8,-11,-6,-30,67,-27,26,-89,42,-30,38,-23,18,16,-3,-32,22,-28,6,-84,43,-32,18,46,9,39,25,6,1,48,-12,-99,-29,-49,19,51,22,60,32,-5,1,45,12,-64,-23,-9,-20,18,4,39,41,5,25,-29,34,-49,-6,31,-71,9,1,22,37,-3,65,-63,-29,-82,37,-91,18,24,52,-30,7,-85,112,28,13,16,29,-18,-3,7,42,4,11,-25,63,28,-9,3,14,9,-9,16,16,56,-15,8,100,8,-5,-23,-37,17,8,46,30,49,-15,45,118,-3,-12,-54,-56,-22,15,52,48,69,-22,92,91,2,21,-74,-13,-48,25,-4,64,82,-20,5,79,-10,14,-105,57,-38,-19,-49,31,77,21,-5,16,-58,12,-82,105,-13,-36,-27,3,75,39,-25,-54,-96,54,-62,96,-33,-25,22,24,53,33,-58,-22,-46,37,-24,127,7,-5,93,6,-26,-19,7,127,5,-87,69,-101,-13,-1,97,46,15,-27,-3,122,1,-62,58,-86,-30,-5,48,45,27,-21,-10,93,-20,-62,38,-66,-29,-3,23,13,49,-18,24,74,-61,-67,26,-58,-23,12,20,12,43,-3,30,34,-105,-66,-4,-57,-15,29,28,20,26,-3,23,37,-64,-49,-5,-60,-3,14,37,35,19,0,44,84,-19,-54,54,-63,-1,-1,54,29,-13,8,74,109,5,-47,67,-61,4,11,103,18,0,-1,64,83,-9,-55,83,-83,3,42,-32,45,28,77,-9,53,22,-27,-121,6,6,63,-22,34,47,67,-1,46,-30,-78,-123,12,3,49,8,8,34,27,32,42,-51,-80,-127,8,-5,8,55,38,49,14,24,31,-53,-40,-83,1,0,-19,82,49,56,-3,40,20,-60,-25,-43,-8,9,-32,75,55,56,-6,30,23,-67,-2,-27,0,14,-8,34,97,30,-29,27,8,-65,15,-49,-18,-5,-1,49,103,38,-29,24,0,-41,10,-51,-30,-21,2,55,102,57,13,-25,-4,-40,35,-35,-8,-41,43,9,63,-15,-4,-13,23,-127,75,-17,18,-41,35,-9,32,-12,0,2,15,-106,85,-13,-12,-51,33,2,32,-2,3,2,32,-80,102,26,-11,-29,7,20,61,40,23,33,2,-93,36,8,-64,-28,-16,37,58,4,30,3,-19,-70,19,50,-39,-30,-23,32,25,17,29,-3,-25,-63,32,74,-18,-26,-15,31,0,8,15,-8,-1,-13,62,34,9,-22,3,36,13,12,40,1,16,-17,93,-10,7,-25,9,14,25,28,66,13,64,-37,82,-25,17,-20,-60,70,-29,84,93,-118,19,18,-4,64,68,-1,-47,79,-4,62,127,-74,21,22,17,71,47,11,-35,59,-13,29,106,-67,26,16,20,25,-7,4,4,57,25,26,77,-50,0,16,2,-4,14,9,24,28,28,33,70,-42,23,17,-1,-33,13,6,20,-14,-4,7,64,-15,33,10,20,-10,3,5,0,-41,-19,-74,61,17,21,-14,26,23,-13,9,-31,-37,4,-100,68,10,38,-15,57,-10,-14,12,-30,-38,47,-94,28,-2,59,-32,94,-48,-15,15,-7,-34,-45,-66,-18,-65,-5,-127,-23,-31,74,9,25,-45,-34,-80,18,-88,41,-105,-25,-54,58,-18,19,-30,-10,-35,45,-98,21,-100,-54,-32,48,-43,0,-31,0,-12,36,-52,-9,-82,-14,-31,-22,-27,-6,-15,25,44,37,-30,-27,-66,-10,-32,-82,-17,-1,12,69,77,78,-18,-8,15,26,16,-82,-2,6,24,52,75,57,-17,8,59,27,38,10,4,7,24,37,43,69,22,62,72,54,24,30,-24,14,18,34,76,44,40,111,87,95,9,57,-41,8,32,51,37,80,-22,127,-64,60,34,-14,-13,6,19,39,16,56,-32,103,-67,7,-2,35,-8,7,6,43,10,33,-4,103,-39,-20,-29,23,-7,2,-18,38,25,34,1,77,-42,-23,-26,50,-6,4,-10,30,37,39,-2,79,-47,-1,-34,63,-4,-15,-22,19,17,32,-1,70,-64,7,-40,29,-21,-8,4,39,10,46,0,48,-80,5,-56,15,-18,-7,8,57,30,34,-2,53,-68,21,-59,4,-61,-17,34,68,58,50,-42,59,-79,33,-66,27,-29,39,25,70,18,30,-26,63,-65,100,-11,59,-42,19,13,71,22,19,-17,31,-73,115,26,7,-54,25,30,64,29,9,-14,9,-80,90,58,-47,-39,2,43,47,27,-5,25,28,-86,32,77,-48,-46,-26,40,60,-3,-7,9,16,-64,39,101,19,-43,-19,50,46,-22,19,7,-8,-61,35,127,13,-39,-13,41,26,11,24,31,24,-48,24,80,16,-29,5,28,20,4,41,39,33,-64,20,-20,10,-14,18,29,31,-13,54,50,41,-91,29,-48,18,-3,-3,10,45,2,56,50,125,12,-10,20,8,6,-8,-7,33,10,20,46,109,16,-10,29,19,-8,0,2,9,23,5,10,86,17,15,37,25,-14,-2,5,-12,4,28,-3,82,-2,27,37,50,-4,-8,13,-4,-7,22,-27,81,-10,-6,17,53,-6,-11,22,13,-15,15,-29,99,3,-8,9,75,-3,-12,36,28,6,13,-50,105,35,-12,-6,45,3,-18,44,17,23,1,-28,124,27,-43,3,40,-7,-27,39,14,33,23,25,127,46,-68,-16,-15,16,52,-17,25,3,37,-55,100,-71,13,36,55,3,96,39,-23,14,49,-61,95,-41,-75,-14,16,-78,17,76,-7,2,105,-56,41,-18,-84,-15,-13,-63,-126,26,127,22,4,-78,17,-71,9,23,16,5,-60,-26,73,111,2,-59,28,-94,74,-21,-26,9,-7,-7,-25,109,75,60,10,-83,-50,-21,-67,-8,23,18,28,23,45,111,20,-29,-78,15,46,-18,15,-26,52,-31,-21,60,48,26,-67,22,3,-16,-7,-49,20,27,88,55,19,-15,2,117,-15,-75,-8,11,79,-1,15,-47,127,-57,46,-39,62,-30,-13,11,53,19,15,-32,111,15,52,-36,88,-2,-30,5,23,55,-1,-38,75,1,30,-55,27,12,-20,-4,22,64,-9,-23,52,-4,15,-105,17,13,7,15,12,56,-13,7,55,-10,34,-102,15,-20,15,34,17,57,9,9,70,-21,28,-118,25,-42,-2,14,41,50,43,23,42,-45,16,-39,72,-18,-20,18,47,18,26,11,9,-86,19,3,89,-20,1,27,62,29,12,-42,15,-54,40,14,92,-35,15,-65,3,-7,74,-18,29,-12,109,43,31,-24,12,-41,-5,-4,87,-8,18,-10,62,6,11,-23,38,-28,-13,-3,105,-16,18,-16,42,1,19,-23,27,-27,-7,-15,109,1,26,-55,31,-7,-7,-24,12,-31,1,-23,127,2,32,-51,29,-10,-8,-9,1,-27,-1,-13,87,22,50,-33,17,-2,0,0,-8,-23,17,7,54,33,49,8,61,11,11,1,-16,-14,34,5,68,77,36,29,58,37,16,-9,-24,-19,65,-4,102,126,19,20,35,48,14,-31,-10,85,89,82,15,72,11,-30,127,25,26,-81,38,51,31,84,-1,53,-39,6,52,-57,28,0,22,-56,-14,22,9,50,-15,-13,-35,-40,50,-13,-7,-71,-16,7,20,33,-41,-25,-49,-34,-15,-17,-4,3,-23,-19,1,7,-11,-56,-38,-64,-39,6,3,46,1,18,31,-35,62,-29,-15,-63,0,-7,-19,4,41,2,35,-19,51,-55,-66,-14,51,-3,-31,13,75,-21,54,-19,28,-47,-35,19,41,15,-36,-14,67,5,30,-71,41,-13,56,56,42,-22,-20,11,-8,29,7,-40,34,76,-4,32,106,-8,-31,29,34,17,-25,-47,30,93,-65,5,50,-10,-17,48,83,5,-49,-48,30,72,-48,8,36,-8,-12,33,64,4,-38,-39,44,26,-27,11,9,-22,-18,10,46,-20,9,-42,70,7,25,3,23,-41,10,-13,38,-5,40,-10,59,-38,0,-8,34,-22,28,-12,43,27,78,-20,82,-35,-47,-51,25,0,42,-28,33,-3,93,-3,116,-5,-52,-36,26,19,43,-41,24,16,87,-8,127,-26,-50,-46,-22,-37,-3,17,22,1,45,-56,127,-65,42,-2,47,-10,-15,28,3,-25,34,-5,79,-44,20,-19,27,-7,-14,8,3,-3,36,-7,80,-35,19,-11,43,-15,-8,8,16,6,31,-3,44,-34,40,-17,39,-8,-4,19,24,37,21,27,37,-33,48,-20,36,-15,-16,2,21,23,21,30,59,-48,28,-24,22,-12,-17,13,15,33,49,25,44,-59,28,-9,36,-18,-19,37,29,28,62,27,33,-81,17,-16,-12,-36,3,37,43,58,76,-10,62,-81,34,-8,-5,-75,-14,33,44,-10,63,-19,114,-66,57,1,-13,-21,-20,11,17,-16,28,-1,37,-43,14,42,-54,-5,1,38,34,-22,28,22,37,-37,-7,38,-34,-27,8,29,57,11,45,-15,41,-18,-24,22,-48,-26,13,-12,34,45,30,-3,60,-22,37,50,-30,-14,8,1,-6,9,22,3,39,-59,11,-14,-16,-21,-14,14,33,31,47,-31,49,-60,19,3,-35,3,-18,28,51,-1,16,-10,56,-100,37,3,-9,-40,-20,16,103,3,28,-80,55,-127,68,-10,48,-67,-8,12,30,7,48,22,127,-42,-4,-33,0,-28,7,22,23,-31,23,-8,109,-61,19,27,-11,-35,2,19,39,10,-18,5,109,-77,65,24,21,-34,9,10,30,1,-3,7,92,-75,43,16,-13,-41,29,9,63,5,18,5,65,-79,24,-7,10,-9,0,-24,43,11,19,1,75,-73,8,-21,12,8,-20,12,38,-7,37,-40,17,-35,44,4,-20,3,-29,55,22,4,46,-73,44,-22,53,-8,34,-51,-17,56,55,31,70,-117,30,-66,43,17,75,9,19,75,23,21,28,-16,105,-86,76,-8,18,12,1,51,0,23,11,1,73,-80,80,-22,31,27,-30,55,-10,-11,26,7,44,-81,56,6,23,20,-27,52,-18,-14,53,2,28,-74,61,25,46,14,-13,59,3,-9,81,-9,25,-64,54,29,92,2,-4,47,-1,2,57,-15,36,-42,16,25,127,2,-20,50,-7,32,44,-35,48,-62,-10,29,111,17,-21,67,4,19,29,-63,24,-101,-32,56,95,27,-36,87,11,40,65,-58,1,-93,-25,60,81,-16,-11,20,13,29,16,48,54,-12,-74,-97,4,-14,0,31,46,17,2,65,43,37,-49,-37,0,-31,10,49,59,9,22,48,44,52,-49,-25,-35,7,3,46,8,17,38,5,51,31,-24,-3,-41,13,-32,23,-11,3,18,-26,53,-1,-44,-58,-25,4,-41,-11,12,4,48,-22,37,-43,-47,-54,3,-17,-27,-19,7,13,70,-36,21,-89,-3,35,14,-28,-35,-51,26,15,127,3,11,-98,17,44,17,-35,-49,-30,68,31,108,54,5,-93,27,-10,-43,25,-2,22,6,7,24,-18,93,-100,114,16,-1,11,8,35,7,-14,14,14,57,-52,104,4,-10,-8,-8,25,9,-10,25,26,33,-9,109,13,23,-9,-1,37,-14,28,63,18,13,-10,47,-15,28,6,-5,55,-3,25,51,13,39,-10,-10,21,59,10,-16,60,19,14,7,6,53,-34,-68,28,68,21,-47,47,10,2,-4,-44,20,-104,-48,51,87,16,-26,54,15,-3,48,-54,11,-127,10,67,101,9,-21,90,-14,34,89,-69,1,-102,-5,40,107,-26,-8,-19,-7,18,11,10,16,44,127,50,25,-22,-14,-14,-14,14,15,31,-1,25,69,32,13,-4,3,-6,-9,13,6,24,3,29,44,5,-10,13,7,-4,-7,5,8,16,9,6,33,5,-23,-10,8,-21,10,-9,37,9,12,-3,24,-18,-38,-8,12,-27,24,-16,43,-11,8,-19,-6,-18,-45,-16,-2,-24,33,-6,61,-28,-3,1,19,-6,-27,-22,-14,-18,48,-4,70,-3,2,-6,9,-3,-20,-26,-26,-27,68,-5,89,33,14,-17,1,7,-17,-11,-7,63,39,3,81,-9,59,-30,-6,-7,-64,-6,-20,20,24,-15,75,34,59,-46,-16,26,-46,-7,-36,19,39,-25,80,65,67,-38,19,46,-49,-2,-27,5,71,-43,77,68,59,-4,-15,44,-19,-9,-6,-10,96,-49,68,85,60,-12,-34,62,-39,-20,1,-19,92,-37,95,59,50,2,-38,55,-32,-12,5,-6,90,-37,113,29,32,4,-23,57,0,-6,0,19,73,-18,127,-24,29,12,16,35,30,-12,30,32,48,2,99,-4,9,7,30,5,61,-19,24,31,66,78,101,7,66,-113,113,74,34,-45,12,-7,54,45,65,1,51,-124,99,87,31,-43,4,2,41,15,43,-8,4,-127,31,73,-9,-29,2,21,51,11,24,49,2,-112,-11,2,4,-40,-25,35,45,-22,32,67,-6,-85,-34,23,44,-24,-26,38,31,-28,-28,39,-5,-69,-60,67,54,-18,-19,26,10,-26,7,20,-3,-55,-5,48,52,-11,4,43,17,-7,79,3,13,-54,-15,-22,67,3,32,50,11,28,119,52,42,-42,0,-21,80,-44,-10,10,89,-37,33,-87,85,-62,-13,-4,68,-23,-19,0,73,-31,17,-43,73,-24,-5,-41,71,-16,-36,9,58,14,6,-15,56,-14,17,-55,59,-23,-37,3,39,53,-13,11,39,-21,22,-85,73,8,-17,-29,-10,72,-30,17,36,-54,1,-125,52,6,-21,-32,-23,68,-20,-13,71,-67,-4,-127,61,-3,-15,-33,12,92,22,5,82,-80,22,-65,78,-31,11,-13,44,92,42,-20,52,-93,25,-58,70,-50,16,12,57,122,21,-39,15,-76,44,-14,84,-18,-2,3,99,15,73,2,45,16,3,-26,-16,-9,-4,-3,57,32,34,-6,59,20,28,-9,-12,-14,-5,-8,3,41,43,-26,2,23,12,13,16,-18,4,-11,-35,28,34,-7,28,-15,-12,15,41,-8,0,-1,-20,27,45,-24,63,-6,36,6,31,0,2,6,2,8,62,-31,93,12,43,-3,41,-9,-11,-1,-6,10,55,-33,113,50,51,1,19,-7,-10,-23,-16,31,38,14,127,49,63,17,32,-12,1,-28,17,70,50,35,87,36,73,17,22,-24,17,30,-8,34,83,-127,23,-94,21,36,127,-18,-2,37,4,8,54,-108,16,-86,29,67,107,-5,-12,21,-1,26,64,-74,6,-67,16,51,67,3,-4,34,0,19,89,-71,-3,-79,-7,25,76,-9,-5,11,-21,24,67,-76,-5,-82,-7,1,56,-18,4,14,-35,12,81,-76,-15,-61,3,-1,37,-1,-2,-7,-54,4,104,-85,-35,-45,-17,0,47,12,-18,-13,-48,25,125,-80,-57,-59,-15,-16,39,13,-2,21,-41,48,125,-84,-47,-76,32,-12,29,-30,-9,6,66,10,71,24,60,65,71,-43,-32,-10,-6,6,47,22,39,23,58,39,24,-37,-20,-18,-8,3,10,17,18,-11,67,43,32,-1,-13,-17,6,8,-11,24,25,2,58,-3,26,28,25,-8,7,-8,-20,4,56,-41,63,-28,41,42,13,-6,10,-10,-30,-18,75,-49,49,-40,28,14,2,-12,4,-9,-9,0,85,-46,96,-5,28,-21,12,-16,4,-15,-4,31,71,-5,111,-4,23,-12,19,-9,2,-39,24,48,62,15,127,5,21,-20,21,-12,-72,46,16,-40,51,26,58,25,-48,51,13,-9,-44,-27,-2,-12,94,64,24,67,-73,91,22,-11,-1,-39,6,-53,77,64,1,30,-45,40,16,7,-24,-15,42,-77,45,-4,5,-19,-16,28,62,-6,-2,-4,94,-46,39,-40,8,-91,-43,60,79,-104,53,25,63,19,53,13,-13,-40,-56,85,89,-103,55,61,51,9,65,60,-25,-33,-55,81,110,-18,-38,-5,46,3,47,8,-33,-127,-79,60,77,38,-14,-47,39,30,40,-60,-8,-110,-35,13,57,-29,18,25,89,0,32,6,-40,24,64,-52,30,-19,15,6,52,34,30,-15,-39,41,68,10,26,-5,12,23,17,10,-1,-57,-23,13,51,-3,41,-5,26,45,-6,3,-3,-86,17,3,43,-25,8,-14,21,33,-11,24,30,-74,5,28,33,-58,20,-13,4,19,5,47,30,-45,-20,37,46,-71,20,-11,2,25,19,47,21,-29,-33,26,43,-70,29,-9,16,33,30,10,6,-58,-22,16,24,-59,34,-17,34,35,40,-34,-6,-127,-38,-18,19,-35,9,-28,34,5,14,33,43,-75,56,-3,30,20,-1,-15,27,-21,27,34,58,-60,77,-2,29,25,6,-5,4,-31,55,37,68,-66,113,-10,41,1,1,5,-11,-38,74,51,60,-24,100,-21,26,-56,38,13,-18,-30,76,34,44,37,117,-15,10,-83,43,9,-24,-12,116,14,48,57,127,-10,2,-52,50,5,-27,-22,108,-27,39,54,111,-18,-12,-36,48,14,-49,-28,60,-13,26,29,93,-24,-6,-35,63,4,-44,-13,-3,-6,27,-36,77,-10,12,-18,79,-5,-25,-8,27,-45,-22,-78,85,33,13,67,-76,-2,-14,-2,4,-30,-23,-77,66,31,-15,44,-74,0,-5,53,-16,4,-42,-5,45,19,-13,41,-41,-19,20,105,-11,26,-24,43,108,2,32,27,-8,-66,61,127,3,50,12,55,119,-5,32,27,42,-57,30,63,15,23,-8,20,75,-11,61,6,14,-23,4,1,47,28,54,-11,-20,-17,67,-38,38,16,-16,-42,42,25,67,-46,-35,-73,88,-79,19,2,-16,-22,31,43,73,-6,-29,-50,86,-43,61,-62,38,-27,83,-36,16,-29,35,-91,14,-42,19,-56,39,-21,91,-3,29,-24,17,-77,40,-37,34,-58,50,-16,68,-52,11,21,47,-109,40,-11,28,-34,39,7,34,-35,9,46,32,-110,41,-17,-29,-21,18,58,36,-37,26,44,30,-82,61,3,-22,-25,6,51,46,-7,48,47,3,-16,46,4,-4,-18,-13,43,42,21,44,0,32,24,65,19,17,-21,-31,19,58,11,85,44,103,20,55,29,52,-44,-18,14,83,55,127,65,95,4,37,33,87,-68,8,72,37,23,53,-44,46,-70,56,20,68,-46,-21,63,28,5,52,-35,23,-45,48,36,78,-22,-41,-11,12,30,44,-16,28,-53,41,9,28,-14,-21,-31,9,33,32,-11,59,-45,-6,-30,5,-11,2,-19,3,64,10,31,56,-45,10,-61,25,6,12,19,20,42,1,2,54,-46,-3,-77,66,5,-4,-2,65,-1,19,39,44,-49,-4,-40,68,12,-7,-7,74,-40,46,22,60,-33,31,1,21,-15,-18,19,127,-27,33,-9,75,-24,92,9,11,-65,-12,-23,-4,18,32,-79,-9,67,74,-58,-16,-34,-15,-1,9,33,19,-62,-33,48,68,-69,-29,-22,-8,0,8,49,12,-28,-37,29,127,-75,-10,-37,5,-6,5,42,7,-22,-30,4,118,-94,-13,-40,8,-29,-11,41,7,-24,-4,23,97,-90,19,-21,7,-40,-16,39,20,-37,-7,8,72,-82,10,-7,-8,-49,-18,55,38,-44,1,-17,45,-68,-15,3,-14,-36,-6,76,39,-67,31,-24,68,-76,-18,-18,-4,-33,0,74,23,-70,41,-4,70,-94,1,7,-6,-16,6,60,27,-18,105,32,-26,8,-28,17,3,5,5,25,1,-11,95,-4,-21,-11,-15,6,20,9,17,4,4,-5,127,-7,-22,-8,1,-7,15,17,19,-30,41,-20,77,0,-2,-41,11,-11,-13,-7,26,-21,38,-11,39,-6,63,-64,-5,-13,-17,-1,19,15,34,-5,-13,-30,68,-47,-15,-6,9,2,-1,49,6,22,-47,-37,31,-28,-7,-6,14,10,-16,46,-16,46,-63,-36,20,-7,-15,-5,13,7,-4,32,-1,52,-52,-7,54,16,0,-54,-7,4,79,39,68,-25,29,-60,106,-30,23,-18,8,6,56,28,50,21,32,-100,99,-33,33,-40,14,-4,46,7,23,30,31,-102,97,-81,23,-27,25,-6,44,-10,24,38,27,-101,102,-55,29,-15,13,-13,29,-1,36,-36,36,-127,53,-46,24,-3,4,-24,59,-2,52,1,23,-91,37,-49,24,-15,-9,-20,39,14,34,2,-22,-19,43,-56,59,-26,-13,-15,42,4,21,-24,9,-35,40,-54,88,-37,-22,-11,68,36,56,4,76,-30,72,-71,126,-12,-11,7,65,14,60,66,124,16,35,17,33,5,3,-5,36,16,21,59,113,16,32,22,51,-7,4,8,14,23,-9,1,107,25,42,42,37,-18,2,13,6,15,-1,-27,99,-2,46,42,57,-10,-16,14,18,4,2,-40,103,-1,35,35,56,-10,-12,14,25,-18,11,-36,112,19,34,37,70,-8,-16,33,31,12,12,-64,105,41,6,-3,42,-8,-21,25,4,28,6,-13,125,19,-50,-13,8,2,-26,16,6,36,25,15,127,20,-41,-38,-49,-1,3,-31,-58,26,-14,53,-64,-45,87,-24,18,3,2,-23,-42,17,-16,17,-67,-4,93,-75,33,-13,-8,-20,-26,37,1,43,-33,-40,13,-59,31,-32,-46,-72,-8,33,2,36,-43,-31,-20,-72,12,-22,-10,-45,-4,-22,5,0,-26,-67,-49,-37,-5,6,59,53,38,-58,20,-47,64,19,-32,80,-42,-18,40,102,116,26,28,-59,127,3,-76,93,5,-6,-12,19,25,47,43,28,6,2,-66,56,19,-5,6,-10,-22,35,16,48,-43,-33,-62,-61,29,-27,-13,-3,41,58,43,-51,66,-20,-13,-28,31,-17,-11,-16,5,-5,35,-4,42,-18,-23,-34,29,-17,-12,-13,-2,2,30,58,30,-44,-14,-50,26,-9,1,5,3,-10,45,45,37,-11,4,-54,21,-17,18,4,-1,-3,12,48,40,-5,-8,-62,27,-14,6,12,23,44,38,14,27,-22,20,-33,40,-10,5,5,25,25,41,-26,10,-33,21,-20,19,2,-8,-1,17,65,24,-54,-2,-42,30,-3,19,-10,-10,27,17,127,25,-99,-7,-45,58,8,16,-15,40,-39,33,66,70,-80,107,-41,46,-44,40,14,-7,-7,1,-17,34,-76,127,-40,35,0,-35,2,-3,-6,16,-25,4,-47,112,-30,16,68,-51,2,33,30,43,-2,-25,-39,123,-11,-52,2,-40,13,50,11,45,20,-4,-20,100,1,47,-34,1,24,38,-19,45,58,20,-103,78,16,87,-18,65,11,-15,16,-13,17,62,-8,-19,-101,27,-26,20,-61,-47,69,-41,4,103,71,-56,-92,13,-33,-37,-51,-69,106,-57,-2,84,69,-24,-46,29,3,-27,3,-56,67,36,16,64,77,-20,23,4,64,11,-29,20,32,78,2,43,49,4,-11,26,88,34,-9,46,20,46,-43,42,-48,-18,-91,43,49,27,-40,51,-30,12,-33,63,-77,-22,-58,69,19,44,1,32,30,-13,-25,47,-88,-26,-52,19,-67,12,-6,5,43,38,27,57,-66,22,5,1,-105,-23,-21,-2,18,57,78,50,-20,45,-37,52,-115,17,-38,-45,-2,43,52,77,18,61,-49,127,-106,53,-84,-63,-48,-9,30,17,38,40,-20,125,-69,78,-33,-31,33,-2,37,119,15,54,-20,59,-38,101,-21,-2,40,11,51,65,20,62,-46,40,-11,50,-12,-6,11,19,44,26,22,32,-82,4,-12,86,-28,-13,-18,47,37,8,46,15,-86,-2,-6,94,-41,-24,-1,101,19,66,17,-20,-88,-11,14,98,-26,-26,28,88,-2,83,16,-30,-92,-18,17,72,-15,-11,28,46,41,60,39,0,-91,-71,2,-1,-8,-4,12,23,25,43,35,-9,-124,-107,-15,42,13,-16,6,39,55,60,50,-30,-127,-96,-27,69,-4,53,18,-6,90,50,-8,23,52,-54,-20,-24,0,45,4,-15,49,48,-8,12,70,-61,28,-19,-3,36,-9,-10,40,55,-4,9,100,-68,45,1,-5,35,-6,-2,29,55,-51,-3,119,-81,50,10,-8,26,-12,-7,39,61,-73,10,127,-70,37,7,-11,27,3,-17,30,73,-54,31,116,-42,34,9,-8,30,-16,-30,15,93,-89,13,107,-42,27,0,-13,22,0,-45,45,105,-106,-5,86,-31,28,-20,-17,25,9,-50,86,107,-99,2,102,-17,19,-23,-28,27,-2,104,21,3,-67,112,-53,30,-67,29,-24,12,8,81,25,-3,-48,108,-33,29,-98,92,-30,-3,-7,51,23,-1,-26,110,-24,25,-109,79,-35,-24,-21,18,61,33,-9,83,-16,-12,-127,70,-23,-4,-6,-10,72,18,3,92,-52,-28,-118,55,-26,-10,-2,-14,94,21,6,96,-64,-28,-108,64,-46,-8,-7,13,114,53,27,58,-82,7,-77,49,-56,-5,13,26,122,46,43,32,-106,20,-93,63,-65,9,59,40,117,29,30,-11,-79,45,-60,48,-98,20,-55,78,-8,41,11,120,-104,60,-34,63,-44,42,-46,12,10,29,6,66,-101,49,-23,50,-17,10,-30,29,52,-1,-10,81,-127,-26,-5,20,-2,17,-29,46,47,18,30,83,-89,-7,13,47,-16,43,-30,59,43,17,-15,64,-79,-8,-39,8,-19,41,-18,45,43,19,-6,84,-88,-21,-24,39,-35,35,-26,40,52,34,4,89,-29,42,-49,-3,-57,2,27,43,45,58,25,84,-46,60,-53,4,-89,-33,36,66,54,78,13,79,-94,38,-41,48,24,23,48,16,-46,89,-23,82,-42,94,-96,83,36,21,22,-15,-34,70,-48,92,-42,56,-99,71,27,22,17,-13,-10,59,-58,97,-18,68,-110,86,22,31,3,-1,5,56,-57,79,-12,70,-127,51,10,31,9,12,27,73,-48,32,-10,84,-116,64,3,22,-6,3,41,72,-19,30,20,75,-112,61,2,12,5,9,47,67,-41,46,11,73,-118,82,29,14,12,6,12,49,-81,49,-28,4,-93,64,34,12,29,27,12,47,-121,55,-34,-33,-107,56,-33,27,-14,67,-6,23,-15,11,-36,114,2,77,-4,42,-25,19,-17,25,-7,16,-46,67,-15,37,-14,25,-23,24,3,46,-1,36,-2,44,-18,28,-6,14,3,54,26,67,-54,40,2,40,-17,39,-26,-2,23,73,32,42,-117,36,-7,37,-20,31,-48,-24,59,114,79,66,-126,58,-4,59,-5,12,-62,-39,79,78,59,64,-117,24,-1,41,-15,-6,-10,-47,79,-24,28,95,-75,43,4,47,-40,-25,2,-58,103,-44,43,127,-4,42,-28,78,-38,-47,-11,40,26,-8,52,58,42,70,-5,79,3,81,-21,15,12,25,43,36,30,47,-19,65,5,37,-26,3,25,46,-2,19,1,-12,-57,27,-39,-10,3,-10,26,23,10,-15,2,8,-42,-34,-8,33,5,-49,7,41,-34,-9,-13,-7,-83,-29,24,60,-13,-58,29,39,-43,32,-6,-19,-105,23,19,68,-17,-39,51,3,-16,26,3,-24,-127,48,25,74,-28,21,71,-4,17,59,32,-25,-113,34,-1,98,-14,70,92,29,-22,63,60,-3,-79,2,-30,72,-46,-2,-31,81,99,92,18,127,-54,31,-5,8,-70,25,-52,111,45,124,-35,111,-78,66,-43,63,-87,41,-48,101,56,88,-7,44,-22,115,-108,86,-54,43,-18,90,28,38,34,-47,2,65,-104,66,-15,56,5,73,50,0,106,-6,1,72,-92,57,-28,61,29,32,34,-1,110,8,-1,39,-54,85,-24,42,13,-3,-16,43,55,26,14,-47,-22,102,-10,-9,27,-29,-35,69,-4,-16,-43,-59,41,90,0,-28,36,-24,-10,43,-81,-28,-70,5,66,16,-33,19,46,43,40,102,-58,16,-70,-19,-37,-4,-25,11,16,66,67,79,-53,16,-67,-9,-35,20,-22,15,-7,41,49,85,-56,7,-77,33,-12,39,-19,11,-40,10,60,89,-54,62,-89,87,-17,29,-23,-3,-41,-2,47,85,-73,43,-127,105,4,13,-30,-5,-27,-6,45,97,-66,33,-105,98,28,21,-29,-5,-13,-10,17,81,-75,15,-99,104,7,-3,-13,-10,-6,-5,-19,61,-47,27,-78,71,15,3,-11,-8,-24,-4,-28,67,2,31,-56,85,30,16,-59,-7,25,-19,12,77,-30,46,-73,-29,77,111,-44,-32,41,-22,48,116,-73,-2,-95,5,104,79,-11,-33,53,-28,65,120,-76,-28,-92,-15,57,16,9,-10,70,-25,52,125,-69,-3,-39,-27,24,13,12,3,63,-24,94,68,-57,2,7,-19,-17,32,10,30,57,-10,72,78,-53,-4,-20,-4,-18,51,5,9,-7,-5,14,110,-43,12,-10,8,-23,46,14,-27,-33,32,-12,127,2,34,-44,48,-36,34,15,-27,-21,40,13,127,0,70,-67,60,-17,23,-127,-85,35,13,46,29,-38,-13,41,7,23,-68,-103,-47,-7,17,29,50,5,-37,37,26,44,6,-75,1,-14,22,13,59,44,-39,25,69,41,20,-29,43,13,31,-22,45,90,-26,17,27,-18,5,-29,61,19,15,-13,27,116,-17,31,23,-24,55,-19,32,28,22,7,32,106,41,42,17,-3,85,15,-27,0,2,-20,39,97,45,-45,6,-20,85,4,-63,-21,9,-29,24,92,63,-81,-20,-36,69,21,-86,-19,-9,-50,50,22,77,-73,-45,-45,82,-3,31,-25,16,52,39,-76,-13,27,69,1,26,14,20,-1,39,-4,32,-62,-29,21,77,-7,-7,18,3,-21,61,-29,23,-42,47,34,79,-8,0,12,0,-9,45,-43,31,-45,38,39,75,-29,-17,11,-6,-4,31,-14,5,-43,57,40,92,-12,-13,1,-16,15,15,39,11,-62,34,0,81,17,-15,-10,-9,21,-43,29,25,27,-1,-52,5,10,-35,-14,-10,34,-63,42,9,77,-23,-90,13,50,-11,-30,-8,30,-35,90,19,127,73,-76,18,27,1,-92,23,-9,78,8,37,-92,38,-81,33,-34,77,-14,35,14,35,19,30,-104,-16,-38,22,-36,59,27,15,-2,-5,23,24,-99,27,-26,10,-19,9,23,10,77,21,-8,37,-76,81,1,18,12,8,-46,21,127,35,24,31,-17,108,15,30,31,-46,-92,-10,119,62,101,12,-41,95,-8,40,25,-82,-7,-54,53,43,42,-2,-74,32,-26,45,36,-21,33,-42,-9,15,-22,69,-110,6,-7,61,7,-29,-14,-48,-15,61,-38,67,-43,73,-16,11,-29,26,-12,-14,3,50,55,64,54,-20,-106,0,-7,32,-11,-26,-20,12,107,40,88,-47,-124,37,21,53,-12,-19,-10,-16,127,53,102,-29,-116,17,-5,14,-5,-6,8,4,92,68,91,13,-48,18,-8,4,-19,-12,7,2,70,83,66,77,-58,18,-24,-3,-37,11,-16,39,38,113,-5,88,-76,-27,-84,24,-54,22,-38,72,32,124,-70,80,-40,-15,-80,52,-32,21,-25,58,20,98,-64,102,11,47,-84,36,-30,16,46,44,25,88,-35,93,-13,46,-95,11,-14,17,-12,18,35,15,-99,-3,-4,90,19,104,17,-19,7,39,-32,29,-90,-1,-38,78,-4,54,8,-42,-10,49,-2,56,-54,60,-21,43,21,-21,0,-11,-16,33,-19,42,-32,65,-16,41,9,-19,0,-19,5,11,-12,32,-1,76,-5,80,10,-35,-4,-15,43,0,33,37,-58,88,-35,31,38,-32,-6,11,58,-53,32,50,-35,74,-67,20,34,-53,-15,16,80,-69,8,78,11,36,-82,35,14,-51,-31,12,58,-62,14,102,69,127,-63,19,27,-24,-114,-13,-60,32,-3,44,8,65,6,-125,113,-89,-70,-23,-89,68,46,96,36,30,40,-95,46,-106,-5,-46,-68,40,22,33,91,9,-25,-53,75,-106,5,-78,-58,4,36,49,79,-11,-37,-41,-6,-100,-10,-26,-23,-1,9,69,-20,-34,-43,-41,-71,-67,0,74,36,-2,-41,45,-95,12,-51,-14,24,14,9,107,106,2,-30,29,-89,45,-127,-13,29,20,44,69,111,-9,-64,-2,-111,48,-97,-47,-23,50,41,-45,96,-9,-77,-15,-80,12,-55,-71,-37,61,-8,37,3,57,-3,-19,-98,-5,4,64,-44,-9,-21,42,15,31,16,-28,-106,9,32,89,-45,-19,-19,21,27,14,10,-34,-101,0,6,78,-67,-46,-5,2,49,-5,21,-32,-96,15,28,77,-72,-45,9,-8,61,-13,17,-13,-127,-14,35,108,-81,-31,3,-23,42,-10,4,4,-108,-16,39,118,-82,-55,8,-25,51,9,8,-5,-85,-10,52,106,-84,-78,1,-29,32,34,1,-1,-80,0,55,57,-47,-76,18,-15,41,65,-11,-25,-118,-3,41,53,-55,-85,-21,92,-35,-17,56,44,43,38,46,-9,-127,-6,-4,84,-3,-31,14,36,30,19,29,-1,-111,19,-5,82,-4,-38,32,44,20,25,40,12,-81,49,-1,72,-9,-38,31,72,-31,11,40,5,-60,58,11,60,-3,-42,39,62,-38,24,24,14,-64,50,21,35,10,-42,48,83,-17,10,3,40,-63,42,28,34,0,-49,33,77,-18,-6,-8,21,-72,23,28,13,1,-45,62,84,-42,-13,-11,32,-95,29,18,25,0,-64,119,95,-54,8,-29,32,-88,9,16,7,19,25,-70,33,-20,-10,-5,-54,99,12,11,16,54,36,-35,21,-25,2,-6,-36,77,9,2,0,28,30,-12,36,-8,1,-7,-46,61,8,-11,-16,23,24,-5,28,13,-6,-27,-41,18,10,5,-10,31,18,-12,27,0,1,-21,-59,21,40,6,7,16,15,-7,34,-15,18,-6,-58,33,48,2,8,12,37,13,13,-9,17,-31,-61,69,40,6,18,25,43,8,2,16,-15,-82,-56,119,46,11,5,42,22,-9,9,11,-51,-120,-62,127,37,-40,0,-72,-9,-25,103,-104,-3,-63,3,-6,21,-41,8,-55,-23,-14,121,-63,32,-73,-16,-28,31,-33,22,-39,-12,-21,127,-68,44,-72,-23,-22,26,-30,18,-29,-1,-25,120,-20,51,-78,-37,-28,13,-17,5,-23,0,-16,92,1,27,-67,-28,-11,-26,11,-8,-8,19,-5,58,5,51,-16,24,7,-31,10,-1,1,30,16,49,35,77,57,101,26,2,-1,-13,-11,22,22,54,63,78,55,73,43,9,-10,-18,-26,35,-13,70,93,36,40,26,73,33,-107,-51,44,32,-21,21,-4,123,-112,76,14,37,-28,5,6,26,-41,30,43,100,-53,57,-8,11,-19,16,-9,58,-27,27,9,84,-73,20,-1,11,-35,24,-25,78,-3,38,28,54,-46,17,-25,51,-12,48,-23,50,18,28,79,77,-84,18,25,-1,3,36,4,28,35,58,11,49,-127,-5,-10,4,-7,-15,41,10,29,96,18,55,-79,21,-31,30,-4,-50,46,38,48,88,-63,40,-73,32,-37,19,-88,-9,61,39,73,75,-119,99,-92,109,-41,-33,-26,18,40,39,15,-9,-12,32,-15,49,50,46,-18,11,47,22,27,7,9,36,-7,36,19,29,-28,-17,41,26,46,26,31,49,-5,49,-10,24,-36,-30,25,37,43,18,6,40,-2,45,-29,36,-37,-11,-8,30,59,22,5,47,-18,25,-22,42,-50,-7,-19,30,64,40,-9,59,-27,41,-38,73,-30,9,-2,18,47,55,-26,26,-23,44,-23,112,-34,-1,11,8,34,52,-42,-4,-27,47,-4,127,-28,-8,27,23,-2,31,-24,0,-46,74,20,112,-39,53,48,60,-7,35,21,-17,-46,95,-28,-8,-61,35,44,54,8,71,73,19,-42,65,4,-48,-32,11,58,61,-34,46,41,-9,-25,17,37,-42,-9,-12,49,27,-32,18,-7,-40,-32,10,24,-59,-20,-14,52,31,1,41,-37,13,-6,72,-16,-41,-14,17,35,30,10,41,9,31,-14,104,32,-26,-7,26,12,12,14,6,25,65,-66,127,21,-11,7,19,-7,0,-12,8,11,11,-110,108,-45,8,21,26,10,39,-37,-10,-11,-19,-92,82,-64,2,-86,-58,16,49,73,122,78,-2,-98,-66,-71,72,-46,-2,33,87,45,49,66,-2,-63,-76,-30,38,-45,38,44,119,18,1,49,-1,-56,-101,-55,0,-27,79,65,98,25,20,18,-34,-25,-48,-85,10,-15,32,41,40,12,35,-31,-37,-11,-56,-82,11,-10,8,-8,29,60,74,-35,-43,-16,-85,-127,-26,2,6,-39,39,76,70,-34,-23,-29,-117,-81,-45,-36,-36,-66,42,10,64,-9,-17,-53,-111,-11,20,-33,-88,-63,92,15,76,27,-32,-105,-105,10,20,-13,-28,40,88,49,70,-16,85,5,-3,69,-61,-3,-13,8,75,71,59,30,49,5,-15,-23,-55,-21,7,14,18,11,78,21,37,-36,-13,-39,-50,-30,21,1,9,-2,127,3,49,-8,69,-55,-78,-24,19,-4,0,7,116,-35,57,10,58,25,-49,-57,-23,-9,42,6,59,-31,59,45,38,-39,-52,-22,-45,-33,53,-15,43,-44,22,10,-28,-66,-94,-31,-68,-11,42,-39,74,-28,-5,-19,7,-99,-99,-48,-71,27,16,-20,80,-30,33,8,34,-77,-119,-7,-29,34,59,31,62,-61,50,-15,-6,33,110,7,-36,-6,25,2,79,-27,11,-45,14,34,69,9,-15,-32,30,11,50,14,-14,-73,-16,-14,19,6,24,-36,30,-8,13,7,-9,-88,0,-32,35,-3,68,-54,13,37,-26,25,12,-81,3,-45,47,-22,37,-38,-16,72,11,-5,13,-13,-27,19,65,-51,-24,23,-47,53,90,-59,-35,-4,-88,61,66,-21,-79,47,-15,25,127,-70,-39,0,-54,74,58,-15,-45,10,-1,37,101,-122,-39,-8,-56,17,19,0,27,34,50,16,18,-48,-40,17,127,-46,8,-4,26,21,4,20,13,-55,-33,26,107,-39,-5,-1,11,27,-8,21,5,-56,-25,7,91,-53,-4,0,6,37,20,25,5,-53,-12,-4,59,-44,6,-3,6,23,24,20,14,-51,-4,4,55,-39,16,0,-1,10,32,15,5,-40,-16,-7,70,-37,-3,-9,4,18,43,9,17,-19,-25,-10,83,-20,-11,-9,8,5,47,-17,9,-32,-21,-6,79,10,-7,-3,14,0,46,-42,-14,-84,-39,-12,86,11,-20,-50,-3,52,-49,2,27,-28,-9,-58,-17,-3,13,-46,-2,35,-33,12,37,-22,13,-26,-24,-29,60,-64,4,26,-2,-8,56,-28,32,-95,0,-66,54,-55,37,-6,16,4,27,-2,19,-127,44,-83,12,-11,49,3,35,-1,16,-24,36,-109,51,-64,-72,-9,23,-3,32,15,28,-18,64,-42,65,33,-45,-20,-23,-8,46,48,38,-2,14,-10,71,52,17,-34,-22,-2,38,39,87,-10,4,-18,39,38,25,-31,-14,22,22,-9,79,-9,14,-14,63,14,66,43,59,-20,-27,-101,-3,-52,9,-73,66,-127,72,2,42,81,26,13,61,7,22,2,61,-116,-18,-50,-10,70,78,99,32,71,55,35,9,-13,29,-29,-28,-16,87,55,19,80,-34,27,-19,41,-60,-5,-59,-16,59,-23,87,52,-6,-42,19,-48,-43,21,-18,-8,2,-31,84,-8,-36,-16,46,-70,-18,0,35,13,-40,-5,67,-42,49,41,51,-69,57,-10,57,-18,-40,39,12,-18,81,-31,64,-58,71,-17,42,-17,18,38,-23,-25,83,-99,40,-101,70,-46,0,4,43,-6,39,4,55,37,37,-9,60,-26,5,0,14,1,20,7,45,-1,17,-2,49,-35,8,12,21,2,-5,22,35,-2,10,17,17,-11,1,26,8,17,10,22,10,-7,11,19,8,-12,-5,12,16,-18,10,-12,26,-3,9,1,-3,-13,7,14,10,-48,28,2,30,-10,44,7,-13,-17,-2,5,28,-5,30,-20,54,1,67,-28,3,-17,-4,0,29,23,50,5,99,-3,47,-33,39,-26,13,-9,15,32,69,47,127,-3,22,-39,13,-45,48,45,54,-6,7,102,5,-2,-122,-107,79,-75,46,14,119,-8,14,96,56,45,-92,-87,53,-50,55,45,109,-33,16,54,62,62,-89,-62,-14,-1,47,13,61,-28,14,12,43,50,-42,-24,30,5,2,-11,14,-36,19,-1,55,-24,-34,-83,55,-17,10,17,18,-27,5,-17,-41,-67,20,-96,60,-42,-27,63,13,21,32,-29,-40,-76,127,-55,36,-48,-61,10,11,13,55,12,-58,-81,111,-37,57,-39,-75,15,43,-15,9,52,-73,-89,45,-59,22,22,5,-2,45,32,50,57,26,-42,-12,48,-31,-6,30,-17,65,16,57,31,27,-50,-17,71,16,-38,32,-2,56,-55,21,-66,-4,-127,2,82,43,-26,39,25,31,-14,24,-60,22,-120,37,60,30,-11,0,79,11,11,35,-42,-10,-68,36,18,-24,-22,-18,72,-1,35,3,-36,-43,-64,10,-35,-19,-70,-31,24,-26,49,1,-7,-12,-49,15,-47,42,-77,-35,-28,-35,60,10,33,27,-5,24,-69,63,-48,-43,-20,-9,53,-17,32,32,21,43,-65,87,18,50,-27,86,-33,42,-78,-12,-16,94,70,89,56,-62,-77,74,-13,60,-85,-15,-90,-24,61,59,61,-71,-58,91,-10,86,-90,-13,-80,-47,53,75,23,4,-24,113,35,105,-41,14,-65,30,34,34,-8,15,34,48,24,127,54,22,-16,56,-3,10,-30,33,41,-8,52,98,68,16,9,82,-10,10,-42,43,21,-27,77,83,56,45,-5,62,-22,63,-11,47,32,-25,25,35,-2,-26,-37,56,-40,48,-22,59,44,38,37,-18,19,31,-42,106,-15,4,30,29,97,50,-2,53,10,-2,59,22,34,2,30,9,76,64,25,59,31,-16,69,21,39,22,31,-5,51,59,37,46,38,-29,86,7,18,14,28,6,45,61,45,15,42,-35,82,-1,-6,8,28,8,43,76,46,21,27,-38,89,-6,8,15,14,6,17,78,60,33,23,-30,127,-11,7,39,17,-15,19,72,65,36,2,-32,87,-27,38,35,32,-5,29,47,33,33,-26,-36,48,-38,56,15,48,-5,46,32,0,13,-39,-62,-2,-35,67,-20,-69,3,17,79,-3,33,-56,75,1,100,71,97,-20,-2,7,88,17,37,20,70,-25,61,62,70,-27,15,26,52,-9,16,20,65,-56,10,27,32,-18,17,38,28,31,30,49,39,-32,33,41,-18,-11,-20,16,27,1,16,24,93,-16,50,18,-21,-4,-20,10,28,-11,32,-1,31,-13,83,27,-36,-2,-18,7,35,1,36,-12,35,28,114,4,-17,-18,3,-24,1,11,57,-9,61,17,108,-64,-36,-41,20,-26,-2,54,63,27,127,-38,65,-127,-12,-22,-22,76,-68,65,94,-44,-27,-65,-67,81,63,-10,-22,86,-45,28,60,23,-35,-96,-33,90,23,-1,-9,34,-40,1,-13,54,-14,-46,-18,56,-46,8,5,-2,1,10,27,2,2,39,1,-24,-11,-10,9,-31,44,37,73,-30,7,-31,-32,-36,33,-10,1,-12,39,29,69,-29,39,-55,34,-5,14,-4,-29,-13,25,-34,64,-27,58,4,59,-14,-23,4,-26,-5,51,-58,69,-32,89,-14,84,-13,-33,-9,26,4,53,-37,61,-34,127,13,99,-73,-60,-47,12,-13,90,-36,77,-64,29,-42,38,-10,47,-28,12,-4,46,-15,71,-53,21,-28,54,3,61,-38,8,14,28,8,52,5,35,-11,28,24,30,-27,-1,23,16,47,60,43,57,-41,6,1,-7,-15,22,17,6,78,33,64,95,-77,0,-30,-10,-7,10,0,45,77,36,15,127,-88,-31,-43,39,-9,-10,-21,69,48,60,28,104,-90,-33,-21,29,-2,-12,-11,84,13,39,23,82,-94,30,-12,46,-19,-22,-2,94,-41,17,0,92,-92,74,35,45,-16,-7,18,21,-9,47,-35,16,-50,111,-81,15,-12,-25,32,3,25,81,-25,52,-61,99,-61,-1,-18,-34,51,-18,47,77,-20,108,-42,94,-55,-3,-42,-18,108,-13,66,68,-44,124,-11,69,-27,-4,-40,-9,120,-16,67,69,-28,92,-15,-2,-31,7,-26,-18,110,-21,56,89,-44,53,-8,28,-18,3,-11,-43,79,-36,15,124,-13,66,14,27,-13,26,5,-25,48,-15,-13,115,-18,89,8,18,-40,20,16,-21,35,18,-19,127,5,109,15,28,-43,20,-24,78,7,4,64,78,-5,-24,-43,14,-8,69,11,79,3,-43,66,60,31,34,-79,-18,-3,44,16,27,-4,-43,56,44,24,81,-26,7,0,13,-7,-70,4,54,76,38,-15,90,-51,30,24,20,-19,-92,18,122,69,34,-19,108,-14,24,7,36,-11,-74,34,120,31,48,-19,101,0,10,-1,38,0,-40,14,127,18,10,21,61,-23,6,-10,13,1,-13,19,62,50,-39,-6,46,-50,15,3,4,-3,3,0,-82,73,-82,-38,74,-62,11,35,-25,-29,49,18,16,-10,46,29,80,-20,27,95,-8,-6,44,41,27,12,31,3,88,-23,11,55,-15,21,25,53,26,3,57,39,35,-5,-11,23,-42,13,12,-1,13,45,63,63,-10,46,-13,-17,-10,-11,-13,-40,-4,75,121,67,-7,57,-23,-26,15,-50,-36,-51,-35,70,127,32,-22,30,-15,-50,30,-65,-39,-48,-33,65,100,44,23,10,-12,-56,-45,-56,-27,-16,2,44,6,36,80,-11,-45,-79,-75,-20,4,14,1,4,-49,-13,78,-62,13,-59,-51,-10,-29,21,3,3,37,-127,11,-4,69,38,7,2,-23,1,18,-12,55,-106,4,0,91,61,-9,4,-8,4,18,12,58,-64,3,-13,70,19,-8,-2,8,26,11,23,44,-30,15,-17,68,2,17,-3,20,41,-2,16,24,-4,5,-32,84,-7,11,-4,23,39,-17,-3,6,-19,25,-24,83,-17,11,6,12,-27,-39,-33,22,-3,42,-43,28,-10,1,-5,-14,-39,-21,-38,61,-32,30,-42,30,-9,-4,-14,-11,-41,-13,-29,36,-40,47,-17,39,-4,-15,-49,45,-3,121,6,92,15,37,-119,19,-69,117,-22,9,20,126,48,43,10,35,-100,60,3,-20,-5,-6,50,86,30,28,-26,24,-75,7,22,-33,-13,-12,57,29,59,22,14,40,-64,5,-29,-60,-52,-19,95,0,45,102,36,57,-31,53,-65,-49,-41,-10,80,27,33,106,53,11,-70,46,6,4,-15,24,67,29,50,52,69,78,-85,-1,-11,28,-17,46,29,12,24,31,92,106,-108,-61,-37,29,-8,52,-1,39,2,4,39,70,-127,-46,-52,38,-46,-23,57,85,27,100,-44,-10,-84,127,-11,76,-27,-44,52,52,32,97,-72,7,-71,80,-37,41,-5,-32,62,-18,30,60,-54,50,-85,38,-44,-46,-7,1,71,-51,27,50,-26,94,-48,0,-17,-63,7,14,69,-54,28,40,-15,74,-31,-39,-34,-59,0,22,71,-31,45,38,-26,38,-13,-36,-36,-67,-15,4,20,-9,44,53,-11,32,-25,-31,2,-2,-25,-20,-36,24,-11,35,30,65,0,32,4,4,-35,-21,-17,49,-40,-9,63,80,7,20,5,21,0,-11,13,25,-39,9,-53,67,-11,99,66,21,5,-44,1,32,-62,20,-43,71,-33,47,30,-21,-2,-41,-1,17,-59,23,-48,59,-15,35,3,-45,10,-11,20,18,-49,7,-38,35,-30,40,-21,-19,9,-1,17,3,-12,-28,-8,63,-50,47,-21,0,-8,17,59,-13,21,-31,-10,79,-65,41,-6,29,-36,52,101,-48,21,-8,21,69,-76,15,67,25,-34,28,91,-61,17,17,12,58,-77,10,116,21,-21,9,44,-28,61,47,-21,127,-98,35,78,49,-19,-4,7,34,-3,78,-38,77,-42,-33,-1,2,-4,-23,16,53,26,67,-24,19,-17,-1,-15,31,-3,-32,15,66,31,38,53,22,-32,16,-12,-3,-5,-45,-5,49,18,42,107,44,-40,3,2,-18,0,-32,-10,66,-12,47,127,49,-44,14,30,-25,-28,5,-29,88,8,51,82,73,-49,-20,8,-23,-55,27,-32,86,25,77,16,27,-27,-2,28,-5,-68,30,-14,61,80,48,-49,5,-54,56,17,68,-39,7,4,29,99,33,-67,-37,-53,62,-5,63,-35,-8,29,41,44,67,7,62,44,127,-8,-28,-12,-10,10,36,45,44,-2,24,32,73,-6,-47,-5,-1,11,19,8,33,-37,29,41,8,-13,-33,5,1,24,30,26,44,-14,30,19,52,-6,12,3,6,10,33,24,65,-19,24,-10,66,-6,26,-8,12,-13,2,27,28,-24,32,-32,77,-15,36,-28,20,-37,-9,40,39,1,64,-13,64,-40,58,-28,25,-43,-5,64,66,42,51,-29,72,-26,49,-32,21,-54,26,75,69,22,80,-40,77,-47,27,-10,33,-59,-20,-41,79,-40,11,-37,47,28,6,-26,27,-50,-35,-27,107,-36,18,-23,13,-8,12,-36,30,-38,-26,-18,127,-45,5,-19,-9,7,8,-27,21,-26,-15,-6,119,-8,17,-59,-23,-14,-12,-19,-1,-19,-2,-16,102,-1,23,-52,-18,-5,-36,-2,-14,-1,1,-12,52,12,35,-22,6,-5,-22,7,-9,21,21,-3,26,39,40,22,107,6,14,-7,-15,25,31,6,34,72,73,48,119,30,17,-10,-23,6,42,-18,58,90,54,58,91,45,36,5,17,16,-16,33,-15,-54,-69,-25,-32,-11,-5,6,13,29,-19,35,-19,-33,-56,-60,-40,25,6,5,9,46,-14,37,-6,20,-29,-33,-16,14,39,2,0,46,20,15,13,24,1,-3,-3,14,46,-3,-19,25,30,-8,35,32,28,9,-1,13,34,1,-22,1,38,-34,39,24,71,10,-4,-5,15,2,-14,-19,49,-41,61,18,87,5,9,0,-2,-3,0,-8,48,-37,58,16,127,7,16,-24,-10,8,15,-4,19,-34,38,13,83,11,3,-58,-6,-32,17,73,48,23,52,-79,40,-55,-50,-105,108,-21,1,50,114,39,44,-39,51,-20,-3,-49,64,-17,14,56,121,28,22,-23,39,-52,-60,-11,13,-25,18,8,33,1,36,56,36,-43,-69,-43,-15,-36,18,-10,18,-38,61,69,31,-6,-27,-127,8,-42,7,-6,6,-52,74,73,78,-25,-25,-47,10,-16,-26,14,35,40,82,65,100,-2,-1,22,-15,-16,-46,13,41,60,78,79,110,-5,-28,33,-15,-20,-46,6,50,89,94,65,115,-25,-79,-22,-60,-7,10,25,-50,61,18,-20,-109,-72,-45,43,22,0,-5,71,-30,70,-9,5,-111,-89,-14,46,-5,13,-7,119,-6,82,-10,36,-63,-62,40,16,-19,18,-6,127,33,28,29,-3,-35,-47,46,-7,20,14,-4,127,75,4,50,-23,55,-2,55,-27,12,16,2,73,85,-60,65,-72,67,-2,91,-34,-7,27,-4,-45,54,-94,108,-62,93,4,66,-7,-19,16,-10,-33,51,-88,112,-60,103,5,70,-12,-27,27,25,-6,5,-72,67,-6,109,20,41,-98,-26,16,-9,3,7,-40,4,-110,127,-21,23,23,-32,-13,-15,29,-14,-25,33,-110,91,14,8,21,-40,-49,-26,23,-3,0,26,-39,104,4,20,7,-42,-36,-20,14,25,19,10,12,119,6,-6,-20,-71,-22,-4,-2,52,48,21,9,81,-2,1,-41,-49,-14,12,-31,75,72,-1,-3,37,10,37,-29,-1,-1,5,-38,53,29,17,19,-2,7,37,-17,24,-3,-9,-37,8,-3,34,35,-48,-22,57,8,38,2,-50,-28,-17,-35,39,27,-6,-32,73,52,73,-10,44,-55,40,-21,54,-25,7,-81,127,-115,-5,-10,53,29,22,-30,12,-42,28,-48,61,-32,1,-20,14,89,67,7,60,31,105,7,70,25,-19,-39,-54,69,44,61,71,59,54,26,19,47,-31,-67,-40,37,17,38,86,46,25,13,12,9,-20,-65,-10,26,35,-5,70,56,24,-19,29,-54,-38,-15,32,18,29,8,39,7,66,-36,85,-60,-46,19,43,-10,6,15,25,-25,64,-67,76,-38,-12,30,32,-25,-12,24,1,-11,53,-66,27,-101,-7,16,11,11,26,-7,-31,-44,-20,-1,14,-21,-7,-3,-13,-20,5,-12,-3,-25,33,-5,22,-38,12,-3,-13,-22,-32,-34,44,-59,-11,-36,3,-15,44,24,9,-11,-63,-29,28,-64,-16,14,40,4,2,13,33,58,43,1,2,22,26,-18,-3,27,-40,-64,11,16,127,82,34,70,57,38,19,51,-23,0,13,-6,33,36,29,39,-36,-24,-25,25,-23,13,1,5,18,-21,41,-52,-29,-51,-13,-54,-22,12,6,15,39,-23,38,-60,18,-38,7,-80,-57,-37,12,13,39,33,16,-42,17,-60,127,-15,60,-2,35,-6,39,24,2,-62,3,-47,92,-6,25,-28,23,-46,32,8,12,-19,17,22,37,-11,-17,-8,16,-36,0,33,31,-20,42,52,14,-29,11,10,20,-3,36,49,-1,-82,81,22,30,-13,41,-34,-22,50,61,41,23,-83,80,17,38,-25,15,-80,-26,108,72,36,58,-75,68,16,41,-27,6,-33,-52,99,8,10,41,-115,18,13,51,-22,1,-10,-50,93,10,46,79,-54,21,5,54,-36,-20,-84,4,-59,36,-8,92,20,55,-35,-17,42,56,-57,52,-80,38,-9,85,-25,71,-12,22,17,41,-54,57,-87,21,-13,62,-54,53,51,-1,-33,53,-41,28,-24,4,-38,75,-67,-47,65,-24,-65,66,-24,33,-4,32,-20,67,29,-32,65,4,-87,72,-17,34,61,55,-26,100,98,-42,24,-28,-116,81,-24,36,36,53,-74,127,117,-50,68,-57,-88,83,-46,56,20,56,-71,114,118,-28,91,-36,-56,92,-38,75,13,46,-74,103,41,-39,62,-64,-47,39,1,37,31,27,-95,62,-37,-52,-19,-47,127,77,-20,25,44,28,-59,70,-39,-17,6,-21,98,66,-12,8,46,21,-48,67,6,-16,8,-11,81,34,-1,18,40,17,-39,55,-6,-21,17,6,65,11,11,11,51,21,-25,45,-1,-47,38,10,67,17,-7,0,51,12,4,34,21,-72,58,12,36,58,-28,-13,30,7,22,32,58,-64,32,27,32,77,-13,-7,39,9,2,21,39,-78,-30,27,55,98,-14,5,9,13,-44,11,-8,-103,-69,8,78,126,-33,5,-8,-37,-24,90,-32,-31,-68,54,-1,-24,-51,-10,-15,-48,43,83,-78,-23,-107,20,-57,48,-41,-15,-3,-9,88,60,-52,-18,-127,-33,-89,51,-45,-12,-2,11,64,25,-16,-43,-111,-24,-98,-11,-32,14,14,60,43,25,9,-25,-92,-48,-86,-21,-5,48,46,46,-16,-11,30,73,-23,2,-21,-37,0,43,52,66,7,1,73,116,80,65,15,-25,-11,18,28,72,42,35,56,90,87,70,-15,19,-7,30,-32,11,45,82,11,14,35,25,-5,10,-27,46,73,-42,-34,4,-50,15,-88,-28,127,-48,-15,34,93,0,-9,36,-35,13,-32,-48,53,-36,-20,15,99,27,33,69,1,2,-44,-42,113,-67,-30,2,49,13,72,41,29,-31,-38,-20,78,-71,-43,-39,-25,7,68,22,59,-20,-31,-48,2,-73,-57,-16,-77,20,81,19,66,47,-16,-51,-81,-34,-66,-17,-59,20,72,7,79,96,-3,-46,-36,-36,-3,-10,-14,40,52,34,44,51,-19,-11,15,-34,16,-20,17,61,29,34,8,21,-25,-46,11,-61,-56,-11,-59,27,-17,98,-7,36,-28,107,27,71,-22,3,-39,0,-3,75,1,65,-33,21,-11,51,-16,36,-31,-8,-6,64,-35,44,-61,-16,-14,31,-19,39,-34,-5,-27,78,-27,70,-65,15,-33,8,-22,10,-38,15,-28,100,-20,38,-52,22,-24,-7,-6,14,-38,25,-9,85,-5,17,-46,25,-7,2,-9,-7,-35,10,17,99,17,5,-12,64,7,-6,-7,-18,-25,25,20,107,53,32,-29,0,29,1,-14,-28,-52,62,-5,127,92,34,-43,-28,35,11,-15,-21,-35,54,-22,15,-93,-14,-1,20,-3,43,1,-10,-19,28,-20,27,-80,-38,-24,45,-7,2,6,0,3,-9,-7,27,-39,-40,-53,88,-21,-11,-3,-4,40,-28,11,18,17,-13,-54,127,-17,16,-8,1,41,-27,3,28,62,-12,-41,103,-36,26,-13,8,59,-27,-1,63,42,14,-56,64,-63,28,-9,8,21,1,4,90,-14,47,-59,34,-61,0,-5,5,-18,16,3,89,-49,93,-9,20,-83,12,-16,14,-12,23,26,71,-59,92,27,-20,-51,42,-28,-16,0,17,12,10,64,-44,-89,13,-44,-8,-14,-13,13,16,53,-15,85,-50,-114,53,-45,-22,-9,-3,20,-11,50,-8,66,-46,-89,81,-69,-32,4,5,15,6,58,41,43,-17,-55,83,-56,-7,0,10,-9,25,40,79,8,18,-54,48,-67,24,-21,14,-16,33,15,105,-62,13,-64,35,-59,34,-14,13,-25,18,13,127,-100,44,-29,21,-45,28,7,14,-18,-17,43,121,-118,67,3,32,-59,9,3,12,17,-27,50,114,-97,37,-4,60,-97,-16,-16,31,49,77,-8,45,-32,23,3,-91,-14,65,-14,16,34,96,34,36,-34,41,21,-53,5,70,0,-5,38,94,64,46,-39,33,2,-76,-6,-4,-6,-20,14,69,33,53,-6,41,-18,-65,-96,-24,-16,-29,17,56,0,83,-10,30,-22,-44,-103,-3,-44,-27,28,45,-4,127,0,21,-19,-18,-51,-6,-21,-10,45,42,29,74,-15,34,-27,-57,1,-41,-12,10,45,43,33,65,43,79,-10,-98,18,-43,-9,26,29,68,25,38,41,24,-43,-90,19,-47,12,-15,-10,54,66,86,17,36,-26,47,8,-47,-10,55,5,20,-46,94,-88,3,-17,31,-62,-10,-47,91,-26,25,-53,101,-62,-2,38,-3,-48,8,-76,34,-1,35,-52,87,-25,-46,30,-11,-40,-13,-33,-37,-11,44,62,6,52,-24,-58,41,-8,-34,11,-23,47,19,108,2,81,-46,-127,25,-29,-51,4,10,58,12,53,4,122,-50,-100,-11,-68,-33,-16,12,7,50,13,38,71,-31,-44,-4,-37,-20,-36,11,18,91,50,73,21,-31,-35,40,14,-9,-56,41,-5,102,68,102,-91,72,-92,111,33,6,-10,34,-15,74,38,58,-66,15,-100,45,7,-78,-23,25,5,100,49,61,-56,-3,-81,116,12,-74,-14,8,-24,71,23,39,-39,10,-127,55,27,-89,-24,-17,-11,90,17,56,-35,-9,-114,59,-8,-34,-17,-35,-3,63,30,51,17,15,-120,78,-5,-62,-23,-36,1,40,26,51,-31,2,-81,91,-22,-11,-17,-32,-15,7,43,41,-36,-6,-39,77,-61,-13,-40,-60,-48,38,88,80,-92,27,-29,119,-74,39,-41,-4,35,-10,39,64,32,54,-75,-69,-127,-33,-21,20,82,25,40,34,42,81,-38,-53,-110,17,-32,41,81,83,19,15,46,105,-26,-59,-69,23,-2,38,41,65,13,9,6,65,-40,-24,-12,25,16,26,9,33,-14,46,3,17,-13,-30,-51,15,8,0,-16,24,4,81,54,20,34,-17,-86,12,-18,-16,-42,4,22,96,-2,12,22,15,-46,33,-50,-44,-36,11,53,122,-1,23,-18,9,-26,45,-38,-42,-2,40,52,79,23,13,-76,-29,-80,-3,-26,18,-28,54,2,112,-37,100,14,23,-40,68,-6,7,-25,36,-17,117,10,83,1,36,-37,89,-4,-3,-17,48,-16,94,51,57,-38,43,-67,47,-11,5,-5,46,-21,80,44,61,-42,37,-57,23,-5,12,-13,37,-12,74,19,54,-30,40,-49,22,-8,23,-7,47,-25,89,-18,42,-31,30,-50,63,1,21,-16,70,-28,78,-37,40,-54,22,-15,78,-8,9,-12,50,24,51,-54,16,-63,78,0,73,-7,-30,17,4,47,54,-81,-21,-70,127,-4,32,-16,5,10,33,-47,-3,-106,4,-13,9,47,7,-25,23,25,40,-30,38,-35,13,-32,32,48,4,-41,8,77,66,-11,76,24,11,-9,56,-9,18,-27,-40,43,84,44,30,34,58,2,21,-48,49,0,-28,-46,41,93,18,7,29,-15,31,-85,76,8,-25,-51,51,79,11,20,46,-72,20,-79,85,14,-8,-36,27,27,20,5,32,-63,1,-60,98,7,-15,-3,31,-7,15,-4,22,-46,2,-24,115,-6,-11,7,35,-54,31,-29,54,-11,3,12,127,57,45,-7,31,-67,80,-22,-36,-66,127,18,98,50,19,-25,6,-37,60,-17,-26,-60,71,2,55,41,11,-38,41,6,36,-10,-19,1,42,2,47,10,4,-34,96,30,50,34,9,14,64,31,23,-4,1,-30,96,46,86,29,8,4,68,31,15,11,2,-33,25,27,74,31,-31,-9,113,-7,8,3,16,-5,24,18,114,33,-32,-61,106,-49,24,9,37,0,16,-12,113,9,-21,-107,68,-74,37,16,53,10,26,-51,103,18,-2,-114,46,-72,8,-23,48,24,90,16,28,-20,11,-44,53,-21,-11,-21,35,-13,41,17,18,-2,19,-43,30,7,2,6,12,7,-5,-6,-11,-41,37,-67,58,-10,-8,14,1,11,-7,11,-2,-61,46,-38,53,-20,-4,10,-12,20,-3,26,13,-42,9,-10,79,-57,-8,7,-20,28,-16,35,9,-40,5,-17,22,-42,1,13,-28,28,-12,48,2,-37,24,-11,37,-50,12,19,-22,40,-10,41,9,-92,3,-29,-4,-28,0,10,-6,9,9,13,24,-127,-38,-11,19,-33,4,-61,-58,-47,77,30,70,100,-64,30,-54,24,56,-31,-9,8,127,31,16,39,2,41,-85,23,18,-15,27,62,118,-20,-6,-9,15,26,-103,2,20,-4,59,55,39,-63,11,-23,26,24,-67,-39,44,-18,41,56,29,-34,35,-58,-7,31,-68,-66,69,-8,4,12,36,12,84,-66,-17,-1,-111,-89,76,6,-6,0,48,72,50,-38,9,-6,-125,-82,6,-10,-9,10,71,44,79,-30,34,-36,-111,-47,-18,-25,-28,27,111,49,98,-6,26,-86,-87,7,-18,-55,35,62,33,-9,4,14,127,8,88,5,40,-75,54,61,7,-37,-10,52,61,52,6,-16,38,-24,25,-6,1,-2,-6,76,28,33,-43,-42,-4,-15,0,-5,18,46,7,53,35,12,-42,7,-12,4,6,34,16,14,-5,41,56,0,-23,-8,0,20,48,33,25,43,10,-20,82,8,36,23,75,10,45,-4,22,31,35,-49,56,-5,9,16,90,5,-13,-43,34,25,41,-35,27,-30,28,-18,44,8,-73,-38,38,64,47,-92,49,-71,54,-2,28,44,13,9,20,9,125,54,32,-90,22,91,21,30,14,30,20,55,124,54,48,-27,13,81,17,17,0,16,22,81,119,35,27,40,-12,83,33,15,5,20,32,81,90,43,37,76,28,55,17,20,1,39,59,87,76,60,70,102,58,39,2,15,-6,38,55,76,61,73,42,127,77,26,17,17,-17,30,29,65,67,80,23,67,44,26,18,23,-8,5,-3,40,69,98,17,32,12,30,50,26,2,-6,-22,-1,42,97,2,-27,-6,28,42,-7,-16,-27,65,17,92,-13,87,-17,75,-76,44,12,5,-27,50,8,110,-6,89,-45,80,-86,24,8,-2,-16,10,12,113,9,90,-73,88,-102,8,5,2,10,-10,7,65,6,56,-67,96,-87,12,8,7,7,-16,1,28,17,75,-86,62,-85,3,6,13,-6,-6,11,62,-5,77,-70,62,-92,17,9,4,-18,27,-1,75,-23,81,-34,68,-62,31,12,-12,-26,30,-7,73,-59,95,-40,101,-48,44,9,-30,4,17,-7,66,-67,87,-17,127,-17,59,-26,-63,39,-20,13,8,16,-1,16,25,91,73,-8,-1,28,-14,-45,0,-54,-31,26,12,54,102,12,58,42,-11,-92,15,-126,-47,4,17,63,101,-27,58,33,-4,-75,58,-127,-38,71,12,79,30,-40,25,50,-3,-92,65,-96,-46,86,31,29,-20,-32,-17,82,23,-45,103,-37,-28,116,36,-14,-12,-23,-16,96,16,2,109,-11,-15,78,47,-26,-6,-49,-29,67,0,27,69,-9,23,59,69,-31,20,-27,-24,38,-17,11,2,14,26,22,68,-29,34,9,6,-12,73,71,39,-17,47,-111,122,-8,34,-14,49,-28,55,-5,47,-127,31,-60,79,-62,62,-51,55,-40,27,-30,21,-65,-15,17,23,-38,25,-56,25,-15,-3,-6,16,-1,-75,-23,-64,0,-18,-31,-10,17,-11,35,14,56,-52,-55,-20,-28,-48,4,-6,15,12,20,25,77,-22,-53,14,-35,-54,-1,-1,9,35,-18,53,85,-12,-35,-10,-39,-66,-7,-19,3,64,-40,71,55,-26,-9,12,-16,-56,-25,-10,-7,75,3,54,-29,-57,-26,49,-4,-89,-74,-8,17,87,57,52,-103,99,-103,127,-33,83,-29,49,33,32,46,19,-39,39,-96,60,-45,48,-16,25,63,61,40,68,75,-9,-122,34,-94,27,-28,3,42,67,27,72,19,6,-123,100,-8,-13,-21,9,8,61,10,53,-4,3,-90,96,-48,11,-19,11,-1,19,29,66,46,28,-71,79,-56,35,-22,-21,4,36,-13,67,20,72,-52,46,-19,41,-16,-15,2,60,-16,52,10,86,28,25,-52,65,-35,-34,4,93,46,49,-9,112,-25,74,-17,52,-35,-11,-37,76,55,127,27,15,-21,117,15,102,-19,-9,-44,57,43,86,-22,35,-26,32,-16,49,-21,11,-52,42,18,78,-37,69,-46,7,-21,-10,-29,9,-53,42,-5,79,-72,81,-74,-10,-46,-59,-23,-20,-45,48,-13,99,-81,30,-101,3,-13,-46,5,-14,-32,22,-29,96,-93,18,-89,-10,3,-10,-8,14,-14,12,-24,107,-85,32,-97,40,18,-8,-16,15,-11,-10,-8,121,-29,36,-91,26,43,20,-26,15,-16,-27,-30,110,11,42,-42,-26,58,56,11,12,29,53,5,17,-28,39,-105,-22,24,-22,7,15,46,41,28,31,-3,35,-84,3,15,2,4,9,31,28,3,37,-11,11,-65,47,39,12,-8,11,33,8,24,37,-4,4,-58,60,10,1,-9,3,31,-8,36,33,-5,18,-41,15,6,2,0,4,18,-3,18,4,-23,18,-27,-13,17,34,14,-16,9,13,10,-18,-39,15,-16,-36,57,30,18,-26,-12,22,22,7,-28,10,-7,-44,92,53,20,-50,2,0,21,17,-17,-22,-22,-40,127,62,26,-32,16,29,-6,50,22,84,-122,45,77,114,9,-5,39,47,-9,77,37,62,-77,28,24,105,-12,18,67,57,10,79,24,57,-24,13,22,102,-5,0,81,31,23,68,12,26,-56,5,17,105,1,5,83,10,-5,30,22,17,-65,-9,-13,127,7,-1,76,-3,-1,3,39,7,-31,-16,-20,102,14,-35,73,25,-16,9,40,9,-73,16,5,89,14,-19,92,42,13,46,56,6,-112,31,45,117,1,-37,109,34,40,94,61,16,-96,33,54,108,-29,2,17,64,46,0,-55,23,31,17,-14,47,-51,7,-25,86,-4,9,-56,99,49,16,-37,33,-47,21,-23,55,-63,39,-57,114,19,66,-56,59,-30,51,-45,24,-39,96,-14,127,1,127,-56,28,-38,46,0,32,-28,86,-3,109,-18,121,-18,-16,-13,-15,48,29,-17,37,15,54,39,29,-14,-31,44,-60,80,43,-35,8,-46,-21,-39,-49,-36,-38,50,-69,83,34,-4,48,-66,50,-42,-72,26,-49,33,-1,98,-9,66,66,-91,45,-3,-60,50,50,-14,48,-24,26,-43,50,-11,10,-47,-62,-33,-53,-3,34,5,41,-32,23,-44,69,-63,-104,-60,-28,4,0,22,24,-3,76,23,54,28,-76,-9,-6,-34,-10,-3,6,84,77,39,15,10,40,32,59,-45,-27,-44,-25,80,95,-35,-72,24,31,-13,23,-57,-47,-48,-9,81,49,28,-54,-55,29,-29,14,-51,-42,-18,-4,69,21,56,89,-18,100,16,-13,-15,-14,-2,4,51,-22,7,127,-4,78,56,9,28,-8,-1,29,0,-21,-26,116,12,98,64,37,-68,13,-26,64,2,104,-28,77,-67,107,48,111,-18,34,-10,51,-28,29,-57,59,-40,92,-14,100,-7,25,0,0,-4,24,-29,2,-46,10,-32,9,-21,-11,19,-6,24,44,-11,6,-44,1,-60,-17,3,-8,-1,29,61,4,6,31,-71,-19,-54,23,-8,5,23,33,94,1,-27,52,-73,-21,-72,74,-10,0,34,51,37,59,10,104,-98,62,-47,40,-23,-1,24,81,28,47,-1,79,-105,88,-36,26,-39,10,35,119,69,84,-21,72,-127,60,-18,73,16,-51,-15,33,45,1,100,127,6,86,48,51,19,-33,7,21,64,-34,99,116,43,77,50,25,8,-15,27,7,61,-66,59,61,65,100,52,-11,-17,4,27,4,59,-48,28,35,57,126,57,-13,-22,9,23,-1,39,-2,-27,7,34,86,24,-14,-22,22,-1,-23,-20,39,-57,-3,6,27,23,-6,-27,19,-27,-16,-24,57,-68,-21,-23,-18,-14,18,-32,26,-24,-21,-22,47,-21,17,-83,-28,-50,21,-37,23,-18,-13,-22,42,42,88,-87,-14,-79,58,-58,-11,-20,89,85,-34,-8,29,-29,119,-46,-14,-47,16,-23,68,52,-18,-20,3,14,121,-74,24,-43,12,-40,65,72,10,-46,13,33,49,-88,7,-46,3,-53,39,81,69,-81,22,72,15,-64,8,-25,13,-41,-9,98,127,-50,34,23,-11,-58,6,-12,-2,5,7,70,116,-73,40,-34,33,-47,66,-23,16,54,54,45,121,-83,62,-32,36,-25,38,-47,-10,88,66,-10,80,-85,21,-29,32,-28,15,-72,-32,94,43,-37,67,-82,3,-49,97,-43,43,54,11,-29,-38,-61,27,-100,84,-77,35,11,48,42,14,-21,-37,-70,43,-127,60,-50,38,-34,36,17,15,43,16,6,55,-37,-15,12,72,-84,24,-48,12,73,103,71,48,35,-10,12,37,-15,73,-31,8,10,49,49,22,23,19,14,-84,39,16,-12,12,-10,-2,37,3,16,15,-40,-1,-43,14,13,-10,7,-7,10,1,11,49,-79,75,-72,-21,33,-32,36,-4,-30,60,3,49,-66,30,-59,-11,18,-64,18,-12,-26,107,5,44,-74,-8,8,27,-41,-2,7,103,24,89,4,127,-82,32,5,115,-3,19,10,85,-14,51,26,83,-52,17,28,51,-3,5,2,47,-10,12,37,69,-46,30,-38,25,-21,8,7,18,-4,26,6,74,-83,2,-54,46,-26,-7,21,-2,8,32,-26,69,-103,23,-55,79,-38,-9,20,3,15,44,-7,92,-91,-14,-53,59,-31,2,32,26,-7,63,0,101,-57,11,-56,36,-33,-15,18,45,3,59,16,113,-81,41,-99,30,-40,-7,51,124,38,69,-34,125,-94,31,-63,2,-5,-1,-58,28,-50,11,-49,-44,39,63,3,-6,3,-6,-46,32,-59,21,-46,-52,8,47,-26,-38,12,-6,-4,9,-38,21,-59,-33,3,54,-13,-36,4,2,50,-6,-2,13,-44,10,3,60,-18,-10,-9,0,54,-16,14,11,8,42,-25,55,-4,-9,-25,9,77,-14,10,17,22,42,-38,45,15,31,-16,-3,63,6,5,46,12,39,-58,63,15,56,-1,-14,4,18,1,81,-30,65,-41,17,-32,32,7,5,-3,25,29,127,-38,55,-5,8,-24,57,27,41,7,-22,8,-20,15,-7,13,56,-1,1,-36,-4,-51,-49,23,-10,2,18,-6,74,-53,52,-36,-3,-20,-82,3,23,-48,-28,-53,8,-70,26,22,16,33,-58,-43,16,-75,-43,-44,55,-44,-26,2,11,53,76,19,18,-2,-2,-58,51,83,-43,-69,-13,-51,127,26,18,63,65,2,37,73,-16,-8,-4,-9,20,21,-21,35,-4,-5,-17,-3,13,31,-4,40,5,14,5,-34,-3,44,-67,-52,-8,50,-22,4,44,34,32,-92,-24,78,-90,-91,-38,-33,13,-8,65,-33,45,-19,64,-12,7,-2,22,-26,16,-12,38,-29,29,-6,71,-1,26,-1,11,-29,11,-7,16,-30,25,12,35,-10,21,14,17,-19,0,6,8,-21,31,42,40,-18,16,13,15,-5,-11,13,14,-32,20,30,46,-4,12,0,5,-9,-5,12,30,-35,22,17,37,-11,19,2,4,-16,-7,18,26,-18,22,1,65,6,55,-19,15,-24,-5,14,18,12,35,11,93,10,26,-30,9,-28,-5,3,28,10,46,45,127,19,2,-18,4,1,-4,-14,-16,8,0,43,-13,-66,9,5,-7,5,-7,-2,-14,-4,-5,39,24,-88,31,35,-13,9,-12,6,-3,-12,-1,26,77,-87,47,46,-12,12,-18,8,11,-8,6,23,118,-79,43,30,-12,13,-19,2,20,-12,7,15,108,-73,31,28,-10,12,-24,2,27,3,11,21,127,-67,36,16,0,8,-20,7,20,9,9,3,92,-48,29,7,-3,6,-11,4,5,17,15,-4,87,-37,17,21,17,1,13,-5,-7,22,28,-43,59,-30,19,34,30,36,-63,35,26,-6,32,-30,52,-33,-50,28,-94,32,-36,9,29,12,57,-41,39,-43,-31,47,-63,1,-16,12,20,25,112,-36,-3,-48,20,31,-41,-22,-20,3,-20,58,127,-29,-17,-36,66,-7,-7,-15,-9,18,-40,59,78,-48,3,-21,42,-14,-10,-8,5,20,-23,24,16,-55,35,-19,-3,-33,-29,-14,-15,14,-9,7,9,-25,49,-51,1,-27,-15,-1,-32,6,-27,9,31,4,35,-58,-13,-48,-20,8,-64,13,-43,1,47,26,68,-42,6,-39,-15,7,23,46,32,26,52,-20,112,14,-37,-17,58,-18,68,8,-2,-53,26,6,111,42,-61,-43,49,-26,-64,-28,53,-44,100,20,67,-28,-51,39,65,-15,-97,-46,71,44,69,-93,-10,-73,70,83,18,8,-25,-26,-29,90,32,-37,-49,-101,30,24,-27,1,32,16,-51,77,4,48,-39,-62,-34,-39,23,24,36,42,-17,-16,-26,41,-8,-3,-75,-97,38,-2,17,-1,25,-17,36,-20,-21,-13,-50,-64,1,-32,-26,-32,52,39,127,-33,-55,-65,54,-5,-34,-50,26,19,51,-12,10,-59,-55,-127,-70,46,15,-9,9,32,43,-8,9,-51,-41,-113,-77,-6,17,2,-7,38,51,-11,8,-40,-2,-103,-55,11,21,-19,-28,21,43,29,21,-19,16,-87,-7,19,54,1,-31,21,29,27,18,3,23,-79,20,-5,53,-12,23,35,19,17,12,-5,43,-42,28,-11,83,-18,35,39,18,29,12,-29,10,-48,55,1,110,-24,19,25,-4,0,17,-16,-25,-44,89,-10,106,-50,-25,16,-18,-30,43,17,-54,-50,81,33,104,-31,20,10,69,25,28,-8,-33,44,56,-42,24,-20,14,1,48,18,51,-6,-37,43,33,13,19,-9,7,26,22,-32,27,-36,-21,13,25,-1,24,3,19,28,1,-22,14,-72,20,18,9,-21,10,-2,19,7,5,18,40,-83,10,20,6,-57,46,-5,12,1,1,53,34,-51,-16,24,11,-82,62,-7,-1,19,14,62,14,-48,0,22,13,-86,54,-18,3,23,20,43,1,-68,3,0,3,-51,40,-15,21,23,26,1,-13,-127,-15,-11,-28,-44,31,-13,28,37,32,67,16,60,-1,-45,-55,-5,-20,1,-39,14,-10,79,-10,53,-15,-44,-16,31,-46,15,-25,37,-8,26,-8,42,-3,12,39,10,-80,13,12,27,69,6,91,-17,32,-50,26,-40,-23,-49,47,-27,107,10,127,-120,24,-57,-7,-66,45,-105,76,-17,53,9,60,-100,-13,34,10,-52,79,-46,33,-7,-2,-2,52,38,-7,17,-31,-60,76,-6,-25,12,6,1,22,75,2,-68,-25,-2,12,10,-12,33,25,-29,6,53,14,-48,24,-47,-6,28,22,14,33,-23,74,-20,54,-36,66,-117,70,13,10,7,1,7,65,-19,56,8,49,-127,62,9,10,-4,-3,27,58,-46,53,25,6,-119,66,10,13,-17,13,24,34,-60,75,1,-6,-105,47,11,17,-16,16,30,36,-86,64,-3,-2,-102,56,3,22,-12,-3,50,41,-39,63,42,24,-94,55,9,22,-7,-7,49,38,-45,36,23,41,-103,74,22,28,-11,-5,45,23,-50,43,26,0,-94,69,31,24,-13,-1,26,12,-88,64,14,-32,-89,67,0,13,-35,42,-33,63,59,-19,-75,-12,-37,68,19,64,-23,21,-19,54,76,-23,-98,21,-37,98,12,40,-55,-17,-37,8,59,6,-83,-18,-18,56,-33,-53,24,25,-6,55,-48,7,-75,-34,48,1,-86,-70,11,42,39,75,-112,58,-46,-6,101,-46,-42,-53,26,67,35,76,-119,25,-35,39,73,-20,22,-15,42,20,38,78,-127,44,-30,13,24,-32,30,15,57,11,47,43,-89,6,-7,6,-19,-46,27,30,84,15,32,15,-48,-24,16,16,-2,-35,-17,-13,17,61,-1,89,-18,-2,3,29,3,83,-1,-16,-4,30,-32,49,69,27,21,12,2,74,16,-26,-21,-13,-11,62,107,40,11,-26,8,45,7,-18,-27,-11,-28,95,20,-1,-54,-26,9,53,19,-36,-41,5,-26,18,-25,12,-84,29,17,81,-18,-29,-5,40,1,15,-40,1,-127,1,22,92,-102,42,37,29,68,39,-35,-6,-71,-18,17,78,-86,74,57,5,68,9,-31,-46,-63,-2,26,69,-4,12,21,7,49,36,-12,-9,-93,-30,12,66,1,-7,-30,13,5,70,7,-10,0,127,51,38,-6,4,-23,2,17,49,-10,-18,12,93,27,36,-18,9,-20,-8,24,36,-10,-21,19,62,33,22,-18,2,-26,-11,22,30,-4,-1,1,46,29,11,-14,-5,-21,-4,23,40,5,-1,11,57,33,6,-8,-9,-20,-9,1,38,-5,19,7,57,28,19,-9,-7,-9,-5,-6,46,-13,24,9,70,23,14,-4,-5,-9,11,-7,58,4,35,29,92,28,12,-10,-7,-24,25,-12,69,16,27,33,94,34,20,-1,-15,10,34,23,71,83,127,26,2,5,2,11,0,0,32,19,40,71,101,14,19,27,26,-4,3,11,15,42,22,16,87,30,53,40,13,-19,0,5,-23,22,24,-35,100,9,40,40,50,-9,-11,5,-14,12,18,-62,92,-15,30,24,35,-4,-7,24,7,2,20,-51,124,-2,13,26,68,-9,-19,47,23,22,4,-70,111,23,-15,13,52,-13,-24,50,11,31,-12,-19,120,8,-67,13,45,-9,-37,31,22,44,12,25,122,6,-78,-19,-12,-76,1,-13,102,29,15,-42,127,-114,72,57,90,-25,17,44,75,-11,17,2,92,-86,53,-27,44,-17,17,39,55,-23,17,72,58,-96,33,-25,28,-36,4,39,29,30,8,82,52,-78,32,-28,54,-31,-15,33,26,38,21,41,46,-59,0,-61,27,-17,-25,30,23,33,17,25,93,-82,-13,-58,35,-16,-28,-4,35,16,22,27,91,-64,5,-7,33,-11,-23,18,35,-15,39,-16,76,-85,33,-16,37,-59,-11,43,84,49,73,-19,92,-103,11,-20,55,-22,-18,25,44,26,70,3,-31,89,67,37,44,-18,-20,43,20,64,69,-21,-20,101,75,6,45,-42,-16,25,13,59,53,-32,-20,103,59,37,48,-49,-23,3,-16,62,67,-53,-3,92,126,55,52,-56,-8,7,-38,5,64,-91,28,81,103,74,76,-50,-8,5,-37,-51,42,-105,31,77,33,75,105,-24,-9,24,-12,-45,36,-127,56,70,17,80,84,9,14,37,15,0,41,-126,66,42,35,98,80,9,32,28,25,-17,72,-91,27,66,62,102,77,27,-74,26,33,23,43,-24,43,-8,-84,70,-89,44,-40,-6,36,14,80,-35,47,-36,-62,76,-59,24,-25,17,41,27,104,3,18,-72,-7,78,-23,-13,-17,16,-21,57,127,42,-17,-80,48,23,8,-26,7,33,-44,76,81,-26,-34,-63,46,-4,14,-5,51,52,-18,37,3,-86,23,-30,8,-22,-3,-6,12,27,1,-8,-35,-49,29,-31,33,-54,-6,-20,-34,0,-30,14,-19,-20,28,-49,58,-71,-7,-15,-69,11,-53,27,26,-6,64,-36,23,-57,8,45,-29,-4,62,21,71,22,42,-127,15,81,102,27,-17,39,7,-10,81,11,-2,-122,29,50,97,2,-9,43,4,22,83,-8,-3,-54,19,51,113,-19,-1,61,20,38,45,-7,33,-12,26,11,121,-20,-8,60,29,36,18,-22,34,-5,26,7,115,6,21,62,19,-8,12,-7,13,-5,-7,-18,81,13,28,48,52,-45,38,36,20,-64,-19,-3,85,18,36,46,58,-37,55,96,-2,-88,2,3,94,13,23,35,56,-42,87,109,1,-111,23,20,80,-59,12,-1,38,-16,46,-47,96,-64,83,42,35,-34,14,10,15,-18,34,-21,80,-47,27,42,28,-44,20,14,40,3,25,2,51,-47,18,15,-14,-36,10,17,33,-9,42,3,32,-65,28,11,-6,-27,8,2,29,-24,16,9,43,-48,34,15,13,-30,5,0,26,-29,36,0,34,-74,38,-6,-6,-46,-11,-5,44,-25,45,-13,46,-48,41,-10,10,-43,-12,1,52,-9,33,-34,76,-50,44,-5,27,-48,-16,-12,42,1,32,-8,127,-55,41,-6,34,-29,9,-26,20,-36,-5,-127,-50,-113,-64,35,35,-8,4,-2,7,-24,-16,-125,-53,-120,-71,-22,37,11,-5,19,12,-32,-21,-108,-44,-88,-47,-6,38,17,-24,17,20,-16,0,-72,-26,-64,-16,4,48,18,-38,14,18,-14,0,-54,-43,-44,-22,2,51,25,-16,2,5,-8,-11,-60,-25,-25,-26,-10,49,22,-11,0,5,-12,-12,-63,-23,-9,-15,-10,71,28,-22,1,6,-22,-11,-77,-38,12,8,-4,86,17,-46,8,3,-36,-6,-36,-54,14,14,29,109,-21,37,28,45,30,31,-89,-15,-24,-51,-16,61,-18,-1,25,74,14,39,-34,13,-19,-18,8,45,-6,-41,-9,116,13,58,-1,45,-15,-24,-10,46,0,-43,-12,100,0,49,-16,51,23,-24,-33,76,4,-31,-23,82,8,50,19,88,11,-15,-36,52,-5,-30,-14,78,23,24,34,93,-25,-20,5,44,-1,-32,-25,17,32,21,35,99,-43,-34,7,20,-1,-32,-26,-34,69,6,-2,87,-65,-21,-28,16,1,0,-12,-75,75,25,-18,127,-80,-25,-56,44,-6,24,20,57,0,-6,-32,2,-3,127,-24,3,-1,23,10,19,22,-12,-31,6,7,104,-18,-12,0,4,15,1,34,-17,-44,4,-8,78,-41,-17,1,7,38,2,23,-2,-45,1,-9,42,-37,-11,-3,9,44,4,18,15,-37,-8,11,51,-49,-6,-6,1,32,2,14,14,-36,-15,5,73,-53,-5,-12,0,42,6,30,21,-35,-14,5,96,-34,7,-4,9,36,19,7,8,-54,-22,-5,94,-18,4,2,7,29,36,-22,-16,-85,-25,-16,91,-10,-5,-14,-29,62,49,32,-21,93,-1,6,25,20,4,-65,5,91,14,45,-13,121,-23,10,46,-9,7,-79,34,109,-15,60,-21,127,2,30,10,-12,-14,-64,16,64,-14,30,-9,86,22,38,-49,-5,7,-22,-6,14,2,27,-24,45,14,24,-47,-20,-19,9,-14,6,16,41,-20,-8,19,21,-18,-20,-26,14,-12,23,18,8,-21,-42,8,-4,-7,2,-16,2,-25,51,22,-17,-29,-19,7,-20,-21,-2,25,-3,-38,35,28,-1,-36,-27,15,-15,-19,39,61,-31,31,-40,-39,-11,56,18,20,23,45,24,-15,-24,11,-30,-34,-9,60,5,27,18,29,5,-9,-28,6,-22,-33,0,68,0,17,7,13,4,9,-16,1,-24,-30,1,47,5,27,-7,6,12,2,-13,-6,-20,-13,5,35,-12,8,-10,20,24,-10,-1,-4,-13,-2,-11,17,-20,11,1,25,23,2,4,-14,0,13,-3,5,-19,23,23,87,29,20,-5,-12,-1,33,0,24,-9,39,50,127,47,1,-1,-21,-6,49,-21,37,11,38,53,112,61,19,-2,-7,-9,-12,-15,13,0,-33,-20,79,19,24,-20,-2,-23,-62,-1,31,-2,-26,-20,3,-40,26,-2,-5,-23,-73,-26,-10,-21,-27,0,-18,-57,1,8,9,15,18,-7,-25,-29,-11,6,-19,-1,-34,-9,3,19,127,68,47,28,69,24,1,79,18,1,-7,-20,58,67,9,42,24,1,-10,59,-3,-5,-19,-2,-18,9,12,24,-12,-52,-8,2,-1,18,35,38,-13,-16,35,-19,-25,-56,-15,-59,-24,-9,18,2,-13,-55,78,-26,-3,9,-8,-28,7,-1,8,-16,-6,40,52,-69,121,-1,31,10,-10,7,5,-13,-16,19,57,-50,103,-20,28,46,-26,12,2,-10,-8,40,55,-30,119,-55,13,23,-46,13,7,4,9,55,47,-34,127,-32,25,-5,-33,4,14,12,5,18,37,-4,117,-43,41,-22,-30,-3,6,16,-2,-1,37,-6,78,-39,68,-30,4,0,-21,10,-6,-39,52,-8,27,-20,67,-30,-3,6,-31,-6,11,-13,61,-19,22,-30,106,-24,-10,1,-34,3,9,-11,81,-27,32,-46,116,12,-7,-75,21,83,34,35,1,21,127,11,89,27,53,-70,33,58,0,19,-3,89,73,35,62,-52,31,-37,56,-21,16,1,-19,110,60,37,5,-60,-31,-44,27,-51,26,7,7,86,61,60,-74,-32,-64,-14,20,-21,19,-12,17,56,57,52,-82,-32,-68,4,24,13,32,31,45,-22,102,43,-9,11,0,6,-6,-1,42,41,46,-48,60,-1,-22,14,59,25,-24,-17,66,48,24,-55,57,-16,7,7,53,20,-43,-31,76,44,33,-86,98,18,46,30,44,-44,14,22,107,-19,25,-68,101,-88,15,-40,54,-25,1,23,80,15,8,-69,81,-57,30,-62,112,-16,-11,-19,44,58,9,-19,97,-45,44,-90,90,-7,-22,-27,8,83,17,10,119,-37,20,-114,70,8,-18,-14,-16,76,-8,14,127,-41,1,-112,73,-8,-2,3,11,95,18,26,123,-49,-17,-108,50,-31,-1,-18,56,103,50,43,91,-70,-28,-66,42,-29,-12,6,74,93,30,31,27,-72,-1,-66,56,-39,-11,36,78,104,15,-3,-36,-29,23,-22,51,-68,34,1,46,-7,10,-33,13,29,6,-18,53,-52,27,13,9,-5,-7,-87,-3,26,-5,-15,77,-22,29,55,-6,-25,-19,-125,-2,23,0,-28,75,-21,22,55,-18,3,-30,-127,22,38,-2,-41,58,-26,6,29,-19,17,-17,-88,-15,39,19,-78,35,-24,-12,17,-7,25,-6,-33,-38,44,34,-85,21,-15,-33,23,11,35,-18,-16,-22,49,43,-71,18,-15,-30,37,22,31,-8,-22,-5,57,26,-33,27,-9,-28,25,41,7,3,-55,-11,49,49,-54,23,-3,55,-15,-9,29,-48,-11,-104,-45,-41,-25,-6,6,53,31,6,54,-65,-2,-81,-61,-1,28,5,9,38,53,20,67,-32,9,-42,-39,18,39,32,7,17,28,23,31,4,18,9,-17,33,39,50,2,-16,-5,55,-9,34,43,65,25,48,35,49,1,-26,-27,90,-36,37,15,122,10,33,9,10,3,-31,-42,59,-52,59,9,127,4,17,-1,-23,-8,-22,-5,26,-31,75,-19,122,5,-4,-30,-36,-6,-4,11,-28,4,100,-19,120,-17,-20,-50,-8,5,-10,20,65,0,26,-49,58,-125,-5,48,6,7,10,55,42,-3,11,-28,58,-114,-1,46,42,-5,11,57,48,-31,49,-7,47,-93,-7,66,44,-28,6,47,3,14,91,2,27,-66,9,28,60,-6,8,35,-29,64,95,-12,16,-43,-41,23,63,0,9,37,15,29,24,-9,2,-38,-63,21,65,8,-21,38,47,41,-39,-34,-13,-13,-29,63,26,22,-38,26,22,43,-42,-6,-22,-39,-10,95,55,23,-58,37,-4,54,-7,-23,-51,-63,34,127,57,-11,19,1,-33,-38,-71,-35,-9,-22,82,54,43,-15,9,-11,-33,2,-50,-23,18,-56,58,27,43,-32,-18,-52,-67,38,-12,17,0,-44,11,23,25,10,8,-59,-90,-39,-7,40,-75,-81,21,-67,-45,28,22,15,-20,-50,28,24,-57,-34,41,-31,-82,-29,-38,5,111,74,127,45,78,81,73,92,9,-47,-10,23,116,79,86,13,58,69,-65,110,98,44,18,63,38,35,59,-23,-13,-40,-113,22,26,9,30,31,52,57,7,-19,-41,3,-111,-55,-17,-67,-48,43,67,47,51,27,127,-76,-15,-10,83,-35,-86,7,50,85,8,84,79,-74,16,-25,69,11,-45,73,53,62,-31,62,-17,-37,40,-24,-10,-10,-10,67,27,25,33,6,-67,-4,6,-70,-16,-42,3,55,33,-22,91,-33,-48,34,12,-75,-24,-33,49,-7,-5,-55,83,-75,-19,47,-50,-45,24,5,93,-15,-31,-67,58,-88,9,7,-27,-26,30,20,58,-24,-49,-70,71,-74,-14,-39,-45,-91,61,-17,-31,-66,-61,-34,70,-4,28,-2,-66,-66,89,-6,-2,36,52,16,20,-73,29,43,-53,-78,-20,-13,13,31,39,31,17,-78,30,60,-64,-73,8,4,22,25,19,20,10,-98,20,63,-39,-66,11,10,33,-1,3,44,7,-116,36,58,-18,-62,26,-3,30,-22,11,51,15,-127,8,47,-3,-86,69,-7,20,-28,15,50,30,-87,-5,44,14,-102,73,-2,10,-9,33,59,18,-80,22,41,21,-67,51,2,15,-2,42,57,13,-85,31,42,1,-11,34,5,4,-16,45,29,19,-108,17,30,-2,-2,31,-4,-38,110,-42,51,-70,5,25,-76,-127,90,-92,-11,-23,95,-16,45,-58,24,19,-78,-112,57,-93,-26,-29,86,-1,32,-38,11,19,-93,-105,36,-86,-36,-29,77,3,55,-34,16,24,-47,-84,74,-71,-32,-47,47,15,73,-38,17,19,-55,-89,55,-73,-26,-32,34,20,68,-46,24,23,-16,-106,18,-65,-24,-35,32,13,64,-33,42,36,-37,-89,8,-56,-23,-43,3,-13,27,-24,71,12,-32,-67,-35,-45,-27,-63,30,-26,11,-17,96,-7,-48,-61,-55,-41,27,-97,47,-30,94,64,70,101,-24,-51,116,-73,30,-42,29,-13,65,63,85,102,9,-15,91,-52,20,-32,25,-1,54,70,36,56,2,12,127,-41,8,-30,28,-14,57,72,34,29,29,5,118,-32,-12,-32,40,-13,37,56,31,49,34,-21,115,-2,-14,-13,62,2,3,59,24,78,47,-2,63,-4,-14,-24,53,-14,-18,51,51,112,19,34,41,-12,-12,-14,54,-30,10,66,69,102,21,47,49,17,-36,-57,80,-53,70,102,56,78,-22,11,39,-6,60,-85,94,-54,48,-2,-62,-7,40,-104,4,-79,45,-68,58,-25,42,39,-20,26,30,-60,-5,-37,14,-67,41,20,37,49,-46,24,-96,-8,15,-33,-3,-70,-5,15,61,39,-50,32,-106,10,25,5,-33,-39,-23,15,51,10,-47,65,-127,44,-9,24,-58,33,-17,4,20,21,-97,36,-108,39,3,3,-51,65,4,-17,-29,54,-76,26,-105,26,-22,47,-20,45,18,-4,-8,47,0,-7,-68,11,-89,76,-69,-16,47,-10,52,89,95,-4,-9,-6,-91,101,2,-11,1,64,63,-4,62,0,-115,-7,-53,-18,1,-17,41,50,84,-12,90,-20,-127,-19,-65,-20,3,-2,53,52,75,-17,102,-16,-102,8,-49,-5,8,6,46,62,75,-19,97,-23,-85,14,-30,17,-9,17,43,66,71,-5,78,-28,-80,28,-26,30,-15,21,21,54,53,24,39,-24,-99,33,-41,51,-18,19,-16,54,30,31,-11,-22,-119,14,-44,25,-15,24,-19,33,45,29,-64,0,-99,-23,-26,7,-21,26,14,-10,45,45,-95,10,-54,-19,-39,10,22,-12,-10,-69,-22,-32,3,-29,8,88,32,40,26,-2,0,-41,-21,-40,6,2,11,34,-22,61,0,-16,-29,-34,-10,-22,-5,19,-25,-25,-20,57,-17,-16,-60,-53,-34,0,-8,18,-47,-8,-16,38,14,18,-24,-46,-60,12,-45,-16,-6,4,-9,-34,13,34,