#include "emb_fc_model_params.h"

const int8_t emb_fc_weights[49152] = {-13,20,17,35,-43,-18,-36,-21,-62,10,28,-6,39,-40,-13,-14,69,44,3,2,11,-82,3,30,-26,-16,-55,-62,13,19,12,41,5,-63,-21,-6,47,34,-52,-13,60,-34,-10,8,-127,-56,-22,-5,1,17,-2,-69,-43,-10,-8,-14,-38,-80,63,45,-65,2,11,-57,-35,-31,40,-13,32,-45,41,-11,-45,-34,-56,48,-14,28,35,-17,-37,13,-10,30,24,-20,-91,24,-35,-30,47,81,12,-82,6,8,-44,26,48,27,44,27,54,-37,-1,12,35,-46,72,-5,6,-9,-49,-44,-45,22,8,58,-10,65,-12,21,54,-79,31,-56,-57,-84,8,-11,-38,-32,-25,42,-18,32,-59,42,57,69,69,7,62,-10,29,-49,-8,19,40,-68,-51,24,-17,-10,-32,-93,38,-6,15,7,-1,52,7,12,-81,-45,-79,-69,6,-39,-57,26,84,-33,-34,-74,-30,-41,-37,-2,4,60,20,-31,-2,40,-52,68,-2,-10,-41,11,-66,49,55,17,75,66,-28,-38,-5,51,-16,4,28,-2,78,38,53,-37,34,86,16,-44,26,65,-7,-26,1,-13,-68,21,-43,-28,-43,-65,28,9,32,24,-20,-34,-2,-49,-67,-38,-34,6,3,-11,26,-14,31,-28,70,-37,-49,11,-22,-24,11,-32,41,70,21,-46,69,-49,44,3,-70,-30,66,-34,-31,39,-3,53,-64,-1,56,111,44,58,28,3,-46,100,-37,-9,41,50,18,-38,-59,-115,16,35,-42,-27,-12,-20,70,60,-42,-61,32,-19,-59,9,-123,56,-52,-23,2,74,-52,14,11,36,-75,52,66,-31,-87,-115,-92,66,-36,27,67,-31,20,-75,-18,33,-20,21,-29,33,21,-22,80,-68,-39,-45,-62,66,36,127,-1,44,8,-34,-34,-23,-69,13,-49,7,56,104,13,-52,-35,57,-14,22,28,-47,69,-40,-30,33,76,19,-27,-5,-8,-78,15,13,24,18,71,0,-16,-66,-26,10,23,1,-19,-70,-29,31,50,-33,-41,54,-11,-59,110,16,104,-24,8,69,7,51,-66,8,-20,-4,39,-41,41,-2,-29,-15,44,64,38,78,-80,17,13,-57,-67,68,0,75,-6,-28,41,-33,-82,32,-4,-59,21,-47,61,-31,30,33,-45,-63,-123,61,-15,-3,54,4,-22,36,29,27,27,72,47,2,35,-69,-4,-74,-66,60,0,-42,-34,-21,41,-45,22,-68,-48,78,-113,84,-105,36,49,12,-51,-31,-26,-74,32,-14,-33,66,25,-45,43,92,67,-2,6,-48,-55,38,1,-21,40,-57,17,54,-64,67,-8,68,48,40,-33,2,33,-6,18,-46,-55,-39,-51,36,35,-21,-62,-27,45,22,33,6,-62,16,-31,-20,-20,3,15,3,-76,20,42,-50,-18,33,-33,-21,-62,65,17,-38,-29,69,0,-10,-40,45,-20,-40,42,9,11,11,-17,-22,-56,13,16,-29,31,-5,-25,-19,15,36,64,44,37,38,-41,70,34,-9,1,25,29,5,17,-1,-40,-38,33,52,-1,4,-40,19,37,35,-59,-57,29,3,-27,-19,-30,17,-11,-51,-74,-19,-48,16,17,3,0,16,54,-10,48,62,-37,54,-28,-30,-68,6,62,22,67,-13,-84,-30,2,-62,47,31,-62,-9,-9,-55,54,13,35,-4,-38,-43,39,53,44,-29,18,28,35,-6,-35,41,27,40,75,51,1,-2,38,-17,58,-43,26,18,9,3,40,-11,-15,-14,53,28,19,34,35,41,-30,24,-14,-22,-33,-33,-51,-50,-10,28,1,-24,83,-33,-21,-29,16,19,40,-30,2,-9,77,-5,-45,-2,45,-4,44,32,-73,-60,-4,12,-39,-20,42,28,26,27,35,-25,40,-30,30,-25,-15,-94,29,69,-41,33,-54,22,7,-39,67,2,-37,51,-91,32,-42,-3,18,17,-54,-61,33,-71,41,35,-36,-27,78,23,33,-25,-18,46,22,49,21,19,127,-41,36,7,-23,31,9,-1,-23,3,37,28,4,10,-59,-87,-9,81,-15,-24,10,-53,-49,-53,-69,40,52,-47,32,16,75,21,-42,-78,74,-49,12,71,30,-8,-42,-61,-7,-31,58,-59,65,-57,18,-5,41,3,72,44,31,36,-54,-29,31,49,10,4,63,11,34,-26,73,-92,-14,24,-32,127,1,-25,7,-11,-58,-12,-68,43,-20,2,69,16,11,39,47,-33,-22,-60,-55,50,61,16,-16,-92,27,-73,-24,-34,-35,41,43,49,-35,-12,57,-6,-22,-55,-21,61,-4,-18,-65,-80,-81,27,21,79,-18,35,-13,-50,-72,-26,17,-24,74,-26,-87,73,68,-41,-50,30,63,35,-46,-13,21,46,-8,49,48,3,-66,31,-43,-13,7,36,-12,-101,-62,-25,-67,-19,-18,2,-22,-9,-70,31,-13,-84,76,39,-60,2,-43,89,-77,-1,33,17,-44,-71,-14,22,49,15,-53,-20,-19,-59,-11,64,-68,54,5,30,25,14,-17,76,41,-21,29,-28,-1,-44,20,-42,15,-1,-65,-8,-6,47,-26,19,6,23,74,10,-20,-81,-39,34,36,3,51,-42,73,-48,-25,47,22,-32,15,12,-40,-27,66,43,35,-63,13,-68,-10,-16,39,50,19,37,-23,72,-74,-55,27,52,-21,37,22,6,38,-26,42,49,81,56,-14,14,-9,-31,15,70,53,57,40,-52,-31,-19,-18,53,55,118,-16,-25,-22,-70,50,-24,38,-6,38,-1,8,-86,-42,-16,11,68,-21,-56,0,-25,8,-73,5,16,-23,64,-41,47,17,-4,37,50,66,19,77,40,-21,12,-40,-23,36,42,-33,-26,-4,-41,-9,-3,-23,60,-68,-52,24,-41,60,-58,37,33,67,64,11,-69,-36,14,7,38,29,70,49,31,102,54,-23,21,56,-2,-54,-21,5,-21,-31,-45,61,21,-54,-35,-43,41,64,60,-45,18,60,24,-30,-8,51,-29,65,17,-15,-38,-31,-4,31,-37,31,15,30,-3,37,73,-60,18,57,7,27,93,-16,-35,-2,72,49,-6,-57,-6,37,53,14,-40,27,-1,-13,-29,64,-50,14,-39,15,21,36,-40,-43,-8,68,1,4,-67,-16,51,-39,53,21,40,-50,20,-54,58,33,26,37,27,-37,-44,-42,-48,68,-7,40,-44,-52,28,-42,-23,-8,45,54,3,33,14,-61,-33,19,-23,-13,11,35,20,22,7,22,-48,-53,46,-9,-31,-35,96,-11,-55,83,-26,-21,-55,-69,-70,14,-5,48,-25,-26,16,-12,-23,24,-18,-20,-27,-10,-17,-50,33,-9,21,-5,6,-22,-36,-30,16,45,65,-3,-38,-41,-25,-56,35,-39,29,-1,11,-74,-47,127,23,-75,81,1,26,40,-68,80,27,-87,-22,17,47,5,13,-45,18,-24,-22,27,-91,-23,-61,-6,22,60,-67,-18,49,-60,-34,-16,-23,-50,-76,60,-41,-87,-118,-65,50,-82,-11,8,17,106,25,-55,19,-48,44,-59,-46,-11,-41,-60,-38,13,126,-36,20,-15,34,-18,44,-33,-27,-13,-56,-14,-73,-14,60,-36,-33,-121,-61,10,46,18,-34,29,28,41,111,57,27,76,-38,12,53,-57,21,-74,98,35,-8,-52,8,21,30,10,93,-14,-48,-5,-60,-82,22,45,-40,-63,-39,-90,65,-34,-77,101,11,-30,88,-23,27,69,-19,-58,-61,3,28,-17,-30,38,3,-16,-35,-20,-72,-55,-25,71,83,-49,-101,66,8,-66,30,57,-66,3,-21,-59,40,-16,-16,28,73,-53,15,30,76,19,18,52,34,36,-36,33,-70,-23,-46,-45,25,-5,71,65,8,-48,-127,22,8,21,-25,-9,-38,-29,-56,20,64,-50,-72,4,60,22,47,-61,-45,-31,-39,-2,-39,21,-83,-31,-25,53,20,-90,-3,-43,-13,22,-64,24,34,-29,-2,29,-6,65,-41,19,5,6,12,-80,-67,11,-5,-57,-12,83,-6,-51,-10,23,83,39,59,-9,16,-96,-51,-52,90,33,-78,33,25,43,96,69,-59,34,22,-112,37,35,29,19,-57,31,50,-8,-21,45,-11,-56,-68,34,-66,48,-38,-60,-15,17,9,-66,22,18,-56,55,28,3,29,42,-9,25,7,-8,-15,33,-43,21,15,-5,28,15,-80,18,42,27,-54,-34,-41,-11,-26,-2,-11,-33,-55,6,-72,38,34,-8,-41,19,-45,17,21,-47,-41,10,56,-59,-1,-32,7,-17,-65,45,9,-31,11,-47,43,-43,8,16,15,13,6,-39,-37,-7,45,47,-3,24,42,-28,-15,-26,-57,-47,-26,58,-34,18,8,-22,67,-5,14,-24,24,-6,-26,-16,22,2,-42,4,-5,40,-30,-19,-25,-6,7,-19,47,8,42,51,50,77,8,37,2,10,22,-110,18,48,-5,45,-12,-8,-43,-100,-8,75,-84,-49,7,-30,-26,-2,-18,28,6,5,-55,35,1,-19,-44,-48,-20,-31,37,45,-5,47,-57,59,8,5,-20,39,0,39,69,-8,-4,-16,-18,-70,-104,-57,18,35,40,50,-23,23,44,62,-61,11,-7,-40,3,-8,21,-127,-51,-8,-37,24,-1,-41,5,29,-16,-28,54,-20,-30,11,47,-19,-3,-11,24,2,14,-55,-3,28,43,1,53,-19,28,28,-28,-43,17,39,3,-87,-91,-32,-9,85,1,-23,23,-33,26,93,36,-48,29,-28,2,106,4,23,-21,14,76,93,-33,66,4,-54,-6,28,-32,-51,-32,51,-7,22,32,55,-72,-44,-39,124,40,-46,48,6,51,-36,4,-68,6,49,21,-51,5,-50,37,-13,-61,34,49,-2,23,114,-15,9,-81,-1,46,-26,-11,-2,-33,-72,-8,3,-20,-28,41,16,-7,3,21,88,-41,-41,-75,-25,-119,-1,-31,-29,24,-4,-22,-23,-74,-105,-24,3,-20,46,63,-63,-59,-25,-68,127,-42,11,88,-3,28,33,-16,4,11,55,3,-55,8,-11,78,1,19,-1,-40,-5,38,40,51,47,-29,-63,-5,-33,-87,-15,-24,-35,-54,-52,58,-15,45,-45,-65,72,-44,-4,62,35,-107,-2,-48,-7,25,2,47,-29,-45,-48,22,-34,-63,18,24,-37,45,-54,4,26,-6,30,48,26,84,10,-13,5,-53,-67,-11,11,-10,-55,26,59,8,41,-69,3,11,-22,-80,-23,-21,-51,-45,-39,-49,7,71,20,-17,39,30,14,44,-59,-4,51,10,-41,32,-15,-48,-42,38,-30,46,-14,-49,-4,-51,-52,-36,48,38,46,-23,-15,0,20,66,-23,-47,-33,-10,-66,-47,-2,11,33,-10,1,36,-11,-35,-29,-38,-50,2,29,30,-41,66,1,71,-86,-28,-26,56,-37,-26,-2,32,-45,52,-32,6,37,10,6,9,26,43,-60,-9,-23,-27,-54,10,46,-8,65,38,-6,-30,33,13,18,5,43,26,27,-36,-6,79,-44,-49,-99,31,49,-2,68,-30,19,-48,-2,-28,31,-69,-127,0,84,-55,80,19,-4,-38,38,1,54,56,0,-9,45,54,52,17,9,-59,-42,-53,33,-118,-11,-39,15,-68,-25,0,-36,51,-41,59,-65,-19,58,-51,21,-46,-8,-58,-1,42,9,-2,21,-57,42,-11,-26,-46,33,3,40,-14,-83,-1,-57,68,-43,49,73,46,-53,12,48,-10,68,-74,-33,39,36,79,-18,-18,-40,-32,10,-45,-16,-10,4,10,-23,-64,-21,26,-20,11,9,46,59,-18,42,8,35,62,-85,36,18,39,-77,-74,-50,54,39,30,-37,-45,60,-8,-44,38,62,-49,-10,-13,-26,-2,-28,96,-16,-113,-24,-14,15,-82,26,-31,-16,-41,-49,39,44,-75,99,24,86,-102,26,-20,-13,-25,14,3,32,21,51,-14,23,53,14,60,57,-32,-16,-34,42,47,18,-35,-50,6,-41,50,-34,-41,-31,-47,-1,-43,-11,-55,48,48,12,-71,3,-17,7,-93,57,-8,-70,-7,21,14,12,-27,22,74,41,12,42,-37,-55,-65,78,-25,94,-45,7,-25,38,55,-8,41,16,-44,-33,-27,-71,67,61,-20,-3,-21,31,42,78,14,-20,-58,85,41,-59,-24,69,51,-51,-89,65,19,42,60,36,-58,17,-27,20,88,65,21,-5,-56,59,22,12,-2,49,-88,-28,79,-49,-56,17,-27,-78,-34,-67,-80,-41,-2,14,44,49,-70,-3,-26,87,69,71,-32,14,66,-44,3,-51,-100,-50,-32,-90,37,-38,-30,62,87,52,24,-57,12,34,-61,33,72,38,-40,36,72,-13,-95,76,108,-20,-29,-112,60,97,-17,57,-51,3,-32,-50,-8,-60,-16,29,-35,-19,74,-44,-44,-50,86,66,-63,-72,-69,-5,-84,21,1,27,48,71,-69,100,12,-9,-124,-115,-54,83,-14,-49,-48,-31,4,-68,18,51,-47,-40,54,14,21,1,-62,-55,50,-46,55,-127,37,100,41,38,94,-13,8,-55,-5,63,-19,63,-13,2,12,-54,65,-68,124,-55,41,54,70,-50,73,61,-12,61,74,50,57,-21,-71,-6,-52,-18,93,107,-57,14,94,91,-39,14,-99,92,104,-21,74,35,40,101,21,10,34,89,30,-23,-62,65,88,59,75,67,22,39,-65,-80,86,4,104,71,50,33,-51,4,29,-40,-70,64,59,0,-24,70,51,-2,-72,-41,13,55,-93,-17,57,45,61,20,-4,115,12,-66,-123,58,12,87,-91,-12,-33,-7,106,-84,-5,45,-41,-16,46,-17,-48,66,19,5,51,42,37,-7,-54,9,-54,32,37,-85,34,58,-73,44,30,-48,-5,-31,-33,-62,2,5,46,-26,55,-47,68,-35,16,74,54,-21,26,-10,-7,-42,-44,-35,6,-41,-12,-39,-70,-56,-49,55,-9,49,25,-23,-3,-50,-35,79,-32,-43,-30,114,36,56,46,-32,-42,-46,-68,28,-26,-106,-48,46,81,54,-32,-2,-95,-58,-20,14,-8,17,2,-6,-39,8,42,36,42,61,38,-15,-39,-17,10,-54,26,9,44,8,44,15,-27,68,5,3,-4,42,10,60,-29,30,-92,-21,-59,-14,-10,69,-26,22,-49,-56,-43,42,66,-31,50,61,39,-96,72,31,18,-63,-41,53,-68,93,22,-64,-53,20,69,-60,39,-36,-30,-79,29,48,46,18,-55,27,-21,28,-11,-31,-1,52,-8,-63,-44,-49,-24,52,-46,-25,-52,55,1,-61,70,1,-51,52,-31,-14,104,-5,27,-56,79,-21,-49,-23,-47,-39,28,69,21,35,37,49,47,-30,55,-11,23,-49,-18,59,-47,-15,79,127,-64,18,-45,24,45,30,-39,-100,105,-11,28,-35,19,-70,73,81,25,64,-66,-11,12,75,3,-17,106,11,22,-13,-57,-29,41,13,8,50,12,4,11,25,82,-19,20,107,-46,-33,-47,36,-44,2,43,20,-4,47,-66,48,-22,-3,32,8,-8,-26,-42,42,-50,57,-45,13,28,8,54,-47,14,-43,47,2,62,48,-40,-4,47,30,-67,-30,-42,6,-35,-18,-2,26,-42,37,-34,-70,-32,79,-35,38,-29,-3,22,-38,-22,5,-49,-10,-39,-12,34,-2,-34,5,-5,-67,24,-36,-27,-28,8,13,-68,-39,-7,-10,-46,27,59,52,42,50,-38,98,33,17,-6,40,-55,-8,-11,17,-40,-13,53,-1,18,36,-56,19,32,-9,-6,-35,2,3,-41,30,20,-19,57,-32,-20,26,-3,-55,-42,16,-21,-30,18,-15,-61,0,23,50,67,-27,58,-19,46,-4,-33,2,-45,14,69,5,1,-35,-54,3,1,-36,-1,37,1,-13,-6,19,33,36,95,-38,-61,-15,-21,27,-13,11,-22,-46,-27,-95,-46,-10,-29,12,38,35,30,38,-50,37,-7,45,-40,28,0,-8,36,14,-31,-46,-63,-25,2,30,50,-72,-57,27,-41,28,-39,-18,4,10,-37,61,89,-54,5,68,-24,0,57,26,-20,-28,25,17,13,-49,5,40,29,127,-59,-20,48,68,-4,6,-11,-35,27,-11,-15,-8,37,-15,-41,28,-23,-8,-35,8,-8,15,27,8,-3,-37,0,17,-64,-3,14,40,-17,-25,-52,-24,-22,-30,28,21,0,-26,-15,-67,-12,33,68,6,-31,-87,45,-68,32,-37,-26,-23,94,-36,-69,-34,-15,-30,-57,-93,28,29,-59,-80,17,-52,-34,59,-24,-58,-29,-13,39,18,43,-39,32,64,15,-19,48,56,6,-5,49,15,50,-51,-29,-84,6,-2,-29,-1,57,-28,-20,-52,67,38,2,29,-1,57,60,-42,-4,117,-76,74,-12,38,56,-56,59,22,14,89,-41,57,-70,-4,-52,-61,-44,18,-92,-37,28,-33,12,13,17,-46,-4,-67,-1,62,43,-19,-46,25,-33,39,48,-31,-56,-3,-23,21,-25,45,9,-39,-17,-55,30,-43,30,-39,56,-90,-11,-74,1,41,-10,47,21,89,8,10,-2,-22,67,118,62,-19,4,-10,-52,-48,2,-3,40,-32,38,-19,39,-52,10,30,-47,-37,-87,40,2,-53,-13,-91,71,8,-73,-6,37,15,-72,-1,7,-30,19,1,-10,-6,46,6,53,78,11,-43,111,37,-54,-43,31,-91,-56,-49,-65,24,-6,37,4,-33,33,23,-7,48,57,43,80,-57,-52,32,-76,24,-8,-37,22,-26,-29,25,31,-44,-76,-49,49,-81,9,53,-24,-31,11,-3,-127,35,46,-22,68,-17,-27,-21,52,-9,-75,3,-59,61,4,-41,-32,-69,19,28,34,23,2,6,26,56,46,-18,20,14,-34,35,-62,19,-1,61,-47,12,13,-29,46,22,-91,-9,20,-2,-28,-67,12,-27,2,27,56,22,28,56,-25,-29,-54,35,-65,0,45,122,-32,0,48,21,-56,42,40,-18,-33,-7,16,32,-33,37,44,-40,-75,28,4,35,-19,62,-33,-41,26,-23,-27,-25,-41,24,80,11,-37,11,-53,-25,97,-5,-43,-63,32,2,88,56,-15,34,59,-7,60,31,67,12,35,27,-39,38,5,-14,28,-55,-39,-50,-41,43,45,-18,18,-49,-29,40,-71,20,-69,38,0,29,56,20,17,20,-10,40,-18,-51,-22,-38,-81,49,80,49,51,2,14,8,13,-46,-1,24,35,58,30,17,5,-51,-19,79,55,70,26,-4,4,57,-67,-82,-92,35,19,-44,-8,10,-26,21,40,21,42,-73,52,-6,-28,27,11,60,-44,-25,16,-31,-19,33,-23,40,-11,5,-17,-19,-73,-22,-47,72,109,87,-60,-40,-48,14,24,-38,-26,-46,-16,-59,8,62,79,68,-10,36,-2,-7,70,-22,6,-57,-51,-50,30,18,-27,-32,-22,40,0,25,17,-15,-7,70,6,37,32,-42,-60,-17,-127,-69,-58,-85,-11,12,-58,5,81,25,18,-58,17,70,15,69,51,-13,-40,10,98,-23,-33,-23,-26,12,-26,9,20,18,-32,64,24,-52,28,-22,-20,-27,-19,-20,-37,71,10,29,-34,-26,-20,-21,41,46,44,13,3,-4,-7,12,59,77,36,53,57,-43,36,46,-55,-91,-59,57,5,64,-38,62,-82,-10,-41,-18,-67,3,-72,-49,51,65,-10,-2,-22,-40,-64,-35,9,5,48,-75,55,42,31,-56,10,-17,17,29,-41,-15,-23,-20,-30,-52,-54,-43,72,11,-38,39,11,25,5,8,41,-15,38,-27,0,6,-2,52,42,54,-73,64,-25,10,60,-25,67,53,-17,62,45,-51,-44,18,7,-12,92,-52,-97,17,41,-12,-51,22,-30,-23,-62,-49,43,-39,-29,-44,71,-38,51,14,36,34,-39,-25,4,13,5,32,17,22,-16,-44,29,60,-12,37,7,-3,-3,27,49,-18,-47,-36,-43,-20,12,61,-79,63,-34,-27,-12,46,-59,-21,66,-62,75,8,-38,87,-39,24,9,-37,36,31,-8,-30,-83,27,-62,62,13,-14,-27,-21,0,-35,2,56,-52,53,18,-22,54,-3,127,-25,96,16,-1,-58,-51,-16,-88,51,-42,-23,11,-22,66,-27,54,77,-38,53,37,-18,-50,-39,28,-53,19,44,-79,17,-13,-43,38,36,-50,-49,-22,-56,-46,-24,32,50,-63,43,101,-21,-6,49,65,-49,-5,-10,1,-31,-10,-9,17,40,24,17,59,66,38,-58,53,-13,-6,-10,-4,56,3,-37,-60,-34,-2,81,36,15,-65,-29,-43,45,-39,-36,-22,81,-3,14,-16,-38,21,42,1,2,-20,-30,13,-18,-44,-25,-33,-19,26,-65,88,-25,-26,-67,-58,13,-54,99,-83,26,85,102,-8,0,16,82,7,5,1,81,33,3,5,33,-43,-21,0,4,-40,8,32,-24,-15,-6,19,30,23,-10,38,64,-3,31,-16,14,38,59,0,-10,43,43,54,-38,-24,38,-6,-43,68,-13,-19,8,80,60,16,-29,-50,24,105,-31,18,-45,75,-13,-71,13,61,-1,-58,33,80,21,-34,100,106,-36,-59,8,-8,53,6,-11,36,9,68,37,-68,7,24,-55,41,-31,67,3,9,-32,21,-58,-21,-59,13,29,-32,62,5,45,-15,72,-35,69,48,71,60,-28,3,29,43,5,-54,120,-43,-33,-68,8,43,84,3,-2,102,67,99,2,77,-51,28,39,90,5,-9,-39,77,92,26,-54,68,80,-89,-69,37,44,2,-42,-49,8,-56,-55,71,127,8,11,84,-75,32,79,71,68,-52,-19,-1,11,30,-47,44,-70,7,-59,38,10,-114,-95,6,64,-19,-34,-58,-17,77,19,-33,-20,-78,99,-15,11,-8,-9,17,-13,33,34,43,26,3,-28,-49,-61,34,-7,-20,-21,55,109,105,-57,41,-33,19,-12,-62,36,57,-49,62,57,-8,-72,38,-58,39,-19,92,2,34,-18,46,-99,3,103,42,106,-4,-28,3,49,39,54,75,-38,41,38,15,24,68,15,51,6,-33,-64,67,-24,64,-25,-2,10,68,58,-51,7,-9,-2,77,-35,57,-87,-6,-71,-57,43,-9,-92,104,77,-71,-17,50,-1,58,41,46,-7,-27,64,-29,31,-49,25,92,1,-13,69,17,-53,28,-28,75,-2,24,-47,60,-65,-41,-10,16,31,-16,27,-50,33,60,22,42,127,86,33,24,-34,-92,-29,17,-21,45,-105,21,52,-70,13,37,-64,-91,-60,-35,-8,25,6,-19,89,46,-73,60,-43,38,16,102,-66,55,-70,116,58,68,12,-30,-17,49,28,59,13,-85,64,0,-67,10,41,-67,-83,-17,19,-47,-12,6,-9,-63,-54,-111,38,29,72,-61,-44,65,-4,50,85,-60,-40,-51,-60,-37,-77,95,35,52,71,42,-49,-20,12,-50,31,-55,-44,-19,84,77,-21,-56,6,57,18,42,48,40,-7,-24,71,64,22,5,-64,-125,90,47,87,2,-25,19,52,-57,71,35,-61,49,-51,-19,-28,63,67,69,-28,5,59,41,-9,-35,20,-43,41,-12,41,-68,-58,-58,12,55,-29,50,98,-57,-1,-5,-41,-36,71,17,127,-3,-32,-10,43,-4,-43,-36,45,3,-32,79,8,-74,20,50,1,13,-34,-23,101,-68,-19,23,30,-19,-5,-1,27,-67,-47,-3,80,-40,54,2,28,-14,-69,82,91,-19,18,-57,101,-63,-69,-68,60,2,52,53,-59,8,0,62,38,48,9,-2,83,68,19,-18,-64,-12,34,-68,-10,26,-16,-33,-38,22,-68,-1,-41,83,57,57,-49,56,-68,122,55,82,72,14,62,72,-39,55,-66,10,-40,-103,71,91,-31,91,42,-22,-8,57,63,-8,110,-10,-55,-58,80,-35,-90,-56,-30,54,-51,-17,35,47,-30,-33,29,-18,-55,-12,35,58,-23,14,72,-21,18,14,17,36,66,72,53,45,29,43,-77,-60,37,-30,-5,-35,59,17,42,-29,-32,-42,-35,-5,21,67,-36,-58,10,17,-44,-11,-73,-1,-13,-18,64,87,-18,-57,84,-9,-40,-17,18,5,5,2,66,-66,-7,-88,-16,-64,101,-65,77,-20,-45,38,93,43,12,53,35,-43,69,45,-6,94,-50,-66,31,43,-78,107,66,57,50,-21,-16,1,-17,91,-8,-52,-113,-43,-31,45,-38,8,54,28,57,-89,-29,-21,-29,62,-25,37,-11,28,58,6,23,20,8,-40,7,-2,47,41,53,-28,-53,40,20,-23,-46,4,-35,39,17,42,-3,42,3,-67,-97,1,11,-26,58,7,15,34,42,-51,51,12,40,5,41,-37,-32,36,55,-2,-51,87,17,-46,6,93,63,-40,57,-81,6,22,28,11,41,14,-56,-22,28,50,61,28,-29,-37,7,-51,22,-37,54,-73,-37,50,13,32,-26,21,-25,-24,-36,-12,-30,-7,54,-7,53,21,43,41,-33,-17,-10,-10,-67,7,-14,24,-1,-16,33,50,-58,45,-5,70,-35,58,-41,39,-50,56,56,63,-32,58,41,2,39,-58,36,52,-37,-18,24,54,24,-37,108,-26,89,60,-42,-44,-40,40,-127,-74,14,8,25,-14,29,-12,26,-31,2,6,61,66,59,-104,-52,48,7,-32,28,-2,15,-61,-3,-43,52,40,-7,7,56,38,-24,-16,-5,-23,-4,-58,-16,65,45,-70,41,0,76,-96,3,40,13,16,50,14,-26,73,44,-15,-37,-32,-11,62,-36,38,55,27,28,-47,22,33,32,22,-109,-11,36,-11,-10,15,79,-6,16,-48,-3,31,45,-4,-6,-41,23,-64,-30,-76,51,48,-31,11,-3,-1,-6,19,-5,116,-74,3,14,-19,29,-11,75,-13,40,-6,6,51,-51,-8,48,-60,29,52,-11,16,45,8,-9,-26,-32,5,4,20,12,8,-19,-8,91,-30,-32,32,-36,124,-4,-18,-48,18,-107,59,-33,33,-12,22,-72,-22,-20,1,-109,85,9,-95,127,87,25,-13,-4,-39,15,-7,-63,-74,58,25,-68,20,13,-67,-63,-26,-83,-32,68,63,25,90,-53,15,-11,-47,-89,-15,57,-53,47,1,-2,16,7,-95,47,10,29,93,-19,-77,-53,-15,3,-111,-49,-17,58,-72,61,5,-53,-20,47,86,82,-21,56,27,-60,-34,-56,-11,59,14,25,-27,82,-17,65,-61,100,9,18,9,-126,32,-14,36,36,-21,52,62,10,-62,-11,-28,48,-25,10,65,-93,29,73,70,-52,79,26,29,-8,-18,32,5,51,-44,-28,-55,-102,-23,-74,57,33,-35,1,-44,66,-33,-46,38,14,67,-20,27,65,42,3,-24,14,49,4,-62,37,52,51,-30,-15,83,70,45,15,-7,-33,9,49,-60,26,17,56,-46,-70,23,6,47,-48,49,59,-19,23,87,-14,39,-27,32,-32,-15,28,67,-25,-72,-15,-39,-66,70,-17,59,-17,28,32,-78,94,33,-47,31,-71,-24,55,-79,-51,29,-10,54,-60,-29,70,-90,70,34,-90,57,-35,-52,-28,-18,3,55,100,-11,-81,-106,-39,-49,17,51,80,109,48,-11,54,-54,-21,89,27,-3,57,-65,38,-63,-1,-45,-2,6,81,0,13,53,-33,-27,2,-35,-24,51,-50,-36,-47,-24,-47,-15,-63,-27,-67,-29,-14,-1,9,-78,-11,6,-8,10,45,11,-38,5,-21,4,10,43,34,5,-13,44,-58,40,25,-26,16,27,-14,39,-13,-1,-58,39,51,-48,-7,10,-23,-64,7,30,80,-10,-60,18,56,15,-39,48,72,-4,27,-41,68,-20,-31,2,-99,48,99,-16,-46,-31,-34,3,-4,16,48,-51,-10,30,3,28,-47,8,55,17,91,-83,44,-2,46,21,-54,52,-9,7,34,-96,29,105,45,-62,54,18,-71,3,60,21,56,13,-13,-40,-50,-24,-34,-55,-58,-11,41,53,-27,69,39,91,60,19,9,-9,-32,-127,-57,-78,9,4,-38,31,-20,8,42,-44,-51,-6,67,22,33,-26,-58,11,4,32,-7,-108,-22,40,-39,-84,22,0,27,19,-3,64,-14,-30,-27,-61,-13,2,-73,-14,4,-55,-4,-8,-2,-3,-17,-23,-2,-9,35,64,-15,9,25,25,13,2,-62,-33,-64,29,-67,40,-72,-63,-32,44,106,5,13,95,-51,-94,-4,78,-10,17,-59,-39,30,63,32,39,47,-59,-84,-73,13,-74,-12,44,43,-6,-15,35,-25,-47,13,-83,41,29,26,-5,17,-38,-2,82,1,-44,-43,-9,-15,-51,38,51,-3,30,27,-25,-12,-48,33,49,-29,-71,-33,15,-10,-45,-29,72,35,-4,42,35,-2,29,16,41,5,21,-2,16,-59,13,18,59,59,5,-21,61,-31,-24,-57,-57,65,-49,-10,-26,-39,-23,-29,-39,5,-17,34,-1,35,37,15,-45,50,29,-29,-52,-29,34,-20,-36,-127,27,-64,16,-30,74,-29,38,17,10,40,50,-19,-19,2,17,-9,-37,-23,6,45,-39,4,22,-73,-19,-16,-19,-25,30,-28,4,21,115,-43,10,-16,-29,-71,-38,-45,-48,6,-12,7,71,25,12,-42,-34,25,-30,67,-44,-12,3,11,34,66,-76,33,17,-16,-19,18,8,27,21,-73,-9,-9,88,-44,25,43,39,0,-5,1,-52,-6,37,38,-43,5,-75,-31,49,38,30,-19,-37,-50,-16,-25,-33,44,-9,-3,-21,17,56,69,-20,-42,-3,18,13,-29,-1,14,56,-17,-30,-1,-6,3,-38,7,15,-31,71,57,-3,-58,-8,31,-12,-4,42,-29,-37,-16,42,-36,-31,-23,-14,-24,22,40,71,11,1,-37,27,-29,-116,39,2,-1,17,-13,-27,19,4,50,17,45,-91,55,-17,-39,-3,-31,-23,80,21,13,-69,-39,35,2,57,-14,-5,38,-36,-66,-113,-37,19,43,-97,14,27,9,-47,-59,-8,-17,28,3,-87,40,-45,59,36,78,-10,-91,-1,46,28,58,-43,19,-5,9,15,-59,39,12,57,38,53,17,36,71,-66,-26,-23,-49,39,26,-23,84,8,127,-62,99,68,3,-2,-13,37,-18,22,-72,-6,-21,27,28,-48,-28,-59,-69,58,84,44,-36,14,-37,75,63,-84,64,-27,-68,-96,24,2,-29,45,22,78,-54,88,-50,-16,-3,-40,-64,-54,-14,17,-9,48,-61,105,-19,-6,24,73,75,66,78,39,87,-21,60,-70,20,8,27,30,36,-47,-81,57,78,-38,100,25,-38,-14,47,54,27,66,37,43,78,55,-78,31,-90,-30,25,34,91,-26,-16,35,10,-47,-55,-22,-40,-44,-86,-83,21,28,-28,45,84,11,22,-57,79,5,8,-40,60,-28,-33,-63,61,-52,13,-16,6,-28,-45,-41,29,48,-33,46,-5,56,97,-57,39,-10,58,108,-21,89,-64,-9,-61,31,50,-44,-47,8,50,-13,-72,-42,-10,24,-22,-20,-40,-58,19,-67,-45,29,-14,51,-63,99,55,56,1,19,36,-70,-12,-65,39,24,63,35,-70,-40,-20,64,4,56,-7,33,-10,-68,-76,15,72,44,-51,23,-85,39,36,59,17,-45,35,36,-4,-30,-32,41,-4,32,-18,35,59,-31,43,-17,-52,10,26,-15,-8,12,-50,12,-52,-34,-18,11,71,-18,4,7,12,11,-32,-26,1,19,-18,-20,33,36,-59,-67,-6,43,-11,42,-11,-64,-61,34,-70,39,27,-75,8,12,53,6,-34,22,43,28,42,-10,-38,-39,35,21,-8,-6,38,-24,-50,-42,-35,52,-10,-22,12,24,7,-34,29,21,-18,-24,22,-14,-13,7,-46,-22,-47,24,-63,33,-5,-9,-46,-40,36,-35,1,40,39,-27,11,40,-52,33,13,-51,-59,-52,-40,-21,-20,-11,11,8,36,-56,-15,18,-5,-2,-10,41,-10,22,48,57,3,-16,19,4,-36,-16,-46,-12,-25,-33,-34,-7,29,-50,-31,43,32,65,81,2,-20,14,-55,20,-27,22,41,9,37,48,-13,-34,-9,-19,-1,-25,7,-15,-37,26,48,-45,-59,42,-52,18,17,-2,-35,48,-39,11,-24,-42,49,50,-10,26,7,0,15,-28,12,48,-21,-48,127,-19,-26,-51,-10,-7,-45,-38,-29,3,11,-44,36,21,24,4,47,15,37,-12,-15,-4,-24,-7,-37,9,42,9,-10,-10,-16,-23,-42,18,-19,19,-37,-79,-7,22,55,-15,34,-34,32,-13,-28,-38,-8,-2,-7,39,0,0,34,10,-34,-34,-24,10,-6,29,-5,32,-29,23,-41,-36,-26,-42,-35,32,-22,-28,-7,-28,-42,3,53,20,-26,18,-46,54,10,-21,24,-41,-46,-35,-33,-20,-49,38,53,-15,4,15,-80,-40,41,-38,37,-6,5,9,19,-33,42,8,24,-8,29,7,-17,41,-18,29,-13,-43,-35,-34,30,11,-28,-7,14,33,38,-1,12,-9,-24,71,-43,-14,16,10,-28,67,-54,2,24,-10,16,20,-9,-27,43,-8,36,-35,-22,32,12,12,18,-34,18,38,6,-22,41,31,1,10,49,-19,-2,15,-2,-15,5,-4,24,11,-42,-40,-9,-2,-8,45,-20,-16,1,2,25,15,-35,47,45,-12,39,14,21,13,18,3,-18,-23,22,-7,-28,22,-17,-34,2,17,-33,-12,16,20,11,17,-30,78,-34,-34,9,9,2,-30,23,-23,16,6,-25,-33,13,-43,0,38,-7,21,-21,38,-127,-16,44,-32,25,-2,23,13,-57,31,2,-14,-15,24,-4,37,38,-26,-52,21,-120,-91,4,23,24,21,14,-40,35,38,-38,-4,7,-4,-7,14,49,33,-22,12,-3,36,-17,4,-8,-6,4,54,-15,33,-32,-76,-21,-45,-50,2,-17,11,45,2,11,-47,-38,-37,-26,-30,7,-29,1,19,47,16,41,-36,54,48,14,59,24,14,-86,-33,33,17,-49,-17,-45,-44,-63,-29,57,25,67,47,3,-35,-36,42,16,38,19,-60,11,36,-26,15,-36,54,40,11,-63,11,-10,-34,-47,-30,-25,-49,-18,-62,-22,-23,-50,41,62,-13,63,-48,-35,33,23,60,34,-77,10,-34,-2,-17,51,-36,-10,-3,25,-60,51,63,-62,64,-39,-41,4,-48,24,23,42,-2,-4,-80,30,-4,-6,12,27,-54,33,-20,53,-35,47,36,-29,-46,-47,63,49,69,48,39,-8,-43,-65,15,37,74,84,73,59,127,-62,21,40,47,-55,-32,38,88,16,-12,-48,54,25,-4,40,-15,62,68,19,20,-25,-25,79,-4,51,-37,25,-70,-12,19,39,55,-50,38,17,-40,42,60,-2,26,10,55,49,-15,66,-2,67,-5,68,-32,-39,-40,-3,-15,-54,-38,-6,12,-32,32,60,-15,-16,-28,-1,-16,-12,15,-14,50,-39,6,-2,-25,9,-2,-25,-64,8,-51,24,-14,28,-88,48,-13,-2,62,-18,-95,-5,-18,-80,-31,-44,-30,40,17,-78,-63,3,14,-44,40,-31,13,56,19,45,15,86,14,36,-29,-2,-49,-32,45,25,74,52,-16,-38,62,4,-12,18,53,29,-27,-32,-4,2,1,23,-17,-23,-2,12,-45,35,21,-15,-42,54,46,5,15,36,-59,-44,-54,-69,52,44,-28,65,55,11,16,-73,-25,13,-105,-18,60,23,59,-31,14,13,36,-83,55,80,46,-70,75,-11,-8,74,59,49,18,18,4,39,27,-24,-16,51,19,-125,-21,-75,-7,15,75,7,27,-50,45,-30,50,20,-41,43,7,57,-76,68,8,-44,-4,-59,-10,-45,52,-55,23,-26,-44,87,125,67,-103,-5,48,-49,-45,-27,10,-67,31,-46,104,-11,1,88,-70,37,51,-34,1,40,-59,-21,-101,15,12,55,15,-17,71,-58,-16,-31,-31,69,27,-69,-31,0,-16,79,20,-54,-5,-53,-19,-127,18,65,-5,56,15,-38,-27,36,19,60,-47,-69,10,83,-17,38,68,67,9,-45,3,33,87,111,51,19,16,-48,-32,25,-38,13,-11,4,90,52,14,17,-35,41,23,44,24,52,72,11,-51,-12,114,5,56,12,-47,-41,82,-36,8,-33,-28,55,74,-99,100,-64,33,28,-58,7,42,111,-26,-54,-50,-12,14,-17,-46,-7,-72,-1,-48,-56,-29,20,17,-115,23,-36,-18,-68,51,4,-32,-62,14,-66,56,46,13,43,10,10,-57,70,-67,15,62,-9,60,50,17,-47,44,-99,22,-72,6,44,90,-40,-3,-32,-74,-54,-60,49,-46,-9,48,-38,11,-64,-27,-53,-36,43,-21,-33,-26,-42,-18,-17,-77,-69,51,10,59,-56,-62,-6,105,23,28,-41,28,-37,-29,27,13,-78,-20,-93,46,-62,-91,35,-14,36,9,1,21,40,33,-39,44,6,49,-35,-85,-13,52,-96,69,-3,66,-77,3,93,32,-14,67,73,-52,-42,18,2,-9,58,86,-58,-32,-32,-47,12,-34,22,-55,-37,10,31,45,-51,-53,-15,32,1,37,37,2,-52,-16,48,-80,-5,-3,-47,21,61,-45,1,83,24,66,64,-55,-5,26,124,10,49,35,32,22,0,9,25,-16,45,-26,-21,-7,-30,-27,-3,-111,-63,-36,-42,0,-49,-11,38,61,-8,20,22,45,57,-54,50,-59,78,93,68,35,6,30,74,65,44,54,-104,0,-21,-46,-10,-3,30,38,-23,112,-25,55,95,-22,26,23,28,51,56,-41,16,-12,27,33,-20,66,2,-18,-40,-33,26,-46,-88,-27,-69,113,13,-20,3,1,-62,55,19,-60,5,-11,46,53,-18,99,-24,-8,17,-29,-29,24,-48,42,-31,30,70,-27,41,48,-9,49,14,-127,22,47,-44,28,44,14,58,34,70,3,16,0,-90,27,-43,-53,-16,12,-42,-49,-30,22,-4,39,62,63,78,14,-9,17,18,-19,12,7,-35,2,71,-14,-98,125,-38,75,-31,51,-58,6,90,-19,48,-29,67,89,-5,-99,22,6,-26,17,34,-113,62,-6,46,66,68,-96,26,47,2,-2,86,-38,79,53,-24,47,-47,55,66,11,8,-77,52,123,2,2,-19,93,55,16,-40,-124,-54,-12,47,-6,70,-54,55,51,30,100,39,4,-9,-3,56,23,5,-30,-1,-54,-65,27,-36,-11,-44,-37,-53,-8,-30,39,94,71,-56,52,12,-12,-50,56,23,73,65,-68,40,37,-40,35,47,-34,-24,-81,-27,13,-28,64,-18,61,-45,-38,10,22,80,70,35,-52,-24,-15,68,59,20,-107,-39,73,-48,37,-10,-43,72,62,-22,10,-35,-2,-13,66,-33,40,-127,-60,-56,-10,-83,15,-7,64,-74,5,-46,-101,12,30,-27,16,-31,-71,41,-29,-58,-30,43,-70,-87,26,25,23,5,59,-63,81,-42,31,39,-62,57,-46,56,-88,-77,106,46,-9,47,30,-65,100,-32,-47,27,46,37,-15,-73,30,32,62,-47,-73,66,20,-28,33,-7,-5,-14,-63,-14,-63,37,-65,48,-78,-13,-58,-57,13,-54,-45,18,38,48,64,-10,-21,80,-5,-44,-24,21,-40,-44,-37,102,32,-69,-50,28,9,72,-70,55,52,72,66,46,-13,-45,83,-16,78,-46,25,18,29,-21,-41,41,-46,34,-3,24,29,21,10,40,52,10,5,40,-12,41,24,-17,-16,11,24,-20,-25,-10,-19,-10,44,-20,21,26,20,43,9,-35,9,-61,-15,58,-8,-55,-9,40,-15,-17,49,36,-6,-2,2,-23,47,-48,-26,18,-14,-11,-38,25,-28,29,-38,33,-27,-43,45,13,-38,50,48,-22,-24,-5,-56,0,4,-13,38,17,7,-35,-10,-9,35,17,6,31,-14,-21,41,17,32,-6,24,-40,-11,-3,-12,31,23,-26,-48,30,-3,2,-49,-45,-33,3,65,-1,-34,-13,11,-46,-14,28,-36,-38,0,-24,46,-21,20,-23,-69,25,-16,-28,17,-31,-71,-22,38,9,36,2,-35,5,30,-48,-3,-36,13,-38,13,-18,43,-65,-12,-76,9,27,-54,-9,-10,-34,-58,17,62,-31,3,22,-10,-49,-29,16,5,-20,15,-61,-21,-43,-26,29,37,-19,-32,-36,6,-37,45,27,55,14,-47,10,-4,38,31,-34,29,39,-6,6,49,30,11,127,-5,31,-10,23,-27,-21,-32,65,11,-47,-22,46,0,41,42,17,-51,6,-23,-46,17,-43,-9,-29,52,65,32,29,3,36,-22,37,-8,3,40,0,2,2,-7,5,0,-6,56,10,-28,-35,-12,30,-43,-38,22,-84,41,59,-72,-38,-38,-48,-6,45,-1,-18,4,32,-61,9,39,-60,-69,-8,-32,12,58,42,-59,-21,-5,-33,-36,41,49,-9,-25,34,-75,-29,10,47,21,-46,-1,47,-28,45,-19,-107,4,6,19,45,-39,-14,-5,-84,70,55,26,40,37,8,86,-9,7,32,2,-22,-67,-43,71,42,13,30,-65,52,25,-70,70,-60,35,-11,-6,-40,92,-30,33,-44,-31,-56,-70,-110,-52,-35,24,0,73,-31,-53,0,51,17,16,78,38,19,-8,1,-20,-51,46,-14,6,46,-57,-28,-30,40,7,-68,26,-10,15,-12,8,-49,46,46,-53,58,-23,-23,-51,-9,34,-23,-22,65,-14,-23,-12,11,12,-63,33,58,51,-58,-47,1,-65,52,6,-36,4,-45,20,-34,22,-6,-20,-48,-16,22,-3,7,-76,57,0,32,-64,39,49,0,-74,-27,-15,-42,-55,70,-58,-52,-3,-40,-47,-74,-61,10,-73,54,18,56,-27,58,-61,-17,12,61,-59,-67,-7,-46,-1,30,-59,-7,57,-49,-127,-48,-42,-11,35,24,-40,-67,74,3,-58,13,48,25,-52,17,47,-27,-5,-62,-73,-61,-12,6,62,43,42,41,78,-5,41,23,39,-58,-31,-20,60,-10,-18,32,45,-20,-23,25,54,-10,-11,-45,-11,-9,17,-14,37,6,-17,30,2,45,-43,17,-47,46,44,-15,65,53,16,-58,-4,-13,-37,22,-12,-83,4,-43,-26,-28,-39,49,-3,-4,-66,-54,43,52,-20,59,0,38,33,26,36,17,40,-65,-36,66,46,1,24,4,-12,19,7,26,18,-12,25,12,68,-28,-6,5,-70,-65,7,-9,3,-63,-69,19,-15,49,-39,7,41,-21,26,-43,28,34,96,-9,15,-78,-30,56,-47,-127,14,-42,3,6,-59,-21,9,49,37,-33,47,4,-10,16,-66,-13,-41,-5,28,38,-13,-46,15,-5,-62,12,-69,-67,-45,-68,-34,5,-19,-38,1,-64,-12,52,17,2,-6,94,10,-3,62,-26,-13,7,56,71,8,-10,-42,-66,-34,42,-45,41,14,6,34,-12,11,32,15,42,-42,-102,1,-22,-19,-17,-1,13,11,12,26,-14,-32,-7,30,-40,23,2,-58,-21,-47,-24,10,-34,-34,34,-60,-1,30,24,20,17,44,46,6,-47,97,-51,45,-51,-20,10,35,17,-1,73,-56,-15,-36,3,74,20,51,-19,43,10,-14,-40,13,-27,-15,-63,-44,47,9,11,-64,107,-26,30,-26,38,-66,2,9,-10,16,39,50,-20,-25,25,25,-39,-31,45,6,-33,-59,24,-8,-59,10,5,44,19,21,16,24,-15,-32,10,28,-35,43,41,-21,17,22,17,-66,9,-32,10,-47,-7,-77,28,-49,14,12,-62,-43,4,-42,-10,22,19,-66,-53,29,-45,72,-35,37,6,-48,-27,27,-31,-21,-41,-32,2,15,55,19,13,-2,-25,4,-31,-32,9,-66,27,9,-17,-61,-36,38,-2,46,1,49,36,-8,49,25,10,-32,-68,-8,-36,33,-67,-41,39,26,-18,33,43,-5,-28,-33,31,-30,-50,-9,-80,0,-2,10,53,-28,20,-26,22,-25,14,-27,21,-58,19,-13,48,-1,34,29,-31,60,-42,4,13,-40,-54,55,-41,44,26,-18,18,-40,34,-21,22,26,-63,20,33,-90,22,-26,-24,-43,5,48,-1,16,-60,-59,42,55,-46,20,-8,45,69,96,-69,35,33,23,38,-12,38,17,-19,15,-5,-24,30,7,-55,33,2,16,9,-3,-32,-23,15,9,32,28,43,-36,1,20,6,27,53,-22,52,-41,17,79,41,-50,-37,24,-14,48,-11,-21,31,20,60,25,-16,43,10,-51,39,2,19,-17,-1,12,0,-10,-5,-46,32,-68,127,-4,-11,-55,29,-38,20,-8,-25,34,-9,-11,-49,-23,-20,-59,28,-49,3,-33,29,8,65,2,61,30,-62,3,36,7,-31,-19,-94,4,-24,-3,55,45,-13,4,-19,-22,16,13,-21,60,-15,33,-2,34,-43,-46,48,-6,-17,47,-1,45,-8,3,-32,30,-33,66,-32,-38,55,11,26,-92,37,-22,20,-39,17,-38,-14,-5,6,-50,49,-17,-8,37,26,42,-9,6,-2,42,-14,55,24,24,-14,16,-9,16,23,-16,12,14,-41,7,20,45,30,-9,-37,13,-33,16,14,17,30,5,30,-1,36,-19,38,14,20,47,-19,-39,-35,77,52,-38,-22,42,-85,-28,39,-7,-45,0,-26,-24,45,-32,23,27,52,6,-30,-44,12,90,18,-59,-31,10,-15,27,-4,-34,-46,57,36,55,40,2,-22,36,-48,-48,-33,31,1,45,43,-33,24,61,-9,24,-127,-35,23,-18,19,-57,-10,4,12,-49,-16,6,-36,-15,-48,-32,-19,4,-42,-18,-40,-73,-28,-27,37,-21,-43,46,-12,13,15,-12,-85,-13,-66,36,31,-52,-9,35,-50,23,9,-21,25,-36,-25,70,106,-63,-24,-33,35,31,37,47,-16,-49,-38,17,7,44,-28,22,-42,-50,-26,-2,6,-2,41,-31,23,-24,-22,-12,-13,-22,-7,-22,-24,36,-41,8,62,3,23,-7,5,-51,-25,9,-31,82,25,52,-42,-19,-17,-3,-31,26,6,10,3,33,50,46,50,10,-30,-14,19,-38,-32,-22,-22,51,-23,28,-42,-11,27,44,-29,-4,21,-30,-55,57,55,-55,39,28,22,39,29,4,-37,53,36,16,-28,-17,-31,28,-31,55,-46,16,-52,18,14,47,-26,20,28,-45,46,-32,-52,61,47,-40,127,-64,-67,-11,-63,45,-71,-74,29,-38,-1,53,-4,-51,60,-36,-65,-27,-18,20,68,48,-3,-35,-29,-3,-22,-25,23,67,78,-29,-40,53,48,2,0,-81,27,10,21,14,-5,31,67,-56,-12,-2,62,-25,-37,-37,34,-15,34,24,3,-32,-20,-58,43,7,68,17,40,46,47,-55,34,-20,-34,43,-16,41,78,11,-70,-71,35,28,7,-9,-45,-43,57,-33,-29,64,-4,-21,8,-20,-56,-66,-24,-22,-32,-45,18,15,48,-27,76,29,-16,-16,-47,45,-3,46,-50,43,-46,-1,-36,0,27,-65,41,-62,48,-21,-30,64,35,34,15,-60,-34,-55,-47,46,50,21,-43,85,-63,58,-15,4,-21,101,27,-14,37,54,29,57,32,-9,23,-37,-1,52,35,-15,-57,-36,37,26,-21,47,0,-32,-48,38,-17,-20,17,9,55,15,36,20,-30,-7,-11,-15,-27,47,-6,36,-2,-10,21,49,47,24,-71,65,51,14,75,72,64,8,13,37,-47,5,-14,28,-53,49,-37,-41,28,-87,32,1,-26,-73,-3,-30,-23,14,-43,-32,-6,-35,63,46,-24,44,55,-46,31,52,39,5,35,-4,-43,-11,66,-10,-13,-3,36,1,-43,-6,-12,-76,55,61,35,9,70,-37,-23,-24,3,15,-9,32,-91,-42,44,6,88,-44,16,-54,-58,-4,27,28,-26,-23,42,6,8,-9,2,-9,12,7,35,3,43,-76,-12,29,17,-45,-68,-59,46,-30,51,-49,22,18,-28,4,53,-36,-6,-67,2,-8,2,-43,45,-83,-27,22,-25,-50,-33,50,-53,67,-18,-77,-58,-50,11,-24,-82,45,11,-13,18,52,0,-37,-59,-35,54,-14,-60,-52,-18,11,56,-36,-44,-25,-42,55,69,30,70,53,49,40,21,-32,-12,-16,-19,-31,24,-56,-26,27,-6,-24,-56,-12,-41,-6,-53,30,16,74,-42,-29,55,-9,73,-63,-5,16,-70,1,-28,-9,25,-49,17,16,-9,20,61,10,41,35,-47,45,-60,17,84,31,-18,68,-12,62,2,-26,48,-33,-6,-1,-18,12,-18,-21,-32,45,3,-27,52,-15,-2,-8,13,-37,-31,-27,-7,53,11,-16,-87,2,11,18,-32,-86,9,-54,-9,127,-8,25,-32,-102,-28,14,-56,35,-5,37,-7,-88,2,-25,109,3,37,30,97,-19,75,-45,0,-16,-65,-34,-11,54,-36,-33,52,48,-33,0,74,-51,21,-34,-35,10,0,-25,-69,43,7,-5,-12,72,-68,-70,18,15,-49,38,20,-49,69,38,-28,-92,34,47,-57,-31,5,41,53,65,-47,66,60,-12,65,3,-116,5,10,-55,71,78,-40,8,9,17,8,-19,14,58,24,11,35,61,28,-26,-4,52,50,24,-26,43,43,39,-54,15,39,15,75,11,-53,-69,-65,48,83,40,-32,-45,-12,-49,-10,35,-34,23,63,-67,48,-58,-75,32,56,-26,-24,0,-47,77,-95,-57,-5,45,-3,0,56,25,39,10,-47,45,-57,-56,32,25,58,60,-56,15,64,42,65,16,56,44,0,-86,28,-58,27,14,-45,-1,45,15,47,-74,21,51,-24,21,-18,84,56,-72,-100,95,59,-44,-40,34,-46,-27,44,34,-76,31,19,-47,-53,-49,-22,16,26,58,-4,-14,-1,-35,-54,-60,28,21,72,65,35,42,84,-32,8,19,15,-22,-14,23,34,61,20,-19,-45,-56,-12,-69,-25,-24,75,27,20,-7,-17,0,26,11,-16,30,-48,5,31,64,66,-68,72,-28,29,42,-49,-4,81,-60,78,17,61,57,-90,-9,82,-23,46,-17,13,42,20,29,16,27,57,-127,-41,21,15,57,-23,-40,-68,-29,2,-22,33,-23,-5,56,-65,40,-93,-43,39,-55,-59,-10,60,-3,-88,-27,-10,45,31,-74,8,-39,23,-3,-21,54,20,-5,-4,-61,36,-20,25,35,-51,-8,-69,29,72,61,8,-72,-71,-48,-61,-1,-33,39,-59,-4,104,-65,16,3,-1,-20,-9,45,61,-17,-14,-59,2,-35,17,-17,38,49,29,4,34,-10,-49,-39,37,-49,-20,-31,4,-3,-67,24,-44,13,-3,-55,48,-64,-16,-10,-62,11,-42,-3,-2,63,42,23,-17,-1,-23,-14,-2,-66,-16,-49,18,32,69,83,42,24,30,-32,-68,34,-23,-37,88,-59,-49,12,2,-13,-9,32,-50,31,-74,-21,85,50,24,13,55,-83,26,-20,-24,-86,47,-10,49,-24,3,-49,-76,23,20,28,-58,-80,-50,-69,49,6,54,-30,26,-70,15,49,-27,56,47,58,23,-76,24,61,51,-42,-75,6,2,27,4,80,29,23,24,-52,-13,-41,33,-77,-46,31,60,5,82,-3,-16,48,25,-51,-87,48,40,46,-49,70,55,32,13,-20,-54,-5,10,-36,39,-127,-42,-64,14,6,34,72,-29,6,41,-27,-19,-59,20,19,-9,-26,-67,-15,-44,-23,33,-13,-14,83,18,16,-18,39,-77,-2,45,-39,-34,27,-42,25,61,94,34,-22,-50,42,22,-57,-7,29,27,-45,-22,-15,5,7,-75,41,57,-1,0,-25,-50,73,20,-26,-36,-9,85,14,-4,-37,-65,17,-18,77,-50,47,-23,117,11,-39,-8,34,-58,15,-48,-14,19,-20,19,-35,22,7,-3,1,21,4,-14,55,-31,-45,-25,-6,12,33,-24,55,-27,-2,44,49,31,32,61,-25,75,39,35,-62,77,39,77,58,-24,-28,79,66,-23,73,-4,-70,101,-16,56,-68,18,-40,-62,87,49,66,-3,24,-39,-12,-2,122,-79,46,-38,38,-64,-81,-51,-22,27,43,-45,-11,24,25,127,31,-82,97,-47,11,71,-12,-69,-35,58,-14,8,-14,-31,-105,-56,-28,-52,-9,-6,-39,21,-88,83,-13,-30,-9,-49,100,-38,2,39,44,-71,20,79,30,-59,-12,8,80,33,20,39,68,-65,-21,3,16,59,-6,0,19,-19,-27,-35,69,-19,1,98,-72,92,23,-13,-28,22,-41,-4,29,42,-112,75,29,-51,81,97,-60,12,-23,6,-42,38,-36,-23,-51,-69,34,-22,27,-47,-6,-65,-28,30,-34,83,23,-33,-2,-29,67,-3,-9,60,-22,-33,0,7,-11,16,84,16,-37,-34,-74,-10,56,-36,-8,72,48,38,56,25,-65,-22,-52,-24,59,-63,63,-74,78,-96,36,113,-48,9,37,52,70,27,-41,12,-33,15,-8,-49,10,17,-27,32,-34,-78,-6,88,74,28,51,-59,31,106,96,86,-37,3,98,65,-71,40,-53,39,78,93,51,-11,10,65,-69,-7,-57,60,-91,80,63,-33,82,5,-22,110,-97,-83,35,-60,-26,12,2,-16,-8,-27,3,103,-20,14,-15,-64,34,61,-54,-93,-64,34,54,59,97,-62,-114,42,72,5,21,-94,-43,-64,29,115,-59,-46,96,-15,-38,18,-12,55,-88,-31,57,-73,80,-68,88,-65,-127,-62,37,-30,-109,-63,76,59,-33,90,-40,1,-43,-21,-59,81,46,99,6,-27,-70,-12,28,81,101,-78,-2,-29,82,-44,-5,-15,-2,-75,88,57,75,30,-68,36,5,111,45,59,-27,-50,20,64,16,-4,-97,-78,-19,-8,-10,-77,22,-81,46,-19,-45,-34,-4,-66,-1,41,66,52,51,-98,-32,7,-64,8,-23,-55,-24,-100,65,40,13,-10,-57,31,-25,-78,-91,61,0,-85,-71,-59,22,-52,-36,-43,-36,88,23,16,-127,7,-60,-89,-49,11,20,-35,-33,-36,-61,-29,17,88,52,13,-25,45,-4,13,-1,79,-19,32,40,-76,-52,-31,47,30,-2,-86,8,12,25,-75,63,-21,85,14,-20,-9,-49,64,-100,28,94,-78,-91,-8,-33,-66,-24,48,-82,65,49,11,-54,69,67,-9,-3,-13,-101,53,3,-24,81,82,-53,21,24,-74,-62,-84,70,-63,-80,68,-36,-48,-51,-41,-24,-101,89,29,55,-107,41,64,83,24,80,55,-10,-35,41,86,22,-1,-12,-48,-51,-19,-8,-26,-18,101,-75,-55,33,-93,-56,-78,7,-65,0,38,-2,48,45,10,-59,105,30,-114,-39,-69,-49,-60,-86,44,14,7,-41,39,-84,-127,-87,-39,-27,114,-93,-35,-104,-82,57,121,50,-7,111,-74,41,61,73,73,-34,-74,22,-15,67,-86,-6,-10,26,50,-74,-100,33,-76,-115,89,91,-81,84,54,-15,107,-117,-69,22,-87,-78,46,24,-2,-36,-63,-91,35,57,-32,-85,51,48,1,83,-89,51,78,-33,95,-7,-12,-108,-17,-32,65,2,50,-67,30,-93,27,-32,10,-56,-25,33,-24,-16,-103,70,53,46,75,-95,-30,58,-115,-47,-22,-88,72,-73,41,-88,-13,81,-104,-81,-19,-69,-26,45,34,-28,-53,-85,-57,115,89,124,34,17,2,34,38,-17,-94,18,19,-54,77,82,44,-46,-122,-66,49,49,30,40,-40,63,-2,58,56,-32,-40,-74,1,-117,-51,36,-124,-38,-31,13,-27,-39,-4,101,2,24,49,-9,29,-108,-70,25,-115,-20,-114,111,-80,66,56,-48,-56,-23,99,-31,6,-63,-74,47,-27,40,-45,-25,-10,18,-27,-37,-35,-20,-29,5,18,-38,26,-38,37,-7,49,72,-7,-4,26,39,-25,0,4,54,-18,-34,37,-3,8,-32,43,-44,18,-22,30,61,33,-35,-62,-30,-27,-19,-25,20,14,-26,10,7,-20,-29,9,-28,30,6,0,12,59,37,-67,-49,18,-11,53,3,-7,31,49,-16,30,-12,49,48,83,52,-12,-9,11,-2,35,79,-14,-8,19,11,-40,43,-7,-22,-12,15,-12,28,-53,-6,-30,14,-47,22,-31,-27,12,22,13,5,-17,46,-14,21,-27,-33,19,-17,33,43,-38,49,4,-127,-28,-56,31,48,-8,-28,11,-10,49,-28,7,-13,-39,-38,38,-20,-1,-45,23,40,39,36,-47,-36,18,-55,22,68,-13,6,-17,6,-46,-6,20,38,-33,-36,6,60,-56,0,19,21,-20,14,4,57,24,40,48,46,14,46,-14,-6,-61,40,27,35,-8,-88,-9,1,55,0,-8,3,-52,-31,-47,19,-32,2,-38,22,-38,-67,21,-27,-28,-31,-4,26,44,14,-17,14,-38,-12,21,0,14,-20,4,-19,34,59,-38,23,-36,53,67,25,7,25,-43,58,10,4,10,-26,-22,-31,-14,-11,26,-11,24,50,-7,5,-49,66,17,-49,1,18,-2,-19,-44,-46,1,30,-9,-43,-21,2,54,49,33,-3,-42,47,-20,101,-13,-71,48,-79,-12,-11,-24,-43,-30,2,-2,55,-36,-40,-25,10,59,26,-15,-6,4,25,0,-61,-55,-25,-28,76,-36,-54,-51,-4,-40,-16,-40,71,-59,-3,7,12,35,39,-66,15,25,21,-8,-6,-76,-88,50,23,30,-10,18,38,-9,1,-59,20,-8,59,49,40,-109,-21,52,78,9,-97,26,-14,-34,41,-6,-33,62,18,-25,-40,85,29,-36,31,39,54,35,-64,-52,28,19,-8,0,-17,39,2,-38,41,40,-37,22,44,69,-8,46,-26,20,-6,-22,17,-46,20,49,32,-39,28,21,-9,-35,4,-15,44,-10,16,22,22,-6,-38,59,8,24,63,-15,-55,26,28,-29,7,69,47,13,24,36,15,-40,26,-20,56,49,-11,-27,-53,-22,35,-50,-22,-58,52,65,16,58,-5,-51,-7,-10,-46,-20,-18,20,36,6,15,0,33,-31,21,-1,-25,72,23,23,77,21,47,-48,-54,-75,71,17,-61,-74,9,65,23,-39,-1,11,22,-12,-56,-24,127,49,-15,14,-2,-65,-14,32,-40,-37,25,56,48,-76,-23,-39,26,3,16,46,9,16,3,27,-29,-51,4,74,-44,-11,-27,29,-16,-34,6,-40,-23,33,-6,-4,-44,-8,-11,34,-34,-39,-63,-27,-62,-102,12,-37,1,13,14,-4,-9,-46,52,6,-13,77,-81,-44,-66,-44,-37,51,31,-44,53,-29,-21,-45,65,-20,-46,-63,34,52,-28,23,32,-43,-80,-52,70,-3,49,-61,56,-64,-55,28,-71,-10,-42,32,28,11,38,-46,49,-73,-107,-14,52,-51,6,42,-6,-40,-69,-33,43,47,35,-71,-7,-3,25,-5,-49,51,-31,-8,-10,13,-5,-7,-31,-12,-86,-15,-79,0,1,-55,6,25,88,-73,-31,42,-51,57,-19,-34,-67,-55,46,3,-42,38,60,-20,-38,1,52,64,7,-33,-65,-14,42,-2,47,-11,-2,86,1,26,82,21,42,3,12,7,-2,4,38,-61,24,-2,-50,4,-14,55,52,-2,-41,-47,-5,-37,-73,-40,-18,29,33,-22,10,-40,25,43,67,-28,6,-34,41,-74,44,-2,-66,68,-9,34,49,27,-55,36,87,6,-34,-40,22,-2,-73,39,-3,-27,-14,14,-127,76,26,1,88,-4,-21,33,78,34,84,-16,-49,15,-7,-55,-14,-72,-18,17,-56,29,-34,-33,-39,10,14,61,-39,53,36,89,12,24,16,81,10,-32,85,-34,-40,-89,9,19,72,12,28,90,-66,-66,-15,44,-50,-53,29,-20,33,-18,2,-22,-9,-22,-7,-23,-8,-44,20,-40,-35,-27,-39,29,76,70,53,41,26,74,-58,-60,68,73,-43,-29,25,-33,-13,40,-43,-83,44,70,-44,85,79,43,-45,-71,-10,-42,-55,30,-21,56,127,-30,-11,41,63,76,28,-90,13,-87,-18,70,115,59,-46,27,39,-68,56,59,-49,43,53,-84,14,23,5,-34,36,34,-25,62,-65,-15,-53,0,61,-17,17,60,10,76,8,-22,6,-41,-68,17,-23,-63,29,-62,-1,56,-24,-47,-22,49,93,-28,34,57,12,41,-54,-23,-20,-50,-33,61,-28,23,71,-71,42,15,-18,82,-42,-16,34,25,35,45,65,27,83,-55,-54,-76,3,84,-73,50,-72,-31,3,-5,28,-17,36,46,-19,69,62,-31,27,-7,-41,-20,-36,-15,-24,63,-55,76,-23,-89,-54,0,-25,-38,14,57,56,1,-54,33,79,80,5,-48,-52,-2,-80,-74,-32,88,-47,54,70,63,19,41,3,19,16,58,-48,-61,41,-13,2,-45,91,-54,33,6,-25,12,92,2,-39,-27,51,50,-3,-5,88,52,-77,27,-117,49,57,-94,22,-42,-54,59,-61,46,-33,54,-39,35,-23,-27,107,21,-17,92,-1,-58,81,96,-77,-11,-29,-30,101,20,-32,-41,28,-23,28,-54,-41,62,-4,13,89,-86,41,-49,-1,-12,22,-10,-79,53,64,-8,-81,-21,-74,74,64,76,-9,36,16,90,94,-36,-36,30,54,20,29,3,-47,-7,26,74,42,-56,-77,-70,44,12,-39,-11,-31,-21,50,68,-67,-11,38,48,5,32,23,-71,56,20,60,-102,37,-63,45,31,-18,1,32,30,87,-101,-91,-31,-99,-79,22,52,-6,-31,-36,62,14,-33,99,-22,5,52,-16,55,18,74,-19,53,-75,-13,-59,-73,-10,68,-9,-21,-20,-45,72,-36,53,69,-49,-45,17,-14,-75,14,28,-9,-4,-13,56,89,-67,-12,27,-75,17,71,1,29,57,68,-67,-66,-42,-18,33,35,-31,48,7,91,-27,-92,91,46,-10,39,18,23,-7,-24,-26,50,-40,-10,-17,-28,28,-20,63,44,-11,-39,-46,-46,-21,109,20,22,-2,29,104,-38,-2,61,-32,72,-7,2,72,21,-15,-20,-78,61,-38,67,-26,-33,-30,47,-25,-59,60,97,-41,23,8,14,-4,92,-127,-39,26,74,93,15,-6,92,-39,49,33,6,35,106,23,65,45,87,-56,35,-47,-19,-23,53,-12,-23,36,-66,-31,-3,-11,63,-26,24,-38,-60,21,58,-27,-52,3,65,62,12,34,-10,67,32,-37,-23,26,0,-38,5,58,-15,6,42,-50,-44,71,44,12,-49,8,-85,14,-16,-81,-31,-33,19,7,15,16,24,-29,17,-36,2,-3,-13,-13,-24,-30,4,-27,6,11,16,27,10,-3,19,-10,27,44,37,29,-7,4,32,-32,35,16,-2,21,-13,6,27,-6,13,31,28,-26,-23,13,16,0,-2,14,9,-15,-11,-49,-19,30,-27,-38,5,30,2,14,28,14,-11,-7,-47,-4,-33,7,-32,-9,3,-46,15,0,-3,-15,17,-35,51,-10,-6,20,-7,-35,-12,-3,-7,-20,9,-30,-16,20,-16,-18,-13,2,-31,-2,-21,6,7,-19,-50,13,-5,24,-3,-5,-33,23,28,-33,44,-59,5,35,7,-14,27,-1,-14,-32,28,-16,-5,-17,-12,13,-37,-16,-13,-8,-9,32,-26,39,-5,-1,37,0,30,6,-33,-41,-8,-30,5,32,-2,-1,-41,-22,6,8,-33,10,-20,-17,-5,-9,-51,-24,2,-42,3,-8,-21,32,48,-10,37,19,-39,-45,41,15,-37,-31,-49,-8,33,22,-14,-51,25,-38,26,35,-32,-17,49,-36,14,3,10,-10,127,-33,1,-3,36,29,-15,-37,-9,-32,21,-6,-29,-31,5,-26,43,-1,42,46,6,27,18,20,-53,42,-27,36,22,23,-18,54,-7,-58,-6,21,-15,4,9,28,-25,12,38,-19,-49,-31,-16,43,-17,-11,20,-34,29,2,-20,-25,-44,43,42,-31,0,-76,18,-58,58,31,-39,31,81,87,-44,42,-19,33,-19,-92,51,26,19,56,-12,-66,25,-28,-14,62,-21,36,-109,-43,26,-26,46,23,-67,66,-62,44,-44,33,18,-18,4,10,35,72,79,9,-48,-20,-46,-42,61,72,69,-20,41,71,23,-64,31,59,-32,71,13,-26,-1,-23,-41,24,-40,48,-37,-19,56,-31,105,-45,52,-33,54,31,34,20,86,-12,3,-86,39,98,69,-39,40,-52,-8,-54,-8,10,7,-64,-81,7,-25,-24,115,48,45,49,-8,-32,56,65,85,-39,35,-21,69,67,-9,84,28,-14,-17,31,72,-45,65,1,62,40,-20,-45,-24,-20,-43,3,57,21,15,82,-39,-42,-85,-51,-59,-82,-18,-18,25,46,1,19,-43,-127,18,41,79,29,66,28,-56,-41,-64,60,-57,68,64,-5,-41,-51,54,17,-3,74,50,63,-20,-1,25,-78,5,66,-94,-50,87,35,22,27,44,-19,-38,18,-44,-33,-37,-5,-127,-50,-61,-34,-40,-41,-5,-7,71,15,-123,74,52,-50,82,-16,-25,60,-31,19,4,-54,65,20,-77,-111,-65,43,14,-1,-28,19,14,-25,83,28,34,24,-36,54,-6,-40,-32,-23,2,10,27,61,12,-54,64,-10,-17,77,-51,-14,35,1,15,24,-9,-16,12,-22,-66,0,38,46,14,-30,-9,39,3,6,47,7,-15,21,44,34,-32,-41,8,-77,-31,22,-42,36,8,59,-39,1,45,-12,94,19,-9,29,-42,-1,0,-33,9,-1,-38,14,5,25,-42,49,30,18,12,-15,-40,13,45,26,-59,59,11,-16,20,47,-57,22,21,28,-43,-47,-11,-14,-1,-48,12,37,2,55,-28,8,28,18,15,-6,-25,38,-4,23,-43,59,-42,27,56,32,-50,19,22,-72,-16,-34,39,-3,18,2,6,40,29,22,-40,-24,-5,41,12,26,-42,-20,21,19,24,32,-18,73,43,61,0,30,17,-14,-50,34,-21,38,7,1,8,38,12,3,-44,11,8,-67,-44,19,25,48,38,0,-53,-28,-54,21,22,-46,-15,-11,46,-53,45,60,44,-55,26,-32,-34,7,-57,40,-1,-49,-23,36,-36,-24,38,65,-47,56,31,-35,-41,-55,19,58,11,16,-41,39,-17,12,-40,-21,13,-12,-30,3,-36,22,23,-14,33,29,28,-18,44,25,-127,27,-58,34,-49,-29,-2,16,1,-14,51,4,-17,25,-19,-14,6,-22,48,-89,4,17,25,14,-65,-25,-29,-32,-37,2,-48,66,-11,52,48,-49,-37,9,40,-4,69,8,15,-64,-51,6,68,0,24,-103,60,9,33,35,-7,78,38,-42,-45,-48,-56,-80,55,90,55,97,-21,88,35,-4,33,9,42,-36,35,-34,-8,-27,29,48,-28,44,-41,-66,21,48,-41,-28,-9,20,32,-71,-33,-33,62,30,11,-15,-30,73,-21,-4,-13,35,21,-61,37,28,36,-54,59,-30,20,51,-63,-45,-94,16,-50,5,-1,-16,55,24,-90,-12,-67,-21,40,28,50,60,26,16,-40,11,22,-21,22,24,-13,-51,-68,-48,-42,44,-68,127,55,-92,-29,33,44,-35,-39,48,-23,-29,22,-81,-36,-68,18,-60,30,68,-13,-64,-19,84,11,-61,-1,26,-10,44,24,22,56,18,-32,61,50,29,-8,-10,61,-22,92,21,101,5,22,-2,-29,64,11,2,25,51,-27,5,-76,-5,-69,81,-8,17,65,-69,10,23,-2,-19,-65,7,86,-73,55,-19,-76,9,-71,-96,39,20,-34,-29,-6,-23,-42,2,-81,-39,-8,27,-17,-42,-26,-54,-69,17,-57,-22,21,13,-64,-63,-61,22,68,18,-72,47,59,-46,-37,-55,-25,-5,-65,51,-2,66,-78,24,-80,-33,22,-79,44,70,38,1,31,-78,-37,-22,-1,32,-13,22,64,-39,56,41,2,-57,0,-88,38,-83,-60,-57,58,32,34,62,2,20,-56,27,50,81,-70,-1,-5,-83,36,-20,-61,-36,78,53,-15,-73,15,-3,-28,65,-16,47,-37,26,64,-98,-35,54,1,7,-47,-53,-35,-70,12,6,25,97,48,-10,16,-18,62,21,-27,59,-64,16,-41,-2,-40,-68,64,-11,-79,-40,7,-50,58,56,21,50,0,-60,50,41,88,-73,-11,50,89,2,-48,-23,90,-28,-32,39,25,40,-56,-3,12,7,11,-46,-66,-14,42,-69,-45,-22,48,-36,8,87,76,-32,-42,-27,-46,-8,-54,-17,55,43,7,28,-47,13,-12,-73,16,35,75,-21,-7,-64,76,-42,77,-63,44,-55,-14,-5,-22,-5,41,-61,-9,-19,68,12,23,-45,-35,-57,48,-17,-51,-18,74,-14,16,76,71,24,-10,-50,-37,-33,26,2,41,5,66,-22,80,-75,65,-30,-55,59,40,37,33,14,51,-12,-62,-1,107,53,-5,65,46,6,-34,53,-59,-74,-36,-36,-19,-56,34,-39,-68,26,-40,60,61,64,-33,-79,66,49,-12,69,0,-6,16,-55,77,-62,-47,-4,26,-127,-44,92,-37,-56,-48,83,-51,-39,-84,-56,24,-15,-70,-24,-3,55,-32,-14,-21,2,50,-104,-13,56,46,25,-20,18,50,43,30,-6,-18,30,13,-86,-48,-75,-9,38,-56,87,-46,47,110,16,6,36,62,-13,-16,27,3,33,51,5,-15,-69,72,-17,3,-23,-5,38,-10,-102,4,14,-20,-5,-24,20,-20,-26,-32,-13,-25,-13,-45,10,-4,-54,31,-35,-35,73,23,7,95,65,60,37,-14,-12,-53,-28,8,-23,31,19,7,12,-50,-38,37,-100,27,-22,2,27,-21,-33,33,-67,-33,54,39,3,32,-14,-7,-33,-55,-7,5,-2,14,45,-4,74,11,7,50,-24,19,-60,-4,23,39,16,18,-62,-49,2,-21,24,-5,39,-37,44,-2,-46,8,-18,-65,23,66,-28,22,57,-5,52,-14,-15,-78,12,38,27,48,84,-25,-7,33,10,21,-29,-22,8,-18,27,5,-25,27,23,65,-50,-38,-17,-5,-26,-15,44,-28,7,-47,-27,-13,-39,-17,14,23,46,-24,-2,-36,15,-20,19,-2,27,-5,-19,-8,-13,-43,-6,20,42,-19,-3,-2,-69,7,7,-45,-40,13,29,-125,96,-35,-80,-58,5,-24,52,19,52,-58,26,-1,3,2,-15,-21,10,-91,27,-47,65,56,-127,-14,-39,18,12,45,29,44,100,19,58,-108,-51,-81,-34,-17,-61,3,-10,49,47,28,9,24,54,5,16,-14,12,16,-37,-33,-62,-30,-37,-55,9,4,5,38,-22,-24,38,-41,1,21,33,-124,-5,-18,28,-36,39,-48,13,-26,-29,86,34,-35,50,-26,19,-41,2,48,55,-54,-8,79,-11,4,15,55,18,35,-34,-46,52,8,-79,-16,-16,-14,-35,-50,-46,-8,6,-19,32,-85,11,40,12,107,-22,-2,-8,-13,56,-15,5,-44,33,-22,-5,42,-64,-71,-19,15,10,-23,-25,-39,4,9,56,-11,-12,42,-13,35,-53,-38,7,60,-52,48,-52,6,21,27,5,-11,21,-29,53,52,-11,58,-67,-60,-9,18,-43,51,-19,-13,25,14,43,41,18,22,9,-62,-63,29,-29,-50,0,-21,-84,17,16,46,14,24,41,-41,-15,31,2,-52,11,52,17,11,-19,28,59,-36,43,6,-63,-50,57,-50,-31,-47,-55,-32,10,4,-47,20,-22,0,-33,58,-35,-55,-34,27,43,-11,-82,12,15,44,40,-17,13,-2,-5,24,19,-12,-46,-11,2,6,26,-23,10,-29,21,-19,-22,-65,-24,127,-62,-21,-9,-54,21,10,-27,25,-46,-6,-23,-13,-14,8,19,-5,70,-41,-17,23,3,-3,-38,-53,-24,-43,34,-18,-52,0,-33,23,2,-21,45,61,26,30,-74,-19,-51,-49,-52,-53,0,61,-26,40,34,61,21,6,33,9,38,6,36,27,3,28,40,-5,12,30,-20,-56,52,10,-47,-43,-55,-14,-18,72,62,-63,-64,33,-24,-41,-19,24,-6,0,57,63,-44,-60,-13,-77,28,5,40,-87,44,-107,24,78,46,80,-55,9,39,-7,-24,-32,49,64,-46,-36,-29,23,54,41,28,-22,5,56,39,75,-10,-19,4,10,-53,65,36,-3,-10,-53,42,-60,-41,38,-59,-10,-32,-4,-19,-75,-11,-28,24,-26,-39,89,14,31,-45,77,-2,57,-37,-60,-27,11,-2,14,19,-44,13,38,-69,74,-48,-102,69,-9,24,43,85,-51,13,60,21,67,6,-11,6,12,14,-33,102,61,70,-7,-18,0,18,-63,-66,37,97,-19,16,-31,-10,-26,-56,17,18,28,38,-20,-52,-9,60,38,69,-11,66,81,18,-71,-5,-36,76,58,-15,-4,77,41,-34,61,59,-14,33,-54,-53,-59,-20,-81,72,-11,69,31,23,-34,50,-1,48,-38,25,71,-5,32,71,12,-46,-36,-7,58,-62,-33,6,9,73,-46,-72,23,6,-45,-41,5,45,28,49,25,61,-60,84,-78,-46,-58,22,-31,66,29,-18,3,19,-40,-11,65,12,8,37,126,64,-39,-34,-34,0,73,-37,74,-31,8,-76,127,36,-24,81,-15,71,-79,-126,-45,6,-21,-22,-61,14,43,-28,14,-50,-39,16,-46,-57,-3,-88,6,46,-16,87,-26,37,26,64,-78,14,50,-56,-14,12,-28,85,-21,-31,-63,-43,-20,75,38,31,21,-24,8,16,27,-72,16,14,-15,-45,-61,31,-17,99,101,71,-49,14,-30,35,79,31,-91,29,84,37,-92,44,-56,87,-38,-79,24,32,-20,55,-26,56,81,-33,34,-127,114,34,-10,81,44,45,-35,57,-42,64,74,85,-11,39,-51,92,28,64,56,-33,54,-42,-53,-41,18,24,68,-12,-12,-26,20,-91,-16,59,30,15,66,23,54,-78,51,22,9,36,53,31,67,47,-33,-5,-41,83,86,58,62,7,20,-6,78,-62,88,-75,27,14,75,37,1,78,-10,19,-36,6,-48,37,-51,58,-33,98,-34,-47,38,4,91,-30,58,-62,-39,-31,22,9,-5,-38,21,80,111,32,60,-9,-70,92,35,-50,21,83,-65,-52,-15,-33,-80,71,54,-21,-42,29,46,46,-47,-11,-50,58,75,-38,-14,-27,38,-30,18,15,-71,-66,60,-26,-7,-57,22,-19,89,33,61,-66,-80,55,-9,-50,78,-86,61,-67,-40,5,-1,31,98,53,44,56,63,14,-13,-20,-78,-18,-47,51,-23,90,-9,8,-35,48,0,-4,-26,-26,-65,74,6,-78,25,-18,-35,49,28,52,9,82,76,17,8,-8,-22,-31,-86,11,-127,-55,28,30,17,46,-21,21,-1,11,-23,85,-101,-75,58,64,-38,10,64,18,70,4,28,-53,-55,24,-8,-13,20,49,-25,78,39,46,-11,-20,4,-26,12,17,-17,93,-60,10,4,-29,16,44,-51,-78,-109,61,-7,-41,7,59,-3,2,3,22,-114,21,20,-2,-57,5,14,12,-24,33,-57,41,-68,35,-11,73,21,-23,-75,-54,-39,-29,-6,85,0,57,31,-11,3,1,61,-68,-44,12,-31,-29,-83,-3,43,-59,-7,21,-26,-37,-54,12,46,-2,-48,-6,43,35,66,36,-53,-86,-35,50,-60,-9,12,-13,68,52,-4,-41,-33,8,-3,-51,-46,-44,-63,-70,-44,-39,11,26,1,-17,4,-61,46,47,-32,32,-89,-13,-29,-90,-14,61,-42,-40,72,67,43,68,1,-11,-62,-35,23,-7,-1,48,-75,17,39,37,6,21,-12,-80,-22,-46,44,-78,9,-18,19,-13,61,53,42,57,20,-36,-25,-62,22,25,4,7,-55,8,9,-45,61,127,72,-66,-1,19,-63,46,3,-123,14,-68,-49,-60,-15,-38,44,-45,-26,13,29,40,120,-35,55,55,98,-47,21,41,-40,-17,-53,-91,4,-6,92,-71,-52,-37,-43,47,32,12,95,32,-15,-29,-101,-24,19,-61,23,-91,-117,-15,44,57,32,41,38,-56,23,86,-13,-65,-54,-47,82,-11,-15,23,1,-123,-42,-64,23,-53,-100,-28,13,-9,-24,-65,22,-23,9,-48,-19,13,-30,48,29,-46,-48,1,45,-66,-53,-35,35,-76,76,50,-18,34,-64,-27,-14,7,63,52,-26,-57,52,-30,65,118,70,127,16,45,77,-28,1,55,61,-43,-2,52,-27,-14,19,-44,28,-57,-58,24,31,-23,-3,40,27,-77,4,50,35,-15,-62,16,32,36,-36,-39,77,-79,20,-42,62,59,-115,28,21,53,-74,12,-6,-74,-75,-61,94,21,16,44,61,69,68,-45,-16,-38,-1,51,127,52,-33,-21,-25,43,-55,17,-26,0,1,-39,88,4,22,-67,44,24,30,-21,-80,-63,1,101,38,33,0,21,12,39,4,19,84,78,68,6,2,-15,50,-79,-11,25,47,-14,21,-1,-4,-31,-32,45,17,52,34,4,-27,112,32,53,-27,-22,-77,47,-66,-27,10,34,-12,-55,26,48,61,-55,-40,-51,-56,-16,41,77,-55,-36,-33,-34,4,-26,-26,-2,13,-56,32,-22,82,74,-77,-17,-73,-26,20,0,-62,71,-12,-11,8,53,-87,1,-51,87,-34,76,-58,68,62,-9,-47,10,-40,-69,-109,43,-38,-46,-60,41,-52,4,-17,14,-61,-46,-11,-6,5,-60,35,-56,25,-24,-34,39,-17,-47,-77,53,32,17,-51,55,-47,-12,-68,-43,41,25,25,61,10,-39,-50,12,62,-56,-28,52,58,-14,-19,-69,-6,30,0,8,-8,52,-17,55,52,-39,51,-77,76,8,-6,-26,-27,9,37,-21,-46,2,-7,3,14,-54,-5,-66,-25,58,-46,-9,-78,61,-65,-55,-27,1,-20,-29,19,-30,-5,39,-72,-48,-20,0,-35,-47,6,69,46,-67,-59,-53,5,-29,2,-20,-21,-62,-18,34,-127,-84,38,-13,57,-16,17,-40,-99,29,-54,28,-54,-38,-20,6,3,-29,-20,-45,-12,36,-72,41,-46,-45,15,-41,56,-10,28,-38,-29,12,4,-66,16,-47,-30,-75,-50,-64,14,14,-44,-2,0,-9,14,2,-18,-2,-5,-68,-63,-44,3,90,8,-13,-70,34,-73,20,28,-47,-11,10,25,-67,47,-40,-51,11,59,-82,-16,56,-25,-54,48,12,-45,-72,-52,31,-13,45,12,-43,-6,83,-63,39,-5,-16,-80,55,11,-26,-67,-34,-25,-1,-8,13,-28,43,-78,94,-52,81,34,-77,-35,-21,61,20,24,-17,39,-2,71,-35,-31,18,-16,-89,5,89,-13,82,5,27,-36,-20,-58,-31,-33,-48,32,-12,29,18,-21,-6,3,-19,34,-43,-15,-104,-19,48,18,28,2,9,-43,-38,-36,20,43,-39,2,13,-19,60,-22,61,-14,-32,4,4,-23,-49,-40,18,88,28,0,3,15,-32,51,46,4,94,-18,-19,-45,20,-23,-56,47,34,-12,9,-22,10,51,-41,7,-36,-23,35,65,81,59,1,41,60,-48,15,-35,-80,-63,12,52,7,-11,-8,12,-2,28,-53,-19,-47,30,-4,83,0,34,2,39,79,-12,-35,33,-47,45,48,52,-25,-21,-3,-52,25,-31,52,-20,-29,48,37,-47,47,20,-29,51,-12,31,54,34,-25,-49,-31,72,-68,-10,16,-45,-24,63,-57,-27,4,13,-38,-14,33,-42,30,50,40,-36,-60,15,42,48,-29,-4,-2,57,-100,-28,-12,-23,57,-10,-34,-57,-6,-18,-21,30,-49,-42,-7,48,-36,-63,46,57,14,-25,10,33,92,41,-3,-32,22,25,42,-34,-16,-10,-43,30,7,-20,12,29,16,-7,-73,51,-9,-6,-51,-52,39,41,16,-42,-26,-27,11,-36,39,-45,34,65,-22,18,-22,31,43,-11,49,127,-33,-41,-27,-34,-37,-62,-95,-10,-52,-70,5,-12,54,21,17,73,-2,37,-44,-65,28,12,43,-42,29,16,94,-49,2,-6,51,9,-47,-81,-62,-60,-45,-35,51,40,-10,15,21,-48,-21,-62,-53,40,-46,20,53,-98,24,27,11,-29,57,64,-75,69,56,-79,-3,-65,12,-62,-35,-64,-9,-55,-61,-113,32,-106,52,6,-1,91,14,16,-76,28,15,-60,46,-7,25,0,48,5,-37,-44,37,-30,-18,75,37,-16,13,-22,49,48,79,26,-98,49,52,-85,48,-7,-40,-32,-75,21,-42,85,1,-18,-84,-43,-57,-21,9,-15,-2,28,43,17,-42,-23,-35,-7,39,-10,81,-76,52,50,37,-18,-38,36,43,7,-86,12,53,31,29,-38,-72,-13,27,72,-14,-31,-35,-4,-39,7,-74,15,-94,-37,1,-13,57,54,-67,25,-51,37,9,-44,41,45,-24,-16,-38,58,-33,-41,-127,-2,-51,48,72,25,-20,3,-79,68,58,66,-13,29,13,37,-46,31,19,12,27,30,-35,-19,20,-8,47,-42,19,-16,-47,63,-56,61,18,85,14,-50,87,-66,-86,25,-26,38,33,-48,18,-61,17,62,-1,33,11,-126,-47,60,-78,-64,-27,61,-3,31,46,-58,-10,16,-6,-62,4,-74,4,8,46,-74,-92,-23,-42,-81,-39,58,-28,31,8,26,25,63,71,-80,-40,21,29,-68,-1,-3,-49,-16,39,69,-37,-20,50,-56,5,9,-75,92,-36,-48,0,77,-16,-8,-25,35,13,-19,77,-8,62,-48,-8,52,27,46,-54,-45,-86,8,35,64,-78,38,-9,78,46,72,-27,-87,-79,50,3,34,-73,37,-2,-69,-84,80,-49,63,-9,54,-78,-55,-36,-68,-11,30,-4,-5,-25,-19,14,-70,76,-48,-80,8,2,-35,-28,11,25,24,-11,-36,39,70,-89,17,32,8,32,40,-102,-65,-30,-96,33,-52,99,-18,21,58,15,33,-24,17,0,11,68,-50,29,-1,28,18,60,-30,-19,31,36,32,-42,-81,33,-63,-17,-43,57,37,14,48,2,-13,-56,3,8,-60,-20,47,46,59,-74,1,-92,-14,52,25,21,-1,-54,-57,-68,-81,-24,58,72,7,27,27,-61,-98,-65,25,42,-9,5,-98,-20,-57,69,51,11,-47,-26,-66,75,66,-4,4,-12,38,5,9,-39,11,37,-63,22,23,-33,-44,-104,-84,38,-56,49,65,52,8,33,11,-62,52,-85,26,79,-1,-34,-5,23,73,-59,-54,-34,18,-12,-18,40,5,-127,25,-17,7,-31,45,-10,4,-74,-64,63,76,35,32,-66,30,47,-51,-9,-50,7,75,-64,-23,-22,-56,-66,69,-64,-10,-13,90,-9,69,56,-1,-21,27,-91,-31,-40,-43,34,22,-76,18,-19,23,-25,-49,-43,-34,-10,31,23,52,-58,-45,-9,-73,64,65,-12,63,31,6,52,-109,-93,22,102,19,60,-17,70,-23,-70,20,-55,0,9,-26,-30,53,24,16,-78,62,-88,14,25,-28,-31,-9,-11,-35,61,52,-75,-50,-4,-36,-14,-4,48,-41,-44,-15,35,62,-46,-27,-19,3,2,108,48,10,-10,-18,-27,-32,-36,23,-3,-58,-53,-57,31,0,108,45,32,33,72,35,-7,29,31,-15,-10,-23,-31,20,25,-31,54,11,-49,-49,38,38,44,26,-53,42,5,31,38,-51,-32,43,49,-49,-30,11,-40,0,6,31,-38,25,59,-6,-52,17,35,16,12,-34,-16,19,-22,-7,-17,-12,-3,38,-14,-38,-81,-1,-32,66,32,76,-13,9,30,12,-6,-36,27,-33,-52,28,-57,40,-5,35,-13,35,1,15,-45,-33,19,3,47,-21,18,13,53,-43,-49,53,14,-41,72,-17,36,13,51,-22,-61,27,-18,34,-51,99,-31,-27,-21,-29,31,-15,57,-4,33,-15,-15,-17,39,26,-58,27,14,-26,-38,44,-40,25,-1,9,-10,-1,-26,9,7,14,-6,-21,32,54,-43,19,15,12,33,-36,-54,-55,-127,-67,3,41,47,-55,21,-37,-40,47,-27,-48,-44,-46,43,45,82,-64,-45,-40,19,91,-11,17,-21,-49,-71,-37,-34,-61,-55,20,42,-86,-17,62,10,-10,-26,28,35,-3,51,-66,38,35,-13,-37,-60,-7,-34,12,0,-66,-4,-22,-60,7,-64,39,44,2,-13,-34,-40,-43,-45,2,31,35,-48,-26,-48,55,92,62,48,-46,106,1,66,62,-71,-50,3,29,11,3,64,98,-50,-37,-8,-79,-5,41,-124,-11,-62,-48,-33,7,23,-57,-24,49,34,31,116,20,46,82,51,-19,-14,-24,-48,-8,28,-62,57,-54,77,1,-29,-31,11,80,127,69,69,33,47,37,64,-34,-33,-61,-53,-56,92,51,36,-64,52,16,35,32,-26,-65,-33,50,10,-9,-7,59,-33,4,82,18,38,86,-34,32,56,-35,-11,-52,-74,4,-44,-32,-60,-5,-17,-57,84,-62,-63,23,-3,-47,13,23,44,-96,23,80,79,51,63,93,70,32,59,-51,60,35,68,16,-10,-76,43,72,-27,27,38,89,54,38,4,-40,-27,-4,94,-66,-28,10,-75,-33,-63,113,19,-28,-63,-58,-32,15,-45,4,61,-34,19,-57,25,-50,62,-46,-19,-52,47,8,-23,5,-24,41,52,-9,82,90,-81,-3,-58,-23,33,40,34,-8,51,86,25,67,37,-65,47,43,80,-82,54,47,30,95,63,-22,-31,32,-11,-126,-50,-18,-47,-17,76,34,-47,-11,-51,-35,-58,-55,-41,16,24,-84,-25,-56,-38,-77,26,-13,-12,1,37,-55,-45,33,-39,-15,10,-127,49,50,44,-35,0,36,-21,41,51,-57,66,-33,-43,52,-80,7,-6,26,49,-61,-66,23,-8,14,72,-36,-51,50,-18,71,17,-30,-39,28,53,-12,38,79,-51,-39,9,-32,-45,0,-80,81,-59,25,-21,-60,53,80,7,33,17,46,70,24,16,-25,16,-81,43,33,-52,53,-29,-81,-18,-55,-33,-9,-18,29,68,-5,-18,-53,-1,7,59,65,-24,-4,36,15,31,5,31,-53,7,3,70,-40,67,-57,37,-22,-23,-24,41,-49,48,66,42,-9,60,-44,-57,-20,18,-48,-45,-42,45,40,-38,-5,49,-27,25,20,43,-29,-13,-53,3,-15,-2,-6,-5,-34,4,30,45,-73,4,1,86,-100,78,-44,-22,35,29,-32,-7,-24,38,-13,58,-42,62,-14,-39,-53,-26,-79,42,-15,21,-29,-1,-16,35,-15,39,36,-35,7,-40,28,22,32,28,-50,-55,-52,47,-24,-9,-47,-38,-26,-6,-24,41,-21,-35,7,-36,-15,-26,77,39,54,34,24,55,-22,127,-53,35,66,14,27,-6,77,-53,-47,-12,-18,16,0,22,57,33,-13,-6,51,20,-53,-12,-4,9,-66,-70,8,-28,73,21,18,35,-23,-60,-50,41,0,-33,52,-47,-10,31,-28,48,-56,19,-1,-35,-1,23,37,39,0,66,-5,-3,56,79,5,24,-72,-75,16,-31,-50,8,-82,14,-6,-23,-32,8,-86,-9,-22,14,-6,73,49,56,-41,-29,7,55,54,26,29,-56,74,32,-37,42,83,-16,-93,11,46,-58,44,56,-81,-51,39,70,-23,63,-4,86,54,-40,68,-65,21,31,65,-11,-9,31,40,74,27,37,-54,30,-72,29,-67,-9,-50,-47,-33,-62,54,-81,61,-26,37,-25,46,-57,57,-59,-31,20,-13,-35,-32,26,-37,9,-66,62,-13,-45,9,-29,13,29,-56,21,25,60,-68,32,-76,-62,-81,-8,33,89,-9,80,-72,-30,42,-121,-14,6,47,-65,-75,2,42,-53,33,18,7,50,-9,44,-37,55,77,14,-17,-27,5,-8,55,-2,15,29,10,113,19,-15,-66,87,-50,-42,47,10,-15,-63,35,-12,17,11,20,-59,-10,9,-59,71,-48,-2,-83,24,91,36,10,65,-9,-69,2,-67,-49,-86,5,57,-67,-32,12,66,-52,-31,-61,18,-50,43,-85,45,14,20,4,69,-42,-16,-32,-4,16,26,-82,23,-52,-51,-83,-38,37,-57,-28,80,-16,48,-50,-48,11,-36,98,85,-47,20,75,0,39,-127,28,-77,32,11,-22,47,-23,-45,-79,-8,73,-49,84,27,-31,3,57,-9,16,-2,-91,-23,28,106,-14,-68,-82,-103,34,50,66,-12,-20,-38,-10,-38,28,53,71,2,17,-55,-30,-59,-14,48,-1,-17,29,88,59,-7,-45,-15,78,-88,-13,-43,17,-5,46,-60,55,-1,-59,58,-18,52,42,-38,-12,-2,-4,-59,52,-48,40,59,8,36,-63,-62,23,-54,26,-34,4,66,75,16,-42,74,15,-25,41,6,-12,-6,-36,-7,24,-20,-20,31,-6,-43,-5,-42,-44,-46,32,-3,-27,-48,-45,-36,-12,-79,-40,62,-10,19,40,-9,25,-22,76,16,-2,-80,-94,7,15,-3,55,29,-101,-64,20,86,-10,27,40,83,-49,32,52,6,58,-67,75,-13,-36,-86,-41,21,33,-9,11,-24,-55,-22,77,4,27,-55,33,-16,-61,-37,-77,-55,-62,95,-14,-76,-35,-78,-78,-93,57,-44,-31,37,-23,64,-68,5,53,-44,77,60,12,3,-55,39,41,-11,-9,-21,-9,75,-69,-24,-82,-64,14,59,66,23,24,49,37,-43,-3,-22,-26,-6,-62,-37,7,-50,-33,35,16,-127,-29,118,13,-55,-41,-21,-40,55,63,-21,41,-35,-24,68,-59,-8,-71,-14,-11,58,34,22,2,9,8,-71,100,46,-13,19,-3,-101,51,111,25,-23,33,109,-25,-45,-81,-105,21,-52,26,-21,40,-44,-34,-19,36,-20,39,19,81,-69,25,50,29,-37,71,-50,-64,42,-51,18,-12,31,-1,32,-40,-15,7,2,-34,-21,-65,39,15,15,24,17,-33,49,6,66,57,37,22,22,25,-62,18,-39,4,61,-46,7,-4,-60,40,55,69,-52,8,44,-76,-44,0,25,23,36,44,-55,-68,69,-21,13,13,62,51,48,-42,-13,56,50,85,89,-33,13,-14,68,63,8,-77,64,-36,12,-47,-65,-59,29,45,-57,49,49,9,72,-6,9,53,-33,24,-33,23,100,-37,-61,-47,-41,14,-2,23,-9,53,7,19,24,-14,93,-35,27,-4,9,11,-17,-9,-4,43,12,25,-25,-29,-28,52,56,-13,-52,-44,-14,-8,-16,-28,84,47,31,-52,-45,52,-27,49,-1,-40,-46,-52,0,8,-32,-47,-10,31,-5,40,7,2,51,29,30,27,-10,-43,23,-23,-73,-1,7,58,-2,1,-17,-41,-61,48,-64,22,53,127,-18,19,6,-22,29,57,41,64,1,8,-75,-26,-67,-28,-78,3,22,-10,3,72,88,-16,-27,3,-84,-46,-73,12,17,-3,29,46,-5,-32,-43,-29,-62,49,-23,68,-35,-65,2,-60,-9,-7,31,-12,17,19,-33,-14,57,-45,25,3,-51,-74,-26,-29,-4,60,-40,0,28,20,-92,5,50,-22,-56,-57,3,-102,-100,45,-77,-58,26,-28,-46,-31,-25,-35,-20,-92,65,36,13,-74,44,-55,50,-23,6,0,-50,33,37,-23,32,10,-57,37,25,-73,39,5,42,72,49,7,-2,-63,-47,42,44,-28,-90,31,-1,-30,-16,68,24,-61,73,56,16,61,52,-24,21,36,14,115,-52,-29,-24,30,34,32,63,25,-6,-85,-11,-47,-34,24,-127,-28,-30,76,-55,24,57,47,46,71,-68,-69,-41,35,-40,93,44,16,28,-69,-23,-10,-64,89,73,-13,-45,21,29,56,-64,-74,0,31,-19,14,45,-4,-58,52,18,27,-15,-103,42,-59,45,3,35,-28,-73,3,-42,-85,6,-37,9,45,-95,-31,42,83,-69,-94,29,-76,-2,20,-4,-92,-59,-5,55,-4,-19,21,-2,-67,-58,36,44,-45,22,-97,-72,-31,-91,-20,-46,-71,-11,-36,-64,-72,18,53,53,53,-31,115,11,-31,26,-50,41,70,-46,-40,23,-79,29,39,-86,32,-63,23,-28,71,-73,30,48,-57,-43,-32,9,19,46,39,-2,51,-31,92,71,17,-96,-26,41,-26,110,-40,-39,35,-71,-45,-54,-13,-7,34,-30,-54,39,13,-4,-32,21,-45,-36,-79,-36,-27,-45,34,-56,5,-11,-37,22,24,-46,-60,14,60,2,33,42,-37,44,55,46,-43,-31,-49,-12,59,100,-45,-23,-20,41,10,-85,68,-70,-39,26,33,7,93,-55,-56,-10,-26,-72,18,-49,58,-36,-6,-47,-73,17,-38,-65,-55,62,-81,36,33,29,77,14,46,19,-11,-18,-50,0,-5,-22,27,-20,22,1,18,64,11,2,-65,-39,42,8,61,-40,-4,4,6,75,28,26,50,39,-44,-50,29,-81,-50,-3,37,-11,102,-43,51,30,-62,14,26,-13,-10,73,-70,56,-6,9,46,86,-13,15,-30,36,-29,-19,2,-93,-67,25,-40,4,-26,-66,12,-47,7,20,-45,8,-127,19,28,-72,-23,-1,9,14,26,43,-55,-47,-41,8,-48,-33,53,37,-14,47,-30,-46,-5,-45,67,51,45,-55,58,36,19,-43,-9,-28,37,20,-70,8,30,0,24,-7,39,-32,-68,-47,47,-32,-48,4,-23,-38,-36,-39,-33,-6,-49,39,45,12,66,-60,59,-75,15,40,-49,13,-31,34,-65,16,-46,25,-41,20,9,-33,-61,40,38,-35,-12,0,63,-17,14,-28,-38,-35,29,42,21,30,61,40,-58,25,48,-24,-7,-7,-42,44,-6,4,-28,-10,21,-43,35,-56,62,85,-104,1,-27,40,-74,21,-78,-70,-60,-127,26,17,19,90,45,-7,11,26,-120,-26,9,3,-45,-34,-37,18,37,-7,57,109,-51,101,-27,52,38,-30,-31,-11,-11,-56,118,-2,-94,33,-79,-22,8,63,-30,9,-26,59,53,-69,-22,49,19,-4,-14,27,-10,17,20,44,32,-10,-85,46,-1,-94,36,-13,10,-55,30,24,-8,13,-35,-57,-27,43,-42,-47,35,-8,104,-19,70,-72,-27,3,-67,26,-2,29,11,-22,-14,71,-1,-45,8,121,8,98,-85,-21,-46,21,-6,-60,10,-14,-3,10,29,84,14,-48,9,12,-52,-19,12,-72,-23,-5,-14,6,-45,17,-50,65,-8,-3,-23,46,-48,21,-62,114,-63,-29,47,4,-28,-35,-30,-49,-13,-40,41,5,-32,16,90,19,87,89,-12,-6,-3,40,-17,-2,97,-5,-45,6,13,-36,-61,72,-127,4,-3,67,9,4,-3,43,-4,-21,56,-62,-88,31,-45,16,-24,30,-23,3,51,-49,36,40,36,-71,17,-48,-127,-28,-32,37,56,28,18,-111,-36,30,-8,-46,91,57,19,0,23,32,-40,-17,1,55,-55,-8,24,28,51,-27,0,-51,58,36,-61,-31,-59,-55,-2,-26,39,84,-67,31,84,51,-25,54,32,-50,-118,-49,-27,-34,19,29,-40,-57,-25,63,-17,-19,7,69,-54,-48,-3,-21,-20,25,72,40,-21,-84,46,14,56,-78,-32,-58,14,-20,3,-77,-56,75,-48,62,-32,19,24,-27,-64,58,-18,-26,7,22,-28,21,35,91,-39,-77,1,77,-9,-28,3,1,120,27,-61,16,-40,13,23,-56,-36,37,-81,8,54,43,-63,55,19,7,-21,19,2,-8,55,-77,-2,44,-48,14,31,20,-50,-3,38,43,24,-8,-54,-25,28,26,-63,49,42,44,-22,-16,-32,-8,33,33,66,76,-112,47,55,36,36,-10,20,30,-47,-14,0,19,31,-13,-29,-35,-5,12,-51,33,16,-50,-3,-62,-50,32,-12,39,-46,22,23,-37,-54,-23,31,-1,-34,-60,5,-14,-53,16,-23,10,10,-51,-20,-30,-66,-6,13,65,55,87,-57,20,-5,54,-77,-16,-5,-30,-37,8,52,50,-61,-68,-40,78,56,2,7,51,-28,37,8,-4,-52,23,47,-12,46,20,6,-28,14,61,-29,-26,1,35,-8,22,-27,-38,-29,-13,-23,43,-52,-38,62,0,-29,-57,-32,38,-27,-32,14,-2,22,-35,70,54,99,-71,-54,73,-6,-1,18,77,26,46,60,-127,-15,4,50,-48,99,25,48,-29,-54,-63,-24,-23,13,40,43,-33,-13,32,-73,13,-47,23,-61,-12,-20,-33,10,-26,-46,0,55,37,-23,-22,-73,4,-18,17,-73,54,51,41,-77,-39,-49,-85,14,-3,-59,29,-79,74,-8,1,73,124,59,-21,25,74,55,65,-30,58,31,-40,10,50,-40,27,53,10,64,-119,33,-48,107,-57,-16,75,-45,-15,86,-9,-68,23,-66,-18,84,3,-92,101,6,49,-11,62,50,-14,-30,0,10,25,-97,-4,12,-28,42,-22,-44,112,85,-7,85,16,62,-13,-46,-48,32,-28,-26,29,-16,-73,-49,-48,-11,19,-75,-32,-3,-42,76,98,18,28,-14,31,-12,72,50,1,81,-34,58,-40,40,83,-35,-11,11,25,-59,6,-4,10,-14,-24,50,46,0,-3,41,51,93,20,17,-72,53,67,127,32,-105,38,-9,-42,88,70,-63,-32,53,-30,36,54,5,16,-1,14,64,7,6,-36,59,6,-102,-68,-39,-67,-22,53,21,5,20,103,-13,63,1,-8,-64,-81,59,58,66,-45,-85,-26,-41,11,66,-73,-1,-35,44,44,1,-22,20,67,-25,-18,110,-24,0,-13,19,-100,-125,16,-13,44,48,-20,-52,-26,63,-33,22,-36,72,-8,-49,97,52,-67,0,-36,69,34,74,-33,-69,-77,-16,-46,69,-46,-55,-73,19,66,87,46,-18,-109,-42,61,-84,-101,7,-45,24,31,-6,-40,47,31,-90,-102,-61,-1,-55,34,-41,-21,-54,-14,-9,63,-4,-5,-64,38,23,-5,-46,39,-19,3,27,-40,60,-32,-16,25,-38,-15,17,-89,29,-35,21,62,22,-19,-12,34,21,-23,10,16,-6,39,19,66,57,33,40,67,-25,-22,127,-15,17,21,-19,-49,-20,17,24,-75,-12,-1,21,41,-51,-15,2,-3,44,7,-31,30,16,-58,49,21,-98,-59,44,32,-1,-38,34,-26,-86,-46,-74,-41,14,-7,-5,18,-25,56,115,20,48,60,13,33,-14,-21,-5,3,-45,34,51,6,48,1,40,-5,-50,26,-9,35,43,-22,62,17,5,60,23,7,31,7,4,37,-36,-111,-29,30,-47,41,-47,-75,-4,-25,66,-56,-37,-22,-27,-30,-63,-14,34,60,7,33,43,-17,-12,-50,15,-51,-7,11,34,-49,-67,26,-40,99,52,100,-35,-8,-41,48,22,7,-7,2,51,4,-46,-14,-54,2,27,-16,32,-11,2,-34,-49,-45,79,37,5,15,-51,-38,-16,49,-41,54,-54,11,3,-6,-61,-37,-50,5,-12,34,60,60,50,50,13,-19,23,-52,-41,-11,-48,51,40,114,49,-65,7,12,3,22,-48,-10,8,-24,8,27,1,-31,-35,26,38,-52,55,34,-61,10,58,34,-22,-19,-12,26,-64,-21,10,47,6,62,-47,-52,92,48,16,-64,-22,-42,-39,-40,62,-95,-24,27,-16,-25,-70,43,30,73,15,51,-1,47,-28,-67,-21,-26,103,10,-59,-1,-75,-18,59,-37,-9,16,-63,42,44,8,-79,26,20,50,-21,-33,13,-86,-52,23,51,52,56,23,65,-15,-26,77,-57,27,56,70,14,32,-17,-81,-62,-6,67,-52,33,-30,-24,93,-24,-15,-76,-73,-38,14,42,-34,60,35,27,67,51,-52,-38,-21,-20,-28,-45,14,39,-100,31,-11,25,19,22,-24,-6,-32,-64,25,21,88,68,-111,23,-20,16,-34,31,55,-76,33,-14,4,-15,18,52,42,29,-9,-50,127,-104,-11,-30,12,37,86,17,-63,6,-81,24,15,-33,-29,24,-73,38,-38,48,-7,32,-77,8,-42,-16,-18,25,-49,0,-57,-15,-87,-32,6,19,-6,28,-37,13,-31,-43,-18,7,29,-57,-32,-65,13,5,-41,29,76,66,-14,-37,54,3,-68,-11,-18,-10,10,63,22,-14,85,41,-71,21,-36,-50,-24,-30,-18,-44,-18,35,14,45,52,-22,-111,-40,42,-19,-15,48,29,26,8,16,14,-61,31,74,47,-81,-7,-21,29,31,20,-44,29,8,57,27,49,30,-18,-11,-17,-40,48,-33,-101,-32,-6,11,47,9,66,96,-89,-78,-58,-30,42,34,0,-46,-46,-29,-60,36,42,38,28,-29,-12,7,-41,-3,17,-46,-2,-62,-58,53,-31,82,-15,37,-72,-87,-33,-82,-36,-45,80,43,50,-64,-48,-109,32,-28,15,50,-11,14,40,7,4,-15,21,115,41,86,20,22,-43,-77,-7,-13,17,2,57,4,69,-33,37,38,-17,-7,-9,10,62,-2,73,-19,-102,37,-35,-64,-1,-62,52,-28,-17,-36,13,-49,-7,8,90,13,-1,45,-5,39,50,11,-19,22,-57,10,56,17,-42,-22,17,-42,-43,-13,-2,-23,63,16,58,35,54,0,-73,52,-32,-6,-35,28,39,-46,0,-45,-81,-18,127,5,13,-50,76,-8,26,-52,14,41,6,67,-12,-73,-10,9,-22,13,71,-8,26,74,66,20,-25,-38,28,-48,81,-36,-57,14,11,-31,18,72,33,25,-24,24,-13,-30,-14,-51,68,24,-7,11,-16,56,27,-42,-22,-29,-15,54,44,75,-53,37,70,5,-45,-52,65,-57,61,-13,11,22,77,31,106,39,-47,-1,85,101,35,16,68,-44,12,28,-7,21,-75,-36,7,23,36,28,43,32,-68,-52,-64,-27,-47,-10,30,52,-30,31,-25,-61,60,-5,-65,-16,-21,29,6,-22,80,-9,24,-76,64,24,-35,-84,44,16,91,-36,6,-41,53,16,-12,49,-72,55,-48,-9,11,-29,-45,97,35,85,-43,-85,18,64,77,11,34,-20,91,-11,-52,-56,9,-119,-6,11,43,-46,10,33,79,58,-16,2,-60,63,-43,-44,-27,-35,-97,-6,89,-66,24,12,62,95,-3,-34,-34,27,45,-32,-12,46,4,71,65,-27,36,54,-17,48,80,17,-59,54,72,51,5,-116,-75,72,28,35,8,0,-43,52,-65,-37,58,35,67,-78,69,-34,-21,43,-27,-39,-64,-29,-70,1,63,62,-27,-33,-39,-43,-1,-85,60,34,-20,-52,-7,-60,-12,13,-35,19,55,103,-16,0,20,-4,-5,80,-96,-49,-57,10,67,10,-30,58,-51,-19,-102,11,69,35,34,59,49,41,-3,-29,-104,64,63,52,-27,-53,-71,-53,-9,-4,-20,3,58,-58,-26,27,-1,-35,-10,42,-57,0,-63,-41,-28,-47,35,-17,0,-80,17,87,51,14,14,100,-10,100,-27,-59,28,-30,-42,-83,11,23,-1,88,55,-72,113,35,39,24,-47,-17,55,34,44,-68,78,-100,-7,-19,-101,29,9,48,-116,77,-108,29,-48,-116,78,5,-10,-64,52,-45,-1,-127,-5,-47,-56,-72,22,-35,-67,68,-15,35,15,70,-66,-5,46,48,70,50,55,59,-54,-2,82,14,109,57,-22,-46,-38,42,2,13,12,-108,-36,-15,-31,-38,-7,-17,-37,16,-8,9,9,-32,32,8,8,37,-40,-60,6,17,-33,58,51,51,-23,-46,-33,58,64,10,-38,2,13,8,-22,78,-14,-14,-34,20,-51,29,38,78,-22,-102,80,29,17,-9,-71,-61,43,-10,36,22,4,42,10,25,-31,14,-30,-9,22,31,35,17,20,10,-48,46,49,-8,-32,26,15,-44,25,26,-13,49,-20,84,-11,-34,25,-45,20,-39,-44,-32,39,-37,-32,41,20,-43,-30,-4,-24,-10,-40,-43,9,48,-23,-4,-28,-42,-6,30,-48,-19,-49,-45,-55,-41,57,-49,-8,43,79,60,1,17,-45,62,26,-36,-1,12,-9,-4,-54,-48,-16,18,3,-13,34,-34,-17,-8,-26,26,25,-37,24,46,58,54,-33,8,-50,-24,-26,44,-5,39,-19,-4,-48,-46,-19,-39,-29,-30,10,-24,1,62,53,40,-29,51,56,-21,14,-6,45,-35,-32,113,41,65,-10,5,-43,0,94,-12,-42,4,-4,20,56,6,25,25,-12,2,61,-1,47,49,73,16,-14,46,21,45,40,-78,127,-31,-13,24,-23,20,57,-39,19,49,39,-64,-16,-16,-10,-66,-40,-2,-8,-4,22,-35,-18,49,-10,-40,-16,-74,-34,39,51,4,16,16,23,39,-52,-37,47,30,-12,66,-19,-22,-59,-42,-92,-16,63,-30,-58,-13,53,-68,31,30,6,45,-17,6,17,-10,-36,0,50,-23,-30,-42,-41,-32,58,-23,41,-37,62,7,36,20,-9,18,60,43,1,15,7,32,-33,31,-3,-62,-58,-10,21,28,-36,19,17,-11,41,18,-11,75,15,-31,0,-23,-16,-22,-53,-31,-14,11,6,29,-18,17,-46,51,-21,86,-8,-55,-10,-33,-54,0,21,27,34,17,13,-66,28,-61,35,9,-3,-45,-9,48,-86,17,11,37,-16,6,-41,-56,32,-34,-21,-15,66,24,-60,51,22,-11,53,-10,24,38,12,57,18,-58,-50,-19,-41,39,18,49,7,-26,38,55,-1,-15,-17,-67,-28,97,-57,-10,-49,-1,30,-33,-41,-7,-60,-43,-31,3,-51,-53,27,56,-13,-34,-14,27,-13,40,-22,-54,13,2,-25,18,43,-9,-46,32,44,-1,41,29,59,-39,34,-2,-22,41,-36,-2,-69,-10,11,52,-45,-53,37,27,-7,17,-63,8,16,47,-50,-11,-10,-50,-14,13,-51,24,2,77,28,9,-4,-42,28,29,14,27,11,42,-51,-127,18,14,-24,-24,38,23,17,-19,33,-65,68,-58,-39,8,62,81,3,8,-18,8,-57,67,24,-30,59,57,17,28,-53,17,-35,20,20,34,10,30,35,64,-29,7,64,-15,-20,13,26,-13,18,48,-27,19,-31,46,13,20,-8,-35,-29,33,46,62,-57,26,13,6,-11,-37,-76,-51,40,55,10,70,27,-33,82,31,-29,-12,-26,23,5,-24,-10,-60,15,44,-4,-35,11,4,-61,-15,11,-49,-81,7,-27,59,68,-61,51,48,-43,70,39,34,11,-27,-22,62,-40,-27,15,68,-8,-8,-20,17,-63,-42,-8,-12,2,-18,9,-45,25,50,-33,16,13,-70,85,-43,27,1,41,-27,-18,-78,74,8,46,41,3,5,-48,-51,-13,3,-103,-44,-43,44,4,31,19,-12,-92,-31,-36,12,74,67,-71,-19,-53,-79,16,-48,-4,7,-1,-54,73,-51,-14,74,68,11,28,11,-54,56,-57,19,51,65,78,-25,-11,-67,-48,69,-50,69,39,-19,-12,-42,19,-45,-36,-36,-25,15,-33,-45,-18,24,58,68,28,-5,-40,-33,-8,-68,-35,-90,10,21,15,5,54,15,28,-5,17,46,47,3,40,77,-91,56,-4,38,-4,-11,28,-46,9,-20,24,18,28,-31,54,72,-69,127,-34,-25,15,4,-23,43,54,-17,-46,54,-23,-40,73,65,32,-93,-58,3,25,-65,-15,-13,-50,21,74,105,-31,18,-21,96,27,-67,5,48,30,-5,9,25,9,-55,-38,-21,37,-28,-39,-12,31,15,8,71,-54,-21,-39,-54,-69,97,-47,40,-34,-100,19,6,-52,-73,-102,48,7,92,12,60,-4,92,25,68,25,24,-1,-30,-12,-26,-18,17,44,-25,-52,-72,-9,-61,10,-23,-19,99,73,98,31,-25,-15,-14,8,69,-5,0,-23,50,-98,-7,89,-14,-48,45,95,-82,-58,73,38,-13,-27,5,-3,2,-20,-52,-35,-23,72,49,-56,-35,29,76,48,-42,-21,-70,28,32,56,59,-1,100,63,53,43,42,-5,-4,66,127,-34,-41,-16,-94,-2,9,11,11,124,-92,4,-69,27,74,-101,10,-5,-7,89,22,37,51,-72,23,108,-23,-49,84,-65,31,-55,-29,41,11,84,-33,24,-39,52,107,-13,78,90,-6,55,-57,-56,2,-24,76,50,118,-4,-48,60,-20,35,-5,11,67,85,-5,61,-15,45,-53,-6,-29,-32,37,40,1,-52,-28,64,-29,-21,72,36,70,-6,-34,57,-77,-26,14,5,90,12,-13,-35,46,-49,-33,-52,71,-33,-36,0,-79,49,-29,-53,-49,-21,26,-46,-34,62,-32,-34,-94,60,-61,23,-90,82,62,85,-21,54,74,69,-21,-17,-29,6,5,-56,-86,-39,-38,12,44,41,-59,63,33,-62,2,3,-44,92,-3,78,6,-79,81,-23,11,-6,4,-8,32,17,-28,4,12,66,-2,25,-14,-1,6,6,-10,-38,-14,-29,18,-69,9,-56,21,46,35,-17,46,-81,-10,27,13,41,60,34,-33,-18,17,24,15,-12,-89,-54,-31,-33,64,-20,-35,-28,18,6,47,-54,12,-37,-21,34,29,37,-2,-8,-47,-9,-24,-42,-19,46,18,-33,40,41,-3,-13,-33,35,11,0,41,58,22,27,-25,-12,25,34,29,25,4,-7,32,20,53,12,-34,46,-9,2,-62,103,38,10,-14,-49,-32,-34,-63,77,-36,26,-19,36,7,-42,1,-14,46,3,92,-25,20,11,-12,-18,11,-44,-6,62,31,-66,-55,127,-25,-11,-57,8,0,28,-13,-50,4,-31,-45,-40,14,14,72,14,9,-11,-25,44,41,-45,-25,-47,29,47,-43,12,14,-126,25,37,-26,-60,-17,27,36,-12,11,38,25,-20,4,-11,36,-69,-21,6,1,0,-8,-76,31,1,54,24,10,47,-35,25,24,27,58,-3,29,-68,28,-34,-41,-39,63,-62,34,56,50,24,22,34,12,-1,-49,-64,-31,-25,53,-33,-26,36,-18,18,-26,44,-28,-33,10,-42,-37,-39,83,59,-61,42,80,-70,-20,73,49,45,8,-11,-14,20,-2,-17,5,-44,-37,-21,19,56,47,62,-66,-59,37,-53,-64,-11,55,-41,34,-47,-50,-57,7,-20,-40,-33,3,50,60,31,-44,-23,30,21,34,43,122,-109,-13,-8,13,-45,8,5,-31,-13,-13,-23,-63,-22,72,-7,-20,-3,25,29,84,33,-21,34,-31,59,-75,55,65,66,30,24,22,-27,-28,2,-65,-48,74,-6,16,19,-47,65,86,-42,-64,40,34,55,18,10,86,51,-71,-52,-26,-65,15,-45,53,44,7,-27,-24,75,55,115,64,-6,73,-61,66,-70,-88,-30,77,29,-22,-2,77,19,-62,-54,52,-19,44,-25,46,39,-42,-74,-29,30,30,-36,13,1,-1,14,79,40,15,-34,15,-22,85,34,61,24,79,-38,-3,-23,-59,-26,-22,-57,-49,-51,-127,25,-60,-9,-62,-63,15,0,90,56,-11,-6,-48,86,66,67,-34,-64,-63,-35,60,0,23,49,-77,-56,-21,116,-80,75,-45,2,73,-40,6,-67,-29,37,-29,-13,-50,-48,15,-13,10,-37,-74,119,-46,22,42,73,-18,90,-67,63,59,48,20,-65,27,-34,-17,-38,10,11,0,-86,-10,-44,11,-12,-19,-1,54,67,-28,-41,-64,-59,40,20,-47,59,18,77,-8,34,80,-34,52,62,-7,94,4,-46,-50,22,-72,57,58,25,-7,-10,31,93,67,44,67,-5,-74,-49,-82,80,5,5,-11,79,44,-26,-47,-11,39,113,-27,3,-22,18,3,31,-38,-38,-79,29,46,-1,-69,53,62,-51,63,-7,26,37,-8,-67,-9,-14,-78,15,47,-79,38,-19,-47,67,-32,-41,-23,31,-47,103,-36,28,-51,12,-29,71,66,-76,57,57,-50,-75,-35,-44,-86,-78,-49,-67,-46,28,-54,-62,-56,33,-53,-99,41,-75,-35,-64,8,-18,26,-18,-11,72,34,-65,63,52,-64,-25,-91,90,-23,25,28,-19,-3,51,69,62,65,-14,61,-37,38,-23,18,4,68,-15,-10,71,-59,-19,-55,92,-34,-2,-92,28,28,67,22,30,50,18,117,76,-20,-26,-28,-46,-47,-27,-53,94,127,62,-55,-20,-56,-4,-17,19,-2,72,31,-50,-4,17,-20,3,-18,49,80,2,-56,1,-8,45,-70,36,-24,-58,-3,-14,44,-70,13,-51,-22,74,46,-88,-5,75,-53,84,-1,35,91,-51,74,-7,-44,-46,-46,40,-8,-9,-47,-73,-53,74,-32,21,45,-17,-18,-40,11,78,-19,-3,-35,-20,13,26,38,31,-104,-70,-5,-43,-20,83,-43,-20,27,10,1,-119,-76,-60,38,20,-13,20,60,-49,-62,-102,21,36,-17,14,-69,22,-4,-22,-38,12,-49,-17,-68,37,12,46,18,-39,-25,-37,35,-66,-8,19,22,79,38,-3,-50,31,-29,4,-71,-88,-6,-31,-8,36,77,6,47,75,-20,119,-67,57,-22,-126,59,74,76,23,-6,-15,-21,-24,-39,-62,-42,-22,11,65,-18,51,-48,15,111,22,-74,-33,-1,-96,56,40,-53,-40,-40,-31,-28,29,50,-23,37,72,-55,-12,43,-5,52,-36,15,-60,-43,51,-53,18,-14,47,127,50,-51,11,-41,-55,39,56,-71,7,-13,54,-5,-31,-30,-62,35,60,-20,-45,-63,71,-37,-53,13,18,50,-25,33,6,-27,-17,49,9,51,34,35,12,43,-49,-69,-32,25,15,-21,-11,24,3,23,84,-29,8,-66,16,5,39,31,36,20,-64,48,-79,0,62,-62,55,-44,22,20,23,50,-2,26,12,54,37,-8,69,-21,-67,-9,32,-48,56,-58,-10,44,36,-57,-17,-10,-29,77,42,65,-13,51,70,86,59,31,-20,-25,-46,27,-25,-65,-28,-64,25,21,58,38,-3,49,-79,28,24,65,-37,-44,19,37,-80,21,-9,-73,63,66,48,20,-8,-20,-27,-36,-27,16,38,-104,6,-68,56,68,24,-96,16,34,-27,80,-38,49,55,-46,60,-99,-16,-33,-88,14,12,4,-58,-6,0,43,-83,-25,21,-8,-58,-81,45,70,49,111,-40,16,-61,-54,13,30,-36,-33,6,-26,-85,-24,20,11,-6,-11,30,28,28,43,-42,11,67,-3,-49,74,-22,-51,-21,-19,-50,-4,1,-20,11,23,40,21,-20,-7,-6,53,70,41,58,-30,58,54,6,-3,34,-75,37,-32,-2,42,-5,-23,-35,-22,-15,-14,-39,-70,-19,16,-27,35,-50,31,36,63,23,49,1,19,-62,39,23,-35,15,-29,14,23,54,-20,29,62,-25,-40,19,-9,34,38,-19,-10,-7,52,-64,23,-9,-15,-31,18,41,-8,55,36,1,20,5,15,-41,-48,33,-45,5,38,44,-4,-10,-6,4,-53,-15,14,34,-22,34,-45,-6,27,26,-42,11,-24,-42,-20,-36,-21,7,99,-37,35,61,-48,34,32,-33,25,24,-87,43,47,-23,-7,-62,46,-4,57,-12,-50,23,8,-21,45,68,68,9,-7,-26,10,-4,-15,36,-40,21,56,40,-27,-31,-6,56,-16,20,40,-48,-127,42,10,6,-16,20,48,-68,-14,-21,14,-36,-59,-2,-48,7,38,-25,-11,44,-61,54,33,13,49,-51,-10,-25,-20,-9,82,-2,32,-35,-49,7,-41,19,26,-19,-25,57,29,-25,-7,9,69,21,-67,22,-56,67,41,-40,16,-92,-8,56,-32,21,43,27,-66,-31,9,29,9,-17,11,28,-26,-39,24,-45,-12,65,42,-11,19,22,0,40,-48,38,5,-27,-27,-4,-23,42,18,48,21,-26,-44,-6,-23,-33,58,-97,40,30,-9,61,-57,-51,-49,1,16,6,24,-15,26,26,-7,-38,-26,14,13,-9,-43,55,3,35,-30,16,-34,42,-42,4,14,31,-23,59,4,-47,58,-38,32,54,-73,31,28,46,-20,-32,31,-4,64,-15,33,35,46,-28,39,-57,-9,54,70,-18,-127,-14,48,-49,-59,-47,-66,58,-23,23,11,-10,31,-71,-10,-58,-3,15,63,73,52,-82,-53,9,28,-1,73,-13,23,-24,19,17,-15,39,20,82,-19,31,-49,19,45,19,31,-51,23,2,-37,-26,-23,-9,62,39,19,25,39,-7,-15,33,37,-31,-11,14,53,-60,54,35,25,59,-21,-26,-21,22,53,26,-17,38,25,50,20,73,25,26,10,-3,42,-7,-50,3,-37,15,50,-58,-44,5,-65,-42,57,-36,7,32,-30,-24,64,16,24,-35,-27,-72,-61,58,28,4,6,54,24,38,-65,-2,4,-2,21,8,-31,-43,50,-41,-5,16,38,58,33,52,68,7,52,-28,-13,-36,-7,28,-1,7,48,50,-40,34,43,-110,30,28,-38,-39,-25,-17,-54,76,-5,-74,9,-13,21,5,7,7,-41,-13,-39,11,-53,-5,-54,59,-65,-4,30,-30,20,54,76,-73,-1,-53,15,30,40,40,13,10,127,100,49,22,33,8,-2,8,18,66,42,74,82,61,-43,-33,24,-47,11,14,54,-4,27,3,-38,-13,-39,-7,-44,-12,-41,-28,25,-12,-9,29,-20,-45,39,-34,61,38,-100,13,-74,-29,-11,51,-25,60,-5,-41,57,46,32,-62,28,46,53,-53,-1,4,-19,-32,-7,23,40,46,-37,19,50,-65,7,1,10,-29,35,89,-41,27,1,35,17,28,-11,-9,-46,-3,61,0,39,-8,-13,-69,73,-57,43,-14,54,-10,-18,50,-39,-55,-89,14,-32,88,18,37,37,-51,-7,58,24,31,45,57,-54,-18,-77,-12,-39,-50,12,-40,35,56,-35,-39,60,-3,-5,9,-55,14,4,-58,-60,-2,-9,-61,-22,6,-12,-36,8,-8,-99,-69,-36,76,-26,-31,-66,-2,-43,64,-79,-67,-56,-41,4,-55,-4,-26,15,6,1,1,-39,-111,80,-54,29,-16,19,6,95,-66,-60,-21,-51,-52,-70,-60,-11,72,-43,41,27,27,94,50,-7,29,61,53,26,-16,-48,27,-67,6,3,24,61,-49,-77,-17,-43,17,-20,-46,-33,48,70,-30,-8,-38,66,0,33,15,-51,9,59,-83,34,44,17,45,15,-46,5,44,8,53,38,69,-20,33,-42,-72,29,-24,15,-79,77,70,-62,-2,-7,-32,10,-14,-20,-14,90,-26,48,-14,-65,-75,66,10,47,-3,56,35,-84,-27,2,-46,-50,-99,-44,40,-26,-26,-9,-52,57,27,-20,27,-15,-94,26,14,-7,-53,-29,19,-63,-35,-41,-55,41,15,-33,-20,-2,-37,28,27,-68,-35,-15,51,55,36,-12,35,32,36,59,-6,-6,52,-47,57,50,73,-35,-29,-47,-36,20,17,55,-1,37,63,45,-45,30,68,-26,46,15,45,-23,-11,-7,19,-3,0,29,-70,74,-27,-40,56,-75,-81,71,52,13,3,61,-44,68,67,40,-5,22,44,-43,19,27,19,61,-16,-22,-41,-48,78,-48,47,-73,21,5,51,53,-5,0,-45,-9,-59,0,-62,-72,54,14,101,-19,81,21,22,-13,-34,5,11,-41,26,-10,75,14,-38,93,4,59,-10,72,24,-41,41,-71,-61,66,-82,-22,41,30,50,-18,21,53,-127,-23,-64,19,-3,-35,-2,31,-62,51,-1,9,4,55,33,-46,44,-50,46,2,-38,-80,70,-6,111,-48,69,-2,55,19,-81,72,18,-54,4,-5,33,72,25,-43,55,11,-38,-25,-50,34,-63,28,-2,76,28,-34,27,-12,50,30,-34,-31,24,41,1,62,75,-66,-27,-36,55,-46,96,27,54,-2,-14,-1,21,-50,24,-50,15,-23,15,11,-14,13,14,-12,-127,-50,67,-9,52,37,31,38,-4,-69,-35,-42,82,51,37,64,-30,-34,17,-50,63,23,37,-76,57,-93,45,29,87,-35,-9,-56,4,29,-19,-22,83,-37,4,-7,-52,9,14,-46,90,-10,-66,-41,-9,-26,2,-35,34,12,-32,-67,75,12,-60,115,63,-5,-61,-12,49,99,2,-24,-44,54,-59,-22,82,3,-54,-37,-25,-73,-31,52,-24,-37,2,-45,-42,-32,19,-9,-5,42,-5,15,-44,0,50,5,42,-35,-65,-3,-67,-4,60,63,2,66,-13,3,-67,-45,-20,-16,-8,-10,13,11,-31,38,-22,-35,48,7,39,-56,-2,41,53,22,15,12,52,71,-12,21,53,8,58,72,-11,-32,11,5,22,-36,-53,-47,-50,23,-60,-27,-55,-38,50,32,27,26,7,-31,26,-13,-11,29,-15,-1,18,-22,51,-38,-17,-1,51,11,80,33,-44,-47,-5,-1,27,-37,-50,9,106,-42,20,57,-97,66,-91,-51,-8,92,57,-24,-55,-24,-24,27,29,46,47,30,56,-22,-1,18,-19,-33,-34,52,-61,8,37,-40,86,-27,53,2,75,-72,33,-10,22,-12,110,59,65,41,-2,-21,-2,-59,-65,-49,-43,-37,7,44,55,-14,51,-55,-21,-21,-34,64,38,-44,56,19,-36,1,-44,28,16,-7,15,-13,6,14,37,-32,-23,34,5,-27,24,37,-17,-24,-8,-32,0,1,38,-20,9,-32,-47,66,78,-61,-16,-12,73,-69,-23,-32,-4,0,-22,24,35,-59,-19,-41,49,56,22,-27,12,18,37,-43,-41,40,-23,-26,19,-2,-23,-19,-16,24,-38,16,38,-29,-85,21,-10,119,32,-26,16,21,-15,5,77,12,10,28,-51,9,-65,17,-38,11,25,-6,8,5,54,-66,-41,49,31,-34,-24,-52,-57,-3,-34,31,-89,22,6,35,12,-30,70,59,-43,11,15,-29,-18,22,18,26,50,0,40,9,36,-16,-34,-12,-6,-27,-2,-46,-20,-44,-15,55,-35,-44,-44,-23,108,50,-58,-8,64,69,-21,-19,89,-24,-45,22,48,-32,24,7,34,51,-50,32,48,32,50,4,5,57,-45,64,-31,-3,39,48,18,-34,12,5,46,-58,58,-38,38,11,-48,59,45,5,17,11,-63,8,13,37,-42,-27,-12,53,-23,27,37,-68,36,19,70,8,3,45,10,-25,10,-2,10,-25,-19,-9,-22,-3,-36,35,57,-44,127,17,47,34,42,-80,-51,-34,-40,-7,84,-36,68,16,53,13,1,38,6,-33,45,62,38,-20,-20,46,11,60,-1,-32,19,-58,15,-80,-31,-42,-46,10,20,-72,76,-27,8,-24,62,3,-14,-77,8,46,55,-24,-14,-57,-35,57,7,-36,-5,-25,-66,-39,-27,1,-28,7,-39,-87,-16,-81,-61,47,-80,5,16,46,-6,16,58,-36,35,31,-76,-12,-60,-63,-59,16,-12,-61,29,59,55,47,-24,-47,-41,-63,52,43,23,-36,-17,45,36,-11,-62,6,-63,-34,-16,2,11,34,12,35,-30,-55,-86,-31,23,-83,-17,-28,-44,-8,50,27,6,18,-37,35,47,-14,-17,54,19,-7,72,26,17,67,3,51,5,19,21,-19,-9,30,20,-26,34,-25,-22,-46,79,7,-26,5,-38,-44,16,25,-27,32,52,-23,-24,-80,44,33,18,89,76,-35,49,61,27,1,19,-63,-35,-42,-9,49,27,11,15,-69,2,-53,-52,-35,-21,42,14,14,56,-53,16,19,46,-13,-127,60,-45,-33,-52,4,8,66,28,-53,-10,16,-63,44,-49,59,-47,-74,-68,-41,-17,-38,-68,-78,-16,-17,8,56,-31,5,13,-70,57,-74,6,-53,59,-21,-40,23,60,13,-26,5,-26,-25,17,45,-3,-28,51,29,-32,7,-11,-30,-29,-31,15,-44,48,2,30,39,-31,49,-2,30,28,9,-35,60,-27,1,40,-48,7,2,15,47,-1,7,54,-35,50,-43,-18,26,-39,38,46,-8,48,-35,26,-52,53,-10,75,16,5,37,16,-14,-51,2,41,25,37,-29,37,35,42,-2,-7,2,39,18,24,-28,19,-47,-5,-49,55,29,5,-4,48,-31,69,-48,5,8,-70,4,34,8,13,5,-59,100,-7,-18,-27,24,-34,16,-4,-54,-1,-45,-31,-35,24,-20,-16,43,14,-68,-6,18,-44,1,45,-2,-22,-31,50,27,16,36,-30,38,-10,27,-26,19,-12,-23,-11,-25,48,-75,32,-4,-18,8,25,-6,0,0,-31,45,45,-46,14,13,15,20,24,-22,-15,9,-47,66,-27,-8,14,127,-12,0,25,-28,8,-46,43,25,22,-47,-11,-15,14,-32,51,42,-43,42,-48,-46,-42,-20,12,-33,14,-40,60,53,38,37,-56,2,-40,5,-37,8,6,-38,12,50,20,40,-22,-58,-25,-25,39,-5,-11,18,8,38,-80,-7,-6,-46,-7,12,-27,51,87,72,-6,7,-11,-35,2,34,54,-9,-54,26,-40,24,34,-46,-48,-105,-37,46,-16,66,-9,48,-48,3,-45,27,-55,37,-15,44,-4,-16,7,-6,6,34,9,-5,3,35,57,-40,11,-2,36,11,2,-59,-26,-14,-44,-6,-7,-10,-59,-11,-62,24,-32,-23,-9,-74,33,86,-25,-6,20,-9,-45,15,59,52,16,-42,60,-29,13,59,-65,23,64,-38,-45,55,80,-8,19,-27,-7,29,32,-18,-53,-35,92,-70,-33,72,-81,-39,-11,-14,46,-6,-43,24,-63,-45,9,64,44,-6,-59,0,90,-44,16,-56,-19,-19,10,17,66,29,16,67,53,-57,6,29,14,-31,-9,-17,5,54,23,-28,-43,39,9,56,0,-85,-25,71,-20,-43,0,-3,-19,-55,6,61,53,4,5,11,53,-3,-71,7,-5,17,-54,3,-55,-33,-1,5,-84,46,10,6,-38,-7,53,6,-75,-30,23,47,-18,-13,-30,3,38,2,-18,57,29,-8,10,40,13,-3,37,0,-1,48,56,-75,-2,20,-27,4,52,-25,61,-17,76,-57,2,13,4,-41,47,32,66,5,-16,-56,-98,-44,25,54,7,-60,21,13,31,28,-39,52,-33,-48,21,14,-51,-127,18,18,-25,-13,26,59,-46,-56,15,-25,49,48,-37,-71,-10,41,-39,-22,-33,-59,-36,-10,79,21,53,-22,-47,30,-30,-15,32,1,10,68,27,7,-34,19,49,32,-35,61,10,-32,4,37,30,-56,-14,-49,-42,55,-77,-13,-59,67,91,36,-21,16,11,31,-23,71,33,-21,13,12,66,28,29,12,14,8,17,-42,-78,42,74,-34,51,45,-43,53,12,13,31,-66,22,13,-3,43,-45,72,-22,-48,-24,-38,36,19,-14,19,-20,114,83,57,-3,10,41,-44,-69,34,25,35,67,30,-38,-19,-25,-59,-47,-30,46,59,12,-15,16,-11,44,8,-52,21,-72,24,-59,-82,-39,-24,-37,-69,-13,-7,-51,-25,18,15,-54,46,-36,-23,-39,-22,62,-1,13,-20,7,65,77,9,71,29,27,55,17,30,-8,31,10,48,-1,6,-13,-25,38,-66,86,-12,32,-25,43,-56,13,26,56,-24,96,-60,52,26,-27,-43,28,-58,0,-34,2,23,10,88,9,10,63,-16,-45,-18,-5,6,-19,-1,-17,-15,-40,-14,21,-30,47,36,127,11,-65,21,-59,-56,1,18,22,-46,-21,13,62,-15,-124,-44,71,54,-31,-64,58,75,7,-14,57,1,55,-48,-36,-35,-54,0,-11,66,49,46,4,-21,60,3,62,-5,-37,-25,-41,-48,63,38,-25,94,57,-58,-4,-41,-31,13,-34,-57,-48,28,55,68,50,-34,86,-17,62,10,8,23,16,32,5,61,44,3,85,41,32,38,-77,5,20,-3,21,56,21,1,-21,-9,-60,83,-2,-38,-38,94,-31,3,-50,18,-38,35,54,74,-9,-38,-38,-42,-36,67,-4,60,-42,56,-41,-46,-10,15,12,31,-45,-63,-66,69,-39,58,-28,-60,-12,-37,17,-2,37,-40,69,-41,-30,-16,-56,-59,85,-41,63,63,-44,-3,-57,-10,29,-21,50,38,60,19,16,4,40,16,-22,10,-2,-35,127,17,4,-57,19,-10,-72,65,19,-48,1,-68,-59,-54,31,44,80,-48,24,1,-68,-35,-69,5,-58,-59,-22,-99,-89,-31,-4,-11,-65,-16,27,-77,19,3,-61,38,53,-86,-66,20,22,-13,-69,-3,-68,-50,-79,-4,-23,-47,-89,-21,54,35,-48,84,-61,26,19,-77,-52,-13,-34,38,-31,-6,-11,11,28,-55,-21,-41,62,31,44,-5,-6,13,-41,55,51,108,-32,65,14,-49,2,42,-65,27,73,3,37,36,-35,-30,9,-30,-67,-2,-48,-16,78,-32,-76,29,43,60,34,38,9,2,45,59,108,8,-97,86,42,-27,-88,34,22,35,-35,-56,-65,-76,76,13,42,63,32,1,-56,58,3,7,69,46,-23,44,61,25,-30,69,-22,23,-81,68,58,-38,62,21,-31,4,21,64,-36,-106,-14,-66,46,48,-26,15,-6,83,-73,-10,-11,11,-56,-46,-92,-12,18,47,-11,39,22,26,-28,-50,33,-54,39,-23,-34,-71,-33,-21,-58,67,-62,-42,-38,-25,18,93,-86,-1,57,48,36,-6,-104,-6,-29,6,55,-20,-26,17,-9,-23,14,2,58,28,9,-10,23,-15,48,-69,-38,2,-62,44,47,-3,-13,19,-18,31,2,23,11,49,65,32,74,-8,10,55,-23,53,37,-53,52,-64,44,-5,-14,43,-47,63,-22,-17,23,-88,-27,19,-43,-15,-29,-51,100,7,65,-38,-2,45,17,2,-7,13,-31,51,-34,49,-10,-24,33,66,37,-127,-24,61,27,54,-2,-5,28,22,-54,74,-4,81,17,-41,-57,68,-49,-28,15,35,-50,-47,-25,17,-32,-9,-43,48,56,28,-62,-32,35,-28,-9,-37,4,14,49,-61,-50,-30,29,-54,8,-18,50,-11,-48,-25,-7,-53,73,-1,-21,13,30,60,-66,-27,-24,14,-39,-8,-50,-67,1,-73,11,39,7,32,12,-33,48,-49,59,-62,50,-16,0,-76,-12,39,-34,42,43,37,-15,52,-19,69,7,7,5,36,-32,-44,40,-2,42,74,-2,37,-89,-58,-45,25,-2,29,89,5,23,31,-32,71,103,-29,-30,0,13,53,20,35,-56,83,-44,-8,39,-57,55,-19,18,57,-16,-7,-92,-37,-31,57,42,-13,44,-86,-37,-20,-52,-62,35,-1,11,45,48,37,29,37,31,-2,-57,-36,26,-43,11,-28,-45,-25,-20,-50,-11,31,-3,-3,-15,24,-10,-91,2,-12,28,69,39,-25,29,58,68,6,35,-36,87,-40,-5,-42,35,43,28,66,-38,7,-71,35,6,-59,52,-38,-49,-30,-2,30,76,23,64,69,-7,22,-56,-42,26,-56,7,12,-26,63,83,-14,41,-56,39,-25,-17,-1,-20,-27,30,28,37,-45,31,4,22,-13,18,17,-51,-2,5,-17,61,8,-15,-15,55,45,-49,29,21,4,10,-4,-50,53,-29,-127,36,-6,-21,-52,-9,-75,-71,-21,12,-4,60,-24,19,11,-10,24,-17,58,-15,-56,-1,25,-50,42,61,-4,-77,-22,-39,35,68,40,-17,-31,-20,-5,-27,-16,-7,41,19,8,-3,9,-64,-63,-14,-72,49,-24,58,2,54,-57,55,54,10,17,-9,-29,31,-27,15,-14,38,48,40,44,10,-25,-13,18,-20,32,19,-17,11,-50,-51,76,-9,-78,-30,-6,-26,-7,-50,-2,-23,-37,42,-47,19,48,-15,-49,-9,63,25,-25,33,-79,-8,54,18,11,23,-23,9,-12,36,-20,-48,-13,-24,-23,43,-66,15,50,72,55,69,52,-12,-12,54,8,-59,95,13,18,15,-27,0,-21,39,-40,68,40,2,-69,34,4,-52,31,17,-45,40,34,-45,13,68,45,7,8,-26,45,-56,-54,-39,-65,-11,7,-2,-66,-5,-69,-47,51,-30,59,4,-51,14,30,-9,57,28,-46,27,-89,-3,4,6,32,-50,-41,-64,30,36,55,-4,44,-81,47,39,-58,47,63,-32,58,-103,97,34,-50,65,22,35,39,-25,-11,42,-119,47,14,14,-36,-10,-38,-37,-97,44,-66,28,28,-70,11,-24,-24,20,51,48,34,52,-63,26,51,26,-49,-19,-18,-118,-26,-16,-67,-68,50,-41,-32,-45,56,70,29,18,-9,25,23,-29,57,-41,43,-20,-54,-6,-26,-18,-58,36,48,-35,52,13,-41,-40,-63,-68,52,5,-65,32,13,-18,42,72,57,-31,48,-51,-24,6,12,-8,-3,-55,-17,2,-14,69,39,13,13,-47,-37,-41,-34,29,64,5,88,12,15,52,-16,17,56,-25,-20,-36,22,8,48,28,-61,-37,-57,-33,37,-7,-74,21,21,-38,-70,0,97,-5,-7,-39,67,43,-69,65,41,54,127,80,21,-30,-29,60,42,92,-23,1,-64,47,-27,1,-56,-20,9,52,-24,58,62,-77,70,-21,-46,-46,30,-17,23,-7,28,-52,-13,121,-43,-61,11,-69,-42,2,17,-66,-55,-82,-7,-23,-21,-87,47,83,32,-33,27,59,24,-51,29,78,42,7,-20,-26,32,10,58,16,50,-47,55,-71,32,100,38,4,3,5,-26,-58,-54,7,0,-43,26,62,-8,3,63,6,-33,24,-10,17,-14,-52,37,-38,-7,-34,9,20,35,20,24,40,-29,73,-46,50,-19,32,27,3,7,27,-37,5,-76,65,73,-40,-43,2,44,50,38,-9,-21,63,-60,-25,59,-37,-42,64,33,-55,38,-63,44,-38,50,-18,-9,-53,37,52,12,10,40,14,-19,-34,16,-9,-1,28,50,-4,-30,33,-79,1,-13,-9,15,-36,-69,49,-22,-22,80,35,-40,-14,30,-63,19,31,34,-8,-31,17,4,49,10,24,-6,-4,-47,7,-30,32,-56,-41,4,41,-4,19,3,4,58,-69,-5,89,-2,-127,42,45,21,-37,-73,11,-7,1,5,-38,-22,-9,17,71,38,-1,-38,-38,29,18,27,-78,-23,-35,-18,-39,50,21,-39,-33,27,28,38,35,-3,25,54,-27,-25,28,80,10,-13,-7,-40,68,5,7,-35,41,-29,27,-9,2,-8,79,-14,-87,-31,-24,27,30,-6,-18,31,27,48,69,-20,17,73,7,33,28,-42,-84,-12,4,55,8,-41,-48,-15,-52,-45,-11,-21,67,68,16,16,-18,20,12,-32,32,44,0,34,-41,23,-46,-31,48,23,-74,-64,-42,-4,34,13,18,-55,1,24,-1,-55,73,-72,-22,-41,-5,19,4,-66,-40,27,-7,16,-91,-37,-52,-49,32,-5,20,-75,62,-23,-77,42,34,-43,-16,39,77,38,34,47,113,45,-61,-28,-35,-26,-49,75,37,-42,-13,-58,35,-43,-98,-12,80,-117,-77,-116,29,13,42,-10,1,19,44,-75,-7,-4,-28,51,-34,-38,-46,14,-30,-89,60,-11,20,-55,-64,124,-5,-42,-15,-41,61,50,-39,34,-7,29,-6,-61,-10,-32,8,-44,-8,65,44,82,-50,70,24,-4,-46,35,-49,-80,25,52,110,-49,-48,54,-4,-30,-122,-73,81,9,40,-47,-34,57,36,1,23,12,26,-49,24,-41,44,-13,-7,70,42,3,31,-47,-19,-14,-9,17,-10,70,-37,127,-91,23,-61,-31,-1,-53,-27,46,35,-41,101,-1,108,-78,-28,-9,-15,37,118,-69,-13,-7,60,9,-100,-53,-60,-13,32,-43,-34,-90,62,11,-38,-119,18,0,-15,13,62,-9,-51,-76,3,-29,-117,-14,-50,48,-28,-15,17,65,70,3,12,41,-38,42,-26,65,-48,91,60,-53,-20,43,-56,-68,-8,-37,8,16,40,24,-17,-1,72,-41,34,-15,5,31,52,-27,-29,-89,-40,71,-30,26,-39,29,126,8,34,24,75,109,-109,-62,46,-9,22,-59,70,-64,-31,-20,10,86,-19,56,-79,-3,35,-55,39,-15,-2,-61,18,-44,82,-44,30,0,-37,32,-95,-23,3,-43,45,26,88,-50,-3,-46,-33,-2,3,64,-34,41,35,-3,-1,-66,-35,-58,27,-62,-71,92,20,31,67,55,-15,43,81,-31,-20,-52,13,30,-8,22,70,16,47,-32,-42,63,37,49,32,9,65,9,59,-61,-1,6,39,42,4,52,-21,-68,30,81,-32,23,13,-24,-53,7,-56,54,64,-1,7,-28,-66,40,-75,-31,-72,3,50,22,53,-21,30,-28,-17,-26,66,-32,-30,-17,69,15,-11,-22,-23,-16,-3,-41,54,-31,79,-45,31,34,-12,-24,-18,-12,19,26,-20,-44,35,20,-8,30,-25,65,-48,-12,-26,-14,12,55,12,-10,49,62,-4,-23,-16,-48,-44,60,44,-42,5,18,41,27,40,48,10,-20,1,18,34,-41,-46,93,2,45,4,1,24,-64,37,25,4,-29,-46,48,25,-20,59,-9,55,22,127,-60,-57,22,28,-32,-22,-13,-68,-33,-27,-61,23,-60,9,-18,-37,13,-8,18,-109,11,39,-33,19,-38,-76,19,78,10,59,-44,35,-71,35,27,16,-5,-52,-54,-7,-16,29,-13,-46,-12,31,14,-30,21,-69,10,4,-84,82,14,-22,83,-13,-26,53,73,-14,35,29,20,65,15,-10,69,-27,27,-12,-21,-57,-45,44,31,-23,17,-48,55,34,56,-7,-31,-4,6,-67,77,38,72,59,-64,-32,68,-9,14,105,-11,-48,32,28,-62,89,68,36,-93,37,22,1,78,-4,-17,-54,40,-40,35,0,-48,-14,-4,-9,22,11,-24,-105,-67,56,14,70,46,87,56,-12,-21,58,27,29,-33,40,-61,-71,46,-48,-78,52,-36,-11,39,-19,62,-20,54,-14,81,-86,-69,-50,-14,-50,82,17,-30,-94,-8,51,40,13,-24,36,-6,-37,48,-71,-27,-35,38,27,20,75,14,9,1,29,-49,-6,-41,-24,-13,-25,-42,-25,-59,-46,56,54,-7,49,-29,30,-11,92,37,-36,-78,44,19,52,-20,53,-40,76,-51,35,-30,31,26,-15,10,54,-50,-48,46,-4,64,-31,43,-62,41,-114,-45,-38,-12,49,-81,18,51,72,-21,-31,6,19,36,-39,6,-51,-61,-42,-80,59,1,-54,-22,38,-42,62,21,63,34,35,-15,86,40,58,-41,95,63,24,-4,-54,63,-18,30,-31,27,-70,48,30,18,-67,-3,-66,56,38,-13,-61,-60,-59,1,48,79,3,25,47,24,50,86,63,-85,29,41,-61,-70,34,5,32,78,110,21,78,-127,-25,-14,-5,35,-44,-78,86,-63,65,56,31,-77,-6,6,-31,14,-63,-31,53,47,-86,-29,-5,32,5,-65,16,11,27,-58,37,-61,25,-11,-64,50,-61,-6,101,10,49,41,-36,53,48,-17,-73,36,-24,-20,52,2,63,24,-4,-68,-51,-65,-64,94,36,-65,-67,49,-12,58,-42,-22,-50,16,-30,75,41,24,-68,3,-18,9,13,15,-82,-66,-32,37,3,10,61,-49,62,18,-22,12,30,-4,-4,42,25,-45,-69,-49,42,-49,4,18,26,-72,-27,-54,-47,-37,-74,46,13,33,54,28,-44,-72,-32,-70,-47,-28,10,-77,25,-52,44,-54,63,30,-35,64,-65,-21,-55,28,-6,-26,16,-3,-9,-15,10,-40,-82,66,-94,46,-23,6,24,9,-59,71,58,-72,-1,4,-10,-39,-38,-6,42,8,41,-45,-40,-16,73,-8,51,27,15,52,31,-45,-46,7,-31,75,16,-43,-42,-25,-56,18,37,-37,70,-62,-16,-60,-81,73,-34,7,-31,3,-59,114,119,-7,21,32,-38,18,-21,-24,-11,-2,-83,27,14,-2,90,19,-48,47,-5,67,-5,-52,31,-20,-30,5,7,-83,-25,5,-59,-4,-94,63,-41,20,-64,112,-70,-5,61,-30,38,-61,53,54,29,17,-35,35,-88,-36,2,2,24,-38,15,-3,63,121,57,-23,-63,-74,2,-75,-99,-126,25,-51,127,-1,68,18,-2,38,57,16,-2,20,41,25,-33,25,34,-13,80,-8,-47,15,-19,-25,-61,51,30,-60,64,58,12,16,35,38,-35,9,-23,6,-44,-45,53,27,-32,-15,-44,-73,-18,22,-31,52,5,11,49,-43,49,-12,35,-37,-44,-1,54,27,-65,-44,-80,38,-52,25,38,-51,12,-48,-31,-21,-10,-33,46,19,12,-24,8,3,46,23,-12,44,-32,-18,20,49,24,50,-56,32,-56,22,2,21,4,35,-7,40,-17,10,8,-49,3,-21,11,-2,-56,-21,-17,18,-44,-5,31,-45,26,-55,42,-1,-7,70,-5,-28,114,-19,31,19,38,28,15,18,8,-22,79,-48,58,-41,-4,-45,-15,53,22,47,10,-13,19,-75,-52,10,-32,-33,-64,15,12,-3,-58,-6,33,-44,35,4,-61,17,-13,-3,9,48,39,50,0,-29,21,33,26,-59,-32,-12,50,51,45,24,36,-39,8,44,-40,17,-54,-56,-30,-6,127,-31,48,-33,-5,6,-49,-22,-60,-24,27,-34,34,77,117,-36,20,40,-33,50,-38,44,1,53,22,24,34,-43,-38,-52,-13,-6,-9,-18,-28,-31,-18,52,-20,40,6,25,-31,87,-27,-46,46,12,-16,-15,-41,-69,-39,15,13,52,29,56,44,-1,11,7,-52,80,25,-103,-50,61,6,-74,12,14,-29,8,-55,-52,-5,70,55,63,-3,-18,91,-38,44,-20,55,-17,16,20,-110,-89,81,-30,-45,66,-20,-7,-25,35,60,-6,-43,35,66,-14,39,15,-27,-7,4,16,14,-19,-11,-23,1,-57,67,-15,24,-89,0,35,31,6,60,-17,-26,7,39,2,-6,-25,127,-64,32,39,-24,-25,-45,47,43,38,27,-24,24,-50,30,-20,-8,62,48,0,59,60,-86,-10,-25,-101,-19,5,59,50,89,-46,-74,-5,-40,27,-54,-43,-18,32,9,-61,-38,-10,-7,-21,-19,-34,37,-19,18,31,41,-24,-8,-53,-77,-56,68,-5,2,-7,33,-32,81,-39,-28,47,-45,20,-9,3,19,-23,24,40,40,24,2,77,48,36,-71,21,-24,-21,58,-81,5,-4,-5,-14,-34,7,53,72,37,30,-37,-36,-46,40,-17,26,-31,52,-2,-56,-10,-22,-28,-30,36,-6,-14,-42,38,-21,22,21,82,-42,2,41,-4,13,11,-32,65,13,-22,32,37,-29,9,17,-47,-12,75,-54,23,55,32,-12,-39,33,-104,-42,-21,50,-50,-7,-23,11,46,-30,14,-11,-41,-32,87,60,-26,-6,21,-25,-50,-30,-18,23,19,89,-13,43,-36,51,31,10,-59,-67,6,-69,-22,-20,36,-23,22,11,-27,-72,0,46,32,59,-67,-74,-30,71,-57,40,-9,-36,-53,13,-56,-71,-18,43,79,35,-29,22,80,-19,31,-18,37,63,-64,-107,57,15,-26,62,-56,1,42,37,80,62,-100,-102,-32,18,52,-21,-15,34,-53,25,70,44,-16,34,17,10,53,72,30,50,9,-7,-48,-41,53,35,7,-86,58,-6,-38,-77,-53,81,55,-13,24,9,27,-5,103,35,-60,-4,23,88,4,0,-1,62,-42,-22,42,48,35,-30,-16,31,-4,10,-55,-45,-35,-51,-44,-37,24,79,-15,4,-21,-46,63,56,17,-20,8,40,-25,-42,-114,-84,83,-47,-71,44,57,69,-48,-3,13,36,-41,-60,-23,-77,-27,4,-2,-24,13,58,-76,-67,28,-35,-79,61,15,3,-31,81,8,121,80,-77,-81,54,-33,42,18,-55,44,-23,52,-61,-21,36,-24,-31,63,-17,66,-19,45,-76,45,24,-11,-42,-55,17,97,32,29,3,-1,-65,-50,39,-42,49,-9,37,58,32,-55,-104,27,1,-25,78,107,-6,26,43,9,11,-6,95,31,57,30,4,-16,32,-43,-48,35,44,51,-8,76,88,45,1,-99,-35,11,79,-35,27,-20,8,67,-24,-78,-91,-59,127,31,-21,-48,-7,21,27,10,-68,-50,51,-35,-82,-82,39,36,-7,-24,-33,-5,33,68,-26,58,56,89,-62,3,49,-39,30,0,-35,23,-46,-49,-1,74,1,106,112,-35,60,-52,-2,55,-22,-92,-9,0,-38,-68,69,33,7,22,62,-15,34,-47,47,-31,108,44,-2,50,-32,36,9,-28,-37,5,4,-12,-7,-89,-9,-29,70,17,-34,-23,-66,-19,-14,44,4,32,-14,75,34,-11,94,-19,50,94,-26,-93,59,106,53,-63,4,19,-55,-19,15,-75,-16,8,-38,-60,65,4,12,-17,9,-10,54,83,-27,-31,-28,-69,83,-36,-85,12,-30,19,28,-1,66,-67,-57,86,40,63,-77,-74,-21,-26,-7,-11,-8,22,7,-32,11,-26,-47,27,-18,6,17,9,72,-39,-3,0,-43,-16,-22,-4,53,61,46,-28,3,96,-39,-53,59,-5,-68,115,-43,-52,-29,33,88,-29,25,-1,-45,-14,-9,-13,-50,-33,58,72,85,-53,-51,-36,-97,72,-37,-31,2,2,28,24,76,30,56,70,75,-8,-8,8,35,-1,-41,86,-67,74,23,53,40,14,-24,-1,42,-75,32,-36,-61,8,22,56,56,36,35,45,38,-127,-88,-9,-101,74,29,69,25,-47,-22,-12,87,-56,-20,-15,-102,6,19,19,-13,-21,-64,23,-6,10,10,-15,15,16,102,1,-62,-36,9,-50,-1,-23,-30,-48,10,34,10,-92,41,75,-17,89,-6,-7,7,-35,-30,-16,10,-25,-38,21,-40,49,-46,59,-32,-14,16,-43,26,-3,-1,-16,-32,-34,57,36,2,-15,50,34,6,-21,-46,53,-8,-37,-6,14,68,9,-32,-32,-72,67,-47,-47,61,90,-31,-12,-6,-12,-13,47,57,27,-50,-23,-9,-56,-11,34,47,-75,9,-2,-13,3,-37,-52,77,-16,33,-3,-7,-35,-48,13,19,-5,4,-58,29,-20,-41,27,15,25,-20,-65,13,-11,-35,33,64,2,35,-63,82,27,-27,-24,4,56,54,11,-11,-82,-34,9,-20,11,-68,17,29,-2,-34,69,-1,5,-74,25,-33,-3,13,-4,-37,-31,37,23,43,28,107,-26,7,41,-31,34,24,15,-23,-18,-1,-3,-17,8,66,-41,38,-66,-57,-66,-42,-42,30,8,-63,15,-34,21,74,56,30,0,49,32,-63,38,32,-26,-37,10,-42,-23,51,-15,-39,127,3,-3,-17,-11,-19,-11,39,-35,0,51,20,-22,14,-30,-23,29,70,-6,30,-49,-3,63,36,-48,33,20,50,-56,-42,55,12,-27,-51,10,3,49,10,-21,12,-67,37,-25,11,87,16,-7,1,-52,-37,12,-16,2,25,32,-99,58,-57,-38,-4,-28,-21,47,26,-42,69,-21,18,62,8,81,-77,3,0,-22,91,46,26,-18,6,57,-3,26,71,12,-51,2,-80,-66,0,1,-127,-9,-33,100,38,12,-49,-27,42,-36,-68,-74,-36,-43,35,20,-34,86,86,-7,-6,-24,-82,82,67,69,-66,-24,38,44,73,36,-57,42,-26,66,57,16,18,-10,49,56,-76,-58,19,-19,7,87,-63,37,68,-1,-30,43,-75,-5,12,0,43,9,-10,66,-59,50,71,44,20,6,-17,125,48,-38,-20,-16,21,5,-73,55,-76,56,-31,-35,-45,60,0,-7,-49,-29,-26,-2,-14,-26,22,82,-54,14,13,74,33,77,37,-57,19,-27,-22,-107,88,88,13,-10,19,22,-13,53,-109,82,12,35,47,-6,79,-8,39,-48,11,-51,58,6,13,-9,28,-23,6,36,-19,1,-50,2,38,82,66,-46,-15,121,-62,-35,-29,-11,24,32,-20,81,7,-47,93,23,-18,45,41,-113,50,-72,34,34,-23,19,-86,-45,-57,24,19,63,6,34,0,-22,30,-22,88,-26,70,-58,-58,-88,46,-43,23,24,-29,-16,-103,11,77,-51,5,-55,-82,14,-69,44,-22,0,-41,78,-3,48,2,22,-33,-11,-79,77,-7,14,-55,-20,21,53,6,40,-30,56,97,18,49,32,19,14,-43,-97,-20,39,45,57,-65,44,-39,51,67,30,61,59,47,74,-37,-27,-83,-66,15,-14,-14,-76,-30,14,17,-11,-32,-15,33,-56,4,57,35,59,-3,-65,-49,-22,24,-55,-24,-87,23,-19,-72,42,-88,58,97,-31,17,-2,-52,-89,-69,71,51,-27,-19,-42,-24,-36,40,-62,-8,-18,-2,-21,18,-81,-26,67,69,7,-33,-36,-71,-27,-32,-65,3,-42,11,-29,-44,-27,-39,54,-14,17,68,50,-21,-6,6,-18,50,-21,52,73,-3,-35,-51,5,-22,11,-61,-29,-69,-64,-33,-72,-30,35,51,94,24,20,-22,-45,-43,3,39,45,19,-53,-1,-42,-75,52,-23,65,-61,14,-52,-43,-81,56,-46,-29,-103,-65,-17,-40,23,-71,30,-1,-5,58,-37,-37,39,35,22,-52,44,-66,-62,49,-67,-79,-68,-16,9,-63,54,49,4,-11,-47,59,3,43,35,-65,-23,-44,-4,51,63,39,-11,-78,127,-29,-13,-54,28,42,-118,-6,-43,-26,-8,10,-15,4,-39,-16,-12,46,16,-76,56,-44,-53,-8,27,-34,1,104,14,69,13,-35,-52,-51,-58,35,19,-59,46,-87,54,44,23,-82,-29,-29,-58,45,39,15,17,-65,-5,66,-7,4,-28,20,-4,48,-44,45,-67,-1,-45,97,58,64,17,-7,44,3,88,39,67,-39,44,-35,35,53,8,12,-52,-56,-52,-28,67,-46,-54,-12,-19,4,77,43,-29,-15,79,56,-27,61,60,-8,-38,-46,-6,-5,-59,-6,-8,55,22,73,59,39,-36,-51,99,49,-47,-48,-23,-28,-63,-34,44,106,-26,56,15,-17,14,-109,57,-3,9,60,26,-41,-36,23,0,-108,-7,53,-68,28,-27,-7,-9,90,-44,-18,36,23,-18,4,-6,33,-54,-71,-47,-6,-24,28,-87,-37,75,-59,-87,-30,-2,5,76,-56,16,-69,-55,-20,26,-35,32,-50,-50,-103,34,40,51,-19,-61,-85,-27,6,-28,5,-13,25,-37,-102,15,-21,-39,67,-16,-13,-70,-58,-22,-48,63,-84,80,66,-16,1,-74,-44,68,19,38,-64,7,-46,-57,32,-84,57,-18,25,-74,-30,-25,-81,80,-8,2,32,15,12,-70,8,35,-15,-38,-5,47,-34,-18,-4,52,-38,-55,64,-37,-53,-92,-57,-12,80,19,25,-92,5,-94,68,-16,53,-25,-60,15,-12,60,-56,-77,48,31,-71,-45,38,19,-4,-33,19,-39,-18,-65,45,-35,-67,78,59,-61,1,-65,-51,-21,25,-74,-80,84,-48,17,15,-55,23,-127,20,-23,74,58,-16,-1,-70,-47,-7,35,-10,-3,22,-50,-42,8,-7,55,35,-28,-53,51,-43,26,-18,18,37,29,-29,-40,39,44,27,-33,90,95,33,-46,-86,20,-22,-42,-40,31,-19,-1,87,-63,20,26,-46,80,29,-20,-22,60,0,8,34,-12,-35,-31,28,17,-22,40,-60,-82,-22,-32,1,8,-41,-49,-103,66,52,-46,-26,8,-68,31,-26,75,33,21,-52,-10,-52,45,0,-99,-6,17,15,21,73,32,42,81,-50,51,21,29,-11,-35,-3,-43,-73,-9,21,-44,2,64,2,64,18,-7,-44,50,-63,-6,52,-34,-6,55,2,10,-25,-1,69,14,-51,33,0,-79,-56,79,-25,-28,11,54,68,5,30,34,-40,96,-25,-74,11,-24,-62,87,-70,109,58,29,-1,-53,42,-53,-71,-73,28,-46,68,-10,-28,-39,-87,14,21,71,75,57,47,52,27,-13,-106,21,3,64,-12,-22,63,-22,46,-29,40,-44,12,80,111,42,41,-14,-27,60,-47,72,27,40,-30,1,-14,88,-24,41,-38,45,-38,59,-19,76,-94,-7,13,9,60,-79,-42,-68,-18,25,-38,46,55,-40,-53,11,10,-20,18,38,-63,9,32,17,1,-37,43,68,-15,-73,-2,77,42,48,12,-48,55,-55,48,127,-70,34,-70,-30,36,36,11,-24,56,11,-3,-10,-62,-36,-15,-17,-60,81,58,59,-17,59,25,-5,75,-46,35,-26,-25,71,-27,4,-23,-34,21,-10,29,59,-57,30,-6,-23,-8,-36,16,4,-47,24,4,12,13,-27,31,11,45,-2,-44,-46,-13,18,-23,14,73,7,-31,-2,-37,32,-2,17,-26,-42,33,-75,-48,7,46,24,24,6,15,-23,-60,28,-22,-71,-15,7,-47,26,7,7,48,-1,4,45,2,-7,-27,60,18,16,-1,46,-39,30,-61,27,32,44,14,1,14,56,11,35,7,29,14,-18,-5,-26,-2,64,17,6,19,-11,-34,14,32,32,-50,-25,-36,-47,25,-2,58,-38,-18,5,-15,-33,6,-50,56,52,-66,-54,-20,-14,39,0,78,8,-67,-23,-12,1,-26,19,42,23,23,-3,-5,-54,35,26,24,40,9,-13,-25,-9,-30,47,-25,24,20,-48,31,-14,5,9,55,24,-42,45,-30,57,-8,13,15,38,43,-65,-11,30,-6,-28,85,24,15,48,-25,-5,-20,-12,-40,-16,3,-7,-111,19,30,42,-4,-19,-7,-6,-82,7,15,-7,13,-127,-41,-12,41,6,65,-29,-18,-14,-17,38,-25,18,50,26,-16,-47,41,9,19,-50,28,56,39,-18,-21,-32,29,-50,10,7,106,18,-72,-33,-34,-35,-3,-50,-64,18,-41,-49,-79,1,-54,11,-29,-26,-13,4,-34,36,-25,19,-23,-35,-64,-57,-33,26,26,-15,34,54,-39,-47,77,-30,-33,-23,-19,-79,-75,81,-23,-25,-54,63,-25,-34,44,-22,-8,-21,-74,-2,-33,10,46,13,33,-22,-35,-9,35,120,-25,-100,37,18,-5,61,24,4,12,15,-13,1,45,21,-31,-69,48,-30,-56,-26,41,18,-9,28,-7,-12,-55,37,35,30,21,-32,17,24,5,30,19,6,37,-25,56,33,96,-16,39,16,-14,-29,-14,-56,-20,40,65,-9,30,61,13,-42,18,-36,26,-24,-16,-36,-12,-40,-58,-10,-50,51,-31,60,-26,39,-4,75,15,53,-72,-92,-40,10,3,-50,51,13,-32,55,20,-11,-33,37,-88,82,8,-46,58,59,-58,40,3,-37,-127,-10,-54,36,-40,-10,-9,5,13,26,17,28,29,-42,59,-10,-66,-6,6,-41,16,52,24,-26,-20,40,-35,-39,-34,-18,-67,33,-39,1,68,19,-56,-113,60,-57,-7,13,8,5,92,-55,-26,35,-65,-40,-42,-50,3,18,-7,-31,40,-6,60,-12,-12,-10,39,-18,30,-32,63,-58,61,14,-86,62,79,45,-67,-3,79,-16,-1,-19,21,10,22,65,-58,-30,-71,29,-82,44,21,24,8,-32,12,-27,69,47,54,9,-15,-5,-33,10,-12,45,-46,-41,4,-7,64,18,-4,76,4,27,-65,-12,-62,63,-6,41,-3,-69,18,-24,15,15,4,4,-15,94,5,-127,57,104,8,33,-53,-52,52,-58,42,-28,-63,-13,25,-51,-8,-71,48,-20,18,55,40,-37,-55,-78,39,31,-12,97,-13,39,62,7,17,63,13,2,85,13,-45,61,2,19,27,64,-47,106,-8,22,14,26,1,-54,17,-27,70,57,-64,89,48,12,31,52,6,-8,-55,-11,-53,-4,-47,43,-17,-28,49,-20,-5,71,30,32,-48,43,84,-26,-40,-44,-77,-47,73,28,26,-34,65,23,17,17,44,31,-34,62,43,-8,-58,7,56,48,45,-10,-73,-71,-28,75,9,-40,-31,48,-33,34,-32,-16,68,17,49,4,33,-69,18,-34,63,-46,-5,14,1,-57,103,-10,-7,22,57,34,24,9,12,35,-6,-7,14,60,10,-9,15,-52,-25,-17,-60,-6,-2,-7,-42,75,64,-103,-10,-60,70,-4,-61,-17,-6,42,-18,-27,-4,-42,-12,71,-12,-4,-6,33,10,-17,-65,-23,-67,-75,33,38,70,-1,-10,-55,17,95,-71,-34,-4,25,-59,30,47,-15,28,27,-5,-4,-83,24,9,64,-27,18,-27,-27,-63,-2,-66,73,-31,-58,37,-50,-40,-43,-16,-11,38,-36,54,-106,19,-55,27,110,55,43,-14,14,-30,-49,67,54,30,22,44,24,-30,87,22,6,9,-46,-32,24,-13,-94,-9,-59,-27,36,78,-6,18,3,1,45,24,-1,-43,-7,29,-46,-22,-14,-32,3,30,127,-42,-27,50,-14,-64,-43,28,-4,63,-2,-13,-1,24,-2,103,-20,-111,-7,-34,-14,2,-12,27,-30,-12,11,-60,-57,77,11,11,-39,-76,-14,-39,-41,-60,40,4,11,-3,6,63,3,0,-10,-24,-83,33,-29,5,21,30,39,6,41,-29,64,64,33,-24,-36,-18,68,-8,-1,6,75,26,38,0,-5,-38,-6,-35,16,-13,-59,19,-22,11,2,45,-17,15,-16,-95,-39,-17,31,-14,-5,-86,18,53,-30,32,-24,22,-22,-29,-40,37,61,-24,7,-60,26,-54,4,22,86,-34,53,13,35,52,-11,-38,-52,-14,-13,18,46,-22,-1,39,-37,-53,-4,-7,0,-36,28,-33,-48,-11,15,62,24,13,-33,29,-9,-51,37,-6,-42,-24,-13,23,7,-66,56,13,48,25,-17,24,-38,0,37,35,54,13,26,-6,-25,26,8,17,-44,36,72,22,-3,35,17,13,25,-24,21,19,-2,31,-14,-29,30,-50,60,