#include "emb_conv_model_params.h"

const int8_t emb_conv_weights[21504] = {-63,-11,53,-12,71,71,-73,-46,91,7,59,85,-26,-9,-13,91,-22,57,-72,-88,35,56,70,43,-65,41,39,20,13,70,-43,-27,119,-36,52,32,-6,46,-14,-20,49,-4,-78,-30,99,64,-10,17,11,-24,15,9,29,-12,-24,49,61,26,-1,33,16,30,6,-7,-8,-10,9,127,48,-31,26,52,0,-15,-14,10,65,-9,-16,83,9,49,-43,-37,31,113,-23,39,-8,31,36,-24,28,80,-2,23,-54,72,-15,2,11,7,33,-53,-66,7,49,-40,-2,-14,41,-3,40,14,-23,-10,-19,22,14,1,-14,8,-19,25,27,-4,-80,-79,-18,0,-30,9,-65,1,8,15,5,-12,-71,34,-22,5,-64,47,-98,-28,15,-9,78,65,-107,77,-24,-39,-51,37,-127,-80,-4,17,53,32,-104,36,15,-11,-56,41,-53,58,6,52,47,-42,105,56,122,55,-15,123,-37,60,23,6,18,-53,5,55,83,-20,-33,42,4,9,21,41,42,4,-8,80,51,-1,33,23,43,-17,-38,2,29,-2,4,89,95,-48,-2,53,-52,23,-18,-23,88,-18,-52,32,108,-40,-12,-29,35,16,29,-8,24,-2,-42,43,15,-127,-34,-8,0,9,-34,16,16,22,-58,-73,-36,-105,-12,14,31,38,58,-13,5,1,-45,97,72,106,26,71,32,37,86,-20,3,-3,-14,25,23,59,-9,76,14,23,47,-46,1,-23,32,-47,-51,45,-4,53,-12,32,83,-8,26,5,71,-90,-127,73,-37,26,-19,6,0,-37,22,7,51,-38,-73,126,-14,73,-20,-25,-9,-23,-15,11,22,44,-93,53,-76,37,-30,-81,-24,20,35,70,-22,89,-104,37,-74,65,0,28,6,-36,39,-69,21,-57,-116,-30,-111,18,19,70,54,-97,120,-51,64,-88,30,23,127,-15,10,39,13,-54,126,-11,-3,11,52,-39,36,-10,32,34,31,-60,77,-20,74,-26,44,47,40,-20,31,-49,28,25,38,17,13,-75,55,-10,98,21,-2,-35,27,9,52,13,-51,-15,37,-53,43,-1,-9,28,98,32,74,110,-62,-1,26,42,55,-33,-25,-15,-17,21,-6,8,-65,2,-18,48,-50,-61,-18,8,-15,10,8,10,32,-8,-28,19,-43,-38,14,-32,-2,32,-16,41,72,96,-52,14,1,-13,29,-1,13,34,-16,-9,-9,75,-41,-13,82,-1,-29,40,14,23,12,-1,56,81,73,-14,125,7,-39,5,18,-8,10,31,-127,48,85,23,104,5,-15,7,2,-3,-5,-7,87,53,35,34,-3,0,57,2,62,43,97,93,-11,-69,99,16,-10,27,31,22,20,60,88,59,36,-57,13,11,-30,24,59,6,-26,-7,112,49,19,-56,-50,-12,12,-24,39,18,-33,-28,127,-6,33,-35,15,38,-16,21,51,44,-8,-29,98,-1,9,-14,46,3,-38,32,51,54,30,25,122,-26,-52,-36,85,72,-74,48,21,54,63,26,74,-2,-82,-30,78,98,-98,77,-7,14,14,-51,13,4,56,-22,127,-12,-125,-19,-22,22,15,14,63,-20,-69,13,45,17,-39,-14,-47,-52,0,-3,56,9,-60,57,101,23,30,39,-7,4,-3,-20,71,27,-18,37,126,14,39,32,14,20,0,-21,3,4,13,-16,-31,-4,5,28,-10,-39,-10,23,-1,33,118,-7,83,1,-37,34,3,22,-35,-34,-18,19,26,12,-8,25,-20,27,-7,-5,35,9,38,21,-94,54,73,-13,-45,59,1,49,72,14,79,7,0,105,39,20,30,0,-20,-15,22,-5,45,30,0,105,-55,83,-8,-18,-14,1,-14,26,3,34,-27,5,-127,-24,68,-7,-14,-31,-21,31,15,-16,-2,-45,-112,-46,-11,-33,65,-29,-2,-23,3,-4,56,-46,-12,12,-7,-51,37,14,-6,-37,-20,-13,49,-55,5,55,-1,-70,51,-32,-31,32,-44,32,107,22,13,8,-13,-59,31,-20,-14,6,-14,47,35,-27,17,37,-16,-55,-44,2,58,-8,-12,77,-41,-43,-10,7,10,-21,-127,3,73,-28,-9,80,-50,2,25,-13,-9,-35,-117,-11,71,-24,-2,38,-39,34,-19,39,2,-20,-22,-20,45,-34,47,23,-28,101,-21,5,21,45,51,42,0,-7,3,12,-25,68,25,5,31,-4,8,-27,24,-8,9,-6,14,-12,42,26,59,-44,-16,-30,2,12,38,33,-68,-9,92,5,54,-13,-10,3,13,31,-28,2,58,5,42,56,-84,-50,-25,-5,-43,-28,11,-8,-5,-87,19,-28,61,-1,3,-17,-31,-6,71,-67,28,-61,-9,-50,96,50,-9,-9,21,-10,46,-43,34,-38,6,-41,127,80,19,20,23,-8,39,-11,3,5,28,-61,-16,88,5,76,43,-26,-5,38,-37,43,-9,-59,-9,-33,-8,58,22,30,-26,40,-27,-1,-121,-14,58,-25,-8,44,-13,32,-44,68,-45,-34,55,-55,-24,-33,-22,61,1,44,-33,96,-44,-98,127,-71,-70,-28,-37,12,23,29,-18,51,-10,-3,120,6,-60,-11,-49,96,8,19,-1,76,-10,40,-86,101,19,-45,-66,59,56,-13,-48,78,49,26,-27,125,-16,-31,-34,26,22,13,0,11,-19,25,-2,107,9,26,4,51,22,35,23,16,-18,27,-8,98,0,-14,0,35,-10,16,-3,4,13,127,9,19,29,9,-14,37,-7,14,16,10,24,28,10,-1,-3,-13,-20,53,10,23,22,-6,66,1,16,-27,-25,-10,-12,8,4,34,8,30,12,-13,12,-54,-27,28,-3,12,26,33,19,0,0,-32,-2,-36,-30,-3,20,-30,40,76,40,22,8,38,127,-3,-17,-39,21,-8,37,38,34,12,-25,3,51,16,-14,-17,22,28,24,45,14,26,34,0,74,-18,-38,-43,21,7,13,42,22,14,15,41,79,13,-42,-20,40,20,30,47,-4,-4,11,21,71,-2,-69,-39,14,14,41,26,-5,35,21,-57,93,36,9,-13,42,27,48,22,30,32,113,-20,72,34,-17,7,35,-10,15,17,-18,36,125,83,9,40,78,54,44,-47,-2,40,-59,-33,41,14,-67,-86,89,3,57,53,-2,-10,0,-45,-13,-54,22,-34,-30,-32,69,92,-58,-6,46,2,-87,-57,8,50,-32,43,-15,53,-60,23,74,4,-1,4,-40,127,7,-24,-61,51,0,-14,65,40,75,-10,9,119,80,-80,-10,-54,-43,-66,93,-27,46,70,42,21,27,-106,-18,0,7,-12,26,-26,18,-60,40,-12,26,-50,-22,-17,14,-1,36,-19,35,-79,23,16,59,-24,21,-48,60,45,34,-44,53,-70,11,-36,15,-38,20,-30,55,25,48,-30,53,2,126,-55,2,5,-9,-38,25,20,66,-24,-8,-70,127,-43,-47,-14,24,-3,59,29,67,-16,5,1,81,-42,-5,-3,18,47,-11,-19,48,-8,-1,28,118,40,44,-8,-9,-38,-3,-6,10,-8,2,-59,33,34,-52,14,4,24,21,49,-6,-5,-55,-37,3,6,-34,36,-2,0,-8,36,-7,-4,-11,31,0,-36,-50,0,-21,-17,-17,-18,-16,18,-60,16,30,-23,-1,2,-33,40,-4,4,-14,41,-36,14,-7,-36,10,-26,22,28,35,-12,-4,37,20,31,11,-14,-28,-13,12,21,11,-34,-4,3,127,42,8,-33,10,11,25,28,-22,59,19,24,0,-116,127,-58,74,29,44,22,-29,38,42,17,53,-71,125,-32,43,-39,23,-6,-34,-2,45,62,94,-83,69,-11,101,3,46,28,-21,34,24,39,108,-39,80,1,62,-38,43,10,-7,14,77,40,103,-56,26,-49,-25,-49,8,-9,-16,30,70,19,100,-86,16,-19,-13,-6,-1,-33,-54,-13,95,16,81,-105,78,-70,-21,-18,-34,-17,13,13,16,54,-101,-127,-57,-24,-37,61,-9,-27,28,39,10,14,-117,-62,0,23,29,28,-48,-4,26,44,30,23,-52,-6,18,0,73,17,-79,8,56,12,31,10,-41,-9,-33,70,58,27,-52,60,24,-5,-9,34,-12,27,-33,32,2,44,-48,55,10,3,-27,46,58,59,33,40,-10,18,-42,66,0,-12,-23,38,47,-18,53,37,-14,18,24,-30,-41,68,24,65,63,-30,57,-94,78,-103,4,-5,-12,41,0,72,127,-49,-37,-51,117,-58,26,45,11,31,38,37,30,48,-15,-29,45,-61,15,29,-2,8,5,44,3,58,19,-18,36,-37,3,18,-12,-20,4,46,48,42,93,-39,56,-28,-11,63,-21,-26,67,11,34,56,55,-30,67,-51,-39,53,-30,-79,45,46,-47,0,50,-22,65,-77,-76,57,6,-39,13,-8,-50,70,58,-16,-32,127,-29,56,-42,-25,-37,6,-89,3,39,-37,-46,109,-1,40,-25,4,18,13,-74,95,65,10,30,61,-11,16,-13,-19,48,62,12,20,36,45,-29,95,-20,-19,13,-9,53,47,-3,45,52,22,24,70,-24,-1,41,8,47,68,77,48,22,38,3,24,-52,-6,21,27,37,44,111,45,34,-9,15,-48,-7,13,41,127,-2,70,65,121,-52,13,-5,-78,19,15,-5,89,29,32,44,44,10,43,63,-42,10,25,1,26,15,7,32,30,-36,13,55,-6,5,8,-18,-14,24,-7,2,-50,-47,42,127,6,-18,-5,-8,-14,30,3,-41,-21,-5,-2,78,34,-22,-32,-19,-36,27,-10,-57,-48,47,31,63,8,-28,-68,-29,-29,18,21,-32,-98,54,-52,41,11,-6,11,-1,7,16,3,-100,8,15,-10,-34,-53,8,12,23,11,13,16,-127,26,34,12,-21,-43,-16,-3,-3,11,-4,11,-88,31,29,-12,16,-9,-16,-13,-4,6,1,19,-37,5,34,-11,9,-31,-10,-7,-3,17,21,30,-17,-1,69,-23,43,-24,-30,-25,0,10,40,27,-4,-4,52,-30,29,-33,1,-15,-15,-12,20,14,-26,-3,33,-29,15,-17,55,10,-10,0,-57,21,14,59,-54,38,-7,-41,3,-1,46,3,-18,-4,-54,52,-103,51,-18,-53,24,8,20,2,-32,3,6,-9,-58,50,15,16,34,1,-21,55,-5,-8,58,-47,-49,20,74,-20,12,35,28,45,-22,0,41,-79,-79,-60,41,-2,-21,5,-17,47,-25,10,-11,-47,38,-101,32,-31,-55,6,-10,26,-6,67,-4,29,53,-24,127,-28,36,-45,-52,-60,5,-8,52,-44,-14,55,-93,-66,37,-32,-50,-56,41,13,48,4,58,88,13,-42,4,-5,-38,-14,10,29,37,-17,22,59,40,-77,19,-7,-7,14,17,50,-22,10,92,40,13,-3,-21,-10,10,-7,34,63,13,4,45,-29,-43,-19,-14,-8,58,55,17,18,-80,38,58,-50,-68,54,-34,17,61,70,34,76,-50,127,62,-11,41,41,-58,-18,79,21,-37,-16,-94,60,97,69,-33,17,-27,-1,23,21,-34,25,-58,28,85,25,-3,-6,-31,-4,-16,49,-30,47,-26,11,87,18,0,12,-32,-5,2,16,-30,39,-17,2,71,23,10,8,3,-9,26,20,-14,6,-16,-21,127,26,3,-2,11,16,59,44,-19,19,15,-40,118,11,-39,-9,-28,10,48,74,-3,29,59,-56,112,73,-60,24,-17,27,55,9,33,-20,89,82,97,98,-56,52,-55,39,35,-45,39,-10,78,-40,13,74,-79,-24,-11,1,-36,-14,41,-14,3,-33,55,53,3,-57,47,17,-32,-53,-28,12,-90,10,21,-40,25,28,11,1,-16,-24,42,40,29,-23,-93,-32,-29,41,51,-58,12,-47,22,63,62,-62,-127,-14,12,-13,-35,-30,32,-36,35,41,-11,-81,6,-53,-9,-33,87,25,0,34,-1,-17,-8,127,25,37,-4,52,-28,16,-19,13,-10,-19,-9,48,88,-5,29,46,-90,-18,-11,1,25,-2,-70,32,88,-31,38,23,-57,-8,13,-14,11,-7,-33,-16,104,-56,-38,61,40,-20,11,-19,-13,7,-110,-14,-76,-38,-54,8,58,19,22,-17,-12,-10,-80,-90,-59,-22,-61,-30,-72,15,48,-29,12,19,-72,-67,0,-30,-74,43,8,-28,3,25,51,40,-41,-18,-12,63,-40,25,-6,94,-24,70,24,9,-61,127,55,22,-36,-19,9,115,-50,45,15,14,-9,51,38,-3,16,-15,57,-6,-18,43,9,-5,41,47,6,23,21,-10,50,-8,36,-21,4,-70,6,23,-76,-10,-8,-78,67,12,6,15,60,-44,32,19,-77,6,-10,-86,24,30,12,3,7,-17,-26,-34,-56,-24,-83,8,-7,32,-6,101,-17,9,59,-3,-53,28,-51,-8,-3,-21,-19,54,-25,-2,127,-13,-12,-18,-44,30,48,-40,10,38,-13,-47,70,22,61,47,-42,-5,8,-3,-4,16,-27,-10,30,-18,23,-4,-37,40,-36,48,42,-17,36,-23,-48,-8,-1,-1,-43,33,-84,106,40,-5,47,16,-125,8,12,39,35,-6,-88,74,45,9,55,-12,-61,-2,103,100,112,2,34,8,118,-2,-18,11,59,1,39,7,-63,-41,23,2,98,18,14,-8,27,-2,10,19,-47,-24,14,-12,87,18,45,6,32,3,-22,-73,-40,-22,18,-37,10,25,44,31,28,-32,-2,-48,9,-6,24,-30,16,15,19,8,-6,2,52,3,21,18,29,-3,-1,8,44,10,3,18,64,37,46,26,44,-3,0,22,9,22,-56,45,77,127,-20,23,80,-1,18,-15,-27,91,-19,-52,-31,-21,-36,0,-11,85,-13,79,-9,104,-103,22,61,22,8,48,-47,38,-53,60,-11,68,-36,82,63,79,21,56,-49,-27,-24,42,17,28,41,71,-31,45,74,-36,14,-76,-1,-61,28,-18,54,-20,-42,-46,-15,-12,60,-5,51,-91,31,-63,54,-94,-40,-74,-68,-14,71,72,127,-34,56,-54,18,-50,-2,24,-99,75,-91,-54,-26,9,-40,18,-91,58,127,-67,29,15,-47,-35,14,4,12,6,-3,9,-11,-4,-14,18,1,-33,-4,2,13,6,28,16,47,12,-14,35,49,4,-25,-31,2,-11,14,24,-72,-18,-18,14,64,65,-31,26,30,-50,-79,-35,25,-50,-12,-18,17,109,-27,26,4,14,14,-32,-51,-29,4,5,-45,59,1,93,17,-12,57,39,-115,-24,-8,47,21,-15,0,-25,-7,-2,40,18,-20,15,-2,-18,-8,-2,-4,-13,9,14,7,-21,-52,-16,48,-18,-28,36,-34,-10,15,31,-127,3,-4,-2,48,9,-12,-34,-8,-14,10,-26,-15,13,47,12,-13,6,-9,19,13,16,11,-15,11,-5,-5,14,-14,-15,-6,19,-23,2,5,9,30,-9,6,-50,1,40,19,16,13,-1,11,-16,-12,-4,-5,-14,-23,15,3,-7,-11,19,-11,27,100,53,-58,27,21,25,18,-1,13,25,-19,6,47,32,-96,30,25,36,8,-10,17,16,27,41,17,16,-76,13,61,-7,22,-22,24,-15,-19,15,-4,84,-48,46,42,-3,-21,-41,-13,14,9,39,74,96,-64,47,75,58,-50,18,-5,-36,-5,46,127,25,6,57,81,4,-21,47,22,-37,9,30,96,-6,85,-16,-7,21,-22,82,101,115,-12,47,87,-93,50,2,28,114,5,-34,100,-29,-5,-12,58,-30,27,51,15,-20,-60,-19,47,102,-25,35,-17,43,37,-5,-30,34,15,15,38,120,70,-17,-20,97,86,70,127,16,-53,-15,21,75,100,-21,4,76,-18,-3,27,1,-56,-53,39,60,11,43,-21,-46,18,31,37,86,-10,-30,-11,83,-4,4,3,-43,0,-13,-18,117,-6,72,10,32,47,17,11,19,113,20,6,25,-12,70,1,5,24,39,33,-32,127,50,18,-10,-1,17,29,12,3,18,26,-31,61,-4,-5,1,3,3,-7,54,0,9,-10,-51,106,-8,13,30,2,-24,-14,54,34,11,21,-50,61,22,0,-6,-40,-22,11,24,6,0,15,-31,47,12,19,0,-18,24,-24,-14,14,-8,-33,16,1,28,-1,33,-37,-14,76,22,-37,-9,-102,77,93,-47,-6,110,-16,-5,64,67,-53,-8,-40,7,23,-53,-36,42,35,-18,6,44,-55,22,-86,49,-90,-62,-15,30,57,-19,-38,48,-62,-9,-59,42,-90,-75,-10,-14,20,-34,32,20,-39,-8,24,38,-6,-31,-6,4,-44,-13,112,-5,-12,-11,22,-54,18,-16,-7,-41,-127,44,88,-4,-7,-47,22,-18,28,41,31,-13,-20,-72,-31,44,-52,-9,7,-96,9,-23,-76,43,-53,34,-15,-7,-8,1,52,-80,-127,-52,0,26,23,-1,0,36,0,20,-116,26,-34,-19,71,-16,38,-42,21,10,-39,-31,-110,66,15,3,80,-29,-3,29,-10,-52,-35,-27,-57,19,-4,12,26,-38,-38,39,-12,-27,-26,28,4,-1,30,-1,49,26,64,42,42,-47,-1,44,-48,25,76,58,-12,-9,22,-38,-8,70,72,18,1,-12,-6,-17,-24,-4,-34,0,44,81,44,14,34,-3,-18,-22,46,-34,1,-28,10,67,50,6,12,36,35,37,47,-80,-11,-21,-6,15,6,10,-20,39,48,12,25,-11,3,21,-2,26,-57,-38,58,-47,35,-5,-6,-42,14,11,-42,23,-35,-8,-49,-16,73,-5,-53,-3,-4,5,0,42,-39,23,-72,-36,27,1,-127,-1,39,79,6,-18,28,40,-25,31,52,63,-3,-104,-44,35,49,-5,75,-7,-63,69,-2,23,115,-69,-122,28,89,23,96,23,-80,62,-14,57,75,-127,-67,-24,75,-9,94,-3,-6,108,18,-1,88,-79,-114,-44,56,-9,110,-36,-25,122,3,62,4,-48,16,-35,40,-8,27,-14,10,-26,23,110,11,-21,99,-16,-34,-36,-4,-42,75,10,9,110,-74,-63,-3,21,22,-63,-65,42,7,5,-12,61,-29,-54,-69,1,23,-43,-6,-7,24,24,-27,21,-39,6,-12,61,15,-37,-48,24,-64,28,53,63,-29,-33,51,-18,33,-35,-34,20,-55,30,9,127,13,25,-39,10,-24,23,-12,59,7,-36,0,46,0,63,-38,-5,-14,16,-14,77,93,16,-18,58,55,26,9,-32,9,-28,27,63,29,72,-37,82,58,120,-9,6,15,10,34,31,-8,-9,79,10,2,41,-22,52,0,22,19,14,8,-19,127,-8,70,30,5,1,3,7,2,25,19,-2,-1,-34,64,43,19,-2,1,-10,2,-11,20,27,-52,-52,66,67,37,-31,2,30,-6,-14,17,54,-123,-5,-3,32,-41,7,-32,43,8,-13,31,55,-89,-5,28,13,-81,30,-21,31,67,-35,18,52,-6,-6,-16,24,-1,-9,32,53,-16,47,-96,4,-27,-9,24,13,21,4,-19,35,-15,42,-76,91,-59,44,-35,-1,73,-11,-24,11,-35,4,37,127,-82,1,-3,36,22,-17,27,-39,-9,16,73,51,-102,-13,79,11,54,10,0,-33,-11,-46,76,-70,18,-37,27,-32,-35,28,68,-21,-37,-6,-22,-118,2,-38,71,-35,-52,-18,43,-50,-10,18,83,-6,73,-51,19,-77,-87,-33,82,-13,28,-13,-36,-27,27,-29,-59,41,-80,4,57,-14,42,-18,-29,-43,-11,-21,-55,41,-60,16,28,-16,47,3,-64,-43,-15,-22,-7,18,-16,3,18,-18,72,33,-22,-34,5,-9,-25,53,-19,-13,-25,-6,122,49,5,-30,39,14,-64,62,5,-20,-29,4,108,44,3,12,6,22,-104,116,34,13,-33,-4,78,26,-23,19,-40,41,-127,90,-37,22,-45,-6,-53,-31,-53,-31,127,-69,-39,10,17,1,1,-39,-46,-5,-79,10,3,-95,10,-5,21,-22,8,-18,-22,23,-49,28,-6,-24,22,-12,25,-36,1,17,47,43,-61,-12,33,17,-57,12,27,-5,23,3,5,-15,38,42,-13,-35,-23,18,3,16,-24,23,-6,54,23,12,24,26,-50,-17,-58,57,-51,47,-8,16,61,49,20,-19,3,26,16,55,31,24,-12,1,33,3,80,-63,69,-72,14,52,-21,65,-19,0,2,32,-68,-53,67,-1,45,30,24,59,17,27,33,62,-21,-90,4,32,28,55,46,34,6,48,117,79,47,-57,74,44,19,-38,123,47,-35,11,-8,-58,1,49,88,10,16,-11,57,4,5,13,-46,-6,-41,21,109,83,70,-25,8,-31,22,46,-127,-64,-1,-15,94,47,28,9,-48,55,-25,3,-117,-60,-13,-9,-39,-28,-36,-11,24,-12,-37,25,-22,-83,-26,-63,-23,27,-34,18,-45,2,11,13,73,10,45,3,-66,-17,-59,3,-23,-54,9,11,127,-15,4,19,20,2,-19,-37,5,-57,-44,22,44,114,19,-69,18,-45,17,-69,61,33,-14,-21,-32,81,4,-10,-34,19,21,-56,49,13,-17,37,-48,98,92,-12,22,10,2,-29,14,-21,5,-4,-127,15,-21,-28,82,-15,6,-24,9,-4,-28,-4,-37,22,-21,-9,38,-29,32,41,-2,-6,-15,-22,-8,-13,58,11,11,-15,5,57,-12,35,24,-25,2,-34,-4,-3,-44,-1,-20,29,8,34,35,-15,44,3,21,-33,-33,21,-9,19,-44,38,28,11,82,-29,71,13,-42,53,-18,7,-18,33,33,22,62,6,6,-27,-29,121,41,-51,127,116,3,40,30,-35,55,-44,43,4,30,-16,89,100,30,11,-37,-49,-13,-58,49,14,37,-8,90,88,73,36,81,-34,11,-105,40,-18,53,-4,76,57,48,-7,60,25,22,-84,2,-3,46,-8,80,25,21,-4,-18,-14,50,-43,-42,-56,32,-3,51,0,55,-2,7,-40,75,-61,-17,4,34,41,76,-24,46,-12,58,-93,89,-40,-12,46,-24,11,17,2,4,69,80,15,20,24,108,-26,8,82,26,-16,15,48,-24,-4,73,63,61,-20,23,104,31,-1,17,23,-70,44,44,-11,32,-10,50,127,33,10,-8,23,-54,73,22,15,22,29,6,74,4,21,14,-10,-16,109,34,52,7,-16,-10,96,18,36,43,4,11,109,41,56,15,-9,26,-8,16,55,42,-32,118,74,-75,51,9,-28,17,46,30,3,-17,-7,-11,-24,-41,-29,-16,118,4,-9,41,23,-30,-11,-35,-15,-90,-30,-28,127,12,7,2,3,-4,18,-67,29,-118,-15,-18,38,2,-20,23,19,4,3,-31,33,-101,-13,4,40,-13,5,11,29,-4,19,10,20,-50,-9,3,10,-18,16,4,3,3,10,-8,0,40,-43,25,16,-39,52,-2,-12,-28,13,6,77,53,-59,5,13,39,32,-7,27,38,90,-127,10,105,-10,49,-7,-5,19,7,31,72,40,-23,41,1,52,48,-37,-62,3,43,76,-15,17,117,3,-62,38,120,-56,-26,-4,-1,-8,41,16,96,-47,-12,22,45,-68,34,-54,5,-5,-14,-3,100,-73,-80,18,-49,-5,25,11,-37,-60,-18,-3,-31,-105,46,-92,-25,-35,68,-8,-41,-37,13,-16,-47,-75,99,-84,-25,-53,0,18,0,-24,11,29,44,-51,22,23,36,-67,-3,42,11,-1,22,12,19,-67,15,45,-16,-114,34,30,-31,-3,-12,-25,0,-44,46,14,87,-31,12,-36,-9,-9,12,-10,-55,26,44,-5,-29,-88,22,-6,-25,6,-8,-11,-64,-18,-64,17,31,36,-25,-21,27,38,3,-32,-56,21,-25,-3,2,18,2,-29,29,41,4,-3,-72,46,8,16,-7,127,-54,-12,33,51,-9,74,9,-16,26,-42,52,71,-25,-17,-24,-4,10,46,-35,-40,-9,-38,88,74,5,-43,-17,-21,-33,10,5,-33,-101,-49,68,-15,34,-17,-5,-56,-42,7,-72,-39,-61,-31,27,-6,39,17,26,-57,-17,25,-127,-67,-47,-6,-65,-74,-24,13,48,-48,-1,69,-55,-24,-15,19,-49,4,-99,112,64,-37,52,77,-56,-43,120,-23,-81,61,-58,21,-52,-13,-6,1,77,61,-9,-4,50,28,-24,18,-20,15,11,3,85,-33,-34,48,36,15,-14,-43,-28,12,47,13,25,-69,36,50,-36,19,-10,7,15,-16,14,-39,-21,5,112,46,-50,-20,-29,-26,27,-28,14,-40,-3,9,48,20,-62,-29,1,-38,3,-34,15,-2,-18,127,6,12,-65,34,65,-55,32,-13,47,-37,-38,125,-40,49,-70,-17,-70,-14,46,4,24,9,22,30,127,96,-15,-23,-20,24,46,-17,13,-1,24,-18,52,40,14,17,-59,-33,60,24,-26,81,38,-47,-8,65,-42,25,1,-11,-6,45,3,24,-26,19,-32,-13,23,8,-29,-33,64,40,33,4,-24,18,-6,-41,-27,-44,-73,33,6,6,47,40,-83,-75,-69,-17,7,0,-7,28,-8,-24,31,26,-44,-98,-28,2,52,7,6,28,-13,-18,60,40,-34,-127,78,-20,-22,-9,-26,52,-12,5,70,61,45,-89,82,-54,-33,23,-34,75,-15,1,50,30,53,-92,106,-25,-58,31,-33,61,1,14,62,31,35,-76,120,-12,-74,7,-49,62,17,-9,119,5,10,-67,97,2,-39,-9,-46,39,22,-6,116,-5,33,-5,47,21,-52,2,-53,22,56,-25,102,33,27,-35,8,32,-35,-7,19,64,66,39,58,48,-12,58,68,49,-4,-37,-30,25,72,43,49,52,9,-31,40,94,9,-69,-14,-39,60,6,65,21,28,-64,-3,22,-25,-37,17,-89,4,-4,85,-22,78,-45,-17,-12,-68,-63,57,-38,1,-15,104,-16,96,18,-1,-58,-67,-38,77,8,33,-40,116,-39,78,-30,22,-84,-42,-83,67,21,54,-66,109,15,127,36,-15,-23,-11,-59,-14,10,7,6,31,13,-17,12,2,14,36,14,-19,21,-14,10,15,19,-8,34,-11,23,16,3,-11,13,10,8,16,8,-21,20,-14,-5,19,-8,-20,14,-6,6,-5,8,-36,-8,4,29,46,1,-11,0,16,18,6,15,-49,-37,10,5,21,21,-8,-18,13,6,-8,8,-68,-26,-14,22,32,32,-2,-14,2,6,-10,11,-127,-7,-25,3,63,42,57,12,100,-24,-4,28,4,30,-14,37,-9,15,32,49,82,6,29,21,26,-9,15,3,39,12,42,127,21,42,36,-37,12,36,12,30,66,19,15,95,-25,22,24,-48,-8,59,-57,-47,86,12,8,43,-22,-29,68,2,8,91,-17,-70,33,69,3,-54,4,3,-35,21,-88,42,13,-71,47,127,16,-27,-19,-36,-61,-15,-113,43,-42,-75,41,124,-41,-66,-45,4,-50,51,-67,63,23,33,23,-12,-21,-43,-37,-40,-43,48,38,-20,-14,-29,-18,-87,22,-77,5,-57,-7,26,36,-4,-45,-39,-3,-88,83,-9,0,-44,21,4,0,-38,12,-56,25,-54,19,53,-23,23,55,5,-48,-18,14,-3,12,18,-7,106,-8,63,33,24,86,-21,46,43,25,42,-52,127,-24,65,108,49,116,56,38,45,66,52,-41,35,4,48,11,46,-39,-19,-22,-34,-73,-34,-25,14,-29,30,-3,37,-103,-46,-29,12,-52,-32,10,29,-73,8,10,46,-98,-49,-5,64,-20,-5,19,29,-73,32,8,70,-73,-28,53,59,4,-44,-11,31,-54,20,-7,59,21,-20,25,21,12,-3,39,3,-71,52,5,19,68,16,73,30,11,-20,29,-44,-45,65,-12,10,127,5,23,-8,-23,28,12,44,-31,-65,37,-16,-18,77,-1,-13,48,-3,9,43,4,-40,23,-52,28,82,9,13,38,-7,13,56,-1,-32,34,-15,-24,40,2,-3,41,37,1,27,37,1,2,-16,-14,3,-2,3,-2,30,-15,16,21,31,28,13,-20,-20,9,51,-44,46,-6,-32,22,55,-13,18,-16,-12,-34,81,-16,19,2,-45,18,45,4,18,-5,39,-71,127,-17,30,-4,-15,-15,10,-27,7,-14,-122,31,-3,30,5,-9,-46,22,2,-10,53,3,-78,25,-35,-34,-26,-75,-39,-28,27,5,39,65,-89,87,35,-4,-41,-4,28,0,19,21,-28,-21,-43,-1,-37,7,14,83,-17,-4,25,-11,-23,10,-21,-4,10,69,30,6,56,-19,16,14,-3,-8,-13,127,-27,-27,69,-61,49,-11,85,10,14,-79,-70,37,-34,62,44,-4,-1,-26,-2,7,26,73,-53,127,8,18,14,9,-7,-14,19,-7,23,50,-44,83,-17,-15,-12,2,-4,0,22,3,30,-16,-19,1,-22,-37,5,2,-22,6,8,0,14,-32,5,10,2,-37,22,-15,-12,-21,21,10,-1,-29,19,23,-15,22,1,-14,-5,-11,0,11,20,-56,-4,11,-33,64,19,20,-8,-13,23,21,7,-47,-13,13,-33,83,12,4,-99,-17,-43,44,-38,39,83,-42,31,-28,-13,78,-52,14,-49,-3,-51,-4,78,-35,-7,-26,-13,70,-21,2,-8,8,-10,14,-18,-16,15,-32,-16,1,67,42,-9,2,6,16,-52,-29,27,-27,-9,-108,97,48,20,40,71,-4,-127,40,43,-34,18,-78,38,15,55,30,37,25,-68,64,35,-36,18,22,30,40,3,44,10,-19,-9,-12,33,-29,-16,-40,-1,21,8,6,23,19,-87,26,76,-9,-35,-11,37,22,-13,10,43,26,-43,36,71,13,-43,-37,45,19,-3,22,22,23,-32,26,52,14,-77,-49,53,10,34,6,55,-27,-26,11,74,14,-56,-30,67,-5,15,10,69,31,-30,-17,10,-26,-39,-11,49,-10,1,-2,64,47,-70,16,45,-42,-51,1,-24,6,12,-4,56,79,-127,60,36,-20,-51,-66,37,56,58,-26,25,54,-58,-55,52,103,47,-50,-17,86,10,-63,0,14,2,-68,83,16,32,-26,19,127,7,-43,4,9,-24,-92,67,53,43,-55,9,113,25,-40,7,34,1,-69,-3,54,56,-14,9,72,3,-65,-14,43,66,-47,20,9,-17,-15,30,43,17,-21,-36,-47,11,-89,8,-74,-31,67,-15,34,42,-41,-20,12,76,-116,-64,-102,-23,65,-29,75,56,23,-26,114,7,54,-43,-9,12,50,24,-9,6,4,11,102,15,99,-80,-12,-10,36,58,-29,28,7,40,-50,35,12,-78,-38,14,-40,-16,35,29,12,30,-127,-23,46,-50,-1,-31,2,-16,-13,59,17,12,-56,-43,16,-7,1,4,8,27,-11,95,-29,-9,24,-34,-11,0,-4,29,-93,95,-9,103,-13,29,2,9,76,35,19,39,-3,58,39,52,29,18,-127,-7,23,0,-10,17,-61,2,-13,16,34,-13,-99,-6,-18,47,51,15,7,-8,43,41,60,2,-21,0,24,0,47,1,2,-3,17,-17,62,1,-43,-19,-15,16,-12,57,-56,23,28,18,31,23,-96,25,33,12,-8,3,12,-13,26,3,16,49,-42,2,0,4,33,57,-9,-12,51,-16,-10,61,-32,-11,33,24,56,17,-28,24,-15,-10,10,51,-91,69,-40,22,-92,-5,-14,-24,-23,-17,18,43,-109,11,27,28,-27,59,41,44,-6,-53,7,50,-85,66,-5,18,-27,46,28,51,-16,-32,-12,51,3,-11,-78,28,-18,12,16,24,32,6,6,79,52,-29,-127,-3,-8,24,0,-46,28,-59,-24,25,90,18,-52,67,-50,18,-15,-11,-29,-24,-30,55,101,-107,43,82,-47,44,-3,-8,-24,35,38,23,-57,58,-24,39,11,43,-24,5,5,-1,51,14,-69,74,34,36,27,10,9,30,25,-38,44,8,4,52,-45,49,-18,27,-13,29,-19,-35,63,2,43,55,47,76,7,-7,-13,48,-14,-57,24,3,24,19,10,3,34,-6,13,-33,-23,-77,54,14,22,9,114,28,-58,-17,-18,-84,-14,-53,26,22,-35,-70,127,7,-53,-37,-20,28,-37,25,25,0,48,-34,80,41,-63,58,-57,51,-37,-35,32,0,-8,-50,8,80,1,21,-13,-8,-14,-28,13,-16,42,18,-1,76,0,-44,-19,-25,23,30,18,27,59,80,-18,-14,42,-43,41,-14,-16,-10,31,10,-43,26,127,17,-7,18,68,-46,-12,1,-28,-24,-89,51,70,35,-49,-26,55,-4,44,-14,-4,-11,-68,52,83,30,-13,-64,-2,-46,38,-4,10,24,43,28,36,-14,-9,-51,-9,47,33,-29,46,-24,-41,-47,65,-2,-19,-32,48,45,25,-17,54,17,-52,-19,47,18,-10,7,64,-5,0,10,40,53,45,-64,-47,28,-16,-16,19,-38,-38,0,-3,20,48,-21,-52,50,-27,-16,62,-25,-12,-18,6,45,105,-9,-67,1,-44,-10,25,18,15,-29,33,28,26,127,17,41,-73,-1,-33,-47,-65,-22,22,-5,-36,-33,127,8,41,-14,-20,-15,-20,-32,44,-1,-37,18,17,-15,9,-29,-33,19,-8,-8,21,-5,-2,-23,-32,2,22,-15,10,28,10,0,33,-11,22,-5,-74,5,-17,-5,-1,59,-7,-4,8,9,10,57,-46,7,-8,34,7,43,-22,9,3,7,49,22,-13,4,-16,62,12,11,-16,-2,6,34,-82,-22,28,-51,35,58,-22,66,31,34,5,-18,68,-37,-2,101,3,-61,-21,30,56,12,-9,-10,71,-33,14,92,-20,18,-57,10,35,17,-14,-37,37,-12,-39,0,-34,46,-15,-4,11,33,-14,-19,-42,-28,-35,-29,-25,127,-23,-19,65,2,-8,-4,-17,4,-33,-17,-11,81,-43,-42,26,-11,-32,18,-31,4,-19,-21,-10,81,-10,-42,-9,4,-17,1,39,71,23,-3,-25,27,24,-26,-37,32,-48,76,2,-82,-103,-19,63,36,14,-69,-40,1,-6,30,92,-11,-76,80,13,-38,48,-7,-20,41,18,13,75,-1,-41,36,25,-64,40,14,56,11,-3,-35,72,33,34,14,116,-18,50,-22,42,30,31,-2,-40,-15,-18,20,59,8,13,32,78,59,18,9,-127,-44,62,55,35,62,16,53,39,0,-8,12,5,-28,56,27,45,33,-13,38,62,48,-22,-43,84,-66,77,-58,-60,-86,-51,0,32,10,-38,-8,4,-63,81,-29,-38,41,10,9,48,50,-15,-24,-61,-13,34,6,8,44,21,-11,5,35,22,-8,-78,63,90,40,2,48,81,7,-1,71,-34,1,23,19,63,33,31,20,55,-9,44,1,21,26,70,-42,-7,-6,-4,74,-39,-26,-24,21,-23,-44,38,-72,127,-45,19,123,-64,-61,18,-40,-20,18,61,-32,102,39,-11,29,-120,38,-19,-11,30,6,11,81,-25,58,-76,59,-110,61,-26,-9,43,-1,25,64,-33,67,-22,84,-69,6,8,20,37,24,76,-48,-105,92,37,95,-8,-41,15,-4,15,20,75,-54,-16,99,34,127,42,3,21,3,0,10,53,4,-24,28,5,70,77,47,-6,-11,49,0,51,34,-21,-74,3,22,-5,21,-16,0,-52,41,127,-18,-58,0,34,-13,-5,-4,-31,-18,-49,36,75,-19,-69,-30,4,-13,-2,2,-27,-3,-26,27,17,-9,-17,40,-20,-25,-6,-8,-13,18,-18,8,-20,4,-1,44,-18,-4,-2,-2,9,47,34,6,-18,-7,16,65,-24,-25,34,25,15,52,4,7,-65,-2,33,5,-25,-6,24,-29,15,39,29,47,-64,4,34,16,-34,6,-51,-32,4,-20,-36,28,80,-80,-75,-38,127,-23,-11,-62,-6,-1,-55,29,80,-45,-93,2,121,-14,56,-47,12,-15,-27,-56,44,-15,-44,32,13,-31,29,6,28,17,8,-36,-78,6,-37,39,11,-31,-10,28,0,39,34,-22,-85,46,-48,51,12,-18,-52,71,-2,65,-5,59,5,20,-30,40,-14,9,-70,18,20,21,24,57,96,77,-29,-34,-71,-8,39,0,102,15,29,25,18,-96,-9,-114,5,27,36,49,27,25,31,29,-92,-16,12,-48,-8,39,-25,40,-8,41,25,33,4,-91,21,46,7,45,-106,-12,22,29,63,3,91,-75,-36,79,15,17,-54,-74,-11,7,16,-18,127,-25,-70,59,-27,-21,46,-65,4,-34,16,-73,34,21,-14,34,-27,-100,62,-52,23,-50,4,-71,-51,51,-19,3,-74,-81,-33,-58,67,18,54,20,-3,26,-1,-31,-2,-40,-11,-66,64,38,57,35,45,3,-39,-7,-2,-2,-37,-44,18,60,38,23,15,-30,-23,61,48,6,-41,19,12,55,-2,-12,55,5,1,45,32,2,-22,82,-21,8,0,-25,25,15,0,-11,5,24,25,127,-45,-26,-49,-23,-8,-36,-9,-78,51,42,61,94,-31,-40,-55,-2,-27,-41,-9,-97,46,27,-69,-18,35,10,56,-47,70,-40,71,-65,-21,85,-37,-8,97,-32,66,-70,-98,-44,72,44,-87,-29,39,87,-33,46,-34,-6,0,-48,34,5,-5,-74,103,69,-52,-11,5,-84,72,-33,17,23,59,53,80,-51,-35,-37,-31,-37,51,-47,72,-35,-3,85,-27,-60,-54,3,49,25,-32,-55,87,-127,-8,63,1,-77,-3,-2,50,30,-26,-69,47,-6,12,18,-53,-48,20,-16,29,30,41,-11,-59,7,8,38,-60,-21,19,-7,43,14,-11,-2,-81,11,53,-4,-45,-22,8,20,17,-8,-19,49,-40,6,28,4,-1,18,-3,3,31,24,-12,31,7,-6,127,21,-2,27,42,-6,55,33,-16,51,-117,10,125,-5,-42,4,2,-15,57,20,14,69,0,19,15,42,-36,59,0,7,25,29,-3,61,-10,11,-31,2,-63,27,-10,85,-43,62,1,3,9,-60,-33,18,-56,45,-31,127,-65,89,40,38,9,-44,105,-21,-58,0,-15,73,-76,79,-9,15,-35,-51,126,-1,-58,-24,-16,28,-26,44,6,28,96,-29,63,-15,-15,-58,-9,-40,-21,19,-26,-22,-27,-6,25,-5,58,-23,48,-79,20,-37,36,12,-6,0,-25,40,91,28,55,-53,39,-38,-9,-26,22,21,-74,50,27,1,14,-2,36,-13,37,23,-127,-13,-40,6,-15,3,9,-5,4,-4,51,41,-81,8,-19,25,12,-23,-25,20,39,-15,-40,4,28,27,-43,26,6,-9,1,22,3,20,-72,-10,44,25,24,8,-26,-1,-45,3,10,-5,-31,9,69,38,60,17,-39,-3,-29,-14,10,-28,-35,-74,120,-13,4,-11,-23,-8,5,61,-21,2,-43,-44,78,-17,22,-2,-111,14,79,-4,2,13,34,-22,54,-56,-19,-49,-65,30,69,3,-2,15,108,45,30,52,39,-33,-34,31,25,-7,18,6,68,-6,19,-24,50,31,5,-10,65,-17,0,29,39,-127,15,23,29,36,3,6,20,64,-15,18,18,-80,4,57,17,80,-13,21,-19,62,63,-16,6,-111,46,-5,78,14,-2,32,39,45,3,-25,83,-73,-4,50,-6,4,-12,-42,54,-7,-5,4,-38,81,53,-11,-4,22,21,-10,51,-7,22,19,31,77,-19,3,30,20,14,-4,23,24,-9,-11,88,11,58,9,36,-11,8,-9,-11,-4,26,-16,127,-3,18,-4,20,-6,-42,11,-20,-18,35,2,111,-4,83,35,48,23,-57,7,9,-9,8,26,66,25,11,39,48,39,-27,-25,-22,-16,-20,25,8,94,-29,52,15,12,3,-9,9,1,-21,21,81,-58,-127,3,-27,43,-4,21,50,29,-35,-16,104,38,-57,-29,-3,-31,-12,48,37,-11,6,25,39,16,1,-38,-65,-29,11,78,37,0,8,33,48,-17,1,23,-69,10,52,55,-7,33,2,20,49,-56,2,57,4,-26,-37,-58,-18,1,-14,12,17,-53,57,11,46,-31,-14,-69,-12,32,-4,4,-23,-62,-26,76,42,15,-30,66,-4,22,100,-21,46,-6,-24,-60,-36,-61,-12,-9,28,27,87,-30,93,-40,-2,-42,-77,7,-22,17,-16,7,43,-3,90,-32,13,15,-65,18,-42,-13,-10,10,39,-4,52,-73,48,11,-41,76,-13,29,-15,1,28,7,22,-86,-21,21,-23,127,-1,4,-10,-36,-6,-12,-3,-53,16,65,-1,69,57,75,17,-8,-13,8,-35,6,-52,71,-37,44,43,8,-17,15,54,12,92,75,-57,25,57,13,34,-13,-46,-14,71,-25,8,71,-8,-13,45,4,23,-10,-43,12,101,4,-46,33,37,25,5,-34,19,1,15,-9,99,23,-73,-7,1,84,-20,1,33,1,-16,7,98,7,-71,41,42,70,-18,-49,-22,10,20,22,2,12,-14,-20,105,89,58,24,-60,14,47,-7,-60,56,62,-9,127,40,61,20,-8,72,-4,-36,-54,12,-45,35,-2,38,-27,47,13,20,33,-56,-6,-1,-26,-6,-21,39,51,35,34,20,23,-28,-20,4,27,-8,-33,52,41,29,11,17,34,-20,-33,10,13,10,-48,81,57,15,12,-13,22,-51,-32,38,64,46,-72,33,46,18,11,12,13,-33,-1,59,75,32,-127,53,42,-13,-38,-40,-16,14,-17,79,55,-28,-46,63,60,-34,7,45,-76,71,-54,63,2,105,-125,-86,69,12,-40,-19,-11,58,-12,38,39,55,-92,-127,97,-38,-24,-8,-5,30,-57,62,70,70,-57,-68,34,-56,-68,-25,65,-62,-70,37,66,-28,40,-25,39,-96,-13,-45,94,-75,-27,-39,35,-52,78,-3,104,-38,55,-17,113,-51,-43,-20,-26,-45,14,102,71,-30,14,94,60,-33,43,15,-83,-1,-11,101,26,-20,-78,-78,-6,-9,28,41,-82,-35,47,11,42,58,-40,-88,25,22,-22,0,-6,24,88,68,34,-4,-35,-56,33,37,46,32,12,34,127,53,62,-20,1,16,-2,26,-12,-19,65,13,76,-35,-27,-6,-9,52,-11,21,-21,24,-14,-14,-87,-89,-63,24,40,73,-43,39,-21,-42,55,29,82,-75,7,21,48,87,-5,58,-8,12,13,-9,-48,-63,-28,6,-71,-26,15,48,-28,-14,-92,89,19,27,26,-63,-60,-26,-14,32,21,44,-87,34,22,35,39,22,-9,12,-27,-39,-9,7,-7,2,-23,40,58,-42,-9,22,-10,-3,39,-17,5,-43,-23,42,48,-25,79,0,-50,15,-47,-13,127,-71,-108,-36,30,16,51,-36,20,28,-32,-50,34,-41,-70,25,28,6,19,25,6,23,-25,10,45,5,-30,-6,-12,79,-13,18,-19,-3,71,-4,35,25,-11,-9,39,9,-22,94,-30,-4,46,21,-29,23,-25,45,4,-16,-127,122,-69,44,-6,15,-24,109,-66,26,15,-50,-60,5,-38,-8,25,15,-21,68,-91,52,56,-49,22,-45,-11,41,43,1,-3,23,-46,18,56,11,26,-48,4,74,29,54,-24,-4,-30,17,36,25,-8,-28,0,53,45,32,4,-99,-9,-1,18,-1,-90,48,6,-18,2,-22,127,-39,33,-5,7,39,-74,6,3,-10,9,-17,26,15,59,-31,-2,49,26,-4,19,7,-20,-5,-28,49,0,-20,-19,50,70,-40,15,35,-5,-4,-53,51,-1,-1,-11,4,43,-14,1,34,-26,-2,-39,4,-30,6,63,-4,8,6,24,37,11,9,-37,-41,-13,5,3,-3,-20,-17,2,14,3,3,-17,-57,-34,9,-55,70,-1,-18,3,-4,4,27,-72,-77,64,17,52,20,-7,7,-5,-6,1,20,-11,-70,53,-5,23,19,-17,-3,6,6,35,28,7,-83,30,-14,2,31,-15,-2,6,-10,11,31,14,-57,-4,-9,35,11,-33,9,2,24,3,11,9,-53,-6,-9,7,21,-12,12,8,0,-8,5,42,-22,24,24,-20,24,-2,18,13,-12,7,3,61,27,127,-10,-31,2,11,95,41,86,89,51,-126,-124,54,33,58,72,-20,89,28,35,44,-24,3,-79,62,67,76,53,-4,20,67,2,43,-23,-22,-28,57,59,97,-14,30,10,15,65,70,55,-31,-14,35,9,-21,29,34,87,86,82,23,-9,37,-35,127,97,-24,2,1,-5,5,52,81,-6,39,-2,107,76,-2,94,-33,-6,36,71,-2,15,-54,-63,65,53,18,7,-16,46,-20,18,-25,2,-81,-87,40,30,105,69,-16,62,-8,19,-19,-24,-38,33,12,16,102,63,-9,52,-14,13,4,-21,-14,47,17,57,81,58,-8,-17,-16,-3,17,-11,-3,57,43,67,15,-23,-8,-52,26,1,-4,6,10,-25,13,41,-11,-13,-48,-17,0,30,32,-19,48,-2,-78,20,-20,-40,-17,-26,20,67,27,3,111,-18,-127,71,-42,-35,18,-2,-29,-29,-24,-38,71,-14,59,-24,-76,-9,22,27,-17,14,4,9,91,-35,-35,-18,16,-17,20,-23,-20,-41,-13,-2,-3,-10,12,-13,4,11,-20,-14,21,0,33,-10,-24,-30,-4,-33,-26,45,-38,-36,19,30,20,9,-120,-1,2,-19,-6,6,-9,-20,6,49,47,28,-127,-21,-13,-32,35,-8,-4,10,33,44,73,-23,-33,15,36,-46,112,4,-13,21,-50,-22,96,42,-67,-66,24,-30,51,53,-14,17,-52,-25,28,62,29,-80,-16,-15,73,-5,3,19,-17,-15,-4,44,21,-63,52,-22,21,-37,-14,14,-11,-19,-4,23,127,-20,2,-6,86,33,41,-10,10,-4,-6,23,94,-31,58,-9,91,31,14,-25,36,63,-13,50,-26,-19,-4,-46,26,0,-15,-26,33,71,-16,29,22,-12,-19,-27,43,3,39,-7,-27,41,-22,43,26,-55,41,45,-42,69,60,102,-33,81,-2,19,82,2,28,11,0,7,22,63,-33,4,19,16,25,-49,-42,19,60,32,4,106,-11,35,-25,9,-57,89,127,-28,0,19,19,79,17,17,-54,-25,7,-26,53,-6,70,-9,49,27,62,-36,-13,-17,-28,-10,-36,-3,-1,39,-6,-86,72,-66,13,12,-30,66,-55,22,84,27,-29,-15,60,-12,27,73,-74,14,16,-24,-76,19,7,-4,33,33,-54,30,-59,24,-18,5,-127,52,22,-14,-23,1,-44,35,-23,29,-33,67,-43,11,5,-7,-5,36,-51,-1,-16,-37,5,42,-44,76,26,-48,-6,48,-62,10,-8,-74,30,19,-12,82,16,-48,-32,49,-38,17,-20,-64,62,-10,24,20,-9,-44,46,64,-49,42,-53,-48,75,-54,45,39,-56,4,-19,8,60,17,-103,-65,127,-45,23,-78,-26,-11,-1,-2,33,16,-28,-21,28,-4,38,-49,3,-26,-35,27,2,18,28,-32,20,22,26,-58,23,-32,-36,0,-29,34,-6,7,50,15,36,-10,36,-15,-14,10,-29,52,22,-18,14,-26,60,-24,-1,21,-37,14,7,47,33,-74,-27,3,54,-15,12,-4,-49,26,-2,66,57,-64,5,-49,8,22,-72,86,18,-38,-25,-20,-108,19,127,5,64,-59,-26,43,49,-62,19,-38,-17,-53,0,-34,33,-34,20,-12,47,-26,-13,-15,52,-42,2,-16,5,-10,45,-29,103,-42,16,-55,87,-16,-61,-4,-82,-10,38,0,63,-7,61,-25,18,-18,-55,4,-55,-3,-19,-25,45,64,39,-3,-83,-34,-50,23,-87,47,-34,-17,14,47,23,36,-65,-29,16,82,70,52,0,-6,-3,5,39,-26,-12,-8,-26,-5,-9,38,0,31,12,-14,27,6,65,-7,66,10,-16,-49,-10,4,38,39,-27,37,5,-4,76,-70,33,-10,-26,-31,29,-21,-12,83,-24,-41,23,20,64,23,-10,-21,38,19,15,51,32,28,110,3,71,52,-35,-39,-7,6,-23,34,127,30,-7,56,0,39,-37,-65,-21,-30,25,56,77,-50,-40,-36,7,15,-35,-7,61,43,-17,0,-17,47,-29,-2,97,93,-12,-34,11,69,10,40,22,74,59,-8,109,100,7,-24,-16,82,16,18,-96,-5,19,46,89,41,16,-36,-27,80,-16,-2,-115,-37,28,-30,86,16,42,9,-67,98,-28,-12,-59,-75,57,-30,70,-1,25,25,-58,38,-27,-51,-2,-79,88,-41,9,-7,-3,76,2,17,-37,-10,-9,-18,127,-40,-62,-26,-34,-70,-16,61,36,54,-37,-105,2,41,66,78,-59,18,-44,89,21,58,-58,-12,37,28,40,68,-30,48,-38,27,22,33,-17,61,104,5,35,40,21,45,1,-32,-23,7,31,114,62,7,-36,-19,22,36,37,-81,-28,14,62,13,5,38,-93,3,60,31,74,-92,-39,45,65,-39,98,16,-112,49,64,78,115,-45,-27,18,33,-5,111,52,-127,42,-56,-16,-18,87,-25,60,6,-82,58,10,101,66,-25,30,-18,-6,0,6,11,-44,54,97,65,-6,28,5,-15,-54,0,18,24,47,47,72,65,7,38,29,45,-11,43,-23,86,53,-39,26,-4,-4,-38,18,3,-57,45,-14,72,18,-77,-5,-23,-38,12,-41,21,-66,1,2,73,-73,-70,38,42,-17,32,-32,93,-25,69,-28,16,-28,-49,127,-65,-59,-83,-16,30,96,127,62,-35,-10,124,76,113,84,-64,20,60,3,94,30,21,-44,60,20,42,76,-80,-7,-5,-9,21,-43,16,-7,-48,19,9,24,-35,-72,3,4,-1,-36,-35,17,-61,37,-69,-32,13,-25,63,-65,70,-78,-34,23,-118,-11,-29,-53,-4,-16,-29,-58,16,-6,-26,62,-81,6,-19,-24,89,52,-15,-99,40,-12,9,51,-42,-13,-2,-16,-21,16,46,21,16,56,66,52,30,60,-48,55,11,8,47,15,-9,65,51,-68,26,43,10,48,0,17,46,-58,-6,50,24,-112,65,49,14,21,5,7,42,-34,-27,11,-14,-96,45,13,-2,-31,-13,6,42,-85,-19,26,4,-74,73,25,7,-38,-65,14,87,-61,-56,24,-24,-61,125,51,41,-15,-57,94,124,-19,-51,13,-30,-76,-12,127,5,9,-7,36,9,-18,-3,45,3,14,44,-4,17,-3,7,15,58,10,0,63,-53,54,19,94,65,70,-35,-8,50,108,13,58,-36,9,-30,127,104,38,-40,-37,70,90,38,38,-52,64,-9,-10,19,29,-19,22,30,24,93,-4,61,19,57,60,21,33,-10,1,-18,30,-19,87,-17,107,-7,36,127,50,39,66,26,35,57,71,-20,-15,35,-6,126,-22,-12,-49,-16,-3,34,-5,45,43,-101,35,46,14,1,-25,-17,13,-18,12,17,21,-25,-30,11,10,11,-7,18,-39,-21,-10,38,-41,18,-29,57,-6,12,9,-3,-34,-25,32,2,-32,-5,4,32,9,45,32,0,-25,2,2,36,12,58,14,-1,-31,-2,6,33,-32,-24,-9,54,59,9,7,16,-17,12,96,-3,35,-23,22,23,127,9,38,9,-19,-28,61,61,-10,40,48,-21,-64,25,80,55,76,-6,-3,-4,-36,3,22,16,26,-56,32,-18,37,18,29,9,-24,98,21,-91,-3,-23,30,-8,-5,-26,-47,-1,8,48,12,-19,88,-74,4,-86,-36,-7,-20,-8,12,127,-54,-60,11,-20,42,-60,-71,27,40,-39,-4,67,-33,23,-1,-24,38,-23,-40,-5,15,-16,-72,115,-70,-101,21,29,36,19,-41,9,-2,40,-7,-32,-7,38,-43,-50,43,-9,108,9,24,18,-3,4,17,20,-39,-40,62,-10,127,-30,-6,5,-11,-11,8,12,-71,-38,-25,-22,98,15,-13,27,-25,-1,34,31,45,-36,-20,-31,82,-9,-4,21,-4,9,12,15,54,-18,-37,-44,5,-8,8,-5,22,-27,23,-26,48,-2,-22,2,38,43,13,-9,0,-42,38,30,91,-25,-44,-9,31,-21,23,30,25,9,3,-24,-23,45,-11,21,28,-27,-5,14,26,18,9,1,19,38,-8,-13,45,-38,-6,5,20,38,33,6,65,17,25,-27,45,-36,8,24,20,19,13,6,127,13,54,-44,13,-28,27,21,28,19,19,-23,90,8,36,-69,15,-8,25,15,-10,24,10,-50,98,-49,-14,-38,12,-8,34,-17,12,16,13,-71,57,-52,5,-39,8,21,9,21,20,3,40,35,-22,21,-15,-12,-80,-5,27,14,4,-6,16,62,6,38,-11,-59,-58,25,5,5,26,8,20,55,12,27,-2,43,-4,18,14,22,-8,12,16,53,12,96,64,82,13,30,26,-4,5,-21,8,11,-80,44,51,77,22,35,27,30,-14,1,22,14,-25,76,46,88,38,42,-27,-16,2,22,16,-33,17,127,110,56,47,-18,89,24,29,82,64,-95,42,76,-71,-127,107,-8,-12,27,-53,60,-12,-42,82,-41,-61,-123,118,-1,3,34,-31,8,45,-40,-10,-54,5,24,52,54,6,91,-49,-29,24,-44,31,-39,62,8,-23,75,17,-13,22,-5,23,26,49,-39,47,-1,40,5,-9,-6,-49,-26,-38,32,12,-48,0,-13,-74,17,-33,13,22,16,-12,-58,55,-96,49,-64,-32,-16,37,16,13,31,-6,-13,20,-31,3,83,-44,-1,10,3,13,2,3,23,-11,91,38,85,-4,78,5,-16,33,17,5,-3,12,34,-26,86,-20,77,-10,-14,34,17,1,16,-25,-14,-4,38,-2,-4,-4,23,-18,-12,40,-9,-34,26,-36,12,-10,-127,16,62,-18,-23,38,3,-17,45,-47,-7,12,-75,-27,49,12,-49,37,9,-8,-3,-66,-35,-2,-75,-8,75,31,66,25,63,-4,-84,-1,19,6,-44,-37,32,52,20,-23,61,35,-125,-16,27,-1,-56,9,37,26,26,-18,56,34,-34,5,-10,-28,-41,-34,61,8,3,6,60,-11,4,0,4,41,-14,-18,36,4,-10,6,67,52,82,-14,30,5,-2,-3,40,41,-13,10,70,-22,127,-27,16,30,-76,7,5,25,-7,24,106,-11,113,-23,3,25,-43,-6,-32,83,37,41,73,87,-82,-30,116,25,-39,-6,-36,19,15,54,65,45,-83,41,120,30,-9,-33,-60,-19,5,10,74,60,-38,55,-10,44,22,-13,5,-15,32,-18,52,-20,-23,70,-17,35,46,8,-39,13,1,-4,53,-72,39,59,-90,57,62,28,-12,20,17,-3,62,1,79,72,-100,86,46,30,-12,35,41,-45,-13,37,73,127,-80,68,-110,37,9,8,-13,0,87,2,-28,-12,-34,51,-53,38,-7,16,42,4,84,59,-112,22,26,16,-56,11,33,0,28,8,-71,20,-49,0,73,24,-29,-11,43,-12,5,-16,-120,26,-127,-15,65,27,24,36,19,0,-19,12,-119,63,-113,21,76,11,-34,24,68,30,48,23,-108,92,-87,-3,75,-28,-45,54,58,46,-6,3,-62,71,-12,-7,37,15,42,70,-21,-8,-59,-23,-93,-49,-33,-56,-30,17,1,27,31,-5,6,-20,-91,-59,-50,-8,1,-21,-17,59,-6,-14,22,-14,33,-1,43,41,21,16,-42,-37,17,-13,35,40,60,-71,-5,22,36,20,-35,-75,-5,-14,0,59,127,14,-35,35,-37,4,2,-39,34,37,23,-24,63,-25,-30,-17,5,-13,8,-11,-7,-20,52,55,-42,-12,-88,-35,-2,23,-37,-43,-20,117,-29,10,105,41,-107,-29,15,7,15,-66,26,-3,-8,-33,89,-83,-28,-49,-14,-25,-22,-37,-23,3,2,20,93,-37,42,-65,-92,-4,-16,28,17,32,32,11,32,45,-5,27,-127,-28,3,9,40,-4,-38,36,30,6,28,119,22,-24,-48,37,-26,-6,-47,64,22,-52,-13,46,-6,-20,-32,-50,-15,0,-37,54,-7,-42,-76,78,96,-8,0,-21,37,33,3,15,-39,5,10,40,-11,-39,42,-12,55,27,55,18,-66,31,35,32,13,-46,18,-9,40,-18,-4,-3,-115,-4,36,28,65,-24,-16,11,22,-5,14,62,-31,24,9,-13,-8,4,-36,34,25,9,-15,72,-127,41,48,55,-27,-32,-61,49,66,34,-18,54,-98,70,64,40,0,19,-107,9,7,35,-39,68,-26,60,21,10,8,41,16,23,9,26,8,-15,127,-45,-59,-16,-4,44,-21,31,-12,28,25,-28,113,-61,-119,-29,60,2,22,58,35,-18,30,-4,84,-30,-79,-13,37,8,8,112,-16,34,70,4,60,-5,-33,-11,-50,-30,-21,1,24,52,57,-10,72,-44,-34,12,34,1,39,42,-32,41,-13,-27,45,26,17,2,11,12,62,45,2,84,20,-26,35,-28,-8,-63,-105,-11,-51,5,19,13,57,-19,2,18,23,37,28,15,-35,26,10,43,47,3,35,-5,31,-4,17,3,-4,-10,46,46,-2,10,-9,-17,31,1,79,-28,-58,-17,20,52,23,22,-64,12,-19,13,54,10,-24,2,-6,23,20,8,-37,-35,80,-4,75,-34,-77,22,17,41,-2,8,8,-29,79,23,72,-24,-65,4,-17,71,10,22,89,-62,127,20,76,-33,-4,-29,-4,13,4,79,67,56,-6,25,86,38,-68,-22,11,46,12,62,23,94,52,-46,65,60,-63,-84,52,30,13,22,36,24,39,-74,82,12,9,-26,42,-45,-17,2,19,-59,65,-34,25,-20,46,52,-3,-29,-2,-36,8,-81,-10,40,-28,-13,79,78,-15,-30,0,-101,38,-40,-60,58,12,-31,31,124,-46,-66,0,-127,-47,108,-76,77,-34,-12,37,9,2,27,-6,39,-58,-11,18,-43,39,-16,23,-8,15,-3,-9,31,-54,-8,16,1,59,-18,-6,-15,-16,8,-3,41,-44,36,74,-24,46,-4,-15,22,7,-10,-2,50,-74,53,-26,-1,-17,17,-20,28,1,21,-5,51,-54,84,-67,-17,-38,-3,-36,42,23,10,10,56,-67,40,-78,10,26,-3,-49,28,3,37,-11,37,-18,70,-127,-9,10,-4,-36,23,81,50,41,51,26,87,-32,126,28,27,8,30,48,-26,29,69,46,73,38,91,27,-1,-17,19,-11,-35,-7,-1,47,45,-25,22,20,-14,15,20,-36,25,-3,-7,48,30,22,-5,39,-61,45,11,-7,-19,-58,4,42,-53,0,-7,10,-69,31,-32,3,-16,-44,-18,29,-106,127,-22,-41,-29,-37,55,16,-21,-19,29,22,-50,118,10,0,-46,-3,-75,44,-35,8,84,-31,20,122,2,-64,27,4,-8,-19,-24,-9,-3,15,48,16,-81,-34,34,-56,50,62,-7,-44,21,-50,-67,-7,-19,22,-49,45,-28,62,-38,40,-45,59,-41,43,-55,64,-31,-45,50,1,-36,7,-45,67,-31,-20,-75,126,24,-30,41,27,-35,22,-13,30,-14,-43,-50,127,-23,63,-62,40,-70,0,-16,6,108,-62,22,-22,-64,-41,3,73,-17,16,33,26,17,-72,50,-36,-9,36,91,13,41,45,-1,25,-35,0,73,53,37,32,76,44,-21,101,1,-18,84,18,33,5,50,-3,127,-30,77,16,41,-95,99,8,58,8,24,29,62,-36,25,38,17,-3,114,-72,109,38,12,-15,53,21,86,12,12,24,34,-40,97,-27,2,-40,71,2,-7,-2,74,61,45,-28,50,43,19,20,-10,83,-28,25,15,111,77,12,16,14,-42,26,52,53,6,23,-19,43,51,-28,-4,-43,-83,31,15,55,37,68,-16,0,3,-62,-26,-3,-64,16,32,33,16,67,16,45,34,-77,26,0,-85,14,-9,-9,25,31,-11,23,-22,2,-27,44,-34,-19,-31,-16,42,27,-9,-4,-62,-73,10,127,42,-35,-27,-5,24,-33,12,-48,-33,2,27,117,81,-38,22,17,54,-38,23,66,-88,34,25,-72,6,-86,51,62,0,-13,20,18,-39,15,2,-67,35,-37,21,91,-5,-23,6,-17,13,51,14,-75,2,-49,36,127,-35,-15,19,-1,-5,-3,-31,-88,28,-66,37,127,-16,-15,42,16,-36,-45,4,-48,0,-60,11,76,8,13,43,-29,50,-62,-13,-41,37,10,-11,25,29,8,34,-115,80,-60,23,-50,70,-64,17,11,-18,65,-16,111,-116,127,-8,-59,-56,-77,11,21,25,22,-19,51,27,94,8,-8,-14,20,3,40,-6,52,9,-31,125,72,-42,-103,22,79,-30,-12,30,51,-34,27,41,-55,-55,-46,14,49,0,-13,8,39,12,46,1,-70,-30,-62,-42,30,3,26,46,58,-54,3,-6,-107,1,35,20,29,66,-80,59,37,-38,37,-121,-57,32,28,38,-93,72,82,-35,36,38,123,-87,0,26,122,127,-52,12,74,-43,22,33,67,-114,-45,-27,107,80,-12,17,5,-28,10,28,-21,-44,-24,-40,11,24,3,-17,8,-16,45,-13,-19,-13,51,-27,-4,0,52,25,-15,13,25,18,-13,-12,50,19,5,82,72,-20,-62,45,-4,0,-44,59,53,-8,28,-13,111,-83,-43,31,-35,-20,28,97,-37,-44,6,-35,-50,90,-32,33,-20,-4,2,-26,-72,-60,45,-18,-113,114,-20,-1,35,1,-36,-16,-67,-72,54,41,-16,19,35,-2,77,-27,-13,49,-68,-1,75,-1,-78,49,30,-3,81,-7,-43,-61,-25,39,91,-12,14,34,27,9,52,10,-26,-83,-20,72,127,40,-19,-2,32,67,26,-16,-12,-28,-43,97,55,44,-30,-60,47,120,8,28,-28,-32,-74,54,24,-21,-25,-12,-17,45,15,25,60,-9,-31,-65,24,58,-34,4,-3,23,28,-12,66,-68,7,-63,-24,-7,-24,-25,3,16,28,-1,14,-45,-63,-36,11,0,-15,-6,-39,-1,-8,27,45,-8,57,-9,31,-28,-12,22,7,11,11,-15,4,-8,30,-12,31,-3,9,34,9,-2,-43,-33,-60,16,47,28,37,1,42,2,-10,3,0,-44,-127,78,34,34,-19,-12,-36,39,28,37,-7,0,-12,16,62,-35,79,-19,-44,64,-14,6,28,-20,-40,40,100,14,112,36,31,9,29,2,62,-8,-20,-45,-17,-28,72,52,61,-18,2,17,6,38,4,-41,1,-19,-56,20,55,-10,35,-29,-11,41,17,-70,-1,-16,-38,-25,7,-34,-9,-76,24,41,29,-127,24,-13,-119,-3,23,-26,-6,-22,-32,15,45,-108,-19,30,-114,-1,103,-56,12,39,-47,4,48,-5,-59,-50,-8,11,26,111,10,-6,76,-31,16,34,-44,26,-34,52,-40,94,-46,22,-13,-28,71,-32,32,28,7,62,-18,-35,-38,-40,-54,50,-1,-20,76,-81,71,2,-46,-59,-5,53,-21,-36,-17,11,-1,-127,-22,28,29,6,-3,-26,-5,52,-103,37,-56,69,-53,16,57,-1,95,4,-48,14,-48,102,-103,67,7,-57,35,-63,-62,-1,-27,-18,3,-72,127,30,34,-33,24,-67,-2,11,2,40,-34,-26,30,21,48,-9,-11,18,1,2,6,23,-79,39,-72,-27,13,-76,-3,108,-12,-73,31,-2,-95,34,25,-95,-85,15,43,-41,-19,-34,-6,65,-57,-14,92,-63,-69,36,-52,0,-40,-56,-15,-10,-66,43,49,-71,-93,-13,-84,-2,-6,-26,-21,80,89,46,85,-81,-4,64,-1,-10,72,39,69,3,31,33,-12,26,48,24,5,-26,15,48,35,-31,75,80,21,62,18,-5,15,40,4,-1,51,-21,28,82,5,71,68,-41,47,-12,19,-22,28,-4,16,31,17,45,63,-26,51,-5,11,44,59,-18,-22,-7,-8,-17,55,-6,31,79,-29,37,69,-19,25,-9,101,12,27,37,-44,127,-60,52,57,9,59,50,118,-9,13,34,32,-68,14,8,5,6,61,-14,-3,-7,71,55,51,-31,21,22,-6,27,56,90,53,4,28,4,-9,56,15,24,30,9,-89,71,35,-2,9,18,-66,78,0,14,25,28,-127,103,67,-10,27,38,-47,78,19,17,-27,43,-54,51,72,17,12,7,33,20,14,-37,-14,-7,47,-34,10,-10,-12,-36,30,-56,19,-59,-14,-20,23,-27,-10,-59,12,13,44,75,17,26,8,65,-127,-52,-11,-14,-14,15,24,35,73,41,41,-9,-94,-61,-28,-2,3,53,1,5,87,70,27,25,-1,-14,26,59,13,47,37,-37,77,-8,95,51,-2,-28,46,26,53,18,-17,5,16,17,51,41,-105,-115,4,-12,-11,4,18,25,26,2,92,69,-4,-63,2,91,-8,4,37,-2,-6,53,54,53,-17,-73,39,68,13,42,24,7,15,-39,-63,25,49,55,-50,39,-78,-20,18,21,15,-41,-46,16,109,-24,-92,5,-65,20,-33,11,-26,-12,30,36,32,20,-127,35,-36,26,-41,40,-17,31,8,6,20,15,-55,99,-63,8,17,23,12,25,8,33,17,2,-43,107,42,-22,-5,47,46,19,14,4,31,8,-31,49,65,7,8,-12,94,26,18,37,9,-30,-23,24,48,59,-25,-45,-11,-31,-34,15,-5,-15,18,-8,-86,23,-39,-5,-23,-46,-35,-15,33,37,35,-80,-32,-25,-17,23,-10,-70,21,10,-92,60,-68,-3,41,-6,-1,1,37,-26,-12,74,30,-42,-33,51,8,-40,32,23,30,-14,-30,-1,-17,-56,-44,127,72,-49,18,64,-5,-29,26,16,28,6,35,51,110,5,27,13,51,-20,38,65,-4,73,-1,26,97,-9,-67,29,-12,-37,62,71,125,-23,110,-16,-28,49,-25,-15,-25,-38,52,32,48,-10,74,-26,-3,-19,11,-46,20,-8,-40,75,-35,-35,117,-55,-94,-29,55,-3,27,4,-52,66,-52,-47,50,-38,-49,-60,53,6,43,-1,2,67,31,-24,38,-6,-57,-32,-7,67,15,21,-22,23,-8,-29,45,-2,10,-18,6,80,-29,14,72,51,-9,-27,97,-127,-21,2,-57,18,-28,11,-65,73,127,-13,93,-8,-6,-39,42,-7,-11,-7,12,64,-32,14,-10,-41,37,59,-46,25,18,40,-72,-46,-36,-43,116,-38,12,35,17,39,42,5,36,-36,-6,-63,16,17,-9,-8,33,-21,-46,-8,31,58,-35,8,-109,-26,33,-20,-19,14,-28,-86,-68,11,-46,54,4,-6,34,-32,-20,-73,-29,-79,-35,-21,82,68,-70,47,-18,75,-7,19,-13,-42,-25,-38,127,52,22,-30,-34,34,-13,-8,-15,-13,7,11,6,-35,-103,-12,83,60,28,-5,17,17,-31,-11,-109,-31,-48,22,-4,2,40,4,19,32,-7,10,-56,-50,19,25,39,47,-5,-9,25,45,-33,23,8,-17,36,-32,9,67,-41,-12,-1,14,-87,53,119,23,51,5,45,58,52,-71,-35,87,-60,45,-31,-25,-12,-43,44,122,30,-27,-26,21,-24,-42,90,13,127,-5,-60,-6,-93,7,41,3,19,26,72,28,110,-39,-65,33,-68,35,12,-28,33,-33,-75,40,7,-57,-43,24,-15,53,33,-37,68,12,-52,5,60,-49,-6,-63,-48,36,31,-27,101,-7,5,4,65,-28,40,-31,-54,39,26,-15,103,-16,56,-18,35,15,-41,23,-15,8,10,26,90,-21,95,-16,43,45,-53,38,-6,18,-25,75,23,70,68,105,-1,-49,28,2,45,-33,-3,28,36,40,127,60,86,8,-46,-26,38,-14,-20,-36,6,21,100,28,54,-1,-64,-4,-6,-32,-50,16,41,44,87,68,41,-32,-75,-4,-5,-97,-32,-11,62,75,30,26,72,-10,-81,6,10,-76,35,-67,57,15,48,58,24,14,-60,12,-53,-26,94,-13,77,44,-47,119,38,22,-54,78,-23,12,-6,54,36,21,73,-39,75,-10,92,3,-4,21,9,32,32,34,45,-29,11,-19,84,21,28,4,-3,5,8,1,-26,-52,-26,-42,44,-3,-8,9,-2,16,1,30,56,-9,6,-28,101,-11,-12,11,-8,31,-6,-5,51,8,-32,-15,121,-22,-18,-5,-2,29,-8,5,65,-8,-49,-35,127,-26,-51,41,-17,30,16,6,41,25,-89,-6,106,-45,39,-6,-53,9,32,-18,69,-2,-61,-10,23,-26,10,-28,-23,-10,29,-2,83,-47,-44,32,7,-3,13,-28,-12,-36,27,-9,92,35,13,19,-20,12,32,-20,30,-27,36,25,0,19,72,45,-71,-7,25,13,37,-1,20,16,-123,31,19,37,-37,-4,-39,43,-12,83,-7,44,-124,41,2,-6,-33,8,-77,67,-9,65,-34,84,-127,33,-4,-49,-35,5,39,47,-21,70,-42,46,-12,39,51,27,107,6,-74,-6,-8,38,-42,-4,-24,9,127,37,-15,-43,-48,-24,4,4,-16,58,67,-55,39,38,-20,-12,38,-122,35,-27,3,15,121,43,-70,-16,-51,-41,83,-21,-20,19,-25,-45,-10,3,-14,10,-20,8,60,38,-10,31,8,-13,-59,-54,0,51,-17,-36,-21,60,29,-19,8,16,5,76,-37,-6,90,36,37,17,35,-14,40,-2,-35,5,7,13,127,-28,39,-5,8,15,15,-11,-30,9,-7,-20,86,-2,26,15,-30,47,-18,-1,3,-2,8,4,62,11,27,1,-42,37,-24,-5,-62,-11,57,-21,-2,-7,26,17,-18,64,-9,-39,-14,4,15,-26,-6,2,-30,15,-27,97,-33,-30,-2,-57,-27,-57,17,31,-69,56,-9,96,34,2,64,-83,-16,-8,-28,55,73,-51,45,7,-26,-24,43,101,6,28,68,-67,5,12,-42,45,-36,18,0,83,127,36,21,-9,-68,-14,-21,3,-15,24,35,29,71,-24,19,-38,-38,11,-23,-9,-34,-25,57,-23,73,-27,28,-22,70,-44,4,14,11,24,-34,-15,-50,14,5,-22,69,20,8,-31,29,44,-29,-20,-21,-24,-1,-54,-38,72,-13,21,-33,-13,8,0,15,-53,9,9,-7,9,-58,83,-60,2,18,-43,79,-75,-19,-41,1,-14,-50,93,-39,38,-14,-46,29,-57,9,-27,24,8,6,83,-42,9,-43,-6,12,-41,14,-13,31,21,24,39,8,9,-50,-32,-52,13,37,-22,26,30,56,27,18,13,-75,-16,-40,-2,-14,-14,-2,27,76,20,-12,16,-11,2,-39,-43,-49,6,-1,-34,52,15,9,-2,127,-1,77,31,-2,-5,-26,-19,-34,9,65,22,-35,-90,20,-62,55,-39,28,-6,15,-50,57,9,78,-2,29,-31,46,-44,74,-11,-18,-43,10,33,33,-39,-11,-42,12,-71,49,22,-15,-9,-1,-15,-32,-15,59,18,-12,-21,-14,10,22,-20,75,37,-43,51,127,10,-3,11,-19,-6,35,1,20,10,16,8,100,29,24,-30,-15,-3,-12,-26,38,10,51,-8,26,15,-21,9,43,18,-12,78,26,-25,-35,-7,43,-69,-41,7,41,-29,5,58,-11,-7,-81,-127,65,-41,-47,-6,34,-2,-5,36,-5,25,-98,-111,5,-12,-19,-20,31,-34,20,34,10,11,-49,-59,-32,50,-34,29,-28,17,53,-14,-6,-5,-33,50,14,41,-28,1,-80,102,48,22,69,35,-70,29,24,-105,26,-14,-67,58,98,-27,69,35,-72,-35,-37,-35,13,0,-15,100,38,-2,21,23,-127,32,30,22,35,56,-12,116,-28,-4,25,35,-71,62,43,0,25,66,0,94,21,32,19,24,-16,46,-14,36,29,28,-2,-3,-15,15,9,24,43,-17,56,-1,-5,44,16,9,-30,30,44,58,16,-6,-25,4,35,54,-42,-10,-5,-15,-11,18,-2,-38,-4,34,13,-5,-13,-36,-22,12,40,34,-57,-48,5,20,35,-25,-27,34,-5,-1,34,35,-12,-49,120,6,-30,-23,6,9,6,-12,16,33,-31,-78,127,35,37,-24,-4,11,-16,6,45,13,-40,-44,17,-22,-57,-61,-8,-13,-4,25,18,14,-77,-75,54,-56,-7,-19,11,-34,17,12,33,24,12,-32,58,-57,56,-13,14,-21,-2,27,-8,1,41,-42,90,-18,90,34,-17,1,-12,4,4,-1,57,-46,0,-68,93,-1,-23,-16,-13,33,47,56,-46,-12,-5,5,22,9,5,14,-19,28,5,10,-5,0,62,23,8,-4,6,14,-17,0,18,57,-8,12,-9,59,-6,-21,36,27,-23,7,28,24,-31,68,33,22,12,-8,10,-13,-5,4,59,3,-64,113,-2,-3,-19,-13,38,7,-44,5,-9,0,-62,127,-31,-6,-21,7,19,24,-10,-30,-20,0,-29,94,-22,11,-119,-6,-62,-12,-30,46,44,51,-65,-76,-13,-50,29,61,46,-27,-37,38,19,-1,-49,-89,-87,-2,31,46,-20,42,-27,9,51,-39,0,-15,-8,-45,12,-36,-17,38,-20,3,22,-13,16,8,74,24,-73,21,-14,16,19,-45,64,-10,127,20,92,-3,-32,-43,20,-34,53,-70,42,-45,125,1,80,-83,-44,-24,48,-6,26,-84,79,-18,49,-80,13,-40,-83,-9,-31,6,8,-21,32,29,-81,19,-19,-32,64,24,0,-19,18,-5,-2,20,-92,-18,-84,-48,18,3,-22,-28,-17,14,14,22,-91,36,-26,-40,-1,38,14,10,-32,43,0,24,-52,73,-31,-35,42,10,-6,16,0,69,60,33,-39,-105,18,-16,28,6,-42,59,-19,75,59,-5,30,-127,29,11,39,11,-67,60,15,9,48,-31,13,-78,-22,-12,-5,24,-45,-21,2,-34,60,58,-40,-92,60,-70,-56,-57,-24,-5,18,27,35,57,58,-87,42,-87,54,-48,45,-36,4,-14,-23,40,8,-47,39,-48,21,-57,74,-11,-13,43,-56,-7,29,-22,34,-54,-10,-41,34,1,13,36,-34,-11,25,-60,52,6,34,-34,1,15,44,42,-2,-28,-34,12,66,3,90,42,-67,127,8,21,18,-14,38,13,5,-11,30,32,-41,8,-15,12,-1,42,-84,2,-39,-71,-57,-35,-98,3,11,49,14,10,-100,4,-36,-42,-14,-33,-29,39,-8,-1,33,21,-55,7,48,42,48,-13,-64,22,-26,13,66,22,-50,-61,32,106,45,-14,-34,57,-4,33,75,64,7,-7,24,127,-2,-30,-40,-2,6,10,50,26,-14,17,48,8,-23,31,-1,22,-37,25,12,20,-35,-84,29,-98,-36,9,-37,0,-19,50,-26,-8,72,-37,-95,25,-76,-59,-20,-29,2,30,50,17,72,-80,-102,48,14,-5,-21,-60,0,51,47,-20,35,-111,-99,-31,-17,17,-17,-89,71,52,1,11,34,-89,-57,3,-85,-60,26,15,21,2,34,-7,104,-57,-39,-52,-60,-52,20,-31,9,9,82,45,119,16,61,-63,-19,-22,24,13,42,-41,52,69,85,127,-18,-102,5,-39,-59,-54,45,-11,63,81,-11,95,-68,15,-45,41,-19,-11,8,-27,-1,-14,-39,57,-61,-39,104,-53,-1,8,-26,34,2,54,41,86,44,63,36,-105,59,97,25,0,-20,-24,21,65,3,75,111,-18,58,98,-34,-21,79,16,-9,46,85,19,127,-19,82,67,-62,-37,24,-24,87,22,53,16,88,-52,55,27,-18,-4,41,-28,-64,-66,-12,116,127,-79,3,23,17,56,63,52,72,36,58,-2,10,3,6,13,39,29,24,35,42,25,31,23,17,4,-2,2,-7,8,13,-5,-5,32,11,1,3,6,35,8,-31,41,21,-21,-32,48,7,5,-1,-15,40,44,-22,-10,26,-37,-16,51,-27,19,-34,-19,14,27,-45,-15,55,-30,-47,86,-3,0,-19,-32,35,7,-28,17,51,-38,-16,127,-26,5,-21,-46,15,30,21,19,32,20,127,-23,-43,45,50,52,-29,29,11,7,16,1,-55,-14,12,35,47,51,-3,10,-2,-14,1,7,-1,-13,87,29,63,77,2,23,34,3,13,20,42,33,88,54,56,54,-14,-11,10,-13,19,1,-5,42,37,19,-12,62,-19,-37,1,-12,-6,-4,-30,32,95,50,98,42,-29,-9,-11,-14,-7,-9,29,19,57,15,20,5,-44,12,-7,49,28,60,-21,127,-117,17,-47,16,-30,9,11,47,10,10,28,119,-110,24,11,38,23,12,34,-5,16,23,44,9,-48,58,-26,-21,4,-1,15,-20,-4,-15,-1,10,56,-23,51,15,-18,-16,3,-35,-59,-32,29,-54,-1,-7,-40,-12,-16,-23,22,-69,-59,-76,-38,-26,11,-91,-10,3,-19,-48,2,-57,-41,-67,-25,-88,86,-67,26,-32,-60,-59,-5,53,19,9,13,-49,-13,-25,-51,73,-12,-13,-55,22,45,26,-2,-39,90,-20,-27,52,37,-9,-8,-44,19,-44,-13,-56,-17,-16,45,37,46,87,-11,2,2,-13,-88,-2,125,25,41,-33,30,17,-37,-17,-44,-4,-93,-1,30,21,78,-67,83,56,5,-9,13,45,-11,68,-61,1,23,-20,62,39,85,-13,12,61,11,75,-127,55,78,-46,16,-1,-20,70,-22,29,-97,43,-41,39,7,12,-49,-36,-4,16,11,-1,-7,85,-72,40,32,23,-45,30,21,-10,-16,39,-35,3,-74,61,30,85,-49,-16,16,-4,-15,56,-16,78,-127,18,31,-8,-45,-8,31,-18,64,-10,-72,46,-99,-9,50,-31,34,33,42,50,-23,17,-62,-12,0,82,85,-14,-4,-8,0,-13,27,27,65,89,-40,6,87,17,-101,48,48,43,23,23,18,127,88,-15,111,67,3,-30,43,11,24,10,-17,44,1,-15,23,81,-15,16,-20,-25,-6,38,-42,-39,-42,-22,13,62,-41,28,-37,-34,1,-29,58,-28,-35,-7,1,3,-9,-7,-11,7,17,7,26,-30,20,32,1,-20,55,-28,-80,-6,-3,-13,-84,-30,66,59,-69,7,16,7,-58,-16,-13,-38,-126,-100,46,54,-82,7,13,-38,-15,9,4,14,-35,-30,-66,-65,44,95,45,-38,-36,35,18,-1,19,-40,-10,-8,-17,75,72,-56,-12,27,-27,-22,5,-59,70,13,0,54,-9,39,-14,12,-53,41,-29,-56,77,-41,38,38,-106,87,29,68,-33,72,4,-50,49,-36,24,-42,-127,45,69,78,-18,49,47,-44,35,-47,-32,-63,-8,-63,27,65,-6,7,-57,17,13,10,-1,-38,-47,71,-12,-40,17,19,-84,-62,-54,42,62,-25,-67,37,-31,-6,-42,47,1,-7,-120,23,116,-11,-20,-6,-30,-1,-37,64,13,57,-127,-85,9,-75,8,-32,54,31,-53,46,-28,27,-115,39,96,-67,28,-40,4,42,-43,48,17,53,-66,37,52,-45,-42,-40,4,49,-58,65,-47,-104,-3,0,-69,-68,10,-6,69,79,14,-21,10,-22,9,49,-123,-40,43,33,82,-23,93,24,25,115,36,-31,-54,3,-1,49,22,-29,83,0,-25,7,42,35,-13,-9,-14,27,52,-6,8,20,32,-3,22,63,-2,45,-23,96,40,-27,-24,0,32,3,-62,-23,-51,81,8,-10,3,-51,-36,15,15,4,-32,48,-51,38,10,-42,-9,8,-23,-4,7,30,-48,50,27,71,-16,11,-60,18,-20,5,24,127,-81,53,60,26,-6,6,-21,64,2,52,20,55,-48,-11,79,12,-63,-15,-6,28,22,57,9,80,-32,11,46,31,-26,-72,29,-14,-28,19,14,26,-37,-17,34,-28,32,-14,35,-59,-1,-49,72,-95,-24,38,-26,-52,47,10,64,-50,31,-63,112,-127,-2,0,-34,-36,47,58,59,-4,15,-37,20,-101,-18,-1,-64,-17,6,119,50,59,14,39,23,-26,-28,27,-44,-5,-18,-1,26,49,28,27,-57,7,13,8,44,-20,4,26,3,41,-7,34,72,-4,29,23,30,-7,-4,0,22,12,-10,-1,-7,-26,20,31,16,41,-15,16,6,29,47,30,-40,34,38,-22,18,50,-56,23,50,26,0,14,-11,20,25,20,-7,37,-44,12,-14,46,-10,42,-127,24,86,0,54,20,-55,-1,-14,-9,1,40,-88,-13,16,-6,63,27,-7,-27,105,24,73,27,20,-52,-31,-5,-106,-14,30,-4,74,47,85,42,21,-77,-113,-6,-87,-15,15,18,51,9,93,44,54,-63,-41,35,-10,-17,-4,21,39,21,104,14,82,-26,117,13,-15,4,-53,75,-11,-1,61,24,59,61,127,-16,-11,-37,-44,83,23,-9,39,27,79,17,79,-39,7,-53,-87,-20,3,7,-2,28,91,-83,-51,-52,-26,-55,-2,-14,26,31,5,25,-16,12,67,20,-8,-12,6,2,31,6,19,19,-25,17,127,17,5,-10,-1,0,18,23,6,25,-24,38,49,23,6,38,19,-2,16,4,-2,5,-2,12,75,35,30,30,11,1,-8,-1,4,14,4,-8,13,23,66,37,-8,3,-10,3,20,18,43,-26,13,-10,82,55,-50,57,-26,8,17,12,9,-9,-39,-5,56,9,-32,40,-26,-19,20,39,-45,127,-8,5,105,-14,-59,-64,87,56,80,82,-42,95,-23,33,119,82,-51,5,18,46,47,-4,-33,67,111,33,38,7,3,75,-8,11,85,109,-10,21,30,55,-11,93,-58,7,67,-7,3,21,26,27,13,-5,79,34,-56,-9,-19,58,57,-19,-70,27,49,9,-1,51,6,111,15,-8,41,25,-55,85,23,-50,-9,-20,-9,4,13,-59,19,-46,-36,-34,-52,-39,-6,-1,-45,1,7,-8,-21,-55,-50,-4,-55,-7,-13,33,-26,-6,-8,-31,38,-30,-4,9,-6,-28,85,16,-18,-42,-12,-15,46,-9,-23,-29,-4,-18,24,27,11,-23,30,18,30,46,-20,78,70,1,32,38,20,34,-8,82,-42,45,-127,-18,-75,32,50,31,14,-17,24,63,-62,60,-114,-34,-124,31,76,57,26,9,36,14,24,2,12,0,54,6,30,7,16,36,4,-25,26,30,-31,33,10,-6,25,46,38,-14,-42,20,15,-2,-11,-25,-20,-13,127,39,15,34,-10,-8,-28,16,62,54,58,20,93,-28,36,34,-63,40,-34,-28,13,18,25,3,60,40,-3,-32,-6,29,-8,22,-6,29,82,37,17,17,-30,5,-37,-3,-44,-10,11,-1,123,-14,-22,62,39,-39,-49,-65,4,20,-57,76,127,61,41,-41,-20,-21,-47,-11,-22,17,-13,27,69,8,34,-83,-1,-8,-16,-11,-14,22,3,11,70,21,37,-55,-36,-13,-19,12,-26,-14,39,-25,53,-20,-53,-13,7,-42,13,3,-10,-29,22,16,23,-27,-39,23,-54,7,18,4,25,-22,22,-44,-75,27,-74,-9,-45,85,47,-18,26,3,1,-13,-84,-9,-49,33,-38,26,94,36,33,18,31,33,-47,19,-58,-18,-31,6,87,36,30,-1,-5,43,-36,20,-21,9,22,7,38,31,30,-4,23,57,-11,-15,-14,8,9,33,-30,26,-3,7,7,-9,42,-33,8,8,20,21,-38,4,-30,-15,-4,-64,88,-48,7,4,54,17,-57,11,-36,-34,0,-54,110,-30,17,20,46,-32,-67,19,-67,-8,-96,-92,127,-62,10,73,21,32,63,-2,16,34,10,18,-12,-7,6,-34,8,18,24,-8,25,43,-38,-14,9,-3,34,-11,44,5,-32,48,43,6,15,-10,-34,-15,97,28,-44,26,-40,88,62,-19,61,-7,-8,-62,106,9,-113,12,-16,39,100,-12,127,3,1,-32,82,12,-95,-25,41,-24,38,3,12,83,40,-43,4,8,18,-61,37,-72,-12,-24,-17,54,14,-5,9,28,-8,-39,57,-2,48,-3,34,-39,59,-10,-75,8,-25,-6,22,18,74,4,-12,35,47,-17,-67,-44,-38,-3,46,57,30,42,-20,88,-11,-12,27,-69,-80,35,-9,48,-33,41,-26,65,6,18,67,-59,-46,36,24,34,-32,19,-77,36,46,78,18,-92,-7,32,-14,35,-51,19,-21,-45,51,93,60,-38,33,25,-11,15,-36,33,127,-12,124,88,41,-39,20,34,-11,21,-13,-30,20,-24,-49,127,-41,25,14,24,-6,-1,-8,6,9,-44,-1,110,-34,4,-2,21,9,12,2,-21,-38,-50,2,71,-28,46,4,9,-12,6,2,6,-26,-37,-3,32,7,0,11,-30,21,-10,-11,-4,-72,-27,14,-23,30,-19,-2,-30,35,-4,-4,28,-18,23,18,-8,40,-9,-22,-10,42,-4,-3,56,17,62,-32,-35,63,-12,31,58,12,25,89,21,-85,59,71,-5,-12,-56,49,95,6,-29,32,14,-8,18,-57,62,95,13,16,25,31,21,24,47,47,44,-32,20,-2,-41,52,-58,-17,47,18,4,32,30,-52,41,65,-13,38,-50,-86,8,0,-45,19,110,-7,92,-13,-18,-62,-38,-7,-8,-20,3,55,62,119,14,-27,-71,-31,85,35,-62,48,0,116,-11,127,-7,-24,-31,-33,-19,-48,1,0,53,88,-9,42,4,-26,-8,19,-72,-31,-16,-54,54,127,-13,-33,9,4,-15,-1,-32,-39,-18,9,0,57,48,28,-31,-47,17,10,10,-16,65,-3,-5,53,-17,38,35,-49,6,-45,59,-28,97,55,31,-55,10,25,-23,-36,-6,-31,30,-31,30,50,20,56,-4,-64,-84,60,-41,-5,-23,-42,29,8,25,17,-31,-19,-120,98,46,-41,-35,-17,57,7,20,-99,-120,-25,48,100,1,-54,-29,3,-10,-15,23,-93,-82,45,49,107,-80,-47,-30,2,20,-36,40,-1,-35,80,-14,-6,-57,25,-46,33,-9,-18,42,-14,-69,87,-10,-73,-14,0,30,20,-18,43,18,-75,-18,127,-31,-34,0,-5,57,-11,-6,32,-12,-70,-2,8,-51,-18,-1,-19,97,-36,18,46,-24,-81,4,-29,-35,-17,40,68,-14,-7,-10,59,-8,-41,81,-16,11,-25,-37,-14,-2,14,25,34,-3,-70,-1,-20,-31,-90,3,-37,-19,24,-10,59,38,35,-44,59,-57,-127,80,-37,-3,-61,-8,24,-11,106,33,-75,44,-1,82,-68,2,-3,11,19,-11,52,1,-33,57,8,121,-84,-6,-9,-17,34,19,-30,-67,-84,-30,0,74,-12,-108,-12,44,-15,-45,45,1,-25,-45,-52,20,8,-104,-15,42,40,8,-3,12,25,12,14,-36,50,-72,-2,76,5,-23,-34,62,7,-65,-45,-2,-11,28,-21,-26,25,28,-58,31,13,27,-39,-2,-86,90,22,-12,31,37,81,-23,-22,69,2,54,-54,49,-6,-1,3,65,46,10,118,70,-78,-21,47,45,-55,-49,-3,-16,125,87,127,36,-61,-64,52,29,-53,-76,17,4,59,-9,-8,-28,-56,-38,-77,21,42,14,8,15,44,32,10,-47,16,-77,-127,28,19,-41,66,2,-15,56,-5,-88,-23,-38,-72,33,13,-54,54,-7,-47,52,-22,-42,-36,-20,-4,27,13,-35,41,13,-61,-23,-18,-32,-21,23,50,22,28,9,56,13,-24,-51,-27,-20,4,23,-10,5,43,4,31,42,-13,-49,-19,-34,-1,57,-21,-79,-7,19,17,54,27,-24,-38,-4,-28,71,-92,24,-23,-13,33,5,55,-76,65,0,58,7,-25,-33,-44,-5,11,34,32,-24,67,-24,37,31,42,-8,-40,16,-17,9,19,-23,16,6,58,30,77,12,-32,13,3,6,68,-22,-14,-7,23,30,64,13,7,27,21,-12,44,-18,-12,-16,8,-27,-28,14,37,9,41,-21,6,-32,31,4,-58,1,-127,-7,19,4,79,-16,-6,-22,0,-34,8,4,-72,23,79,-12,-61,71,-37,40,36,-62,15,40,-13,39,61,34,-76,44,39,-92,-81,-88,42,40,-21,67,17,50,-50,1,49,-116,-71,-18,51,38,-52,43,33,20,3,-46,97,-79,28,112,63,63,62,-57,20,-29,24,-76,27,-16,77,63,127,5,75,-80,69,-44,38,-29,-19,92,31,66,77,-4,41,-20,37,-63,73,-78,51,100,-22,97,14,-30,-124,125,95,77,3,-41,83,48,1,-40,-20,61,-29,100,78,-12,25,-5,57,49,14,-70,-43,6,-110,-52,71,38,45,87,35,17,-10,-62,-52,74,0,11,77,-17,-44,67,-47,56,-4,26,47,13,-27,-58,69,13,-17,-18,88,23,-8,29,16,9,-29,43,30,11,66,-15,52,-5,8,127,99,23,-28,-25,9,23,19,62,-47,-4,-7,76,17,103,-3,60,22,-89,-59,11,62,-127,-54,-9,14,-48,64,-45,-22,-54,2,11,8,54,-96,1,66,-38,18,-2,17,-48,-54,43,-13,-9,5,83,3,-78,27,-9,-26,-17,41,2,-14,103,-38,97,23,-60,21,41,-32,61,-24,-31,10,57,36,-43,51,70,67,-5,-9,19,68,69,-47,16,-28,-16,-2,-9,-50,113,-2,58,72,30,51,59,3,104,37,61,-1,18,39,45,7,30,-29,60,49,5,-108,124,-34,13,1,56,-8,25,-28,40,80,9,-100,127,-19,-1,11,54,-1,10,-15,28,125,23,-81,108,-7,4,32,79,18,2,5,24,89,-2,-88,42,-13,7,4,48,37,19,8,38,80,-20,-52,71,-18,8,0,27,23,13,16,59,49,12,-16,55,-35,18,-23,45,27,9,67,88,53,-24,-8,40,21,-33,53,34,9,52,-14,-11,10,57,-26,-20,-6,-20,57,25,5,25,-31,-22,-1,40,15,-7,-4,-23,36,26,25,24,-44,-8,-6,46,25,1,5,-23,25,24,12,14,-27,7,-64,-17,-5,-18,-13,15,10,35,1,-7,25,-23,23,8,0,-20,-29,45,-18,-2,-12,5,77,14,54,-61,-17,9,-27,70,-37,-34,-28,-2,127,28,106,-27,-3,11,34,-84,-55,34,45,-35,97,3,32,49,-41,-34,70,-30,-8,28,-25,-27,70,93,-7,-81,-36,-5,-48,-15,-24,-34,-25,65,65,-44,50,-22,-77,-46,-50,26,41,10,54,63,-60,-72,-6,23,-17,-32,40,27,-19,-8,-31,-44,-18,-8,-14,12,-66,-7,34,-30,34,-17,-31,52,-114,-61,57,33,6,-93,-4,65,20,22,20,-15,-27,16,127,1,43,-40,-6,-35,-9,-2,63,-17,22,107,6,18,53,80,0,-5,-27,35,37,40,9,50,-22,11,-4,35,46,-9,20,22,59,22,-52,12,18,-31,37,85,36,-9,46,24,79,36,-24,-22,-20,11,6,60,16,14,57,45,42,38,-27,2,55,47,61,127,0,-9,15,15,65,32,32,54,65,33,18,75,49,-15,59,37,41,14,91,-20,65,37,36,95,-41,-1,25,-33,19,25,16,-9,64,-39,-9,6,16,-3,-3,-30,6,4,-91,-51,82,-6,21,-24,27,13,27,-15,3,1,-59,-65,4,-31,-22,-9,19,16,-17,-9,-23,18,10,-56,15,-20,0,1,-21,22,31,-13,19,-18,-29,13,-60,1,-14,-30,-32,-20,6,12,15,-11,5,22,-14,9,-49,-51,24,7,27,22,67,16,-41,1,-54,127,-28,-46,-24,57,-53,-40,-59,-9,15,-112,47,-99,64,-34,15,22,-50,21,-24,-3,66,6,-41,-96,37,16,43,56,-4,42,20,40,-69,21,-49,-69,58,65,40,7,48,34,-5,11,-23,13,-8,-58,5,23,45,-1,23,47,29,64,-43,3,-12,-36,-2,26,37,-22,75,31,24,36,37,73,-59,-47,46,55,19,-2,55,22,11,83,-12,74,36,17,57,127,36,6,14,32,-12,-65,-70,-42,127,54,-26,-17,22,10,-6,24,-17,2,-105,-30,38,33,-45,6,-2,25,9,52,-22,5,0,5,28,-57,-6,-72,-12,19,-12,34,14,-28,-65,-12,41,-38,30,-22,13,26,7,37,-13,-40,19,-41,32,-53,20,-12,3,-4,14,36,-18,-6,79,-32,57,-44,44,-7,18,-14,17,59,-6,40,80,-27,44,-89,-5,52,-5,-12,-2,1,-7,19,54,6,-1,56,29,1,-8,-17,17,3,17,18,46,37,-19,42,27,3,0,5,20,11,13,7,10,16,-70,1,30,3,3,-7,5,-1,1,13,20,65,107,12,13,32,12,-5,10,22,4,13,24,52,127,53,1,3,19,12,10,15,-1,-7,-18,26,28,3,27,14,21,-6,-18,26,3,15,-53,-39,58,12,11,34,13,-1,8,62,35,23,-89,4,-114,18,80,61,-15,-36,-3,45,60,45,5,78,48,40,100,72,-2,-33,-4,55,-2,12,-29,70,37,19,51,25,-29,-21,16,-3,-12,7,-24,-14,-118,-19,32,19,-38,46,-17,-31,-13,28,-8,35,-28,-25,37,18,17,98,-9,-28,-19,-10,58,57,108,-40,56,-12,66,97,41,-44,-17,29,-73,-48,127,-13,54,-7,-87,-44,-9,36,35,0,64,-16,65,3,112,3,-61,-32,-7,22,42,3,61,25,11,37,68,40,1,-34,6,-26,-11,-16,39,7,2,-1,-12,17,60,-30,-3,-6,-1,-13,-59,-10,-11,-17,-52,-6,23,5,-30,34,-9,-32,-56,-5,0,-38,-34,5,15,96,-25,23,-3,6,-23,-53,-30,-38,-38,16,12,127,-12,20,-9,6,-5,-24,-57,-25,-84,38,-41,-12,32,-14,49,-29,-66,25,-14,-8,-54,-31,-34,-11,29,-14,54,-8,-77,34,22,4,-33,-33,-7,-8,26,16,36,-11,-67,29,33,25,-38,-13,4,-22,7,2,48,-18,-24,19,39,10,-27,12,-21,-6,21,2,53,-26,5,20,69,22,8,44,-10,8,-5,27,55,6,108,7,-3,-14,-6,23,34,-12,-4,6,26,18,127,14,56,-40,39,32,15,-81,72,61,-1,21,-96,-21,-34,-14,-14,66,60,-39,107,46,-10,35,-42,-37,34,-15,-70,61,18,-1,101,60,-23,16,4,-28,27,-2,-13,44,-103,19,127,69,34,36,38,6,84,-32,9,13,-69,1,109,49,17,6,-17,-77,38,-65,20,-10,0,-15,67,77,28,7,-95,-121,-74,-93,-48,-59,16,-8,47,90,54,-14,-118,-104,-89,-44,-69,-63,-48,15,28,1,-1,19,-54,-9,32,39,76,89,-55,36,-20,30,-9,43,-12,88,-16,14,59,80,-127,87,-23,76,10,33,-41,49,-2,37,90,90,-99,46,2,51,30,46,-44,37,-12,78,83,27,-28,27,-15,44,12,42,9,66,-24,65,90,25,2,15,22,-29,15,-2,53,91,-45,40,6,-2,23,31,46,-27,-3,-17,22,8,-54,-1,-37,-13,-83,29,64,91,45,55,-87,11,-8,-48,48,93,-52,-18,64,49,32,-8,9,-40,-50,4,18,-30,-41,-7,38,60,8,-3,15,44,-105,40,-16,77,-127,52,-5,19,-35,-18,-37,-33,-97,12,6,-10,-47,19,-36,37,-54,17,-30,-65,-43,20,-53,-11,13,-4,-58,-17,-80,-32,-48,6,-42,5,-23,58,77,-39,-47,-34,-69,32,-84,4,-6,-64,-79,-42,-48,59,40,-6,-11,71,25,-61,-30,-2,-26,53,-14,-2,21,-18,-2,63,-76,18,-37,-18,-34,42,-31,36,48,10,14,33,-11,33,-29,-60,36,27,8,54,87,66,-20,14,-79,6,-45,-20,-32,16,-70,52,78,16,18,79,-61,96,61,-2,8,-26,-49,17,83,14,57,15,-67,72,-30,6,-10,66,-35,37,102,-10,-16,5,1,127,48,-40,78,11,-17,-54,-30,97,104,65,-72,-12,-117,-67,-32,-56,0,2,2,58,82,40,-48,-27,-60,-38,-61,19,-15,46,-30,67,50,68,39,28,34,-23,-24,-1,7,42,-37,-1,35,28,38,-22,-26,-3,74,7,46,29,-5,-53,25,33,23,16,-22,-11,6,-4,11,67,-22,-48,5,-17,127,27,62,32,54,36,-48,67,-84,-113,-21,-10,88,118,47,38,46,-24,-57,-20,-45,18,-10,-15,-45,-74,126,-36,-26,-72,-8,-13,-14,-5,9,-20,-23,-57,65,-33,-37,-60,-2,-8,-24,-10,3,-39,100,-7,55,-26,-9,-38,-23,-2,-17,13,30,-17,123,-36,67,-15,-36,22,-34,-24,30,34,2,-19,60,26,102,59,-25,51,2,-23,45,74,19,22,-6,62,127,81,20,120,-26,3,77,68,7,45,-8,111,60,99,116,71,-75,-12,10,-28,18,21,-12,1,-95,20,-27,3,17,28,37,20,-43,47,10,-49,68,-9,-61,-59,2,34,45,-5,49,57,-6,-29,24,1,-42,-19,43,17,4,26,24,68,66,-26,-11,-54,-88,-58,57,-54,-17,-38,10,13,26,-53,26,-53,-83,21,23,23,24,-44,24,68,120,-88,-35,3,4,-7,34,-14,127,-26,14,41,46,-45,-3,-46,5,24,-17,-33,34,28,-31,34,-27,62,19,-6,88,8,-51,-5,30,-10,-13,57,1,4,34,-34,57,-23,-56,17,22,-29,-13,34,3,-1,35,-69,41,-27,-20,41,0,-14,-9,2,15,-5,-25,-18,50,-1,-12,20,3,-21,18,31,-16,8,-89,-11,50,10,8,18,-7,27,-7,19,-46,-19,-127,16,20,11,25,-13,-17,53,-32,-3,-22,-11,-103,56,54,60,70,-63,2,-42,10,3,42,63,-14,-65,-27,-20,56,62,28,6,-9,26,1,42,75,47,-26,-17,-26,55,-32,49,5,89,-33,9,32,127,13,2,-109,7,-34,63,23,56,24,50,-7,80,42,-15,-45,-15,6,44,36,-29,0,10,-9,3,35,-41,42,-38,16,-32,10,-43,86,-75,-33,-27,-2,-56,99,26,55,-31,40,-27,55,1,-4,-86,-59,-27,1,53,41,-55,44,6,126,64,-22,-70,117,24,25,-8,24,36,-31,-1,78,-66,2,-57,55,-53,12,-72,8,91,-40,-65,-37,-58,-103,57,-1,-4,-9,-61,-1,126,47,-53,-127,13,0,55,9,-70,18,10,-28,41,56,-84,-16,-1,22,86,14,-72,-15,-20,-35,77,51,-16,-84,-1,-36,-35,-22,-31,5,45,26,59,32,18,-60,65,-61,57,10,15,14,-2,52,52,87,70,31,127,28,105,58,4,-10,-21,-9,38,82,88,65,118,54,46,30,8,6,-21,33,-22,64,65,21,25,-16,30,-69,-20,27,-47,10,-61,33,5,23,11,2,13,-87,-20,38,-64,10,-55,50,9,9,4,-67,28,-81,-11,-5,-26,7,-25,47,5,-21,9,-43,36,-65,-30,-38,6,21,-49,42,6,24,83,-37,23,-82,-58,-39,47,-2,12,52,22,-32,127,93,-67,20,47,-10,30,-11,10,12,-21,6,70,117,-16,46,6,0,-5,34,41,22,-33,23,23,32,-5,34,-1,63,-45,30,-3,13,-25,26,-47,-61,12,-46,6,60,-52,38,-4,68,-23,5,-43,-72,17,-78,21,32,-32,87,38,45,12,-25,-106,-29,27,-57,-6,0,-21,31,24,11,47,49,-32,-38,28,-18,-10,0,88,81,14,21,51,-11,31,-12,-13,105,39,35,103,65,5,4,25,-95,68,-13,-41,73,30,10,91,65,-40,-2,17,-72,62,-53,9,77,10,-8,64,46,-7,-31,-1,4,1,-23,14,13,-11,16,-27,72,-59,-25,-2,122,-37,-57,32,-6,-42,-10,-8,33,-18,-25,-27,127,-42,-30,43,66,-69,10,24,40,-48,0,-6,115,35,-17,36,18,12,6,52,58,-54,-57,34,47,-37,-21,27,26,-19,-7,8,31,39,-8,33,13,24,-43,-45,127,-13,-33,-45,26,59,-6,20,3,109,-59,-49,15,-35,-11,-53,16,37,13,21,-22,72,-58,-4,-16,20,3,-42,-19,48,43,-7,16,45,-105,39,46,18,2,-20,-2,-18,19,-24,-8,-5,-61,68,30,34,-8,-26,5,-3,28,16,-34,-88,-37,86,-5,22,7,37,14,10,52,-6,8,20,12,43,2,-43,6,4,26,29,17,0,16,-13,16,46,2,-37,17,20,24,22,43,22,2,22,9,60,6,-43,24,34,11,44,15,21,20,-1,-40,-14,9,-29,10,30,-14,24,3,6,-1,-55,16,-16,70,-4,30,33,-18,21,-39,-6,24,-90,0,-7,79,29,20,16,-27,-1,-29,-18,0,-127,-22,-50,42,42,24,-45,-19,10,73,26,-18,8,91,-4,-9,-99,2,13,26,35,22,26,20,17,91,-20,-42,-127,24,-5,-28,-4,33,13,-7,-19,17,50,4,-68,0,-3,38,2,-33,7,-15,37,-27,35,-10,-50,34,6,-20,23,-35,-15,-1,-1,-29,-36,14,-39,16,23,-4,38,-57,-5,13,-78,17,-17,5,-2,-28,12,-23,31,-14,-46,25,-112,11,-87,16,82,26,58,36,61,77,51,20,47,16,4,37,68,-46,15,46,20,36,30,-23,42,4,26,31,37,-10,9,52,41,36,22,42,71,30,-2,79,43,-35,3,29,-1,-11,-5,33,30,-15,17,44,-3,-1,-18,20,-27,-6,-43,36,-21,2,27,47,-29,-21,-25,-20,-46,-25,-31,47,-59,7,-4,39,-88,21,-48,-41,-88,-10,-57,17,-127,58,-71,19,-89,-13,14,27,8,11,48,2,-59,52,10,23,-41,-8,-2,25,20,12,43,13,-47,58,-2,3,20,13,27,14,13,11,63,20,-30,107,-20,50,4,-16,17,-1,0,34,24,-3,-69,127,-25,17,19,-35,13,-23,26,19,12,32,-64,119,-37,36,9,-29,11,3,19,38,12,95,-60,64,16,24,37,-22,23,-5,-12,4,4,110,-35,7,12,29,21,7,2,-3,10,3,22,-21,31,-88,77,55,-25,-11,4,14,2,11,22,-22,28,-107,51,40,11,-11,8,-12,48,17,14,-94,17,-65,59,-6,-5,11,17,11,38,9,30,-29,54,-67,30,31,4,3,-1,1,19,11,20,-88,49,-49,67,81,6,-23,7,-2,27,-1,0,-46,74,-83,27,96,-6,-17,38,-1,34,-16,7,-36,70,-127,-22,55,-28,3,11,5,-4,-3,-38,-43,16,1,41,29,-33,24,23,-16,22,-3,6,-30,-23,12,47,61,7,-1,35,23,-5,7,-34,-3,-15,5,-4,68,45,-14,12,18,-28,-4,4,19,-21,-34,-23,16,-25,28,17,-4,6,-2,-1,10,-65,4,67,33,8,5,-13,-6,-3,-26,-10,9,44,-26,26,-7,-3,7,-7,-7,18,-19,-7,16,71,-88,127,11,2,49,53,68,5,13,61,22,-26,94,-13,71,53,-73,53,33,10,4,71,56,-121,80,17,26,67,-116,75,53,54,25,39,83,-110,101,127,47,79,-74,29,20,29,-24,26,123,-52,68,73,-5,-18,66,-19,16,-19,-4,-11,76,4,3,43,-42,-70,72,-10,5,-15,25,-35,40,-46,-3,24,-48,-78,43,7,-23,3,42,-35,-58,-39,15,111,5,-47,-18,-114,49,63,81,-26,71,-69,-50,79,-13,-17,-60,-73,27,43,21,32,35,-127,-82,43,-13,38,-35,-39,-2,44,18,21,16,-106,-36,36,-17,22,-26,-3,27,8,26,-4,6,-70,1,31,-51,12,-5,39,25,77,27,4,16,-59,-36,41,-16,66,-4,21,36,27,-12,46,23,-82,-18,86,5,24,27,60,43,6,14,29,-19,-18,-32,95,58,42,49,-20,54,-25,28,-21,-36,23,50,87,37,-23,40,19,53,4,25,-44,-24,27,-2,127,-13,31,41,40,55,33,34,-34,52,-38,31,51,-21,73,41,42,13,14,66,-37,10,-103,-21,-3,4,52,7,67,-4,29,40,-47,48,-101,11,2,40,37,3,58,-7,-9,39,-32,80,14,-39,12,7,38,6,13,46,-13,51,-12,84,78,-79,-35,24,69,0,-56,7,-11,-13,-6,80,-114,-91,-78,-83,-70,6,-2,21,-3,-5,63,1,-12,-41,-33,-83,-48,13,103,0,61,-14,126,-23,77,4,5,-60,6,-74,114,-3,78,-37,125,26,125,-98,4,-54,20,-31,-20,-18,28,-54,81,86,8,-74,55,-48,-19,-30,-5,29,-1,-13,15,106,-27,-56,104,-51,-57,15,-70,9,-16,39,-51,87,-42,-127,7,-55,-32,-2,27,-6,97,-2,-22,-127,-44,-88,-57,-47,22,-21,40,7,59,-19,26,-90,-4,-65,-70,-8,-5,-56,23,16,45,-23,-3,-30,-2,-63,-66,-13,3,-32,2,41,47,-24,11,-40,43,-15,-69,-6,52,-7,26,34,47,4,-7,-84,38,-37,-30,-13,68,-2,36,-9,87,-6,42,-96,-32,-57,5,32,-6,-9,-2,-31,81,15,7,-35,-38,-113,18,15,20,-17,-12,1,34,16,-27,9,-23,69,-21,0,-15,17,11,-16,27,-2,-26,8,-8,24,-11,-9,-29,6,16,-6,14,-14,-9,15,-17,-33,-1,-13,-6,-4,20,3,1,12,2,17,6,-6,-1,-11,35,5,36,-2,3,19,-10,44,-13,-17,-29,-2,32,-16,3,-2,-5,-3,20,32,-19,17,-35,-22,79,-12,17,-12,22,7,7,23,-16,53,-35,9,127,-127,-17,7,-16,42,-18,-49,-34,8,-43,-21,14,0,-7,-22,-11,23,-28,-34,8,-48,-10,-45,29,18,17,10,1,3,-2,-6,10,-20,11,-18,-36,3,27,-1,5,30,5,14,19,-29,5,-55,-5,62,13,-1,-9,-16,-2,-37,3,-15,45,14,13,69,21,10,5,5,-1,-47,-3,28,31,-22,-8,-101,6,2,20,-10,25,20,-14,110,-19,54,60,17,75,-8,20,43,13,1,-17,-9,52,45,-12,33,117,-6,15,0,-3,-41,63,16,59,50,-41,16,115,5,25,8,-12,-59,62,-29,31,78,-83,17,81,16,33,32,43,-14,32,-25,32,-27,-77,26,-7,15,46,18,33,-48,-7,-77,7,-32,-47,-1,-38,-8,42,37,14,-34,-99,-101,21,-70,-32,-30,-58,-9,37,59,-3,-72,-127,-38,-34,-32,-14,-91,-3,-17,69,62,-6,-127,51,-95,47,-53,35,-63,25,23,-12,51,37,28,27,-92,46,-69,-12,7,38,-24,-41,-4,-2,73,-67,-66,103,-41,-33,-29,-30,21,0,5,-19,-28,-69,-33,57,24,-80,-32,-35,14,4,8,27,11,-43,-50,39,92,18,7,-71,26,-14,-61,51,-97,-52,-51,75,126,122,46,-75,-27,77,-65,-8,-91,-32,-42,61,26,85,26,30,-1,52,35,45,-43,76,-11,49,-40,5,13,21,20,42,10,39,8,34,34,25,60,21,-26,16,-8,14,23,15,-6,30,50,20,28,3,-6,9,-26,-18,-13,3,13,-29,-56,-1,35,-3,-14,-19,-19,-22,11,-24,-1,-47,-46,-52,34,35,-2,-28,5,-35,-18,-41,-47,-105,3,-43,16,64,-13,-38,-32,-42,-11,-21,-72,-127,50,-44,64,84,-16,17,80,6,-27,45,17,20,1,13,47,56,-60,3,66,4,-32,19,51,19,47,-20,77,80,-41,12,18,4,-22,31,37,11,-10,0,42,49,-10,-35,-65,49,-36,3,57,-27,-53,-32,36,24,24,-43,-67,36,-27,9,-43,-22,-68,-3,11,-19,83,12,-81,0,25,-4,-75,-6,-53,19,-36,-69,41,39,-94,30,7,-19,-127,58,-1,58,-75,-46,-14,14,26,-1,25,29,1,106,6,29,6,6,-17,4,-2,-4,7,22,-7,56,0,35,11,13,-20,8,15,28,12,18,4,63,2,49,14,9,-12,25,28,14,31,2,20,83,7,42,28,-3,0,42,19,19,2,25,-6,49,-1,17,19,-6,-47,-20,6,-9,-2,-3,0,32,30,14,53,11,-22,-17,32,-17,6,17,9,127,21,-6,20,13,5,72,27,20,73,26,-17,-86,116,19,1,127,-36,90,11,-17,71,38,-61,-71,68,17,29,63,-20,60,30,-19,36,0,-81,-17,3,5,13,87,-9,60,69,-67,12,-5,18,-63,20,65,-31,27,19,14,88,-72,2,13,22,-50,22,68,-55,21,39,36,66,-52,-51,-32,-37,-59,10,1,-35,23,10,35,54,-72,-62,-10,40,-69,-81,127,-14,28,31,3,31,43,17,2,15,44,-127,-21,15,-22,15,17,30,38,0,-6,-59,77,-64,-30,-14,3,-16,44,24,6,19,7,-66,35,-86,16,23,-1,-36,15,2,34,22,-19,17,48,12,1,75,7,-21,12,-7,5,-4,-2,10,59,36,10,20,-6,-54,-8,6,35,29,9,-44,7,-12,29,41,10,-37,-83,-23,20,8,-3,-82,5,95,7,95,40,-19,23,42,10,26,-6,12,56,79,-20,-9,-10,-25,14,-12,-28,-19,0,-59,30,22,-33,23,8,-1,-9,-6,-20,-23,19,26,39,38,-11,15,20,-44,-14,-9,-2,-1,5,-15,11,25,-9,-58,45,2,-21,17,-33,-19,32,-37,-21,-20,30,-54,45,48,15,13,8,23,13,-17,-12,-27,40,-82,21,43,-1,7,38,7,-17,-32,-30,-46,127,-40,33,-74,9,108,-12,-10,17,127,-23,52,-14,-11,-49,-47,37,65,17,46,-8,71,-64,31,-34,27,62,-104,1,39,12,-25,22,75,-55,-28,-22,-26,39,-11,-21,81,60,20,-2,13,9,15,-7,1,-6,17,-40,72,34,33,5,1,-40,45,64,72,61,-19,-30,2,75,40,72,54,-15,-15,-10,59,35,-74,-14,86,77,-19,25,12,113,-13,103,12,-4,-95,-127,-30,28,-110,0,-64,-97,57,-65,-8,-84,29,-30,-4,-15,-99,54,-85,-68,11,-74,35,-54,-4,-20,56,24,-28,-21,-89,-48,-45,-22,64,-111,26,87,-11,15,5,-21,-47,-35,-89,-13,41,-27,-110,77,-20,24,59,-14,-35,11,54,39,-46,2,-61,33,-20,44,-2,31,10,50,-4,-14,-5,106,-22,36,-36,38,31,38,81,31,-36,-30,7,19,18,42,-24,-11,15,-13,-1,-47,127,14,-13,7,41,55,-53,4,46,-19,-27,-43,93,4,8,9,43,48,-18,1,60,-14,-35,-43,69,-9,29,-9,6,31,-3,5,59,8,-37,-24,43,5,25,-9,37,-7,5,26,75,26,-66,1,22,-22,83,-14,11,-17,46,16,70,17,-46,-18,3,-25,33,-24,-4,7,43,43,68,26,-46,-36,3,-76,-14,16,-26,-20,70,10,31,7,67,-76,127,39,-93,15,27,21,71,20,45,-12,59,-82,77,76,-11,-4,33,43,76,3,78,13,51,-50,60,25,14,4,-25,-14,19,-15,37,-13,41,-32,-26,20,-10,-11,-8,-16,5,15,26,-47,8,17,-4,-47,-15,-5,38,-16,27,-6,32,-45,59,13,-21,-21,-13,-21,24,-27,14,8,-6,-5,48,51,-66,24,-7,-26,-60,-46,42,6,-15,52,79,-12,12,-18,69,-32,-63,-20,44,11,-40,38,92,4,42,27,77,-9,-67,-44,43,60,4,51,127,1,-6,48,75,-44,-41,-28,-7,69,-28,42,82,14,41,61,16,0,6,-20,-25,16,-3,23,46,18,53,32,4,27,24,-11,-12,5,15,41,-15,33,-8,27,-10,34,8,-21,-22,-23,9,13,-63,7,-1,40,11,40,23,-9,89,57,7,14,-39,54,84,-23,33,6,26,-9,56,22,1,4,-36,31,51,-3,-57,3,1,-13,36,35,-1,17,28,-5,13,-35,-13,23,23,10,61,14,6,25,22,-30,34,4,7,60,14,21,41,-9,-27,41,-34,2,-14,2,-4,74,-3,-10,25,-17,-36,-6,-68,-22,69,-9,7,127,46,-20,1,-19,-40,28,-108,-33,119,-13,56,51,46,-12,-6,-23,30,21,14,-86,-4,14,8,-17,-112,108,24,-27,77,64,-51,-48,42,1,-9,-14,-127,122,41,-15,59,48,-17,14,63,50,13,-16,-35,9,24,-15,36,34,24,12,27,34,-12,-24,67,-56,-5,-7,3,13,5,-2,-10,22,-14,3,87,-35,-15,5,1,17,-11,-59,6,15,-14,17,87,9,9,24,-7,19,-57,-86,-28,29,-6,44,-54,12,-47,48,48,29,46,4,81,17,113,23,-16,-56,-55,-27,44,1,33,-27,23,2,108,-38,-29,-29,12,2,28,-42,-30,-74,-48,23,53,-68,-18,-25,40,-10,-13,-13,-32,-90,-19,-16,-17,-55,2,-9,-1,-44,-10,16,-90,-75,-47,8,-32,43,4,1,-1,29,2,13,-127,-63,18,52,-29,27,-61,38,-19,0,26,22,-71,-33,73,33,-23,-10};
const int32_t emb_conv_bias[256] = {-683,-77,-347,490,1415,333,-750,1848,-105,-432,-959,-197,-138,65,-3026,-431,-272,-3306,-215,-816,317,-222,-126,91,1109,468,-962,-1392,-2653,-875,1826,-254,-784,-612,-433,-805,-298,-686,-2155,-280,680,-927,136,-2143,175,-2500,2060,-1898,-386,206,134,-459,-896,-1932,-1229,-2542,-663,-1156,-375,-107,-641,-1168,-1656,268,-1255,-1325,-1361,-135,-1371,-305,-600,-561,-395,-1637,-1442,-608,-794,-325,-917,577,-206,-1389,-2007,-253,-3934,-208,965,-19,-345,35,-26,24,1998,-2991,-2305,-287,-277,-505,-696,-237,-291,812,374,-666,-665,-2121,-2589,385,-372,-490,-333,-1098,-1070,714,-1033,-1972,1046,-1070,35,1446,-820,-554,-436,-1730,-441,-513,158,-104,267,-202,-3177,-273,-883,-3493,-552,2767,-2246,-275,-1464,-594,-393,-16,-2368,-2757,285,-59,-230,-13,-974,-682,-2649,-321,-551,-525,-175,463,-198,-77,-2837,425,-819,-558,-228,-873,-312,-1528,-791,-1345,-286,-819,-1908,57,160,-3743,-1367,-180,-1917,-1303,-1167,-864,149,-325,324,-205,-743,769,-1566,-3162,-1628,76,749,-1,-279,-486,-117,-924,-1657,-1283,-1538,-2894,-463,-1482,943,134,-1127,-270,-884,2689,-855,213,-12,-1927,114,-844,447,-55,-534,588,646,-990,-516,-494,125,1199,133,-1876,539,375,-3071,-133,-48,485,-2947,-851,-406,-923,-655,190,-429,-416,-404,-223,-1735,-2323,-110,-2088,-14,-245,-651,-899,-251,809,-417,1407,-765,-457};
const int32_t emb_conv_mult[256] = {1451394910,1990600777,1214058788,1677462123,1105206258,1148865510,2051178713,1463641457,1202320415,1987239206,1361592780,1343374889,1965640612,1187698229,1737954117,1785563451,1582755216,1133623277,1421556573,1719704092,1637910636,1090677636,1234060145,1616316377,1993283338,1262143414,1722037059,1595683164,1107460758,1802954961,1317733621,1652314531,1195054497,1625821175,1728063257,1118075468,1294833953,1657655291,1864046602,1369165171,1600334751,1389351041,1590584684,1133128331,1347261673,1314402540,1992579218,1865251423,2020980021,1245522086,1106503597,1405010575,1202614558,1442350906,1375367735,1246229046,1739058798,1078139413,1545098322,1989727315,1292757464,1317376255,1798701694,1077807455,1211588912,1184085859,1859451961,1130417446,1979008579,1699889339,2083169765,1157394614,1359498654,2130389001,1265820203,1852557832,1221311553,1424592315,1363247335,2046294562,2146759081,1752797135,1099654158,1128003694,1391347418,1451628670,2024757548,1401941502,1976120506,2000180307,1280858717,1075425165,1917273053,1400356148,1837961728,1132729564,1951737268,1202873353,1113032214,1182335274,1543711754,1853390640,1179886398,1736837031,2008720172,1322317052,1716841876,1474207591,1287103878,1548927862,1739076584,2056934681,1804828330,1476536075,1167736479,1511504728,1172976427,1582504567,1428632747,1161850254,1708015491,1142621620,1610542025,1455866244,1182467624,1090988594,1074977300,1368030000,1281992244,1739413175,1271734601,1833860165,1270444138,1552484782,1479687501,1629817964,1220247227,1787969207,1619773007,1997963024,1446387602,1955079410,1571091725,1362443374,1136999272,1966834522,1631481487,1419350350,2044645388,1276644011,1420668314,2041274849,1527008371,1404462793,1269162194,2131839389,1087372861,1792151629,2093492126,1083378463,1251775766,1101643510,1152424373,1779853368,1396595511,1761241344,1951244340,1410959499,1334406364,1970633273,1604876183,2018371892,1150238029,1648623693,2110739853,1846191159,1210548650,2124433201,1964193362,1101095728,1781270427,1158888422,2099145413,1388849294,1256247100,1346404055,1315521121,1185628765,1908657709,1306653185,1591647366,1365688065,1878012122,1420379402,1535483669,1804598606,1143108795,1213858582,1077390230,1950043405,1335017369,1385311954,2116188824,1859494707,1524425950,1271408324,1653850861,1749823121,1253663558,1812158741,1500127906,1898899272,1278723639,1735725176,2095207064,1616443121,1522103445,1268754161,2010007945,1537757748,1413964303,2138678665,1193815524,1612417337,1625029918,1531213811,1147093253,1341643062,1357883259,1662042776,1184359152,1374716824,1744423323,1099095764,1282130647,1242793640,1575037696,1897598047,1406944924,2111060002,1078863561,1183262393,1920435091,1543684552,1107224232,1597823624,1915169660,1539323970,1577896026,1924441296,2129513596,1654795915,1980417567,1126255874,1665744226,1488915195};
const int32_t emb_conv_shift[256] = {-9,-9,-8,-8,-8,-7,-8,-8,-8,-8,-8,-8,-8,-7,-9,-8,-8,-8,-8,-8,-8,-7,-7,-8,-8,-7,-9,-8,-8,-8,-7,-8,-8,-8,-8,-9,-8,-8,-9,-8,-8,-8,-7,-8,-7,-8,-8,-9,-8,-7,-7,-7,-8,-8,-8,-8,-9,-7,-8,-7,-8,-8,-8,-7,-8,-7,-8,-7,-8,-9,-9,-8,-8,-9,-8,-8,-7,-8,-8,-8,-8,-8,-8,-7,-9,-8,-8,-8,-9,-8,-8,-7,-8,-8,-9,-8,-9,-8,-7,-7,-9,-8,-8,-8,-9,-8,-8,-8,-8,-8,-8,-9,-9,-8,-9,-8,-8,-8,-7,-7,-9,-7,-8,-8,-8,-8,-8,-8,-8,-8,-8,-8,-8,-9,-9,-8,-7,-9,-8,-9,-8,-9,-9,-9,-7,-8,-9,-8,-9,-8,-9,-9,-8,-8,-7,-8,-8,-8,-9,-7,-8,-8,-8,-8,-8,-9,-8,-8,-8,-9,-9,-8,-7,-9,-9,-9,-8,-8,-9,-8,-8,-8,-8,-7,-9,-8,-8,-8,-8,-7,-8,-7,-9,-8,-8,-9,-8,-7,-7,-9,-9,-9,-7,-7,-9,-8,-8,-8,-8,-7,-8,-8,-7,-8,-8,-8,-9,-8,-8,-9,-7,-8,-8,-8,-8,-8,-7,-7,-8,-8,-7,-7,-8,-7,-8,-7,-8,-8,-7,-8,-7,-8,-8,-8,-7,-8,-8,-8,-9,-9,-8,-8,-8,-7,-7,-8};