#include "spk_conv_model_params.h"

const int8_t spk_conv_weights[21504] = {-20,37,24,-4,127,-43,35,55,4,-15,-27,30,-21,59,39,-11,115,-47,50,45,15,-37,-13,20,-8,51,12,-13,76,-38,29,19,23,-29,3,5,-6,10,-18,26,40,-27,17,-10,2,3,-7,12,2,-11,-2,32,6,-15,-20,-35,-8,18,-6,35,-4,-13,30,23,16,-8,-18,-45,-1,36,-28,67,-29,-11,46,51,27,-20,9,-43,1,57,-16,95,20,12,-44,-4,-59,22,-44,-4,89,-53,-19,72,17,15,-44,-2,-49,8,-34,1,93,-41,-18,79,6,18,-30,-5,-47,6,-47,-7,84,-48,-22,100,11,15,-25,-22,-44,20,-68,-16,70,-45,10,101,10,17,-15,-26,-30,44,-78,-2,69,-36,17,103,-1,20,-34,-28,-33,51,-86,-10,62,-35,21,115,13,12,-32,-60,-41,44,-71,-24,67,-49,36,127,-3,-2,82,-14,-95,34,59,-23,-106,-33,51,-20,-13,17,89,-41,-117,33,81,-40,-75,0,26,-14,-17,25,70,-18,-44,51,66,-23,-81,-1,42,14,-19,5,44,-16,-40,37,39,-3,-64,-13,48,28,-4,8,27,-20,-58,32,7,-11,-89,-24,60,37,6,0,14,-26,-66,27,17,-30,-90,-49,67,31,7,-2,-3,-4,-50,37,8,-28,-127,-58,96,24,20,5,-6,5,72,60,-30,-93,26,-89,49,-38,6,12,-8,-9,70,52,-10,-75,31,-64,83,-37,-12,25,-8,-30,83,26,-60,-49,62,-99,104,-7,-27,21,-7,-46,103,59,-67,-57,88,-106,111,2,-10,-8,16,-74,56,41,-49,-40,51,-94,71,47,25,-10,-2,-117,52,46,-68,-18,70,-72,96,40,28,-34,-37,-127,64,46,-96,-5,85,-61,81,81,-3,-2,11,-17,3,-32,34,35,8,25,-4,44,-14,-13,32,-27,-21,-49,19,45,33,-10,32,10,3,-3,10,-42,-18,-36,-19,40,12,-12,23,22,17,5,-3,-35,-28,-38,3,17,13,-27,-4,-11,29,2,17,-25,-26,-53,11,1,3,-1,-8,-13,28,-5,17,-17,14,-68,49,-6,-9,8,-72,-14,2,-31,-11,-44,43,-103,64,21,9,21,-127,7,-19,-6,7,32,-89,-42,50,-9,14,-5,26,65,-9,4,-3,30,-96,-43,40,-7,21,-23,3,51,-19,1,2,34,-94,-51,60,-13,15,-18,14,38,-6,6,0,57,-102,-40,79,-14,20,3,3,5,-11,8,38,33,-90,-48,76,-26,18,4,8,-2,8,5,3,21,-117,-69,52,-7,9,0,-11,-11,-6,15,4,23,-127,-59,81,22,-12,8,-31,-3,0,70,-29,-32,-36,89,15,-85,102,-42,11,31,-12,75,-20,-22,-13,94,21,-82,102,-45,20,15,-13,64,-26,-55,-4,105,7,-63,112,-73,29,46,-23,56,-27,-54,-9,102,-14,-88,96,-67,56,67,-44,53,-32,-68,-24,127,-11,-32,84,-54,72,66,-39,38,-53,-81,-31,126,-3,-44,91,-55,100,121,7,25,-50,-108,-35,109,-30,-78,78,-90,94,109,5,22,2,9,-21,-39,-127,14,49,20,-17,1,14,5,-56,15,1,-23,-104,25,44,20,-33,11,11,-13,-103,46,3,-9,-65,15,41,-3,-23,5,14,-12,-107,57,8,-5,-33,23,39,-2,10,9,14,-10,-57,68,-6,-5,-58,-17,38,-15,25,-3,19,-5,19,85,-21,-5,-74,-21,58,-10,21,-7,7,11,72,72,-18,-15,-66,-16,70,4,12,-12,-15,8,-42,-6,-57,67,-108,-59,112,-26,89,10,-6,-5,-63,19,-29,60,-110,-113,76,-57,119,0,-6,-13,-90,61,-20,38,-89,-127,60,-68,97,5,-1,-9,-100,71,-7,27,-71,-101,62,-67,108,26,1,-24,-77,85,-6,38,-60,-96,79,-72,94,54,16,-20,-70,89,-5,20,-68,-91,77,-62,61,63,10,-24,-64,66,-31,0,-71,-83,68,-60,14,64,3,19,48,-9,-7,-8,24,6,-63,61,-33,32,-13,32,-13,13,8,-12,43,-22,-48,42,-39,25,-21,16,-79,71,14,-3,66,-14,-4,18,-59,12,-16,-5,-127,83,-31,-8,33,-28,3,27,-52,-3,2,-23,-107,80,-92,-19,6,-15,16,57,-19,-28,9,-12,-62,60,-106,-47,-7,-20,-19,52,-3,-41,8,5,12,42,-76,-51,-1,-11,-25,46,-1,-24,21,-4,27,20,-11,-16,-17,35,-22,-32,37,82,2,-4,38,23,-25,-22,23,18,-42,-5,31,93,14,-6,42,6,-41,-17,16,13,-52,16,7,93,11,-2,26,-18,-63,-22,-64,-2,-54,1,19,92,-3,10,25,-35,-61,-15,-119,-30,-63,1,19,71,0,10,2,-40,-55,-9,-127,-36,-55,-9,6,41,5,0,7,-24,-41,-3,-92,-45,-65,-24,1,29,-13,23,-8,14,14,5,30,27,-19,31,-20,-17,-13,17,-9,15,8,-6,10,21,-26,16,-30,-25,1,8,-17,-4,22,-7,-5,-3,-46,-10,-54,-13,15,1,-2,-28,30,-27,-2,-41,-57,-17,-83,-26,27,-5,22,-36,24,-30,-17,-35,-68,-21,-103,-29,26,-12,16,-51,18,-33,-30,-37,-69,2,-112,-33,19,-15,-8,-41,19,-35,-28,-13,-43,21,-127,-28,5,18,67,-54,33,-32,61,35,-61,74,28,120,13,19,53,-66,18,-39,51,2,-104,63,20,127,7,12,51,-67,33,-36,31,-3,-103,96,35,120,5,21,4,-57,32,-28,28,-3,-101,71,32,86,-12,12,-24,-47,32,-35,4,-13,-85,48,1,79,-9,-15,-58,-51,-13,-52,-17,16,-84,35,-13,67,-14,-16,-68,-31,-43,-65,-48,-4,-106,51,-22,38,24,4,-41,4,-11,67,-21,-110,-49,-127,-48,-39,33,8,-45,-3,-4,55,-22,-87,-54,-102,-43,-17,27,20,-51,2,-24,62,-9,-87,-56,-95,-72,-33,19,-2,-69,-13,-29,51,10,-68,-51,-64,-35,-18,8,-9,-47,-21,-4,32,12,-41,-33,-52,-5,15,9,-14,-32,-18,12,51,11,-41,-4,-30,17,46,10,-35,-52,17,25,59,-4,-49,14,-58,46,50,9,-21,-27,-24,-15,45,-29,-83,-52,-99,-61,-57,30,10,-59,-17,-30,40,-46,-69,-66,-127,-69,-68,31,7,-105,-18,-22,26,-43,-84,-57,-126,-121,-69,33,6,-109,-37,-15,9,4,-83,-49,-107,-82,-71,17,-9,-55,-31,-9,25,29,-37,-21,-68,-61,-18,4,2,-18,-22,29,28,39,-10,-21,-45,-31,8,-7,-28,-18,4,66,45,37,-14,17,-24,-28,11,-23,-26,-20,20,-24,-56,20,78,50,6,19,21,-4,20,6,14,-45,-73,-22,77,58,-10,-4,4,11,41,1,11,-85,-59,-7,89,56,-33,-30,2,13,10,2,21,-86,-80,23,86,12,-28,-34,-19,13,-21,5,33,-77,-83,11,61,3,1,-33,-18,-1,-23,-29,6,-52,-90,19,62,-39,13,-106,-39,7,-3,-30,32,-6,-113,36,58,-24,15,-127,-3,20,13,33,-22,-6,18,0,-42,34,-2,-26,49,-1,-5,55,-33,39,52,-60,-30,14,-22,-2,20,-17,-29,31,-39,52,49,-127,-39,-16,-24,16,-8,-10,-38,-52,-35,45,46,-106,-19,-54,-9,29,-10,-5,-36,-82,-34,59,29,-89,-19,-66,3,45,-1,-14,-2,-26,-27,68,23,-65,-16,-63,3,41,5,-24,47,1,-31,56,-6,-40,-4,-27,25,33,3,11,6,-70,8,-35,-38,-127,9,78,-2,-14,16,14,-18,-79,13,-12,-32,-99,3,69,-27,-36,14,7,-13,-69,41,0,-24,-49,9,62,-26,-29,18,14,-14,-35,58,16,-23,-18,6,57,1,-10,28,12,-18,-2,59,4,-9,-50,3,58,0,6,24,13,-7,28,51,-27,-8,-87,-12,73,-10,12,12,12,17,35,32,-39,-1,-107,-20,75,-18,6,3,-6,-22,5,-20,-26,-12,-6,42,47,-42,-4,-5,-1,-27,6,-15,-46,-20,-9,44,38,-11,-50,-2,-12,-11,32,-22,-29,-28,-30,47,23,-1,-62,4,-42,1,70,-18,-4,-41,-30,32,12,37,-38,2,-82,10,101,-25,-9,-40,4,48,7,76,-57,-34,-89,4,86,-16,-34,-41,0,71,14,105,-39,-60,-44,-12,35,5,-57,-46,-41,32,22,127,-17,-76,-28,16,48,52,-4,41,-13,20,15,3,-33,-65,-22,-1,33,16,14,35,-6,10,-44,-11,-33,-65,-31,-3,20,1,15,14,-19,-30,-77,-37,-57,-65,-12,1,21,-10,34,-1,-16,-64,-101,-52,-98,-81,3,5,7,-16,34,-3,-17,-55,-93,-87,-127,-75,12,18,-3,2,28,5,-17,-49,-61,-90,-121,-65,18,25,23,3,5,5,-24,-22,-37,-66,-106,-68,-8,41,57,30,36,27,43,56,42,40,-96,-65,13,26,38,45,25,13,15,52,45,40,-84,-60,5,30,7,28,23,10,9,60,31,39,-113,-61,2,5,10,-4,59,-15,-7,19,17,52,-117,-54,7,-19,3,-3,77,-26,-4,5,21,47,-97,-43,25,-30,20,8,102,-35,7,-32,8,53,-127,-69,34,-42,25,28,94,-51,29,-18,-5,49,-114,-92,-7,38,19,40,-18,12,30,91,32,23,11,7,-12,36,45,48,-45,-1,29,70,19,94,25,28,-9,46,36,33,-76,-6,12,62,22,80,33,18,2,23,35,24,-86,-12,-51,46,50,36,61,-3,4,9,18,21,-74,-8,-98,-10,51,-24,72,-46,3,-12,5,42,-77,-11,-127,-10,33,-53,60,-71,9,-20,-10,52,-60,-5,-82,-9,4,-78,66,-94,17,3,-11,-30,39,-65,0,93,5,53,6,1,-5,28,52,-35,58,-48,53,76,-1,13,-14,24,-13,23,88,-27,92,-22,58,44,-24,-62,-28,42,-10,20,89,-14,125,19,56,9,-34,-56,-41,38,-20,-5,42,-1,127,8,30,-20,-22,-6,-40,32,-30,-16,31,24,98,6,7,-2,-16,32,-37,67,-23,-21,23,38,43,-4,-18,-26,10,86,-56,92,-10,19,-17,-61,-31,14,44,-33,-4,-68,122,-27,-15,4,-14,-40,-34,11,55,-46,-9,-71,97,-45,-10,-7,-19,-34,-31,24,59,-34,0,-78,106,-31,-21,-6,-28,-30,-14,17,55,-18,-27,-88,121,-22,-20,-13,-44,-24,22,20,57,-9,-42,-88,115,-16,-11,-22,-39,-33,13,14,51,-10,-42,-97,101,-4,0,-29,-24,-39,-12,20,34,-22,-57,-127,117,-15,-15,31,3,5,-25,-29,39,23,26,12,-64,-56,-12,34,5,-5,-65,-37,-11,24,40,-21,-43,-51,-18,36,-9,-44,-51,-43,-6,-16,26,-16,-65,-61,12,2,-3,-57,-31,-54,2,-47,29,-20,-86,-82,10,-14,0,-31,-22,-68,9,-44,29,-21,-79,-85,16,1,9,-13,19,-86,24,-58,-6,-18,-94,-83,15,-38,16,2,49,-84,38,-64,26,26,-127,-100,-9,-20,-80,-21,-42,53,-24,-30,96,-70,-8,53,2,-9,-127,-27,-76,48,-49,-12,83,-79,-10,49,26,-8,-113,0,-88,42,-39,-19,51,-81,-1,38,16,16,-48,-7,-48,19,-17,9,16,-57,19,23,7,16,11,-7,22,32,-49,5,-21,-32,9,31,6,11,47,-13,78,42,-100,11,-1,-12,15,28,0,-2,20,9,98,32,-116,25,34,22,41,27,11,33,20,-71,94,-19,40,22,1,-65,-13,20,2,7,30,-44,70,17,4,12,19,-58,10,31,-7,-29,49,-28,32,64,-6,-4,27,-26,-23,32,14,-81,35,-22,-16,67,-34,-28,25,26,-20,16,18,-127,18,-23,-48,45,-26,-15,33,51,-26,0,18,-103,16,-32,-32,24,9,11,30,34,-32,-3,10,-35,13,-47,-26,20,32,18,42,23,-2,19,-5,18,-37,-21,18,-42,70,-32,-10,75,-7,73,-17,22,-92,-30,47,-40,124,-7,17,37,-43,86,-28,-10,-127,-36,35,-47,124,7,48,-23,-41,101,-8,-29,-114,-37,14,-48,75,48,45,-44,-37,101,-3,-28,-86,-48,6,-60,31,77,1,-22,4,105,-6,-10,-19,-79,-16,-52,-9,91,-10,-6,25,62,-20,23,77,-106,-31,-35,-38,33,16,-4,47,35,-3,94,-16,27,61,95,1,-127,-3,-83,28,-66,20,100,-25,-23,63,94,19,-95,-32,-58,51,-77,5,93,-45,-52,39,55,-6,-89,-27,-49,23,-104,4,78,-11,-70,23,46,31,-85,11,-15,44,-105,7,54,-41,-72,-1,39,22,-50,57,-11,57,-76,16,50,-31,-66,-14,67,4,-49,79,-16,70,-63,29,40,4,-86,-34,77,-16,-68,91,-40,124,-93,3,55,37,21,-21,58,33,-3,-16,53,-1,-88,-12,40,18,11,-35,53,25,-11,-58,78,7,-83,-16,32,17,5,-23,27,61,1,-57,65,16,-67,-2,38,36,-14,1,26,59,17,-39,64,-12,-61,-7,32,10,-28,0,13,55,10,-45,48,-3,-68,-5,33,-3,-30,0,21,48,4,-25,50,-19,-87,12,47,1,-25,-5,7,47,-1,-42,39,-43,-127,-3,13,36,30,16,15,-54,-37,19,-38,-127,-52,-19,21,24,12,43,13,-47,-24,1,-1,-120,-47,-10,24,6,11,46,15,-30,-21,-6,21,-119,-52,-13,23,4,12,66,17,-22,-17,-15,18,-103,-70,-4,17,19,9,83,23,-22,-19,9,13,-85,-58,-13,2,31,34,78,6,-35,-35,1,26,-65,-75,8,2,30,68,76,10,-34,-48,-3,21,-50,-94,16,-127,22,7,54,-16,29,19,-75,-12,-37,30,18,-118,2,19,45,-33,5,24,-81,35,-34,17,24,-89,-1,21,58,-25,-7,39,-57,56,-26,21,15,-68,-1,39,45,-19,-17,45,-60,69,-24,19,16,-51,-10,35,33,-8,-30,32,-62,75,-20,21,16,-74,-21,13,36,0,-44,19,-59,56,1,25,16,-98,-30,-12,29,10,-60,8,-33,39,22,30,-8,21,-60,4,19,4,-44,30,-19,1,-12,-37,-10,18,-45,50,19,6,-52,26,-14,6,4,-34,7,15,-13,82,-22,4,-24,6,-10,38,15,-44,15,26,-19,102,-63,-11,-24,-2,-6,35,24,-39,13,18,9,119,-72,-10,-8,-37,17,2,17,-47,15,-3,13,127,-79,1,-16,-42,15,-28,-10,-46,-6,-6,17,121,-63,5,-12,-8,30,-30,-21,-29,4,5,84,-18,-64,1,78,-5,-99,-30,87,-26,-11,10,78,-20,-91,12,88,-50,-98,-29,65,-14,-13,7,95,-25,-53,24,81,-37,-93,-23,74,15,-28,22,76,-21,-43,28,41,-25,-79,-13,56,28,-25,10,63,-31,-53,44,26,-38,-80,-23,61,36,-15,11,57,-30,-60,42,35,-47,-90,-70,64,7,1,8,35,-25,-61,35,36,-58,-127,-68,91,26,-1,-7,96,-33,-102,-17,69,-11,-87,-11,63,-10,-11,0,87,-44,-127,-15,75,-29,-88,-35,59,-9,-12,14,107,-25,-66,-2,65,-39,-53,-21,68,14,-22,11,89,-43,-73,27,21,-37,-44,-28,56,44,-21,11,88,-28,-63,18,33,-45,-50,-35,58,36,-17,6,66,-39,-59,19,46,-58,-49,-73,40,31,0,4,51,-31,-58,19,43,-53,-83,-69,56,33,16,90,-1,25,77,82,9,-127,4,-83,15,-77,6,81,-19,3,47,101,-3,-110,-38,-56,37,-84,0,86,-30,-40,13,61,-7,-78,-20,-41,31,-89,7,58,-39,-47,37,56,-2,-74,17,-23,41,-82,3,60,-43,-72,8,46,24,-29,42,-23,80,-73,19,57,-27,-59,-7,73,-1,-41,77,-22,70,-51,34,36,-10,-96,-23,80,-2,-82,74,-50,113,-102,-7,4,64,18,39,12,57,89,25,127,50,-11,-10,4,40,18,14,16,25,98,16,95,68,-12,-4,-18,32,7,76,10,-2,61,19,71,75,2,-1,-13,63,-11,93,-4,-8,-6,30,36,20,-3,30,-26,85,-34,113,-20,-11,-4,3,36,-22,-13,38,-34,59,-55,111,-34,19,-10,-10,9,-53,-45,55,-12,44,-83,84,-39,13,24,-24,33,-97,-32,-27,1,29,7,14,10,-53,-57,8,-41,-112,-45,-19,6,14,8,31,12,-64,-55,-40,-24,-104,-47,-19,19,10,-3,43,3,-48,-56,-63,-15,-127,-61,-23,26,0,-6,47,-10,-35,-45,-63,-8,-124,-74,-12,25,-2,-6,65,-8,-12,-20,-40,-17,-101,-66,-10,26,3,20,46,-4,-20,-19,-28,-16,-78,-58,2,18,5,37,34,9,-26,-20,-18,-19,-65,-47,16,-63,-5,12,16,11,-2,21,-30,-36,-53,-25,20,-65,-6,32,15,3,-31,22,-34,15,-45,-21,19,-67,2,52,3,16,-41,18,-46,53,-39,-29,20,-75,9,58,-11,4,-28,29,-65,76,-24,-40,14,-87,1,66,-31,-5,-22,23,-54,112,-11,-41,12,-121,-23,56,-15,-15,-29,16,-39,124,8,-32,19,-127,-15,41,-7,-21,-40,21,-22,105,17,-7,-21,10,16,32,-95,-78,56,84,62,-7,49,-1,-14,4,-3,3,-118,-84,3,101,75,0,21,-15,-10,10,-25,-5,-127,-91,-13,71,52,-15,-7,-30,-11,2,-5,1,-105,-78,-1,26,47,-27,-30,-35,17,-12,21,-3,-94,-101,10,14,43,-9,-57,-37,13,-24,2,-3,-44,-113,64,-15,12,-22,-100,-33,-9,-20,9,20,4,-112,76,-23,17,9,-97,4,7,20,92,-36,-7,9,-105,-12,53,34,-38,6,-17,5,35,-28,12,23,-54,-3,35,26,-22,3,-5,-4,-45,7,-10,22,-33,-12,51,-5,0,0,7,-12,-118,9,-45,15,-27,-4,51,-33,37,12,17,-7,-127,16,-71,1,-48,-33,20,-42,60,14,16,-5,-60,20,-51,19,-56,-31,37,-68,69,9,8,5,11,28,-24,17,-55,-14,39,-57,84,12,10,15,79,-43,-18,24,-127,-37,58,54,-49,9,-7,16,27,-35,25,29,-56,-19,40,54,-28,5,-18,4,-55,5,23,20,-5,-17,30,1,-23,30,-7,-20,-92,18,-8,14,1,-11,37,-34,11,39,12,-18,-81,25,-60,4,-40,-39,36,-58,29,25,22,-14,-41,26,-63,8,-72,-24,42,-63,53,15,14,6,12,38,9,19,-75,-4,70,-32,63,10,19,7,20,2,24,-23,7,-24,-7,13,-1,-24,22,-2,26,-27,-4,-22,-4,-40,-16,3,2,-21,16,-6,21,-42,15,-21,8,-27,-23,7,7,-27,3,10,4,-2,-19,-13,7,16,-5,2,-20,-1,-21,20,-41,65,-64,42,-11,25,26,-22,-8,27,-64,32,-59,127,-94,122,-8,-12,37,-38,-3,28,-70,29,-27,74,-84,115,24,-35,61,-59,-27,14,0,1,3,-25,73,35,3,3,40,-18,11,8,2,19,3,-20,69,21,0,17,31,-40,35,10,-5,27,-2,-42,70,18,-34,3,48,-67,13,19,-13,13,-10,-67,63,18,-27,4,32,-78,-3,34,-10,-6,6,-87,52,24,-14,17,-9,-68,-18,49,-5,-3,-7,-96,22,19,-32,35,4,-68,-4,50,-9,3,-22,-127,12,0,-55,27,-3,-58,3,79,6,42,-63,72,44,18,41,38,33,24,-34,-1,8,19,-91,100,51,7,43,24,-2,-10,-54,-3,8,12,-106,127,71,0,41,39,-8,-29,-71,-3,1,4,-103,125,83,11,32,44,25,-16,-89,-10,4,-12,-88,99,70,21,51,41,31,-12,-79,-7,1,-8,-63,61,43,26,27,49,17,-22,-59,-18,-1,6,-4,-13,20,23,10,74,6,-10,-46,-28,14,-75,45,-29,66,24,8,10,21,7,-34,-1,13,-127,60,-25,37,43,9,5,35,53,-24,-8,16,-127,51,-12,28,45,12,4,40,79,-20,1,21,-100,43,2,32,35,5,21,37,85,13,-2,30,-48,30,7,28,36,9,21,37,82,22,4,23,-56,7,6,32,32,17,5,35,61,26,2,16,-56,-12,-12,35,31,19,-3,65,38,0,18,19,29,52,45,63,8,0,31,19,3,-127,-80,7,21,29,23,50,15,15,22,13,21,-115,-66,5,16,14,35,53,0,16,38,1,29,-121,-61,2,0,15,20,67,6,18,47,12,34,-101,-68,14,11,6,15,58,6,7,33,9,24,-71,-52,12,7,15,34,47,12,-9,3,1,15,-50,-66,19,0,43,43,28,10,-11,-26,-33,-13,-50,-97,8,-9,-120,6,-21,-49,-106,53,89,22,-7,4,0,-27,-127,8,11,-42,-75,40,65,-19,-27,3,15,-33,-110,55,20,-29,-21,45,54,-32,-17,-1,16,-30,-69,67,27,-17,-15,32,79,-24,-21,11,11,-20,-13,70,30,-15,-26,22,63,-9,-1,-2,13,6,36,58,16,-13,-59,19,78,5,-4,-3,-2,33,65,24,-10,-1,-77,23,104,-4,-18,-14,2,-19,4,-26,127,38,-3,-53,-49,-38,-22,8,22,-6,-14,-39,105,52,8,-17,-26,-22,-14,0,7,-4,-34,-49,82,45,-26,-18,-16,-23,-4,-2,14,-15,-23,-41,59,42,6,-3,6,-2,1,11,14,-8,-36,-50,31,42,-3,-4,-4,-14,1,19,10,-9,-55,-55,20,51,-36,-11,-16,-9,24,35,0,-23,-76,-51,44,36,-57,-19,2,18,8,54,-4,-10,24,50,-61,52,-84,2,-11,-90,20,16,8,-8,50,39,-63,47,-62,-32,-51,-36,8,14,14,-4,52,46,-44,16,-63,-16,-72,-31,15,10,-3,-8,66,37,-46,29,-95,-24,-83,-39,28,7,16,9,52,23,-72,18,-124,-24,-81,-47,71,-4,26,-4,29,31,-93,29,-127,-49,-69,-74,68,-25,30,7,12,43,-88,26,-109,-61,-60,-106,73,-52,-28,17,-34,26,28,47,62,39,26,-33,4,92,-8,39,-17,21,37,20,48,26,26,-70,-34,60,-2,55,-25,-3,40,-8,22,7,6,-63,-15,77,-6,18,-26,-1,38,-8,15,-29,-28,-33,-20,59,5,-8,-1,-37,74,-21,23,-24,-45,-11,-49,33,18,-39,-30,-83,69,-67,0,-9,-86,3,-106,19,17,-61,-64,-92,33,-81,-44,0,-114,17,-127,10,20,-35,-69,-2,-44,27,-31,18,1,49,-26,25,27,-35,-40,-1,-32,-15,-22,31,-57,17,-48,38,13,29,56,-9,19,-15,-67,-4,-52,-14,-37,65,-26,33,108,0,80,-9,-20,12,-28,-36,-38,63,-59,25,108,-8,105,27,13,10,-12,-5,-7,11,-73,-13,69,-15,127,14,-43,-9,-33,12,-4,-35,-39,-30,12,8,85,-28,-126,-19,12,94,-36,-37,-3,6,-13,-30,81,-23,5,1,20,10,35,38,8,26,5,-24,100,-17,12,25,-3,-6,53,59,12,6,7,-60,81,-24,-13,18,-15,-19,58,60,5,-3,0,-59,91,-8,-30,22,-35,-40,48,49,-9,2,3,-81,84,7,-55,29,-63,-36,31,50,1,-19,-10,-98,76,-14,-88,37,-57,-24,14,31,-15,-21,-13,-127,33,-10,-103,2,-66,-3,-15,57,13,26,63,32,-14,39,60,-72,-1,-14,106,-41,6,12,49,19,21,15,51,-60,-25,3,127,-31,4,7,53,18,58,13,51,-64,-19,-27,105,-28,0,13,63,-9,54,19,0,-48,5,-19,104,5,-14,-9,40,-22,74,39,17,-36,9,-14,79,10,16,-7,42,-40,60,24,41,-70,6,-56,106,-4,46,-5,28,-66,29,37,16,-99,-16,-68,101,-26,-12,-1,45,-34,-13,-13,38,-16,-47,58,39,127,-1,7,5,-41,-16,-30,45,-22,-45,51,24,107,3,15,-20,-56,-3,-44,50,-35,-39,53,27,99,1,15,-66,-60,4,-47,53,-29,-14,27,36,86,-8,10,-57,-57,22,-46,23,-22,-42,-2,56,95,-8,5,-49,-85,-11,-69,-1,-7,-71,21,45,58,-7,8,-30,-86,-15,-65,-41,-17,-98,40,32,51,-11,29,-61,-38,-52,98,-32,-34,102,-85,16,72,0,41,-42,-7,-57,70,-39,-54,76,-56,18,77,5,34,-48,-11,-42,59,-45,-57,21,-64,2,91,-6,37,-57,-6,-32,62,-51,-36,40,-78,39,73,-4,27,-62,-20,-6,79,-63,-17,21,-64,51,79,-2,22,-69,-22,-37,67,-111,-37,25,-81,35,107,24,10,-72,-42,-50,76,-127,-50,49,-81,56,120,22,31,7,26,-63,71,-20,23,13,-70,55,37,14,18,10,16,-47,53,-23,30,-25,-41,44,33,10,18,0,19,-60,33,-21,24,-31,-48,72,36,13,10,10,11,-36,37,-29,41,-21,-35,72,34,16,11,10,20,-21,43,-22,19,-24,-49,88,35,19,9,8,29,-19,38,-31,-3,-16,-49,97,33,29,14,26,22,-25,53,-54,-21,-16,-68,127,26,9,5,26,3,40,27,29,-57,3,-54,126,-34,-4,-4,11,13,59,30,15,-28,1,-33,125,-38,-23,-11,4,-13,82,7,5,-37,7,-33,127,-21,-6,0,8,-32,110,21,-36,-55,33,-70,112,12,15,-6,35,-49,113,-5,-17,-44,1,-59,87,16,38,-28,30,-69,112,-5,-26,-66,5,-78,105,-1,59,-34,-16,-110,70,1,-45,-63,3,-59,84,8,-5,-5,-118,-57,-103,-6,-82,11,-58,21,-103,-20,-16,-11,-115,5,-103,35,-97,-14,-6,31,-101,-34,-5,-18,-103,60,-76,10,-127,-20,-4,21,-82,-33,-9,-35,-70,73,-92,-6,-109,-22,-19,28,-50,-60,6,-12,-1,96,-102,-38,-74,-9,-24,53,-7,-65,26,5,34,64,-90,-40,-58,-37,3,57,27,-89,15,39,72,18,-34,-44,-37,-55,36,57,6,-86,7,33,36,30,45,21,-33,9,18,-20,-127,-68,10,22,26,25,51,11,-15,16,-2,11,-103,-63,2,24,3,22,51,19,11,16,-5,15,-106,-68,-4,11,9,19,47,3,3,38,5,18,-95,-61,5,14,6,22,64,18,-6,38,17,8,-69,-64,3,1,21,34,41,6,-11,2,11,6,-49,-59,19,8,31,51,57,14,-23,-17,-19,0,-29,-92,16,35,51,36,56,14,44,38,29,97,-91,-53,12,14,34,27,47,11,34,37,24,86,-87,-47,8,16,8,21,42,2,20,49,10,88,-105,-42,11,1,4,4,65,2,4,29,7,85,-127,-50,25,-4,9,-6,62,-6,-6,11,7,78,-100,-44,25,-16,14,6,66,-2,9,-9,14,72,-89,-56,31,-16,14,18,60,-14,31,6,-14,64,-95,-84,12,21,75,54,56,51,22,7,53,64,-55,-55,20,1,66,34,56,20,16,5,46,69,-40,-56,0,-6,42,31,65,17,29,-12,36,50,-66,-43,15,3,38,0,41,14,24,-6,31,33,-106,-41,3,6,28,-13,33,-4,22,-9,2,18,-88,-61,25,12,29,5,18,-1,-10,-26,14,15,-120,-80,24,12,28,9,35,15,13,-38,-2,2,-127,-114,-9,-29,-59,-28,-117,-26,-29,10,-18,-27,-73,25,-22,-33,-78,8,-127,-18,-86,-11,0,-16,-77,-5,-9,-22,-72,33,-104,-18,-97,-1,1,2,-90,-19,-12,-9,-61,40,-103,-23,-80,-3,-17,19,-69,-48,5,-23,-64,20,-119,-38,-59,-20,-18,25,-24,-63,20,-7,-46,8,-87,-60,-13,-14,-56,20,12,-61,7,28,-38,-35,-47,-72,0,-6,-53,2,-10,-53,17,55,73,6,29,-41,112,-4,50,62,-26,-49,3,66,52,24,18,-36,31,13,53,38,9,-53,-1,53,43,-7,3,-51,31,-3,66,18,-12,-79,30,24,47,-37,26,-32,24,-57,42,19,-23,-72,21,21,47,-45,37,-79,11,-47,55,7,-41,-83,39,16,68,-36,68,-108,47,-48,6,34,-71,-97,58,3,36,-12,67,-127,52,-36,10,22,-123,-92,4,32,-30,16,25,-23,34,47,19,45,-16,13,4,52,18,18,3,-26,37,21,12,0,-28,26,-1,30,54,1,5,17,34,-14,-9,-31,-14,35,-5,-17,58,-3,58,24,19,-44,-23,-58,-23,31,-18,-39,47,-19,110,37,-3,-59,-38,-24,-20,40,-30,-2,15,-17,127,-15,3,-21,-8,6,-31,40,-14,30,-4,23,80,-49,8,-11,37,19,-30,40,24,5,124,-36,-115,-7,44,-43,-70,33,78,-50,1,7,97,-28,-104,-22,41,-49,-63,4,106,-28,-26,17,120,-24,-76,11,31,-43,-47,-33,91,16,-36,16,127,-43,-67,39,18,-75,-34,-14,81,18,-25,9,123,-47,-66,61,34,-61,-30,-26,77,33,-9,6,104,-45,-65,13,52,-78,-50,-55,54,35,15,-2,65,-48,-34,3,64,-83,-86,-45,38,46,-18,-14,49,-43,127,0,8,11,18,-28,-38,6,11,-9,16,-47,98,13,11,29,42,-32,-14,32,7,-18,12,-52,93,40,-5,20,16,-44,9,63,15,-15,31,-45,76,66,-8,29,-3,-31,6,52,13,-31,4,-46,60,53,3,27,-38,-2,6,32,10,-40,-42,-62,47,35,1,34,-56,28,-27,44,6,-34,-55,-72,21,2,0,3,-22,29,-26,61,13,9,20,12,15,20,60,29,-14,127,21,17,16,-10,7,22,45,-1,73,24,-16,110,4,1,8,-13,6,27,85,9,65,35,-8,111,20,16,12,-22,24,28,91,9,47,25,20,85,25,12,9,-2,22,-10,64,14,19,40,-12,66,23,17,29,-11,33,-13,22,14,10,16,-34,26,7,-10,38,8,15,-24,5,23,18,0,-52,12,6,-28,8,29,32,12,-19,31,-54,24,73,37,-58,-82,-24,12,58,-2,-22,38,-41,48,60,124,-30,-71,-49,15,39,-21,2,21,-50,14,13,127,-23,-80,-42,-10,32,-13,43,-14,-58,-33,-33,114,-13,-90,-14,-16,-5,-8,74,-22,-59,-59,-57,25,-59,-100,-3,-9,-12,6,61,-18,-54,-77,-67,-77,-86,-107,17,7,2,8,28,-2,-43,-79,-48,-119,-117,-121,-8,0,-73,-28,1,20,21,-62,72,-34,30,22,-4,-7,-64,-11,5,12,29,-62,58,-25,35,29,-9,-10,-71,-2,2,4,29,-60,36,-26,15,45,-8,-5,-59,-9,1,-5,9,-57,56,-32,13,74,-12,-4,-47,-1,6,-13,-12,-41,56,-29,8,86,-7,-6,-46,-8,13,-2,-30,-41,68,-24,15,107,-11,-4,-52,-14,-1,9,-46,-38,73,-14,37,127,-36,-2,86,2,-19,31,-21,12,69,90,-91,-45,-42,5,53,-12,28,7,-49,-6,18,95,-72,-61,-35,7,28,-12,49,-6,-95,-62,-30,48,-82,-88,-19,-12,-9,-10,71,-16,-95,-71,-59,29,-72,-94,-19,5,-20,-4,80,-19,-72,-70,-48,-30,-127,-98,-11,22,4,4,79,-17,-49,-52,-47,-57,-113,-92,5,23,34,18,28,-6,-21,-18,15,-48,-91,-78,4,54,67,16,27,7,74,26,44,63,-28,-45,-13,34,46,32,1,9,27,34,41,47,-5,-68,-7,26,33,0,3,4,9,29,41,35,-20,-51,-1,17,29,-15,28,-21,7,-24,47,17,-41,-70,8,-11,36,-23,49,-44,7,-29,23,20,-45,-68,21,2,34,-9,53,-75,32,-38,22,8,-102,-76,32,-10,28,-11,61,-69,37,-23,12,34,-127,-107,4,10,-56,73,-31,13,-112,21,20,-30,13,-11,9,17,-29,74,-25,1,-109,10,12,-15,22,-19,15,15,1,91,-33,-8,-104,-13,0,6,31,-40,12,23,18,105,-28,-20,-79,-14,5,7,17,-28,1,15,22,99,-8,-22,-73,-26,-4,-8,7,-41,1,4,26,99,-4,-14,-117,-28,8,-7,5,-55,-11,5,16,106,-6,-5,-127,-2,13,1,21,-52,-5,8,20,30,48,37,61,22,-26,66,-40,-27,-7,-17,3,37,50,20,62,29,-50,49,-44,-38,8,-27,-6,7,82,3,75,-1,-47,52,-69,-36,12,-33,8,4,109,-11,56,-5,-34,51,-110,-23,15,-24,8,-12,101,-19,51,-2,-48,54,-127,-34,17,-26,-17,2,74,-17,48,-6,-58,40,-117,-58,24,-15,-23,-12,32,3,22,-5,-56,32,-106,-76,12,28,67,40,33,30,22,32,11,82,-82,-51,6,4,39,35,34,23,32,22,-7,74,-63,-55,17,7,33,21,58,2,41,19,-7,65,-86,-32,18,-5,22,-1,60,4,20,25,-5,82,-127,-34,10,13,12,-4,51,5,16,29,-3,62,-107,-46,19,8,15,1,39,11,26,0,-4,62,-98,-58,28,7,27,-2,28,11,28,3,-40,38,-98,-91,7,11,34,-62,107,-37,51,63,-28,85,13,53,18,8,34,-77,118,-42,-3,83,-74,72,48,45,12,13,17,-67,105,-61,-48,68,-109,46,68,33,7,3,2,-44,109,-37,-83,76,-112,35,71,31,0,-4,8,-59,105,-13,-88,82,-110,55,20,31,22,-38,17,-59,59,-14,-90,65,-127,52,-56,15,-12,-52,16,-64,-3,-15,-98,42,-98,91,-64,45,9,-1,-7,23,-57,39,-36,-46,-58,-127,-63,10,17,23,-27,24,-32,29,-42,-44,-84,-106,-64,3,16,23,10,10,-4,41,-35,-46,-104,-79,-87,4,-4,7,22,13,38,32,-26,-14,-92,-47,-72,-18,-9,25,33,11,58,35,-27,24,-78,-35,-46,-9,-3,26,24,28,77,32,-31,22,-90,-5,-30,-28,8,23,21,62,57,22,-33,-2,-58,-16,-32,-35,-37,-2,19,30,-11,-13,-40,21,71,-23,-73,-20,-26,15,-19,5,-22,-26,-64,1,60,-12,-104,-12,-28,47,0,8,-16,-40,-68,5,39,7,-127,-60,-18,34,15,40,28,-32,-53,-6,11,12,-102,-82,-37,24,68,45,76,-36,-66,-12,-5,26,-91,-105,-18,8,64,51,87,-29,-66,10,-21,44,-55,-73,-18,-24,41,85,78,-26,-24,0,4,38,-35,-89,20,36,-33,-4,-9,46,-6,-49,47,-32,0,79,25,39,-35,3,-11,49,-3,-38,47,-1,12,86,24,35,-45,-6,-6,47,-12,-24,41,-10,0,69,13,30,-29,-5,-16,49,-33,-1,74,1,41,56,13,41,-34,-21,-30,73,-27,11,66,17,77,71,2,21,-17,-8,-58,74,-30,5,90,31,109,76,10,25,-26,-14,-62,85,-33,-5,93,3,127,60,2,-21,-127,12,-15,-4,-104,10,19,16,50,-26,9,-18,-93,34,-29,-11,-109,9,10,4,32,-38,4,2,-34,58,-13,-15,-107,10,-2,16,38,-38,9,11,19,69,-11,-13,-61,10,-5,11,36,-39,6,13,59,75,28,5,-37,-45,-13,33,9,-43,1,13,72,61,28,-3,-45,-36,-1,25,-16,-51,-11,15,49,49,6,10,-42,12,24,40,-26,-62,-16,7,59,41,6,44,-28,-22,9,-49,-71,-37,-9,17,46,22,11,12,-32,-27,-23,-3,-61,-38,-18,18,59,27,10,24,-30,-11,-28,21,-66,-55,-19,15,49,19,22,9,-34,-17,-28,31,-57,-68,-3,6,14,16,33,11,-50,-22,-28,7,-42,-73,3,13,13,8,16,12,-83,-48,-44,-24,-51,-82,11,10,11,41,12,13,-59,-49,-68,-60,-43,-127,11,23,52,28,31,20,57,29,16,127,-75,-32,13,6,31,23,29,13,43,34,12,124,-65,-41,4,-14,16,23,51,3,38,26,0,120,-79,-16,15,-1,23,7,76,-6,28,21,8,126,-104,-28,18,-6,19,-6,75,-10,24,17,-4,94,-105,-41,24,-3,25,-9,62,-13,34,10,-10,91,-99,-63,30,-3,14,-5,44,-23,26,21,-40,75,-94,-98,-9,9,-55,46,25,-10,-66,55,11,-7,3,-8,9,16,-30,48,10,-7,-43,40,18,2,1,-30,5,35,12,71,-38,-9,-10,18,22,9,-6,-31,9,39,14,102,-57,-17,39,16,31,23,39,-41,9,26,14,106,-91,-20,21,3,34,-20,21,-41,19,-4,-2,80,-127,-14,-31,-10,28,-38,-2,-36,-10,-7,-17,108,-106,-4,-42,24,33,-66,-12,-52,13,4,68,-12,-81,21,57,-22,-84,-34,96,-19,-8,13,68,-15,-66,27,76,-61,-73,-12,90,-18,-18,12,86,-6,-42,28,66,-52,-73,-7,66,8,-37,25,76,-30,-25,47,21,-33,-77,-2,57,15,-11,16,58,-34,-32,35,17,-31,-78,-9,54,36,-7,7,53,-44,-55,38,40,-55,-82,-32,78,26,6,14,29,-30,-60,40,41,-74,-127,-63,105,38,-60,19,56,-31,75,-46,-82,95,17,-7,-31,-2,-39,13,-19,-18,48,-54,-127,90,35,-5,-34,-25,-13,31,-87,34,-52,-57,-70,53,3,-37,-56,-20,3,64,-58,45,-43,-74,13,19,-8,-61,-82,-19,-23,63,79,47,37,-47,43,-9,-33,-94,-71,-20,-13,33,117,74,61,-26,78,-6,-55,-64,-42,40,0,-28,50,95,21,-31,55,-38,-54,-44,-31,59,-3,5,72,-20,-104,53,61,-46,-80,-62,104,-38,-19,15,83,-27,-99,47,71,-74,-89,-36,101,-33,-30,35,101,-29,-68,48,60,-77,-73,-1,77,-7,-45,22,81,-48,-66,70,28,-67,-60,-6,82,17,-28,25,60,-31,-71,53,38,-54,-56,-34,94,23,-2,16,48,-21,-54,53,61,-60,-68,-51,95,38,7,11,21,-22,-31,26,56,-82,-108,-71,127,51,18,26,30,-18,127,14,27,25,5,-12,47,11,17,30,27,-33,99,12,46,20,17,-23,29,4,1,23,16,-41,90,17,2,11,15,-50,12,29,-10,8,-5,-43,52,33,-37,14,18,-66,-14,23,-13,-3,-10,-61,31,37,-58,25,-11,-65,-48,30,-18,-29,-11,-55,16,61,-84,32,-14,-60,-62,39,-16,-29,-29,-65,-27,52,-100,43,-6,-50,-41,58,-8,-3,97,-41,113,-31,63,75,18,31,-42,73,0,6,75,-31,103,-9,62,47,28,-35,-1,109,-18,14,59,-45,127,14,50,30,-3,-62,-7,95,4,12,23,-65,101,36,18,38,1,-52,-48,70,-9,-6,-9,-54,87,14,31,76,-10,-25,-52,73,-11,-11,-19,-42,82,-14,35,73,-48,-12,-58,85,-22,-23,-41,-27,54,-37,21,22,-68,15,-54,122,2,31,34,36,52,19,-29,1,14,-27,-127,-71,10,33,24,24,61,17,-22,11,9,9,-115,-66,-1,20,1,29,42,13,-13,25,0,1,-101,-51,2,14,2,23,44,2,-3,34,9,13,-98,-64,6,5,6,18,59,1,-17,31,15,-3,-74,-61,-3,10,7,38,54,15,-14,9,6,10,-70,-68,24,1,28,52,62,4,-21,-20,-8,-8,-46,-80,14,0,-38,0,-22,-61,31,7,-78,79,27,121,3,-11,-22,-8,2,-57,33,-20,-86,98,22,127,14,-6,15,-20,3,-41,1,-2,-98,104,41,126,16,-4,30,-45,-35,-37,-50,2,-92,99,60,103,11,-2,32,-59,-26,-51,-94,-11,-102,68,49,87,-2,9,25,-73,-48,-47,-126,-43,-96,73,35,53,7,2,8,-52,-56,-62,-83,-58,-96,42,13,37,-12,9,-36,-14,-4,-27,46,-10,-30,9,23,104,-19,-2,-57,-17,9,-40,59,-38,-32,9,21,119,-5,-8,-71,-26,32,-41,23,-42,-23,29,49,122,12,-8,-49,-61,-13,-43,-13,-11,-38,57,71,86,19,1,7,-80,-27,-59,-55,2,-101,75,127,61,-1,16,49,-83,-3,-69,-55,-6,-112,95,117,34,-3,21,55,-90,-41,-66,-20,-63,-106,95,25,23,-8,1,5,34,-89,-102,2,87,27,-26,23,-22,-2,30,-8,32,-104,-95,-12,110,29,-30,-9,-12,-18,31,-9,14,-127,-77,4,105,27,-36,-30,-31,-2,32,-18,23,-118,-75,0,100,34,-27,-16,-44,8,6,-3,7,-111,-77,10,45,52,-38,-33,-57,-2,-11,-5,31,-86,-96,46,17,26,-39,-85,-66,1,-13,-11,51,-74,-108,86,21,-5,-50,-83,-43,0,34,70,-4,-70,52,-104,-13,37,44,-19,-1,-9,16,45,11,-42,43,-104,-27,16,59,5,-12,0,15,-2,27,-64,54,-64,-22,12,-7,30,-4,0,-2,-50,27,-31,40,-87,-31,-1,-48,74,15,10,12,-89,26,-62,50,-102,-52,-25,-106,127,30,26,4,-77,32,-75,61,-66,-63,-28,-113,116,28,33,11,-46,57,-80,57,-79,-74,6,-125,98,16,33,6,5,-7,17,-35,20,-56,-45,19,-42,-46,31,1,12,-24,11,-29,11,-63,-33,5,-21,-50,14,13,-13,-11,-5,-18,6,-32,-12,-9,-14,-29,-9,29,-44,41,-43,7,6,5,11,-12,2,25,-62,35,-87,113,-73,85,-17,-17,35,-15,34,47,-83,37,-58,96,-89,127,5,-59,57,-37,25,7,-61,31,3,26,-46,70,39,-37,72,-37,8,-6,4,-11,-93,-5,-17,-21,-15,-22,90,-19,-20,73,-9,-13,-91,5,4,-52,30,-25,107,-36,-40,80,-11,-27,-82,-6,41,-53,20,3,109,-45,-47,97,-6,-17,-48,-17,16,-40,-9,28,89,-2,-61,127,10,-9,-3,-60,-4,-48,-61,28,69,16,-24,102,-3,11,17,-74,-1,-62,-96,13,63,15,8,72,-7,14,52,-115,-25,-54,-93,-14,60,26,0,53,12,39,112,-38,32,-41,-87,-38,-38,127,2,24,-5,31,51,-32,57,-7,8,-39,-32,123,-2,34,-32,-3,-64,-9,49,-10,32,-43,-8,63,-13,40,-17,-28,-120,2,-9,-10,-25,-58,25,23,-11,33,1,-18,-98,10,-71,-22,-80,-46,-5,11,33,-4,11,-7,-43,32,-49,-27,-86,-36,-10,13,36,-31,-2,6,4,54,24,-28,-39,-16,16,29,34,-12,2,-32,37,55,-39,42,-40,22,-23,-64,127,-10,0,-21,35,46,-45,39,-39,8,-30,-59,104,-14,0,-14,27,53,-45,10,-44,-9,-56,-65,100,-9,-7,-5,16,43,-37,6,-57,-14,-84,-80,92,6,8,-13,10,48,-29,10,-61,-20,-93,-92,95,-5,12,-3,13,45,-44,20,-47,-29,-88,-97,106,-10,22,-4,16,22,-57,11,-60,-43,-106,-104,115,-5,16,1,10,5,15,21,65,24,-62,122,-42,-5,15,-7,-12,13,19,5,59,25,-55,121,-63,-3,21,-10,-22,34,64,-3,31,36,-53,127,-47,19,20,-17,-10,37,72,0,20,32,-50,114,-74,2,15,-10,-13,17,84,3,23,46,-41,121,-88,-10,25,-14,-16,9,49,5,18,55,-43,93,-107,-28,30,-10,-17,-25,-3,10,5,58,-51,107,-114,-54,4,27,-45,-21,-9,26,-11,-63,-27,-127,-84,-88,29,8,-41,-19,-52,27,-25,-46,-20,-109,-98,-74,25,34,-69,-35,-49,15,-38,-52,-16,-112,-110,-95,17,18,-71,-39,-57,17,-18,-69,-37,-81,-87,-88,10,6,-68,-55,-21,14,-6,-41,-2,-70,-78,-65,-2,15,-49,-31,4,12,-4,-39,13,-50,-42,-31,19,3,-49,-3,26,14,12,-36,46,-61,-29,-34,15,58,75,5,-88,64,55,37,-43,-21,68,-57,4,42,65,11,-92,69,60,36,-54,27,50,-76,-13,26,63,1,-77,57,66,45,-50,18,93,-46,-20,27,59,5,-65,39,35,53,-40,25,92,-22,4,26,37,9,-23,42,24,52,-61,3,109,-14,11,27,40,2,-31,41,19,-19,-73,-37,98,-43,33,23,46,5,-31,22,-8,-50,-127,-74,110,-75,3,11,-82,5,-6,-29,-26,58,12,51,-2,-17,16,27,-33,3,-38,-51,0,38,-9,-3,-35,28,7,36,52,13,10,-43,-1,18,-27,-25,-42,65,-20,27,107,14,64,-14,20,7,-19,-24,-27,73,-40,0,127,27,83,7,-11,-38,-14,29,-2,13,-47,-25,88,39,67,-6,-70,-24,-21,43,7,37,-41,-32,18,62,42,-36,-113,-14,-5,82,-25,33,3,34,28,35,34,43,68,53,38,127,-44,-3,-2,25,9,42,13,32,38,42,36,100,-41,-14,7,11,-13,16,39,25,18,29,22,105,-45,-5,-3,-5,2,6,46,2,14,-6,15,96,-78,-14,22,-1,-5,-11,65,-16,11,-21,6,73,-88,-40,32,-26,2,-1,75,-41,25,-26,0,56,-85,-72,41,-6,-4,-8,59,-42,35,-2,-19,64,-112,-95,-7,47,-3,117,60,6,96,127,98,65,-80,-58,20,75,-30,81,-16,13,13,112,108,33,-62,-63,-11,59,-29,48,-43,-2,6,80,76,38,-102,-49,30,43,-35,31,-39,-32,17,27,41,54,-106,-85,18,12,-28,56,-16,-62,5,-6,41,52,-86,-85,42,-27,-2,94,23,-59,75,-26,21,46,-118,-82,49,-48,-14,107,25,-82,92,-22,-6,71,-102,-41,25,-69,-14,65,33,-56,-24,-6,-71,-111,15,3,14,-53,-5,47,33,-53,-22,2,-67,-127,13,23,16,-55,10,29,20,-59,-22,-12,-57,-112,-11,23,13,-65,24,22,13,-59,-12,-11,-57,-109,-26,39,24,-59,28,34,27,-72,-18,-5,-78,-110,-17,47,26,-62,20,40,39,-61,-22,12,-74,-96,5,66,36,-73,3,41,46,-42,-25,-3,-77,-100,27,68,5,5,-1,-59,-33,93,-93,-80,127,-14,-3,25,4,18,-34,-48,-11,76,-82,-67,96,-9,-8,30,-12,9,-34,-39,20,76,-72,-51,81,-26,-13,15,-22,6,-70,-34,42,46,-74,-51,42,3,17,36,-16,-1,-104,-52,46,65,-67,-48,46,-14,40,57,-13,-9,-111,-37,30,58,-47,-22,36,-17,36,76,16,-9,-112,-55,-3,40,-98,-30,29,-4,25,84,6,-9,53,15,-48,43,47,18,-59,-41,55,-23,-9,-3,77,-2,-85,33,71,-23,-59,-5,36,-20,-6,4,60,-1,-40,52,63,-11,-49,-16,33,10,-18,2,46,0,-32,36,33,2,-58,2,54,26,-11,9,39,-6,-60,36,1,-30,-87,-15,36,24,13,12,35,-17,-86,40,8,-33,-117,-55,62,14,10,13,25,-11,-61,48,-7,-51,-127,-69,87,4,18,-10,-72,-48,-89,5,-12,-2,127,-38,-23,29,9,-7,-71,-28,-60,-13,10,10,126,-66,-31,40,-5,-4,-67,-10,-40,-13,28,21,120,-69,-57,51,-5,8,-66,-14,-15,-11,32,22,108,-52,-47,62,-12,6,-59,-17,-2,21,14,34,107,-48,-13,78,-4,1,-44,-28,-16,44,-33,26,110,-46,-19,81,-5,17,-30,-36,-26,34,-70,22,117,-69,13,85,20,9,96,27,-81,-13,93,44,-65,-4,69,14,6,3,104,-7,-127,-20,90,-2,-80,-6,54,41,-3,20,108,2,-67,15,81,-1,-64,18,58,65,-19,9,67,-7,-63,29,50,-20,-53,7,56,67,-7,-6,47,-10,-87,29,18,-54,-55,-54,53,66,-6,0,30,10,-99,32,25,-62,-85,-86,36,22,-1,8,5,1,-99,36,20,-45,-123,-111,79,49,14,22,64,44,41,25,44,17,15,95,-109,-58,18,-1,38,24,39,19,50,3,6,104,-90,-50,13,2,31,18,55,13,37,16,3,99,-92,-25,15,2,26,2,61,11,21,19,-15,103,-127,-26,12,2,25,3,51,3,36,21,-7,78,-105,-52,21,5,14,8,29,14,42,10,-19,68,-68,-50,30,21,24,1,3,16,27,15,-53,56,-65,-99,-18,44,-57,-61,14,109,-23,-55,89,-52,-26,51,0,48,-55,-57,20,91,8,-46,82,-37,-29,53,-15,38,-68,-51,-3,77,1,-47,83,-60,-23,62,-21,29,-79,-51,-11,60,18,-36,59,-42,-19,73,-8,30,-90,-51,-4,77,-9,-34,52,-47,10,75,-9,24,-81,-71,-20,70,-53,-18,63,-54,6,124,-13,6,-100,-87,-37,84,-79,-30,59,-31,29,127,-13,13,29,-44,-1,-21,54,-55,-47,85,45,115,-5,16,-13,-58,5,-31,74,-36,-57,76,44,127,7,5,-40,-73,-16,-63,87,-47,-41,64,37,126,4,11,-76,-75,6,-52,57,-32,-26,25,69,107,-11,4,-85,-78,-22,-67,32,-3,-39,-16,84,96,-21,-9,-66,-79,-17,-72,-11,2,-72,-10,64,80,-22,3,-11,-87,-34,-60,-65,-7,-70,-5,64,63,-24,-14,11,-6,-102,2,-77,48,46,-15,66,-33,-7,4,15,-19,-63,-2,-73,35,25,21,60,-27,-18,12,24,-20,-47,4,-84,57,4,27,47,-55,-16,16,7,-8,-35,-14,-77,64,4,0,30,-95,-14,14,-14,-5,-33,-14,-76,77,19,2,34,-111,-8,19,-31,6,-60,-12,-83,69,21,-4,33,-127,16,8,-24,45,-96,-4,-41,60,8,-31,19,-120,11,-32,-61,-20,6,38,-10,-28,-61,-68,-56,-60,10,13,-79,-24,1,52,-45,-18,-56,-98,-99,-61,28,15,-107,-18,-18,45,-35,-59,-66,-115,-127,-79,8,19,-85,-35,11,15,-15,-59,-57,-82,-104,-73,10,13,-68,-8,11,4,-20,-53,-44,-70,-89,-49,8,8,-26,-10,59,16,-2,-39,-33,-51,-73,-25,7,0,-24,7,91,44,-2,-53,28,-32,-78,-10,0,57,57,49,29,11,41,63,39,21,-123,-70,5,37,50,40,18,2,22,68,53,29,-104,-89,12,26,28,28,13,9,1,68,59,31,-102,-89,-1,8,21,27,51,6,25,28,48,43,-127,-84,15,-3,17,27,59,-29,5,8,41,14,-107,-73,19,-33,34,39,76,-32,20,-34,24,26,-115,-64,18,-37,51,86,60,-49,19,-32,12,28,-104,-92,21,41,36,31,53,26,59,40,15,83,-112,-44,10,22,18,38,55,25,41,37,15,92,-120,-50,14,0,13,30,64,14,56,30,-3,85,-114,-30,19,-12,6,-2,72,-2,29,19,0,93,-120,-36,23,-15,15,-5,99,1,19,5,7,84,-127,-49,17,-16,9,18,64,-13,32,5,-10,76,-83,-46,34,-14,15,35,52,-6,48,4,-39,67,-79,-75,-5,36,27,27,16,14,38,51,17,36,-56,-43,-14,23,1,38,9,9,14,62,19,35,-58,-53,-14,22,-17,21,6,5,1,41,-2,35,-68,-39,-1,2,-15,-8,25,-8,-17,-3,-11,50,-98,-38,11,-16,-12,-8,63,-23,-18,-25,-8,44,-101,-36,27,-25,-10,3,84,-55,1,-39,-15,31,-121,-50,26,-38,-6,2,55,-56,12,-23,-28,24,-127,-76,23,-24,-36,-12,-62,0,-119,-59,-47,-1,60,23,17,-31,22,-7,-83,16,-127,-80,-57,30,79,7,18,-10,62,6,-63,0,-94,-49,-70,51,79,20,12,-2,70,15,-53,18,-106,-61,-105,57,81,30,16,1,64,11,-66,21,-103,-82,-109,60,57,19,27,3,50,15,-98,5,-86,-109,-105,33,55,-6,11,-3,37,40,-66,15,-45,-91,-102,12,85,5,54,57,85,20,-9,34,72,-127,-18,-8,55,-83,27,38,76,11,6,11,32,-105,-32,-19,75,-84,29,14,62,20,46,14,-23,-90,-20,-34,56,-61,34,21,82,-13,81,-6,-63,-110,21,-44,22,-35,18,6,70,-38,68,-2,-40,-69,-7,-44,39,-9,46,23,51,-63,80,-21,-24,-112,21,-39,53,-28,82,25,23,-107,61,-33,1,-103,-13,-80,46,-66,-6,-9,68,-29,-81,-1,78,-6,-91,-42,46,-2,-22,-2,74,-45,-127,1,72,-26,-92,-14,24,-9,-11,5,87,-31,-70,21,68,-23,-75,-7,40,33,-13,9,67,-25,-55,28,21,-16,-67,-7,60,49,-9,16,54,-37,-52,24,5,-15,-67,-4,48,40,7,5,30,-34,-80,27,11,-38,-78,-52,51,27,7,4,22,-27,-39,30,3,-67,-97,-42,73,28,-15,-8,62,-44,-14,-20,-14,-20,-19,-49,-65,13,-11,-2,91,-35,69,17,-5,14,14,-37,-26,12,-21,-14,26,-22,31,19,-27,43,29,-30,-18,-45,-6,-29,-98,-4,-36,12,-53,53,34,-2,1,-65,3,-23,-127,0,-72,-4,-67,52,38,38,0,-59,10,2,-78,2,-112,-19,-5,55,31,32,-23,-45,10,12,25,26,-116,-8,18,48,26,1,0,8,3,-20,-100,7,-76,0,-100,-8,46,-31,-3,-2,4,-4,-77,5,-64,-12,-127,-10,46,-36,-39,-26,9,14,12,38,7,-2,-83,0,8,-11,-20,-34,-5,15,52,71,66,9,-37,12,-8,-3,-21,-29,-4,6,40,72,80,7,-44,4,25,-7,-35,-24,4,-15,9,63,-1,14,-72,-11,37,-17,-11,-26,5,-1,-11,59,-44,17,-75,-6,52,-14,14,-33,-22,-18,-29,-58,-119,-85,38,-18,-57,-20,-71,97,-18,2,-42,-30,-127,-67,-5,-17,-37,-77,-97,91,-38,-4,-18,-17,-109,-50,-28,-19,-41,-81,-71,79,-24,-12,-45,-7,-118,-46,-35,-50,-30,-61,-41,26,-14,-25,-48,-25,-112,-68,-40,-61,-73,15,-22,-11,-13,-33,-45,-29,-100,-87,-20,-64,-95,19,9,-26,-1,-1,-8,-48,-118,-113,-4,-46,-123,48,-12,-26,5,-17,-37,4,-43,1,-119,-18,-2,-19,31,25,7,-3,1,5,-19,-7,-127,-31,1,-4,24,6,8,7,47,14,17,0,-104,-43,-13,25,-15,-10,-5,6,42,8,64,-7,-80,-27,-23,34,-16,-4,-10,6,26,16,55,-5,-70,-25,-10,35,-21,6,-1,-2,-6,7,-10,-6,-87,-41,11,29,-20,-2,8,-9,-45,15,-49,-7,-86,-48,18,-22,-3,-19,23,-32,-26,-30,127,55,-2,-68,-20,-40,-12,-4,23,-3,-42,-22,95,55,12,-46,-33,-34,10,-5,21,-3,-38,-39,80,66,-15,-29,-21,-30,14,-2,8,-12,-40,-38,71,50,-10,-29,-12,-4,22,4,11,3,-56,-37,56,36,-31,-28,-17,-8,33,6,10,-1,-64,-46,50,36,-58,-18,-14,8,46,46,14,-9,-97,-38,60,20,-83,-22,23,41,45,57,-7,1,-5,-77,13,-33,19,-25,-43,-73,-88,7,-11,13,50,-46,69,3,3,13,-4,-87,-47,33,-23,4,56,-16,39,29,-48,33,25,-80,-3,2,-7,-14,-72,-2,-61,35,-37,39,34,-11,-14,-42,5,-49,-127,7,-126,-4,-84,32,22,92,-37,-88,16,-46,-90,19,-123,-17,-48,45,-22,65,-25,-41,0,16,9,11,-111,-34,-38,31,-27,15,-33,7,-21,6,29,10,-68,-18,78,49,-34,0,-63,127,-18,11,37,32,-50,-11,63,5,-1,-38,-74,127,-16,-5,24,45,-39,-20,53,-11,12,-9,-68,126,-12,-22,5,14,-15,-3,35,-26,-2,23,-40,68,-5,-15,-18,-27,-33,-55,21,9,-53,75,-25,70,3,-1,2,-81,-28,-83,27,13,-92,76,-16,38,-2,17,27,-101,-58,-81,58,14,-123,58,-45,30,-21,-49,-28,-69,-72,-83,-34,-15,-71,0,-32,88,-41,-29,-47,-54,-106,-95,-76,-15,-42,-25,-42,47,-47,-20,-38,-17,-100,-79,-101,-18,-18,-48,-23,16,-19,19,-54,-27,-108,-93,-54,-26,-34,-55,-36,7,-18,26,1,-8,-107,-106,17,-29,-64,-59,-29,-22,-23,35,27,-19,-67,-122,53,-39,-88,-66,-48,-23,-23,55,44,-11,-27,-127,72,-34,-112,-37,-17,-31,-6,9,52,-20,-31,-20,73,6,-35,46,30,120,-3,16,7,-44,-38,-29,81,-23,-35,-4,15,117,-2,25,1,-59,20,-31,68,-30,-44,16,14,127,-1,20,-28,-51,49,-29,45,-16,-21,6,15,108,-19,5,-36,-73,41,-37,43,3,-52,14,17,85,0,-13,-45,-96,-20,-64,7,28,-94,35,3,67,-7,-14,-57,-105,-62,-65,-31,-13,-121,49,-2,53,-4,40,48,-2,-70,43,64,-30,-57,-20,110,-63,-29,31,28,-11,-75,46,72,-32,-76,-18,107,-60,-24,27,33,-8,-42,26,71,-46,-60,-20,127,-59,-25,12,26,-7,-15,41,47,-35,-37,-5,98,-31,-16,11,9,-4,10,22,68,-31,-56,-34,108,-30,-8,-3,13,9,1,5,77,-40,-77,-63,103,-35,24,-4,10,-4,-9,3,67,-65,-121,-70,100,-44,2,-11,35,-25,69,-19,40,-29,17,21,88,13,11,-24,38,-15,79,-23,29,-10,18,12,102,-9,4,-23,16,-25,117,-41,6,0,24,2,127,11,11,-22,26,-20,110,-20,-35,-20,29,-10,104,8,4,-20,26,-31,104,3,-29,-11,2,-20,82,22,13,-32,33,-50,91,5,-15,-14,15,-17,74,30,22,-34,6,-74,87,6,5,2,4,1,33,66,3,30,-13,-11,-33,-43,49,-22,-51,127,0,99,-9,16,-93,20,-20,-39,65,-35,-37,109,0,105,-7,-1,-100,16,-18,-57,56,-52,-9,50,10,88,-3,-8,-116,11,-27,-47,47,-40,5,41,33,97,9,-6,-88,-13,-28,-61,23,-29,-38,48,66,60,2,14,-36,-37,-6,-79,-18,9,-56,57,60,16,-6,32,52,-65,-5,-74,-38,19,-42,82,40,5,-12,-63,60,-55,127,42,19,5,28,-51,22,43,14,-82,83,-41,106,46,-17,37,58,-31,25,13,13,-109,51,-62,82,45,-34,54,39,18,15,6,44,-97,73,-32,68,48,-79,39,25,80,13,7,30,-84,42,-31,49,42,-55,69,31,71,34,-6,51,-100,36,-82,110,3,-41,60,20,65,22,18,64,-92,-5,-96,78,7,-33,52,48,60,-14,38,2,-2,9,45,-59,25,-93,-11,38,-23,127,1,-6,-19,-13,43,-49,38,-71,-35,12,-31,119,-28,-1,-25,-37,90,-10,19,-80,-51,9,-55,117,-7,-4,-22,-44,102,1,35,-99,-61,22,-75,100,6,8,-22,-29,84,-5,33,-76,-61,-10,-91,101,11,18,-20,-25,72,-6,12,-95,-49,-13,-77,81,18,25,-18,-6,53,-31,-3,-94,-66,-34,-86,87,33,7,45,39,14,24,69,29,-97,6,-52,102,-66,-5,35,35,7,22,45,11,-96,15,-50,111,-56,-3,34,31,-8,40,31,7,-70,33,-54,111,-35,-18,16,33,-19,52,31,-16,-87,24,-50,96,-14,1,19,11,-24,59,16,3,-68,23,-47,81,-16,17,11,27,-46,33,32,-2,-75,49,-43,111,-4,34,17,-7,-92,15,47,-29,-87,39,-67,127,-31,18,66,13,-24,108,14,40,-57,14,-64,-34,-38,6,67,11,-34,59,26,-15,-41,39,-77,0,-43,2,62,-30,-68,58,-12,-42,-55,33,-73,-3,-64,7,75,0,-90,40,-19,-24,-56,35,-69,-19,-62,30,39,1,-83,33,-22,-29,-59,29,-73,-4,-32,36,47,-10,-104,43,-41,3,-44,42,-38,-24,-48,52,10,-43,-127,51,-43,-10,-60,77,-17,-61,-31,-19,70,55,20,53,-26,73,-18,81,-69,-3,-51,38,89,41,-26,5,-56,-40,-3,69,-61,77,-74,24,73,5,-48,-18,-69,-27,-46,113,-102,41,-83,43,61,10,-80,-15,-42,6,-86,74,-66,22,-101,19,32,28,-88,20,-69,-11,-79,62,-41,42,-77,59,35,24,-52,62,-127,-8,-74,83,-46,-11,-109,87,23,20,-68,81,-114,6,-86,85,-18,-72,-123,-30,2,49,11,-10,46,-30,2,-6,-10,-38,-57,-22,7,29,10,19,31,-38,-7,-66,6,-44,-54,-26,21,23,4,23,18,-41,-47,-106,-12,-66,-74,-12,8,-5,0,44,-9,-25,-67,-127,-51,-105,-75,3,17,-16,-4,48,-6,-13,-48,-115,-87,-120,-72,6,30,-11,10,49,13,-18,-40,-80,-82,-114,-68,3,44,25,11,37,13,-23,-25,-45,-50,-103,-51,-6,3,103,-22,45,25,-55,-15,11,-20,6,27,-7,-24,-22,-21,9,33,-62,1,49,-6,17,11,-1,-31,-127,-23,-64,20,-53,-4,47,17,5,-14,-1,-37,-118,-11,-69,-2,-59,-3,12,-4,-1,-27,6,2,-18,1,-39,-18,-45,4,-25,-3,8,-19,-2,38,71,-5,20,-19,-31,-6,-26,-2,2,-13,-17,18,39,4,78,-8,20,-5,-2,2,-10,-6,-14,8,5,12,-2,17,48,70,-18,38,-9,20,-9,-14,-5,22,20,-1,43,43,3,40,-28,19,2,-21,1,24,65,-4,32,22,-5,40,-38,31,7,-24,6,13,86,-16,10,-12,-19,49,-73,10,14,-32,14,-12,87,-24,13,-22,-33,44,-91,-7,30,-39,2,-21,60,-36,9,-6,-30,38,-105,-27,23,-22,-19,-28,30,-26,-15,-5,-33,30,-127,-31,21,-1,-33,-4,0,-6,22,23,5,40,-16,26,21,9,6,-4,17,-17,19,19,-23,3,-45,30,12,23,62,1,40,-10,-27,-21,-29,-21,-44,28,-22,20,77,-4,65,7,-37,-23,-18,-22,-14,12,-54,-10,68,5,86,21,-64,-13,-18,-2,-29,-47,-39,-33,17,5,74,15,-127,-19,-34,41,-5,-15,-18,-28,-25,11,41,-15,-110,-6,-10,89,-17,-2,18,16,120,-36,1,-22,-15,-7,-64,45,-26,41,-5,27,87,-13,42,5,35,-13,-43,23,-35,18,-20,9,-28,8,52,10,35,-25,-15,-12,-42,24,-16,-35,-120,37,-10,11,-9,-25,29,-21,-39,16,-9,-36,-127,26,-86,1,-55,-22,40,-6,-12,-20,6,-12,-84,19,-112,-20,-76,-11,13,17,-4,-40,0,4,-20,17,-58,-51,-81,-10,-7,34,-18,-27,-13,5,40,-11,-36,-16,51,-17,-32,49,37,127,7,16,5,-25,-29,-31,69,-26,-24,31,33,120,-2,18,-24,-56,0,-39,52,-33,-26,36,10,122,-7,24,-51,-67,23,-39,49,-25,-15,9,30,104,-4,8,-53,-78,22,-48,23,-10,-56,-9,51,102,-5,3,-48,-110,-17,-68,10,16,-93,15,32,73,-7,1,-46,-122,-45,-65,-27,-13,-123,32,24,64,-17,-6,48,39,82,13,3,-16,12,84,1,36,-31,11,51,32,58,15,-17,-22,20,127,2,41,-14,24,24,20,24,-16,-45,-34,18,108,3,5,-3,19,11,11,1,-28,-71,-48,22,77,3,0,-1,11,6,21,7,-27,-77,-47,12,60,-8,-16,2,1,14,17,1,-29,-73,-27,15,44,-7,-23,-1,-9,5,23,7,-26,-60,-2,15,29,15,-18,7,-28,-48,3,-3,-4,28,9,27,-77,-17,10,23,-18,-24,-4,9,-17,10,5,9,-46,-48,19,2,6,36,-11,35,-8,-1,22,10,13,-46,50,-45,22,95,2,62,-11,20,41,11,87,-34,46,-84,20,111,-5,51,-17,24,53,17,126,-34,2,-65,1,75,0,20,-43,-27,40,11,127,-3,-27,-17,-11,13,26,-22,-54,-97,-7,26,112,-6,-54,-10,15,14,-2,-44,50,-50,-14,41,-6,96,4,3,-1,11,2,-45,41,-95,-41,28,-25,102,-7,7,-1,-37,33,-37,43,-85,-62,1,-45,98,-20,-3,-6,-66,33,-10,32,-89,-76,21,-95,105,-2,-4,-23,-65,35,-17,52,-65,-59,-4,-125,127,16,14,-25,-69,50,-21,37,-53,-57,13,-123,95,52,16,-13,-46,37,-51,19,-49,-47,6,-111,87,49,-5,-28,-53,7,-47,-31,-27,-29,23,-50,89,65,-14,-29,-20,4,-22,-39,-21,-29,19,-42,80,60,-15,-40,-4,12,-15,-37,-17,-25,20,-40,77,57,-15,-36,-3,31,-7,-37,-39,-36,31,-48,74,67,-5,-34,12,31,12,-30,-35,-33,43,-57,72,90,-9,-42,28,40,17,-33,-44,-35,35,-58,68,112,0,-47,24,40,12,-33,-64,-53,26,-65,76,127,-11,28,15,-34,10,35,-37,-11,38,25,95,-41,-19,4,6,-26,22,41,-30,-25,36,32,101,-31,-17,-9,-46,-16,1,43,-34,-35,22,-3,106,-24,-15,-13,-79,-17,-13,37,-41,-38,13,-55,127,-13,0,-9,-89,-22,-37,41,-8,-40,-24,-86,116,10,7,-14,-85,-17,-49,49,2,-40,-21,-97,68,31,5,-6,-49,-26,-45,34,7,-34,-26,-86,64,26,-24,14,17,47,-8,16,14,61,14,12,-13,-30,-17,2,3,28,-17,14,-5,39,-5,-11,-31,-33,-10,1,6,0,0,-8,-16,-5,-39,-34,-54,-39,8,0,19,-14,9,-20,-16,-58,-58,-54,-88,-42,24,-12,10,-28,16,-34,-15,-60,-75,-68,-122,-38,25,-12,-5,-19,18,-29,-26,-51,-81,-64,-127,-25,16,-3,-14,-10,6,-21,-20,-23,-48,-24,-110,-17,-27,15,11,26,-7,-8,42,81,23,30,-7,8,-16,4,8,25,-12,-11,12,55,22,4,-7,-2,-17,8,-16,18,20,-9,4,24,-6,4,2,9,-1,-11,-16,5,40,-32,-15,-23,-26,-5,-30,-8,20,-14,12,-20,59,-42,-9,-32,-31,-19,-73,-28,24,-33,7,-53,86,-68,4,-45,-65,-18,-118,-41,40,-30,-11,-55,48,-74,-24,-25,-79,14,-127,-25,1,14,3,-75,127,-3,41,-7,-10,-60,-85,-23,19,17,10,-65,107,47,12,8,-10,-43,-45,-3,12,3,-9,-61,99,80,-42,4,-12,-24,-22,9,21,-56,-23,-71,42,73,-58,-17,-37,40,-26,7,16,-62,-48,-53,16,45,-10,-3,-64,34,-24,42,-8,-47,-35,-63,41,74,-22,-25,-69,22,24,58,-9,-35,-28,-83,59,75,-18,-26,-6,24,25,87,-38,-2,71,-26,32,48,65,37,37,-39,-48,109,-17,24,79,-35,44,44,61,53,62,-91,-39,101,-21,9,73,-62,34,20,51,47,36,-86,-41,113,-2,-12,34,-47,23,24,33,21,0,-27,-52,91,21,-16,-13,-82,65,-10,52,55,-25,29,-45,88,15,-22,-31,-111,-1,-44,66,68,-76,24,-33,71,-11,-24,-121,-127,-21,-64,22,5,-97,21,-94,111,-23,41,24,58,-39,5,22,82,54,24,-11,-31,-22,26,18,35,-51,12,-7,91,46,4,-15,-40,-21,7,-9,10,-29,-17,-28,40,22,1,-34,-34,-1,-10,-3,-14,-2,-27,-23,-11,-17,0,-81,-53,-3,-15,-4,-24,31,-55,-11,-41,-6,-26,-107,-60,-2,-17,-6,3,55,-64,-10,-51,-36,-44,-122,-61,22,-17,-27,10,46,-56,1,-40,-41,-35,-127,-53,-8,14,-32,-21,-22,-46,-7,75,38,-48,0,21,-8,33,39,8,29,-55,-21,62,46,26,32,66,-42,43,104,29,47,-29,6,83,40,75,35,37,-34,25,118,18,55,-14,9,100,43,103,36,1,-37,-12,88,19,4,-58,-27,53,40,90,38,-35,-33,-23,29,34,-49,-43,-64,44,39,107,25,-25,-12,-27,10,23,-65,-55,-80,21,32,127,29,-29,12,-19,0,-17,43,-63,7,28,-26,78,26,125,12,-5,38,-21,3,-71,0,6,-53,76,48,119,8,1,56,-45,3,-53,-6,-5,-76,85,39,127,-3,5,16,-53,-8,-43,-27,-27,-57,54,-4,95,-14,10,-18,-64,-51,-49,-47,-45,-57,10,-18,56,-20,-1,-32,-60,-76,-55,-83,-45,-71,13,-34,36,-20,-12,-18,-56,-41,-57,-64,-30,-83,7,-40,26,-19,-23,-106,-37,-67,-44,-11,-40,23,-45,118,98,-15,-25,-72,-38,-68,-56,-3,-40,14,-28,92,89,-18,-29,-50,-34,-60,-47,7,-27,11,-33,74,89,-24,-21,-32,-26,-40,-44,-21,-39,25,-45,75,106,-12,-37,-1,-20,-22,-43,-27,-38,51,-46,64,113,-24,-38,13,-17,-33,-40,-34,-53,59,-64,69,107,-33,-36,5,-5,-24,-42,-38,-62,62,-60,73,127,-21,33,41,54,44,13,20,66,50,-11,-100,-91,16,66,28,63,19,14,-5,88,62,-20,-104,-86,-11,66,5,42,-9,-5,-26,75,73,10,-127,-91,-12,32,-17,41,28,10,-14,38,45,27,-107,-108,17,-5,2,19,34,-38,-15,20,64,18,-94,-77,33,-34,-7,53,85,-45,13,-34,19,61,-122,-76,35,-60,7,92,96,-83,37,-34,-2,45,-119,-89,-17,0,64,6,8,17,-122,-6,74,-1,-14,-47,-23,-3,75,2,32,18,-74,-6,21,65,12,-42,-36,-9,52,-5,-1,40,-78,-38,-35,52,-32,-53,-6,-18,-34,2,-10,-7,-73,-53,-75,-33,-20,-52,31,12,-102,-13,-24,-8,-69,-88,-71,-87,-51,-63,48,26,-88,-11,-15,11,-59,-82,-80,-121,-89,-65,33,30,9,22,-39,54,-33,-20,-13,-127,-62,-38,2,-1,46,-55,-29,82,-120,-81,86,-10,-47,9,0,11,31,-43,10,92,-127,-69,60,16,-14,4,-12,-6,-8,-24,28,70,-99,-55,60,17,-23,6,-22,-15,-89,-22,9,45,-99,-53,45,-15,26,5,-19,2,-105,-30,31,55,-73,-28,15,-23,61,1,6,-26,-108,-20,9,63,-64,-7,28,-37,58,21,20,-17,-114,-24,-4,59,-25,-1,44,-13,41,23,-31,-47,6,-51,-20,-58,-84,-23,3,-105,127,-2,-30,-24,50,-59,-39,-66,-66,-54,-9,-70,93,1,-20,-18,50,-57,-70,-69,-30,-62,-6,-44,59,-36,-55,-29,36,-32,17,-54,17,-39,-13,-48,35,-21,-71,-33,10,-27,19,-40,18,-20,-4,-66,50,-2,-48,-34,13,-42,-40,-14,-12,-62,-17,-72,16,-28,-33,-23,-8,2,-48,-37,-34,-81,-53,-98,11,-58,-10,7,22,-18,3,-56,56,43,-4,38,38,17,3,5,31,-26,-21,-57,-9,58,28,21,53,5,9,19,7,-23,-22,-41,-17,31,44,-2,41,-1,2,6,9,-27,-41,-41,-4,13,4,-11,21,-8,22,-18,13,-24,-27,-52,26,-15,29,1,-18,-10,34,1,13,-38,13,-100,26,-17,-2,31,-65,-23,33,-15,20,-19,50,-127,49,15,24,34,-116,0,-11,-15,33,-30,-25,21,-35,-25,-14,-74,-29,-47,13,-7,-63,-13,-58,3,-69,-31,-19,-104,-44,-48,40,-3,-119,-28,-70,-4,-64,-61,-31,-127,-81,-58,40,0,-116,-31,-36,16,-16,-46,-54,-106,-64,-46,17,-11,-26,-12,15,13,16,-1,-51,-72,-76,-48,7,-2,22,1,64,27,34,31,-31,-26,-50,-26,6,-5,13,21,79,47,48,28,21,-3,-17,-36,18,64,1,-24,-57,108,2,-95,73,-38,15,15,-17,58,-9,-19,-49,97,4,-80,80,-25,27,26,-10,67,-7,-36,-30,96,5,-78,69,-31,47,18,-26,59,-2,-44,-28,100,-9,-79,68,-38,55,47,-22,38,-20,-54,-34,127,-1,-31,49,-38,84,62,-24,42,-20,-52,-43,119,-7,-52,58,-26,94,73,0,29,-38,-81,-35,110,-20,-52,54,-56,117,80,22,4,8,-5,37,0,-84,-6,5,64,-19,82,14,9,35,-12,61,-3,-113,-39,1,83,-15,71,-8,6,45,1,79,-5,-108,-52,-3,115,-27,54,-12,7,-10,0,66,-25,-110,-54,-3,127,-16,54,-11,4,-48,-15,23,-43,-107,-65,4,107,-26,28,-14,1,-46,-16,-12,-46,-114,-62,-9,79,-37,-4,-8,-3,-54,9,-15,-35,-87,-55,5,38,-27,-14,9,-16,18,-19,47,-5,31,-62,17,0,83,-2,1,-12,27,-12,61,-9,27,-39,49,-8,102,-3,0,-14,12,-26,115,-19,5,-50,48,-30,127,5,8,-1,26,-22,103,-3,-23,-44,33,-31,94,9,15,-19,28,-48,115,4,-17,-7,28,-19,101,27,22,-21,11,-57,107,9,-13,-7,18,-7,91,25,3,-40,-11,-98,88,15,-15,5,11,-15,79,70,-10,17,29,-16,-58,-8,61,-10,-34,37,29,126,2,14,1,-24,-62,-13,67,-31,-26,21,17,100,0,12,-27,-46,4,-36,57,-32,-22,8,9,111,-12,28,-52,-40,35,-22,48,-25,-2,-10,15,100,-6,5,-47,-61,34,-39,14,-7,-33,7,27,101,3,-6,-25,-102,-12,-79,-11,17,-97,29,28,65,2,-2,-15,-119,-59,-73,-32,-9,-127,53,20,30,-35,3,70,1,-8,16,-34,3,44,6,-77,5,-25,-1,32,2,-10,0,-80,-3,43,14,-84,-21,-8,16,-28,-9,-14,-4,-68,-27,-3,3,-52,-32,5,7,-56,7,39,-6,-35,-48,-72,-31,-65,-75,-4,9,7,15,80,-3,-41,-64,-90,-67,-86,-69,-35,13,71,19,117,0,-32,-44,-127,-52,-109,-69,-28,33,62,47,103,-7,-15,-20,-65,-6,-93,-46,2,32,44,-11,2,-25,-39,0,-95,127,-27,15,-8,23,5,13,3,-15,7,2,-88,97,-26,3,-9,16,-50,36,-11,-11,36,-15,-53,60,-44,0,-5,2,-77,77,-35,-15,45,-34,-13,36,-25,5,-3,-13,-79,84,-84,-22,43,-45,-1,14,-3,4,4,-12,-60,91,-114,-18,26,-54,-8,10,-1,-16,-2,-17,-48,98,-91,-22,9,-52,10,-14,-31,-24,11,6,69,-32,-78,38,37,-9,-83,6,42,6,-13,10,82,-29,-79,37,49,-33,-48,6,28,5,-7,29,85,-23,-37,42,48,-36,-42,32,25,30,-14,15,54,-16,-9,48,15,-46,-56,18,30,47,-7,18,36,-26,-34,39,25,-30,-76,8,40,61,1,-7,17,-27,-61,27,29,-44,-67,-15,60,43,20,2,-9,-18,-58,30,26,-58,-127,-26,78,47,1,-45,-10,55,6,-4,-127,-63,-38,-31,-13,-14,-4,-23,16,71,25,3,-104,-50,-38,4,-5,0,-10,-42,29,90,18,9,-101,-37,-34,20,2,13,-13,-56,37,110,17,1,-83,-20,-31,30,17,1,-1,-52,22,101,3,-8,-82,-5,-21,30,18,25,0,-51,3,96,0,-12,-95,3,-3,35,28,38,-2,-68,-1,88,14,-6,-97,3,-1,27,44,39,21,17,-2,-13,-80,-4,-18,-30,27,1,-50,24,11,19,64,-13,-15,2,-21,-25,12,8,-50,6,-29,-6,92,-19,51,17,-56,-28,2,8,-5,-35,-33,-32,23,-29,81,34,-73,-1,-3,20,14,-31,-20,-39,-110,-37,19,18,-96,-5,5,25,44,-39,-10,-23,-127,-20,-36,21,-44,2,5,13,50,-35,-9,8,-79,-34,-41,22,0,11,-9,-5,28,-18,2,8,3,25,58,20,-24,-22,13,34,-23,10,-2,19,2,24,51,16,-35,-32,8,82,-28,19,8,17,2,15,32,4,-55,-43,-3,93,-31,8,1,15,21,15,40,-10,-66,-54,-11,99,-29,-2,1,8,37,14,68,-20,-66,-60,-15,126,-31,-7,-18,4,36,19,54,-25,-53,-44,-12,127,-33,-9,-15,-1,-1,21,36,-35,-34,-32,-10,115,-27,-12,-18,-22,-68,-39,-7,-26,25,-35,-5,-19,-22,41,-12,1,-127,-53,-60,-25,-23,-44,34,-12,-27,17,-17,9,-116,-42,-82,-34,-86,-52,30,-27,-11,7,-2,5,-98,-31,-84,-47,-58,-18,15,-26,17,4,0,6,-32,-17,-42,-46,-16,-24,-40,3,23,-9,7,-3,4,-17,3,-46,-14,-23,-64,-10,41,-6,-13,23,-11,-18,32,-54,-29,-45,-72,15,18,-9,8,7,0,-1,-33,-13,-29,0,8,63,-40,26,-7,10,-71,17,-10,-8,-4,-1,19,34,-52,2,-11,4,-106,42,-12,-8,5,-3,31,-2,-50,14,-7,-14,-127,58,-19,-13,-7,-10,42,-4,-38,3,0,-25,-110,45,-43,-21,-7,-19,31,22,-20,-9,8,-16,-59,38,-45,-31,-40,-17,28,19,-1,-25,5,14,11,11,-14,-43,-26,7,12,21,3,-42,-16,19,-37,19,38,21,58,14,-12,-1,-11,40,-14,33,-38,2,39,-2,13,18,-5,-14,-28,29,10,15,-47,-11,37,-14,-14,-4,-21,-39,-49,17,19,3,-27,-18,50,-21,-27,-48,-37,-33,-62,15,35,-23,12,-40,44,-28,-22,-56,-87,-45,-101,0,47,-40,-11,-77,68,-70,-45,-48,-88,-40,-119,-11,38,-45,-67,-95,51,-73,-51,-22,-98,14,-127,11,9,-11,52,-28,-68,-6,25,-19,-120,-8,61,9,-6,5,60,-27,-86,12,41,-38,-81,9,56,13,-5,8,72,-40,-74,13,25,-36,-82,2,75,30,-15,14,39,-32,-69,23,11,-30,-88,7,66,47,-10,10,37,-30,-36,17,3,-14,-77,-3,61,39,3,-4,8,-27,-67,7,14,-37,-84,-30,61,32,18,-6,-2,-7,-85,6,6,-48,-127,-39,82,43,10,-13,40,20,-77,-57,85,26,-3,-20,14,34,5,-9,36,15,-82,-56,108,18,-17,-18,-2,16,0,-9,44,8,-79,-46,127,12,-18,-29,-13,37,0,7,31,-12,-76,-34,87,9,8,-22,0,48,0,10,50,-10,-88,-22,59,3,11,-57,11,39,-5,5,46,-13,-92,-22,36,-7,14,-62,-1,14,-22,-5,49,14,-73,1,47,-13,-2,-70,3,3,18,30,-37,34,-116,44,8,69,53,-122,19,75,27,13,-34,34,-89,32,13,65,51,-95,22,73,21,8,-13,25,-96,25,25,59,5,-68,3,55,21,20,-17,24,-49,23,-1,87,17,-65,44,34,18,12,19,26,-39,46,-33,66,34,-61,70,38,12,-9,22,35,-38,56,-77,32,36,-68,95,14,17,6,38,50,-35,54,-123,3,34,-93,127,7,10,2,22,-57,-37,-33,3,-2,-66,64,50,85,20,14,42,-56,-61,-53,-7,-30,-92,92,55,82,8,22,38,-49,-3,-23,9,-38,-73,105,53,85,-3,18,2,-34,25,-21,-5,-32,-63,50,49,101,-6,8,-26,-34,19,-24,-29,-27,-67,25,46,85,0,-12,-42,-38,-24,-48,-31,3,-86,20,42,77,-2,-7,-37,-39,-20,-55,-59,-14,-127,12,49,65,-4,23,69,-20,34,-50,88,44,-5,104,69,-7,0,30,67,2,4,-41,12,35,20,14,67,14,6,14,45,-28,0,-53,-7,10,35,-12,94,-7,7,4,57,-24,13,-52,14,-39,14,5,50,-5,28,3,49,-22,26,-60,14,-32,26,20,22,-12,62,-3,46,-49,87,-104,22,-51,-26,21,-41,-28,46,-25,43,-87,90,-121,62,-38,12,56,-127,-23,-18,1,-14,22,24,-9,35,72,-11,45,-20,13,-7,-9,-9,11,26,-20,11,54,-23,40,-40,4,4,-20,-8,3,66,-28,-1,30,-35,23,-51,14,27,-21,19,-27,84,-40,-23,2,-39,11,-83,-1,30,-29,39,-46,70,-54,-17,-4,-56,11,-103,-15,37,-21,21,-46,46,-57,-29,1,-62,14,-112,-22,38,-25,-11,-57,15,-40,-47,15,-73,39,-127,-14,-12,-50,-39,-17,-37,-101,-83,40,-37,7,55,105,-18,-3,-19,-38,-53,-127,-115,44,-50,4,28,79,-29,45,32,-35,-57,-119,-77,57,-59,-16,-23,85,-6,45,22,-51,-62,-115,-76,50,-54,-19,-13,63,-26,17,40,-36,-75,-95,-57,-4,-32,1,-47,14,-32,10,24,-1,-53,-76,-58,-31,-61,7,-58,-24,-15,6,-11,35,-50,-79,-26,-23,-65,30,-54,-14,-21,-15,3,-33,-51,-52,-108,17,-20,17,34,-2,-9,-4,-8,-44,-37,-48,-127,23,-15,-12,19,0,-19,11,-6,-41,-41,-56,-114,19,-25,-23,16,-4,-22,20,5,-38,-10,-56,-83,28,-26,-46,11,-9,-18,24,15,-27,-1,-62,-65,4,-27,-31,-17,-29,-17,21,7,0,-6,-42,-30,1,-28,-23,-14,-42,-22,22,12,31,5,-55,-7,18,-30,-4,-8,-50,19,-2,-31,-30,-94,13,-59,27,127,-47,-36,54,10,-3,-38,-10,-65,9,-37,10,99,-46,-37,48,4,1,-29,0,-49,10,-13,21,81,-34,-27,52,3,-7,-43,8,-39,17,-20,41,81,-52,27,46,7,1,-55,25,-54,37,-29,25,65,-92,65,60,14,-3,-38,11,-83,43,-80,-20,81,-113,60,57,15,9,-16,27,-93,69,-89,-16,95,-117,69,57,-5,-31,8,17,-127,48,36,5,-34,36,-2,47,-4,-9,4,5,-117,29,35,-7,2,42,-14,28,6,26,15,-4,-7,16,29,8,6,24,16,84,0,40,8,-23,27,7,27,23,-28,24,54,116,-4,24,3,-40,13,-7,17,11,-66,15,63,97,14,5,-1,-87,3,1,46,1,-93,-5,41,104,25,4,-30,-112,-52,-3,25,-6,-107,11,25,111,4,2,-8,-39,85,-21,-57,-17,-8,27,49,84,-4,0,-21,-39,84,-41,-40,-22,3,29,45,100,-6,5,-23,-49,55,-43,-63,-25,17,28,31,87,-4,11,-12,-63,41,-29,-57,-18,7,26,31,66,-9,2,-7,-65,32,-29,-97,-32,-7,37,8,43,-16,-4,-1,-60,38,-15,-127,-18,-14,18,-5,29,-16,-9,0,-57,34,-8,-127,-23,-17,24,-17,30,4,31,-46,42,-25,-6,-124,12,-6,16,-6,-21,1,21,-37,71,-4,-5,-99,-1,7,31,3,-22,1,10,-29,99,-10,6,-75,8,6,28,11,-32,13,13,-31,99,-27,-3,-92,-23,27,16,26,-23,15,22,4,111,-37,-13,-79,-39,12,7,27,-32,13,18,21,113,-57,-19,-89,-46,21,-15,25,-43,6,3,12,127,-45,-4,-74,-18,30,-10,23,-36,20,6,108,-28,-100,3,59,-24,-82,6,97,-31,-8,9,88,-31,-92,1,46,-54,-81,-5,97,-19,-16,16,103,-17,-60,31,41,-34,-63,-17,79,5,-34,14,101,-28,-57,36,14,-48,-63,-15,92,23,-14,13,84,-33,-39,52,34,-48,-54,-19,73,31,-11,9,79,-36,-49,31,48,-71,-79,-40,69,35,6,16,44,-34,-38,34,60,-91,-127,-55,82,46,8,7,123,-23,7,-3,-60,-23,6,36,-20,-1,-11,3,86,-14,27,9,-28,-22,0,52,-5,-1,-10,-12,-36,-8,6,7,-15,-15,21,5,-7,6,-4,-23,-113,-3,-33,14,-10,-11,26,-20,13,5,4,-9,-127,-7,-52,2,-26,-20,18,-40,53,-5,12,0,-61,8,-37,-1,-22,-10,17,-49,39,-21,2,3,18,28,16,0,-6,11,28,-28,31,1,-4,24,-17,11,-6,11,64,61,-12,55,-12,37,-5,11,-38,33,7,17,47,43,15,52,-14,44,2,-8,-47,44,38,28,16,17,23,54,-3,61,1,-31,-26,37,84,12,-5,-18,25,51,-45,22,15,-38,-2,-3,103,-14,-3,-28,-2,42,-64,-7,30,-51,3,-38,86,-50,3,-29,-33,36,-100,-30,46,-28,-12,-55,57,-52,-11,-15,-52,45,-127,-47,14,8,9,31,-90,-55,104,26,23,0,3,30,-1,6,15,28,-108,-44,110,32,23,-10,-11,39,-5,17,28,30,-113,-47,126,33,18,-16,-22,20,2,-1,26,32,-108,-34,127,6,17,-16,-18,15,6,-8,25,23,-97,-45,108,-17,34,-26,-10,21,7,9,25,12,-94,-50,72,-28,13,-34,-22,5,11,1,21,21,-101,-57,70,-22,-14,-41,-13,-6,17,91,-4,3,67,50,10,-105,-3,-53,14,-79,2,100,-21,-6,80,53,4,-114,4,-53,49,-108,2,74,-58,-45,60,18,-3,-103,14,-63,40,-90,-3,80,-7,-75,50,15,-3,-93,24,-39,13,-74,9,56,-28,-81,30,22,16,-69,30,-51,16,-60,18,50,0,-88,28,27,0,-81,28,-55,48,-66,48,44,-15,-127,9,14,9,-112,40,-83,30,-113,-14,-20,-104,-31,-71,-35,-8,-40,25,-49,120,85,-20,-28,-62,-37,-61,-53,-3,-33,6,-39,98,80,-21,-25,-44,-29,-71,-38,0,-26,14,-42,84,74,-18,-24,-34,-21,-43,-41,-22,-38,25,-43,89,93,-14,-28,5,-16,-17,-39,-34,-40,54,-54,72,116,-26,-32,5,-8,-26,-37,-37,-49,46,-67,68,108,-30,-26,-6,-8,-41,-46,-44,-66,44,-74,75,127,-11,-9,0,-21,-2,-46,54,57,-6,46,17,30,1,14,26,-27,-21,-52,14,42,8,22,39,17,14,9,14,-16,-29,-36,-6,33,7,-19,29,8,12,13,14,-13,-32,-50,17,4,16,-2,4,10,5,-5,9,-10,-26,-70,19,-21,22,3,-17,-5,21,-23,14,-20,18,-79,25,-25,-22,11,-62,-16,36,-18,20,-42,33,-97,55,6,-10,39,-127,12,10,101,14,34,38,124,9,-104,-2,-67,90,-71,7,93,4,-7,39,89,21,-127,-21,-60,98,-71,0,71,-18,-15,36,58,4,-105,-19,-54,58,-91,-11,79,-14,-62,66,39,3,-97,8,-40,57,-102,1,54,-23,-57,29,34,20,-69,41,-40,65,-80,33,49,-16,-69,2,72,9,-87,69,-61,97,-63,30,40,-8,-101,-39,63,-2,-86,78,-90,123,-83,-14,1,16,14,-24,48,-35,6,-30,-10,32,-41,-9,2,3,6,-1,35,-33,-7,-64,-12,30,-33,-11,7,9,3,15,29,-24,-30,-100,-38,7,-30,-9,0,-8,-7,36,16,0,-43,-127,-59,-36,-44,2,2,-20,5,34,17,11,-34,-117,-96,-60,-32,13,17,-2,9,24,24,0,-28,-91,-95,-53,-23,15,25,20,18,16,33,-4,-4,-74,-77,-43,-11,-31,78,-32,-54,71,68,63,-30,34,-41,-30,52,-18,112,-21,-59,37,71,42,-55,23,-94,-20,23,-7,91,-22,-92,-18,54,17,-84,35,-120,-59,15,-15,98,-38,-73,-22,17,9,-97,-12,-127,-58,2,-5,62,-39,-57,-5,5,-8,-108,-55,-104,-64,3,-29,63,-30,-77,12,-18,-6,-104,-61,-96,-67,54,-23,56,-64,-111,24,-49,-49,-80,9,-52,-99,75,-13,-20,50,0,-23,-49,46,26,-23,20,-9,123,-17,3,33,-34,-45,-52,11,0,-14,-32,-12,127,-12,16,40,-33,-38,-55,-1,-9,-10,-50,-39,118,-18,16,19,-45,-14,-37,33,6,-50,-39,-56,89,-25,1,18,-69,-4,-41,16,-24,-68,-13,-43,71,-23,-20,16,-79,-35,-73,10,-8,-91,-12,-54,68,-17,-14,17,-87,-73,-72,31,17,-89,24,-61,45,2,-7,41,43,-52,60,-38,31,-56,-69,51,17,4,-1,71,18,-35,48,-12,1,-94,-28,54,19,-9,-5,72,20,-73,43,-18,-3,-88,-33,49,31,3,7,66,-1,-74,47,-70,-2,-118,-36,48,39,15,7,43,-5,-99,39,-90,-21,-122,-73,53,11,22,5,5,16,-86,42,-84,-37,-126,-98,70,1,31,1,-4,22,-75,31,-80,-58,-127,-91,82,2,-8,56,-48,-11,91,44,-18,-114,2,-120,-66,-58,29,95,-46,-43,67,39,-49,-73,1,-87,-48,-58,23,72,-64,-69,40,26,-50,-83,33,-56,-54,-96,21,64,-61,-89,13,11,-16,-42,47,-53,-26,-86,-10,62,-43,-86,17,23,-17,-39,87,-31,-5,-41,23,45,-27,-60,26,38,-32,-15,89,-14,42,-23,19,16,-16,-58,34,48,-51,-21,127,-17,62,-24,4,-2,42,38,-46,36,-29,29,-69,-52,61,13,-13,-10,58,27,-44,34,2,19,-98,-44,58,19,-1,3,56,26,-74,51,-13,7,-98,-53,60,40,3,5,50,7,-77,35,-74,7,-106,-58,50,34,18,3,32,7,-69,38,-93,-16,-127,-78,66,22,20,10,9,12,-60,39,-95,-37,-126,-89,66,11,32,-4,6,12,-65,32,-83,-51,-120,-78,68,-1,-5,28,32,27,8,34,28,96,24,115,2,-29,-18,2,26,27,-4,22,6,86,2,91,14,-33,-1,0,13,11,41,3,5,60,-2,62,-14,-7,-8,0,24,-1,71,-25,5,17,4,51,-46,-26,16,-18,35,-31,80,-32,4,4,-17,18,-74,-37,28,-13,36,-40,72,-37,14,-14,-15,5,-103,-71,49,-13,19,-39,66,-33,27,14,-23,21,-127,-93,-3,1,40,-13,41,-7,54,-22,15,38,121,-8,-2,-12,39,14,51,-17,39,8,25,30,109,-12,5,-7,34,1,110,-42,15,14,8,7,107,11,11,-19,39,8,115,-6,-18,-20,13,4,92,18,6,-32,48,-31,127,-2,-26,8,22,3,86,9,21,-23,50,-58,121,-14,-12,-6,19,-12,62,41,38,-38,30,-91,86,15,-14,3,-28,23,36,43,-14,-13,42,-20,0,-32,40,15,-17,1,-27,127,-16,0,43,-19,-30,-42,16,-18,-9,-33,-8,115,-14,-5,31,-13,-46,-46,18,-13,-9,-43,-23,89,-16,-1,20,-18,-36,-44,31,-20,-32,-27,-37,60,-19,2,2,-34,-26,-50,31,-29,-47,-5,-36,53,-16,-5,-2,-40,-47,-66,22,-25,-60,-10,-40,27,-13,3,17,-61,-74,-77,45,11,-63,-7,-60,38,-57,94,28,-26,80,90,5,-66,35,-21,19,38,-42,107,46,-35,51,83,21,-44,64,-97,31,30,-18,105,10,-82,40,71,2,-72,79,-109,5,14,-32,92,21,-92,30,43,23,-67,55,-111,-28,7,-24,86,30,-68,25,31,31,-48,31,-127,-37,20,-13,87,-21,-96,31,16,22,-51,54,-120,-28,62,10,52,-61,-127,38,-4,21,-42,56,-99,-102,48,9,3,21,23,-43,29,-126,3,-8,-22,27,52,15,4,24,18,-34,1,-127,-25,-9,-16,31,34,6,-6,4,40,-30,7,-98,-29,-18,-18,38,33,1,-6,-15,60,-15,7,-104,-47,-5,-38,51,35,3,-12,-16,80,-6,16,-90,-57,-4,-62,51,44,18,-19,-16,76,-21,14,-78,-60,2,-59,44,58,23,-14,-18,61,-36,-3,-72,-66,7,-60,51,40,-7,2,-105,-28,-29,-9,-31,-1,96,17,-41,40,-4,-9,-110,-14,-12,-21,11,8,94,-9,-49,34,0,-6,-107,14,-16,-30,20,7,104,-21,-46,23,-8,-17,-86,24,-8,-40,21,23,125,-50,-57,46,-3,-18,-59,16,0,-22,-1,39,111,-45,-27,41,2,-10,-10,3,-28,-18,-37,43,122,-36,-3,31,-6,14,38,-27,-30,-10,-71,28,127,-20,8,30,7,29,8,-71,127,-33,66,35,-41,35,20,111,8,15,14,-73,117,-32,44,28,-38,15,47,117,16,-9,10,-89,63,-28,-25,1,-54,24,54,113,3,-16,7,-93,53,-16,-33,28,-68,8,46,86,-3,-26,3,-100,45,-1,-61,51,-95,31,20,54,-7,-12,-1,-87,18,-18,-79,54,-114,28,-24,39,-29,-9,14,-87,25,-26,-104,9,-122,24,-38,70,-39,-82,44,-37,-30,-12,-23,-44,-39,-31,-70,127,-33,-82,0,-35,-55,-2,-59,-26,-1,-11,-61,98,-23,-55,-37,-16,-65,-35,-43,-15,11,24,-65,68,-10,-6,-47,2,-103,-59,20,20,-15,45,-7,41,-4,32,9,-31,-103,-84,49,21,-25,-6,29,36,-11,54,53,-44,-88,-104,101,20,-44,-31,-31,13,-12,39,71,-52,-81,-111,115,6,-34,-23,-84,15,10,14,-52,-29,24,-30,-21,-15,31,14,17,94,4,6,-49,-31,55,-62,8,-7,36,3,25,98,-2,-6,-23,-47,83,-49,10,11,50,-8,10,97,-6,-9,-21,-61,77,-55,-41,44,57,-26,-12,113,-13,-18,-8,-91,29,-46,-62,49,14,-20,-19,98,-4,-2,10,-109,20,-50,-69,35,24,-11,-19,61,-16,14,0,-127,12,-32,-87,17,22,-18,-15,61,11,-9,67,-13,-83,14,-32,-38,-71,6,34,-5,8,8,66,-9,-87,11,-5,-50,-89,25,32,-6,-11,13,50,8,-71,36,13,-29,-92,25,24,9,-8,-1,23,19,-58,29,2,-26,-80,18,36,25,7,1,-3,26,-38,16,-1,-29,-79,-11,58,12,12,-6,-16,24,-32,16,-19,-34,-105,-46,72,21,17,0,-19,27,-36,9,-23,-37,-127,-41,83,7,17,29,-43,-31,-44,28,-31,-85,-6,-127,-82,-82,24,31,-29,-23,-53,35,-20,-82,-28,-96,-81,-97,19,34,-54,-36,-64,38,-20,-78,-30,-97,-102,-98,18,7,-48,-45,-48,30,-15,-72,-22,-78,-78,-81,3,22,-75,-50,-29,12,-10,-40,7,-67,-54,-73,2,21,-57,-40,-24,26,3,-53,20,-39,-28,-46,22,3,-52,-11,-11,39,12,-71,28,-63,-6,-61,-19,-22,-96,-26,-73,-49,-6,-43,19,-57,109,75,-19,-24,-54,-26,-59,-50,-3,-36,8,-37,96,72,-18,-22,-28,-14,-54,-33,-7,-30,22,-43,86,76,-17,-21,-19,-1,-28,-39,-33,-36,37,-47,79,90,-9,-31,10,0,-12,-41,-20,-46,50,-54,75,98,-24,-27,5,3,-18,-41,-31,-52,52,-60,72,112,-21,-27,-8,4,-38,-45,-43,-63,47,-68,73,127,-3,57,-27,-11,-38,74,16,-75,106,-33,18,53,-4,56,-4,-11,-29,83,5,-73,87,-25,28,51,-12,77,-16,-30,-28,78,4,-58,92,-33,32,35,-13,64,-18,-44,-11,106,-28,-68,85,-32,51,45,-36,54,-38,-51,-27,127,-12,-33,81,-2,67,53,-14,47,-38,-51,-23,125,-6,-57,87,-19,85,79,-8,46,-55,-75,-37,117,-35,-69,79,-51,102,68,-7,30,-4,-37,-52,15,-10,-29,47,-31,126,-45,-17,12,-13,-27,-2,18,9,-38,24,-30,127,-48,-12,-4,-38,-17,-5,24,20,-34,-3,-45,118,-22,-19,-11,-70,-16,-10,19,29,-30,-12,-66,122,-6,-14,-23,-62,-16,8,18,35,-15,-41,-71,88,6,1,-25,-41,-12,-14,10,14,-32,-30,-73,87,6,-9,-26,-10,-14,-20,13,4,-32,-29,-71,81,15,6,18,47,-44,-30,70,-70,-64,69,-49,-26,42,-6,7,39,-36,-31,72,-80,-46,54,-32,-39,24,-9,-11,30,-31,-1,76,-110,-32,33,-16,-27,21,-4,-33,-3,-30,-23,72,-111,-15,-9,-6,-4,-2,-5,-34,-42,-35,-28,80,-127,-16,-7,-4,13,8,-6,-36,-48,-23,-8,61,-107,20,-26,-4,43,-5,4,12,-79,-40,5,19,-106,29,-25,7,55,-16,-6,-5,-2,-44,39,-44,70,72,-17,47,8,70,-12,6,7,-47,46,-62,10,98,-37,29,3,33,21,4,9,-23,58,-58,-8,70,-65,15,47,45,2,-7,-3,-29,107,-33,-37,48,-62,28,21,38,27,-46,17,-38,106,-49,-43,41,-87,51,-33,33,22,-47,-6,-56,89,-66,-40,35,-97,42,-80,21,30,-64,-5,-62,56,-62,-68,24,-109,69,-127,26,0,45,-1,8,-1,60,-3,-66,11,-66,54,-7,15,39,-24,6,12,35,-10,-51,10,-33,57,-31,12,39,-21,-19,14,31,-17,-48,3,-20,26,-33,-1,41,-31,-23,13,30,-6,-32,20,-12,38,-41,6,21,-31,-17,-4,46,-7,-18,24,-9,74,-33,6,24,-4,-18,-28,56,-4,-33,54,-11,102,-18,8,32,19,-19,-50,60,-13,-56,51,-24,127,-42,-12,0,37,-21,98,-30,34,48,5,59,27,2,2,11,52,-24,89,-25,48,50,12,28,23,44,5,12,66,-25,107,-6,69,43,18,-1,26,61,-7,9,62,-32,127,8,60,44,-3,-21,-2,45,-4,13,70,-15,122,22,64,44,-11,-27,-19,46,-14,-2,48,-13,105,31,63,44,-4,-4,-39,74,-15,-13,2,13,67,13,46,21,9,29,-51,94,-6,9,-22,-55,21,79,-105,-59,107,-52,-18,55,-3,30,-27,-52,22,64,-69,-56,99,-37,-30,67,2,24,-39,-39,32,53,-71,-24,90,-28,-27,59,-18,19,-50,-38,21,30,-45,-14,73,-14,-7,82,-21,22,-79,-50,2,60,-37,-19,38,-13,-17,112,3,3,-79,-59,-12,46,-56,-17,66,-11,11,127,18,9,-91,-63,-18,45,-102,-22,76,-27,21,125,-39,5,35,-20,-63,-51,-8,29,63,-60,-62,-44,-40,19,21,-38,-18,-46,-47,43,47,-74,-57,-30,-31,24,25,-51,-19,-29,-56,19,24,-111,-72,-43,-34,30,23,-20,35,-54,-2,-2,-3,-115,-99,-55,-23,24,41,9,50,-52,9,-38,-13,-104,-127,-73,-27,28,68,37,75,-41,21,-53,-41,-54,-112,-55,-23,9,87,80,42,-20,16,-54,-30,-20,-92,-45,-49,-17,75,-11,-32,10,-61,0,35,4,-96,-49,-41,-3,26,-7,19,-7,-123,-24,5,-9,-100,-82,-29,13,-4,-15,27,-8,-127,-57,-41,-17,-127,-96,-14,17,-29,-15,76,-16,-54,-66,-68,-11,-113,-119,-16,29,-22,-10,90,-22,-42,-57,-59,-42,-125,-115,-19,27,36,13,89,-18,-38,-16,-47,-22,-107,-87,2,13,32,59,61,-7,-17,-19,-10,-5,-76,-73,-6,-23,60,-4,-96,-54,31,-2,-2,12,3,38,-15,-6,48,-4,-127,-49,44,-11,9,-19,18,34,-32,-1,63,1,-96,-51,61,-33,20,-41,9,30,-20,-5,54,-9,-74,-33,59,-52,15,-41,-4,23,-17,-15,75,-18,-58,-52,83,-40,17,-43,-8,36,-7,-3,69,-9,-59,-69,83,-34,6,-32,-21,25,-13,2,53,-23,-66,-68,115,-22,-4,-20,-40,24,11,-2,-112,-43,-105,11,-12,87,108,-105,19,2,19,-14,-118,-27,-91,4,49,80,96,-107,28,18,14,-5,-93,-5,-94,15,73,77,64,-104,8,25,0,-6,-60,-11,-67,29,63,107,63,-117,28,34,12,5,-31,-3,-60,53,19,105,51,-127,56,48,7,-6,-10,-3,-83,66,-10,60,58,-97,42,46,8,-7,-12,3,-108,70,-49,35,84,-108,58,57,-79,45,42,4,97,-60,-19,127,24,83,24,10,-34,66,-36,20,65,-85,-28,112,40,38,-4,11,-29,56,-28,58,-39,-71,-84,19,42,-3,-21,4,-11,49,19,72,-83,-71,-52,27,15,-31,-57,-29,-26,47,80,84,-33,-60,-35,-3,20,-1,-55,-19,-8,1,95,83,-4,-59,30,-16,-10,7,-49,11,14,-54,53,87,9,-70,11,5,-28,0,27,20,-30,25,87,-6,-127,25,89,17,-33,-30,96,-54,-37,17,67,-9,-118,7,115,-13,-66,-18,114,-63,-38,7,66,-4,-81,30,100,-34,-45,-43,113,-37,-33,-3,50,-27,-58,5,42,-47,-10,-56,86,-21,-2,0,47,-7,12,-2,61,-56,-32,-67,88,-21,2,-21,61,3,17,-15,37,-75,-59,-80,62,-50,23,1,52,15,5,-31,56,-96,-103,-97,82,-62,14,14,110,-25,-116,-15,68,-14,-50,3,78,-34,-10,7,83,-26,-127,-26,61,-31,-58,-20,72,-22,-25,3,109,-25,-79,12,66,-48,-38,-33,70,16,-34,5,101,-30,-88,33,28,-61,-29,-37,76,20,-16,10,100,-37,-67,15,37,-42,-28,-34,76,13,-11,0,90,-23,-43,9,56,-70,-48,-71,74,5,12,8,70,-35,-46,-9,79,-80,-84,-57,49,26,16,-35,-8,-13,127,56,15,-101,-35,-75,32,15,10,-22,-22,-1,106,26,9,-74,14,-62,40,12,23,-5,-17,-25,78,50,-16,-55,49,-40,50,20,21,-24,-31,-31,55,37,2,-69,48,-35,52,28,21,-8,-36,-20,35,42,-21,-57,31,-18,43,37,35,-33,-61,-49,41,31,-37,-37,24,-1,71,72,26,-47,-85,-48,35,47,-46,-16,61,31,57,91,-19,69,-16,-24,82,127,23,-72,68,-64,6,11,-19,76,-34,-32,70,123,36,-52,69,-57,12,-2,-15,67,-48,-68,55,95,15,-67,89,-66,-2,-6,-32,53,-31,-63,23,98,2,-54,86,-71,6,30,-25,57,-44,-65,15,124,18,-36,81,-73,25,50,-29,55,-58,-94,-9,114,-2,-16,83,-81,37,116,-5,11,-96,-119,-22,122,-28,-36,97,-73,24,127,-23,6,-57,-32,-47,-47,-83,46,-14,28,-25,-9,-15,30,-56,-36,-55,-40,-127,41,16,-27,-18,-5,-22,43,6,-17,-28,-26,-110,20,17,-55,-7,-7,-7,19,6,-16,-60,-18,-60,22,-1,-23,-38,-44,-7,-23,-4,-9,-69,-14,-77,-16,-39,25,-14,-56,-2,-26,-13,3,-28,-37,-71,-5,-106,30,0,-40,-4,5,-4,3,-4,-46,-64,11,-94,34,25,-14,12,14,121,-32,-110,-16,70,-34,-99,13,98,-47,2,10,109,-51,-115,-4,43,-67,-80,9,90,-32,-13,12,124,-16,-55,18,48,-49,-64,-27,99,11,-44,18,127,-41,-76,55,15,-66,-56,-14,107,30,-27,12,112,-47,-56,66,25,-52,-51,-7,85,24,1,9,102,-35,-68,30,60,-84,-76,-40,83,20,14,7,65,-49,-58,40,49,-102,-108,-58,75,43,17,1,75,2,-75,-7,33,9,-73,-7,77,1,10,7,83,-7,-78,-11,45,-22,-77,12,83,21,-3,20,91,-9,-62,8,53,-23,-54,14,81,29,-13,12,48,1,-28,13,40,-30,-44,1,42,51,-26,8,18,6,-37,15,11,-40,-55,-26,24,42,-11,0,9,3,-55,20,12,-47,-75,-67,34,32,5,-1,7,4,-48,1,-11,-42,-127,-54,59,49,-4,23,7,35,25,3,4,54,-1,74,-40,-55,-7,6,1,24,15,3,-5,49,-25,51,-34,-44,1,4,-9,9,23,-9,0,23,-43,44,-71,-37,8,-6,3,-15,42,-22,-7,-6,-42,31,-118,-49,13,-6,-1,-20,36,-11,-3,-6,-46,31,-127,-45,17,2,7,-28,23,-13,-3,0,-36,23,-111,-50,25,1,10,-37,-7,-16,-22,4,-26,20,-127,-63,-42,-61,81,-11,-65,23,64,32,39,-43,-75,127,-39,-50,67,22,-70,27,43,35,49,-71,-68,118,-14,-16,49,10,-109,16,75,29,81,-67,-67,79,-9,-1,33,35,-95,-15,86,25,54,-27,-45,59,-15,6,60,-7,-66,-46,92,32,7,-27,-22,29,-9,-11,21,-52,-49,-64,93,35,4,-25,-97,11,5,5,-4,-85,-40,-127,116,40,-5,21,-125,39,-6,26,-56,-50,-26,19,3,3,61,-48,127,-20,-5,-3,-30,-38,-3,24,26,-16,29,-46,103,-34,-20,-17,-32,-32,-2,29,20,-16,17,-67,117,-15,-14,-19,-53,-32,3,29,23,-15,0,-95,118,5,-13,-13,-53,-40,0,29,35,-19,-26,-103,97,11,3,-16,-40,-34,3,24,24,-38,-36,-99,77,19,-2,-24,-30,-42,-15,26,13,-33,-29,-108,94,29,-9,-15,-100,-9,16,-11,-28,-15,50,-14,25,17,-10,-36,-127,2,-11,-10,-55,-14,64,-1,31,8,5,-19,-112,3,-49,-19,-57,-10,39,6,19,-5,3,-9,-54,-3,-31,-16,-32,-2,12,-1,22,-2,10,4,35,-4,24,-22,-13,1,-22,15,23,-15,1,13,90,2,63,-12,-23,3,-14,9,-11,-19,-12,20,75,-2,63,-2,-3,-1,-3,32,-10,-29,-6,-6,34,32,-60,37,21,73,19,-64,-46,-4,-22,7,24,76,-46,97,20,5,44,-111,-82,25,-26,-13,11,61,-34,127,20,-26,47,-95,-95,39,-18,-22,1,14,-2,80,18,-26,41,-42,-84,43,5,-11,12,-21,4,10,29,16,26,14,-39,29,18,8,17,-49,5,-45,52,63,7,30,3,31,17,26,-15,-62,-5,-60,69,48,-13,-4,-17,28,-27,-66,25,-67,-28,-86,-77,-36,32,-89,127,18,-31,-54,69,-62,-69,-79,-23,-70,-2,-58,91,-1,-48,-45,96,-57,-25,-73,34,-44,-3,-39,48,-14,-91,-42,59,-38,26,-78,54,-21,-21,-31,38,-3,-75,-46,-7,-56,-8,-63,9,-36,-7,-42,37,4,-37,-36,-17,-64,-46,-45,-69,-77,-11,-77,17,-35,-43,-9,-44,-20,-23,-39,-58,-84,-51,-78,7,-54,-44,-16,34,18,-85,71,12,30,41,-72,-86,42,-27,-11,31,17,-79,80,29,-13,53,-99,-127,79,-18,-25,31,24,-30,75,34,2,45,-38,-94,88,8,-20,10,-14,6,37,18,1,42,31,-50,61,17,-24,14,-54,22,-4,35,56,34,92,-1,19,22,5,-1,-82,48,-48,67,50,-20,68,20,22,26,12,-57,-99,19,-78,69,25,-67,18,-14,31,-9,16,37,24,13,8,-41,-20,12,-32,-127,-69,3,19,10,29,31,7,-47,-2,-1,-20,-104,-56,-10,18,4,13,26,9,-24,-8,-1,5,-105,-56,-2,15,5,-1,37,13,-21,7,-3,14,-94,-75,-5,6,0,1,69,15,-25,-4,7,5,-83,-54,-2,8,4,27,63,11,-27,-24,7,3,-81,-53,15,6,4,36,63,9,-38,-36,-20,-16,-69,-83,3,-16,36,43,-50,29,-42,8,-43,-52,16,26,-5,3,53,29,-43,19,-1,-9,-60,-34,32,37,-4,-7,45,41,-50,29,-7,-4,-92,-33,39,47,7,1,47,30,-48,29,-60,-1,-104,-45,41,45,14,14,40,16,-74,29,-114,-26,-127,-63,74,32,31,6,14,20,-76,29,-117,-39,-98,-73,70,4,23,0,14,23,-62,31,-97,-52,-98,-61,76,-3,2,18,-12,32,54,41,45,13,30,43,-4,23,9,15,3,40,18,20,2,-32,17,76,1,41,16,21,6,22,7,2,-44,-50,-11,61,-7,20,-4,-1,21,7,22,-17,-74,-71,-25,62,-16,8,-28,-16,48,20,52,-18,-81,-91,-24,71,-4,0,-27,-15,48,28,71,-22,-78,-71,-32,103,10,41,-11,-9,26,41,54,-57,-83,-44,-23,127,3,36,34,-17,-40,-9,-91,-54,-32,-13,-87,88,43,110,30,-19,-8,-31,-127,-58,-67,-23,-90,94,68,89,21,-4,50,-32,-105,-34,-75,-17,-74,79,114,90,17,-1,60,-23,-79,-26,-94,-23,-93,44,90,79,7,1,57,-24,-27,2,-120,-39,-60,63,55,62,13,-6,55,-47,-43,-23,-112,-72,-50,39,25,41,15,0,31,-32,-66,-24,-80,-64,-50,26,11,56,3,-6,45,29,-26,59,39,34,-49,-35,36,-12,0,2,52,11,-28,45,49,2,-43,-18,30,-17,-10,6,58,12,-27,41,33,-3,-48,-2,34,19,-4,6,45,4,-52,48,-6,-4,-71,4,25,24,9,6,40,-5,-81,41,-20,-27,-101,-22,34,8,9,20,34,-8,-102,42,-34,-37,-116,-48,59,-1,11,17,19,8,-69,42,-31,-51,-127,-51,89,-1,-24,-15,-51,-16,-64,-30,4,33,-23,0,17,96,-24,-6,-31,7,-69,-29,14,8,0,-14,-25,77,-27,-11,6,37,-78,-24,51,-10,25,7,-44,37,-2,-23,-15,58,-92,-27,66,-19,31,19,-23,0,-8,-25,-5,54,-106,-30,83,-10,45,33,-18,-13,11,10,-27,20,-127,-55,53,-8,12,30,-25,-24,-5,29,-13,-7,-120,-62,68,10,-4,-16,-50,-36,-48,30,31,20,-8,-50,4,32,65,-25,-24,16,-34,59,23,4,-35,-25,-21,19,83,-87,-16,22,-36,30,22,-12,-61,-47,-24,-17,55,-91,-39,36,-25,21,29,2,-16,-46,4,-44,26,-91,-60,-3,-2,8,80,5,9,-44,17,-57,27,-70,-107,-6,-18,1,73,32,13,-83,68,-67,7,-35,-107,3,-18,24,48,6,26,-97,60,-49,17,-21,-127,8,-5,16,45,19,18,30,57,82,11,124,-19,-30,-7,-3,39,35,28,27,30,62,5,93,-14,-35,0,-9,26,9,75,-5,32,42,1,62,-27,-24,7,3,40,0,107,-19,15,12,6,44,-54,-18,18,-3,44,-24,85,-24,13,12,-29,32,-72,-40,29,-13,35,-34,69,-25,27,12,-34,3,-106,-63,42,13,20,-44,56,-13,17,17,-42,22,-127,-91,11,35,32,36,48,20,43,51,28,79,-113,-58,17,22,21,23,58,15,27,14,26,76,-115,-57,14,7,11,30,50,1,42,23,7,84,-119,-48,18,-10,4,13,78,-11,26,17,1,106,-127,-52,8,-2,9,4,85,5,22,29,12,97,-97,-31,23,-4,12,8,71,3,18,0,-2,84,-93,-50,31,-11,21,35,62,-8,25,1,-26,75,-83,-76,21,27,-63,-24,15,-47,14,88,24,45,-25,-1,33,42,-6,-38,26,-53,70,93,-16,-7,-70,45,3,49,60,-13,78,-23,17,22,-42,-55,-46,32,-12,23,104,-14,115,0,5,-19,-45,-49,-51,-3,-36,-22,102,16,127,25,-45,-62,-63,-7,-34,-12,-37,-55,32,30,109,7,-108,-47,-56,85,-6,53,-37,-56,-15,45,66,-22,-124,-45,-22,120,-10,97,10,21,-27,-13,24,-20,40,10,-5,-43,-45,-21,14,43,-17,-16,35,-3,45,19,5,-42,-45,-2,10,57,24,-20,27,35,4,6,6,-58,-16,2,4,9,27,-22,18,49,-25,-23,3,-26,2,22,2,-74,-3,-29,18,65,-71,-35,-14,40,-2,6,0,-127,-32,-30,11,36,-67,-24,-53,58,-20,6,-7,-91,-20,-30,6,13,-44,-4,-24,53,-9,28,9,-6,-81,-7,-28,-12,-6,56,13,10,-10,17,29,6,-11,3,-28,-36,54,35,-8,-5,-61,58,10,31,69,10,29,-15,45,25,-17,-33,-73,59,-17,25,110,-11,76,7,44,-11,-11,-10,-49,37,-49,-11,114,1,103,21,-11,-19,-14,28,-39,-43,-41,-36,36,26,66,-4,-108,-31,-32,88,-28,-16,-16,-25,-56,54,20,-28,-127,-35,-8,123,-34,10,-6,17,20,-7,-47,56,-76,-3,40,3,121,-48,6,-5,9,3,-38,46,-68,-34,7,-5,113,-59,-9,-23,-16,16,-38,51,-46,-22,1,-45,126,-44,-12,-28,-56,10,-15,51,-46,-26,-20,-82,126,-27,0,-17,-60,10,-31,52,-22,-27,-40,-120,108,5,14,-19,-55,13,-41,38,-14,-22,-40,-115,78,17,17,-4,-41,11,-74,36,-10,-50,-17,-127,77,1,3,-4,69,4,-46,51,56,-2,-72,-35,71,-47,-4,6,82,-2,-70,37,72,-31,-70,-10,50,-23,-21,21,74,-8,-54,45,71,-35,-77,-11,53,-8,-19,12,68,-10,-45,45,39,-16,-74,-10,66,14,-17,5,49,-19,-75,43,25,-31,-94,-25,35,6,8,18,24,-4,-71,48,27,-34,-112,-68,64,-2,1,2,12,8,-56,54,13,-43,-127,-92,100,11,-6,-6,-43,2,31,47,-8,-62,-72,-59,-53,-38,17,2,-45,-6,38,43,-21,-62,-94,-90,-60,-50,19,14,-74,-7,14,50,-12,-114,-86,-127,-103,-51,35,9,-79,-3,12,21,-13,-111,-107,-122,-106,-53,37,-13,-75,-15,5,29,-19,-106,-106,-108,-113,-8,12,-2,-62,-11,58,21,-1,-100,-66,-75,-94,3,11,-9,-48,-1,75,54,16,-60,21,-61,-77,28,4,34,62,39,28,10,51,67,21,9,-107,-77,17,25,33,45,23,1,39,53,42,14,-108,-77,6,25,36,30,26,3,37,24,40,16,-127,-88,10,5,30,27,41,-6,41,37,26,28,-119,-86,3,-6,20,35,69,-3,21,24,23,26,-89,-71,11,-12,25,59,51,-12,25,3,18,26,-87,-69,27,-13,47,86,40,-8,24,-9,0,40,-74,-76,-17,-8,88,-17,112,-21,8,9,9,8,-74,69,-38,18,127,-8,117,14,3,-4,17,2,-43,90,-38,34,61,-49,89,-6,-65,3,43,-26,-50,21,-32,12,-31,-26,52,-3,-91,9,38,2,-32,-24,-22,-5,-126,5,24,-25,-57,50,12,32,-13,-30,5,-19,-56,23,15,-11,-33,53,-8,70,15,27,6,-1,10,19,-28,-44,-67,37,1,82,20,76,6,37,62,44,50,13,39,55,55,125,-67,-56,17,29,28,34,44,26,15,34,39,98,-73,-54,18,17,10,9,40,6,3,44,14,106,-96,-49,8,-4,-2,-7,64,-13,0,29,8,127,-119,-65,26,-19,11,-18,77,-17,-4,2,19,106,-117,-47,22,-14,3,7,75,-13,19,3,16,103,-103,-70,42,-25,32,21,65,-17,32,5,0,82,-116,-114};
const int32_t spk_conv_bias[256] = {1019,-1005,216,-1931,1350,1177,-1891,706,-185,1207,496,-1149,503,-1070,-252,1592,1153,340,397,-1090,-752,146,1372,-493,-814,638,1031,638,-2583,-1692,-614,-192,802,174,223,-2743,-1001,-357,4,1298,996,672,240,-402,126,618,-1046,497,168,-72,-458,1168,-282,-2353,753,-703,-877,-2421,1263,-939,-1053,-1525,1368,-1099,810,-115,671,-778,-601,-536,69,-1295,560,-915,-1285,-399,-319,875,-1103,732,-684,-1110,977,-268,1348,-460,24,1381,-858,720,535,1110,32,101,15,1026,-535,-551,-674,-1123,1036,-750,230,-635,556,-99,-273,645,-1247,-415,802,608,246,-531,-780,-652,297,-3164,169,982,648,1635,340,371,1284,976,2097,294,-1119,-438,1005,88,-463,-2569,-1669,-1364,-729,1104,-471,987,1288,356,484,516,-87,-319,314,-991,-408,1128,42,-214,578,1151,80,-522,-276,831,630,944,137,-1821,938,-581,141,536,648,-27,118,975,543,1536,1062,-1015,108,929,-520,407,286,-882,1976,1475,317,-475,624,614,-97,807,-277,795,-3028,56,999,-3032,-566,-563,960,-411,-1858,-534,-1368,-1215,872,-1074,-29,203,687,1627,-583,210,-1255,-120,-1641,-42,1004,-98,-1456,1134,-16,1216,441,1089,-2,1475,-419,-15,-615,-1334,1225,-302,461,-1120,1525,-109,870,735,765,499,-832,56,711,588,-227,1339,1207,-1296,-866,1423,684,1017,-90,-53,-975,-517,1180,-1359};
const int32_t spk_conv_mult[256] = {1587351776,1256145905,1447712212,1228514933,1423994647,1379842936,1392991611,1530768919,2058875113,1884842846,1446629211,1554419546,1335047109,1768081126,1674170886,1702434845,1770266073,1665872035,1561022221,1264694193,2003655480,1264706744,1257774511,1734723747,1399641490,1901434548,1872997562,1311954480,1260574211,1992080314,1139075545,1167942812,1661078729,1232884195,2047140339,1315970188,1642066062,1282031761,1184417531,1579517858,1259939724,1710591926,1770731321,1107939187,1239484187,1233224488,1127288832,1495273639,2132640429,1105036476,1935851563,1397704402,1861842651,1291828263,1425496482,1941688718,1166203695,1398871549,1368040909,1146798401,1244960052,1938673207,1324760336,1244785603,1116239458,1748500278,1106918940,1872185311,1778060523,1947981964,1455138189,1649536401,1907674276,1202025612,1201078539,1677969914,1182463156,1096746939,1192664915,1957426807,1227823928,1220512250,1252551478,1131241233,2133404214,1962338832,1225815324,1230395424,1174706122,1173671587,1347534300,1100493949,2121576137,1420273923,1266187740,1868385335,1223289927,1937473065,1698829840,1706796213,1470070815,1179503453,1543955956,2055070086,1841646418,1304206207,1408596614,1847646655,2145487411,1759198939,1117122515,1431855403,1759319079,1757810772,1387313118,1189500532,1102359205,2064892716,1166327704,1127967996,2054885060,1986479494,1481953515,1143831436,1491374204,1259060693,2038059707,1156641159,1952789479,1844901421,1175973754,1444769954,1315319282,1455154450,1318521002,1734182404,1457272774,2134175418,1358670266,1122545019,1787421220,1108352653,1570140743,1205260170,1291910830,1098496554,1559510756,1780960787,1349742454,1099503067,1536189765,1267713572,1407708743,1287986214,1585180091,1282877323,1986772346,1076194074,1379534297,1438165858,1953178159,1598414963,1144639897,1608142239,1183298693,1194255869,1090468454,1228179692,1166326914,1117643571,1443537290,1091757241,1634222040,2022580055,1356654085,1700338780,1998724825,1480052422,1222589450,1769239748,1768828334,1431736368,1237918335,1723012180,1884972301,1503763514,2095014037,2077244927,1784738029,1462368720,1285574169,1544644120,1692656735,1172249635,1915802309,1232030187,1141427284,1139990413,1193100800,1244177402,1164557092,1431157767,1345861016,1394601273,1858859031,1600796776,2123309728,2009043962,1097261207,1523959274,1692704412,1621651335,1752308779,1793940854,1354411830,1483851767,1840171895,1843445842,1796980046,1121264362,1857055187,1494619891,1135902400,1928508311,2007683896,2010628207,1783427535,1626173574,1532772944,1641893666,1176592454,2104426042,1696276263,1963436042,2046503958,1611168011,1349081445,1292461251,1200253816,1464781161,1082985327,2132208334,1470117861,1341175695,1711870057,2073405325,1362496291,1343656809,1399009371,1515886969,1194997078,1270985782,2005065749,1137763551,1377426076,1996803683};
const int32_t spk_conv_shift[256] = {-8,-8,-8,-9,-9,-8,-9,-8,-9,-8,-8,-8,-8,-9,-9,-9,-8,-8,-7,-8,-9,-8,-8,-8,-9,-9,-8,-8,-9,-9,-8,-7,-8,-8,-9,-9,-9,-8,-7,-9,-8,-8,-7,-8,-7,-7,-8,-8,-9,-8,-9,-8,-9,-9,-8,-9,-8,-9,-8,-8,-8,-9,-8,-9,-8,-9,-8,-9,-8,-8,-8,-9,-8,-8,-8,-9,-8,-8,-8,-8,-8,-8,-8,-8,-9,-9,-8,-8,-8,-8,-8,-8,-9,-7,-8,-8,-8,-9,-9,-9,-8,-8,-9,-8,-9,-8,-8,-9,-9,-9,-8,-8,-9,-9,-8,-8,-8,-10,-8,-7,-8,-9,-7,-8,-8,-8,-9,-8,-9,-9,-8,-9,-8,-9,-9,-10,-8,-8,-8,-7,-8,-8,-7,-7,-8,-7,-8,-8,-8,-8,-9,-8,-8,-8,-8,-9,-9,-8,-8,-9,-9,-9,-7,-9,-8,-8,-7,-8,-7,-7,-7,-8,-8,-9,-8,-8,-9,-8,-9,-8,-9,-8,-8,-9,-8,-8,-9,-8,-8,-8,-9,-8,-9,-9,-8,-9,-8,-8,-9,-8,-8,-9,-8,-9,-8,-8,-9,-9,-8,-8,-9,-8,-9,-8,-8,-9,-9,-8,-9,-8,-9,-8,-8,-9,-9,-9,-9,-9,-8,-9,-8,-8,-9,-8,-8,-7,-8,-8,-8,-8,-7,-9,-8,-8,-9,-9,-8,-8,-7,-8,-8,-8,-9,-8,-8,-9};