#include "spk_conv_model_params.h"

const int8_t spk_conv_weights[21504] = {-33,-2,-10,1,14,68,22,-6,58,-20,3,62,-30,-55,-7,-3,45,86,-23,-27,19,-11,46,32,0,-57,-18,-9,23,88,-37,-36,24,-4,36,21,21,-42,-13,-1,31,127,-85,-39,46,7,-25,51,22,-25,-1,5,3,104,-58,-34,22,-2,-52,30,13,-8,0,24,32,51,-39,-32,18,-18,-42,39,-30,3,-23,31,36,72,-57,-42,54,-2,-50,-11,-25,15,76,124,5,65,-98,-23,85,-38,-43,-52,-12,65,43,76,48,44,-127,13,98,-11,-49,-56,-10,67,-19,55,50,-15,-117,43,108,29,-72,-80,-29,38,-7,42,4,-11,-72,12,103,-31,-102,-95,-30,-14,18,21,-2,-2,-50,-31,115,-38,-23,-58,16,-35,-9,41,-3,-16,-88,-4,69,-72,-25,-46,46,-69,23,57,-13,-45,-75,12,-18,-78,70,10,13,6,47,16,7,41,34,43,-23,99,-23,10,5,2,12,18,-2,70,-8,63,-8,95,-21,61,6,20,-28,2,-6,104,-41,73,20,127,3,37,2,25,-35,-10,29,75,-58,18,18,127,21,9,9,29,12,-16,30,92,-25,-8,3,71,7,-29,-1,20,20,-29,35,77,-3,-1,36,52,3,-28,-20,24,-18,-30,29,50,27,42,42,3,62,-4,2,19,88,1,28,85,-1,114,8,75,-34,82,-49,-40,93,-29,-50,60,38,51,-116,127,-30,93,-59,-47,99,3,-26,102,37,-3,-94,1,1,4,-19,15,-1,-31,70,41,-52,-38,-105,-43,51,-80,8,14,-95,19,123,7,-6,13,-109,-38,-7,-62,34,7,-12,36,66,37,-12,49,-77,55,-104,0,34,68,41,29,19,52,-13,44,17,99,-71,-2,41,8,2,-56,4,-3,-7,-28,19,18,-32,50,-62,34,-10,-20,-27,-5,14,-14,-4,18,-43,32,-42,6,9,-2,-58,4,-77,-18,24,-21,-14,34,30,6,27,10,-14,-17,-70,-24,-12,-49,22,-25,19,2,17,47,45,29,-19,28,0,-50,22,-4,-63,-44,-24,21,65,127,13,6,41,-9,23,-21,2,21,4,-15,21,93,-5,-22,-27,17,9,-54,-46,16,76,19,1,41,-5,-54,-127,63,-3,22,-44,21,39,-8,-23,46,-40,-86,-66,31,-5,19,-21,31,25,-20,-44,37,-61,-66,11,-3,-54,-17,-12,59,35,-9,-47,5,-100,-15,20,39,-37,-24,-27,38,56,-4,-47,23,-80,36,-32,2,-33,-6,-17,-2,119,-5,-52,18,-88,31,-76,-6,-12,37,6,-21,115,-23,-29,30,-76,-32,-74,-47,1,-2,21,17,-18,-42,-22,29,53,52,-38,24,-20,73,24,6,-15,5,-4,17,6,14,-48,-1,-20,11,16,7,-23,2,20,48,25,31,39,-25,21,13,24,8,4,0,12,17,-1,18,36,-18,-17,18,10,17,41,15,4,12,-15,14,27,61,-31,38,-40,3,52,38,32,24,-60,-4,-14,127,-3,14,-23,-32,-7,-1,8,-35,-34,-29,-44,57,9,46,-26,45,-2,88,-58,88,20,70,57,-69,45,-9,-103,37,-7,127,-41,95,10,21,69,-57,87,32,-109,-4,22,72,-26,118,65,-7,59,-58,69,86,0,13,44,2,46,31,23,11,34,-49,-4,57,24,34,-11,8,87,67,9,4,36,-28,-17,52,41,39,-11,-13,49,-14,-4,25,-6,-34,-15,3,21,17,-4,19,110,34,-14,5,20,-64,-22,35,-10,26,8,42,-22,-25,48,19,-11,63,30,-32,-4,28,19,43,-18,12,57,25,57,96,58,-2,-4,27,11,7,-16,27,41,-8,85,127,34,30,-6,-4,-24,-14,-8,13,23,-21,109,88,-34,29,-10,-19,-25,-15,-8,26,-19,-48,96,79,-47,15,6,-29,-4,20,-23,18,-46,-76,78,83,-31,11,2,-14,30,80,-12,5,6,-22,29,51,-45,1,17,15,-6,36,-51,-7,-41,-2,-33,-8,40,5,6,27,29,35,12,0,-29,6,20,-14,47,7,6,7,10,16,49,17,18,-3,31,-14,47,35,2,-8,-14,4,38,20,28,-13,-6,-35,41,32,-4,-2,-5,20,8,21,38,16,-49,-12,10,-4,8,15,16,17,-5,10,-15,13,-62,52,26,-15,15,-2,20,30,-6,-8,-55,-10,-53,127,59,10,15,43,-1,17,37,10,-22,43,5,38,-14,-51,38,-5,-16,15,24,-12,14,1,-25,11,20,-36,34,0,16,62,30,-9,0,40,-39,-16,29,-11,8,12,35,71,-28,-3,1,105,-26,-5,35,12,-36,-2,24,116,-32,13,-52,127,-51,5,19,-14,-32,-15,-16,60,-69,52,-97,61,9,-32,-30,-22,34,-35,-53,-62,-65,55,1,-29,52,14,53,2,12,71,4,-16,-34,25,109,51,-15,127,28,74,9,48,-44,25,4,103,50,54,-28,90,16,72,14,26,-36,71,9,73,43,48,5,80,-32,20,12,17,-47,65,18,45,40,14,1,67,-32,-26,-2,-7,-38,47,47,99,63,-38,-32,9,-7,-25,-12,18,-8,39,6,97,75,-45,-127,0,-50,-38,-12,53,28,36,4,76,88,-4,-123,30,-67,-30,-11,11,-48,45,-10,43,2,5,-28,19,59,-15,-10,0,10,42,40,64,32,90,-48,20,-1,-22,14,15,94,7,6,63,-60,83,-84,26,9,-19,24,29,114,10,12,87,-70,97,-111,17,1,-30,16,24,89,78,60,80,-4,90,-44,-5,-28,-34,-5,19,45,78,71,127,77,39,10,-54,27,-76,3,18,-17,80,-35,105,127,35,1,-2,74,-60,-33,-61,-10,21,86,17,-36,3,-12,-43,127,31,1,-67,22,-11,73,44,-95,59,-13,-12,86,35,22,-19,-14,-24,33,39,-118,34,-43,39,69,13,17,8,-10,-8,87,27,-76,10,-87,52,-6,-6,-5,58,-13,10,63,17,-93,-7,-18,55,-39,-30,-17,92,-42,15,93,-4,-52,-22,-50,54,-13,31,-61,124,-66,3,38,19,19,-30,-35,-16,43,72,-1,7,-15,21,-29,93,-54,39,-18,35,7,-37,-17,-10,-16,15,7,127,-4,41,-27,37,-15,-29,-13,0,1,-8,61,74,42,50,-46,78,-34,47,-2,-13,16,-22,91,40,27,44,-43,54,-68,43,-3,-3,4,-27,84,34,78,30,-59,59,-29,57,-1,21,24,26,60,17,73,24,-67,62,5,11,-25,6,-13,50,19,55,84,46,-51,-10,40,0,2,17,18,58,17,40,-33,-5,-127,-55,-65,-21,0,34,-9,37,26,73,-3,6,-104,-60,-76,-12,8,36,-10,21,28,126,-2,43,-66,-72,-75,-5,-3,35,19,29,2,97,-9,42,-52,-57,-67,-5,-2,30,36,27,-11,69,-9,34,-24,-60,-74,-2,3,3,18,23,34,56,-20,51,-66,-67,-88,-3,10,-12,85,7,58,42,-45,53,-71,-69,-110,-1,-18,-67,-1,20,42,65,62,43,-60,21,-42,52,-10,-14,-6,7,70,57,62,13,-127,8,-18,12,-2,53,-11,-4,50,-18,42,22,-78,3,-41,23,8,72,-18,1,29,-19,17,-18,-18,26,-27,102,19,22,-5,31,5,-15,-51,-9,-1,73,15,107,3,2,3,60,-11,59,10,14,16,123,-22,54,-13,-6,21,25,-52,32,63,6,-44,109,-59,-32,26,-14,64,36,72,55,-5,53,6,-29,8,-27,30,9,20,15,116,43,11,41,65,-54,-7,-34,32,17,-7,-1,127,55,53,25,54,6,29,-40,21,28,-10,-7,77,53,36,-2,0,24,24,-25,2,32,-9,5,82,28,41,-16,-25,29,-11,11,-2,19,7,15,51,30,43,-29,-45,35,-37,-9,2,3,53,2,36,15,79,-40,-84,34,-58,-12,-33,46,1,58,41,-10,-94,51,83,48,-29,76,-39,59,-9,39,53,-40,-86,44,59,18,-44,78,-29,77,-1,4,44,-34,-38,21,51,-10,0,59,-8,77,14,4,-4,-16,-59,-29,93,-17,-12,52,15,61,5,-14,-16,-22,-93,-2,114,-13,-17,23,10,13,7,-21,15,-7,-87,-2,115,-3,64,30,1,-26,38,-27,3,21,-99,32,127,13,48,31,-44,7,-5,-5,27,-23,-80,39,-92,-11,40,3,-51,-10,-7,-23,18,40,-59,2,-124,13,58,17,-16,-18,20,-26,-22,77,-35,-28,-94,-38,81,49,13,-4,25,-38,-65,68,-35,-39,-81,-65,67,48,30,2,52,-11,-50,95,26,-35,-127,-37,21,72,11,8,69,19,-26,87,43,-3,-97,-30,40,118,-11,27,63,16,33,69,15,16,-66,-15,111,74,1,42,20,49,113,39,-59,-32,12,-58,65,-13,-8,18,33,24,79,24,-86,-73,-3,-43,62,-26,-30,11,18,20,100,33,-86,-66,-39,-71,60,-21,-19,19,-4,12,66,47,-30,-56,-51,-80,41,-24,-6,13,-29,7,33,77,-6,-59,-11,-71,-18,-36,-7,7,-38,-8,6,81,9,-52,-30,-72,-26,-40,-17,14,-29,-3,14,127,11,-27,4,-56,-54,-34,-14,-46,-51,5,32,24,-17,2,-127,-46,76,-30,-3,-25,-25,-11,65,7,-36,-37,-61,5,40,-29,0,-27,17,-14,50,27,2,-39,-38,-9,-82,-61,-7,-15,100,14,0,36,39,-31,-63,-46,-83,-71,-52,-18,68,51,1,90,47,-8,-22,-33,-44,-25,-62,-8,-25,74,24,101,40,33,-32,-21,31,15,-1,-7,-87,35,19,73,18,64,2,11,127,-18,13,78,-9,-54,9,110,20,25,-51,2,-26,48,9,23,-2,-6,30,54,-42,23,-41,-2,-19,27,10,-40,1,89,19,88,-46,24,-27,11,16,25,-1,-61,4,127,36,76,-63,-6,-6,27,30,9,-7,-34,-14,91,32,84,-48,-22,-13,-3,16,-3,1,-14,-17,60,50,68,28,-49,-24,-3,-22,-7,-9,2,-9,67,39,16,-36,-43,11,11,-57,-1,42,70,75,48,16,127,-8,76,16,-91,83,-108,20,-53,70,118,123,64,75,26,37,30,126,-5,-1,-58,20,-10,95,-35,68,47,109,1,-5,48,-30,-28,-61,-58,-58,-52,-55,100,115,-15,-69,60,-73,41,-32,-73,-66,62,-53,68,15,4,-95,80,9,48,-27,-21,-56,113,-62,3,-28,-17,1,85,19,-5,38,55,27,10,-35,59,-117,29,41,73,3,-8,29,-18,52,39,-78,9,-49,107,-26,1,21,0,5,9,19,66,30,51,-24,61,-45,-20,18,27,-47,26,26,52,58,113,4,61,-36,-8,15,32,-52,34,26,43,38,127,20,-6,-58,-65,-19,-14,-1,-5,-10,15,-9,14,4,-12,-9,-68,-55,-60,54,-4,22,-2,-22,-26,34,-13,18,-83,-49,-35,29,-22,90,19,-38,-65,-9,-8,28,-55,50,-32,27,-60,76,-87,40,-10,127,41,-51,85,28,-28,13,-48,-26,-72,84,-1,21,100,-79,21,-4,-34,-27,-45,-16,-31,51,-33,4,47,-65,34,21,4,-17,-29,-3,-19,-6,-61,-20,43,37,-46,15,31,46,68,6,11,-50,-2,-61,-9,112,-6,-23,14,21,82,23,69,-60,56,-42,-75,80,22,-55,-14,15,8,52,75,-92,43,-110,-97,56,-69,2,3,44,-49,-40,107,-50,60,-26,10,-25,-4,2,-4,84,4,10,127,-28,61,-50,46,-34,-9,13,3,89,27,0,111,-4,27,-20,53,-34,19,16,-15,54,59,-22,83,47,32,37,50,-13,10,18,-2,1,61,-51,50,30,12,71,49,-44,-13,10,11,-36,49,-56,23,72,-20,19,21,-47,14,27,27,-41,36,-27,-16,55,-51,14,5,-23,14,-28,26,14,47,-8,-28,62,75,-51,30,-21,14,-6,23,-9,51,6,35,46,11,-65,-32,-39,-2,6,29,-7,74,33,96,12,-3,-57,-8,-28,8,9,-10,8,36,20,119,-28,31,-64,13,-19,-26,19,-25,19,-19,-2,127,-53,13,-60,14,-63,-40,19,-23,43,-16,-21,76,-14,-10,-45,16,-53,-46,1,-6,18,16,-52,65,-19,4,-40,18,-45,-8,-34,5,19,-11,-28,-7,-28,-5,-127,-2,-16,64,-2,-13,-49,38,16,-6,-10,33,-59,-61,1,31,6,-59,-61,59,3,-16,-13,58,-45,-50,11,8,6,-42,-23,53,3,-31,7,9,-56,-21,-36,-28,2,34,33,-22,-24,49,-29,-19,-27,52,30,-45,-12,72,31,-29,-1,125,-42,-61,38,119,7,-28,5,62,0,15,51,83,-55,-7,19,31,20,48,45,9,-45,-36,-65,68,-40,99,12,78,71,127,30,6,-32,-15,-28,45,26,50,-10,58,124,89,29,29,-24,-10,-31,33,52,11,-18,37,116,59,31,6,-25,4,-6,34,74,6,22,4,99,37,30,0,7,-7,16,36,66,25,32,-2,78,33,33,1,21,-10,27,34,66,24,56,37,71,31,47,-28,27,-29,20,32,84,56,95,51,67,36,7,16,-45,4,56,73,11,16,-28,-9,36,61,16,19,-33,8,33,80,38,35,-60,-1,28,51,5,16,-28,0,31,85,30,35,-62,-1,35,35,9,32,-31,-18,4,87,47,25,-59,-21,-9,26,13,42,-42,-18,9,98,38,19,-43,-46,31,49,22,30,-15,-12,16,92,26,33,-32,-47,24,53,24,29,11,-5,26,127,19,43,-11,-49,32,66,30,39,-34,3,59,110,13,-64,119,15,-30,127,38,69,21,-6,31,105,-68,-13,110,0,-82,64,1,48,69,-31,-30,79,-39,26,64,-35,-58,-3,-30,46,38,35,-45,34,-58,15,-12,23,-29,36,-67,-25,-44,48,-35,25,24,35,-46,-2,-52,87,-42,-81,-65,75,22,8,33,41,-25,33,-44,113,-12,-110,-32,53,94,44,76,3,-2,85,-20,59,18,1,9,-2,35,68,-63,-45,28,-14,84,74,13,-16,52,13,71,39,-42,-23,-8,24,104,97,11,4,-13,9,2,13,-14,-14,8,-9,11,-3,-6,-2,-34,21,22,30,24,33,19,4,11,-18,-12,1,-24,30,36,44,8,88,29,3,-19,-33,-11,26,-24,28,2,9,33,77,44,-24,10,-25,-12,27,-19,-3,-56,27,20,127,65,-37,-15,-4,-33,3,-22,7,-22,-20,-48,96,16,13,-105,24,-26,-2,-10,6,-23,-11,-29,127,18,8,-101,48,-19,-7,-11,1,-30,-1,-17,71,-29,-25,-68,64,-10,-14,-2,-10,-34,0,21,72,-4,-33,-68,79,-22,-29,8,3,-47,14,7,75,-16,-3,-48,47,-28,-4,12,17,-57,12,17,63,-23,8,-60,14,-41,6,6,13,-48,12,-41,58,-12,0,-60,26,-38,-12,19,44,95,71,-25,-41,-38,23,24,40,-25,0,-17,66,106,79,-4,-41,-31,9,42,65,-20,2,4,62,70,11,54,-5,-28,-35,-63,46,-12,-5,10,78,17,-6,21,-42,-35,-92,-127,41,-23,-2,7,30,20,45,-37,-67,-49,-109,-106,5,-5,-29,-40,31,23,65,-96,-26,-22,-124,-68,-22,6,-59,-56,83,13,100,-47,35,-33,-102,-26,17,17,18,13,34,-71,31,-24,127,76,-9,49,126,9,23,15,0,-89,99,-58,74,17,46,10,67,-7,5,13,28,-58,93,-70,32,-6,15,-7,55,-13,-17,-21,34,15,10,-55,-29,-53,-46,-9,11,15,11,-11,8,62,-23,27,-10,-24,-53,40,-20,17,12,56,29,66,-12,80,-27,-10,-41,-31,-21,27,8,44,44,78,-5,97,13,-85,-28,-64,10,-5,7,52,-25,-7,-21,54,-67,-33,-44,-15,-8,6,-18,8,-22,-13,-33,57,-58,-10,-51,-7,5,25,-7,29,3,-7,-3,36,-8,42,-38,34,31,24,-1,13,18,-4,51,-6,-19,22,-22,15,62,-9,10,-8,72,-29,95,-61,34,-18,-50,-32,49,-28,29,-20,79,-44,127,-65,66,31,-35,15,25,-16,12,-8,5,-19,72,-111,62,31,-50,40,45,3,-43,-39,-3,-22,27,20,17,-89,-29,21,25,-2,-38,-35,37,18,52,-9,14,-85,-57,3,15,-2,9,-24,22,-18,53,31,27,-26,-55,18,-6,1,53,19,19,-11,25,-3,6,-6,24,-34,-18,-7,51,38,71,38,52,-4,32,1,127,14,-5,3,9,1,17,13,-5,-15,-23,4,36,-10,60,4,-27,19,-19,10,-70,5,20,48,-39,-12,94,-22,16,27,-48,22,28,-28,-4,-16,-2,94,-21,-2,9,2,-10,0,-1,15,3,-14,22,106,4,19,25,0,7,2,12,52,34,8,20,46,5,24,0,19,83,-15,37,45,17,-3,-2,-21,-38,13,-8,-11,127,-48,32,-16,84,-10,-33,-63,-47,-2,-16,-37,74,-66,38,-27,91,20,-61,-25,-52,-16,-22,9,0,-41,88,-56,62,10,-14,18,-42,18,0,-28,-20,-50,14,-127,33,-101,116,-30,76,26,3,-24,-17,-58,27,-81,5,-50,70,-14,39,18,13,-7,18,-64,45,-9,-32,23,26,-36,25,-11,15,-2,55,-16,78,40,-3,90,40,40,45,4,16,-10,15,97,56,26,-15,88,10,-34,34,10,1,-25,17,102,47,39,36,76,-4,-44,5,30,-12,-35,41,47,58,-44,67,84,12,-43,-7,7,43,-61,-1,80,77,41,55,-38,2,46,62,8,44,-16,-5,18,91,62,56,-59,-13,22,55,5,27,-14,-21,21,127,70,61,-47,-75,1,70,2,10,-20,-2,28,119,60,31,-35,-66,-42,69,10,-16,-7,-6,13,102,56,13,-44,-50,-39,74,2,-36,20,-11,33,65,72,22,-37,-40,-10,73,12,-48,39,-19,54,78,50,11,4,-4,14,85,-49,-13,-12,5,38,53,43,-12,10,-19,35,-56,-6,-33,-53,15,21,30,-51,21,14,-29,40,-55,27,-19,-16,29,10,85,-59,31,-23,23,67,20,11,7,4,16,-25,125,-7,17,-31,64,-24,106,-4,31,127,1,-44,6,38,-21,-15,48,-6,115,-12,30,109,18,-83,-17,36,-4,17,57,-35,115,-26,32,18,17,-113,6,24,36,94,16,-66,51,-11,32,29,24,-40,7,27,110,28,11,-16,-22,-4,1,34,0,-25,33,20,127,-32,37,17,-28,-2,9,3,60,11,52,-1,59,-30,-5,21,-55,-8,-6,-1,47,22,48,5,-10,-71,-18,-61,-89,-10,0,0,52,31,77,28,-23,-100,-52,-75,-72,-3,9,4,67,45,42,43,-36,-79,-32,-75,-52,11,18,28,25,29,10,27,-31,-103,-22,-71,-82,-9,-62,24,87,82,17,32,69,-46,14,76,-3,16,-7,30,69,28,15,79,65,-100,-5,54,-16,18,38,27,70,6,30,90,53,-66,-57,36,68,-10,90,12,127,-15,77,53,1,-37,-49,11,67,0,8,-24,85,-95,82,-7,4,-64,-69,1,90,-20,-35,-2,2,-69,28,-41,23,-100,-63,26,46,-47,-29,25,-56,12,78,-72,-28,-75,-24,36,-20,2,-1,80,14,25,31,-75,38,-22,17,-8,57,19,3,100,3,16,1,-65,7,-10,-27,-32,127,-3,27,55,10,-37,-37,-40,-39,50,-79,-44,108,-19,34,22,25,-42,-21,-20,-6,43,-100,-33,83,-19,19,10,16,-43,-30,-33,7,31,-66,-22,66,-15,7,16,20,-35,-12,-58,28,-3,-55,41,56,-28,-10,20,40,-32,26,-11,101,-43,-73,38,62,-44,18,42,-37,-2,72,-54,-75,42,-45,32,16,-29,14,-1,-32,44,114,-76,-55,19,-11,28,-56,-16,22,-43,-12,49,106,-58,-40,-53,5,-1,-98,-13,1,-40,-9,49,127,-19,-15,-30,12,0,-50,-15,24,-20,33,50,121,23,-8,-29,33,0,16,9,39,-4,50,-13,12,46,-13,-14,32,-14,2,-4,21,20,39,-55,-10,106,14,-16,-28,-5,27,-12,1,6,-23,106,74,-12,-20,40,-38,-8,13,-23,-31,31,25,85,32,-82,-33,72,11,52,-6,-19,-46,12,54,74,-42,-97,-16,13,8,22,1,-14,-54,50,76,85,-41,-127,20,68,30,-36,-7,-18,-57,72,35,44,-13,-115,28,58,67,-44,-16,-12,-34,52,-9,72,5,-85,14,8,26,-48,-19,22,2,23,-48,79,20,-53,5,22,46,-41,-43,-32,21,17,79,30,4,-15,2,67,35,-90,127,-14,52,14,46,38,0,-80,30,-2,-50,-91,103,-27,45,3,30,11,-21,-68,60,-12,-62,-90,116,-22,24,7,12,15,-10,-94,24,-10,-85,-90,58,-20,-2,-20,3,16,12,-68,28,-21,-65,-66,113,-6,-1,6,35,-17,-11,-68,98,16,-23,-67,71,3,-6,26,62,-20,-17,-24,114,73,19,-110,58,0,-14,105,81,33,-70,-36,-49,-52,17,11,46,-22,-39,97,51,28,-69,0,-48,-35,50,-22,30,-31,-40,108,54,66,-60,42,-58,-52,32,-68,-6,-20,-6,91,39,49,-42,32,-59,-57,-12,-101,-12,-14,8,60,9,40,-34,40,-45,-23,-12,-61,24,2,19,70,-16,-7,-12,11,-29,-11,-7,-27,116,23,10,80,-39,-80,10,16,-16,42,-9,-46,127,-1,28,24,5,20,12,22,10,-29,36,6,-7,15,-7,9,6,34,29,-21,17,-56,10,-56,6,18,-21,2,3,-17,8,-46,37,-97,52,-79,53,32,18,14,-20,-63,41,-65,44,-127,50,-47,63,12,25,8,9,-9,22,-38,12,-62,20,12,59,0,26,12,39,33,23,1,21,-26,7,40,39,-7,-16,-15,8,19,39,13,44,-22,-30,58,30,20,4,50,23,-26,-10,-17,3,34,-95,-51,24,25,4,20,29,-26,-13,-9,14,46,-82,-58,35,13,-4,33,27,-46,-2,17,17,15,-58,-81,16,8,5,48,22,-17,25,-5,1,-33,-56,-40,-1,6,39,38,4,42,33,-40,-36,-72,-118,-20,58,24,29,29,20,60,56,-77,-27,-78,-126,-48,70,25,7,20,29,76,70,-101,-11,-23,-127,-72,74,5,43,28,70,26,123,7,-61,-84,86,9,82,5,8,-18,54,77,111,-24,11,-86,68,7,34,-6,-7,-5,59,37,97,-40,48,-101,33,3,37,-32,10,16,27,6,71,-56,16,-127,6,16,44,-36,-8,9,-5,-23,18,-49,-9,-120,21,15,47,-19,39,18,-3,-12,13,-36,-38,-77,2,42,42,-4,26,64,-3,18,15,-29,-42,-75,-20,85,32,-3,-75,5,-55,28,53,-62,-12,-9,35,87,72,-15,-80,36,-23,63,38,-66,6,14,38,125,18,-12,-37,16,-30,54,59,-27,21,48,23,39,32,-17,13,-10,-32,86,25,-72,-9,-1,108,-55,47,-27,47,-18,-3,86,40,-44,52,-80,75,-48,30,-1,55,4,32,84,41,-22,94,-22,127,10,55,42,26,-2,19,16,31,44,79,-32,119,13,111,-23,13,41,35,27,58,90,-50,-49,-4,17,63,-21,45,14,25,44,89,118,-30,-42,40,36,36,-24,58,-29,30,18,71,92,55,-81,98,51,-27,-2,5,-45,13,11,18,-7,28,-108,83,25,-39,21,-11,-36,36,21,76,-14,15,-98,68,2,-4,0,-57,-45,70,-4,86,-29,-30,-76,28,-78,60,6,-75,-40,80,-25,115,-53,-64,-37,3,-67,127,13,3,-90,-17,-21,84,-22,95,108,1,-23,-68,-30,-5,-83,15,-6,42,-9,24,12,6,-27,-17,27,14,-31,64,37,-1,-91,2,-64,11,-31,62,14,6,45,64,37,17,-61,-10,4,32,-55,69,-23,18,97,43,54,8,3,-24,29,93,-8,71,0,7,127,7,46,29,-12,-40,10,55,36,105,-31,41,75,72,29,31,3,-29,-9,13,30,105,31,-2,-38,43,33,-9,8,48,-59,33,28,-46,16,8,-19,34,38,15,6,19,-8,-3,54,-46,7,35,24,-1,33,-29,11,64,-54,9,57,-14,-11,59,37,15,57,-12,-20,75,-16,41,25,8,-15,28,-19,5,0,30,-36,40,-35,22,53,50,-10,-19,-49,-15,-19,60,-39,36,-8,24,73,62,8,-52,-58,-23,30,127,-50,-12,50,-19,77,61,7,31,69,80,-50,78,21,100,19,9,-8,-33,-3,26,42,55,-28,103,14,21,-14,-5,30,15,4,6,18,-9,8,55,-48,-48,14,-59,-33,28,-1,-8,25,9,17,-18,-58,-33,40,-50,-39,45,-7,-25,-12,-3,22,27,-47,-2,52,-18,-22,25,8,-5,-34,-30,-11,5,1,-27,26,44,28,28,14,-7,-20,-27,-13,-12,-8,-13,-18,127,14,54,4,6,24,33,85,89,35,-46,-43,36,-85,40,-2,23,-13,34,40,70,37,-10,-30,-18,-34,-19,-3,16,-47,20,-38,28,-19,52,10,66,45,-54,11,18,-53,19,-37,28,-55,50,33,74,85,-26,13,17,-11,-3,-12,44,-77,42,17,42,50,-35,6,16,43,-1,-34,26,-12,126,70,15,6,-32,-6,11,51,11,-43,22,43,127,52,-9,-35,-29,8,-13,-2,28,-18,127,9,28,57,125,16,42,-16,-11,16,22,-49,48,-4,29,31,18,70,40,-30,-9,40,42,-26,-9,-34,16,-34,-78,105,29,-16,15,78,52,12,-50,-36,32,-59,-57,97,57,-24,50,82,54,31,-36,-28,2,-56,-17,101,54,-9,49,51,-1,63,8,-5,-42,-84,20,65,18,16,30,29,-36,46,20,37,-49,-43,46,23,-7,-54,9,-48,-2,-47,45,-74,2,-18,14,53,88,-5,-1,-22,10,-27,49,-37,72,-2,11,58,17,2,1,18,2,-26,46,-51,112,50,11,54,-8,-1,-20,10,0,-52,46,-18,91,40,62,77,-20,12,-23,19,3,-46,48,49,67,1,52,62,-35,7,-11,19,2,-31,46,58,85,29,106,32,-33,-7,20,-3,22,-26,45,58,95,67,127,70,-18,-3,48,-20,-28,5,127,1,-24,2,75,-26,-4,16,-41,-23,-11,0,94,-52,-11,-56,15,-12,-29,20,-43,-33,-13,-67,52,-65,12,-118,25,-73,-28,18,19,-24,29,-105,-18,-64,44,-115,-33,-25,-52,-8,72,20,114,-53,-15,-28,61,-91,-8,38,-20,-31,37,4,85,49,74,44,20,0,-1,13,29,-6,-20,-16,54,55,78,0,-21,-27,11,-25,27,-14,23,33,-19,10,1,-39,127,36,-5,8,-25,2,31,35,4,28,-15,-22,115,15,37,21,-41,2,30,25,12,34,29,7,78,-4,42,8,-23,-4,11,40,23,20,66,36,61,-16,63,-1,61,-6,-11,45,19,2,35,29,39,-26,76,14,69,-8,-16,31,10,1,35,-21,22,-38,94,14,66,2,11,10,-23,21,56,-43,-4,-8,66,-8,53,-2,4,-2,4,-2,79,32,39,-14,25,14,3,5,-21,4,2,-4,93,22,17,-23,84,-22,-6,4,-38,-13,24,-20,47,29,1,-35,127,-1,-7,5,-22,1,77,-27,74,30,-11,-14,107,9,-11,11,9,-26,96,-43,53,41,-23,-26,88,7,-8,8,23,-28,92,1,35,32,21,-6,78,15,10,-13,19,-16,26,19,70,38,98,5,51,43,24,-24,-45,33,28,33,-50,20,-8,-6,-72,-5,-54,-61,-112,8,116,-11,-10,39,-9,-23,-60,-35,-20,-16,-19,55,70,-50,24,-22,-9,22,-34,-65,5,37,125,26,-60,-63,40,-106,20,7,68,10,75,24,127,-13,-70,3,94,-40,-66,-55,74,-7,76,12,25,-16,-13,41,53,-7,-10,-28,19,-13,66,-24,-36,-37,-52,-17,37,18,38,-14,-30,-24,33,12,32,127,16,-37,73,67,36,-2,-72,12,78,0,17,90,-34,-32,16,69,42,49,-55,2,43,-24,-21,-3,-16,-10,-37,76,-31,-28,-39,-25,-9,-21,-12,-49,25,-10,-6,-9,57,-30,9,-68,26,-7,20,-9,14,14,53,-55,43,-82,26,-89,69,9,41,-2,1,-6,39,-88,-24,-40,13,-13,15,1,26,19,39,55,72,-7,12,-30,5,88,54,13,32,-23,12,31,29,-11,90,45,38,11,8,-9,-10,29,-30,-30,49,-5,78,-49,83,-10,107,-30,-26,37,29,-59,44,40,46,-80,70,0,82,-26,-7,71,0,4,99,11,-18,-97,-16,-3,13,-13,7,-3,-15,87,4,-1,2,-89,-48,29,-61,11,10,-31,30,127,2,1,-7,-63,-10,-37,-51,44,25,31,24,85,26,-31,0,-43,4,-101,-25,34,-72,31,-5,-40,-36,11,-44,-12,-57,78,41,5,-34,19,-8,-28,-54,28,-8,-72,-59,0,51,-4,-12,-3,-11,-32,-32,15,-2,-96,-27,-14,18,-10,-10,0,28,-10,2,-19,-33,-127,-11,9,-7,-13,48,35,36,6,19,-56,-44,-108,-13,-7,21,-17,56,63,28,1,19,-46,-38,-115,-29,-18,-27,-33,-1,55,-1,9,19,-14,-27,-69,-45,-38,-108,-47,-8,-44,49,61,66,95,118,47,66,117,-9,-2,16,-37,18,52,41,81,56,30,28,91,-26,12,1,-16,-13,50,24,65,42,55,33,42,-46,-23,-18,-25,-36,26,40,64,41,61,96,53,-28,-31,-43,-29,12,75,54,64,-6,-14,90,37,-29,-45,-43,-54,18,58,98,61,18,-31,11,31,-49,-44,3,-56,55,45,127,40,74,-47,-20,19,-64,-3,4,4,32,46,125,-13,-4,-55,22,-56,34,-11,-2,-10,26,44,127,0,-12,-70,29,-32,65,-16,-4,-1,10,71,85,-13,-26,-107,5,-53,52,-19,-6,0,12,85,75,-18,-8,-89,9,-85,13,-11,0,-3,22,83,61,2,6,-91,-5,-59,11,-2,-6,-17,36,68,73,-22,29,-28,4,-54,9,12,-12,-28,53,61,83,-56,55,-12,16,-2,9,9,6,48,-25,-30,19,-7,-22,-42,-44,17,27,26,-24,23,2,-11,25,-38,5,-8,-56,-44,9,25,-43,-31,8,-19,36,-52,-3,27,-46,-33,38,8,0,-17,46,-31,52,-32,-42,9,6,-1,-4,-6,60,13,74,-2,29,1,2,-4,54,17,4,-6,17,-23,55,41,55,7,-18,-23,88,14,66,-2,-20,3,50,-1,65,2,-49,-43,54,-43,127,-15,6,-30,57,18,33,-28,-10,-67,18,64,11,-19,31,-10,50,5,16,-29,-36,-61,-12,-10,17,-23,41,17,67,-3,30,-29,-47,-38,-13,-62,13,-4,42,22,74,-25,8,-1,-38,-8,-1,-77,5,10,45,23,80,-24,4,-10,-21,-51,1,-54,6,6,25,30,56,-26,24,-15,-12,-111,4,-34,-1,-16,14,26,10,9,46,6,-8,-127,-23,-20,12,-7,-24,39,-70,60,9,-63,-1,-49,7,90,-22,-30,30,0,-58,74,-17,-33,10,-21,55,93,16,19,11,-34,10,97,-13,5,21,49,29,97,127,60,3,1,32,26,-33,38,66,6,25,89,123,23,0,30,-12,-21,-17,68,-31,-24,71,80,81,-69,13,0,-65,-40,1,74,-57,-43,-2,24,74,-96,30,-9,-87,-13,54,76,-14,-52,-61,40,7,-7,6,127,25,14,57,-79,-22,-21,-76,20,26,17,6,93,16,4,15,-33,28,-61,-59,-19,30,37,-5,11,20,-32,-9,-34,38,-32,-57,-23,33,38,-8,45,15,-62,8,-12,11,-26,-54,11,34,22,-8,44,9,-20,27,-46,-25,-16,-85,43,48,29,-22,36,15,14,53,-57,-29,-1,-83,13,39,29,-17,38,36,51,55,-46,-27,6,-78,2,21,-1,8,-66,29,-54,62,-61,37,-15,43,27,38,21,-5,-35,4,-59,40,-24,11,48,68,12,86,17,-18,6,-1,-9,38,-40,-22,-17,38,-32,58,6,-24,24,-14,5,42,-40,-25,-38,110,-38,57,-9,-6,68,-18,47,10,-58,6,-78,81,-14,49,-24,32,127,-32,25,5,-79,-8,-44,46,12,31,-35,11,80,-37,-21,18,-33,19,-64,-9,34,15,9,-41,-40,32,1,40,16,-16,-127,37,-74,53,13,-41,-37,46,-4,60,-5,22,-111,2,-99,21,-12,-56,8,68,44,59,-26,20,-87,62,-36,50,-1,-37,28,38,28,40,-21,36,-82,28,-14,17,-13,21,28,10,9,48,30,30,-16,-13,-54,21,-29,44,63,55,-9,83,62,50,57,-6,-99,16,24,47,51,67,-5,54,64,-22,61,5,-71,17,16,11,21,-8,-38,32,9,28,6,-13,91,-11,-2,-2,-21,33,-8,34,46,8,-3,-10,33,75,0,-5,-15,30,41,18,61,-31,-48,9,-9,127,-3,-15,-10,31,75,11,50,-33,-49,-2,-62,95,-2,-16,-11,36,54,5,42,-19,-46,21,-67,78,-10,13,-4,45,1,67,35,-9,-28,-32,-48,16,-2,-5,1,14,-54,104,-34,20,-27,-66,25,-51,-30,-20,-25,17,1,52,18,69,14,71,62,53,-5,0,-17,12,2,50,3,19,-19,43,34,21,9,7,-16,7,17,1,-24,54,12,36,15,2,7,-2,-23,-14,16,21,-4,90,10,49,4,-4,-7,5,-22,-19,8,38,-3,51,14,49,9,11,-12,7,-36,-20,0,92,5,35,-6,64,13,-11,-36,-7,-42,12,-7,127,40,40,0,32,17,-23,-9,-16,8,31,-32,75,36,29,-13,47,14,38,-2,-69,-13,21,-38,89,13,5,5,26,-16,14,-13,-58,-10,-1,-22,127,18,-15,27,-4,-15,7,-14,-23,12,-1,-7,93,13,-10,17,-21,-31,-9,3,19,10,-17,17,34,9,-7,34,-46,-20,21,10,25,8,-2,43,35,12,16,3,-32,-15,18,13,20,15,13,38,39,3,33,10,-1,-39,26,30,2,-13,-25,-24,80,67,34,24,8,36,127,27,-9,4,-10,-23,20,40,38,35,25,35,84,25,-35,9,1,4,51,28,39,53,-16,20,83,20,-13,-3,-9,-2,17,23,25,37,-18,-10,59,-6,10,14,-3,-26,10,3,16,36,60,12,61,-12,3,41,25,16,30,23,47,28,96,22,46,15,-48,25,-8,6,4,48,85,29,91,30,75,2,-40,82,83,-40,127,-34,12,-65,21,103,79,-54,-58,61,71,-21,92,8,36,-59,-37,94,98,-28,-47,-40,2,-29,94,86,49,-55,-66,41,103,-32,-21,-50,1,-30,116,111,26,-81,-6,28,50,6,-9,-47,23,-32,64,81,75,-116,10,53,37,1,23,-9,2,-19,29,73,56,-75,6,22,-2,-65,45,61,-28,-38,69,53,57,-16,26,-3,-41,-1,-7,11,-4,13,43,-5,-13,-18,-27,-48,-33,-21,-18,14,4,11,45,-3,-8,-58,-5,-46,-28,-36,5,1,-6,13,47,5,-13,-95,3,-49,-57,-30,5,-16,-7,7,43,25,-19,-101,18,-46,-36,-25,-2,-4,-12,28,23,-7,-15,-115,20,-45,-41,-24,-5,11,-5,40,28,-33,-23,-118,12,5,-17,-23,21,27,0,40,16,-10,-8,-127,-3,7,17,18,-40,31,29,-27,103,25,-81,-49,-40,50,98,-6,24,89,-27,71,108,73,15,-38,-75,7,113,36,26,-20,13,77,14,46,78,-9,27,127,86,56,-43,18,52,-37,6,31,29,13,62,60,23,22,-17,0,25,-23,-18,-93,7,17,40,31,-30,-58,31,8,-19,-20,29,-121,-51,116,30,-61,-118,-74,60,9,-23,-37,44,97,54,91,-15,-76,-118,-11,27,-20,21,-26,37,6,93,11,26,75,1,9,21,-38,17,-10,46,-61,30,31,38,80,8,19,2,-13,-1,-18,43,-99,-28,31,73,100,-19,20,-17,-2,0,-10,57,-126,-48,11,108,116,-9,17,9,-4,2,-19,107,-78,-22,-18,73,113,-27,9,5,1,2,-54,127,-32,-24,-12,103,103,-41,0,21,23,3,-52,127,-7,16,-42,104,72,-41,15,-47,9,-7,-31,93,57,34,-44,23,-22,75,-10,-1,-13,6,12,41,39,20,-32,-26,-47,86,-39,-5,-10,46,44,36,69,-40,-53,-59,-55,127,-35,-4,-14,68,65,8,55,43,-37,-37,-8,119,-12,32,-28,35,36,22,-32,88,35,27,-11,33,23,42,-2,-10,16,10,-59,39,-2,29,59,4,37,53,47,-10,-15,-10,-98,3,-57,59,124,-7,-36,27,50,-54,5,117,-35,29,89,-50,0,77,-25,36,17,-28,22,-1,38,56,14,12,7,-24,5,26,-37,33,-13,-54,-17,12,-17,66,37,3,19,-26,-64,112,-79,59,61,50,35,76,13,0,27,-56,-26,102,-48,88,102,-1,-24,-5,-39,-6,30,32,59,13,-19,56,-46,-52,-45,-19,85,61,12,72,88,13,39,10,-66,-47,-21,-50,108,127,-14,16,58,33,80,35,56,78,-4,26,-127,60,1,23,55,24,54,16,25,46,-22,-17,-119,48,1,25,38,12,56,47,58,88,-15,-32,-79,37,-4,25,1,-3,42,66,26,41,-21,-16,-63,47,8,8,-17,6,33,27,45,15,-20,-2,-63,84,2,7,-18,10,16,28,62,39,-18,-13,-71,109,-1,11,-50,-5,-11,17,41,64,-50,-28,-97,93,-46,-1,77,-20,40,9,-8,17,34,-34,13,11,-63,-29,127,-20,-26,83,-58,-18,-6,40,40,-21,-3,-68,42,64,17,3,-25,46,-76,39,8,-5,27,-13,-46,43,53,117,-92,57,-47,78,11,-24,29,36,9,-12,23,108,-33,28,8,58,-41,-2,43,13,29,-4,30,72,-30,46,22,67,0,13,53,-21,18,19,-16,68,-42,-8,47,59,27,4,47,-57,71,-3,63,-20,5,80,69,-73,109,-81,39,-30,83,-5,85,-5,3,62,57,-95,98,-63,40,-13,80,-35,58,12,-43,38,-4,-89,25,-67,27,-34,47,-36,27,6,-43,26,-30,-48,95,-26,22,-20,43,-21,39,16,-68,69,-58,-20,83,-15,-23,-49,10,-18,42,43,-87,121,-36,-39,82,-47,-70,-74,3,-9,57,53,-93,127,-5,-46,121,-41,-13,-39,28,14,63,18,114,35,-70,17,-49,47,9,-10,18,28,83,31,127,42,-54,18,-57,36,19,2,33,39,65,45,112,5,-25,40,-25,-1,1,13,29,58,51,33,89,-4,-8,42,26,14,-7,10,11,22,30,12,70,-31,2,53,25,48,-2,-15,1,5,38,17,42,-53,4,76,3,33,-3,-45,23,-9,61,4,67,-76,-50,77,-36,13,31,49,39,25,54,112,37,57,-59,15,-59,8,15,25,44,17,14,127,41,8,-53,8,-27,27,6,13,5,21,-14,83,13,-5,-47,-33,-15,25,8,5,9,19,-14,58,-3,-18,-33,-15,2,16,16,-16,26,26,4,33,-13,-8,-32,-19,-26,-2,25,-11,39,20,21,45,-8,22,-50,7,-48,-14,23,21,17,10,9,68,-23,39,-84,58,-1,-10,21,45,-45,5,-39,64,-73,36,-16,-62,-2,73,30,30,-37,-15,-25,22,-68,92,-44,-53,-19,58,10,28,-12,20,-48,52,-14,95,-15,12,31,84,-8,21,49,60,-24,81,1,23,-34,46,45,97,15,2,56,52,6,56,-10,-29,-52,7,16,101,29,26,15,26,-7,-3,-88,-39,-60,-20,-26,92,4,-6,-28,43,-7,-14,-82,3,-57,-38,-127,51,-33,-18,-3,50,-4,68,57,100,-15,110,-36,74,10,-37,-30,49,-8,47,32,68,-37,101,-66,74,14,-45,-28,106,9,64,-4,32,-37,100,-41,120,16,-15,-18,117,-20,47,-26,79,-16,2,-36,76,-9,35,10,127,-2,36,-22,14,-43,9,-51,58,-41,54,57,126,61,-4,4,73,3,16,-11,-5,-25,23,56,-103,36,-8,62,34,-19,51,77,20,-31,5,-25,-53,-40,6,5,-28,-40,21,30,55,-32,37,-23,-50,0,-8,8,15,-98,28,17,52,-27,33,1,5,19,-21,5,68,-76,-5,1,54,-10,26,10,21,8,20,31,16,-86,-2,-2,4,9,9,-1,5,12,60,47,1,-32,-37,22,-49,22,-17,17,23,12,127,59,36,20,2,49,-68,28,7,61,18,-14,99,32,38,58,23,65,42,23,-39,-13,1,10,7,-27,-23,-12,-42,86,44,28,-14,-18,1,-30,11,-1,-43,-35,-78,50,7,11,21,-22,32,-27,37,41,5,-75,-67,30,2,-7,2,-37,42,-5,29,7,29,-70,-41,56,-1,-27,11,-25,21,-11,25,-18,3,-87,3,-70,10,-45,3,10,16,-29,19,5,-3,-102,12,-127,11,-12,35,36,20,-29,-3,-53,-73,-89,15,-78,-42,-8,41,100,33,36,67,-33,65,82,65,-15,-4,-4,39,85,22,-6,19,-56,102,88,51,13,-65,-11,30,71,12,-13,6,-56,89,96,85,-8,-77,-15,22,53,13,-19,-11,-59,127,91,119,27,-69,7,2,59,6,23,11,-45,45,65,81,18,-67,10,-17,32,11,25,39,24,25,56,49,-38,-65,-8,-9,31,12,86,89,77,-1,60,-17,-37,-58,24,19,-27,27,-61,31,11,85,9,-8,-20,24,28,12,-45,55,-35,31,5,60,31,1,-52,58,20,-5,30,59,-29,50,39,46,52,5,-43,45,4,-25,82,49,-11,15,26,6,36,-16,-52,4,-14,-17,97,16,17,-5,39,-10,-22,-71,-101,10,-15,-20,56,7,88,-8,-11,-7,-67,-70,-49,10,1,-38,4,-2,95,-4,-76,0,-122,-92,-127,9,8,-38,-19,-7,-14,43,76,-27,-74,50,-41,73,-59,15,13,-26,-37,91,26,-74,-36,83,-60,54,-72,60,21,-33,-17,127,-27,-45,34,71,-83,55,-46,65,20,-11,18,103,-74,-1,32,-10,-56,-9,-16,53,36,37,48,53,-14,-2,-6,21,-44,-57,-1,27,31,34,15,21,-27,4,-38,89,-42,-23,42,-24,19,22,30,-39,-39,14,-69,106,-43,-5,10,21,-9,-6,28,38,-50,10,-127,-23,3,45,6,18,2,13,10,34,-34,-24,-96,-10,-18,30,6,0,21,39,16,49,-61,-37,-100,-15,-11,22,5,-6,33,56,4,55,-74,-26,-93,-1,-30,5,3,8,9,68,-5,57,-118,-26,-84,1,-29,11,-5,19,-18,46,-13,44,-80,-17,-90,-49,-24,32,-17,24,-2,44,-22,72,-60,-14,-45,-60,-51,27,-23,26,-40,-31,17,81,62,-1,44,29,-27,126,8,45,-10,-8,19,38,-2,-36,-8,24,-46,47,3,63,0,16,2,53,-15,2,-36,-25,2,1,-33,20,-5,3,-3,79,7,38,-17,18,5,17,-11,-39,6,-18,32,43,-35,50,15,-36,50,30,-30,-39,31,-14,22,89,-6,63,51,-32,56,-21,-67,-54,32,41,39,127,7,78,31,-23,62,-8,-36,-43,-60,69,83,36,35,-51,11,40,-44,73,-14,14,11,49,-1,50,31,-29,40,-24,-96,47,4,19,37,39,-21,47,38,6,67,-60,-63,40,-6,18,21,25,2,14,37,-7,52,-82,-95,47,-15,22,19,1,-23,5,62,-5,24,-64,-127,14,-38,-13,14,17,32,60,51,-6,34,3,-38,5,-26,0,-9,28,34,92,87,-8,24,60,37,106,24,22,-33,24,-2,42,30,60,-42,34,40,127,24,37,-9,29,16,38,72,19,-39,23,2,103,10,26,-12,35,25,63,50,3,-14,-18,-20,90,20,3,-12,39,27,47,11,-13,21,5,-26,82,27,-11,2,18,38,56,16,-12,45,17,-8,56,25,-23,16,-11,46,39,24,1,42,6,27,77,38,-9,27,-22,41,15,6,4,80,2,32,98,-47,36,41,1,-15,34,-66,-38,16,59,-31,-3,-50,23,-7,23,-32,15,-66,-60,36,49,-46,-1,-34,22,-43,14,-23,18,-49,-71,-10,14,-21,-8,-29,-12,-32,19,-10,38,-9,-53,-41,22,-11,-11,0,-31,-32,30,35,23,65,13,-57,11,-70,-52,11,-4,-3,50,51,14,89,14,-54,8,-76,-33,-9,-12,7,76,48,26,127,68,-16,15,-55,-52,2,-5,4,-8,-57,97,-70,-10,-1,64,-30,34,11,10,17,-30,-12,35,-41,21,4,93,-49,16,-10,7,4,-1,-2,9,0,60,-28,67,-45,3,-26,9,-8,20,40,30,-22,86,-79,18,-33,35,17,-6,29,-13,42,33,-78,64,-118,-22,-57,50,57,-15,60,9,-28,65,-127,11,-117,-77,27,-11,33,-29,50,53,-55,96,-69,43,-71,-81,56,-24,-32,37,33,21,-19,-1,-11,55,-42,-37,79,-49,-19,-19,49,43,13,8,15,5,-28,-62,60,-18,-19,-14,39,32,24,34,21,4,-12,-64,48,45,-10,16,54,26,-8,61,-16,-40,-30,-51,-21,21,-14,16,7,-5,-56,88,-32,-81,-109,-15,10,-12,13,27,-27,-47,-75,33,-25,-65,-113,9,0,-16,35,29,-22,-32,-52,-6,5,1,-127,42,15,-32,5,0,44,-29,63,-17,-93,-88,-43,-81,-20,73,-12,-4,127,-23,89,70,-34,-63,-44,-31,54,45,1,-4,100,18,104,48,-56,-18,-15,9,-28,22,19,-1,27,51,6,53,-57,49,8,36,-15,20,20,5,-71,58,-42,47,9,75,11,50,-29,-7,13,-5,-34,18,-72,55,2,77,46,62,-16,-38,19,-33,49,-4,-59,-9,-1,87,-14,-12,-83,-44,10,-41,11,55,55,99,-41,-45,-84,36,16,37,4,-23,26,71,74,86,-15,-70,-51,18,-6,-17,-9,10,29,37,70,50,-20,-69,-33,40,-8,-18,1,48,14,7,71,54,-33,-23,-16,21,-46,-8,10,42,2,35,57,83,-28,55,2,45,-6,34,-1,17,23,77,19,127,23,65,1,97,35,45,13,10,46,55,-16,86,64,81,-30,80,28,79,17,9,-38,-12,-29,29,36,112,-89,27,15,0,-14,-6,5,6,-26,40,7,92,-53,26,-21,-17,-33,5,18,31,-5,54,-24,68,6,-33,-29,-28,-10,7,5,35,6,15,-54,24,19,-68,-42,-47,-3,-24,13,19,35,4,-38,-36,23,-31,14,-23,-4,-27,41,-5,37,2,-36,-17,19,23,90,-24,11,-11,36,-33,-12,44,-29,42,-15,107,127,19,22,48,-77,56,28,96,40,83,-34,-32,-76,-48,24,57,-6,28,-2,95,38,79,-7,0,-71,-33,14,37,38,29,-26,98,-6,111,38,16,-12,5,5,26,15,28,-28,81,-24,88,-12,35,-19,-24,2,6,37,26,-16,79,-26,77,-31,3,-17,-29,15,-3,36,26,59,77,13,69,-45,-43,-83,-75,39,-10,9,19,87,87,24,65,-87,-73,-127,-111,-4,-45,-21,57,78,18,48,28,43,-39,107,3,-9,-47,-20,37,93,0,26,6,9,-42,43,12,0,-15,-33,1,4,-3,47,-6,10,31,31,-21,-42,26,-59,-39,-54,60,10,14,25,13,3,-6,-29,38,-46,-14,-6,122,-68,38,40,3,9,-44,11,25,-12,6,14,76,-79,26,-37,20,-14,-58,6,-5,21,12,-50,44,-49,22,-127,17,-53,-58,-5,0,51,32,37,9,10,118,-7,2,-8,14,8,-17,57,26,60,11,17,56,-20,18,28,53,2,14,3,-2,-3,-26,10,52,29,-23,-11,35,-21,45,-16,15,-10,-9,17,61,28,-28,-7,24,-25,37,-37,-9,-8,-1,-21,57,10,-13,-25,47,-1,16,-38,24,-2,32,-9,109,1,-17,-16,42,-26,-21,8,31,7,55,34,127,-57,-15,-1,37,13,24,6,41,-84,29,-104,75,-60,23,75,-71,2,13,2,33,-67,17,-74,58,-73,-25,127,-75,3,4,3,13,7,27,-71,1,20,0,123,-10,17,-19,36,-10,56,-9,-48,-25,56,-9,52,60,18,-25,24,9,85,-11,-49,-14,32,-33,-24,52,14,11,41,17,57,-45,-13,4,21,-17,12,3,7,6,46,18,10,-36,-7,-13,-40,65,73,-38,-35,-22,-68,-35,22,72,-2,81,25,-127,71,41,-7,-100,-11,65,32,69,-33,89,32,-84,117,-43,-21,-74,19,87,9,43,-98,43,-44,-25,18,-49,-21,-21,-6,57,36,64,-73,-6,-81,-7,-53,-57,-11,42,8,63,57,60,-8,-51,-31,-41,-51,-73,-2,78,13,34,52,-11,59,-67,37,13,-104,41,11,47,-13,80,-13,25,117,-15,49,89,-87,93,12,62,61,-23,3,57,-64,-31,-75,123,-125,18,6,52,33,-5,12,60,-54,-58,-65,118,-78,3,-8,46,29,19,10,64,-20,-36,-20,99,-60,25,-5,35,24,25,2,7,-2,-12,-17,37,-72,10,11,15,12,21,3,-7,-56,35,-34,41,-66,-15,19,30,19,39,-1,-12,-21,48,-13,45,-83,-12,9,32,-20,127,-20,0,-36,39,14,104,-118,-10,-92,23,35,-30,-62,7,2,26,29,10,-77,32,-89,78,39,-45,-23,36,61,66,-38,34,-100,34,-26,68,30,-38,23,71,31,127,-70,20,-91,60,-26,54,23,-39,17,75,75,60,-24,12,-57,57,-6,50,-9,-61,28,58,47,30,-34,-14,-54,38,-4,28,-72,-55,23,45,-16,56,-60,-45,-83,16,-12,33,-106,-58,32,62,-45,87,-67,-90,-94,23,16,24,31,55,67,76,-6,49,-13,-37,-41,74,30,36,27,73,4,127,23,23,23,-44,-100,75,23,-5,69,69,-53,105,48,-7,10,-3,-117,41,17,-14,30,53,13,71,49,1,-35,-7,-63,51,11,-18,7,31,52,35,25,26,-52,-23,-13,52,-2,-29,44,21,52,30,47,27,-17,7,-69,14,-8,-21,53,2,87,55,0,25,-41,37,-50,-39,10,-44,-28,3,-32,80,25,11,-84,-68,-50,-21,14,21,-53,-32,-38,77,15,5,-26,-62,-55,42,-9,22,-5,-30,19,114,59,37,-1,-61,-112,39,-40,-1,63,13,45,127,88,16,1,-6,-76,52,-47,8,14,34,64,76,20,-27,6,16,-3,103,-41,-7,-31,1,109,63,-19,-4,79,39,1,11,-30,-17,-91,-29,104,40,-62,-7,28,40,75,-42,22,-66,-8,80,-12,-8,35,3,-97,23,35,-26,19,-78,53,108,10,-37,6,30,-33,58,33,-61,17,-59,49,44,-14,-44,-2,31,4,74,44,-40,6,-20,17,46,-3,-24,12,35,-2,51,66,-15,-6,16,-14,-22,25,-9,0,25,16,-10,22,6,-19,19,-12,-34,89,5,2,-15,-43,-18,51,32,-18,18,32,-36,127,60,37,-37,-15,-46,97,62,9,26,-2,33,-93,110,-90,89,-58,-10,-45,127,33,22,22,-13,-67,5,-104,112,-3,-75,17,58,24,27,13,27,1,-5,-8,79,23,-39,-8,21,-19,1,-45,41,65,42,49,15,43,-15,-20,26,-6,-18,-46,14,39,10,-17,-17,-11,5,-77,78,21,6,-5,8,-33,34,-8,-2,-48,40,-53,33,27,44,-31,13,-79,60,-29,4,31,18,-72,12,1,-4,65,1,40,25,-63,-41,-20,34,-57,-35,26,-9,86,-17,32,37,-16,-23,-33,49,-33,-9,23,27,106,-13,74,10,-3,-51,-71,116,-8,27,15,9,26,11,103,-1,38,-15,-101,106,21,23,-9,20,-4,-2,83,9,91,14,-74,112,-36,25,-13,-7,-27,-6,85,1,83,18,-115,99,1,79,6,7,7,-12,16,10,35,11,-127,74,-41,89,28,-25,-14,29,-16,0,-3,127,40,-41,-9,61,-10,6,-41,86,-23,82,-63,127,90,78,17,88,-30,18,-12,92,-7,104,-101,94,92,43,1,45,5,11,16,14,27,68,-15,59,39,12,-57,68,13,13,33,-11,41,35,48,-26,2,30,1,8,-13,11,51,-20,60,10,49,-16,-16,1,23,-7,-6,22,42,14,43,53,107,-17,-7,-121,6,4,-1,-48,-69,23,-47,-1,-127,-17,-52,-38,-13,-35,-6,-12,-16,-1,-53,3,-91,-20,-38,-25,32,-51,-9,8,8,-17,-37,10,-30,-15,-21,-14,61,-14,-6,-1,53,-20,-26,12,30,-14,-24,1,75,24,-4,15,93,-25,9,11,54,-12,11,27,32,14,-4,26,95,-21,27,29,31,-19,70,41,-16,22,-6,34,51,7,19,49,1,-40,67,70,-28,51,45,22,-17,-29,-25,-28,25,-16,-50,41,29,89,36,30,-43,22,-25,6,14,-33,-17,13,-21,20,7,25,-27,51,-27,64,-14,26,9,46,11,0,-4,16,-8,46,-7,37,13,-22,3,78,37,-15,7,8,-3,58,-1,51,-5,-26,-43,56,28,-9,-10,-4,-26,40,33,51,26,-24,-58,63,25,54,-9,-6,-60,24,32,-34,-37,-66,-90,42,-16,127,-14,-29,-33,6,-14,16,27,8,3,-78,84,-99,-6,-23,18,10,-6,-2,-81,-8,-2,-20,60,-110,3,-26,80,26,-6,-13,-106,9,2,8,31,-121,-12,-19,105,88,21,-13,-63,0,-7,13,33,-88,-3,-31,90,83,-37,37,-25,32,7,-5,60,-41,14,-39,56,47,-71,67,-54,48,13,4,127,10,27,-20,32,25,-55,97,-50,49,41,-20,118,9,10,15,73,39,-17,91,10,22,-36,127,-5,-18,19,11,60,23,-14,28,-33,-2,-31,121,11,-13,11,22,20,33,-20,20,-3,-23,-33,52,2,-2,-5,20,3,25,-26,17,4,-15,-24,-3,-15,3,-18,18,29,-3,-26,48,-5,19,-36,9,-34,-12,5,10,53,-15,-50,43,-11,18,-78,18,-47,-44,17,-13,79,29,-59,30,-32,-1,-85,70,-64,-77,-17,18,-19,-14,-28,64,49,33,-127,-13,-46,27,8,6,-17,14,-16,26,-3,23,-122,-27,-26,40,25,27,0,35,-26,17,-19,24,-50,-38,25,55,13,6,-12,39,-6,26,-5,38,11,-46,55,35,14,-5,21,48,-2,1,25,16,-41,-63,65,2,29,-11,47,40,-54,0,46,26,0,-66,79,-34,23,-17,62,-6,-61,20,55,25,40,-73,50,-18,17,-33,26,27,87,58,51,7,-29,-31,-9,-37,14,10,6,17,42,86,111,20,2,-56,-34,-21,4,20,21,-2,21,123,127,6,-8,-33,-53,-8,9,11,40,-1,27,126,85,-14,7,-4,-85,43,10,2,36,28,71,119,60,-16,13,5,-42,88,-1,17,9,40,69,125,-11,-38,-4,-19,-30,37,-17,2,-40,25,77,9,-14,2,-26,-17,25,-57,17,-8,56,19,23,13,52,13,-127,80,-64,7,11,17,22,32,37,55,9,20,-102,40,-56,-1,-5,-4,6,-7,13,65,-37,12,-63,35,-54,24,8,-3,-1,-32,-5,40,-22,13,-24,11,-77,22,3,12,-6,-27,8,6,-46,39,1,-13,-38,69,-5,27,8,7,55,1,-45,89,47,-27,-34,87,-13,42,-9,14,31,40,-59,91,51,22,-11,119,0,-25,-11,12,26,-38,28,79,24,27,-22,76,-29,-5,-11,-4,-3,61,20,88,49,-45,-28,51,-19,-11,-56,-22,-27,116,-6,27,-26,-70,-7,1,-3,-21,41,-16,16,127,-8,36,-36,25,-1,-8,24,10,98,-42,10,71,19,73,-54,57,-9,7,30,46,123,-45,2,15,42,62,-53,68,9,49,23,45,69,-27,-1,67,77,15,-15,24,0,58,8,16,19,-17,-44,10,-91,47,-53,83,13,64,10,5,-3,-11,-7,40,-66,36,-30,60,14,16,9,16,-1,-14,11,37,-26,2,-33,110,-20,-11,8,1,2,-21,11,30,-36,2,-73,127,14,-33,8,-11,-15,-24,7,56,-17,13,-26,96,-4,-31,20,-1,-14,0,-5,65,-42,10,-30,59,7,-44,46,-1,-7,27,-22,55,-116,58,-7,4,13,-45,-7,-2,-33,-19,7,45,-7,-4,-10,-45,21,62,6,-4,-9,-53,27,-27,6,-17,-5,-53,-44,40,-11,23,39,27,31,5,30,109,19,27,-32,-75,-55,37,-11,69,-1,66,41,74,-8,127,36,-52,27,8,-30,6,-18,19,0,-75,-41,51,22,23,24,-1,25,14,-29,1,12,-1,2,13,13,6,16,-2,-28,4,-23,38,-13,10,19,-48,-15,12,-7,-12,-10,22,0,16,-49,38,35,127,68,10,10,4,-16,3,39,29,-56,18,7,82,39,29,25,22,-1,7,37,43,-27,-12,-12,65,-33,38,17,13,-2,12,-4,50,6,29,6,47,-34,57,8,2,-39,1,-5,99,5,56,36,23,-46,29,5,-2,-59,0,27,91,-29,42,-10,-2,-55,17,12,-17,-43,-4,-3,47,-43,79,-68,15,-29,-6,24,-9,25,69,-33,-36,-11,23,50,-127,-24,-69,5,21,50,51,-2,67,-69,-11,-18,-57,38,-51,29,29,55,-10,-8,100,-63,-12,-18,4,24,-17,18,-6,19,-26,19,101,-46,2,37,7,1,34,-29,-44,-20,-62,45,84,-18,-1,-35,36,-36,38,-72,-52,-70,-69,4,57,-25,12,-106,69,-92,37,-83,-29,-53,-21,10,19,3,12,-107,40,-68,4,-15,17,-1,2,-50,18,-62,56,-85,-34,45,37,12,14,34,36,-14,3,-75,53,-35,-45,83,71,23,10,27,34,-8,-16,-28,37,38,-36,43,127,10,-32,-4,27,-18,-33,29,32,93,-36,-14,76,26,-11,3,16,-19,-53,53,-4,79,-23,1,40,27,0,14,37,-2,-44,53,-2,73,-35,-5,10,6,-20,-5,43,-15,-26,43,16,89,-71,-37,-44,-8,56,-1,-17,-1,34,-70,50,-7,-36,61,4,13,5,45,27,52,53,18,58,0,39,3,-2,51,22,41,16,3,47,34,7,11,35,-15,-35,31,25,20,77,1,38,56,30,59,-28,32,-11,10,13,-56,96,-82,54,97,94,95,-76,-37,-30,-17,-13,-68,43,-89,90,-21,22,104,-63,59,-25,-23,6,18,62,-29,127,-92,80,114,43,59,48,-57,45,2,-23,-1,57,24,110,64,-15,14,108,-4,44,3,-7,-8,49,36,92,13,-14,59,41,23,48,-15,25,-37,31,-43,127,-22,-8,82,-13,24,-11,-26,46,-67,14,-65,97,7,9,82,16,20,-42,-19,9,-36,59,43,74,-6,-51,72,24,12,-19,-13,-22,8,66,-5,53,-14,-47,75,31,1,23,11,-6,54,96,-26,104,51,-4,97,38,-13,37,2,29,28,43,-16,12,-54,-52,-83,-2,-5,20,-15,5,-5,30,12,15,-65,-38,-21,-7,3,27,-43,-13,23,84,11,20,-26,-46,5,-4,12,27,-40,-13,13,105,-1,23,-15,-20,-4,19,13,-29,-59,-14,-26,105,-39,0,-50,-32,28,64,15,-51,-40,20,17,103,-52,11,-49,-27,46,45,-2,-70,-2,20,84,127,-100,-3,-49,-3,31,12,-4,7,54,44,-28,48,37,-57,79,63,56,38,-5,-5,42,11,-36,-7,0,-62,11,48,28,7,-13,3,18,-6,-37,15,-16,-31,-5,-5,38,-10,-4,13,4,-12,-16,16,-44,-26,1,-26,27,5,16,1,-2,7,-1,26,-65,-41,-7,-22,46,47,15,8,37,50,22,27,-100,-20,-12,-10,8,35,22,-11,22,58,22,33,-127,-26,-35,-6,12,-21,15,13,20,69,56,78,54,-13,4,2,-10,15,0,-7,-23,127,22,38,13,37,35,-12,11,0,-11,-13,-31,67,-35,8,-19,60,30,106,32,24,-3,2,-25,-12,-31,13,-60,28,30,107,36,69,-11,-6,44,-43,6,30,-67,14,30,59,12,-12,14,6,42,-40,7,23,48,86,26,-13,-58,-38,10,-12,7,20,-14,70,106,99,-12,-61,-67,-38,-40,-33,-14,-1,71,13,-71,5,66,-95,68,25,-15,-21,-5,6,55,17,-12,11,53,-75,36,-1,8,-24,-6,14,36,-11,6,47,29,-70,47,21,16,-16,23,18,4,-19,26,44,44,-54,66,34,-17,-11,3,11,37,-34,40,36,37,-49,59,63,-27,-8,-18,-17,96,-29,57,27,57,-36,60,90,-10,-5,-20,-49,127,-24,58,35,39,-67,23,94,57,11,6,-10,112,91,68,11,-13,-38,17,-1,38,24,36,5,82,64,64,0,-2,-26,19,-16,35,32,30,10,73,57,55,11,2,-38,8,-1,36,36,20,10,95,29,34,-5,1,-10,-1,-3,33,24,10,-2,105,30,25,-23,-31,8,31,-9,31,7,9,-29,122,6,29,-44,-24,-3,50,-15,37,0,-9,-43,127,0,41,-12,10,4,90,-8,-38,-25,39,27,-17,49,27,-22,-44,18,-4,127,-44,-51,26,40,3,28,37,-14,-29,36,11,102,-11,-59,4,17,19,23,7,-37,29,35,-11,92,-21,-53,16,72,32,45,26,-27,54,26,9,70,4,-36,-7,44,13,54,23,-15,7,-49,41,78,-3,-8,-11,23,17,52,15,0,-28,-81,28,42,24,-11,-23,-46,27,53,-24,9,-6,-72,9,41,26,22,-5,-46,-54,32,53,-1,-23,-16,40,74,8,-14,-21,-8,-12,3,-2,31,-17,-44,48,16,13,-23,-17,-13,-8,19,-24,-24,23,-112,27,27,20,12,19,36,-2,-8,18,-1,25,-38,-16,-2,-7,30,26,88,-12,39,-43,88,58,102,-11,0,-34,2,19,43,26,91,-2,36,46,127,39,36,-3,-23,38,9,-19,-46,5,17,-1,35,27,54,9,-24,-15,-16,13,45,-4,32,-2,0,-24,29,-8,-16,-11,9,44,67,19,25,-16,-6,-42,97,-23,-24,-2,19,82,94,43,-12,-66,9,-65,127,-10,-41,-13,27,68,106,27,14,-87,14,-80,81,4,-44,-7,7,56,98,30,9,-66,-7,-84,27,8,-24,13,16,8,97,-25,48,-46,-27,-73,20,26,-6,36,19,8,91,-40,51,-38,-48,-28,1,-25,-48,30,-31,42,1,-26,64,29,-5,84,71,-20,-10,79,-32,38,12,-24,54,10,3,67,1,-27,30,79,-40,67,37,34,49,-3,27,41,3,-46,48,42,-27,55,72,26,127,27,-7,19,7,-29,17,-28,-11,19,48,10,41,19,-57,34,26,-7,-33,-42,-5,5,44,-19,-11,35,-42,29,33,18,-50,-25,-11,-16,24,-28,-46,34,27,-27,11,-3,5,34,46,3,-21,4,7,21,-111,0,6,8,-29,-7,65,18,-13,39,28,-21,-75,49,39,13,0,16,21,2,18,44,30,-51,-42,30,31,2,32,8,-52,6,14,-37,16,-34,74,2,11,11,46,20,-95,-22,22,-29,-24,-94,127,-62,29,-5,46,37,-22,-3,22,-35,-48,-48,105,-71,-3,-34,3,4,20,45,-16,-8,11,11,15,-39,1,7,-2,37,-14,117,69,55,13,1,15,127,-28,4,2,25,-14,70,38,22,10,1,7,43,-49,-18,-24,3,-9,52,32,4,2,47,23,10,-36,-7,-23,16,-9,47,5,23,17,40,13,26,-34,7,-19,20,-6,68,2,-7,53,46,22,41,-21,2,-19,4,1,81,7,-25,63,66,7,69,1,-26,-21,11,1,77,4,-8,36,43,-32,63,38,-12,11,-13,41,12,16,-42,-18,19,84,-27,-59,-67,38,-2,57,28,49,-57,-71,34,47,-78,11,-75,43,8,12,17,66,-41,-71,49,11,-127,-22,-27,24,-16,6,-5,38,4,0,-26,-39,-79,61,-8,8,-31,31,3,32,13,20,-38,-40,-40,61,11,12,4,27,3,61,50,-19,-43,-15,-38,38,6,9,2,17,28,55,65,-55,-40,-25,-3,15,21,25,-72,-7,42,77,82,84,-53,-45,53,84,17,13,-15,6,50,66,33,73,-100,-29,12,34,5,21,-8,-17,0,68,58,93,-95,-62,9,60,17,21,-22,5,39,88,25,18,-55,-63,-32,49,13,23,-29,-17,19,50,-21,-18,-35,-64,-56,90,5,8,14,0,55,40,25,16,0,-65,-43,85,5,-1,54,-9,72,77,10,44,50,-56,-23,127,35,-48,16,-20,73,1,-60,-93,-16,1,-59,-10,-7,-5,-25,-52,94,-18,-52,-56,15,42,-73,14,-27,25,-11,-65,94,-6,-43,-38,22,123,-108,33,-24,5,21,-75,56,-38,-77,-49,20,92,-127,14,-8,24,60,-29,20,-39,-63,-56,-13,73,-97,16,-6,33,71,65,-18,9,-43,-49,-8,-4,-25,14,-26,27,8,112,8,42,-20,-56,-20,11,3,23,6,-16,-73,9,127,42,27,-67,19,-76,-24,-27,14,15,-31,9,69,63,33,-60,13,-69,-59,-15,19,24,-24,18,67,66,50,-29,56,-59,-50,-10,23,34,-21,12,79,42,25,-24,40,-37,-52,1,25,-1,-13,1,36,52,-23,-44,24,-19,-29,3,19,-4,-5,-4,50,85,19,-40,44,-9,-18,37,4,11,-39,-12,60,118,54,-29,74,-21,50,68,-6,-12,-9,9,-38,5,-34,21,-36,-28,-11,-28,-25,-7,-6,-3,-52,56,-5,7,1,-10,-22,-7,-30,-2,2,-6,-60,89,37,-23,41,4,-4,39,3,-12,11,-15,-71,119,66,-46,39,-11,-44,39,20,-16,18,0,-29,127,58,-49,36,1,-52,16,9,0,38,-9,4,68,26,-50,90,30,-14,16,-9,13,24,-21,54,31,-5,-50,87,47,43,-1,-10,16,28,32,-18,60,-19,-40,56,-38,18,127,15,29,11,32,-26,67,24,-64,44,-38,-35,112,15,34,6,49,-15,86,40,-50,76,-47,-68,112,18,39,11,42,9,65,48,-72,58,-31,-87,57,28,34,36,26,0,101,48,-78,45,1,-42,52,8,19,73,21,14,108,39,-69,20,16,-17,43,6,22,93,0,-2,113,21,-46,-6,21,18,98,-70,6,-21,49,-13,107,88,31,2,114,22,8,-38,3,7,89,-27,59,50,-6,-75,48,3,-9,-21,4,24,116,-49,33,66,-49,-71,34,-29,-9,-12,31,56,50,-39,48,60,-75,-70,-12,-92,92,-12,-4,73,13,-42,21,50,-73,-77,-42,-66,107,4,-28,52,23,-7,32,63,1,-94,-10,-29,70,12,-22,49,13,39,40,29,-6,-127,-30,22,64,18,-53,-83,-50,10,35,16,36,-53,14,-75,-46,51,-4,-51,-77,3,37,-84,-41,27,42,11,-63,18,44,67,26,-2,68,2,62,43,127,63,-26,-50,-9,32,97,15,29,58,84,86,69,28,27,-12,-39,48,-8,12,-1,10,57,-41,12,49,1,-25,-9,21,9,-13,-9,-38,-41,-53,-59,10,53,-7,15,46,22,-39,48,-82,-19,-58,17,-75,73,-7,6,2,-55,-26,47,-18,-6,-23,5,15,48,27,63,27,-19,-19,34,-58,-13,-27,33,72,-25,51,41,73,12,29,41,3,-20,-21,33,75,-58,17,-37,65,54,39,52,98,-3,24,18,65,-29,-13,-75,21,8,7,68,118,-39,64,-57,-34,28,-16,-38,15,-16,-39,36,90,-60,27,-77,-46,70,-27,24,16,-29,-47,13,42,-39,-43,-27,-26,127,11,-19,17,52,-53,58,-43,-14,40,-81,5,-27,-3,-2,-8,24,4,53,-13,69,74,-63,22,16,8,5,1,45,54,-23,-26,49,-3,-85,64,31,20,0,-1,15,31,-56,3,8,-36,-48,-23,-8,1,-31,7,6,-27,8,11,-10,-100,42,-70,-5,-22,-44,40,-13,-57,97,-17,-59,-93,76,-127,-22,-5,-23,32,5,-40,80,-18,-23,-61,42,-77,24,11,-44,-27,2,-9,57,112,27,-12,-15,67,108,31,4,-19,1,-47,80,70,4,3,-42,46,61,20,37,-9,-14,-64,113,103,32,-16,-32,34,34,-9,43,-14,1,41,94,61,37,-69,28,23,22,-36,21,4,-7,61,0,27,39,-84,29,30,17,-66,-33,45,48,83,-46,-41,19,-127,32,38,37,-10,-81,26,28,85,-33,-65,22,-80,0,48,39,-23,16,-1,-3,2,45,-53,-8,-4,74,-1,9,-62,-8,-24,-21,1,20,-17,51,-69,14,-59,-13,-27,12,1,3,7,-17,-5,42,-87,11,-16,-27,11,10,26,21,1,-14,-13,43,-49,-18,38,-38,35,-19,-7,26,31,24,0,25,37,-38,47,-6,36,-32,-14,-12,47,52,25,-40,127,-26,3,9,21,35,-4,-51,13,48,17,-39,96,7,-24,4,-10,32,32,77,81,62,11,-16,-26,34,-25,29,15,38,29,41,4,50,43,-28,-31,-10,-42,36,35,33,19,24,7,39,52,5,-12,-44,-16,49,42,49,6,5,25,48,62,22,4,-77,-46,78,27,20,36,4,-42,88,20,32,9,-68,-57,73,14,-10,30,24,-29,88,18,67,-22,-42,-48,83,7,-21,25,36,12,127,-26,60,-27,-3,-37,51,-53,63,-21,-27,37,41,-10,62,-85,16,-127,-3,-9,56,-32,-28,29,21,-37,58,-81,1,-54,-6,1,48,-39,1,8,65,-45,37,-84,27,-71,11,-21,27,-21,22,-20,116,-26,-8,6,68,-23,43,-12,19,8,48,13,66,5,-7,22,68,13,21,4,-13,27,73,13,78,33,-8,-17,48,14,19,21,-20,64,63,12,102,69,-20,16,7,4,55,-104,-41,78,21,-37,71,61,16,-29,25,34,54,-37,-27,71,-26,19,74,-97,19,-53,66,-42,52,-5,6,-98,-4,12,-12,-59,12,-60,90,-21,105,-40,34,-93,61,-9,16,58,8,44,-3,-86,88,17,64,-5,16,33,49,33,7,-11,55,-127,43,41,49,32,48,63,20,-54,-31,6,71,0,32,3,-25,45,64,-64,63,-20,-8,24,-34,35,-34,57,36,-3,-27,84,127,12,89,-59,26,-40,-19,40,24,0,-21,47,119,13,30,-26,-5,23,-12,40,24,7,-8,21,91,-4,5,-54,-28,28,4,43,30,22,11,39,57,16,7,-50,-12,22,17,40,15,21,7,46,55,42,32,-43,23,24,-23,39,14,4,-19,39,55,51,26,-62,33,29,-32,57,30,-12,-52,-6,61,59,52,-58,70,41,-32,8,48,-2,8,-10,-18,-16,85,-81,79,-25,51,0,35,5,-14,-16,25,-27,21,-60,6,-48,54,2,24,5,-13,-28,58,5,-36,-12,-12,-51,55,-28,19,-10,21,-4,81,50,-36,17,6,6,41,-13,1,-14,26,37,49,-4,-25,30,20,-21,24,5,-13,5,28,65,25,50,70,11,12,-52,14,28,-3,26,13,36,-19,13,127,13,56,-29,33,-13,56,14,78,-76,37,39,103,17,24,44,-96,-23,51,0,0,-49,76,57,45,-11,34,15,-53,-7,21,29,-35,-2,63,7,-10,-23,67,27,-25,-25,-15,59,-11,9,33,-66,-30,25,43,47,-61,-29,-26,54,-4,24,36,-39,-20,50,0,50,-26,-39,-42,27,-10,-30,64,-21,-50,19,55,20,-32,-49,-65,-18,-16,-23,127,-40,-10,27,121,30,21,-21,16,-22,-24,101,14,29,8,1,30,-58,5,-12,-40,27,-50,70,60,38,37,-26,62,-32,-13,-6,-52,1,-54,-1,41,60,51,-63,5,41,-6,12,-16,11,-21,-31,64,49,34,-3,11,103,-12,3,17,-17,2,-21,113,48,75,7,-15,19,-37,-39,46,-11,71,37,106,40,1,-6,-7,-30,-71,-61,38,-62,45,30,127,55,38,31,83,-20,36,11,27,59,50,-37,55,25,107,31,31,1,17,10,19,12,30,-40,85,61,121,44,-43,-39,-12,-5,0,0,15,6,126,33,81,18,-60,-84,11,-11,-19,8,5,29,90,72,127,-7,11,-83,19,-17,-31,-1,-8,59,65,59,96,11,77,-64,-17,6,-4,7,-10,77,19,51,72,-8,76,-63,-40,3,-13,55,11,74,15,85,55,-43,-8,-18,9,17,82,37,31,18,8,-29,76,-118,6,34,59,41,38,18,34,30,-3,-26,127,-100,-8,80,60,52,-17,18,43,-21,17,-8,69,-13,-15,17,59,37,-51,65,25,-51,18,-2,-1,31,-47,45,10,3,2,52,-22,-12,21,-11,-48,98,-59,58,-6,-13,-18,8,-36,43,35,43,-41,113,-67,32,18,-45,-37,-34,-18,40,53,42,7,99,-64,-26,59,32,31,127,8,-4,32,11,43,62,92,51,-102,65,-32,1,48,-25,11,-31,65,97,81,90,-65,67,-59,1,84,-45,29,12,92,96,49,84,-21,40,-51,28,35,-57,20,15,43,11,18,27,-74,26,13,44,-38,-39,43,15,-40,26,10,2,-64,-1,0,44,-11,-3,67,-10,-79,51,35,18,-24,-55,-1,32,49,-7,66,-13,-62,0,99,-45,13,-25,-33,57,57,-54,61,45,73,23,22,20,50,-10,-58,109,-6,1,127,-56,15,-20,0,-39,87,-4,17,-45,3,21,7,-55,-18,-119,22,-44,24,-20,39,-109,34,-3,-3,56,24,-23,-4,-50,67,-6,47,-18,-19,39,18,-12,2,-22,21,-97,68,34,47,44,4,56,16,-101,15,15,91,18,-8,13,-48,13,89,-56,57,67,40,12,-18,-5,-4,-2,4,-32,42,48,2,-15,82,-102,16,-22,-22,2,14,-37,47,20,14,25,87,-75,26,-31,-4,-7,17,3,21,-23,14,49,60,-17,73,-29,-9,-2,22,0,0,3,40,24,41,-28,44,-27,-11,-6,38,-21,-16,39,96,-22,-6,-7,16,-2,14,2,29,-5,-5,48,127,5,-19,-37,-4,-47,-13,3,16,10,9,42,90,31,-8,-48,-10,-81,-39,-8,-46,-31,31,52,58,22,39,11,54,-11,127,4,-8,-11,6,22,78,34,21,-21,51,-21,99,11,19,-18,6,-24,68,34,41,-26,14,-21,66,1,54,-11,-3,-6,67,60,20,-1,19,-19,28,3,45,-36,-23,3,41,82,2,-20,19,-25,19,3,26,-25,-23,23,34,104,10,5,7,-41,32,21,27,-5,-43,24,41,94,40,28,-14,-11,91,20,-19,-18,3,32,84,61,55,42,-2,-33,-24,16,2,-36,16,32,127,26,24,47,4,-6,-6,15,27,-38,5,11,74,11,21,65,30,-5,-2,7,6,-14,25,15,47,18,23,40,46,3,16,6,-17,32,5,37,32,23,-26,22,34,10,35,1,-20,12,0,32,55,41,-35,-20,7,-53,16,-13,13,-21,9,63,35,50,23,-25,-13,-72,-13,-41,0,0,36,67,-14,31,-10,-93,-56,-16,-6,-28,5,29,-8,51,-8,53,-29,-127,-79,-71,-28,-8,11,2,-7,37,22,40,-15,-90,-32,-61,-54,3,37,7,-1,23,42,20,-27,-88,-40,-16,-47,11,32,11,-9,67,34,15,-43,-93,-52,-12,-34,28,28,49,2,57,54,14,-12,-89,-49,-26,-16,32,38,65,16,98,86,3,23,-12,-54,-4,16,17,0,-21,-24,3,50,-77,7,-66,0,-3,-35,-1,31,15,61,-3,30,-22,4,-70,-70,-26,-59,-37,39,5,127,46,65,16,-17,-35,-80,-18,-48,-26,24,-42,117,64,72,24,-21,71,-55,-9,-10,25,-16,-32,35,37,65,-12,0,87,-62,-116,-32,19,1,-6,1,-2,54,-7,-2,41,-49,-46,-43,10,32,9,56,-9,11,-41,4,12,6,22,-34,-45,-2,-11,-39,41,18,31,42,-81,23,6,-12,-25,3,-7,-6,17,-11,24,29,-99,17,15,22,-44,7,-23,-3,-12,4,26,23,-93,0,11,68,-19,19,-16,42,12,-12,21,39,-94,-28,52,127,-16,25,34,51,21,-44,30,45,-89,-42,80,113,5,-3,89,61,18,-22,3,5,-61,-30,96,71,14,-26,82,73,10,-17,14,-5,-29,-59,107,50,35,27,-16,-22,-24,66,-21,26,-14,-46,28,-75,50,15,47,19,7,52,-26,38,-88,-17,78,-25,62,36,61,34,40,5,-55,35,-70,-14,84,61,13,8,19,35,-41,3,-10,45,-14,-35,30,106,-21,10,45,5,-57,-33,51,-18,13,-88,-42,127,-17,-2,82,13,-37,-37,-2,-65,5,-93,28,112,-45,-11,81,36,5,-51,62,-13,39,-78,0,84,-56,-3,58,46,62,106,-3,-8,-15,-52,108,-86,-3,16,36,45,18,125,-43,37,-23,-90,37,-110,-11,38,75,68,-9,58,-18,38,15,-127,33,-58,-7,-11,-5,68,35,23,21,2,52,-95,3,-64,10,-10,-48,73,102,43,-10,-67,37,-109,-37,-33,-33,-6,-80,103,72,18,54,-31,-33,-115,-110,-2,-68,4,-34,96,69,95,63,-13,-96,-60,-42,-75,-5,39,0,-21,0,97,42,2,-8,63,-61,27,3,25,-25,-20,-16,127,24,-29,-43,49,-49,-4,-2,-4,-31,-10,2,124,33,-25,-11,12,-18,12,-1,-7,-24,8,25,49,53,-25,-20,-35,-6,35,-12,-6,-9,6,37,14,37,-12,-15,-5,12,34,-26,10,-2,24,45,-10,5,13,-16,35,2,16,-6,27,4,28,30,13,7,76,-25,16,-7,-19,-2,-16,-30,-18,11,25,-12,-127,-44,-77,-1,-16,13,1,-15,-10,7,28,-50,-102,-32,-54,-1,11,4,10,-21,6,-9,23,-89,-57,-4,-23,8,10,-10,-8,-15,14,6,-10,-35,-52,-38,1,24,21,-15,8,1,15,-4,-20,-28,-46,-45,7,17,38,-4,7,26,6,-3,-12,-33,-58,-46,-16,29,72,1,3,12,-7,-20,-10,-75,-92,-75,-42,62,95,26,-18,12,-4,-20,-9,-51,-4,-19,127,-28,-15,5,7,13,31,-30,-32,-22,32,14,106,0,-58,-21,11,24,112,11,0,58,66,35,91,25,-54,-16,9,11,90,41,12,21,41,-6,-24,29,-23,-7,-9,-7,35,24,-4,-15,26,-20,-42,-3,-30,-6,4,-8,21,-4,7,8,27,-44,-14,-62,-46,-9,18,-12,43,3,-1,-12,21,-47,45,-48,-38,9,-41,-59,29,15,33,-5,29,-6,54,-35,-50,12,-42,-36,47,-19,79,-5,18,-2,28,32,-61,15,-10,37,67,-44,77,-9,-17,6,27,44,-62,5,1,87,67,-23,55,-48,32,25,39,81,-34,-14,20,101,53,-9,68,-61,48,67,40,127,-10,-20,6,76,23,0,68,-45,-12,61,50,106,-16,-25,8,49,20,7,37,10,-40,56,90,104,-14,11,37,29,43,-61,121,-90,80,-71,-36,3,47,14,5,55,75,-8,99,-53,96,-4,-33,1,46,7,-27,45,43,28,46,13,113,42,-23,28,85,-4,-29,43,-9,30,10,13,69,59,-50,33,127,-17,-2,16,4,17,-21,2,46,77,-58,40,114,-2,23,-1,63,-34,6,-8,21,120,-20,57,97,22,48,-23,99,-75,27,-15,-39,55,13,90,100,-11,32,-60,46,-77,61,3,9,12,-65,-69,-52,6,34,-31,13,-16,26,26,39,7,-69,-37,-35,11,15,34,5,11,45,13,4,7,-32,-63,-20,17,-4,63,26,28,15,17,56,-3,-32,-22,-31,9,-16,-35,23,53,12,-20,87,3,3,34,-27,0,-6,-51,19,91,52,-44,80,31,42,29,18,3,-24,-33,29,127,83,-32,25,0,44,23,27,39,-16,66,39,-47,41,4,127,-47,53,-70,-46,1,42,22,23,-58,53,-22,14,64,26,-61,-34,-13,23,-4,6,-78,88,-75,18,90,-13,-66,-56,-16,-14,-46,65,-40,69,-102,19,-55,-19,-47,-25,-19,-2,-27,50,5,13,-42,-47,-63,9,-30,5,-8,-2,7,-6,25,-28,9,-52,-46,13,-37,34,-9,-5,37,-9,105,-6,30,-68,-75,-76,41,70,-2,23,-29,61,59,92,40,72,-36,-20,-94,-76,11,35,4,31,6,70,56,25,-19,-3,-97,-78,0,43,7,34,5,69,28,39,25,35,-43,-62,4,30,-4,19,-20,87,16,24,-13,16,-54,-71,7,24,9,8,-8,81,13,8,-17,-10,-71,-64,21,38,48,11,35,111,27,7,-43,9,-124,-74,27,56,19,20,110,127,19,38,-53,-2,-111,-96,-65,-2,-6,-8,63,59,19,127,55,-18,16,27,-56,15,-22,19,8,66,13,76,41,-28,-11,41,-31,21,-10,47,5,51,-35,95,52,-29,-8,59,-6,40,2,53,8,78,-39,60,13,-17,0,11,10,47,12,59,-14,77,14,31,0,-19,6,-19,-17,32,9,69,-19,102,35,58,10,2,29,26,1,13,-28,58,1,108,51,37,21,40,32,39,4,44,27,103,-72,2,80,-1,45,121,-52,-2,12,17,-10,123,0,55,58,-10,16,124,-41,16,19,-14,-59,92,37,84,1,-49,15,84,-22,-33,2,20,-48,73,45,41,20,-66,5,76,-24,-77,-14,17,30,65,35,69,61,-52,27,22,-12,-13,-13,24,49,77,11,83,79,-44,-56,33,-48,1,3,37,57,41,-22,62,58,-56,-127,6,-72,1,-26,1,89,51,-24,108,-55,-43,72,91,9,9,-9,-20,37,71,-33,64,29,-39,-65,30,11,-75,-25,-32,-20,37,-12,62,29,-29,-30,-38,-30,-106,-25,14,-72,-12,4,27,27,-33,-79,-29,15,-100,-41,8,-43,-22,19,33,62,20,-62,-42,16,-69,-8,10,-32,-14,20,100,-19,55,-20,-20,62,-13,14,40,-44,7,19,127,-88,57,-34,-60,64,-5,-15,57,42,45,-57,9,-27,-55,-22,-40,99,2,-12,41,32,17,-39,5,-44,-60,-2,-55,48,-19,-4,26,3,36,0,8,-44,-26,53,-35,55,8,13,30,15,61,-18,26,-76,-3,59,-7,62,23,13,3,4,109,-30,5,-12,3,33,13,53,15,9,7,-18,101,-20,-39,10,-25,37,7,77,27,21,15,-56,76,-24,-57,-10,-75,-22,19,127,38,3,29,45,-19,75,25,-19,-29,3,20,47,-56,7,11,72,-33,80,23,-7,-24,-30,16,46,-31,3,14,71,-43,88,26,-26,-21,-63,30,30,-24,-16,6,55,-40,127,48,-28,-8,-70,37,99,11,-7,26,13,-44,104,18,24,-11,-31,31,32,-4,-17,24,-38,-50,77,38,30,-5,-87,-10,20,-7,-21,2,-43,-32,14,60,34,11,-90,-21,-42,-24,35,53,110,78,67,113,-101,30,-47,-42,37,7,25,32,127,14,73,92,-40,39,56,-6,6,-34,25,25,111,9,57,38,43,101,117,44,9,-107,19,5,47,29,31,-3,59,121,117,23,4,-126,23,-42,41,68,43,-1,84,84,106,-41,14,-97,53,-59,55,13,7,54,77,-8,60,-41,-78,-62,49,-65,48,-35,13,112,110,-68,31,-14,-75,-73,-14,-7,-2,55,10,-7,30,27,-16,84,-127,-65,4,-32,3,51,-7,29,32,17,-35,110,-108,-113,10,-37,-8,101,18,59,12,28,-15,82,20,-62,-6,-12,8,81,3,65,-51,49,0,100,54,-67,-3,26,29,0,-10,63,-48,37,-16,118,45,-69,-14,42,24,3,-15,29,33,-21,-48,87,51,-63,-16,20,-19,39,-26,-3,48,-23,-36,66,100,-78,-8,12,61,50,46,127,41,76,-11,56,-29,-28,6,5,45,23,73,55,9,18,-3,7,-35,-66,13,23,-1,12,124,29,-15,-14,5,7,-85,-79,15,32,-18,6,78,34,34,-8,-28,33,-77,-91,-2,30,29,9,14,42,52,39,31,52,-25,-57,9,23,66,14,-63,19,48,68,67,111,-25,-84,16,20,20,23,-82,7,19,112,28,101,17,-122,45,-12,-41,-9,23,126,87,-23,24,67,32,28,33,-18,0,13,8,53,69,-16,59,28,21,12,14,-16,17,23,-16,88,70,10,66,6,48,17,8,-49,-43,34,-40,110,89,45,69,22,29,-13,12,-50,-31,19,-33,108,72,36,37,3,4,-29,0,-34,27,23,-8,127,35,34,71,-19,-2,-19,10,9,76,27,-3,106,-50,23,81,9,15,22,-23,-53,-23,16,-8,-9,-6,-17,21,-110,-102,-47,5,-9,-13,17,-19,-18,-24,-34,32,-74,-41,-32,4,-8,-10,25,-30,-17,1,-4,37,-55,-14,-37,-19,-29,-22,19,-23,-20,31,-3,-23,-36,-23,-6,-28,-34,-28,-15,-32,-9,-15,-20,-66,-11,-59,-8,-62,-53,-28,-28,-33,8,-26,4,-127,-2,-62,-4,-93,-20,-25,-33,-25,10,-33,14,-98,-46,-80,-24,-11,-7,-41,23,0,31,26,35,-16,1,100,11,-41,34,24,39,-1,38,38,53,-43,21,-29,81,-25,67,38,65,-34,37,15,38,-56,8,-82,109,14,25,-18,71,1,47,-55,68,-26,-22,-79,13,49,-55,0,-16,7,110,-83,67,31,-38,-22,-11,61,-98,57,-89,-5,94,18,48,47,-35,7,-40,43,-74,127,-56,1,29,-5,48,19,23,59,-31,-45,3,9,27,-13,15,25,-41,-111,-109,-41,84,-29,61,34,-15,39,20,-3,17,-127,-82,-55,93,21,43,21,15,29,12,-24,54,-60,-61,-74,70,26,20,60,42,-61,4,27,39,-14,-43,-23,36,29,0,49,31,-77,11,-13,-11,-30,-51,57,5,50,7,31,44,1,24,-58,54,1,-81,112,-2,56,-29,18,47,39,102,-53,102,43,-104,57,39,12,19,-18,-6,-20,52,-54,-32,33,-49,17,10,3,16,-18,-10,-40,110,-41,-27,64,-41,-34,52,-14,29,-13,14,3,121,-49,27,101,-59,-29,85,-9,41,-21,64,25,93,-34,41,109,-32,-45,38,-3,45,-21,74,26,127,-50,0,118,-4,-21,-19,-12,30,-12,49,52,96,-48,-49,89,-27,-24,15,-32,49,-35,-20,57,39,-44,-79,48,29,10,79,-14,-8,12,69,-66,127,-23,83,69,-21,65,-28,-14,-12,42,106,-33,63,10,-4,21,-41,3,-40,-29,8,69,39,25,62,53,-37,23,26,6,-1,-46,18,46,33,12,35,64,19,20,-2,-45,0,-14,4,-36,61,56,47,0,27,-16,2,-47,41,2,-14,-29,7,67,-34,-55,-16,-52,40,-45,28,18,-66,-38,-55,58,-35,2,-33,-12,49,-40,35,2,49,74,80,25,39,32,62,-22,18,-107,75,-22,40,67,76,88,73,63,127,-21,70,-65,64,8,4,37,44,48,50,39,71,-17,105,-51,85,-2,-1,-8,17,-21,59,-7,-4,-30,98,-18,68,-22,3,-15,6,-2,47,-9,-22,1,45,16,67,-10,14,-25,-25,-10,53,-29,-29,7,0,26,30,5,17,-24,-5,-4,-3,-8,10,-53,14,12,-1,0,-7,-13,53,22,46,99,61,-38,-13,25,63,27,-38,26,61,45,84,101,98,12,-19,11,114,29,-21,87,-21,62,95,68,30,8,24,18,77,2,29,10,-29,29,36,36,-15,39,21,28,51,-20,51,-24,-6,-17,33,33,-48,99,27,33,-7,8,-4,-56,77,-73,13,-50,-11,73,64,6,-72,-9,11,-26,127,-71,-4,-114,16,-3,66,-59,-83,-19,38,-43,-35,127,80,43,-55,6,-31,44,16,-10,33,-4,24,96,87,57,-16,28,0,10,-1,-19,20,8,43,78,81,70,18,88,39,54,-28,-3,3,38,55,47,64,45,-8,80,-15,53,-20,19,19,37,21,40,3,14,-7,44,-52,29,41,-2,14,13,-5,-3,-22,26,-13,2,-24,-9,66,-38,-5,-47,-5,-46,-12,63,-47,-49,-31,17,119,-57,7,127,-19,-36,-37,-12,-28,66,19,-56,-4,-20,16,51,-27,-42,-14,-6,-13,24,-5,-57,-23,-4,-5,11,-3,-29,55,32,-1,14,-27,-103,-28,-24,-5,21,2,-26,108,41,0,6,-8,-94,-22,-5,-2,-27,-8,-16,95,34,9,-23,-3,-60,-5,-6,9,-29,28,-19,96,-4,32,-19,-18,10,67,-13,33,0,16,-10,71,-26,62,-48,-13,34,97,4,42,15,56,105,83,-11,11,2,14,19,-44,-4,39,54,20,19,74,-50,-18,-47,17,8,-31,-8,20,61,8,-1,64,-63,41,-26,7,47,1,4,31,-4,6,-17,45,-56,98,-48,-16,31,-10,14,19,-29,9,-22,42,-62,114,-13,-10,49,-22,13,30,-18,12,-35,42,-97,127,2,-8,-50,-69,1,45,4,-4,-45,108,-60,108,-33,29,-73,-126,-71,-10,19,41,-57,50,-47,-76,-80,-59,50,35,-71,-4,5,24,-18,42,-8,-55,-10,-16,9,-19,-13,-20,3,-6,14,27,-44,-38,82,51,-19,-70,13,-31,5,-37,44,12,-14,-6,29,103,-40,-64,28,-35,35,-54,39,17,9,17,15,127,7,-9,27,-44,38,-50,60,1,-19,26,-49,93,-28,-32,43,-78,-6,-67,46,-11,-20,8,-91,9,-53,-38,15,-12,-33,-2,77,98,74,17,18,48,-29,7,16,-9,-43,13,73,75,42,0,6,14,-3,22,11,9,-30,3,63,82,18,5,49,59,-32,12,12,12,-1,0,20,29,-6,-8,35,71,-52,19,2,-6,18,-4,54,66,11,-37,19,67,4,75,9,-4,16,-1,43,127,45,-48,-40,36,-19,43,-1,42,9,27,70,35,62,36,-39,-42,-23,-5,11,16,-4,57,-53,2,-118,-38,-39,43,53,27,27,14,84,22,5,39,-70,-61,-20,33,4,46,0,22,127,21,47,-4,-26,-66,-49,47,-34,52,-4,33,58,-5,54,-43,15,-44,-65,51,21,98,3,60,26,2,4,-15,62,41,-64,22,21,101,-5,18,-10,-6,-24,11,40,45,-1,-12,9,105,-10,-27,3,13,-28,55,42,53,-11,-81,-12,54,-10,-15,-80,58,-49,-21,22,76,28,93,-69,2,-27,-2,-60,53,-36,-2,1,119,57,43,-25,38,-21,-20,-28,65,-24,9,32,106,55,21,3,62,-17,-28,3,43,-23,29,11,67,48,52,-14,56,-5,-28,42,20,-24,40,28,57,39,93,-6,55,3,-32,46,10,-33,45,31,77,39,127,16,42,-1,-35,72,29,-16,26,24,76,23,91,7,77,12,28,-45,-5,47,39,-26,102,-88,64,66,10,17,60,-91,25,36,73,-28,127,-12,39,51,-1,11,48,-70,14,39,59,6,60,-9,1,9,-22,0,9,25,44,25,61,82,-17,-20,-1,-45,-41,-3,-13,99,54,-25,18,104,42,-17,65,-89,-68,-26,-1,98,14,-10,16,58,9,-41,28,3,-41,-54,30,80,-27,23,76,38,-35,-48,-45,36,-32,-2,-27,-47,26,28,120,27,19,-110,-14,-26,29,16,13,-4,36,100,111,15,-11,-108,-5,-15,34,37,70,18,31,105,105,13,-11,-83,-19,21,-19,29,58,4,16,86,101,21,24,-13,-37,79,-32,7,26,11,30,45,110,33,46,43,-51,14,29,-3,-35,30,45,61,56,-10,60,-26,-26,-17,28,14,-18,36,33,127,47,-42,-8,-100,-34,-48,5,-27,-29,16,-13,52,91,11,-6,-38,-6,-73,-57,-2,8,31,6,-41,39,-29,11,-43,-46,-96,-79,-2,29,54,66,-18,9,-76,-19,-4,-90,-68,-94,-39,8,36,127,43,31,-7,-18,24,-67,-5,-93,-22,-26,5,75,21,61,23,-12,77,-84,3,-79,17,-4,37,20,14,54,18,-24,45,-94,-37,-68,29,27,88,42,35,75,-19,-26,64,-46,-18,-71,-4,0,35,-3,127,70,-16,8,12,19,-61,91,-10,-42,30,-46,72,36,29,45,1,-37,-20,40,24,-44,16,-70,49,19,42,73,-9,-31,44,38,25,22,20,-2,-2,26,38,58,-34,-107,14,33,-3,32,12,55,-55,65,-1,73,-70,-79,-6,-37,-22,38,-39,97,-38,81,-4,71,-66,-3,21,35,-6,21,-80,19,-19,54,7,-15,-9,42,44,46,14,-51,40,-30,27,127,-26,-4,-27,39,73,43,18,-73,52,-20,-2,100,-39,12,-14,23,70,45,12,-49,64,-8,-42,49,-43,29,-6,-5,73,11,15,-13,43,40,-40,28,-9,-7,-22,19,50,-10,-10,27,21,74,-35,49,22,-1,-52,37,-7,1,-30,25,13,85,-14,29,22,26,-33,-4,-15,43,13,9,16,12,-11,59,41,5,-11,21,18,93,-32,42,-68,72,-96,59,-87,19,117,-19,-77,125,8,44,-37,38,-50,33,20,37,64,41,-73,68,37,40,29,-1,-51,74,40,83,-4,54,-17,62,17,57,61,3,68,74,81,93,-88,18,49,68,-39,-15,127,15,96,101,17,99,-61,3,26,66,-13,-54,-12,10,79,2,-5,68,-110,-57,-6,54,-8,-8,-93,36,36,59,-56,-26,15,-18,-43,59,7,8,35,30,6,-20,-64,51,-46,-10,37,71,18,0,31,17,33,21,-12,49,10,-27,50,42,17,10,-3,-9,9,19,-15,-13,44,-21,16,-6,11,11,-9,19,2,32,45,20,79,13,41,-29,-10,5,-30,1,-11,18,31,38,44,-6,2,-34,-14,-14,-30,-4,-25,22,9,52,18,-5,11,8,-3,-2,-5,11,35,61,-19,127,6,24,-32,35,6,12,1,39,-6,33,122,-37,92,-25,61,-60,8,-1,-19,38,-23,11,99,-33,118,-39,50,-69,-1,5,15,40,-28,26,59,-12,103,-20,75,-44,-11,8,30,50,-27,53,80,9,125,-5,85,-27,-21,-11,35,34,-21,54,72,9,127,21,114,-19,7,-7,55,7,-25,40,48,20,114,33,106,11,5,18,118,8,-25,61,2,8,113,14,91,13,-5,-12,95,32,-7,30,-15,127,4,-12,-2,108,-5,0,77,16,-13,55,35,86,-7,-37,-5,93,9,-4,54,-3,13,38,74,63,22,22,32,75,22,-5,48,-8,20,-3,67,38,-14,16,28,95,2,-22,70,11,43,-37,50,-28,-40,-47,5,121,-18,-33,78,32,36,-12,66,-60,-2,-16,-54,70,-24,10,95,60,31,39,80,-62,8,-15,-40,28,-5,7,-12,32,50,37,-46,14,-17,18,-1,-5,2,11,-11,19,4,52,-6,13,-37,-12,-12,-20,1,13,-34,3,-15,74,-3,15,-21,-33,2,-33,-3,28,-48,-10,-22,91,9,5,-2,-32,-9,-36,4,26,-56,-29,-25,90,-19,-17,5,-24,21,-13,3,10,-50,-44,-11,90,-32,-9,-25,-5,53,20,9,-2,-25,-23,10,127,-21,-14,-17,-4,51,14,20,50,41,7,22,-17,-48,38,91,19,-67,34,4,41,29,6,-17,-1,-16,33,127,-4,-41,23,4,36,1,1,-14,16,-39,17,86,-11,-45,13,12,24,-3,32,-24,13,-82,-13,28,-3,-78,5,17,31,4,23,3,-23,-67,-15,17,-2,-125,32,27,15,31,-4,13,0,-53,-1,48,-21,-107,53,14,5,121,-11,43,35,-26,13,65,-47,-124,62,23,47,11,-30,79,-65,-17,11,31,-5,75,-67,16,43,-4,-10,39,0,43,11,41,-31,26,7,5,22,-2,2,38,15,42,57,12,13,9,49,7,-15,-18,10,47,39,18,27,-7,54,19,43,5,-31,-6,28,34,56,19,37,-19,116,-4,43,3,-39,42,29,26,41,-38,118,-21,107,-29,-8,-27,-26,37,59,18,55,4,127,-12,122,-20,-17,-14,-7,-3,-28,-45,43,50,16,-42,-72,127,18,-22,10,43,8,-54,35,7,34,-44,-71,115,30,-10,35,74,24,-56,10,-24,22,-25,-69,34,26,-1,13,77,-1,-9,17,-28,-16,-7,-58,13,35,15,25,58,-8,46,43,-12,-43,-67,-24,66,29,4,7,48,-22,23,29,44,-52,-83,-17,76,17,-1,-22,61,-11,-23,19,62,-108,-84,19,75,9,-35,-17,-6,-22,-39,35,27,24,-12,-22,-70,-21,-33,18,41,-29,-25,5,-3,37,-54,-24,-68,-6,-26,33,97,16,11,-30,-45,32,-57,-44,-63,-24,-27,18,68,37,61,-18,37,56,-24,-1,0,-29,-12,-14,11,48,59,69,68,14,5,-13,6,-10,-3,-9,-24,18,22,127,42,32,-26,-37,-7,-43,4,1,-25,19,36,93,45,36,-59,-30,-60,-72,-32,-47,-34,21,20,43,-78,13,34,100,41,94,6,-25,-31,-7,0,35,-11,-22,43,61,38,67,32,35,-22,-10,17,43,28,4,41,60,1,66,30,72,-26,-6,42,42,62,68,22,35,-2,68,5,60,-44,-20,31,37,57,120,-39,20,20,99,-8,33,-44,-22,29,43,29,127,-49,80,83,81,-17,-7,-44,-26,-3,56,10,104,-25,66,68,75,-32,65,-61,45,13,-25,-26,24,-46,-10,45,69,-8,33,-36,32,8,-22,-34,73,-57,62,98,25,21,0,-15,26,-25,-5,-40,75,1,90,127,67,51,-26,-12,30,-45,32,-13,61,41,110,111,87,35,-41,-16,28,-62,48,11,51,46,118,106,108,36,-41,-16,41,-42,33,-50,65,46,43,86,115,14,-9,-18,11,-20,38,-84,91,44,-1,68,110,-41,23,101,-4,37,-8,11,42,2,8,-34,2,-76,49,127,-19,2,14,44,47,-5,-39,9,-25,-56,23,90,-28,30,38,0,35,-41,-39,28,1,-16,-23,57,19,45,12,-34,43,-32,-18,-10,-14,24,-35,-31,28,35,1,-32,47,-32,15,9,-24,17,-15,-37,-2,3,-11,-34,13,-14,36,-21,-27,11,-6,24,-12,-30,-22,-26,11,6,-9,26,4,6,13,14,4,-75,127,-35,62,-7,45,-38,-14,19,9,1,6,-56,46,-32,12,29,8,-40,-43,7,11,2,35,-9,-12,-35,2,15,1,-12,-18,-9,0,-7,57,7,44,-17,29,-14,-37,35,-19,1,0,0,43,-17,91,-46,39,-58,-52,30,-1,42,10,31,31,-44,90,-73,-8,-111,-48,73,-14,37,34,59,36,-39,49,-76,-4,-57,-45,112,-13,-7,-21,-16,95,25,25,15,17,-127,-26,-62,-21,5,2,-9,66,25,-6,62,46,-99,13,-54,-32,9,20,-2,51,58,-30,44,36,-85,4,-38,-9,4,28,13,45,49,-26,20,41,-65,2,-85,0,3,38,-9,17,23,-10,-50,31,-68,2,-35,50,5,9,-36,25,24,24,-78,37,-66,38,-10,101,10,9,-41,11,67,58,-95,-20,-73,23,24,118,8,30,42,71,81,56,24,-30,12,10,-96,32,17,47,53,48,4,127,47,-40,-71,-11,-122,60,16,19,55,39,-38,114,38,15,-82,-36,-88,77,17,18,30,16,-12,77,31,-24,-94,-67,-113,46,21,-8,38,13,-14,44,4,-27,-74,-85,-70,16,23,2,37,32,-27,57,-21,33,-57,-34,-38,30,18,16,12,37,-56,118,-77,28,-69,45,42,20,0,20,17,-7,-17,15,10,13,-26,-60,127,-42,-51,35,82,57,8,16,19,58,-26,-56,90,-37,-33,15,93,34,-23,20,-10,35,-1,-43,28,2,4,16,61,-27,-49,2,-30,17,1,-60,-11,-14,22,14,47,-24,-28,-3,-49,25,-34,-70,30,-5,3,10,13,-16,-12,14,45,21,-44,-71,73,-29,11,-29,-16,-39,-21,4,85,-31,-72,-47,83,-60,35,34,-26,-11,2,125,42,-119,66,34,70,1,53,80,-11,-8,22,92,-6,-65,17,35,63,-22,29,53,-34,12,-9,49,3,29,0,12,113,51,10,13,-35,19,-28,48,3,-4,-62,-33,72,46,30,-8,-33,14,27,99,-9,-50,-48,-57,99,85,44,43,32,42,31,125,-26,-41,-44,-52,85,98,31,39,58,81,17,126,-124,-68,-56,-71,95,127,-75,-45,33,4,-3,72,-19,-104,57,-31,-1,37,-83,24,53,-21,6,60,-60,-60,18,-22,-11,8,-31,9,50,-26,-38,84,-96,-15,-44,-58,-29,-38,-61,-6,53,6,-4,127,-23,24,-17,-20,20,-24,-20,13,57,1,4,76,-17,11,-11,26,35,31,17,37,7,-11,-30,49,-3,17,-6,36,6,-46,-2,54,10,-38,-32,5,92,58,-67,34,-23,-60,39,53,33,11,14,67,4,38,-127,34,-56,-32,18,32,50,16,-11,62,0,-13,-79,20,-16,-14,14,14,41,8,-26,56,-11,-14,-71,4,18,-24,16,8,13,8,-16,37,-47,-9,-35,8,45,-21,25,6,17,18,-6,33,-24,5,-20,8,16,-31,31,20,30,18,-15,28,-1,32,-26,31,-11,-38,44,52,45,16,-28,33,20,41,-59,78,-15,-44,4,34,33,-13,31,45,-14,-13,-85,6,-75,-29,5,-4,1,2,21,73,7,25,-55,23,-56,6,12,-12,-4,33,27,49,-11,20,-34,24,13,33,18,-10,3,-5,4,31,-11,52,-10,78,52,90,6,-20,14,18,-34,46,-3,98,-25,55,53,112,9,-21,8,36,-26,57,9,127,-18,66,-1,66,7,-7,8,18,16,71,2,127,-12,27,-37,-9,-30,-29,-11,9,-26,8,-52,-7,-36,19,-32,60,-48,-5,5,-9,-13,-6,-51,22,-86,22,-48,9,-70,5,21,-9,-2,-10,-42,42,-127,36,-34,56,-84,-4,43,-3,12,2,-14,18,-111,35,-44,59,-77,-10,36,5,0,6,-17,46,-65,5,-23,22,-28,-13,23,1,-13,9,11,50,-51,-44,-16,36,46,-13,13,15,-35,12,14,62,-70,-69,4,35,-8,77,49,35,-17,66,-1,16,48,67,-42,-1,11,56,35,41,-38,58,-27,6,3,50,-46,20,9,24,32,18,-15,51,-21,-15,-15,29,-34,28,2,11,12,-4,10,39,-17,20,2,15,-49,22,8,-5,28,-9,19,5,-11,89,11,-19,-65,44,22,-6,49,5,-16,-20,-36,96,6,12,-111,16,24,-3,17,19,1,57,-41,35,-4,67,-127,-32,-41,-9,82,38,-12,45,4,31,-49,98,2,96,-14,-2,82,20,6,55,16,-15,-21,108,36,52,-43,10,73,6,52,91,19,-53,-56,89,28,2,-43,-3,29,-1,48,112,0,-21,-79,-17,-19,16,-38,-4,8,-20,66,112,-100,-4,-50,-13,-72,56,26,-11,-20,-13,47,127,-97,-37,-27,-34,-59,88,-39,-27,-6,10,27,127,-85,-49,-3,-77,-59,89,3,36,5,49,-25,17,10,7,-20,-27,8,46,-6,40,24,45,-52,4,-64,49,-2,-42,-17,4,-36,18,-2,52,-57,-2,-126,-11,-41,-41,16,-1,-55,-12,-32,41,-41,-8,-73,29,-23,-29,40,22,-88,-22,-29,51,-33,18,-64,54,-13,-1,28,10,-53,27,-21,35,-54,26,-110,29,2,3,6,-5,1,72,-14,26,-48,7,-127,0,-43,-9,-7,-28,-16,-1,-5,-11,-20,66,34,72,19,5,0,-5,-2,19,-24,1,2,21,-5,42,19,15,-4,2,-10,3,-37,30,-38,-5,-38,17,0,24,26,7,2,7,-24,10,-9,43,-27,26,-50,-21,-10,3,-3,0,4,-7,15,23,-28,12,-21,-38,-43,-23,-6,-27,33,27,35,85,-7,-1,20,-29,16,-5,-5,-55,15,93,40,127,17,-10,-35,14,15,6,-12,41,36,40,52,19,-36,-30,-33,127,-66,46,2,30,26,30,82,4,-75,-29,-22,97,-37,41,-9,7,40,19,49,-31,-97,-36,22,84,-85,72,-16,-6,34,6,28,-25,-62,-25,17,39,-72,19,-13,-12,20,-5,22,6,-65,-29,17,47,-33,5,-9,11,32,13,-22,23,-96,-11,26,59,-21,6,1,15,40,39,-23,9,-72,-29,51,69,-20,-1,-47,4,-8,91,52,41,70,-115,-101,9,4,-46,10,-30,1,92,33,40,-59,-126,29,-23,50,-81,14,4,-18,-8,12,32,-125,-1,100,21,11,-24,-2,49,-8,-39,58,-30,-71,17,20,-19,-52,36,-40,46,-48,1,78,-38,-15,84,-10,-59,-127,82,8,14,10,21,27,-56,-45,90,-61,-41,-124,40,35,-15,67,33,-90,-57,-48,-23,-85,20,-47,46,13,-24,-24,27,-1,44,63,119,-38,7,32,47,-10,12,-28,43,-31,68,-43,102,-11,-52,3,63,-26,13,-45,53,-41,87,-43,88,-5,-43,-37,54,-11,18,-16,36,-33,63,-59,72,30,28,-59,65,-5,36,18,28,-32,55,-32,1,6,81,-74,12,-5,21,22,33,-8,50,-2,-21,-17,84,-30,-4,-13,-8,-7,70,3,118,-4,-4,3,127,-2,-1,-8,-2,50,8,77,45,-127,56,-8,7,-73,44,-8,4,4,-16,-10,55,-101,51,24,-36,-31,0,4,15,-40,-15,15,69,-67,66,37,-52,0,-22,7,37,4,-8,33,103,-72,53,40,-64,-49,-4,-3,48,71,-33,12,100,-53,46,54,-73,-67,-11,-21,46,66,-53,19,103,-61,41,70,-58,-35,-7,-21,15,8,-62,11,96,-67,36,74,-59,-29,-26,0,-25,54,26,64,72,-11,-26,-74,-96,-34,-8,-19,-3,18,-20,36,127,-74,-13,15,-10,-11,-8,2,-10,-3,-27,72,84,-58,-15,-49,22,-40,-41,14,-10,1,-7,68,-16,-29,-17,-80,60,12,-10,-11,-19,22,-32,35,-10,-60,-1,-63,60,-45,-13,-18,-57,-12,-47,44,15,19,6,-69,-9,-93,33,-21,-94,-32,-6,24,33,74,19,-102,-49,-73,28,20,4,-4,42,3,71,-14,-95,95,-89,70,-92,17,3,6,38,15,76,8,-62,66,-60,57,-94,8,17,-5,41,14,76,-1,-35,62,-60,60,-92,10,21,-2,26,33,77,15,-24,40,-49,22,-108,16,11,-1,8,-5,82,-4,-47,57,-33,70,-85,24,3,18,13,19,97,-28,-31,59,-40,55,-51,32,-6,4,16,-6,127,-57,-30,82,-60,69,-29,-62,-45,-49,-13,-21,34,72,5,23,46,92,63,-19,7,-29,-11,19,10,68,11,51,62,76,70,-12,-5,-31,-10,49,29,58,-1,54,76,32,96,-12,-33,-29,-41,33,43,21,-2,53,78,3,71,-15,-9,-34,-31,-1,71,-56,-6,57,31,31,65,7,11,-48,17,-66,70,-77,-33,-26,-12,64,62,-35,36,-15,52,-127,82,-59,-30,-98,-10,82,28,29,1,23,5,-4,81,-116,15,85,-31,-8,49,23,33,18,29,18,22,-117,93,68,-71,-92,40,6,36,5,29,26,-1,-120,119,36,-60,-61,110,0,17,-18,13,13,2,-106,127,-2,-29,-39,114,19,3,-20,-6,-2,16,-71,121,-13,9,-46,101,18,9,31,8,18,26,-55,99,-19,15,-25,26,20,4,21,-7,6,82,-46,95,-1,69,-34,-8,-24,-27,-97,-10,-26,12,42,34,-26,4,-27,10,-3,-25,-82,67,-37,27,58,45,-41,61,20,26,37,-12,-21,-19,-39,28,-19,6,-14,-12,-37,22,11,37,73,-26,-15,22,-39,-52,48,-13,12,42,-59,52,127,52,97,55,47,65,43,-33,30,36,9,-2,45,29,115,24,31,106,-24,-22,-14,26,11,-6,33,69,-2,5,-69,80,19,83,-16,55,68,15,53,-36,41,18,-17,72,-124,33,73,16,52,21,67,-20,25,6,17,39,-84,28,109,31,37,20,94,-4,0,-4,28,28,-31,34,127,36,32,3,86,-2,33,-21,31,6,-1,14,43,27,32,3,74,30,77,-9,17,23,-32,-8,7,-3,39,14,84,37,75,25,52,37,-51,-23,45,-22,47,42,54,-7,48,70,58,70,-114,11,61,-3,-25,57,-31,7,71,69,-56,40,-3,38,37,38,-14,80,30,-5,6,115,-92,1,10,21,-1,-30,-23,5,74,10,-54,127,5,-68,-10,-16,-27,-68,-20,-52,38,67,-17,-49,38,12,-58,-39,27,-80,-4,-21,10,39,55,-47,-8,19,-34,-31,37,-46,8,-22,-27,-11,31,38,-7,15,-48,10,-27,-40,2,-12,-33,-20,76,64,34,51,-58,24,27,-38,-22,1,13,-51,70,20,18,-19,23,-57,1,-9,-1,-8,54,5,103,-4,55,-3,7,-47,-38,-24,11,22,60,33,114,33,28,-1,39,-15,-85,-36,1,48,5,15,110,61,63,31,30,17,-127,-18,-57,10,-28,12,19,97,51,23,9,66,-60,54,-59,-24,28,17,-29,66,5,16,-44,109,12,102,-5,-51,-39,40,-33,-6,-12,-27,-61,82,11,102,-24,1,-15,5,-12,2,83,44,8,13,15,94,-10,-28,18,33,32,15,58,25,-59,-19,3,82,-19,-21,26,27,36,28,-4,29,-44,-8,-35,79,-21,-30,26,19,33,41,0,6,-22,26,-36,49,-4,-27,17,-2,22,45,-37,10,-45,-27,-39,29,10,-4,2,21,3,73,-49,-21,-127,-11,2,36,-16,24,14,31,7,68,-35,5,-118,65,27,51,-24,-6,-23,27,-7,52,6,72,-35,16,24,-31,-12,11,-16,2,6,37,-12,32,-37,15,6,-27,4,21,-7,5,35,40,-11,35,-50,31,-15,7,8,23,18,4,24,58,-34,46,-36,77,-19,-1,2,25,35,-13,-4,89,-40,22,-37,82,-25,-14,-3,11,16,-26,-9,88,-29,21,-24,84,-34,8,2,-7,-15,-15,-37,68,-31,54,-11,127,-36,7,30,70,-75,-31,9,89,9,86,42,-11,25,-41,4,48,51,20,-17,127,-54,-2,80,10,9,10,-63,4,80,16,-40,100,-58,15,59,41,-8,74,-73,47,67,47,-18,72,-68,49,35,58,-56,93,-41,-23,-33,38,-2,13,-48,93,54,62,-91,54,27,-82,-30,-13,-38,43,0,86,69,11,-67,38,53,-118,-11,-6,-24,-14,47,64,87,-42,-7,-55,28,36,23,77,99,7,67,56,65,3,87,11,-12,15,-30,64,51,64,71,29,127,4,49,-52,3,20,-87,-1,-31,18,24,-15,102,-54,7,-33,6,-22,-73,24,-60,74,-3,6,61,-78,-56,-62,-13,-23,-35,62,-28,82,-22,83,0,-71,-83,-71,-24,16,33,43,43,20,-45,26,6,-16,-63,9,-42,20,121,58,77,42,-30,25,-6,64,-22,21,-10,67,-11,-1,9,4,-42,20,65,16,6,-54,5,29,-1,13,9,12,7,94,26,26,-10,-16,8,18,-5,93,28,-2,11,95,4,34,-24,3,3,-37,18,104,101,17,43,115,-18,6,-30,7,18,-47,3,127,120,22,47,110,-59,43,73,4,24,-41,32,53,95,44,20,93,-77,117,60,-44,19,-27,36,-53,95,103,57,72,-62,73,-13,29,-11,-8,34,-9,-9,-44,-66,16,-47,89,54,108,-8,4,34,22,15,2,-14,-5,-28,99,-23,73,10,18,58,36,19,4,6,-8,-34,53,-58,77,12,29,77,49,4,7,-19,-5,1,87,-49,92,36,35,61,24,16,22,-22,20,24,127,-12,57,27,31,25,19,56,33,0,22,60,109,-21,85,29,38,-20,-7,74,55,33,16,109,125,-15,116};
const int32_t spk_conv_bias[256] = {373,-2449,3,-1020,-415,-1693,-731,-349,-744,-1034,-619,-588,-465,137,-909,-794,590,-1420,972,-1931,-415,203,-689,-630,-420,-4620,708,-1005,-1899,-727,-1118,-1238,546,-350,-1786,242,-1283,-1605,195,-2427,-657,342,-1175,-1043,-197,-115,-226,-1183,501,-1330,-1619,-495,89,-2617,-424,2,-972,134,144,-44,-1118,-1128,-342,-3235,37,-1313,-2409,-372,-623,-2107,-175,-2285,-2457,-73,-739,-1045,-187,-739,-1398,322,-1197,-412,-1114,-362,-288,-2481,-391,-1185,-988,1574,-2664,-625,-722,-3108,-518,-730,-1083,395,-617,-1637,1450,-618,-2224,-1517,656,-186,-1695,135,-152,-88,-1351,-258,-3375,-471,-156,163,940,-3217,-1312,212,-893,-2515,-448,-1780,-2143,181,-662,-477,-2242,-1492,377,-2379,-2231,1144,-376,277,-1741,-174,-1999,230,-476,-1101,-1390,-703,-2358,-461,-1076,-1130,-2211,-631,-90,-1659,-963,-1455,-2110,-848,-1491,-1515,200,-182,-242,9,-810,-1228,-717,87,-2047,-2914,37,-637,-868,-432,-911,-711,-1475,-2768,-103,77,-2678,-660,466,-1394,330,701,-546,-576,-1257,-507,-3413,-625,-3408,-1163,-1723,-1671,-1543,-1990,-1110,-2128,-677,-231,-373,-548,-706,-394,-1612,-325,-423,-218,51,-2278,-684,-688,-1008,-299,33,705,-856,331,620,303,-2079,-31,948,681,-532,-2035,15,345,-1453,-4782,317,960,-261,-387,-764,-1025,-939,17,-1744,-3210,-688,637,-1554,-319,-1690,-2203,-386,605,-500,-297,1064,-652,-1333,-556,-295,24};
const int32_t spk_conv_mult[256] = {1860422200,1527462000,1277675192,1774702333,1218766534,1830762245,1598056264,1757162362,1167543295,1572380100,1140338004,1757723931,2002158490,1498219856,1241682916,1851703729,1187539138,1887975496,1347279375,1698204174,1657010482,2063504467,1209493311,1505494712,1116234285,1315635376,2059401079,1135500382,1137835190,1400700482,1977454286,1564607702,2141873372,1866596871,1824229993,1135675462,2094056997,1142301597,1199730398,1834821626,1868306774,2013642006,1116394610,2117042841,1892767125,1109742675,1523444901,1859547575,1415849039,1265297807,1571133569,1106418217,1765845282,1520694697,2050659828,1090378899,1272791664,1191766956,1944635634,1073749363,1921329830,1531614401,1233313484,1454544491,1132379394,2110799139,1426936834,1947078994,1187624910,2134078539,1302000156,1386668419,1514842575,1105442979,1964370798,1317606303,1790191732,1638287833,1144726491,1782332699,1277029319,1630728051,1670276557,1300151845,1712644126,1954713502,1753163901,1353675549,1797168200,1335344480,1425381474,2099357214,1191295214,1560839115,1789597891,1818826228,1963872910,1149989690,1171321547,1278374823,1786644907,1887767884,1698293915,1770578580,1781954926,2135762901,1259425148,1362145076,2080523425,1414187716,1433184936,1771169315,1418572838,2140087189,1814395114,1777447360,1770949451,1455657965,1725280291,1089569853,1981765113,1854089276,1472300530,1089461301,1811829741,1802625981,1237414370,2118674394,1868453638,1282629218,1240081823,1713248839,1675590063,1537334673,1747509208,1626986732,1808277740,1254183608,1688218808,1172345366,2035800339,1185246439,1177133544,2078368098,1846995455,1183122262,1236706455,1148374705,1465524080,1573665979,2124149260,1486978639,1930054514,2112385132,1634879589,2098502608,1501149196,1248974080,1441570159,1144310492,1929128115,1237406949,1352088780,1577926931,1171149055,1146397737,1274299134,1835673471,2016390485,2003476468,1933865210,2141109714,1502961783,1143359155,1645609458,1145453217,1538296796,1477497718,1280709114,1459660395,1868347157,1669090083,1078275396,1965974911,1190690414,1206510127,1712714192,1964371316,1443238644,1742093364,1978236582,1758681567,1712184896,1590682176,1388807610,1580305402,1453555446,1575382958,1154195073,1369118869,1833816014,1928297324,1915619740,1711961580,1490994876,1951461096,2053901879,1895990711,1736374299,1528846076,1827952156,1092816823,1138803957,1823264591,1380541811,1520633432,1757898062,1870870766,1428180172,1266485403,1653558921,1280736036,1776763088,1535158982,1137792564,1992325165,1967901918,2025616853,1812226843,2056491413,2014339912,1621198291,1592818002,1211728024,2074005152,1996044739,1629785775,1742446286,1108370507,1341321031,1230600557,1578433966,1662885557,1365987786,1698296676,1839492796,1100856889,1166624662,1210331264,2145750338,1272137076,1746074394,1628836596,1972143541,1666244271,1727528293};
const int32_t spk_conv_shift[256] = {-7,-7,-6,-7,-6,-7,-6,-7,-6,-6,-6,-7,-7,-7,-6,-7,-6,-7,-7,-7,-7,-7,-6,-7,-6,-7,-7,-6,-6,-7,-7,-7,-7,-7,-7,-6,-7,-6,-6,-7,-8,-7,-6,-8,-7,-6,-7,-7,-7,-6,-7,-6,-7,-7,-7,-6,-6,-6,-7,-6,-7,-6,-6,-7,-6,-7,-7,-7,-6,-7,-6,-7,-7,-6,-7,-6,-6,-6,-6,-7,-6,-7,-7,-6,-7,-7,-7,-7,-7,-7,-7,-7,-6,-7,-7,-7,-7,-6,-6,-7,-7,-7,-7,-7,-7,-7,-7,-7,-7,-6,-7,-7,-7,-8,-7,-7,-7,-7,-7,-6,-7,-7,-7,-6,-7,-7,-6,-7,-7,-6,-6,-7,-7,-7,-7,-7,-7,-6,-7,-7,-7,-6,-6,-7,-7,-6,-6,-7,-7,-7,-7,-7,-7,-7,-7,-7,-7,-6,-7,-6,-7,-7,-6,-7,-6,-6,-7,-8,-7,-7,-7,-7,-7,-6,-7,-7,-7,-6,-7,-6,-7,-7,-6,-7,-7,-6,-7,-7,-7,-7,-8,-7,-7,-7,-7,-7,-7,-7,-6,-6,-7,-7,-7,-7,-7,-7,-7,-7,-7,-7,-7,-6,-6,-7,-6,-7,-7,-7,-7,-6,-7,-6,-7,-7,-6,-7,-7,-8,-7,-8,-7,-7,-6,-6,-7,-7,-7,-6,-6,-7,-6,-7,-7,-7,-7,-7,-6,-7,-6,-7,-6,-6,-7,-7,-7,-7};