#include "spk_conv_model_params.h"

const int8_t spk_conv_weights[27648] = {5,8,7,-1,-46,1,58,-27,-47,-68,127,43,-2,8,16,14,-33,6,40,-10,-35,-69,52,50,3,9,39,19,-28,29,17,-4,-29,-66,43,9,6,17,49,17,-37,40,0,4,3,-42,-6,-25,13,13,53,16,-24,35,11,3,-6,-24,43,-28,5,5,19,5,-17,17,28,-8,12,-46,16,11,-5,-6,25,18,-12,10,40,-10,-8,-67,-2,32,-11,18,37,32,-20,11,31,-27,-36,-64,17,53,-6,14,59,25,-24,19,4,-31,-57,-63,55,26,-25,5,-22,29,49,87,25,100,79,117,-42,-37,6,-21,21,45,48,1,-6,57,45,67,-15,-36,-9,7,41,8,34,-39,-30,22,60,-5,15,-19,-2,20,30,-50,41,-32,41,7,25,90,42,20,-20,3,-11,-18,29,53,6,45,7,127,-2,6,-1,1,-21,-8,-28,98,-17,6,-36,26,-28,16,-27,-18,-40,-3,7,59,-19,82,-22,10,-22,3,-31,-14,-27,19,17,52,5,48,-8,7,-57,-6,-30,-9,-41,63,16,75,43,21,-70,41,-70,31,-35,-26,-43,88,-37,40,-66,12,-60,-51,-53,22,-25,-21,-4,118,-37,40,-43,-3,-33,-10,-31,1,-10,-52,4,127,-29,103,15,-19,-11,88,14,-20,-18,-35,19,102,-35,82,28,-18,24,77,51,-36,-4,13,10,60,1,55,11,-14,1,51,36,-62,0,40,-13,44,15,14,-30,3,-15,79,17,-49,13,21,-28,19,13,27,-34,11,-74,51,74,-37,19,16,-10,35,44,49,-44,16,-85,112,46,4,3,30,18,-23,43,71,-19,14,-97,90,-33,63,12,4,20,-34,8,-40,-80,-51,12,85,2,27,16,-13,-35,-19,-29,-25,-8,-61,-15,75,-77,-6,32,-8,13,19,-17,-13,-20,-21,-92,-19,-91,23,-12,-47,-26,27,-13,-29,33,-2,-54,-23,-36,35,-24,-48,-55,-36,26,-27,17,-25,-36,-16,-14,8,14,46,2,-55,-20,-2,-24,34,8,-16,15,-4,-11,60,75,90,1,18,-115,83,37,-38,61,-23,-40,-3,47,127,71,66,-61,65,26,-26,0,22,-39,-12,0,27,77,26,50,12,-29,-22,60,-36,19,13,32,36,-34,8,58,91,-64,65,-45,68,-2,19,23,35,-14,-9,101,127,-44,34,-27,87,6,19,-5,12,-9,-5,75,98,-15,-26,-52,74,7,36,-28,4,9,-9,36,77,-3,-57,-59,75,-8,50,-39,7,12,29,9,82,25,-15,-92,64,-13,46,-40,20,5,59,43,54,-2,-17,-94,62,-9,9,-4,28,15,61,61,42,-35,4,-76,61,8,-3,23,28,26,47,39,43,-68,-31,-40,26,-5,-11,32,65,40,44,81,79,-83,-23,-53,1,46,-6,46,6,27,118,18,-8,-77,19,120,-77,43,-2,65,4,41,87,44,33,-8,14,105,-26,18,-27,22,20,65,99,50,39,64,16,98,18,-5,-24,57,29,75,76,52,50,98,53,50,10,-12,-8,78,56,73,69,87,76,94,19,83,-8,-6,15,49,41,81,49,79,121,127,11,77,24,-3,-10,26,26,64,55,72,75,41,8,43,7,14,-4,11,-40,21,24,46,9,5,2,32,9,21,-5,35,-59,8,-16,60,16,-59,-26,33,-21,-25,20,57,97,-39,53,12,110,-43,-12,-45,-97,-5,13,20,55,-34,93,49,84,-82,-32,-30,-22,1,-43,23,55,-34,127,96,101,-72,10,27,26,8,-37,-5,57,-64,95,74,94,6,-14,23,5,5,-23,-18,108,-61,91,61,20,14,-19,71,-45,-15,-19,-10,107,-45,71,42,53,29,-37,83,-32,-25,-10,3,85,-29,106,25,54,50,-45,49,3,-16,-4,11,65,-15,114,-41,61,61,-36,-4,32,-29,37,21,65,9,113,-17,-3,38,-26,-55,67,-24,-24,20,60,-5,-5,-79,1,-7,54,-35,-29,13,-27,-34,23,-48,-14,-5,7,-13,6,-31,8,-15,-16,-27,6,-8,-6,-17,30,11,8,-33,65,-5,-1,12,-9,-36,-8,-3,4,39,35,-59,87,4,-18,31,-37,-22,-11,30,19,1,-7,-45,87,12,-8,104,-52,32,1,39,85,-41,10,-8,59,15,19,96,-62,38,-1,75,88,-43,77,34,84,2,28,52,-14,54,85,72,41,-26,52,-9,99,-39,63,-46,46,33,105,75,127,28,8,-37,121,28,-10,39,19,-16,46,-38,-11,-29,-27,23,30,17,10,26,7,-7,36,-33,18,-5,-8,-16,44,14,12,12,0,-6,3,-21,69,3,-5,-44,45,14,13,10,10,-3,-20,-47,118,1,-4,-44,42,6,10,-10,12,-5,-9,-64,127,-7,7,-23,72,1,18,-12,4,-9,4,-31,101,6,3,-4,57,-13,14,-1,8,-2,5,-38,82,13,-3,-32,22,-7,4,0,10,11,4,-24,80,19,-22,-11,-19,12,-18,12,9,-1,-6,-36,93,31,-48,21,-25,7,1,-34,22,63,-16,52,79,-47,96,-6,-3,-2,44,1,61,0,69,-79,78,-39,66,-26,98,-54,25,15,75,-44,33,-97,54,31,17,-8,92,-49,-1,8,1,-2,2,-80,-89,-1,3,-23,-45,4,-16,-4,-24,34,20,1,-65,-31,10,-56,-74,-22,-6,27,-30,7,22,38,-23,-47,53,-53,-75,-2,27,10,-9,-1,39,45,11,-53,-10,-64,-65,-15,-20,3,36,-15,79,21,-1,-22,32,1,5,-34,-2,-45,25,-39,38,-51,-14,-4,127,-7,-39,10,40,-24,2,65,24,31,13,-1,-40,-4,-57,11,19,-8,-7,36,13,-10,-3,3,-34,16,-52,2,13,-8,2,56,6,-11,4,16,-16,48,-19,-3,7,-10,7,43,4,-31,-16,7,-24,47,-16,-8,4,-17,3,49,-2,-16,-18,13,-17,25,-24,-6,-10,-6,0,41,17,-17,-27,-6,-20,10,-25,-6,-1,-20,1,39,33,-44,-36,10,-27,-4,-28,-13,14,-1,-6,84,45,-52,-47,-9,-22,15,-33,-13,37,2,-16,127,51,-58,-25,45,-10,40,-33,-12,-17,53,0,30,104,63,14,44,-2,-17,-80,-6,-35,59,2,19,89,70,50,41,39,13,-18,-3,-22,12,-21,52,59,23,72,19,60,47,21,-5,-24,-21,-44,52,53,-7,110,-9,84,23,12,12,-26,-16,-34,8,53,-24,127,-20,67,27,12,12,-25,0,-13,-26,34,-43,109,-23,26,27,5,10,-10,8,1,15,7,-61,88,-7,-5,-12,-34,-20,-23,17,9,21,-18,-72,66,-31,67,-9,11,-36,-12,36,12,39,-6,-78,40,-26,59,-15,1,-12,60,-56,26,28,20,9,31,-119,121,-85,110,-7,6,-50,9,94,18,-30,-12,-65,53,-101,69,9,-13,-41,-3,113,17,-40,-30,53,40,-127,26,36,-3,-37,-5,66,16,-36,-3,42,7,-113,-7,22,0,-39,17,39,35,-3,9,53,32,-93,-2,-3,-9,-37,3,33,-8,1,17,70,17,-75,39,-11,-31,-14,-12,63,-2,10,39,68,-9,-49,41,10,-2,-7,-18,48,27,-52,55,92,-51,-28,50,24,-1,-17,28,40,26,-46,42,47,-78,-12,45,29,29,7,16,-17,60,-99,24,-45,-22,9,29,11,51,37,31,-25,70,-104,3,25,18,4,86,-8,59,74,46,-15,50,-33,14,-38,62,-60,69,-30,-11,13,-20,20,66,0,28,-53,93,-46,62,-19,-33,-31,-28,48,82,-51,19,15,86,14,116,-97,-40,-15,-12,10,83,-61,67,31,47,-127,125,-46,-38,6,-16,-16,27,-25,83,15,45,-117,-12,33,-40,-15,-25,-21,-42,-29,75,-17,-11,10,-90,70,-68,-25,-16,-8,-31,10,76,-74,-34,-13,-93,40,-13,32,19,17,49,-48,73,-100,-5,10,12,19,17,48,24,22,32,-38,45,-91,25,2,18,-4,13,9,16,23,50,-3,3,-41,45,26,1,3,7,8,3,9,54,8,-19,-27,36,-17,-4,3,-2,-3,9,-10,58,12,4,-29,11,-30,21,1,15,-9,12,-34,29,5,25,-39,-6,-18,33,8,-6,0,-1,-46,5,-51,49,-85,-4,19,26,25,-2,21,12,-26,8,-81,32,-99,4,71,28,32,-9,50,-8,0,11,-68,-8,-82,-21,127,29,-17,49,-6,46,79,37,-14,97,8,29,40,27,13,33,11,46,49,-4,-31,72,22,40,10,0,11,17,32,55,31,39,-15,40,24,-11,-27,22,-5,-15,55,127,10,77,-60,40,6,13,-27,78,-13,-27,32,100,74,69,3,40,3,71,-51,45,-19,-19,15,1,98,13,-14,7,-2,19,-70,-19,-3,-12,-17,-55,74,9,17,-16,-14,-60,-6,21,-20,-5,-4,-95,20,-7,-3,-18,-10,-23,49,3,-6,-27,4,-31,63,1,18,52,32,-44,43,32,38,19,-27,29,-6,37,-11,-31,-86,71,63,90,54,54,-49,-14,34,-8,16,-49,-75,22,46,60,27,47,-66,9,18,12,23,-84,-5,18,25,20,-20,23,-60,91,33,47,59,-25,24,63,26,-13,-32,41,-52,97,23,91,74,5,32,1,-11,-44,-8,14,-21,-7,31,48,8,-58,13,79,-34,-8,-35,-45,-19,6,24,54,-5,-50,-21,82,-49,-10,-12,-5,9,25,12,51,-47,-7,-64,10,-65,27,2,41,41,24,-39,3,-73,61,-127,-2,-62,11,53,-44,24,3,44,21,-58,28,-79,-110,-100,-62,50,-35,-39,39,-15,87,-73,52,-12,45,-42,-45,43,9,-39,36,-53,56,-25,63,-100,119,-18,-29,-8,-10,34,58,-16,97,31,57,-99,34,-7,-11,-28,-18,20,-6,97,47,-63,-6,-33,9,27,18,-26,27,38,-62,16,-37,-115,-46,-111,3,-28,18,-22,40,14,-22,-30,-39,-79,-20,-86,53,-25,-10,-29,-6,29,29,57,1,-7,-16,-1,71,-49,87,-48,-24,34,31,82,88,-15,56,-9,62,-9,127,-7,-96,56,-5,8,-2,-74,-38,-17,-63,26,-98,-7,-86,37,-14,-20,8,-23,-40,-22,-64,-41,-106,-15,-72,21,4,-32,5,-26,-18,-47,-62,-37,-97,-46,-71,6,28,19,13,-61,-14,-10,-54,1,-87,-41,-63,0,31,44,14,-83,6,-44,-84,13,-64,-30,-28,-7,16,29,19,-68,18,-53,-67,8,-60,-32,-47,-17,3,9,22,-36,-2,-74,-31,-54,-58,-14,-74,-23,-8,-5,46,8,-50,-62,-15,-85,-56,-36,-127,1,-2,-17,53,75,-38,-42,-23,-81,-16,6,-11,21,-3,-2,31,118,-68,-69,30,-64,18,-13,-13,76,-11,39,23,127,-93,-117,12,-44,-6,-26,-7,100,-20,31,11,118,-74,-93,91,-16,-1,-35,1,94,-23,45,24,122,-58,-68,118,45,-27,-28,23,98,-4,25,22,95,-63,-45,103,22,-37,-17,21,94,1,34,48,61,-86,-94,87,-5,-36,-19,4,55,28,62,22,28,-67,-67,63,13,-25,-37,-7,59,27,60,-9,15,-53,-62,-6,14,-15,-46,-6,71,3,80,-29,-6,-14,-44,8,39,30,-33,37,54,-18,94,82,-25,35,-34,-17,29,93,-39,-34,69,-55,59,85,9,77,-55,28,72,110,-34,-67,42,-64,42,46,16,80,-94,50,56,78,-10,-15,60,-51,18,76,3,101,-37,32,2,56,-30,-22,34,-57,10,95,28,111,-7,-7,-67,79,-74,19,-36,-25,5,103,58,49,24,-34,-24,44,-31,-5,-53,-35,20,102,41,46,35,32,-39,73,27,-50,-35,-25,29,127,30,10,35,47,-35,96,46,-59,-17,16,71,93,-3,52,1,5,-10,71,-86,25,-63,39,14,-27,75,2,-43,-22,20,48,-37,23,-24,-9,52,15,18,-2,-20,-51,-17,18,26,23,-29,-22,-3,70,-39,16,-16,-53,-67,-8,8,20,65,86,-49,75,-39,-2,-12,-24,-68,-69,-72,-14,120,110,53,98,7,45,44,-56,-43,-127,-73,-44,97,92,59,54,-7,104,42,-15,-42,-74,-31,-41,49,75,28,14,-52,15,24,31,12,-4,34,-17,2,15,4,49,-52,12,1,25,-1,-22,26,-23,-30,23,-43,43,19,81,17,-5,23,19,-15,13,5,1,10,10,-4,43,17,127,61,26,-3,8,-5,-14,18,1,7,14,-34,49,27,-12,4,23,-9,-23,5,5,5,5,9,55,7,-49,-8,26,-21,-23,-4,32,24,20,4,80,4,-35,1,9,-10,-16,17,65,19,4,-3,43,-27,-31,4,-8,-14,-4,-5,70,8,-4,-7,-8,-5,-19,-6,-4,7,11,12,70,8,22,-6,-6,29,-3,-17,-14,8,29,29,49,25,-19,-28,16,-7,24,-11,-28,-37,26,29,82,32,-28,-13,27,-38,12,12,-8,48,4,20,103,44,81,-81,40,43,4,24,-6,43,8,37,77,68,21,-47,14,2,-15,21,-35,1,-11,39,51,63,-5,3,19,64,-10,-4,-26,-16,-22,44,16,28,-10,36,51,49,17,2,-12,29,-12,74,21,14,43,45,63,61,11,11,-3,71,48,36,62,35,118,127,19,76,14,-12,-33,110,88,52,122,70,117,103,2,100,27,8,-27,86,-9,59,101,99,55,49,-64,100,74,14,-20,53,-56,82,20,92,-5,-30,-84,38,9,-26,56,-6,57,58,0,-6,17,97,98,-28,17,-33,26,6,39,31,-5,22,19,117,77,-47,1,-18,5,-13,84,27,9,1,22,127,62,-71,-4,-32,12,-31,51,39,0,-33,11,72,21,-85,-18,-47,-13,-35,33,55,-2,-3,8,-8,-21,-70,4,-46,-27,10,44,53,22,-24,28,-39,41,-64,55,-45,-27,4,37,53,68,-60,32,-59,16,-63,115,-61,-31,29,1,40,79,-57,24,-86,28,-18,123,-66,-31,77,-34,-2,69,-96,21,-66,72,-16,113,21,0,105,22,-64,30,-21,55,7,33,-2,-48,-6,-12,94,18,-90,7,-8,91,-12,-9,-40,-78,-8,-18,61,28,-36,-27,11,90,28,-2,9,-15,-12,-4,93,50,-32,-17,38,64,-40,-19,-7,19,-12,-17,79,27,-48,-40,3,65,-72,4,-75,56,-28,-20,90,27,-25,-10,-25,54,-91,-21,-23,58,-70,5,109,87,22,-5,27,89,-114,-5,38,95,-81,-10,127,72,46,-37,46,121,-99,9,42,24,-63,-1,37,13,32,-109,-6,120,-104,40,-6,28,-6,-18,-34,6,38,42,-5,35,3,74,-40,36,4,-11,-34,4,65,48,1,1,-17,115,-41,-2,9,8,-26,-3,55,41,3,19,-38,94,-23,-13,8,17,-3,10,27,25,1,57,-2,75,-12,8,10,11,3,2,13,23,7,32,-10,61,-33,-8,-2,-2,8,-5,-1,46,0,33,-9,9,-41,9,-7,-4,8,-9,-1,46,-31,45,13,28,-44,6,-3,-26,55,-17,-16,57,-27,78,5,19,-46,26,-6,-27,63,-1,-19,65,-8,127,-1,4,-10,40,-14,11,-13,114,55,44,11,117,-52,3,-2,72,-10,-27,22,70,67,31,76,1,-89,-26,-67,24,-13,-6,27,63,70,24,100,-50,-123,-38,-33,75,15,45,9,30,22,-16,51,-73,-88,-36,-28,113,13,26,-15,51,54,-10,49,-75,-95,-16,-3,89,20,26,-9,87,19,57,-28,-29,-75,5,-18,60,-1,54,-14,25,-34,81,-127,-61,-48,15,-56,51,-14,31,0,54,9,33,-92,-41,-61,28,8,42,-17,7,70,14,20,43,-73,-21,-49,14,-18,3,-20,-21,-32,-10,20,51,6,40,19,-23,-25,101,-5,-20,-10,29,34,55,-21,13,16,-50,-17,47,-5,-3,34,54,36,49,7,15,-53,-56,29,35,-18,33,30,46,20,20,36,-5,-121,-27,-35,-32,-20,32,50,22,0,42,43,13,-127,12,-30,-13,-18,22,59,33,17,47,36,17,-111,21,-25,-45,-15,3,67,19,50,32,22,46,-42,13,-43,-39,-1,-3,56,8,68,34,23,46,-32,-30,-11,33,-4,3,73,12,32,57,11,47,-33,3,-4,33,-6,4,4,4,5,71,113,80,91,42,40,-45,-24,-23,53,0,11,56,96,63,102,59,49,-20,-32,-2,42,-13,14,23,-4,8,105,35,72,-24,-52,2,-8,-43,39,32,-37,-1,81,60,97,31,-53,1,1,-21,-14,24,-35,35,51,13,89,62,-25,-4,2,4,-53,-2,-59,46,12,-84,64,56,37,10,0,4,-53,3,-84,99,-27,-52,56,68,22,22,-10,16,-41,13,-62,81,16,19,34,70,-11,3,14,14,-13,49,-23,57,99,74,21,127,29,15,104,85,12,-6,4,-45,-9,-82,-72,51,1,5,63,46,0,-17,20,-25,19,-92,-79,-16,2,-1,65,34,2,-7,-2,5,15,-79,-27,-19,-15,2,70,30,-7,8,-42,20,-13,-121,11,-6,-42,13,82,25,-5,20,-79,26,-15,-102,-3,15,-35,-16,60,37,-7,20,-127,21,-45,-83,-28,31,-21,-10,45,43,8,39,-77,-7,-73,-85,-60,41,-22,-20,41,57,11,16,-83,-17,-57,-83,-62,28,4,-11,44,6,-26,-6,-57,-9,-8,-88,-104,32,-48,18,56,72,-10,12,-96,-15,-29,97,34,95,-22,12,8,32,37,-9,-24,-31,27,69,12,49,-16,-4,-27,0,31,-19,-38,15,23,34,1,-6,15,-4,3,-26,11,-1,-35,70,65,22,-32,1,20,8,32,-39,-8,-9,-39,44,9,58,16,-20,-70,18,42,29,28,14,-11,57,-45,52,-9,-27,-82,4,56,56,43,23,-3,127,-60,68,9,-8,-9,-27,28,13,36,25,-72,40,-87,88,16,37,28,-37,23,17,57,25,-60,43,-58,83,-9,48,-33,-45,-40,75,-7,-4,92,3,21,121,4,15,-17,-17,-15,99,7,-12,59,-5,-15,95,4,-3,-20,8,31,56,56,-5,32,-22,27,81,13,-27,-8,-5,47,59,84,5,0,20,29,102,-8,-27,-1,-7,45,69,56,20,-9,102,34,88,0,-42,4,-13,45,86,6,29,-1,127,12,60,7,48,-47,-22,16,39,-16,18,33,86,41,8,14,54,-33,-30,-26,-1,-13,-16,-19,47,41,-33,49,29,16,-25,-15,28,-19,-55,-40,2,2,-75,-14,-50,70,-7,68,-35,-1,32,56,-127,79,59,53,20,38,55,47,-22,-8,45,65,-72,45,10,3,45,13,38,4,-11,-9,69,-3,-54,-75,-34,37,69,-60,18,-48,-11,-7,75,13,-16,-68,-8,65,66,-14,31,-15,-8,-22,77,-21,-40,-93,-19,16,4,-35,2,-21,16,-5,65,-26,-6,25,-25,1,-13,-40,2,10,34,36,32,-77,-12,-29,-44,-19,5,-69,-27,-22,4,14,60,4,-28,-22,-37,-75,-9,-48,-3,9,-29,-23,25,48,-32,-19,-25,-111,-39,-11,24,19,66,34,89,-31,95,-70,112,69,52,-30,6,-32,51,56,66,-39,36,-78,121,31,16,-33,-11,-18,25,78,21,-27,-15,-72,86,32,-21,-21,-15,15,72,74,1,21,-2,-15,16,-4,-28,-8,-25,-5,68,-3,-12,24,-4,-34,-12,41,22,-4,-22,-27,-5,-1,-31,32,23,-60,-68,59,22,-8,-5,48,-23,-44,-29,-15,25,-115,-8,-4,51,-4,1,50,-10,-16,82,6,-13,-68,25,-53,79,-26,-2,31,-12,22,127,33,7,-54,33,-32,69,-37,30,-32,25,-32,44,-57,10,18,14,-42,47,-10,18,-11,24,-33,30,-3,-6,25,22,-42,-1,0,-11,12,21,1,17,21,-15,14,47,-38,-7,-5,-17,43,18,20,-3,53,17,-13,46,-13,-17,8,19,45,20,59,-30,17,32,-5,63,-18,-6,14,44,17,10,-11,-24,-6,7,20,37,-18,61,5,27,-9,3,-52,12,-9,-1,11,-37,-25,61,-1,-11,-20,-5,30,31,48,-1,-12,-4,-13,-2,-4,-40,-23,-19,127,15,-2,5,-51,-12,7,-24,5,-6,10,-72,3,-14,62,-74,97,100,-8,57,27,35,-9,-48,-59,-36,45,-18,54,97,-70,70,7,17,-22,-39,-2,-4,21,23,30,-29,31,66,-36,1,-53,-47,-4,14,14,17,-95,-28,4,7,11,-4,-29,-31,-52,44,-40,-4,-74,-49,-13,-88,33,9,23,36,-26,95,-35,40,36,14,46,-39,-83,-9,58,119,99,93,-31,30,5,39,94,65,-36,-40,49,34,79,79,54,-10,39,-2,57,40,39,17,92,2,64,-34,-29,-23,-87,-127,17,-61,-19,-11,64,4,54,-41,61,70,-9,3,18,-44,-83,44,127,-33,86,-35,77,88,57,-61,67,-35,-12,27,24,-14,80,-49,77,96,21,-126,8,-54,-3,5,-7,2,46,15,-50,-5,-9,-72,-43,-47,15,-1,6,28,28,19,-84,-22,-59,5,-39,-26,-17,-28,61,27,25,38,-108,64,-46,42,-65,-26,-20,-28,17,31,4,44,-58,20,2,62,-31,88,12,-53,-32,32,9,72,-42,18,-60,74,-93,2,19,-33,6,43,-26,44,-34,67,-91,110,-44,-10,-14,1,1,-22,-1,15,8,40,-14,-10,-67,13,-8,6,-24,-16,22,78,12,10,-43,-6,-26,4,-15,-47,-55,-10,16,111,12,-7,-78,4,-66,12,-8,-69,-63,14,-18,47,7,-27,-79,21,-82,24,-5,-24,9,61,-9,1,-17,11,-67,4,-60,-33,-16,45,62,36,14,-6,0,94,-7,29,25,-11,-3,56,88,39,55,14,5,84,-29,-16,-25,3,-20,8,66,13,50,1,47,10,11,-49,-44,30,-12,12,34,24,32,-13,3,10,48,-11,-127,-10,-38,11,127,34,29,35,33,-32,-19,91,-15,-25,-62,11,83,17,45,-21,32,-15,1,59,-42,9,-5,5,-53,-9,25,-16,46,17,-12,4,-54,62,-17,15,-40,-8,-3,12,6,1,-24,-8,-33,15,-5,18,18,-13,-21,13,-5,-17,-21,-59,-46,-11,15,-19,46,-9,-21,15,-55,43,-35,-9,-7,1,5,-4,43,-11,14,7,-35,28,-45,-48,27,41,-18,-20,29,10,-14,20,16,6,-7,-37,56,36,8,-33,-46,40,-13,22,20,44,-21,-40,85,57,-56,51,-59,-63,-32,9,60,12,63,40,8,9,-54,22,-29,-37,-24,48,-14,3,58,61,-8,-2,-61,18,-20,-15,-12,103,-38,7,31,72,3,29,-14,10,-38,-11,-8,69,24,58,40,83,23,40,24,-13,-45,1,-33,33,-13,19,-15,34,35,-8,41,-26,-27,-6,-40,28,-33,-25,-41,-29,20,-24,28,-20,26,-1,-13,55,-13,-12,22,74,56,-6,1,-19,39,16,-8,83,4,-2,67,127,90,-3,3,-53,15,16,-39,111,13,26,68,109,71,2,-2,-34,46,27,31,92,-28,72,66,-30,12,75,10,-59,-9,7,-30,93,-19,67,77,42,83,23,28,-64,-38,5,-43,123,-65,52,76,42,75,-18,17,-31,-51,57,12,112,-72,48,60,7,62,-5,-2,2,-24,35,64,42,-16,85,23,15,71,23,-11,58,2,26,127,24,20,94,-30,88,77,60,-16,28,-21,-25,52,41,91,127,-60,31,31,62,-7,9,-46,-20,14,41,99,116,-95,30,-15,69,-4,14,-59,-40,8,74,1,124,-113,4,-29,80,-61,-44,-34,36,-38,114,30,12,-60,29,-52,1,-15,32,-72,11,-76,52,73,-64,-31,92,-12,30,-6,14,-77,3,-48,43,8,-56,-8,94,-17,4,19,34,7,29,38,52,-66,13,63,11,-26,27,38,16,39,58,101,33,-96,61,30,17,-1,57,-26,9,84,58,49,13,-29,61,-14,57,98,43,-67,-19,119,42,15,27,-30,62,-35,37,75,-28,-6,-35,67,4,-80,5,-22,76,-44,82,59,-60,21,-17,-1,-17,32,127,-6,97,-13,48,-8,-31,-18,11,-113,47,121,38,-68,69,-95,-54,-66,-4,-6,59,26,22,-18,68,-98,12,13,-42,-127,3,-9,59,9,4,-38,52,-62,-31,81,-51,-90,-3,-53,-15,-7,23,-13,78,-4,-59,25,36,-39,-24,-45,-30,-17,37,63,25,86,-43,-17,112,17,-34,-15,-8,25,18,44,24,81,-52,-73,87,-61,-55,10,22,41,22,-23,30,87,-53,-58,45,-35,-49,-7,6,-34,38,20,77,41,-50,-72,22,-8,-41,-51,6,25,54,85,62,-32,-82,-83,113,-19,-45,-28,60,-32,16,-10,55,-26,-77,10,31,-50,26,19,-8,26,29,-34,34,-64,-47,14,88,41,-6,45,-7,8,36,-28,56,-69,32,56,127,-14,-32,34,10,8,37,-30,102,-7,18,21,76,23,-10,37,9,-27,45,37,-3,-12,95,13,62,0,17,-5,-53,7,42,-26,-24,-44,-4,-20,43,52,-69,-52,2,2,-34,29,21,-13,-2,31,-15,35,-69,-76,17,49,-66,80,61,66,-47,-52,-19,21,-83,-16,-34,64,-28,19,30,119,6,-16,-38,19,-22,-1,2,33,-18,21,15,-78,-127,-61,-48,-44,62,2,0,72,12,76,62,42,-74,-114,-22,59,116,-3,-21,70,3,7,77,70,-44,-29,-41,25,68,0,-42,29,-8,-63,78,29,9,20,-56,-3,80,15,-37,-26,45,-2,94,18,49,12,-51,-31,35,-9,-10,-64,47,4,92,-7,58,-53,-97,11,-14,-26,17,-53,30,-23,62,63,91,-37,-46,19,-72,-20,-24,-21,37,16,77,57,75,-12,84,52,-23,22,24,-4,45,13,31,-31,124,-4,48,-95,-6,1,24,4,14,-18,47,6,73,-78,19,25,38,22,-1,40,-4,-42,43,-47,2,-22,7,67,35,38,-23,14,22,-50,20,-7,15,3,3,48,16,12,18,5,48,-47,21,5,-46,-20,-2,37,19,12,29,-18,69,-27,-18,12,-10,-43,16,-61,45,13,48,-54,36,14,-25,44,45,-62,33,-22,-3,-13,40,0,-23,30,8,-81,48,-33,-40,15,-26,-68,-34,60,-31,57,68,-108,12,-46,-65,112,6,-48,-82,79,-14,18,81,-127,-8,-47,-53,80,-7,42,10,49,6,-36,39,-3,39,-29,63,-74,26,14,18,12,-37,-21,59,-20,50,25,72,-107,49,13,15,11,-34,-3,67,-34,86,45,54,-127,72,9,26,-7,7,16,39,-38,86,25,32,-123,41,-12,15,-21,21,31,53,-75,43,-2,41,-111,70,-9,-2,-27,4,36,73,-12,37,22,42,-99,54,5,-5,6,10,30,64,-26,68,5,41,-118,66,22,5,19,17,30,45,-82,76,-49,17,-66,38,22,23,37,12,45,11,-127,63,-54,-23,-66,67,16,46,-53,29,-56,34,-69,-8,-42,-89,-9,-32,-16,37,35,126,-8,33,-21,57,-72,-72,27,12,-32,-88,-55,54,47,74,76,-16,-12,-5,11,21,2,-89,-7,-46,73,4,33,-98,-83,65,-4,-36,14,62,45,-14,-1,23,-62,-60,-71,97,-69,-53,-27,76,30,22,-15,54,-127,33,-30,53,-38,21,-34,-3,-5,-30,21,-1,-69,35,-32,-6,-13,59,34,-5,-34,-58,62,-30,-41,73,-31,-10,3,15,71,-42,25,-35,-7,-30,-27,-11,64,9,26,83,-20,3,1,98,-45,-1,-24,41,-38,-21,-19,60,-47,17,-6,58,-32,20,-5,58,-32,-10,-15,49,-39,22,-5,23,-36,47,-3,34,-33,5,6,-10,-19,19,-3,22,-18,44,29,-13,-36,-3,-1,-3,-13,-5,20,19,-26,30,55,59,27,-1,-24,-35,-17,2,23,37,-13,40,29,-1,8,43,28,11,-22,-5,37,40,-4,28,35,45,56,64,34,3,-19,-8,21,46,7,18,9,68,-4,42,27,-10,-10,-9,12,39,-6,46,34,127,-8,20,9,-4,-3,-14,-31,64,57,60,-96,40,17,-40,12,51,6,-24,-8,92,-23,37,-127,42,8,-41,35,66,9,-24,-8,81,-35,55,-84,69,7,-31,32,107,24,-1,-24,56,11,7,-61,26,-37,1,27,49,1,10,-40,20,100,-54,-25,33,-76,20,31,38,-23,9,-14,-29,89,-20,-21,39,-11,1,15,-24,-25,-1,-8,-83,58,30,17,5,-75,-54,-8,-4,-29,-33,19,-32,64,30,-25,-3,-67,-62,17,-4,-6,-7,37,-6,29,64,-28,28,-8,-23,-36,-38,-1,51,23,6,88,49,10,-2,8,-73,52,13,3,-31,23,30,103,18,8,-49,4,-41,61,-21,-15,-42,28,49,43,31,-1,-58,-2,-2,15,-64,-14,-40,65,29,41,56,0,-45,21,24,-9,-31,-43,-45,75,36,30,35,-5,-17,52,48,-12,9,-22,-23,55,84,20,46,-23,-17,1,114,-29,10,8,30,-29,56,-16,-6,-31,-18,-38,127,14,-12,-1,24,-56,49,16,-24,-10,21,-47,75,34,-78,9,35,-38,12,-25,-48,-46,-1,-18,27,-11,-87,-26,-7,-19,-4,-12,-31,-42,67,-15,21,-31,23,-29,-21,10,72,-24,43,-33,23,-47,11,-30,-3,-64,-29,38,127,-48,101,31,13,-16,77,3,-21,-49,-27,28,121,-59,105,75,75,16,33,-16,-21,-10,-2,-19,121,-12,100,59,30,2,42,76,-32,-6,1,-48,80,12,85,24,56,-52,-15,56,-57,-12,-1,-41,61,17,91,-18,34,-71,72,56,-54,12,-11,-40,45,21,41,-64,9,-86,68,61,6,12,-2,-34,49,34,17,-67,3,-84,82,65,68,-12,6,38,66,9,-6,-27,-10,8,127,-26,16,2,13,24,19,35,4,-42,-20,10,99,-21,4,-3,8,39,2,38,-1,-45,-9,-1,50,-49,6,-2,6,38,7,21,12,-25,-19,15,60,-44,-24,-8,9,33,6,-1,23,-31,-14,25,31,-34,-22,-17,10,25,22,-10,20,-13,-17,24,45,-27,7,-8,3,27,18,0,21,-26,-14,26,54,-11,23,-3,5,14,18,-12,6,-33,8,4,78,3,15,9,7,9,6,-47,-22,-93,-9,-23,35,13,-10,-47,2,-19,-2,4,35,-26,-18,-25,-47,0,0,-15,-10,21,-8,41,16,-38,26,58,-98,48,-56,2,-14,-3,29,51,0,43,-13,-42,-46,127,-35,1,-83,-9,84,64,21,79,-33,-100,-37,49,3,16,-53,26,49,-40,11,58,-42,-48,16,-36,-37,-4,36,31,-16,-35,21,-23,13,36,77,-74,10,-7,86,27,-68,-13,43,-72,3,17,73,-18,86,-1,55,-23,-54,-15,8,-62,2,-4,-5,-68,113,-5,19,24,13,-33,-15,-74,26,-33,-27,-82,97,-100,-95,-20,33,-5,94,-77,34,105,-55,-23,12,-56,-84,6,17,15,118,-47,-24,40,-86,-58,26,-49,-38,58,2,-14,109,-51,-77,0,-51,-64,65,-65,0,9,-28,17,127,-47,22,-32,-23,-24,-76,-43,10,3,-35,3,113,-97,14,-89,-53,10,-65,-10,31,11,4,-31,112,-74,47,-80,-46,13,-69,24,53,21,43,-25,95,-69,55,-63,-30,32,-100,15,47,42,11,-40,66,-84,8,-17,-26,35,-67,44,-52,41,-46,-78,69,-35,-1,13,-75,9,-20,6,-45,80,48,-26,-23,-37,1,-49,53,17,-47,7,-24,124,-6,-28,-35,-8,28,-45,81,8,-71,-40,-11,115,-16,0,-24,14,45,-35,127,-39,-41,-51,-11,88,12,18,-23,54,90,-18,95,-67,-37,-53,-8,54,11,62,-37,-31,76,-30,67,-29,7,-40,-18,30,33,86,2,-54,2,-22,112,-6,-1,-32,3,11,43,24,22,-36,5,-37,69,20,43,-34,5,15,20,2,96,-23,12,23,48,9,54,-3,-28,11,-6,-61,90,10,66,-3,91,-63,84,-88,22,-7,69,-9,84,-26,88,-110,9,27,68,-17,-16,21,65,-4,73,-25,63,-67,30,39,76,20,-28,19,30,0,46,-18,37,-51,46,9,55,27,-25,22,20,1,22,-79,15,-24,52,-38,45,8,-4,3,-8,17,-1,-44,16,-59,88,-27,54,1,15,10,-5,-10,-19,-35,-29,-83,62,-54,59,-16,31,12,52,15,16,13,-4,-110,37,-6,25,-22,18,15,66,-2,28,37,46,-125,90,23,11,-73,-28,14,125,49,67,49,80,-106,127,47,5,-16,-4,-21,26,53,35,25,53,-127,67,-58,75,-21,-6,-10,18,59,49,28,62,-115,102,-21,86,-11,2,-26,-1,73,76,22,58,-103,32,-62,30,-3,-2,-13,-16,61,82,26,51,-74,21,-58,2,9,9,15,-22,62,80,19,82,-71,5,-84,-9,-11,0,28,-12,54,118,35,92,-57,12,-57,-41,-7,-6,28,10,69,95,37,80,-44,19,-2,1,-26,-22,2,25,48,52,-4,8,-42,-4,13,32,-63,-6,-5,62,59,-24,-31,57,-29,-16,77,17,1,-8,-2,7,38,26,26,-27,6,127,52,47,-4,2,-9,0,34,11,27,-29,16,106,34,24,-7,12,-5,-5,19,13,19,-32,28,55,32,12,-6,4,-10,-7,17,14,22,-22,-4,59,26,-4,-6,5,-8,2,31,20,9,-23,-4,67,27,-17,4,7,-22,-15,1,19,-6,-4,-12,50,22,5,-4,2,-13,-7,-7,35,-1,10,-16,45,21,17,-11,-15,-15,-7,-14,67,22,17,-29,86,16,25,-16,-18,-18,5,-25,73,41,30,-51,78,7,27,-1,-31,7,34,43,44,93,62,-48,-11,69,15,-6,28,-15,64,-4,60,63,101,-27,69,6,23,-40,46,-33,48,-13,63,11,99,-43,21,-45,47,-54,31,-30,19,-2,20,-36,-23,-62,-39,-60,4,-26,33,-24,-7,0,-8,12,-29,-64,9,-53,-32,16,22,18,20,10,14,15,32,-2,65,-104,-11,-2,-1,-17,17,-16,87,41,46,2,41,-127,-23,-42,-6,-58,69,-39,79,59,95,29,7,-52,-43,-7,39,-33,70,-45,37,-45,-1,-10,17,-51,-40,-55,-17,8,-23,10,34,36,-6,19,-24,-64,-85,-27,-14,23,27,36,13,-32,19,50,-41,-29,-59,-46,10,37,80,33,28,22,49,44,-51,6,-20,-5,33,9,11,-18,-11,-1,23,32,-43,-15,-46,0,50,30,34,-32,29,3,-19,-1,-10,-50,46,10,33,30,29,-8,37,22,-44,18,2,-113,15,-10,14,-1,37,69,31,-4,-60,-26,-20,-65,7,3,-10,-38,69,50,92,-32,-20,-48,-71,76,26,-13,-48,-12,100,69,127,-47,18,-47,-74,41,31,-12,20,28,4,78,10,25,43,-59,-101,-127,-61,-17,6,24,56,-16,-9,61,53,15,-65,-45,2,-46,27,72,107,-9,38,32,56,18,-64,-44,-46,10,23,65,-21,31,25,19,75,17,8,18,-82,29,-33,48,-23,25,16,19,77,-3,-10,-7,24,-4,-46,-38,18,3,66,-29,61,-16,-91,-110,4,-27,-35,-31,-10,-7,84,-97,32,-57,27,42,50,-34,-36,-32,-6,4,97,-8,0,-64,63,40,40,-35,-58,-54,57,36,81,60,14,-42,50,14,-33,-18,-16,59,72,35,31,49,-33,-59,-14,59,4,-18,1,85,58,30,17,48,-27,-22,-7,3,-32,-32,-25,82,65,18,25,67,-11,-17,-41,-40,-39,-35,-25,32,51,35,10,9,-14,16,-13,-17,-3,-40,1,-32,17,59,57,-4,20,-42,3,-33,37,-37,-9,-22,13,62,84,-8,56,-37,47,-35,66,-22,4,-3,23,50,71,-26,35,-28,38,-29,104,-38,-3,14,25,26,53,-52,33,-26,37,0,127,-59,1,5,19,-9,38,-20,37,-38,2,28,85,-33,14,115,-54,21,-65,-69,66,-109,-71,17,-91,-26,9,85,5,25,-81,-1,66,-85,-56,-55,-98,-36,8,76,48,26,-62,64,75,-64,-69,-39,-78,-42,-6,75,39,25,-46,83,31,-89,-26,-63,-45,-17,-40,55,53,32,-25,24,-8,-115,-94,-24,-53,-12,-13,34,57,70,6,-39,17,-42,-119,5,-52,0,-12,23,44,67,1,7,49,8,-111,93,-76,1,-7,7,40,-1,14,73,23,-14,-102,119,-77,1,9,50,31,-28,-10,92,-13,-86,-85,102,-127,-41,-5,39,-14,-34,-1,25,58,-5,-13,-87,60,-20,-33,16,17,12,18,10,76,16,-61,-49,28,6,-25,29,36,30,11,-29,13,-30,-38,-7,26,4,21,-12,14,36,45,-20,38,-11,29,-13,-19,-12,34,-47,13,30,50,-70,-33,-47,80,30,-15,-1,24,-65,39,44,82,-19,7,-35,61,-7,-6,-4,5,-65,59,19,76,-52,-11,-98,35,-10,-5,-32,-14,-50,62,-5,79,-13,3,-99,-14,-44,43,-37,-13,-21,-5,-21,47,-22,-5,-127,8,-38,63,9,-22,44,17,10,-24,-54,-104,-127,21,-84,127,-33,15,69,12,66,10,3,-53,-48,2,-48,84,-77,25,64,9,61,39,-12,-1,-13,34,-8,116,-70,-17,87,76,99,35,-32,38,-21,50,96,65,-34,-13,-3,85,52,15,-77,79,-47,-2,81,37,14,13,-18,28,30,-3,-74,58,-61,16,-44,-24,34,21,27,-18,-2,-29,-61,5,-82,-20,-76,3,43,15,59,-19,-67,-22,-118,-17,-106,-35,-78,-96,-19,57,8,-6,-40,43,-116,-22,-38,-39,-87,-98,2,-16,-19,1,-14,18,-17,106,-38,9,-5,7,9,-15,17,23,-25,33,-64,57,-62,14,8,-36,1,-12,22,48,-14,44,-36,44,-55,29,26,-53,-9,22,30,50,-8,6,-55,55,-19,29,59,-71,10,35,17,15,-7,-7,-44,114,-14,-16,31,-59,10,35,35,-16,20,32,-82,90,-28,-13,70,-23,-3,17,24,-22,8,29,-30,55,-71,-14,55,-31,-14,-23,1,-35,29,49,-12,34,-52,58,43,-26,-14,-35,-15,-14,68,69,-6,37,-39,127,19,4,21,10,29,-4,8,115,-7,27,36,-104,26,77,-18,-10,-4,-12,25,49,-8,78,69,-108,28,21,2,2,5,12,45,41,13,9,-63,3,38,-33,-13,-13,-31,-27,35,20,43,23,-54,4,-26,-56,-16,-42,-36,-20,66,-41,17,91,-60,69,-86,22,-56,-55,-70,12,13,-53,-4,-8,-9,79,-77,10,-68,-5,-17,2,-82,-15,-13,-41,-24,127,-60,8,45,62,105,3,-65,34,-76,-18,-8,-25,65,-38,28,30,70,18,-5,112,-23,12,74,-81,-8,21,3,22,-17,18,25,-16,-101,47,16,54,-49,38,-11,5,-6,-8,5,-6,-83,27,-19,72,-62,41,-5,0,13,-14,6,-14,-71,24,-36,60,-40,29,-3,-3,11,-7,30,-11,-64,32,6,30,0,15,-13,0,6,5,15,-13,-62,17,-2,32,-2,12,-2,2,-6,-3,1,-19,-14,3,36,7,-27,-20,16,-5,-15,-3,22,-20,-25,20,81,17,-16,-9,18,-7,-35,1,41,-14,-37,2,121,2,-15,-11,8,-21,-33,0,32,-32,-12,-2,127,-4,-20,-20,1,-15,7,-7,-48,18,1,69,7,29,-11,-7,-2,5,19,8,-37,16,-27,3,-12,22,1,-17,5,13,4,17,0,8,-3,26,-27,-17,20,-25,-8,24,33,15,8,5,-31,35,-6,3,30,-31,-10,22,13,-5,24,12,-33,74,-2,-7,46,9,-9,3,-2,-24,4,20,-57,37,9,18,19,-7,-5,-11,-16,-5,2,8,-38,20,16,42,34,-14,1,-18,-39,-19,19,30,-24,28,-25,56,-4,-11,-7,-13,-21,-6,34,51,-4,44,4,127,25,-4,-41,-8,62,28,22,75,7,64,-5,-28,31,-14,-27,3,52,25,16,55,10,41,3,-12,26,-5,-10,1,28,38,14,19,5,12,-7,-24,23,27,0,17,10,36,-2,21,-7,31,1,-35,5,23,-24,32,-24,39,36,19,50,45,-11,6,-5,78,-41,17,-5,32,40,27,57,14,-10,36,-59,102,-23,4,18,15,41,44,21,-49,-31,64,-46,127,-13,-23,3,-34,-15,11,3,-28,-58,3,-24,99,-58,-13,43,-15,-10,-9,0,5,-45,16,-13,50,-36,74,89,14,10,59,16,22,61,-11,-76,40,-44,9,-2,-23,-36,43,75,5,6,-51,16,6,-42,-90,-5,25,62,57,29,-16,-65,-25,27,19,1,-59,-49,-6,35,39,-12,-35,-76,-18,72,-9,17,-2,1,-26,11,68,6,-9,-49,-53,17,-17,22,20,38,-20,24,50,30,22,19,-43,-31,7,9,13,27,2,-37,23,33,31,-48,-83,-127,-13,-47,20,11,4,8,82,33,-55,-16,12,-53,13,-11,-25,-6,-16,68,63,6,-28,-58,70,12,-2,-50,18,75,86,28,54,-40,55,-76,127,-3,-22,-14,5,51,94,-8,24,-14,28,-70,102,34,-16,-33,-10,8,92,-5,23,26,20,-87,58,-11,1,-28,-4,-11,71,13,19,22,21,-57,67,-44,-3,-34,-9,-24,34,29,15,-12,19,-117,45,-72,-22,-30,-25,21,38,19,41,29,25,-64,15,-53,39,-6,-6,4,8,26,45,7,-11,-47,22,-62,75,-1,-15,20,1,6,57,9,46,-61,26,-52,96,-23,-8,17,46,77,41,-11,76,-52,13,-18,107,-13,-14,5,48,-17,44,-38,12,28,6,-12,39,-20,-23,12,25,-8,49,-6,34,22,9,1,43,-17,-15,-5,8,24,54,-9,41,6,-12,-5,22,-6,-39,-13,6,21,73,10,67,2,-19,-35,23,-3,-38,-26,4,20,69,-26,93,24,32,-43,8,15,-22,-13,-3,-8,66,-37,107,31,59,-28,2,9,-7,-8,-13,2,29,-36,79,37,127,-25,-30,-10,1,-1,-27,10,36,-35,44,16,112,0,-9,-23,-4,-5,-36,11,60,-13,-1,34,81,19,-2,43,-93,38,38,-35,86,-76,75,-94,8,115,-118,30,-31,-11,46,-26,83,-96,14,-83,-11,81,-69,-4,22,-7,32,-8,88,-104,-26,-45,12,9,-23,-34,25,24,-25,55,104,-107,-4,-4,46,-62,53,-25,-3,59,-55,127,111,-88,0,-44,8,-32,26,13,-8,56,-33,18,20,-43,74,-39,-47,9,0,-2,-24,3,-18,12,16,1,91,-38,-27,-50,-24,-1,-54,18,-41,13,57,7,58,-74,42,-42,-66,17,-96,9,-68,-19,74,26,88,-96,12,-45,-76,3,-7,56,30,97,64,-11,47,-25,64,52,37,4,-5,-9,23,81,60,-47,13,-10,19,53,-29,-6,4,-10,91,77,20,-78,6,-16,30,44,-60,-6,11,-36,99,49,36,-78,-8,-32,36,75,-73,-20,12,-13,127,39,41,-69,-26,-53,65,41,-62,-12,-16,-31,75,28,53,-42,8,-117,-16,52,-53,-32,-6,-6,78,11,34,-50,17,-115,-58,-13,-7,-21,5,9,43,10,42,23,25,-125,-25,-28,9,-52,13,40,36,-8,-2,-69,26,-127,26,39,42,15,-15,-24,69,-29,80,-46,-25,-1,127,62,74,-7,3,-25,26,-9,66,-68,-16,34,104,26,83,-20,-6,-32,-10,25,53,-74,-3,47,33,4,55,-24,-31,-26,-20,40,58,-32,19,20,38,5,47,-23,-18,-17,-15,28,82,-4,33,31,48,5,41,-5,-13,-5,-23,18,79,-10,69,26,53,-1,46,1,0,0,-15,29,76,1,74,28,56,9,37,-20,-20,-6,6,37,65,-2,73,44,47,5,31,-28,-30,-18,31,25,86,46,46,41,36,26,51,-26,22,-3,20,-39,13,-127,-19,-72,-61,70,54,-13,17,22,16,-24,0,-112,-5,-75,-50,20,92,3,16,13,7,-31,-17,-91,5,-45,-43,28,80,14,6,15,26,-20,-17,-51,13,-7,-20,57,59,27,-15,8,37,-29,-16,-14,-9,-11,-18,38,40,19,-23,-1,35,-10,-8,0,-3,4,-37,7,33,17,-46,-8,29,-9,-11,-8,-16,33,-6,-8,25,22,-32,-6,12,-22,-3,-24,-23,30,40,-6,17,20,-50,11,-19,-35,-8,19,-45,18,32,18,17,2,25,7,61,12,22,-1,41,-102,-14,-86,-7,-68,39,-20,62,-25,37,-51,3,-45,-7,-47,18,-68,42,-7,78,-31,49,-5,48,-33,20,10,25,-51,8,-8,68,-3,37,18,32,-127,36,7,-40,-50,-4,26,42,-35,33,45,13,-55,2,-24,-40,-38,7,17,66,-39,26,85,-41,-70,37,40,34,-27,4,37,53,-16,-1,6,18,17,48,72,51,-13,-1,35,58,43,35,29,48,81,55,64,34,-13,-8,40,92,26,76,57,120,59,64,40,77,-17,27,-65,90,54,127,-68,2,-104,49,6,67,-6,15,-49,25,83,13,-16,-118,-55,57,-54,52,5,1,37,-24,41,-16,107,-28,-45,-12,-57,-48,14,26,61,57,67,-10,40,20,-52,23,-77,13,22,61,-52,67,17,-51,-63,48,10,50,-81,81,-36,52,-31,78,8,64,-92,-35,50,48,0,117,-11,28,-33,-11,-71,56,-20,-52,40,38,2,94,6,-61,0,-24,-92,22,85,25,-64,-40,13,39,-16,-31,101,-24,10,83,102,96,8,48,-20,-17,-31,-26,-42,47,-6,72,70,-49,43,56,39,64,-28,-19,-33,44,6,70,40,-31,40,-33,-8,28,-5,-6,18,68,30,28,-14,9,40,-61,-14,20,0,15,23,59,3,35,-5,11,20,-48,-34,26,-4,30,38,23,-28,29,-36,-12,-43,-57,-70,24,-15,28,13,12,-7,71,-1,-19,-48,-39,-40,41,6,7,-7,19,44,6,-52,16,-28,-77,-62,-10,-5,-5,3,64,22,8,-63,42,6,-116,-58,-18,-4,3,34,75,24,35,-78,44,-7,-127,-17,0,13,-96,11,-37,81,-22,41,24,-2,-74,28,-108,19,-59,17,-22,71,3,62,30,26,-32,19,-19,32,-8,39,-7,22,10,50,-11,-63,-10,-21,-25,-28,5,42,-11,11,9,-45,-11,-25,49,-36,-26,-39,24,87,-4,1,3,-94,-21,-1,1,-17,-26,-54,49,72,33,-32,-9,-82,4,40,-35,-41,-46,-14,31,72,32,-53,-21,-127,-29,-78,-47,-4,-44,-55,7,55,-7,-56,41,-25,-42,-41,-23,-99,-25,-58,26,81,-54,0,44,30,13,-52,-60,-82,-62,4,44,46,-4,13,13,-41,-46,-55,-87,68,39,-22,80,14,-17,44,31,-24,-4,-20,-65,69,7,-38,56,45,-55,-69,-15,31,82,50,-73,5,7,-16,-72,5,29,-33,3,6,-33,-75,-23,40,43,-4,-45,-52,80,93,46,-49,-6,-100,65,-15,-1,11,-27,15,66,44,83,69,127,-73,48,-21,-3,7,-13,-11,79,24,84,67,59,-101,-9,-4,26,-13,2,23,65,-41,1,65,28,-47,-61,29,52,-11,8,-27,-75,-48,28,-40,56,19,-6,110,-7,22,66,56,33,51,121,-34,-11,33,21,96,73,-38,25,33,38,63,80,5,-64,26,51,113,72,-17,-24,27,68,80,-30,-66,-89,5,9,87,48,4,-30,35,127,28,-50,-108,-48,-52,-15,31,0,32,10,56,91,-48,36,-85,18,-61,-15,16,14,29,34,-2,-16,-69,44,-37,4,-98,-16,24,42,-3,20,-27,-28,-65,77,8,51,-109,-29,30,68,-28,13,12,0,-21,91,51,68,-46,-32,18,42,-21,-2,103,124,-59,40,5,57,-13,-29,94,30,-22,2,5,6,30,31,-18,-3,-127,-6,-24,87,-31,-24,17,45,33,52,6,61,-62,-46,35,55,-27,6,40,46,10,82,12,63,-46,-2,-2,68,-6,-14,30,-18,-9,36,-27,13,-6,-2,-95,-5,-18,-45,53,-27,33,104,-22,-33,37,10,-78,-62,-15,-42,54,30,34,45,34,-18,89,19,-34,-75,-21,3,-18,51,33,-49,22,50,38,30,-16,-98,16,75,-28,5,-27,-50,25,57,-30,64,-56,2,6,64,-26,13,12,11,77,28,-81,98,-84,55,-9,-10,24,30,-16,51,48,4,-70,9,-5,127,-29,-23,25,38,12,81,23,-22,-96,24,36,55,-27,8,34,48,20,55,-6,14,-98,41,15,2,-14,0,3,2,15,-5,39,-11,-110,-53,-44,10,-15,-42,21,-5,-37,56,46,-45,-22,-8,-22,-10,-11,-25,48,41,-52,56,29,-33,22,44,36,14,-17,-2,33,29,-7,20,15,12,13,51,45,26,3,48,30,-5,5,26,36,36,-46,-16,-2,57,-4,46,60,28,-45,53,17,61,-87,-12,4,42,19,-15,4,34,47,-15,124,-58,-26,-67,24,-124,11,-11,38,7,-30,5,57,-25,56,-72,-73,-20,6,15,78,19,-37,6,-19,8,15,-84,-41,-29,5,17,29,-14,52,-10,-14,65,42,-54,8,-14,32,19,0,-28,8,-20,-71,54,-50,-27,67,17,-11,-20,-35,2,-38,32,-93,17,14,12,-69,62,-25,-31,-52,-24,-1,101,-40,70,-74,72,-87,28,-34,-42,-35,-13,-3,127,-33,8,-89,63,-20,3,-75,-53,-17,11,44,110,-18,34,-39,72,-11,23,0,5,48,52,57,77,96,70,-19,112,-87,115,7,-7,39,12,69,69,57,43,-23,-17,-69,107,-11,-20,35,-30,32,22,14,30,14,-51,-98,81,-31,4,11,-47,27,0,1,40,-33,-14,-72,35,-18,34,2,-38,34,19,6,54,-33,-3,-81,48,-7,47,-29,-20,48,48,48,-1,-68,-30,-39,69,4,39,2,16,36,67,83,33,-66,-13,-74,67,25,33,14,3,14,35,87,49,-112,-2,-34,108,8,6,-48,24,8,69,111,114,-127,-9,-49,76,-15,28,20,32,-15,-18,-108,85,-84,119,73,-19,-42,38,61,3,1,38,-80,93,-29,45,-20,5,-69,-14,81,67,-17,38,-40,57,4,17,-25,67,16,-21,-22,83,24,4,3,57,18,-43,-65,127,28,-5,-49,53,96,17,76,50,-41,34,-94,58,31,-19,-50,25,48,11,19,14,-76,98,-104,50,-4,-9,-55,61,59,20,56,70,-26,13,-35,114,-43,-2,-19,43,-1,25,106,-22,-55,23,17,85,-32,1,38,30,11,43,53,-44,-24,20,21,67,12,3,16,42,-4,52,-40,50,6,-34,11,37,14,7,-34,16,-70,46,-13,8,-19,-50,43,29,5,7,-29,15,-14,47,8,7,-10,-16,24,20,-2,-1,12,17,33,51,-41,-20,-33,-15,15,-29,-2,-12,4,-6,42,25,-57,4,-31,-22,9,-26,-4,-15,44,-5,20,65,-81,4,-29,-13,-7,-2,13,-13,51,0,-29,113,-98,-3,0,-36,4,54,3,-31,67,23,-30,127,-120,-20,8,-53,-23,60,3,-28,64,21,4,76,-108,-37,-13,-35,-8,60,32,-45,40,-28,60,-22,-9,-14,-13,-52,109,-38,12,-12,28,-2,47,51,-22,8,3,-45,23,21,10,-16,56,6,16,65,-62,12,-67,-22,24,-2,-12,-25,72,0,56,42,-76,3,-61,19,29,-3,-29,-38,42,-16,87,4,-48,10,-85,19,-13,-9,-17,15,50,-19,27,-19,-42,25,-78,3,-6,-23,-4,28,6,-38,-17,-6,-37,5,-74,50,-47,-14,-16,-7,-10,-38,-9,26,30,-47,-43,45,-127,9,-48,-14,9,-49,35,69,3,-47,-22,-18,-127,47,-59,-19,52,47,28,60,-2,94,29,79,99,75,-11,22,35,39,30,38,34,48,-10,74,22,97,-3,27,49,33,10,24,30,45,-51,51,-11,63,2,34,17,11,12,10,-65,51,-12,33,28,22,-12,6,4,31,20,-5,-50,60,-37,27,-23,-37,1,-20,3,39,9,24,-14,102,-57,-14,-51,-16,8,-30,-21,55,-8,2,-8,72,-66,40,-61,0,-16,-34,-19,35,-32,43,6,68,-101,64,-127,-6,-64,-34,36,41,23,73,-36,56,-112,96,-78,17,-21,-18,7,26,-1,75,68,-35,-108,10,-32,75,16,7,-20,31,11,-5,43,21,-114,24,1,53,16,-11,-2,47,47,28,19,17,-52,47,-20,36,-16,-17,75,57,51,46,-15,4,-78,31,20,31,-80,-32,64,24,57,73,-7,-9,-18,74,34,12,-62,-34,38,0,25,74,-27,13,-43,57,8,1,4,-10,63,-8,39,90,-44,28,-33,-12,-29,-7,22,-9,48,-41,-2,110,-63,20,-1,-32,-54,-16,-29,-7,51,-4,2,127,-52,15,22,-57,-76,-10,24,-30,61,15,-29,47,-43,36,42,76,-57,20,8,-14,39,21,9,15,-85,20,10,-16,-62,33,5,1,-3,6,-1,-11,-71,15,-13,-8,-32,-8,-5,25,-25,41,6,-5,-30,-3,26,37,25,-3,-17,15,17,33,32,23,-31,66,75,69,-21,-23,-23,-12,1,16,2,56,-16,70,38,20,-29,-5,-12,-36,11,19,-3,64,-31,43,-41,14,-15,-91,17,-64,11,44,-10,88,-84,58,-76,-58,20,-100,30,-63,9,11,-3,105,-127,98,-61,-36,7,-29,-9,7,-49,22,-17,60,-75,27,-57,44,8,15,-21,9,-36,-13,-8,91,-31,5,-51,16,-43,16,-19,28,-19,-14,-10,127,-17,6,-68,13,-37,10,-25,8,-27,-6,-14,115,9,-12,-57,-25,-33,2,-22,14,-22,5,-16,63,36,31,-55,-9,-21,-12,-4,-3,-5,10,-6,16,13,38,-17,19,14,12,0,4,1,27,14,12,39,70,32,55,33,24,6,-8,-3,16,32,35,56,69,40,34,28,12,0,-29,-26,22,0,74,66,35,39,20,56,25,41,25,-7,-4,-14,46,52,18,-71,127,39,21,19,20,-18,-8,-1,75,42,-2,-2,80,31,4,14,9,-17,2,25,89,38,18,46,2,24,24,9,2,-16,41,43,68,50,31,59,-3,-10,12,25,14,-19,60,46,52,29,32,78,26,2,32,34,-2,-8,67,42,73,41,50,93,68,22,19,21,-14,19,82,73,93,74,51,58,43,3,23,22,-1,7,76,50,98,96,31,29,19,-7,42,20,14,-19,41,15,60,104,-17,-9,-12,-98,-4,-48,25,40,104,50,80,-109,70,-99,127,8,12,-21,20,14,89,0,82,-24,55,-69,106,19,-7,-21,3,0,120,5,29,-16,49,-68,112,50,-15,-17,4,3,107,16,-2,2,38,-79,59,8,-38,-25,-21,7,64,6,12,18,58,-64,41,-14,-15,-20,-39,28,50,53,29,27,56,-80,45,-26,-31,-31,-13,14,6,31,27,-23,-4,-34,58,-82,30,-20,-8,15,-28,5,89,-41,-16,-66,97,-69,16,-34,-27,-8,-25,47,105,-79,50,-120,108,-58,102,12,22,18,51,10,18,-127,32,-70,90,3,37,-24,43,1,8,40,4,-84,69,-47,74,-26,-16,-35,50,-7,-1,20,2,-44,122,-56,61,-81,-79,-13,26,10,4,13,-9,-28,61,-22,44,-36,-67,-20,3,54,8,34,29,18,23,1,121,-45,-36,-6,-2,33,-4,52,20,-30,-21,-33,109,-47,-48,17,-11,58,-14,46,12,-62,34,-30,51,-57,-46,35,-19,42,0,28,28,-86,45,-72,33,-73,-2,42,-11,74,26,-1,18,-121,22,-72,47,-85,-8,-2,-13,-23,-15,-11,15,-30,16,-8,51,-8,38,9,-8,3,-15,-11,33,-25,-1,17,103,24,39,15,12,24,-13,7,11,-3,-1,10,61,21,37,7,24,43,8,56,19,1,21,12,57,27,44,9,26,50,-8,52,13,-5,33,29,59,24,50,4,26,33,-8,33,50,-31,19,23,127,19,24,-2,24,-16,-4,25,63,-28,27,21,117,9,16,-5,9,-44,-7,14,88,-20,45,-8,70,-8,32,-3,3,-56,-16,40,54,-47,59,23,74,29,16,-35,13,10,7,6,46,48,-14,-23,-114,-111,48,-67,16,-8,92,16,34,43,63,81,-47,-52,6,-46,68,14,77,-15,14,37,45,54,-73,-16,-20,-7,55,15,33,-12,13,28,40,47,34,27,63,31,10,36,-6,-48,17,-24,-11,-51,-11,-58,84,-13,-24,46,12,-19,15,-35,-85,-19,16,-123,44,-51,-39,59,40,20,25,-19,-67,-48,104,-61,45,-28,-52,-18,43,13,31,10,-41,-10,127,-6,32,0,-44,9,30,-7,-37,46,-17,-66,52,-26,55,-9,-7,19,-15,-11,28,-127,-30,-12,69,-10,21,4,-29,-42,-7,-34,24,-47,10,-16,10,10,3,-1,-26,-46,-6,-31,46,-43,32,0,13,26,-13,-26,1,-31,-9,-47,26,-13,4,-30,-1,-1,9,-24,14,-6,-19,1,24,-33,4,-27,70,-1,-7,4,23,46,-26,9,23,-46,20,-29,101,2,28,9,33,88,-40,15,20,-2,8,-46,42,-4,49,2,26,109,-44,0,22,12,9,-80,59,7,53,-3,35,60,-13,0,34,46,38,-85,77,-1,80,-7,43,9,42,64,9,-41,-9,39,-67,-79,43,-20,48,-9,10,49,4,-106,-10,57,-28,-55,95,-25,21,26,-3,17,14,-124,-6,29,-39,-76,68,-25,15,22,9,76,20,-127,36,32,-56,-49,72,0,20,5,6,77,26,-118,-25,20,-6,-98,86,1,-1,-36,29,52,10,-68,-4,12,28,-97,77,20,-8,-20,39,43,-21,-76,40,27,40,-78,15,19,3,-5,56,40,35,-73,57,58,50,-22,2,21,-11,-8,45,-6,49,-94,25,60,115,10,24,-36,-6,26,44,38,47,20,42,-65,110,-16,-17,-10,8,1,51,28,20,26,4,-71,99,-34,-32,-24,22,-4,63,-5,28,9,-26,-43,79,-25,-2,-13,13,-11,49,-19,-1,-13,15,-27,47,-34,4,-12,-2,10,27,-1,2,-2,29,-46,24,-50,1,-22,-18,11,26,21,27,32,16,-52,3,-71,49,-21,-16,3,6,21,16,5,-16,-39,20,-52,85,-1,3,27,2,2,44,-3,37,-28,38,-37,127,-8,15,17,20,52,47,27,82,-9,49,-32,127,-24,-1,-73,45,-19,123,-91,12,-85,52,-13,53,-35,-15,-45,1,-16,127,-45,25,-83,-26,-81,41,-38,12,-32,-23,-12,123,-64,54,-86,-4,-45,25,-50,26,-38,-5,-28,116,-38,51,-101,-7,-50,25,-26,24,-18,-5,-41,67,-29,32,-84,-16,-16,-3,19,-1,-11,2,-1,36,15,30,13,66,3,-21,15,13,-5,43,29,40,40,54,46,69,61,17,23,-6,-23,31,47,59,43,64,32,12,44,47,-8,-29,-19,5,1,86,104,10,6,-34,52,51,38,-18,20,48,-22,56,-1,5,-127,-38,82,107,31,-17,7,70,10,58,4,9,-99,5,57,53,19,-3,-4,73,43,15,-17,50,-29,6,26,58,-1,26,-28,10,36,53,-15,15,-7,30,-56,45,-10,42,1,-5,45,69,-42,58,12,42,-53,78,-8,23,8,4,29,68,-40,91,29,-2,-31,97,10,1,24,31,9,53,-28,63,36,-18,-4,64,18,7,41,59,6,28,37,57,8,-3,7,52,12,5,39,76,-12,66,65,67,-14,-2,-2,61,-25,3,16,83,3,72,-24,-4,-11,67,-21,-77,4,-8,12,94,5,50,-61,27,19,24,-18,-54,-6,6,-3,15,-18,57,-19,31,35,-13,10,-5,-9,19,-12,2,9,26,9,26,-10,14,0,15,-34,1,-5,-4,27,50,18,-15,-26,43,-1,51,-36,3,7,-28,24,80,-6,0,-26,74,27,50,-34,22,-18,-30,24,70,-4,21,-10,84,5,10,-6,19,-44,-22,33,59,32,26,-3,127,-1,7,1,19,-60,-7,42,78,19,50,-25,95,-9,15,-9,-69,2,5,-11,43,-127,-41,0,-12,-39,57,-2,-56,3,4,8,44,-82,-25,-8,24,6,26,9,-48,-14,25,21,49,-69,-1,29,3,-16,27,5,-32,-5,39,24,73,-85,-8,59,7,-80,36,9,-32,-3,55,42,88,-73,9,84,9,-59,4,8,-33,7,33,43,58,-85,9,89,11,-54,-30,12,-32,-3,12,36,46,-90,19,87,-14,-49,-31,11,-29,-13,20,45,35,-85,35,45,-19,-42,-29,-2,-12,-14,35,50,44,-91,56,61,-4,-28,-34,-27,6,1,-25,-15,44,-3,58,0,3,41,-4,-4,14,48,3,-22,31,-96,4,8,7,44,10,-8,12,53,19,-43,18,-116,-30,34,12,42,15,-27,13,48,9,-34,37,-127,-45,73,13,0,-1,-28,16,69,-8,-55,41,-119,-50,95,-12,-10,-22,-32,6,70,-3,-36,40,-84,-54,86,-10,-31,-8,-33,-20,78,-6,2,51,-43,-18,37,8,-38,-21,-34,-20,89,-2,5,41,0,1,43,54,-20,-18,-20,-14,61,-11,8,52,-2,21,48,53,19,4,-13,69,95,39,-81,-37,19,74,-30,20,-118,116,-61,-18,81,94,-26,4,65,65,41,59,-66,72,-24,-16,36,118,3,14,11,-12,19,-25,-58,35,-10,-1,-44,115,-3,30,-10,15,-13,-19,-48,10,19,27,-44,53,-11,37,-15,31,-38,-36,-74,30,42,59,-54,-12,10,29,61,-1,-49,-1,-69,-30,13,52,13,-5,-11,13,89,35,1,80,-57,10,-3,23,55,31,-22,9,75,16,-47,109,-63,83,-37,-37,58,127,-40,56,67,72,-79,46,-98,24,21,26,19,12,47,-20,-102,-88,24,52,-45,28,31,20,17,25,53,-6,-28,11,-8,34,-11,16,20,-11,31,35,44,2,33,117,-32,24,26,22,20,-21,71,60,30,31,46,127,-9,36,15,38,28,-17,56,47,-32,22,77,115,-14,35,4,6,24,-17,23,71,-19,33,23,117,-49,18,2,-9,4,-9,-14,29,-5,17,47,75,-71,-18,-9,-13,-5,-26,9,8,16,25,54,32,-85,7,-10,-2,5,-49,5,-9,68,54,26,42,-124,1,32,58,-22,21,-37,50,79,34,28,-22,-24,80,53,126,-3,32,-29,25,85,57,-18,19,-70,33,49,57,-8,-28,9,1,60,83,-61,-4,-73,-21,18,14,-30,-52,47,93,41,94,-105,-32,-17,38,22,-15,-7,-44,86,122,37,67,-95,14,60,108,43,-37,5,-31,110,107,50,43,-127,-3,58,104,-29,-53,40,-9,92,74,8,86,-68,13,25,98,10,-31,40,4,68,104,21,20,-41,41,-45,77,13,-57,49,53,6,23,48,-53,-30,44,-10,82,-8,13,-18,53,8,10,-21,40,21,53,-19,0,-7,122,-47,23,-10,7,24,-17,41,71,-16,-27,81,89,-30,-52,-20,50,58,7,-41,45,-25,-11,92,76,-5,-44,6,78,67,61,-113,28,-55,33,51,19,-25,-5,-5,37,127,11,-99,-20,-107,7,-13,41,-16,49,-7,-11,122,-14,-78,-37,-84,-3,-71,49,16,29,-17,-41,24,28,-16,-39,-76,-33,-75,32,3,-16,-5,-35,-43,37,-41,-49,-23,-20,-14,20,3,-27,-6,-18,53,111,-98,-49,-13,61,21,-4,0,20,24,-20,-8,49,9,32,54,37,-55,72,6,44,-14,-28,40,72,25,9,41,-43,3,38,-9,8,15,-54,127,34,46,33,8,-66,-28,-1,-23,-41,53,-19,126,7,29,64,2,-27,-12,-6,-6,-54,33,28,88,-25,18,70,-3,-10,-13,-21,4,-37,32,20,30,-31,-35,47,-20,5,-22,-24,1,-11,40,46,-24,-15,-24,26,-57,-14,-26,-43,0,-5,44,83,-26,-60,-4,14,-65,4,-24,-51,-6,-12,-1,59,-19,-54,8,2,8,7,3,-7,-17,-16,49,81,-3,77,-6,26,9,56,-44,109,1,1,11,27,0,55,-52,64,-13,-3,-59,118,4,11,31,17,11,-5,-55,65,-8,-59,-91,87,-23,22,13,23,56,-28,-37,67,6,-35,-96,22,-27,23,0,28,59,9,-19,5,2,-37,-98,-17,-1,21,-27,3,58,35,-31,-36,38,1,-98,23,12,30,2,-9,39,23,-92,-14,33,50,-89,53,-3,23,15,-5,30,34,-62,-35,52,51,-41,34,9,26,8,-40,2,7,-127,-73,34,-6,-10,51,32,-7,-20,27,-105,-24,-57,-2,-34,-68,65,47,41,-44,-40,65,-64,56,-81,51,-118,-83,-10,51,20,-52,-49,46,-73,53,-100,40,-85,-42,6,25,-6,7,-46,32,-70,60,-4,-8,-44,3,-56,-90,-18,17,-10,0,-17,91,-7,1,50,8,-16,-67,-44,12,31,29,71,66,20,29,29,-20,9,-66,-27,-28,7,-13,65,26,-14,10,-13,0,-17,-11,12,21,59,41,76,48,-51,-20,-40,26,-22,-28,-34,54,18,88,127,42,-38,79,37,125,-12,20,-14,14,-5,1,-21,-24,8,-43,-9,127,-27,34,24,2,5,27,-37,-12,-13,4,-36,69,-7,-13,22,-17,-18,26,-8,11,18,51,-3,13,16,-14,-8,-5,-21,48,16,22,22,30,8,-36,14,-8,-19,-23,6,32,9,20,9,35,3,-16,-22,3,-6,-20,33,-19,11,21,-2,60,7,6,40,13,-6,22,53,-39,42,43,8,28,-18,10,34,44,-23,38,83,-49,31,35,24,55,-7,44,53,52,-12,18,44,-42,36,71,98,88,18,-18,-14,22,6,2,25,-76,34,13,-13,-125,-127,32,16,14,18,-18,87,-11,77,-23,-14,-35,-83,44,27,5,14,3,103,17,102,4,-19,6,-92,107,2,24,13,-11,106,51,25,21,-46,74,-62,97,-11,56,35,-11,57,47,-43,31,-42,88,-28,108,-16,28,42,-12,1,44,-79,15,-81,36,-13,61,-19,-7,38,6,-41,30,-23,24,-42,30,-43,13,-16,-22,24,16,18,20,-4,79,-47,81,23,27,-48,28,8,44,3,-17,1,90,-23,105,34,-3,-74,47,-21,-23,-8,27,41,57,67,63,-15,17,-28,-35,2,0,-8,-9,69,-3,79,94,6,15,-12,-9,-4,14,11,-32,72,-10,23,110,54,96,9,-36,-7,6,-10,-56,23,-2,-51,78,-29,103,14,6,9,-1,-9,-33,15,8,-44,81,-23,84,3,20,-4,-4,-12,0,7,51,-28,105,-33,73,35,68,-17,-9,30,32,15,24,-54,125,-3,-79,23,72,-19,-17,18,11,57,-16,-67,108,5,-86,23,62,-13,-10,20,5,66,35,53,127,48,-22,12,23,6,-13,2,52,-3,51,-42,127,-51,29,-44,29,10,-17,30,33,-13,64,-62,110,-81,37,-34,16,-1,-8,23,18,-14,52,-31,98,-87,54,-16,20,-6,8,23,4,-8,48,-24,103,-58,8,-29,-2,10,23,30,-14,9,31,-25,76,-57,-13,-61,-26,12,19,12,-11,34,46,-16,17,-47,33,-77,-3,3,-8,18,-14,44,53,0,39,-48,79,-20,-13,-16,-31,14,-9,31,59,10,17,-30,98,-10,2,-23,-48,1,-16,1,36,3,25,-46,93,0,32,-16,-31,48,80,5,19,-30,36,-31,50,-111,-24,-18,5,41,73,80,78,-32,41,0,-26,-34,-32,-18,-6,18,24,-19,69,-40,-27,88,-13,22,23,-34,-40,-19,21,-20,18,61,-15,61,6,19,61,10,-23,-6,33,-27,-1,28,-42,44,36,-11,24,-17,40,-6,-48,40,-2,-50,-29,-18,73,44,44,-22,46,-32,-58,98,4,-35,45,-36,22,15,10,-18,44,-41,-24,120,19,75,77,-84,87,-24,63,-43,49,-2,-7,64,26,54,84,-127,79,-59,105,3,15,58,-8,48,16,-2,75,-101,89,5,30,6,16,39,-7,24,-2,45,63,-103,84,-30,26,12,2,38,-9,-8,35,20,68,-76,38,0,44,-3,-6,68,-5,-18,42,1,25,-56,24,5,62,-1,-11,84,6,19,53,-10,48,-40,-5,35,127,8,-41,49,-6,24,18,12,56,-20,-29,23,119,12,-43,58,18,6,11,-56,39,-83,29,23,76,21,-11,62,11,-7,76,-57,6,-103,39,40,78,20,8,92,6,14,94,-53,-10,-67,19,24,81,19,-57,30,-8,-14,16,21,0,-27,-21,54,-37,11,-23,27,-9,6,31,41,-23,-46,-25,28,-28,5,-15,9,-18,6,60,78,-8,-91,4,-6,-8,-3,-26,-20,-18,-31,52,66,32,-17,20,14,-8,0,-19,-6,16,-56,64,62,32,-26,-3,-4,2,-7,0,11,56,-27,113,36,29,-30,-2,20,54,-29,26,-3,60,-8,127,-5,27,-24,28,29,83,-36,26,-7,31,-23,87,-28,28,22,68,27,63,-12,21,-42,36,-23,0,-47,-27,25,9,-27,71,-23,11,-5,86,-50,26,-21,56,-4,-8,-20,39,-38,26,-11,41,-33,23,-7,72,-28,6,-44,30,-36,18,-8,3,-32,42,25,51,-29,-13,13,29,-20,-1,-1,7,-18,53,58,37,-41,-15,8,24,-8,-16,9,11,-22,37,34,34,-14,1,-9,-8,-10,-9,12,38,-9,35,16,17,1,34,13,8,-13,1,16,27,0,26,3,52,12,38,-17,6,-15,-7,19,24,15,23,-5,89,26,38,-28,-8,-24,-17,1,25,-1,37,21,127,11,9,9,0,-49,20,-35,-33,-25,9,-39,-37,-127,37,34,90,-15,30,-23,-22,-27,-26,-97,-21,-99,-36,-42,35,-17,5,7,11,-43,9,-61,9,-3,30,11,-43,-44,34,11,-24,32,70,-1,14,-72,-4,-5,-48,-3,-30,-2,-45,-4,70,-6,-35,-42,-78,-5,-52,62,7,72,9,-33,19,15,-49,-4,-74,-5,-68,-12,17,65,124,48,4,114,45,64,116,88,39,13,-23,-24,86,66,46,49,35,36,69,46,96,-11,-11,-13,-24,-22,59,8,37,91,-7,-4,121,18,-64,-20,-32,3,102,45,42,-34,-61,7,-42,4,22,11,58,-5,11,-31,57,-7,-43,55,-53,-25,28,35,58,-19,30,-3,68,0,54,104,-53,-13,-13,-16,-36,26,61,97,-4,-81,18,-23,-72,-13,-32,-52,-54,72,43,54,-30,-36,63,-51,-5,-14,39,28,-3,39,6,-53,-21,39,57,-111,15,-11,15,22,9,-15,-36,-91,52,2,39,18,-4,22,-2,31,3,-20,-12,-85,63,24,-74,120,-48,24,-34,25,12,7,38,-41,46,37,-120,127,-1,-44,-27,4,92,91,100,-5,-39,-23,-51,-71,127,-23,-24,-4,65,125,87,32,-94,-21,-40,-5,62,-1,17,47,83,113,34,-34,-31,-33,-45,75,75,-18,40,26,40,60,-6,-13,30,-25,2,3,-11,-13,19,2,-1,-13,43,1,13,-60,-7,-97,4,-31,-19,-38,1,-71,113,35,12,-41,-17,-72,1,-12,-34,5,10,8,93,8,44,7,-70,-21,-103,-6,-29,17,16,6,20,-8,65,-58,-89,24,-86,-12,-50,43,26,55,29,-28,29,-62,-67,6,-96,5,37,-6,-1,-37,-62,-44,-74,-17,-42,-25,-10,12,49,9,5,7,-48,-13,-79,-59,-33,-2,-37,10,42,42,18,84,-33,26,-17,-47,-33,29,18,3,16,44,49,66,-5,27,-6,-26,-3,40,50,4,-4,16,46,1,5,49,38,21,8,31,37,-1,-12,2,70,-35,33,42,48,15,-16,25,43,-9,-16,-26,82,-41,64,24,68,-5,-1,8,20,-15,-18,-22,58,-25,113,-9,29,-21,23,-18,15,-17,-11,-23,3,-10,127,-26,48,-26,-2,-34,14,-66,-4,48,-29,41,-19,16,21,5,-44,-35,-106,-50,8,15,-17,-10,-10,-11,-22,25,-15,29,-53,-24,30,-20,4,-9,24,15,19,35,36,31,8,-7,34,-10,20,-40,40,26,51,-25,15,4,-8,-22,30,6,20,-27,48,71,45,-11,3,18,37,-21,10,0,4,-17,53,29,50,-15,52,49,64,7,-12,-6,14,-20,59,30,73,-50,-14,5,54,-13,-46,-27,-2,-25,81,23,50,-55,-42,-23,68,-3,-81,-32,5,-31,127,-3,52,-36,-43,-8,96,5,-4,10,1,47,56,-1,127,12,-26,-3,-53,16,-4,11,-35,-24,42,2,88,-53,-79,0,-16,-8,40,29,-25,6,59,-30,73,48,-44,-16,8,-66,-33,28,45,-59,61,-23,53,20,-29,18,5,-5,-45,-78,74,13,33,-91,-6,10,36,-28,-7,8,7,-27,22,91,32,-44,-52,-68,59,-50,-22,15,24,29,-25,35,7,65,-17,-71,-43,-13,36,5,6,70,6,43,-9,25,-32,-1,-19,-2,74,11,28,-19,70,-6,45,-11,5,-52,-26,-30,34,4,86,28,82,-98,120,-105,-88,-58,68,100,126,15,57,-6,-1,-39,78,-59,-101,-33,72,69,75,34,36,-13,-3,-29,58,-27,-88,-28,51,21,16,45,32,-27,40,-57,-13,-32,10,-11,16,-38,4,27,35,1,72,-49,56,-27,2,16,-8,-17,14,21,38,-27,9,-35,61,15,-43,26,-3,-14,11,13,26,-26,36,25,110,46,-96,-9,-9,43,74,20,63,-5,87,-9,102,70,-99,-57,-36,47,127,-11,39,-30,117,-69,114,6,-103,-117,-1,38,109,0,61,40,104,1,15,-44,85,-52,123,-32,-51,-5,55,-5,80,6,-5,-48,45,-9,99,-35,-74,-7,33,-5,55,42,-4,-20,20,-17,127,-49,-39,14,1,-18,7,35,-1,6,7,-70,94,4,-34,13,-11,-20,67,26,17,-14,1,-66,41,-13,-29,9,-19,-27,80,33,-1,21,-22,-63,34,-24,-35,8,-13,-1,56,29,9,25,-23,-61,83,-16,-41,6,19,6,59,9,26,27,-39,-58,56,-29,-44,-12,40,-9,54,8,30,-4,-35,-39,88,-9,-83,4,0,2,-35,122,6,-25,-14,36,82,30,58,-4,-8,25,8,-24,1,-24,-10,26,127,-42,-1,-20,9,-28,15,-4,11,-27,-7,-47,65,-49,34,-20,88,-47,19,-8,-6,-52,22,57,21,-69,54,-23,102,-61,-33,-19,1,0,-10,37,-18,-98,-39,-31,-17,0,-10,4,17,22,24,9,-10,47,9,-8,-117,-5,72,44,11,27,-2,-93,-11,33,-18,0,-58,36,61,56,-11,43,-8,-89,22,61,-59,7,-30,21,44,50,-9,24,-26,-49,-16,37,-48,-61,-2,16,42,-7,1,101,-23,18,22,26,-30,-41,-6,-22,58,18,-8,80,15,1,-46,-40,2,-16,-13,0,93,12,-10,18,35,-25,-76,-58,-67,-11,13,0,83,-11,2,-4,54,43,-58,-88,-13,-28,14,-20,95,-22,-1,-49,-4,76,-62,-90,67,5,26,-25,50,6,23,-37,-14,35,-48,-38,124,24,8,-20,33,-3,9,-57,-4,-1,-61,13,65,-6,41,-5,67,17,25,36,-3,-36,-89,-29,9,-52,46,-11,92,-4,31,65,-26,-127,-92,32,-6,-1,-26,46,127,36,59,37,41,11,-15,6,74,11,-28,-27,67,-40,60,44,-18,-16,-39,15,34,30,-5,-47,3,-52,61,3,-15,-24,-9,-26,45,24,-22,-23,59,-36,31,-7,12,-65,18,-39,4,-60,15,-16,1,4,-40,-36,6,-44,8,49,34,-106,65,32,18,73,42,38,8,14,14,41,72,-42,19,37,3,44,64,35,-37,-105,-52,43,28,32,-29,-26,6,72,58,-12,21,-111,-43,-11,41,2,-4,-8,37,41,115,-63,-5,-21,-45,-50,34,-18,-44,77,-42,55,70,-79,-5,23,77,99,39,8,-45,54,-14,34,29,-62,-16,-4,72,84,-8,6,-1,51,15,101,67,-48,45,25,93,13,-41,-3,26,60,28,55,50,-35,69,0,51,-33,12,16,34,46,11,49,67,-86,30,-14,88,-14,41,-3,36,24,1,-46,78,-67,5,-32,101,16,-31,8,-5,-84,-20,-93,57,-59,1,-61,106,-30,-36,1,-45,-80,-33,-82,107,-92,-2,-84,77,-38,-19,8,4,-43,-3,-75,44,-96,5,-55,127,-43,5,-6,52,50,44,-12,6,-30,91,-38,86,-4,-75,-30,41,50,33,-33,-4,-14,36,8,74,59,-58,-44,9,86,15,-41,12,11,-4,-20,103,34,-74,-27,-29,65,10,-11,48,17,-23,-32,73,92,-86,-32,-26,47,63,-5,39,-15,-30,-54,11,93,-42,-33,3,-2,59,17,-4,4,9,-89,19,75,-19,11,33,12,4,-5,20,-13,56,-100,87,17,-34,16,47,7,11,-27,24,15,69,-127,76,-25,-42,24,9,-29,73,-25,24,48,93,-98,24,-35,-57,4,1,-12,59,-18,35,-38,24,-37,52,-26,6,9,-7,-24,82,-31,37,-62,15,-64,36,42,-60,8,2,-11,24,-29,30,-72,14,-18,-36,62,-57,20,32,60,-12,0,-31,-32,83,51,-77,68,-49,15,23,38,-8,2,-1,-6,24,30,-5,44,-43,-2,11,33,-17,38,27,13,68,-50,51,48,-28,-45,-8,69,7,-8,64,22,35,-100,111,15,2,-29,-30,44,-1,-33,48,0,78,-62,49,-3,2,-25,-13,11,25,0,127,1,37,-21,33,-42,48,6,-59,33,58,57,73,77,-10,-40,25,66,-15,17,-43,79,79,51,57,52,-1,-17,77,19,-19,21,-66,38,127,79,34,44,12,-9,80,79,-7,10,-49,-14,92,92,-18,9,14,-36,22,126,13,5,-14,18,39,45,-12,34,-22,-38,8,114,-7,11,-6,11,13,15,-17,27,-36,-77,-14,43,-13,14,14,-4,21,-3,-15,-6,-41,-71,-28,-31,-4,-4,37,28,42,49,-22,-20,-7,-68,-47,-42,-26,-13,84,31,-14,20,-14,-35,12,-32,-70,-80,21,-17,18,-25,87,50,21,-6,69,-9,76,28,-74,-45,28,-3,36,16,-9,-52,53,-27,111,82,-66,-43,0,54,27,35,-22,-64,26,-48,121,67,-52,-44,-12,76,49,68,-9,-8,21,-62,74,96,1,-57,-19,32,43,17,10,68,30,-127,28,83,38,-30,3,12,17,-36,-12,53,29,-118,-24,97,95,-24,4,30,22,16,-9,14,5,-73,-22,30,34,-6,-18,26,21,23,20,6,22,-34,-42,-40,19,11,-24,49,26,49,65,-19,20,-38,-21,-32,6,-75,-12,-39,51,30,13,8,-10,-70,31,63,39,-46,21,-24,85,11,20,9,6,-62,28,67,63,-29,22,-30,93,1,30,-12,44,-70,-18,44,52,-27,28,-17,81,28,27,-6,33,-70,0,14,60,-23,29,-10,87,25,34,-6,80,-70,-29,-78,32,-33,11,7,73,59,42,-27,14,0,-35,-60,41,-28,-27,11,36,41,2,-65,51,-12,-10,-20,36,-42,-18,28,39,45,8,-71,58,-9,0,-5,61,-32,-35,14,16,21,30,-67,51,-6,87,11,127,20,-3,-25,14,18,74,-49,103,10,-33,-95,60,10,14,-32,-3,-25,92,-6,49,9,-72,-102,51,1,7,-22,8,-37,104,28,-4,-25,-33,-59,52,16,-5,-48,2,-51,71,-12,-38,-43,-11,-87,-9,12,23,-36,-2,13,39,-25,-39,-68,25,-52,-4,-2,6,-18,7,44,44,-26,-20,-88,18,-11,5,-8,-12,-16,26,5,37,-75,-40,-29,5,18,18,-7,-23,0,73,30,24,-95,-38,-25,-30,14,49,-39,-30,14,51,76,17,-127,-62,-18,0,-32,13,-61,-7,22,89,78,61,-5,21,-82,127,11,5,-8,-10,8,71,60,21,-1,2,-82,98,10,-8,-7,21,8,64,-22,23,30,1,-20,71,-15,24,-24,15,-11,35,-19,-3,24,43,-25,49,-33,35,-20,-11,-18,12,15,26,22,37,-62,20,-53,-5,-18,-29,6,33,41,18,39,32,-56,17,-74,42,-13,-19,3,-4,3,8,5,-17,-20,30,-53,63,-1,0,27,-8,0,52,-21,20,-46,75,-43,116,-13,3,19,2,57,69,16,99,-31,52,-71,116,13,-4,21,38,32,53,109,118,36,39,19,8,-15,26,58,-6,45,7,98,115,72,32,34,-34,-26,16,57,-21,20,-11,43,34,78,41,48,-52,-51,-13,10,-39,40,4,-13,-32,75,58,70,2,-51,-9,9,-33,3,-2,-27,18,55,9,60,62,-45,-12,16,16,-29,-4,-36,49,19,-63,33,87,-7,-12,12,13,-53,-5,-82,92,-10,-55,6,76,3,-5,-24,-7,-52,-3,-101,127,-4,29,8,94,5,4,-3,-3,-39,9,-43,75,17,86,-5,117,-59,18,-5,32,11,47,-2,104,-11,-59,7,30,-21,13,8,36,-6,38,17,80,-35,-70,12,78,-3,22,-5,34,8,28,7,99,-55,-57,-6,71,-1,6,-13,46,29,3,0,127,-31,-42,6,69,-10,-8,-9,46,25,19,-3,93,-2,-27,-33,42,-13,-16,6,67,32,37,8,83,9,-6,-45,15,-21,-32,4,10,0,56,-38,71,-12,3,6,9,-31,-31,29,-23,-25,56,-77,27,-34,-11,-53,-2,-49,-22,53,-32,-56,97,-103,-6,-70,35,-50,29,-38,41,19,52,19,46,-65,75,-78,109,5,-24,-19,31,-11,41,3,46,-32,37,-119,49,-44,-52,-33,28,-7,102,7,47,-32,-10,-79,105,9,1,-21,20,-8,68,2,-23,-15,6,-127,46,4,-63,-28,-10,17,81,2,28,-7,-11,-91,60,-20,19,-16,1,37,47,28,42,60,32,-91,12,-29,-27,-24,4,27,23,36,31,-24,23,-24,89,-43,51,0,13,37,-23,-4,61,23,88,-17,53,-39,63,-23,-32,7,25,74,103,-23,60,-50,76,-60,95,-33,54,57,-27,-1,94,-73,13,-6,42,-40,86,-24,3,73,-37,-20,99,29,-21,-16,73,-39,67,10,-20,9,-17,22,47,58,83,-3,127,-72,46,-9,-5,-11,21,16,61,-7,105,24,37,-116,42,-25,-2,-24,38,-3,46,28,81,10,-1,-95,9,-14,5,-31,48,-23,46,-19,30,26,9,-98,78,-4,3,-41,17,-29,69,2,5,-1,-3,-57,76,22,17,-20,16,-43,45,29,23,6,51,-36,50,13,13,28,77,-14,39,-1,36,29,49,18,66,-48,-22,8,16,47,92,-45,35,-75,-28,22,70,14,-5,-32,39,-7,78,-69,-30,-56,22,16,39,19,-13,-28,21,0,67,-84,-27,-16,27,-48,55,-5,9,57,-8,41,40,-50,35,-6,-16,-21,61,-8,10,84,-10,58,-38,-22,31,32,35,-27,51,-37,30,121,5,39,-6,-33,26,27,43,24,28,-30,0,82,31,-32,26,-63,44,-45,36,51,-17,0,-22,38,57,-40,61,-77,35,-49,79,-14,-21,15,-9,13,54,3,62,-127,6,-23,41,-20,15,-39,-15,-4,-6,0,-30,26,81,-33,60,-76,77,-16,33,33,40,8,5,-51,65,-40,62,-53,99,-13,30,-14,35,5,33,-93,46,7,49,-12,91,-26,5,10,14,31,101,-70,-56,43,85,3,80,8,1,38,27,68,98,-42,-27,-23,56,-49,17,-13,-21,62,44,127,93,-30,24,-107,33,-117,-47,4,-31,42,-14,62,48,36,77,-100,46,-74,-77,-11,-23,14,-41,-26,28,47,103,-66,25,-15,-76,-26,-33,11,-9,-56,32,27,29,-5,5,27,-48,18,8,38,53,2,24,-11,52,28,-37,69,15,0,12,32,45,30,-2,-22,71,-33,-31,19,48,6,-9,44,24,16,17,-52,41,-68,-33,38,27,26,-4,53,9,-19,29,-30,15,-91,-13,39,12,19,0,46,26,-36,39,-9,10,-76,-4,74,15,-6,7,-1,0,-27,34,20,13,-68,-19,43,29,-4,-16,13,0,4,9,-2,46,-87,-36,63,27,18,-1,47,11,-9,3,-44,24,-96,-23,106,29,37,11,96,21,18,3,-82,-6,-67,-16,127,-2,-23,5,60,31,115,13,16,-48,21,27,85,-6,-20,10,18,46,97,39,2,-3,67,-3,78,-45,-26,21,11,45,80,50,-46,-5,43,-32,97,-75,-8,8,5,8,74,53,15,-20,29,1,57,-109,-10,0,25,10,82,36,66,-41,-11,-26,27,-80,-9,-2,-18,39,93,27,86,-48,-18,-37,47,-43,-25,8,-22,46,83,-1,74,13,-1,-43,65,-32,-36,-7,-31,6,118,32,109,43,-19,-6,38,-30,-43,-22,1,5,118,77,127,21,-71,33,3,-75,41,25,0,-30,-16,14,-38,52,-127,25,-22,70,17,36,27,-49,-53,8,-19,100,4,70,-7,35,-27,10,46,91,17,-54,45,62,-50,-35,-61,-28,-70,31,-18,127,72,32,82,63,30,30,-4,-57,-5,45,-61,39,24,57,57,-17,11,-2,-12,29,7,-16,-48,51,-29,50,-29,7,-17,35,-97,-6,28,-43,-43,41,-43,18,-45,-30,-8,11,-86,-1,23,12,5,75,-28,42,-17,-20,-14,38,-39,-36,-32,36,63,63,14,56,-5,-11,-90,51,-2,52,30,-79,1,2,44,23,37,35,-64,31,18,99,36,-31,22,-24,47,13,50,35,-36,15,16,70,26,-3,29,-8,24,-22,26,45,8,67,25,28,-16,11,21,43,17,-37,11,111,36,96,14,32,-26,-6,13,64,11,-28,-40,127,54,123,39,-9,-29,4,-12,58,-18,-4,-34,49,10,23,-12,-14,-33,11,-11,14,-40,11,-43,-19,-6,-10,-7,0,-39,16,-19,-8,-27,7,-27,-20,11,-35,-14,-21,-51,23,-7,-20,-20,1,52,42,8,1,-21,-31,10,12,4,16,7,57,24,1,-51,-6,35,-2,9,18,30,9,20,18,-4,28,-42,12,-4,-10,-1,11,39,49,18,19,-32,4,-24,51,20,-8,-9,20,32,29,42,48,-31,-28,-22,56,17,-1,-9,-5,5,3,34,24,-35,-26,6,-18,10,10,10,5,-14,-15,-8,-21,-5,-17,2,-38,6,27,10,6,-26,12,-39,-32,10,29,-21,-56,34,5,-3,-2,0,38,-26,-15,-5,31,-34,-68,79,12,3,-36,16,7,-42,26,7,39,-53,-36,127,13,-24,36,-1,86,22,6,-19,127,-64,38,-31,7,-14,4,28,77,34,21,10,94,-73,57,19,-52,-18,-21,46,74,42,13,2,73,-46,44,42,-28,-28,-32,36,45,44,16,-10,45,0,13,20,-29,-44,0,39,5,23,58,28,12,25,-23,-77,-56,-45,-11,16,44,21,68,52,13,33,-3,-3,-24,-44,-9,28,25,37,52,22,23,-28,11,-28,-19,-32,14,3,-2,6,-31,-29,39,-53,12,-18,23,-8,30,20,1,13,-32,-42,37,-113,-14,-79,-11,-9,30,14,-33,54,2,-97,-58,-47,-67,43,-6,-7,32,30,-5,32,-1,-76,-93,-77,-40,60,-3,1,25,9,5,34,8,-34,-38,-35,-9,43,15,6,-13,-29,-12,-9,18,-1,21,-27,22,-4,7,7,-27,-31,14,-22,56,37,41,-41,10,-6,7,0,-13,-21,60,-15,64,49,60,-59,-19,-27,-13,-2,-29,-16,53,-16,38,41,82,-74,-38,15,-17,-8,-20,-9,33,23,32,48,127,-62,-29,30,-9,-15,6,-11,-12,57,35,24,104,-50,-12,10,-7,-4,42,65,16,-4,25,-19,18,29,-39,23,33,-19,8,64,42,22,58,51,116,-5,-31,-10,41,-11,-5,29,11,31,82,7,90,-30,-59,-54,33,-29,-3,-17,-2,45,60,21,46,-42,-22,-64,16,-21,-6,-42,0,65,59,42,12,10,-7,-97,-9,-10,-21,-51,20,44,57,63,-23,57,10,-67,-55,-20,-38,-10,26,1,60,33,53,61,16,-8,-127,-15,-7,57,24,-8,36,-11,50,27,24,-4,-72,-33,27,96,-12,1,38,-45,31,-28,56,-43,-77,-86,-51,13,-27,70,127,9,-11,-31,30,-83,127,-46,-19,12,16,85,57,46,9,-51,13,15,80,-6,-10,-14,66,79,4,41,33,-47,-54,-14,58,-22,-15,-16,72,29,3,66,36,-8,-8,-36,78,-30,-30,2,60,29,66,22,-19,-44,12,9,58,-30,-28,8,46,40,104,-29,-20,-66,-1,19,-25,-29,-2,-16,21,42,81,-29,39,-104,-75,8,-28,-9,3,-19,4,15,33,30,36,-122,-110,-16,22,30,-10,-40,20,31,42,34,-47,-118,-119,-4,28,-14,13,30,-53,52,-10,-27,31,-36,-64,-127,-5,-29,17,33,5,28,-8,10,43,-2,-25,-36,29,-14,30,19,52,-28,-22,23,17,-42,-33,-86,-46,15,7,17,71,-5,-4,31,50,20,59,-62,-47,3,-3,21,48,-37,54,-6,31,-25,66,-22,-11,-16,-24,8,9,-8,93,-38,84,-21,45,4,12,-34,-25,-13,-9,59,80,-1,51,-8,49,65,22,-8,-23,-16,36,50,59,23,13,-22,27,1,13,-16,12,-13,38,-3,58,57,-2,-64,-13,-22,0,-13,-9,-29,25,37,6,-40,105,55,22,-22,-28,-4,0,-31,4,3,0,-21,70,-3,40,-35,-27,8,21,-24,36,36,20,23,73,-82,7,-37,17,9,52,-36,37,6,12,25,69,-44,15,-21,37,11,25,-27,8,-17,23,63,62,42,-29,-22,21,2,-76,-19,6,-3,71,-15,62,88,-37,-37,22,-4,-69,1,34,-10,88,-89,-23,57,-1,-44,19,-5,-28,-13,14,24,43,-90,12,42,20,-27,69,-20,9,33,8,19,16,-127,27,63,46,-27,76,-21,-29,11,-10,-32,59,37,15,16,4,-34,58,-3,4,-44,17,43,77,-15,8,-20,-12,-28,69,9,2,-67,25,35,77,-36,12,-72,29,-64,34,-22,22,-95,64,68,85,-57,52,-69,76,-52,23,-35,-1,-112,91,86,101,-83,25,-83,27,-18,36,-23,9,-62,88,78,78,-60,29,-84,3,-14,42,-16,-12,-16,78,43,64,-68,45,-127,-19,-7,36,-26,7,12,28,-24,50,-32,60,-74,0,-53,40,-30,7,13,-56,-26,49,-32,10,-106,-1,-64,57,10,-24,-38,23,18,35,12,-7,-97,-21,-103,29,26,-9,11,29,60,-12,11,-31,-80,-36,-69,13,22,-1,42,26,50,15,37,-25,-35,-38,-66,26,-2,-1,21,1,23,70,67,12,11,-48,-39,13,-10,-10,-22,-1,25,115,74,28,-47,-38,-56,4,-17,14,-15,-3,22,98,-10,12,-73,-34,-64,12,-35,33,21,-14,21,108,-83,-6,-74,-44,-63,26,-50,29,66,-27,24,127,-78,45,-34,-53,-43,-3,-43,-31,95,-10,-21,121,-28,36,-64,-61,-47,-14,0,22,-4,-2,-36,40,-16,-56,-7,-20,127,86,6,42,20,-8,-43,44,-42,-20,-6,-19,87,119,7,47,36,-11,-70,41,-28,-24,-38,-6,57,46,-10,16,20,16,-55,64,-14,11,2,-2,31,-29,9,-11,29,36,-40,29,37,-28,32,-17,75,-21,1,1,26,14,-11,15,53,-36,34,-46,15,18,-2,13,29,12,2,13,37,-39,32,-50,2,44,-12,9,15,11,-3,14,9,-45,-21,-59,22,54,-44,-10,-11,-1,-4,10,-31,-55,-47,-56,33,76,-14,-26,8,56,9,91,-66,30,-37,-64,0,58,-2,-3,30,23,-4,96,-28,11,-91,-36,5,81,3,12,70,9,-9,62,-36,5,-127,12,-19,13,-27,-4,38,-6,36,29,-11,-10,-83,26,-42,-9,-1,18,33,-19,77,-15,5,-19,-85,14,-4,-19,5,31,-24,-15,48,-43,0,6,-63,45,-32,-48,-8,42,-34,-6,52,-38,7,-15,-14,62,-28,-20,1,-9,-36,-17,66,1,-2,-46,-37,72,-47,5,13,-57,-7,-31,11,15,45,-70,-27,20,-28,49,-42,17,-30,53,110,22,105,-25,28,20,78,56,-45,8,-68,28,103,-34,-3,-42,9,1,123,59,-41,-30,-54,38,110,-13,-101,-55,-3,15,109,57,-8,-21,-28,43,64,-20,-127,-40,-69,44,23,4,9,-9,-30,11,78,-26,-117,-41,-62,14,-11,20,-14,-24,-11,6,118,9,-78,-69,-11,26,22,0,-44,-32,4,6,100,51,-52,-97,84,32,36,12,-38,-59,-3,-9,88,57,-61,-102,78,22,55,13,-14,-37,-7,-45,80,32,-77,-78,73,0,54,8,-57,14,2,34,24,-22,-18,114,-100,8,32,64,-68,5,27,52,17,-17,-37,46,-66,-8,13,81,-61,16,65,55,-4,-11,-67,-8,-71,8,-9,61,-60,15,49,18,18,-16,-57,-16,-106,23,-24,69,-42,-24,17,0,19,-9,-45,-32,-117,0,10,65,-29,-31,25,1,19,-7,-13,-4,-19,-33,4,94,-26,-34,14,-7,30,2,-32,12,4,-41,-46,80,-12,-19,28,-18,58,14,-37,26,23,-11,-37,78,-58,-22,42,-18,44,43,-61,-7,44,8,-10,127,-25,20,5,-25,-44,13,-20,8,-32,34,-6,-20,11,30,5,-10,-16,-29,19,-63,-58,18,49,-27,6,30,43,-1,90,8,48,-24,-24,12,13,-24,4,-11,17,-7,88,21,72,46,-38,95,32,-16,5,-26,0,-10,49,17,-4,56,-15,92,26,-19,-3,-6,8,16,9,17,-20,38,4,47,-25,5,-14,15,-53,30,-12,59,-17,53,-2,-17,-49,1,-30,31,-80,35,-13,85,14,113,26,-41,-39,4,-27,-15,-15,-5,40,127,-31,64,42,-1,-81,13,-23,2,19,22,-47,0,-3,-30,-22,127,45,8,-44,24,21,62,-25,90,-92,-47,53,100,-10,17,-24,20,8,53,-7,76,-103,-35,-7,-7,-44,4,-25,16,-8,2,63,32,-20,-40,-54,23,-92,6,-5,19,-50,-27,78,-1,27,13,-45,4,-56,-42,-17,-3,-12,-28,70,29,13,38,-49,-34,-72,-34,1,14,4,24,64,57,49,97,-113,-71,-54,-25,9,-8,39,69,27,68,50,94,-68,-7,-7,9,24,-38,-11,98,-6,27,39,74,-23,58,1,27,5,1,-13,52,38,66,22,47,34,114,13,-49,6,-21,0,42,46,2,5,33,34,42,20,6,-25,-10,-12,-25,13,16,-18,-19,24,7,33,10,-23,10,-11,-22,37,8,13,23,-6,-14,-13,-3,-23,0,11,-1,47,44,-11,27,-33,56,-8,19,-11,-3,-1,3,-8,72,-25,57,14,78,3,36,-13,9,-24,-11,-12,56,-15,29,-6,51,0,32,-4,7,-42,-12,20,51,30,15,13,94,-23,23,-21,9,-46,-14,29,61,43,0,13,127,-30,30,18,38,30,14,10,-29,-39,4,-37,12,-90,-67,-27,34,16,-6,42,57,-27,-48,58,51,-49,-24,-27,-11,15,-22,35,76,-41,-40,23,31,-10,82,-22,-37,1,16,64,57,-33,6,2,16,6,71,6,-7,25,19,25,9,-71,-6,-29,-12,-72,62,12,24,17,25,7,21,-56,-6,-14,66,-55,10,-7,10,13,42,12,23,-39,38,-5,127,-52,0,-23,7,-37,59,20,2,-1,0,-13,106,17,4,-21,-9,-26,60,5,-16,-47,-24,-14,82,25,3,5,-15,37,-31,-91,44,-50,48,71,51,-20,8,-6,-12,5,5,-36,45,-56,79,59,17,-24,68,-1,-23,37,18,-18,21,-58,66,-6,4,-48,42,-13,-8,25,29,37,52,0,-3,-41,-5,-69,28,-12,27,41,5,41,43,-28,24,-8,-19,-71,44,-14,9,11,9,39,36,16,65,-67,3,-54,39,21,-29,22,15,39,27,-25,39,-94,-3,-50,-33,33,-60,9,-2,39,62,-86,20,-126,-26,7,-34,20,-25,11,-15,42,70,-110,53,-127,-23,-1,-44,-67,56,34,113,48,79,-104,65,-93,105,8,21,-11,12,27,121,46,61,-45,40,-84,87,24,36,-7,4,2,101,21,39,-1,93,-85,77,64,-30,-20,5,4,92,-10,-2,44,81,-53,110,21,36,-36,-16,-37,78,22,37,31,74,-76,41,-51,-52,-17,-12,-15,81,40,74,27,4,-35,95,-48,-15,-31,-20,1,34,58,30,-30,-35,-77,14,-68,-26,-9,-41,18,-15,27,102,-76,-28,-52,23,-57,3,-47,-21,38,-33,9,115,-58,50,-127,94,-39,105,-46,-27,-8,57,-53,69,-31,-31,-16,-16,58,-3,-24,22,4,23,-97,59,0,-71,-32,-20,-51,-77,9,43,8,5,-54,82,15,-46,-14,20,-112,-69,25,60,70,26,-38,98,-15,14,-7,-31,-102,-65,-41,85,3,9,-25,94,-24,67,34,2,-84,-51,-32,-31,-39,78,60,100,-89,101,-77,14,1,-17,-1,-58,-92,63,86,-6,-127,7,-94,31,23,-23,17,-1,-57,23,86,28,-79,20,-75,16,-17,-54,4,21,4,52,93,28,-34,-19,-56,-12,4,78,47,15,49,-25,-16,24,16,-127,54,44,42,65,34,61,32,-17,-26,33,48,-69,15,-28,-21,74,18,48,-6,-25,-39,50,-18,-57,-88,-54,-14,38,-47,29,-40,-12,-19,58,-1,-7,-39,-24,4,28,-12,3,-35,-20,-28,31,-18,-31,-55,1,-15,29,-27,2,-29,15,-24,21,-1,-2,45,-19,-53,-12,-79,-2,-14,33,12,30,-18,30,14,-26,9,13,-79,-20,-25,11,6,69,21,-5,-15,-38,-24,5,-62,-44,-20,-32,-18,44,77,-29,48,-46,-104,-16,-3,52,36,74,-22,26,-11,55,-13,25,-14,-11,-86,29,14,127,59,50,107,85,17,59,-20,-2,11,-1,2,39,-5,11,25,1,-32,23,59,-47,13,-25,11,5,-7,30,-50,21,-33,28,-4,-42,2,6,30,25,28,51,-90,32,17,43,-56,22,-6,28,5,-25,7,86,-60,-22,13,0,-69,27,9,21,6,-18,46,22,-47,-26,-21,-17,-46,-2,19,4,6,-4,33,-3,-32,15,-5,-50,-19,66,8,8,15,-5,-45,26,-46,-18,-48,-27,-51,53,10,13,-83,28,3,78,14,-85,-35,44,-61,49,25,34,4,-35,-69,45,-12,-45,26,34,-73,30,-16,1,48,32,23,-5,14,44,48,32,-31,-17,-41,-16,-6,115,94,34,19,14,41,99,37,49,-1,-46,-24,98,69,-28,-9,-31,-61,24,10,27,12,-17,12,31,-14,35,-34,-44,-110,12,-12,-38,30,22,26,-32,-74,127,0,-68,-4,13,-47,-9,-3,68,55,-19,-99,98,54,-41,-13,-29,-19,56,-48,46,-15,13,-71,38,50,75,-85,-26,7,56,7,-22,72,-43,-10,127,20,9,18,-72,14,71,-3,17,28,-44,-40,98,41,35,-43,-51,-7,46,1,11,26,-58,-33,86,76,25,-89,-39,-37,9,10,0,12,-31,30,64,78,93,-80,-11,-87,5,-12,3,2,-6,73,58,54,57,-68,42,-58,-13,-21,1,-21,18,38,47,-8,28,-54,73,-42,1,-6,-18,-17,50,-4,71,-68,6,-43,37,-42,53,11,-45,1,62,-13,30,-95,-3,-3,56,-45,55,11,-33,18,110,-26,48,-116,-48,-5,124,-15,32,-4,27,-50,-54,-29,35,-22,-46,-89,16,-77,38,0,23,9,-76,-12,10,-32,-8,12,-3,-87,51,6,-11,82,52,6,51,26,43,12,27,40,20,-24,-4,22,127,58,30,31,29,53,40,49,-17,3,20,14,15,7,29,49,11,-43,-43,60,-67,7,4,-18,-41,-31,58,-9,2,-63,-49,12,-17,-15,-2,-2,-27,-3,19,5,-30,-13,31,-23,-39,-4,19,-20,-13,18,31,10,-23,13,8,7,37,-23,-17,-42,-4,-8,5,-11,59,-37,-21,-19,56,1,38,26,-32,89,60,37,-18,-7,36,-47,116,-6,15,46,-10,104,57,42,-37,-26,37,-35,64,-5,14,54,12,32,44,26,-25,-58,-5,-28,71,-21,-10,36,13,-1,40,53,-2,-49,5,-56,85,-26,-30,43,18,-57,29,39,-9,-69,2,-46,127,-24,-23,46,14,-68,41,47,-18,-53,22,-45,101,-12,-15,64,7,-20,56,62,-15,-41,27,-52,71,-21,-15,55,12,9,58,59,-36,-40,20,-60,74,-19,-14,57,5,-2,21,80,-29,-35,45,-72,66,-37,-46,36,-39,-58,9,-5,18,-6,-9,-13,-11,-6,-49,23,27,-39,-5,49,7,-60,-34,-14,-1,9,-27,42,60,1,5,44,-11,-41,8,28,10,-5,-21,47,28,3,-9,51,-4,11,32,50,-12,-11,-25,42,11,-4,-13,-8,29,47,33,65,20,-34,-40,18,68,-8,8,1,71,59,63,51,37,-43,-36,7,100,-41,28,-7,114,62,107,4,13,-32,-9,-20,65,-13,24,31,127,57,22,29,20,-7,7,19,25,11,35,18,101,59,-41,0,-23,-42,38,59,-3,14,-28,44,23,11,55,11,-19,-76,57,43,-12,17,-13,37,-6,53,-72,0,-79,-26,15,-2,22,-2,-26,40,25,11,-127,22,-41,-20,-18,-7,35,-15,-3,-15,37,-21,-107,5,-53,-21,2,32,40,-9,21,5,33,-14,-34,-23,-41,-2,3,52,31,37,22,-39,95,22,15,-22,-15,4,-2,22,29,15,42,-54,69,-44,-12,29,28,20,-16,-4,8,-16,60,-22,16,-77,0,33,64,24,-54,-28,2,-36,77,-13,23,-67,34,68,101,-12,16,-21,47,-53,28,11,-49,-45,5,86,89,4,-11,-37,11,-27,2,-3,14,-127,-26,29,60,10,-48,-39,-14,-28,3,-36,65,-102,-49,9,38,7,-7,-39,-22,-53,47,-5,34,-95,12,-25,17,17,45,63,11,-29,66,14,18,-22,43,21,21,-20,48,65,38,39,24,30,31,45,51,11,36,-1,23,11,46,104,12,8,-10,-6,39,11,21,31,22,38,21,40,63,-50,-2,-44,40,3,19,19,20,41,57,15,64,2,31,-52,23,2,-16,-57,-8,25,119,48,22,19,-48,-45,75,16,18,13,-11,-35,69,19,43,-44,-22,-73,61,33,41,-12,-33,-9,37,25,76,-45,16,-10,-53,3,-7,-64,-29,23,42,44,98,-56,38,-3,-54,35,37,-28,-22,-4,-2,59,89,-51,51,-10,-58,70,32,-40,-56,33,18,79,127,-84,61,-52,-74,73,45,-56,13,63,61,54,80,-69,46,-49,2,15,65,-85,70,91,83,71,31,-15,17,-31,27,-12,67,-76,55,89,53,16,49,-6,-24,-29,32,-63,74,-31,-47,1,4,40,57,-118,-9,7,-51,50,53,-4,-46,56,22,39,113,-72,28,28,8,63,20,9,-27,57,26,-1,127,-81,34,40,41,15,-12,24,8,54,39,2,106,-46,14,21,-7,-26,40,25,18,74,40,47,29,-47,-12,23,46,-45,20,17,6,21,-13,25,-11,-4,0,17,33,33,-18,7,-12,2,-24,-30,27,24,27,-13,-23,40,-4,-7,-14,-13,-18,-55,25,44,45,-5,30,-48,-33,-13,-5,-71,3,-37,13,27,67,-66,16,-74,-30,-24,-15,1,75,9,43,-1,5,-50,99,-6,37,-23,9,-1,77,21,18,16,-10,-46,91,-3,37,-28,29,3,79,2,-8,14,-19,-70,49,-1,7,-26,23,4,64,13,-7,7,-31,-71,60,-7,14,-27,12,7,37,24,0,-17,-4,-86,52,-59,30,-20,15,12,13,34,9,-20,1,-58,7,-83,61,-17,-1,18,24,22,2,-15,20,-11,20,-53,76,-9,-2,-9,15,27,25,0,64,1,37,-39,88,-28,-5,-13,8,36,18,3,75,-34,35,-55,127,56,-48,50,19,-1,5,2,36,-23,-70,77,-66,41,-17,43,9,3,98,-37,26,-8,-32,-5,4,15,-4,20,-17,-2,127,-44,-11,24,54,-20,8,0,5,9,-24,30,77,-25,5,18,39,47,4,-13,-9,3,-26,51,1,-21,5,20,35,-3,35,-15,-15,-9,-11,14,-23,-34,30,16,25,-55,2,-17,-13,-8,-3,-11,0,-37,16,-27,39,-99,-2,1,-13,-6,-21,-25,74,10,3,-29,51,-80,5,-14,-3,26,-20,18,93,-23,60,-55,20,-26,9,-13,-51,51,7,13,-32,-6,46,-26,-121,61,-27,-16,-40,35,15,-13,3,-24,60,0,-73,-18,66,-10,-42,28,20,-22,-16,-39,43,-9,-27,-21,41,-9,-18,26,-15,17,18,-26,24,-53,-22,-14,20,-14,-14,35,13,36,75,-21,-23,-52,11,-14,9,4,37,22,34,-12,52,0,1,-6,60,-15,-18,2,75,9,14,-65,15,15,-17,-67,39,-32,0,5,30,-13,-15,-33,74,31,-51,-39,25,-55,3,-25,23,7,-40,41,127,46,-14,14,-46,-14,0,-31,28,-14,-27,80,5,-21,69,41,-104,-42,-17,-14,26,-44,-37,0,29,-25,38,68,-120,-6,0,-20,21,-77,-34,-1,43,7,48,107,-127,-7,21,-21,7,-10,-25,-3,75,-32,5,98,-123,-34,-8,-20,-20,11,-35,15,48,-49,10,57,-100,-71,-4,-10,-27,45,-29,44,60,-52,57,81,-49,-40,29,-15,-1,47,-12,35,95,-56,47,51,-32,-57,19,-35,-3,85,2,61,100,-13,29,32,-30,-58,10,-12,0,96,-16,48,80,49,36,43,-25,-89,0,9,22,-45,-9,-23,18,32,46,-51,64,-52,127,-5,7,31,-19,47,41,43,83,-12,44,-32,81,-33,-24,56,-27,93,22,-29,36,28,-25,-21,40,-29,-13,54,6,78,-33,-49,-18,-25,-44,-40,-79,-43,1,58,43,35,18,-27,25,-43,-20,-43,-10,-3,32,3,11,0,31,36,-39,-91,0,-16,-19,19,51,22,3,-20,24,67,51,-73,31,-59,0,27,40,-17,15,12,8,35,91,-55,36,-55,37,-18,2,-40,34,48,69,60,104,-19,28,-54,78,-36,-8,44,47,36,127,-6,62,44,18,-33,74,-11,-21,15,78,16,102,40,18,64,37,-55,49,4,-22,-8,51,25,59,15,15,50,-64,-76,-6,25,-15,-7,49,14,53,25,-14,-4,-48,-60,-29,-2,-41,28,77,13,38,7,2,-28,-33,-107,10,-4,-34,32,57,2,70,-55,-17,-55,38,-70,-7,-8,-33,30,54,12,69,-48,-13,-65,28,-91,-22,-12,-44,-1,43,12,103,-11,-16,-93,-25,-69,-5,-12,-63,2,80,23,102,32,-25,-73,-69,-49,-37,19,-46,24,18,2,44,-49,69,-64,47,0,-42,14,-1,26,40,7,3,-40,65,-92,42,24,-19,19,-17,24,39,39,31,-1,52,-79,2,-9,16,11,-31,32,34,41,42,7,-1,-46,-34,-19,65,13,-35,18,9,51,30,18,8,-35,-49,36,45,0,-2,3,22,21,23,37,-12,7,-64,77,20,-2,41,-43,-27,-4,48,77,40,91,-79,66,7,-5,68,-56,-59,-1,91,52,65,91,-55,65,-11,1,81,-58,-32,11,104,25,24,127,-33,46,36,-32,-27,-14,19,53,25,58,11,59,127,30,70,-7,-19,-11,20,39,8,51,19,39,66,14,41,14,18,-10,-15,17,-20,40,-27,25,-18,-9,21,3,41,8,-20,27,18,28,2,-10,9,11,28,-34,-1,-26,-14,4,64,-8,28,-8,45,-15,1,-16,-2,-42,22,-37,61,-9,36,-1,35,-16,-24,-15,-8,-42,19,-22,53,-11,36,16,55,-23,-27,-24,-10,-28,11,-12,107,37,6,-1,52,-35,-40,-28,-23,-45,38,11,117,55,-8,-49,-3,-19,-10,30,41,36,92,-53,92,-115,-6,13,-21,42,60,44,14,30,56,-9,52,-123,21,-23,-38,19,42,63,-11,20,16,-41,62,-127,-12,-45,-17,44,38,39,2,7,25,-18,86,-65,1,-17,6,1,13,16,-11,7,29,-15,92,-30,3,-8,35,19,66,2,12,-6,10,-15,64,2,24,-77,21,16,63,13,10,-9,8,-16,38,-54,16,-67,4,34,70,41,41,9,38,-28,41,-113,-9,-43,-9,69,49,44,58,26,41,-68,75,-123,-23,-45,-9,88,28,2,16,4,22,-28,1,6,71,5,-67,100,-22,0,10,4,38,1,-10,-4,49,-8,-47,37,18,1,-1,0,22,8,8,-11,14,-36,-59,26,0,2,2,14,8,1,25,-5,21,-46,-44,-14,-9,5,4,19,7,-18,28,-4,11,-25,-53,20,1,4,12,20,-11,-13,10,-23,29,-23,-71,44,27,12,-3,22,4,-18,12,-13,18,-48,-69,47,7,13,7,60,26,-17,16,10,8,-12,-60,90,13,5,11,82,21,-15,8,0,-21,-30,-68,127,-8,-13,35,98,-43,65,127,-59,-24,-48,-40,27,-8,-47,-28,81,-34,-11,103,34,-59,-97,30,59,-26,-21,-39,56,-14,-6,31,69,3,-56,80,10,-13,-14,4,7,24,34,60,61,29,-42,7,-39,19,-48,7,-33,50,17,68,49,72,-52,-3,-29,36,-31,11,-40,23,14,97,32,78,-23,-10,-81,87,14,17,-30,12,-23,105,-3,72,-52,-17,-83,40,19,-10,-60,32,-47,124,-40,113,-16,-6,-18,0,-4,31,-48,71,-45,95,-51,70,47,79,-2,-7,1,14,18,117,-59,104,87,20,-81,93,84,102,2,3,24,103,0,78,38,-13,-100,33,36,117,21,-32,-29,72,27,24,-45,44,-54,-14,42,48,35,-11,-3,52,50,14,-119,63,-40,-23,-64,19,25,39,63,34,42,113,-62,63,-21,34,-60,22,15,65,26,11,56,127,25,36,8,58,-18,102,1,59,2,7,-1,56,51,48,-67,19,21,109,6,32,-24,-11,9,37,71,10,-43,2,37,72,14,52,4,25,-66,70,84,-3,-32,20,78,77,-69,14,94,7,8,41,88,16,9,-27,-8,-53,-75,-1,50,-22,-16,4,46,21,25,-85,11,-29,1,-23,71,0,27,2,-5,-20,-15,-47,25,13,6,-4,66,1,-21,22,48,30,-5,-112,-41,31,-11,22,124,6,-10,42,40,40,-5,-67,-10,0,-16,3,119,7,-1,22,47,66,5,-38,50,31,-55,0,81,31,-29,15,54,61,-17,-67,88,72,-52,-12,26,41,-46,-14,127,-20,-37,-80,47,45,-1,-21,-11,-9,-70,-16,118,5,-73,-47,-11,101,-2,-18,-22,77,-7,121,-113,111,59,71,-81,53,15,-5,-33,79,-16,115,-53,57,53,89,-104,64,14,-17,-33,50,1,118,-17,64,15,118,-122,74,2,-7,16,15,-9,61,-26,-3,10,117,-103,50,10,17,0,-10,-23,-11,-49,-8,-22,49,-81,59,-9,19,-6,-10,-1,-19,-84,-23,-15,43,-63,78,0,15,-15,23,-3,19,-37,46,-29,-13,-71,109,11,16,-22,38,-9,30,1,79,-36,59,-45,127,15,3,12,50,8,33,10,89,-61,106,-39,95,21,56,24,11,7,98,-16,127,-40,-20,-48,108,15,90,-22,-43,24,43,-13,110,-6,-88,-102,27,-39,-59,48,-22,0,96,-17,-2,-53,-19,-23,26,-66,-117,36,103,6,19,-59,-4,-76,-16,91,-52,-13,-59,-8,22,6,14,-62,-10,-35,8,18,-74,19,-17,56,-16,47,81,-11,4,8,-69,-48,-19,22,12,72,16,-18,6,46,19,-32,-77,27,60,10,51,10,15,-33,-8,-57,51,42,-25,-73,-56,6,31,7,48,37,69,33,-31,-34,-14,26,-72,24,50,-61,64,55,10,43,29,-68,-56,-127,7,11,33,6,52,80,3,80,-1,-111,-95,-117,-10,3,-8,37,59,75,-13,88,5,-71,-53,-101,-3,4,-19,54,75,61,7,88,32,-74,-9,-66,10,4,-11,66,66,39,11,92,22,-64,30,-88,10,-4,8,46,73,10,34,55,23,-58,54,-102,36,-21,25,-10,59,-13,20,3,18,-67,48,-83,21,-24,-3,19,56,20,18,-20,-6,-73,12,-90,9,-12,-26,5,15,45,15,-73,-11,-96,-29,-95,-12,10,-16,-8,4,47,64,19,100,16,-38,6,-1,15,26,0,5,10,31,5,97,18,-13,-6,1,7,42,0,3,29,-1,0,127,18,-46,-15,38,-6,15,19,0,-12,59,-33,37,19,15,-39,38,-9,-13,-23,13,-47,39,5,40,20,68,-44,-6,-11,-38,-8,32,43,34,24,6,-62,92,-21,-35,-11,3,22,20,39,-3,25,-31,-78,48,-21,-26,-1,29,13,-6,52,-36,16,-23,-45,20,-1,6,-2,43,-4,-4,36,-49,31,-74,3,33,42,-12,-55,-9,24,23,51,25,106,66,-30,127,6,85,-13,-9,-4,-26,26,53,56,53,-14,91,18,77,-18,-13,-2,-45,17,43,27,58,-33,88,23,78,0,-16,28,-37,-27,80,16,42,-21,33,47,69,-14,-13,27,-22,-28,77,14,30,-69,42,34,75,-37,22,44,17,-2,97,52,4,-74,44,33,68,-68,23,25,19,80,76,53,-22,-85,44,14,100,-47,21,-9,21,82,41,29,-59,-97,-30,-32,87,13,-18,-18,9,8,-1,-55,-46,-61,-58,-51,64,-74,-15,-5,-66,96,13,-107,-127,-8,16,38,-16,-33,-15,-53,-28,94,-48,-78,-56,-20,-3,27,-67,-24,18,-13,63,72,-9,-84,56,-22,-52,103,-31,-54,17,47,40,-4,42,-63,83,73,0,51,-18,-5,6,91,61,-15,122,-13,82,44,25,-1,-56,-6,-10,68,41,-26,112,22,46,14,-45,7,1,9,-13,36,14,68,20,45,24,27,-86,-65,-34,5,11,28,53,73,-1,44,-36,-8,-66,-40,43,-40,-7,37,45,75,85,15,-94,-76,-11,-39,3,34,26,127,93,42,52,-20,-47,70,-6,59,39,31,11,94,81,56,55,2,-60,72,12,34,72,42,-5,77,57,45,38,8,-67,96,-6,0,51,32,-1,75,70,27,-4,30,-43,103,0,-42,13,29,0,57,97,-9,9,38,-30,108,9,-6,41,16,2,28,78,18,25,38,-17,119,-5,-17,57,29,-18,35,64,67,17,-10,-35,53,-38,33,21,45,3,-2,36,53,37,-49,-40,28,-48,74,-7,66,27,47,49,12,4,-80,-80,-61,-38,100,-50,-11,-6,2,43,16,69,12,-27,38,127,65,30,-9,11,2,0,44,54,-33,-38,53,74,29,63,-26,1,-6,-11,49,52,-32,-19,88,43,27,33,-23,-22,-27,-12,42,57,-17,-19,49,78,14,40,-40,-6,-17,2,25,89,-25,13,58,93,26,30,0,-8,-18,-11,-16,52,-39,24,23,83,24,51,0,-9,-16,-26,-5,42,-53,43,-3,84,18,21,-9,-4,5,-14,-1,57,-50,45,-32,113,10,12,-8,9,-15,7,1,101,-12,34,-35,66,38,29,-35,-25,55,16,-8,25,-45,-29,-60,36,41,84,38,-27,-9,42,-70,18,-88,-51,-69,22,2,29,-25,-11,-54,52,-18,32,-43,-41,-59,46,59,36,-86,29,-34,71,3,21,-19,-45,-2,-39,43,33,-127,46,-18,33,17,2,34,-75,61,-41,12,-31,-37,25,5,30,-9,6,65,-58,-27,-73,26,-58,6,19,6,8,-41,42,65,-51,-51,-78,0,-71,6,23,66,47,-48,54,67,-19,18,-31,2,-10,28,-1,72,124,-39,64,26,-32,21,-61,-28,8,-6,-14,15,92,43,14,22,65,40,38,-4,29,-1,-7,-13,42,44,5,2,66,50,59,17,24,-6,11,7,11,38,-8,-39,88,66,90,51,19,-16,5,-23,-5,24,40,-21,80,-14,85,51,47,-19,9,-14,-13,-2,66,-63,50,-38,73,9,34,-11,10,-6,13,-39,55,-79,80,-29,-27,9,46,9,7,32,37,-14,56,-80,92,27,-46,-59,2,-11,-8,39,30,20,24,-52,127,6,-47,-24,32,-8,-23,7,-1,36,41,-38,115,18,-17,-31,5,-6,-6,13,-13,52,-34,-20,127,37,39,3,-17,-19,-1,5,-17,41,-7,-37,120,45,67,13,-3,-40,10,-7,10,16,-19,-46,86,16,10,30,-22,-44,30,-3,58,28,-19,-57,21,50,-31,-4,-17,-12,21,-12,49,29,-7,-53,23,18,-35,-26,25,-6,-2,3,60,42,37,-41,0,-31,32,-2,41,-6,5,31,49,31,71,25,4,7,71,-24,-10,0,6,69,5,27,75,1,-65,7,86,-36,-48,9,9,60,-12,13,35,-4,-5,29,97,0,1,-4,-14,84,-58,27,87,-127,20,-27,50,16,83,-3,-52,45,-10,2,118,-24,23,-69,53,50,21,-8,-23,17,45,-6,122,-28,22,-37,14,45,-18,-30,2,-5,32,55,98,-18,45,37,14,-51,-26,-61,9,-55,36,118,-21,22,-14,-10,9,-33,42,-19,23,-59,-31,19,-33,56,28,45,-27,20,1,-5,8,-27,-9,-66,47,100,5,-2,-14,75,-32,9,-1,-27,5,-70,12,58,58,19,-45,12,-22,23,-1,23,80,-28,41,22,127,27,-27,-88,66,-31,-2,-1,2,-29,34,36,34,-39,73,-5,127,-7,-35,-4,3,-21,-5,10,51,-52,44,-14,39,-7,-38,-32,14,-15,7,16,58,-67,42,-55,-4,-34,-35,-74,27,-45,14,28,101,-22,74,-19,-16,-40,-18,-33,21,0,24,43,34,-30,57,-27,12,-23,16,35,-4,60,57,15,113,-64,8,41,-16,16,47,56,-54,61,31,-18,9,-28,-10,52,11,24,48,100,-61,83,10,-11,-25,11,-38,77,-7,2,45,83,-22,79,21,34,23,35,42,68,-2,-60,-54,52,-12,61,31,7,-62,14,-50,-7,-8,-25,-31,85,2,35,43,-6,-47,34,4,13,-3,19,-13,20,17,1,15,1,-15,42,58,23,9,20,7,-3,39,14,15,-20,-34,-8,51,-10,59,-30,17,-15,59,24,1,18,-7,12,17,-48,59,-62,1,8,30,21,-17,15,-43,-28,74,-74,55,-18,-5,-6,-14,-26,-7,39,-10,-91,127,-62,17,-7,17,-14,-1,-29,30,47,65,-93,44,-20,8,-28,15,27,-10,-18,21,-4,91,-29,-4,-10,4,-19,-29,51,74,-16,60,-44,16,88,-55,-2,127,0,-42,2,91,-34,53,-17,56,100,-33,8,86,13,-43,-31,38,-4,74,-23,54,81,14,8,83,24,-22,-34,26,17,49,-22,12,32,6,-27,52,17,-11,-8,-13,17,15,-34,37,25,11,-11,-12,7,-22,9,-21,7,16,-29,36,13,-12,-46,-30,-5,-11,9,-27,-3,32,21,23,-20,-51,-15,14,1,-25,7,14,9,23,22,37,-45,-6,-43,42,12,11,11,16,3,10,49,61,-63,6,-88,56,-43,43,22,-127,117,31,-30,-69,-94,90,-30,-75,-29,-6,40,-91,103,-2,-29,-37,-61,5,-69,-85,-57,-42,2,25,35,22,49,24,-14,-36,22,-23,-11,3,2,38,-47,51,112,77,-10,-68,58,41,0,19,35,96,-33,51,28,80,18,-74,52,21,25,26,-13,86,32,34,-65,18,117,-102,-38,-10,30,0,-21,79,70,24,-28,-27,91,-89,-57,-5,21,-11,-61,89,12,77,-1,-66,41,-63,-6,-1,-15,-16,-60,91,-29,46,40,-24,-40,-58,5,-11,-80,39,-42,13,-34,14,7,57,6,-14,-4,9,1,37,-60,11,-45,8,20,59,6,15,25,50,11,15,-64,15,-49,31,9,36,31,4,13,45,-8,-33,-23,17,-48,84,-8,-8,37,-18,4,72,-49,-10,-17,18,-31,127,8,-16,-3,-51,3,79,-61,14,13,40,-20,125,20,-22,-50,-58,-6,89,-53,41,11,56,-27,106,41,-11,3,-57,-45,85,-28,60,-6,44,-18,106,39,-18,22,-56,-67,68,-42,66,-26,24,-23,105,42,5,21,-92,-56,58,2,14,-29,4,72,27,-77,34,-2,4,57,127,19,22,43,12,43,24,-53,11,-20,9,26,63,31,-9,-16,27,6,46,-18,66,-21,33,23,52,-5,-26,27,75,19,104,-12,63,21,67,-6,31,-16,-36,45,24,-28,45,-53,27,-14,88,-44,-4,2,-46,65,-39,-25,7,-22,15,-45,44,-5,-17,-10,-34,15,-60,-16,-34,-14,31,-56,-56,15,-29,-18,-4,4,-35,-28,-11,-37,40,-7,-48,-4,-38,-20,26,0,3,27,26,14,104,-52,-11,-15,-49,-28,-28,1,70,83,10,-16,47,7,11,30,70,-40,-21,25,36,59,-40,-3,64,3,-18,51,70,-57,16,25,51,59,-25,-90,96,-12,-34,40,45,-60,6,2,70,21,-5,-67,106,-24,-9,62,64,-62,0,42,78,-33,12,-16,124,-34,0,55,98,-27,-41,32,17,-49,7,24,77,-32,10,23,89,-24,-29,15,4,42,31,24,86,-81,-59,-34,10,8,7,-26,-32,76,17,47,107,-62,-66,-48,47,30,46,-22,-9,26,34,127,-2,-33,7,-53,8,-48,45,61,44,4,14,-10,11,60,22,36,72,-1,37,30,27,5,13,26,26,62,62,-6,42,20,9,20,54,26,19,53,16,23,21,-40,33,-12,-11,29,78,-3,9,30,1,-26,26,-53,12,-35,-20,-14,34,35,-1,0,4,-54,55,-53,33,-43,-29,-24,18,37,20,20,54,-52,76,-76,71,-33,-26,-7,-9,34,44,-29,35,-59,30,-54,125,-24,-13,19,-41,38,36,-23,22,-37,48,-9,127,-36,-2,61,-35,27,19,-14,47,-16,47,1,96,19,20,33,-24,-109,27,-33,-85,-86,-91,39,43,-26,39,75,127,-64,44,13,21,-19,-82,9,-37,-65,-58,43,82,-26,28,45,59,29,-37,42,22,-11,-51,19,-11,-9,-22,24,-39,-14,-32,52,23,22,31,-21,-7,19,-45,-36,-10,-40,-102,4,47,-3,43,-30,35,77,-3,-43,6,-70,-85,-16,33,-12,12,-32,1,51,-9,-10,-49,-49,20,-34,58,17,-25,-33,-55,27,-3,66,-41,15,112,-27,95,47,-36,-8,-52,-29,17,67,-59,-34,102,55,69,-37,23,19,12,53,37,115,58,-3,-39,-11,-16,-13,21,5,-3,69,75,108,39,-28,26,-4,-6,-17,40,-8,49,73,111,80,68,-35,84,-38,38,-37,35,-37,49,-22,63,-23,30,-32,8,-28,56,-19,28,-36,23,-36,50,-15,19,-12,6,-35,51,7,20,-3,31,-18,67,-69,0,-37,33,-75,44,2,21,-18,74,-22,91,-29,-7,-40,12,-127,6,-29,32,-1,63,-8,61,-10,-2,-2,16,-87,-4,-36,69,26,46,15,-14,17,-2,-11,15,-37,-25,-28,-3,22,-25,13,3,14,67,-35,-34,82,-54,-39,36,36,0,-34,20,-17,98,-13,42,50,22,9,49,62,30,-33,37,-54,99,-63,59,33,38,27,44,21,34,6,17,-21,36,-13,58,-21,-1,23,11,-17,43,59,93,53,-87,63,-6,-18,61,3,10,-67,-24,74,95,66,-28,47,-38,-63,91,-29,6,-22,-36,78,80,-6,-5,13,-63,-62,25,-80,-8,-13,-29,61,64,45,90,-29,-31,-101,24,-29,-25,22,8,10,8,49,26,-93,27,-127,-42,-41,57,29,57,-39,71,19,-29,-119,72,-37,113,-25,16,31,40,43,86,24,-5,-127,47,63,8,-7,25,30,49,2,61,-35,18,-94,73,28,-26,1,-9,1,21,-18,-1,48,3,-70,6,-28,10,-24,-55,33,-24,-54,75,43,-34,-30,0,-25,37,-5,-54,93,47,7,86,-8,-32,9,33,77,50,-23,-6,73,40,108,26,3,26,21,73,71,12,-16,53,27,-13,-4,-5,51,40,-54,13,-85,4,9,85,7,30,-95,-5,-7,26,-118,-19,-49,2,12,0,0,-39,-16,-12,-21,-15,-37,2,40,77,-31,0,-31,-43,27,-14,30,30,-49,-18,-13,-17,11,20,-30,-52,-6,-8,-22,3,-24,-9,-6,-12,15,5,28,-11,-21,22,5,-1,51,46,4,-63,11,-20,37,59,3,71,25,37,25,127,50,-38,-30,-12,-24,44,13,28,25,19,-3,107,64,53,1,6,11,6,12,-29,-18,-15,-30,-15,18,79,11,29,-3,16,13,-12,-47,4,-7,-45,6,-3,-2,-11,28,38,-4,-12,-31,-45,32,-84,-28,9,-27,63,-19,18,-12,25,10,-2,-124,111,-127,-16,-15,60,43,14,-9,11,29,-8,-88,70,-31,-5,-22,-13,38,58,-10,30,10,42,-10,93,6,2,33,-53,27,47,27,36,-15,36,20,-18,-4,-33,-16,-63,29,9,-9,62,-49,22,55,61,-74,4,-17,-30,22,17,11,91,7,6,26,39,-27,-25,-16,-15,-2,10,22,49,19,60,-19,64,29,20,-22,7,-13,2,36,25,53,67,-23,-53,10,-11,18,52,-21,30,3,-11,24,55,-37,-59,-81,65,-1,-1,25,41,7,127,-14,-17,-24,0,-42,78,-2,-9,36,39,54,86,46,-26,-97,-45,-14,50,-4,-10,39,-5,56,57,9,4,-32,-22,18,45,3,-34,-1,-13,9,4,-18,8,3,-4,71,50,-3,-19,-19,-20,-11,-6,-33,9,35,-38,54,-10,-13,10,-38,25,-30,10,13,22,42,-59,24,-68,-2,23,-47,29,-45,24,42,67,36,-76,3,-35,-11,25,18,39,-25,37,22,47,60,-54,-1,-49,10,38,65,35,-23,28,32,53,68,-37,-39,-5,-14,23,70,-51,13,-9,-26,2,-78,74,-10,13,-39,5,52,-25,-3,7,-1,38,-35,76,40,-1,-82,-32,82,47,16,56,-60,44,31,127,32,0,-57,-50,40,89,51,33,-45,26,54,100,45,16,-36,-43,-14,63,56,-18,-115,-28,-15,93,-32,1,-14,-10,-44,75,62,-10,-95,-41,8,116,-37,-29,-8,2,-29,21,22,30,2,-12,14,81,3,25,1,-12,27,-23,-53,31,64,27,31,78,18,85,6,-38,36,-43,-86,-1,69,59,4,77,28,115,28,-15,14,-13,37,22,30,-58,-18,127,-5,77,1,48,31,43,11,51,3,-24,-36,71,41,99,13,94,-39,-57,-14,-1,-1,80,21,-3,47,71,-28,19,-4,-57,-18,25,-30,89,40,-46,17,24,-48,-123,9,35,-21,2,46,2,6,28,69,11,0,-102,10,54,15,-40,-62,23,1,26,80,-26,-4,-25,-12,-4,66,-6,9,17,-60,-22,29,-99,-14,12,44,17,85,-3,61,11,-1,-24,9,-17,-9,8,74,57,-24,-46,106,38,0,24,18,2,59,-2,41,-27,-9,1,-14,14,91,16,35,2,15,13,1,-26,6,-22,-15,50,77,-34,5,9,-24,18,-11,-24,-30,-5,-21,18,-35,-15,-31,43,-30,-1,-17,-24,-27,5,-21,-40,-43,120,-27,-25,11,1,-7,18,-3,21,-11,-55,-31,127,27,-19,-88,-15,-44,78,16,18,-17,18,11,89,28,2,-39,-4,-7,63,-2,2,-50,3,-19,-2,-17,-29,17,-26,-5,8,8,28,39,17,34,-50,1,-27,42,-27,24,-17,43,27,-15,44,19,-62,-64,-21,-37,-47,3,-8,9,42,60,88,40,-17,56,23,23,-27,28,30,11,5,39,80,26,3,5,57,35,-2,46,32,32,-10,33,63,-28,28,4,22,-5,-8,10,-11,54,-26,-24,72,21,14,-5,37,-23,-22,-6,-6,4,-20,-27,121,59,26,31,48,-48,-5,11,44,-12,6,-6,123,46,31,28,50,-45,-16,29,38,6,-3,-30,127,44,-10,34,8,-30,-24,51,-2,1,-5,4,79,6,-39,28,53,27,-13,51,-2,13,28,28,87,-21,-76,-21,-22,-39,4,-51,-51,-24,83,-62,-18,-105,38,29,21,-38,3,-41,-59,-3,89,-61,64,-68,-32,-35,15,-35,47,-21,-29,-3,104,-76,70,-76,-19,-6,37,-17,50,-12,0,-1,99,-34,69,-61,-12,-11,-10,-29,22,-9,-10,3,89,7,44,-58,0,-18,-60,-11,0,1,28,12,68,-23,65,-31,8,18,-47,-5,-3,-7,56,27,84,-4,68,62,127,51,16,4,-5,-15,57,33,74,9,62,71,68,34,7,-18,-32,-17,53,-14,90,53,39,36,68,33,38,10,-8,37,19,8,29,10,66,-79,-2,48,64,17,-13,27,17,19,21,5,80,-31,-9,39,82,8,-6,42,36,10,39,6,72,-2,-54,7,89,-16,5,25,22,-27,35,2,78,-7,-60,-26,89,-29,12,19,46,-25,60,-42,110,16,-36,-16,127,-26,10,23,54,-37,54,-43,63,18,-18,-11,110,4,-12,41,57,-20,18,-38,50,-11,13,-6,71,12,-8,48,60,-23,-6,-11,50,-35,-23,-13,34,31,-9,56,84,-1,26,13,41,-20,-31,-8,48,-59,36,33,90,32,59,-94,127,-23,62,-7,57,-7,28,-6,82,-19,20,-26,29,-62,74,12,-11,-24,21,-21,78,12,17,2,42,-97,68,-12,20,-33,27,-26,39,6,-25,9,16,-107,18,-1,40,-28,10,-12,43,43,-17,8,-37,-109,39,-2,59,-32,-8,-6,41,77,-23,0,-23,-87,34,-7,10,-20,-14,-18,14,22,27,10,-1,-7,44,-30,24,-9,-21,-28,-13,29,70,-52,63,-42,28,-20,35,-28,-26,-25,22,45,123,-71,87,-60,31,-38,65,-3,5,-16,23,4,41,7,-65,22,127,32,90,-36,24,12,-60,-6,30,-41,-92,-1,-2,-60,82,5,48,52,-66,-30,0,-100,-2,15,14,-19,2,19,19,66,31,20,-31,1,38,-25,6,90,-10,-34,-39,-39,68,20,-17,82,72,-26,-23,29,-15,-19,-43,-44,17,35,41,77,66,-40,-62,-40,-15,-61,-24,21,-26,47,36,86,90,-11,-30,-67,9,5,-17,87,-14,33,9,-17,-15,-86,-45,-52,-28,13,-16,57,-26,-24,40,-54,-50,11,-14,-47,-17,-23,2,-29,-12,46,76,-59,3,5,-3,2,32,0,15,-40,-24,-21,74,-32,0,-5,5,68,43,6,21,-62,-29,-30,118,-9,1,-5,20,52,70,11,27,-64,-35,-27,101,-22,-3,3,42,4,72,0,32,-67,-42,-5,100,-18,12,19,45,-5,86,1,21,-35,-36,12,127,33,-12,-18,82,-20,98,18,10,-44,-22,29,124,8,-29,-50,56,-21,73,12,-10,-41,0,41,107,-20,-61,-76,60,-3,60,7,-7,10,23,103,86,-62,-35,-31,79,-15,78,-25,22,28,5,69,-14,-27,63,-57,105,4,64,7,35,-24,75,-13,2,-28,55,-72,54,-6,74,-12,52,-24,102,-36,7,-119,25,-68,9,17,65,-27,49,2,99,-31,46,-127,-39,-31,-67,8,72,7,32,7,56,-24,20,-82,-43,-58,-63,-13,81,19,17,66,62,-24,9,-9,-20,-48,-76,-47,122,11,28,52,53,1,23,39,-54,-29,-58,-95,116,9,39,39,54,-21,-5,-12,-56,-21,-2,-109,73,4,48,45,84,-45,-16,50,-63,-14,-24,-66,57,-94,-24,-18,22,126,4,75,48,-67,60,9,-21,-24,-53,54,5,78,-5,15,56,27,-10,-10,10,3,-31,69,-5,82,-32,24,39,65,-78,-82,57,-12,-15,108,-16,75,-35,69,70,32,-35,-48,25,5,9,65,-18,126,-1,93,32,-70,-6,13,9,13,-3,14,1,106,-6,26,10,-97,-77,-56,-22,13,-25,-1,65,112,35,40,10,-62,-70,-24,2,-88,-17,-42,94,126,12,54,11,-71,-93,-20,-26,-113,-33,-59,125,127,-4,61,31,-12,-88,63,45,26,1,-11,-40,15,32,15,-68,66,-83,113,5,-13,11,24,-12,26,41,52,-34,61,-80,31,17,-48,6,56,3,1,43,71,-40,-41,-45,11,8,-70,25,96,-17,2,46,28,-38,-59,-15,-2,14,-58,41,127,-10,-23,19,-26,-45,-98,-36,20,-5,-26,51,98,-4,-49,-18,-51,-44,-64,-62,-27,-9,-22,26,78,-2,-29,-15,-35,-45,-55,-60,-7,-39,-15,32,46,-31,-62,12,43,-37,-56,-36,2,-18,-41,6,22,-25,-53,41,43,-43,-47,-63,-15,-11,-1,76,-7,-5,49,30,23,22,91,-54,-13,-23,-2,62,2,-17,20,48,19,1,74,-69,20,-16,-13,63,-3,-14,34,42,8,15,121,-55,28,10,-17,53,17,-1,35,33,-79,-14,127,-32,37,36,-7,33,-7,-29,14,18,-96,20,119,-25,16,41,-1,25,1,-33,6,59,-67,23,75,0,6,31,-7,13,-25,-35,-13,66,-96,5,35,-2,22,15,-21,4,16,-36,59,88,-107,-24,12,1,26,5,-22,14,53,-30,105,81,-85,-9,2,20,30,22,-10,-90,33,-16,-24,-5,-100,118,82,-64,-1,-39,-21,-14,-5,-11,-48,34,-62,16,80,-9,28,-67,-54,2,0,27,14,35,-51,41,14,-9,58,-23,-25,11,6,55,-28,60,32,78,-2,-10,2,-23,-28,31,26,70,-17,52,65,-14,27,40,102,-27,-36,29,3,82,27,48,113,-24,2,30,83,40,-38,4,7,82,25,42,127,-3,-41,-2,13,103,-18,-7,-3,7,39,41,71,-25,-61,-22,-69,107,14,-63,-4,-34,-5,75,13,15,-76,-62,-65,127,-32,17,22,25,123,15,-24,49,-77,82,46,46,-31,6,-20,40,93,-20,-83,87,-100,77,56,70,-22,9,-26,35,42,-28,-90,39,-84,29,36,60,-31,8,0,40,32,-13,-25,3,-101,16,4,64,-44,-5,62,77,30,12,1,-10,-127,-9,-28,48,-19,-27,28,24,-9,-12,17,-36,-101,-18,7,13,-34,-23,38,14,-1,-13,-22,-44,-109,41,18,8,-10,-15,79,34,27,37,-58,-63,-82,48,-49,23,-22,-31,91,-22,53,76,-69,-69,-73,110,-53,66,18,35,22,-7,27,30,-56,-25,-14,10,-35,46,4,29,32,-1,14,37,-50,-46,-72,10,48,28,-7,16,-1,-14,14,36,-31,-7,-35,-9,30,15,-3,0,-29,5,6,35,-15,32,28,25,-5,-3,5,-14,-41,2,10,45,20,70,4,-31,17,-20,-2,-18,-16,53,24,57,34,107,-36,-28,52,-31,0,-32,-17,64,-40,19,39,127,-39,-30,35,-53,1,-23,2,95,-47,-1,44,105,-52,-24,35,-41,-6,-9,5,9,-18,12,-25,71,-14,-8,-10,-61,31,-75,50,73,-70,18,-57,-12,-1,-119,-84,23,22,-47,26,34,-63,15,-41,-20,15,-105,-77,-48,16,-36,27,37,-42,-1,-60,-29,54,-83,-42,-29,-10,-8,124,39,-33,-4,-74,-18,17,-89,-77,-54,-61,14,121,13,-16,-9,-86,56,5,-48,-32,-21,-42,-2,110,6,7,-12,-100,80,-1,-8,-1,-12,-16,-10,52,19,25,-13,-89,80,8,38,21,29,-33,-31,57,38,44,-18,-90,87,-37,26,-28,9,-35,-21,52,20,49,-57,-127,37,-38,56,-71,18,-41,12,83,-40,48,127,-88,44,53,-38,85,127,0,0,75,-32,61,115,-79,-1,4,-22,104,63,-10,-16,49,-48,51,119,-55,-19,-26,-28,25,18,-19,-4,50,-9,59,101,-12,-2,-2,-8,9,50,-6,-9,25,-4,63,96,5,37,23,-3,-20,58,6,-5,13,-1,36,75,14,30,17,11,4,52,17,15,-7,0,-6,66,39,44,12,35,5,11,26,-7,6,35,-5,107,46,52,12,20,-25,27,13,-12,21,81,-7,108,15,117,-3,50,-15,50,6,-64,80,51,-20,3,-1,9,71,-10,-2,43,-1,-42,41,33,-17,-3,22,36,61,-12,59,6,8,-45,18,46,-9,-10,6,25,55,2,83,-11,-2,-42,22,28,-33,-14,5,18,57,-4,109,-35,-8,-34,45,37,-47,-17,-4,18,87,-22,96,-26,-6,-52,64,50,-54,-11,2,-1,49,-8,127,19,-9,-40,71,58,-68,-5,16,-11,18,-38,84,77,1,-37,67,81,-51,-32,1,-3,-36,-33,49,62,3,-4,42,72,-48,-43,12,-9,-56,-47,4,65,-28,15,-24,34,45,48,83,22,-16,-10,-127,13,-10,17,17,12,9,41,68,18,22,-16,-66,26,-9,49,16,-13,15,32,70,25,86,-15,-35,57,-9,57,27,-18,10,34,-12,-14,79,-9,-30,94,4,44,-5,-36,6,25,-36,18,75,7,-25,99,27,42,-4,-52,-10,57,-57,25,43,13,-38,72,33,61,-10,-52,-25,62,-67,3,14,-11,-48,67,16,70,53,-51,4,62,-71,-12,17,11,-81,59,2,63,80,-41,25,57,-53,-9,24,11,-106,57,19,-28,-14,63,-11,68,-127,0,30,90,58,86,-7,-10,-9,46,2,71,-97,11,34,70,20,75,-32,-10,-25,8,25,82,-72,6,39,-18,-3,55,-29,-34,-22,-15,34,75,-57,35,29,-2,-9,62,-21,-26,-21,-12,18,92,-14,47,52,41,-3,70,-5,-16,-8,-7,21,86,-9,63,59,44,2,57,-6,-20,8,0,44,63,6,79,72,32,12,48,-34,-38,7,-1,58,78,-4,84,76,81,38,60,-52,-36,-23,4,36,101,22,40,84,53,62,78,1,9,10,5,21,110,-1,125,-23,-60,-127,44,2,29,13,14,-16,109,12,71,-23,-30,-80,54,4,44,39,1,3,75,85,28,-13,-33,-44,31,14,30,97,-16,-10,19,1,-2,34,-20,-36,19,17,40,67,-37,-12,18,23,37,60,-1,-36,14,2,-20,-7,-28,30,41,13,17,-38,10,36,7,-8,-33,-79,-18,2,3,5,-11,-57,22,2,-16,-19,-44,-35,14,9,-28,-7,-20,-48,24,-14,-34,-27,-43,32,26,14,-46,-46,-90,-35,92,-16,-26,-34,12,45,122,-18,70,-44,124,-38,126,41,33,-7,10,38,85,-13,60,-3,56,-23,102,66,10,-10,-1,15,71,-9,61,21,71,-21,127,54,-26,-26,-10,-9,62,8,55,7,67,-30,105,-1,-11,-19,-14,-46,44,16,38,-1,99,-22,99,-12,-7,-11,-15,-8,57,41,47,2,113,-26,64,-53,5,-30,8,-13,29,34,49,-32,47,-56,70,-20,2,-33,-12,6,15,-7,24,-23,-11,-75,72,-39,-11,-39,-45,6,12,5,59,-90,9,-101,85,-29,11,-28,13,18,65,61,-21,21,91,67,54,-3,-4,-13,20,-6,39,62,-10,-4,112,60,52,5,-25,-4,-6,-17,46,62,-2,-13,127,51,18,-14,-34,5,-14,-18,65,45,6,0,94,53,39,-36,31,9,-15,-27,65,19,-11,31,96,17,6,-47,30,6,-31,-3,68,2,9,12,101,-15,19,-42,12,7,-38,5,73,-22,22,-6,65,-14,-13,-56,31,10,-29,25,85,-43,37,1,55,-34,32,-45,35,12,-1,35,21,-18,29,4,104,-3,69,-28,68,-29,-65,-33,82,-24,-33,34,-28,-90,9,16,27,6,-55,-56,-1,-3,-3,40,13,-83,-27,-42,86,52,-4,-48,-14,-16,17,-69,58,-27,-15,-13,68,-3,44,-15,14,-18,41,-49,34,25,114,14,-8,1,46,127,22,26,84,12,17,-31,75,76,-46,-33,16,57,45,46,41,9,1,9,30,87,-25,-38,2,51,-6,-16,10,-17,-127,-14,5,12,-16,-42,-26,0,-29,-36,31,-78,-92,-5,120,-79,-38,22,-10,92,-30,-26,-17,-44,-21,-66,110,-63,-96,-54,31,42,25,52,63,-42,70,-87,117,40,-11,8,17,-4,49,8,44,-37,57,-71,61,26,15,-23,18,4,114,-32,53,62,44,-65,127,23,47,-32,9,-30,87,6,-22,38,21,-121,24,-26,38,-33,-6,-31,54,24,25,42,45,-61,14,-14,33,-20,-1,5,40,39,1,95,79,-58,-16,-28,22,-27,-22,0,10,37,-5,-26,-20,-35,20,-37,45,4,-12,27,16,50,85,-30,14,-71,9,-35,83,-21,-16,-2,17,98,122,-68,55,-111,59,1,125,-28,10,27,-5,22,91,23,30,-27,-11,-36,127,-37,26,22,74,41,46,20,-30,-39,-3,12,46,6,49,43,88,-1,43,12,-25,-84,31,37,-24,21,33,7,14,-24,-4,-17,0,-95,20,55,-17,8,-12,10,-15,-40,28,5,20,-50,11,33,24,2,-10,39,-3,-49,26,21,4,-81,-7,13,57,-15,-1,68,41,60,57,13,15,-36,26,12,87,-9,-2,32,22,54,46,14,35,-27,18,-12,77,-1,3,14,12,-39,65,-20,15,-46,-4,-23,8,-38,-1,24,-49,14,0,-64,-16,-14,48,62,-29,-9,14,55,-34,44,8,-20,-19,-12,21,29,-18,16,31,50,-2,49,48,-5,-10,-3,-1,67,-33,-25,26,16,24,71,37,53,-12,-10,-19,114,-11,-66,-15,-19,34,32,19,29,14,-63,-72,59,-32,-65,-32,-21,28,26,16,46,45,-35,-73,-63,-18,-30,-23,21,28,69,-18,28,66,34,-55,-32,-21,21,-22,-27,21,127,2,29,24,48,-32,-24,-16,41,-53,-35,12,86,20,13,-13,23,-65,-42,-41,14,-3,-29,40,36,0,-5,95,-9,30,-104,-77,-30,-3,-34,32,42,21,-3,65,36,22,-107,-76,-73,16,-69,13,58,47,-8,90,22,16,-107,-20,-44,22,-64,4,89,50,-42,62,-25,-3,-116,-46,-19,15,-30,19,127,53,-25,79,-5,114,-79,-53,-49,26,-4,52,85,66,-2,51,-5,-6,-87,-20,-71,31,-5,30,72,66,50,87,-5,45,-91,50,-55,-16,-8,-27,-19,41,80,28,-92,2,-26,35,-49,-31,17,-6,-6,57,51,36,-51,-17,24,20,-15,12,-4,81,40,65,20,60,65,127,-9,2,-13,-21,-11,62,33,-16,2,27,59,83,8,8,-23,3,-9,-7,24,-23,-36,1,40,13,27,20,-4,17,-1,-22,40,-26,29,-2,-9,29,16,47,-1,15,13,-2,46,69,6,-7,-63,68,-19,17,-4,15,25,12,4,102,-5,54,-30,40,-34,25,-13,-7,-13,-24,20,63,-5,83,11,33,-19,2,-31,-5,-23,-13,22,84,48,38,-3,62,-1,29,-26,-13,-39,29,53,61,55,37,-9,59,-19,32,-40,-11,14,7,43,1,-93,65,14,-15,77,-59,-15,-1,-46,33,-42,22,-53,66,25,25,25,-12,-1,13,-7,51,-43,45,9,78,24,21,3,14,-53,42,67,0,0,59,74,27,42,-3,-34,4,-65,87,118,-4,23,37,112,31,30,55,3,-23,-38,9,93,18,-3,-24,127,100,51,-35,48,14,7,6,-26,52,81,-52,35,114,47,-60,-24,-18,32,5,-56,44,53,-28,-81,19,-7,22,-80,-7,34,3,-20,38,40,7,-29,58,-37,16,-8,81,-15,15,-51,21,37,59,4,26,-53,69,0,65,-10,56,-50,31,78,39,50,15,-99,35,-36,11,-46,-28,-18,-32,-9,62,-13,33,-67,-48,-91,30,-77,-74,38,127,-4,24,-46,10,6,54,40,-13,-22,-58,1,87,37,36,-55,9,2,0,104,-64,5,-35,58,0,37,59,-13,-29,10,52,59,-85,15,14,62,14,-2,23,-8,-18,23,41,-1,-48,30,44,58,63,23,-72,1,2,41,40,42,-10,11,61,12,52,72,3,-41,-4,76,52,27,-8};
const int32_t spk_conv_bias[256] = {-1615,-631,-435,-1610,-1418,-1112,-596,-216,-1032,-644,58,-606,-2333,-1778,-1843,-472,-2227,-1836,-1273,-203,-1180,-656,-474,-707,-1055,-250,-105,-1,-147,-597,593,-1738,-769,-1216,-1504,-111,-1251,-485,-405,-406,-1086,420,-719,-1113,-354,-70,67,-1479,-2695,-1024,-37,-1,-127,-746,-1986,-1477,-1175,-3505,-917,-524,-334,-770,-1228,-1157,-758,-1248,-290,-30,-1990,-1459,-162,-911,-892,-4655,-708,-2185,-2135,-476,-1834,-1707,-441,-668,-1072,-912,-1147,-778,-401,-2304,-1843,-846,19,-910,-5148,-1027,-1376,-541,-1880,-3951,-1829,424,-614,94,-1793,-2191,-685,-1072,-340,655,-553,-1353,203,-793,-607,-407,-1551,-1682,-180,1361,-496,-542,-399,-1249,-192,-750,-886,-1604,-939,348,-503,-573,-3889,-1595,-96,-1035,-770,179,-1437,-70,454,-1175,-2837,284,-3259,-477,-3100,-2765,-575,-716,-748,-2169,525,-1926,-515,-1146,-363,-159,-240,-1124,-834,-230,-1189,-583,-1996,-1778,140,-658,-387,-658,-366,-446,-1955,-6491,-100,-1897,-1276,-1472,-13,-1091,-653,-518,-272,-1749,-1434,-40,-2488,-1526,-1243,334,-850,-1555,554,-764,-2920,-1561,-588,-1463,-1186,-975,-796,165,-304,-763,-441,-2462,-128,33,-502,-674,-618,-595,-323,138,-1518,-675,-505,-759,-840,-1960,-467,-498,-921,-1243,-974,20,-1093,-435,-1311,-636,-385,-851,-5012,-829,582,-147,-2359,-896,672,-512,-771,-246,229,-517,763,895,-368,-127,-4912,-445,-2248,-5852,-439,343,-1391,-478,-292,-949};
const int32_t spk_conv_mult[256] = {1915528247,2047949916,1761368426,1723880800,1782741631,1243388009,1568293054,1686697323,1218748332,1158448635,2070810671,1940961412,1430858007,1493908916,1882379029,1976426768,1499208379,1504779828,1129456966,1375669572,1376528853,1706058831,1526625483,1473814720,1739694158,1454768081,1300135075,1685807495,2111874939,1475790142,1608494516,1895787545,1874415662,1457980068,1900376350,1478078670,1507845983,1640280869,1119606000,1291627296,1696385420,1244259773,1635312870,1664366147,1775703632,1486454127,1769987526,1545557278,1303110176,1187168098,1644988337,1722426147,1644461695,1546003587,1627097196,1260530307,1434994188,1360713146,1839600752,1371563791,1886712591,1951416268,1871586981,2133973047,1321995563,1970258184,1522963221,1138680470,1619931282,2124230024,1549038167,1168935874,1879900023,1227267860,1850647309,1297769005,1551010357,1683360798,1566434240,1610125990,1622384882,1090291972,1370181687,1344669952,1421385354,1907240025,2100829116,1687492426,1600206000,1750160176,1990642136,1540644939,1282267432,1832148019,1894190583,1110736797,1442738145,1465124981,1745775213,1263695740,1889916354,2098573190,1552645943,1693141123,1695229334,1734439487,1162834038,1502397603,1775636370,1486022651,1577329531,1495444931,1619021187,1787134964,1734774917,1558149249,1167276864,1495758772,1911427901,1125472566,1815637221,1768431098,1961049587,1332223373,1846209036,1747442080,1598030995,2075349396,2005765983,2067686506,1959647362,1839711925,1683130961,1801994756,1976655136,1598280365,1746364418,2044832653,1567153269,1846624211,2124168489,1826060943,2016061642,1613815421,1312468278,1301427742,1925714496,1853411519,1789061041,1401757294,1590564605,1630631543,2075314590,1254239535,1120621908,2012336230,2013137649,1738820044,1142729122,1988809757,1489079994,1848422519,1531002662,1698471574,1204797460,1903004567,1078140362,2129078184,1164604736,1233081629,1661658479,1083156311,1507594851,1422073249,1082339914,1753395954,1875157308,1125041897,1967933969,1844787573,1835707038,1644237145,1495111557,1840506588,1491846847,2128915022,1865277411,1202799569,2011502209,1777295748,1566759096,1196406582,1276508883,1079074469,1575185808,1410221308,1482364501,1681188436,1586504791,1560749562,1232608738,1689984062,1518064687,1215716396,1763937311,1579646403,2131481704,1159042686,1567770524,1805382682,1118330810,1889466814,1396868747,1575451919,2094646727,1735671500,1081918644,1458252788,2031923317,1799315285,1668379846,1197097708,1941350005,1087074992,1701504832,1622935462,2040463699,2068039265,1911242269,1968269692,1133818578,1728557134,1625052751,1683582263,1351223017,1346552410,1460318822,1743856920,1656777715,1129073660,1318372072,1690732904,1484068378,1251509398,1486463526,1835351342,1256611040,1971772904,1485341071,2138246836,1073877441,1677519566,1495376053,1183969402,1652920129,1612313625};
const int32_t spk_conv_shift[256] = {-7,-7,-7,-7,-7,-7,-7,-7,-6,-6,-7,-7,-7,-7,-7,-7,-7,-7,-7,-7,-7,-7,-6,-7,-7,-7,-6,-7,-7,-7,-7,-7,-7,-7,-7,-6,-7,-7,-6,-6,-7,-7,-7,-7,-7,-7,-7,-7,-7,-6,-7,-7,-7,-6,-7,-7,-7,-8,-7,-6,-7,-7,-7,-7,-7,-7,-7,-6,-7,-7,-6,-6,-7,-8,-7,-7,-7,-7,-7,-7,-7,-6,-7,-7,-7,-7,-7,-7,-7,-7,-7,-7,-8,-7,-7,-6,-7,-8,-7,-6,-7,-7,-7,-7,-7,-7,-6,-7,-7,-7,-7,-7,-7,-7,-7,-7,-6,-7,-7,-6,-7,-7,-7,-6,-7,-7,-7,-7,-7,-7,-8,-7,-7,-7,-7,-7,-7,-7,-7,-7,-8,-7,-8,-7,-7,-7,-7,-7,-7,-7,-7,-7,-7,-6,-6,-7,-7,-7,-6,-7,-7,-7,-7,-7,-7,-7,-6,-7,-6,-6,-7,-8,-7,-7,-6,-7,-7,-6,-7,-7,-7,-7,-7,-7,-7,-7,-7,-7,-7,-7,-7,-6,-7,-6,-7,-7,-7,-7,-7,-7,-6,-7,-7,-7,-7,-7,-7,-6,-7,-7,-6,-7,-7,-7,-7,-7,-6,-7,-7,-7,-7,-6,-7,-6,-7,-7,-7,-7,-7,-7,-8,-7,-7,-7,-7,-7,-7,-7,-7,-6,-7,-7,-7,-7,-7,-7,-8,-7,-7,-9,-6,-7,-7,-6,-7,-7};