#include "spk_conv_model_params.h"

const int8_t spk_conv_weights[55296] = {9,-78,-5,127,-50,112,47,14,25,-10,72,44,2,-40,-34,111,-59,102,41,48,26,-4,90,49,-3,-10,-50,56,-67,85,33,41,38,-4,38,37,11,1,-44,33,-62,54,5,10,-5,-11,26,32,12,1,-30,33,-49,37,-19,2,-34,-9,47,10,5,8,-16,54,-41,4,-40,-1,-34,-26,29,-18,-8,16,-1,37,-21,-8,-47,-13,-21,-38,38,-14,-29,20,5,30,-14,-30,-57,-4,-8,-32,53,-36,-58,47,11,40,-6,-34,-95,-23,33,-18,73,-35,-5,24,-33,50,71,50,-51,-21,34,-19,-10,11,-5,32,-26,39,32,66,-25,-14,14,-37,5,14,-2,40,-35,32,21,61,-11,-23,20,-34,22,20,8,35,-27,18,-6,69,-14,-35,39,-47,11,19,4,31,-10,20,-8,85,-15,-28,39,-52,0,14,-12,30,-4,20,-6,68,-37,-36,12,-22,16,31,-15,17,-9,12,1,85,-74,-22,16,-14,5,46,-29,1,-17,19,44,97,-74,-20,27,-4,16,52,-20,-8,-29,10,77,127,-67,-9,62,2,27,52,13,-21,-59,1,0,7,31,3,-80,67,50,-20,-4,-5,-32,-21,30,80,23,9,-78,79,23,-8,-29,15,0,-11,57,101,9,43,-66,115,2,13,-37,7,32,-15,58,127,-28,37,-63,108,-8,46,-14,21,63,-23,49,119,-1,27,-49,88,-22,34,16,34,51,1,52,80,34,54,-59,63,-6,-24,-6,39,46,53,72,54,71,46,-44,19,-32,-65,-30,38,32,63,96,47,90,31,-40,-3,-11,-59,-37,21,-47,15,69,8,89,-19,-35,2,3,15,-6,15,-66,-4,22,81,-3,77,20,4,15,118,16,23,-65,-30,-9,87,37,71,25,-7,39,97,26,29,-62,-28,-11,85,45,57,24,-10,21,81,20,43,-50,-15,-10,80,36,42,32,3,6,83,2,37,-32,-17,2,79,25,27,2,15,7,79,-11,26,-37,-2,24,73,14,43,-10,31,35,93,-9,6,-53,4,14,63,-5,48,6,36,30,96,-12,1,-60,-2,3,73,-6,30,20,25,12,127,-4,-4,-52,-3,12,109,-20,62,72,20,10,126,-69,1,18,49,104,18,127,70,72,78,99,59,-46,-2,11,41,120,-15,104,82,79,78,68,65,-51,-1,-6,31,121,-35,85,74,92,80,67,64,-59,0,-22,7,111,-47,67,62,71,103,63,53,-52,1,-41,5,86,-37,2,77,45,87,60,67,-36,-1,-40,-2,51,-26,-31,60,19,76,38,73,-38,6,-29,10,43,-18,-27,57,-15,64,28,57,-48,18,-29,17,17,37,-20,46,-42,61,-15,22,-90,56,-34,47,12,76,9,50,-69,44,-49,8,-4,-22,16,46,78,-27,49,-55,-127,-4,-56,0,2,10,32,48,90,-48,31,-59,-105,-13,-32,11,-3,32,32,30,65,-37,41,-54,-61,1,-29,12,-7,31,29,42,52,-8,42,-56,-45,-12,-8,42,0,20,24,32,20,17,20,-31,-20,19,12,44,6,8,16,38,-7,43,-4,-16,-28,44,15,53,12,-2,-4,35,-20,53,-38,14,-28,49,3,50,13,6,11,22,-43,36,-59,47,10,71,-1,33,11,14,30,2,-55,47,-40,65,9,16,-20,16,-55,-32,-41,49,64,114,81,-30,-23,-88,-62,-18,-37,-16,-11,78,74,79,56,-3,-21,-102,-60,-29,-17,12,3,93,83,64,42,15,-5,-111,-36,-69,-17,17,24,100,67,43,34,16,27,-96,-40,-74,-6,-8,21,69,34,41,26,20,13,-97,-49,-59,-2,-23,9,36,24,48,18,16,12,-72,-22,-41,-17,-18,11,11,43,30,18,13,-20,-51,-18,-41,-28,-23,13,12,31,40,43,8,-67,-29,4,-32,-23,-43,14,21,34,41,41,-7,-127,-20,-2,-34,-50,-13,-29,25,-78,59,-40,2,75,-58,22,90,-58,6,-24,49,-56,71,-39,59,86,-41,5,84,-67,27,-18,76,-23,90,-52,90,92,-52,-22,71,-62,43,-10,86,-25,83,-50,102,91,-66,-17,65,-44,43,4,96,-15,97,-7,99,78,-81,-42,41,-29,42,10,76,-9,104,16,81,81,-95,-44,33,-9,21,16,33,-18,127,40,56,74,-84,-55,31,21,6,19,6,-17,126,49,31,78,-56,-66,47,33,-15,30,-18,-27,115,35,28,79,-53,-75,36,-40,4,63,-20,34,57,49,74,38,-72,9,15,-39,-3,-64,-1,14,72,10,61,32,-35,-15,41,6,7,-80,27,-21,39,-40,38,-26,72,-15,40,40,27,18,32,9,43,-106,29,-113,108,-1,68,43,50,103,38,-1,-34,-49,-4,-104,54,12,102,0,13,127,43,-7,-4,36,-38,-42,-51,60,125,-11,-2,65,18,-2,-15,44,-58,30,-86,68,71,-20,3,-19,20,-11,6,49,8,84,-68,31,3,-22,13,-30,35,-44,52,92,84,95,-11,-2,-41,-26,-14,37,2,62,36,-74,-48,-51,2,40,106,-25,-11,78,18,34,66,-72,-33,-42,23,62,71,-16,-2,70,11,7,93,-76,-1,-32,28,28,29,7,-8,18,20,14,93,-56,21,-53,18,12,26,23,-6,-31,18,16,72,-39,39,-33,46,-15,-6,16,9,-38,18,23,30,-16,44,-13,36,-13,-30,19,-1,-9,12,-26,43,11,44,-11,20,-22,-33,18,-5,8,10,-43,55,-5,65,4,60,-30,-13,25,10,7,16,-20,92,11,127,12,66,-45,9,40,-39,55,20,-35,61,-48,-2,103,-18,87,-49,50,-19,55,23,-14,57,-7,1,105,-23,68,-42,32,-17,57,22,3,50,33,6,102,-36,62,-31,34,-23,26,6,-16,38,19,11,95,-27,64,-34,29,0,12,5,-15,46,-6,11,110,-25,37,-36,32,-8,13,19,-3,56,-35,15,127,-32,41,-44,35,-6,68,42,3,65,-76,14,106,-51,51,-70,34,-14,82,71,55,83,-96,33,92,-72,72,-66,21,-31,70,63,59,85,-62,29,93,-70,84,-52,31,52,-2,87,40,57,-54,44,-34,-20,-43,-41,-4,70,46,58,29,50,-67,92,-9,38,-22,-36,-22,47,69,47,-2,44,-74,114,-11,73,0,-53,-35,22,76,31,-37,1,-60,127,-36,37,-14,-46,-15,-1,58,39,-35,-5,-63,117,-35,-25,9,-29,14,-4,41,33,-25,12,-51,108,-35,-79,-18,-25,43,-14,49,29,-3,15,-48,91,-30,-100,-33,-38,59,-8,62,27,35,44,-62,61,0,-112,-55,-43,59,-10,51,38,13,72,-52,37,-7,-79,-80,-55,94,77,107,16,75,101,79,117,-82,65,-76,48,65,42,56,30,64,68,52,66,-71,46,-103,57,50,16,53,13,40,64,29,57,-60,45,-81,53,40,18,62,0,21,48,38,44,-82,18,-29,30,23,26,76,17,13,14,23,77,-79,-20,14,18,26,32,95,-2,43,11,10,51,-82,-22,-3,8,27,19,101,-21,62,26,83,69,-56,-5,-24,-15,68,12,112,-1,70,30,87,65,-71,0,-44,-17,96,20,106,-4,89,38,46,70,-127,42,-78,-74,16,4,65,46,36,73,19,36,52,120,2,9,21,-22,22,56,12,36,14,26,55,55,-11,10,9,-17,-47,46,2,24,31,16,31,-19,-27,13,0,22,-45,1,-7,41,-8,-11,1,-8,-28,30,8,31,-4,20,5,24,-59,-7,-25,9,-30,32,11,3,39,45,-6,17,-52,-6,-34,14,-22,45,-12,-17,74,22,-29,13,-12,-16,-53,-2,-19,49,-20,-8,18,-14,-6,7,-41,-13,-102,-6,22,58,-41,10,-33,-11,24,61,-49,-6,-127,20,24,22,-17,39,-38,25,83,127,14,-15,-1,-13,-4,25,-18,49,-20,9,55,84,-13,-38,9,-27,-3,0,-14,39,-17,12,43,63,1,-28,10,-13,1,3,-15,28,23,25,-4,37,23,-26,-14,10,-21,10,-7,19,54,36,-44,26,24,19,-25,44,-34,18,-11,-2,57,27,-47,20,2,60,-40,47,-28,11,-10,-21,25,30,-12,1,-2,58,-59,32,-19,-13,16,-23,-13,31,38,-7,7,74,-54,1,-21,-45,11,-7,-25,27,64,2,13,84,-56,-19,-10,-56,7,-36,14,10,43,41,10,32,-12,81,70,-36,-2,-29,34,10,11,36,16,49,-5,58,93,-56,-2,-21,46,13,-11,37,19,45,-14,57,66,-76,15,3,63,54,-50,28,-1,61,-6,34,26,-59,6,5,47,104,-49,47,-4,36,13,1,30,-63,-9,34,22,127,-39,58,-15,-21,9,-37,8,-56,-26,39,1,92,-26,88,-15,-7,19,-16,7,-25,-4,6,-8,0,-12,103,-9,29,20,39,-16,10,29,-16,-10,-69,-3,94,4,25,8,71,-50,40,17,-5,48,70,10,-45,71,-23,-3,-21,-72,-9,32,-38,10,46,42,-18,51,-16,-16,-52,-60,8,36,-29,-21,24,52,5,35,-22,-2,-35,-66,25,27,-14,-21,-2,25,27,25,-22,-18,1,-54,21,7,26,23,-10,-12,62,-28,-25,-29,27,-12,10,-16,61,20,-19,-22,91,-92,0,-6,63,12,-1,-50,63,20,-3,-15,61,-127,48,-14,53,58,-37,-47,52,47,10,-14,36,-115,45,9,34,55,-53,-20,24,57,32,-21,15,-92,22,-7,-9,24,-84,-19,61,16,-5,-2,93,41,19,67,87,27,55,-28,41,10,-1,-14,110,32,-25,75,69,-9,43,-25,24,19,-7,-7,127,48,-58,37,83,-9,51,-19,7,8,13,-1,73,67,-25,-1,84,-40,28,2,-3,2,21,44,15,43,-2,-11,55,-60,25,4,-28,7,25,66,15,17,-12,-9,49,-59,-2,13,-34,11,50,69,4,3,46,13,43,-59,7,24,-33,10,58,53,8,-2,59,14,46,-52,-3,35,-16,3,24,64,0,17,88,-27,42,-51,-48,-19,-5,72,-1,-5,44,41,58,18,53,-39,26,-14,4,-34,8,-1,21,52,24,-12,-4,-48,48,-8,32,-48,27,4,26,-25,-1,-84,10,-51,52,17,34,-14,79,49,31,-69,2,-90,59,-30,83,31,19,41,72,45,-14,-66,-22,-82,36,-4,127,1,1,81,35,10,-9,1,-33,-24,-70,31,126,-11,1,95,9,-24,14,50,-56,-14,-62,61,106,-31,6,23,-19,-8,21,68,3,-24,-31,50,22,-48,3,-76,-6,-17,48,65,83,34,-8,25,-8,-68,-55,38,-40,17,47,37,55,-5,-21,4,11,-42,-18,-43,-13,34,4,18,30,-41,16,-16,64,-16,16,-68,19,18,9,33,6,-60,54,-39,87,12,39,-31,39,17,32,-10,12,-92,68,-16,103,23,47,9,19,31,48,-19,19,-98,77,-10,127,21,44,37,28,9,67,-17,-7,-63,73,-11,100,21,10,20,48,-29,50,-31,-22,-15,7,-14,40,1,-10,-8,62,-79,39,-10,-5,42,-20,-2,-17,14,0,19,74,-71,96,4,60,82,-35,3,-33,-35,4,46,-6,-14,45,31,69,-23,9,44,127,4,2,19,-2,16,34,27,52,0,30,25,110,25,23,-7,-7,-10,-22,24,40,18,59,-8,80,15,39,-20,7,-35,-42,45,34,59,56,-32,54,3,49,-22,2,-45,-14,44,24,40,17,-15,6,-29,13,8,23,4,73,20,52,14,-21,10,-31,-26,-34,6,35,31,97,8,71,5,-39,36,-30,-11,-46,9,34,21,121,-20,72,1,-41,32,-44,-12,-19,9,13,9,124,-41,89,21,-37,20,1,-23,-6,58,58,7,78,25,66,-26,-24,31,116,-8,7,48,51,7,3,82,15,-14,13,-30,126,19,47,-8,49,-46,-79,105,33,34,74,-68,107,-2,68,-48,50,-65,-55,111,50,33,60,-80,68,0,50,1,48,-16,7,35,55,14,59,-62,17,-2,12,36,47,16,51,-32,69,-24,48,-25,-26,6,-24,3,38,42,83,-34,56,-32,-11,12,-10,-10,-25,-21,6,31,120,-102,44,-17,-54,41,-5,-33,1,-30,-27,42,127,-109,77,-41,11,50,10,0,39,49,76,22,38,113,46,36,72,31,-109,-26,23,18,33,29,37,74,28,25,63,18,-73,-44,12,4,-5,17,45,56,25,50,114,49,-59,-58,14,9,-10,-8,15,64,47,48,113,63,-10,-64,9,24,14,7,3,56,92,35,127,98,32,-59,-22,39,45,3,-8,47,104,37,121,111,45,-23,-28,19,37,22,9,55,86,46,81,98,42,36,-27,12,-8,-1,3,45,41,63,37,37,-16,52,-29,35,-3,6,15,39,5,67,-19,-23,-106,13,-1,35,6,-35,19,-5,107,40,127,44,1,13,-12,21,6,-38,-14,-13,101,61,97,51,-24,1,2,-14,-14,-36,-4,-24,81,70,42,42,-44,-17,10,-28,-18,-14,9,-11,18,69,22,38,-36,-21,23,-18,-18,24,27,-16,6,54,14,33,-40,-11,17,-4,3,14,56,40,-5,46,16,-18,-32,-2,12,-10,17,4,67,52,-39,15,-11,-49,-21,1,2,3,56,26,68,65,-55,-33,-10,-43,9,-10,7,7,79,58,84,63,-66,-91,-24,-55,5,3,41,-29,26,-64,90,-27,63,-48,17,-14,36,23,27,49,30,-9,97,-2,35,-22,12,3,28,11,-2,91,91,57,102,83,91,34,3,46,40,-3,-40,77,102,58,70,127,58,39,-50,20,38,-25,-42,34,31,-15,48,113,19,34,-65,4,60,-21,2,-8,-19,-32,-5,22,48,35,-25,-15,62,5,40,-26,-22,-34,-34,-51,43,41,27,-11,78,8,36,-32,-3,-40,-50,-88,0,33,40,-2,100,-1,7,-43,1,-42,-43,-76,28,2,26,36,87,18,-3,68,-21,1,16,56,29,68,-100,5,50,19,0,67,-20,-5,0,48,55,69,-56,31,18,-6,-1,84,-17,13,1,-2,50,57,-47,26,-18,-32,-19,103,10,30,7,-39,63,24,-43,4,-42,-44,-47,127,38,10,3,-17,62,46,13,17,-25,-28,-73,125,38,-5,-18,-17,61,30,78,32,29,-14,-50,119,51,-9,-31,-13,41,5,108,44,57,-18,-27,98,46,-18,-41,20,33,-20,109,49,60,-20,-13,33,14,-41,-43,45,24,-32,83,67,66,-12,-59,-38,-5,-3,38,40,41,-4,111,-11,-4,-26,-43,-22,-2,-12,91,35,45,-15,124,-9,28,-24,-34,-26,-6,-8,113,42,33,-13,116,-7,25,-11,-15,-5,29,-28,117,30,64,-15,48,-13,24,-13,12,-10,68,-13,123,63,66,0,-13,21,-45,-34,29,9,120,49,85,45,60,-7,-41,16,-88,-54,36,14,127,80,68,37,18,18,-21,-14,-99,-29,40,-20,76,85,68,44,55,10,3,11,-71,29,33,-33,-49,53,54,12,15,3,45,23,-16,-24,-26,-34,2,-12,50,-68,11,13,1,-1,56,4,0,-11,2,10,53,-20,26,7,15,-13,53,-9,33,22,18,48,39,22,28,-9,38,-20,55,-12,42,9,20,41,23,65,48,7,58,5,87,-5,52,-23,9,-1,30,108,46,16,29,26,90,7,46,-58,9,-22,36,127,66,39,14,19,64,8,15,-52,15,-34,63,86,40,35,-5,5,21,0,-12,-32,21,-25,68,28,30,37,-17,-7,9,4,-9,-2,25,-3,97,-30,40,39,-24,-14,39,-21,13,12,10,52,17,-37,-94,-87,-40,-54,117,-23,19,46,44,26,44,-6,-80,-93,-40,5,114,-12,-17,56,75,29,77,-27,-26,-44,-11,27,108,9,-37,0,91,8,77,-17,3,-27,-2,42,68,11,-2,-49,74,-34,26,3,25,32,8,18,14,0,-1,-39,39,-38,7,12,45,-1,56,31,-45,-13,14,21,-6,-45,15,-10,69,19,16,10,-79,-17,-13,56,-13,-36,54,15,79,20,-12,-11,-124,2,7,-6,-21,-23,46,12,127,29,-30,-53,-91,-10,45,42,30,-79,57,-127,88,34,-24,-14,11,7,15,60,47,-51,30,-50,94,42,-49,20,-5,25,-5,53,68,-28,9,1,82,53,-64,7,-14,20,-2,3,71,-40,-9,-13,70,88,-49,19,25,8,19,-26,57,-53,7,-24,57,94,-27,44,25,26,15,-10,80,-27,13,-50,54,95,-35,43,27,25,-18,44,63,-26,11,-33,18,111,-52,4,29,2,-38,45,59,-21,19,-10,-14,102,-71,-24,38,-25,-19,31,62,24,-6,-44,35,75,-76,-21,53,-11,18,26,47,37,53,-5,68,34,2,-41,43,18,36,20,49,24,59,45,55,9,50,-24,68,16,55,7,47,-13,-16,43,43,24,39,-27,45,0,67,-33,40,-39,2,74,45,49,4,-5,38,-7,21,-24,21,-1,28,35,12,24,-20,-11,-19,-2,-31,-1,3,25,49,-7,71,-8,-29,-9,-36,-26,-38,7,11,32,88,-63,77,-8,-51,7,-62,-37,-25,20,25,49,106,-127,84,-42,-53,1,-28,-36,-18,22,24,43,84,-127,63,-53,-34,1,11,11,3,-11,-15,-14,6,-45,-4,-6,127,5,44,13,-7,-7,-47,-20,11,-82,10,-58,108,-29,46,24,-6,-8,-59,-46,14,-114,22,-78,91,-36,24,21,8,-14,-33,-59,8,-84,4,-83,78,-21,-28,5,22,11,29,-24,29,-11,-6,-21,46,20,-29,-16,14,0,79,24,76,64,-1,52,1,33,-44,-6,17,-7,98,45,79,59,-19,72,-42,19,-38,10,7,-11,72,30,77,25,-13,50,-44,-35,-59,31,-9,-8,60,-9,40,-5,14,22,-21,-35,-52,-9,-16,4,101,27,56,48,29,26,43,32,5,-8,-7,8,99,39,44,60,41,33,44,43,-3,-19,2,2,93,53,32,28,38,47,21,57,-4,-22,-7,-1,62,54,24,32,69,60,46,59,-22,-34,-23,-2,51,37,0,23,109,74,70,54,-21,-45,-34,-12,32,3,10,18,93,82,106,63,-2,-57,-50,-47,25,-1,-7,11,85,86,127,63,1,-62,-34,-49,14,16,2,39,56,73,107,42,0,-50,-3,-30,10,28,20,74,50,39,7,17,-42,24,-23,-36,25,-5,37,1,-79,-21,-7,55,114,27,-10,-22,22,6,40,-2,-59,-14,-9,9,69,8,13,-1,52,15,33,-7,-45,6,3,-7,18,-4,38,15,47,13,52,4,-16,17,29,-10,10,-2,44,28,40,6,57,9,4,-1,46,11,7,-1,47,22,13,-9,43,6,0,-13,43,15,27,5,30,12,6,-12,23,9,-14,-35,30,30,41,12,12,2,0,7,36,28,-21,-43,-14,51,82,24,-8,-12,-22,22,49,35,-28,-40,-47,46,127,-4,24,23,-13,62,18,32,-40,7,-18,28,-26,6,21,21,-6,32,-4,19,-33,-10,-16,26,-35,11,18,11,-4,22,11,8,0,-3,7,19,-30,9,17,3,10,22,22,1,35,-13,11,23,-5,6,8,-6,25,10,30,-3,80,-10,39,33,15,5,-11,-14,36,-22,37,-18,102,-8,56,22,29,10,-21,-30,46,-18,46,-29,127,3,62,10,17,14,-16,-41,37,0,41,-40,119,0,56,-16,-6,8,3,-25,8,19,53,-33,102,-11,47,-8,-18,-11,-3,-22,12,-25,63,12,28,-9,3,-12,109,13,7,-19,1,-26,46,63,15,11,4,-40,94,0,41,6,-11,-11,38,65,16,8,34,-18,77,-25,26,52,-14,25,46,50,18,-6,32,-4,70,-49,-10,63,-1,15,70,10,41,-9,13,-20,56,-27,-41,27,10,-9,89,0,57,-9,-1,-11,65,8,-59,-23,11,-50,102,7,34,-7,-6,-21,31,19,-57,-23,20,-39,109,48,31,-12,-23,-57,3,12,-22,8,33,-24,127,48,32,16,-37,-64,15,23,-18,42,94,-55,38,-58,86,31,33,-4,-48,24,-6,-24,93,-95,35,-12,86,64,-11,-15,-48,14,1,-58,60,-120,51,-20,60,68,-39,-28,-40,11,16,-20,54,-71,46,-65,36,37,-2,-57,-2,9,10,56,21,-24,7,-74,-6,-11,19,-44,66,4,2,120,-5,-1,-17,-6,-35,-46,23,-15,102,-5,22,127,-23,16,-14,84,-23,-49,-15,-7,96,-26,13,76,-39,61,5,95,40,-40,-35,10,82,-47,13,23,-23,81,67,88,74,-33,-7,17,127,-18,44,-13,50,-32,-8,25,112,-127,73,-6,61,-5,27,17,43,-36,-10,6,92,-108,34,-14,66,-13,17,56,15,-51,20,27,62,-49,4,-13,76,-6,15,35,8,-9,31,42,60,-35,-18,7,84,0,-3,33,10,13,21,39,28,-48,-40,28,72,7,-23,51,8,13,29,57,4,-33,-25,17,67,-12,-38,84,16,15,14,68,9,-4,-14,3,80,-9,-34,80,38,2,38,58,34,18,10,-1,85,-18,-28,90,70,11,87,66,59,6,13,3,79,-25,32,47,12,35,67,8,-32,10,-32,12,8,-49,24,25,86,79,67,52,14,51,-67,9,5,-38,17,6,121,127,62,80,26,66,-92,5,22,4,16,-7,92,114,56,62,16,94,-89,-12,21,26,6,-29,59,98,40,-14,-16,82,-102,-30,15,29,10,-35,73,64,20,-56,-43,82,-91,-28,-8,13,6,-37,74,67,-3,-26,-49,56,-60,-6,22,3,17,-27,57,36,-2,-24,-48,-18,-58,30,21,19,11,-2,6,-13,-12,-3,-38,-68,-52,4,-21,26,-13,-50,59,1,41,43,-121,22,-34,108,61,22,5,-29,51,18,52,38,-121,22,-37,39,24,6,9,-12,57,17,55,46,-102,10,-28,23,-19,-2,9,7,45,16,86,36,-83,33,-16,17,-14,8,15,25,19,1,91,13,-79,28,1,42,-13,12,24,24,-6,-6,78,-9,-77,25,-20,38,19,20,27,10,-3,20,74,-16,-71,-11,-38,68,54,18,16,-1,-7,31,76,22,-63,-23,-61,80,87,18,-5,-15,-13,37,65,63,-59,-36,-87,98,127,10,14,-32,-20,88,-27,-32,-12,-47,84,100,31,-15,13,1,-37,99,3,-38,34,-85,122,79,29,-31,12,16,-45,118,18,-41,56,-88,127,32,58,-28,11,39,-46,93,62,-3,53,-89,113,16,53,-12,22,51,-49,64,69,32,51,-75,83,-8,30,-12,33,40,-10,71,66,76,48,-39,35,-23,-27,-20,36,25,30,103,52,112,59,-10,54,-36,-76,-24,14,-17,25,108,55,110,42,5,67,-19,-63,-25,3,-67,16,73,92,77,5,15,43,-10,-8,3,-2,-22,-32,-7,54,27,18,-41,-49,23,104,14,11,-24,-18,-17,45,14,22,-36,-52,19,35,1,35,-23,12,-6,24,-13,10,-19,-56,-24,-2,-5,50,-14,32,8,24,-2,15,4,-33,-36,-8,-7,47,-5,36,11,28,34,38,19,16,-33,-1,-11,28,-6,25,9,18,41,25,7,40,-8,23,-18,6,0,0,28,16,38,23,-8,56,14,46,-23,-6,-6,-6,34,37,40,25,-10,14,10,79,-19,-38,-15,-19,39,74,47,16,-6,-31,22,127,13,13,-36,-14,-19,45,27,44,37,60,20,127,9,13,-20,-9,15,30,29,6,23,42,22,91,13,11,-8,-10,31,33,39,-8,15,26,24,69,14,14,-1,-12,19,34,27,1,-4,32,24,65,26,28,17,-10,22,30,20,8,-19,53,7,60,19,30,21,7,36,9,12,12,-3,88,21,65,16,28,25,2,50,18,23,25,-9,98,9,73,23,18,8,-11,56,25,29,34,-22,95,-3,101,39,-2,-5,-17,30,43,14,53,-31,124,14,125,59,-14,-52,-43,-67,45,39,-6,-79,-41,32,108,54,-18,-56,-29,-46,42,-3,-13,-30,-75,20,45,30,23,-24,10,-10,56,-39,-17,5,-41,-27,-10,-11,39,28,56,34,32,-56,24,18,35,-20,1,-43,40,84,79,50,34,-52,35,3,127,-25,22,-18,25,41,25,31,-21,-28,53,-18,122,-24,30,-11,13,17,19,-2,-19,-4,36,-31,79,7,49,4,-21,4,-12,-10,47,32,4,6,32,16,73,16,-59,-3,-46,-29,80,73,-4,30,-30,9,91,-30,-108,92,-50,42,41,-46,-51,-105,-58,-14,-73,-37,-94,81,-51,29,39,-37,-39,-66,-42,-74,-59,-33,-75,58,-43,33,38,-47,-6,-57,-4,-79,-52,-39,-76,34,-26,61,31,-47,14,-57,6,-45,-31,-26,-82,5,-36,83,22,-32,34,-72,-2,-75,-38,-19,-67,-15,-50,80,11,2,31,-67,-3,-104,-30,-18,-58,-18,-61,55,-3,49,14,-71,16,-120,-3,-1,-71,-6,-70,28,14,64,-1,-75,-2,-127,-25,-7,-105,7,-60,15,45,93,-7,-107,-20,-111,-19,-7,-21,-12,43,-12,43,14,59,13,99,7,16,-11,-33,-7,22,-24,54,29,34,2,115,-16,24,-7,-34,-23,19,-8,71,26,26,2,108,-42,32,-5,-32,-22,56,-15,65,11,33,-26,81,-39,34,-3,-15,-18,74,-16,81,0,63,-45,76,11,27,-14,11,-18,116,3,71,15,60,-39,42,27,7,-31,44,-5,127,37,42,12,6,-13,31,-1,-20,-34,50,8,106,61,58,42,45,5,43,3,-26,10,43,-1,8,44,48,29,22,3,65,19,0,-6,22,1,-18,82,1,-54,-28,-58,41,60,58,-31,14,27,-10,114,9,-42,29,-69,58,32,45,-50,12,31,-11,127,21,-24,42,-56,50,-20,58,-28,18,44,-16,87,38,14,46,-56,52,-30,45,-12,22,57,-4,68,48,36,40,-54,31,-23,-9,4,35,35,14,86,57,83,66,-11,24,-8,-64,0,35,4,15,102,40,108,52,-1,72,12,-73,-11,21,-56,-1,96,64,110,30,-6,66,6,-28,-19,26,-79,6,46,88,73,-18,-33,56,-11,13,-1,62,64,77,82,81,51,1,11,-29,-127,-82,12,61,91,44,58,58,45,-8,-28,-13,-111,-98,18,28,103,50,36,43,28,3,-42,0,-88,-102,17,13,105,58,10,30,23,9,-19,-15,-93,-84,24,8,79,46,15,45,22,24,3,-30,-69,-83,32,8,54,41,22,48,15,40,-4,-41,-85,-87,46,22,84,40,47,52,-3,50,-6,-46,-81,-82,45,35,106,44,71,68,-9,66,7,-39,-75,-102,40,45,97,60,99,87,-5,90,-19,-55,-84,-119,2,9,-31,-7,1,34,51,-50,-60,-42,53,127,10,25,-20,-6,0,49,36,-29,-83,-44,39,74,7,35,-22,-2,0,41,21,-13,-75,-40,26,38,4,48,-14,13,5,37,17,26,-34,-6,4,14,2,36,-5,27,8,49,28,46,1,18,19,10,19,27,12,9,16,37,45,16,31,28,26,-2,8,20,8,4,19,23,58,3,-1,31,37,14,-1,8,-13,1,23,26,82,-23,-19,-5,38,75,-14,3,-27,-18,3,1,107,-41,-31,-37,49,127,-29,-79,72,0,-11,85,-5,22,57,5,32,127,-3,-87,52,1,-57,101,12,28,60,6,19,107,-3,-83,19,15,-76,103,25,25,46,17,-18,70,-7,-63,2,29,-63,102,50,21,30,11,-47,41,-12,-38,-18,17,-48,75,74,17,-7,-6,-43,28,-10,-14,-28,1,-24,48,80,22,-6,-12,-29,22,-3,3,-10,-6,3,26,50,24,-14,-7,-6,31,2,-9,10,-5,16,6,23,35,-31,-9,33,62,31,-13,26,11,33,23,-1,43,-35,-1,39,100,35,20,-17,-1,-43,61,-1,-33,24,24,127,26,46,19,9,5,-23,61,-1,-19,25,19,106,22,35,7,18,23,-9,57,11,-7,37,-1,86,8,27,-2,9,26,-1,49,0,6,52,-6,64,4,32,6,13,30,-4,63,-17,-5,57,-24,64,2,30,16,22,44,-2,68,-16,7,73,-19,70,1,26,8,34,55,2,53,-19,-9,54,-34,86,3,25,5,44,58,11,63,-13,-21,46,-43,107,4,28,-9,39,44,-2,49,-15,-37,33,-60,108,33,6,7,-5,94,21,25,23,63,3,-77,69,-54,-13,11,6,97,54,23,18,57,30,-91,79,-35,-9,3,9,57,40,23,30,18,-2,-57,76,-17,19,6,20,-6,11,26,-3,-8,-45,-11,49,-22,15,17,25,-22,-12,32,-22,0,-88,-6,63,-20,5,22,20,-20,-28,20,-18,11,-106,10,72,-23,-2,16,18,-32,-45,-2,-5,20,-124,24,69,-29,16,10,37,-37,-43,-5,-6,2,-127,57,36,-23,29,-4,68,-21,-46,3,-6,-35,-77,73,-1,-24,-27,-31,71,-15,69,46,-106,8,-5,-18,60,39,-21,-50,95,19,45,78,-116,-1,-11,12,68,44,-10,-36,53,48,29,52,-127,-8,-21,20,20,25,9,-10,23,39,19,39,-97,-15,-25,7,-29,21,18,18,9,19,31,44,-29,-14,-27,10,-45,2,23,20,18,15,-3,23,1,-16,-11,7,-38,5,28,20,16,-7,-33,46,27,2,-32,-3,-23,7,23,2,7,6,-58,64,14,14,-53,11,-26,11,24,28,-32,3,-67,53,37,42,-57,21,-36,54,-3,45,-50,-67,-74,29,-79,-40,-37,16,-88,58,21,29,57,-54,-57,19,-92,16,-42,38,-30,-26,-46,-28,94,40,57,25,-8,125,-18,29,34,-40,-98,-92,20,95,80,-18,96,86,-48,-15,23,-10,-34,-75,-5,83,21,-33,87,-8,-38,-61,-52,15,17,-34,-29,34,-17,16,27,-47,23,-43,-83,31,14,29,-26,-6,-14,80,-40,-69,105,14,-105,8,23,71,-36,-33,21,93,-44,-60,127,20,-49,7,11,69,-18,-16,31,47,-36,-11,77,-2,1,15,7,15,91,-8,-16,115,-63,50,-94,89,-44,-33,12,10,93,-4,-13,107,-60,62,-65,38,-59,-40,7,6,73,-2,17,102,-15,68,-54,0,-57,-44,9,-4,61,30,55,127,23,67,-11,-23,-59,-23,-8,-15,26,66,49,104,39,11,23,-35,-30,-17,0,-16,-14,73,-13,72,62,-10,30,-46,-2,-11,9,-14,-30,51,-73,47,50,-18,51,-52,19,-16,20,10,-46,53,-91,10,11,-15,40,-79,35,-28,21,21,-15,55,-81,-20,-18,-16,42,-73,42,-10,-13,32,-64,-58,-52,127,-18,41,49,38,44,39,-13,12,-37,-43,-41,121,-37,52,41,35,29,38,-16,4,-19,-35,-26,110,-53,57,-5,-2,13,35,-11,-10,-15,-21,-19,111,-53,81,-23,13,22,11,-4,-29,-9,-14,-30,93,-53,88,6,14,14,-26,0,-29,-8,-3,-20,90,-33,82,-14,65,21,-18,-11,-34,-6,16,-11,74,-3,86,-2,111,13,-17,-30,-37,-8,46,2,78,24,95,-5,91,11,-14,-28,-31,13,59,-27,88,40,95,-2,50,11,2,40,72,-42,-23,-30,2,-20,-30,-18,97,33,39,25,52,-65,-34,-4,-19,17,-40,9,66,-10,23,14,29,-80,-41,22,-17,13,-48,15,48,-48,30,16,22,-79,-26,17,-22,-2,-34,-23,40,-64,30,14,5,-69,-9,17,2,-20,-36,-18,71,-60,11,13,-8,-56,19,14,8,-34,-23,4,95,-40,0,10,0,-38,50,11,28,-27,-23,22,101,-16,3,12,-7,-34,76,27,33,-24,-14,31,112,-17,3,18,-15,-17,84,18,29,-4,-4,39,127,-8,2,-19,26,-1,-42,-1,-27,45,68,3,51,10,32,-12,-1,4,23,4,-15,50,79,-4,46,22,14,-9,-30,-20,88,7,-19,20,83,-9,18,15,10,6,-33,-40,126,0,-15,-10,109,-3,-10,-5,8,6,-23,-48,122,4,-10,-42,127,-1,-14,-28,-21,-1,9,-37,123,13,-12,-32,115,10,14,-23,-10,-18,28,-6,127,34,-25,-19,63,12,54,-23,-26,-33,34,8,81,34,-17,-7,12,8,65,9,11,-30,36,-3,20,2,-12,-23,-36,1,48,44,50,-14,-16,-39,-14,42,61,5,16,-37,52,52,77,-15,-9,-29,-6,44,61,5,4,-39,86,15,65,-28,-16,-41,14,51,56,-3,-18,-48,106,13,61,-25,-22,-49,26,47,45,-10,-9,-57,119,19,39,-24,-28,-51,34,40,53,-20,10,-51,127,36,35,-16,-31,-42,40,29,62,-20,10,-57,84,42,31,4,-22,-32,48,14,75,-14,17,-63,48,39,35,5,-17,-15,47,10,93,-4,14,-57,3,46,44,11,-23,-18,48,7,97,-4,21,-37,-8,57,66,21,9,117,77,45,19,-79,30,-31,-9,11,-12,3,-19,73,94,63,14,-89,34,-42,-33,29,-46,-7,-66,28,71,66,52,-90,8,-85,-73,78,-63,-42,-63,-23,39,63,65,-75,-1,-103,-106,116,-83,-59,-50,-40,41,48,78,-51,-10,-127,-86,95,-98,-40,-16,-43,54,24,75,-73,1,-120,-41,32,-88,-20,19,-35,65,12,61,-57,17,-82,22,5,-76,0,39,-25,94,2,100,-6,10,-65,-12,-47,-42,9,8,3,74,34,124,36,32,-33,-40,-58,-12,10,12,16,12,-8,89,6,41,4,-36,-37,127,25,15,29,34,11,53,11,17,3,16,-13,110,27,6,36,29,19,54,-4,54,12,-19,-4,90,24,7,28,39,33,44,-18,73,21,3,3,61,20,2,16,51,16,48,-6,97,13,19,13,82,8,-1,20,47,27,88,2,97,29,56,37,115,-8,-15,21,65,15,74,3,96,37,110,59,127,-2,-20,30,55,4,58,-22,49,8,80,42,126,-7,-11,27,57,-6,47,-42,37,5,2,25,111,-10,5,-28,10,29,72,-12,-70,30,6,-8,79,-36,21,-22,12,11,85,-37,-70,37,-2,-20,54,-47,28,-20,25,16,127,-57,-32,63,-7,-33,66,-37,40,-23,19,-4,102,-73,-11,59,-18,-56,57,-22,41,-10,29,8,99,-32,16,45,-26,-38,26,-14,38,1,35,10,81,-26,0,24,-46,-49,4,-6,23,-4,33,22,83,-14,4,34,-31,-52,8,8,16,16,32,24,84,22,31,45,-9,-26,20,11,23,28,45,29,76,15,57,53,-2,-26,-1,-22,-4,-44,-21,-12,84,17,57,57,127,77,69,-15,-15,-27,-17,-1,57,2,57,49,98,53,58,-15,-11,-20,-17,12,27,-9,54,23,36,35,38,-8,-15,-26,-27,3,31,12,84,17,67,44,14,-1,-10,-22,-17,-5,42,-5,87,15,67,20,-17,-2,-24,-15,-14,-2,78,-1,73,16,64,13,-27,-15,-36,-23,21,1,87,3,74,25,103,3,-28,-23,-40,-33,43,-13,92,28,85,19,98,-3,-28,-34,-33,-30,62,-28,117,57,100,13,64,-7,2,-1,38,45,-15,127,110,-5,-11,2,-29,-60,5,17,32,57,-9,79,79,-22,-8,40,-14,-26,-23,8,27,37,-6,19,83,-38,39,83,11,8,-41,2,19,0,19,-10,78,-28,50,98,25,36,-67,-8,28,24,10,-1,75,-38,60,118,47,51,-65,-7,20,70,-4,-6,86,-22,48,116,55,25,-66,-9,13,74,-3,-45,68,51,63,112,47,-10,-76,-22,9,71,12,-56,48,56,38,97,29,-12,-84,-35,20,4,40,7,15,43,49,81,1,-25,-76,-23,55,99,74,18,7,57,56,-2,24,-67,-50,-26,39,125,44,19,2,74,62,-35,24,-42,-61,-14,15,127,37,29,-2,57,56,-55,17,-49,-77,-6,-2,92,32,17,-8,65,61,-58,-31,-72,-69,20,-13,51,40,44,11,80,57,-66,-56,-83,-61,29,-7,1,24,66,26,71,55,-72,-50,-102,-62,23,17,25,24,67,20,41,54,-101,-29,-76,-66,31,54,64,42,49,29,19,59,-91,-24,-45,-71,30,64,92,61,18,35,13,108,-85,2,-48,-88,-47,23,-12,48,11,59,-42,40,12,21,37,84,-21,15,-36,44,23,63,-50,40,5,28,38,42,-33,-6,-34,43,34,72,-98,46,22,38,42,3,-23,-27,5,50,61,89,-127,24,37,46,46,-9,-57,-41,46,25,74,113,-114,3,60,36,45,-32,-67,-39,78,-2,83,97,-110,-12,53,47,18,-48,-41,-46,82,-25,47,95,-68,-29,42,55,-22,-39,-15,-49,51,-22,27,74,-65,-39,-16,62,-46,-12,-31,-19,39,16,42,87,-30,-22,-44,81,-48,26,-19,59,56,93,-11,114,64,27,-27,46,-77,46,-29,24,16,73,2,127,14,18,-35,38,-79,63,-23,9,8,48,-15,102,-17,-28,-38,53,-100,106,-15,-10,2,36,4,50,-25,-50,-55,47,-99,83,-28,-27,19,43,21,52,-24,-74,-104,47,-99,105,-33,-43,21,43,10,55,-16,-75,-112,44,-83,64,-30,-30,29,44,12,53,-21,-41,-99,22,-60,9,-18,-20,20,45,-7,63,-20,-5,-77,14,-30,48,-7,9,41,74,-30,79,6,31,-64,-27,-60,28,-14,-4,80,-23,80,-9,5,-12,1,71,127,7,-3,13,79,-35,75,-22,51,-29,-8,69,123,26,1,37,58,-31,52,-23,60,1,-20,9,43,38,1,49,11,-20,31,0,62,55,10,-43,5,56,-13,12,-40,-7,-4,37,43,64,-18,-42,-40,34,-14,-34,-40,26,-20,42,-2,45,-26,-15,-47,-6,0,-51,-33,14,-30,37,-35,22,1,30,-52,-35,12,-45,-20,30,-38,8,-33,37,9,40,-41,-23,5,-20,15,55,-35,-14,-59,42,38,39,-33,-4,-77,-57,-45,22,23,-16,-39,-51,-103,-71,19,72,-89,-70,-45,23,36,14,-36,-39,-127,-44,-28,92,-63,-46,-18,10,20,13,-63,-32,-126,-10,-55,61,-29,-3,9,9,10,10,-69,-18,-85,-5,-50,19,-22,29,24,-4,29,12,-93,-2,-78,-3,-44,-10,-27,44,28,1,33,18,-90,24,-18,-17,-31,1,17,57,60,-15,19,10,-66,24,3,-19,-21,25,19,29,83,-7,28,12,-32,5,50,-28,-45,50,-15,14,65,-9,41,24,-12,-12,87,-34,-57,52,-65,82,36,50,-2,88,91,46,28,6,-52,71,-80,66,-1,13,-54,96,97,80,34,-5,6,73,-68,-44,-58,51,-65,127,86,16,1,-8,27,48,-17,-82,-74,91,11,114,-49,-46,-63,87,30,13,19,-19,-92,54,48,48,-73,-75,-100,70,-11,68,41,-11,-28,20,81,32,-73,-46,-75,65,-19,113,-10,23,36,-13,104,-19,-70,-95,-22,-23,-41,90,-93,78,98,-47,111,12,-41,-101,-23,-43,29,80,-119,45,66,-103,80,93,-51,-82,18,22,87,69,-10,62,-30,16,82,83,8,-12,-113,-35,-104,-72,3,52,-5,9,60,77,10,-25,-127,-12,-101,-79,4,41,15,23,50,83,17,-17,-100,-1,-86,-74,7,31,22,34,39,80,30,-6,-60,11,-68,-55,8,44,13,30,42,80,35,-5,-42,5,-63,-47,13,37,1,25,42,75,39,-2,-55,4,-74,-48,21,36,1,30,62,65,41,-6,-82,-17,-69,-52,21,39,42,19,83,67,39,-18,-55,-23,-55,-72,22,35,64,10,112,79,59,-8,-57,-44,-51,-58,-13,9,24,32,-27,61,18,88,18,-27,-7,16,-16,1,16,28,6,55,28,79,19,-34,-18,55,-10,3,16,34,13,20,34,61,1,-15,-32,89,3,13,3,12,-11,-4,3,34,-28,38,-33,96,14,28,18,5,-19,-30,-36,2,-61,58,-31,116,8,48,37,21,-23,-44,-11,4,-28,37,-13,127,-11,42,50,39,-7,-13,38,7,-31,-18,7,111,-23,30,52,57,26,-10,71,16,-6,-37,18,112,-11,24,57,53,45,-4,65,36,17,-39,-20,77,-40,6,78,-7,-33,79,5,-57,-89,-42,11,10,-22,-30,74,27,11,93,28,-19,-65,-54,44,14,-25,-64,39,59,24,127,43,-18,-30,-63,70,29,-31,-62,-26,74,-18,114,52,-28,-18,-46,51,36,-35,-28,-41,58,-31,108,50,0,10,18,18,39,-43,23,-38,38,-19,61,57,4,9,38,5,2,-30,41,6,2,-33,51,49,22,20,11,-20,-15,-19,33,4,-2,-16,13,31,29,27,-28,-29,-51,1,15,9,6,12,11,-12,42,23,2,-45,-30,-19,42,10,24,103,16,17,12,6,-26,-12,-22,-17,60,38,21,51,29,11,20,-17,5,27,-1,0,43,9,21,10,44,2,51,-21,5,31,20,15,29,-10,12,-36,67,20,61,11,-14,42,45,33,19,-33,2,-77,88,49,53,13,-38,52,48,35,18,-49,-9,-49,83,58,48,-14,-55,33,31,26,28,-48,-11,-7,108,35,34,-18,-51,28,33,3,42,-24,-6,46,109,29,36,-8,-42,43,33,-25,39,1,16,80,127,16,44,22,-42,78,53,-8,-47,-59,-23,-29,62,-23,21,-27,-16,35,123,13,-38,-59,-29,-37,76,-23,14,-22,-58,20,71,9,3,-27,4,-21,46,-54,15,1,-56,-57,12,-24,42,47,43,30,23,-58,64,-14,12,-51,23,-49,53,91,67,38,12,-29,92,-48,109,-42,16,-21,37,34,35,35,6,26,57,-55,127,-2,22,12,29,2,10,27,9,47,21,-37,51,29,22,19,26,-32,-21,-9,57,94,-4,7,-19,24,48,34,15,-26,-50,-31,96,119,0,37,-82,2,85,-10,25,17,13,11,1,-12,-16,17,17,74,37,5,32,27,-16,-5,9,-12,-7,-4,16,38,20,2,32,32,-16,2,44,17,-1,5,46,-19,4,-12,34,23,-6,19,65,8,14,23,41,-47,30,-10,20,-3,10,15,75,10,59,-12,23,-70,33,-3,-34,-28,19,26,30,-35,46,-15,84,-80,8,2,-66,-38,8,46,31,-36,23,-32,126,-72,-24,-4,-66,-24,-14,24,34,-3,32,-54,120,-14,-42,-15,-47,2,22,7,5,12,50,-47,127,25,-54,-15,-1,-52,-25,-36,14,19,121,11,20,123,123,2,3,-55,-21,-37,6,34,99,6,20,107,95,8,29,-50,-19,-33,-6,31,72,-1,14,79,62,8,28,-52,-8,-20,7,27,92,13,46,70,45,7,24,-34,14,-4,7,32,80,-9,26,56,9,7,1,-21,16,17,29,26,84,7,56,80,32,4,-17,-17,7,17,35,28,88,35,84,86,25,-6,-12,-23,2,-2,27,28,74,31,70,103,71,-32,8,-37,8,-33,42,35,55,38,49,127,104,-19,-39,37,24,-35,-8,-127,-35,-77,-65,-36,37,-9,-18,30,5,-23,-11,-103,-19,-68,-80,-51,49,-3,-25,26,0,-15,-25,-106,-22,-70,-74,-46,40,6,-23,14,3,12,-41,-79,-23,-64,-59,-34,56,0,-27,-8,4,27,-30,-51,-24,-33,-37,-41,77,7,-19,-19,-4,6,-38,-57,-31,-35,-32,-67,91,8,-1,-6,-13,-7,-43,-82,-37,-40,-29,-72,110,31,14,-9,-5,-6,-32,-113,-34,-57,-31,-56,110,43,-23,6,21,-7,-22,-110,-43,-49,-45,-58,119,-12,18,-9,41,-35,38,-59,2,-46,-5,45,11,-17,8,-21,56,-23,49,8,18,11,-19,22,-41,-1,11,-28,35,-30,37,39,14,34,9,9,-65,10,9,-21,24,-35,8,33,25,53,7,10,-59,-3,13,-14,10,-22,34,40,39,70,-3,24,-61,-8,18,-10,13,-1,35,35,103,74,-11,21,-70,-1,-2,-32,31,9,46,32,127,51,-21,45,-43,-8,-20,-41,24,26,68,-13,102,24,3,42,-23,-4,-10,-21,19,46,90,-56,85,-9,35,-3,-2,-96,0,41,59,61,21,94,30,22,102,-65,-18,-125,28,56,34,74,4,78,12,45,127,-64,-7,-76,15,39,-4,56,10,107,-8,23,103,-54,13,-29,0,11,-22,32,-3,119,-19,15,35,-38,-9,5,-7,5,-16,13,13,120,-29,6,2,-44,15,18,-1,-8,1,6,22,79,-17,7,-23,-25,29,19,-16,11,9,7,35,42,-2,28,-25,-6,39,-12,-46,45,-8,16,51,19,8,-6,-6,1,26,-59,-70,38,-21,25,37,18,17,-28,-3,26,29,-18,1,51,64,68,127,9,70,13,26,19,4,8,-9,-27,69,7,102,68,45,24,30,73,18,22,16,-105,42,-52,18,98,25,49,-3,33,6,4,30,-87,35,-58,53,98,0,79,-2,16,6,19,26,-46,31,-20,72,32,-18,35,6,0,-16,13,15,-3,6,30,42,-29,-5,-8,10,17,-6,-5,15,94,24,68,51,-59,-19,-50,-20,17,19,-31,-2,122,41,91,86,-86,5,-75,-10,42,42,-34,-9,54,51,73,107,-105,20,-68,60,48,58,60,-23,8,9,-20,36,-28,-27,-2,-66,48,111,34,15,-16,25,-5,50,-49,18,25,-54,21,68,-2,37,-7,42,0,45,-77,50,40,-40,-12,47,-35,31,-3,66,4,49,-75,114,51,-3,-14,40,-47,16,-14,83,25,43,-66,127,68,-6,-16,24,-48,16,-14,71,9,37,-64,110,67,12,-10,37,-21,-4,29,39,0,11,-66,103,52,4,-2,58,5,-15,43,36,-20,18,-61,87,52,-11,40,55,34,-17,54,11,-43,17,-77,78,62,-29,59,56,43,-63,-34,26,-39,40,-72,18,-98,2,-35,6,40,-15,-41,7,-45,49,-127,28,-118,-11,-27,28,25,36,11,14,-4,60,-96,25,-97,36,15,9,-13,27,65,49,45,46,-16,36,-54,87,32,3,-54,5,21,37,75,57,24,18,-13,43,13,10,-29,12,1,-12,34,21,37,-18,23,18,-50,6,-11,29,35,0,-5,9,15,-12,40,16,-78,-7,17,7,33,14,-6,15,-29,-2,49,33,-48,7,46,-56,4,2,-15,-2,-56,2,17,12,1,21,21,0,-38,8,36,35,-37,95,-1,4,28,10,20,20,-26,14,6,24,-49,112,15,-4,2,16,9,23,-21,18,-13,46,-52,127,34,27,9,37,-5,7,-6,26,-27,61,-45,54,3,10,8,25,-15,-17,12,26,-13,46,5,9,-24,7,18,-8,-14,-18,36,14,11,10,43,-42,-74,-29,1,-27,-8,-4,32,9,52,-16,63,-55,-59,-46,-16,-29,-1,15,32,16,57,-7,58,-46,-35,-57,-43,-29,-12,12,30,22,47,37,50,-60,-20,-41,-58,-21,-47,34,-33,4,17,39,15,3,-105,9,-87,-2,-37,31,-7,1,3,57,22,-30,-126,20,-91,7,-38,32,1,20,-14,63,14,-29,-106,14,-75,19,-31,40,-1,28,-12,61,13,-22,-109,9,-63,52,-17,42,7,22,7,70,-12,-21,-113,10,-65,53,1,33,5,15,2,64,-17,-1,-122,-20,-76,42,16,24,37,12,11,50,-17,-10,-127,-50,-69,42,19,10,81,11,6,59,-16,4,-84,-59,-36,47,18,20,109,-1,24,97,-17,19,-66,-64,-21,47,-13,-4,-5,-60,-14,47,-46,-13,-68,15,49,-25,-19,10,-18,-38,11,21,-39,14,-50,-24,33,-60,-13,15,-29,63,63,9,-7,30,-25,-28,39,-83,-52,-5,-61,127,74,33,66,67,22,-13,57,-26,-52,-22,-35,107,64,54,50,60,19,-39,7,-34,10,7,43,33,9,33,-9,22,19,-72,-69,-48,17,28,75,8,-22,27,-53,15,19,-41,-30,-37,37,1,55,-42,-24,27,-51,-10,22,-44,43,-24,53,-32,46,-75,-41,6,-11,-20,-58,-47,65,-30,-34,-10,56,88,-25,42,97,-36,-23,43,-57,-39,-35,1,54,50,-34,97,54,-52,-23,38,-33,-47,-26,16,36,11,-45,102,2,-74,-25,50,-27,-41,-16,26,38,-6,-55,78,-46,-57,-10,6,-12,-37,-25,38,40,-8,-35,96,-78,-43,2,-16,-29,-38,-40,46,38,-11,-23,98,-112,-26,23,-9,-30,-25,-56,51,46,-16,-29,60,-127,20,35,-10,15,-41,-51,46,72,-7,-36,56,-111,18,25,-38,-19,-63,-31,44,83,14,-39,34,-107,19,-13,-63,-38,-103,33,-27,44,56,-42,44,-51,41,-37,-48,20,-56,10,-31,50,55,-18,72,-49,29,-35,-56,-7,-31,-1,-26,50,24,-3,83,-65,-8,-61,-18,-35,-21,-13,-23,27,-4,29,98,-52,7,-69,-5,-41,-14,-10,-14,18,-24,46,73,-72,22,-78,0,-59,-17,-8,0,1,-30,36,42,-81,33,-77,23,-62,-19,-20,-16,-5,-29,30,30,-74,51,-98,21,-47,-9,-1,-47,-11,-25,3,50,-56,27,-126,-11,-26,-6,19,-66,20,-15,-9,53,-24,15,-127,-23,-2,-7,-9,61,43,16,-17,45,9,49,43,127,30,49,-28,31,62,29,-13,12,29,76,-9,97,37,19,-16,-12,27,41,-32,-11,-8,79,-60,47,31,11,9,-45,-19,31,-4,-14,-18,45,-87,-47,34,-16,20,-38,-65,43,54,17,-19,-10,-74,-80,-13,-36,20,-19,-63,23,67,39,-12,-11,-32,-60,-49,-34,15,15,-12,6,59,52,12,-15,-16,2,-37,-8,6,52,35,19,39,69,9,-24,-47,29,-54,0,-7,86,24,22,-21,59,12,13,-59,30,-53,-12,-13,-11,-12,39,46,31,-17,-4,-42,46,-24,26,2,4,25,24,33,29,-36,-18,-23,32,3,42,1,6,14,-3,1,23,-14,7,-4,48,32,32,5,15,-23,-1,-13,23,-11,14,22,-18,29,2,14,13,-30,20,-12,31,-26,8,29,13,6,-13,27,-16,-15,33,22,14,-39,43,-18,73,8,6,13,-17,35,32,20,41,-7,20,-41,37,-18,42,-48,7,127,-37,-43,25,19,26,-8,49,-21,1,-81,7,98,-49,-34,21,19,47,-39,38,0,-62,38,74,83,21,-48,28,-105,101,27,-73,-114,24,53,25,70,48,-41,15,-70,74,58,-76,-72,25,29,25,69,43,-35,-1,-62,58,80,-101,-79,55,10,30,36,45,-13,-18,-49,51,93,-90,-77,89,-17,31,-19,47,11,-19,-57,34,80,-84,-79,127,-34,6,-25,51,4,-12,-55,23,98,-69,-53,116,-14,14,-1,28,-3,-19,-54,6,56,-74,-68,84,11,29,23,6,-8,-37,-40,11,35,-65,-91,49,31,32,62,-5,-6,-48,-67,44,50,-76,-111,31,9,7,41,29,48,43,-22,4,-81,1,-49,14,2,13,19,47,50,53,6,-31,-91,-15,-56,51,-11,11,8,62,59,87,25,-71,-86,-35,-37,72,-19,-7,-9,65,68,97,33,-60,-66,-59,-39,93,-9,-15,1,57,87,63,63,-50,-92,-61,-67,100,-7,-17,6,54,77,71,44,-43,-127,-63,-87,83,-12,2,-13,41,49,81,-3,-20,-101,-72,-90,36,-9,26,-27,49,-1,100,-54,-18,-69,-62,-70,10,-5,38,-44,58,-49,112,-76,-3,-51,-36,-39,-22,-54,-31,-84,-16,-120,34,73,19,98,25,-24,11,-2,14,-84,-20,-64,14,70,65,23,20,-12,-2,20,22,4,-18,-2,48,14,70,-19,34,19,12,12,10,109,-3,41,65,-5,85,-11,45,26,35,-51,-37,123,5,43,88,26,50,19,3,31,3,-43,-40,-1,52,24,109,-7,-5,-40,13,-1,37,-4,-10,-84,69,-5,75,-23,-9,-61,11,-66,40,11,31,-38,68,-14,69,-28,-24,-51,63,-67,85,27,55,26,63,20,72,-33,-8,-17,70,-40,127,16,-2,-51,11,87,84,31,-8,55,-36,17,18,22,15,-31,-1,73,86,35,3,29,-36,16,-1,22,25,-30,7,65,78,33,10,20,-27,12,-4,23,27,-23,0,54,84,30,11,18,-33,11,0,22,27,-16,-14,41,93,32,-3,11,-35,3,-3,19,26,-18,-9,29,77,23,-9,9,-34,16,4,15,14,-23,-12,41,88,0,-8,19,-29,0,11,12,11,-22,-15,52,98,4,-14,23,-32,10,22,7,17,-42,-13,70,127,13,-6,47,-38,21,32,-27,2,17,-1,16,2,73,57,-44,0,82,81,-27,9,-1,-13,29,19,67,94,-27,33,51,78,0,10,2,-25,13,-8,58,91,-17,41,-32,75,19,31,20,-32,-32,-9,50,98,0,15,-52,55,-5,35,50,7,17,20,60,115,17,-5,-40,-5,-29,17,44,57,70,73,81,127,26,-2,28,-41,-40,-11,12,35,99,66,105,109,17,-12,18,-61,-19,-20,-26,3,53,69,109,122,-23,-34,-7,-24,-2,-20,-53,-5,-20,79,75,126,-54,-9,3,49,28,-14,57,22,92,86,65,15,-86,26,-28,-8,25,1,35,14,77,72,62,-16,-60,17,-36,-6,23,5,29,10,61,92,41,-25,-18,14,-39,8,18,9,27,11,72,86,35,-35,19,10,-15,14,20,5,17,9,85,78,14,-43,22,33,20,42,24,9,13,9,109,105,25,-35,30,30,2,31,27,4,17,3,127,98,53,-23,32,28,-3,41,32,-4,9,13,110,76,67,-29,44,51,-14,33,27,-24,5,21,109,54,80,-38,3,57,-27,11,4,40,44,24,-9,3,-53,5,2,115,-37,-42,-19,30,44,13,35,3,-16,24,-1,127,-33,-39,-19,8,31,2,35,-9,-7,19,-12,80,-39,-40,-6,4,11,-12,17,-5,-11,4,-18,35,-44,-33,2,5,6,-2,25,20,-20,-4,-17,17,-61,-31,-3,4,1,10,32,23,-10,5,-15,38,-68,-31,3,10,16,21,28,15,-12,15,-29,68,-51,-33,3,12,26,34,25,8,-17,20,-38,61,-40,-28,10,29,40,58,13,-11,-43,-6,-47,78,-38,-39,-1,-1,-91,16,-15,4,-2,-36,-51,52,43,13,1,16,-32,27,59,58,35,19,-73,88,47,5,-19,15,18,36,109,35,14,47,-70,113,17,11,-22,15,56,25,99,82,-6,50,-51,94,17,44,-4,24,103,2,77,106,-7,29,-39,88,-7,42,22,42,107,4,82,86,-11,82,-30,76,-24,28,15,46,93,28,105,62,48,74,-28,79,-30,-22,-34,25,35,27,127,43,54,27,-27,45,-35,-3,-76,-3,-75,3,82,3,33,-24,-11,79,-25,62,-12,-30,0,18,5,105,63,115,-6,-7,-80,47,-10,-5,-13,29,22,91,96,95,-7,-46,-80,94,-9,-5,-17,27,27,80,122,40,-12,-27,-45,86,-17,1,-17,38,0,46,97,25,2,5,28,53,-9,6,-10,15,-4,-2,38,27,6,34,53,-4,2,3,-6,12,18,-16,-11,-2,-8,65,79,-65,12,8,14,22,4,-17,-51,-24,-2,66,83,-68,21,8,6,28,-12,-17,-106,-26,-5,44,58,-73,23,22,-2,47,9,-2,-127,-25,30,77,60,-76,29,12,51,82,40,23,-10,85,-48,-57,-42,33,1,33,36,64,32,8,-7,54,-43,-61,-47,24,-33,40,18,55,19,15,-17,40,-51,-20,-41,1,-43,39,1,61,10,18,5,66,0,20,-13,-17,-32,12,-13,45,-24,11,-20,33,15,72,18,-7,-28,-24,-13,30,-54,-1,-48,12,4,79,11,-6,-43,-38,2,30,-57,13,-64,8,1,90,45,5,-60,-40,13,26,-32,27,-55,32,-8,106,84,36,-69,-35,36,10,-12,30,-49,24,23,90,127,87,17,51,1,59,49,115,65,38,-60,-22,-115,-22,20,41,7,32,26,103,49,16,-73,-15,-127,-32,18,37,-8,37,12,104,15,28,-51,-14,-108,-16,13,31,3,42,-2,87,18,29,-18,-23,-93,-15,16,45,17,41,-6,99,18,35,-8,-23,-66,-15,21,38,24,22,9,101,10,32,-9,-18,-88,-33,26,46,22,17,18,97,-5,40,-3,-14,-74,-38,36,42,43,30,38,100,-4,35,16,-11,-78,-45,30,54,20,36,76,102,16,68,-8,-33,-84,-54,-5,-4,-22,-30,-12,-21,-18,-10,-8,37,-11,32,-13,-14,-44,-40,-21,-5,-15,4,-46,22,-43,24,-4,-6,-43,-52,-34,16,-23,-19,-54,2,-45,10,2,6,-13,-37,-33,10,-23,-17,-41,11,-23,-32,-8,4,38,65,34,50,8,32,-7,-1,53,-20,-35,-5,17,127,89,62,58,61,16,-29,81,4,3,14,18,39,53,29,40,1,-2,-31,3,7,25,22,27,-6,14,7,1,-16,-4,-14,-45,6,8,5,21,-6,-16,11,-32,-5,18,2,-33,17,2,31,-24,30,17,125,-74,98,-79,57,-56,125,20,-1,-62,29,-1,82,-56,35,-67,61,-14,104,56,-22,-58,31,-5,44,-39,10,-42,11,-63,79,54,18,-33,30,-27,49,9,17,5,-2,-103,26,46,57,-68,-18,39,42,18,27,-34,-14,-87,38,-5,50,-12,-25,117,22,-71,50,-14,28,15,73,-97,-14,109,-33,65,53,-37,29,10,91,39,54,-58,-107,127,-2,49,-13,-7,-27,-87,100,84,14,-22,-114,11,-1,120,-3,-47,-59,-85,-7,35,17,-17,29,-15,57,42,76,-34,22,-54,12,-109,-2,4,34,-21,52,-6,21,27,-15,-64,36,-79,0,17,38,-4,37,-17,27,29,-3,-54,9,-84,18,22,44,-22,16,-9,30,33,4,-51,13,-54,48,9,46,-20,-2,-4,42,19,5,-46,-7,11,62,-4,22,11,-14,-2,49,-1,32,7,30,56,84,-4,-41,35,8,15,52,-22,27,1,37,119,89,8,-86,37,27,55,61,-55,12,-32,-4,127,95,3,-48,-9,19,119,82,-82,-13,-24,-24,69,65,-29,20,25,-17,-17,25,29,-23,23,-10,-54,99,-20,20,60,-17,-5,20,85,2,0,-23,-33,127,-28,22,79,-19,-4,-1,84,53,-30,-32,-19,119,-31,24,36,-20,-13,-10,47,44,-10,-12,-17,103,-21,15,-5,1,-23,4,18,48,-13,14,-27,82,2,14,-19,12,-25,16,-19,36,-29,37,-24,61,12,19,11,19,-17,23,-43,15,-60,29,-26,47,15,25,36,13,-22,13,-63,-4,-59,0,-30,34,26,30,62,2,-17,12,-89,13,-32,-25,-8,43,4,-14,-3,60,115,100,-59,17,-83,10,-70,127,13,42,-21,25,64,38,-12,9,-101,23,-49,97,18,88,-37,-3,32,34,60,15,-72,7,-29,68,17,52,-38,-8,-8,43,66,14,-25,-5,15,54,10,-15,-26,8,-22,46,43,32,18,-16,22,56,-7,-70,-9,28,-34,99,4,52,59,1,39,72,6,-96,-11,37,-49,118,-22,60,47,-22,34,75,20,-96,-19,36,-5,100,-52,57,19,-38,2,77,-1,-78,6,41,44,94,-64,53,68,-43,-17,59,-22,22,-15,119,11,100,-29,69,-125,22,-38,75,-20,53,-51,127,-61,90,-84,52,-103,2,-38,47,-40,72,-58,85,-92,76,-64,12,-53,11,-38,53,-29,69,-12,61,-70,52,-53,-19,-41,21,-49,18,-5,64,21,58,-49,26,-8,-21,-79,67,-71,-8,-1,74,39,94,-37,42,0,-23,-58,57,-92,19,-11,75,13,121,-45,67,-40,-25,-72,27,-111,13,-10,72,-5,125,-39,84,-47,-2,-47,39,-110,17,-17,55,-6,120,-9,85,9,6,-74,48,-90,17,13,4,-28,36,-67,90,-18,65,-20,24,25,4,13,12,14,28,-52,54,15,30,-20,-6,31,-22,4,19,27,32,-14,30,51,7,5,-33,12,-24,-9,2,-4,38,-5,51,49,5,9,-28,-14,-19,1,-18,-9,30,-5,51,16,47,-14,-26,-32,28,5,-15,11,4,-25,74,-51,51,-59,12,-27,58,32,9,54,-22,-60,48,-97,37,-127,55,-23,85,40,44,65,-11,-61,11,-89,0,-121,62,20,101,17,50,54,17,-32,2,-29,-12,-88,52,43,119,-18,-25,-36,5,15,52,-54,46,20,56,24,127,1,-8,-46,-7,6,62,-3,56,31,45,39,95,9,4,-59,-9,1,63,20,39,29,21,22,79,17,34,-46,-3,3,47,33,35,47,24,9,83,9,52,-38,-7,11,40,43,44,24,33,-7,75,3,51,-30,-11,19,30,42,45,11,54,3,79,-1,32,-35,-3,14,25,29,37,10,53,17,76,-2,11,-36,-6,19,43,13,32,20,54,15,111,5,-8,-33,-2,8,77,-10,45,59,41,29,121,-30,13,-20,49,72,86,51,-62,-17,-26,-75,53,-29,28,-26,49,30,71,-20,-65,7,-31,-108,53,-36,31,-40,42,-5,127,-40,-43,36,-8,-100,61,-24,18,-38,13,-5,89,-53,-28,21,-18,-74,47,-16,17,-18,26,12,74,-8,-5,2,9,-64,38,-14,0,-15,34,3,36,-42,-38,-7,-2,-62,35,-19,-9,-28,16,2,52,-34,-1,9,23,-37,34,-11,-14,-7,47,-13,55,-14,40,46,58,15,38,-24,-9,14,68,-23,83,-22,90,66,89,25,32,-43,12,62,38,24,19,28,-3,12,0,47,-42,-50,-11,47,63,45,28,22,9,4,-34,50,-69,-41,-9,24,64,61,50,18,29,-11,-76,32,-88,-21,-4,-4,51,51,61,27,23,-7,-113,5,-96,-10,-12,-38,62,65,53,13,7,-3,-127,2,-85,-12,-28,-50,52,77,45,15,-6,2,-116,8,-66,-5,-40,-57,48,69,36,27,5,-17,-95,-8,-57,-6,-21,-35,45,41,33,54,14,-43,-73,23,-54,-6,9,-11,32,29,32,30,26,-80,-64,20,-49,-43,-15,58,39,69,34,-47,42,34,-35,-44,-1,-28,-11,45,22,41,32,-66,24,46,-33,-49,11,-26,20,35,-2,13,19,-97,20,46,-23,-68,24,-13,40,33,-15,19,11,-127,33,41,-3,-77,56,-30,25,5,-18,36,7,-118,47,49,24,-109,65,-43,6,-20,-12,34,-7,-78,73,66,29,-118,62,-16,-11,12,4,13,-19,-66,99,56,1,-106,56,19,-21,30,10,-3,-8,-70,83,22,-38,-69,41,34,-18,13,11,2,18,-50,21,40,-37,-50,14,-25,30,-68,-4,-21,99,8,12,11,38,90,36,-17,25,-52,-1,15,112,12,29,23,9,55,31,-13,28,-36,-9,27,82,7,-2,6,4,40,18,-20,19,-40,-16,46,87,14,23,17,38,35,-14,-32,-2,-37,-21,49,101,18,45,34,60,31,-27,-24,-16,-36,-17,52,104,22,48,40,87,34,-37,-20,-9,-35,-10,54,89,38,51,36,127,52,-45,-20,-11,-46,-9,45,94,43,69,34,97,45,-37,-21,3,-50,8,7,88,31,48,23,56,51,-19,-4,20,-44,1,-13,72,-25,65,51,28,3,-51,0,-3,-44,7,23,61,6,68,25,44,35,-47,11,-17,-52,6,23,50,-33,47,-38,-15,16,-30,8,-8,-37,14,25,61,-65,15,-28,8,-12,-7,29,17,-31,7,10,59,-82,4,-34,18,-22,20,26,21,32,24,-1,40,-44,15,-37,2,-39,54,-14,8,114,62,47,42,62,22,-35,66,-42,75,-70,-9,127,62,89,25,75,69,-37,77,-18,63,-39,7,49,46,48,-5,17,74,-25,63,4,57,17,19,20,33,3,30,-106,44,17,80,-61,21,8,34,15,28,19,23,-127,49,12,70,-51,8,-13,28,8,21,22,5,-97,47,14,51,-41,17,-11,9,10,3,25,7,-75,34,22,28,-47,19,-9,0,7,3,37,8,-66,-2,33,19,-65,26,-3,-15,12,5,43,5,-58,12,41,11,-84,13,-3,-16,24,4,38,7,-80,15,18,42,-95,19,12,-14,33,10,17,9,-100,20,6,47,-86,9,17,-1,25,19,16,0,-120,17,0,52,-87,-8,6,-4,36,-34,98,13,63,5,15,0,56,13,21,-3,35,-2,45,-17,66,25,14,-12,34,23,3,12,-19,27,-7,53,12,44,27,-13,21,78,-31,42,-52,106,-60,108,-77,86,64,43,44,118,-38,43,-25,47,-52,127,-49,34,79,81,-4,47,-35,9,41,8,-31,65,8,-46,-5,34,-27,17,-4,-10,25,12,22,-4,51,-42,-44,0,-2,7,20,12,38,5,53,-27,63,2,-11,-22,-3,-28,19,29,67,34,57,-15,56,40,5,1,1,-30,-51,42,24,91,-38,77,-28,57,17,77,21,42,-45,10,32,59,-28,56,-18,79,42,57,26,64,-29,4,33,48,-38,30,4,50,39,-6,32,55,-8,10,43,39,-53,2,-31,29,4,-36,34,48,-25,1,33,45,-40,-7,-11,25,30,-59,47,57,-18,-10,5,52,-36,-2,-32,19,51,-50,20,59,-6,-20,6,68,-23,-17,-51,35,51,4,-1,46,-4,-13,9,98,-3,3,-68,30,48,35,-1,41,-31,22,4,127,-12,74,-31,27,33,11,-16,4,3,52,65,16,-2,85,-7,-56,31,39,82,82,-11,29,68,23,-11,60,-19,-48,61,79,41,60,-22,8,60,22,-17,48,-28,-45,75,113,51,37,-25,0,54,4,-16,51,-45,-46,57,125,55,35,-17,6,68,21,-44,25,-70,-61,72,84,86,40,-10,22,59,32,-48,24,-69,-80,85,70,77,87,-20,21,61,46,-10,-9,-80,-89,64,69,83,107,-2,15,48,48,35,-2,-65,-103,67,37,96,127,-4,23,32,50,27,-14,-46,-115,40,-15,100,120,-11,1,-5,37,15,-15,-24,16,8,52,86,14,1,-2,-13,32,-5,-26,-34,17,7,31,67,-7,-7,7,-26,12,-20,10,-29,7,27,16,28,-34,-7,-1,-23,2,-12,39,-36,15,23,9,-3,-60,-17,-3,-13,-8,3,57,-32,4,-7,5,-11,-54,-16,4,-6,-10,-2,110,-20,-14,-18,24,-7,-41,-8,14,17,-10,-10,124,-15,-2,-2,38,-10,-38,0,11,35,-13,-26,127,0,-8,-2,42,-17,-32,-6,-5,37,12,1,99,28,-26,-19,66,-16,-19,4,7,6,38,42,74,-33,45,-12,34,-60,19,0,10,-14,51,69,71,-9,8,-22,-10,-63,44,-6,0,3,33,79,82,39,-28,-71,-9,-56,85,-6,-28,0,20,88,74,60,-43,-82,-30,-49,95,4,-22,7,43,76,42,86,-18,-103,-39,-50,127,-5,-3,4,63,56,61,59,-16,-101,-61,-93,105,-23,18,-32,63,34,84,16,-7,-72,-77,-99,65,-33,31,-41,81,-8,96,-20,4,-49,-45,-49,62,-28,40,-44,61,-42,98,-47,41,-40,-26,4,15,1,-8,-65,35,38,58,-19,-26,23,65,-19,75,-2,6,-30,26,-2,81,-43,-34,21,35,0,42,-10,22,-16,15,-7,95,-40,-18,6,-1,-4,39,1,45,10,6,-29,76,-37,-9,2,-29,-18,15,-16,51,11,6,-6,82,1,24,0,-30,-39,15,-37,40,14,21,-2,44,-23,28,27,3,-48,38,-37,14,-3,19,31,53,-72,20,23,29,-59,93,-24,-29,-31,17,96,45,-51,27,14,42,-32,80,-12,-53,-64,-16,127,67,-37,64,34,71,-7,86,-17,-41,-18,18,50,66,17,29,-66,64,67,112,7,-20,-28,20,30,23,-45,40,-55,38,54,110,11,-1,-32,7,9,-15,-44,24,-35,14,0,73,3,16,-20,4,24,-5,-36,-15,-18,-1,-26,61,-21,29,-32,-8,29,17,-21,2,-15,5,-28,15,-53,43,-1,-30,38,52,10,-3,17,-1,-42,-23,-52,59,10,-52,35,89,-8,-6,56,-32,-43,-55,-56,55,25,-43,44,78,-7,14,33,-45,-23,-99,-45,39,34,-19,40,55,-11,5,1,-47,-32,-127,23,39,66,16,-127,-14,-75,46,-11,11,37,-18,15,21,51,50,-94,-27,-56,39,-16,-23,68,-10,18,12,41,53,-84,-30,-51,33,-18,-48,66,2,14,24,41,45,-49,-40,-31,31,-21,-22,57,34,-1,23,18,35,-41,-34,-29,-5,-30,-15,26,53,4,21,8,37,-42,-31,-7,-4,17,-14,24,49,9,2,4,37,-45,-43,-24,-30,43,-1,9,27,26,30,9,47,-54,-52,-29,-18,46,17,-12,8,40,43,61,42,-48,-55,-43,-19,48,27,-8,6,-8,14,23,-4,32,-34,127,22,13,56,-113,-21,-33,18,-7,15,29,-6,126,11,-25,81,-52,10,-23,20,-25,14,3,6,78,-13,-43,47,-12,37,-8,22,-19,-13,-24,1,55,-14,-13,15,-8,14,-12,27,9,-18,-39,2,26,-29,14,-6,-24,-20,-19,13,45,23,-18,4,22,-16,36,-30,-1,-36,-30,-17,31,68,43,-8,7,10,31,-4,14,-19,-62,-11,16,68,102,16,52,5,10,38,-2,-13,-56,19,33,27,51,27,54,-24,0,80,-77,-6,0,49,61,74,-60,46,-11,32,9,31,35,35,3,17,34,49,-57,55,-8,21,47,27,31,9,-8,11,10,17,-37,17,74,46,97,63,27,-30,-24,9,-44,0,-7,-4,65,1,113,59,11,-52,-43,-7,-34,10,12,6,56,-23,112,68,-5,-59,-37,-15,-36,7,14,60,29,-52,127,87,-31,-68,-25,-2,-26,35,29,69,30,-55,84,36,-51,-69,-12,-7,-29,61,20,102,-20,-55,23,28,-55,-31,-19,4,-27,78,19,103,-40,-45,-49,2,-67,-12,-23,-12,-37,15,9,49,41,10,-82,20,-29,-8,-11,6,-48,9,28,52,19,-3,-95,-9,-66,-13,-12,18,-51,7,35,67,16,-5,-78,-21,-67,-6,-17,14,-36,-3,27,81,-1,5,-60,-12,-55,17,-9,18,-29,-10,23,86,-35,4,-33,-1,-40,19,-7,17,-16,-10,24,114,-54,0,-17,2,-43,10,-10,15,-17,-8,37,125,-41,15,-5,17,-14,-3,-13,4,-1,1,28,127,-12,27,9,28,5,-19,-15,-9,6,21,31,100,-2,17,-3,28,27,-20,7,5,18,-23,29,77,72,-50,19,-76,-29,23,10,9,21,-29,0,64,57,-63,17,-64,-22,17,13,19,14,-31,-1,62,28,-22,25,-46,-19,15,11,15,2,-5,-1,76,14,5,21,-33,-24,11,4,5,-13,32,-8,87,-12,64,30,27,-8,24,-7,-15,-5,52,-34,81,-36,62,29,70,20,52,-3,-36,15,77,-48,77,-24,77,29,119,28,52,0,-37,35,102,-24,51,-38,81,28,127,46,41,5,-26,39,82,17,46,-23,67,11,88,15,-7,31,-8,20,-39,-28,16,2,-29,-17,-51,127,33,30,12,31,-24,-30,-2,-8,-18,-14,-53,90,25,1,19,41,-4,-31,19,11,-16,-44,-40,96,16,-24,-11,35,8,-17,41,34,-17,-51,-30,78,14,-18,-19,42,6,-32,34,63,-31,-64,-19,69,0,-4,5,62,-8,-47,50,23,-52,-45,-18,52,-6,-18,23,67,-11,-49,61,8,-58,-55,-15,32,-6,-29,19,49,-31,-32,42,18,-56,-78,-20,26,-15,-26,-2,48,-32,-13,23,24,-66,-108,-18,47,-2,-13,23,10,-32,58,89,-91,84,82,-73,-83,-40,0,24,-20,-37,16,95,-51,84,108,-82,-85,-70,0,19,-39,-32,7,109,-33,89,114,-87,-84,-85,-7,7,17,-17,23,125,3,61,122,-75,-97,-58,-25,20,79,-29,37,87,43,45,127,-44,-98,-30,-18,10,97,-16,21,83,58,9,100,-38,-82,-7,-14,2,41,-14,3,101,41,-9,65,-41,-48,10,-11,-21,21,16,11,80,-4,-36,49,-16,-22,2,-31,2,13,26,77,77,9,-46,-1,3,-9,24,-31,-12,2,5,-1,61,46,49,14,85,-67,45,-20,-35,-32,-2,25,61,60,23,-3,82,-67,94,-6,-36,-39,22,32,61,68,18,-32,74,-75,90,0,-25,-24,54,12,66,51,31,-67,52,-55,89,-11,-6,-10,60,0,68,39,25,-72,33,12,61,-20,17,11,88,16,42,44,31,-80,-11,16,3,-22,26,25,65,33,44,36,28,-34,12,26,-49,-1,23,2,-56,33,26,9,52,-11,41,66,-35,30,-11,-14,-127,53,8,-54,18,-13,48,73,-15,1,17,-1,6,-5,84,-12,99,58,54,15,10,-7,32,-19,-7,-27,95,-56,57,65,48,-15,12,-10,37,-12,-20,-23,121,-50,17,68,52,-26,11,-10,21,-9,-20,-6,127,3,-29,24,31,-39,3,-6,8,-10,0,32,67,50,-16,-24,21,-33,20,-1,-3,-2,13,44,-4,59,-25,-34,7,-26,30,2,-8,0,27,39,-17,48,-11,-25,22,-26,43,8,-9,-3,44,38,1,55,9,-28,29,-21,30,3,-14,-18,43,63,7,42,17,-52,38,7,0,-27,20,66,-20,59,67,-31,-19,-24,-19,31,-44,-30,0,44,-13,35,57,-26,2,-2,-46,25,-27,4,20,45,17,52,52,12,-10,-19,-68,37,-7,3,12,-20,59,82,26,68,-9,6,-73,38,40,-38,-4,-59,88,101,28,104,7,25,-109,-10,55,-51,-2,-25,100,94,58,99,35,48,-113,-24,32,-21,17,3,68,58,65,32,27,15,-72,27,3,23,15,38,6,17,24,-35,3,-2,-51,86,-27,42,1,47,-40,12,-12,-41,-41,-43,-16,127,-22,-24,-20,-49,63,44,-20,-1,2,-64,8,-34,19,-10,-21,-24,67,33,-5,-2,15,-83,47,-31,0,-11,4,17,94,37,6,-22,5,-71,62,-45,-10,-12,18,48,104,47,34,3,23,-59,72,-42,9,-22,23,75,96,41,39,24,36,-28,66,-54,10,-21,30,93,97,56,41,25,94,4,65,-63,12,-9,33,84,72,56,13,33,127,9,60,-59,9,-19,33,54,44,52,4,34,126,8,25,-58,-16,-32,40,11,36,32,-9,31,105,-14,47,-23,21,-36,4,111,-3,41,27,-1,32,-19,77,-9,45,-61,0,127,-19,-20,35,-23,19,11,95,-17,37,-32,-28,55,13,-47,44,-41,26,-37,71,-8,6,8,-3,-75,23,-1,48,-62,-8,-54,26,-17,-6,19,18,-85,-2,30,72,-38,7,-49,49,-20,-11,27,36,5,-8,60,64,-47,36,-12,54,-14,33,37,4,43,-8,34,44,-12,24,23,16,4,25,27,-4,22,5,-25,50,11,38,50,16,17,2,12,11,-14,20,-4,68,22,54,22,50,26,-2,3,11,-5,-16,0,44,47,11,-22,-29,11,112,6,21,-9,-12,-2,33,38,26,-31,-20,12,76,10,31,-27,-2,-14,27,22,10,-35,-25,-8,43,4,34,-31,4,-8,18,5,14,-11,-29,-37,30,11,34,-23,8,1,24,18,25,3,-6,-30,26,7,18,-7,11,19,28,22,17,21,13,-13,21,-4,2,8,12,21,22,35,34,15,34,5,43,-8,-4,1,2,21,24,54,13,1,16,20,85,-17,-4,-19,-5,0,18,69,10,1,-23,30,127,-19,-17,-22,40,47,21,3,127,-78,10,40,35,4,-13,-36,34,65,17,-7,70,-86,-19,24,-7,14,-28,-32,37,78,12,18,59,-36,10,17,-7,10,-4,-20,39,70,10,53,71,-19,-8,-28,-41,-7,11,-41,77,72,18,15,82,-21,-23,-72,-37,-51,42,-28,48,74,30,-8,29,6,-3,-50,-5,-59,36,-9,0,39,47,0,-3,31,-9,-60,-2,-45,-4,24,-10,10,67,34,-66,13,-31,-74,36,-5,-36,15,19,9,61,45,-109,20,-42,-30,4,20,5,57,7,97,119,56,36,-101,1,-73,-49,28,8,18,14,106,98,65,9,-87,-16,-77,-42,26,-6,11,23,85,105,65,-2,-54,-26,-77,-15,31,-4,45,18,105,99,63,-38,-21,-13,-66,-2,26,-2,33,16,110,103,35,-50,-16,16,-23,37,29,-5,16,9,118,107,48,-30,-14,28,-23,25,35,-10,18,4,110,107,60,-20,-27,41,-19,31,39,-1,19,3,100,101,65,-23,2,44,-26,31,31,-17,13,19,127,72,89,-12,-18,36,-40,7,-3,2,28,30,23,91,38,22,-16,21,-14,-40,5,-2,-18,45,58,81,32,-16,-3,-19,-42,-37,10,-6,-36,36,69,97,28,-37,17,-37,-23,-34,5,-8,-47,40,101,97,34,-26,23,-40,-22,-18,-7,-11,-34,52,107,88,49,-22,31,-22,-21,32,-15,-22,-18,57,124,97,86,-28,2,-14,-23,47,-10,-13,-21,26,127,111,93,-6,-13,-10,-7,60,-3,13,-37,11,81,91,47,9,16,9,2,46,-4,34,-51,4,42,51,20,19,16,37,-4,-7,15,28,38,49,-47,86,5,39,-6,127,-55,28,11,19,25,29,-24,72,13,29,-4,76,-60,13,16,2,16,14,-4,41,12,18,6,23,-68,29,16,-6,-2,13,10,17,5,6,9,13,-81,22,8,-2,-4,27,14,21,5,-2,15,3,-82,21,-4,8,-4,30,20,28,21,14,26,30,-88,6,-8,11,-5,18,17,26,7,32,23,51,-102,33,7,23,5,2,-5,28,-15,47,8,44,-109,36,24,37,7,10,-2,28,-36,58,-13,56,-116,7,-2,8,-9,-36,-30,-44,62,5,63,60,43,73,5,-8,-32,-31,10,-42,63,-25,45,55,1,70,-13,-26,-42,10,30,-34,40,-10,25,23,-26,64,0,-35,-57,45,-8,-7,0,-13,-33,6,-45,43,6,-32,-54,46,-45,14,-57,3,-99,17,-35,26,3,-12,12,21,-76,60,-79,12,-127,9,-30,24,11,25,98,29,-35,87,-4,7,-94,41,-6,13,-8,41,116,65,30,70,45,21,-60,23,35,12,-21,21,58,63,65,38,57,47,-11,-31,32,25,19,64,25,7,-22,11,-122,33,86,-83,-76,16,11,58,6,9,-11,2,-112,26,96,-85,-57,30,-2,68,4,12,6,-5,-102,21,97,-106,-85,22,-3,72,4,5,34,7,-102,15,88,-81,-99,33,-10,52,5,0,37,13,-80,7,61,-69,-112,58,-8,49,-12,21,20,23,-61,13,85,-68,-100,68,6,48,7,20,8,21,-47,-10,89,-68,-105,55,12,55,18,23,-16,2,-59,-5,84,-63,-115,49,20,73,57,17,-26,1,-58,23,119,-58,-127,57,31,-61,53,-10,-14,93,59,90,37,-10,5,118,35,-59,52,-13,-54,90,50,97,17,10,-18,127,25,-54,26,-12,-63,110,44,90,-6,8,-54,89,13,-37,-9,-9,-63,122,14,84,-10,11,-59,92,15,-27,-32,-3,-60,101,12,65,-19,11,-59,54,7,-22,-19,6,-43,62,11,87,35,40,-42,98,-11,-42,15,50,-28,24,17,103,65,85,-22,99,-32,-66,48,58,-17,39,19,77,52,93,-32,88,-36,-91,73,30,-12,45,15,40,47,76,-60,81,-23,15,-60,47,-30,115,-45,8,6,34,36,20,-21,20,-52,23,-8,116,-44,22,-12,-6,17,17,-19,21,-47,-1,0,111,-56,32,-27,3,10,-4,-31,8,-47,-11,15,127,-49,51,-43,44,2,6,-39,-2,-51,-17,25,125,-47,74,-30,71,17,7,-30,-5,-46,-24,21,108,-35,77,-2,107,34,-19,-10,-2,-50,-22,30,93,-11,60,17,118,44,-29,-11,-5,-40,-6,16,88,-1,49,26,64,50,-22,6,-9,-45,1,-14,89,25,39,8,-5,50,-17,2,66,53,-41,34,66,-20,2,43,-5,-4,8,-5,57,21,-26,-8,85,-30,-23,26,-36,-43,24,-6,25,1,-6,0,98,-1,-5,26,31,-67,18,-1,-57,-32,11,50,80,17,57,10,89,-28,10,14,-84,-40,40,81,43,23,88,-18,127,12,-27,15,-60,-11,29,60,16,31,95,-24,98,38,-38,15,-36,4,50,20,-6,37,82,-6,67,31,-27,8,8,2,108,8,-23,25,105,-12,74,12,-9,-11,17,9,84,9,33,46,111,-41,103,61,-19,-49,-49,-34,81,-19,77,-71,27,-68,4,-32,56,-27,-10,-49,55,-26,90,-85,9,-56,23,-17,80,-26,15,-44,60,-36,84,-33,22,-16,6,-56,53,-27,24,-33,73,-45,50,14,34,16,-3,-35,32,-43,32,17,41,43,27,50,17,-55,8,-26,54,-56,45,38,38,84,31,102,1,-78,41,-17,20,-13,35,44,13,51,54,116,-5,-76,43,-7,57,-6,-15,2,26,44,77,127,13,-62,13,-31,58,12,-70,-37,28,24,115,58,36,-42,-48,-67,99,-20,19,83,48,-6,58,-76,65,-82,-51,-22,89,4,-2,127,65,69,49,-4,59,-62,-55,3,82,-2,-9,103,45,81,18,45,23,-47,-50,-5,81,-3,4,8,-1,18,-11,27,7,-14,-39,-22,102,-3,26,-48,-11,-43,-14,9,23,32,0,-26,85,2,32,-55,-17,-43,-9,21,54,48,21,-3,68,10,23,-28,-6,-28,2,14,51,34,0,34,53,1,-11,-26,-8,-23,20,14,34,41,-36,29,24,-2,-15,-23,3,14,59,36,49,30,-43,35,1,-9,8,23,17,-35,62,-1,49,-27,-38,118,-62,-1,5,19,20,-25,44,-15,42,-45,-58,110,-48,9,8,40,3,-37,37,12,16,-61,-56,127,-25,4,9,52,-5,-43,33,41,7,-65,-36,121,6,-8,5,44,4,-41,25,60,-13,-100,-39,119,19,-4,9,59,-11,-42,9,61,-28,-110,-5,83,10,8,4,62,-26,-69,0,57,-46,-89,51,66,-4,17,12,67,-35,-79,-3,66,-68,-65,69,60,-15,-2,-3,76,-5,-63,4,57,-93,-16,75,46,-1,-9,-32,4,16,-63,56,-39,47,32,15,6,46,-20,-16,-14,21,-52,69,-42,38,-7,-23,12,33,-23,7,-29,12,-38,59,-17,32,-15,18,27,16,-3,4,4,-17,-25,40,-28,4,-28,34,30,29,17,10,57,-47,4,25,-14,-2,-56,70,3,34,21,14,107,-48,31,14,24,8,-82,127,26,33,20,33,110,-31,41,-13,38,5,-111,123,29,33,9,52,95,-18,77,-1,51,8,-123,111,62,56,8,60,58,0,82,13,56,29,-102,118,35,94,-23,75,3,42,19,79,81,-26,37,79,-37,94,-28,57,-17,29,3,92,41,-77,28,66,-67,49,-37,27,-4,23,2,119,41,-96,14,97,-67,56,-30,-3,17,8,-27,83,69,-77,-26,127,-63,44,-20,-24,31,12,19,59,41,-30,-49,102,-58,38,-8,-8,45,13,30,17,19,-43,-36,22,-59,24,-6,-15,36,25,43,4,-2,-11,-13,-2,-64,-7,10,-11,32,51,27,28,-2,24,5,40,-46,18,32,-10,12,86,20,73,-7,71,-17,48,-30,-31,-54,-5,27,-66,-16,51,40,57,-24,2,-20,83,-33,-5,39,-43,-6,53,33,40,-4,8,3,83,-36,-7,39,-11,12,52,9,29,1,1,-8,67,-26,-28,27,35,7,97,14,27,21,-30,-3,54,-12,-39,8,37,-5,122,39,-2,9,-21,-21,42,15,-46,-15,55,-5,126,57,-26,-6,-8,-36,35,26,-56,-22,92,-9,127,73,-19,-31,-12,-55,35,13,-53,-7,88,-1,104,74,-15,-45,-14,-57,38,-6,-29,22,45,38,76,29,4,-41,5,-31,83,-1,7,74,67,-26,75,48,33,-26,41,38,76,8,2,56,29,-7,60,9,36,-8,20,42,39,11,8,25,-14,-11,44,-4,28,28,26,68,-2,1,13,-3,-6,-7,13,-10,6,39,50,68,-33,-6,1,-1,-25,1,18,-42,7,39,77,61,-52,8,6,-8,-15,7,27,-52,-7,41,127,53,-53,11,2,-21,-4,4,41,-28,-7,40,92,15,-50,3,3,-53,3,-8,53,-12,-11,41,69,-11,-67,-6,4,-62,30,5,37,-4,-3,1,60,-39,-54,14,-25,-7,-45,34,8,6,33,22,75,14,-6,-2,-18,-5,-37,43,34,5,29,0,75,11,-1,-7,-17,3,-35,30,43,4,31,-8,127,30,3,-19,-19,24,-15,6,46,-4,32,-29,91,38,8,0,-13,45,4,-19,35,-18,57,-8,63,46,-31,9,7,43,46,-21,23,11,33,14,42,31,-50,-13,25,21,82,-9,51,14,-9,34,6,30,-75,-29,23,17,86,-7,66,15,16,31,-16,48,-56,-16,15,4,36,-1,70,8,32,38,31,52,-5,-8,53,-9,71,-31,97,14,66,-42,91,60,35,-26,58,-13,57,7,104,10,38,-51,23,44,20,-24,57,4,19,16,95,-27,18,-74,40,31,-15,5,21,-2,-24,-13,71,-66,-5,-107,90,-3,-52,15,-7,3,-40,-18,41,-74,-18,-91,116,-5,-51,8,4,18,0,-23,32,-81,-47,-18,127,3,-61,-7,10,9,23,-39,55,-64,-47,22,103,8,-35,12,25,2,22,-40,99,-56,3,29,81,1,-27,19,4,-15,47,-51,126,-15,38,10,111,-5,-12,55,33,-52,-7,-37,64,46,13,19,-3,35,116,67,27,-64,-31,-67,70,25,29,33,-43,11,46,34,50,-41,-14,-15,80,-2,55,61,-40,-48,26,-3,54,29,13,21,60,-19,65,52,22,-54,30,-47,45,66,39,38,38,-21,34,-18,90,-56,38,-63,20,31,51,56,2,-47,66,-39,98,-44,51,-42,-7,-10,29,29,25,-43,76,-27,82,-7,67,-3,-65,-30,-12,0,82,21,54,0,-1,12,83,30,-92,-20,-38,-17,127,37,50,38,-53,-2,81,30,-22,-86,30,64,61,18,-62,67,-45,64,65,25,-2,-61,25,69,51,41,-65,58,-32,16,25,13,8,-46,46,66,40,58,-46,38,-25,4,1,14,8,-30,33,45,46,54,-42,29,-26,-3,-4,9,14,-20,14,26,61,39,-53,31,-25,2,0,20,20,-3,7,22,53,26,-50,30,-31,25,33,28,14,1,4,33,72,8,-56,29,-40,52,58,17,19,-3,1,47,88,12,-57,26,-46,76,91,21,6,-34,-7,57,110,34,-43,24,-66,97,127,-9,20,76,68,-3,-9,-36,11,-100,-35,-23,102,-53,7,61,41,-19,-8,-28,-12,-96,-25,-30,96,-57,9,30,23,-41,-24,-21,13,-87,-21,-50,113,-38,12,6,24,-48,-24,-16,47,-100,-24,-36,89,13,14,-7,22,-44,-23,-39,56,-127,-43,-29,60,24,15,30,29,-43,-22,-50,71,-114,-61,0,55,-19,17,53,33,-39,-1,-60,86,-82,-61,37,39,-54,3,74,42,-27,8,-49,95,-64,-54,27,29,-51,-25,89,44,-23,3,-46,113,-78,-51,25,15,-5,-55,-10,-3,-32,75,46,53,27,2,81,127,2,-38,-9,-9,-18,74,55,42,30,18,90,90,1,-4,-17,-11,-16,45,71,14,24,24,56,43,3,16,-13,-21,-15,18,59,15,50,23,30,26,5,18,-26,-16,-8,5,57,8,43,-2,19,0,-2,4,3,-5,-6,7,83,27,59,15,50,-28,5,-20,26,3,-9,20,69,26,42,1,50,-24,8,-27,31,10,20,56,80,30,39,-3,67,13,25,-33,45,7,-1,111,81,36,44,-21,54,85,-5,13,17,25,-59,53,20,78,-48,46,-67,20,9,34,35,12,-23,25,75,67,-40,22,-34,53,-11,37,53,27,23,23,127,51,-4,-33,-25,81,-20,6,22,20,65,50,107,69,15,-30,-46,76,-16,1,-43,3,41,24,51,34,6,-27,-76,75,0,-11,-52,8,-3,19,-30,29,-9,-20,-80,50,6,-9,-4,15,-45,33,-90,8,-59,-3,-65,28,7,4,32,24,-37,34,-65,1,-79,-11,-53,33,-6,4,56,27,-11,43,-14,4,-63,-25,-1,47,-1,-6,89,-50,96,36,21,54,-14,115,70,76,23,23,74,-55,67,22,38,76,-39,63,23,84,9,53,61,-47,54,61,24,123,-53,-32,-15,75,-16,21,6,-15,29,127,-5,109,-29,-46,-61,54,-22,-37,-55,8,-3,121,-34,38,7,-10,-54,2,-2,-67,-33,26,-15,64,-51,2,60,84,-42,-48,14,-38,-1,16,-39,-13,-16,-20,40,92,-23,-43,14,4,15,35,-54,-59,-44,-20,0,39,-2,-24,11,27,20,60,-52,-45,-51,-3,14,36,44,1,-20,21,5,96,-13,37,-67,64,-127,-30,-20,46,-33,40,-35,84,-54,37,-102,22,-114,-64,-25,23,-37,38,-29,67,-60,38,-91,-2,-69,-60,-49,27,-20,32,23,46,-48,32,-56,-21,-44,-56,-58,6,4,27,57,43,-32,14,-15,-11,-71,-35,-70,-10,-2,34,76,74,-15,34,-24,16,-67,-51,-79,4,-2,29,48,106,-28,41,-44,28,-44,-34,-78,-3,-9,27,39,107,-43,33,-47,46,-57,-25,-74,-16,-1,9,43,80,-33,31,-58,28,-82,-13,-68,-28,-9,28,-33,20,-7,127,-5,60,-42,35,31,19,9,10,9,28,19,98,15,47,-16,19,19,18,3,-4,54,40,50,84,50,20,-16,-33,-11,35,-16,-22,54,21,31,74,66,37,-34,-74,-18,63,-20,-22,36,1,-31,38,28,13,-44,-66,-1,80,-8,9,32,1,-79,-18,-33,-3,-38,-31,25,100,7,34,43,7,-86,-56,-41,-3,-43,-2,29,115,2,40,41,30,-47,-42,6,22,-24,-16,38,109,-8,19,43,36,-1,-12,48,53,4,-33,34,100,17,-32,-20,-4,-18,25,27,-1,13,-12,36,52,2,5,6,34,-27,32,-14,61,24,-10,2,17,-21,21,-13,108,-25,59,-40,76,1,4,2,-9,-59,28,-10,127,-35,94,-60,76,22,56,21,19,-38,14,24,52,-31,84,-38,32,22,26,9,30,1,-7,34,-25,-19,45,9,-29,1,-33,7,13,24,-8,5,-52,20,27,33,-46,-6,-45,20,23,45,15,19,-66,47,-15,63,-34,-15,-69,13,28,48,26,28,-44,73,-26,60,-14,-52,-14,-1,36,12,37,-6,28,-57,67,-42,-5,-5,15,61,127,20,37,18,23,-26,49,-40,27,-60,-3,42,89,11,33,18,38,-3,42,-28,29,-79,-5,30,43,25,26,18,37,-9,46,-51,23,-75,8,25,41,29,20,10,33,-24,53,-44,2,-43,-12,23,37,36,22,8,36,-18,74,-18,-1,-1,-40,29,27,24,3,-14,31,-32,50,11,-17,7,-55,57,41,32,24,-5,21,-43,36,31,-20,0,-63,70,81,21,33,-6,28,-67,27,28,-3,-17,-66,75,121,17,68,23,-60,-60,18,-52,-45,-9,-6,14,52,25,74,30,-43,-60,34,-72,-48,-11,-6,58,29,40,56,39,10,-44,47,-33,-31,6,13,85,-26,16,-23,39,79,-6,59,61,-5,-27,20,82,-47,-50,-79,22,74,-1,84,127,-1,-22,4,50,-5,-63,-62,10,3,-10,53,87,-43,-34,-17,-21,8,-50,-7,23,-24,-15,2,-16,-48,-33,-26,-71,-3,-23,27,-18,-24,-9,-18,-68,-45,-40,-34,-63,5,-17,10,-54,-7,-1,-21,-42,-50,-38,-18,-10,24,1,36,15,89,-41,10,-95,-69,-72,60,-67,28,15,33,33,71,-26,16,-100,-79,-110,64,-43,55,13,47,19,55,10,28,-108,-72,-113,44,-25,60,3,43,-4,69,25,48,-90,-77,-114,59,15,50,-14,26,-9,59,9,84,-76,-67,-97,69,35,23,-12,7,-12,44,9,113,-57,-74,-97,86,49,12,-9,15,-17,33,5,104,-27,-76,-82,120,40,-2,-18,13,26,54,16,103,-24,-81,-74,127,31,-13,-23,11,57,70,-5,109,-31,-109,-62,106,19,-4,53,-29,-64,46,43,63,-3,-92,16,-54,76,75,37,15,-36,31,50,84,26,-92,14,-42,39,32,18,21,-14,48,53,83,51,-89,-4,-40,10,-17,12,38,2,26,46,100,40,-68,1,-33,27,-7,8,39,26,6,28,112,25,-59,-5,-25,43,-11,10,36,16,-4,-10,96,1,-71,-10,-43,50,19,24,25,9,-2,-4,99,-18,-69,-20,-55,77,38,31,12,0,-7,15,108,-1,-74,-4,-83,103,81,17,-2,-26,-7,81,127,16,-41,29,-115,108,126,8,-37,-9,61,-75,109,-2,4,-11,-5,127,-58,9,8,41,72,-55,73,7,-12,-12,-30,109,-75,1,14,65,86,-35,39,62,-32,-38,-11,126,-61,-9,15,46,69,-17,42,26,-32,-15,-3,61,-25,0,31,42,2,1,45,-33,-22,12,-39,26,29,1,56,32,-37,51,20,-65,-32,13,-11,-3,50,1,34,-1,-67,44,8,-40,-16,-13,22,-38,49,16,7,-21,-83,14,-2,-6,-34,-32,44,-25,51,12,-41,-6,-58,-18,-16,40,-33,-54,85,-13,62,29,-35,-12,63,24,39,-106,-32,-72,-25,-58,84,36,-14,-16,53,4,69,-127,-50,-76,-15,-65,57,27,21,-8,55,11,72,-93,-80,-61,-15,-68,66,2,58,18,15,29,70,-55,-59,-72,23,-49,62,-43,62,27,0,38,59,-31,-28,-50,74,-40,25,-29,38,11,15,16,16,8,-5,-51,89,-2,29,-2,-1,32,24,-39,-25,6,9,-46,92,0,63,11,-34,38,39,-56,-15,-18,4,-58,58,-11,76,32,-59,28,25,-42,6,-33,17,-67,16,-37,66,23,-21,20,37,14,22,-1,43,10,-37,127,-15,2,-3,32,42,20,30,-13,31,5,-36,104,-20,-10,12,38,25,0,27,-50,16,-17,-20,107,-13,-28,19,46,7,-8,20,-63,14,-49,-30,101,-10,-11,20,41,-1,-17,-5,-68,8,-106,-47,91,-10,10,24,34,-5,-25,-14,-62,1,-104,-67,76,-10,9,3,24,14,-14,-9,-8,2,-103,-50,83,-19,2,-11,16,20,-6,4,38,0,-88,-31,94,-13,-4,-31,36,20,11,20,65,-16,-72,-33,71,-20,31,-5,-2,9,-13,101,10,-50,10,49,55,41,18,-3,-3,11,35,127,-8,-61,23,56,47,59,2,9,-13,42,46,114,-41,-38,34,39,31,62,-28,20,-24,27,51,81,-20,2,58,82,38,58,-49,21,7,38,75,78,-19,64,48,112,16,34,-45,15,14,20,60,57,-41,36,27,78,3,38,-23,-7,21,-17,52,46,-32,6,16,18,11,38,28,-13,22,-49,50,60,36,43,37,-39,41,53,55,12,37,-56,69,62,83,62,51,-69,31,17,-52,5,3,18,62,105,-29,-9,-19,-62,-69,-50,-44,5,10,55,81,83,-10,20,-26,-85,-84,-54,-32,12,27,68,82,61,15,28,-31,-96,-65,-60,-29,18,42,80,71,86,40,32,-11,-101,-54,-77,-18,2,53,89,73,87,56,32,7,-107,-25,-85,-8,-9,59,103,81,101,69,24,39,-109,-32,-99,-11,-10,55,77,75,101,84,33,55,-94,-17,-98,-3,-9,37,26,43,125,101,44,15,-102,-1,-83,-2,-23,29,-14,32,127,82,33,-32,-64,-12,-56,-3,-12,-19,8,-16,70,-71,6,-42,-37,66,-70,-31,-29,-23,-7,1,89,-35,8,-42,-22,71,-64,-50,-44,-20,-1,24,106,-8,10,-99,12,57,-76,-59,-50,-33,-1,22,119,16,36,-127,17,44,-47,-53,-30,-39,-12,5,85,-13,31,-124,-6,18,-35,-23,1,-16,-16,0,58,-71,28,-90,-26,5,-45,15,13,9,16,14,37,-100,48,-63,-31,47,-67,45,9,1,34,0,38,-81,47,-38,-56,84,-70,52,-28,26,19,0,19,-58,45,-58,-79,100,-60,-89,-11,121,-4,-49,71,25,-79,-43,7,41,84,-60,-7,74,0,-64,72,64,-52,-1,21,37,74,-27,-15,-18,56,-49,48,80,-36,3,39,3,69,-19,-21,-82,73,9,52,117,-17,-9,-11,2,81,-22,-17,-61,43,83,66,66,3,-57,33,29,96,4,-2,-18,25,100,86,63,40,-60,51,25,126,-2,-28,37,-7,57,106,52,15,-53,-24,7,127,-52,-22,71,-52,42,63,38,-12,-21,-40,3,103,-40,5,28,-62,18,41,-1,6,-3,-7,-8,108,20,18,-25,6,4,30,11,36,110,19,-22,-25,20,-5,-38,19,6,33,18,22,127,-25,0,-61,18,-11,-36,62,-15,39,31,0,117,-50,22,-89,14,-10,-46,91,-40,59,-18,6,73,-66,-4,-77,12,-12,-36,97,-52,75,-82,7,4,-65,-15,-52,6,-19,19,79,-34,89,-109,18,-25,-39,-6,-13,-1,5,62,69,-29,100,-86,2,-84,-18,4,9,5,12,104,34,2,85,-62,29,-70,-16,-31,23,-6,25,110,16,58,66,-64,60,-33,12,-15,60,16,17,19,5,51,43,40,22,-2,60,-21,-12,2,3,12,6,3,35,12,39,-2,74,12,-6,-8,2,-17,2,-27,62,5,89,3,50,22,-7,-19,3,-16,28,-24,85,-9,127,23,28,17,8,-28,13,-8,55,-23,95,4,119,24,46,26,14,-29,9,9,65,-16,103,-16,63,13,31,11,21,-22,3,26,78,-3,99,2,35,20,72,9,40,3,-3,50,60,29,98,-11,22,14,114,16,57,15,-15,65,40,70,111,27,6,13,114,-9,43,23,5,6,-42,17,-39,9,-23,-1,-20,-52,25,24,23,-7,-35,5,-25,6,5,16,-35,-53,41,14,16,-36,-33,-3,-12,-25,1,39,-18,-43,34,23,7,-17,-35,-25,-11,-41,-20,23,8,-13,9,19,1,42,-20,-44,10,-41,-22,17,48,33,-29,-51,-2,57,20,-23,21,-17,8,15,55,31,-26,-127,-28,52,34,1,19,-6,4,10,51,36,13,-72,-15,47,15,7,2,-30,-33,-30,-1,22,-6,-17,-8,6,3,23,-13,-66,-23,-20,-43,-46,-34,-5,26,-29,16,-14,42,44,25,91,29,73,54,1,27,-28,13,19,25,63,27,85,26,53,48,1,10,-17,11,33,16,44,13,74,24,50,19,-24,-2,-23,11,50,38,56,25,63,23,25,-8,-32,-33,-36,19,42,73,43,-6,32,16,10,-33,-44,-32,-46,10,41,109,47,-12,9,44,0,-30,-28,-3,-42,8,27,86,-6,20,-65,46,-13,-18,-23,10,-28,9,5,77,-35,45,-106,24,-28,-3,-19,9,-9,31,-6,77,-53,62,-127,20,-44,21,-69,36,106,52,-24,86,-73,74,3,23,37,127,-41,22,81,66,57,73,-48,106,-35,23,65,82,-22,36,35,52,49,53,-13,83,-80,-35,29,79,-3,20,37,61,30,44,-3,54,-32,-17,30,31,-8,1,5,40,-11,59,37,14,1,-44,-14,12,-14,-52,-20,31,6,87,79,50,24,-54,8,-54,8,-28,9,85,29,73,66,63,6,-69,65,-47,15,7,43,79,35,91,18,33,-38,-96,90,4,19,7,14,99,54,54,-12,64,-38,-84,111,33,-54,-20,49,16,70,11,-110,-28,-35,-11,-43,33,-35,-2,38,47,55,23,-102,-21,-27,36,-3,39,-19,0,17,69,54,45,-79,-23,-17,42,-23,27,3,-18,14,73,55,62,-75,-16,-19,37,-21,35,13,-20,12,71,33,42,-43,1,12,29,-47,17,4,-20,13,80,3,14,-15,9,-4,54,-41,-28,6,-8,-4,49,-44,13,22,70,-17,15,-48,-83,1,0,22,19,-41,33,-5,83,-25,12,-80,-127,-13,18,22,-4,-17,54,-13,114,10,31,-85,-113,16,-10,30,40,31,45,82,-66,2,-25,-50,-20,7,14,24,24,9,59,39,-15,-1,-2,-24,-16,-1,12,22,16,-22,60,-25,6,0,25,5,-40,-11,19,54,10,-54,42,-60,50,-30,54,29,-47,-24,28,82,19,-67,24,-103,98,-17,95,61,-54,-36,39,92,25,-61,-14,-127,114,0,64,52,-65,-21,24,87,30,-66,-43,-105,118,-13,18,33,-57,3,4,93,26,-48,-23,-76,85,-10,-55,17,-79,28,-32,62,25,-23,-9,-55,90,-3,-117,-15,-92,-11,-5,18,-12,26,72,57,27,-4,45,-35,45,-13,-24,-24,8,75,53,70,32,-13,18,-81,97,-14,-38,-30,14,116,53,84,10,-43,-8,-95,127,-19,-42,-30,9,108,84,88,8,-92,-6,-97,116,-28,-40,-8,13,63,121,83,-3,-121,4,-69,121,-19,-23,38,6,1,127,45,28,-84,-16,-25,52,-4,-9,80,-4,-32,110,26,34,-38,-27,16,-7,11,6,103,-28,-49,66,11,39,-22,-43,59,40,21,9,97,-35,-8,29,-15,8,6,-10,52,56,-12,-21,15,64,74,-14,71,6,-127,21,30,-29,-6,10,-20,46,70,-55,49,-16,-89,9,33,-34,-2,19,-26,38,57,-53,56,6,-66,19,-14,-3,-5,13,-27,51,38,-40,31,43,-68,15,17,33,-19,37,-29,62,36,1,-13,98,-72,-3,23,67,-40,28,-17,45,27,51,-81,91,-41,1,2,72,-26,37,-6,-9,13,96,-81,93,-8,-6,-3,35,-21,34,30,-35,5,118,-68,37,32,1,-20,-8,-13,36,71,-3,15,119,-23,3,45,-11,-35,-55,4,10,7,-87,0,34,8,42,7,-8,43,64,-36,-49,31,-6,38,68,-54,29,-3,21,70,17,-45,-77,-5,72,16,83,-72,13,-13,16,45,11,-16,-61,-6,119,28,119,-81,-7,-19,41,6,29,2,-41,18,116,30,127,-31,20,-23,29,-33,-6,-13,9,37,62,16,65,-27,0,-31,48,-59,-36,-11,53,26,50,1,20,31,-5,-26,62,-25,-18,-1,65,-13,9,-3,-34,17,8,-20,66,8,9,-11,36,-43,17,8,2,6,39,21,96,31,62,-40,-80,80,11,67,35,4,-66,15,2,37,71,-102,-42,74,30,54,54,-44,-59,-11,6,50,62,-95,-18,-3,26,15,75,-42,-37,-50,26,20,86,-61,22,-120,54,22,66,-58,-31,-36,55,10,86,-34,44,-127,59,22,14,-24,-46,-30,99,1,91,-8,47,-54,66,25,15,-15,-32,-46,113,-34,69,29,22,36,96,-13,0,21,-8,-34,43,-45,22,36,-25,18,95,-75,-2,78,36,17,2,-62,-57,34,-23,-34,92,-95,12,75,73,89,-47,-73,-109,-16,57,-20,7,109,45,-40,36,49,-39,-9,1,-11,51,-11,-5,70,53,-28,22,73,-51,25,-11,-7,42,-27,-14,52,41,-19,2,82,-62,37,1,6,49,-6,-15,41,47,-46,-17,98,-75,36,0,16,50,-2,-21,41,65,-41,3,97,-76,30,11,6,51,12,-23,36,81,-61,5,76,-54,42,2,-16,36,15,-24,31,106,-103,-10,59,-45,33,-4,-19,19,2,-22,61,121,-118,-15,33,-23,30,-5,-14,3,-24,-30,94,127,-109,7,37,-2,48,-9,12,-14,90,17,-59,109,-12,54,48,32,-13,-15,16,-20,66,3,-13,105,-27,73,50,16,-51,-8,21,-10,49,-12,36,107,-22,52,41,30,-70,28,22,-15,25,-18,61,111,-35,40,12,-2,-93,46,18,-34,20,-17,78,99,-25,39,-39,2,-113,102,5,-45,9,-14,89,73,-29,35,-87,7,-127,88,-16,-52,-1,-11,79,75,5,37,-116,0,-126,70,-25,-47,0,-18,43,77,5,45,-96,-31,-103,53,-14,-42,6,-23,5,76,-5,50,-57,-43,-56,-11,35,-55,8,-29,90,-31,18,-45,17,-13,-42,19,12,-52,-4,-29,55,-12,7,-3,24,-4,-39,28,-4,-9,19,-24,22,-25,-33,23,-13,-3,-20,44,-21,24,24,-41,-38,0,-83,44,-59,3,-23,59,-6,51,42,-33,-88,-2,-113,61,-43,-13,-26,26,11,26,51,30,-32,2,-69,85,18,-42,2,-17,-20,-15,6,83,42,25,-34,64,21,-75,42,-18,-35,-8,-13,69,43,107,47,63,21,-64,52,-8,-3,7,23,6,10,127,56,71,20,-55,46,-32,-1,19,-89,-7,-14,67,13,29,46,63,35,127,-12,9,-67,-17,-15,52,43,10,38,40,24,69,-6,27,-40,7,22,31,26,18,29,38,0,45,-3,23,-13,8,13,23,18,11,1,29,-11,20,-2,26,9,3,21,16,8,22,-9,53,-2,27,-5,33,23,12,31,1,-9,35,-22,86,-8,31,-2,26,17,20,49,6,-22,31,-23,79,-35,52,4,0,-11,-12,58,16,-2,32,-46,94,-7,62,27,-30,-44,-32,42,70,22,48,-31,113,19,83,-8,39,-21,17,32,69,101,-45,-7,-20,0,116,2,61,-5,11,30,87,84,-42,0,-28,-11,65,9,68,-16,19,10,81,44,-33,7,-31,-36,46,8,78,-24,26,-11,82,44,-22,14,-30,-36,45,17,66,-26,11,-30,87,50,7,14,-4,-17,52,16,49,-31,4,-41,72,41,16,-10,14,-6,53,3,29,-29,-3,4,67,31,14,-45,19,15,59,0,6,-25,10,41,65,56,25,-67,6,38,97,-4,-8,-38,5,79,58,67,23,-69,-20,51,127,12,-50,32,-16,-24,102,0,50,55,34,41,127,33,-55,31,-20,-38,79,17,55,34,28,38,82,24,-54,5,-14,-17,68,37,78,18,16,26,65,26,-69,-12,-10,-28,76,10,74,57,15,30,39,16,-58,-18,-13,-44,85,-7,45,39,15,8,7,16,-57,-21,-5,-23,89,14,46,59,29,18,6,13,-31,13,-1,3,77,23,27,32,33,25,2,-5,-12,63,13,40,66,2,4,6,35,-10,18,-10,-14,91,23,76,83,-10,26,21,23,-11,72,3,2,32,53,-55,127,-41,36,-42,-40,10,14,-16,-4,29,75,-18,99,-17,-13,-3,-83,21,2,-39,-4,18,69,-6,66,16,32,-8,-57,30,63,-11,25,9,-5,-22,20,1,31,-40,9,51,71,14,44,58,-38,-24,-20,-39,-13,-73,75,57,48,8,54,78,-16,-2,-41,-14,-22,-79,60,43,71,-16,48,57,33,34,-28,21,-29,-51,0,19,59,-27,27,49,67,82,-16,43,-48,23,6,1,80,0,13,60,59,69,4,40,-35,28,14,-75,66,-16,34,-9,29,14,111,9,14,-8,52,-50,60,-18,30,-18,24,6,111,-19,-12,5,43,-68,53,-21,15,-23,3,15,127,-18,-38,11,57,-78,67,-9,-3,-18,-17,21,77,3,-57,-7,58,-58,56,-6,-7,11,6,34,48,17,-44,-26,68,-41,26,-9,-7,34,26,34,42,-9,-55,-36,36,-33,9,-12,0,28,47,31,65,-9,-29,-6,30,-11,-1,-4,-8,36,54,23,59,11,18,33,47,12,3,14,8,40,66,-7,33,5,44,3,41,-1,-36,-1,71,-25,61,-53,29,-100,63,16,20,-17,-78,4,24,-31,58,-65,46,-93,29,11,-36,-65,-84,10,-25,-25,98,-21,44,-52,19,-1,-7,-27,-51,11,-54,-6,97,30,28,4,52,-7,6,16,-15,13,-58,16,81,64,18,58,91,-15,14,35,43,12,-49,28,55,52,24,55,100,-19,18,37,52,8,-37,-8,38,36,37,29,102,-2,29,33,51,16,-23,-13,24,37,50,7,125,7,47,16,45,13,-19,0,-17,51,69,-14,127,-22,17,-4,-4,-11,11,45,-6,-10,101,-13,37,-39,56,33,-37,-20,-3,23,-20,0,67,-38,50,-69,31,8,-44,15,0,1,-1,-24,5,0,19,-48,-29,-3,-84,2,9,-11,69,12,3,43,5,13,-83,-19,-99,-55,-10,-71,127,64,49,88,31,47,-89,-43,-70,-47,-20,-35,76,45,68,76,37,11,-93,-56,-26,-1,-6,29,-25,1,41,11,48,10,-13,-45,-42,39,30,82,-94,-5,-2,-59,24,25,26,13,-36,46,40,105,-90,-7,-51,-56,-10,-23,36,12,-1,-2,61,-35,14,127,-5,-9,-107,-37,-80,-77,-62,-20,31,-30,29,107,10,-22,-82,-1,-41,-49,-74,-39,12,-13,26,98,23,-28,-53,15,-36,-64,-80,-31,2,30,8,94,47,-32,-21,2,-26,-67,-84,-16,0,48,0,75,48,-44,-10,2,-40,-53,-61,-9,9,76,11,62,44,-17,-12,9,-60,-37,-56,-41,2,47,37,100,33,16,-36,41,-54,-50,-53,-70,4,21,46,116,43,75,-42,42,-47,-68,-28,-49,13,12,22,118,73,77,-50,3,-46,-81,0,-14,-18,-13,12,65,127,48,-40,-42,-28,-100,1,-13,-23,-24,22,74,78,62,-34,-66,-25,-106,16,-6,-14,-19,26,78,42,82,-29,-60,-35,-94,60,-10,-16,-8,23,75,32,66,-17,-46,-45,-72,97,-19,-9,1,16,45,50,35,5,-20,-25,-32,91,-27,1,-9,13,30,86,-14,12,-33,-23,1,68,-22,21,-39,-7,10,123,-68,7,-26,11,16,16,-3,27,-31,-12,-9,120,-96,18,-42,17,38,-9,6,41,5,0,-42,110,-101,-2,-23,45,47,-34,-17,-10,26,57,13,15,-47,17,17,123,-67,-14,-45,3,16,53,0,23,-52,20,1,103,-62,-33,-69,10,15,31,2,15,-80,32,-14,101,-69,-22,-64,14,3,31,1,13,-94,46,-43,91,-77,-32,-43,19,7,21,13,7,-70,30,-78,91,-60,-43,-24,15,14,18,20,19,-41,15,-72,90,-53,-53,-31,6,8,16,14,34,-7,2,-82,69,-48,-47,-49,-2,5,19,13,26,17,7,-114,55,-58,-30,-47,-4,-4,13,12,16,1,0,-127,27,-60,-10,19,49,-49,-8,-7,57,14,0,27,81,-37,120,18,30,-43,-36,7,49,23,-3,1,67,-61,86,23,24,-42,-40,19,44,13,2,-12,69,-68,64,21,22,-42,-29,13,33,-14,3,-49,59,-76,41,17,14,-48,-6,26,30,-22,8,-46,67,-77,27,11,12,-42,12,49,22,-20,15,-23,97,-66,31,9,21,-30,20,57,24,-13,12,-27,106,-80,53,11,13,-37,18,72,31,4,27,-20,112,-55,56,26,20,-55,20,58,45,-4,49,-16,127,-29,60,2,-39,-16,-15,9,25,-108,-101,-102,-86,110,-73,-6,-19,11,-1,9,25,-113,-83,-66,-84,58,-50,1,-8,30,19,13,32,-127,-67,-54,-49,59,-61,-10,-7,28,14,18,50,-114,-37,-38,-37,39,-34,17,2,30,-15,9,23,-104,-39,-70,-44,2,-15,20,21,24,-29,-22,13,-85,-45,-61,-44,-45,-9,11,15,21,-30,-42,7,-70,-43,-42,-33,-77,18,14,-20,-1,-31,-59,26,-44,-62,-3,-39,-33,38,2,-54,-3,-33,-66,23,22,-79,-24,-46,19,63,-12,27,12,47,8,89,10,45,-74,-8,-52,-104,-17,37,43,73,39,113,2,73,-55,-4,-58,-97,-25,49,66,74,45,86,20,92,-54,2,-72,-68,-18,50,86,89,49,73,14,85,-45,-18,-86,-54,-14,31,79,105,62,95,25,58,-14,-53,-75,-45,-3,7,52,100,85,109,52,53,3,-76,-53,-48,-12,-1,6,76,62,109,91,42,12,-50,-48,-33,-55,-16,-48,69,35,127,112,62,-22,-77,-43,-7,-28,-11,-75,34,-16,112,83,74,-40,-44,-91,17,2,15,-47,74,-57,91,5,47,-57,1,31,5,-12,23,-19,64,-61,115,-11,27,-60,-30,-24,2,-20,19,-7,46,-40,116,0,25,-50,0,-35,-5,1,10,12,8,-43,113,-20,19,-59,71,-33,-13,7,29,56,-14,-45,76,-22,-12,-54,108,-19,22,1,42,46,-4,-41,70,-29,-39,-59,127,18,46,-4,43,11,21,-12,67,-13,-48,-61,100,15,57,-6,54,-14,49,30,46,25,-33,-45,93,10,76,-9,40,-25,79,34,71,61,15,-13,68,31,64,42,5,-23,-11,-90,60,-127,22,-71,68,-46,35,30,46,33,-42,-85,8,-80,15,-44,58,-49,-3,-7,31,52,62,18,-6,34,14,-2,10,-5,-33,-57,-2,-13,117,85,51,110,14,29,-27,35,1,-20,-8,-30,34,67,29,77,-26,28,-41,-42,27,11,-27,-4,-19,5,35,-1,-11,30,4,-87,10,16,-2,24,-10,-26,47,-85,8,-24,52,-82,-24,7,11,22,2,-35,51,-84,11,-29,68,-9,-13,-13,20,-6,19,-12,10,-68,12,-67,58,16,8,29,23,8,14,-76,77,-29,31,-36,85,57,-10,28,14,20,23,-25,86,-12,32,-31,50,57,2,31,21,36,32,14,88,13,36,-16,33,69,0,38,16,29,39,27,72,7,22,34,27,78,12,28,14,6,40,12,65,24,6,91,10,77,-1,33,3,-5,64,-10,65,50,0,127,3,94,-4,32,1,3,81,-23,56,41,-19,82,-5,83,-13,39,2,12,67,-44,47,32,-43,80,-19,81,-12,47,-3,36,56,-55,27,-7,-50,54,-22,77,5,-42,12,127,4,20,32,78,13,25,-28,-22,33,-45,19,86,-22,-14,-12,69,37,30,-51,-35,32,-41,23,-2,-17,-49,-28,62,33,55,-48,-38,-6,-21,-8,-54,19,-27,12,24,47,28,-38,-19,7,-7,-19,-13,21,-2,36,-39,35,-27,-4,-21,5,5,4,44,12,23,42,-22,47,-38,22,-10,36,8,-4,34,18,20,24,-30,35,-28,-50,8,66,17,-16,-4,14,-3,21,-44,-1,-42,-61,9,54,15,-3,-14,25,11,40,-76,-4,-19,-41,26,56,21,-1,26,-12,0,73,29,16,33,-24,12,-20,28,-23,-20,-13,-12,43,40,22,1,-14,37,4,37,-41,-63,8,-16,46,33,22,-21,-28,9,7,36,-19,-51,7,-10,54,-22,24,-9,-9,-25,2,35,30,17,-12,-15,63,-61,-14,-18,16,-34,14,3,51,105,7,7,30,-39,8,-36,12,-59,51,-35,29,127,49,69,-1,-32,22,-68,49,-77,66,-46,11,89,49,74,-15,-21,40,-65,73,-59,47,-22,-9,14,35,-8,-16,4,36,-40,24,-51,33,-34,19,30,31,8,85,-16,102,99,22,38,73,-34,19,28,7,13,127,-17,86,64,-22,-13,96,-9,17,31,-24,-5,120,-9,62,27,-13,-58,94,16,22,43,-54,-44,123,-21,25,17,-28,-78,80,22,26,49,-62,-50,116,-10,13,8,-29,-96,71,19,38,79,-49,-23,97,-9,-20,24,4,-104,52,28,28,46,-58,8,92,11,-50,30,68,-80,34,35,5,37,-71,25,60,50,-68,-4,68,-66,38,35,-29,38,-66,1,24,76,-67,-42,124,-43,53,56,41,41,-2,13,65,17,127,-21,59,15,6,32,26,26,-1,8,47,7,88,-11,38,25,12,24,22,22,-2,4,36,-6,58,-10,44,39,5,21,22,21,-7,6,27,1,39,-37,26,54,-19,21,13,29,-12,-1,22,-7,28,-68,12,54,-21,25,10,36,-13,9,10,-10,9,-56,28,32,-21,26,18,38,-20,11,27,23,14,-40,61,28,-18,34,2,35,-16,17,23,28,36,-69,64,21,-18,57,21,50,-12,20,35,26,60,-97,101,3,-26,76,89,44,16,35,100,64,81,-53,97,-44,-24,54,54,29,15,10,76,33,49,-47,78,-21,-33,49,51,31,18,-5,55,14,20,-27,81,15,-32,45,51,30,18,-11,53,27,2,-41,63,42,-52,35,40,48,19,-14,30,14,18,-69,58,55,-57,38,31,52,16,7,45,5,-12,-65,58,53,-59,46,33,57,5,0,61,23,9,-46,67,32,-66,49,42,44,-3,1,51,39,16,-66,75,-1,-82,78,69,47,-9,8,52,45,48,-85,127,-34,-102,2,-9,28,-45,-13,127,19,76,74,-56,-24,105,-1,-23,33,-16,8,68,10,63,66,-16,-3,93,-1,-7,47,10,19,68,5,94,60,-58,1,70,4,-20,43,18,-5,51,-7,100,45,-16,1,51,10,-30,31,37,-25,46,-18,82,27,19,-2,49,-7,-20,15,51,-44,41,-6,75,32,54,5,50,-16,-20,15,74,-48,9,-1,64,63,101,13,70,-31,-31,14,94,-42,17,28,46,66,119,18,66,-30,-39,30,98,-60,34,30,-9,48,82,32,59,13,2,-20,1,29,44,-20,85,26,11,37,44,16,11,-14,9,-7,33,-42,102,27,23,20,46,10,18,-14,12,-23,58,-46,127,43,49,25,49,-3,9,-17,9,-18,73,-35,59,0,19,12,21,-12,1,-11,22,11,46,-8,32,-24,10,13,-15,-11,-1,16,14,26,18,33,-20,-57,-29,-5,-27,-1,-6,17,23,52,-13,66,-40,-58,-50,-24,-38,9,9,23,32,73,-16,71,-40,-43,-70,-57,-38,-1,10,26,37,76,20,71,-44,-39,-54,-76,-30,-3,-10,-39,-13,-4,43,7,4,3,2,28,127,8,-21,-37,-23,-24,49,11,15,1,-39,9,62,0,13,-33,-8,-15,24,-3,8,-4,-64,-50,14,-2,38,14,10,-1,11,15,31,1,-33,-54,8,-24,46,42,31,6,13,26,51,3,20,-43,-5,-17,21,11,28,35,9,39,22,-2,33,-23,15,-9,12,-3,6,31,27,36,27,-2,38,-12,42,2,-22,-27,-23,22,43,60,34,7,15,-17,69,16,-53,-39,-38,0,91,75,19,2,-12,-26,104,29,-12,-65,-15,4,77,39,-52,-87,-14,78,116,18,16,-49,-7,4,70,6,-32,-73,-23,52,80,9,42,-31,17,32,70,-18,-2,-44,-19,23,15,-11,55,0,27,31,64,19,61,10,56,0,-22,-2,56,12,37,33,75,34,85,34,112,21,-32,-3,40,3,23,32,56,38,44,47,86,34,-7,2,22,1,8,21,31,52,-2,-3,56,63,24,17,11,-7,-8,30,33,83,-41,-29,-9,61,53,25,-21,-34,-31,6,53,115,-64,-36,-73,52,127,45,-59,50,-3,58,21,25,-24,122,-43,57,-5,39,-18,69,12,34,29,0,-24,112,-44,16,-10,25,-5,44,6,13,23,-22,-10,64,-39,-28,-11,-7,-7,10,-3,8,9,-21,48,-5,-5,-15,-3,-22,-20,-20,-16,18,0,-30,98,-85,-23,1,10,-27,-27,-40,2,18,38,-26,127,-66,-19,27,18,-25,-21,-21,30,3,44,-17,100,-66,-18,15,0,-23,-24,2,37,-6,74,22,54,-50,-20,14,-8,-1,-22,38,-14,14,80,8,19,-50,-35,-23,5,9,9,-55,-6,26,85,-34,31,101,-68,25,52,-32,-33,33,26,-11,110,-78,55,68,20,45,100,-49,-106,68,94,-3,82,-71,78,32,76,41,76,-37,-116,84,127,-9,35,-61,49,14,78,37,49,-2,-71,35,83,34,5,-44,29,-16,104,11,-39,10,-6,10,50,87,-10,37,10,-53,64,-11,-44,28,50,-3,26,82,-4,105,26,-77,38,-27,-19,33,72,-28,14,73,7,84,9,-112,5,-1,34,36,79,-52,-27,51,59,98,-30,-119,-15,34,115,-2,41,21,-3,-24,39,-122,65,-65,-63,-21,54,26,18,16,32,-16,20,-99,82,-55,-71,2,80,41,12,42,44,-33,13,-85,72,-23,-75,11,81,43,24,41,55,-47,-18,-48,50,-9,-77,39,110,22,26,52,45,-63,-34,-16,2,-5,-84,43,123,20,17,58,60,-64,-31,40,-14,47,-98,-3,106,-1,8,48,59,-63,-27,84,-7,88,-115,-21,81,-19,-5,41,42,-47,-20,74,6,108,-127,-41,43,-31,8,47,29,-19,-14,24,50,118,-109,-43,6,-31,14,30,49,23,125,16,-30,-46,16,-125,-49,-27,3,44,31,2,97,27,-32,-84,-3,-98,-54,-11,12,35,22,15,95,10,-23,-96,-22,-83,-49,-1,20,23,20,23,82,17,-6,-111,-24,-77,-44,8,19,15,16,28,90,14,1,-89,-29,-89,-51,20,21,13,16,23,96,16,9,-77,-33,-110,-40,22,18,30,18,23,72,9,24,-84,-30,-100,-35,11,2,60,26,46,77,-3,21,-83,-18,-110,-38,2,-4,115,29,55,71,-15,38,-69,-1,-127,-41,-44,59,117,12,-97,65,-80,90,-20,73,58,88,-4,48,92,44,14,103,-32,82,-6,62,67,79,10,18,31,60,37,72,22,94,-41,19,62,55,19,-14,-41,55,-16,37,-2,77,-3,-2,71,32,7,-15,-87,24,-37,98,4,-4,23,-22,39,-7,2,6,-45,14,-5,127,7,23,45,-6,42,-64,24,-10,21,47,32,121,37,25,4,-66,80,-85,-11,-2,68,63,48,110,52,12,-3,-111,68,-54,0,-25,66,95,34,96,5,41,-39,-90,36,-33,-7,71,80,-11,-83,18,26,36,-103,39,15,27,-25,10,28,4,57,11,85,43,-24,10,-23,59,-25,-4,-26,47,123,22,59,-9,-31,-20,-71,47,-19,-47,-56,77,103,30,40,-16,-47,-43,-113,36,0,-93,-62,56,21,27,-26,-28,-58,-30,-111,41,-8,-66,5,43,-87,61,-37,-17,-101,33,-57,37,9,6,80,8,-119,94,-25,-13,-70,52,-53,34,2,71,127,0,-80,76,28,9,-20,21,-9,72,-7,66,113,-1,-21,24,47,84,48,-43,6,88,4,11,18,49,-5,54,-83,51,41,127,60,55,0,8,-15,28,39,74,-44,16,29,77,26,54,11,7,-9,-10,49,76,-10,-10,12,38,-20,50,16,-17,-18,-13,64,71,65,23,-29,15,-87,41,8,-23,-18,13,92,38,99,57,-92,3,-107,83,-12,1,-15,53,62,59,112,103,-100,-42,-107,97,-25,8,-32,51,11,103,85,116,-52,-68,-104,62,-27,18,-33,13,-20,115,53,116,12,-26,-78,12,-6,10,-34,-10,-31,76,1,105,-4,9,-36,-49,-9,3,42,-6,40,59,50,54,5,34,-42,-19,-9,-6,32,9,12,37,24,56,9,49,-20,-10,-4,-5,20,17,-16,37,6,77,17,49,-19,-25,-13,-2,4,30,-34,35,1,71,14,29,-4,-29,-19,0,-22,43,-37,34,4,79,9,62,9,-15,-22,-11,-32,39,-49,24,-19,24,-10,71,9,5,-29,-20,-17,37,-60,16,-19,9,-13,98,13,35,-20,-14,3,43,-43,6,-29,0,5,127,35,41,-33,-13,6,39,-41,14,-7,-9,25,116,38,32,-40,-23,20,15,-59,83,2,78,-27,-30,124,91,-10,-25,45,12,-9,83,52,98,-8,2,117,89,-16,6,11,-7,-14,34,59,92,-2,-12,93,38,-10,24,-29,-22,-50,-22,54,76,22,51,38,22,-12,28,-45,-18,-78,-20,20,99,54,56,39,12,-17,22,-23,-20,-58,22,42,124,43,53,49,5,5,9,6,-1,-42,45,52,95,24,42,59,-17,-8,-16,37,7,-33,66,67,95,48,3,56,-17,-32,-12,33,51,-15,127,97,103,26,-43,103,-1,-31,0,3,74,-103,84,-85,21,76,53,-15,-6,-5,34,10,81,-94,57,-78,20,34,58,-8,-9,8,44,29,69,-64,58,-58,8,39,59,-17,22,2,36,25,74,-25,81,-45,-7,27,75,-26,17,-15,4,-5,52,43,65,4,36,4,96,-38,67,-11,-21,-16,9,83,39,21,37,-12,81,-76,93,-2,-66,-40,-47,83,81,66,60,-29,31,-127,110,-3,-84,-36,-59,77,84,96,55,-52,30,-113,64,-19,-78,-39,-46,61,52,88,64,-45,15,-42,65,2,15,42,71,87,127,118,38,81,91,36,0,-18,-9,30,49,86,76,106,81,99,69,48,4,-43,-17,2,25,56,59,99,56,103,69,73,23,-41,-14,-16,18,34,42,69,65,75,58,86,24,-33,-8,-8,12,7,-3,-14,54,49,40,65,29,-13,2,2,-2,-40,-15,-47,31,31,2,69,19,-7,12,-22,5,-37,-35,-45,19,13,-46,35,2,3,6,-12,9,-36,-15,-57,-2,-8,-32,-1,-27,1,-9,-18,23,-1,14,-20,13,-44,-52,-26,-62,-11,7,5,-10,-28,-20,-69,-11,-26,127,6,33,4,5,6,-15,-2,-10,-69,-8,-27,106,-20,37,18,4,10,-39,-2,7,-76,-2,-3,92,-27,17,13,14,2,-27,-1,11,-49,-2,23,92,7,11,4,24,-7,-3,-3,28,-17,-22,52,63,22,-18,5,10,-14,20,6,58,14,-39,93,41,6,-44,12,-8,-12,67,8,90,39,-35,104,30,3,-76,-2,-22,-6,82,11,87,72,-4,103,9,-8,-58,-5,-13,24,76,3,77,64,15,62,4,-37,-35,6,11,0,21,109,67,58,-91,-127,-12,11,89,3,28,56,17,62,30,22,-67,-95,-6,21,80,10,15,78,17,26,49,22,-33,-42,16,18,48,12,-5,51,43,-26,61,16,-6,-26,29,45,25,12,-14,-12,45,-34,36,-24,51,14,38,70,-26,6,0,-21,37,-31,24,-53,94,33,52,23,-65,2,20,-9,8,-50,42,-55,82,42,7,0,-71,-3,35,21,-11,-68,35,-7,75,65,-1,-19,-79,-16,50,21,-27,-71,22,27,96,101,-10,-35,-96,-28,-10,-32,9,24,65,-43,-18,15,45,7,117,3,-27,-48,-10,-13,68,-4,-19,40,-5,12,76,11,12,-52,-7,-29,44,30,-4,35,-49,-33,32,3,52,-13,6,-26,36,22,15,32,-31,-54,22,-7,74,18,6,-34,38,57,50,-7,8,-35,33,-31,40,8,34,25,40,77,46,-11,53,-12,58,-31,22,-19,30,59,51,72,30,-8,46,-17,68,-9,-8,-47,2,38,60,89,26,25,34,-20,91,29,-30,-62,-25,-7,99,50,37,67,2,-21,127,-3,16,20,26,-9,34,-102,40,14,103,9,-20,4,19,-16,6,-3,54,-69,45,28,48,-29,-20,0,23,-22,-16,-1,69,-14,27,34,19,-49,-32,-4,12,-27,-10,30,66,45,47,-9,11,-76,-10,0,-9,-31,-1,53,53,85,78,-78,-8,-99,22,-7,-12,-20,9,51,53,110,110,-91,-27,-78,66,-16,1,-18,6,19,55,82,119,-63,-38,-67,73,-17,11,-24,-12,2,44,59,127,-40,-8,-33,59,-17,16,-15,-23,-4,32,21,123,-22,23,0,44,-12,3,-15,47,12,79,-6,85,-16,78,-6,45,-15,8,-20,18,16,90,-18,78,-23,55,-31,31,-11,21,-9,-18,12,94,-30,65,-38,35,-36,34,1,21,-10,-35,-4,75,-30,44,-49,24,-40,21,-7,16,-10,-28,-7,74,-31,13,-54,39,-28,18,-15,7,-4,-18,-8,97,-53,-34,-27,36,-12,3,-12,-4,1,-3,-9,127,-59,-40,-2,69,-7,-7,-4,-13,-8,4,-12,104,-37,-17,1,85,5,-17,7,-13,-14,8,-15,59,-24,16,-27,75,-7,-40,-33,-42,-12,2,-1,29,9,25,61,7,-14,127,-9,-53,-18,-27,-19,63,-3,33,56,-25,-22,88,4,-56,-5,-28,-16,53,-16,29,30,-33,-28,51,-5,-41,21,-19,3,44,-23,44,12,-29,-32,12,0,4,47,-6,32,33,-16,66,-17,-13,-8,20,1,33,54,11,32,2,25,72,-33,5,10,33,13,42,40,4,23,-5,33,61,-46,32,-2,37,18,42,22,-23,32,12,46,50,-55,19,14,73,25,42,5,-47,8,20,58,44,-71,-13,21,84,-7,8,-26,32,-5,70,8,49,24,66,70,1,-4,13,-13,20,8,62,-15,44,-43,62,53,-3,16,11,-1,5,-12,38,-37,19,-106,87,38,-14,18,11,11,-5,-31,29,-56,5,-125,112,43,-53,9,20,12,-3,-34,31,-54,-8,-105,126,62,-63,9,22,-4,6,-35,40,-62,-26,-72,127,60,-76,6,21,2,15,-22,55,-73,-39,-45,102,60,-69,19,22,-6,15,-23,73,-33,-39,-29,72,32,-75,25,-1,-6,33,-18,89,-10,-27,-38,86,15,-58,-68,13,35,35,39,57,112,27,16,90,-54,27,-57,15,50,9,22,66,76,-4,-31,86,-60,48,-28,30,50,0,14,71,63,-58,-30,31,-43,48,-17,33,57,6,9,46,63,-87,-22,-19,-69,37,-10,37,53,3,28,35,76,-72,20,-44,-112,34,-17,33,44,5,57,40,64,-58,37,-15,-127,42,-28,24,33,2,65,30,31,-39,28,71,-94,41,-6,25,58,13,47,45,22,-31,-22,113,-92,40,-11,9,62,27,-8,43,42,-10,-41,97,-114,3,-82,-33,7,-10,39,80,-78,107,-95,-51,56,12,-36,-45,-4,1,44,74,-43,84,-75,-43,32,32,-28,-14,-18,-5,20,40,-6,44,-84,-2,14,-9,-23,32,-40,-7,-4,7,14,95,-37,35,14,6,-13,40,-45,-12,-31,20,17,110,-1,52,30,-10,-17,17,-17,15,-9,62,-5,127,30,54,71,-7,8,-26,-9,26,-21,38,32,102,32,15,53,-30,5,-19,-4,32,1,64,52,40,56,-23,34,-44,5,15,2,34,23,103,50,113,62,-21,34,-10,26,-20,67,27,-66,-13,-93,104,-33,95,-56,67,22,-16,55,24,-82,-15,-72,106,-77,104,-45,51,8,-14,62,20,-88,-5,-45,106,-74,109,-18,59,1,-10,72,3,-96,-2,-6,98,-84,77,-23,64,-9,-13,74,-3,-93,7,-2,93,-81,53,-17,74,-13,-22,76,-10,-91,9,-7,93,-96,64,-18,89,-11,-25,61,-3,-88,8,3,113,-119,44,-10,76,-27,-22,73,-17,-79,21,-7,127,-103,53,-17,79,-41,-15,62,-23,-87,16,-59,119,-70,50,-13,69,-11,-21,-6,-10,-68,21,-29,-26,31,14,36,2,-11,-15,4,-7,-50,43,-40,-27,1,25,16,9,4,4,33,-1,-53,36,-31,-19,-32,53,-4,10,6,6,57,6,-46,31,-27,-19,-56,63,-13,16,13,13,75,5,-31,31,-21,-16,-70,84,-16,16,12,23,87,25,5,16,7,6,-78,119,30,18,10,26,64,26,42,0,43,21,-82,127,34,14,14,34,25,16,50,-7,66,21,-80,95,51,21,21,29,-12,3,34,-15,62,21,-86,65,42,26,33,16,-25,30,-82,116,-48,70,-100,65,3,20,30,18,26,6,-66,82,-62,60,-111,46,-24,22,17,27,33,14,-43,68,-36,38,-97,30,-24,14,10,20,18,37,-29,56,-16,25,-74,11,-25,6,4,10,1,34,-22,63,-34,28,-82,-2,-24,28,6,14,8,22,-25,83,-38,22,-88,18,-20,20,24,21,24,15,-55,89,-78,13,-126,21,-5,40,40,33,31,13,-82,64,-71,0,-127,34,24,40,49,27,30,28,-83,48,-75,21,-105,33,33,50,11,12,-53,26,91,34,35,-1,-40,72,-46,67,19,5,-25,25,65,51,5,-14,-26,81,-20,89,6,1,-15,25,23,65,-8,56,15,85,-8,77,-10,5,-25,26,4,43,-16,94,36,79,17,42,-10,14,-12,20,-16,11,-22,121,43,127,28,-11,-19,13,23,-7,6,40,-23,66,18,74,23,-21,-9,18,79,-26,-23,52,2,31,15,-22,-21,-45,-17,7,116,-39,-63,47,26,5,29,12,-28,-53,-39,16,71,-6,-53,31,32,69,6,8,-24,-56,-4,-4,71,48,28,-1,13,-25,22,22,-1,127,-4,-10,85,31,22,-2,15,-35,-4,25,-12,99,2,-4,80,28,16,11,0,-38,-32,9,-27,63,16,13,55,27,5,11,-41,-26,-44,29,-34,50,13,12,47,43,-4,2,-56,9,-30,54,-25,66,13,17,23,40,-11,12,-39,27,-10,72,3,92,1,10,2,38,-18,-11,-22,58,-18,87,22,108,-7,5,0,27,-42,-19,-10,38,-38,83,33,100,-9,15,12,35,-65,-5,17,33,-51,55,35,90,9,66,-67,-9,22,52,80,38,-44,-53,-71,44,4,62,-30,-19,45,55,51,32,-39,-48,-17,30,-5,14,-4,-14,57,32,0,12,6,-15,32,32,-10,-40,-21,-4,54,55,-79,-13,0,9,40,3,-10,-64,-25,6,56,61,-110,-31,8,26,33,-11,-4,-71,-23,23,73,27,-127,-33,19,41,30,-14,3,-51,-2,44,57,12,-114,-29,6,26,-17,-24,-16,-25,11,23,66,2,-111,-45,-10,-3,-53,-37,-35,7,20,27,75,11,-98,-35,22,20,-35,-55,3,-50,8,50,20,79,35,-77,-65,32,40,-22,1,-71,46,53,-6,66,12,-65,-55,54,89,-35,-2,-64,77,96,-33,40,5,-49,-26,81,61,-38,-2,-40,81,118,-29,11,41,-17,-32,89,59,-36,-5,-25,41,92,-15,-11,37,-4,-45,66,55,-46,-21,-17,22,48,-6,-22,19,-4,-88,54,38,-42,-27,4,8,14,21,-10,16,-1,-110,-8,75,-31,-37,23,36,-31,48,-7,2,1,-127,-52,99,-57,-40,71,70,-83,67,18,-16,-20,-86,-104,103,-18,7,15,62,10,-7,18,-98,29,2,107,79,-40,18,23,34,6,5,14,-31,36,-15,60,78,-20,12,34,12,4,36,20,19,43,25,60,51,-3,0,24,-11,0,43,24,50,1,15,58,27,39,-13,-1,-31,23,36,22,84,-12,16,11,0,57,-14,-20,-33,92,17,55,86,2,-1,-15,-21,81,-10,-32,-37,108,-28,62,78,34,-4,-43,-30,44,-6,-46,-47,127,-47,58,65,80,18,-42,-19,23,-5,-18,-27,104,-34,97,24,95,34,-13,38,24,10,19,-60,69,-61,53,-18,25,50,4,14,-41,18,6,-36,67,-67,46,-7,8,40,-37,7,-58,24,21,-18,64,-79,33,8,22,38,-50,-1,-68,19,33,-7,79,-52,48,14,32,10,-70,-3,-62,-2,26,-4,98,-35,75,13,26,-2,-88,19,-55,-6,7,25,94,-8,99,9,29,-1,-69,24,-52,2,-4,18,72,1,127,14,42,-16,-46,5,-50,15,-3,22,21,-9,123,18,89,-14,-14,-15,-49,9,1,51,4,15,127,-3,101,-4,27,-35,-4,36,26,-40,-23,-99,110,-40,55,-11,30,70,83,46,24,2,-2,-53,127,-19,51,-19,29,62,59,35,34,-14,34,6,106,16,43,-9,15,69,43,39,29,-35,28,-5,75,1,41,15,21,79,39,31,14,-56,54,-6,104,12,19,67,-10,53,6,18,-1,-36,73,-4,86,52,10,90,-1,70,-3,40,-1,8,66,-26,104,41,-5,48,-24,95,3,40,11,60,69,-3,118,1,-12,24,-51,117,40,43,-12,81,54,1,104,-38,-24,34,-68,107,85,23,8,-28,59,59,15,-37,46,23,25,-28,-75,19,-6,-22,51,53,-5,-36,62,12,18,5,-38,17,-23,-13,55,36,11,-13,68,9,9,25,-14,8,-23,11,59,29,26,10,109,20,24,16,17,0,-17,11,68,29,21,5,127,14,30,41,30,-1,-12,13,59,23,28,-20,102,-8,50,63,17,4,-1,-1,46,30,34,-24,91,-2,46,48,-5,12,12,8,18,63,19,-21,91,-9,37,39,-15,17,42,25,-10,75,38,-34,75,6,24,4,-35,66,36,-50,-43,75,72,19,-22,75,53,61,12,55,39,-26,-20,82,58,25,-21,61,48,66,6,47,41,-14,-26,95,48,35,-33,21,51,73,3,58,39,5,-37,69,46,39,-43,-12,48,58,-10,57,22,25,-30,55,44,37,-36,-21,46,25,-38,60,32,44,-17,49,37,17,-27,-26,60,34,-45,62,24,43,-6,56,57,36,-11,-17,75,29,-24,60,5,36,-13,76,62,42,11,-27,89,47,-11,75,-15,23,-30,68,74,34,18,-27,127,76,-11,24,23,-23,32,-69,18,-4,18,-2,39,20,-25,8,19,-23,56,-9,22,63,20,44,11,14,-27,-22,5,-31,82,54,66,106,-1,47,-28,8,-34,-16,-5,-25,66,48,89,91,31,-5,-29,-30,-38,9,-20,-9,6,15,67,4,53,-18,5,-38,-33,25,2,15,-38,-51,46,-102,32,-75,66,-25,-13,23,36,40,-30,-55,59,-127,-3,-99,98,13,13,6,54,33,16,-35,35,-71,-32,-85,87,36,22,-13,26,37,65,15,28,-21,-21,-66,64,80,59,7,-43,54,-69,52,96,-16,2,55,-123,29,-52,3,-61,72,-32,32,97,-52,21,45,-74,48,-61,-6,-49,72,-1,10,90,-54,32,41,-41,47,-78,-15,-28,61,36,-8,80,-48,52,61,-14,43,-127,-14,-18,56,73,-3,52,-18,66,63,42,48,-114,-14,-15,59,117,-33,15,-21,45,19,67,57,-57,-10,-5,38,113,-57,-5,-30,24,0,96,76,-27,3,-11,-9,70,-46,24,-35,58,-27,119,97,15,16,-19,-12,3,-39,81,0,38,-23,126,95,40,-3,79,-38,21,73,88,4,45,-88,-24,-89,-82,12,67,-21,19,46,85,8,16,-89,-13,-93,-78,17,43,8,30,26,103,25,25,-70,-3,-92,-79,14,24,17,46,20,93,39,26,-18,-9,-64,-48,10,24,3,39,17,84,39,11,-20,-10,-31,-35,18,32,-4,15,54,81,50,7,-46,-3,-45,-46,18,40,-5,12,73,83,44,4,-56,-13,-52,-42,20,27,11,16,99,73,68,-9,-41,-18,-56,-57,28,21,22,32,127,93,97,6,-56,-39,-61,-43,1,68,12,42,8,87,-20,53,-19,77,50,16,-3,72,3,-2,21,80,-102,72,-47,42,4,26,-4,60,12,-49,5,104,-127,49,-59,78,-3,47,-5,41,9,-44,9,113,-98,35,-35,83,-49,22,-13,9,-3,-28,7,123,-58,7,-12,98,-67,3,-18,-16,-15,13,17,111,-6,1,23,79,-79,-15,-14,-35,-30,25,19,108,7,27,51,68,-76,-24,-6,-32,-36,17,-31,94,22,89,27,70,-55,-43,13,-36,-40,4,-98,55,-4,120,-32,46,-54,-59,-45,52,-65,-56,0,103,-25,74,-3,13,-23,-58,-19,42,-82,-41,42,125,-20,67,-41,18,5,-60,-4,31,-50,-1,51,127,-9,48,-81,13,-22,-61,12,28,-15,31,64,84,-6,43,-83,9,10,-21,28,12,6,49,45,52,8,22,-39,25,5,31,29,-1,29,53,3,19,21,12,-37,27,-13,66,22,-20,64,35,-20,-1,61,-22,-20,11,-26,85,-27,-4,98,-6,-46,39,94,-42,-15,-18,-20,42,-66,23,92,-18,6,34,90,-19,-9,-20,26,17,-23,-40,94,-47,50,54,-37,61,-33,90,14,92,-23,10,83,-35,33,15,3,44,-63,73,22,110,-10,36,9,-37,27,36,29,43,-44,16,-8,96,-8,-3,-37,15,47,121,14,-24,-18,25,-10,63,6,-28,-50,14,30,55,-34,-44,-9,103,-9,24,13,-10,-18,10,3,-29,-43,-39,3,127,3,10,13,4,8,37,-38,-28,-8,4,37,56,-35,-15,11,2,-12,54,-41,11,-32,44,69,28,-43,-52,10,9,-17,86,-25,79,-65,70,90,17,-64,-94,-5,33,1,-8,47,72,3,-44,3,-12,-49,41,-32,53,5,-9,31,99,-43,-51,29,-17,-43,44,-38,56,-15,-4,17,127,-77,-41,52,-12,-37,48,-27,68,-5,-3,10,96,-46,-31,43,-29,-31,37,-12,61,8,18,25,73,-21,3,40,-44,-28,18,-8,54,9,25,27,58,-3,-1,33,-41,-34,12,-7,29,12,41,32,72,18,26,30,7,-60,8,9,7,28,38,26,81,41,41,23,38,-52,-1,13,10,35,53,43,51,34,64,17,50,-39,-13,-96,-14,-58,19,7,21,111,-4,-53,-20,72,80,-79,-38,-68,24,43,16,118,-6,-74,-51,44,72,-45,-51,-56,15,48,23,127,-4,-79,-37,34,55,-24,-52,-18,18,72,33,117,-7,-72,-19,41,44,-49,-56,19,23,71,45,108,-8,-32,11,38,32,-53,-51,42,25,84,50,92,16,-39,22,18,36,-20,-54,27,19,52,20,69,57,-46,40,-23,36,0,-39,1,-7,9,-4,22,81,-42,51,-51,43,-6,-22,-9,6,10,17,-4,111,-63,30,-63,33,21,-71,20,7,-43,45,-11,-58,-80,-44,43,127,36,-47,2,-3,-26,45,-25,-61,-101,-44,10,73,22,-6,-20,32,0,56,-65,-35,-69,-59,-17,17,9,47,-28,26,8,52,-53,11,-24,-5,-25,1,-2,66,28,41,13,54,-12,50,-1,61,-21,0,-10,61,45,43,35,73,7,67,31,93,-14,17,-1,33,34,18,28,42,14,38,17,89,22,58,2,12,27,11,40,21,23,-2,-9,49,49,87,18,-24,29,2,18,13,20,-28,-24,-1,44,116,-20,31,-6,0,74,89,-32,109,20,35,-4,17,-20,35,13,-2,19,59,-30,66,28,21,-11,-29,-25,47,-10,-18,-41,59,-29,20,54,35,-2,-43,-29,50,14,-17,-51,59,-20,11,72,15,13,-33,-39,59,29,-8,-38,48,7,8,27,31,24,-3,-32,32,38,11,-10,17,28,10,13,50,27,7,1,0,15,33,38,-6,36,6,-47,30,-1,11,19,-15,13,56,66,11,33,4,-67,42,-9,0,20,-3,6,79,127,17,66,48,-72,19,1,-2,-62,-6,39,-1,1,37,31,13,-42,8,-29,68,-48,18,85,-41,-9,49,71,-13,-37,14,-17,27,-68,1,127,-47,-3,57,20,-5,-10,12,8,-28,-61,-35,92,-31,15,71,-22,7,-6,-2,30,-41,-40,-26,28,5,17,85,-84,4,-2,31,16,-37,-10,-12,-6,26,17,121,-113,-8,-47,28,18,-8,5,2,-1,23,31,115,-78,1,-49,-15,2,71,32,-8,16,37,36,87,-30,41,-21,-17,-28,80,58,-29,-16,64,48,93,13,36,-15,11,-40,82,-43,15,-3,94,-19,113,40,33,-14,120,-23,41,-21,1,0,81,-13,122,55,3,-82,116,-32,20,-28,8,0,58,-37,107,40,-6,-113,83,-6,18,-27,6,21,34,-42,95,58,-28,-122,32,-12,25,-31,-1,33,31,-28,94,42,-29,-108,14,-36,17,-20,-11,25,13,-23,80,50,-33,-83,-9,-23,-1,-11,-2,19,20,-4,54,60,7,-90,0,-15,-12,-1,6,39,22,14,62,44,39,-109,28,-8,-3,-7,11,55,44,3,60,32,55,-127,65,-3,-4,-20,46,57,32,-40,19,11,-19,-60,110,-75,20,-46,28,83,101,7,21,43,11,-18,127,-23,8,-53,5,67,127,13,23,80,26,-7,72,31,-36,-27,-2,44,80,-27,20,97,8,-9,64,38,-75,-13,2,26,16,-65,10,39,-3,-32,79,1,-62,-13,15,14,14,-40,24,-15,12,-11,97,-13,-64,-14,20,18,8,-4,21,-25,25,-12,114,-25,-44,-6,24,-12,15,17,0,-16,19,-36,73,-47,-21,0,18,-3,19,1,-22,-40,30,-75,45,-79,-29,79,88,50,10,36,118,75,84,-65,103,-37,-21,63,61,36,9,7,87,43,45,-57,74,-6,-38,54,55,34,6,-5,58,15,18,-33,81,27,-34,51,47,33,8,-6,53,11,4,-59,71,48,-44,40,35,53,17,-14,35,8,27,-86,65,55,-63,43,33,67,5,8,49,0,4,-90,58,47,-57,45,36,63,3,6,66,18,21,-68,64,31,-71,61,35,43,-4,18,68,46,35,-92,83,-1,-81,83,72,46,-16,13,65,44,82,-123,127,-24,-105,-2,2,-91,-5,-11,8,-39,-10,36,-21,-36,35,17,26,-28,22,9,32,-24,6,2,-8,-35,30,19,28,34,36,33,36,-34,42,-49,31,-19,10,-18,33,105,65,83,49,25,82,-26,86,-8,24,-61,28,120,44,82,63,70,111,-30,127,5,32,-20,5,23,30,18,47,41,34,-40,110,-4,55,8,7,-39,24,-23,31,28,22,-49,43,16,42,6,33,-47,20,-47,57,15,-9,-36,21,-20,27,8,32,-29,13,-23,36,6,33,-41,14,-18,7,-19,45,-9,32,35,105,42,65,45,-1,40,71,-16,58,6,-5,15,87,18,7,50,-12,10,27,-26,71,5,-22,-5,127,7,-4,81,34,2,41,-54,44,45,2,-58,97,54,-12,8,82,-32,9,-30,-8,55,87,-9,-6,89,6,-51,74,36,-1,-6,-40,18,92,68,-52,62,-26,-73,40,30,-35,2,-17,-4,54,113,-48,67,-25,-47,54,14,-52,18,0,16,56,78,-19,100,-11,-34,56,-6,-25,6,-6,31,35,100,7,82,-12,-20,70,-5,-14,-32,-9,54,105,26,-10,5,48,-39,65,-27,71,-14,-5,57,124,52,-21,-11,61,-28,56,-11,42,-13,0,72,127,60,-29,-22,69,-20,37,24,0,-21,1,64,105,53,-14,-12,84,-18,37,9,-26,-37,2,48,80,29,9,21,91,-18,11,-17,-21,-49,6,27,69,5,33,22,76,22,10,-5,-18,-29,14,13,38,10,15,13,100,29,9,-31,-24,-21,38,-3,10,4,-6,13,107,10,-30,-38,-23,-17,47,-23,12,1,-23,37,114,-8,-68,-54,-6,1,45,22,43,-60,35,-102,35,32,117,-28,-64,-58,22,-19,43,35,21,31,56,40,127,-7,-55,-39,-7,-27,-1,10,-31,36,28,-5,57,-16,-33,12,-2,23,-32,-6,-41,-31,52,-43,-30,-42,-15,39,-33,-9,-3,-14,-20,-115,27,-54,-68,-69,-2,40,-56,-4,23,5,43,-119,20,-58,-49,-80,-5,33,-48,16,24,10,77,-83,23,-82,22,-26,-1,29,3,30,28,12,83,-89,-14,-82,69,18,4,4,52,46,61,10,86,-104,-70,-68,86,7,14,-29,40,13,43,-9,38,13,70,0,21,41,75,-4,30,-14,55,11,58,46,35,15,7,36,89,16,25,-45,77,5,53,55,10,26,-17,11,58,19,29,-50,90,7,45,44,16,19,-31,-1,49,16,30,-64,72,-5,57,9,-18,15,-57,5,29,3,16,-55,55,-7,70,-5,8,-25,-54,25,1,3,17,-16,40,-18,85,-32,10,-44,-30,19,-25,-1,28,22,29,-31,109,-64,26,-62,-35,35,-32,-13,30,53,49,7,127,-80,50,-52,-21,40,-29,6,-25,-20,28,3,-3,20,69,-15,43,33,23,-5,-23,-3,38,3,-4,23,58,-8,81,41,21,-29,-24,8,41,10,-4,35,53,3,109,49,8,-35,-29,9,31,13,-2,31,63,14,127,53,0,-36,-33,20,37,0,-4,12,100,29,97,56,-1,-30,-35,31,56,-11,2,0,109,47,67,57,8,-23,-34,35,37,-16,-4,-23,102,49,31,46,1,-17,-25,27,23,1,-6,-38,86,49,-4,38,-9,-5,-13,16,24,-2,-7,-37,56,30,-42,13,-31,0,9,59,81,9,101,-67,-9,65,-14,68,44,14,53,35,55,4,64,-53,-10,52,-7,64,54,28,83,16,38,10,40,88,36,39,39,-11,38,13,81,5,-2,-26,25,63,87,26,50,-47,39,-16,-5,-10,-29,64,45,-27,99,0,73,-32,-1,-23,-97,-42,5,96,62,-79,65,3,99,-74,40,-34,-78,-14,7,26,84,-114,38,-3,79,-75,10,-24,-105,-18,-17,-27,77,-127,14,-9,49,-82,-2,-1,-103,2,3,-71,66,-103,-5,1,35,3,2,31,16,13,34,-74,61,-34,71,-34,30,68,34,19,25,46,22,-21,29,-5,52,-44,17,76,32,9,14,32,32,13,29,18,33,-40,-10,74,25,9,1,19,28,17,45,15,27,-55,-26,44,36,20,-4,8,26,0,51,-29,31,-69,-41,18,39,17,-1,12,33,-28,66,-68,39,-97,-32,29,39,32,11,32,28,-30,51,-95,39,-125,-12,80,39,36,30,46,29,-35,25,-65,19,-127,-6,108,51,30,22,51,39,-21,23,-9,5,-103,-21,121,49,4,-57,-6,9,38,37,-127,-29,29,-4,29,35,-1,-42,-4,22,33,37,-101,-6,16,-1,26,30,3,-27,-8,13,19,48,-57,4,32,5,-2,31,6,-19,-1,22,19,34,-36,5,26,1,-1,34,4,-18,-24,21,13,38,-26,23,15,-20,-16,1,-7,0,-33,18,11,30,-3,31,34,-31,-8,-24,-5,2,-35,12,10,55,40,49,13,-58,-9,-32,-3,8,-25,-1,21,53,57,90,30,-57,-19,-23,3,22,-24,-11,10,66,4,97,56,-43,-30,-25,-7,-21,-29,-7,-4,86,4,71,-30,43,27,18,-27,-43,-18,46,-25,93,-13,57,-16,71,23,25,-24,-41,-15,73,-17,76,-26,42,-7,102,27,3,-12,-40,6,104,-18,57,-40,30,-7,127,24,1,1,-26,17,88,-30,31,-26,36,-26,119,37,-11,-2,11,19,118,-8,3,18,19,-28,80,40,-4,-24,57,25,97,8,-6,34,-6,-26,78,22,5,-35,60,-3,69,20,28,25,-22,-21,89,33,33,-17,25,-36,14,28,62,57,-39,-20,68,39,56,-2,18,45,21,-27,-4,64,-21,77,-8,80,-17,-16,-28,12,10,5,21,71,-15,73,-21,57,-23,-20,-46,-1,-26,15,33,55,-18,26,-24,0,-8,-23,-7,-14,-31,7,6,-5,19,-40,19,-40,13,-22,45,-34,-30,-6,9,-73,28,-82,70,-25,36,8,60,-26,-35,-38,33,-94,13,-127,77,-24,27,23,37,16,0,-28,51,-47,12,-80,71,9,8,7,12,32,48,-14,67,40,13,-23,19,49,-13,-12,-16,24,63,11,110,91,8,17,-44,51,-20,-41,23,46,3,34,80,-24,28,42,37,54,72,-30,0,27,6,66,50,-52,-4,20,3,20,46,-36,8,-39,27,45,50,-55,8,29,-25,25,13,-35,-7,-55,52,46,32,-76,14,7,-41,18,-2,-6,-3,-33,48,55,13,-87,31,-21,52,-14,12,0,8,32,35,74,38,-85,47,-26,82,-18,25,-42,-10,91,-7,68,44,-43,3,-22,10,8,15,-110,-32,127,-29,15,100,10,6,-19,-16,19,-22,-87,-43,83,-29,11,111,6,22,-58,14,23,-12,-43,-11,51,46,-25,127,58,46,-28,51,-44,-40,-38,3,36,27,8,107,52,51,-64,40,-63,-42,-34,25,33,17,37,75,44,43,-79,18,-80,-33,-23,34,44,16,48,39,34,32,-74,32,-86,-34,-14,24,42,12,71,31,43,28,-65,9,-78,-28,-13,20,50,15,88,37,60,21,-40,24,-57,-28,-28,9,53,32,77,11,46,-11,-36,44,-30,-34,-23,0,44,38,74,59,35,-35,-64,61,-59,-24,-34,-3,53,18,69,72,53,-42,-84,38,-72,-65,-18,35,4,91,-88,63,-106,17,66,-2,57,24,-13,56,18,64,-93,68,-78,-10,70,3,74,49,-2,57,34,42,-46,101,-15,-5,87,45,31,84,-7,25,17,35,2,127,-7,6,72,82,-13,113,0,-13,-8,-6,50,97,0,43,33,65,-62,105,2,-55,-30,-35,57,58,20,32,-12,90,-82,107,3,-87,-45,-56,49,87,25,14,-46,85,-112,62,-7,-113,-30,-70,10,59,49,7,-97,36,-65,38,-25,-95,-9,-35,3,26,61,20,-99,-5,24,58,113,20,-47,-35,-21,0,60,-33,-73,-26,81,91,79,28,-58,-41,-25,62,15,12,-41,-50,45,35,23,41,-28,-10,-12,90,-50,42,21,-62,-22,9,-29,43,7,28,41,80,-73,24,51,-15,-54,52,-41,32,66,38,-13,53,-74,9,44,88,-70,52,-55,28,51,53,17,-2,-78,52,27,111,-52,85,-48,-1,20,51,54,-10,-72,76,8,100,-27,105,-18,-45,12,8,71,43,-8,100,65,45,0,108,5,-108,-2,-28,92,50,35,108,127,23,20,125,34,54,52,29,35,101,68,38,-11,23,-114,17,30,41,44,19,18,86,47,20,-17,19,-127,12,24,28,43,21,1,75,21,22,0,28,-99,14,21,24,51,22,-5,65,26,22,-6,15,-92,4,14,22,64,25,-13,51,26,31,2,3,-74,-5,16,23,74,13,0,46,18,18,-3,-6,-89,-10,18,28,56,0,10,46,30,29,8,-11,-87,-26,34,22,36,5,35,50,34,27,17,-4,-89,-33,37,27,6,16,61,50,35,41,-13,7,-92,-46,31,-6,54,59,3,43,-25,127,-33,84,5,54,25,-25,32,31,13,33,-61,122,-58,38,-27,76,16,-31,42,26,3,46,-49,106,-49,26,-31,89,22,-48,40,32,11,30,-35,76,-47,-2,-31,79,-1,-42,40,52,14,29,-33,86,-57,-13,-5,80,-11,-35,26,47,28,54,-13,71,-53,14,-23,48,-21,-22,36,32,35,77,1,71,-29,29,-38,59,-19,5,4,47,56,90,-25,66,14,5,-47,51,0,1,-12,76,66,102,-48,83,-9,-28,-98,15,-72,27,-17,31,2,-14,-29,-28,-40,83,-24,112,-79,-9,2,36,-12,-19,-61,-26,-65,78,-28,126,-78,-18,16,35,-22,-29,-46,-21,-61,44,-40,118,-52,-17,14,33,-14,-20,-44,-17,-74,19,-21,127,-10,-28,15,28,0,-13,-49,-6,-102,8,-17,95,5,-20,19,18,10,-1,-73,-21,-93,-12,-27,43,-3,-5,35,24,29,3,-78,7,-63,-10,-32,-8,-9,18,41,33,12,17,-61,13,-12,18,-38,9,-19,51,53,43,-17,21,-34,-4,29,28,-17,-1,-1,41,0,15,82,65,-33,-6,51,4,-43,66,-16,55,0,19,34,87,-36,-18,55,-9,-26,45,-4,56,-2,20,-3,115,-58,-13,64,-37,-33,49,10,74,-13,22,-22,117,-40,-27,61,-65,-46,26,-2,74,-22,25,-22,127,-22,-12,58,-47,-42,31,-9,64,-20,26,-19,94,-17,-24,49,-11,-22,40,-20,36,-19,35,13,85,-42,2,34,18,-26,82,-14,15,-27,22,67,67,-26,19,29,35,-4,99,-9,-4,-41,18,119,70,-32,37,53,36,31,100,38,-24,-7,22,-57,75,-92,51,-86,25,-22,25,38,2,8,3,-56,54,-127,62,-127,15,-28,24,25,26,19,-16,-42,57,-88,31,-94,38,-8,18,1,37,37,14,7,38,-13,23,-63,43,10,1,-28,22,11,47,61,52,35,15,-17,4,22,2,-25,14,-23,31,48,57,44,1,0,3,-1,-3,-7,11,-4,10,-6,54,0,5,-41,5,-36,-2,40,-5,21,8,-41,49,-69,12,-86,3,-10,-10,55,-15,23,25,-61,42,-75,31,-84,-2,23,0,-23,-76,61,-7,71,15,34,10,-78,-3,8,10,-8,-31,3,-2,78,19,18,-16,-77,-20,24,5,3,38,-44,-9,71,12,11,-6,-29,-43,-25,-28,17,52,-20,19,64,-2,23,-1,1,-48,-46,-19,24,38,-5,48,30,14,21,13,-3,-17,-43,8,20,30,-5,40,44,64,-11,23,4,58,-46,36,0,31,-8,11,-17,91,-6,52,10,125,-5,79,-17,9,15,14,-66,22,19,25,-8,127,24,71,-18,-7,37,12,-34,-4,28,26,-31,44,20,42,4,16,-16,-10,46,127,47,-7,2,52,8,9,0,23,-24,-2,57,117,47,-24,-4,30,-18,16,4,23,-17,-1,68,98,40,-38,5,18,-13,12,2,4,-21,4,78,45,41,-24,4,4,-13,15,0,-2,-18,4,73,20,19,-9,1,9,4,24,-6,-7,-3,1,54,38,18,-9,-10,11,4,27,-9,2,-4,-6,39,56,26,-10,3,7,7,22,-13,11,0,7,30,81,46,-8,6,18,3,11,-7,13,-8,13,11,60,53,-10,2,11,1,-18,-56,5,-52,3,-85,54,-9,54,104,78,21,19,-9,34,-81,9,-94,17,14,48,91,52,4,26,16,56,-1,4,-71,-16,57,82,28,6,27,29,19,30,95,19,-6,-3,58,61,18,-19,45,-1,-18,-37,95,30,15,36,93,1,30,-16,39,-55,-52,-113,20,61,39,108,96,-15,-3,-34,45,-38,-29,-57,-51,53,31,80,-12,-16,-56,-9,9,29,3,27,-47,35,4,69,-71,-3,-76,58,-34,74,0,57,17,42,-2,97,-95,34,-45,127,-69,125,-5,-33,-10,65,92,116,37,22,-42,25,-11,21,4,-28,-37,57,67,101,63,16,-22,6,16,42,3,-25,-48,54,38,92,120,28,-1,17,41,34,9,-6,-32,49,11,62,87,24,31,21,63,52,-1,-3,-22,3,7,41,69,31,43,25,75,23,4,23,-37,26,-31,8,57,75,70,48,53,-14,10,16,-41,46,-41,24,59,102,43,15,26,-20,0,20,-18,69,-52,28,-7,106,75,23,-4,-44,-19,50,20,68,-65,34,-49,127,84,37,-52,-39,-42,15,-2,16,-37,25,-113,15,-56,-97,-95,43,-28,12,23,22,-12,21,-68,28,-80,-77,-51,34,-12,19,40,31,-11,18,-46,14,-84,-78,-20,30,7,29,27,33,6,8,-16,29,-58,-50,-14,54,-6,43,-8,14,1,5,11,30,-25,-45,-13,47,10,24,-16,12,-15,-1,26,77,30,-55,-15,30,46,5,9,24,-31,-4,-6,70,37,-66,19,19,71,-22,20,40,-29,13,-34,60,64,-102,68,16,74,-44,38,39,-22,30,-43,30,116,-127,65,42,23,-12,-1,22,-59,58,-56,54,-75,87,36,30,27,13,19,-27,-60,42,-96,47,-127,85,0,24,19,37,27,-30,-37,19,-60,25,-111,71,-25,13,2,33,32,20,2,29,-6,7,-65,36,-7,0,-21,13,3,66,47,71,15,-5,-14,-4,25,4,-12,15,-17,60,40,86,29,-6,-9,-21,35,-12,8,13,5,27,-1,74,-6,6,-48,-6,25,-24,33,