#include "spk_conv_model_params.h"

const int8_t spk_conv_weights[61440] = {39,-127,62,52,-28,55,62,-77,-55,-29,-78,97,16,-14,-14,5,22,60,-13,-45,10,-32,-107,89,29,48,-31,-14,23,72,-96,-21,10,22,-67,13,17,58,10,-7,32,53,-117,32,-71,13,-9,43,-4,11,70,65,-11,56,-39,35,-81,29,-31,91,14,-19,82,45,-42,3,9,32,-39,-17,-72,7,31,-21,-11,52,-23,-35,2,1,-127,-12,-41,16,-50,32,26,55,-6,-6,49,-24,-53,2,46,108,-115,37,124,2,1,-47,9,16,-65,-19,83,16,-45,-12,97,-38,11,-39,4,74,-69,-72,69,-43,30,36,6,8,-5,3,-59,127,35,82,12,55,16,28,10,-7,6,-8,-58,119,7,48,-30,60,11,11,16,-12,16,-11,-38,110,2,62,-22,73,15,5,21,-15,4,-5,0,86,-10,40,-18,51,18,-6,56,-5,1,6,14,123,-34,37,2,-3,-22,-8,64,37,26,-6,46,-45,53,-69,-66,39,2,24,67,41,29,-18,48,-79,-2,-54,-94,28,7,28,16,-6,18,39,37,-32,-9,31,-70,40,-11,17,-34,44,20,63,9,58,-35,-3,-94,-15,-11,-44,-58,44,-52,72,27,127,-15,68,29,122,-10,-10,-17,74,32,75,-84,23,41,-27,-67,-36,15,-40,-2,93,30,48,-11,97,39,36,5,-1,25,-55,45,104,-13,25,18,127,-24,35,33,-41,19,-19,76,123,-34,9,30,117,-45,40,22,-46,16,48,36,42,19,-20,10,125,16,109,4,-15,-42,-9,3,68,-3,81,-58,58,-119,28,0,44,-10,11,-114,13,62,49,-57,81,-67,-4,-28,-37,-6,9,-30,16,73,47,-10,106,18,-29,-18,-51,6,-7,32,33,16,3,32,77,-50,36,-11,-24,-13,7,127,43,-63,58,2,31,-36,46,-45,13,-4,8,116,-13,20,48,66,11,5,11,49,61,-8,6,91,-20,1,10,30,-5,-8,25,46,127,-32,34,17,-4,-34,-4,13,-3,21,36,-21,35,-21,19,-38,25,-49,11,27,10,9,27,-72,-22,5,21,25,40,-24,43,-91,35,8,60,-32,2,27,-42,-72,98,105,62,-86,99,19,15,-30,-53,29,-51,-48,109,124,33,7,119,16,16,22,-16,7,-46,-2,63,78,29,58,98,1,19,47,63,4,-12,-6,35,32,19,10,99,29,25,17,45,2,40,-44,49,57,42,-46,127,29,33,0,-7,13,-10,1,48,-29,68,54,16,-2,-22,-11,-65,34,12,-22,70,-49,68,63,64,14,-41,-34,-50,-7,8,-25,64,-20,127,104,-33,11,-78,41,-24,-68,-11,-5,61,-6,78,77,1,35,-46,3,13,-74,19,27,48,73,66,48,57,7,23,-2,3,58,-74,57,-18,53,88,5,10,110,-45,57,23,29,-70,70,-11,45,116,-48,7,90,-8,55,36,14,-42,52,15,-5,67,-43,41,45,-3,20,69,-24,-13,2,68,3,38,37,49,-31,90,42,2,-28,-46,23,127,29,70,42,7,-46,91,40,100,-14,35,0,42,63,123,-15,17,-2,53,-1,9,-19,5,-49,13,38,99,-33,2,-78,100,19,28,-26,-5,-86,33,19,97,-54,22,-127,61,2,15,-37,7,-59,80,28,117,-38,66,-125,72,-21,-63,-31,1,-36,71,16,100,-63,52,-122,36,47,-23,-33,-16,-45,-9,-21,112,-31,-53,-66,-53,21,7,-16,-7,-38,-3,-11,59,-70,30,-127,-31,9,-56,11,-5,-20,8,20,20,-106,56,-113,-33,-3,-15,3,3,5,23,7,75,-5,41,-12,7,28,14,3,29,16,27,38,101,51,9,43,4,68,-21,-2,6,2,-20,-41,16,59,3,-25,99,28,-47,-67,-51,-10,-23,-40,80,80,-10,-16,127,-64,-49,-15,-58,33,-20,-36,86,2,-26,3,2,-37,-6,27,21,-2,35,52,13,-100,62,41,-125,35,16,32,76,-44,36,45,-6,-124,76,11,-89,52,25,-43,-28,24,-21,-33,51,68,-65,8,-96,-14,127,-17,-3,16,6,-18,6,9,-77,31,-107,-22,65,2,17,25,15,-6,7,-26,26,34,-44,-50,78,6,34,22,69,18,29,-45,47,-2,-18,-102,16,-17,31,-35,114,3,105,-14,115,-18,8,-37,19,-42,28,20,41,-49,-8,50,-18,-61,-60,3,29,-44,9,1,29,-56,-6,5,-6,-87,-86,-7,-2,-25,-2,-2,25,-49,6,-8,-9,-127,-81,16,17,-18,-3,15,38,-38,13,-17,10,-113,-72,-11,23,-52,7,37,55,-27,15,-38,28,-107,-63,10,65,-35,-57,-36,87,-56,127,-41,-3,-56,115,-10,-16,0,-15,-13,109,-46,106,12,18,-34,78,14,-31,-11,-25,-12,73,-29,67,60,63,-10,90,42,-3,-56,19,-32,68,-14,19,25,35,-37,71,74,19,-96,36,-48,-3,-1,-4,-34,7,-50,69,99,51,-8,33,-39,-5,-47,23,-22,17,23,5,-32,19,6,4,2,-3,-16,32,6,34,-5,38,-9,-16,-18,-20,-13,4,9,13,-3,69,13,41,-33,-41,-25,-26,-12,21,46,97,-16,36,9,4,16,14,-45,-18,-5,55,37,127,-31,-5,-6,22,37,4,8,-44,-5,4,5,-5,-7,81,-72,-42,101,47,-13,1,30,-15,-28,2,-38,71,-127,-55,104,45,11,43,81,36,-36,21,-51,26,-86,-23,80,25,6,26,62,62,12,18,-24,-12,-20,42,43,50,8,-16,53,32,39,6,31,-38,-48,12,58,43,-19,3,-53,61,56,127,-29,7,-71,32,46,124,10,10,14,8,9,44,74,60,-26,-4,-4,86,3,22,25,46,-16,32,17,20,-2,-41,-72,-52,-27,11,14,42,12,43,-13,2,47,-67,-81,-63,-8,-28,29,25,53,0,13,27,43,-100,-26,124,34,46,-40,-13,45,96,-40,-34,-103,-33,-91,-17,-2,62,-4,4,55,99,-30,-46,-21,11,-41,10,-11,-50,37,78,-60,127,15,5,15,-5,13,48,-6,-115,40,114,-71,121,-31,99,-3,46,54,80,-2,-85,-42,68,47,119,-122,12,-59,38,-1,-12,-50,-53,72,104,27,99,-80,-42,22,6,119,126,-36,-48,15,110,51,101,-78,-41,-1,127,41,65,-13,-31,23,57,43,60,-44,7,-21,126,-58,47,-1,-36,51,39,78,82,-65,33,-16,107,-69,27,-18,7,62,-23,55,67,15,34,-41,104,-97,6,-43,37,-23,19,-2,-10,-78,4,5,106,-58,-31,-31,21,-14,0,4,-22,-44,9,19,127,-74,-13,-1,5,29,-8,27,-18,-60,10,34,80,-77,13,38,-23,46,14,14,-6,-75,-5,41,-13,-42,-9,42,-52,3,38,14,24,-63,-34,76,-40,-57,-58,21,1,-65,89,-79,41,15,81,-12,44,-85,20,22,38,-46,26,0,27,77,36,-24,11,16,25,13,31,-33,-15,45,43,32,109,-40,-52,56,-4,-40,-52,53,-18,59,53,-60,42,18,-37,63,4,-40,-75,34,-6,127,68,-54,-2,5,20,27,-5,0,-1,-72,28,52,46,-39,127,-42,2,-7,6,14,-12,-54,32,55,45,-51,109,-27,38,17,-40,-8,5,67,-14,-7,71,-43,59,0,53,10,-23,-48,48,127,-47,-20,78,-4,15,40,105,1,-54,-33,56,57,-28,1,33,85,-7,18,86,-29,-74,-18,21,-27,-11,101,54,-21,80,71,-50,17,-54,-6,31,-28,-8,13,44,31,47,78,-81,47,-59,-4,43,-18,-22,-26,72,16,40,54,-77,52,-29,-2,33,-2,-20,4,105,-41,26,29,-54,59,-21,-18,35,-34,-31,59,120,-88,22,46,-25,127,11,7,14,52,55,-15,-45,-7,-34,-55,-98,-71,84,-9,13,36,15,27,26,1,26,4,1,-25,-14,-17,-5,-19,-23,25,45,7,54,-10,30,-58,-32,-31,-12,-44,5,13,127,21,104,-6,84,17,29,8,-58,-39,33,-4,36,-44,35,26,11,-43,36,-65,39,127,-18,-18,-8,35,10,-20,-28,0,16,-34,34,82,-18,-15,-26,-13,57,-21,-70,-24,11,-39,-15,22,5,-20,-16,-42,49,-52,-30,-10,-8,-5,-45,-3,19,-21,-1,-67,59,-53,17,8,-27,3,-32,57,19,-39,25,-81,33,-56,21,38,5,-1,-33,122,-65,25,114,41,42,-31,-8,-2,81,16,-20,99,-46,-23,90,95,127,-31,-43,44,68,-34,21,30,-29,-18,101,119,59,-61,-97,31,25,-43,-16,-43,41,-16,112,85,13,-47,-83,17,8,-8,-21,-43,101,-25,82,1,-20,-26,-16,-13,53,-23,-1,-127,82,-53,-32,86,112,19,-12,-6,-1,26,22,6,-6,31,90,-82,45,-41,26,19,54,13,35,121,61,47,12,-60,8,-35,18,52,102,-4,-22,88,21,6,38,-11,28,-12,0,25,49,-43,9,-83,28,8,99,29,0,2,-56,29,-19,15,3,39,18,48,46,38,57,-58,34,-66,29,14,12,10,32,5,26,46,27,-58,25,-64,97,-5,56,-9,42,-25,27,35,43,-28,-20,-74,127,-5,49,-13,19,-20,27,41,44,-17,-34,-103,107,2,0,-10,44,25,67,-53,20,-19,-37,-119,105,-26,15,-18,-2,5,87,-2,77,-98,-1,-13,-32,8,21,-39,4,52,55,-29,66,-127,22,10,-53,17,23,-8,19,25,50,-11,63,-21,11,15,15,27,-6,31,42,19,36,21,100,29,14,25,107,20,-27,76,18,-21,70,49,12,55,-11,-31,105,-31,-1,80,61,-19,19,34,6,67,-32,-30,1,10,-19,37,21,1,-32,-40,25,19,-89,-51,-38,17,-19,-5,-31,22,39,-12,33,-67,-24,-56,-12,-35,-36,-37,-14,56,105,1,10,-122,10,-29,104,-17,-39,-23,11,64,124,9,-17,-127,79,2,50,23,-21,-32,127,18,27,43,36,-92,41,-78,74,15,9,-45,41,-9,3,-51,89,3,19,-70,74,-35,34,-44,-38,36,61,-51,77,52,63,68,88,-37,42,49,-84,48,102,-81,25,75,10,42,-18,-33,16,63,2,-15,116,111,-51,-35,6,-99,-97,10,44,23,26,57,44,-94,32,20,56,-82,50,5,19,-12,-7,80,44,-117,28,48,37,-122,92,11,5,-7,-12,57,39,-127,27,62,22,-118,95,2,11,-7,18,57,23,-111,21,82,-24,-77,59,9,33,-17,51,42,25,-95,29,63,-12,-47,56,12,-7,34,41,-14,36,32,51,53,110,-99,8,-36,-4,4,-3,4,66,-43,79,-37,88,-32,22,-10,29,22,11,25,92,-90,46,-93,127,-45,31,-4,-1,6,4,1,112,-35,18,-18,77,-31,-21,24,-13,-28,40,-1,68,-74,-44,1,-1,-35,-46,46,62,18,7,0,44,23,81,-24,72,16,-11,29,36,31,9,-5,35,26,42,-39,39,59,-27,23,13,8,14,0,36,-4,34,-68,38,63,-19,21,13,15,9,12,43,-33,3,-88,23,55,-27,47,12,25,-3,13,23,12,44,-127,50,19,-71,23,-26,-91,-31,-56,-21,-9,-2,-42,-47,-37,38,23,42,11,11,-53,67,-38,15,-35,24,-11,-17,-10,7,105,108,16,51,29,81,-36,60,-47,119,-43,-13,63,127,60,30,45,106,32,114,-13,113,1,28,-10,83,8,50,-28,93,-17,24,2,-28,14,-24,-1,12,3,53,-42,15,-49,-6,-61,-73,-7,12,17,62,-24,69,-83,3,-54,30,-40,-44,-76,13,10,70,-22,68,-50,8,-3,-28,18,-11,-65,14,-7,60,-10,21,4,5,-32,-51,-17,33,14,5,-26,48,31,11,7,50,-127,-19,17,32,18,45,-41,-2,61,78,-69,51,6,-65,50,13,31,-58,3,65,50,5,1,69,-6,-47,124,-5,-8,-66,23,51,-34,-7,72,10,11,3,20,-20,-11,29,26,-88,-66,26,70,-84,5,127,-75,-25,-56,69,4,-28,5,34,-64,-50,-1,33,-67,-16,37,17,-14,34,36,2,-7,47,-40,27,-75,35,-7,-8,8,59,38,26,9,19,-84,25,-49,27,-90,38,79,16,12,52,-16,-21,8,45,-24,27,-22,-39,60,-8,12,51,-26,21,-41,8,6,-15,24,-33,33,-8,63,127,-69,40,-30,-53,-49,-16,2,12,-33,-1,32,127,-39,0,-71,10,6,64,-32,-4,-67,23,43,82,-27,6,-86,88,-9,49,-43,-11,-51,40,51,61,-11,-4,-91,87,13,52,-22,-10,-4,47,32,54,0,22,-40,59,43,41,1,9,13,44,22,62,-28,52,-35,26,89,48,-13,24,7,12,17,44,33,-15,24,-45,-14,81,-6,48,-5,29,-1,38,11,-44,38,-69,-35,26,7,46,-5,25,7,74,-6,-24,45,-44,-45,10,8,45,-9,41,-8,75,-14,-8,32,0,-31,56,-13,22,-46,23,-3,44,-20,20,12,17,15,127,15,34,47,34,42,90,67,50,-11,4,-100,23,23,22,34,25,15,78,45,44,26,-4,-127,-1,22,19,41,23,-3,73,25,53,15,-4,-117,3,19,26,48,19,3,58,6,35,-18,-13,-110,-18,25,27,50,14,7,66,11,49,-30,-10,-90,-30,-2,-18,63,39,51,6,-99,34,-89,-31,-49,16,-3,-3,56,43,36,14,-71,67,-91,-23,-57,-61,-31,-10,49,2,20,22,-105,11,-91,5,-9,-84,-44,-3,50,16,46,6,-126,2,-97,6,0,-110,-22,11,16,48,59,20,-100,1,-45,41,-24,-127,-27,53,100,40,-22,6,-28,8,-46,-67,45,-109,-16,-16,56,17,-3,74,14,-15,-45,-21,88,-52,-5,-35,25,-11,-4,52,5,11,-70,23,2,-37,-50,-20,-35,-17,77,31,-79,6,-71,49,-27,-13,-64,-3,-38,-39,63,-3,-89,65,-127,27,1,-19,-36,-4,-4,79,16,22,-11,0,-5,24,14,80,-7,17,-27,60,42,31,-11,-37,-28,25,-45,77,-7,-8,19,5,46,26,-13,23,-74,1,-87,65,-16,-8,51,12,-9,45,-13,102,-96,9,-44,14,-15,-8,65,71,2,38,4,127,-111,12,-35,18,-8,7,-28,36,9,67,37,-32,-5,21,-42,94,-18,40,63,46,48,34,35,-5,26,62,-51,-23,9,23,15,5,-3,86,12,58,45,72,-49,17,6,-19,-25,-13,-57,95,10,74,4,30,-23,84,7,-119,-38,-36,-55,127,46,70,30,-39,-11,121,-24,13,-42,-6,56,98,20,31,-36,6,-59,48,-12,-10,-37,-5,32,92,15,32,-29,24,-69,23,-1,-4,-5,-13,7,38,5,43,-27,-27,-73,40,-8,-7,1,3,-2,46,-13,49,-20,-36,-42,49,-18,3,-2,32,-25,127,-29,29,0,-17,-17,56,-7,2,25,8,-44,-19,42,51,-43,-20,66,42,-2,21,19,-24,-29,14,15,55,-32,-31,-14,56,8,23,34,-23,16,52,-32,44,27,2,-100,61,-1,7,39,-11,38,33,-34,-16,43,67,-117,47,5,-16,46,19,38,19,-7,-58,44,127,-110,47,-27,9,20,38,13,28,29,-36,-14,17,-36,34,-10,18,3,10,23,8,33,-64,-31,-16,-61,36,-15,9,15,-15,32,22,14,-57,3,5,-34,37,-5,12,30,4,29,43,-17,-19,-4,18,-46,-6,-13,-5,4,35,-1,127,-21,30,12,15,-48,35,-45,23,47,8,90,76,-33,19,-88,95,97,38,-6,17,73,-38,110,26,-25,-6,-65,77,29,-8,-30,20,10,-18,127,-4,18,12,-50,46,-24,-96,-44,20,-53,29,97,38,64,4,-45,44,-42,-89,-11,-1,-69,59,90,118,52,15,-23,89,-28,-54,-19,-5,-63,15,-19,49,-79,86,-64,83,-51,68,-8,14,-38,69,-37,16,-127,97,28,54,-40,61,-19,4,14,-1,11,29,-71,-19,46,23,-77,21,-13,10,52,0,19,59,22,-68,3,82,-87,11,-22,16,10,38,3,26,98,2,-10,124,-32,19,-84,21,-4,-30,-11,26,-31,-10,1,37,-78,22,-53,47,-33,-39,2,48,-16,59,27,43,-46,-41,-32,29,-25,-22,14,67,-23,82,51,-1,-49,-67,-24,16,-19,-3,22,99,14,104,-33,-27,-55,-51,5,13,-4,4,-9,107,49,127,-38,-17,-94,-1,-56,9,19,85,52,51,24,104,-27,-1,20,-51,-35,4,7,64,7,32,20,92,-33,31,17,5,-34,-10,-9,60,-5,-12,-17,71,-53,43,4,-21,-37,-24,14,76,-21,-14,-20,17,-21,123,42,16,4,-13,22,32,-14,-3,-6,11,20,127,65,75,4,6,10,-14,121,6,4,-12,-45,36,3,-23,12,20,36,-17,67,-14,23,32,-21,23,24,39,9,2,10,-13,-27,30,43,38,-10,37,71,34,-3,4,-38,40,-36,62,-68,80,-2,50,41,13,0,6,-44,5,-28,127,-102,45,-50,11,-68,-22,-20,-38,-35,4,-48,32,-69,10,-3,50,44,14,8,-9,20,-24,-31,36,14,33,3,34,6,36,14,21,64,-35,12,47,62,47,-64,60,-14,30,14,36,79,-12,45,17,50,39,-104,119,17,63,-1,45,65,5,32,1,40,59,-111,127,20,86,36,-20,-40,113,-61,14,43,55,-16,84,-81,21,11,17,-35,51,-20,-14,47,71,-88,27,1,-19,-38,23,-16,-60,46,-3,-21,127,-113,-36,103,-6,-50,-46,84,-98,22,76,-77,42,-61,1,105,5,-28,-44,72,-90,36,62,17,20,-29,-15,71,-25,35,17,-74,44,113,110,31,-21,71,-103,70,4,39,22,-35,18,104,97,55,-32,52,-78,42,0,37,-3,-24,6,92,76,59,-33,85,-75,3,-28,39,16,-15,12,114,93,36,-42,94,-58,12,-30,35,16,-60,-2,124,127,62,-47,105,-65,63,9,-8,-50,-29,-99,24,2,26,-20,-101,-8,-42,-8,9,33,50,-30,-9,-28,8,25,-70,-10,-17,-35,-45,-19,21,127,16,5,-34,79,28,-68,21,-13,-46,-18,3,67,38,58,37,100,68,-100,-4,-54,30,21,123,1,-21,21,-7,6,-57,-109,7,-116,-20,40,-77,23,-80,10,47,10,51,85,-29,86,13,17,-49,5,-45,33,74,25,6,30,-84,53,-4,26,21,27,24,72,12,0,-18,5,-59,14,-24,-22,84,31,69,108,-50,106,-31,5,6,13,-31,-44,3,45,63,127,-109,86,-41,-23,-33,3,20,43,46,-59,17,48,-19,98,-16,43,-21,0,2,-19,11,17,-27,39,-52,97,3,72,-20,19,-10,-78,-49,121,-73,59,49,35,11,-20,-16,-3,-2,-42,-48,48,-39,119,-12,-35,24,-55,-45,11,-4,30,49,21,46,127,-47,30,-13,-32,-23,47,1,-120,-8,65,33,72,83,-16,-127,-22,-16,30,13,18,-59,17,84,43,7,-2,-59,-22,-79,-11,20,72,-24,-5,105,71,-46,57,-26,-7,-85,-45,12,72,78,40,58,89,24,36,-33,61,-73,-41,-6,14,78,66,-105,110,50,95,-83,107,-87,-1,-7,-14,-25,15,-36,80,-13,35,-116,5,15,118,33,11,11,37,-39,11,-34,-4,-44,-36,-18,16,-25,27,-10,21,33,24,-3,18,-34,-23,-82,-32,-30,20,31,18,59,23,12,-23,-2,39,-107,1,0,-17,26,37,39,60,117,18,34,40,-1,127,-6,-4,25,18,-7,78,-52,4,-8,-15,16,37,-1,8,41,11,-17,43,9,30,15,26,14,64,-10,18,51,-2,-22,-5,33,24,24,33,-3,81,-5,21,21,7,-41,-13,47,54,60,7,-22,39,-2,4,-13,25,-46,-12,47,127,48,12,-53,15,20,12,56,-22,-5,28,-27,-9,-26,-49,127,18,11,20,65,2,-27,22,24,-21,-51,-39,89,5,-12,-14,65,13,-42,7,51,-21,-38,-55,54,12,-14,-11,32,6,-36,-4,83,-18,-36,-57,15,22,0,-12,37,18,-37,-8,96,-41,-61,-43,5,44,-2,14,48,34,-48,8,-24,12,13,127,4,11,-5,-12,4,-4,4,63,-17,52,50,46,0,5,-5,-12,-2,-36,87,55,23,114,40,-41,-75,33,1,-40,6,-12,82,83,75,105,-7,-48,-96,63,-9,-52,-1,7,23,64,65,100,4,3,-94,-1,-3,16,-53,48,-16,30,-1,36,-27,27,-21,37,-9,7,-14,21,-5,57,-33,50,-5,32,-42,30,4,-4,0,-7,-14,53,-11,56,-44,58,-63,-9,5,-2,28,12,13,61,12,88,-58,56,-80,25,-12,31,22,27,31,60,-13,127,-59,57,-35,-1,32,16,-1,38,20,75,16,28,-42,-127,1,35,-19,29,-17,33,-22,16,-110,68,-1,-51,-33,-61,-19,3,-23,33,48,-11,-21,34,-4,48,-36,-57,-33,-3,-19,-19,35,64,-13,37,-29,102,-53,65,2,-42,5,-2,16,13,-74,35,51,69,63,104,21,45,2,46,56,34,67,-25,14,90,-11,79,-16,41,17,48,-10,24,-6,27,1,118,-78,13,-28,2,-7,-6,19,93,-39,63,-47,52,-62,89,10,-60,-15,-32,-61,117,-63,51,43,2,-22,67,12,-115,-18,-20,-36,107,-25,26,127,-19,-7,11,-1,12,9,-14,-24,4,-10,59,-11,82,-24,3,31,-1,30,-39,-51,57,-108,62,-127,75,-40,37,36,14,30,0,-36,67,-83,23,-100,20,-11,-6,13,20,22,73,-9,44,1,-4,-60,38,68,-16,-31,13,-26,89,45,81,37,-40,-51,6,65,8,41,20,47,-27,-2,102,27,-31,117,-8,13,0,14,-32,33,2,6,32,-16,-24,97,-17,1,20,-6,-22,13,-8,13,32,-2,42,107,71,10,31,-35,-16,-17,27,21,32,63,116,77,88,54,26,-35,-27,52,127,20,49,26,53,87,114,44,67,-27,39,-37,-15,12,-8,-21,127,-37,-10,20,66,-28,-29,26,16,0,44,-31,53,3,15,21,68,-20,-58,11,9,-1,82,-57,18,-27,48,39,44,18,-34,-24,10,44,87,-91,-15,-70,49,-33,25,14,44,-10,-32,111,49,-90,-49,-55,28,-50,36,3,5,50,44,-35,59,19,84,-48,-25,20,97,3,-1,73,22,-34,26,24,99,-26,-39,11,102,8,-10,59,16,-21,10,-15,49,-14,-66,13,123,4,-4,53,37,-30,30,7,17,-52,-25,-9,127,-1,8,84,91,-25,53,-5,17,-47,-19,-16,126,12,-22,-39,-70,-33,-25,69,23,-38,-33,-11,73,7,-12,-48,-46,-14,37,42,23,15,-35,-27,48,-8,19,-8,-33,-27,14,3,19,5,-3,-5,-47,-39,15,91,66,6,-10,-1,9,27,56,31,-24,6,-6,44,94,32,17,-8,27,2,127,56,86,-13,-36,-44,20,-38,18,12,105,-17,16,86,6,-4,-25,5,3,1,2,-27,34,-39,45,127,-11,21,10,43,-3,36,-25,-29,-29,-29,66,123,54,28,19,63,-5,34,-42,-49,-24,-19,121,69,64,29,32,75,-18,43,-27,-31,-29,7,103,17,12,6,-10,6,127,13,43,18,-31,-28,-6,8,-30,-29,0,4,54,16,-16,43,23,-22,-29,96,19,-4,15,-3,-61,-2,12,-6,50,-51,-8,-20,64,9,17,19,-66,26,79,-9,48,-30,53,-81,43,1,33,73,-27,54,46,-13,2,-53,25,-123,54,-28,-43,-4,31,59,39,61,88,-101,88,-1,110,11,16,-1,-5,29,42,18,71,-61,93,37,51,16,36,-8,-23,-17,76,27,-4,-19,72,56,-17,10,14,-8,51,-25,33,-50,-25,15,78,29,-63,-1,-6,8,64,-31,46,-127,-41,-23,72,-8,-107,-5,21,10,55,55,40,-14,73,27,52,-18,-59,-14,-5,7,31,24,55,-17,102,46,-46,7,-74,-10,-20,3,32,12,76,-11,40,17,-75,-28,-127,-15,-14,19,47,-7,39,20,49,4,-61,-22,-125,-56,-8,8,52,-4,53,1,37,-11,7,5,-68,-74,-5,-47,62,40,127,66,-3,-51,83,-43,33,-29,0,-9,-18,82,105,17,-58,-47,77,-84,19,-25,34,66,-28,93,47,-14,-109,-51,51,-104,20,-5,55,88,-9,50,53,41,-77,-29,57,-106,-3,7,10,58,64,8,98,-2,-14,12,-2,-124,-6,-21,-4,98,92,-6,4,-73,-9,92,-65,-17,21,17,-9,70,106,18,4,-3,-52,-12,-35,20,-81,-17,31,38,43,-8,-19,21,-10,-104,92,87,-14,-6,30,-2,-45,-33,27,48,-38,-127,125,78,39,-13,54,-77,-23,-73,10,-17,-38,-74,23,18,100,-19,9,-13,36,64,62,3,78,-25,26,-45,92,-15,32,7,16,-22,43,59,27,-63,19,-55,16,-11,28,-8,5,-21,76,69,52,-53,23,-30,21,-6,24,-19,2,3,81,61,56,-65,-9,1,47,-19,-19,-66,-12,26,127,33,42,-60,2,105,104,-15,-2,7,11,32,31,-13,50,38,34,33,71,-15,-23,-46,20,31,69,-7,22,-36,31,25,48,-13,-6,-104,30,20,76,-16,6,-86,63,-4,28,-24,11,-60,39,36,127,22,29,-78,88,19,50,-18,-21,-17,69,28,121,20,82,-56,56,14,17,21,-25,70,14,50,66,12,5,127,10,72,-87,34,-16,48,-6,-3,51,-22,15,90,-18,73,-59,-13,-33,-7,-6,5,40,-24,44,82,23,-36,-40,-32,-20,-35,-29,-1,95,26,54,9,68,-70,-8,-18,-24,0,-13,19,82,-22,81,-49,30,-71,1,-13,-26,5,1,53,121,-45,-25,-48,127,-55,24,-8,-36,-11,3,75,84,-2,7,-77,43,-66,49,-18,-4,-8,-9,45,38,7,5,-72,-26,-52,45,-17,-12,-1,15,41,41,27,39,-36,-40,-29,54,-21,14,-17,26,-10,102,-26,62,28,-22,27,54,-29,50,-18,9,-7,37,-106,54,25,102,-95,-47,-30,42,-7,17,9,46,-76,-29,31,54,-118,-31,-4,2,-24,44,60,51,-25,-8,16,71,-94,-15,13,-14,-14,9,105,32,11,34,-3,75,-81,-65,-24,-9,-5,-9,127,72,42,22,-56,27,-58,-76,-15,-27,52,42,-8,81,-34,-48,-57,-81,-16,-61,7,-43,73,62,-50,31,-59,-25,-23,-49,37,-43,9,-34,113,39,-40,-2,-44,-24,-10,-36,58,-45,0,-16,127,51,-2,-6,-34,-5,4,2,60,-11,-22,32,74,6,6,34,-45,27,25,26,68,-9,-47,10,-6,31,-47,103,45,55,-7,85,1,11,-33,-21,-17,10,-26,127,39,69,-36,94,-16,-4,-33,-11,-5,42,-24,95,37,51,-34,111,-10,-17,-8,-2,37,58,-39,37,36,14,-59,86,-31,-7,17,-19,71,27,-55,18,29,-21,-50,28,-36,-32,-42,-52,6,25,69,3,21,-43,-38,6,81,28,-29,-44,29,107,54,34,30,-56,3,28,23,-15,-2,-11,22,68,37,22,20,-52,-9,64,-18,38,2,46,-3,7,68,-5,-3,-34,-18,55,-31,59,14,67,-9,55,-23,-23,45,-4,-13,127,27,94,7,64,-52,87,27,49,18,-14,-68,36,-89,60,6,58,-35,15,63,24,-8,-11,-50,5,-42,51,-20,13,64,19,35,30,11,-27,-18,48,-3,83,4,-53,35,31,1,64,21,16,-27,14,88,104,12,-60,-6,-2,53,127,-37,22,-27,29,96,90,-29,41,63,36,-54,62,-30,77,-14,-9,11,25,-8,31,16,24,-35,17,-52,104,-18,13,-17,43,22,30,-27,40,6,-18,-80,124,-52,8,-69,0,49,-6,-54,94,27,-5,-90,114,-67,29,-127,26,26,-20,-41,114,12,30,12,42,-40,112,-78,54,4,-10,-6,-9,-5,18,-105,37,21,55,69,19,13,4,10,17,10,21,-68,28,10,89,15,31,3,26,27,24,21,25,13,-12,39,69,-6,15,-4,14,-3,38,-19,44,55,-33,73,-37,-69,-5,-17,-20,-40,71,-42,15,91,-34,41,-60,-127,-53,-21,-30,-19,-5,-8,51,42,24,42,-66,45,-43,-31,0,47,30,-3,75,-38,17,16,-52,54,-45,-1,22,55,44,-40,60,-82,4,-9,-43,59,-54,1,16,29,-12,-45,37,2,15,-77,-49,110,-34,2,-14,8,-43,-6,23,56,-10,-127,-42,46,-8,33,-46,53,95,68,67,127,44,-9,-34,125,72,17,-67,45,56,49,59,123,-13,16,10,68,32,-22,30,47,-39,-7,61,29,-8,58,76,23,-15,-28,46,-46,-96,-59,71,-73,-41,77,72,-19,17,-18,50,1,37,-49,17,-107,26,55,46,-80,-26,-36,-25,-14,-7,27,8,27,-24,17,-59,-2,56,6,8,34,-15,1,0,-36,-40,16,-91,-17,32,9,23,35,46,-2,-14,3,73,-14,-60,-57,-5,-5,16,18,88,20,-10,7,34,-16,-3,-34,-2,-4,2,-49,-46,-30,37,83,69,-7,93,51,127,15,6,-46,13,53,117,21,13,-15,-21,47,75,22,20,-33,-11,34,90,31,0,-38,-36,3,26,23,30,-31,-16,6,109,63,13,-12,-26,11,0,23,28,-23,-3,29,103,35,-5,2,-28,24,14,16,8,-41,-19,22,127,53,-6,3,-45,74,95,2,22,-40,-2,52,79,-21,98,-29,25,12,100,-10,17,-22,-27,25,105,21,30,54,90,21,-38,-6,11,53,2,-6,102,39,-63,17,44,-23,-4,-22,8,59,15,-12,26,16,-53,-127,-48,-20,-14,-20,21,8,-11,13,42,40,3,-71,-50,16,11,-26,42,26,-21,-34,91,-29,18,-53,67,-13,-16,7,-16,41,32,-38,29,-2,56,-20,-10,-12,-45,-12,-20,-19,31,34,-1,34,48,16,-5,39,-1,-30,-2,-15,7,67,18,59,23,36,52,-55,-32,-40,-9,27,1,52,12,16,26,11,36,-127,-54,-22,33,-30,-9,-71,102,-70,43,-41,-27,-81,-34,-1,14,8,25,-33,114,-53,52,-67,-43,-62,11,3,-31,78,70,9,64,-13,48,-55,-43,-86,-4,-13,-60,98,64,105,43,-23,119,-17,-23,-54,18,-28,-70,35,106,109,16,12,127,-11,-44,16,0,-39,-8,-10,77,57,43,-31,127,-30,25,-1,93,-7,16,18,45,-17,34,-6,41,-78,14,-39,43,0,-2,9,37,-19,26,24,65,-70,21,-62,59,-12,-5,16,53,-10,39,5,65,-39,18,-82,51,-31,-16,3,16,66,89,20,66,-19,77,-6,88,-48,2,31,88,-109,23,-34,-21,-11,25,1,-16,-55,10,-22,42,-79,65,-89,5,3,43,-25,-21,-78,24,-28,51,-52,111,-112,41,23,40,-11,73,-55,6,38,60,-58,99,-111,52,49,18,-26,112,-85,-4,63,24,-87,63,-127,-30,-27,32,9,83,-38,-8,28,-3,1,92,-5,-71,-111,-31,114,80,-18,-32,29,24,8,81,30,16,-78,-24,127,125,-39,-42,31,50,-15,94,90,-15,-59,28,96,95,-40,9,-7,56,-50,82,112,-17,-23,-21,23,67,-82,44,-39,43,-59,79,77,27,-28,-45,-27,22,11,48,8,8,-11,57,23,-56,31,-29,89,-17,20,7,-20,5,30,7,31,-56,7,12,64,26,5,-7,-45,-16,75,39,71,-28,-31,-5,-46,86,-32,-20,-59,17,56,61,70,-29,-49,-26,-114,100,-35,-10,-17,46,20,104,44,-7,-20,-30,-127,34,-48,2,24,64,21,109,-8,70,-57,42,-12,26,-31,-23,21,6,22,52,29,81,-37,-36,-53,42,-16,6,42,31,69,64,52,34,-12,-70,-127,-11,-44,7,36,44,43,60,102,36,-69,-44,-102,-16,-14,21,51,43,85,102,54,23,-80,-6,-124,-58,-14,-2,-32,-15,27,100,-31,85,26,17,50,16,-1,27,-42,5,36,127,-53,65,47,41,33,-31,-9,37,-24,10,12,105,-10,11,-13,12,-49,-65,-1,1,-13,5,-18,62,34,-27,-97,-21,-62,-59,-3,-21,10,16,-12,13,26,-57,-106,-1,-43,-14,0,-7,46,-19,-1,11,14,63,-33,22,50,84,8,17,64,-19,17,23,72,86,-31,47,44,107,6,39,60,-14,41,22,59,83,-55,60,35,119,7,26,45,-23,35,40,0,74,-47,80,28,100,25,-1,5,-19,0,12,-19,67,-36,127,-3,64,-31,-25,10,-5,127,42,43,-12,-68,-7,-39,0,11,6,-5,-26,110,59,56,35,-49,-13,-30,13,27,-5,1,0,93,47,37,63,-29,38,-46,33,-19,19,-1,22,49,84,31,76,-43,54,-82,-5,-104,-13,-17,52,34,84,-9,46,-39,-16,-122,39,-1,9,-4,-11,10,8,43,47,24,127,19,21,-3,9,24,-16,-5,54,-23,32,-66,67,4,16,13,21,16,27,-17,75,-71,24,-101,91,-2,14,14,11,1,52,-30,68,-62,-15,-54,39,24,-65,19,13,0,61,-20,47,-34,-50,-32,19,62,-90,13,43,10,2,12,17,23,-25,41,33,91,23,13,22,1,-3,15,-21,50,4,24,-3,41,3,-4,-7,-29,-12,45,21,43,11,17,14,-4,-33,-14,-27,-30,-7,1,88,23,28,-10,29,-6,43,-27,-19,-27,0,31,127,55,41,-32,18,-71,33,-19,5,-15,74,0,127,44,103,69,-3,67,73,-45,12,-16,62,-35,90,-13,116,104,36,87,52,-28,9,2,34,1,56,-18,89,74,63,34,-1,2,7,36,75,28,16,-10,33,5,11,-25,16,42,15,22,-19,95,-1,1,-45,-16,13,-43,-60,1,75,-64,-17,-3,35,63,57,-49,5,54,90,3,49,-38,-4,29,14,59,-2,-9,14,10,29,12,14,-22,21,29,46,61,72,4,22,32,-7,-10,12,-8,14,46,80,60,35,47,64,14,37,-6,-32,-35,-34,24,95,102,-34,71,50,30,127,40,29,8,16,-30,33,-82,89,12,-89,-118,17,36,43,52,34,-43,14,-13,27,1,-73,-92,53,11,38,73,44,-32,-10,4,26,63,-94,-102,82,-17,8,15,64,4,-12,-27,45,77,-116,-103,119,-39,24,-24,68,36,-1,-51,40,99,-106,-80,127,-47,-23,-42,39,97,80,-119,95,20,-25,-86,4,-3,-22,-73,14,31,42,-114,57,44,-43,-96,10,-10,3,-60,12,44,51,-54,24,35,-54,-105,85,-59,-18,46,43,36,85,-4,-33,49,1,-85,38,-84,-34,65,88,32,66,55,78,49,99,-127,20,17,-8,-30,-22,26,-17,61,85,12,0,-23,-10,-11,-4,-5,13,23,15,-26,113,58,33,-14,-44,-29,-19,-20,19,40,7,-60,110,44,58,-36,-33,-12,-17,-20,26,55,-5,-113,85,64,116,-35,-21,-1,12,-32,44,62,-9,-127,79,42,106,-37,-32,-14,36,60,78,-10,26,-44,4,25,-91,-38,24,24,-14,46,44,22,37,-43,-19,-19,-96,-31,25,1,-28,28,-3,-10,50,-19,-18,-58,-31,-89,80,-64,-28,-11,-48,-20,105,-30,-13,-79,72,-127,16,-24,-46,-46,-38,-30,52,-69,5,-67,48,-92,3,-22,-63,-22,-46,69,14,-29,26,-48,30,76,31,2,-47,-18,24,88,76,-33,62,7,14,36,-17,5,-22,-31,14,65,45,-66,22,46,27,-32,-5,-20,25,11,7,68,12,-53,8,4,12,-80,-10,-1,60,10,24,-44,56,71,-3,-1,127,-5,45,-34,29,-3,-30,45,-29,-16,118,2,73,-84,35,41,-64,11,-6,-16,-19,-86,85,-72,-23,-88,64,63,-51,39,10,-11,42,-111,15,-33,-10,-29,-1,-6,4,31,5,10,86,-24,-46,-43,127,18,-31,-53,31,-35,16,18,85,-35,-12,3,31,-5,-8,-39,3,73,21,8,66,56,-11,25,-36,-34,94,1,11,58,-16,13,44,-14,26,-1,-4,-19,36,8,6,16,4,-27,58,-10,89,-14,41,-44,17,5,-65,-68,37,-76,73,15,25,-32,77,-18,23,-10,-38,12,28,-50,127,42,24,17,34,-55,42,74,-115,81,-38,104,107,-1,3,40,-14,88,-115,66,-40,63,-21,29,92,-65,52,-18,-38,106,-52,9,-20,17,21,19,46,-55,69,-10,-6,26,-7,-21,-18,-19,-42,20,71,-15,78,-48,71,-41,63,-46,-50,44,-69,45,73,-15,127,-61,6,-61,55,0,-63,-21,32,117,71,61,-23,-114,20,19,52,-1,-5,-36,-20,32,-3,92,-38,-44,18,98,32,-1,-19,34,2,16,25,70,16,17,9,-72,52,-19,6,-5,84,63,74,-14,53,-60,-22,-105,87,-53,68,-40,127,46,115,-107,84,-71,-11,-50,90,21,-18,31,97,13,88,39,37,-24,45,-17,79,21,18,8,54,31,33,-2,20,-22,2,-25,84,-11,20,13,-39,62,5,-60,84,9,18,-92,39,-31,12,-3,-67,50,9,-80,100,54,45,-76,87,-30,-6,-12,-22,40,-7,-75,118,31,3,-127,47,-26,-18,39,127,60,-24,13,-2,-42,40,32,-30,-32,29,17,45,69,-23,11,-22,-27,47,28,-49,1,24,-5,-4,-19,-6,68,13,-6,12,1,53,5,-11,-2,-8,-78,44,52,1,-18,20,-32,63,0,-20,26,-16,-87,65,67,-25,5,-27,-21,43,4,13,63,84,-25,85,13,93,-44,29,61,58,9,-33,30,30,-40,22,22,72,-30,-31,16,52,-23,2,6,-33,-16,10,80,56,28,-39,-6,60,-14,18,-36,-14,-26,-11,-34,49,53,38,19,68,-5,35,-32,50,-45,23,-24,127,35,-26,-43,-8,-35,18,19,58,23,32,5,91,-17,55,43,92,-13,-3,28,20,-7,17,3,83,-25,39,26,42,-8,7,28,14,6,34,-25,94,-18,-5,10,65,-5,3,13,14,11,23,16,69,-35,35,18,35,2,-17,7,21,0,18,24,127,4,49,28,55,-21,-5,-18,-8,3,55,-27,7,30,86,103,90,-19,-24,-36,-22,46,47,-12,52,69,60,58,47,-6,-11,-33,-20,40,44,9,42,64,27,24,33,7,9,-14,-19,28,52,10,54,46,118,47,2,-10,-34,-31,1,-23,81,6,87,60,127,54,2,-8,19,7,-17,-4,16,0,41,54,123,3,9,-6,7,20,-42,5,23,-35,37,-49,127,-17,-26,10,7,19,-26,-4,49,-36,8,-87,99,-6,-6,23,15,20,30,-24,58,-38,-18,-71,16,24,-33,18,1,9,91,4,52,-31,-20,-50,3,58,-30,-21,-6,35,37,41,78,3,112,-73,-14,-127,31,-18,17,-29,-8,45,72,-63,87,-47,-24,-59,66,-27,37,-43,-57,41,107,-42,18,22,50,-36,107,-28,10,10,-50,46,87,71,-8,16,85,-29,4,-32,-1,-3,9,3,61,94,9,6,70,16,-8,-23,24,-7,28,105,127,9,45,33,-14,-21,39,8,30,9,52,89,50,-10,43,46,-32,-3,-92,20,52,42,38,53,73,-84,61,44,-1,-58,-98,-17,55,120,0,-30,106,-7,14,37,36,-90,-106,-60,2,111,12,-112,21,82,100,-9,41,-67,-73,6,35,-50,30,-48,16,60,6,-29,37,-81,59,15,73,-26,-13,30,9,43,6,-81,3,4,43,-27,7,14,-29,3,8,-2,63,-2,-39,41,-9,-38,-64,38,11,12,29,-14,60,16,-15,44,7,-13,-87,-18,52,127,9,-83,21,-55,5,49,6,-20,9,-17,21,32,93,30,39,85,5,31,-6,4,-17,-54,29,-29,111,64,56,111,-27,88,-75,27,-2,-63,34,-42,71,55,77,67,-37,127,-75,27,22,-13,60,1,59,-14,56,50,-2,117,-23,-4,42,46,108,46,83,-44,4,47,53,60,-7,-42,13,-21,39,30,65,23,93,-57,-34,48,48,-1,11,-18,26,-19,42,23,75,3,18,43,-7,17,41,-19,35,-27,-1,47,83,62,58,69,-23,9,12,-32,11,-15,42,61,105,74,3,86,-23,-20,-16,-20,30,4,71,18,127,46,-12,52,-7,15,-24,27,26,31,81,20,50,89,35,15,3,-21,-18,-14,-4,29,29,41,93,93,82,23,14,-28,-3,-15,26,8,34,60,100,77,127,50,-5,8,-5,30,32,22,32,87,20,25,18,-15,-43,1,-16,31,18,30,18,41,-56,44,-64,-7,-42,75,51,-36,-4,113,63,14,-46,87,64,127,18,59,38,0,-18,122,49,41,-35,30,65,100,34,64,10,-10,-30,109,44,34,-33,-17,62,80,27,77,21,2,-36,91,61,34,-30,-21,66,73,11,96,14,35,-29,48,38,39,2,-37,95,62,-3,-2,26,47,16,-68,28,7,-3,-86,60,-9,4,0,39,60,9,-33,45,-43,1,-127,51,-25,29,7,33,79,19,-20,74,-61,14,-116,74,-35,44,18,34,77,42,-20,39,-67,3,-107,64,-44,18,17,22,80,77,-28,40,-44,9,-66,65,-55,-25,75,38,117,41,-47,55,-125,64,-53,-41,98,-24,60,12,103,39,-48,-7,26,61,13,-88,77,12,-4,-35,8,0,4,-53,74,-2,66,-117,7,80,-15,-32,-26,-8,42,-34,27,17,69,-111,18,113,-5,8,-42,75,25,-19,-61,72,57,-68,-61,127,-47,9,-25,8,-53,80,27,17,56,-17,40,39,-21,4,-8,-14,13,90,59,36,8,-34,51,22,-9,4,-4,-1,60,80,9,35,-4,-6,-21,36,-24,-41,2,49,66,127,64,-22,-10,-6,-34,49,-58,-75,-9,103,12,116,81,-45,-92,-15,-105,42,-19,-30,44,34,54,93,30,31,-7,-42,24,14,18,-16,47,-22,78,58,-49,14,-61,-33,-20,41,-2,19,37,-41,68,32,-31,33,-102,44,-73,18,-18,27,4,-43,57,19,0,32,-125,80,-121,3,-8,9,10,-23,60,29,53,14,-116,27,-127,41,-17,12,34,41,16,49,-6,127,-92,-37,-14,34,2,-3,12,30,50,31,11,79,-82,-19,-23,10,-1,-10,32,18,35,26,62,96,-19,-11,3,-23,5,-14,20,19,32,30,64,70,-14,-1,4,-29,-3,-23,-6,17,44,56,42,48,24,12,-27,-34,2,19,-27,7,36,24,-88,-36,10,127,61,63,27,46,2,51,31,29,-41,-14,35,127,52,26,26,50,-11,43,-1,6,-12,-35,45,58,26,-68,4,-8,-32,41,-33,83,0,1,109,75,-11,-89,-19,-48,-9,93,-57,75,37,-10,63,53,-97,-74,-10,-16,22,81,-74,50,-21,27,67,-62,67,48,-35,5,4,118,-46,49,-3,41,73,-60,33,32,-38,25,-15,117,-29,53,-25,127,59,-93,-42,23,-17,22,0,78,-22,64,-80,115,62,-40,-35,33,22,14,35,63,-26,50,-111,111,67,-48,-53,30,-10,52,68,-6,73,127,-33,63,-18,42,6,-1,12,27,12,8,-11,86,-29,25,-1,23,41,-74,8,32,7,14,-26,58,-36,69,17,22,21,-79,4,14,30,1,-49,38,-17,39,75,52,11,-69,-1,31,53,10,-69,51,41,89,94,46,-51,-57,24,29,15,-49,8,15,-43,13,-64,-74,127,23,37,45,74,2,-8,14,15,11,-74,-73,97,-23,1,-16,56,42,-14,39,63,2,-40,-71,72,4,-30,-30,52,5,-11,39,116,1,-8,-67,60,5,-23,-1,69,-14,-17,20,86,-22,-52,-51,36,32,-89,-21,-76,44,21,70,31,102,-109,50,-33,111,-21,4,-18,35,7,34,21,93,-61,102,2,45,9,-1,9,2,-36,33,-27,42,-67,79,10,15,-1,-4,38,86,-3,-7,-61,25,-54,54,22,-65,-49,-3,54,127,-14,15,-33,-16,-13,6,31,-27,-23,-10,15,31,31,127,37,52,9,-41,14,-4,-1,-42,-42,-9,15,120,-23,55,54,-20,37,-37,25,-27,-55,42,-19,64,45,-17,-7,0,55,-38,11,3,-27,3,-28,46,5,21,19,22,33,-3,-19,59,-2,49,26,58,-101,11,49,42,-20,29,18,-16,-10,13,-53,86,-33,107,-13,-13,10,26,15,-31,-7,8,-45,127,-44,77,-32,7,14,60,13,-44,-3,-12,-45,108,-26,106,-15,-11,-8,44,-16,-39,-18,10,-37,89,4,75,-15,12,-39,62,-68,-32,-1,31,-15,77,0,59,14,52,-52,27,42,18,-15,47,27,103,44,-78,65,-114,81,-12,32,34,14,47,53,100,37,-75,70,-116,29,-7,44,20,21,57,62,113,30,-66,84,-124,-3,-36,33,15,41,44,65,104,8,-75,77,-107,20,-39,25,6,29,31,60,120,-21,-80,34,-127,67,20,4,-15,84,-54,86,79,38,35,-38,26,-1,-4,26,25,89,-42,48,20,49,108,-10,51,-23,53,-9,39,36,3,15,58,49,41,-3,5,-2,25,-10,-24,-85,39,-35,51,-43,-16,-16,2,7,-7,10,-49,-85,58,-23,0,-127,-27,-12,67,-47,-25,-59,2,-11,29,40,117,-26,-23,-6,-24,-63,119,-17,27,-10,27,33,68,-27,-41,40,-28,-86,60,-6,19,13,16,36,50,-6,-33,29,-30,-45,64,-9,24,19,7,18,51,22,-36,-20,27,-60,12,-11,-2,2,40,2,127,29,16,-7,10,-51,4,5,-98,39,49,-27,28,90,-25,-108,-27,-42,31,2,-2,-29,-1,40,42,24,25,-63,-20,-57,15,15,49,-55,-21,81,42,-75,53,-24,-16,-86,0,19,51,6,-2,63,49,-19,72,-17,29,-49,1,1,37,58,94,8,127,14,68,-9,70,-58,43,-1,16,-15,-27,14,127,16,12,-12,25,-66,72,-9,19,-15,-40,58,126,-20,-20,56,35,-76,73,-17,18,8,-37,75,112,9,-15,74,35,-64,90,-24,1,24,-15,67,97,40,-15,48,31,-45,44,-8,-10,26,-7,49,96,13,19,37,44,-45,58,-63,-2,-8,14,55,73,-51,42,-127,51,57,64,-77,-51,-16,35,65,81,-60,-11,-115,83,25,79,-60,-41,7,104,24,47,-18,-40,-113,2,9,46,-27,-19,26,95,4,59,53,-34,-107,-53,24,68,-22,-8,63,70,-3,112,6,-28,-95,-58,10,28,-13,-34,21,-43,95,94,-61,16,-67,4,40,27,4,-10,22,-21,49,65,-33,1,-29,-3,16,3,2,10,32,-1,15,80,-14,4,-20,3,20,6,-9,5,19,17,-7,109,-24,16,3,-20,-8,15,-23,-21,-36,36,26,127,-45,-4,-70,32,0,60,-1,77,-52,-35,-67,35,68,-13,-127,30,64,120,-1,63,-43,-22,8,27,26,-15,-18,-7,18,34,0,6,-15,11,48,22,77,83,28,4,-13,20,-25,-5,6,34,84,17,20,17,58,-71,-75,5,-50,-25,4,7,91,126,74,-46,47,32,-26,62,-44,38,-20,-57,68,7,8,81,-59,5,-32,42,0,1,19,-14,53,-21,42,4,-104,-4,-46,-18,-23,-12,65,42,8,25,-15,6,-48,-17,-14,50,-29,-19,71,12,-23,53,73,85,-32,75,61,86,17,-14,68,-36,2,37,15,1,-127,-35,1,65,-1,-42,-28,93,-47,16,-21,29,-58,59,17,94,-25,-59,-22,127,-30,18,-54,-40,-68,49,-11,58,-18,-37,52,75,-20,29,-41,-7,-69,14,-37,52,-10,2,66,4,10,52,-16,25,-46,-6,16,-3,-29,47,51,8,66,39,4,71,-28,-1,70,33,14,-34,19,-50,10,-47,-81,24,-18,127,-50,-4,24,-19,-8,-80,-35,-14,-50,12,-55,77,-70,-26,13,15,47,6,-21,-4,-24,11,-9,24,-61,-64,-15,-8,36,85,36,46,46,11,-12,57,47,-2,-28,26,-26,126,59,109,-2,52,-42,-9,81,19,-17,5,-44,37,96,112,26,-2,73,23,17,17,3,-20,20,91,69,0,-42,4,26,-36,11,9,-21,4,17,77,-4,12,-44,36,-38,29,81,7,-36,29,9,-45,-51,59,-48,-10,-127,51,68,5,1,53,34,-29,-49,113,-27,3,-125,6,-3,-69,-86,-18,43,-11,-42,76,2,-54,-20,-6,35,2,-36,29,93,-2,-47,101,-77,-73,2,30,36,1,-23,25,91,0,-63,45,-127,-62,48,-18,4,25,-64,-8,34,-24,-37,62,-96,-27,25,-19,-28,-40,13,-34,7,-72,-29,35,-42,19,-11,-54,-84,-86,20,-12,-3,117,88,46,35,36,46,75,98,-20,-6,-38,-4,64,65,10,7,43,29,114,33,12,-53,-28,-33,41,22,11,22,74,6,127,48,14,-80,-12,-31,85,14,13,62,68,43,123,40,37,-44,-12,-45,53,32,9,10,23,74,41,1,-27,-90,24,-9,10,51,38,9,70,7,-8,-62,114,8,25,-27,19,27,-4,-16,27,-104,-36,-19,108,26,42,15,40,5,-51,-16,-5,-57,10,-23,113,8,74,57,68,34,-47,-25,-32,-4,16,41,123,-41,57,116,127,30,3,-54,58,-43,-7,75,24,-62,-5,-22,4,22,-26,-70,37,-52,-41,0,-57,-56,-19,-9,44,42,17,-105,32,10,-24,30,-49,-64,-11,44,42,14,100,-94,-18,16,9,19,-17,-22,-13,43,30,13,77,-59,1,28,98,3,22,1,23,-4,67,31,127,-39,24,39,111,-8,14,-9,4,42,-24,27,29,95,-8,-4,-9,-6,126,-9,25,46,-6,24,37,16,6,25,-11,16,80,-29,-1,15,-9,-19,62,2,36,-14,-6,-9,56,0,-51,-53,37,-37,92,41,33,-6,-15,-22,14,-7,-34,1,71,-9,127,62,36,23,28,-35,12,-6,43,115,-21,40,49,-77,-37,-93,-1,-16,-64,-13,31,98,23,45,7,-62,11,-59,-39,25,46,-30,-22,46,97,118,71,25,-1,-7,-95,5,69,-54,-5,14,100,93,122,118,-39,-13,-127,-11,69,23,41,-11,84,-8,81,73,-68,-42,-108,-85,-14,-26,-17,98,40,41,-9,-107,-23,-31,-49,-32,-40,-26,-19,90,66,62,18,-118,-26,-57,-63,-44,-8,-28,5,73,58,80,17,-90,-14,-56,-50,-58,1,-23,30,48,51,46,34,-54,-38,-62,-31,-86,-25,-9,27,-27,34,20,48,-45,-69,-94,-17,-127,-68,-33,-17,-4,27,18,127,-18,86,-20,51,-4,-9,3,6,29,-11,-22,78,-11,82,-5,68,-35,18,18,22,34,9,-13,77,-1,9,-34,23,-29,52,-3,20,3,98,2,98,-38,-15,-31,40,-34,98,-1,37,-49,85,-35,67,-84,3,-16,68,-38,49,-53,-32,0,65,27,127,29,87,-81,-1,-29,110,-40,-16,13,6,17,91,48,95,-65,-65,-80,97,-31,13,27,34,72,70,72,17,-19,-91,-126,23,-23,16,35,57,65,43,105,27,-71,-41,-48,-45,-21,14,59,59,89,75,73,37,-82,-27,-84,-87,-90,17,-40,84,-5,52,9,102,-67,29,-55,102,6,8,-21,41,-29,18,-10,49,-41,39,-40,69,46,-1,19,-32,-39,22,-44,-6,-18,32,-8,39,-15,-9,41,19,-25,53,-49,-45,-26,50,2,1,-59,-5,18,127,-19,39,-65,27,-14,-4,24,-60,16,25,43,105,88,54,12,125,-22,-17,-43,30,-24,42,75,77,87,76,69,127,-13,114,-94,7,-1,30,64,72,69,29,46,122,-28,88,-47,11,11,10,-23,24,-8,5,0,27,-17,18,-22,92,-22,-9,-59,26,-60,40,-24,76,-21,-58,-6,51,42,13,58,9,-39,4,58,-59,33,8,26,96,-9,10,4,-1,1,3,28,-92,107,-16,-88,67,2,-19,5,10,1,31,-7,-41,81,0,-77,1,-6,3,7,50,29,3,-23,23,-37,17,-1,14,6,1,-5,88,34,9,-75,2,-72,-32,78,127,-13,19,59,71,-94,-49,40,28,-61,127,93,63,17,34,56,75,-56,-7,6,61,2,28,65,12,-5,-27,-9,38,8,78,15,24,-20,-57,-66,112,-17,-27,-18,2,97,48,3,-24,-17,-30,-119,126,-31,-16,-33,-24,119,27,35,18,1,51,-111,69,-29,15,-40,75,23,101,56,121,25,-56,31,54,-40,8,-28,74,-14,85,6,127,93,47,74,47,-20,-19,30,18,-20,42,32,70,48,76,16,-20,4,-17,39,56,14,21,3,17,-19,19,-6,4,41,18,44,-17,27,17,8,-47,-26,-23,-31,-70,-37,-46,-51,-27,74,105,73,-64,-90,125,-68,-27,-11,-23,-2,-6,59,94,60,-28,-43,111,-35,-31,5,-15,18,11,58,88,48,-25,-55,102,-20,-32,-20,-4,25,20,81,94,59,-1,-63,127,-44,-65,-76,-8,-10,44,74,114,67,20,-71,89,-70,-51,-23,13,29,49,24,54,24,77,-10,36,30,82,-16,-3,32,12,6,32,21,82,-30,26,6,56,-12,6,8,17,9,35,-25,114,-17,0,12,66,0,-8,1,14,0,-1,0,60,-18,59,30,42,-3,-12,6,38,-5,13,22,127,1,54,20,51,13,-29,6,16,-6,19,-52,127,-8,74,52,99,10,20,-56,5,15,39,-70,119,-17,49,20,-4,1,53,-33,-38,37,56,21,48,-8,-33,7,3,-24,-6,-2,18,5,81,66,-84,-37,0,-63,-4,-13,10,48,92,-32,62,61,-80,-122,-27,-112,-42,40,82,-77,-67,111,57,-37,85,5,-8,38,56,42,39,22,69,34,68,-55,51,-7,4,-3,3,-62,-53,88,121,-33,96,-71,56,-6,-9,7,-42,-89,-78,45,62,25,71,-120,60,73,31,-108,-36,-9,-61,12,127,105,58,-38,-5,16,61,-17,15,-30,48,59,87,-38,36,65,127,-72,48,-27,21,-14,51,10,72,-33,5,73,85,-79,16,-28,51,6,3,8,28,-39,17,35,19,-44,-49,-67,53,-13,-10,15,64,15,36,18,-14,-47,-26,-87,-21,-13,-22,-21,78,29,73,11,-14,-24,5,-44,-26,-16,-7,50,5,-42,24,7,46,17,83,127,7,-45,0,56,1,-74,9,75,25,-58,34,24,-41,-9,13,37,42,-24,-1,-22,7,-65,-89,-40,-49,6,4,-21,34,59,23,-54,31,-44,-120,2,-61,12,1,-94,20,123,56,-24,12,-50,-104,-33,-7,-8,-9,-19,12,21,-15,46,7,-21,24,-10,117,-7,-39,-21,0,72,6,57,9,-59,37,-41,127,0,-29,9,2,40,31,57,-4,-95,27,-55,109,6,-6,31,17,-25,45,33,3,-69,8,-16,50,-21,16,33,0,-70,82,22,11,-35,-25,35,9,10,80,21,-15,-11,126,-89,118,51,-56,-108,4,15,34,-16,44,29,103,-14,68,20,-35,-94,65,29,-57,-32,28,65,47,27,15,-50,63,-20,76,-5,-80,-5,21,19,10,75,22,-111,103,92,-63,-39,-43,37,24,7,11,50,95,-72,127,74,-90,12,7,-9,39,-7,71,-34,103,-127,48,10,76,16,27,-17,-13,-6,107,-45,47,-47,53,2,21,-22,36,2,-55,0,114,-26,-30,2,88,80,-41,-48,51,44,-40,28,104,-15,-65,-31,76,59,-28,-39,37,35,-15,22,71,37,-21,-59,32,-16,-64,-9,-2,77,52,71,49,-52,31,-86,-4,-127,-100,2,-18,92,46,44,47,4,97,-88,23,-113,-68,-34,-11,117,17,-31,21,-1,66,-80,88,-104,-80,-25,-15,63,-7,14,35,-74,96,-91,56,-73,-41,4,-4,44,-18,29,53,-108,105,-48,23,-56,-4,-16,7,-73,23,-14,30,-67,14,37,54,5,-7,-10,15,-44,19,-10,36,-34,15,26,54,-35,3,2,2,4,2,-5,26,25,14,-3,127,-42,37,-3,19,45,-4,-10,34,19,47,-10,121,-43,71,-43,51,69,-11,-11,16,35,63,18,121,-12,44,-49,38,-42,78,-10,28,3,119,-80,117,4,70,2,31,24,36,-5,2,32,35,-47,43,-3,68,12,1,42,1,34,50,0,33,-45,19,-44,19,-9,-7,37,32,1,53,-38,82,-15,11,-66,16,-9,7,31,51,-15,89,-28,127,-13,61,1,18,-3,27,-23,15,7,63,-68,-1,-25,-38,-40,-28,22,1,27,-12,38,68,-46,3,-54,13,-50,-26,-31,-20,105,-4,-12,69,-36,31,-40,38,-65,-46,-28,-56,109,35,-41,11,-16,126,-28,73,-76,-52,13,-39,19,85,53,61,-56,127,-71,32,-100,-2,20,48,-66,36,-84,23,115,67,65,64,-56,82,-7,7,-5,8,-9,92,67,-2,17,11,-11,12,-32,22,48,-1,26,9,-50,28,-33,-39,-6,-60,2,-2,42,3,42,50,-127,65,-40,18,-19,-48,-18,-41,-8,36,69,103,-125,50,-51,37,-37,35,-14,26,-6,19,-31,64,36,74,-13,127,38,89,21,22,-10,6,-21,27,39,43,-20,54,6,18,25,-11,-21,10,23,19,3,-15,-59,-20,-49,11,-6,-9,-13,37,33,42,19,-40,-82,-17,-78,-9,-34,13,-30,52,5,77,54,8,-28,77,-12,-6,-6,-2,98,2,-99,54,1,69,1,127,97,3,-14,24,110,-46,-62,54,6,19,24,107,50,1,-4,35,102,-66,-41,58,1,-5,28,75,42,25,23,41,93,-83,-43,54,-8,-44,45,97,16,15,61,9,74,-90,-59,72,4,-81,61,115,-17,-2,0,-6,36,35,68,45,83,41,-69,-30,-79,31,15,-30,40,21,58,50,73,7,-67,-36,-120,49,11,-28,60,19,59,43,69,-13,-54,-10,-127,59,10,-12,45,2,37,38,49,-18,-73,-11,-68,55,15,-5,-30,-10,68,53,-8,-13,-44,-6,-38,45,3,57,75,4,64,-16,18,-56,-23,108,80,17,5,30,44,-46,69,10,57,-6,-79,127,20,30,-18,-15,-31,-56,42,56,58,72,-58,44,-5,52,-19,-39,-24,28,64,87,29,41,-48,12,-74,95,-19,-33,-16,48,0,82,-10,54,-3,-12,-67,-52,1,-18,26,127,65,59,-22,-46,93,-101,0,-57,-20,-7,7,76,16,49,-35,-47,-31,-58,76,-31,22,36,59,-17,-36,-16,47,53,-117,-5,121,-6,-9,36,10,-53,-18,-16,49,-7,-86,85,48,53,-46,12,-9,-42,9,-3,12,-21,-26,97,-66,69,-41,54,2,-23,-9,127,7,84,-125,77,-55,73,-10,23,-12,-42,-10,84,-124,22,-87,50,-74,1,16,-20,-25,-24,19,13,-63,-17,-26,-15,-14,43,-5,-38,30,44,1,-24,35,36,18,-7,-18,19,-32,-29,4,93,28,49,64,101,28,16,-4,15,10,1,39,-13,0,26,16,76,-18,16,127,44,5,21,67,2,57,21,70,88,-41,62,93,62,-4,47,70,21,68,7,91,88,-58,122,41,35,3,33,27,18,70,19,79,108,-63,116,7,51,9,-6,-13,37,69,9,84,124,-86,102,-80,68,1,-3,50,1,-45,44,4,19,-13,-68,127,-14,-2,12,48,2,-36,40,16,4,-37,-47,107,3,-1,7,49,-4,-53,11,14,-10,-74,-11,85,6,10,11,52,-6,-55,-15,37,-43,-85,-3,58,7,-2,-2,49,0,-55,-17,65,-70,-33,5,17,8,-8,-11,66,11,-67,21,17,36,31,30,27,55,-4,-7,97,-11,-19,102,-1,40,17,35,80,37,-58,-25,39,-43,19,61,-40,36,-18,-25,35,-26,-12,-9,-65,44,13,100,20,0,-44,15,-4,-35,6,-5,-34,78,-64,127,92,1,-70,34,-48,30,10,28,65,-16,47,20,-48,109,-29,12,49,113,-2,8,61,-28,46,-11,-43,120,-24,48,24,71,-26,-42,25,8,37,16,-45,127,-25,35,30,31,-26,-62,-7,33,-2,30,-61,105,-45,-24,-3,18,-33,-65,-3,82,14,40,-104,37,-11,-48,-46,-8,-36,18,58,31,89,74,-41,-58,-19,-9,-13,-17,-13,18,33,47,42,39,11,-30,37,-47,53,17,1,-2,-33,43,75,25,72,-34,23,-99,-23,15,-13,-1,-61,104,104,31,81,-21,40,-124,-53,15,9,-5,-58,100,90,7,23,8,0,-127,-64,-78,17,-25,60,61,3,61,-68,27,-19,61,-13,102,26,-21,12,33,-11,46,-127,29,-96,4,-21,23,30,27,-35,12,1,24,-110,41,-44,37,-42,17,1,22,-16,14,-8,37,-80,0,-38,52,-22,-7,-37,-2,78,21,5,43,-18,-46,-22,15,-50,-18,-84,-30,-58,19,25,60,-62,29,-14,-33,-44,33,-75,-45,-58,60,0,127,-49,-63,-41,-25,-42,15,-58,-29,-54,86,22,113,-6,-73,-105,-43,-59,40,-25,-3,-46,111,83,78,91,-9,-80,-31,-28,87,-30,11,-57,79,111,115,64,65,-83,-47,-105,89,52,12,-28,-29,-22,21,32,10,-7,-54,14,84,27,16,-37,13,-33,-8,-21,30,2,17,-21,10,-8,24,-17,68,14,-2,11,36,-28,83,-6,-20,-42,12,-19,40,14,32,14,20,18,127,-6,-9,5,-4,-5,32,-18,15,4,-33,24,44,13,76,-18,3,-6,93,77,78,-6,65,-25,-17,-51,77,-11,17,19,54,33,72,35,30,-22,-46,-91,34,-21,19,37,37,21,64,18,25,-36,-7,-55,57,-28,14,43,27,6,47,-20,44,-127,-33,-64,31,-21,-7,26,3,25,33,15,100,-105,13,-10,-17,-62,35,73,104,70,14,-21,81,34,-30,1,21,22,-46,46,53,31,26,-18,-28,-36,9,-23,12,3,-35,4,0,-59,32,-23,-55,-80,49,38,87,-25,18,-36,-88,-76,101,-48,-41,-84,35,39,32,5,81,-1,-41,-127,83,-86,-49,-71,-82,63,-52,-34,13,12,36,-9,0,-72,85,-127,73,-18,100,-10,20,32,31,-10,16,-82,72,-87,51,-6,60,2,-3,38,-5,3,45,-37,48,-57,34,-65,52,-25,-15,33,41,-9,76,-7,57,-71,36,-81,41,-41,0,28,65,-18,88,9,50,-50,24,-79,-20,4,26,16,1,34,7,-28,50,30,110,-43,-48,-12,21,23,-3,22,-1,-8,33,10,127,-32,-48,-9,13,22,5,16,-6,4,25,-17,88,-30,-38,-4,10,17,6,22,3,7,4,-34,51,-11,-39,6,18,27,15,22,15,-6,-19,-19,34,-7,-53,-19,55,12,17,34,45,-79,86,85,-64,-54,-8,-10,64,3,-4,15,34,-52,41,66,-68,-53,28,-7,68,-17,-22,24,28,-13,29,39,-86,-84,34,-3,68,-3,-16,34,60,-27,22,44,-47,-101,42,1,77,29,-3,23,82,-26,-11,38,-9,-127,44,-19,-47,8,37,-31,20,13,55,-22,21,-48,-25,11,-7,36,-9,-72,91,17,89,-42,9,-69,-16,28,5,45,11,-79,95,-11,30,2,38,-111,-36,14,33,63,80,-40,41,-1,-23,52,70,-127,-59,11,47,21,78,-8,72,19,-38,51,64,-124,-19,17,67,15,-26,-46,16,-59,-1,15,-39,12,0,17,37,60,-11,-5,17,-15,3,-6,-4,73,-20,-16,-8,7,14,-8,30,24,1,18,0,-22,-64,-48,-66,-90,19,12,119,5,4,25,43,-20,28,-108,-46,-32,29,7,127,66,12,14,-18,-96,20,15,17,-5,45,8,-43,-53,127,57,-76,21,-35,-19,22,24,90,-9,39,-103,65,84,-96,-3,58,-15,-10,15,34,-2,83,-105,-5,31,-25,-51,56,6,-58,20,36,23,102,-7,-39,29,53,-15,55,25,-56,15,-20,2,31,53,9,22,90,45,-32,-9,-39,-117,-23,-73,-10,14,33,-79,-27,-28,76,29,10,26,34,0,47,-95,45,-55,-24,-58,52,-36,36,118,90,38,65,40,84,7,54,-56,117,-4,9,91,62,86,25,127,45,-20,20,-36,72,11,0,39,57,37,56,86,72,-45,-49,-14,22,25,43,50,68,-36,4,-45,-22,12,70,-111,19,-17,31,-18,111,11,21,7,24,33,78,-17,8,-10,28,-19,88,32,-4,-19,-15,-14,9,11,-8,3,3,-10,62,9,23,-89,-48,-16,20,-11,-63,-1,-1,-17,127,-2,44,-45,-46,-2,56,-26,-81,-3,-38,25,4,112,102,-91,11,41,64,62,0,5,-39,90,6,-20,36,-50,32,5,59,91,2,29,-8,98,18,-40,10,-32,20,20,63,80,11,-1,25,75,123,-35,-26,16,39,-21,58,68,-10,-24,22,14,84,36,40,16,76,6,127,101,74,-26,0,81,55,101,99,18,-33,14,15,85,-8,11,15,-17,66,10,-7,29,37,49,-4,11,-76,31,44,-109,26,-51,1,108,89,79,-58,93,-72,-3,18,-82,22,-32,11,26,118,127,-108,25,-38,-70,-31,94,70,-4,107,-34,64,90,-29,-67,1,2,-41,-25,25,43,127,0,45,-66,45,55,89,-36,-29,-81,24,11,112,-36,33,-77,105,-14,20,-28,-26,-68,59,38,74,-26,-16,-103,62,-9,42,-14,-17,-8,55,31,64,29,40,-62,92,24,33,12,-18,12,58,18,41,13,76,-51,38,106,80,1,0,24,12,15,76,-45,26,-14,-31,66,51,-14,-8,1,-3,-12,75,-7,-10,-71,14,19,12,-25,-12,39,56,-33,76,9,-17,-127,70,13,-34,-18,28,9,17,1,36,0,-2,-103,13,3,-37,2,18,1,25,10,22,17,-19,-62,2,43,-52,-56,-5,54,66,34,-19,-40,-72,-97,-35,-54,-101,-42,3,31,43,16,-11,-55,-36,-125,-60,-67,-72,-27,17,-1,38,21,11,-38,-29,-112,-57,-102,-104,-30,29,-3,25,9,17,-27,-29,-94,-64,-110,-122,-25,46,-3,26,42,35,14,-35,-112,-64,-84,-127,-40,52,-8,20,-67,107,-25,28,-105,-21,8,84,-4,40,31,47,-53,76,-51,26,-112,-74,33,95,5,3,42,48,-29,5,14,-1,-60,-44,28,100,-12,-3,63,51,-5,12,13,-23,-33,-36,28,111,-4,28,44,127,-17,8,-3,27,-17,-1,0,115,-1,3,-19,-32,-23,36,42,-9,-95,-18,37,55,-1,-5,-22,-6,4,31,-2,-19,-38,-50,7,24,3,17,-11,-9,-2,20,-3,59,27,-49,-25,-1,-4,23,28,61,25,-17,-23,9,32,2,-44,-3,-9,11,-6,0,17,61,50,49,26,127,12,49,-1,-16,23,17,48,127,-1,-17,-35,57,-14,48,10,-20,2,11,40,81,15,4,-47,0,-77,82,9,6,-9,28,58,55,35,5,-39,-41,-98,83,-3,-1,-26,45,46,40,31,12,-36,-64,-65,56,-10,9,-41,60,8,82,-36,1,-30,-59,2,-15,-4,39,-8,73,-6,23,-16,-50,-66,30,64,60,-4,33,4,19,10,35,7,-90,-44,29,56,13,-9,20,22,15,11,55,25,-77,-6,102,51,-14,3,22,12,8,8,50,36,-67,-46,121,50,14,1,-20,-4,15,3,40,-13,-88,-20,127,53,104,-19,3,-58,46,-54,-11,-47,112,-94,-28,-61,71,14,34,27,19,-43,7,-59,22,-62,-8,11,108,12,41,61,52,-45,12,33,-13,-8,-25,32,86,1,-5,41,72,-11,26,56,11,-6,-22,16,68,-8,7,19,88,24,97,127,37,29,17,-8,26,-28,20,-12,-28,4,114,-17,93,-40,101,-53,-2,1,1,-17,-10,42,76,-22,107,-51,-5,-103,3,18,23,-5,9,40,16,-12,52,-25,-62,-120,70,-4,-8,4,25,18,12,17,-6,-45,-64,-28,108,-12,-1,36,45,2,59,13,-44,-73,-17,-12,127,-23,-12,-1,5,34,91,-78,28,-18,101,60,19,-33,-5,39,-4,-33,13,-20,47,-35,11,47,-8,-33,13,67,32,-29,-29,0,35,-13,-58,10,-29,20,-3,0,41,28,-10,-12,-34,9,-127,-11,-16,49,-30,-70,26,96,4,11,-41,23,-112,-32,7,3,57,-12,32,75,101,-8,-5,-20,-47,1,67,38,-5,-36,127,28,50,-28,43,1,-20,-2,86,16,3,10,125,-52,36,55,36,-11,76,18,74,-7,29,56,22,-71,-5,0,-47,7,93,8,33,-69,47,79,-37,-59,1,33,40,46,-23,-64,-68,-45,-8,46,52,73,82,-107,127,-51,89,-61,63,4,-34,-19,52,-15,-17,17,65,-73,47,-109,-31,12,11,32,30,10,7,52,47,-63,9,-80,30,6,-15,37,38,39,73,23,25,-31,48,-78,64,-35,0,50,42,121,70,-94,78,-67,62,-70,96,-28,20,48,9,35,57,-75,-4,3,-47,-21,50,-33,-4,31,2,11,72,-49,28,-4,-44,-15,-23,-21,-10,20,-17,26,53,-38,49,-59,-42,0,-48,-48,2,9,-36,21,31,-25,99,-79,-13,52,0,-37,-12,30,-42,37,35,-46,127,-26,24,9,38,-54,77,1,17,21,61,-48,18,-23,54,-36,81,-7,9,-10,-5,18,-25,2,61,-100,18,-43,-12,25,-28,43,-11,48,-1,-4,114,-45,18,40,-33,45,-25,51,55,47,13,-69,127,93,-12,25,69,33,-36,12,-28,-33,102,-28,-43,98,14,-44,32,-28,-12,32,-13,80,98,30,49,-37,118,73,58,-18,-3,29,19,45,120,-9,85,-11,66,-7,22,27,9,37,17,13,69,23,98,-17,29,-32,-6,15,51,53,84,46,110,22,96,3,5,-37,-28,-38,69,39,95,39,127,45,19,27,88,20,16,-23,9,66,5,-7,104,104,-40,-28,71,12,82,-3,30,36,24,14,65,60,-52,26,38,-89,22,7,5,8,41,68,84,25,-59,17,54,-39,77,1,-2,50,14,79,115,33,-67,16,3,14,97,11,-25,47,16,103,127,14,-24,23,20,46,86,-14,-87,-35,0,35,-35,0,53,-28,-37,-103,19,1,-104,-77,53,37,3,-15,19,-62,15,-73,54,20,18,-24,34,3,23,-31,-15,-50,84,-24,5,-10,127,80,-23,-20,89,-26,-6,-7,46,58,8,-33,43,87,8,-36,99,-12,3,-29,-27,-8,-12,10,-3,44,-10,48,3,-71,73,-30,64,-91,95,36,-36,42,-12,18,-16,-86,99,-93,51,-120,91,23,-36,31,-8,-5,-4,-67,40,-82,61,-127,82,-2,-7,-12,-4,12,5,-49,-40,-64,79,-97,47,-42,19,-24,4,41,45,-54,-60,-6,43,-60,24,3,15,-36,80,18,57,3,-17,5,-72,24,-26,-54,18,-12,127,81,97,20,3,23,-53,7,-1,-15,30,16,40,46,64,-52,13,4,-33,-27,-21,8,7,38,-41,26,49,-72,-11,-17,-18,6,-34,27,-1,9,-52,77,23,-18,-48,-18,9,-16,-29,-25,-79,-26,33,1,85,58,79,-119,77,107,57,-17,-28,27,62,-53,18,50,4,-83,86,82,-39,-17,34,23,59,45,-30,27,-39,-78,113,-15,-39,-11,59,35,15,97,-8,37,-95,-41,44,-68,3,-15,40,-27,69,27,17,75,-48,-21,8,-127,105,-63,-40,-10,-7,51,91,1,58,-16,127,2,-1,-4,-23,44,-12,-30,61,11,66,20,82,27,-20,37,-17,40,9,-42,-45,-16,16,-33,52,72,-24,23,28,36,89,-1,25,15,35,-20,25,69,-58,-76,57,2,105,5,29,-9,-13,9,50,58,11,-78,-37,96,83,127,102,-61,-16,-44,11,14,62,-27,-13,-48,23,25,-9,3,34,-37,-28,16,36,26,46,-106,-33,-59,-34,90,71,-1,-26,-27,-83,35,-7,2,18,-11,29,55,102,14,-81,-58,-55,-58,-1,108,87,4,122,-26,119,-6,-79,-114,-39,18,-41,22,-49,100,-2,-16,-57,6,42,23,-8,26,-29,34,-28,22,-15,34,14,-2,24,0,12,12,11,34,34,-11,13,9,42,-15,20,1,6,-22,54,-12,88,-46,114,4,21,-4,7,10,-26,-24,58,-58,76,-42,127,16,-22,20,-20,39,33,7,30,-1,20,-9,78,-19,102,-97,75,-70,-55,16,29,42,26,-16,113,-53,81,-52,-25,-86,-94,3,-2,19,38,-27,48,-19,24,5,-60,-40,-120,-21,12,48,91,8,76,18,12,61,-85,-28,-123,-37,-7,-5,89,-5,127,56,26,47,-62,-28,-81,-35,30,-10,-15,54,61,-14,7,62,92,77,63,-11,8,28,14,41,41,-37,-7,9,6,70,-12,7,-2,-28,75,64,74,-13,13,-80,-28,-38,-47,-22,-25,-79,81,32,127,-28,-2,-100,-9,-47,-106,-31,14,-82,58,-29,77,-12,3,-72,80,-30,-110,-37,-36,30,43,39,30,7,-6,-84,-49,52,9,-36,-1,25,24,22,48,36,-18,-127,-40,23,-15,-26,10,15,0,13,23,12,-14,-121,-26,30,24,0,17,22,-2,1,49,-27,9,-70,-1,47,15,13,29,10,-8,-32,110,-40,-18,5,-5,80,48,16,-24,15,60,31,39,-56,57,-16,-3,19,33,-24,2,14,-3,-14,23,-3,73,47,16,53,16,-41,20,44,19,-58,11,-19,50,29,-8,70,27,4,-5,36,19,-29,27,44,-33,-12,-110,-1,-9,53,-27,-41,-3,52,20,13,-82,-13,-127,-8,11,10,30,21,27,22,29,3,52,-46,-82,-41,46,-31,19,3,37,18,33,-111,44,-36,2,-31,-60,-45,-9,3,67,34,-4,-75,9,-26,35,-32,-18,-10,-13,-1,38,44,21,-15,33,-17,88,-17,-23,-14,-24,2,-2,15,17,4,15,22,127,49,92,-8,43,23,-3,-87,58,25,127,-6,-85,-45,-37,-41,-34,38,29,39,118,0,30,12,-33,40,-1,-28,-27,-5,28,60,117,52,65,20,11,10,-78,12,-13,-12,13,-15,74,33,62,49,31,3,-85,26,13,-17,-22,-67,48,-38,64,30,10,-7,0,10,-11,7,71,52,58,-22,90,-59,21,12,57,-41,40,110,64,103,74,-22,9,-57,89,-18,-24,-21,33,10,-1,16,17,32,24,-50,75,2,30,23,54,-41,2,-71,60,71,13,-4,-33,30,31,7,20,-50,8,-106,125,79,36,24,-127,61,44,-39,-48,-42,26,109,48,-55,110,-22,-3,8,9,-11,-13,-43,-5,22,10,24,46,5,-31,-79,8,-12,23,12,3,45,52,-2,38,25,-45,-83,18,-22,-20,30,59,59,75,-74,28,-7,-31,-97,29,-31,-28,19,88,81,89,-87,54,-14,35,-127,28,16,10,-5,9,-28,47,1,18,26,-46,17,104,21,28,-23,-7,-26,24,-18,26,16,-35,-14,87,10,24,-20,-3,-19,15,-17,32,10,-9,-11,42,-8,16,18,11,-10,28,13,39,-22,-12,-6,62,-10,6,6,-1,7,27,-4,48,-20,-32,18,127,-37,51,3,-20,85,123,-36,40,23,-3,22,-13,-24,72,-26,-21,127,81,-18,3,13,-55,37,-79,-19,47,22,26,25,56,-39,-17,30,-46,-16,-56,4,16,53,69,-82,-10,25,34,-25,56,-64,-15,13,-11,31,66,-28,46,55,91,-85,34,-10,26,-38,2,5,-77,-13,15,-25,-52,-72,50,27,58,1,41,83,-60,-1,-93,-21,17,-65,15,-11,44,-44,-23,14,36,103,-1,66,68,-3,-85,-30,24,-68,-16,-45,39,75,105,113,25,10,-105,-57,68,46,35,74,98,-9,127,37,-41,-60,-64,0,-79,-41,40,25,-2,-40,40,-46,123,-60,13,35,-36,-6,20,48,3,-43,8,-39,115,-63,38,63,-53,2,0,71,17,-42,14,-26,127,-44,36,37,-22,0,-14,81,12,-41,17,-43,90,-42,46,16,1,20,-30,82,11,-19,36,-39,63,-25,76,-19,6,-116,-69,119,81,31,28,-43,-33,58,57,51,-2,-51,-38,27,104,65,67,-53,-19,-10,89,17,-4,16,23,-42,42,7,127,-51,-20,-79,31,-28,41,26,26,-11,43,70,95,-86,12,-61,51,-32,71,16,-2,73,20,14,48,-41,34,-6,119,-92,78,26,9,-9,76,-6,-3,6,-52,2,-52,-7,46,17,27,-13,58,-2,20,15,-69,-14,-21,-5,21,8,34,11,46,-10,49,11,-66,-29,18,-3,-2,2,28,5,24,-15,48,-15,-69,-33,27,13,40,6,20,-2,-6,-32,11,-30,-75,-36,19,38,127,-15,20,58,66,31,83,-47,100,16,-4,-84,57,2,13,30,47,31,35,-97,65,29,0,-101,97,16,11,3,13,44,13,-112,72,38,-27,-125,79,5,30,-38,-12,73,10,-123,48,84,-13,-109,69,-10,35,-48,18,73,18,-127,35,50,6,-89,71,-74,11,-30,54,6,79,13,30,-4,13,-29,127,-35,24,-17,53,10,71,28,29,54,-7,-57,95,-8,-4,-3,14,2,91,36,26,47,-46,-28,59,-9,3,-2,20,25,109,-13,37,28,-66,-54,-13,-8,10,30,30,23,111,24,55,27,-67,-50,0,-34,-26,9,81,26,27,-26,36,34,-16,28,-46,-17,-31,-2,80,54,51,-6,20,-52,-79,56,-75,-25,-20,-7,38,64,58,16,21,1,-106,17,-68,-33,-7,-7,47,84,76,44,32,-33,-127,7,-99,-16,-16,19,28,55,86,49,41,-65,-49,20,-72,-62,16,-43,111,33,68,-3,105,-55,74,-87,42,-81,34,-30,9,28,49,-53,16,13,44,-127,2,-32,41,-19,2,6,39,9,-24,45,9,-73,4,17,25,6,28,7,58,15,-29,-23,27,-25,34,15,17,-8,63,18,52,54,-30,-27,34,-14,-28,-8,-25,-49,46,0,43,37,20,-56,40,-57,49,6,26,11,-26,46,65,-7,-14,-1,50,-38,-8,-62,67,35,-79,98,127,-68,-17,89,36,-12,-61,-47,38,30,-11,46,31,-56,-13,52,-40,-47,-91,11,-4,-41,67,-42,-2,19,41,-23,45,21,-21,-13,14,30,0,-8,30,-3,36,-10,-2,-20,55,15,-15,21,-8,-6,15,-61,71,-73,-27,5,30,35,-5,14,17,-5,33,-107,62,-127,6,41,2,30,3,27,33,12,67,-64,20,-91,36,54,9,24,6,14,14,23,88,-18,-27,-69,38,18,47,-11,1,92,55,76,107,61,59,-25,10,-57,-30,-1,34,15,19,115,21,-11,43,-69,-5,-87,-103,-3,51,-26,66,119,49,-18,127,-1,0,-96,-99,12,18,-3,36,15,68,-6,45,-7,82,-85,-87,14,12,20,17,-83,72,-1,112,-28,104,-29,-83,6,-7,-24,-4,1,30,-12,127,-36,102,-8,43,-30,30,83,-3,31,45,-10,70,12,112,-22,20,-1,1,71,-2,7,5,-1,89,-23,60,-15,55,15,-16,15,-5,20,27,-3,18,-34,31,-34,67,-22,-12,-39,1,-17,67,-37,-57,-7,10,-52,31,-51,-10,127,82,87,71,4,4,-60,-72,78,114,-13,-48,14,42,79,87,-66,-46,-33,-31,26,45,2,30,-67,41,-48,13,-9,-14,76,92,-52,-29,3,22,-113,71,-92,-3,74,0,41,23,18,-17,-12,3,41,33,6,115,-19,40,26,52,3,29,-12,41,40,47,-102,-23,11,5,28,-13,-26,103,2,18,72,20,19,56,36,19,-13,-52,39,65,-8,9,39,-37,66,30,-39,82,-30,29,58,-58,-9,-45,-59,-2,50,127,-41,-2,0,-14,36,-92,-44,-10,-66,77,-35,125,75,-5,14,29,-26,-73,-34,-26,-20,37,-75,94,-19,15,27,-6,79,127,31,-28,-44,37,-83,56,-94,13,4,17,39,102,37,-44,-26,23,-16,26,-61,14,-52,41,-20,63,-46,11,30,-3,46,-4,-79,-13,-35,-29,0,22,-107,77,88,-32,66,-20,-51,-49,-31,-53,0,20,-16,62,33,49,-24,91,-40,66,-41,-10,9,-65,-20,52,35,63,-33,29,-50,65,-9,29,62,-83,-10,35,60,57,-30,-3,-91,70,42,-10,62,-28,9,-3,88,60,-45,-8,-124,46,-2,-58,10,-47,53,-50,84,49,-13,29,-127,124,-35,-112,-43,-62,-6,10,-7,46,-1,28,-17,43,-13,3,63,67,2,21,15,60,28,-5,-19,19,-29,-44,77,54,10,41,12,31,55,-40,-98,97,-16,5,43,34,-3,39,9,14,110,-24,-127,24,-10,36,-7,70,21,16,21,-19,78,-13,-98,-22,5,101,-82,48,-12,21,48,-22,-46,-18,71,45,-14,-90,-12,-39,-53,32,66,-13,-46,-4,21,-12,15,-70,2,-34,-95,54,78,-11,-44,4,-54,-88,-8,-62,-48,16,-103,37,77,-18,-45,12,-57,-90,-41,-57,-114,23,-109,18,55,-27,-24,-5,-39,-95,-70,-44,-127,1,-90,-8,-72,22,-56,80,85,52,87,-25,-17,-42,16,16,-55,20,-5,17,-45,55,-65,6,-31,-39,50,26,27,35,33,-3,-79,25,-77,5,-11,83,40,31,48,20,34,25,15,48,1,-16,31,126,-27,-39,55,42,1,127,37,21,56,-6,89,91,-38,3,60,42,-10,18,-120,-36,39,20,28,-3,-16,19,51,17,-36,-4,-84,-17,6,-25,-25,26,8,11,57,10,-42,-4,-90,9,44,-60,-18,16,38,4,35,24,-45,-22,-127,34,43,-87,11,-16,47,-75,-21,62,-30,4,-77,51,85,-77,-23,-20,-7,-10,18,-50,-21,54,83,-54,-19,-49,26,82,4,9,13,-17,27,41,33,-56,2,-98,-9,73,2,31,24,-5,-2,29,-10,30,-3,-64,-18,13,8,38,16,79,-1,46,-13,108,33,-19,-20,27,-11,32,-33,28,-10,110,-7,117,12,61,23,127,3,-15,28,101,-45,71,43,-15,-14,-111,46,-100,-2,-8,24,88,-15,36,35,39,-46,-80,86,-24,5,-2,-1,-48,24,13,-6,10,45,11,-11,44,6,6,-11,-114,22,1,-79,-25,63,105,-99,127,-18,19,-1,-46,55,-23,-26,-14,41,122,-117,78,-47,125,87,21,39,56,43,85,-105,-29,-70,34,-40,81,63,31,26,34,111,52,-105,15,-108,37,-11,-17,101,100,-74,22,117,-3,-79,101,-105,54,-16,-35,85,109,1,81,72,-11,-101,122,-92,30,-15,-3,80,88,15,94,-5,-64,-127,125,-82,-4,50,94,43,74,0,91,54,78,-57,103,-29,-29,36,40,52,53,-8,83,55,16,-51,43,20,-53,34,29,44,36,-31,50,29,-11,-55,28,45,-55,34,42,76,41,-3,55,3,-34,-77,44,12,-77,67,49,64,18,12,32,47,19,-102,63,-27,-127,-127,-37,108,31,-12,16,-54,22,2,24,39,-38,-98,4,84,56,-6,-31,-40,55,40,107,13,-15,31,-6,-37,20,31,69,-56,17,-3,79,26,-4,57,-5,-45,22,59,117,-50,-19,-63,53,-3,36,-21,-38,15,56,6,53,-56,-51,-86,1,-11,65,-12,27,46,31,56,35,-23,47,-22,-18,96,-1,-29,16,49,42,40,92,-19,9,-33,-39,110,-55,-8,-36,38,13,-33,67,11,-31,-58,-41,89,-18,-24,-37,8,3,-53,52,-16,-42,-127,-73,60,-6,-2,-9,-19,-23,-34,39,-39,-75,-85,-81,54,-1,10,6,13,8,-4,98,-9,-65,-61,-60,33,-35,13,23,36,20,-9,89,-7,-16,-21,-49,-29,11,-3,-24,36,74,-45,109,10,57,-33,-51,-59,41,-20,-57,18,105,-64,110,-10,112,-35,-26,-63,10,-39,-64,-30,58,22,81,-85,127,-22,-57,-92,-59,5,23,-10,-14,45,39,-3,-7,-63,-41,14,6,-27,7,54,-36,22,65,-27,-23,13,-1,-13,13,-26,-57,75,31,-78,78,-17,3,6,29,54,29,5,-57,-41,35,-14,73,-111,30,-31,24,19,-6,34,0,-45,28,76,127,-74,-11,-69,27,-53,15,5,9,-6,14,-17,28,35,6,33,-18,16,127,10,33,-6,2,-8,19,30,42,22,-18,-10,102,11,30,-9,5,-11,-5,-2,45,-5,7,-3,60,5,23,-3,1,-8,-8,37,66,-4,8,-1,74,6,13,-6,0,-3,7,41,62,-1,-10,-8,113,-50,-2,-4,-38,-59,116,-2,-51,96,5,64,-59,-28,-45,-36,5,-30,40,40,20,9,48,26,-55,-13,-18,-13,4,21,62,53,48,-121,-30,-43,-31,26,22,3,7,25,83,-22,38,-92,-33,-79,70,4,8,12,56,30,123,-50,-54,-43,30,-25,127,11,34,24,51,120,-5,88,-37,-56,-102,-90,-49,22,26,82,31,64,-8,70,-22,-16,-52,-105,11,18,19,26,22,2,48,23,22,5,0,-52,46,-6,-6,-33,29,-43,78,-45,94,-7,123,29,76,-6,-10,-31,5,-62,55,-51,103,-17,127,48,48,-12,-12,-63,9,35,82,-82,-4,85,-35,76,15,27,-18,-36,5,17,32,-94,-17,-5,1,43,8,-4,-31,20,48,-17,37,-25,-5,-6,15,19,62,-52,39,69,48,-34,12,56,-60,27,43,-18,41,-99,86,73,-35,-51,-31,127,11,63,24,-45,-77,0,37,-40,29,-13,59,0,54,44,33,82,28,-27,-24,-54,31,20,71,26,11,7,48,39,28,-30,-18,-75,9,35,86,49,24,-35,44,-32,54,-23,2,-53,9,41,127,105,31,-28,1,-27,86,1,8,-17,35,37,90,44,104,-43,9,-48,64,-5,28,-6,-4,2,91,27,30,6,-25,31,113,11,28,-17,-10,3,51,36,38,0,-20,37,66,17,12,-14,-2,-7,26,35,61,12,-2,47,40,5,7,-5,0,5,28,72,33,14,14,30,50,-1,2,-15,-25,-18,50,98,30,49,-23,41,127,-5,19,3,18,12,45,0,33,-72,41,-60,83,1,30,-10,4,5,64,-55,53,-48,36,-46,45,-37,29,-11,-29,23,127,-74,65,-69,66,-33,65,-17,-8,-12,-19,42,115,-55,53,-43,89,-43,16,-10,-18,-36,9,-2,72,-23,57,-17,103,-31,-19,22,43,73,9,-28,2,-29,80,-11,-64,-69,45,21,29,60,38,-25,-12,-12,58,14,-64,-47,68,14,9,31,45,-26,-28,-6,41,40,-88,-62,82,7,8,0,50,-23,-37,-17,4,9,-106,-53,127,-9,12,2,54,-9,-27,-33,-11,8,-94,-38,120,-8,23,39,81,127,60,55,-19,-60,42,-49,32,16,-17,63,89,71,20,60,11,-69,31,-36,48,21,-22,99,99,30,-26,50,14,-64,46,-36,6,33,-28,88,102,-5,-70,17,18,-67,75,-31,-8,20,10,61,41,-9,-97,-7,49,-69,92,-5,-6,35,-4,24,-32,-43,33,-86,-13,67,-68,107,54,-9,18,57,28,-43,37,-112,44,116,-64,26,33,-16,34,21,75,-43,49,-123,100,89,-38,1,52,-17,34,-1,61,-31,42,-88,77,53,-42,29,93,8,-5,14,30,-32,52,-82,82,70,-31,50,127,-23,6,-21,2,-30,34,41,36,101,-7,2,21,-8,-5,-15,-4,-18,19,-25,43,-20,18,-10,37,27,7,31,-2,0,33,-74,12,-127,78,-15,33,37,20,59,5,0,20,-39,5,-119,57,-5,16,16,13,34,19,3,13,21,-49,-103,12,23,32,-60,7,-53,44,36,84,50,127,-7,48,-99,100,-63,19,-27,68,55,38,-3,27,54,27,-124,53,-34,-6,-25,-5,57,43,52,15,23,-10,-86,-20,-9,34,-2,12,20,70,19,12,11,8,-52,-23,-15,17,-13,37,-38,62,30,-44,-22,-14,-23,-17,11,25,73,86,7,17,70,84,-127,36,-45,123,13,44,39,57,9,18,103,-5,-109,-26,-89,109,-6,22,11,51,31,12,94,-55,-101,-67,-91,127,-16,-34,53,43,15,26,59,-62,-124,-59,-81,77,-20,-42,40,58,49,58,32,-27,-93,2,-37,83,-4,-40,-1,61,24,-4,74,77,-43,7,62,31,-29,-31,-6,22,16,-8,37,91,-1,83,64,3,-30,-23,26,20,6,5,26,78,18,96,62,-27,-34,-28,42,38,-13,-2,-43,100,7,51,62,-48,-52,-43,38,52,-19,9,-31,127,62,37,51,-11,18,-66,51,32,-22,39,9,26,-1,31,78,65,-20,-44,-9,73,-39,-30,17,99,36,127,44,95,2,51,19,5,-29,-15,18,86,-78,53,-23,-7,10,45,-24,-40,53,40,62,-34,-40,63,-87,-21,-32,39,-45,-4,69,65,18,-3,-33,-50,-126,-46,-16,50,42,29,-20,-29,-34,2,-4,4,-85,100,1,48,63,18,33,10,11,3,-45,-18,41,53,12,13,58,-5,39,-6,-63,79,-66,19,13,-7,-1,-38,-34,13,13,80,-14,25,-16,-14,61,2,-46,-37,-51,17,4,127,47,46,46,-38,22,-43,-23,-28,27,-11,78,110,12,10,8,127,-56,-106,-5,-9,26,38,53,49,20,33,-38,109,-11,-80,2,-20,26,-2,6,35,-1,-3,-40,99,57,-68,-3,-28,48,16,-9,30,-2,25,-28,49,55,-25,-32,-19,56,42,-52,90,-29,77,-24,8,33,-29,-10,3,29,-45,13,29,-32,48,-16,0,30,42,-8,-31,1,6,-19,72,8,86,-18,-5,31,25,5,-37,-30,68,-39,96,48,49,-7,6,18,-5,10,-23,-20,79,-23,111,52,0,5,-4,0,-3,20,10,-14,63,16,127,36,15,-13,4,13,8,8,17,16,60,17,66,71,80,-47,54,-93,35,12,3,33,27,7,54,31,36,0,14,-125,15,11,-5,44,15,6,51,-2,40,-23,15,-113,35,15,-6,45,9,-8,30,-12,22,-55,-5,-127,11,21,-14,28,-1,1,37,15,56,-53,40,-96,-10,27,8,1,-90,-16,40,75,-28,-64,-6,81,84,15,5,-13,-59,-33,13,45,-25,-13,-15,18,71,6,6,10,39,4,7,-15,-10,41,-24,25,14,-26,16,-15,79,60,45,-22,64,108,79,35,34,-39,-6,13,8,87,78,6,52,93,57,49,127,-56,4,-55,-13,-67,60,54,38,58,27,-49,12,3,7,-13,-19,-1,30,-25,-2,-4,-1,-7,-5,29,15,35,6,30,-30,-38,-1,0,-28,7,-14,1,-17,18,54,34,12,52,10,40,-27,23,3,-16,-41,-17,34,-1,127,42,-53,4,-19,-18,-10,-29,5,-21,127,-12,83,-68,78,26,36,16,75,-39,34,-2,48,-7,86,-52,56,57,-6,-3,82,0,-13,7,-19,-7,99,19,-17,28,-44,-4,87,33,-32,14,-33,1,33,29,-33,7,-40,-19,43,53,14,58,-49,57,-29,49,-23,-32,-75,-25,55,-31,-64,21,51,-40,127,20,41,-33,-59,4,29,-9,-73,29,17,-78,127,10,10,-113,-2,35,-26,-17,10,55,32,-50,80,-31,74,-80,-3,4,-63,3,47,31,12,-43,42,-68,84,-71,37,52,-36,-8,39,8,49,-34,45,3,106,-43,-31,37,-58,24,5,76,35,31,54,46,19,45,7,27,2,0,5,-27,22,21,69,0,73,53,-17,6,60,-40,8,-50,72,-39,76,-9,127,89,63,51,30,-40,14,-3,33,36,42,-1,73,78,94,27,18,4,29,39,-2,58,37,5,0,9,45,-27,-43,14,55,22,51,18,19,15,33,-75,-19,31,17,-10,28,28,-13,18,22,-42,5,-37,30,-58,47,1,-6,14,-55,25,19,-75,-18,17,83,-127,40,-3,-10,23,-24,46,10,-46,-5,78,59,-109,17,-4,-25,5,19,20,19,-32,28,82,14,-91,9,3,-1,1,-3,-21,5,-77,17,-19,-53,127,31,22,34,14,-14,-39,12,-44,0,-55,-44,115,-20,4,11,46,14,-44,23,9,-2,-47,4,67,-49,-7,-5,22,10,-31,33,45,-37,-14,23,5,-13,-24,-17,21,7,-23,25,42,-62,-9,16,-51,25,-93,3,-9,-2,35,16,53,5,78,-6,103,125,-47,-4,-13,-15,-3,-2,17,26,61,12,86,127,-18,-10,-17,-3,-11,-15,23,9,12,-22,69,85,-3,-10,-36,0,-3,12,-25,-18,-12,-18,93,70,-7,-13,-32,19,4,37,-52,-35,-70,-13,91,52,-37,24,0,5,-50,6,-10,15,14,3,-9,72,-23,-6,12,-1,9,-27,-16,83,-40,-50,-18,54,70,-23,43,-5,-16,-2,-127,59,-66,-64,43,2,80,17,29,46,-55,62,-78,11,-16,-8,105,-33,29,8,-29,25,-22,109,9,-76,11,57,83,50,-32,-56,96,12,30,-3,-70,42,81,1,48,41,-4,-60,127,50,16,-20,-18,38,45,21,5,15,11,-41,81,26,30,-38,-12,33,-25,12,15,-21,-11,-4,71,-5,18,-35,12,75,-4,24,15,8,-24,25,38,-35,-13,-13,77,66,-9,111,83,79,31,-63,20,-60,76,19,27,77,-9,32,15,40,-4,-58,14,-67,39,5,-11,66,-18,0,-2,14,13,-20,36,-29,-32,42,-5,77,-17,-19,26,17,9,22,37,35,-47,39,-17,106,42,-49,51,27,-17,19,30,66,11,9,-90,121,70,-14,78,127,-27,25,6,-2,-37,29,40,-56,45,-81,-13,73,-3,24,15,12,2,33,21,-62,74,-89,-46,43,2,39,13,11,30,64,20,-25,71,-38,-88,25,3,34,9,48,37,91,-33,0,42,3,-86,66,-7,9,-3,43,23,89,-26,51,-15,23,5,127,-23,-15,-17,-13,68,22,56,-20,-15,91,12,96,-29,-45,-21,-18,127,52,59,-33,-63,54,-44,117,5,-45,9,-12,55,84,89,-22,-98,25,-49,86,1,-17,57,21,-4,96,98,-6,-61,-43,25,60,-47,25,63,36,-26,112,87,8,7,-97,80,12,51,62,20,-2,9,41,29,65,-15,67,2,-16,32,39,25,0,8,35,28,37,-28,44,48,-25,27,19,9,2,8,31,-4,31,-68,37,46,-17,27,16,9,0,15,43,-23,10,-87,21,56,-29,43,9,24,-5,13,25,11,59,-127,49,39,-63,7,-50,10,-24,124,110,107,29,-127,-38,63,13,4,-31,2,-25,-28,53,95,46,-49,-21,64,18,1,-16,39,50,1,65,14,64,-48,-63,-15,27,-23,4,-23,81,35,108,-14,57,-59,-85,13,1,-68,24,-22,96,20,81,-70,46,0,13,30,87,24,3,1,80,-4,63,23,112,38,54,-53,85,-24,16,11,58,7,51,29,127,40,-21,-80,46,-30,21,53,72,-2,71,2,75,1,-4,-85,53,-28,22,64,61,-19,40,42,46,-66,-30,-83,61,9,-26,21,28,-51,-5,-7,106,-73,-99,-97,40,58,87,63,48,3,71,72,61,-33,78,-17,-23,40,46,59,43,-5,67,53,15,-36,54,19,-39,35,34,54,31,-15,46,23,4,-56,35,33,-34,37,35,72,29,5,57,-4,-19,-88,40,16,-74,60,40,64,7,2,36,42,32,-127,65,-9,-109,-4,2,-8,8,19,97,74,25,-52,43,18,59,2,19,-34,-16,27,127,-38,37,6,45,-13,-25,-8,29,-14,-29,1,124,-56,12,-24,10,-10,-63,-7,-3,3,-32,-7,94,-46,-19,-61,40,-16,-51,-8,-4,29,-19,-22,78,-61,-62,-43,51,-14,-24,-33,16,48,8,8,-11,-35,12,-14,-36,-47,38,-11,7,58,29,61,-15,-34,30,-8,-40,-28,10,19,-5,8,32,55,31,-12,10,39,-14,-4,-55,-1,-22,-37,48,19,114,16,10,32,-20,-9,-73,-7,2,-49,36,-2,127,7,2,-24,-5,41,-96,5,12,-47,17,25,-19,40,98,-41,5,-48,36,-6,23,-16,57,2,28,-39,89,-39,-9,-35,17,-19,-22,-2,2,17,75,-51,23,-49,58,-26,0,-3,-27,21,-30,18,70,-21,-3,-41,123,-48,-15,-5,5,39,-24,17,66,18,12,-10,127,-48,15,-33,-17,14,-30,10,9,-14,-5,-31,-26,-62,48,-25,-28,9,24,71,66,-15,-14,-61,18,-32,78,-16,-8,24,27,55,48,25,-1,-64,63,-17,80,14,49,-20,43,14,-4,-9,-16,-7,127,-3,77,-5,44,-20,54,-40,19,-20,-2,29,33,-18,37,0,65,5,127,45,49,30,123,-3,14,-40,38,-18,53,29,65,58,61,-12,62,0,33,-6,-32,4,4,44,44,64,6,-54,82,6,-35,9,-67,-26,-43,44,8,65,-12,-53,90,27,-55,-16,-4,-56,-33,42,15,45,25,-77,29,22,-80,-24,89,8,76,38,41,19,77,-29,10,83,70,-60,-88,-9,55,29,42,-9,28,-38,74,83,99,-20,-117,0,17,60,61,-14,-3,-33,73,85,63,34,-86,-1,-15,65,56,-9,-23,-27,49,17,-39,14,-102,0,-34,79,46,29,1,-43,11,2,-71,32,-127,4,44,-43,82,-72,85,24,59,35,-2,-41,77,7,22,-58,38,28,74,-70,12,-77,10,-26,78,10,29,34,14,64,40,-82,-17,-73,38,-63,82,19,8,59,33,45,-23,-102,-86,-127,21,-20,91,-36,-5,94,-8,24,87,-53,-74,-121,-13,-33,114,-80,40,104,63,43,20,46,127,14,58,1,89,-83,60,118,6,8,20,2,51,15,-44,-9,37,-18,-36,62,37,44,58,-33,12,-42,-28,14,-13,19,-21,-37,15,68,89,-96,9,-61,-50,18,-36,30,14,44,-11,70,91,-47,32,8,-34,24,45,1,15,1,-29,-44,11,-64,16,-39,127,42,10,-1,13,6,-29,-46,17,-18,4,-52,114,5,-23,4,10,18,-12,12,10,31,-20,-6,105,-12,-16,0,-3,-7,11,26,50,24,-50,44,13,31,-15,5,-20,10,55,21,38,-5,-27,95,-67,17,-34,-105,70,-2,41,37,26,-25,-43,-61,79,21,-50,-25,18,-1,4,-25,-5,4,-43,-99,31,-22,-66,-41,13,14,-5,16,5,53,52,-78,44,-33,-85,-69,16,53,25,28,23,47,45,-104,6,-42,-120,-104,-8,71,52,63,44,93,7,-127,-14,21,-120,-35,25,-8,-5,-42,127,-82,30,-51,55,-61,-33,-3,18,22,18,14,89,-82,37,-84,-33,-77,-19,6,-26,16,25,61,72,-10,-51,-68,-41,-81,34,-25,-53,-19,21,62,21,35,-3,-28,-10,22,76,-34,-28,-53,55,17,50,83,49,-8,-27,81,85,-9,-2,83,24,35,-9,-101,-5,-29,0,-61,-56,-24,-12,95,51,54,13,-127,-2,-27,-35,-47,-30,-29,4,63,54,69,30,-89,-16,-48,-56,-55,-11,-29,16,40,75,54,38,-38,-48,-51,-43,-57,7,-7,20,-9,61,33,47,-14,-69,-82,-27,-113,-35,-64,7,-17,-14,13,93,15,28,-101,15,-47,21,-38,59,-98,-11,89,30,28,28,-127,59,-42,-30,-5,71,-50,44,62,32,35,-1,-88,11,9,-30,45,38,72,68,-24,49,54,-1,-22,39,37,14,57,20,101,56,-45,78,62,9,35,28,17,24,-44,-27,86,127,28,-23,89,92,-10,103,5,97,15,8,40,106,63,16,33,95,-31,112,-9,36,27,89,22,-20,42,76,-92,48,-6,49,-17,-20,19,-16,-17,-81,2,97,-96,-51,-3,14,-2,0,-73,-120,-19,-2,-21,3,-41,-126,5,33,6,-46,-64,-10,-28,30,-12,99,31,17,25,-24,-38,116,-40,21,-19,46,-22,78,-32,29,74,-40,-61,78,-27,-1,-34,26,5,119,-2,75,86,-54,-34,41,-20,28,-21,50,43,102,-7,60,70,-55,-56,-30,-19,40,-14,68,15,127,43,50,53,-74,-64,12,2,-5,-28,43,-3,44,-16,127,-23,86,-10,104,-6,41,9,37,2,26,-48,78,-41,56,-41,87,-6,28,5,16,3,35,-19,39,-82,58,-16,44,-3,-9,29,26,-13,65,-2,44,-37,70,-29,61,-20,-2,30,47,-59,107,23,48,-82,52,-92,14,-33,-55,-36,0,39,61,-14,18,7,89,-53,-34,19,-17,39,-31,-33,97,26,93,-43,67,-102,-65,33,16,88,49,-85,80,-10,50,-20,78,-62,-98,22,54,91,127,-46,31,-56,4,18,55,-36,-59,-4,37,40,112,28,69,48,-30,55,-6,-21,-45,-10,-16,24,-10,-9,65,-17,74,-45,127,-58,24,-5,-8,-10,16,20,-3,39,30,-48,39,-54,52,-4,28,-23,29,5,7,43,35,-36,-28,-38,34,-6,23,-2,16,32,36,-1,16,-3,29,-17,55,6,-6,26,-12,32,67,-113,-24,-16,6,-29,55,-20,-4,87,10,-10,41,-41,27,32,-35,27,60,-16,-79,-85,21,-50,104,-1,101,61,-74,47,-6,6,-50,-106,47,-14,127,46,57,-17,-23,0,-79,6,-3,38,-7,22,74,19,30,9,27,-39,-25,-7,86,91,27,43,0,-9,68,11,55,-23,38,15,93,39,-36,52,76,-35,105,23,-88,-70,19,-47,67,82,-29,-12,50,-17,-5,-5,-11,15,35,-46,-103,25,56,-55,30,-17,50,-41,12,86,25,7,-108,-72,44,41,66,-127,22,-113,113,9,-73,27,-10,-26,-24,126,77,-28,16,-86,81,5,-70,-21,-47,-14,127,-32,50,-58,1,-21,62,9,76,-9,-54,15,121,-27,23,-36,-3,-25,47,-26,52,-2,-28,27,51,8,38,-32,14,-5,24,-9,-1,-10,7,24,-13,50,19,-36,7,-9,-3,14,-3,-33,39,14,-71,83,-13,5,29,-39,-65,56,73,14,-29,7,20,-21,3,26,127,-120,44,42,45,-8,-28,29,4,9,-11,59,76,-102,41,-30,18,-24,-51,41,-1,42,7,70,27,-99,44,-51,-17,-32,-73,74,3,72,9,56,2,-90,29,-49,-34,-37,-72,103,-4,83,3,24,-40,-61,36,-32,-52,13,5,-20,-24,-1,66,-63,97,-3,59,17,34,17,-6,21,-4,0,57,-17,94,22,77,-13,9,17,19,3,33,14,49,12,127,3,18,-21,-2,-7,-14,6,82,7,73,-16,67,10,60,-36,35,-33,-46,0,98,-11,46,-30,9,-32,35,-34,74,-9,1,12,42,55,-19,-11,103,-38,73,21,94,-1,23,6,35,24,8,-53,127,-83,62,41,11,-12,31,-22,-5,-4,81,-72,61,-109,67,79,-54,-12,6,-13,-9,-16,73,-67,-30,-13,105,61,-79,-2,9,-5,-16,-23,28,-75,-78,-8,81,9,-102,-9,-11,0,43,11,105,-34,-34,-116,-39,-15,-29,30,28,25,-4,57,75,-33,-16,-72,-69,-106,-66,28,13,52,19,37,124,-66,72,-29,-18,-88,-72,-26,2,34,30,-11,127,-40,79,-38,-7,-58,-26,-71,-48,3,45,-18,93,-22,61,-86,43,-14,-1,19,5,79,18,101,65,95,-65,-55,42,21,72,36,0,21,27,114,50,88,-84,-12,28,5,64,46,13,43,41,94,88,74,-82,13,59,40,69,42,14,70,13,97,121,42,-44,36,44,44,61,47,2,53,37,109,127,1,-28,23,-3,48,12,-30,-87,-94,17,56,89,-2,28,96,-2,20,-62,8,-3,7,-24,-4,86,-59,51,-61,17,-5,39,32,55,97,-2,-32,103,-24,12,-72,82,-11,16,5,59,104,11,-48,-15,23,-44,-51,39,35,31,-48,53,67,57,13,-32,127,-77,-61,-64,29,115,37,7,48,9,10,86,41,33,36,30,96,8,31,0,25,20,22,61,50,34,27,20,107,15,27,-5,7,36,15,55,73,41,42,4,83,-36,20,-1,43,27,15,83,66,65,40,-2,84,-50,18,10,57,58,32,127,68,43,31,-9,82,27,2,-24,-26,9,-101,127,10,90,59,80,66,56,-13,-23,-12,-19,-22,116,10,86,31,48,56,-6,-17,-30,-14,-40,-2,91,4,63,62,28,-3,-108,-13,-22,22,-7,27,87,22,25,53,34,-21,-97,14,-51,34,60,12,80,42,11,23,-33,-14,15,12,64,127,126,50,34,74,51,-60,-43,-99,-13,7,69,116,86,55,-5,57,46,-99,-26,-114,-62,14,27,95,93,86,12,64,43,-68,-61,-118,-71,42,-11,84,75,24,10,81,39,-36,-49,-73,-60,57,-5,112,68,12,40,46,87,-44,-59,-53,-18,10,45,-6,6,7,66,-38,92,31,-17,45,61,3,8,14,20,-15,39,-5,41,31,76,-16,59,-19,-18,98,29,-46,61,-1,32,-65,27,12,13,-6,-27,-3,10,22,37,-12,-20,-110,-47,-33,-67,-1,20,-58,-9,127,22,48,-22,-44,-57,31,-40,-38,-40,119,72,9,1,-31,43,64,-11,54,29,-18,-53,127,80,-7,-22,-13,27,16,-3,29,6,-13,-40,89,31,0,-29,22,19,-45,-32,29,-36,-9,-5,82,2,-4,-27,42,70,-48,-4,50,15,-25,52,56,-62,-35,-23,60,58,-37,36,61,36,15,47,32,83,-37,79,34,-10,-36,13,-40,56,-13,44,11,86,-9,73,39,19,-44,10,-16,-30,-13,29,10,-21,22,64,-37,-25,-25,30,-13,29,-3,-22,-6,-65,26,63,-70,-20,4,86,-61,0,2,-20,1,-47,-13,41,-72,23,73,127,-37,-3,-16,13,-14,-11,3,44,78,14,97,32,-43,28,-15,6,-20,14,2,21,15,31,7,11,-37,40,13,9,11,21,-25,13,-50,40,-61,35,-65,36,41,13,47,16,-28,37,-89,30,-127,25,-32,44,30,16,40,7,-6,38,-74,-16,-115,17,23,37,19,1,55,28,-52,-12,80,60,-113,-67,36,43,23,22,49,89,-67,55,0,100,-125,-110,53,-17,-32,17,25,127,-38,80,-68,0,-89,-112,63,30,-65,27,50,42,-19,13,-62,-12,58,-94,31,71,-48,-3,80,11,-42,13,40,-60,38,-77,3,83,2,-6,33,7,-23,-3,22,18,-31,-60,57,5,9,3,54,22,-10,17,-5,40,-92,-66,71,15,9,20,68,32,10,40,-24,25,-127,-20,70,11,8,1,51,2,27,32,-10,3,-102,45,70,42,10,-15,24,-8,37,25,0,-31,-66,41,41,70,18,70,6,16,13,65,88,35,-10,77,0,99,-25,34,37,-6,-31,14,20,50,-48,40,-43,41,-27,-14,7,-14,34,91,-45,76,-19,20,-11,65,25,-55,-4,-14,-36,127,-27,54,0,6,-17,15,35,-84,16,24,-40,113,2,16,62,-30,-37,-20,38,31,-36,12,-34,1,-34,31,18,47,-24,49,23,6,-45,-17,-1,5,-39,16,-11,92,-38,40,17,-8,-55,-42,13,13,-17,-24,-15,127,-70,22,20,6,-42,-8,-2,32,-44,-18,21,113,-54,4,34,5,-13,56,-7,40,-33,6,14,95,-38,-5,-33,51,-62,37,-88,-3,-42,26,111,-29,-84,8,-39,33,-43,67,-42,82,-89,9,127,-20,-85,-36,-20,12,-7,63,-58,111,-89,-13,89,-13,-88,-97,19,-3,1,52,-73,102,-96,7,55,14,-39,-94,45,3,1,61,-89,98,-32,14,52,22,-11,-104,-7,-30,24,-7,115,127,-74,-50,96,-98,42,-89,-9,-67,69,6,32,72,-72,-17,107,3,44,-25,6,-49,93,34,18,54,-80,-1,54,14,-8,-65,-19,-30,54,31,35,70,-47,-4,27,41,-61,-76,-6,-20,-29,19,9,94,-25,17,11,73,3,-42,17,-5,34,-13,-31,69,47,25,43,44,18,127,26,-19,6,-7,-14,49,48,46,27,47,63,70,27,-17,-16,-16,-19,56,29,78,65,23,69,32,28,-11,14,0,-27,41,-37,46,50,6,57,-4,17,-6,75,24,14,106,-3,28,61,16,56,8,28,22,86,55,30,116,-5,73,-8,38,10,24,7,-38,64,62,11,24,37,64,-1,2,33,71,-6,-24,41,21,8,-39,25,-4,-6,-24,-26,113,3,22,-32,-30,-45,-10,-19,-15,19,-30,-55,127,-18,56,-35,25,-13,2,-1,32,36,-29,-83,106,-22,41,-31,-23,104,56,-16,50,109,-66,27,-31,-14,28,-14,-19,36,58,22,17,81,-76,54,-29,-4,31,-2,-25,12,78,-17,17,62,-65,49,-5,-1,35,-5,-21,37,94,-80,19,55,-54,56,0,-13,55,-27,-31,66,98,-127,23,92,-32,83,11,-59,-26,3,127,-77,52,58,-18,-63,11,90,2,-59,-10,48,115,-39,26,76,-35,-66,-13,81,-28,-32,-4,39,69,-10,-18,62,-50,-35,-68,45,-37,-29,8,28,35,22,5,105,-80,-10,-81,35,-55,-45,5,48,45,26,21,86,-83,0,-75,3,-42,-51,12,57,27,84,54,-76,-45,-56,-127,-97,-35,-40,14,64,26,72,6,-83,-13,-32,-91,-50,-31,-20,-3,28,-6,87,30,8,16,-49,-63,-10,-37,-15,4,0,-5,71,100,112,32,-61,-62,-10,-34,20,17,-2,-17,77,127,72,-15,-109,-42,-44,-68,-30,-17,69,68,56,48,79,115,22,18,25,39,-15,-39,32,17,30,39,13,26,-38,-27,61,20,-18,-2,-2,-17,-14,45,-81,37,-26,1,34,64,-14,19,-28,-15,-10,38,-56,32,-34,-15,10,46,24,-4,-14,21,40,50,-27,127,-17,-48,-16,44,21,-12,13,62,43,102,8,106,-11,9,-75,123,19,8,33,49,28,58,-9,87,-8,-36,-80,127,-3,30,22,21,40,26,-48,63,-26,-67,-84,92,-19,45,9,-40,42,6,-79,64,12,-66,-81,51,-34,38,-32,4,72,63,-56,100,17,-25,-100,71,16,27,-10,-6,50,65,5,-28,-44,-45,-50,24,30,-1,9,8,74,42,18,26,24,3,-7,-35,43,-16,-7,23,59,28,-18,48,-6,30,-18,13,-8,-5,64,-5,-1,80,-35,-1,-17,127,-55,-12,-121,71,106,-36,-39,77,-13,6,49,94,-79,-48,-51,-12,-51,56,-31,19,86,55,20,69,-42,48,-2,-1,-41,54,29,44,62,127,3,52,-89,68,-7,22,-22,108,42,92,113,47,-53,72,-73,69,3,18,-9,122,65,105,65,41,-75,62,-15,82,-15,66,-2,91,36,15,-20,59,-35,87,79,20,14,8,28,74,39,-57,66,-40,-125,54,-126,127,19,29,13,71,51,-39,61,-38,-56,29,-84,113,-20,26,-9,98,35,30,46,-43,-9,63,-43,108,-42,3,5,30,61,44,14,-24,-37,68,-27,82,-38,-28,-25,53,87,100,-8,34,-48,88,13,52,40,57,-17,2,21,46,13,30,-14,92,12,38,24,38,-7,-9,20,42,28,32,-65,79,29,44,24,7,-19,-12,16,42,6,18,-112,64,24,36,21,2,-26,-6,3,42,-22,37,-127,49,18,7,39,-15,-8,12,-17,35,-15,89,-111,84,-1,-9,-13,-15,39,2,93,121,-36,-65,-49,-28,-32,-65,11,-51,60,82,28,65,-8,-49,-41,29,52,-66,24,-56,86,66,2,25,31,-41,-66,52,51,-74,0,-30,89,66,-27,1,50,-31,-54,71,55,-60,-40,62,12,16,-4,-23,26,23,-50,35,127,-58,-45,44,102,13,33,-39,56,32,84,-12,66,33,-46,25,127,-21,27,-22,94,33,80,-41,94,34,-44,14,83,-37,35,-12,73,49,65,-45,33,36,-12,-13,36,9,9,-12,48,40,55,-31,-26,19,10,-61,20,50,13,5,-10,24,20,21,-32,14,-46,-12,-34,22,0,127,-29,42,-37,-49,-97,-52,-24,-21,-11,72,9,68,-2,50,21,18,22,-56,4,-24,11,62,23,24,4,57,22,53,84,-46,11,-9,82,80,-29,13,15,41,2,44,88,-67,5,-3,59,92,-3,13,-18,44,5,92,93,-34,27,-20,8,-10,7,2,-86,127,-44,78,-29,49,-33,26,103,-22,-15,42,-39,65,-6,117,-3,39,-75,40,90,-27,-22,-21,0,55,47,49,6,12,5,14,14,-15,9,7,1,-12,-15,44,-9,34,30,15,-49,1,52,59,-47,-49,-81,28,5,46,-19,-9,0,78,19,51,-19,40,-66,54,42,38,4,-1,39,51,32,7,-26,20,-71,-9,36,17,-6,10,34,30,46,-27,-27,-2,-47,9,18,-1,-19,10,12,-5,36,-32,0,24,-28,71,-34,9,-30,8,-6,12,13,37,35,34,-6,127,-45,31,-40,2,36,27,93,25,-99,-73,118,-15,-32,-92,-25,7,43,14,51,21,-107,-52,127,8,-54,-70,-7,12,40,20,72,53,-69,-45,82,2,-55,-100,-7,3,15,1,87,46,-51,-27,41,9,-61,-81,-11,20,20,0,99,60,-32,-36,-21,23,-66,-76,5,27,57,119,42,-39,67,-12,-114,23,-34,78,21,25,43,127,43,-4,79,-15,-84,-33,-79,79,-7,20,16,98,38,24,74,-30,-78,-18,-55,90,-21,0,21,46,44,22,72,-21,-103,0,-44,118,-16,15,17,34,37,7,60,29,-76,7,2,116,-39,37,21,9,-7,37,41,7,-95,-3,-85,-20,-26,33,-42,32,18,57,71,15,-127,12,-52,-17,7,36,-26,32,39,44,46,53,-90,-19,-11,15,16,18,-18,17,6,63,50,75,-35,25,-10,79,13,24,51,26,3,73,43,79,-11,68,-18,100,-5,45,5,97,-66,51,22,31,69,27,-37,22,54,11,-20,42,72,-30,9,61,-66,62,2,34,-1,24,26,76,1,33,55,-26,-127,100,47,95,-40,16,87,46,-38,47,10,-19,-62,-28,73,69,-103,-70,20,-93,39,112,25,-51,-85,-66,78,-69,-27,-76,-35,73,-75,85,-60,127,-106,69,90,0,-3,-35,-14,48,-58,30,-75,27,-76,64,71,7,6,-8,17,-4,-35,21,-47,24,-34,61,73,13,10,21,70,-32,-23,29,-24,21,71,82,14,39,-3,65,85,-40,-20,36,52,-61,110,70,-27,-4,45,75,30,61,5,61,46,67,-48,96,13,-10,31,36,29,43,-4,43,23,27,-38,39,43,-34,21,18,21,32,-7,44,3,10,-75,35,86,-31,27,15,33,33,7,66,-29,-8,-102,40,63,-48,52,22,28,4,3,35,5,52,-127,80,14,-102,-22,-3,11,25,41,127,39,38,-77,24,-79,-13,1,30,-35,7,40,70,-3,34,-79,14,-48,-45,9,37,-24,25,33,46,13,32,-69,13,-37,-40,21,19,53,8,1,52,33,24,-31,17,-39,-48,11,15,97,-4,-7,81,-11,84,8,33,-26,-38,-20,-13,20,-15,56,11,39,27,33,103,-66,63,-12,-47,-9,-1,127,8,50,33,-58,46,-100,120,1,-42,25,-3,71,54,80,9,-112,17,-76,103,1,-14,57,43,-25,104,71,10,-113,-63,2,68,-2,22,37,55,-100,127,21,1,-43,-85,58,31,19,0,-1,4,-5,-5,-21,63,60,57,41,101,18,-20,5,-4,-10,-8,1,81,52,47,43,111,13,-40,11,-10,-39,-2,44,80,58,68,57,119,14,-27,7,-21,-54,-2,-2,54,16,56,35,120,3,0,-2,-5,-52,6,-46,70,-12,56,41,127,-46,23,4,19,27,15,7,-35,-56,31,-67,23,-12,30,7,76,18,35,10,-48,-70,7,-104,27,-5,15,-9,106,33,96,-48,-60,4,-27,-114,-11,-7,-20,15,99,28,127,-55,-73,64,-25,-80,-9,-20,-30,-28,121,-24,116,-7,-22,71,-13,-65,-51,-25,39,61,42,-97,41,-20,-48,-86,-5,59,-39,-18,27,79,30,-49,44,-25,-31,-101,-19,45,-24,1,20,85,14,-27,57,-55,-24,-127,24,36,-2,8,33,57,25,-7,70,-86,-6,-121,20,-22,21,5,28,50,42,-34,86,-113,-10,-102,68,-40,28,15,-20,7,82,-13,-38,18,-31,-6,23,69,45,-23,11,0,-2,-17,4,16,40,9,-56,2,61,-15,8,-42,-60,15,127,40,52,-1,-38,-45,72,2,-6,49,-42,34,109,-19,41,8,35,-78,14,16,-4,88,-37,17,29,-6,52,-21,93,-72,27,-9,-1,28,11,0,8,-69,110,-23,27,15,59,16,23,-12,6,-5,9,14,79,-6,39,-7,79,4,46,0,-4,-16,36,72,-56,33,17,6,44,-3,35,11,58,-33,71,62,-78,12,8,-43,-27,-25,-22,16,127,-18,89,84,-53,-45,-2,-73,-66,17,11,26,25,111,67,-66,-47,18,-40,-101,-95,21,17,44,22,70,45,-84,-36,25,-66,-46,-55,-17,9,23,45,105,38,-36,-37,16,-71,-66,-57,-44,6,10,34,120,42,61,-22,-11,-49,-81,-33,-43,30,-8,16,127,52,68,-6,-15,-26,-63,-12,2,-10,18,-32,34,127,-6,24,-19,92,-44,40,2,-36,-21,-25,70,88,13,52,-48,20,-61,43,-10,-16,-9,-15,61,45,32,44,-67,-4,-35,66,-13,-3,2,9,15,63,39,63,-57,-45,-2,31,-9,19,10,21,-22,92,-29,66,-43,-24,43,-16,-20,25,21,69,7,71,-86,20,-118,-31,37,101,20,4,55,51,40,62,-32,18,-127,-64,20,122,5,-13,105,29,0,59,-16,-3,-12,-27,-15,40,-17,8,-15,10,-30,-30,49,84,94,-34,-12,-32,10,-2,-73,-13,-55,14,-14,68,37,13,18,-109,7,30,122,-5,25,78,65,4,1,55,75,94,0,8,120,-24,40,53,18,11,-11,17,66,127,-41,9,16,-6,-21,30,-9,16,-13,-13,-6,38,-36,19,-58,25,-57,15,52,18,13,7,-69,-11,12,35,-10,45,-57,45,-80,46,1,40,-12,-14,-60,-12,-19,25,-15,116,50,57,10,-34,15,108,-56,31,-39,76,-37,104,-16,69,57,-66,-42,69,-31,17,-59,50,-6,127,-40,69,71,-58,-64,59,-16,24,-16,40,57,97,-4,73,78,-63,-55,15,-25,32,16,71,33,123,49,1,41,-57,-43,-18,14,67,41,56,21,67,43,-3,24,70,22,31,-23,25,11,26,-7,61,-3,8,-30,64,-33,52,-6,-18,-31,-21,9,80,-34,42,-21,10,-38,127,15,-63,-19,-26,-59,76,-23,35,18,22,-40,71,10,-88,-10,16,-10,72,18,44,30,7,-46,8,27,27,56,31,-40,34,-48,105,66,-42,-15,18,60,-9,34,93,-64,4,-14,70,36,-44,44,23,58,0,52,77,-22,2,-17,48,27,-67,43,36,41,-11,21,39,-23,1,-46,43,57,-78,8,127,-32,19,21,46,6,6,5,16,121,-74,-62,124,-105,7,81,51,36,43,-21,10,-38,16,6,-1,-62,-13,77,56,-3,14,-23,16,-12,95,1,-25,-7,-40,-11,29,-5,48,-88,21,-17,66,0,1,31,-6,-17,23,42,127,-71,9,-32,24,0,20,44,-21,33,25,19,97,-8,34,-13,6,-38,100,-22,-25,-27,-18,44,95,63,51,-95,10,20,88,-4,14,9,52,-11,86,44,87,-68,9,-37,93,15,14,-10,104,-56,96,-17,87,-67,24,-35,76,8,10,-10,94,-32,121,-83,43,-9,68,-31,39,-28,20,15,48,-35,103,-64,-40,19,127,-45,20,-29,27,-7,-16,52,20,-86,42,-56,-1,-20,-25,-7,16,-14,24,23,0,-127,-8,-33,35,-19,-22,7,-19,17,6,5,82,-48,82,-13,56,-53,-19,-9,-49,98,48,-9,80,17,113,17,94,-91,-8,5,-31,68,51,0,52,19,103,-62,47,-105,5,-14,67,22,49,-108,-20,80,108,-123,69,-16,49,-16,35,48,44,-40,40,-25,63,-73,-8,-28,-33,-19,-20,17,40,14,50,-41,-29,-39,-18,-83,67,-35,-42,-7,35,48,25,18,-6,-6,32,-109,62,8,-52,-41,48,70,33,19,52,127,20,-50,-13,12,6,-89,32,78,127,54,-5,74,-3,72,77,17,6,-46,6,39,89,48,-18,58,1,54,61,15,-16,-42,-7,56,90,39,-25,68,-16,36,29,13,0,-36,-12,73,102,42,-25,79,-11,32,13,17,-6,-57,-30,79,102,87,-28,62,-14,67,56,4,14,-35,9,-12,83,-33,65,18,39,40,48,-8,12,-18,13,16,81,-9,47,-16,10,36,10,-32,-11,-34,-11,19,66,-49,44,5,17,-5,-56,-35,-14,-20,-25,36,114,-30,44,-5,22,7,-42,-30,-22,7,-13,31,79,-35,127,42,25,38,-5,-34,26,-32,42,-38,108,-29,32,-11,47,19,91,9,43,-4,8,-63,86,-17,7,-84,28,10,105,14,39,1,-3,-39,81,50,-1,-84,-17,-62,27,4,22,19,79,2,73,24,-13,-60,-54,-67,39,-27,32,-18,127,7,39,-10,19,19,-37,-70,29,-30,41,-30,26,127,88,3,16,-120,-26,-85,-66,-1,52,-38,-6,59,90,9,14,-100,-14,-106,-87,22,52,2,18,13,91,39,8,-76,15,-76,-67,41,20,65,20,18,103,39,10,-51,2,-43,-53,32,10,64,27,53,104,29,28,-20,-24,-44,-39,-40,64,35,6,-39,43,-127,-57,9,-75,-43,59,26,36,77,32,-34,52,-40,4,17,-58,44,22,4,-12,55,26,31,23,-27,66,-23,-53,-11,1,-58,-55,-41,-37,46,33,31,107,-3,-45,10,6,-42,-22,33,-66,38,2,51,48,-40,-48,-61,-23,21,51,-26,79,47,-30,-14,72,19,39,92,57,16,53,-3,66,74,-45,-41,36,0,-8,59,85,8,48,-10,33,115,-63,-75,65,-15,4,2,100,12,33,-10,29,109,-33,-84,54,-34,36,-34,82,17,5,19,20,127,4,-33,84,-5,73,-76,55,73,-13,41,73,15,-1,14,-32,-64,37,-48,-10,-37,42,72,24,13,48,73,3,-33,36,-55,-30,-120,-5,127,25,23,45,29,27,-108,23,-19,-35,-27,-84,8,25,60,41,-72,42,-99,-9,83,-41,19,-2,-59,-12,66,66,-119,33,-39,-120,74,-43,12,9,-5,-5,-45,127,-1,12,-74,16,-70,-30,23,25,50,-1,-23,116,-53,16,-127,1,-43,-46,21,12,42,26,0,111,-45,55,-100,18,-41,-46,-9,4,35,32,8,45,14,50,-45,9,-37,-37,-22,-9,62,55,-3,59,45,39,-12,-16,-25,-62,19,-58,1,-17,28,11,-33,55,-2,-8,51,-25,21,-19,17,-11,15,8,-39,43,-59,-40,90,-10,17,15,27,15,-4,1,-39,36,-69,-25,125,-16,6,6,14,4,12,-16,-44,59,-38,11,127,-7,-9,-18,48,-19,35,-33,-45,61,-23,29,58,-5,14,-29,-37,38,40,48,1,40,-38,5,-43,-64,20,-10,2,92,0,42,-23,83,-50,-5,-12,-59,21,0,45,98,-51,62,-21,66,-60,-5,13,-86,18,-3,51,127,-78,55,9,73,4,-8,36,-64,9,11,19,60,-87,101,11,34,33,8,55,-65,-52,4,-2,-14,58,127,-2,43,-35,20,-25,-10,-23,-7,-30,5,86,108,21,72,-108,18,-24,5,11,16,-26,0,51,51,25,56,-71,25,-51,54,-7,19,-7,-10,3,5,-39,78,-15,-4,-43,58,6,8,23,-1,6,50,-58,108,-11,46,-38,78,-12,20,30,41,-23,37,24,121,-65,-29,-3,92,-7,8,67,27,-39,11,23,94,-63,-73,5,108,18,-4,78,-1,-43,12,-14,55,-30,-72,10,116,26,-17,64,35,-30,23,-13,22,-39,-13,19,127,-8,-15,75,100,-15,70,5,43,-8,1,12,124,7,53,33,29,-14,65,124,23,-94,-16,-70,53,-4,39,-35,16,38,55,95,5,-127,25,-53,19,-9,66,-50,12,80,84,59,45,-81,27,-28,19,-15,55,-49,6,48,104,46,93,-82,30,-31,18,-3,37,17,18,28,115,93,98,-71,22,-58,-13,-29,-28,-8,8,3,52,64,43,5,21,-59,-17,-8,-21,-30,50,7,68,32,88,11,39,-68,43,2,-30,-30,101,-20,32,26,63,-18,25,-44,35,6,-12,-31,127,14,25,-9,59,-50,3,-17,40,0,26,2,123,59,-7,-11,87,-44,21,32,34,4,19,-8,26,42,30,-64,49,11,30,2,-63,10,2,7,15,25,21,-14,56,-14,27,53,-36,7,-21,18,12,16,19,1,81,-14,23,67,-12,10,-6,-5,47,14,16,-5,120,-6,39,23,-13,13,33,-24,53,20,19,1,127,-10,58,10,-27,-23,22,3,28,-13,65,-18,-11,42,-36,17,94,-6,39,-18,12,-11,48,-18,-40,44,-69,-23,31,2,36,3,16,23,61,-22,-26,41,-73,-51,15,5,42,1,46,24,61,-31,-12,42,-34,-62,35,-9,12,-28,27,28,37,-15,28,9,-14,-27,127,-48,-25,17,30,60,127,-65,8,-15,-39,110,42,-9,-13,0,25,29,103,-70,5,-15,-24,61,-20,19,-16,-4,1,42,87,-56,58,-38,-6,5,-6,-12,-13,12,25,45,100,-65,43,-30,-15,-45,-29,-43,4,39,38,17,85,7,48,-48,-10,-66,-10,-15,20,-51,23,79,78,12,55,82,-45,31,-52,-14,22,-29,6,28,65,30,22,51,-52,25,-49,-7,21,-13,9,11,71,-6,25,38,-53,17,-46,-8,19,-4,-4,36,77,-35,-8,28,-25,14,-55,-13,14,-35,-30,86,127,-65,-32,34,-25,90,-33,-27,-60,-18,26,-18,101,11,39,-54,21,16,-8,-19,-34,-12,92,-25,87,-16,14,-42,67,7,-4,-1,-13,-2,121,-38,107,5,-23,-40,38,18,-23,22,-10,-19,127,-7,64,8,9,-60,43,57,11,-3,45,-14,89,30,38,9,22,-59,94,99,45,-11,-117,-10,19,-16,101,53,-91,-42,-12,10,-6,2,-55,27,-14,-2,110,35,-43,-31,41,-45,52,-19,76,19,27,38,20,-64,81,-49,11,-42,24,-1,86,-8,-3,-18,-1,-77,127,-70,-35,-32,33,21,39,27,0,-6,-23,-7,102,-66,-56,-85,72,0,-85,16,62,20,106,84,-33,-127,-37,6,17,5,27,-53,20,63,36,5,10,-29,-39,-27,-8,9,78,-41,8,88,43,-36,71,4,-14,-54,-23,21,62,41,32,42,56,26,54,-40,23,-49,-21,4,54,84,32,-87,106,42,105,-55,54,-67,19,-33,16,-5,81,28,121,-52,60,-44,80,-26,15,-32,-20,9,35,-20,73,-8,96,-4,-67,9,-43,-8,-2,34,59,-21,116,40,32,5,-99,-35,-127,-22,19,53,41,-7,106,74,7,-18,-49,-21,-117,-54,11,61,68,51,113,35,-6,-19,53,-23,-26,-47,6,14,62,-15,63,-127,-6,-31,-9,94,-6,-56,-19,0,33,-18,69,-72,-7,-46,-48,45,-49,-1,2,-18,0,-5,47,79,56,-5,-11,7,-45,24,7,-21,9,-4,60,117,106,-2,-25,-31,-25,-32,42,29,21,49,49,44,53,-26,-19,-4,-46,-29,-4,33,58,-53,17,22,81,-49,-94,-15,71,-19,-6,-1,53,-63,-4,10,90,-53,-127,-59,23,-17,5,-19,46,-71,-14,-3,85,-72,-114,-76,14,-23,9,-6,38,-75,-23,-44,90,-68,-86,-66,14,-79,19,15,44,-58,-25,-84,73,-20,-64,-39,25,-11,12,-28,-29,-16,30,40,-13,-72,-31,37,66,-2,12,-12,-6,-8,22,-22,-31,-18,-52,-7,23,-3,16,2,28,8,14,17,46,34,-40,-26,-19,2,17,25,46,25,5,18,15,19,18,-25,20,-9,3,-27,-19,16,44,63,30,10,127,5,67,-36,48,-6,-14,89,123,-36,41,27,6,30,0,-26,67,-16,-30,127,64,-21,0,21,-51,19,-79,-19,43,35,26,5,57,-39,-15,47,-35,-21,-51,4,15,41,64,-76,-14,16,22,-44,43,-62,-23,17,-8,17,75,-19,57,42,100,-84,21,8,27,-41,9,25,82,18,112,-45,64,-120,120,73,94,-12,0,97,59,33,70,-58,-1,-105,-17,39,47,22,17,89,-2,52,68,30,-3,-73,-29,-16,-27,-2,51,35,38,39,83,48,35,-49,102,-58,-47,-50,8,-77,14,-8,107,56,46,-35,127,-49,50,-74,92,79,61,-2,84,104,121,-52,87,8,10,-24,71,19,62,-24,5,104,73,-117,49,-66,-2,5,-12,55,83,-45,5,49,21,-88,46,-100,2,-22,-25,56,127,61,37,25,-8,-79,84,-89,-44,-38,-25,22,96,26,106,-1,-31,-61,122,-35,-34,9,46,-63,57,-81,-11,69,7,66,67,-50,82,12,15,11,-5,-30,57,61,-9,13,50,-40,60,-12,38,36,25,13,-2,-53,1,-44,35,18,0,-6,-4,56,5,28,64,-47,68,-48,-32,6,-35,-29,-35,8,32,80,127,-120,50,-60,45,42,-38,-45,8,8,46,-5,6,1,19,-127,66,29,121,7,15,32,31,-11,-10,-17,-2,-82,13,-39,40,-8,16,22,50,1,-15,-30,32,-31,22,-18,57,-31,1,-5,52,28,-8,9,31,-20,16,-50,19,-20,-27,9,68,29,64,32,53,35,27,-16,25,19,15,110,7,77,68,-16,42,-74,16,8,10,-7,8,76,-10,127,18,15,36,-60,67,-5,-39,-21,6,-2,-38,103,0,70,11,-92,86,-12,11,-7,-6,-55,2,14,28,91,-4,-101,-17,-12,37,7,6,-46,28,-65,74,86,7,-44,-77,-7,18,23,-20,36,17,63,33,55,60,55,51,-29,120,-21,-58,64,60,34,32,127,91,61,92,-18,99,8,-34,45,33,43,4,23,25,-24,52,-45,99,-1,21,-18,-37,-17,51,-42,-63,-12,25,-27,108,-14,27,-3,3,-38,7,-30,22,13,23,-69,40,21,15,-12,55,-46,8,51,101,17,3,67,45,2,20,21,91,13,23,31,59,-5,2,-12,-7,-17,-8,10,63,18,49,-48,42,-89,57,-26,-24,-24,-36,4,4,33,48,-83,31,-59,104,-59,-10,-10,-64,9,-83,-8,65,-62,47,-22,117,-127,3,13,10,41,-19,64,4,19,77,-13,37,2,36,6,-2,43,-19,62,-2,21,70,-9,29,3,32,-17,-18,30,-21,32,-20,-3,45,-4,46,8,89,-33,-7,-2,-24,2,-14,-25,4,-21,69,24,117,-32,2,-19,-21,-5,-3,-9,-13,-25,39,6,127,-40,-54,-31,48,23,46,-28,33,-61,49,37,105,3,5,40,26,-29,-2,-43,-18,-68,-19,-41,32,6,35,1,22,-3,22,7,60,-2,-34,-68,-11,-20,19,24,31,33,9,3,59,-3,16,-66,-7,-22,3,-7,-14,83,48,111,61,32,48,-58,127,46,1,-61,47,18,125,45,-70,82,-34,127,28,37,24,-27,11,30,118,55,-62,78,-47,78,15,48,34,0,31,34,120,-1,-63,83,-67,70,-37,30,19,7,38,57,114,16,-61,90,-89,79,-28,36,-4,17,32,42,123,-17,-94,39,-114,121,76,-50,-34,-23,45,46,127,18,15,-43,-22,-47,14,-23,-25,1,19,41,92,22,21,-19,-71,-68,10,-4,-3,19,34,37,73,57,32,-15,-84,-63,-49,-11,12,45,55,68,53,68,12,-27,-62,-22,-56,-6,8,43,42,88,25,69,-4,-38,-47,-29,-42,-17,-69,-24,44,31,25,30,5,-127,17,71,-25,-12,36,-52,-5,68,13,14,16,-18,13,28,-46,-8,41,9,14,80,20,-18,2,3,-23,-32,-49,5,41,29,25,28,11,15,51,-35,-10,-38,-31,5,30,13,53,-88,82,27,43,-18,101,-18,77,-32,43,-14,50,-27,0,53,86,-1,-54,17,76,5,37,31,64,-13,9,57,101,17,-47,68,54,15,13,43,50,36,0,62,81,25,36,70,39,11,-51,-38,7,52,75,56,46,28,19,45,17,-64,-7,-101,50,37,127,55,2,-2,-16,0,-31,36,0,-13,37,-23,-22,14,127,57,11,2,10,25,-9,23,28,-5,-12,38,68,8,26,2,1,-56,-4,40,-3,37,-12,40,49,-3,16,3,51,-67,4,90,-28,23,7,33,10,38,35,-4,20,-13,0,54,-43,28,11,77,-1,-16,45,27,42,0,31,18,-16,-34,87,-56,67,-78,127,-41,-1,20,25,47,-12,-23,65,-55,54,-86,48,-76,-16,-6,22,41,55,14,42,-62,4,-57,-34,-42,-28,-9,19,28,57,12,71,12,-26,-14,-59,40,-44,-13,9,-17,83,-13,69,31,-14,-27,-44,10,-11,21,95,-80,50,17,16,72,122,-21,14,32,107,-48,-7,42,-4,58,18,0,42,-52,-36,64,52,-52,-107,81,12,-2,43,0,44,-48,-15,92,58,2,-49,16,20,35,67,-53,2,-100,-6,37,46,23,36,-20,-40,127,90,-85,-7,-98,-23,-49,33,6,-39,25,20,65,92,11,-57,-86,14,13,95,35,-41,-6,24,38,65,22,-35,-127,-62,-57,55,3,11,32,17,32,97,54,-31,-101,-112,-10,104,-20,5,12,60,48,66,37,-50,-38,-125,-62,56,-47,8,-25,39,-6,117,-59,-68,-15,-104,31,58,20,36,36,26,33,122,-10,42,27,-36,4,92,25,-7,41,22,18,63,-27,40,10,-30,13,94,29,-16,25,53,-16,52,-17,81,11,32,52,119,20,-11,33,76,12,95,12,113,3,51,55,126,-7,-10,25,103,29,110,-16,127,-32,49,25,105,-35,-50,-105,-30,-23,7,59,79,-3,16,-43,65,3,-26,-59,-49,-34,39,12,-9,-30,0,-42,26,22,47,82,14,13,28,-30,21,-19,-24,44,14,-31,26,127,105,111,53,24,50,40,23,47,59,25,-1,2,31,77,25,32,3,-23,21,43,-11,0,15,50,-45,35,93,-13,33,21,-40,-66,6,-2,5,25,-35,18,127,-10,6,15,-46,-59,-16,-9,-3,16,-31,19,94,-16,-12,-30,-39,-36,-8,2,-10,25,-25,8,66,-30,-23,-39,-15,-9,-3,-3,4,52,-15,8,60,-5,-41,-34,5,7,23,-9,46,71,45,50,98,41,70,-41,-14,-64,120,-16,29,84,47,91,71,33,99,-39,-5,-91,56,-2,11,81,79,104,68,40,104,-59,-34,-84,18,9,35,48,83,60,108,55,82,-68,-23,-23,-8,15,23,-28,73,-59,127,69,76,-85,6,-32,1,-3,-12,10,-18,-45,25,-29,-29,-3,30,33,3,9,2,46,-24,-38,20,-4,-21,-44,33,16,18,7,15,63,-1,-12,11,18,-11,-54,69,-6,35,6,19,46,17,17,-1,18,-3,-70,101,12,46,12,20,39,18,19,-10,31,18,-77,127,-1,26,-2,60,-16,-3,-18,99,79,-11,-103,-38,105,127,11,50,-11,-1,14,66,60,-25,-116,-49,39,44,20,31,-24,1,2,64,49,5,-50,-13,80,-2,14,41,-2,11,20,71,46,-2,-21,-28,69,10,-12,21,-34,0,22,101,103,1,-7,-38,101,124,35,-53,-20,57,-19,-13,-51,-6,-33,23,-34,44,10,-23,-52,53,1,42,-29,-47,4,71,-48,28,-3,47,15,43,-6,26,45,-32,-16,73,-23,11,11,77,24,5,-5,54,59,-32,-16,49,32,30,-6,42,-27,-50,-12,54,82,-25,-51,42,9,127,-31,-73,74,-56,46,12,-30,-28,2,-34,1,-37,-17,-55,45,-54,73,-6,-1,1,-12,-18,-32,-21,-16,-41,37,-46,90,5,5,33,-20,-5,-27,-30,-8,-38,0,-39,98,-6,-4,51,-16,-9,-16,-42,-9,-82,-18,-50,127,-10,17,37,-32,-24,-67,-52,-44,-4,24,36,19,-20,-9,52,-127,71,2,59,-23,23,8,20,2,-26,14,8,-81,54,-4,58,8,-4,9,27,-36,38,1,41,-43,46,3,47,2,-2,6,26,-4,55,-22,60,-23,9,-46,-1,-24,-10,2,42,15,104,20,87,-18,-14,-30,54,-32,38,-56,18,19,46,-26,88,-10,33,26,127,-17,17,-75,25,11,65,-22,90,8,35,58,122,7,34,-84,30,-6,32,24,95,25,32,53,63,20,41,-58,5,11,78,32,103,64,37,76,49,9,49,-19,-11,49,60,14,107,52,37,76,53,-75,4,-2,44,59,82,-58,102,-104,98,-64,69,-1,4,-9,-17,53,20,-1,35,-127,92,-68,94,21,-3,30,9,52,-20,-8,6,-69,-2,-49,55,8,12,64,78,41,-17,-66,66,-33,30,-6,24,-52,-14,54,125,98,-16,-119,47,-34,37,-2,43,-16,-45,102,-27,-22,66,88,32,-70,127,-25,56,7,42,89,-28,-19,-1,37,69,-4,80,-33,42,-25,37,-7,-12,-9,50,30,11,22,-12,-20,1,-28,-41,-70,17,27,35,-59,3,8,13,-23,-3,7,-24,-50,26,45,11,-117,-29,-4,97,14,28,29,53,60,-14,-60,89,-68,88,-87,-23,-63,13,-34,-3,90,83,110,69,19,49,-58,4,8,32,-12,6,-5,74,90,-11,41,-61,-45,76,32,42,16,17,-38,67,-48,-1,49,-41,-25,-1,-48,127,26,-2,-70,44,-114,48,31,14,86,-68,-47,78,-32,13,-90,58,38,89,-112,-11,-11,-9,121,71,-16,-25,-12,80,18,121,-61,-4,-83,28,121,92,-12,-49,56,23,-18,44,57,-17,-65,42,11,85,-6,7,47,-18,-65,10,111,32,1,4,-32,-36,-60,45,5,-10,-110,7,125,127,-13,-28,-74,-125,-37,-34,-14,10,-29,53,0,-61,96,-21,-12,-70,-24,-40,-14,45,5,47,10,-37,-54,-23,-55,-58,-17,2,-28,30,14,30,-43,24,-127,-48,-14,-1,13,46,-40,29,11,58,-24,63,-82,18,-2,50,7,66,-13,23,20,108,6,15,6,87,9,46,5,15,-41,-10,-2,31,50,-9,-38,-29,15,38,-8,31,-21,11,-23,7,-7,-44,-17,-51,-31,-2,-14,19,-8,47,11,23,29,38,19,5,-31,-45,-14,13,5,31,46,51,52,-1,17,53,-12,51,-8,-24,-30,-23,9,43,52,7,11,76,-15,127,-6,-41,21,17,-6,97,-70,18,42,-72,27,78,-8,-48,0,45,-17,117,-111,4,37,-51,18,90,0,-29,-12,34,-16,127,-63,-12,-1,-40,-2,84,18,-6,-10,18,-29,73,2,13,35,-53,-15,50,15,26,-10,18,13,58,0,24,58,-50,-41,14,-13,20,16,41,26,12,-24,-16,4,-74,-45,-16,-56,14,3,88,29,64,16,12,80,-75,-7,1,-37,4,5,97,53,127,5,15,66,-98,-37,-29,16,13,34,67,10,127,-18,-8,-9,-90,12,-77,60,11,45,-19,34,92,-40,-53,-84,-79,30,-102,-4,-18,23,75,42,124,48,12,-95,-17,-67,12,4,38,-36,33,54,58,51,18,-82,0,-77,-13,11,75,-26,31,39,57,31,38,-44,-7,-49,10,27,67,-2,24,9,51,26,41,-37,-28,-40,21,16,56,72,10,-32,127,9,56,-52,0,-23,13,-11,5,-3,6,-10,127,-80,9,-10,109,-59,-6,-7,5,12,-23,-11,114,-47,22,-92,105,-78,41,-2,36,20,28,1,87,-6,26,-48,80,-87,45,3,31,5,79,16,72,45,-5,-57,18,-28,72,7,41,-50,92,-6,63,-36,13,-15,-9,-53,38,-36,22,19,47,-37,29,-50,97,-87,21,44,35,-11,24,38,26,-22,5,-48,114,-65,6,0,-16,1,18,60,35,-16,17,-27,127,-57,3,-13,35,6,2,66,38,-27,12,-37,90,-61,59,-32,51,17,-16,86,29,-31,27,-15,29,-52,50,-35,53,-30,37,8,-1,10,10,30,66,-9,96,121,37,11,26,13,23,32,49,13,23,-23,45,60,-49,11,4,3,14,30,65,29,-7,-51,24,-37,-44,-10,4,-25,9,6,67,46,-63,-127,4,-29,-47,-32,31,-75,23,43,80,73,-60,-93,42,42,12,-30,25,27,80,-7,75,4,90,-33,-6,-77,7,-13,10,69,49,27,74,-3,78,-23,-28,-64,14,-12,7,81,49,71,48,40,84,-38,-61,-113,18,0,-1,18,23,36,104,80,69,-21,-4,-124,24,-22,3,-17,44,52,105,52,71,-28,-4,-127,31,-9,-17,17,45,19,17,-24,-15,68,-80,58,-27,27,16,22,16,7,19,-11,-23,-80,-67,85,-24,22,30,14,-24,-31,-5,51,-10,-73,5,16,-19,-7,-5,-18,-34,-3,-1,7,-16,-12,61,-55,52,-34,-48,-20,-11,28,-12,27,-15,53,59,-127,91,-54,11,103,8,-10,22,-28,6,-36,-66,-3,25,-90,46,127,-8,-10,-16,-36,-24,20,-82,40,25,-53,12,75,-3,48,26,-16,43,-55,7,25,-20,31,-5,-53,34,12,24,-58,72,-28,21,-28,-12,7,16,-2,62,-29,65,-20,20,3,66,21,12,-8,-16,46,58,44,18,62,34,-61,-24,-90,56,7,-24,47,35,25,22,69,17,-24,-28,-119,75,5,-17,53,35,6,22,59,6,-27,-9,-127,69,0,2,34,13,2,19,38,18,-69,-2,-63,62,-2,2,-21,-1,39,36,-16,27,-39,36,-11,34,16,24,39,49,17,58,32,48,-33,-13,-79,80,11,22,9,32,21,31,-2,55,-26,-19,-58,82,4,19,5,-8,28,19,-17,42,-26,-28,-82,64,-4,16,-5,-22,25,8,-40,52,24,-2,-100,61,-11,4,-29,-6,22,10,-36,70,12,9,-127,54,-3,18,33,7,-46,-23,-26,-44,-44,86,19,23,-1,1,12,19,-48,36,-44,-8,3,36,23,24,-3,6,32,23,16,62,-47,-5,-4,37,-22,12,7,-35,-3,9,91,46,39,31,11,30,-73,40,6,-18,-31,2,48,34,68,127,8,58,-70,6,-31,24,46,3,-6,127,-15,-12,7,21,-52,-18,-20,36,33,-5,-11,45,-37,10,-14,4,-11,-81,-14,36,39,14,-50,23,-55,40,48,4,17,-79,1,15,33,43,-22,4,-74,60,32,-35,-18,-69,17,-9,5,61,50,37,-54,107,-8,-56,-33,-43,-9,-4,84,-13,40,85,89,55,-35,37,55,71,-2,15,68,-11,11,12,77,42,-37,26,32,127,-32,36,8,14,-29,0,61,50,21,-5,-12,13,-27,-4,-47,32,-37,10,59,40,17,11,-31,-44,16,-6,0,44,-18,22,-118,-16,-1,79,14,-7,-31,-3,36,34,0,92,46,12,-36,-97,98,21,-41,3,77,61,-3,114,-22,0,-48,-51,44,6,0,8,35,72,-57,73,-92,-41,-34,-36,69,23,-14,29,18,-11,-67,86,-68,-55,-42,-47,93,42,4,44,-14,-49,-42,42,-24,-80,-127,-48,27,14,14,-45,25,1,87,105,-2,40,-36,96,21,-36,6,-45,38,5,4,52,1,31,-26,101,59,-9,20,-28,43,-9,-64,3,14,14,3,111,64,-4,5,-1,45,75,-50,22,9,26,-16,79,55,7,-10,42,17,127,-14,54,14,22,20,42,31,60,-2,-4,-48,127,-50,27,52,25,24,-65,7,-109,-6,8,-4,59,-43,97,-57,66,-44,-94,-4,-76,9,23,59,42,-33,89,-73,10,-45,-67,9,-40,4,23,99,41,-20,61,-33,-22,-16,3,-2,-7,-25,33,51,63,14,107,24,-36,-15,44,8,25,-26,69,-21,-22,43,60,-15,127,54,-33,65,58,-12,50,-20,1,22,28,-19,-31,38,37,1,1,-7,-13,18,21,-34,5,3,-15,-52,67,10,-6,-6,-32,51,89,-18,-3,31,7,-96,40,45,-51,-11,19,5,58,101,13,82,-33,-50,8,-6,-50,-5,43,-33,49,-13,1,43,4,61,21,36,20,2,29,-57,23,-26,24,69,18,51,-42,20,1,9,6,-48,43,9,105,25,31,18,-69,-5,-28,8,-27,3,36,2,96,-53,27,-4,-45,13,-38,-16,-7,42,41,11,127,-83,3,7,0,30,-16,-30,-10,59,-42,-8,71,71,36,-70,127,-24,51,-7,6,54,-5,-22,45,55,73,-36,96,-36,76,-3,20,7,4,-4,26,15,33,-40,66,-39,34,-12,22,-32,61,-18,71,-25,-19,-8,11,-42,42,-23,29,-19,65,-34,49,-78,-49,12,12,-12,61,-19,66,78,35,0,-20,-33,-7,-81,-8,-14,28,-30,-17,66,14,-3,-8,-34,-24,-113,-16,-45,24,-31,-45,28,-9,-17,-21,-27,-22,-100,38,-14,38,-68,-30,-3,-19,9,-12,-41,-8,-102,17,-56,54,-105,-16,-7,-28,22,-9,-103,-4,-127,-23,-49,102,-27,38,63,-8,82,127,-64,98,22,-9,-41,11,9,11,-10,1,-20,92,-27,67,29,-5,-17,-85,14,38,-34,-12,17,87,-67,101,64,-19,3,-80,-13,25,68,-9,-18,76,14,21,100,25,7,-88,-38,27,105,18,-25,77,93,101,123,9,-105,-91,-19,33,-6,25,-115,67,-67,-8,8,73,-25,-2,-7,-5,8,9,-73,52,-62,-2,11,64,-44,24,14,19,27,35,6,61,-20,72,-7,12,-83,22,20,-7,-12,51,63,53,18,58,-21,53,-61,16,-15,-1,-38,32,127,27,32,111,-83,5,-1,52,2,25,-22,28,-21,36,12,8,14,-29,29,3,6,0,4,32,5,-4,1,66,-65,-49,41,27,22,-17,20,22,-4,22,-48,43,-127,-27,68,46,25,8,49,21,-22,26,-59,30,-120,46,68,16,20,19,45,23,-18,37,15,-20,-73,61,59,41,20,-16,42,48,55,127,-60,-1,-21,-27,11,42,21,-12,-39,77,-33,81,-72,78,29,12,9,29,3,-9,-6,34,-24,54,-37,88,28,101,75,34,1,10,41,10,-13,-35,-66,67,6,-31,14,-32,-48,34,114,-43,-41,-1,50,-53,13,-31,-106,-95,8,-11,-26,22,-28,15,-33,-11,8,-22,20,7,5,11,-27,6,-8,8,-15,13,8,-26,-12,-40,-19,27,-23,22,-25,-29,-33,10,30,-8,-65,-60,-14,6,49,22,35,28,81,5,-28,11,-17,102,5,0,22,-12,16,75,61,48,-39,-4,5,127,-3,34,-19,110,-27,66,49,70,-37,66,-61,74,31,-10,-6,38,-17,22,44,45,-25,49,-49,45,28,-32,14,48,6,24,20,21,-42,26,-58,29,3,4,-9,44,-9,63,26,-20,-58,11,-92,11,-11,41,-3,67,-12,86,84,-54,-32,46,-127,24,-26,48,5,22,1,45,54,9,11,127,-76,0,-20,22,-14,-4,6,25,37,-14,-16,32,-16,35,21,-19,-1,46,12,62,-18,-2,-11,-39,24,14,69,-5,31,55,-53,45,-115,-3,-88,-92,58,-18,37,17,4,84,-35,103,-59,1,-38,-26,54,-9,-21,-19,118,-1,34,45,-98,18,-52,-71,32,55,4,-58,81,47,-18,107,-90,6,-24,-31,79,127,13,-42,5,15,-25,97,-50,25,-20,-21,-44,76,34,-15,-23,1,13,68,-48,39,-20,-28,-90,19,36,9,4,-5,-35,52,-31,77,25,-53,-97,-19,-55,-27,-13,55,36,127,3,8,-44,-29,-54,-5,-22,-22,13,32,53,87,18,18,-9,-59,-62,-11,-4,-8,22,44,45,78,61,33,-8,-86,-67,-60,-13,-3,38,60,68,67,83,24,-23,-76,-38,-65,-7,8,49,47,90,52,62,7,-41,-49,-45,-62,3,39,-46,59,7,44,64,30,29,36,-53,17,4,10,-18,104,19,62,-8,-20,-76,64,-30,14,14,24,18,127,40,36,-47,1,-67,44,-23,75,27,29,5,75,-2,2,-45,-28,-88,-3,-13,117,-24,24,58,5,14,95,-55,-68,-47,-32,-7,98,-14,-1,21,-53,27,2,-8,-6,29,127,-46,4,7,2,27,-59,6,28,-42,9,-74,97,-66,16,7,11,19,6,-8,41,-17,13,-62,67,-45,-3,9,24,0,61,-14,50,3,8,-55,1,26,-4,8,19,6,83,8,39,34,-12,-57,0,38,0,7,37,32,13,15,37,63,75,-35,65,-91,72,-7,22,19,-16,46,77,-17,56,-92,38,-107,78,12,30,36,-10,11,96,-44,23,-100,57,-124,127,0,38,14,26,-13,72,-18,-26,-72,35,-112,114,23,44,4,61,-58,64,-38,-41,-5,56,-123,91,10,10,34,-19,-11,14,52,5,12,40,127,59,-33,2,6,-38,1,56,44,-30,11,82,80,63,-16,4,12,-29,-4,44,3,-27,-16,65,87,91,-15,-7,25,-19,-33,34,-5,-37,-34,24,83,65,9,-1,28,10,-45,14,-41,-40,-47,-20,79,42,-33,16,68,90,-36,111,70,112,23,86,51,22,10,25,20,50,-39,37,82,122,-52,18,-13,3,21,12,-4,41,15,6,14,37,-85,-9,-108,0,6,7,-11,48,33,23,-25,-24,-84,2,-127,-41,-13,-14,-44,57,1,48,10,-43,-48,28,-103,-30,-5,-44,28,-76,70,101,5,28,-107,14,66,53,3,-14,23,-51,-4,76,36,61,-41,-14,73,24,17,10,13,-11,-10,57,25,39,-17,-23,33,18,-5,35,-18,29,11,127,9,39,-45,-18,-3,2,-63,43,-35,54,24,124,11,19,-15,52,8,41,14,11,-57,7,68,127,35,33,31,-14,27,69,19,25,-30,-11,37,119,43,27,0,-15,17,52,25,9,-36,-28,37,107,36,13,15,-19,-10,29,19,10,-31,-18,48,109,49,3,20,-8,-18,27,18,4,-53,-37,44,113,57,4,8,0,26,64,-19,12,26,51,35,25,-34,-45,-95,-19,-69,-11,6,16,7,44,34,17,-8,-50,-98,-37,-89,-44,3,10,5,49,62,24,11,-26,-54,-36,-113,-50,-7,6,21,43,35,31,33,-9,-48,-35,-127,-60,-20,2,24,66,47,47,19,24,-63,-12,-87,-52,-24,-66,36,-53,9,127,54,51,-95,29,50,34,2,-15,42,-1,-32,98,35,41,-38,-2,51,-5,17,3,-2,37,-31,86,-4,32,-44,-25,22,-46,0,22,-27,96,36,111,-18,25,-9,-43,9,-49,-88,54,-33,68,63,94,-11,-10,15,30,10,7,1,-7,69,37,-8,13,21,58,55,81,-76,-22,11,-31,28,6,25,43,-32,43,3,-44,-79,-9,2,-43,11,-2,45,110,22,39,-80,-32,-20,64,-22,-36,-6,6,62,106,20,10,-127,-2,-52,58,-16,-12,-30,48,59,112,34,4,-99,54,-20,51,-48,74,40,69,9,-29,-85,39,-80,78,-36,127,-41,1,66,41,-4,-33,-104,-30,-105,79,-60,100,-37,-24,59,16,-35,-69,-105,-62,-97,70,-29,121,-32,-23,22,22,-36,-35,-81,-57,-98,64,-20,110,-24,-15,40,26,-14,-21,-103,-35,-122,11,-49,108,-27,-20,16,34,13,52,-51,-11,12,-69,106,-105,13,20,42,29,20,46,-44,9,-35,-57,75,-87,1,4,52,-1,29,5,-39,25,-93,-37,24,-40,-36,-11,6,-39,49,-24,-45,67,-54,-20,-64,-5,-22,-36,-2,-54,58,-47,9,93,-74,-30,-127,-16,29,21,2,127,-43,79,29,-4,-12,78,-117,94,9,8,-11,94,9,62,56,2,9,46,-62,38,8,17,-21,95,30,46,50,-20,-12,62,-36,-38,14,29,-28,72,13,53,32,-58,-54,65,-99,-73,7,39,12,79,-29,69,57,-41,-81,68,-117,-13,7,-19,-24,69,-15,43,-22,54,46,25,66,-69,14,-5,-80,30,-46,16,-114,127,70,28,51,-103,15,19,-24,10,4,34,-74,60,-30,-17,32,-33,8,-2,69,36,4,30,21,8,8,-29,-1,46,-14,-1,119,38,4,14,90,-17,-11,23,-55,-2,-2,20,45,88,77,16,-17,-28,-127,-57,-47,43,6,13,46,60,48,34,35,-54,-103,-81,-57,16,-4,11,29,40,41,30,19,-41,-100,-96,-43,50,-9,4,29,40,9,30,-9,-43,-99,-90,-73,32,-13,14,28,72,-8,34,-52,-45,-74,-67,-61,-5,2,-58,86,-14,-89,22,127,68,-10,-36,-5,78,5,-68,76,44,-97,75,109,102,-11,-62,-4,99,3,-61,9,65,-89,108,98,110,5,-91,6,89,-13,-29,-32,70,-83,77,104,77,-13,-83,0,107,-32,-9,-24,57,-74,54,72,65,-27,-80,33,95,-29,1,48,91,91,41,72,12,-29,-9,-8,41,-41,40,-11,52,102,14,14,-73,-56,-8,-127,107,-35,31,4,16,44,63,38,-43,-34,81,-113,55,-6,18,-5,-13,-27,105,62,29,-77,53,-77,81,-35,-27,-14,13,-70,80,61,65,-75,33,0,75,-15,22,18,-6,18,127,-45,28,-18,5,-40,40,-2,23,-23,5,20,102,-70,4,26,18,6,58,6,0,4,-8,-2,96,9,-59,41,59,-9,78,-5,-17,24,13,0,38,63,-35,-30,45,-6,56,2,-2,43,44,49,43,61,-8,-21,24,-14,51,-44,-13,2,5,-28,14,-11,65,-103,79,7,127,-3,20,23,18,-1,-10,-20,21,-69,43,-28,79,-1,12,10,32,6,-13,-28,36,-54,4,-44,34,-14,3,21,78,27,14,-12,4,-31,21,-49,2,-31,-5,-1,96,33,80,41,48,19,6,-12,11,-16,-22,22,20,74,74,-73,-60,-75,2,84,23,16,-17,40,57,47,70,-79,-25,-54,70,45,35,8,-7,14,47,24,65,-67,-43,-60,79,12,17,-8,38,29,67,37,60,-42,-40,-29,57,-7,22,-21,69,-13,20,43,45,-17,-55,-46,127,19,26,12,18,-33,75,8,9,-31,-35,36,-117,28,-41,20,-30,-6,52,34,24,-52,-21,-26,-88,56,-40,1,-30,11,10,11,-4,4,11,-51,16,31,0,-14,26,4,-58,-30,22,6,-20,-32,127,-10,53,3,43,0,-50,-64,23,-21,5,7,121,-74,53,-31,-40,23,24,-25,-16,-66,4,-127,-84,-50,-95,-18,-5,42,38,38,41,-56,12,-84,-51,-90,-73,-12,-8,67,36,34,24,-61,27,-60,-42,-76,-68,-26,4,51,11,44,22,-20,16,-75,-27,-74,-84,-23,24,59,-1,55,23,-1,5,-113,-27,-69,-92,1,13,-10,9,1,64,-45,80,-38,-59,-16,1,22,7,9,58,-22,33,-49,28,-60,-27,5,74,15,25,38,25,-53,31,25,15,1,-12,21,51,-3,28,34,49,-64,40,81,-28,-11,-15,15,81,-44,39,-4,99,-64,25,127,-31,-3,-23,-71,21,-53,-34,127,3,-48,106,31,-10,42,-9,23,13,-28,-42,-26,75,20,49,20,-41,-45,-12,39,70,-11,36,-58,37,-1,45,53,-43,-86,4,-11,74,-3,57,-57,54,31,23,28,-1,-63,23,-54,58,-19,47,45,26,50,34,-55,45,-46,48,-85,67,-38,-10,-42,28,12,61,-10,44,29,4,-22,1,4,3,-19,27,35,71,-32,45,-54,-35,7,-24,-11,-7,-32,24,34,81,-29,-1,-35,-39,-45,-21,-34,-30,-40,76,28,127,4,-6,-26,-15,-63,-39,-32,-22,-31,70,11,114,25,21,-58,-35,-74,-65,2,22,10,25,-3,62,-24,32,-68,40,-82,90,6,17,-17,9,11,97,-47,22,-42,37,-40,45,-51,28,-19,-22,24,110,-66,78,-82,95,-34,69,-29,2,-13,-17,38,127,-43,85,-54,82,-31,7,-4,-30,-47,9,0,74,-50,115,1,95,-35,10,-8,18,17,-20,10,127,32,-34,-24,12,-74,83,-6,5,-18,-31,67,102,-25,-58,35,16,-90,73,-3,8,6,-26,72,60,-4,-40,35,22,-63,84,-16,-9,25,3,68,49,23,-6,25,58,-19,42,10,-8,38,7,53,83,22,39,13,53,-13,29,-33,-55,-17,51,49,127,20,16,-38,-58,-20,2,-29,-42,-24,10,37,124,18,25,-18,-69,-63,-5,-21,-10,10,26,47,70,14,23,-10,-72,-48,-67,-11,15,34,67,46,21,35,15,1,-31,-12,-61,7,14,58,54,62,-4,68,4,-9,-56,-46,-58,-5,33,68,47,24,42,-92,-27,39,72,-5,103,-13,23,32,28,57,-12,-103,-60,39,97,-29,63,-23,14,28,-6,33,-24,-105,-52,45,80,-44,61,-13,11,57,13,8,0,-126,-53,25,44,-17,52,-19,4,48,63,3,