#include "spk_conv_model_params.h"

const int8_t spk_conv_weights[4368] = {-24,26,-18,95,2,49,-74,84,-61,127,-7,28,-65,27,-7,-3,-17,53,-81,-13,18,-7,-76,36,-33,30,-15,-8,-13,5,8,-62,-16,2,-74,-22,-15,20,27,11,23,-5,37,-34,-50,40,-44,5,20,26,31,33,1,23,31,15,-53,11,-66,-27,5,33,-17,59,-15,33,-24,12,-7,10,-52,-28,4,-7,-54,76,-38,69,50,-27,-30,-44,-14,41,7,12,58,88,42,43,-80,122,0,-46,-73,46,22,49,5,15,43,41,-101,23,-5,-2,-91,77,-22,44,-1,12,57,-9,-86,14,51,76,-96,18,-31,24,13,-34,39,28,-86,-15,47,58,-41,93,0,7,6,-17,51,32,-123,44,-9,-6,-113,108,7,-2,4,28,26,27,-125,61,72,-39,-88,54,34,-3,0,35,40,5,-127,81,20,7,-53,11,-10,-29,-11,96,40,26,104,58,23,79,103,31,-1,-12,13,50,29,-31,53,127,41,78,83,-35,2,-14,29,-1,28,-62,1,112,58,82,102,-18,-27,3,18,-11,7,-15,-4,59,-3,117,77,30,-32,-28,-10,11,7,21,-40,40,-11,50,14,-28,-29,-18,-20,10,-27,77,15,16,-11,-26,13,9,-18,25,2,10,-23,37,23,125,-44,-68,-62,-31,-13,-34,-63,0,-53,60,-127,-43,20,29,33,-25,12,-6,15,5,-30,30,-51,9,32,43,32,-26,18,8,17,-4,1,18,-23,-5,-12,79,17,-11,1,7,70,-2,15,35,1,16,-51,105,17,32,-26,28,79,-23,-4,20,2,9,-29,103,-30,-14,-5,-4,29,-6,41,38,1,74,-60,99,-57,15,-5,13,-58,-25,52,52,-26,77,-107,20,-23,52,-10,27,-2,84,-40,9,55,-5,5,-82,59,-20,-10,0,19,32,-7,8,9,-23,6,-81,20,-8,42,0,35,4,1,0,-36,-22,18,-73,41,-10,-1,-6,2,23,33,24,-4,19,41,-66,37,21,-28,-15,3,26,4,15,50,4,-65,-21,47,48,3,16,43,5,-61,10,33,-57,-127,11,37,13,19,39,40,-42,-71,31,11,-69,-49,19,9,27,2,-1,-57,26,23,72,-30,120,-63,57,-103,78,3,15,-12,35,10,64,-30,83,-7,127,-76,53,8,0,-21,-25,17,47,33,96,-24,50,-96,58,-6,-6,19,-6,21,59,41,73,-49,58,-84,56,7,18,9,13,-23,53,30,80,-56,69,-57,1,0,26,29,41,-13,105,-60,59,-52,75,-78,27,-11,25,28,25,13,121,-95,55,12,116,-24,16,0,-23,57,-55,13,78,45,53,-56,15,56,24,-4,-68,3,-25,-32,95,62,41,-34,-8,106,22,7,-37,-17,39,-59,76,110,52,-15,-10,89,-29,2,-4,-28,98,-48,127,84,30,-7,-57,50,-23,-53,53,-45,112,-30,125,69,45,-1,-61,110,10,-73,55,-53,48,10,69,36,65,25,-23,73,50,-27,4,-18,14,24,127,-2,33,11,-77,62,69,-3,-7,50,41,65,-10,-83,-115,-72,15,2,-28,24,-1,73,27,80,-28,39,-22,-9,43,40,-20,19,18,34,26,34,-10,54,21,-15,8,-22,23,32,31,-22,27,-14,56,45,105,-4,-23,-19,42,14,47,-90,17,-80,102,4,65,-6,-88,-2,-12,-2,-18,-43,-25,-71,110,-56,38,2,-40,23,13,-5,-54,45,-24,-12,127,-73,65,-28,-2,-35,31,14,-4,36,27,19,67,3,-64,34,-27,-28,8,-14,-29,-2,-2,64,78,10,-57,12,-24,-23,45,24,7,9,-8,32,43,-76,6,-53,-41,0,-29,19,21,27,-16,30,8,-53,49,-100,-13,74,-46,-21,-24,15,-35,42,-10,-31,52,-121,60,-34,37,-23,-24,-20,-37,37,0,10,33,-85,75,-100,68,6,-4,9,-19,-21,-15,-12,-24,-39,68,-127,96,20,-3,127,-42,52,-35,16,1,-72,-68,83,-37,-24,-14,77,-5,73,-38,29,18,-45,-70,41,-38,-14,-14,67,20,60,-44,-14,14,-74,-95,29,-83,-8,-16,44,20,49,-19,7,23,-35,-74,24,-107,-14,-22,5,14,44,5,35,37,-11,-99,34,-71,-48,-16,-28,27,47,31,51,66,-17,-111,-7,-54,-35,-17,20,17,26,10,52,42,-29,-91,-7,-89,-52,16,-16,38,-43,27,-35,7,49,15,60,62,6,17,-100,1,-68,9,-56,-40,-6,-25,2,65,54,3,-38,3,-40,1,-29,-40,-80,10,-25,81,26,10,25,55,10,5,-57,-19,-76,16,-25,77,-40,63,57,27,31,17,-72,-24,-47,-15,8,127,-82,82,113,13,46,14,-3,-45,2,-44,53,98,-55,-6,32,36,8,16,28,-13,-47,-86,108,6,72,-53,-32,46,-40,126,-67,44,-45,-5,-61,-33,62,-16,-9,54,-23,125,-24,20,-35,23,-37,-14,46,9,7,50,14,92,15,19,-58,27,-53,-5,37,39,37,50,52,89,79,-8,-48,39,-58,41,36,78,0,16,41,44,127,16,-7,19,-7,65,20,91,-43,-32,60,46,97,-5,-10,46,14,97,34,96,-77,-79,70,96,98,-42,30,55,-18,91,-38,70,58,25,-19,33,59,-30,87,22,-27,91,-18,127,21,-8,-16,7,122,34,90,-88,-38,62,-3,51,-36,-21,-48,-6,45,14,31,-67,-25,34,19,-46,-12,-6,27,45,-27,-28,-70,8,69,-5,17,-54,50,47,79,11,-42,54,-75,65,81,-15,20,-56,61,43,48,-54,9,64,-67,29,19,30,7,-28,51,50,103,-9,-6,65,-61,8,20,77,23,6,-7,20,20,51,99,109,8,-16,-10,-28,-14,20,85,-29,-11,90,24,69,-56,-20,-4,-38,-69,43,102,-7,-16,29,-57,67,2,-14,-10,-37,-63,-44,59,65,-35,14,-87,54,37,-31,-28,10,10,-30,-58,60,60,27,-123,-8,-32,58,-18,-3,36,-5,-72,22,127,47,-38,-41,-68,22,-53,29,29,6,48,-14,46,-3,7,12,-5,-11,15,75,2,-31,-3,47,-5,58,-21,57,-14,95,-11,25,24,60,-47,61,6,34,-8,1,-22,28,-36,10,9,107,-26,-4,36,5,-27,60,24,-51,31,27,-28,-10,28,-7,-26,10,-18,53,60,-45,0,7,-10,-127,-15,58,5,33,28,45,19,2,54,-24,9,-73,-54,13,87,-4,-71,14,-53,50,41,-53,-10,6,29,-67,79,25,16,14,2,-8,-29,-36,62,21,104,2,56,23,60,-43,17,67,23,22,43,-9,48,-14,50,3,62,-57,96,78,0,30,37,10,49,9,25,39,55,-30,121,76,-2,38,8,4,12,47,36,43,50,-5,127,17,1,47,11,-9,8,87,77,46,42,5,99,-39,10,38,15,-2,36,89,58,70,0,18,100,-48,47,-20,35,17,77,52,30,25,-31,-13,41,-47,33,-38,-15,-41,-18,26,-13,29,-127,5,9,118,-20,-2,0,-31,-30,2,-27,39,-58,33,7,80,-24,-31,-2,-13,-3,-13,-17,51,-3,25,6,20,-65,-10,-10,6,25,-25,-16,15,42,5,-26,34,-35,35,1,9,40,-30,-7,14,53,-12,-74,71,-29,73,-11,23,40,-36,-17,31,27,22,-58,68,-11,34,-12,19,2,-25,-34,37,11,18,-35,24,-18,70,-33,-13,106,-75,127,62,-56,70,20,31,41,-56,-4,-6,69,-57,72,-3,20,83,56,38,73,13,14,4,37,-21,43,66,-6,107,36,88,47,20,-6,27,19,38,20,105,-76,34,37,103,2,26,-7,25,-52,43,-35,84,-92,57,-9,117,-55,48,10,-5,-50,63,-61,62,-53,28,-18,88,-118,26,20,-10,21,27,-73,13,6,-32,14,110,-66,-12,-19,55,-23,-15,81,-2,-93,48,3,-113,-41,41,-6,46,-14,-22,8,5,-36,28,71,-123,7,54,1,30,-22,-41,11,39,-59,16,9,-124,-10,65,3,17,22,-21,-10,93,-108,27,0,-77,-29,61,16,36,50,-20,0,111,-96,48,12,-35,-18,100,-10,36,114,-28,37,122,-96,47,-31,-10,-45,79,-11,34,55,-33,43,127,-23,53,-39,-28,-11,48,15,-110,80,100,-24,34,66,-15,78,31,73,35,33,-90,29,97,1,6,26,-6,65,46,59,-22,17,-75,37,127,-20,-10,7,-36,70,38,62,-46,8,-83,49,112,-28,-39,29,-43,81,55,29,-12,-34,-55,49,78,-27,-69,-17,-63,97,29,36,-27,-24,-61,22,20,-12,-88,-43,-60,-43,-45,34,-42,-27,-29,16,-35,-9,-96,-77,-20,-18,-70,41,-41,-12,-64,34,-2,-20,93,-109,-8,-45,-106,29,81,10,-57,27,54,-25,103,-107,-18,-2,-51,17,112,21,-31,25,38,14,123,-95,-1,-2,-48,-19,122,10,-18,7,36,63,84,-46,-2,-3,-55,-26,127,2,10,-50,45,27,23,9,15,39,-42,-17,32,1,-3,-53,27,24,23,-10,14,12,-58,-46,-55,2,17,-38,-10,28,24,-82,-2,-25,-95,-108,-110,-2,-8,23,-14,107,2,-47,-4,-17,-7,24,-4,5,4,30,-16,85,-4,-27,-30,-16,-31,37,2,12,15,29,-40,68,-6,-9,-41,11,-36,45,-10,4,4,52,-38,88,-13,13,-66,-4,-26,70,-12,-2,5,56,-32,89,-4,26,-68,12,-14,70,-26,-2,-8,55,-49,106,10,-10,-71,-52,24,83,-15,0,13,15,-64,127,30,6,-45,-8,25,104,-27,9,-20,13,-33,2,-45,-13,66,23,-26,-64,-22,44,-81,-43,5,-26,42,-72,57,-87,-7,-68,26,41,-70,-30,28,-23,108,-93,-4,-116,66,-61,22,-1,12,-8,-17,24,82,12,-30,-46,127,-55,53,-31,52,22,-18,33,36,28,-10,1,93,10,28,-22,58,69,17,-27,25,-78,17,-36,-25,3,-17,-11,23,70,93,55,-30,-52,79,-34,-18,-36,14,-28,7,25,14,29,47,-70,25,35,-34,29,1,-19,7,-10,12,-7,23,-22,16,63,-49,11,9,6,18,-52,8,-32,46,24,-1,56,-61,7,-21,6,25,-23,13,-25,49,42,-15,77,-59,-7,-15,1,44,50,17,-16,50,0,-7,127,-48,-6,-24,3,39,66,13,-20,38,4,10,122,-22,-24,-31,9,30,42,9,-18,72,27,-12,121,-28,29,-25,29,15,33,54,13,18,-21,127,21,23,-6,24,20,13,-13,53,-49,28,-51,99,33,4,24,8,10,-1,-42,56,-46,62,-52,28,9,-5,-18,10,7,-4,-7,62,-42,37,-13,-13,-13,-22,-82,17,11,11,41,24,-1,-11,14,-29,14,-58,-74,12,7,3,96,0,46,1,39,-25,-20,-57,-51,29,-25,-23,111,-18,43,39,85,-55,-22,-90,-16,28,11,-26,-27,36,-60,-17,-21,49,-8,56,15,1,-12,5,-49,31,-24,10,-10,35,-31,10,28,-4,0,-10,-23,14,-32,35,-21,53,-26,27,2,-11,-20,-5,8,4,5,0,-9,27,-14,22,42,25,-27,19,83,-29,40,1,12,11,-25,17,75,33,-1,38,127,-44,57,9,58,67,-13,42,105,53,-15,52,110,-26,23,37,60,107,4,2,27,-22,-9,-8,37,-7,5,23,-5,-83,-54,65,58,43,4,-12,27,18,29,-40,-27,-70,-51,127,41,37,15,15,81,14,89,1,21,-36,-46,92,12,43,28,40,57,53,43,-11,-1,5,-30,118,-8,17,36,38,15,64,-27,4,3,49,21,108,-15,-26,19,28,-28,70,-12,3,-89,74,-10,85,-37,13,13,38,12,21,-14,10,-14,74,42,59,-67,14,52,53,53,41,-15,53,-53,-40,-111,1,54,-127,-67,-67,-37,26,-12,61,61,12,-31,55,15,6,-18,-19,18,-45,-26,74,-21,2,-46,34,-46,31,-7,13,34,-50,-51,17,-67,17,19,1,-29,51,-23,40,-12,6,9,-18,-61,62,28,-85,-3,51,43,-6,-53,12,75,-75,-3,-47,74,-79,16,29,51,-42,-33,23,13,-16,50,-17,2,-23,-15,44,-1,25,47,-32,127,27,50,-49,-48,-58,27,6,-7,-2,92,-25,61,3,36,-11,-21,-53,34,28,14,-21,44,-8,11,16,34,15,0,-13,65,37,12,-22,-8,9,-15,42,-34,3,-1,13,30,5,13,8,-42,34,-36,41,-40,61,14,52,-1,-22,11,11,-31,59,-44,46,-34,35,-9,1,-20,-17,17,33,-5,53,-41,33,-8,63,22,38,-46,-43,2,8,7,10,72,46,64,-12,-112,-65,-127,-1,10,12,17,20,79,40,98,8,-122,-50,-100,-7,-1,7,9,12,72,25,107,4,-103,-5,-36,-8,-5,-3,36,28,69,41,58,-3,-78,3,-13,11,-20,3,32,40,3,32,10,-19,-56,17,-54,-22,-23,-8,13,56,12,13,-15,-31,-94,29,-56,-3,-9,1,14,49,60,-8,-57,-13,-71,-3,-24,7,21,57,40,-8,-40,31,51,92,-15,90,-100,78,6,37,4,-6,2,33,44,97,-15,92,-105,79,1,21,-4,17,28,41,39,48,-3,53,-96,71,11,30,-17,17,21,30,6,68,-8,-13,-84,60,-14,2,-11,31,6,46,-1,87,0,-18,-99,42,6,11,8,10,-29,60,-16,35,-72,2,-90,24,11,13,24,38,-10,59,-33,48,-84,15,-127,24,-4,60,7,16,-42,-58,-98,-54,-39,34,27,-18,-8,8,11,70,-1,-67,-43,22,12,51,14,-19,-29,-51,-17,72,10,-65,18,35,12,47,13,53,-1,-48,-18,14,5,-46,-14,8,40,-4,-75,44,41,-17,-12,-30,1,-21,5,-21,29,35,-66,33,23,24,-33,4,7,12,-22,-46,70,127,-28,70,19,34,-39,31,-9,-13,-52,-80,65,88,1,62,15,11,14,28,-4,-33,13,-35,17,18,-8,32,-28,10,-15,39,-2,-20,-18,59,-36,27,5,68,20,-7,-26,-22,-37,11,-55,50,-50,-49,-6,52,42,16,-64,-60,-65,22,-14,-19,2,9,-27,-22,5,53,5,34,-8,76,8,3,4,111,25,16,-58,7,-33,92,41,125,89,13,22,123,21,-19,13,4,-8,58,40,56,2,-85,-127,20,3,7,3,-23,7,-22,29,77,-46,1,-14,-47,-3,8,7,-37,-42,-9,46,95,8,91,-20,-27,39,17,6,-44,-28,24,5,84,-14,60,-19,3,30,-53,23,-42,9,101,-13,54,38,70,-20,-12,15,-34,24,-16,-25,127,-54,45,56,91,-36,-27,34,-48,14,18,-26,68,-13,58,-14,36,-33,68,52,-41,5,53,-36,6,10,12,-54,101,-24,44,17,-35,-104,-41,124,-50,105,2,73,17,-34,110,67,24,-80,-15,101,-87,22,51,102,-10,-29,48,34,42,-1,-24,6,-44,24,21,69,7,-38,-30,25,83,-4,25,-59,-17,19,90,17,20,1,-58,-52,60,-36,66,-23,12,5,123,12,30,17,-60,-46,73,-37,45,11,7,-45,76,52,30,31,-45,-39,119,32,-95,35,37,11,118,-3,-4,-17,16,-26,127,23,-12,-3,-20,10,35,48,81,11,-29,56,-8,-30,16,4,-15,-6,27,3,85,-78,-14,56,20,-1,26,44,0,-36,-4,-69,29,-78,-40,33,55,23,16,77,47,-39,33,-26,62,-5,-52,55,38,32,4,92,80,-17,-2,-50,61,-26,-79,89,45,22,-22,37,51,22,43,42,72,48,-105,95,40,28,-3,26,-36,26,39,7,8,-26,-127,32,54,29,14,-20,28,31,-5,-89,0,-24,-24,52,1,5,13,22,-14,18,14,-77,-6,-31,19,33,60,-52,2,71,19,-27,68,-43,-67,2,59,15,-37,-29,-62,56,47,13,-2,22,55,-55,67,-39,-20,25,-19,-14,14,47,-3,-5,127,-7,102,-82,13,3,-3,-39,7,3,23,17,80,2,-13,-21,-34,0,-7,-16,28,-39,20,44,66,-15,-53,70,5,-8,-11,87,33,58,61,-47,-22,36,-46,-9,22,3,-40,41,58,29,42,-22,14,15,-37,-7,-21,-5,-42,81,63,33,36,-21,-2,-10,-20,0,-16,4,-41,127,55,-24,-13,-2,10,7,-6,-14,-37,-3,9,92,44,-40,-27,-39,12,6,4,-3,-38,-7,1,32,15,-25,-43,-49,3,-66,14,16,-40,-19,15,42,-33,-29,-54,-10,19,-61,-23,27,-66,-25,35,63,30,-6,-11,0,5,-10,99,-74,-20,-29,9,72,6,23,-10,-41,-8,-9,127,-64,-50,-8,11,65,15,30,-8,-53,15,-37,87,-23,-32,-2,14,19,20,27,1,-46,19,-43,58,-3,-27,3,1,-6,34,-6,12,0,20,-67,44,2,-31,16,21,-8,61,-17,16,27,-2,-67,41,7,-40,10,30,-13,102,-32,33,4,-28,-23,77,-23,-58,-25,17,7,21,27,123,54,39,-37,-30,-12,114,-10,-7,57,-19,-14,46,14,43,-67,-75,-21,80,-24,-13,85,42,64,37,8,84,-52,-68,-80,37,-37,16,88,50,68,35,29,31,-41,-40,-55,66,-15,5,59,55,20,42,48,0,-85,-19,-105,45,21,13,61,18,-29,74,49,-2,-127,3,-43,16,-10,30,31,4,52,81,105,46,-37,74,-58,10,63,-100,-67,-63,-38,64,-73,-15,-26,-58,5,48,62,59,68,-27,-57,72,-96,17,-29,-19,74,-26,-26,21,53,127,13,16,-3,41,-16,103,86,4,-17,-12,-13,48,47,3,19,31,-18,-16,43,-32,-17,-11,10,-33,47,-30,40,8,2,-7,-26,-1,-7,9,-10,13,0,63,6,11,-15,42,-88,-36,0,6,27,9,-21,52,-63,12,-47,29,-81,-22,-50,-3,-3,21,111,47,21,5,33,-20,-3,-4,-78,13,-25,79,68,107,46,61,-30,-50,42,-26,-2,26,46,120,17,42,-19,52,-70,-83,18,-82,45,8,2,29,11,41,-47,-22,-4,-104,-35,-109,0,-17,-23,51,41,71,32,-94,23,-41,-127,-33,-3,-44,-54,25,39,99,63,-31,51,-45,-9,-11,5,-34,-14,-7,60,27,-28,31,-31,-45,-7,-6,-12,30,-51,-3,16,117,-7,36,54,39,12,46,-14,13,-45,-14,13,127,-4,37,34,33,12,21,-16,6,-36,-21,35,121,-15,19,27,14,-13,-13,-33,-10,-33,-9,23,106,-6,43,-5,43,-14,10,-20,-29,-41,-15,11,68,-37,27,-12,73,-5,-6,-6,-16,-37,-2,7,59,-11,92,-18,90,33,-7,-7,-8,-35,7,0,63,7,104,0,98,40,17,-21,-35,21,14,-19,32,-41,-1,-50,17,-27,4,-10,-40,13,15,-13,40,-12,-21,-34,32,-73,29,-19,-43,12,11,-24,27,-5,-12,-43,24,-78,-18,-19,-45,4,-6,-27,44,-27,4,-12,7,-93,-11,-32,-84,-17,-12,-24,63,3,-21,-38,1,-127,-26,3,-74,-18,-25,-10,63,31,-50,-60,18,-85,-21,12,-41,6,-2,13,32,87,-5,-39,-6,-45,-35,-56,-28,-55,19,30,44,-36,-11,34,-90,14,-73,-17,-38,-24,31,57,6,53,7,-13,-43,19,-73,-32,-86,-20,34,26,-14,41,-12,-27,-2,1,-19,-21,-48,27,3,-17,10,-17,-20,20,-3,-61,-14,2,84,44,-10,-67,59,-77,-6,-24,18,19,28,27,127,43,-12,-65,85,-94,61,-26,-26,53,23,39,11,33,-27,-44,44,-58,50,-48,-57,-55,23,1,6,-30,-29,-7,-7,-11,-72,-35,23,17,54,-27,14,-44,-37,-15,9,-15,-3,-98,28,8,55,-44,20,-46,-45,-32,23,-30,-15,-127,5,-25,40,12,15,-19,-37,-36,3,27,-9,-60,-21,-26,-34,-8,5,55,52,7,25,-14,60,20,-28,54,-19,-4,-1,51,92,103,88,56,56,87,-6,74,-16,12,14,38,-1,50,32,83,-34,49,-32,28,60,17,55,41,56,-34,58,-110,3,-95,69,74,51,17,39,56,9,1,113,-29,5,-56,62,47,17,32,20,16,47,9,85,-2,-13,16,16,31,12,45,13,-8,49,-38,89,-32,18,27,-38,14,-19,39,-11,-39,57,-23,51,-7,-11,32,-66,29,54,31,31,-28,45,-17,48,-26,-38,-13,-49,79,86,39,57,-6,9,-63,52,-112,-77,-127,-13,69,104,-42,76,-15,-12,87,47,-39,83,82,-43,1,65,-15,55,1,-22,10,17,-24,5,69,-48,-28,64,0,34,-25,-14,6,26,-36,22,32,-45,-24,62,23,46,-2,-11,3,41,-59,5,46,-28,-43,66,17,71,6,-35,-14,63,-76,30,70,-22,-10,77,9,37,24,-35,47,91,-127,34,48,0,-4,67,-2,-8,15,-44,93,104,-108,-10,-5,7,60,52,-17,13,-28,-31,2,90,-43,59,-9,22,94,93,-6,4,-50,-13,-22,100,-40,16,-3,34,66,87,-7,26,-53,-36,-38,102,-44,6,-9,25,37,99,10,28,-31,-23,-17,85,-26,22,3,42,-22,67,19,33,-41,-22,8,80,-73,-2,-31,19,-10,44,22,27,-40,-2,59,97,-85,-18,-34,39,18,51,22,12,-33,14,96,127,-99,-46,-3,64,39,24,-97,-55,83,-46,31,100,-127,79,0,47,22,25,-3,-31,114,-73,48,101,-77,115,-11,-34,19,-63,19,8,124,-61,109,61,1,27,-32,2,20,-102,-2,31,120,-17,39,68,-6,80,16,-29,-28,-38,-48,-3,80,8,0,66,4,120,25,-18,-52,-34,-20,-15,30,62,-29,50,-11,18,-58,114,22,80,32,-58,-81,60,-112,-5,38,30,-118,124,50,95,6,8,-18,-1,98,48,-33,-5,-111,-23,30,96,9,-20,38,-10,70,64,-53,6,-65,-16,19,68,3,-17,53,-32,23,96,-54,-3,-25,-28,21,47,-16,0,64,-15,14,115,-61,-7,-13,-32,26,40,-21,-7,8,10,7,127,-80,-37,-3,13,19,37,-9,-1,-3,11,34,65,-87,-33,-39,27,-18,33,20,10,-57,5,27,86,-69,-20,-15,-16,-40,24,59,1,77,-50,-20,25,-16,-40,0,6,118,34,-17,58,69,-51,-37,76,-49,-12,30,30,96,48,-33,24,48,-56,-77,54,-57,-38,47,82,97,42,-40,12,40,-66,-83,63,-52,-72,68,71,64,70,-24,-7,31,-39,-63,56,-55,-86,84,41,69,51,-81,-6,25,-28,-36,58,-63,-127,82,13,10,61,-85,-30,29,-27,-10,38,-31,-85,28,-17,-4,14};
const int32_t spk_conv_bias[52] = {-424,-2003,-737,-334,-2383,-968,-1414,902,-1627,-371,-609,1773,-121,-1071,-322,-1528,-1,-723,-150,1066,646,528,-3445,432,228,-557,1509,-3677,598,268,-1412,-2307,-1842,38,-1624,-2203,-1158,-164,-911,569,-3048,-636,-203,-1203,-1808,-1105,-4194,460,1185,-2504,-860,-1228};
const int32_t spk_conv_mult[52] = {1668310870,1202839392,1404561494,1495814397,1237416743,1477477576,2090044426,1204324161,1327720681,2121470844,2050926634,1252802497,1931473210,1338007851,1274549937,2118735002,1698555272,2046745438,1663757219,1526983706,1896223659,1905087812,2125816573,1211684643,1417773203,1266692205,1179295944,1865763818,1523316084,1260721768,1271631090,1096875620,1258388559,1136269209,1869975085,1120603469,1425232813,1236182639,1783668801,1444083423,2123752395,1191512615,1821910444,1139244225,1152716586,1541652260,1697327612,1843606871,2125200327,1591184057,1232474528,1768314943};
const int32_t spk_conv_shift[52] = {-6,-6,-6,-6,-6,-6,-7,-6,-6,-7,-7,-7,-7,-6,-6,-7,-6,-7,-7,-7,-7,-7,-7,-6,-6,-6,-6,-7,-6,-6,-6,-6,-6,-6,-7,-6,-6,-6,-6,-6,-7,-6,-6,-6,-6,-6,-7,-7,-7,-7,-6,-7};