#include "spk_conv_model_params.h"

const int8_t spk_conv_weights[61440] = {-48,33,60,86,-18,44,24,95,32,127,-14,57,4,-9,56,30,-53,4,-13,15,-24,41,-35,20,-4,-30,46,-8,-3,15,-15,10,-27,-75,-20,-9,-3,4,4,-18,59,44,-48,0,-12,-69,-27,-26,29,26,4,-6,8,60,-47,72,35,-1,22,-38,1,11,-9,-16,28,72,-34,45,-39,54,-57,28,8,1,-3,14,38,48,0,64,-42,51,-38,53,8,-9,17,28,19,70,12,108,-34,54,-48,50,-2,-16,17,39,4,72,-12,108,-44,81,-54,48,-10,14,7,30,-7,72,-44,127,-41,67,-21,15,-21,10,-2,-33,21,61,-52,25,-43,17,-84,32,-21,-47,-5,-3,68,96,-7,7,-64,48,-59,114,-25,-47,5,29,54,51,72,-15,-61,38,-80,127,12,22,4,41,-3,-5,65,-27,-42,59,-17,97,3,72,-2,29,-65,49,-40,42,-4,44,22,43,-23,61,19,35,-22,61,44,49,21,127,-31,28,0,15,-21,13,-3,43,15,1,-23,82,18,-12,18,-25,1,71,21,29,29,-14,-4,-8,34,-31,36,-20,6,31,-23,26,-83,-14,-36,-85,67,-6,27,-3,7,63,-33,87,-102,-6,-23,-49,0,0,15,68,5,43,35,22,-55,25,-52,32,-13,36,-11,36,8,-24,51,10,-89,10,15,127,-78,50,-15,-12,25,-57,37,27,-111,-18,68,124,-125,63,-5,-29,40,-26,11,74,-61,-25,101,62,-125,25,7,-16,33,52,4,52,-83,20,99,-29,-95,1,16,16,68,59,58,30,-27,66,-16,-23,-87,-6,-37,8,45,67,62,61,58,127,17,84,-65,-15,16,5,31,52,82,40,29,22,-43,41,-81,-64,13,12,6,2,-7,40,8,-11,-4,-9,-22,14,-12,27,-52,6,-40,90,-21,43,-5,17,-34,4,19,-9,32,0,84,47,54,69,-91,65,-47,-21,24,-7,29,4,82,42,51,27,-59,51,-59,-14,25,-23,45,7,88,35,71,-4,-83,33,-69,2,26,-17,61,9,97,42,94,-31,-56,10,-44,13,22,-6,51,-11,127,52,71,-32,-40,-4,-43,-2,14,-7,-39,-3,-28,-2,-12,43,-26,84,18,21,1,1,-15,-15,-26,6,-20,10,-43,118,3,-2,6,10,0,-19,-27,37,-33,-12,-38,127,-7,-24,14,4,3,0,-30,56,-20,-21,-23,84,-9,-36,22,9,8,38,-26,43,-16,-24,-9,22,-27,-49,-32,-69,-39,39,-37,93,95,72,-10,106,-30,38,-13,-27,-47,106,-15,110,46,109,-12,62,-45,4,-8,0,-33,127,-21,115,39,68,-32,5,-5,-25,-24,29,-17,122,50,98,40,89,-7,47,16,-24,-35,54,24,126,109,108,18,78,-2,58,67,13,0,-10,3,58,-43,51,-10,68,-56,-21,23,127,20,18,35,35,-63,16,19,48,-42,-25,-8,116,5,39,46,39,-64,38,41,24,-4,-47,-10,107,-4,42,29,87,-54,58,28,7,-51,-7,-40,66,-9,36,14,101,-37,40,35,33,-31,6,-45,55,-70,24,26,1,-61,45,-28,70,9,84,83,9,-11,6,0,-2,-12,75,27,-7,-95,23,-85,-59,-7,15,-61,-12,52,80,43,1,-117,9,-101,-13,-5,28,-76,-2,102,127,30,74,-106,-12,-63,83,19,46,-44,32,83,126,70,105,-106,43,-49,112,0,-39,6,67,6,74,-8,4,16,-13,29,27,-3,-5,14,58,-25,28,7,39,-12,-56,73,36,0,38,49,-2,-10,13,10,84,-82,-19,110,10,20,74,53,-42,-3,-38,-5,77,-127,15,39,56,-2,42,75,-5,82,-28,19,9,-120,42,-42,81,2,-50,-65,-23,-89,79,-59,-12,-15,55,41,20,29,6,64,-27,-56,56,9,-18,-46,112,7,80,14,42,115,5,-28,37,58,-6,-92,127,-30,52,-13,53,96,8,8,11,94,-20,-86,122,63,64,-24,35,32,48,33,25,124,49,-105,74,47,93,21,-20,-39,43,-84,9,-35,6,-9,17,42,32,19,-45,0,17,-38,-19,-27,18,-34,-1,32,27,-24,-11,26,19,9,-19,28,22,-15,8,32,41,-79,39,127,-25,72,-37,86,10,5,24,66,71,-67,53,105,-56,97,-34,92,39,11,-12,67,19,16,-8,-40,70,6,45,-58,108,-62,92,12,84,12,-1,-11,35,-35,37,-75,108,-40,127,-13,17,-28,14,27,-37,-9,43,-34,16,-25,27,29,-5,-24,33,37,-50,12,37,-15,-23,51,-6,-6,-19,-19,41,53,4,42,44,32,-59,9,-10,-45,-63,-10,-13,39,9,9,105,3,45,8,115,-68,-30,-6,-42,4,9,59,84,1,11,-29,26,-85,72,-3,-41,8,12,71,78,41,-2,-56,-3,-110,101,1,-26,13,30,38,80,50,6,-78,-47,-62,63,-3,9,-13,48,1,127,16,26,-66,-22,5,36,-81,-76,69,79,2,127,-13,-21,38,-7,37,-56,-9,20,-51,36,12,74,-62,3,-29,82,-8,-43,11,69,-41,-3,46,61,-59,-6,-80,23,-46,57,18,37,13,62,57,5,-38,-33,-70,-12,-26,105,18,-16,50,92,-10,32,19,-21,-15,63,-48,92,35,61,105,72,66,62,76,40,95,21,-102,-62,23,67,107,48,47,45,67,38,77,15,-122,-80,15,29,84,45,72,18,78,54,42,-17,-49,-88,40,12,91,65,48,30,58,26,46,-70,-38,-113,48,15,88,55,49,70,23,50,72,-74,-72,-127,-62,-14,-46,36,-43,39,-106,-18,-38,50,-25,56,-26,1,25,23,-2,65,-64,29,-7,44,-53,19,26,12,69,6,30,51,-36,55,-43,76,-75,-4,18,4,61,21,19,76,23,127,-72,49,-105,47,-23,23,18,30,23,78,-2,103,-64,42,-76,35,-9,49,-30,-29,24,94,-14,69,-22,127,-7,75,12,14,-29,-42,8,107,-22,19,11,40,-43,30,-4,9,-17,6,15,110,13,-18,-9,-60,-81,46,-13,-7,-15,48,9,97,56,-6,-51,-7,-94,58,-20,-12,-3,48,26,64,48,34,-105,36,-24,34,17,-13,-31,48,-23,-1,-87,35,-8,81,102,51,20,2,-2,74,44,-5,-41,59,-36,63,89,57,15,37,27,64,94,-38,-73,98,-55,50,111,16,16,51,24,30,94,-57,-55,127,-77,44,101,43,23,52,43,-5,126,-36,-62,113,-80,89,28,91,4,28,78,9,25,30,-30,3,-69,0,-45,-46,8,30,51,39,6,40,-19,0,0,-69,8,-22,-16,24,35,100,80,55,62,-17,51,-101,9,-59,-59,18,28,127,112,62,81,-28,42,-101,-30,-25,-11,33,46,52,85,60,60,-42,-30,-80,-38,-25,27,-26,-22,65,-3,29,31,27,-80,127,-62,33,6,-32,-2,38,-10,65,-11,-39,-91,116,-48,30,-6,-10,-7,-1,-24,84,3,-43,-58,57,-15,33,-12,14,12,24,-4,79,43,-4,12,-21,-25,32,-7,53,-4,38,-4,23,60,24,14,-32,-35,58,-119,53,-30,43,5,88,28,25,-26,48,-74,33,-60,8,8,7,-7,69,2,-55,-35,10,-77,-5,-16,-21,67,7,-52,7,4,-94,-26,22,-74,25,10,-3,69,22,-1,12,34,-127,-45,12,-55,39,7,35,30,6,13,-5,83,-120,-26,-76,-97,57,-107,-2,-17,117,-9,47,-28,42,-114,91,-121,56,-33,5,12,94,-39,31,-35,7,-90,90,-111,75,21,16,53,23,-51,31,-99,35,-68,105,-115,67,-14,44,64,38,-21,58,-127,79,-111,38,-104,55,-83,53,60,84,0,86,-99,34,-88,-21,-42,43,-4,-40,23,-38,60,127,12,-1,-69,76,-6,20,0,-17,20,-28,9,61,5,0,-52,28,43,44,16,1,30,1,-12,39,-28,-7,-31,-5,34,2,12,-4,0,33,17,78,-7,32,-30,-24,15,0,-44,31,-19,55,5,106,-22,58,-28,17,33,30,-83,-10,-4,5,-22,43,-12,40,-127,105,8,-29,-37,-6,30,10,-36,20,-7,-4,-51,21,-33,-11,9,1,69,17,14,-16,-20,-7,90,-66,7,-7,48,6,-21,34,32,-23,-7,-19,92,-107,12,34,39,-29,-76,28,63,-5,-11,-34,-5,-81,-14,71,-28,17,-15,117,-38,80,-94,90,53,-7,15,127,-31,23,-10,64,-19,90,-75,27,61,-40,-22,86,5,-22,-7,11,15,86,20,-51,32,-31,-29,89,18,-32,10,-3,31,38,51,-40,5,-42,10,48,42,30,81,-21,79,-44,82,-22,-37,-68,13,8,20,38,29,59,24,97,68,92,-20,53,-92,39,16,18,11,36,14,96,22,38,-25,11,-127,22,10,-2,27,17,14,81,20,38,2,-16,-104,17,10,-4,33,9,-2,55,26,24,-30,-31,-99,-5,27,4,29,-8,35,25,9,41,-64,18,-109,-33,-84,-15,72,3,5,-29,-120,80,-28,62,-57,-22,-94,-5,84,61,35,-10,-34,64,-61,127,-84,13,-24,-7,34,95,75,32,-29,4,-27,122,-66,1,25,-14,9,14,79,66,-50,23,-31,70,-61,-34,7,-14,21,31,35,62,-32,26,-25,27,-57,-42,-38,-40,47,40,46,104,61,52,-39,39,4,127,-21,19,23,26,27,36,45,-3,-32,-26,-74,31,-21,13,6,12,46,63,91,5,-28,-44,-99,12,-25,12,17,44,55,74,82,11,-28,-24,-106,18,-41,-41,-2,57,23,121,107,78,-21,54,-23,91,-10,10,5,47,3,63,-37,39,-61,-15,-29,44,1,14,-17,28,-4,86,-43,11,-36,22,-37,-1,-29,16,-38,-19,-13,108,-66,19,-43,57,-41,8,-44,-7,-34,-34,4,127,-31,65,-26,79,-35,-15,-39,-19,-39,-12,10,115,-34,89,-29,75,21,4,-41,61,-39,-46,57,66,-33,36,-94,-23,-46,-54,-19,60,-72,-35,108,53,-12,2,-98,-6,38,-39,-2,43,9,4,63,68,-9,34,-23,-14,35,13,12,20,37,82,-18,59,57,39,-9,54,-20,54,15,-4,65,46,-53,16,127,54,-77,117,-68,59,6,34,24,37,10,111,-13,29,-21,4,-18,50,17,2,10,23,27,75,-41,48,-17,-29,3,52,24,-9,6,19,11,62,-44,82,0,-10,23,83,16,-16,22,45,5,86,0,103,28,46,63,104,5,-33,37,115,17,110,-6,81,15,82,26,127,13,32,37,44,22,71,58,69,21,7,-84,42,22,23,41,34,23,67,31,33,30,-14,-127,20,19,9,49,19,29,64,24,31,20,-17,-114,18,13,14,50,16,12,33,18,35,-16,-40,-97,-1,26,12,40,-4,24,34,13,40,-44,-10,-92,-21,-79,-6,-10,-37,45,-16,-17,-49,2,-45,-114,70,-76,21,-33,-43,49,-22,-60,-28,-29,-28,-122,57,-17,37,-15,-28,40,-11,-110,-34,-97,-16,-127,34,3,31,0,-23,66,-9,-85,-40,-76,4,-104,42,22,-9,-12,-24,68,-13,-22,-72,-48,-17,-58,39,-18,23,-46,36,73,94,3,47,-12,43,3,37,-14,-8,-71,27,41,108,-30,15,-74,66,9,20,-26,-3,-77,41,28,127,-23,21,-93,52,2,-11,-26,3,-53,49,10,103,-25,30,-95,22,-4,14,-4,1,-26,34,2,78,-22,53,-89,-25,5,22,-31,27,9,-10,-32,24,-71,-21,-17,51,3,2,-29,13,38,-5,-28,54,-65,-41,0,77,-6,8,8,6,23,25,8,50,-17,26,-11,35,-43,22,21,6,-11,51,49,32,17,113,-12,24,-104,-11,2,-11,-8,61,62,35,64,127,-76,-19,-51,17,7,13,27,101,62,82,-69,-88,-65,17,23,38,11,20,60,111,55,69,-69,-70,-47,45,13,21,22,9,55,127,39,75,-74,-44,-74,62,-14,61,19,29,39,97,19,65,-90,-37,-99,72,-5,79,4,33,9,78,9,67,-20,-30,-61,99,-3,37,23,48,105,55,32,67,44,-22,46,-1,-127,-79,10,53,77,43,37,34,46,5,34,-12,-105,-89,24,19,75,45,36,10,22,5,2,-48,-67,-68,48,-4,96,49,29,24,0,22,48,-64,-22,-85,59,2,87,51,60,64,-20,64,66,-64,-21,-102,-40,-40,-23,6,0,98,62,86,-30,97,-39,-3,-14,-17,1,12,-34,127,51,80,0,36,-16,-8,13,17,-10,41,-3,89,27,8,-5,-23,-16,-53,-10,33,-15,65,38,39,5,13,9,-29,-6,-66,-44,55,-5,84,75,78,33,17,18,-5,-12,-54,-9,40,-41,3,-9,32,70,17,101,107,-57,-7,-4,-3,-25,23,2,41,36,-21,63,39,-12,-35,-4,-8,-14,65,44,60,3,15,11,-22,1,-59,29,5,8,51,-41,96,-81,7,-36,-68,0,-32,24,5,44,74,-42,120,-127,-25,-85,-29,19,10,7,-12,-2,83,-13,-9,9,-64,15,-14,47,18,10,24,2,32,-17,26,21,-84,-6,-13,38,4,7,30,8,11,0,42,4,-63,-1,3,46,5,3,27,8,0,-10,72,-32,-62,10,0,39,62,16,34,25,-31,-28,29,-39,-62,-34,-4,19,127,6,20,-15,48,-55,-10,-33,-24,-76,94,18,42,-1,20,17,35,-42,78,-45,9,-33,58,16,18,1,14,56,8,-26,125,-77,13,-15,57,-43,-39,1,-6,39,-13,26,127,1,38,-20,50,-88,30,12,-17,-23,0,50,95,37,64,11,118,-81,-13,-36,-63,-7,20,79,-3,-127,-11,109,-97,81,-123,3,-66,45,30,42,-1,-125,-2,106,-29,81,-90,-8,-85,104,47,33,-6,-116,21,110,-15,53,-61,-22,-57,97,38,24,-10,-33,41,52,10,66,-48,-39,-34,46,6,16,28,0,39,51,67,100,-35,-16,8,20,8,-18,127,-9,76,-58,95,-7,-48,-7,3,45,54,-5,90,4,45,-13,23,8,-51,-28,-4,44,68,-25,72,11,-24,-14,-39,5,-76,-35,8,47,54,-38,122,102,-5,-11,-63,-13,-84,-41,32,60,68,15,103,79,11,-31,46,-11,-22,-3,52,29,33,-20,88,106,6,-67,15,-29,53,-6,49,-41,-19,40,97,67,-17,-100,24,-26,15,-26,52,-48,-28,104,127,34,45,-52,-5,-16,14,-9,46,-40,16,47,107,47,58,-78,3,-35,32,-6,32,47,33,-15,92,73,90,-103,43,-87,-9,25,-76,-1,-41,-18,-7,112,-42,-101,-12,20,87,6,-49,-40,-21,13,7,62,19,-62,-54,-29,23,-4,40,-12,-28,-21,47,-45,107,44,-18,11,6,12,76,74,25,-4,3,-97,75,36,17,14,14,-16,25,93,107,5,19,-127,26,5,101,8,104,-17,24,-22,41,46,112,32,43,21,50,-56,127,-23,47,17,35,6,79,70,12,-41,44,-81,76,-28,20,-19,17,23,96,45,26,-47,39,-56,65,-32,-7,-38,2,19,104,13,51,-41,7,-43,70,-11,-20,-56,-14,46,114,24,72,-27,63,16,99,-13,-3,32,20,-36,101,-7,65,70,51,127,-1,-29,7,90,6,-57,35,-3,-8,-17,25,45,-24,-25,2,34,23,-4,24,-67,8,-85,-61,-11,-50,4,8,-38,26,54,3,-16,21,-43,-110,2,-77,13,0,-97,73,111,3,30,58,-55,-102,-32,-26,-49,27,22,-15,-22,5,37,-33,-21,-9,-44,127,-32,28,24,-4,-24,-5,72,18,7,7,-21,107,-32,34,12,-5,-16,11,32,24,-9,-8,-33,47,-14,17,13,-2,-23,10,-38,9,-28,-6,-25,37,11,25,12,12,-26,31,-89,4,-16,1,-4,29,-14,6,5,-1,-2,30,111,47,92,-15,-72,55,-23,-4,-33,30,-10,30,7,37,61,-11,-41,67,2,15,-13,28,-34,40,-37,16,-83,27,-41,66,42,28,64,14,-26,26,-110,3,-127,75,-54,60,36,25,74,4,-13,23,-87,-26,-114,48,5,70,86,100,-79,13,-72,43,54,-65,-121,-18,91,127,34,38,-107,29,-11,19,54,-96,0,35,-15,7,-22,9,-86,55,26,22,41,-57,26,52,-41,45,-44,-1,-43,43,39,45,64,-6,-12,110,-78,80,-56,-11,-13,44,53,46,-5,37,10,118,-118,124,-43,-12,-6,18,-4,76,-58,21,42,-10,17,17,49,40,-37,18,52,-15,-98,59,-42,22,-2,15,44,17,-14,33,21,49,-49,3,-57,-7,-23,82,-75,-18,84,60,-15,127,20,-15,9,-33,52,-31,-96,-51,44,35,33,77,27,-1,-16,-13,24,-39,-23,32,54,7,-28,88,38,-33,11,32,-25,52,-5,2,7,18,2,78,27,-80,2,15,-63,22,0,-10,2,-15,41,51,24,-67,23,59,-33,26,3,17,31,9,64,49,6,-18,56,78,25,15,-5,-11,59,77,43,127,8,-17,39,62,23,20,-51,22,42,25,-33,88,-42,22,-23,65,44,127,-14,51,47,31,-43,38,-48,56,-7,32,6,27,28,33,-27,40,61,-1,-120,114,-60,-34,-44,-12,45,14,-55,68,93,-11,-104,85,-17,-17,-69,-7,6,20,-72,122,86,5,1,86,-49,21,-107,4,-29,25,51,72,100,-40,-42,81,-40,127,27,0,-42,35,65,127,42,-32,-2,0,-50,26,-66,24,-83,16,6,117,-27,29,-38,19,-23,36,-8,41,-10,-70,-57,53,-75,44,-31,48,-16,14,-49,66,-3,-69,-86,19,-27,63,-12,-27,-51,83,-35,33,-4,23,-14,25,127,125,-44,69,32,-18,17,3,13,40,-32,26,83,79,-37,49,42,-23,-3,-65,4,36,36,5,11,56,-13,35,62,-39,-27,-37,-23,21,86,11,-39,45,59,-18,24,-13,-32,-47,-44,4,69,15,-52,33,81,64,7,9,-79,-75,10,39,-50,-29,8,50,43,20,-8,-34,35,127,5,43,-25,2,8,41,41,30,19,-13,9,30,2,17,8,34,37,36,42,57,31,21,30,-16,5,6,-14,7,48,67,84,34,6,47,33,35,-14,-29,-42,-37,22,46,89,-2,9,47,28,115,12,21,36,-8,127,16,73,-11,-55,-26,-13,-52,16,22,36,-11,47,0,67,-2,-32,-13,-27,30,9,10,-10,-8,7,51,23,66,-16,20,3,87,-14,6,-41,47,-34,71,-50,72,21,90,41,75,5,-15,-17,0,-36,120,-87,43,5,100,-3,38,8,53,39,19,52,34,5,-16,44,46,8,127,-30,36,53,26,3,31,-8,31,29,-2,-48,84,-22,0,22,8,10,51,-40,65,-3,-5,-50,42,-13,-54,1,24,-9,39,-40,41,-11,3,-43,47,-13,-106,-13,17,23,59,6,48,28,39,-35,22,28,-2,-12,-37,10,62,20,-37,25,-83,15,102,17,30,-10,-7,-8,51,-27,-3,65,-76,-46,38,4,35,10,34,-15,25,-43,35,50,-13,-52,-6,-8,27,2,46,24,55,-23,59,9,47,-16,16,-21,-4,-33,8,-9,21,-10,56,-28,98,46,127,-16,-54,-17,-29,54,18,28,-14,-96,6,71,-36,0,2,-31,-16,66,30,17,-1,-27,17,35,-51,1,11,-4,0,79,38,-2,3,-5,5,-23,-16,-10,30,11,7,64,77,-9,17,-6,33,-33,16,-19,38,6,55,-24,127,-21,28,1,97,-28,71,-49,37,37,15,-33,122,7,55,5,8,8,49,-2,8,27,-10,-15,75,-15,69,-19,-4,4,19,7,-19,24,-7,-39,48,-5,64,-33,21,-20,4,-7,-54,16,9,-69,79,-10,25,-29,-1,-60,23,-8,-46,46,14,-42,127,-1,17,-40,38,-83,-1,74,-82,-18,127,-81,23,30,-93,-20,0,-30,64,20,-7,-33,73,-49,67,47,-120,44,42,-64,34,7,3,45,45,-17,67,56,-88,26,42,-24,40,-6,21,95,47,39,56,-11,-42,-68,20,77,44,5,55,123,47,36,41,-67,-26,-85,-12,-15,124,-15,9,-90,-14,-68,55,77,21,67,-15,-58,52,-11,42,-46,-24,-34,2,92,22,28,-12,-60,-5,4,45,28,8,42,1,3,51,-2,40,-66,-6,-16,-29,82,37,74,100,-30,55,-9,76,12,99,-46,-40,-44,95,48,127,-58,-6,-43,14,-7,83,-50,104,19,39,-56,33,41,89,-70,57,-30,-61,-40,71,21,85,-33,1,18,94,-88,22,-1,-5,-37,7,63,96,-24,-20,18,29,-116,34,-33,-6,-20,-40,82,56,50,34,77,-19,-50,81,-48,63,3,-63,47,96,127,96,96,-18,14,44,-26,77,-1,25,-36,55,-77,31,59,85,127,22,-17,-61,17,17,-44,42,-51,42,28,120,36,-25,-36,-51,19,19,25,33,-22,67,-14,17,-1,-58,-90,-19,16,-17,37,22,14,4,-35,8,-17,-47,-44,43,-4,-43,45,25,75,59,-58,-13,-28,-40,19,107,-1,30,-40,50,-18,127,-17,81,52,38,3,104,-9,35,-31,22,-15,127,-49,35,66,43,-7,77,-11,9,-2,-23,22,99,13,-46,41,43,-6,72,6,-4,36,1,36,51,54,-49,-6,12,9,46,28,15,71,9,88,4,53,-65,-28,0,14,16,-11,32,67,112,-15,87,-27,76,8,65,-18,15,-18,27,41,76,10,20,-13,127,28,72,36,-22,-18,0,19,47,14,-21,-35,82,22,-9,-23,-61,6,10,-4,30,26,-3,-59,24,-64,-29,-73,-73,29,29,-38,73,23,52,-18,38,-84,-47,-59,-85,-5,4,24,-4,-48,127,-25,2,-23,53,-49,85,3,-1,-7,-3,-8,93,-23,-50,7,46,-50,57,-12,13,-10,2,42,56,25,-34,33,59,9,71,-4,6,29,33,58,45,39,-42,33,61,-6,11,7,-13,54,75,45,60,32,-22,-42,36,-52,-38,30,-35,-13,62,73,94,13,-14,-45,14,23,87,21,-16,-28,24,28,53,46,17,-55,-32,-23,53,-2,-4,-10,20,59,61,49,58,-83,-55,-62,32,-25,6,-12,62,40,53,33,105,-84,-66,-110,46,-8,52,0,86,15,74,-36,127,-77,-37,-57,44,-16,48,30,-15,-18,127,25,33,-17,41,-27,14,9,-18,-33,11,-13,63,20,-39,-37,12,-46,12,4,-22,-31,-14,9,-7,-35,-23,-25,27,16,-3,1,-5,-24,4,39,-9,27,6,1,61,48,-12,-16,-8,-3,69,11,52,19,52,-5,67,31,-68,9,30,13,12,-20,28,32,50,26,-17,18,127,8,33,17,5,-22,12,24,58,17,-16,-1,126,6,27,10,12,-5,-7,20,53,-13,-19,-3,108,10,20,2,0,-12,-14,36,76,-10,-32,5,96,12,10,-24,-12,-13,-14,40,80,-17,-47,-2,99,-21,-35,57,48,22,1,59,-30,49,-70,53,-63,-56,-89,-4,58,28,26,88,-47,-16,-81,30,-56,-5,-14,-38,29,0,29,22,-40,-75,-29,-14,21,9,63,-41,-20,0,86,-77,32,-47,55,16,72,3,74,3,35,51,73,-65,74,-25,127,-9,47,-9,66,82,126,36,127,-38,79,-36,33,-56,-46,-21,47,50,63,5,32,-33,83,-40,7,-71,-38,-24,11,49,42,-3,-41,-53,87,-26,-45,-117,-23,18,-3,14,10,20,-11,-112,74,-41,-105,-88,-34,71,-5,28,16,7,62,-100,124,21,-124,-121,-41,-32,-47,82,72,38,23,-23,16,30,-85,100,-69,-7,-50,89,73,-4,-16,-14,10,4,-31,117,-25,-1,-47,127,51,-38,-16,18,1,-11,-31,102,-19,-27,-21,114,64,-26,-28,51,21,-40,5,113,24,-41,22,52,-21,-25,-27,79,40,-26,19,106,6,-50,49,69,100,55,-4,-6,-16,-127,122,-60,74,-10,14,32,54,25,2,-45,-43,-103,119,-67,61,8,-21,21,3,-45,22,-35,-31,-54,54,-94,52,-13,3,20,55,-3,19,-73,-17,-76,39,-89,17,-50,-11,2,87,59,48,-56,21,-57,4,-25,51,-10,26,27,29,-2,99,-31,53,30,50,39,69,5,52,18,43,25,19,22,69,-4,15,15,31,10,20,18,44,18,14,43,40,-17,-24,-73,25,17,-16,1,22,-19,35,18,-46,-53,-4,-127,-15,1,-60,-55,34,6,26,31,-12,-58,42,-102,-25,13,41,-21,27,-8,113,-21,65,45,63,57,-29,14,-5,-5,71,28,87,21,56,71,-4,80,-12,19,4,-8,103,33,117,75,49,32,-36,92,-44,32,29,0,93,14,115,14,13,0,-59,102,-38,41,41,18,127,-19,83,-62,-63,-42,-59,118,4,20,-7,-1,84,12,26,-12,127,-21,80,23,88,17,13,-28,17,-9,5,-59,85,1,48,-22,35,-8,34,-10,-46,16,75,-20,-3,-2,16,8,-6,-27,21,14,-46,8,101,-19,-37,58,17,-40,3,-32,7,19,21,-5,49,69,-30,-34,10,-82,-38,-16,36,49,0,47,88,-52,75,46,27,-14,-21,28,18,-2,-5,23,72,-46,69,43,17,-7,-71,6,32,15,-27,8,101,-41,74,67,-3,-4,-63,-22,40,37,-7,-8,96,-3,16,113,19,5,-53,-41,35,27,-6,-8,56,22,58,127,20,-35,-82,-15,-24,26,25,-5,38,53,101,42,104,60,35,-17,-27,-15,-9,-13,17,70,81,57,127,48,-2,0,-8,-15,-9,6,-11,50,45,21,101,44,-22,6,11,20,-14,18,39,51,-22,-9,68,14,-30,-5,19,42,30,27,87,40,-52,-46,-70,-27,-60,-22,43,24,1,-47,13,2,127,-96,-83,47,10,-3,28,20,-9,-47,5,-8,67,-69,-59,54,16,-1,13,19,15,-49,-15,17,9,-50,-12,20,-3,-30,1,46,55,3,-17,64,3,-6,77,23,75,-51,-46,77,82,27,4,69,-12,23,42,-19,113,-26,11,-77,50,44,83,3,81,55,-50,-37,-30,12,-11,-40,70,-3,48,-113,44,-79,-47,23,54,29,17,86,13,-29,42,-42,51,-32,37,0,109,14,14,94,-9,-79,-31,87,-18,15,61,-36,116,-37,30,31,48,-25,6,127,55,37,-81,16,90,-12,-31,77,46,-34,127,84,-7,-99,54,-44,-2,-23,19,37,-8,-23,79,-38,6,-95,83,-39,-34,-33,45,51,-17,-37,26,-111,50,-33,15,52,-28,-25,47,80,12,-49,-2,-105,54,9,3,88,-82,25,31,69,70,-46,16,-71,91,-12,-62,-20,-112,-36,18,30,-13,4,104,21,11,-47,3,-97,114,-8,1,-40,-30,40,127,-64,-54,-3,3,-118,107,-13,13,-16,-16,81,125,-7,-33,54,30,-32,96,-4,15,36,8,84,114,25,-43,69,79,-16,48,-4,-6,62,52,57,124,9,-35,-21,83,-49,20,-23,10,-45,33,8,123,-20,66,-40,-53,-59,-56,3,29,-63,-8,53,126,-31,30,-100,-31,-59,-68,15,49,-24,8,57,90,13,17,-75,-51,-47,-10,16,21,83,24,42,91,37,13,-24,-56,5,49,-4,4,127,23,34,116,49,50,-11,-7,-53,36,-31,23,9,64,-43,56,-69,23,-127,50,-36,32,-25,29,-12,96,-60,38,-96,22,-113,20,-95,-20,-27,39,-4,84,-16,40,-92,18,-35,-14,-91,-16,3,43,33,54,-18,14,-33,-20,25,-19,-56,20,10,31,54,72,-26,-14,49,-34,-25,-35,-36,8,4,34,-16,-7,7,69,-25,127,-5,47,63,45,-2,13,12,18,-28,63,-4,43,-26,42,15,5,-17,-24,59,16,-33,36,22,4,-70,33,10,-11,-4,-10,19,9,21,33,19,-42,-75,-43,-30,-35,1,21,-29,-9,105,23,52,-33,-56,-37,1,-23,-12,-4,1,35,19,78,0,59,31,79,4,-20,-1,1,-28,8,-13,65,-33,29,11,80,2,-4,-20,19,-35,-26,-21,85,-49,29,-29,60,-33,27,-27,2,-14,-24,-6,104,-39,78,-77,34,-14,22,3,-41,12,15,-12,82,-32,127,-59,40,3,54,-24,-4,-29,18,25,29,-84,9,-35,73,-39,42,-8,-4,15,22,39,41,-32,44,-37,92,-29,29,5,-10,38,5,28,52,-1,79,-50,69,-61,4,6,-16,47,12,6,78,-5,127,-64,58,-63,2,-14,16,59,-7,-22,63,-33,106,-50,32,-42,-15,18,6,20,12,96,58,47,-19,-35,57,14,24,27,-11,13,7,85,71,50,-54,2,50,11,27,22,4,35,-4,90,79,63,-61,9,58,27,44,29,2,37,3,92,96,62,-62,11,54,22,45,17,3,22,12,127,81,32,-42,7,32,3,5,-7,-28,-36,37,-36,65,11,-56,-86,12,-42,112,-13,12,18,33,-22,51,33,-54,-26,9,-63,33,-19,19,12,45,30,67,44,11,23,14,-86,14,-9,3,9,5,27,90,90,44,32,10,-64,65,6,-29,-33,-48,16,35,127,54,17,-10,-50,119,-59,-56,43,65,34,86,-111,-10,29,-16,91,12,-75,-45,43,72,23,45,-127,-8,33,63,48,-9,9,4,12,45,21,64,-83,-12,-20,76,-43,31,19,6,10,54,42,83,-41,20,-48,63,-62,56,10,-17,10,23,48,35,17,64,-49,102,-80,53,-36,50,-33,-2,-29,104,10,100,-23,-24,80,127,5,19,-40,2,8,107,13,92,-18,-3,113,124,20,24,-39,7,-5,68,46,75,-19,28,71,73,20,28,-23,-6,-31,68,69,40,17,-2,57,70,-6,56,-24,-10,-7,108,115,100,44,-25,78,112,18,-30,-51,123,99,55,-71,4,43,28,78,-67,32,-31,14,92,24,5,-20,54,-51,69,105,-78,16,-9,34,80,0,24,19,81,-57,7,79,-47,2,13,-3,100,-42,12,34,113,-39,-1,78,-60,-15,94,-31,17,-4,49,65,127,43,52,81,-10,-10,-15,53,7,-6,73,14,2,4,-39,22,75,-5,-56,22,41,-47,117,30,46,3,-40,26,70,1,-68,-16,72,-52,127,17,27,6,17,-17,49,4,-45,-9,64,-2,121,-6,21,18,-17,-49,33,3,7,-5,1,37,59,40,30,-13,-37,-46,37,-44,-74,-79,37,20,109,43,28,75,-61,20,-89,-13,-27,-8,22,-27,69,-38,76,-11,-76,54,-21,36,38,112,-9,-44,66,-64,65,-65,88,83,3,29,78,97,-18,-49,11,-11,-37,-83,127,73,63,-20,78,72,39,14,-6,99,-77,-62,21,17,111,-50,-66,66,42,-16,21,23,27,-43,53,-105,11,-15,-40,13,2,8,12,43,20,-87,37,-124,10,6,-20,-11,13,67,6,-37,43,-106,-30,-114,63,50,0,-9,27,63,58,-30,10,-37,-43,-74,70,52,44,-3,14,83,72,7,19,53,-40,-75,127,-6,17,80,48,18,-8,-23,-18,-30,-59,-40,-32,-1,-6,32,38,41,36,-12,-11,-44,-33,-2,-5,-16,-19,9,-4,30,52,-24,-3,-82,-6,-8,20,-30,-8,7,-21,15,46,-68,0,-87,21,-53,3,-39,1,11,-12,36,0,-102,-10,-127,21,-52,36,42,40,26,53,-89,99,-87,19,6,-6,62,28,29,5,20,54,-34,73,-37,8,21,-37,56,-2,31,7,0,48,-3,65,3,-16,-9,-46,100,15,32,35,-4,72,-14,51,-23,-29,-21,-52,92,24,48,36,-3,72,-44,65,-69,-60,-29,-53,127,72,6,15,53,-3,-15,13,10,46,10,-16,60,64,-23,28,41,-33,15,81,-5,65,45,-20,-29,71,-6,5,37,-47,-11,127,-14,33,35,1,-63,75,22,-26,23,-42,-6,71,1,18,34,27,-93,47,21,-45,39,-22,14,2,11,19,34,84,-47,42,-77,25,46,0,30,127,-62,62,41,115,-9,-21,-56,49,16,-7,-17,13,-57,-29,38,10,-23,-86,-2,30,43,47,-54,16,-55,9,36,-49,-31,-30,24,2,35,52,28,32,1,6,-23,-89,-29,-24,36,-18,34,4,108,82,1,64,47,-100,-29,-7,4,21,-23,1,119,97,-14,86,-66,38,-68,-106,19,32,-41,-17,105,74,9,37,-92,44,-27,-126,36,41,-11,22,96,66,53,18,-127,23,-11,-51,50,7,68,43,97,97,105,-8,-28,-4,25,-3,29,10,90,1,105,98,117,-6,22,-26,-13,12,-1,36,9,28,110,127,-27,90,11,28,17,-21,23,35,-30,19,48,74,-36,77,21,23,10,-75,16,35,9,-1,10,87,-41,66,77,7,13,-77,-14,39,70,10,-38,71,28,15,87,20,3,-86,-38,36,87,4,-57,76,63,59,65,-1,-62,-93,-11,27,38,25,43,18,95,-70,-33,-52,-32,-14,-3,38,39,29,54,31,65,-73,-14,-29,-75,-13,8,30,-2,21,35,59,9,1,4,-4,-65,9,1,11,-29,27,2,56,-13,55,7,95,12,31,-10,-31,-6,61,-23,58,-24,59,-2,127,54,67,-21,60,52,18,-11,127,26,23,-64,50,-18,33,5,28,50,16,-37,71,44,25,-41,63,-55,54,-7,-19,50,27,-23,34,54,-29,-16,15,-44,87,-5,-35,70,7,6,24,62,-68,-72,16,-44,105,-13,-32,118,36,26,33,37,-39,-100,72,-59,89,-28,12,-13,-13,54,14,-66,35,-25,-12,-20,9,-34,-20,-32,-25,79,96,-56,-19,-62,4,-15,6,-55,-47,-48,54,40,127,-42,-49,-51,-1,-39,7,-16,-18,-39,116,22,75,44,-31,-73,-5,-33,49,-8,25,-21,53,-2,66,48,76,-36,-56,-56,49,-57,40,3,3,39,50,43,71,-50,32,-71,41,-40,52,-86,4,84,40,69,54,-127,44,-50,-27,-11,64,-53,37,76,55,68,48,-126,24,-17,-30,15,42,8,74,20,78,75,33,-49,26,8,16,45,11,77,47,-26,113,85,38,-46,53,-30,34,50,56,9,-9,20,60,40,42,7,57,-11,-8,30,35,11,-7,6,41,19,26,-37,38,24,-8,23,22,-5,-9,6,34,5,22,-59,24,77,-24,26,11,-8,-12,2,36,3,39,-104,0,82,-28,43,6,2,-17,-5,31,17,61,-127,45,52,-54,1,85,55,12,-46,47,-103,-84,-55,-39,12,18,20,41,127,43,-26,40,8,-13,-43,-52,59,27,-4,-20,55,15,-5,17,19,8,-54,-38,13,27,-53,-55,-23,-58,-1,52,-6,21,27,-48,-52,-1,-62,-1,-31,-63,40,27,37,61,-41,-48,-110,-23,-73,18,50,19,2,1,19,47,-45,119,43,43,-57,-1,39,8,-29,-12,10,67,-31,127,31,37,-57,-27,1,-4,-50,-26,46,101,15,85,5,31,-53,-20,-13,1,-35,-38,41,125,23,52,13,47,-22,-20,-12,3,-18,-24,-9,109,4,8,48,108,-38,-35,6,0,14,27,-79,126,21,74,15,3,-8,-5,42,-1,6,62,-34,127,7,47,-40,34,21,16,60,6,12,47,0,99,-17,82,-42,21,17,26,59,30,47,76,27,113,-13,59,-51,7,-17,47,25,32,35,107,36,77,-10,121,-34,1,-55,70,16,44,1,101,24,98,-53,51,-6,22,7,38,46,95,-4,27,-22,19,-111,-35,-80,37,-7,-20,54,53,-15,81,10,-14,-54,-19,-127,12,-4,-38,62,40,38,86,-26,-1,-50,40,-46,11,-33,-47,-14,100,82,97,-69,69,-14,1,48,-70,-63,26,54,19,10,50,-43,93,36,-16,81,21,-14,5,19,1,2,34,-17,12,-54,-4,7,-4,-8,-4,-15,1,9,54,4,15,-87,6,-39,17,-6,9,-20,21,39,66,21,23,-120,-21,-24,42,2,32,-13,13,80,94,9,56,-127,12,-17,43,29,1,41,-52,13,-6,-46,-47,-127,17,54,-61,-76,-57,-58,62,78,44,31,119,-12,-7,31,-49,-77,-66,-59,83,45,67,80,114,-16,-104,-5,-47,14,-29,55,53,37,81,17,22,39,-90,-79,-74,31,5,27,3,-44,121,22,-48,107,-55,-125,-70,-35,-1,-32,40,23,-2,23,52,-51,27,11,84,-7,22,-35,8,6,-33,38,39,-43,31,-12,47,-24,4,-16,55,37,10,32,63,-27,-6,-16,66,-39,-6,-17,68,49,3,-5,127,-23,-23,-41,8,-44,-23,-13,65,44,36,6,105,-48,-24,-31,28,-4,1,-48,-4,-30,91,24,91,-16,12,10,62,1,4,-46,-13,-10,47,-4,82,-17,44,0,33,0,17,-42,-7,12,56,-32,62,-37,52,-10,41,-1,22,-35,-5,40,35,-46,43,-20,48,-2,95,2,29,-29,1,46,47,-13,52,4,40,21,127,3,31,53,30,58,21,98,-12,-64,-1,-27,-15,16,16,27,7,38,15,68,-22,-23,3,-22,16,19,-2,-20,-4,16,28,11,19,16,5,-4,67,-16,9,-50,27,-7,32,-5,68,14,70,55,78,-43,1,19,65,-30,94,-42,84,48,127,70,91,57,75,-58,22,-21,12,40,2,-59,93,-27,104,35,41,-75,-24,-6,5,-17,-11,-24,101,-80,109,30,6,-89,-54,49,6,-31,-42,46,127,-105,87,19,9,-58,2,55,23,-24,6,80,112,-97,56,25,-3,-12,84,23,45,-66,65,60,72,-93,24,15,27,61,127,-21,33,-53,82,10,-75,120,-23,-36,33,45,114,-25,32,-104,35,-12,-69,47,-48,-67,13,38,46,-54,58,-95,-14,9,-63,104,8,-19,3,46,-2,-74,76,-33,-75,34,-88,80,29,82,11,27,-36,-57,57,37,-99,-34,-123,-2,52,14,-19,-33,-12,-96,-3,-127,115,-122,56,81,51,33,-12,58,25,-47,-22,-95,52,-78,28,106,11,26,14,62,-1,-4,-35,-60,19,26,65,88,-6,4,9,39,-1,1,-44,-17,-13,73,97,41,12,3,-14,73,16,0,-48,13,-53,92,58,-42,18,50,53,-127,45,-73,99,6,-7,-65,51,-38,52,31,48,-73,3,70,38,9,-4,-107,73,-36,18,-64,16,52,-17,101,69,-52,44,-29,72,-23,59,-48,-51,124,-10,94,86,-39,53,-52,-3,13,80,-7,-63,70,32,113,54,-95,-31,-30,51,5,90,-3,27,25,-16,-7,48,-43,-24,-30,81,14,8,-1,9,10,1,-6,69,-24,-2,10,68,-3,12,11,-11,-6,8,31,47,0,46,14,42,-46,-7,12,-18,-22,18,39,31,32,101,-1,41,-71,-16,-8,-7,-10,26,23,20,44,127,-26,-12,11,10,-4,12,68,16,-8,99,34,1,-37,65,64,127,-7,6,106,-16,1,70,35,76,12,7,27,104,-16,11,44,-11,-20,21,54,44,2,1,-33,37,-17,22,-51,5,-29,1,50,28,22,19,-28,-12,-2,23,-28,20,-34,44,-66,81,15,45,-21,-17,-23,-35,47,-51,-47,54,-39,-8,21,18,50,94,12,-4,102,-44,-30,43,67,18,-26,83,22,127,20,26,123,-21,-9,42,120,38,-68,100,-7,105,2,45,91,-15,-23,46,66,26,-89,90,4,84,19,28,1,-4,-60,33,43,49,-68,126,-2,77,6,6,18,79,-16,82,58,-64,-15,32,13,51,-25,15,1,47,14,31,34,22,2,-10,-1,37,-3,12,20,-22,38,-6,-33,25,5,-27,-52,42,-5,5,-18,-47,49,-33,-87,61,6,27,-96,51,-19,6,-23,-13,19,-18,-71,66,-27,43,-127,55,-26,3,-22,49,62,65,20,69,-28,57,1,82,1,17,-28,-15,29,66,-3,32,-95,37,-18,27,-7,29,-21,-54,-9,91,-53,50,-73,40,-42,0,-18,4,1,-49,-18,117,-42,40,8,59,-48,-11,-27,-21,-11,9,-41,127,-42,-8,-14,68,-13,-25,5,34,23,25,-16,33,-54,50,-25,-70,-75,72,25,30,42,56,-14,21,-24,31,-28,-71,-40,77,41,23,96,43,9,-6,-9,20,-19,-89,-33,112,34,-10,40,45,-26,-33,-21,17,24,-107,-51,121,-20,8,-21,46,-17,-36,-14,16,54,-127,-40,109,11,22,70,-3,-11,34,17,91,-27,26,-34,91,21,-20,45,0,-4,4,-32,127,-69,6,-52,113,30,-50,44,-1,-9,15,-19,62,-96,-14,-43,114,14,-22,48,11,-8,66,-42,-40,-114,19,33,96,9,5,47,32,37,101,-51,-27,-98,38,-17,78,-20,-26,-26,76,89,75,-2,-30,33,-66,-38,27,-1,-16,-8,63,60,39,22,-33,-13,-42,-39,22,-18,13,-8,25,14,67,-4,-13,-46,-39,-30,-2,-22,15,-15,29,-13,77,-60,29,-19,-22,-43,-13,-3,-24,-30,19,-37,127,-83,44,-23,-17,-23,-33,-30,23,-25,10,34,39,-39,127,-99,-27,6,-69,-44,56,-34,4,17,51,5,82,10,125,65,-92,-12,38,32,81,-47,14,-2,28,-15,58,40,-12,-15,-22,77,71,-57,16,33,22,-42,42,48,-56,30,-66,88,-8,19,74,-47,-73,-42,-89,-17,-75,-49,17,37,59,66,60,-17,-8,53,-20,21,39,-11,13,-6,31,18,12,74,43,59,-13,-40,-19,-7,24,-32,1,-44,34,102,82,109,-71,-33,-26,-22,8,-24,11,-56,57,58,47,127,-85,-41,-35,-26,-30,42,26,-46,79,-11,66,120,-37,-69,-36,-14,-36,44,21,-34,24,22,127,-16,49,42,61,-7,-14,56,0,-51,1,19,51,-47,43,12,-5,-8,5,20,-4,19,11,-4,-36,-45,17,-27,-25,-7,34,7,-13,68,25,11,-40,-11,-18,-54,-38,-5,47,-36,23,58,32,51,-11,-24,-32,-59,-11,19,8,-28,12,22,89,46,76,32,84,62,66,-12,14,26,34,32,54,54,62,30,92,43,54,-25,-2,13,24,46,49,22,37,-38,89,34,17,4,-21,2,7,35,32,-42,50,-67,120,27,19,41,-41,4,-26,-16,22,-6,64,-66,127,6,26,-63,-36,-70,-6,-20,56,29,100,80,21,4,-28,-8,-7,-110,5,-5,48,-54,22,31,60,0,46,24,9,9,-26,33,84,-66,15,-53,88,1,69,31,26,125,-21,18,10,-9,-1,-17,100,-47,97,0,52,127,34,30,35,-1,8,-6,69,13,95,-41,-56,22,45,2,107,42,48,-49,49,-9,127,-42,-6,0,11,7,87,62,29,-14,-18,-64,31,-17,-4,0,8,4,60,41,6,-49,-24,-112,3,-17,1,21,56,48,40,54,29,-56,11,-78,11,-23,-32,28,96,46,27,48,14,-59,-30,-14,111,1,-37,-7,56,-75,45,-33,56,-127,23,44,-17,-11,-21,-3,31,-46,20,-43,20,-66,0,15,8,-16,17,9,-26,-20,40,-65,22,21,-4,42,43,-8,36,34,-36,24,58,39,-2,66,59,-3,49,1,10,51,-3,35,59,57,-63,81,98,-46,-4,-20,-11,-5,2,29,71,-52,84,56,-58,-67,-1,7,2,-19,-13,16,80,-5,65,57,-72,-119,-39,-8,22,0,-25,28,86,40,28,82,-93,-100,-12,-26,20,13,-23,8,74,39,11,121,-83,-55,12,-27,-19,55,10,7,101,35,-5,127,-39,-26,10,17,49,98,82,-15,127,17,98,-33,2,68,11,34,-66,90,72,39,38,66,91,12,-39,43,33,16,-27,32,-6,-6,-19,50,15,46,-48,-30,56,-7,42,-43,-58,-40,-1,-29,-27,52,37,-63,108,-20,67,-46,20,-37,21,-116,21,-1,47,-59,127,28,22,108,66,-47,71,-39,23,-57,52,33,13,0,24,127,62,16,51,-31,18,-63,46,71,42,-16,16,45,40,30,12,31,4,-59,69,68,17,6,14,17,27,-32,27,41,-25,-89,37,89,4,21,26,0,56,-66,46,58,-10,-81,29,84,4,-56,25,47,79,-123,65,-47,105,87,-44,92,-25,-62,26,12,122,-93,59,-65,94,87,-87,46,-26,-42,9,4,104,-87,51,-47,102,111,-79,41,84,-20,-6,31,106,-52,104,-76,97,122,-57,23,49,-27,6,73,127,-31,105,-122,40,97,-63,8,34,-42,30,60,62,15,65,-45,2,-105,87,-72,84,3,-2,51,25,2,79,-39,-39,-116,40,-57,49,-1,-15,45,-15,-26,92,-19,-43,-127,3,-53,2,-29,-3,35,16,-23,80,-36,-41,-104,45,-22,21,-40,-4,37,30,-9,88,-44,-39,-103,25,9,76,-4,-2,5,117,11,65,-96,40,-43,14,3,-30,10,-5,-3,28,1,63,-123,15,-61,26,4,-60,-8,-1,1,-7,-25,45,-102,6,-57,-2,-25,-65,-17,-11,12,40,-5,83,-118,-14,-40,22,1,-94,-4,-24,8,120,24,89,-127,-1,-49,48,-31,-87,-58,-46,-19,11,-47,114,55,119,-5,59,-12,68,-26,0,-36,34,-41,84,-20,84,-10,37,-40,36,-15,-1,-40,53,-16,75,-62,53,-39,26,-12,15,-30,29,-35,87,16,56,-26,70,-8,46,11,-4,-40,26,2,127,17,82,15,-44,21,64,25,28,-26,68,-35,-20,47,55,-27,44,-58,-59,7,7,-11,-21,89,47,-41,38,-47,58,-8,18,-22,17,-27,-75,74,79,-57,60,-15,127,-53,78,18,47,8,9,-7,15,15,58,-50,59,-100,11,-66,-11,28,61,-14,-12,118,74,37,49,-68,-15,-51,-39,10,-6,-13,79,12,71,-41,8,42,69,75,-16,27,-11,-40,64,-32,51,-53,56,62,92,56,-94,27,1,-59,60,-17,28,-35,127,37,53,84,-82,14,4,-15,37,-22,21,-42,85,73,24,-7,-64,-33,-14,52,42,10,46,33,45,14,36,-30,-41,2,-27,32,4,17,63,6,15,-26,-39,30,42,7,-51,36,44,-39,111,-11,35,2,-21,46,54,10,-66,0,56,-55,127,9,50,-9,15,-9,49,12,-45,-9,47,11,117,-35,36,-6,-2,-47,30,16,7,-14,-15,25,71,36,43,-37,-2,-50,31,-21,-46,29,44,59,-13,-15,-58,-24,-9,38,65,-16,-34,53,53,47,25,-13,-56,-2,26,37,63,1,-8,25,42,58,40,-38,-58,-22,69,-26,41,6,57,-33,15,14,0,-37,-15,6,89,-26,26,1,67,-23,57,-47,11,9,5,-7,127,3,46,1,5,0,-3,39,100,-5,16,-3,68,-19,64,0,-19,-5,-6,64,91,24,5,-32,-9,-60,107,-4,-3,-21,-3,75,93,46,-8,-52,-51,-127,89,-18,-11,-22,25,47,73,63,44,-61,-54,-64,61,-7,2,-15,35,4,84,26,38,-41,-29,45,8,39,-26,-55,57,-13,115,17,-64,68,-40,113,27,35,22,-15,53,-2,86,46,-63,70,-72,72,-10,26,-1,-12,65,15,79,34,-56,56,-76,62,-48,33,7,34,62,28,92,-29,-75,14,-96,80,-34,18,-4,47,63,22,127,-32,-78,17,-113,68,44,-23,8,38,8,7,72,-28,33,59,116,-74,-37,23,-20,-1,-9,34,61,-71,36,-20,-7,-106,-11,11,-69,-8,-42,31,99,-30,20,-90,-18,-85,72,-19,-44,-4,-17,52,105,18,59,-127,-4,-13,76,-26,-20,-34,26,29,115,-19,81,-116,49,55,43,-11,21,32,30,79,91,10,16,-90,3,-88,-44,0,28,-12,12,30,80,20,3,-109,4,-89,-70,4,46,-15,17,37,76,23,7,-127,4,-70,-54,21,42,39,7,41,76,47,-4,-84,-14,-68,-58,28,31,68,-10,49,101,26,46,-48,-5,-74,-56,14,-43,19,-54,65,127,-15,29,50,0,21,41,-2,-44,18,-33,57,104,-68,60,20,-6,27,68,10,-34,30,-10,37,102,-67,74,4,-12,7,22,-16,-11,10,12,37,61,-36,47,1,2,-18,-27,-41,-5,-8,69,34,56,37,39,15,49,-2,-16,-9,6,64,17,-9,98,-8,70,6,102,-79,-28,3,-13,17,3,18,66,-64,64,-30,-5,-83,-19,6,-55,-25,-36,68,106,-3,50,-22,-68,-103,93,-12,-52,1,-12,78,87,59,57,-50,-25,-43,127,-15,-9,-17,43,18,90,44,95,-50,57,44,73,53,48,42,2,11,36,34,98,4,56,-6,4,29,25,39,4,10,30,13,39,-24,42,21,0,15,13,31,-7,17,26,0,25,-39,40,60,1,23,7,32,-11,7,19,2,8,-71,24,57,-9,49,1,26,-28,7,-8,1,38,-127,52,17,-43,23,61,40,67,-59,85,49,32,-9,96,-56,30,-5,38,6,34,-12,65,36,-10,10,70,-79,13,0,21,10,-21,14,44,-51,-36,4,48,-102,54,10,-8,15,-47,12,46,-77,23,-1,76,-119,52,24,8,18,-8,-30,31,-89,77,11,115,-127,52,-20,-40,73,47,21,25,-37,3,-77,-127,-20,-111,-9,-2,63,46,44,26,-53,15,-57,-88,-32,-72,-22,1,74,33,20,2,-96,34,-75,-36,-45,-87,-32,17,65,-8,16,19,-81,7,-90,4,-106,-77,-36,12,43,10,83,36,18,-18,-105,-19,-95,-44,16,-19,-12,14,68,45,63,-55,-75,-21,-70,55,5,4,13,31,63,50,66,-33,-46,-12,-72,47,-7,25,15,27,46,51,16,-13,-35,-18,-66,36,-9,16,0,3,19,58,-68,-1,-17,-9,-23,28,-20,-7,-15,8,6,127,-73,1,-10,-6,26,33,-73,19,28,101,-93,10,-49,105,-77,-112,-6,3,-38,3,-8,71,-115,-3,-69,70,-31,-96,-16,-46,-69,-6,-27,38,-114,-16,-53,56,-52,-89,-8,5,-99,-11,-18,7,-119,-16,-39,23,-83,-105,-15,72,-112,-23,7,2,-113,-28,-70,-46,-56,-127,-8,65,-14,-39,-59,36,10,40,66,39,40,-22,-8,-26,2,-29,2,7,-30,43,-46,57,-68,-27,38,18,27,23,75,-9,-51,68,-80,18,-90,84,44,9,20,58,70,16,-32,21,15,-22,-59,127,-8,23,-5,50,40,48,-9,11,69,-61,-41,18,44,40,-11,-47,94,-41,71,109,-29,-21,-40,-65,66,76,6,-51,84,-37,51,81,46,51,-33,-52,34,67,-3,-23,15,-7,3,112,85,27,-8,-67,27,36,-10,18,-42,18,-40,91,91,50,39,-70,-27,16,-11,34,-44,74,-42,127,59,65,28,-4,-29,15,-45,54,-117,-61,44,94,-5,76,-83,27,37,-13,-29,69,-104,-54,53,48,-70,43,-47,76,117,-47,-35,48,9,11,-1,53,-36,23,-27,23,35,-53,-8,17,43,71,-10,79,69,-6,-100,-16,-16,-66,25,-13,36,42,-22,68,90,-6,-127,-38,-51,-61,7,-85,-51,-80,25,2,39,14,-79,11,-53,86,3,-30,-69,-56,-38,63,13,35,-33,-1,-93,16,0,58,58,-1,-59,76,-30,37,-16,-22,-5,29,-12,44,115,127,35,7,-40,87,10,60,113,25,16,14,25,98,23,-40,0,15,-47,-16,49,11,-23,-11,28,19,-28,-16,-103,-44,-116,-45,27,26,10,14,38,4,-42,-17,-127,-67,-111,-68,-18,50,13,-3,34,0,-49,-4,-113,-50,-116,-57,-26,89,15,-45,9,-12,-37,-9,-87,-63,-69,-36,-7,103,19,-82,1,-18,-36,-16,-36,-70,-48,-17,-57,106,13,25,36,35,86,56,-55,-35,-1,-71,-73,-71,-6,9,45,32,76,22,-81,-30,34,-70,-47,-40,-49,-3,24,47,115,26,3,-27,26,-50,-57,-38,-45,10,2,9,127,39,52,-6,-19,-31,-35,-37,2,28,7,-2,107,75,39,4,-45,-32,-26,-32,5,7,-51,-9,12,88,-64,98,8,46,-20,-45,59,35,-31,18,82,18,-53,79,-67,-22,-62,7,-7,-42,17,65,-1,58,2,41,-9,11,-47,-13,-127,-17,93,30,45,74,-29,9,32,10,-19,-21,6,-74,34,20,49,67,-70,6,-68,24,-46,5,-53,-14,69,1,-14,48,41,-36,-55,-97,119,-23,-51,40,127,0,-25,61,-18,-28,-29,-77,48,-39,-38,47,106,-20,-56,17,-56,-15,-47,-69,45,-36,-11,26,59,-51,-59,12,-4,-29,-58,-61,51,-35,-6,10,14,-71,-30,-2,110,-50,-92,-63,-13,-51,8,-9,16,13,-25,-3,-13,127,-21,11,-36,-36,-6,-2,25,62,-37,35,-42,86,5,-79,4,-9,-11,9,8,43,-19,50,-5,62,60,-51,-37,-45,-25,12,10,48,-15,83,7,15,64,-15,-79,-29,9,-1,-3,34,9,80,1,17,32,60,-61,-1,-10,36,100,122,25,28,-22,28,21,73,91,-4,-41,32,63,89,-28,75,-68,52,56,56,28,-88,27,33,-14,33,-43,104,-65,113,-32,-9,-11,32,-5,-40,-38,26,63,5,-15,40,-37,54,-45,127,-25,-116,-87,-89,40,-1,36,-33,18,115,-65,51,6,-13,-34,25,62,127,-85,4,-1,-37,100,48,13,-16,-33,27,20,86,-78,25,31,61,40,6,-8,1,12,23,-37,43,18,6,20,81,14,13,-33,10,8,14,-66,5,80,-30,32,20,-48,11,-63,34,54,-13,-56,-21,124,27,15,1,-104,-62,-47,-73,25,53,-48,-41,-74,6,-6,-88,-33,84,-12,-47,37,31,-51,-21,-70,71,58,-56,-23,63,-9,-32,34,17,-60,-10,-39,95,75,-47,-21,69,-56,-24,15,9,-65,-11,0,70,86,-50,-30,81,-99,-48,8,-6,-79,-19,-10,0,91,-52,-11,127,-19,-20,9,-42,106,67,-57,4,-50,-42,18,52,-10,-40,62,15,24,93,-65,15,-6,19,36,85,-3,-42,17,25,-15,123,-93,-16,-6,8,13,102,7,-11,14,15,17,122,-127,-37,-48,-14,-55,79,11,9,25,27,29,119,-85,-47,-35,-20,-78,57,-2,28,-6,33,46,2,-30,24,78,4,30,32,-10,-18,1,17,27,18,15,-20,19,-43,-9,-38,-60,-69,9,59,23,69,41,-51,-72,-45,39,-35,-37,0,-5,60,52,85,9,-8,-127,-107,51,-9,-14,56,-17,34,75,78,-18,56,-119,-94,51,8,-12,-12,31,51,31,127,107,9,-62,-1,-92,13,-5,64,-64,-9,101,58,65,6,-89,5,-66,-45,11,92,-50,18,86,63,27,47,-58,-20,-17,-41,36,77,11,43,13,59,12,5,-25,-5,-21,-18,20,28,102,36,-62,102,14,97,-35,38,-19,-25,-10,65,-73,-6,-16,31,15,90,13,23,5,109,4,69,-43,1,13,33,54,70,-17,41,17,46,-11,34,-24,35,44,42,57,60,-3,60,34,34,-3,-11,-1,34,52,65,35,29,16,7,50,66,-16,-31,-41,26,19,127,76,31,57,-19,59,122,6,19,19,25,-44,33,24,-11,-1,23,-11,-14,23,-22,-28,50,23,22,26,-29,-15,0,-18,0,-15,-31,-1,38,73,22,59,-32,-16,34,8,42,-42,-7,8,-9,72,26,67,28,-27,90,15,70,-22,20,-10,2,42,8,17,127,8,36,28,-16,2,-7,-12,-4,82,116,29,3,-60,4,30,90,-5,14,7,34,51,68,-1,59,-28,-2,-58,-37,-41,18,33,67,72,32,-34,34,-20,59,-95,-22,-40,9,5,50,16,46,-24,60,-42,30,-97,61,-18,-39,-16,43,71,8,-57,58,0,60,-3,127,-5,17,21,-6,-36,127,7,35,40,90,-71,5,11,7,3,12,-1,106,-30,-46,24,17,-66,26,-1,-4,-7,8,36,62,14,-52,-28,-21,-21,59,1,-25,-8,14,62,-21,75,6,-28,-14,15,59,-11,-26,39,67,61,-31,67,64,-31,51,46,13,18,-42,-6,75,-35,116,-18,17,-17,74,1,43,4,-34,-9,63,-16,65,20,17,-47,35,-13,25,-18,-4,14,14,32,6,15,39,-85,19,41,20,-6,35,53,-39,58,-40,-29,127,-87,7,74,13,1,54,58,-90,79,-21,14,68,-102,41,28,52,43,38,-51,23,-23,18,-9,-15,-23,-48,15,59,25,33,-48,28,-3,24,0,-45,1,-8,1,-12,-10,21,-27,51,25,18,27,-30,-11,45,-4,-5,-23,0,-21,40,1,42,38,-22,-29,89,-14,33,-22,-3,-19,6,-10,14,-10,-52,-28,127,-8,90,-40,-24,-17,56,123,127,124,-41,15,-33,-33,69,-26,-50,-59,114,50,46,96,22,-100,-72,-23,93,4,16,20,27,-57,48,-3,57,-72,-31,14,88,26,54,43,-15,-74,30,-27,36,-3,69,-32,45,-12,66,48,-11,-59,47,-45,15,-17,77,12,97,64,-118,117,-35,58,106,-8,23,81,-24,101,-43,62,-52,75,-33,9,107,-41,63,36,-23,106,-39,16,-39,36,-9,16,70,-27,94,5,-4,62,36,-7,-10,-7,-43,51,83,4,124,-42,61,22,58,-44,-54,50,-59,58,103,-1,127,-109,16,-30,89,7,11,11,37,42,49,32,-8,-127,-40,-34,11,14,25,25,30,43,51,61,-40,-125,-51,-53,19,-8,14,16,37,63,43,67,-67,-124,-56,-70,28,-24,-15,47,30,63,44,57,-67,-126,-14,-32,12,-18,-35,0,33,83,33,12,-38,-127,-2,46,4,4,-23,15,34,15,21,5,10,54,60,14,127,13,-21,3,5,2,16,26,48,64,65,46,110,15,-44,-9,-8,-28,44,27,66,77,34,42,78,20,-51,10,-5,-14,50,-19,37,45,16,38,89,21,-2,2,-4,24,19,-38,78,-3,59,13,90,-7,0,-67,66,-49,24,-34,13,127,28,-30,-78,5,-15,-75,39,-71,-13,-87,59,81,-2,31,-70,15,20,23,9,0,27,-66,43,-37,-12,-26,7,19,2,75,11,19,4,19,42,-22,8,-35,87,-3,-29,90,24,51,60,62,89,-4,-10,-12,66,12,-24,30,-7,-30,5,-46,124,-61,127,-25,17,-25,-9,91,-30,-42,23,-51,94,-51,127,-4,35,-30,-1,87,-38,-37,-11,2,70,-35,95,11,27,3,-5,36,-32,-5,11,-21,45,-55,106,2,41,6,24,3,-36,15,38,-44,30,-68,88,6,51,-17,49,-6,-20,38,127,63,-23,-78,43,39,18,-1,31,-39,-25,36,94,29,-38,-53,46,7,-18,-4,13,-7,-27,40,87,20,-4,-11,49,-18,-4,-21,8,13,-4,21,95,38,1,-38,74,-4,1,-17,7,5,-5,10,96,52,33,-75,18,-2,-19,-29,9,-28,-21,-9,37,-20,56,3,33,21,-8,-5,-6,-11,-19,10,25,-16,32,-69,57,9,27,19,6,40,-25,30,33,-7,7,-127,63,2,11,28,16,70,-10,21,-6,-7,-3,-117,75,12,10,16,26,56,28,9,1,1,-11,-96,44,6,33,-9,43,-19,95,-23,33,11,109,39,104,15,36,16,66,-64,58,5,1,-11,17,-38,31,88,16,-22,55,41,43,-18,-23,3,-37,30,-5,81,-10,-38,-38,101,1,-33,3,70,-54,-6,2,-38,-71,-14,-84,54,52,43,47,99,-120,-127,-24,-29,-41,-14,26,18,98,7,40,0,13,-3,34,-9,18,-11,39,-7,75,7,36,-10,6,-23,10,0,-6,1,27,-15,40,15,2,-25,-9,-20,11,-3,-49,-7,7,-24,83,17,10,-9,-61,-19,27,-14,-83,-26,-6,-25,127,10,43,28,-77,-26,66,-18,-64,-47,-37,-53,38,7,127,24,7,-73,-17,-67,34,-21,-34,9,41,17,94,17,37,-27,-29,-90,41,-21,13,63,42,18,42,42,40,-42,-57,-77,10,-22,15,73,38,83,49,80,18,-57,-33,-46,-3,5,25,64,19,101,63,88,-6,-70,-25,-73,28,-57,12,15,104,83,44,-22,-16,-80,84,44,95,-40,32,-28,69,41,42,4,17,-39,67,2,38,-27,8,-21,55,74,53,-35,56,-24,59,-12,43,5,-1,-40,59,86,77,-56,120,-27,15,-83,29,27,-52,-47,43,91,50,-74,127,-8,20,-21,22,6,-26,24,-3,-53,49,35,63,100,56,13,-13,-6,-38,15,-1,-18,89,50,61,127,33,15,-32,12,-45,3,-22,-4,105,62,21,98,18,24,-64,8,-19,19,-7,46,108,21,-1,44,-9,21,-89,-2,9,47,23,64,76,14,-15,23,-37,4,-49,-50,-65,82,89,-29,78,52,-53,-20,-64,35,-14,-21,-24,4,29,-26,42,-16,-66,-86,-12,2,-5,-9,31,-12,-20,-14,39,-51,-3,-115,-10,-43,30,7,66,-5,-27,34,59,-87,25,-110,62,-20,70,11,23,-34,46,59,127,-45,21,-95,119,48,21,-8,-1,-25,39,-6,34,5,-64,-55,53,-37,78,-9,-8,7,38,13,69,38,-36,-21,79,-49,-19,-10,-2,16,25,58,88,-13,5,-21,112,-109,30,-2,9,2,-34,-4,127,-10,30,-18,41,-87,109,-2,-55,-11,-38,13,93,31,33,51,-27,-67,124,-5,11,-27,21,-37,64,4,55,-6,85,24,36,12,11,-2,4,-31,59,-55,42,-84,70,19,33,26,16,24,-4,-49,61,-63,21,-127,101,14,13,38,19,22,10,-48,90,-37,-1,-115,91,25,-38,31,15,-9,49,-30,59,-22,-35,-34,54,50,-64,-38,20,-31,25,-55,111,3,79,-50,127,-23,88,2,41,23,34,-64,103,-20,37,-59,83,-28,90,14,46,41,48,-29,122,-24,21,-62,39,-87,49,0,31,18,111,14,108,-45,4,-63,4,-93,56,-15,46,-33,124,27,83,-18,48,-23,25,-77,64,-62,56,-10,-37,1,10,15,33,-39,8,-9,-25,-24,68,-37,-28,72,29,16,27,-124,-6,7,-68,-3,50,-8,-2,78,80,47,27,-87,-12,-26,-27,-1,26,-16,36,26,127,94,75,-66,17,-26,43,24,27,9,12,28,118,106,126,-33,38,-15,87,8,-7,-6,13,6,62,-84,-40,-62,-1,1,24,9,2,25,11,8,57,-114,-51,-46,25,-14,39,14,9,28,26,11,61,-118,-42,-57,17,-43,44,-3,14,41,32,24,32,-127,-56,-85,8,-39,77,7,12,35,16,-8,43,-60,-28,-55,9,-43,64,-110,-59,103,70,-7,95,-41,14,27,40,43,-10,-96,-41,68,57,42,62,-69,-12,-15,69,34,7,-18,17,-45,65,39,102,-57,-19,-61,114,-36,71,16,46,-36,50,98,122,-56,-10,-52,17,-55,96,24,-11,22,53,66,63,-48,52,-42,110,-98,127,42,-2,1,8,-39,74,-51,12,-20,-44,-36,18,11,47,87,41,31,59,-12,74,-15,39,-9,-62,-41,18,55,65,127,7,65,98,-37,98,-41,-45,0,11,-14,7,67,-10,60,-24,-57,62,-17,9,21,19,-66,29,-72,76,28,11,-27,-31,48,92,-62,18,28,63,46,12,-34,28,-127,95,-49,74,-20,11,25,31,23,9,-29,0,-119,82,-31,32,-10,7,25,50,-16,12,-44,-14,-93,75,-32,23,-25,5,28,71,10,18,-60,-6,-74,67,-28,19,-39,-4,31,73,21,42,-50,-6,-78,36,-20,74,7,18,18,127,87,-7,1,20,-67,-27,-41,8,16,11,38,106,94,-18,69,15,-93,-28,-52,22,2,1,63,67,63,-22,81,39,-58,5,-50,53,3,-16,66,73,28,-20,62,77,-81,23,-47,93,-4,6,-14,38,16,-21,52,124,-81,30,2,81,-20,-31,7,46,42,-3,-29,74,-21,36,-22,26,5,-4,10,-28,-6,20,8,119,-25,-12,28,7,10,11,28,-50,23,47,7,125,-29,-27,46,-18,-11,1,41,-41,44,82,51,127,-14,-19,50,12,-33,-7,7,-29,37,117,52,84,-45,-12,31,16,1,54,-29,-5,-48,19,69,42,-4,4,-79,35,-4,72,-11,-14,16,14,41,63,-6,-13,-23,30,-29,-35,-5,-3,16,17,-44,57,20,-43,8,-4,-27,-83,-13,30,54,13,-101,1,3,-1,3,-2,-7,-51,-8,36,127,1,-119,-21,-10,40,-13,-11,8,13,13,-2,-5,36,65,-87,-9,-104,-9,67,4,44,4,25,16,58,35,-83,61,-82,-56,-19,9,30,7,6,13,65,12,-2,40,-9,-51,32,2,4,-5,40,22,63,-24,41,-27,69,-11,76,-20,-24,-21,46,6,39,-31,51,-37,105,52,127,14,-8,-34,51,-12,35,-3,49,-60,22,35,40,10,-1,2,25,-34,52,-31,46,-110,1,62,42,13,30,21,12,-75,84,-64,17,-127,43,40,14,10,42,35,20,-45,73,11,-15,-59,87,14,-7,13,25,-3,25,-31,65,20,-26,-31,57,48,-17,17,54,36,5,-8,31,41,30,-67,83,-56,47,-1,27,26,-49,22,60,-16,42,-42,91,-89,79,9,12,39,-43,10,60,-67,31,-28,69,-114,75,6,0,32,2,18,19,-58,-3,-20,17,-112,52,9,17,24,45,-10,37,-30,4,28,25,-127,32,46,-39,-64,20,-9,43,-30,-36,-36,-41,15,105,35,20,-39,25,-35,39,-18,-28,4,0,-16,-23,-25,58,18,111,12,14,16,2,15,36,-16,-45,-9,22,4,13,9,52,56,17,-46,88,3,26,-10,-16,-6,-19,-29,-3,17,-24,-52,127,27,107,-15,-22,29,41,6,2,-3,61,-30,-84,73,36,11,5,32,45,-6,7,-38,36,-8,-99,79,23,12,13,42,34,-8,-3,-42,23,-29,-97,106,33,12,5,20,4,-11,2,22,-16,-74,-70,98,4,10,-28,24,-15,-22,3,57,-50,-127,-56,66,-13,15,35,30,43,11,77,50,94,17,12,-78,28,22,36,31,31,7,79,11,59,9,-6,-127,16,19,21,35,15,26,71,12,41,2,-9,-105,14,16,11,38,7,12,32,24,32,-31,-33,-86,-1,24,8,36,-6,32,18,21,39,-40,24,-74,-20,-93,-66,113,50,-10,100,-3,-24,3,-5,78,45,-36,-18,-40,61,-3,42,-16,-5,-85,24,17,89,-30,55,-74,48,29,85,25,-14,-124,5,-24,95,-6,55,-37,51,25,13,-30,-30,-64,19,-67,64,-24,51,23,25,-22,-2,-64,15,0,56,-127,51,-67,-6,-14,114,14,20,-69,99,-127,1,-60,83,-37,5,-53,115,-6,16,-19,46,-70,22,-10,18,-44,-14,-25,88,-19,32,-28,59,-80,70,1,49,-24,1,4,57,-10,52,-49,30,-18,97,-11,30,-39,8,24,21,29,27,-34,-15,-42,23,0,49,44,14,17,63,5,2,24,13,61,-24,56,5,-37,61,31,75,3,31,-29,35,32,61,-43,-12,-28,47,-16,-2,-28,103,-67,70,-34,30,-71,108,22,-49,0,-52,-32,107,-14,36,0,-3,-11,87,37,-127,19,-57,4,78,28,59,0,15,13,32,-1,37,18,127,1,27,1,46,27,62,-35,14,-8,31,-1,76,8,14,-12,31,-1,33,-5,-15,-1,29,-7,61,28,-5,-11,-3,-7,29,26,-45,-1,12,-25,69,36,0,18,-50,-41,47,0,-86,-17,0,-13,99,6,16,53,-65,-61,57,-39,-74,-27,59,-40,20,114,65,5,0,-80,-4,-118,-109,1,59,-52,6,89,71,-1,-1,-81,12,-89,-117,26,52,10,20,89,85,45,-13,-119,11,-83,-95,35,32,86,23,112,89,80,-4,-53,-9,-46,-84,31,20,60,18,127,86,86,8,-33,-23,-44,-52,-65,-10,13,29,38,119,-34,-7,-31,-46,-38,-36,-29,-29,19,68,60,93,-20,70,39,-77,-18,-1,-12,-19,15,61,33,93,51,10,31,-127,-51,-73,-18,-11,30,59,58,114,106,32,-14,-93,-60,-103,-14,20,58,78,99,94,77,20,-30,-37,-57,-90,52,19,26,17,-35,112,6,21,34,50,96,50,40,2,12,2,-3,65,47,33,68,28,84,-12,23,-19,-15,8,-15,51,84,43,66,7,48,-47,24,-6,20,45,5,58,35,12,42,13,58,-28,31,-12,65,78,20,127,50,-1,45,-32,68,71,13,34,-3,-81,22,32,-12,119,-5,16,0,26,-13,-33,17,-2,-9,25,-31,127,32,24,2,28,-18,-49,14,64,-17,18,-53,102,8,59,-43,19,-15,-25,-2,77,5,0,-83,45,-25,24,-67,24,10,7,-2,100,39,-18,-50,27,1,37,-70,23,8,34,50,50,-15,69,-92,59,17,10,11,25,14,-8,36,77,-11,41,-38,62,28,-18,-5,24,25,0,12,60,-24,-13,17,35,33,-25,-51,24,11,-5,-6,26,-38,-8,34,-3,47,-75,-61,100,-36,7,30,21,-7,1,16,30,80,-67,-88,127,35,-3,-20,36,15,100,18,-78,16,-80,46,-6,24,24,-1,30,34,96,30,-60,31,-72,19,-11,27,16,1,37,27,94,32,-44,36,-84,19,-12,27,20,28,24,45,93,-23,-51,23,-85,32,-9,22,21,12,7,37,127,-34,-55,-6,-106,52,34,-16,31,76,84,13,36,-21,18,-13,-79,-48,32,14,-25,30,29,14,64,-21,-29,-15,-57,-71,34,-15,-33,19,-20,-4,70,-45,-22,-48,3,-98,65,-50,-39,1,-46,-18,86,-52,-3,-81,56,-101,23,-36,-14,-7,-29,-12,40,-80,-16,-127,3,-79,44,-127,50,64,-3,25,49,12,45,-26,106,-28,12,-57,22,87,-8,-48,37,25,-60,-57,31,-97,16,-7,-3,47,26,-31,23,-16,-117,-56,32,-51,88,3,15,30,0,11,78,37,-118,-2,-26,-98,71,26,43,-48,-44,-1,71,64,-80,34,-77,-102,54,-17,83,62,33,-51,25,23,26,-1,-68,-17,-14,-11,12,72,35,-32,0,58,17,9,-65,-29,-35,2,-37,90,47,6,-41,78,0,24,-94,-57,12,18,-51,13,41,45,-34,72,-12,1,-102,-49,91,32,-29,-5,7,98,11,14,-31,45,-127,-22,119,-16,33,8,72,46,68,33,-27,20,36,-3,75,-8,49,33,33,-17,40,23,-14,11,32,-46,31,7,0,10,11,-31,62,-14,47,-13,35,-40,70,12,-59,1,-33,-47,107,-39,45,-7,13,-33,70,2,-111,-11,-41,-12,127,39,68,23,-8,-32,45,-21,-17,10,-8,28,72,-5,11,-3,38,50,127,-24,-34,-10,53,23,65,-9,-10,-6,59,17,104,-5,-34,-1,66,24,36,-10,-11,-19,47,17,60,-6,-19,18,45,25,37,1,-2,-14,11,11,60,-2,-20,21,-2,35,38,-14,35,0,14,42,78,19,-31,20,16,-56,121,7,68,0,-37,39,82,20,-19,30,13,-39,127,-7,60,-10,-24,32,34,-4,-25,27,-3,-35,96,3,71,-11,-10,0,10,-29,-31,18,25,-37,111,17,50,-13,-9,-13,13,-49,-40,46,47,-27,123,-3,49,30,-33,-36,27,-15,33,-10,-7,-23,54,-52,63,-102,97,13,85,-2,16,-22,-44,-13,89,-56,28,-73,78,-5,51,-12,24,-14,-34,12,118,-21,8,11,28,-48,22,-12,8,-17,-1,12,127,34,-3,10,53,-90,9,-12,-32,-55,63,30,99,47,47,-15,29,-99,-42,0,29,96,3,48,52,-50,-44,-103,-48,-12,-48,-15,29,70,74,71,46,-50,-25,3,-118,54,-17,-72,4,8,113,118,42,36,-30,26,-127,5,-33,-74,15,2,108,123,115,79,3,-27,-104,-43,-43,39,36,44,21,103,120,28,-50,-47,-73,-64,-93,-56,-64,-2,40,-65,127,93,87,-36,-10,-34,-22,-35,-38,21,21,-59,103,109,81,-51,-8,-55,-34,-17,-5,5,22,-46,68,119,75,-74,-11,-34,-17,-10,17,-4,10,-19,51,121,66,-53,-9,-12,31,-31,27,-21,36,1,35,70,34,-60,-11,3,27,-4,39,24,-26,14,101,-3,122,28,57,52,-45,8,-23,-1,72,11,58,25,39,47,38,55,-54,14,-17,-27,118,25,90,103,36,-10,-26,29,-68,20,0,-34,76,-23,104,-7,20,-18,-61,30,-36,-18,38,6,118,-29,127,-104,-25,-30,-42,12,19,-63,18,79,39,15,21,-36,62,-68,30,-37,-48,-91,-4,92,28,42,-2,-37,44,-14,78,-12,-57,-14,-52,40,22,35,53,-92,32,-26,94,-8,-11,33,-8,10,-7,54,89,-53,28,-19,27,-19,33,45,-32,40,48,20,127,-39,-9,5,-5,21,116,13,87,-57,-10,-46,50,33,-27,-127,24,60,97,9,37,-26,0,-35,56,86,-40,-52,17,17,17,-14,-22,-11,33,69,63,82,-35,27,-16,-53,39,-46,-26,0,7,42,77,52,-22,31,-24,-86,75,-36,-32,43,19,51,39,15,25,52,-12,-100,79,42,42,-21,30,-17,39,6,33,36,29,-42,37,10,60,6,-25,21,38,5,21,37,19,-19,10,-44,-9,64,-24,-3,-3,4,42,24,15,21,21,-39,-93,59,41,44,6,-2,17,-71,21,86,-30,1,-42,1,23,127,-2,14,0,-87,22,99,-57,3,26,24,18,3,9,5,35,20,50,9,11,-2,0,1,4,22,35,23,64,34,3,-22,0,-6,-11,-11,-11,37,49,43,81,29,-4,-49,0,-6,-23,3,-20,31,48,66,113,8,1,-63,-15,-9,-36,9,-8,10,19,42,127,2,-13,-58,-13,25,-9,18,-3,-7,-35,-121,114,-101,14,89,7,29,-12,35,16,5,-35,-97,78,-65,-7,125,4,19,0,32,2,36,-40,-67,46,-10,37,127,6,19,-6,28,15,50,-44,-26,12,24,70,77,12,8,-20,49,34,43,-29,-19,-39,33,63,62,7,24,-21,13,103,3,4,27,-23,-34,-51,51,-47,-21,-7,12,73,16,-11,44,-13,-39,-58,49,-31,-12,14,7,-38,-13,44,18,15,-39,52,-12,34,14,36,32,-92,-40,75,-36,12,-32,121,-86,59,17,54,41,-26,-12,59,-50,8,-25,66,-127,69,-7,1,20,30,-31,34,-42,1,-7,-3,10,104,-2,19,49,37,-3,29,-6,-6,-9,18,6,127,-2,30,51,25,-18,-6,-1,-8,-8,21,-22,119,4,24,20,11,-37,-6,5,26,-6,-12,-13,110,3,3,-4,11,-58,13,12,55,20,-17,-29,67,-3,22,-37,18,33,54,-83,79,-20,48,-47,37,11,7,-22,7,28,44,-46,96,-7,34,-39,47,12,-6,-8,15,7,59,-15,127,-15,25,-67,23,5,-30,4,81,3,68,5,119,3,31,-80,17,-2,-24,3,92,15,96,-11,124,-13,26,-43,35,-27,-6,42,-8,47,50,16,41,-7,81,-39,-2,-15,-34,12,28,84,52,-14,3,-72,59,-74,76,-4,-52,27,26,55,49,34,-12,-87,14,-84,83,4,-24,24,17,-26,51,51,-26,-103,-43,-29,122,0,26,18,22,-25,127,28,1,-62,-47,-1,95,-53,-36,-15,44,63,125,6,3,-42,-35,-60,-4,-35,-36,-5,34,37,127,17,36,-18,-81,-43,-12,-14,-12,27,57,36,79,42,30,-17,-110,-42,-65,-9,14,53,69,72,68,66,28,-8,-76,-42,-60,-2,13,59,49,94,54,56,5,-17,-34,-69,-67,-27,20,-4,-27,15,127,-94,19,39,3,-8,-50,-23,9,-26,-17,8,121,-70,-23,-4,-3,-18,-83,-15,4,-12,-3,-6,121,-38,-58,-41,8,-21,-35,8,-1,17,8,10,66,23,-35,-40,5,-16,16,8,2,41,23,46,71,86,-60,-54,36,-16,64,-55,12,34,43,-24,127,14,-5,-31,11,-78,-1,-32,19,20,6,-24,84,23,-29,-67,-5,-114,-37,3,8,27,21,28,47,15,-26,-98,-18,-104,-37,31,6,34,23,93,37,22,26,-95,-30,-88,-53,32,5,66,10,74,56,33,93,-80,-35,-117,-59,1,0,-28,33,-2,112,14,62,-123,117,32,70,-23,50,5,-56,44,127,-92,33,-39,60,-14,22,-45,72,36,-69,69,102,-113,4,19,20,5,-25,-54,73,33,-7,74,82,-77,49,36,5,16,-85,-4,40,36,74,-20,59,38,49,-42,19,-9,-51,17,34,-9,75,-15,66,-79,104,-13,11,86,57,21,-7,30,10,-25,65,-95,94,35,34,52,79,-18,10,67,4,-51,59,63,26,63,76,-9,40,-30,-11,-30,7,-31,37,127,24,65,30,-52,28,-31,-19,-53,26,-16,-15,87,100,-6,-40,-68,-36,7,8,45,85,60,103,-35,-47,-40,23,65,31,6,30,30,24,61,87,0,17,-59,14,27,44,8,25,11,20,40,110,-22,27,-65,0,-50,-6,13,26,49,51,61,127,-6,16,-60,15,-74,-19,28,35,81,79,37,124,-25,63,-25,118,-19,9,-3,25,-45,8,-16,89,-84,77,29,-31,-67,14,12,0,-25,47,9,48,-87,33,-100,-26,-53,49,17,4,71,55,18,19,-45,6,-94,-14,-64,97,3,16,64,9,-17,-27,0,-48,-72,-61,-55,127,-20,29,24,10,-24,27,34,-16,30,-94,-19,104,5,4,60,41,-20,48,53,57,-74,15,0,95,3,-9,63,7,-39,24,45,58,-67,1,-5,95,-2,-12,56,0,-21,19,23,23,-40,-28,-6,105,13,-6,67,24,-16,39,8,-19,-70,20,-20,107,-5,-10,82,65,-7,63,14,-11,-49,21,-7,127,-24,49,-31,30,38,35,8,53,64,27,-52,-12,-5,-1,-16,49,-1,67,26,0,76,-35,8,-19,9,-4,-16,85,-6,92,42,-2,20,-93,13,-49,17,-6,-22,78,-3,96,-30,21,31,-64,35,-42,26,11,26,58,-14,82,-127,-26,-6,-46,50,2,-12,-45,0,3,76,82,-127,-58,14,-72,74,-30,-2,-58,66,26,38,81,-113,-41,56,-6,57,9,-6,-43,96,38,5,56,-99,-35,52,-15,11,-6,-17,-20,55,37,28,62,-96,-42,30,-24,-8,11,-17,-8,26,11,36,98,-74,-10,28,-2,12,-13,-25,-78,-46,9,27,70,73,21,41,-60,4,-37,-6,-34,22,13,-14,51,-27,45,-47,-59,36,4,29,40,96,-11,-53,70,-60,8,-64,111,52,3,9,67,84,-7,-54,24,-2,-17,-87,127,-10,50,-10,55,37,56,-1,-11,89,-62,-21,36,-22,65,23,32,25,8,-69,6,46,33,4,9,127,87,-5,15,28,21,7,33,64,61,8,3,51,8,-29,-3,17,25,50,15,27,58,-50,16,-5,-6,-13,-11,3,8,55,24,6,61,-35,36,-70,13,15,-52,-5,6,43,24,3,97,-21,87,-87,46,11,-3,75,0,-23,49,-64,-16,21,-58,50,-13,17,-20,39,10,-1,46,-27,12,59,-41,55,-37,31,-19,5,23,5,43,5,37,78,-46,39,-39,36,-21,3,20,11,41,-20,51,76,-49,33,-43,15,5,41,39,32,56,-30,76,127,-37,9,-26,9,36,46,23,24,96,38,82,28,62,-33,30,-13,20,10,39,45,65,-28,18,-23,39,-17,8,-34,-8,16,28,24,26,-20,3,-51,50,55,-8,-28,-32,-1,14,-13,28,-2,45,-66,6,77,6,3,-23,-11,13,-20,4,1,98,-127,84,-5,-41,-2,6,4,19,31,48,7,74,-57,127,-3,81,4,19,-25,30,43,66,10,81,-54,44,-21,54,-6,38,-13,0,46,119,-8,97,-24,-18,-60,56,-4,-4,-6,-31,2,117,24,87,-22,28,-97,6,-5,-40,-25,-18,13,74,9,79,-36,77,-45,-33,8,30,2,51,37,46,-85,50,50,-3,-88,62,2,19,-4,19,67,22,-114,50,60,-3,-115,86,0,10,1,-7,56,22,-127,64,47,-5,-76,108,6,19,-5,-1,57,25,-106,50,49,-9,-34,79,8,34,-17,34,50,21,-101,49,25,0,-21,61,-5,41,19,127,-2,26,6,38,21,55,-40,3,-7,37,-4,69,13,2,-8,27,-18,34,-3,-24,2,25,-8,63,20,-12,0,5,-7,25,20,-48,-2,10,-22,62,24,-1,16,-33,-39,47,-5,-77,-17,-2,-10,97,7,15,44,-54,-64,62,-20,-63,-7,-21,36,70,35,109,-5,-63,75,-98,-27,-9,14,19,68,13,11,51,-47,-12,-9,-114,79,-19,8,32,10,-33,-3,-43,13,38,-78,6,90,-9,-2,-2,-47,-47,10,-35,37,18,-45,95,-81,50,-11,-21,-15,-29,12,-14,53,-27,-35,84,-127,82,-25,-19,-8,42,12,127,-1,15,-1,-6,7,33,-12,-11,4,39,6,67,-2,12,-7,-1,-20,5,-15,-18,-2,13,15,38,-21,7,17,-4,-62,-33,-18,-10,-1,13,64,31,-36,2,-24,22,-55,-34,-20,13,9,29,58,57,-18,23,21,21,-57,-18,-56,-127,9,25,119,10,21,29,-31,-30,107,-7,-16,-68,11,29,125,18,-1,19,31,-16,28,-3,5,-19,-5,23,111,26,-43,2,11,29,-44,38,11,35,-10,16,66,-8,7,21,-28,27,-49,54,14,76,-6,47,-65,9,75,46,-7,116,-17,121,-73,-23,30,54,-9,86,46,-48,-82,-26,12,-39,-22,11,-24,9,19,40,-5,-35,-127,1,-2,2,-12,9,-4,-9,-3,40,-49,-25,-85,-8,-9,73,11,29,21,0,12,42,-24,-11,-29,30,15,77,14,-8,8,9,23,110,-53,-14,7,80,32,49,-18,-36,22,60,47,104,54,66,-49,25,-5,14,-31,-5,21,-12,55,60,-23,-9,-49,51,-30,25,-25,12,49,-15,53,9,-34,-46,-127,39,-58,16,-15,43,54,-2,44,1,-13,-15,-122,12,-55,0,8,48,63,38,33,6,25,-10,-107,-8,-118,-7,18,35,34,40,29,76,57,87,24,15,-83,27,27,40,30,35,17,86,17,65,17,-8,-127,17,19,31,37,26,22,76,10,57,12,-12,-110,21,20,22,37,15,9,53,12,44,-32,-31,-83,-4,25,10,28,-6,33,27,18,63,-62,11,-69,-29,4,-3,40,-46,41,58,-91,-2,-31,-58,16,21,-12,7,127,2,35,83,-121,4,8,-25,17,52,-16,-38,25,18,-11,100,-101,36,-26,4,18,44,8,-16,-49,33,-7,106,-54,43,-59,-2,-28,48,24,5,-35,27,2,104,-5,46,12,17,-56,16,-52,-16,16,9,-10,57,-61,-13,-63,80,-30,76,-75,-26,-9,22,9,57,-71,-6,-102,73,-13,37,-50,-34,-2,66,41,64,-36,-51,-67,-8,-43,6,-19,-54,24,111,21,86,27,-57,-27,-45,-55,63,2,-38,14,114,7,127,47,-11,-46,-91,-41,89,-40,0,-65,-15,-39,-1,9,0,-10,18,-69,46,1,21,-10,-38,-29,9,-61,-25,-30,-21,-33,-5,32,17,61,28,-8,12,-45,31,-47,-6,51,-16,-20,-25,18,57,75,87,50,87,44,23,65,27,4,-1,-20,-2,46,127,50,-2,58,21,80,-27,-95,-33,98,40,-4,80,38,49,40,44,28,-16,-17,-18,3,5,11,15,-17,6,-11,51,16,12,-16,30,-71,21,3,88,-11,-32,-47,12,-7,53,1,36,-11,36,47,63,-42,-27,-51,-22,-20,65,13,4,33,39,44,21,-65,14,-40,44,-59,127,6,-16,29,-3,-3,12,-84,43,-127,61,-12,35,28,7,20,-22,-22,76,-92,53,-108,38,1,-45,17,21,21,9,-35,54,9,12,-31,66,0,3,-15,10,-21,41,21,8,43,-66,14,83,15,47,-7,1,-71,60,11,28,68,-35,29,-4,-7,7,-92,11,-83,67,3,58,-73,83,9,-1,-43,-23,-52,16,-58,38,56,23,-33,35,-3,31,-127,2,17,13,-8,30,55,23,10,22,-39,71,-106,0,-8,22,38,23,32,63,43,17,-25,43,-77,33,-35,23,13,48,-5,75,98,16,8,-20,-65,-4,-41,20,80,22,9,61,80,-112,40,-112,-53,90,-16,52,39,35,50,56,100,-120,46,-112,-125,33,-13,37,25,11,41,62,65,-33,10,-26,-126,62,-17,-8,26,32,13,97,6,28,-38,56,-97,96,-22,-75,17,86,0,71,-23,65,-95,104,-10,127,-74,29,-21,28,-8,107,-34,12,-73,5,-122,-73,-38,6,-28,16,-19,78,6,1,-99,-8,-127,-84,-5,-6,-2,30,25,69,65,9,-124,1,-106,-59,22,-28,53,27,87,56,96,20,-114,-12,-83,-51,24,-27,52,27,69,53,110,66,-101,-24,-92,-50,-24,48,31,17,39,7,-127,62,70,-55,-124,75,-9,40,16,-4,34,-1,-70,36,69,-58,-109,63,1,64,22,-14,52,20,-51,9,83,-85,-121,56,-4,58,26,-17,47,27,-81,7,85,-63,-117,66,-6,57,74,-13,39,50,-68,5,100,-46,-117,74,-10,0,-12,41,30,110,13,80,-74,99,-23,112,2,30,-15,-10,15,101,3,57,-94,47,-60,20,-8,35,-18,-49,7,119,-30,40,-31,4,-39,17,-13,17,-4,-41,12,121,-10,34,20,57,-19,18,-28,3,-1,1,-3,127,-5,-46,-9,60,-23,-9,-31,-5,-9,-34,-13,49,-17,78,-23,8,-43,6,-6,-19,-24,85,-13,36,-7,44,-30,37,-20,29,10,-18,-30,127,-1,25,-10,42,-50,50,-11,17,17,-3,-8,101,20,14,-12,41,-52,37,-21,24,4,32,14,46,30,-7,-20,25,-22,21,18,40,-7,26,0,36,66,-15,127,32,-8,71,46,54,-25,-14,-3,21,71,-15,109,44,3,47,42,68,-29,-8,-20,9,38,-16,70,38,1,75,68,110,-53,11,-36,-7,31,1,7,42,-30,65,64,102,-51,-3,-33,7,23,12,3,65,-43,48,29,60,14,52,34,32,-30,12,-84,63,11,-60,-73,15,31,34,49,42,-25,-3,-43,40,31,-66,-65,36,17,36,57,34,-8,-23,-61,52,91,-84,-88,46,-3,26,26,52,-1,-36,-69,42,92,-85,-113,80,-18,12,14,66,18,-20,-61,34,127,-88,-90,93,-4,-18,47,100,77,-28,108,-44,-127,62,-114,20,1,8,54,38,83,-26,124,-55,-106,76,-50,32,-11,24,58,28,73,-37,102,-32,-64,83,-16,47,-14,6,76,32,48,-32,97,-26,-61,62,20,93,-5,-16,15,77,75,-24,66,29,-93,107,80,84,-16,6,49,25,16,51,0,33,-91,-27,-82,82,-11,9,71,21,48,79,17,70,-43,-13,-91,127,-12,13,63,27,59,41,46,89,-37,-18,-117,118,-7,18,29,25,23,21,47,44,-63,1,-89,32,-5,11,4,67,35,48,39,64,-61,-4,-97,-18,-32,65,18,41,-34,28,23,127,-57,-8,-50,-18,-15,33,10,34,-11,26,47,101,-40,-9,-11,47,-21,9,26,43,-44,3,52,42,-14,16,-24,53,-29,-14,47,58,-20,35,66,3,-41,41,22,31,-15,-21,57,58,-1,31,13,7,-64,37,11,-2,-41,5,-14,36,-2,33,23,-6,-63,-2,-39,-1,-1,24,-21,50,28,25,10,15,-127,-2,-61,26,13,33,-1,56,42,29,22,-2,-121,-20,-49,82,2,40,5,45,5,21,4,-17,-61,29,-23,93,-31,57,17,47,-4,45,-40,-13,-15,41,31,62,-14,58,42,23,-27,67,46,111,-40,83,27,53,-3,26,-2,14,21,44,42,86,-47,91,80,28,5,-25,-35,84,61,54,44,41,-44,24,89,16,33,-20,-16,83,7,67,-35,-42,-42,-80,63,13,30,30,4,107,-44,124,-43,8,-17,-127,38,54,-34,-47,-95,-25,5,24,10,27,-113,3,-30,69,-8,-33,-79,-46,6,47,40,1,-26,-22,-50,20,15,56,28,0,-39,11,-26,38,-34,-41,36,-9,-30,51,127,124,63,53,-21,68,45,42,54,25,29,-7,5,44,77,60,46,22,-8,44,76,2,-10,0,9,-31,27,106,37,31,-70,127,-40,6,7,12,20,-21,-8,87,30,27,-45,104,-28,28,0,9,2,4,26,35,10,0,-39,59,0,36,-27,3,8,-6,53,38,43,15,-4,38,2,-35,-44,17,37,17,49,60,64,30,-11,10,30,-4,-20,32,49,57,30,9,-16,-39,-22,115,-48,68,-29,23,45,23,53,-9,-78,-34,-6,117,-37,19,-15,8,26,-5,45,-18,-74,-11,-17,113,-48,9,-7,9,31,29,42,-24,-74,-14,-7,65,-53,-2,-14,4,1,82,32,5,-83,-16,24,127,-28,16,-28,27,15,24,8,95,-23,68,-23,45,-63,-3,8,11,24,69,-15,62,-46,57,-59,-10,-121,31,12,7,23,55,53,99,-38,36,-47,-26,-127,12,15,-44,22,39,98,103,-2,-13,2,6,-50,15,-23,-102,-51,106,93,61,7,51,2,30,59,27,49,20,-2,87,-30,4,13,-73,17,-34,25,42,16,32,-16,70,-5,47,36,-79,1,-6,11,27,11,20,2,34,8,52,18,-81,-49,17,34,43,3,14,28,22,-17,43,-23,-92,-35,17,56,79,7,25,36,-6,-34,19,-54,-100,-43,10,53,127,10,-33,-35,6,19,29,-19,9,-15,-87,-14,59,14,-10,2,12,-22,10,-10,16,19,-54,-35,-29,-17,30,43,91,44,-34,-10,10,-30,36,-31,-45,-2,21,10,26,8,65,53,-4,-52,90,-1,34,14,-12,-14,-32,-55,5,25,-16,-30,39,41,127,-56,-22,-37,63,-30,91,0,69,-40,97,-77,30,-2,-3,2,-4,23,48,8,13,-29,78,-97,-24,25,35,53,-7,-5,6,55,62,-40,37,-91,-4,-16,13,29,35,-1,46,-23,70,-60,42,-48,84,-52,-6,18,121,127,93,-68,48,-83,62,-48,87,-20,4,51,32,62,12,12,127,9,30,23,25,3,-23,49,21,52,11,-16,99,3,20,53,43,-3,-25,24,-3,43,-6,-3,80,0,6,19,41,-12,-5,-5,-19,16,0,-25,17,-35,-18,18,65,-44,16,-26,-6,4,41,-28,58,-49,-15,-26,54,10,7,10,74,32,-2,-4,-23,-45,-36,-74,-4,-18,3,49,52,47,29,-8,51,6,19,-67,-12,-25,23,56,48,26,34,11,61,14,52,-55,24,-6,4,42,46,19,75,29,91,-20,6,-73,26,-15,10,24,40,16,49,30,127,-24,-6,-91,-4,1,-45,-12,-2,127,76,61,-6,-105,-45,47,23,-2,-9,-1,-22,23,7,84,39,-29,-24,37,21,-4,-26,48,28,29,66,28,71,-14,-28,-23,6,-34,14,-6,64,34,83,-17,111,-57,-55,-49,5,-49,48,-17,97,10,105,-61,90,-36,28,-53,43,-57,10,9,110,16,57,-21,79,-68,105,43,4,-11,2,5,44,-7,9,-59,1,-57,82,-9,-28,-10,3,15,9,-20,62,-4,23,-70,68,-9,17,-20,-10,15,0,-35,84,42,24,-106,90,-24,10,-34,-46,45,61,4,88,9,65,-104,127,34,-10,-46,50,57,68,10,42,-16,93,-58,80,-42,39,-11,44,-5,39,14,45,37,37,-82,56,9,36,7,42,-21,13,40,13,31,5,-42,20,70,12,12,14,-23,1,-15,72,57,-8,3,-62,72,30,1,2,-40,-25,-38,127,56,8,31,-120,59,79,-7,20,49,97,15,51,-25,-88,10,4,27,57,0,24,44,50,38,77,-28,-60,-12,39,58,22,5,17,17,38,28,62,-57,-48,-36,52,12,19,11,25,1,34,21,57,-36,-21,-57,97,13,48,14,-4,19,79,10,64,-53,-17,-94,127,9,49,58,40,-53,-25,61,127,12,21,49,102,69,76,32,24,6,3,49,79,48,36,-1,85,62,61,19,0,-10,2,56,70,26,42,-67,72,65,44,32,-5,-11,-4,28,83,-47,44,-96,73,50,42,60,-10,-9,-45,-14,85,-12,67,-68,111,59,20,-2,-8,-31,-74,-16,17,21,-44,-49,-36,-45,59,4,29,-41,-81,-53,27,23,-13,-15,-9,-43,-40,4,23,34,20,-15,-4,-38,29,16,49,52,10,-52,-39,13,127,38,45,31,69,4,66,72,11,4,10,50,4,-5,5,0,-26,-27,-12,50,40,-34,9,-12,46,5,69,22,2,-12,10,25,81,-2,9,-2,40,-20,33,44,44,24,22,18,-15,15,21,-11,18,-24,8,59,118,67,34,50,-32,14,7,-19,16,-20,43,46,107,82,-1,63,-31,-5,-10,-3,25,0,76,-19,127,75,30,69,-22,12,20,99,-69,45,24,73,2,-40,78,91,28,22,24,103,-36,63,11,119,15,-74,104,89,54,-6,62,74,7,39,19,81,58,-58,127,19,32,-25,10,-20,63,39,10,39,65,-43,8,-75,59,9,-66,-110,77,4,-8,-60,25,-5,50,-89,-38,-10,43,8,68,15,50,-73,50,4,-39,-41,54,-4,26,-4,23,38,14,-94,52,15,-25,-62,63,-1,11,-13,-1,49,5,-126,82,18,-23,-66,85,14,16,-11,18,49,2,-127,73,26,-21,-35,61,16,16,-15,45,28,7,-124,68,21,6,7,63,25,-20,59,70,-33,16,-18,-40,59,-44,19,-60,23,0,46,43,13,6,-48,30,37,-77,12,-40,16,-28,5,-67,48,34,-20,76,-61,-74,-35,51,-29,-38,-14,-100,55,92,25,102,-58,25,-64,127,-26,-21,39,-32,2,83,-13,112,-39,82,-43,48,-5,33,17,16,24,98,-31,15,-15,-48,-39,49,3,44,22,58,-11,76,-22,39,-10,-13,-39,47,-25,-16,52,43,-19,78,12,0,-57,-34,-23,29,-20,-44,53,51,-16,35,15,9,-87,11,-13,1,-17,17,-14,29,30,14,18,55,-127,9,-80,-59,-52,-1,-18,-10,41,127,89,69,-35,72,-5,-55,-29,-14,-4,6,26,87,70,75,15,66,13,-49,-35,-21,-24,20,39,38,31,12,30,9,-11,-85,-27,-11,0,30,58,12,37,-1,22,74,-6,-114,-3,40,39,33,36,57,13,16,5,114,12,-109,-65,-8,-19,57,14,88,48,79,-29,10,37,70,-48,38,-47,55,-3,57,-13,41,42,-31,-23,57,-19,12,-45,28,10,117,-16,66,48,-55,-36,56,-15,13,-11,18,21,127,7,51,63,-49,-44,3,-16,29,33,71,11,111,26,-6,38,-52,-15,-6,-74,25,127,-48,40,28,30,82,26,-40,36,-24,-12,16,94,-35,3,-18,49,125,33,-41,11,-8,-12,-7,42,-2,21,6,-3,96,5,15,22,-40,8,-27,-24,35,-19,0,-65,65,0,23,-20,-42,22,-58,-24,52,-12,35,-60,26,-35,87,22,18,27,-68,39,-8,67,99,-53,20,18,10,-27,-56,32,-40,38,-24,56,64,-66,31,-42,-18,11,-34,7,-45,26,-33,20,61,-50,56,-97,-26,21,-17,-5,-30,16,-33,16,72,-54,76,-125,-21,5,-13,-25,-51,47,-29,77,18,-57,88,-127,-2,-21,26,2,-32,-15,1,-33,-14,-17,40,-21,83,53,33,7,-9,73,-19,34,-11,47,17,-64,127,21,68,10,25,122,-28,84,-25,86,28,-76,97,41,49,-9,55,111,-38,70,-27,45,63,-53,123,76,59,8,48,80,-52,49,7,32,93,-57,38,16,74,17,-30,20,95,32,25,42,-10,0,-60,26,-27,-24,-25,-9,34,33,21,68,53,-20,-46,85,11,-18,13,28,-28,-5,-3,1,38,-61,35,-41,18,5,44,52,-57,30,25,1,0,-103,78,-107,48,17,24,40,-21,21,53,-7,-19,-61,39,-127,47,-40,-5,16,22,5,58,28,122,-68,31,-19,47,2,12,29,47,14,64,26,50,-89,46,-51,20,-15,18,33,54,42,34,68,41,-85,67,-51,39,-9,-7,1,25,32,39,-27,67,-58,58,-80,53,-13,-18,10,19,77,127,-48,41,-14,48,-104,26,48,-12,2,-118,2,-65,51,54,9,6,-38,65,13,29,-7,-92,-62,-36,55,29,60,29,-41,-5,-9,42,30,9,-72,-29,-25,23,27,96,27,-65,-79,-43,-12,127,17,30,1,41,48,77,71,11,-82,-8,30,88,18,59,-22,30,23,-23,19,34,-24,71,11,25,62,41,-127,89,96,-55,-87,41,-6,66,7,8,30,31,-23,60,64,-71,-64,73,8,91,-24,-31,25,66,-11,59,37,-99,-77,77,1,90,-10,-36,28,98,-77,34,37,-51,-89,65,6,77,26,-39,31,117,-44,21,41,-5,-120,95,-12,-16,28,9,10,86,1,31,8,99,-33,10,-8,-38,0,5,57,72,5,16,-31,10,-61,83,1,-29,1,8,75,87,35,-2,-41,-26,-127,96,-4,-22,-4,23,45,72,44,17,-62,-57,-75,63,1,3,-18,35,-1,109,25,15,-57,-33,12,11,1,28,29,58,78,115,41,34,-79,-7,-76,-24,17,39,-12,24,27,97,47,12,-92,-7,-97,-53,21,51,-24,23,8,87,13,5,-71,1,-59,-27,26,56,45,16,13,95,4,26,-18,7,-49,-25,20,47,63,-4,22,127,-28,68,-18,23,-56,-41,8,36,-3,-18,10,74,5,10,-17,16,-63,-5,9,-17,0,5,28,57,14,-7,-27,30,-44,18,4,-29,11,20,27,44,14,45,-29,42,-4,38,-11,-24,10,20,10,42,19,68,-26,53,42,37,-10,2,13,10,-17,31,-22,127,-9,26,18,-20,-7,42,-41,1,74,19,-19,-1,-90,-33,-4,15,2,38,58,18,10,39,-54,-45,-10,11,-14,6,11,-65,58,28,-60,39,-42,99,41,58,7,69,-10,-63,59,67,-52,65,-88,93,-12,85,-19,77,15,-11,-47,0,2,23,-100,39,-105,78,-127,-39,22,4,45,20,-46,58,34,22,47,49,77,2,11,-24,23,4,6,52,50,46,70,27,80,-12,18,-22,6,3,24,55,72,45,72,-20,81,-50,21,-11,37,19,38,96,65,26,60,-27,62,-55,17,9,68,41,60,127,72,3,40,-34,56,-11,25,41,-23,39,14,8,13,23,-32,61,-46,72,7,18,-38,1,30,19,-44,19,38,48,-75,73,10,9,-44,-38,40,13,-65,-3,73,64,-117,79,16,2,-35,-24,31,28,-37,36,85,57,-127,38,15,-2,-16,38,26,8,-38,58,33,37,-113,37,-7,-2,33,53,69,55,35,84,-40,-15,-48,73,9,-14,39,40,10,32,60,39,-25,-6,-100,57,-5,-34,69,22,-4,34,71,19,-40,-7,-127,73,-7,-3,30,16,-5,45,25,20,-57,-4,-77,55,-4,26,-64,21,66,55,-62,50,-66,5,-37,13,11,31,23,-33,-43,-5,-60,-4,51,127,13,1,-9,0,-1,-26,-33,34,8,-4,77,115,-30,1,0,3,0,-3,24,39,72,-31,63,45,-51,-8,-8,-6,-23,52,40,35,56,-15,96,-30,-50,-5,-1,-27,-23,68,13,19,-21,-3,113,-64,-59,3,-35,8,7,49,-9,57,13,100,-94,83,-34,51,-27,9,22,30,-28,16,-33,23,-77,32,-32,72,-31,-12,25,6,2,31,7,46,-69,64,-22,50,-23,6,52,33,-27,73,14,44,-42,41,-47,48,-35,-28,58,41,-3,102,34,63,-127,87,-71,6,-43,-12,38,-8,11,71,3,92,-127,45,42,74,13,7,54,4,-48,21,3,30,-94,6,9,19,8,27,15,44,13,17,-16,-13,-20,-40,-5,-28,-21,20,-21,66,57,20,-4,18,42,-9,-17,-3,-44,-4,-30,34,28,106,37,18,42,12,-82,43,14,10,-27,89,-49,66,12,13,-12,32,41,-42,1,-7,8,115,-48,104,9,17,-4,-41,30,-39,-27,-4,14,100,-40,116,23,-34,-19,-50,37,-50,-36,9,38,47,-27,127,43,-10,-24,-45,0,-57,-42,34,11,42,31,93,61,7,-19,13,35,13,-46,10,-10,1,-34,54,-12,58,-33,27,-46,-4,-12,8,-38,9,4,57,47,48,-92,13,-72,-22,3,24,-37,3,18,46,44,46,-78,-27,-85,45,16,23,-37,9,41,94,26,64,-47,-7,-63,97,20,17,-12,19,40,127,22,85,-13,35,-70,100,-35,-42,-27,-1,-17,22,-14,7,51,-24,57,38,-9,-29,-27,-21,-9,86,19,43,18,-35,21,72,14,1,59,-43,-4,96,27,45,-23,9,-37,74,24,40,108,-37,-8,30,41,49,-57,75,-78,68,4,60,74,-14,-15,20,34,39,-72,84,-22,127,-46,14,0,38,32,54,20,-18,-50,-31,-71,127,-14,17,14,12,25,28,94,-18,-61,-67,-73,74,-20,1,-2,55,42,-2,59,1,-40,-23,-99,20,-20,-14,25,58,27,-2,47,-5,16,-48,-93,70,-19,-63,-1,30,8,47,71,54,46,-54,-91,122,-6,10,29,4,33,28,-63,30,-48,-11,-89,-36,-3,9,36,4,42,14,-63,43,-59,13,-67,-37,-28,-22,82,-7,27,41,-46,43,-20,38,-67,-48,-38,-55,107,31,2,35,-20,95,-28,71,-58,-38,11,-18,63,36,14,7,-52,127,-63,16,-86,-25,-18,24,58,45,-48,60,-28,-67,-90,-101,90,6,9,7,41,48,-39,64,-11,-68,-123,-84,43,-25,-23,-5,38,19,-52,39,-13,-47,-127,-62,5,-5,-41,-43,-3,-53,-57,60,-6,-59,-81,-4,-75,39,-35,-56,-16,-56,-15,52,35,-61,30,-2,-122,73,-10,-13,-5,19,37,10,36,-32,-94,-6,-33,14,-1,17,2,0,38,13,45,-30,-53,24,-50,13,8,12,20,3,30,44,16,-34,-17,3,-55,42,8,12,-9,8,-5,52,-47,-2,-13,31,12,37,-10,-3,25,22,-10,127,-90,13,-17,79,17,53,-36,-2,40,69,24,3,20,-22,-59,99,-11,59,-31,-3,79,75,22,-14,-3,-25,-27,66,-19,-6,-28,16,47,49,-2,2,-19,-9,0,127,-18,-7,-18,32,30,28,11,7,-7,7,1,93,-56,-31,-13,40,24,65,25,17,-45,30,2,108,-34,-23,4,8,-31,20,59,125,35,-1,-13,-6,41,102,9,38,-6,-7,15,99,63,-12,-24,-25,-7,45,9,40,-13,-10,-6,69,43,16,-16,-24,8,34,15,38,-16,2,15,82,41,11,-13,-40,20,47,11,30,-43,-7,23,121,62,12,-15,-28,80,127,-18,-11,1,-1,41,76,-31,113,-63,77,47,64,-3,9,-5,0,5,90,-41,93,-85,52,17,6,-1,34,-10,-13,-11,127,-71,61,-82,48,22,-29,9,24,-2,-22,-8,89,-80,20,-80,59,3,-36,8,9,-8,-12,-28,67,-96,-55,-42,82,13,-55,-98,53,127,19,38,10,22,100,11,45,2,37,-54,43,117,-10,12,-28,10,107,41,-20,-31,5,2,-13,29,5,48,33,-40,41,-16,-5,10,-19,11,12,-39,40,34,43,-70,12,-48,-23,21,-9,6,5,52,17,18,52,-55,37,-14,-10,24,60,14,-3,28,-30,-52,38,-41,-13,-30,55,35,-4,26,3,77,-31,-7,53,-2,-9,-63,54,28,1,21,22,79,-3,10,23,7,16,-99,102,44,0,4,22,50,22,55,-5,39,37,-101,127,32,23,-8,23,-2,28,68,2,79,47,-86,101,-5,20,-25,-13,41,-21,68,127,-14,38,-1,-23,30,-45,5,-28,64,42,24,72,0,21,-7,43,39,-27,11,-24,76,63,-45,55,-7,26,28,73,79,-48,3,-21,64,105,-41,33,3,44,30,52,67,-77,-11,-4,32,125,-34,10,-4,88,24,80,61,-32,-24,-48,75,63,34,11,-57,33,62,-119,71,-99,-1,-60,97,67,7,-15,-48,15,40,-47,103,-42,3,-54,127,43,-26,-26,-2,29,21,-49,108,-18,-22,-26,114,56,-20,-35,27,28,-2,18,113,26,-35,10,43,-5,-23,-21,66,48,-9,58,106,11,6,37,34,25,127,42,7,-35,24,-75,-65,-74,-19,16,70,12,123,6,-48,-41,24,-68,-14,-26,-43,-3,56,16,104,15,-26,-39,23,-54,-38,-50,-50,3,51,4,102,34,-4,-35,17,-40,-40,-41,-21,11,31,-7,91,65,-4,-40,-37,-35,-29,-32,7,20,-20,8,-13,97,-17,120,25,20,15,30,5,11,-14,3,10,92,-28,90,-2,12,33,7,-23,-4,-20,-11,20,90,-55,62,13,44,-23,-45,-44,-24,-20,-23,25,110,-55,57,-33,20,-5,-20,-68,-36,2,-13,25,121,-30,127,-22,-12,-10,7,-4,16,59,99,87,85,50,85,-66,-14,-91,2,12,43,33,54,83,47,27,77,-113,-19,-105,-46,16,45,12,74,65,15,27,70,-127,0,-117,-57,33,24,40,64,2,48,59,33,-123,11,-117,-79,36,42,40,26,-5,75,44,109,-70,22,-105,-69,-47,14,-14,94,9,124,-5,54,26,88,-13,5,-11,-5,9,76,-28,80,-19,56,47,113,27,48,12,-24,40,73,-47,79,-26,69,39,127,55,55,1,-30,43,106,-25,68,-12,45,26,116,51,15,16,16,59,30,41,35,50,48,-23,79,8,-42,41,-22,-4,44,-27,43,58,20,-83,65,-84,12,-58,30,87,58,-8,93,33,11,-96,24,-26,39,-127,62,73,42,27,7,11,17,11,-11,0,61,-66,-10,-44,26,53,4,-37,-24,-68,-26,18,44,34,-2,-84,45,59,88,-70,-32,-100,-30,30,-55,-19,-21,-4,120,43,85,-17,-78,-68,-12,57,56,-27,10,75,87,25,76,-62,-58,-18,51,40,12,-3,19,78,78,47,92,-63,-62,-54,79,-41,62,34,34,27,69,32,90,-88,-30,-127,81,-37,87,28,41,-62,115,47,90,-29,-7,-93,122,-23,67,-40,29,-21,38,-54,103,2,56,111,104,-39,-58,-6,42,-25,57,-24,114,11,18,101,117,-30,-55,18,43,10,36,25,90,42,-59,84,43,-24,-33,19,-42,-20,45,51,80,31,-127,114,-15,-119,-1,-19,-81,-76,97,-6,47,34,-70,75,21,-113,44,5,7,23,27,-54,66,61,27,-1,69,44,72,14,-13,3,-16,-11,75,63,40,23,49,41,-6,17,-32,-13,-19,-1,77,71,70,51,-16,53,-72,18,-33,31,24,0,103,11,13,52,-37,34,-46,15,-11,52,42,44,127,48,15,43,-52,65,11,-7,26,63,-1,30,76,-25,104,-68,46,-92,44,-20,5,49,37,98,14,-5,51,-30,58,-29,4,-30,22,-4,49,55,-27,31,-45,-53,71,1,30,20,21,-35,35,-27,39,65,-36,-9,-72,1,36,20,28,-62,39,-118,127,69,41,26,-124,-7,31,-43,32,17,0,-10,21,-23,-18,-107,-27,-27,89,-1,21,41,3,-13,20,-28,21,-67,-66,-22,27,43,17,67,36,-25,-7,-6,82,-20,-70,47,4,74,7,49,59,-20,1,-4,33,15,-112,113,34,57,-36,18,33,-9,41,-5,-13,86,-127,118,34,-17,56,-1,11,5,75,56,-2,29,-40,-19,64,-3,69,-20,19,-9,84,29,-49,22,-54,-39,40,15,58,-14,16,-6,82,14,-48,14,-26,-41,64,19,40,-14,31,20,77,-4,-2,5,-12,-25,84,-8,12,-37,33,34,80,17,27,-4,15,28,127,-14,-18,10,-32,90,64,-21,98,-55,26,0,9,20,-4,15,-42,27,42,42,127,-57,-4,-5,-5,4,28,39,-32,21,45,55,78,-22,-51,-15,-6,-29,11,24,-5,6,81,39,48,-13,-58,21,-15,-37,-27,-19,29,9,49,18,19,-11,7,37,41,18,48,25,63,-23,4,47,-16,11,-65,56,-46,-10,26,3,8,-7,70,25,0,-21,37,-38,2,-9,-13,-12,-37,-2,127,-51,-23,-20,43,-81,113,-33,-43,-23,-40,-12,93,-34,22,10,25,-84,91,7,-52,-23,25,-9,-4,-34,43,19,4,-43,24,20,27,-12,96,-28,43,24,127,-60,13,-43,112,46,24,-27,58,-39,29,1,101,-64,28,-63,70,41,-2,-5,60,-28,26,-21,91,-52,8,-80,47,3,2,-2,65,-30,24,-11,49,-24,17,-86,30,-32,31,-7,101,-26,59,20,51,30,91,-95,32,13,-48,-34,122,36,74,-24,59,61,97,45,79,32,-26,-74,68,9,73,-108,92,52,105,56,21,32,3,-56,22,-20,79,-127,62,28,124,27,-26,9,1,-14,42,-33,70,-104,39,5,95,-18,-40,-11,-12,49,44,-14,27,-71,39,-53,76,-81,-89,2,-14,-35,-17,69,73,1,-23,-70,19,-28,-5,7,16,-6,-12,56,12,30,46,-49,11,20,32,8,-24,62,-1,7,68,28,31,3,25,-17,16,-8,-30,39,47,-13,55,-9,78,-37,29,-30,27,-10,28,-28,67,-60,66,-63,127,-38,35,-36,-4,13,-10,18,71,26,30,48,20,42,63,55,-46,-11,-28,-8,37,29,13,42,41,46,76,32,-15,-24,-16,-30,-11,11,-5,48,23,35,96,43,-17,-32,1,-19,52,1,22,48,22,38,127,52,-4,-20,7,-5,54,-14,31,44,-22,15,56,14,-23,-19,34,4,50,-77,25,-105,111,26,-88,-70,53,12,26,48,60,-44,2,-78,72,2,-82,-61,75,25,43,83,50,-16,-21,-26,24,25,-86,-109,81,28,29,45,51,-14,-57,-2,20,48,-116,-112,95,17,5,40,90,-21,-47,-52,17,113,-127,-50,122,4,76,-6,22,3,-20,22,100,-1,31,-45,1,-52,13,-11,37,-1,80,24,57,-25,-2,21,13,-13,-3,-27,52,-2,110,13,7,-3,-13,15,-36,13,-19,-13,59,-33,127,12,14,13,-43,13,-81,16,-14,-7,34,-39,112,-49,51,40,-61,-10,-56,-1,45,-59,-24,-51,99,3,29,31,-57,-37,88,-2,43,-35,-17,8,49,-9,113,49,18,-30,62,-38,-37,20,10,77,26,-40,127,-12,46,-3,85,-29,-61,56,55,101,20,-59,57,-20,47,27,83,-10,-24,70,45,96,-34,-64,-17,20,60,5,57,0,-82,79,83,-30,19,-65,7,-7,-55,29,-2,5,-70,90,86,-70,-14,-68,13,15,-29,27,-17,2,-60,127,92,-80,-36,-64,-6,6,-4,10,-20,-7,-54,125,79,-64,-37,-27,10,-29,-7,16,-26,-27,-14,82,31,-81,-23,-51,40,-10,-44,21,-32,1,3,-36,30,41,27,-71,55,34,42,-46,14,8,-10,-33,87,50,23,-32,93,20,25,-56,32,4,-32,-20,120,19,46,18,127,-3,1,-38,52,0,-53,-3,102,-14,46,1,92,-6,36,-26,40,0,-34,-13,0,-24,24,-48,110,-6,37,-41,-3,0,2,38,1,33,71,-26,13,-92,41,-41,-10,-8,17,17,-19,53,26,-31,22,-102,43,-68,9,-6,18,-5,-16,48,16,-21,27,-127,46,-68,18,13,24,15,-4,35,23,-16,25,-124,24,-67,-3,20,11,54,23,46,29,-6,33,-81,11,-79,-1,-28,-9,26,36,56,56,-8,121,-14,45,29,58,-9,10,42,24,36,43,14,127,-16,44,-21,3,11,25,46,54,57,60,15,113,-18,59,-39,9,5,28,38,54,57,99,6,67,-11,58,-38,38,3,28,12,51,23,81,58,58,-15,109,5,99,-7,-37,58,32,-11,77,14,28,17,-33,29,68,4,-62,18,47,-47,106,26,50,12,-15,19,61,2,-64,-17,62,-42,127,7,29,16,7,-26,45,2,-39,-7,49,1,121,-2,12,0,-9,-46,19,1,19,16,-14,30,49,44,24,-31,-28,-33,33,-12,-28,3,17,-45,124,-5,92,20,50,5,59,-18,-36,-21,3,-37,125,-22,72,2,30,-10,29,-23,-49,-38,5,-43,127,-11,78,-13,54,-48,14,-29,-14,-38,35,-10,87,12,72,1,81,-42,35,-39,-12,1,61,5,67,13,104,7,68,-48,0,-10,4,11,123,-41,54,-22,49,12,41,-7,7,-57,44,0,127,7,89,-48,52,32,47,-25,42,-21,19,-8,-1,4,107,20,9,10,-25,-4,67,29,-18,0,-66,-14,51,59,-11,21,-50,23,52,70,4,30,-90,29,-18,90,11,0,-75,-2,52,-5,13,4,81,16,20,25,15,7,-61,16,-42,-41,15,-15,127,94,37,-5,-5,36,-58,13,-7,-27,15,9,73,63,53,-27,-27,-13,-58,-3,-6,8,-2,43,-21,-18,94,-53,-19,-48,-27,-9,-25,37,14,34,-59,-36,89,-18,-40,-58,-28,-42,-24,-24,73,-17,2,-6,29,-35,77,127,34,35,21,-26,23,-29,12,-71,81,-67,-51,37,29,-35,-54,-21,-37,5,96,-32,86,19,-29,-48,36,28,1,4,-14,0,76,43,12,71,13,-78,24,-41,32,3,-3,58,32,107,57,110,-2,-31,-28,8,68,29,-34,-51,-42,-55,66,44,8,-35,-4,7,86,10,-22,-68,-12,-4,58,30,31,-5,-32,-61,-23,-5,12,-56,-31,-44,37,50,39,35,27,-49,-22,-17,57,88,43,10,-28,-36,-8,-17,27,-8,5,-26,0,97,103,54,27,-68,6,-11,102,13,127,-79,27,-60,94,10,127,23,86,-10,15,-6,41,-73,45,-44,84,35,70,-14,10,66,12,-69,30,-7,2,-16,-20,26,107,40,20,38,-82,-65,63,-8,6,3,16,32,119,12,32,9,-38,-27,27,-1,17,24,84,11,118,37,-23,-5,-14,-44,-9,5,28,-28,-28,56,53,-71,127,-74,-28,51,18,26,22,-25,2,22,17,11,82,2,6,15,57,-33,6,47,-3,-56,50,50,-16,57,44,-31,26,-29,-24,39,37,-71,42,60,-30,-96,-28,-45,7,4,5,10,-5,50,31,14,-45,-122,4,-49,0,1,-37,-80,3,-40,18,-87,11,-32,-21,-8,-22,2,-9,-3,0,-11,70,-125,-31,-81,-26,-17,-34,-7,0,73,71,25,25,-8,23,-51,9,-57,72,-22,25,82,82,14,10,98,53,9,51,-65,27,-9,44,56,34,46,65,71,127,3,0,31,-15,-4,7,5,-5,-4,21,-70,54,-55,6,28,8,50,-19,27,7,15,39,-97,58,-61,-74,45,-28,18,-38,31,7,-8,8,4,6,2,53,42,-25,-30,-11,-2,-13,-20,32,42,-26,56,127,-37,29,-29,38,-39,-10,-5,20,-17,2,64,-12,-36,22,-3,-8,-10,52,-33,101,47,37,5,13,33,-36,0,-13,-15,71,-24,73,89,30,-15,-10,39,-45,9,9,-16,97,-14,113,44,2,1,-33,32,-55,-18,11,28,49,-32,127,-4,-3,-10,-18,-5,-75,-58,39,40,69,67,100,10,-16,-17,16,20,-10,-25,62,37,43,-39,-15,-59,-32,-52,-25,-37,40,-11,-13,38,32,-2,19,-37,-37,-33,10,-75,54,-36,-40,34,-6,4,33,-43,-26,-50,52,-91,79,-60,-40,8,-33,-5,48,-41,-1,-63,54,-117,115,-94,-18,20,-18,10,25,-101,-13,-77,11,-127,112,-12,1,127,21,20,26,-20,-35,1,-37,18,16,0,-15,108,29,6,-5,-32,-24,3,-16,-4,21,12,-17,75,39,1,-7,-19,-13,-29,9,-12,5,12,-10,54,50,-6,-11,-20,20,-32,21,-32,11,16,17,43,6,-54,-16,-6,57,-26,63,-22,6,-19,-15,-48,51,82,84,-4,31,-8,21,-33,127,-43,18,8,48,-33,15,13,10,-85,20,-70,45,-60,9,9,27,-17,14,-6,58,-76,-12,-51,37,-59,-14,-6,20,-33,25,-59,93,-19,24,-30,14,-44,-3,-75,-25,5,99,0,96,11,64,59,107,-3,13,-24,110,25,25,32,85,-70,15,13,54,-16,22,-11,92,33,31,9,76,-53,31,9,-9,-18,22,-17,-8,10,65,-58,42,-72,56,16,20,11,2,2,-70,18,88,-79,20,-32,127,-7,-47,-7,-11,23,-63,-10,84,-45,0,-4,97,1,-25,15,62,67,-18,-18,25,-77,-43,-17,30,7,94,-4,27,119,15,-11,58,-4,-25,1,-19,33,117,-61,13,127,49,8,34,2,-36,-56,-48,53,27,-37,8,17,40,-13,37,35,3,-25,-85,23,8,-28,-17,-50,73,-33,29,57,65,-1,-16,-5,38,-32,-1,38,64,-2,90,41,65,-20,87,-60,-37,-19,-22,19,27,21,98,26,83,14,6,-56,-7,-35,-17,15,19,30,73,69,39,12,-35,-127,-26,-43,-20,27,25,45,84,121,38,-16,-55,-81,-30,-14,14,19,60,65,123,86,71,-19,-51,-104,-32,10,58,72,61,-24,28,-41,-18,-20,-110,33,-59,0,-15,43,35,6,62,18,-4,-9,-86,-2,-11,-23,-43,31,-28,-11,65,23,20,-25,-3,-91,82,-58,-45,-20,-64,3,81,-62,26,-65,67,-87,83,-56,-5,-55,-58,7,15,-118,58,-127,16,-110,41,-27,11,-34,12,-33,30,-16,52,-51,127,-48,47,-23,33,0,19,-53,24,-47,2,-24,106,-51,82,-16,30,16,22,-46,49,-35,-17,-11,87,-74,65,1,29,26,40,-23,55,-6,3,20,100,-76,65,-2,36,21,54,1,37,32,15,17,87,-65,54,-6,4,42,60,-50,61,43,127,-91,4,53,35,0,15,49,15,-69,31,36,87,-102,-54,46,78,10,-10,75,35,-53,14,8,25,-63,-45,29,77,8,-26,79,54,-52,39,12,-1,-22,35,10,84,-11,-16,84,108,-25,63,-18,17,-21,3,1,102,17,18,-28,12,-73,4,-1,65,-65,127,-91,64,-24,16,29,33,-12,28,7,89,-125,73,-19,46,-66,47,77,24,15,41,-33,121,-24,21,52,-13,-34,-5,44,-46,30,36,-98,79,-7,19,26,-57,5,-43,-41,-15,71,98,-96,23,-31,5,35,-24,31,31,-8,43,4,27,-45,40,49,-25,-56,50,10,23,-17,17,24,0,-76,89,51,-23,-81,88,1,11,2,-17,15,-4,-99,127,48,6,-77,114,-3,12,-2,-23,10,-8,-62,127,23,16,-61,74,9,14,12,8,1,-4,-66,126,-7,24,-47,40,22,25,11,12,-33,33,-2,9,-7,76,3,85,-5,3,3,-13,13,65,18,18,36,28,-46,47,-7,4,3,-16,69,52,10,42,56,-4,-78,81,-1,2,-23,-24,44,33,14,80,48,-27,-96,51,-1,-11,-33,-8,44,15,14,110,11,-18,-127,30,19,21,41,30,-3,15,-29,99,-13,36,17,45,-40,36,92,-18,-14,41,17,49,3,95,-55,56,-32,-23,50,2,-43,35,18,41,-63,25,28,58,4,-13,-50,-8,61,32,-42,-8,-127,-9,48,14,31,52,-56,-24,103,61,10,-4,-86,-67,48,19,-7,-31,-8,-12,12,72,-50,9,28,-47,50,127,12,-43,-9,31,-24,77,-67,28,10,-30,55,120,14,-30,-23,35,-26,84,-92,23,27,-33,17,108,14,-15,-16,28,-6,67,-78,21,-10,-57,-29,80,12,15,-24,26,36,54,-71,21,16,-43,-14,69,-10,61,71,67,21,127,-2,125,-37,-6,74,32,25,-61,71,47,38,63,37,94,8,-38,61,64,3,-44,8,13,10,-10,55,36,43,-17,-1,51,-17,15,-71,-34,-41,-19,13,16,34,47,-30,68,-5,66,-35,6,-54,-19,-54,32,17,51,-37,62,-58,19,119,22,12,47,2,81,-44,50,-19,-17,-111,-10,127,52,18,-44,5,86,48,25,8,-66,-41,-36,31,31,20,1,-32,61,-10,65,-4,-11,53,-2,-67,55,24,65,-64,-1,-7,24,3,15,25,-37,-15,73,16,87,-28,-23,-48,-19,91,110,-3,-24,17,56,66,89,-16,-10,-35,28,-78,57,5,-23,52,67,85,82,21,-19,-52,11,-86,63,-1,-1,17,44,80,84,3,-11,-49,-52,-86,64,-12,-4,-20,29,34,73,-11,-9,-14,-53,-61,37,-13,-6,-64,79,-19,127,-23,25,-11,-51,-20,-10,-1,-41,3,69,15,39,44,35,-72,58,44,3,-13,-21,10,17,19,12,20,-20,-47,50,44,-10,-18,19,6,7,52,-20,2,-21,-33,61,18,8,-6,36,23,11,33,-1,14,-17,-22,39,-45,-5,6,18,15,47,-26,31,60,-3,-57,14,-127,26,-61,-99,57,63,67,97,58,-59,14,-74,29,79,-19,-121,34,88,-30,97,77,-77,-44,-39,-9,-18,-21,-11,57,69,-96,110,84,-32,-92,-27,22,-100,-61,103,46,-25,-43,127,-36,32,-47,25,94,-89,-67,104,48,-26,11,79,-101,81,-81,-24,105,-120,-37,-23,19,52,35,67,-15,56,-40,47,14,113,-19,25,13,28,11,21,13,4,-60,-1,-24,37,-18,18,-6,30,19,55,28,-8,-52,-2,-56,9,-11,15,16,39,29,83,48,18,-22,-1,-31,32,-17,-6,-22,35,27,127,72,49,-14,21,14,122,3,48,33,82,5,127,13,96,-60,-6,30,63,21,-37,66,56,54,56,26,75,-6,-16,63,83,14,-21,34,10,4,-13,33,21,43,-14,-17,61,-12,11,-57,-23,-41,-32,25,16,64,16,-49,75,-7,42,-38,28,-48,-21,-24,54,59,30,-25,46,17,-67,29,28,-13,21,31,-1,-39,-26,17,79,-2,-12,51,67,-56,23,59,38,-22,-31,31,56,-10,32,9,45,-33,-8,10,99,-45,-29,37,53,0,59,12,-4,-21,-13,-18,127,-94,-34,4,47,-6,60,42,-14,-16,8,-37,107,-83,-41,-48,53,-12,2,50,76,-50,74,24,-51,-20,-100,62,5,1,23,53,58,-42,65,2,-39,-78,-85,57,-6,-13,8,32,4,-56,35,-24,-24,-79,-20,1,10,-26,-1,-11,-57,-59,74,-26,-40,-66,17,-54,23,-59,-47,-62,-49,3,90,-8,-34,15,-12,-127,-7,-49,-20,44,46,-38,39,75,-36,-41,-11,-13,67,-41,-1,15,17,-34,46,-2,-61,-117,-3,-13,54,-21,32,10,6,38,69,-37,-39,-109,-20,-51,64,16,31,9,4,31,62,-54,-28,-104,43,-33,103,19,6,-38,-8,72,104,-69,9,-37,127,35,103,8,28,-40,10,41,12,26,42,28,55,33,106,0,36,-29,9,49,33,20,17,0,81,36,79,-3,35,-38,10,51,45,-17,37,15,97,18,78,8,22,-33,-7,48,51,-31,30,10,101,9,80,25,-1,-30,-12,60,49,-72,16,46,127,8,62,-32,-11,28,-18,58,22,-16,68,-12,71,91,31,2,-3,54,-34,82,31,10,90,-38,95,56,21,8,0,37,-30,91,34,17,90,-80,103,27,44,2,18,25,-22,94,36,77,88,-64,88,7,5,-26,56,9,-8,78,57,127,84,-52,86,-15,51,-83,13,-56,46,17,51,-79,36,-12,62,-59,-9,-38,4,0,23,20,38,-61,-7,-16,49,-109,-60,-6,42,53,30,7,11,-80,42,-15,19,-79,-65,6,35,27,38,14,24,-28,82,-58,7,-83,-8,-22,-12,-37,108,39,62,25,59,-127,-21,-93,-13,4,40,60,15,-61,58,29,17,-110,70,-52,-35,-20,38,42,11,5,81,-12,24,-116,15,-42,4,-17,29,19,-4,-4,76,-55,30,-120,16,-52,32,7,35,47,24,-37,60,-83,21,-127,4,-55,-22,24,26,80,80,-34,76,-86,42,-90,-23,-83,-57,10,42,30,-1,-32,35,-30,93,52,125,55,18,18,2,-7,-1,7,58,24,71,32,12,-2,27,-4,-3,-4,32,39,50,70,39,17,-55,-14,61,-25,-11,-14,45,5,44,111,54,-83,-33,-52,51,-18,-9,-32,36,29,36,80,127,-105,-17,-60,43,-15,45,-22,20,43,37,8,78,83,80,6,0,3,13,-28,63,6,28,45,15,81,-17,62,-1,25,8,-39,99,-13,103,82,31,35,-92,46,-39,24,-8,-19,105,-26,126,-9,33,28,-93,53,-51,28,13,42,127,0,114,-116,-17,-12,-60,48,-23,53,-17,4,71,-3,24,11,-102,-33,-59,28,36,37,18,-16,25,10,90,38,-113,10,-44,-24,38,16,30,22,0,14,92,3,-70,-14,9,-33,30,7,31,57,13,-23,66,-58,-3,-47,35,40,75,4,10,24,-6,-19,19,-64,15,-89,34,62,127,7,0,0,43,56,48,17,-6,-45,-44,-84,23,-12,28,11,22,21,-28,30,40,-21,-12,-8,22,-60,62,64,-20,13,87,-75,48,-24,18,8,34,-12,-28,89,85,-6,127,-35,77,-81,97,40,31,34,-26,13,-3,96,24,-84,124,-85,-104,-54,-110,-19,-13,-32,17,-52,-30,-34,56,-19,73,-55,55,20,13,22,-33,-81,12,-97,53,-81,18,-30,24,34,36,65,11,-29,5,-36,10,-38,-14,-34,1,-14,-3,16,74,56,119,48,-18,6,8,52,40,-25,12,-24,75,103,127,58,5,-1,-18,58,22,-41,27,117,36,-58,85,52,3,-62,-1,11,-58,-57,54,96,23,-55,23,-39,-17,-24,28,33,-61,-40,38,90,20,-78,-6,-114,33,6,24,10,-7,-15,15,127,26,-72,10,-81,-21,-28,23,2,-33,13,-40,108,11,-38,16,-78,9,-26,-53,-17,-85,-13,-19,32,42,-27,-7,-15,-43,-127,-18,7,-39,-14,-21,10,37,-30,16,-29,-30,-125,-9,-48,-59,-25,-37,15,-6,-47,40,-39,-30,-106,-2,-52,9,-45,-53,6,-33,-52,58,-13,-37,-50,17,-63,34,-17,-64,-13,-29,-28,56,40,-43,-2,33,-81,14,-21,-7,28,-53,0,70,-1,11,-21,-19,12,61,-14,-12,57,27,28,39,-29,5,2,-20,10,41,-7,6,51,93,31,35,3,-13,-6,-23,39,14,-10,36,38,44,-20,13,8,-33,-96,-25,71,40,3,53,39,-19,-49,-12,-34,-53,-127,-17,59,87,46,62,38,15,12,43,46,57,-13,53,4,-17,32,38,33,22,4,41,21,15,-33,49,19,-19,23,28,30,21,-7,38,3,16,-40,41,45,-26,22,23,26,17,-5,44,-5,19,-88,26,35,-36,44,12,10,-11,3,16,9,41,-127,67,18,-68,11,28,-19,17,27,69,-40,124,8,20,7,22,-4,22,-22,9,6,82,-52,69,-3,3,5,-26,-23,-3,-23,-11,-4,74,-63,82,-4,19,-1,-60,-47,-23,-4,-16,15,84,-80,82,-35,0,14,-47,-48,-46,18,-26,13,76,-35,127,6,-34,10,27,-86,51,127,-8,-7,-4,45,10,-18,-20,-12,36,-45,8,93,-21,-4,-35,2,93,-3,-58,-18,-8,-33,-17,29,9,-5,-9,-21,75,-25,-17,-1,-33,22,-42,-10,29,-20,-5,-54,58,-35,-7,38,-25,11,-40,35,41,-40,20,-60,14,-92,1,58,45,-9,17,34,44,-25,21,-61,122,-39,-54,9,91,-16,41,10,33,-26,0,-65,127,-36,6,23,121,8,29,-24,25,36,-21,-127,107,-53,-55,-33,91,31,27,-24,23,51,-23,-123,113,-3,-55,-43,22,29,2,-5,66,34,15,-93,102,25,-12,-19,32,0,-14,24,82,71,27,1,58,9,20,-74,-5,10,-39,20,80,92,12,42,85,-34,14,-33,34,12,-42,18,48,66,24,50,127,-17,25,-18,57,11,-16,3,-2,28,5,-9,68,-10,49,-3,54,5,7,-18,-14,31,4,-21,126,-19,30,17,13,-15,23,-45,89,104,99,5,76,-9,-16,-39,39,-6,22,8,69,52,91,-6,29,-32,-20,-94,13,-8,9,29,61,17,81,-23,64,-5,11,-55,17,-10,-6,34,65,-27,66,-25,83,-85,-9,-75,0,-7,-10,3,31,11,35,-23,107,-127,34,-63,-49,25,42,72,6,-41,28,-6,8,-83,-101,127,5,15,14,77,44,-34,43,34,1,-58,-92,113,13,-8,-35,57,37,-3,13,53,24,0,-91,67,45,0,-29,28,-1,-12,-7,80,6,-9,-91,35,56,12,10,28,-18,-32,12,60,-10,-45,-88,30,53,34,-23,-3,74,65,102,39,25,-29,-43,117,127,38,-27,42,63,10,63,31,41,6,14,52,81,-8,24,59,-9,-41,53,55,-14,64,64,-9,-5,-38,40,11,-34,-50,42,23,-42,62,11,-37,-52,-52,29,5,14,-49,0,-25,39,31,-2,-52,-101,-80,15,52,62,113,9,7,-52,-74,87,-55,-6,-37,40,20,-1,-10,41,50,27,-65,127,-32,51,39,17,-61,-19,-64,38,52,-9,-99,24,-5,76,36,-23,-46,49,-52,54,20,-27,-49,-35,-2,26,-5,-32,-55,46,-46,91,71,36,-60,-106,15,79,8,25,-16,-30,11,80,-9,68,9,127,-2,13,19,8,-28,-12,41,99,8,80,7,32,-31,44,6,22,-5,30,37,100,44,50,3,-25,-48,44,0,-25,-15,43,21,68,83,74,-35,-11,-85,10,-10,-34,-7,38,36,28,54,97,-78,15,-63,17,2,-36,28,-14,-1,127,67,-3,-13,-109,51,-37,-6,10,72,38,25,109,62,16,-9,-82,75,-39,-10,5,77,-1,2,87,-19,38,8,-23,94,-33,-12,-22,44,-59,-16,24,-13,6,2,-27,80,7,-30,-28,48,-89,18,-22,2,-20,-50,-22,58,31,12,7,10,47,-1,88,-1,114,-59,105,-29,90,5,35,-32,-17,12,59,-36,80,-21,27,-45,44,-3,37,-30,-42,42,127,-18,8,51,29,0,13,-31,15,2,-14,14,119,-6,-18,36,36,-27,-8,-16,12,39,24,-12,64,16,-21,-59,15,-60,-53,13,-14,-52,-23,7,93,33,-33,-66,-58,92,117,12,8,-25,-21,2,89,-18,-22,11,-78,-6,39,2,37,17,19,-4,6,-15,52,35,-44,-17,-29,-14,37,33,91,65,28,-31,56,33,54,-32,-39,4,11,-23,-14,-1,64,61,58,-5,127,65,118,-57,7,-32,-19,3,65,0,103,-26,114,-8,-24,-45,22,-42,36,1,25,25,53,-26,101,-26,-9,15,-6,56,20,1,15,-34,-2,2,-7,-34,-39,52,-37,53,-7,-14,65,-28,-23,61,-61,-13,-46,55,-72,2,-21,-20,127,-70,-8,35,-34,-77,-30,-58,-27,-9,4,19,100,-61,56,-117,111,-6,109,-32,14,56,72,21,50,-91,26,-83,105,8,127,20,6,55,62,1,22,-46,-47,-100,-15,-2,58,-3,26,1,91,74,52,39,42,-59,-25,-54,-24,-65,76,-12,115,81,82,64,75,-20,44,-52,20,-93,40,24,2,30,57,14,36,2,97,-127,-46,-66,4,33,-12,7,56,8,-32,-9,65,-99,-49,3,3,12,5,-7,51,2,-73,-25,76,-79,0,6,6,3,1,-11,69,53,-101,-35,74,-88,2,-12,32,-37,-4,-12,75,78,-78,-26,-7,-100,-8,-21,3,24,122,-39,8,37,93,25,-38,15,16,-54,16,-33,127,-7,21,26,75,37,-29,35,24,-27,7,-5,93,-15,15,-17,40,50,-60,-35,-4,7,-4,30,74,-23,22,-80,62,57,-70,-71,20,13,0,46,80,-49,45,-112,12,32,-65,-71,14,-13,21,37,100,77,9,-65,-35,-127,-55,-45,55,2,26,35,72,66,-11,-19,-60,-127,-81,-77,9,3,24,41,64,44,-10,-54,-59,-108,-87,-97,35,-3,24,63,68,29,-16,-67,-67,-103,-74,-90,69,-12,20,52,85,23,9,-72,-52,-69,-51,-75,44,7,27,11,38,18,16,12,48,-62,123,-7,63,0,29,6,53,21,57,-22,45,-82,75,15,30,-5,39,-10,15,2,87,-58,22,-52,67,15,-8,-3,19,-9,-18,0,99,-55,24,-39,75,-11,-19,-2,-11,-8,-35,-4,67,-76,29,6,127,-28,-74,-5,61,26,58,-6,62,-7,63,25,117,1,28,-13,17,-22,24,16,11,41,-3,-11,83,3,-8,9,-25,14,7,41,-12,16,17,-14,-1,14,-24,31,-24,18,5,-13,33,-102,27,-5,-43,39,24,49,-16,28,41,-49,102,-127,-9,-7,-17,19,50,49,52,39,51,-65,118,-42,83,-60,62,41,127,27,15,19,40,3,69,-23,98,-14,29,27,68,9,-38,-25,61,26,87,42,88,27,25,-10,-9,32,-13,9,95,14,87,-13,-45,-37,5,60,-10,33,-6,34,97,6,110,-35,-75,-23,-65,15,104,6,-25,90,28,-20,29,-127,-64,34,-51,-45,38,5,-21,51,15,-8,13,-95,-44,42,-57,-58,20,16,-20,51,19,11,-2,-83,-23,1,-64,-56,14,37,-24,40,33,4,-1,-77,-11,32,-72,-35,-2,38,-50,41,40,-6,10,-83,22,65,-72,-57,-2,2,51,97,56,63,79,-15,-18,-33,-71,-26,4,15,1,102,91,35,45,1,9,-11,-16,-53,-7,21,-28,104,100,-20,-7,-4,10,-2,0,-66,-24,12,-41,105,127,-24,-33,-39,16,-26,14,-82,-8,-5,1,93,37,-55,-32,-10,42,5,51,-40,16,-2,-3,6,-6,7,127,-23,73,2,-3,-4,56,-9,12,-12,-11,-1,113,-52,43,14,-21,-24,14,-9,4,4,-24,0,104,-30,-19,-15,-15,-8,15,5,-7,33,-22,9,24,-14,-43,-51,-12,-7,11,4,8,52,-24,25,-14,-17,-65,-26,5,4,23,-25,-2,-11,8,43,39,-15,98,-111,-55,-21,55,-29,7,7,-17,34,28,-19,46,-63,29,-37,16,-16,0,71,7,16,-15,3,-40,-70,47,-49,44,-6,-7,71,39,2,-21,31,-88,-38,48,-68,43,1,1,48,15,53,-5,25,-64,14,-28,-127,31,-51,0,-4,78,44,65,109,42,-39,41,-9,37,-62,42,-44,55,54,44,27,0,48,34,-83,36,-37,5,-34,5,23,127,54,20,38,-1,-106,61,-26,-9,-26,11,-8,110,26,43,11,-9,-73,33,-17,0,7,57,-23,116,35,21,-29,12,-21,20,-26,45,-19,6,20,61,34,52,-14,40,28,68,-4,41,-8,3,9,37,53,24,-15,24,11,42,12,24,-14,12,14,37,45,30,-16,40,45,4,7,14,-19,17,29,72,51,-5,-6,8,41,20,19,-19,-55,-33,-5,94,108,-1,2,-17,40,127,36,11,34,17,73,62,59,-18,27,88,64,39,45,4,36,29,64,73,60,-26,75,63,42,36,34,21,46,37,98,91,91,-33,50,30,36,32,31,0,43,55,116,114,90,-62,72,2,35,20,17,6,33,68,127,76,63,-58,51,-34,24,-18,-58,6,-20,80,25,7,-55,65,-127,70,2,107,-41,19,6,76,3,-18,-9,49,-89,53,-5,77,-35,-1,-12,77,2,23,-9,17,-41,38,3,32,-35,-19,-6,88,-5,16,-27,71,-4,26,-23,26,-23,-15,3,66,13,49,-7,32,-11,11,-23,14,-1,-56,104,25,-22,93,-52,19,61,9,37,102,15,-70,18,21,-48,126,12,34,7,0,1,91,-14,-54,-38,52,-48,127,26,24,6,47,-46,42,-16,-30,-21,46,-14,98,39,11,-7,29,-47,35,-15,6,-9,-29,17,39,84,40,-60,0,-35,62,-28,59,19,98,-13,77,93,127,-67,59,-7,49,2,77,8,71,-22,0,41,48,-20,-4,-72,66,-14,-4,26,65,-32,37,30,-5,-31,-57,-83,40,-22,-58,48,86,4,65,31,-25,-82,11,-75,-32,-43,-6,-25,83,47,87,-2,-23,-97,45,-21,-9,13,33,3,60,-44,-22,5,35,-71,114,-75,-47,-39,12,-2,104,-14,-32,50,98,-42,127,-21,-36,-20,10,-4,93,13,-23,59,69,-60,71,32,-37,7,3,9,65,-1,-4,46,7,-71,32,-4,-73,2,-20,19,73,2,15,35,9,-74,28,-36,-71,-32,5,-54,-87,-9,26,-12,-69,-114,33,-41,95,-24,41,-40,-90,-40,11,-7,-52,-90,-2,-39,18,1,34,19,18,-13,-2,-32,10,-60,-41,54,-17,-57,-28,45,127,105,103,61,60,21,-42,75,27,11,23,44,-10,28,116,68,-14,72,-25,46,4,-59,51,24,46,20,79,24,79,-103,80,-75,31,-57,27,-19,75,28,57,50,21,-51,19,26,86,5,30,-47,92,21,80,37,-20,-21,0,36,30,30,10,-50,53,-29,78,38,5,37,-94,-8,-18,13,19,-36,37,-39,126,-11,56,25,-127,-40,-24,-22,10,84,11,24,23,-81,127,-36,98,40,-9,-23,34,64,27,65,60,-81,109,-38,97,-3,1,-7,20,-3,-8,22,111,-67,82,-11,32,-11,-39,-8,-13,-56,9,-18,54,-54,31,42,8,4,-39,-16,-60,-86,4,-44,-38,22,29,21,38,-24,-51,-22,27,-47,1,30,119,-63,4,-56,14,17,57,-23,-27,-71,43,53,110,-45,-12,-103,109,-3,27,-32,-21,-86,48,51,75,-51,-16,-127,114,20,42,-27,1,-36,38,57,87,1,32,-91,89,28,62,5,3,-23,41,57,84,-3,111,-67,59,71,82,15,-3,16,-4,84,-13,48,-45,-23,-83,-40,-20,26,23,49,9,54,-19,20,-13,-4,-36,-88,1,22,20,36,20,32,18,-21,45,4,-14,-80,42,6,8,-2,33,-23,80,-49,92,19,52,1,70,-2,-4,-24,42,-73,127,-53,66,-31,78,14,44,-32,9,40,80,-12,117,5,42,-77,91,15,27,-23,5,10,19,-23,92,6,-13,-115,109,32,29,-24,18,30,31,-12,84,50,-17,-127,67,55,-11,-16,22,31,18,-9,52,33,-36,-125,80,51,-46,-6,-2,21,37,-1,31,60,-17,-126,74,25,-59,-9,34,-6,18,16,76,43,39,-24,3,52,99,8,35,-7,0,4,38,37,30,-12,5,28,51,16,20,-14,-5,6,22,41,22,-4,6,58,25,11,22,-15,5,19,44,56,-2,10,-12,45,49,3,1,-45,-20,-12,66,93,9,2,-32,43,127,11,-6,21,-11,-59,54,-44,-7,24,-6,-9,62,-11,-4,2,-1,-36,73,-53,-19,59,2,-58,49,-16,-2,1,10,4,74,-59,-6,109,20,-51,84,-8,5,13,24,33,83,-15,-32,127,18,-66,79,-8,-6,18,27,51,60,-15,-42,100,-1,-39,70,18,-117,-19,4,37,-54,-65,104,-80,-80,-57,11,25,-91,-60,46,-6,21,-127,75,-98,-16,26,-9,4,6,14,30,-33,95,-19,27,-61,91,32,-22,-14,96,79,-14,1,126,1,-29,3,127,-6,-4,-29,47,86,10,77,53,-48,-11,39,31,-22,48,52,22,72,11,-69,39,-57,42,5,3,127,22,47,-19,44,56,-45,30,-10,50,81,-68,121,-1,51,-35,10,53,-28,37,39,69,93,-82,84,-35,51,-15,55,50,-11,66,-48,22,87,-68,104,-35,10,15,78,87,60,83,-42,28,110,-73,27,-3,-13,12,52,0,-60,51,10,127,-66,-5,46,-65,-22,20,51,-5,-50,13,-39,112,-70,35,29,-63,-20,16,72,5,-38,8,-56,113,-40,52,43,-33,1,5,89,10,-40,13,-41,91,-46,69,46,-28,9,-23,90,16,-39,26,-31,101,-38,60,23,-49,-27,28,61,26,-18,13,35,52,-7,-61,-76,31,-18,1,43,38,14,31,22,115,0,-40,-3,-9,5,-4,8,11,36,42,36,42,21,2,-20,-88,-12,-40,-26,-4,18,127,56,41,-49,29,-54,-23,-38,-53,-53,44,55,117,36,51,-54,28,-85,-29,-35,40,27,46,27,58,-39,88,-55,-62,-2,-69,-33,-14,2,25,10,77,-41,88,-99,-47,-29,-92,-40,-25,-20,29,15,80,-23,111,-109,-32,-33,-48,-47,-21,-20,25,6,34,-46,84,-104,-27,-38,-26,-43,-12,-5,0,10,-10,-65,31,-127,-37,27,-10,-60,2,-52,18,-39,55,34,40,15,-6,-35,-54,6,20,-41,23,35,47,-16,61,-81,23,-52,-3,31,40,9,31,47,12,-47,-2,-83,4,-48,97,32,12,33,32,18,27,-18,2,-12,-23,-18,127,-2,-20,33,58,-4,105,38,-6,44,50,36,99,8,-22,-40,127,-36,5,19,-17,60,-41,-35,-44,-17,-28,-10,64,-48,28,-96,47,16,-69,19,-50,7,-2,29,-1,-21,89,-41,67,-44,-57,13,-46,14,26,85,-29,-4,38,-18,47,-7,42,3,7,5,42,93,10,43,26,49,23,-11,51,6,67,-35,-25,-41,-26,8,68,-61,2,30,68,-7,-31,-9,-12,-30,-8,16,19,-70,-9,-2,88,-38,-28,-6,10,-28,3,29,3,-73,-24,21,97,-74,2,-29,16,-8,-2,54,6,-69,-15,3,86,-73,-4,-55,41,-7,10,31,18,-32,-18,25,127,-93,-26,-1,14,51,36,31,108,63,44,-21,-61,-54,14,19,11,27,48,62,120,87,-11,-20,-92,-85,32,11,9,32,26,107,127,107,-38,-33,-104,-88,48,3,-20,51,3,85,71,73,-11,-13,-45,-34,64,14,-63,16,15,74,30,-6,8,-20,-4,8,29,61,90,63,49,-3,64,64,83,-34,82,-8,-31,44,50,63,49,-3,66,34,19,-49,59,7,-34,33,42,63,42,-4,61,22,3,-32,47,31,-48,37,40,57,28,9,60,16,-1,-72,45,3,-73,65,46,27,-2,29,19,28,26,-127,91,-30,-111,14,31,53,23,18,68,43,33,19,-10,-21,2,2,5,-13,-2,15,49,-15,20,10,23,-13,20,-5,1,-23,-13,2,29,-12,60,10,31,14,60,-6,-11,-20,28,1,37,0,102,28,106,69,56,-15,-30,34,79,-22,45,-17,44,20,127,47,73,-7,11,32,34,25,95,-20,70,-16,91,101,73,9,20,10,-10,10,71,-73,110,73,127,88,-36,25,47,-22,-16,1,52,-44,117,99,80,93,-106,16,7,-30,36,-47,53,-67,21,123,79,20,-96,-16,-4,66,64,-67,1,13,-11,57,94,-61,-99,-1,9,-16,-41,-44,78,-16,41,76,104,123,66,-1,-20,-19,-51,-17,75,31,52,93,110,100,55,-1,-22,8,-58,-5,47,55,28,113,125,85,33,-4,-19,10,-52,-11,41,7,29,86,127,101,-18,-32,-32,24,-18,-45,63,-11,54,87,97,100,-28,-6,22,17,9,29,54,-2,127,-35,-24,-17,58,9,2,41,15,-22,31,17,76,-12,-25,-69,81,-6,-24,56,20,-9,45,42,17,-45,-31,-101,82,-2,-12,43,14,-6,40,42,-6,-56,-19,-78,49,-3,7,-63,33,74,40,-44,3,-64,-9,-37,28,24,-59,-72,72,26,27,-78,-33,-43,-28,-22,99,34,-14,-6,32,3,31,-11,-31,29,-11,-19,-28,-20,45,55,91,23,-11,55,-1,-29,47,-3,-63,-3,40,12,9,-21,74,74,-24,-79,89,32,36,9,5,-27,-67,-50,18,55,-40,-62,76,42,127,26,17,-64,61,-40,93,20,24,-12,48,58,78,-12,30,-7,40,6,70,48,21,-12,75,14,59,-30,0,-2,42,53,47,27,25,-54,110,1,47,-12,-9,31,11,67,49,-21,35,-76,127,-37,50,43,-32,48,-33,-21,29,13,68,-67,119,-47,71,49,-5,-36,30,9,106,30,-80,52,-69,60,7,32,24,-9,44,30,106,46,-62,72,-84,23,-16,35,9,-8,49,37,101,35,-53,69,-104,14,-28,32,11,48,53,52,93,-22,-53,54,-107,33,-25,31,15,33,32,31,123,-28,-64,26,-127,66,33,-82,1,-30,48,27,66,-82,-19,-7,61,-42,48,21,11,38,-24,11,60,12,90,24,76,-53,58,37,32,113,-47,6,23,64,1,-71,127,-12,63,-1,28,70,-6,-20,61,16,39,-32,-5,34,48,-76,-21,-54,54,-11,86,-18,17,-80,-24,1,65,-78,-8,-24,35,54,59,-30,-19,-91,24,29,37,-80,-12,-39,26,50,81,-83,10,-109,68,26,44,-51,-9,-33,33,101,79,-93,-20,-99,80,14,44,-54,-41,23,44,65,71,-38,-38,-35,53,3,69,-62,-32,42,66,62,127,-10,-16,14,92,-16,93,-55,-26,55,-23,-18,45,18,-88,-44,19,21,16,-63,15,61,-20,-28,57,-53,-63,-16,2,-3,-21,-42,19,71,-5,-46,31,-127,-40,19,-25,-10,-8,-57,8,54,-16,-35,72,-83,-2,53,-27,-12,-35,29,-19,35,-27,-26,63,-65,20,60,-25,-10,-77,-15,-32,10,70,92,17,-13,35,16,-34,82,-52,-21,-39,0,55,74,42,13,1,-41,-77,88,-65,-35,-18,14,61,41,49,8,1,-46,-77,40,-57,-28,22,33,16,20,46,-17,53,-88,-36,27,-27,-4,42,22,26,10,63,-40,68,-127,-13,17,6,17,24,8,50,-113,87,54,29,-69,-30,91,14,-23,6,-8,61,-31,81,61,-35,-13,-54,71,-19,-36,-11,-14,42,56,50,29,-9,-39,21,-52,72,-40,22,-24,23,75,24,8,35,24,22,-127,71,45,-11,19,-3,-2,14,-50,0,49,43,-97,54,23,-16,24,34,-45,96,29,98,-127,-32,-33,16,8,0,-26,87,-11,90,-32,99,-86,-34,-67,-5,-81,22,-9,73,75,51,-75,6,6,-23,-112,58,-53,28,28,-18,34,-17,19,-33,49,-29,-100,63,-22,25,30,39,-23,26,70,-46,-53,-7,-11,75,13,25,18,53,17,8,40,-8,-31,-1,-33,16,10,-19,3,55,49,16,39,-1,-18,8,-18,38,-13,-33,21,34,60,37,54,20,5,24,1,64,-13,-21,-12,0,41,35,37,22,1,52,23,71,-19,13,-42,0,16,52,-16,127,28,3,6,-6,-4,-26,16,69,4,97,-25,61,-22,127,54,58,16,1,-21,40,-19,55,-67,65,-33,108,29,17,9,7,-7,-9,-12,33,-63,59,-35,86,53,-12,-6,26,26,-15,-14,-4,-48,62,6,38,15,-42,-3,32,38,-16,2,25,-55,-18,-16,-53,-93,-93,33,-103,-59,-4,42,90,-97,-45,-48,-58,-85,23,28,-14,15,-4,-23,87,-101,-25,-46,47,-80,-22,-39,46,66,18,-9,2,-21,41,-40,127,-30,4,-30,57,49,90,41,21,86,111,-21,46,-49,-12,16,15,14,50,18,0,13,22,-57,73,12,22,-22,12,38,-4,64,10,78,101,-20,27,3,99,6,13,6,-8,30,71,13,66,-26,52,-3,37,-19,33,-1,-1,-13,127,2,17,-33,23,-9,-20,5,4,-15,11,-20,65,-78,-10,-21,89,-46,-59,26,-19,25,16,-60,-12,-127,-20,3,57,-9,-17,26,-58,-103,3,28,20,-31,34,-35,-22,18,-2,31,1,-43,-28,9,102,-25,-21,27,37,2,-23,13,51,40,13,-8,38,-24,5,-11,27,21,2,-57,50,112,69,46,39,35,94,23,90,-32,72,-24,13,59,40,48,35,17,24,-22,127,35,51,-40,25,62,23,30,41,39,21,18,-7,35,88,-16,32,52,8,-14,0,84,95,61,-11,12,93,-6,46,23,9,-35,-3,69,118,66,-10,-8,46,3,15,9,11,-23,17,50,127,40,-27,-15,28,2,-5,1,32,-2,35,-6,83,-13,12,-16,39,-12,-19,-40,45,-43,2,-41,34,-25,67,-30,13,-23,0,-15,49,-47,28,-65,17,14,37,-47,37,-13,1,20,5,-23,60,-45,-19,11,67,-75,13,-3,-5,35,-16,18,46,30,13,2,114,-81,42,-16,29,24,-14,47,24,56,36,-5,127,-34,45,17,1,8,-50,99,4,-26,-3,35,3,27,7,21,-8,32,-36,58,-18,17,69,-9,7,-19,16,8,-2,38,16,-5,21,2,101,-22,3,-11,39,-4,14,-15,46,-33,56,-25,127,-29,23,-3,41,-3,10,-53,56,-26,98,-41,66,-26,55,4,43,21,-41,-2,116,-47,82,-22,57,-8,91,15,38,-9,-40,-18,88,3,70,23,35,-67,39,-18,24,-40,1,12,24,23,19,13,62,-105,36,27,-7,-20,33,34,-46,55,-15,-32,127,-103,37,58,40,-5,59,76,-94,76,-15,12,79,-103,52,33,59,-22,9,73,-37,56,37,-76,-38,-87,17,2,51,-25,-2,75,-3,-11,56,-118,3,-60,43,49,98,-2,-7,-35,2,-19,103,-110,29,-81,46,64,107,22,10,-89,-12,58,127,-90,26,-117,18,-7,68,41,43,-51,-37,54,110,-43,30,-77,-18,-67,41,-87,13,-28,9,25,16,33,12,99,-20,94,122,-71,-3,-28,-6,34,9,37,16,86,-10,73,127,-34,-17,-33,-11,14,0,31,-6,39,4,77,93,-8,-19,-51,-9,-7,13,4,-36,-21,-5,102,64,22,-23,-39,3,2,37,-50,-66,-74,-6,108,31,-1,22,-20,94,-21,71,37,37,-18,86,-53,77,12,16,-7,40,2,47,43,23,-2,35,-52,39,14,-15,7,45,25,18,39,26,4,8,-56,18,11,-3,-1,55,16,39,20,-26,-59,12,-112,-13,0,12,-16,72,-5,53,50,-48,-58,61,-127,23,3,33,-28,22,127,126,-9,44,43,-40,-12,27,21,54,0,34,116,114,-37,26,54,-19,-25,-54,12,52,14,15,54,64,-25,73,95,-5,-39,-60,-32,24,100,-8,-57,46,28,-23,52,-3,-33,-64,-56,-16,88,13,-81,8,70,46,-39,17,-65,-94,-15,25,1,-6,17,66,37,16,11,-25,3,98,-10,53,-16,8,-8,61,14,-39,22,-56,-42,38,0,43,-7,18,-11,37,10,-21,22,-54,-46,22,19,28,3,47,15,50,11,20,23,-39,-33,50,-10,1,-31,22,34,65,45,45,14,25,11,127,-15,-9,20,42,4,-1,79,18,-37,22,-27,14,-21,6,31,-15,38,40,-3,37,-57,27,-36,50,4,30,43,-55,21,62,-48,33,-85,68,-86,67,16,31,36,-27,25,44,-28,-5,-77,34,-126,30,1,44,20,54,9,54,12,-3,-32,18,-127,11,-76,28,32,35,6,83,70,53,-53,-89,36,82,-45,-33,-21,-8,32,126,75,79,1,-70,23,16,4,-11,-68,50,-11,56,46,58,50,25,47,-67,29,3,-58,23,-46,70,4,72,43,35,68,-36,-2,42,17,28,-21,127,-79,75,58,55,35,13,-41,-48,97,6,-10,96,48,2,20,23,53,127,-27,-33,60,-6,-24,96,54,15,7,-25,45,103,-22,-12,-1,-1,7,92,66,-3,-11,-1,-9,92,-19,-6,-40,37,11,94,72,-26,-35,-16,-56,90,-45,-7,-25,48,12,119,84,33,-54,-10,-49,78,-1,-12,45,69,29,37,-76,47,23,50,7,-12,-47,-2,43,16,-10,77,1,28,-2,54,16,3,-37,11,51,15,-43,26,-21,5,-5,-27,53,20,29,-7,-20,18,2,-8,-13,-26,2,-113,74,32,63,6,-74,20,65,-23,-29,-50,-11,-127,42,53,-3,-3,-21,41,115,92,45,-6,-74,96,-97,-68,9,25,1,19,116,88,25,-15,-5,46,-89,-67,-22,11,3,27,124,105,25,-9,-22,25,-116,-38,-28,17,5,24,75,105,-4,-8,-32,49,-113,-21,-60,-23,-5,30,39,100,-30,-14,-51,76,-127,-10,-34,19,34,51,7,106,24,127,-76,74,-24,79,-11,0,26,14,4,80,-5,16,-101,43,-94,33,-24,-14,23,-5,12,80,10,32,-45,33,-36,34,-26,-31,41,13,-11,66,23,22,-65,36,-44,13,-24,3,3,37,53,49,18,66,-106,105,-24,-24,-42,-40,-11,21,64,92,-119,34,-60,-85,38,55,-53,-41,35,61,-50,64,-127,67,20,-22,24,-10,-9,8,56,63,-40,124,-93,112,5,31,-66,19,-3,17,24,92,38,29,-97,51,-57,32,-107,34,9,30,-46,106,31,81,3,30,-81,93,-108,50,-10,-2,-27,30,0,95,51,-6,-66,72,-5,45,-30,52,21,-54,34,107,-63,-11,-10,65,-30,6,-50,72,31,-67,66,127,-95,6,47,-31,-38,-38,-28,60,9,26,49,53,-63,75,65,-39,24,-62,14,30,21,70,-3,63,11,46,-11,-16,-9,-28,14,101,24,-27,54,94,14,10,-35,-76,2,-32,-22,-32,126,66,-59,69,8,77,23,-27,26,47,-20,-108,28,100,-85,86,-94,124,19,28,32,96,21,-48,-35,44,37,91,-127,6,-77,17,-93,2,39,39,-63,-53,103,14,-14,32,-75,-63,-89,-76,3,11,-107,31,-117,13,124,45,78,-18,-25,58,6,-13,-20,-2,-18,75,75,42,7,26,-55,-7,5,22,45,14,28,30,-23,-19,-36,54,-13,1,-2,14,58,0,23,29,-46,21,-20,-5,11,67,-25,8,6,56,90,127,-126,-7,-77,-7,38,65,-50,-13,-58,-10,-39,59,29,-12,35,40,-25,9,-3,14,-19,-21,-15,32,-21,-1,4,-8,-16,-6,20,23,47,3,-8,-10,-34,36,-36,-11,-7,-16,11,-2,20,46,33,52,45,16,14,-13,31,13,-5,-39,-15,40,25,127,47,-21,39,-22,25,-42,-14,20,-9,20,50,127,16,12,12,11,-2,104,-14,41,3,10,2,99,44,2,-23,4,-29,45,-9,30,-12,11,-4,93,22,20,-31,-9,-26,55,1,27,-12,15,14,80,1,24,-15,-11,-16,53,-2,10,-43,9,54,109,25,35,-8,2,41,111,-12,28,-5,2,3,103,-75,18,68,127,75,-2,28,9,-5,22,13,58,-20,19,81,92,84,-28,30,11,-20,29,12,44,76,36,86,30,36,-41,19,-2,-29,69,-8,92,95,27,122,12,1,-42,-2,-4,1,115,-11,103,54,23,87,31,-26,-35,-23,-7,-127,22,-18,18,21,14,18,21,-12,-11,-10,-3,-64,0,-6,36,12,37,-21,52,-8,-31,25,18,6,-1,30,34,-76,36,-42,16,-23,33,26,22,76,40,52,73,-23,40,9,-1,10,111,-36,-12,78,59,57,101,3,24,-30,50,46,99,-45,-53,-9,16,69,73,-58,10,-65,42,-23,13,-23,-21,3,-9,70,60,-44,24,-40,47,-30,-13,-7,-4,44,-23,65,90,-44,31,-34,28,-46,-13,-11,-18,73,-11,49,102,-32,42,-19,31,-58,-13,-30,-37,55,-2,16,127,-38,49,-41,33,-60,-1,-1,38,-56,-42,54,127,-24,78,-21,75,-11,68,5,29,-49,-26,39,116,-8,22,-16,55,-16,39,-9,15,19,6,9,110,56,-24,-7,6,-47,34,-25,-8,26,28,-11,87,80,-5,-78,-6,-68,6,-11,-14,-3,13,28,36,40,66,-89,33,-29,16,39,-13,-57,-38,-82,38,-33,21,23,-6,14,91,0,30,-60,-11,-39,74,-13,18,25,-28,-33,6,-14,50,-44,-18,-46,74,-18,50,-23,8,-35,-25,-31,22,60,68,50,46,-40,62,-16,33,23,53,-13,8,36,127,86,83,4,89,-41,69,75,105,3,37,-1,-16,28,24,-14,-59,49,50,94,47,8,-1,-22,-18,61,12,28,-42,2,38,15,84,4,-16,-51,-21,63,28,86,-38,-56,-19,-88,84,-12,-29,-49,31,57,56,127,-16,-72,-48,-99,83,-29,-46,-11,45,21,83,71,-18,-74,-35,-47,31,17,26,-51,67,38,20,-98,-26,-112,-19,-9,17,14,19,21,55,53,102,-68,22,-84,33,10,52,5,14,37,73,-15,58,-53,-4,-86,29,23,105,-8,13,52,4,-42,33,-40,-34,-45,7,8,127,-59,10,-18,9,-11,55,55,-5,-17,37,37,69,15,45,44,21,19,102,2,21,-12,-14,-25,-5,24,-17,10,2,-9,57,-29,31,-1,-5,15,60,24,-34,-2,5,-15,75,-41,70,13,41,45,110,9,-31,23,53,-31,98,-7,127,33,86,78,120,-14,-31,27,78,-16,88,-26,118,14,96,30,83,9,21,-81,73,-82,31,61,69,104,32,-25,80,25,-6,-42,17,-35,49,54,107,43,10,-25,21,25,33,48,-21,-17,46,-12,12,-16,-9,-40,2,4,19,93,-12,-5,12,-35,29,-39,-44,2,47,-45,-18,103,11,127,68,-67,-9,-52,-25,58,87,-24,7,17,24,18,64,4,16,55,66,54,1,13,-12,-2,17,-4,76,20,44,77,36,98,-52,22,3,-31,46,-21,71,56,58,74,-19,93,-78,24,7,-20,39,-20,94,46,80,64,-18,89,